encog,BasicNetwork,java,3.0.0,1,1468543896403
[BASIC]
[BASIC:PARAMS]
[BASIC:NETWORK]
beginTraining=0
connectionLimit=0
contextTargetOffset=0,0,0
contextTargetSize=0,0,0
endTraining=2
hasContext=f
inputCount=30
layerCounts=1,51,31
layerFeedCounts=1,50,30
layerContextCount=0,0,0
layerIndex=0,1,52
output=0,0,0,0,0,0,0,0,0,0,0,0,0,0,0,0,0,0,0,0,0,0,0,0,0,0,0,0,0,0,0,0,0,0,0,0,0,0,0,0,0,0,0,0,0,0,0,0,0,0,0,1,0,0,0,0,0,0,0,0,0,0,0,0,0,0,0,0,0,0,0,0,0,0,0,0,0,0,0,0,0,0,1
outputCount=1
weightIndex=0,51,1601
weights=-0.3201385289877335,-0.10922479475795274,0.15523053892462566,-0.09746016050996414,-0.021598612961095425,0.19864941306123057,-0.25981727912361574,0.46449686956373687,-0.06564280953073681,0.10264254681941735,0.15334938955466834,0.1435462808922283,-0.030910772014611777,0.14273221928820873,-0.05951679194127819,0.09948114791082495,-0.22435945783096042,-0.30183155914923915,0.28557819466762757,-0.21962401719024607,-0.24363744163413487,-0.054941544320279624,-0.20257431188715058,0.17173790686852086,0.23750937152802035,0.033718094545684446,-0.2377100349132566,-0.2713768209666359,-0.3515562100831864,-0.2999072251931607,0.09040778887433631,0.12424901330516311,0.18446198533474625,-0.23604232524721835,-0.32560296918216175,0.14789152434983646,-0.36827370470300225,0.2626444111437347,-0.25921392921452546,-0.26928659718024334,-0.11617667428393051,0.015894338536288532,0.0795061915014544,-0.022818661710468254,0.10868994349086739,-0.2681687332105093,-0.45674782529224184,-0.042633821099297614,-0.04665980110369632,-0.2490378324906674,-0.24721405127430107,-0.0815147654108287,-0.07553530121617633,-0.16412313353021554,-0.1657992330264792,0.16060860507061459,-0.09730528907162724,0.17642935874953344,0.009661986162169756,0.22132988142563922,0.10201701647286887,-0.14462588378271055,0.19424096933573173,-0.1841636807582861,-0.2423357608118866,0.15513548700242327,-0.06340494919262053,-0.06973718911143725,-0.2214312626474031,-0.1042599264520593,-0.044169622997844084,0.07083153861907406,-0.03318153564840271,-0.031885165482472645,0.14647928204161564,-0.004686863189844776,-0.0432749355808201,-0.28717586777365184,-0.26841978207989925,-0.22242258550733088,-0.010259415850994064,0.05123191694957264,0.05695692828668004,0.07690949283234831,-0.16222070607464584,0.03074926695896881,-0.20061930186413662,0.12083575710540964,0.18215002129737978,0.11961055372589534,0.18410694588100882,-0.16345413221042826,-0.21500389942815695,0.05252972269628578,0.20851190705780978,-0.003701577834798101,-0.006663583467114429,-0.014225044081844981,0.12952259835035299,0.2385869045660732,-0.05508416488535523,0.1758777083727216,0.05131154717249534,-0.21983815641923507,-0.2382317766861968,-0.15111079709420766,-0.2037212490096103,0.13163744559994772,-0.013181469970988988,-0.10086481636780946,-0.1970487409934721,0.04403567086349058,-0.008171736347639348,0.16321695903942432,0.23846437246671345,-0.08236406174235344,0.1757947522446309,0.24586569784481074,-0.014759570814144814,-0.0374902828415554,0.1499702738210338,-0.09929311547782241,0.12984201322750402,0.20623811198201866,0.09851735785301306,-0.0928356680668739,0.17407943832855913,-0.050730121712770006,0.21311496855324094,0.13927343799344585,-0.16703927758023107,0.010688689443797122,-0.021592113440354686,-0.13139924674503786,0.04775231490272148,0.15708861463989648,-0.1848495314234015,0.06309935194809689,0.050580363558517485,0.0062106904299096275,0.2740272781207772,0.19904676107690872,-0.15563018758889452,-0.04812704698545637,0.20846914143255035,-0.2431240995219996,0.17710180919215396,0.14879793044475867,-0.1312065751842198,-0.042251060036330446,-0.04554626486661016,0.22832907323284957,0.19759580005875885,-0.18576325250571404,-0.0027005760360159234,-0.127585942718177,-0.08535900961691996,0.02214000146935383,-0.13107527690354806,0.16038872563831877,0.016890907535136883,0.046382010599990545,-0.20489190119571848,0.21874723158362186,-0.1537658824045118,0.1619010627393274,-0.1270615554564544,0.0009762546784632864,0.11754022938575981,-0.22721641851876564,-0.12915082199993208,-0.01757704658789155,0.009376796781324396,-0.14228725954002994,0.07163398520349244,-0.27507118341801445,0.11444461996543337,-0.07284398134157051,-0.15392395952394966,-0.023595254703960768,-0.05855181966030388,0.16438807167018304,0.17451297615330152,-0.07783079392136664,0.12035000507591036,-0.05612872609489082,-0.05950599657661098,0.017239413540808546,0.06492044258495382,0.07118652855795439,0.040514716096713914,0.2119806171526851,0.20890068414488888,0.21518487008882944,0.10800251544055108,-0.17010278199745846,-0.21932083163329294,-0.07338340209790466,0.22355634241473413,0.05494435169382928,0.196458796738943,0.15943676747212002,-0.18326375909522985,0.030419659152589273,-0.02183076361133298,-0.15741161615645627,0.0366141619982717,0.07300375835585675,-0.21755450326406153,-0.11719639114272357,0.2246483523838942,0.16655538244353071,0.07715299419774906,-0.004772004224809571,0.202641265383529,0.20916368283444045,0.23014351500076954,-0.09893293443897412,0.2076702466937333,0.1068226931171064,0.16897818000802897,0.18246150265373076,0.0873607683118517,0.24378803922957853,-0.12536638710450748,0.15920022635787742,-0.001846110818553438,0.008950288071495446,-0.1266288985895893,0.1641396955837442,0.11745358698382746,-0.10913443081367304,0.06219252838225718,0.06585964885292145,0.12340893015734064,0.1315920963168627,-0.12446496991741261,0.12336644790732199,0.00102311557783074,0.14014774274797745,-0.04577229927027498,0.041359163899143174,-0.09570873608763311,0.18413603417500762,-0.2165889998332757,-0.17378482762912154,0.02635744608750797,-0.014516897479963004,-0.1525443935498053,-0.1448594595474664,-0.2465954950369332,-0.2694644955201613,0.19190237067887214,0.14604433786611407,0.14052786870795012,-0.2325594407673508,-0.02104532732723672,0.06901200926688732,-0.2565060191997116,-0.08693020947958374,-0.13148917536137628,-0.09444912595504489,-0.13790945301864962,0.02402039851266542,-0.16790149723514047,0.031117963675192234,0.2085131414245394,-0.003240173272743678,0.23359439596837434,0.25791130371088766,0.07484714344324174,-0.11857844053571567,0.2111691032192747,-0.04868790107313568,-0.17128580148930397,0.05731447663536984,0.207194952917481,-0.0962692071016005,0.11458566580704177,-0.11906058063179321,-0.11744958611731622,0.23370134499969877,-0.13407753771041625,-0.13412008015902105,0.1559939333739267,-0.04098267918986092,-0.0849368276079385,0.18204737659688724,0.202349660765286,0.12373865579079453,0.2053420125203265,0.25349919538622545,0.12133091098432518,0.02368478819142455,0.26879794381508587,0.07637561534835102,-0.04864711554797034,0.025530649868581022,0.005275541458125027,0.13971345110213923,-0.008857896000976997,-0.02465472751031716,-0.22209627110239824,0.19283294845636212,0.22963545210480282,0.00029972827475588436,-0.09467814216597371,-0.2318630247527128,-0.02806267947914853,-0.11736920146188994,0.08597537159282241,0.23844495922710096,-0.0015296160861238367,-0.14646032209489107,-0.11143558369125044,-0.16289551674098252,0.2109296907930733,-0.21384515313960167,0.19266643045116194,-0.06023483201450637,-0.11804373054713758,0.15762662650259668,-0.121409351004372,-0.011444938906144835,-0.013533913423696878,-0.09968796958375416,-0.13213494803321044,-0.04941477954727244,-0.21286105845763678,0.09918881215246438,-0.08210894470646826,0.17393941365241766,-0.08628085987821967,-0.04130974897837781,0.11027476296216852,-0.09725890575339834,0.0007041689380343172,-0.019404643051812095,0.039195963488590925,-0.1298482800245462,-0.18696929589306313,0.2257992242229781,-0.025153488981817778,-0.1293972445278117,0.012536422606521812,0.08303914080320274,-0.23142749165937196,0.19902397158331434,-0.09517556119359381,-0.22650993762947214,0.18660146835709604,-0.011897597425169503,-0.16925830679737555,-0.1542353286909962,0.2448804593299865,-0.023096821893196867,0.18046482227203922,0.14603236929330554,0.2338317939767597,0.015578189528415973,0.10803102929201065,0.14295074285872042,-0.15264157031514855,0.0809596560733157,0.07368884143514766,0.050717949943072875,0.1134979442988461,0.1635130012347204,-0.17745662072147822,0.21442871663670995,0.16365222682859507,0.15626896872473417,0.2025475430036021,0.09606968793623806,0.16755540012406395,-0.18661080183967424,-0.13604450157081932,0.17289375209685848,0.08864635375296186,0.14720148109283684,-0.1744743935540021,0.16613463696308667,-0.04615674164706371,-0.1149762609306099,0.0446074464324188,0.1855914016790369,0.009611360368717679,-0.06496577336655028,-0.05927679091718846,0.14978631483238727,0.213325937904486,0.20664322323678355,-0.2133306133817766,0.14794611636437868,0.15180380508085178,-0.1674250804774552,0.20758269606255444,-0.22553039957700083,0.0031749173144695673,-0.0814178313942169,-0.15539677483465583,0.15938503529683526,0.12022512711885977,-0.21856936913448868,0.059411399259303554,0.25411931820270345,0.04116864609253339,0.14746397545296216,0.05814412586236454,-0.06894011405193595,0.07695063369285782,-0.23477099303227716,0.0678292252422892,0.02795527048100371,0.06819628299157494,0.13138231989208918,-0.22138518506603846,-0.02604004449777722,0.05178329327291969,0.2541350778955617,0.011520005115232637,0.037807759488961125,-0.10869533515835816,0.02741774500345136,-0.08958014351102282,0.11283276387613118,-0.097145764190022,-0.1561958384128757,-0.08301407290587949,-0.03648120400904519,-0.2057619806965427,0.14372988682859958,0.12478359135598714,0.1636444345775369,-0.09630252415020189,-0.005381252352272877,-0.0026921936129472392,-0.1398453416197852,-0.09290127545266577,-0.15095155557774814,0.021583198974675727,0.2275641775076462,0.2297899163456489,0.11994703297517118,0.211556428146458,0.06374452611811837,-0.25031022965373306,0.05348316686811713,-0.13366751792717343,-0.04833920522278429,0.028971054541842626,0.1849005925780177,-0.20615875467930042,0.25203370235422234,-0.08608009263232229,0.006003380418707149,0.2535465826824628,0.1543340921205138,0.07578845783516532,-0.2469433603562335,0.02076911796036578,-0.1488309670239214,-0.07142185410082744,0.16462013216980412,0.2703114718699727,0.06306115882846985,-0.048815536413223025,0.12287419906836936,-0.05171858449530395,0.055498504622627266,-0.1574814616700433,-0.050821414573948155,0.22976526615133405,0.22035312048667055,0.07852119562896971,0.018322917690366626,0.11844224538359507,-0.1320198845296464,0.04033879337570062,-0.2125830946428766,-0.022442237796816217,-0.24322733733697702,0.20472427608423602,0.08423155718926412,0.10501661096742575,-0.22760944178125794,0.04847037570968017,-0.26368131814024137,0.1502769157584718,0.13603042103161533,0.16655775321025063,0.051077631844843416,0.015832022860876514,0.026173271176706474,-0.0858961765454461,-0.0274295986806137,-0.0357336247034888,0.16212020853918557,0.19355017741542405,0.20316970355205746,0.11415840760644957,0.07508654643790086,0.11875797486755071,0.000683194555697239,-0.1808151910849418,0.17055078924729833,0.16232165236025742,0.18058909910622079,-0.13108862489296283,-0.1164621944851655,-0.1884076395513761,-0.07838700853666689,-0.22046706833450377,0.022184125176383896,0.09966253250640139,0.1747504937139607,0.23237879532652725,0.10590792520795228,0.186940070677362,0.15301486731856026,0.077357363856403,-0.20194337112128277,-0.20945893996959694,0.14847100576297434,-0.159292569164307,0.00822225953960597,-0.11470121717814301,-0.2083250468258674,-0.1399762015422983,-0.16593422881887532,-0.05612078728920256,-0.20593514605871863,-0.20236901223608916,0.016041087347732557,0.22906973033964537,0.11998595247054314,-0.19702056741068155,-0.1169722068246671,0.09567097019666937,0.08342007377104112,0.015900173037955666,0.11140981925456188,-0.0841139913623888,-0.03656491046402192,-0.05169055232088452,0.08016477314751871,-0.15162901817191246,-0.09356386686438206,0.06292250018044955,0.007282981001825105,0.20888815701844257,0.09784787703343834,0.0814520774076441,-0.25330122207646427,-0.2047428298618866,0.07366358371262155,0.03890642800754889,-0.19762759142186304,0.21257037743529547,-0.021334933320617245,0.13664231012942213,-0.16378074151159133,-0.19965435655776595,-0.010359106255558605,-0.006545866944036508,-0.005959721725327022,0.24519911717680706,0.15941096989724,-0.08731138405317246,-0.22245144963389107,-0.15215785961063547,0.023560937482334777,-0.09577309992221894,-0.2616255495866831,-0.042424294933827766,-0.14956066491926825,0.11285866246959488,-0.1454972288629761,-0.12635339579989513,-0.16079336196369926,-0.1484479483482102,-0.1433187086883162,-0.18404561730342484,-0.10691930111161788,-0.23188141039576637,0.005234012093612077,-0.03182955307023641,-0.24485708781218182,0.2054123003091253,-0.20586522950055144,-0.09127246223919987,-0.1900299975636735,0.12029330674279802,0.10587617149351841,0.18330053511949398,0.06084512691285623,0.0820774782363446,-0.0430575064567592,0.06906101761416622,-0.13430100017846527,-0.23057839555818566,0.052891580376920516,-0.08153849412827692,-0.20335869024899994,0.16675514235636063,-0.201087464002462,-0.18593666601368236,0.05510589558340327,0.058176171169504506,-0.06656461542397804,0.010460683045984328,0.05765331983534006,0.22839250129473346,0.18574113930092864,-0.020156896005855553,-0.11525792381715076,0.15467490754927316,-0.05173456941877007,0.1988247652800304,-0.022227596665356415,0.20049068712011925,0.2156045011276068,0.19179098662244626,0.05016855838700355,-0.2266590170633723,-0.012528642188169351,0.2089546024798646,-0.11833484169367968,-0.02800010227273081,0.009511683571450453,0.1961165678817347,-0.14353311648903402,0.15475984690828773,-0.00002745363782907223,0.10451661296683057,0.23301070730802736,0.19399505961694916,-0.14093157754205124,0.18135304607445316,0.1748161755753519,-0.09283149573444466,-0.022732057617210245,-0.2699777320086825,0.10082671706645685,-0.006340813448857571,-0.031694383957427706,-0.14887459785661195,-0.17870412181243317,0.12161244493784487,-0.12875656034903296,-0.17510417949742632,-0.12426220041249728,0.2413254536562905,-0.16814315233212548,0.16228213840446656,0.001737121425038504,0.0027842690054243934,0.08441867179295037,-0.29307564361305893,-0.0218976367540533,-0.21746192574580264,-0.06146933513245887,0.163677282943179,-0.2368344109897799,-0.024332199288979214,0.08983675932746621,-0.033000042889802336,0.07524577937186296,-0.1350468031595161,0.2276320626118518,0.062440126806728606,-0.21694938459084404,-0.09468166455560818,-0.1995522589239038,-0.17534539224724915,0.12294307534348199,0.08121302595103587,0.005059299790630457,-0.12187427705873338,-0.03992524403858681,-0.15041774605279484,0.09719989258300954,0.2178068137808666,-0.23345340821034993,0.029358528955101427,-0.20551659890574353,0.2879767718814411,-0.048492538873491114,0.046506588595498846,0.1841716491057285,0.11343027466823298,0.08611354340836536,-0.03719695727882973,-0.04748002678808478,0.12344256211395295,-0.2527766270228956,0.1177911440375182,-0.21684293340350566,0.08774997734686489,0.0896168122698106,0.12074351931738656,-0.05517636555952951,0.03193163525479266,0.14305948133931332,-0.17860135955153073,0.08816054270796245,0.14226938799747968,0.20730870136880766,0.11377742977697938,-0.03358682570626226,0.1812764346076618,-0.1718994945299639,-0.15273143165483125,0.02131028049877875,-0.03185443020143158,0.18195074907106654,-0.21878193535147092,-0.1266957313397666,0.021491599175204785,-0.19138081627259437,0.04838913289790702,-0.1508356734702149,-0.13251595027287683,-0.17128703829926598,-0.05243969161524655,-0.14779558876144208,-0.21022628943063948,0.22497904651002032,0.16549521945483622,0.10614209837081459,-0.1946402379007206,0.052464311030547384,0.07814112470466668,0.03884468994119639,-0.18443475332715123,-0.0001485240880191701,-0.0874475831292231,0.03150305512599661,-0.2072123604027597,-0.11770896048559193,-0.22111563681746385,0.19086828876137088,-0.15881647327659465,0.08909637179703338,-0.10148821163037507,0.06411561058947998,-0.16298568783480008,-0.2600550265864614,-0.05659597269341171,-0.04003159164048698,0.06803881716972267,0.19919712735571773,0.06488264055780743,-0.19918834163731428,-0.044831282336265266,-0.17006916810428832,-0.23181200884154068,0.16825695381950775,-0.20822980462363963,0.19414466135055422,0.1675024528965674,0.05953499196792362,-0.03748720072896483,-0.07234325668950757,0.17640466199616123,0.024668275617243354,0.04074959237056131,-0.21037141895294106,0.23597788862694127,0.14694885129506144,0.16882244261550625,-0.039729221223183696,0.07338307051066573,0.2299402893346128,0.18004428961806615,-0.08015930127029905,0.177804195423854,-0.04643411984071279,0.03486599691403186,-0.2281428087008789,0.16254516180370918,0.21442757621205624,0.009673187205346791,-0.12699323354023975,-0.131247725161223,-0.07126045653800482,0.10772041703290529,-0.18212937159287435,-0.154943421149605,-0.193736136401148,0.23908750883673932,-0.06955917252351075,0.007938728471999059,0.023560477434591696,0.020585422011543307,-0.12302121306959606,0.132645652075693,0.18495462426569834,-0.16372033633060418,0.045343308543406624,-0.12660535510357035,0.17289210156030876,0.19567160768110065,0.007445969702701018,0.23077520773269583,-0.17302648608344764,-0.05052933548880619,-0.13792327137459226,0.2150287035606445,0.19547086965187216,-0.023038143956859478,0.12804468303670685,-0.12831635571616776,0.12869616296956518,0.0914031475462381,0.051752952130506145,-0.1690065601425295,0.21390838335989734,-0.15724685098540817,-0.018338230799373988,-0.08429029779068976,0.14617255024260534,0.14313012934936947,0.2193190002037862,-0.22024540861369313,-0.030006550488254534,0.20730748214624253,0.13149288266433323,-0.12635712996569215,0.005566790422102139,-0.15121501460215822,0.09429523369374387,-0.08279701808810147,-0.11284330477345804,-0.13856660749081218,0.21511455836841928,-0.09223424166150339,0.1425779969664058,0.09856816956407297,-0.038653939086307675,0.24081781528279106,0.15642222792256322,0.17255381543481452,-0.2091367965026163,-0.04619601588030984,0.02631057441017304,-0.1651911217379086,-0.16727443196334657,0.17310788569464228,-0.15285617920360617,-0.1266291468158356,-0.06865568618540642,-0.06695140322705284,0.12482807752585551,0.19370051795798854,-0.1849538046144685,0.05233720763563472,-0.11867968417929194,-0.23964434112479832,0.018800385339297596,0.18307817819099204,-0.03283691374762867,-0.11140996404759888,-0.14030732739404517,-0.21426892543837786,-0.2330575838357427,0.16051378207179323,-0.01880306771956879,-0.026921843019408274,-0.234023273704303,-0.035496054361736674,0.0012109303900822304,-0.18884575839656204,-0.1744512316135734,0.09728268889429613,0.07813438575449554,0.12971832368228672,0.11434927714594778,-0.15823809696556007,-0.07791780052278706,-0.02968727546377383,0.12652996675254158,0.1933023534878679,-0.0017579785962474866,-0.20585797036971992,-0.18613096089001294,0.16176080199574125,0.20311029710229228,-0.048918806805981874,-0.07085883310266454,0.14114153278253866,-0.03190431697636775,0.14625679233936026,0.21756712061419686,0.03666669150279525,-0.26121499001998083,-0.18686473662817696,-0.05241258563800846,0.09510143483345694,-0.22334426495744023,-0.1699322543089033,-0.08884260021322596,0.19953277173984077,-0.16103521044942062,0.12362949171759867,-0.06434097180018408,-0.08301148329810591,0.08522133458482009,-0.26171567612549224,-0.1453362312381948,0.12164853190397296,-0.09727486395047563,-0.0628737452685973,-0.20252859972132525,-0.08226235016047986,-0.13804564504307187,-0.16919300342197202,-0.17106530676788909,0.15403646285253658,-0.027957927752947403,0.13690277709745768,0.10549999750048089,-0.07881386098725691,-0.022540450489856832,-0.0838303838917631,-0.18322848694724775,-0.14655418907963677,0.1807775870535757,-0.2666447925597064,-0.18650141390079425,-0.08135892038700242,0.12926440530122085,-0.044892241118684416,0.0270862204980081,-0.14979073520304148,0.08309731870020795,0.077665804368087,0.018259921348233406,-0.20637747205717966,-0.1338782065053341,-0.24577709647016868,-0.2769984521011216,-0.16925840812087617,0.13092616117268874,0.23752046951499733,-0.1460733144098618,-0.10802696537049629,0.18981784984912653,0.05161445725592958,-0.13896151864968803,-0.13572495558963318,-0.11901236255680545,-0.27464596066106284,-0.20773990187116534,-0.1500362723787117,-0.239706020962789,0.07922176758864824,-0.15740076327714136,0.2042851271623096,0.05907518802099619,-0.0301997055875567,0.00005172084056374079,0.14936481881034308,-0.02879653728275229,0.037036190062646496,-0.05301218010983417,0.012443274988336193,0.13289644926692487,0.010586038725523684,0.16924906030375775,-0.007532181263862933,-0.17214267262198357,-0.29038041884376103,0.08862059811630978,0.15018914454199586,-0.11734612618408803,-0.12183359641866758,-0.22812641917006715,-0.23305745161218275,-0.09279598408655483,-0.07491100157130577,-0.00941805976244187,-0.1808888228250641,0.008935401068475762,-0.110353768896292,-0.12154246182053208,-0.12818053870180848,0.2018619530189612,-0.09585076293529063,-0.17241763531421342,0.1992892432861102,0.10632982299896195,-0.14512589896499378,-0.18909973249204284,0.24565676368884154,0.1160948124178583,-0.19500755263793818,0.14307117089458377,-0.09152355841419417,0.038306627333249264,0.1938010330689146,-0.10180090760916398,-0.026560644327982812,0.12621943810260225,0.07299304913567196,-0.20387406709414924,0.02119786652416317,-0.07082304988597049,-0.14848911474784668,0.107407986360417,0.15416062632212116,-0.2358850709872349,0.0018366291390957638,0.07668626302022302,0.16688291058874233,0.20095380325648182,-0.07004967658760865,-0.10734232273022165,0.187051878003665,0.18283427231926483,-0.044213158942705215,-0.12354212401909502,0.2511377453051237,0.07984209235269253,0.16111697549478027,0.14493027901443636,-0.015138193210913106,0.004865415752584843,0.15297548314036533,0.07179817032404125,0.16063783946239377,-0.15585439370565124,-0.09523463246207063,-0.20912303673358448,-0.11272182081887519,-0.16420912548105784,-0.0376711165054582,-0.2077924016386588,-0.14060517298722006,0.24381476228745605,-0.2215502628198475,-0.04127496960440021,0.06939730859693591,0.2830796171845662,0.23637282026289136,0.2550692697847481,-0.01885728862900393,-0.04753867041016372,-0.0672623743405577,-0.027906804045164955,-0.11138421502432329,0.19465951576744922,0.1261458547706325,-0.041860718214712975,-0.12193698104142035,-0.13432138809629715,0.1303010123657263,0.024437122443117677,0.19056923072725823,0.1461268366277233,0.15221125504164146,-0.1989042250328186,-0.06446481675876185,-0.05095913272732868,-0.032286608174766175,0.16555927350623936,0.2219801743184815,-0.20784722306641262,-0.07079880456366829,0.11376482850616125,-0.03568199249027507,-0.10201538315173611,-0.1659325789782678,-0.15865388787792598,0.025048942912187455,0.10983283851028111,0.13264022287006666,0.1581528173818208,-0.11587744246848283,-0.18068187908643593,0.12481310525397249,0.18911862886614839,-0.1712552310472965,-0.11500689243175126,0.018229381362866764,-0.2019346162457767,-0.03675062608649104,-0.1763614800652028,-0.050948412825060754,0.10417520229284974,-0.10952428702274483,0.2190394659125737,-0.22855664924711364,-0.009405172071563139,0.0017946754227851486,-0.08456149708329917,-0.02973428469664351,-0.09832709994325384,-0.24163717918465918,0.21733735400458337,-0.15946773627919084,-0.22563113006754915,0.18558417536270538,-0.06343294084286624,0.16511395492589082,-0.15834050104358208,-0.12381100987722096,0.04684920849763752,-0.18388249414316685,0.16682823764930124,-0.06963039713183314,0.16798883790380045,0.17469610105166453,0.18922513103809643,-0.16304644357240183,0.05680435266360748,0.09922686458813346,0.0466476301351586,-0.052398966438847845,-0.06824735122842866,-0.046219460133097315,0.18212965584792165,-0.08480433831892936,0.15716787035141944,-0.12357842896646065,-0.2591507638207015,-0.16015604580725423,-0.15363767397931014,0.08607655708160813,-0.21979862601864752,-0.1515829949402924,-0.26163964378636334,0.04571566318260435,-0.08919049912205254,0.19242549009037832,0.2294301098988789,-0.15853012521785653,0.09982756509093783,0.18511077738546125,-0.11687809998428984,-0.1004180562028193,-0.005325942125041438,0.16561388088397197,-0.08224147178144704,0.12133892573535772,-0.05289450259256579,0.241948666669948,-0.058326168437776764,0.15194580546588696,0.1592808415949992,-0.10969704292616272,0.20731722055647667,-0.14404390531021993,0.11689468706489885,-0.06387475007147222,0.20634739514205364,0.24434176095611732,-0.15449937041761996,-0.004566601629721371,-0.13622206320401523,0.12876974790355195,0.05022523580087524,0.17175163495631002,0.15859227377518564,-0.21948907087749955,-0.16099492353644157,-0.09906028337152926,0.19650343100078396,-0.2656225029777212,-0.17136152618046535,-0.2161086485627291,-0.007984494366058328,-0.19812802822358974,-0.1811763576174621,-0.15306555850980413,-0.09653624395882002,-0.09244825549550453,0.006919339519670176,0.17390454985967205,0.15163071494867875,-0.2315372757676785,-0.2364675841739255,-0.04689650006492074,0.20066100394853065,0.03074257378714098,0.1198112341285859,-0.06783511164378267,-0.19342916626793114,-0.02660263079393667,-0.240165990304672,-0.03622381724806703,-0.13410799168981608,0.094501357179599,-0.020769008848047638,-0.20608764078887204,0.03524815413597978,0.1200022366369377,0.027317924789195723,-0.21397383841283749,0.0646915850444,-0.1197724512584808,0.16692272367853053,-0.006313282489506639,-0.12369599110519272,0.27114673245417087,0.09736036812121172,0.07723460888943512,-0.1704856470607768,0.11115878378395562,0.202566664427351,-0.07831928514861895,0.2467749010385074,0.029681589178410798,-0.2273614341885285,-0.10922952877367335,-0.04456398019677932,-0.11813995789991069,-0.05621109511878834,0.0804699099036103,0.25777133793640467,-0.02236936568244275,-0.0012074278510315782,0.2933868969301136,0.06123990488834325,0.10206875928557958,0.037495928439291705,-0.08941241162259765,0.07321665063047483,0.2172478596046483,-0.2346771424526189,-0.22683634224224966,-0.16444310359246483,0.01394269236826631,-0.1334096913944621,-0.18744989109255222,0.09986335117354243,-0.14051804396469358,0.10461923145656611,0.13133066755012907,-0.09998431526461161,-0.00010546699884156414,0.161973360794628,-0.017773837205810324,0.05600702194300585,-0.19732593140282378,-0.0030351423237598998,0.009988907433613267,-0.25724640189747283,0.18881906782564944,-0.16552459423992893,-0.010062983742662247,-0.20267224511783963,-0.1893698190464235,0.20216998166501343,-0.0735434203039474,-0.17013173613707291,0.14469291994011255,-0.21010705408304284,0.002664832345888491,0.003023703458944524,-0.040514635889384525,-0.22351779502808564,0.18800756550342976,-0.05833705554926255,-0.18949945007899108,-0.24773425798319876,-0.11637255358741457,0.06663638906295104,-0.0508258448933569,0.18279763593118925,0.15261380272023933,0.01611025248894308,-0.10716880865907305,-0.23023070384574265,0.03655150321984769,0.0846900885660743,-0.24997441973827034,0.013949311570709,0.1647626228217725,-0.23206900445832565,-0.24770791286161195,-0.027143500589019185,-0.2174049877448865,-0.0981838140223943,0.12199430468132857,-0.037219282215837445,0.06830423100915348,-0.10969654352350276,-0.06658200808051713,0.1687626185042864,0.06685930704018146,-0.010344351858693375,-0.13935396647620962,0.0493938548923711,-0.09793468038216725,-0.22944219868837562,0.1250635365350792,0.20443713944230335,-0.021733574492447314,-0.15622366077984873,-0.10597246723648385,0.10810101084891868,0.03165528774246402,-0.18772149238529523,-0.05374519372447767,-0.04468860323621879,-0.08850048932513949,-0.16933376304910697,0.1708725265637104,-0.056729920623446825,0.036208915089415185,-0.24856818079781234,0.18432571724940738,0.013413447867469223,0.07297995221881307,-0.19547697022423677,-0.16073430086425727,-0.19724333951899922,0.013485260201330902,0.22057796472433652,-0.20763822903343418,-0.21247069803035637,-0.09430857619577955,-0.13569151573492866,-0.12202870107878883,0.00020781218654736133,-0.22286883728635792,-0.011735422356495662,0.18657879199692648,-0.10624506617266939,-0.07149794858090694,0.16235256131840822,-0.007378963888089701,-0.14028594063567992,-0.22522248776866066,0.0764498029040931,-0.010484798419117935,0.16420250620625776,-0.2017458896673913,0.009557215927548258,0.2484499280177604,0.09248013069040142,0.14236245699003983,-0.2058850686232367,0.17368089635039893,-0.13324607499898367,0.06483426127436333,0.19537272884001677,-0.045467145232419105,0.18786290410085094,-0.19893055008870225,-0.07973052436523317,0.12316200827919392,0.2146802999690349,0.16893336113298282,0.09172202435178411,-0.09315640419621077,-0.1975090962009726,0.13459611166432484,-0.11652559788080571,-0.19517333748160048,-0.15979811494646814,0.12123341821452636,0.18371712842835358,0.10918797689701601,-0.0467792662762862,-0.19628609823541024,-0.12236136248132932,-0.18048583079446526,0.09007900576884957,0.20211922053235198,-0.042919913748261915,0.12626986072517576,0.08465712854655227,0.14971444324982006,-0.06224821374181709,0.029145269785699316,-0.21802245198757814,0.18076063474695325,-0.14840793206802996,0.09814181628420762,0.16323374899077658,0.05227982449655087,-0.12454127262033207,-0.17607544166875735,0.19950691691849423,-0.12495891448291903,0.16673161829613906,-0.16066689301576806,0.09954851790420026,0.08390167847673334,-0.19463135361228526,-0.025843394743259206,-0.09159556983577627,0.24368187123277232,0.11120163508826089,-0.22053811795985323,-0.13131430586918405,0.1772572988720791,-0.17127373804633692,-0.22753077340679106,-0.13099148209030373,0.09920608099747055,0.07886374571449925,-0.10231549883767756,-0.018922954522085506,-0.051659998306522716,0.05810330045122893,0.01658723047601279,-0.061058416000609704,-0.01041425288924113,0.00025784053114866516,-0.19341784419102065,-0.1686147635364809,0.24173506306861056,0.19389363013385863,-0.006821737308429217,-0.11200900643327491,-0.009352216501933488,-0.20857345703279181,-0.2473908877782967,0.2793715298158369,0.13428982172905535,-0.0031322174052167404,0.09168619316301173,0.14456567057781514,0.06802377239618472,-0.22085061776527326,-0.13183791704161543,-0.13880880085231853,0.21389033472328572,0.14525621708668845,0.06389819454440307,-0.13346766545167996,-0.08283729984801877,0.18895645656672252,-0.13512203229938313,0.016906943662474708,0.0639202031993501,0.004980951400797763,-0.10796672220055308,-0.05097215762208996,-0.04294769280439976,0.23898507736459287,0.15263118425028147,-0.07182045589252692,-0.2616945333944546,-0.07661346018091089,0.03147870703026275,0.08349448704416744,-0.1966713491322363,-0.12501686270886567,-0.1028784655661365,-0.24574390880820166,-0.041142101090775145,-0.05421427924804374,-0.10149025964414159,0.15126915502441018,-0.06480503294650931,0.16052632555044072,0.11058088032936231,0.08616139686277878,-0.048802146589570855,0.1154870069974955,0.129970004163475,-0.16938707125542493,-0.22121507155624048,-0.2019252920866075,0.04673032898814178,-0.030605229547541614,-0.17939113698517883,-0.24974431076970618,0.13657938292921215,-0.16179339930609832,-0.1411096789454017,0.22749862450286665,0.03907145090336449,-0.23888922952904618,-0.2205106028582316,0.008306022509499833,-0.20001715462677905,-0.2255088412747999,0.036570456164555364,-0.06901014641669902,-0.1022262877673897,-0.20471400169916898,-0.20890301727043906,0.08158160750572868,0.1162839951721216,-0.1527979577190819,-0.02640530020549448,-0.12850493691522263,-0.07260262889095248,0.12974205584625473,-0.2026265401277222,-0.06638679970736061,0.08431146072600676,-0.2129445793272433,-0.09356701748085708,-0.2639426439658092,0.1293112183741639,0.08045434213469224,0.15183823767416835,-0.25743072345494883,-0.19077514054594696,-0.08847654079071303,0.07136621046469399,-0.19501712648475084,-0.22834149265394993,-0.15064653659746574,0.027733835599107602,-0.11080844588122346,-0.21931199957748534,0.2152291923090173,0.00009268721990986095,0.19630977454735507,-0.1908266255733567,0.15663039741231866,-0.020569114708162386,0.23658552915213144,-0.128348383516151,0.07592151255250865,-0.09959387266392543,0.057449978266663225,0.10646053963595482,0.17683225818720674,0.04913746506745133,-0.11533058224614026,0.17888406696939552,-0.014015320963384934,-0.09554270452232325,0.027980390165153374,0.175621278960375,0.19914083911774272,0.07148744376721185,0.04091408399581504,-0.08836520380364211,0.14368108644901462,-0.2186010400855072,0.10624912459025068,0.22057664266631516,0.09614061556695037,0.14884929313624037,-0.13115346857844792,0.17862147669503686,0.192962107345416,0.20212698792092615,-0.03506259251654707,-0.17143733901140645,0.11532453623676978,-0.13668727053723176,-0.1220248272632941,-0.17074438272931886,-0.11270017252162863,0.1603722300717099,-0.04390950494602668,0.00534842121244999,-0.15945566941347436,-0.06703639965119754,0.004607670689076789,0.22156793694834767,0.1056768242396499,0.15596859065204896,-0.15839264904311728,0.02001394000933291,-0.21484761720523757,-0.12809987934935124,-0.07108440798779113,-0.013646560201151956,0.23639250117729807,0.03956105483223875,-0.08090777477097794,-0.06987582255955994,-0.049643951997611284,0.1616416107709248,-0.056744320602256024,-0.2175572856065415,-0.20530781498732542,-0.1280636100557822,0.15949201639634317,-0.1300844448958671,-0.1939641128686616,0.005894720289543369,0.009153785149887097,0.1090433696453007,0.21842406213133136,0.14067925407228063,-0.11850887311691927,-0.18134278698444198,-0.07485403241300996,0.17190313177477762,0.1487992811355862,0.06976799642405075,0.08507031262415382,-0.12154393029368869,-0.17460397399269598,-0.25008233034933286,-0.2069254832242999,-0.18644764933437707,-0.1839336126784342,0.08037409497236621
biasActivation=0,1,1
[BASIC:ACTIVATION]
"ActivationSigmoid"
"ActivationTANH"
"ActivationLinear"
