encog,BasicFloatNetwork,java,3.0.0,1,1500487502156
[BASIC]
[BASIC:PARAMS]
[BASIC:NETWORK]
beginTraining=0
connectionLimit=0
contextTargetOffset=0,0,0
contextTargetSize=0,0,0
endTraining=2
hasContext=f
inputCount=627
layerCounts=1,31,628
layerFeedCounts=1,30,627
layerContextCount=0,0,0
layerIndex=0,1,32
output=0,0,0,0,0,0,0,0,0,0,0,0,0,0,0,0,0,0,0,0,0,0,0,0,0,0,0,0,0,0,0,1,0,0,0,0,0,0,0,0,0,0,0,0,0,0,0,0,0,0,0,0,0,0,0,0,0,0,0,0,0,0,0,0,0,0,0,0,0,0,0,0,0,0,0,0,0,0,0,0,0,0,0,0,0,0,0,0,0,0,0,0,0,0,0,0,0,0,0,0,0,0,0,0,0,0,0,0,0,0,0,0,0,0,0,0,0,0,0,0,0,0,0,0,0,0,0,0,0,0,0,0,0,0,0,0,0,0,0,0,0,0,0,0,0,0,0,0,0,0,0,0,0,0,0,0,0,0,0,0,0,0,0,0,0,0,0,0,0,0,0,0,0,0,0,0,0,0,0,0,0,0,0,0,0,0,0,0,0,0,0,0,0,0,0,0,0,0,0,0,0,0,0,0,0,0,0,0,0,0,0,0,0,0,0,0,0,0,0,0,0,0,0,0,0,0,0,0,0,0,0,0,0,0,0,0,0,0,0,0,0,0,0,0,0,0,0,0,0,0,0,0,0,0,0,0,0,0,0,0,0,0,0,0,0,0,0,0,0,0,0,0,0,0,0,0,0,0,0,0,0,0,0,0,0,0,0,0,0,0,0,0,0,0,0,0,0,0,0,0,0,0,0,0,0,0,0,0,0,0,0,0,0,0,0,0,0,0,0,0,0,0,0,0,0,0,0,0,0,0,0,0,0,0,0,0,0,0,0,0,0,0,0,0,0,0,0,0,0,0,0,0,0,0,0,0,0,0,0,0,0,0,0,0,0,0,0,0,0,0,0,0,0,0,0,0,0,0,0,0,0,0,0,0,0,0,0,0,0,0,0,0,0,0,0,0,0,0,0,0,0,0,0,0,0,0,0,0,0,0,0,0,0,0,0,0,0,0,0,0,0,0,0,0,0,0,0,0,0,0,0,0,0,0,0,0,0,0,0,0,0,0,0,0,0,0,0,0,0,0,0,0,0,0,0,0,0,0,0,0,0,0,0,0,0,0,0,0,0,0,0,0,0,0,0,0,0,0,0,0,0,0,0,0,0,0,0,0,0,0,0,0,0,0,0,0,0,0,0,0,0,0,0,0,0,0,0,0,0,0,0,0,0,0,0,0,0,0,0,0,0,0,0,0,0,0,0,0,0,0,0,0,0,0,0,0,0,0,0,0,0,0,0,0,0,0,0,0,0,0,0,0,0,0,0,0,0,0,0,0,0,0,0,0,0,0,0,0,0,0,0,0,0,0,0,0,0,0,0,0,0,0,0,0,0,0,0,0,0,0,0,0,0,0,0,0,0,0,0,0,0,0,0,0,0,0,0,0,0,0,0,0,0,0,0,0,0,0,0,0,0,0,0,0,0,0,0,0,0,0,0,0,0,0,0,0,0,0,0,0,0,0,0,0,0,0,0,0,0,0,0,0,0,0,0,0,0,0,0,1
outputCount=1
weightIndex=0,31,18871
weights=-0.1843353221291338,0.2115117687842744,0.2490703007695498,-0.2606463033753333,0.25847430324103005,-0.25222700480014837,0.13380793622482817,0.19950598030730352,-0.26758649026615955,0.2174997927005147,0.2404989622109428,-0.2480311938068751,-0.25637695773253955,0.16307550763611875,-0.241181606649103,0.1705338597893842,0.19180862114900932,-0.26103191034432877,-0.3167038493208483,-0.17291149039146345,-0.246200124391832,0.21414343613864795,0.30952760650343936,-0.22828232814702037,0.18085034612106535,0.35880360381457826,0.20112334816720961,-0.2537398884748244,0.2504346870389895,0.16650288733610877,-1.491563445847355,0.169861412487755,-0.20208829971609624,0.30147446104893183,0.35510798348871314,1.782916039975254,0.011559182032094375,0.21996610332910857,0.053880878201502835,0.29238395677864076,1.1985695530392995,-0.05113603113198596,0.21350804754096092,-0.35925921932242194,0.007354145154012957,0.033593927798640455,-0.09581767905957951,0.1888830889380635,-0.2238095252952415,-0.0622012080019055,0.3704252922206461,0.05171601842528467,-0.006201702148751038,0.027375402251034468,-0.33853170053834214,0.007866608029464981,0.11474850772061966,0.04566605651917246,0.06290388698570976,0.030692938942668346,-0.07182260965921482,-0.013958149214309386,-0.16733550280334378,-0.12391412195621208,0.16079256436711814,0.16064668824625514,-0.29165927147116505,0.21199846093900906,0.19325734284061585,0.09250510769499563,0.12641165614406158,-0.018402043311462165,1.1332922511866184,0.14585668151199588,0.07897590713042517,0.21099784878710334,0.3320354942088025,0.3481052438022354,0.3852416032632839,0.045474954256500014,-0.0388421040759277,-0.18059675607866693,0.18612773423828533,2.817059110803368,-0.005120274654963599,0.3560736258551561,0.08404260223012026,0.1560639260019125,0.1954308956662095,0.2437621119353299,0.09605938193196165,-0.038914239984692775,-0.3545702024189157,0.1512785037745058,0.05773138110012066,0.09825555066755202,-0.02840075510402235,0.2563836875305388,0.4155438010272844,1.0309349449829468,0.9600725583638482,-0.02860437581828778,0.26177731281581884,0.18841033053754389,0.4831709476660372,0.6057519938667937,0.35930320674508565,0.05208779953896042,0.07179103334476993,0.006491059505995569,-0.044558905794053305,0.44287951249252566,0.07962384565842259,-0.04526397297518439,0.03419571574358293,-0.04787716331591303,-0.021243363266320904,-0.4311913951741875,0.346284132597618,0.6552451411870298,0.3082119009265987,0.16143678672137513,0.021754129348409933,0.7645579083227448,0.036535061679428944,-0.5655934690759321,0.6646998448513343,-0.05477412826257136,0.12645851277204914,0.05797090206880259,0.04558941369508769,-0.02696114497816799,0.0589738078709661,0.046857625643184984,-0.03429750326616827,0.7594378421494923,-0.10207654344560849,0.27995801182453905,-1.0020005254572193,-0.03060804516054057,0.012575504309758899,0.2986245069763892,0.19540740951434654,0.038448273271707606,0.0929111699873064,0.08292035744672313,-0.011487007545335597,0.00047932121496164056,0.02143198895294011,-0.020960113375579403,-0.008342271986714066,0.01069159961800729,-0.17001839340232971,-3.1382142037971517,-0.19294822919018093,0.021816512526998323,-0.2395557674971263,0.06442180239813389,-0.06861486746299807,-0.02778725217481025,-0.3059266073732691,-0.23006107019123723,0.21456160205382002,-0.047110182480461955,0.37534427231819273,-0.5134888044743802,-0.1383374722463295,0.6777319739009776,0.021029214673406994,0.15697477839050172,0.04542911538387312,0.26723517714346645,0.16692779410020883,0.5222679163605012,-0.012153028281803578,0.13904633089777388,0.3259006321651479,-0.21734308077734704,-0.12430949408335917,-0.2674452879963219,-0.2268370588683011,-0.36367881532635027,-0.09796798272457706,0.25701868326087013,-0.010975545832932927,-0.03485879249492555,0.03589109722625981,-0.015532077968222707,0.09653391524746228,-0.19876667191747832,0.07258208197100402,0.47862792388468545,0.014779904669006888,0.24707887856853863,0.38354130177339035,0.9887361175423377,0.07716298380188844,-24.885337865460315,-0.09520810549726251,0.6111751377085598,1.1589186967419955,0.12181137407573177,0.07231795642342742,0.3361780917567711,0.3624966901923022,-0.012473993492621073,-0.5290252268980521,0.41744053600719677,-0.15505720609919235,0.17127817738827442,-0.2705180016269122,0.07086586501812225,0.5248985879242373,0.407870854620129,-1.7652007163452204,-1.7171678314178014,0.19166339022249312,0.24315189534098033,0.1369749435967035,-0.21090072270357987,0.10551916938374431,-0.012258095835739499,-0.19571006955775178,0.010341572259673146,-0.011334300941877925,-3.351236598143918,0.07914176027438465,0.047671641157130545,-0.6109745834201367,-0.07776788051543092,-0.16235638247494638,-0.8648741156507876,-0.5975701152843583,-0.7422319772388525,-0.11631470437928203,-1.1410039746147715,6.337628079386546,-1.0541017751869817,-1.3599560957094905,0.027032805046053977,-0.33041176688190843,0.9766642559630727,-1.0489922574607173,0.1486182278792096,0.06366759179237064,0.2262152711475409,0.029266427537134564,-0.24679973516063108,-0.5267830268679825,-0.1922247341961847,0.013785920402362713,0.0365264147457746,-0.008047346004940099,-1.2998666617515624,0.25479039956349736,0.1385481139535036,0.384469330587671,0.10511816751458525,0.12679901811156175,0.37973027694745304,-0.15940726102338668,-0.6869971477407821,-1.3585474778346798,0.060766531484080046,0.0363004381666828,0.03480884440898103,0.11270093137279058,0.0338255823486027,-0.09129577562820908,0.3177857053481112,0.13559796801803503,-0.7354734541713281,-0.32010341892907535,-0.0017158951559875142,0.21515529740513353,0.5900731323459315,0.2840925759687453,-0.03497268093285474,0.488844546601431,0.3043366829699671,0.12073827316967199,0.0986053562233933,0.09923118746844073,0.11150955337505696,-5.297497019324351,-0.24389514196376605,0.04890599303413764,0.0586743390000081,-0.12931979031492769,-0.9891865971006983,-0.3640478543891698,0.13475565198915984,-0.17832583097117416,0.07257592947204673,-0.4359683164979398,0.14560200335821932,0.27225647784728907,0.13999211165990627,0.12076575548495368,-0.10419959948300872,-0.20150009703132338,-0.05086725101500046,0.42492445003379664,0.2854033887521243,0.1421489925943447,0.13490920092374717,-0.0854034386786544,-0.07948561248822758,0.10667216258484673,-1.1320425704363648,-0.5635546522377382,-0.2532907646525004,0.07181387593567572,0.04728100775441109,-0.5161125696082662,-0.36895924138258707,-0.7021306224476938,0.007310648286826499,0.7820589110864641,0.03443757683770228,-0.17122075971866604,0.04844815387077593,-1.2383254510447417,-0.2488241491382143,0.21016732490359574,0.19050124396269585,-0.14488314582090728,0.7233731203829815,0.040862868930312754,0.07584540562615691,-0.15000439046959488,0.29899323628088537,-0.4925928375005133,0.19827319109966557,-0.002034256111390104,0.13975761719831511,-0.5043509774818166,0.30285159977728177,0.5665414538560292,0.8397132176061766,0.37684707707943915,-0.1192389523959331,0.075378788371655,0.24628672367101986,0.2979294454766952,-0.6871678719880543,0.7001527228828588,0.27872941370481547,0.3437742944422568,-0.10570150720086327,-0.4800241244282852,-0.17579313108188777,-0.15373501696063646,-0.03624745041184577,-0.02655683616829829,0.058363334564227466,-0.3426372502857649,-0.038504949282972094,-0.17783580287220263,-0.04666687158169097,0.019655640557172643,-0.9863686622998752,-0.029630287674534444,-0.04192740581031824,0.016952976846181203,0.015829969518417576,0.16353016988548863,-0.2978595700025907,-0.08697872275216778,-0.20828159759115708,-0.19976932681431894,-0.19406543629068881,0.2622385201060917,0.09658933398390994,0.1850343430796502,0.609911716083491,0.6622915932888161,-0.202240326393759,-0.1928677151121971,-0.23275381443493193,-0.4371806042393464,-0.2569121487318292,0.2162095137586732,0.2611326210130081,-0.5665662570412344,-0.5834965951063676,0.08577221830563243,0.09389117666416115,0.016099319425891344,0.02866936499570373,0.4509237709300938,0.43600428999231505,0.4742855857558214,0.34868838758131804,0.29110532059400834,0.0034427745651654054,-0.22260964507199418,0.3721488327525961,-0.23613224240858,0.1028285365136191,0.09218462904125704,0.17355123665244707,-0.026862746067953896,0.19474464983493125,0.05633535824861327,0.05535963614396658,-0.2140594835989712,-0.1077903918738502,-0.07293535684427313,0.9383393258585339,0.024359520520669697,0.12087986992960385,0.6755665484607121,0.3270455712294607,0.00393388963450897,0.7315168367891206,0.8503912561914685,0.3114172587799928,-0.04561381363840156,0.2081846196849559,0.07087295755691361,0.8302432149045545,0.414811347968716,0.04444854504248227,-0.4846619104455249,-1.241974624626676,0.25909788128721234,-0.2844581977049391,0.1445781591839213,0.100392447113816,-0.0004980359073669663,-0.011756154941443739,0.1872295533160761,0.36429225704374574,-0.02041329989114856,-0.11410132907654752,-0.26486086788835206,-0.19328076908739036,0.15309686804549577,-0.230274167044353,-0.1384511495508747,0.05174404279855208,-0.1558313763469103,-0.1437140111829849,0.00987298217102358,-0.44881927684035866,-0.28551917514961533,0.15475925062232784,0.825290758611005,0.2297822557367353,-0.061254505492177605,-0.11497982130886675,-0.052227842862351215,-0.005924872788376415,0.22912352599361732,-0.01637791079362172,0.14225239900136027,-0.22324119247294327,-0.16641046609320692,-0.004759938702002626,0.5857193138375819,-0.09023365951569905,-0.050323957080962704,-0.3105635928993642,0.45371476181048076,0.6012635236730041,-0.0709477348872764,-0.1778896961654679,-0.017273225003942475,-0.10640530939748077,0.3059092677181373,-0.1806107173413378,0.19885498797325193,0.07505728315842536,0.0180626583102959,0.15520344738557396,-0.003256927834808053,0.038509838516672175,0.09679421298905734,0.12937101437735882,-0.3171096956270262,-0.6387371001826699,-0.4581016706107424,0.01410375063197724,0.10868791061712556,0.030291355772810984,-6.167201036276342,0.041078455011479116,0.07118118627792581,0.09305989737603175,0.09171613769635552,0.09205255595263964,0.23892693586441188,0.10466982096102852,0.25715738796277765,0.09812452049454673,0.09746074572603707,-0.03228427562004502,0.1245778303908035,0.533786586123025,0.3446150639321959,0.3351375384630727,0.5588376214307085,0.2533156482178366,0.21129957836863478,-0.07924293397769731,0.13985404433952411,0.12094469301865533,0.09422907272118763,0.06816750133810918,0.12386078638610827,0.13152263447603282,0.052150708023332756,1.4314183129553344,0.14727507068382698,0.09100067442120842,0.13592435940745012,0.23508562860369767,0.1927798064243882,-0.7741645850463993,0.15395791727137878,0.04709306913643254,-0.17753438826855877,0.5797327245887134,0.2423620265311927,0.5787528924487975,-0.19318334930520167,0.4378247546681179,0.039647985312274016,0.021313395828924855,0.376102590804423,0.2756442763842621,0.1518126302238489,0.013759266636355722,0.03434554621776706,-0.16729091550299885,0.9059348377239304,0.4086667577761367,0.872043126774944,0.410185191905421,0.14538112438222522,0.17380718322556948,0.41998834249336453,0.12642164865871755,0.5176946297183495,0.4595215893094459,0.552926089265997,1.1093946597290776,0.46563620252797244,0.8026083217288649,-0.10287054783337278,0.1483013686170255,0.20222430914211234,0.09814611079702079,0.7015271196276772,0.4590194967029107,0.4572562448472702,0.09303399221344275,0.1211576492869003,0.20283435284084467,0.2593377053043703,0.11560194122818668,0.7096132077818021,0.6086392028899297,0.03368234638297224,-0.04209583951659177,0.01376257890227555,0.018479073434673265,-0.0244971032196422,-0.028800920399385775,-0.014193929562194892,-0.03144045946389557,0.21449367833699948,0.13796838160166716,-0.0005436377910273708,0.15291129692584607,0.04361979714318104,0.015866584726526183,0.12400143854003899,-0.28883731694905923,-0.09786866462305648,-0.4441901728567536,-1.2087836387678645,0.1650491960547002,0.08067550604231483,-1.511213989254021,-1.1446224723559941,-1.2069565235166186,0.19310059716030947,-0.8795472374700174,0.3856955202037144,0.41796992967754126,-0.0813288657602619,0.11198261668343001,-0.05060444359101938,0.17481560868868873,2.343261830359353,-0.023765701939176986,0.25290643538165075,0.06320007782926831,0.09411908735844668,0.02564655061177284,-1.0010129676119102,0.34137114258120244,-0.816759388455026,-0.2897437079652785,-0.5653076388750142,0.2633534971947298,0.10835482327801332,-3.7543667712006443,-1.6685222088675977,-1.6889712612386685,0.02510868675351909,-0.028775418659061736,-0.03508084972688606,0.41380848342653176,0.24688790648710685,0.31336478276992474,0.3234896677546271,0.1301324821297963,-0.07560506958358612,1.0301624415109039,0.28998037808707006,-0.3838432254631599,0.46281869867781267,0.20296433419559068,0.3140013026039167,0.40923482946365214,-0.24257185086567762,0.3578435868958927,0.08302814153729819,0.6482351877420215,-0.1956857853420259,-0.008390647828054123,0.18067289311352563,-0.46575667355855394,-1.5488627027699124,-0.15407104905384103,-0.2104669523020656,0.36442513799380305,0.02633254707149683,-0.25848886721138864,0.3231366109272688,0.2266000468265104,-0.03683161426653974,-0.06332473899149449,-0.027319724380527283,-0.07668770127673298,0.4485023259092536,0.15213001051573954,-3.1490807034067667,6.001654981169987,3.6751061478688043,0.1929763309231499,-0.2142403894341723,-0.08484745933267518,0.1422971179206423,-0.007155797792416301,0.05126694269738289,-0.21109080466186655,0.07866661568724885,-0.10380807889105813,-0.05454887496793356,-0.4984811903632705,0.44966501264992914,-0.11651408754622897,-0.05220009007263075,0.06830592781873783,-0.6813749001033423,0.38651782238383975,0.28643932063106775,0.4029820010229056,0.012155072064433593,-0.07717836096331325,0.3883684175203164,0.11601311223463298,-0.09362019936554472,0.6455792137512373,0.8564573261330529,-0.05608602436961578,-0.014713640883701123,0.3950774538116401,0.3517543904104121,0.3692605948179841,0.351522054985522,0.278254033374329,0.38078391656906074,0.03442361018259528,-0.7002637670194372,-0.08707047666103507,-0.8129326303109391,0.15963632114291523,0.024464472357158294,-0.1684001839371528,-0.06972647048284186,-0.12582757304870826,0.9773641944820559,-0.5755691350764605,0.09499011836727864,-1.4246794888382328,0.37969585988277954,0.35026108662686706,1.0134450049151225,-0.21038164061339165,-0.024552020287534056,-0.004677963164128644,-0.17500032263328422,-0.037878198059645055,0.6147224772790683,-0.25472737041337146,-0.1897436839372915,0.43578688881916783,-0.04839099410706144,0.0062739420321342885,-0.16486073608923016,-0.05740220286618129,0.11629311964049924,-0.9357181583102138,-0.0424851454743565,-0.11450810187584695,-0.014076979767787136,0.04983852484209419,-0.03433614130659985,0.240132548233322,0.3115176564586028,-0.16203193447222625,-0.20188785884853389,0.053417724744265496,0.19402616865897482,-1.0042040768086558,-0.04166598419017276,0.23829545068434535,-0.08421471144103712,-0.04109850929756786,0.14799040658812943,-0.03602203211861125,0.2947920410368091,0.2361420513238054,0.2392482291306835,-0.11487808159997835,-0.011667428629776417,-0.16381821162742524,-0.6767212701246081,0.43279757464978574,-0.04587938000729644,-0.23812211599475763,0.43965377277798645,-0.6489045276900255,0.039036378324573025,-0.04673351543705768,-0.03625064237608688,0.4534841326768295,0.27910042090870674,1.1175662801345696,-0.11931436849772542,0.024726966952077985,-0.03866512191944296,0.025141416470010603,0.03563695313343101,0.21341864616897013,-0.027107626756947795,0.2359226251306887,-0.29832616549570523,-0.4598731291772118,-0.22554852187036514,-0.7845767191601443,-0.07561205186262214,0.018431425653663586,0.5982645565753827,-0.11526574075594376,0.16188054885182876,0.033319361626576914,-0.0069996128611390235,0.06523650051543799,0.021294971848839977,0.01386932344995358,0.37530954555059065,0.1538744994152818,0.23449828486703927,0.2805002124690334,-0.18185430550339104,1.0227275350189715,-0.16653291008132762,-0.23390563974587794,-1.781145172969676,-0.18853287963655388,-0.5249265139436465,-0.4813781009621349,0.012646978654208088,0.47476818497898354,-0.07567451523895562,-0.3777324015092317,-0.12028599979706033,-0.04330586297954121,-0.5584640989490646,-0.2233893091216336,0.32347749201469667,0.041120121289926405,0.2983340964850304,-0.2667682358962656,-0.09169480364482777,0.14009826336437742,0.1548132294603423,-0.2274025883944311,-1.9640139298003225,0.048315263748340276,0.44709398151660773,0.10901084557128429,0.03767620367480706,0.07082235458343952,0.38375704183311193,-0.27256891842826797,-0.2879378095701726,0.337904903896901,-0.12143965159921306,0.04981750805360848,-0.09189442709337384,0.8109569721730293,-0.1187237976648416,0.03869075024591156,-0.13480875398265102,-0.9972611931023561,-0.2157883392479281,0.4113876654999566,0.5384482780410127,25.198383657490773,-0.19158899070855126,0.448246069980273,0.1899334409304054,-0.0084815178759488,0.01650029760079666,0.009914190582893851,-0.07430054860171734,0.060041968970640534,0.30963498353029406,-0.05705828968800083,0.012867985475468944,0.06237958384094089,-1.2862033242941673,-0.0033304835563171585,-0.05728366200563197,0.2180401239378263,-1.361702584886524,5.846283035419038,0.9137361130395747,0.47024266347306326,0.04687185156384391,-0.018168717558007034,-0.0648496756819799,1.489441655519949,-0.22261650171711164,0.19125157368015416,0.11270240804955747,0.6862517031549327,0.530530080221754,0.1569679841722856,-0.20369166403176597,0.03467097798166587,0.0539886521994892,-0.411883417444898,0.5638052374043819,0.6980062336713084,0.5312611841720557,-0.2388618717677114,-0.1196906529707883,-0.22307640276952723,0.6702206101652408,0.23132061336844384,0.06698698319103645,-0.29123675695666534,1.0143004814068755,0.2519210953031397,0.2892309682228743,-0.025350670098815194,-0.5107658430750138,3.686833730614256,-0.29027066414577424,-0.32623489456732874,-0.33407281571664127,-0.0917109542857033,0.4964729143970893,0.32735787931636867,-1.2770130226069374,-0.1759181224056416,0.000553165945816536,-0.1349647396057344,0.07284314668405537,0.17313711298612744,-0.11449004234667375,0.4783267156198276,0.06156020638475097,0.3990368896501932,0.35477594982260185,-0.6096933719443405,-0.06654856008545694,0.4550186198122319,-0.3133334020891841,0.06897709754379089,-0.042956253057608675,-1.1212305850476685,0.1547766900473551,-0.3999311557257038,-0.32034410299731314,0.04042608631867587,-0.5882738683592661,-0.6420942513720538,-0.20540086111164624,0.7643965165639076,0.5478152184193621,0.054554291952085644,-0.2985438561709932,-5.062819574220778,0.05490300109652397,0.9365660437188057,0.39526323469799907,0.28248019123422224,-0.20405779315099098,6.660933082999795,-0.38779489263156225,-0.2995071125738913,0.23483317598725165,0.2588597572825323,0.21414847147011765,0.17293484557884603,0.1476844111101782,-0.028228436468809584,0.6732225468022638,3.528596543384735,-0.0005788700825928245,0.29284939098700974,-0.08181792280742774,-0.1104174485618698,0.1515555533778556,-0.006527057894668004,0.18454457986195227,0.3468294834612418,0.0518369561064584,-0.14574248307463403,-0.2955317542522467,-0.27010040977104977,0.04349959402230153,0.01658392080066787,0.08738781790257719,-0.7742450335895457,0.11986261286293465,0.7987560122233532,-0.23935201899401204,-0.05865521633605154,0.052320308436250566,-0.06485475695778796,0.05089096484235056,-0.03956974680476289,-2.6391050313230866,-0.008670877033835263,-0.2828201317238919,-0.6080382784519233,0.3849000306251666,-0.1590009869414794,0.4509121570232163,0.007891499824164122,0.00002314825463825959,0.17042764103114827,0.43904716022829965,0.40890229017412255,-0.1969390756362006,0.012339514972409526,0.03803742567179189,0.023177645349142694,0.029683418850048698,-0.4321137155513865,-0.4267257318178837,0.06051382462411957,-0.010150110366650613,-0.12259887908811211,0.03968729076465075,0.05103848551769102,0.10857110068101306,0.8194819412577853,-0.08533632005022568,-0.0711573497351657,0.10269983872822448,0.028242676161983327,0.05848305109067052,0.08836586480284969,0.017814604180696313,0.04264168608082614,0.004210396542585092,0.07162034951634694,0.06788016436817529,0.1091098662385178,0.5521817615704844,0.31626971256580877,0.09803895692655781,-0.289774736275113,-0.6287355642018317,0.015905522790864397,0.22520094851433417,0.08106646237514116,0.09118706591742624,0.27371891261831965,-0.45642727875464334,0.013449327385825466,-0.20901401669041417,-0.3077170797383434,-0.2793373782854079,0.14329937352160266,0.026146101577686553,0.038170473583940316,0.08048458045093018,-0.11214364694922661,-1.8374783357848665,-0.14117164387789058,1.2116911624739806,0.6437726650134606,-0.20169183037763838,0.11369909476563018,-0.3968833267172426,0.24806727739832282,-0.09993792782821617,-0.2557498155147154,-0.27784814036120586,-0.1580398923456124,0.1022942697821217,0.4143620687983655,0.05057515949053387,0.09232103406531238,0.04906281584698462,0.03201343346934679,0.17261498234251582,-0.13735539066390243,-0.1744340106338353,-0.13981031061927088,0.037412767743302267,0.11441936646387148,0.09160566200668585,0.05812389801409984,-0.07403908635141394,0.37060142731082313,0.06528407793781311,0.28491729968380264,-0.08332220387422903,0.07689933756630042,-0.0019239979758662769,1.3202413305526417,0.04996761804306335,0.016877848574266753,0.3475448965884792,0.34854095762349124,-0.140649066163137,0.33282778153342346,1.1251517261652486,-0.005274265767353721,0.12013093525361988,0.4301376726846967,-0.1274476567822184,-0.29434556419878966,0.15713770381646366,-0.7165323567579237,0.030919460696557696,0.14086657886715978,0.5583950270638143,0.1049364973741252,0.0625060711740919,-0.3721853720302195,0.9577943259322164,0.2254452253217441,-0.027171705455010867,0.30521846842776146,-0.00785365337418278,0.11374823924344069,0.00032624812563156164,0.004178052176810792,0.08677977750413007,0.11398974943272609,-0.2566288070412444,0.04659754555746968,0.07999966536141251,-0.09483412833860935,0.04878229189753193,1.3045140094526364,0.24637484097543488,-0.08814246381905053,-0.08576351559092209,0.0436738546598289,0.07770621393433381,-0.29674824032287583,-0.04417970772232335,-0.2761652548773045,-0.07782575410231045,-0.010261848917503657,-0.06386414237894124,0.3822239744967355,0.32910177267781116,-0.6064675920244917,0.0556674906247686,0.018327608335333607,0.036570177293459266,-0.32801476115371403,-0.024237373278042245,0.01338077405096261,0.05822958861300896,0.8823296459646425,0.2038916691248378,-0.000499633870667852,0.06234332005215675,0.015955669409136522,0.8162311406244029,0.015499124294485219,0.5172880112763739,0.4362598282692411,0.24514549090622412,0.17839879509413853,0.5459461415283725,-0.6752850497661763,0.5565468308570051,0.006483825876437085,-0.040619710248028545,-0.019210337338910484,-0.010234036086712323,-0.04513952323135388,-0.05701987062650318,-0.04204394952574641,-0.08184191856331784,0.4859965066228428,0.12215942404791533,0.171195150940405,-0.26289980791102,0.3478107569934316,-0.11801868773820198,0.2988685101636879,-0.35937894199608056,-0.057882617068805306,-0.015198319593182909,-0.006956559510081494,-0.07365049518389637,-0.045417201570615635,-0.06743049938035377,-0.03891070045483395,0.03909501234946513,-0.08715273838388783,-0.046208600679106225,0.2459268582496112,-0.278801600739213,0.10763823443921233,-1.1396854146162068,0.3397330966580924,-0.01467857479394929,-0.3106329212087242,0.3401487535020602,0.10407087347507588,0.3946616692957757,-0.14079235693140466,-0.03206775075502066,-0.14174504963485393,0.042370273341275466,-0.2556787652288246,-0.048350991432304306,0.3447664401006239,-0.07917228699262865,0.09414058410837407,0.28344133082082895,-0.7970719171145983,0.29691809586145296,-0.4255014823095406,0.26094095837898434,-0.3681698041893278,0.1380463419560459,0.10227341192388403,0.11981306651776308,-0.037397289764842176,-0.001119744742941579,0.053138411635719585,0.4794737734946078,0.06127766871134926,-0.18811075742173372,0.12090128421807513,-0.14495467987984065,1.0076552877570455,-0.07778659998481564,0.009064444668636958,0.005256989818582838,0.03444171903396909,-0.08264259106400576,-0.01985960789657794,-0.52446886262717,0.03169412537307245,-0.058031710255558075,-0.10479127319560577,-0.04778560434644519,-0.0722736055897359,0.3118337952700495,-0.5018555523779281,-0.15240205202254622,-0.1010413645990659,1.224916634162391,-0.12821174757919765,-0.30504998214907963,-0.09690128613979349,0.06963515285619012,0.14597155699565528,-0.10421197125974666,-0.04326948495339104,-0.08989865269758592,0.32187293329307737,-0.5170688946527392,1.4405040429342135,0.0827544588107879,0.09084277954412648,0.42782170151888077,-0.01330837882145544,0.6963463025849023,-0.03821797549824861,0.15677324001160817,0.17461289244180045,1.6852091354981018,0.3885559327717682,0.08149104088325869,0.25550470016971927,0.19092611497156906,0.1802348534149154,-0.009966620065964818,-0.7148580362689313,-0.045564518404853274,-0.9244440635075425,0.3015634019512631,-0.6267744251195629,0.03514643006761927,-0.09058984602324752,-0.0734442644226114,-0.09588127863628396,-0.00020882905845203082,-0.15657555101719556,0.17677274130006576,0.28126224610933603,0.18513430618896845,0.0018291657889955462,-0.878328791667456,1.0209461915819293,-0.558030911112427,-0.5237711617302078,0.0641278338961657,0.023575417563104325,-0.018450877211389258,-2.886134282675898,0.03160721122248066,-0.2657203637076485,1.796980123749974,-0.891246356865892,-0.08988445335350395,-0.11038209358170088,-0.3296839600965603,0.09753294272078301,0.5272169484188938,0.07402929374581856,0.04311527519719687,0.07966289802172227,-0.049251347007392254,-0.11313274634807946,-0.45328531526365423,-0.8147572093742098,-0.0872878411115431,-0.1057861322610361,-0.5037439218679522,0.2765938273522933,-0.10048315621653248,1.0433706931626607,0.2468658026799282,-0.12893978802638711,-0.12156608396614214,0.010550378421710756,0.8078021243070647,-0.5733202994020159,0.2024372460479156,0.08239005255359211,1.7988668876748704,0.41694301345549545,-0.07242106369582783,0.9750117422180967,7.927429573528397,-0.6874627523830634,536.4172749793286,0.1479705430573901,0.04028561570651366,0.6246156074735386,-0.12704558841336658,0.49215700504436083,-0.4749852386216989,0.22260642441612746,-0.029389900001592,-0.048978398342517465,0.09748564237653456,-0.4622833309683736,-0.017110650818762504,-0.010122128349433093,-0.31898479390110157,-0.2234427445042966,-2.4304967813556626,-1.4974792954421885,-0.42748020000902354,0.0013697928619663645,-0.21106109485520433,-0.2642074291711743,-0.24583962338286736,-0.05623186463433918,0.17028970228990767,-0.035575450603429704,-0.07906607076213226,-0.22493769201755526,-0.047343194063801566,0.031193268262763817,-0.13232582696409992,-0.9956501761328869,-0.3811337733781522,-0.03604459675097949,-0.0066234040082808225,0.851324718351391,-0.4646821107133889,0.030054612864180152,-0.3266787087269447,0.8456358842382435,3.481131803525905,0.30860500992954076,0.040361928284178734,-0.033300541299393416,0.11248520712010862,0.3396199790402549,0.009550771024925499,0.3343783619019874,-0.11643133964968376,0.20018666692504566,-0.3453130961477784,0.2088758366385885,0.5834804167264789,0.5784216522065313,-1.0279916584469557,-0.25623892659864606,-0.39619734595697215,-0.6299934071990715,0.3518701494933955,0.03686013957030616,0.10202604030295495,0.5575567814883859,0.29231797822453154,0.023694676989280402,-0.14627346866582266,-1.1973957887693538,0.05288012160703095,0.22659923812845442,0.1775236879802593,0.13510977037285155,-0.2511700753881172,3.476312289306469,16.293847539658803,1.0683895562786456,1.0160717839596412,0.12328836816917763,-0.2509725798841803,0.5308768987770807,-4.888218899380138,0.26919589682940187,-1.618213046784685,-0.2779129194070902,-0.19451364083189246,0.050532571943429305,0.46127050640020323,0.554128209446422,0.4773082119574957,-0.014260127003248352,0.004293609432953396,0.055321022679434076,0.2044682743606523,-0.03269470289347462,-0.024494815807467613,0.1797516992732799,-0.8144345186738472,-0.5489000981736479,-0.2605094291242694,-0.3533938724110538,0.0027674693370750092,-1.6941576920531665,0.142073953902077,0.08851308993485593,-0.018631382932288085,-0.011314686440127147,-0.08273345759809068,-1.388872550783216,0.059514666451915096,0.16892332823528056,0.010293236614775072,0.21267541946247748,0.380757661080784,0.1262952446760003,0.3360597462831358,-0.029354081852977755,9.536167765773023,-0.3293359521584634,-0.31438586832156334,-0.15507793217822732,-0.06801116837450537,0.010877147774846949,-0.003834450140446366,-0.026025721096352098,-0.01101397921169019,-0.042452068025549856,-0.1582586894933157,-0.05086361925010136,-0.10937546839854818,-0.14190375993111617,-0.13591728333091765,0.13269899346744113,-0.030251347963696777,-0.011931305292670297,-0.08708807550653579,-0.4814558155007885,-0.17460867843366845,-0.14092834380073785,-0.11002328491981717,0.11855698244863296,-0.8686190036130754,0.29885177287368725,0.025551751081948577,0.4566441037136536,-0.593785363365505,-0.005535652506299745,-0.09541313410503802,0.09732413828950638,-0.31882478624118915,-4.355899129640465,1.2794895057568112,0.42504649509644776,0.2452650679925772,-0.013738561035109212,-0.14845158967056374,0.150718469444502,0.13905578258487394,0.05682184198507138,0.053743741232705054,-0.003417989318794111,0.1524741404052478,-0.16045283638660393,0.0022688075588050737,-0.2482860269600259,0.0874844693469731,-0.26307940530461954,-0.03460130594312237,-0.2591617784422335,-0.8978829393241641,-0.2874744678857901,0.7444644360547233,-0.052431313907026496,0.046646597209694406,-0.4595518128201599,-11.950692902182269,18.670591648690216,-1.7166843855241427,0.18789868972566737,0.17406387735518805,-0.17531577961413877,0.054289580925575516,-0.258812423177645,-0.17834055103592125,0.025012965509101245,-0.008544635469432106,0.09269143826231109,0.027855740820470223,-0.18638452586562726,-0.057397697542128624,0.03040113905430688,-0.07248345858010687,0.17033311535216802,-0.1732138395072593,-0.3352001143695961,0.03405393252651555,0.44962351708820525,1.499033577302903,-0.4696729899268987,0.04458492569756671,-0.18420307266768735,0.25753735134875533,0.3758320484135842,0.49090485798966055,0.06986005729285522,-1.248777824799396,1.5191190663319214,-1.0000504515478448,0.023133686269435075,0.040243352453908775,0.06637767247471225,0.43188111276593755,0.2523454905236992,0.06323006537885091,0.14177485615453173,-0.218487973458254,-0.017098363546834867,0.2096160529169816,-0.5854562924971928,-0.1553765533176156,-1.2160919379490736,-1.4612615009414898,-0.3806426201183084,0.17438704397742708,-0.45028247287468637,0.17500741366521774,0.35495690974542166,-0.0011945443387330612,-0.11680614004998305,-0.04310336417640827,-0.04059322862883758,-0.044967832635931564,0.27590918994684105,-0.16889161720270743,-0.3631235039893132,0.24668404755005058,-0.1818820636160533,0.219903136160131,0.7310041300797424,0.2519173048018695,0.003523739603380201,0.6753689657937885,0.06326215644679792,0.06877195129335395,0.08916143633494136,0.1414196117299875,-0.00738558264949039,-0.009987625363861762,-0.056332303119021994,-0.1251284188564783,0.05312240682913206,0.2992275776980905,0.08536567313699285,-0.0779818774894049,-0.6016152524821827,-0.2590629978571002,0.008081212114218203,-0.10203336122032783,0.06524088099481101,0.2976830971549436,0.4747600169919601,0.02139710518383552,-0.5717358072810977,-2.9581586613851147,0.07894383861645148,0.07329262868035559,0.029292489326580354,-0.547255169554442,0.29992051642336987,-0.1799142734364999,0.007753900089575154,0.3423352594085225,0.03672466386491766,-0.2997842643653343,-0.05969017217628416,0.07785143902360146,-0.6468294677244811,-1.007674105226843,-1.3187348754873667,-1.1681818866940823,0.48544288216368103,-0.008344987454532082,0.03972490855785861,-0.2967653787888677,0.4751394759853562,0.3310896108663331,-0.022390761935818845,0.15362992714409493,0.11831174746517366,-0.0587837183168659,0.4001292391033998,0.1687827573509374,0.11344696324905282,0.2660025101121625,0.23294233646225407,1.2981417904595691,1.118021912446261,0.6849260831288475,4.379675892335407,-0.5797557406507754,0.7299093696069753,-0.5319924259147424,5.594580941070916,0.7860253600976982,0.7956640554473857,-0.17101559331770635,-0.6239236793390113,1.0769989922742225,0.07536634636214036,-0.04590230441146873,0.5446222892253194,0.5170293611926052,0.3844671505512904,0.44637778408423046,0.91059668760717,0.671243325180957,0.08511611155259707,-0.5003818484105631,-0.016395369905679216,0.12317717865975127,0.17017014371705405,-0.023914196649900413,0.12862338389081418,0.030071157116251742,0.028691840377832775,0.1773096298149602,-0.2799956209722339,0.09004920337556327,-0.018501138159066424,0.29772208104135545,-0.0336256213710165,-0.12187464225908512,-4.420684719235357,0.13101895201427188,-0.12172357468868003,1.2679513073221838,0.01142061541440218,0.1485894495347794,0.1531350245808036,0.03342374326491673,0.22915659786390966,1.0597830212455321,0.5063494549979407,0.5265483214740001,0.6603395863657702,0.8338899397802034,0.21036313022056638,2.1304260009390132,2.128610637522412,0.8912015073596937,1.5251119993699283,0.038322725269346436,-0.16154034481498714,0.01449568299691199,0.37505407969694365,0.4787470898718662,0.4450892675508251,0.4353740710620117,0.0031045744159249778,0.0615194886747194,0.05308951769401755,-0.023153911732861524,-0.7745914206672492,1.0729494658639531,1.9523965628096795,0.3236373657113163,0.2257421778595529,0.3132008314422457,0.5287881578088102,-0.19487530245452014,-0.16472880841496465,0.014877738529941568,0.3159718243305325,0.16661891784654592,0.2120120898558908,-0.0005862342017533212,-0.32478571735246575,0.045105199201625805,-0.3761393301833624,0.5546392120698287,-0.35418881367646027,-0.32460644448676546,-0.11883111699283554,0.220293143404522,-0.09756429792786833,0.0005650561993171059,0.40758286415351397,-0.04661934563200293,-0.7018354283588779,-0.5387806581069128,-0.020377136283860665,-1.077162888794147,0.13577170282893633,-0.13979908231281007,-0.6083704588529002,-0.48741511666569076,-0.08053319483297634,0.10622766682172059,-0.0526888904870581,-0.7006836482588882,0.5974995559924184,0.21456642759530406,0.05824898877898314,0.017223102088380602,0.2746559572178453,-0.326077454007059,-0.01673480439999979,0.05121052094906955,-0.4398369057673374,0.06203758251901195,0.104188450034253,0.06547960687323233,0.7049166272574351,0.1599383161050856,-0.019621698627936477,0.028251756258306743,0.19077127741588443,-0.0497783614677906,0.03044682921995427,0.07229412444060242,0.019446727846653366,-0.055559341323122464,-0.056585671409607255,-0.05247505760743329,0.2957879561704349,0.12066463310106736,-0.03983977749210884,-0.08612068368624771,-0.829876627712774,0.8914992116845942,-8.384437348835649,0.34613101762725274,0.014983934091312896,0.110394052187091,0.05220793033109442,-0.4625064108620881,-0.47423463266284704,-0.4409065777856962,-0.6709469014206325,-3.876163085458878,0.752019559091622,0.1698686593181819,0.5377687811180011,0.03431447312308201,-0.25778966023088,-0.10382035033020151,0.5846372052689605,0.010114649300425944,-0.16975836026481375,0.1047740584016062,0.12372120690819294,0.08651059839518309,-0.08545737788809446,-0.04900614442828929,0.025592423758972884,-0.007334652390810103,0.08230777574584175,0.07130180175783382,-0.07164281019218464,0.5538270496743346,0.4779268961674666,0.5373809125137116,-0.05418216288867833,0.2669336598126092,-0.04886639561549958,0.21024428940711035,0.10175585964942721,-0.05240704796708865,-0.006061826629757611,-0.015896808912994352,-0.5191313160361131,-2.2595625164584257,-1.0406946231756782,-0.24427933276301,0.42860355684995843,0.08801383968664846,0.06393270839987882,-0.1849738136754367,0.16556220638383295,0.1539598141841307,-0.0021854121059013162,0.15022674659917634,0.015325723896536508,0.32473645481360475,-0.020435949047375043,-0.12396263366992716,-0.31448261560349605,-0.04167351658803929,-0.17733245117333718,0.016479357895382053,-3.2539618204061247,-0.0799539890081556,0.2898979698598107,-0.6746910057201768,-0.08687296302549957,0.29423013167740864,-0.938991837305172,-0.2429514133045242,-0.058316106694178846,0.23154019378159105,0.050401776428520575,-0.9458247089593037,0.047219954717806566,-0.06174889711961993,0.042934602347828456,-0.33816384100088953,0.23791168061757004,0.20950316073110833,-0.01191002882575879,1.2372820774326154,0.09665354833499117,-1.3620143085312777,2.025388869035613,0.6782036003712459,-0.58886765856731,0.9283200909291117,-0.5401679002675075,-0.8581563870602191,0.148451092375478,0.12078717013497954,0.06423077702845136,0.09666836239254531,0.4385129614959532,0.3126189201596713,0.08171723734475728,-0.37009554099467085,0.3818444698461783,0.22418520902038663,0.343679051479496,0.06810261631140249,0.07466021747079607,0.12786087807679483,0.03786531191293596,-0.029006705344813474,0.01806603882345909,0.1411603553705592,0.6611927122555209,0.20569987805938664,-0.06645778250727333,0.023286922118963483,0.33593035969615714,0.10112611794162683,-0.058539611169826644,0.05348870083984774,0.16393333843727642,-0.055843957785151735,-0.06011914446255998,0.22265457728378313,-0.023301221158873148,-0.011254247286474913,0.5188540382989006,-0.0532374804650778,0.14120702532295226,0.14605503007653434,0.11385893202556846,0.01314760510546285,0.5947275185142263,0.11815033323575506,0.06560127767357657,0.23914416147533143,0.7388642183463477,2.1369493939858626,0.08163487762727013,-1.565326837431527,4.193783214977779,0.5526737043243334,2.7240222044792084,-0.31359870273087037,-0.5314504461158779,-0.6248995311957357,-0.08338165019204638,0.0903927574485908,0.21082140665363303,0.3778303581078275,35.36345167958961,2.4076776248949954,0.034284981192362,0.35277078806849604,0.09958819174033032,1.093842336606561,0.05366948691639367,1.049746145623424,-0.5842571973202555,0.46553007195588814,3.1650734577763284,0.7201924258206742,-0.022106700331686133,0.486203965104366,6.605572850880891,0.29098502970049783,0.31405628512004713,-0.2186818987941403,-0.04325635727646025,-0.20383913254792474,0.010209293552861792,0.03347127873731638,-0.36931250703155627,-1.9438745092138312,-0.3900953955934352,1.1795530777610737,-0.6697377733768897,0.14825317695900211,0.05566333863926298,0.14545622098974353,0.06719482154266254,0.12845145103079855,0.09665321758213435,7.933190279983686,-0.20714967311703766,8.123634782386059,-0.025606888618285105,-0.05028711140420137,-0.24466170790221659,-1.0617228715894815,-0.45955390540581015,0.47448385444901187,0.721965329609421,-0.015079947739619619,-0.4000396755254619,-0.042164653914830263,-0.040217077364402276,0.09623998527082706,0.34021047155014583,-0.18774947485631394,1.2214968716375931,1.0046957353157169,0.3034456892422286,-0.10467920390550078,-0.24091227670423368,9.183907469722929,-0.03646748739930494,0.9618423607773294,0.5011074621872322,-0.7883803409165308,0.6006870530747038,-0.30363633415937297,0.47388960606604613,-0.4502240099696764,-0.059156744804246285,0.01785336788898804,-0.029867730379486902,0.19810924076582062,2.952352527903948,-0.86805515555698,-0.02629880746681538,-0.05482317721182446,0.5698304284771138,0.09310079773582801,-0.13979745796172924,-0.10795086809516656,-0.2625532839604011,0.10234790973762435,0.28600652648133623,-0.04665594027790909,-0.012364941566354155,-0.5799747734330133,-1.0580225161180747,0.2328518577464595,-0.026172608442127838,-0.035906633124488045,-0.4170954571190605,-0.007763357343086846,-0.6450719121533546,-0.3724818222276265,-0.3757735462150922,-0.39656888644448457,-0.8037585758423119,-0.1119499031138364,-1.3470846434009407,0.08273779051631519,0.4737736816271274,-0.03384375626157366,0.05549679268412837,-0.4051839166331816,0.09520352266196319,-0.22646015640489986,0.1943599652457165,-0.08741975128105836,-0.017132501968358086,-0.5284306175486742,-0.5054662273580742,-2.028468167523261,-0.018795157396511768,-0.07073720642455138,-0.025073771478541007,0.838561630248606,-0.08382376565774939,-0.35663982266109717,-0.13482709595305065,-0.2297831014276166,2.335391278638859,-0.12464759167317578,-0.0068202876472727835,0.10774583091541988,-0.0803293944401061,0.41192593732723926,1.2460048443685063,-0.06769020875459776,0.2735302002885798,0.10131051885126703,-0.20748103378382005,-0.1996377941670841,0.024298878594563682,-0.46624328297174605,0.17902490810550356,0.1821752288108157,0.17534469988399745,-0.042040600706981845,1.6229306582789889,0.12149971640849021,0.11853482398414905,0.05945683095620853,-0.1456913715598,-0.16946530453039835,-0.014212359927726247,-0.18805409011409444,-0.7341615347769544,0.3386668812877353,0.1541241723367987,-0.05699200225003675,0.022152022735013075,0.017792650884384156,-0.10612879354069918,-0.12068534921091503,-0.3949666635462537,-0.35797965799976705,0.037623542513955804,0.16388363605371778,-0.14291390650945576,-0.046107925127925345,-0.696634187937847,-0.421622914563067,-0.6439946041983253,-0.07486275105010619,0.0006013811068244748,-0.03852922977922131,0.3110035575259493,-0.12538806498024266,-0.20781862108266846,-0.14487106212792905,-1.2042551875815077,0.049143440161074484,1.0155074727797255,0.0594240817202837,0.0372251180142488,1.3469796828666742,0.3340096398921844,-1.7560878496011543,-0.1799586851348939,-0.59854773007928,-0.13504541855052637,-0.14678863228938077,-0.03708363282589466,-0.07906301939433583,-0.011616508372736884,0.021862535696205457,-0.007688166738299486,0.08184180704350118,0.0742610177072978,2.03144447083867,-0.10449229874777112,-0.49683886720621767,0.03326070827983241,0.6057498424878878,0.17124702838081807,-0.013175446489197438,-0.06013429161656142,-0.037602795817066194,0.01829663024334243,0.06854058023129335,0.1683416014983004,-0.6196686640648684,0.048496009468705366,0.051287878534147846,-0.10276257674032724,-0.039584529867337244,-2.3315309614671085,0.04080821328898527,0.7228536533467232,1.3188555333182348,0.699544188230737,0.20961304026605013,0.08662600548891236,-0.22678219010751896,-0.1442118976630684,-2.0913270904435293,-0.11136669068019596,0.04034925165174555,0.034087685801732284,-0.7553089042910112,0.005881108226546736,0.20234244864319248,-0.0687926671995804,-0.040244757694374196,-0.27386955521859985,0.13484995461266078,-0.8119715423991707,0.3670823566586045,1.2991774219998056,-0.23203429956026342,0.3199660396195584,-0.25538035571961065,-0.6737863438219424,-0.5837985838021987,27.415544933038234,0.5874655594470389,-0.004951072398922121,0.02781434220066531,-0.054290387382629465,-0.23809736111047894,-0.18213408354082403,-0.1627772488289319,-0.2163159602772361,-0.2208821975166993,-0.08251472002771804,-0.26222903124837815,0.060792783994237175,0.4699201300919885,-0.2647614381666082,-0.09199883263472342,-0.21218583999808863,-71.60732264006768,-0.8781988337675486,0.03515570367882224,36.37507451167643,-0.12856147926848124,-0.21554346711637642,-0.09321400880189483,-0.3603242223089806,1.5460717208696255,-1.0881791942861396,-0.019669316837202272,-0.5159205102950292,-0.6948467925653156,0.5100195379905387,-0.09254791726915981,-0.09298797322973666,-0.9010724656290563,-0.10509068108169496,-1.6063472810053037,-1.1794432276262217,-0.0006362202455645139,0.8059101550931769,1.0793131955613289,0.7917349927938826,0.6386590145640645,-0.34882816100913594,0.17925469740157984,-1.3238025784279062,-2.9273047812106374,-0.9593735669226745,-1.134566563215859,0.11285210348427357,-0.27966531766671204,-1.385615268483247,-1.6162170979083619,-0.08457009063623476,-0.012762627188645197,-0.06365935213578158,0.12078675907154157,0.07279454881849869,0.3950649001551749,0.1452298676261564,0.41231789944850245,0.0017889788848031059,0.13760403185255243,0.328923059099204,-0.3079317004401692,-0.5676354743639963,-2.2900960123858844,-0.12835979922484408,-1.1705110604946285,0.509149285907,0.08155936406411343,0.03143558424895768,0.10460746015477308,-0.08090969713442113,0.18384659213532104,-0.012895043268570508,-0.1533060603413322,-0.12623995513469896,0.029040892693587086,0.3195530271342197,-0.9316640533383468,0.3156417074723326,0.6480497895587359,-0.38034488094948504,-0.2835184490599283,-0.14442954805232966,-1.2412553884160782,-0.6623959318229232,-1.0269006122428062,-0.5142444523774459,-0.1448739071481373,-0.18460950347224692,0.17861339824599792,1.557738010916406,0.559715833095977,1.1678290179177193,0.0670356828657476,-0.6346985927034579,-0.5087948285646949,-0.029587411510654384,0.05443793459117744,-1.9745408815085816,-1.393176081452911,-0.1946236299709512,-0.1329025368080109,0.8610255812718174,0.4227949218160762,0.2105941277695542,0.5463154434971897,-0.25626864932585164,0.04127568677955633,0.14920336320343297,0.3559749142699401,0.7803907273903409,0.9731911108279883,-1.9433275238849983,0.04269446241234245,0.280177883389144,-0.16613679099987277,0.1515651454721605,-0.5366076925993442,0.7725075006793345,0.07611261100250169,-0.18059567064935644,-0.033961518668855335,-0.4923081334894789,-0.13123126607679284,-0.16482315296072217,-0.05719844289749823,-0.05653860414076643,-0.047163660552108855,0.22370277916083803,-0.5308016738410771,0.019879658286370706,-0.6909624508042763,-0.025369229680636596,-0.1081652857125938,-46.493989587274164,4.415344721531268,0.22005075396491922,1.3441054433124042,-0.1190336631289884,0.9609274436257078,-0.12483732766671995,-0.21196999529592295,0.406615797638262,0.0617238594377303,-0.13610276858596415,-0.12014711715954596,15.836263081791405,-0.306644350156875,2.0397026500026256,-0.20423121359156365,-0.43836995693908243,-0.005238900043879155,-0.025246459006012408,-0.462870161511237,0.9652912095940285,0.8735846326840973,0.6438921261578961,-0.24226890767347825,0.036812446739988715,-0.13349231975719553,-0.1295772386668148,-0.10054678153978146,-0.20039542743307598,0.3126953225073127,0.4322810421016858,0.3585474018837939,0.5492777667966173,0.030428955766726842,0.06281189272315706,-0.06977243630084475,-0.1973972623536332,-0.18186571936317011,-0.14523575265320493,-0.24477086029903652,0.9708645717269324,0.1392107958337282,4.255898599422196,1.085085105438874,0.6154050438278116,0.5451168849461532,0.11999856130356623,0.09698005373214112,0.0868335072171488,0.039677317769301126,-0.02962585233904809,-0.9840374252347851,-0.5879708114755555,-0.048798781110451106,-0.016588357446656224,0.029212528975699,-0.653413787202543,0.03719924983747843,-0.001728752959691636,-0.03613534980271825,-0.053489947673774435,-0.1876989559829254,7.467429173269074,-0.5571713511023293,0.05654815324179595,0.10725816591254021,-0.1183652086202494,-0.7358558248783869,-0.08248942141445531,-0.08536241966141596,-0.10381533899558563,-0.003330009968298997,-0.32210499015202304,-0.037333766601000955,0.746253796801378,-0.10244414003575476,-0.28700598374063885,0.11053736741972253,-0.03006225127329685,0.5427524303201265,0.01646470979406234,-0.12290597816809172,0.10044253124276224,-1.1053259083265314,-0.08507031115178149,-0.15622477547711142,-0.10706307831876354,0.04347838376972246,-0.15709786421910177,0.13626389600138142,-0.10441224800634674,-1.3838647110295386,1.1003319014339212,1.0833117924584343,-0.12676451587471568,0.04383224893868274,0.28494163757470503,-0.10104526832387788,-0.24960634006972707,-0.022656930610357357,-0.050879988169802735,-1.7119006424548566,0.036608812168232016,0.18996893790722735,-0.06714799644526338,0.024990533745490963,-0.39270011576463626,-0.6360832808171687,-0.7584414999796744,-0.3248873526712435,-0.3647503425919721,-0.7530033381249953,-0.7841299733654645,-0.14843236982810626,0.04416355311816013,0.5026567178159186,0.266441758597544,0.7536513517084265,0.371705974808781,-0.2016600498446094,-0.7997306932701879,-0.03289324228595925,-0.029004579687521397,1.121054239135853,-0.33101402649016615,-0.31278057011745636,-0.2954606675635131,-0.10282287019375623,-0.11117502325835289,-0.11393735429248406,-0.3217538955703798,1.2865326899784664,-0.05970886207311195,-0.02355552298465859,-0.10179738962759403,-0.43219682818578004,0.0387998668385872,0.40519578823196173,0.3462164369973357,0.4172907310128532,0.41819468276253546,-0.11983784108929353,-0.22029344848865653,-0.28425861151779597,-0.02654957054007644,0.37795956748422216,0.4467649895816198,-0.5621806555358895,-0.5916153749657583,-0.8284826392418202,-0.4350441018943765,-0.17249600526642364,0.4098094736269419,-1.7923804420556095,-0.18387069553000512,0.03253385216239038,-0.08636836832307822,0.07214456123492119,0.3564487356590546,0.3145097826939183,0.2708935672620567,1.0068546181783642,-0.03439543262797465,-0.0008600421432112119,-0.43365168491088246,0.5922488092904471,-0.16922098585910705,-0.045798084341600646,-0.20037358233584193,-0.038281859614964636,-0.014471926988673549,-0.13844540340625955,-0.07752852171403106,-0.10038788461963433,0.08865827038282507,-0.07997436917708418,-0.07168996712682679,0.30556057717010293,0.3491822274415809,0.329724114219317,0.0011966872734073732,-0.5166365132234277,-0.24644735845893845,0.14391321175805993,0.10792286770286545,-0.29877556686048773,-0.07068128561635892,-0.16710043488565796,1.2237804615482972,-0.928104953601757,0.038738713586706365,-0.27943053077389657,0.07041211940716822,0.05481415564188891,0.03317858898286717,-0.5008292862862659,-0.3466021018276687,-0.17338324976112526,0.020347587944173788,-0.4266481430941759,0.5128224976573817,-0.21459139296339133,0.22853672249760223,0.02003775206202554,0.4334752462856983,0.5466299892921513,-0.24865748025826653,-0.2942303637569766,-0.2639508396181865,-0.27345055431678017,-0.2645503728292695,-1.2681938794486658,-0.3908918311476483,0.4481826355637478,-0.07523071863233956,0.38492872114614995,0.11372170625382473,-0.10649709117583009,-0.0431858670694422,-0.06050973719874576,-0.05218580604394555,0.05672269314194606,0.5425756327451147,0.20579201585998982,-0.0507237986437065,-0.06764874048596878,0.701025441285981,0.3113370024644852,0.3064784003892825,-0.3187876021357677,0.0903080858045111,0.015813459891432992,0.005073142129636788,0.07906308286359666,0.07351875485595616,-0.009767179375785985,0.015577514097474886,0.0018591483712553831,-0.7610783345557394,-0.00005017408464968172,0.013496721058484637,0.14248766470751326,-0.0011998689695942562,-0.20769053484812586,1.9825656867518717,0.018403295466011924,0.06928275711143189,-0.8749326011227734,-0.06979755373521818,-0.3761743397682609,-0.13322641310967537,0.26276999869258666,-0.9580190341059057,-0.812665269424858,-0.5949658048428306,-0.15015449548277032,-0.11683124741803312,-0.15499059161150686,-0.20954456474267807,-0.05887445374596301,0.15637009833695006,-0.28615692871793647,-0.818834746594663,-1.1678611120660132,-1.1386934127038892,-2.026024806799963,-0.027843959040729373,1.1124467354388858,-0.025651829375126774,-0.30009518777993294,1.3321359615138542,0.4767467777417312,-0.14066172233238117,0.019736183453443894,0.34043036361100115,-0.9245924114292885,-0.613521667309104,0.05996380977533119,0.007883143779088482,0.41115432835416926,0.28794672376617897,0.2990265009084167,0.662915977473705,0.340039886224702,0.07514614066314072,-1.7643621220146022,1.3717268268712532,0.021342203528669244,0.5163390765453145,0.951241527431452,-0.31261989878007607,0.14829283888004655,1.3085363572751612,-0.36439505487361157,-0.16853138898574438,0.09026087465535129,0.1301525375990716,0.6842359532787528,-0.045264355380652516,-0.6493742552456632,0.12519261648655836,-0.2658684061393855,0.4420422911652684,-0.1869977768791254,0.07180387084464171,-0.02282207761128947,-0.3680062135047912,-0.022318782394686692,-0.16303133992553084,-0.09109874334822088,-0.05794457997132362,0.061846915830173016,0.10908975150043972,0.40193651957904847,-0.087858546230465,1.0203642593435966,-0.5272375922038509,0.26281789752802476,84.97002587597161,85.27965291525197,-0.14325996025339424,-0.4164567193717472,0.6378864741728957,-0.02570254086585951,-0.17358673852761278,-0.2562734933069275,1.1686360560157998,0.19698297750596896,-0.2629832419479473,-0.005586941728690939,-0.06477832609258875,1.06440313808614,-0.34667260997445454,0.027822896406531843,0.8352844336184135,-0.09101775004031606,-0.06406721654614117,-0.16387052251169293,0.25325009792751463,-0.5072767961333295,-0.4253360146589634,0.22161376135201216,-1.2642900019872532,0.7438952840921256,-0.18697192271611515,0.35423957233484044,0.7022551543417155,-0.37569266499270176,0.7985110389657154,-0.2052100178133044,2.3810003453531388,-0.40642047442988843,-0.4115632949562727,0.2456897657455025,0.2014817837463114,0.13673747421899685,-0.06915033634660252,-0.5928144679102026,0.24480073990980286,-0.048914361970591,0.5123454397148549,0.11002979838050049,-0.09036616494285754,-0.06853896584171988,0.4964142113340646,0.08230901614259976,-0.11084135968177755,-0.26214045645676814,0.7241055012643535,-0.2950219331368292,0.3881470582816338,-0.11337604637393911,-0.042213287813168986,0.04715180572934656,0.05305972826851225,0.6516799778849185,-0.3735645966388412,-0.4707191657707915,1.4007019174370123,-0.11243682547038701,-0.019443683180287476,0.5571457739844161,1.0177805598369072,-0.10764094626443348,-0.35298629761486305,0.04345683681658521,-0.21509440162554655,-0.5044581870604448,-0.07595898745941437,-0.033898980925492574,-0.04949526451583276,-0.014188109059443817,-0.03057661061964959,0.3116173836016747,-1.9060672163771015,-1.8410896732127386,0.06903130689925982,-0.029748259041992613,0.0009599997682631876,-0.010440925219840066,-0.13045989565292748,0.6167448622407603,-0.022604048617482938,0.22546098506677234,0.230216482166364,-0.026263624228450543,0.8024468130430826,-0.2990417869386086,-0.3341661562618767,-0.30151614610689614,0.25992298164848127,-0.11563022511076673,0.0011797267410863484,0.616032605422515,0.31552894802768194,0.2520716407360989,0.0015943133446136206,-0.14299482506085115,-0.2735375800038742,-1.9610220116747483,0.010332873891073102,-0.20505015268015664,-0.1155311744197625,-0.1618635573448698,0.23679949625855864,-0.05448009017011702,-0.09379902044643228,-0.09139625600113906,0.09740243337788916,-0.18230556454890862,-0.3084947583457439,0.015243487199672664,-1.0935717110181484,-0.1523202340686352,0.042437744126634924,-0.20208421698781381,-0.46880696534912925,-0.09931886425008589,-0.05543319713435392,0.005672995333291381,0.0029850196749464444,-0.018367134580459552,-0.05412298448489204,0.15032518416887697,0.18380318388012754,0.07815988168511692,0.06112478862660584,-0.2672270013617689,0.6844983089494074,0.05447280368210535,-0.2810228538004148,-0.13742273330399524,-0.19726188468759778,-0.07647229011617453,-0.028276326753059956,0.011175178775199843,0.013080743500959844,0.3661286116466825,0.10607468383168171,-0.20303713640574528,-0.24643928313482114,-0.1628545131798732,-0.030512933056966635,0.2950406732364009,0.09156948370095805,0.14129439470357605,-1.6276503024964268,-0.17655691818168523,-0.0683074534185608,0.15657705315990345,0.5129548216249268,0.3242662858982518,0.09910949386768994,2.042295113338395,0.04960044793734854,0.04252389628338487,0.1032800092307532,1.8833663840556853,0.11123015965880306,-0.03306497591735546,-0.05420546756408961,0.06095724816782467,-0.30439206133908847,0.04233292264665595,0.7412046729574305,-0.09118263150551151,0.29791972037195796,0.14332992580312448,-0.014784464198526467,0.21617089523394362,-5.674502362077572,-5.795552254700863,59.88113957754611,-0.8526848409283765,-0.17057150097517026,0.2625433325335214,0.02172508920671888,0.03659228012659867,-0.12448079079651556,0.0039899017820123756,0.049518144495291724,0.031619467727066745,-0.003340677500436113,0.03418202495216719,0.07758438774521742,0.1606810485841276,-0.04022055088102994,0.10127934281093494,0.16272531905220788,-0.8485556038685848,-16.588041502234137,0.20395730861930217,0.10896460352775952,0.250298474716836,3.256234847457226,-0.9552428356336444,0.12317444493169749,0.44413742433516423,0.014078024770021121,0.600819421721625,0.10292854401802344,-0.7111933844614857,4.648278765121146,-0.8904624956595872,0.0029466858556657016,0.05478064199327427,-0.14412910916254734,0.38634041436875555,-0.4388767169261612,0.15756032582996027,0.27429319662834567,-0.6225368469332638,-0.10511166727730846,0.11660059551222919,-0.03841933518492041,0.07169026905777086,-2.1507067537566043,-0.7866537266653918,-0.39979869974076004,-0.2786099008486731,-0.09325720155445699,0.04514421024704867,-5.382004722476758,0.10777226336002989,-0.09732044709094859,-0.03447470122514521,-0.05276925243461809,0.12669855963819973,0.46258088456098095,-0.16566338099002584,0.25812474316272954,-0.26568651776518604,0.6171793066200086,0.13364436090069615,0.15694729337274113,0.3559472748686374,0.8000450698784621,-0.019278808732451507,-0.24844469863928,-0.6935204144709389,-0.48870156135300585,-0.31128978776172656,-0.6547839073529522,-0.051444587563766436,-0.49782842903362007,0.29317488581202833,0.6837868234656639,0.2312546335199065,0.2146020523048769,0.11266766699577115,-0.10998584886556627,-1.5262280610571457,0.38941448597478234,0.5484898680515278,0.11749393517422495,0.2381510561055587,0.107049803013394,-0.06828950608249718,-0.05595203333294552,0.058560061934354264,0.012898996548384245,-0.0809049656385849,0.283928292267333,-0.2465226040579583,0.8930764596993882,0.46693546991350154,0.8058118521077673,-0.10807190073180037,-0.52475736450614,0.03349731892822381,0.4559246983692298,-0.030334698178348225,-0.10500319411189439,-0.3694584455375871,-1.1333166655180031,0.27062103247643726,-0.7066510046904054,-0.2644631317984571,0.27285765586182054,-0.10568298359439642,-0.2627804639886579,0.8145370229312059,-0.24468485902722517,-0.5644287807549433,0.2656599903553815,-0.17373865204818992,0.004619907181223898,0.05328725513703496,0.11022245209554493,-0.06517236674286073,3.0234423177039504,0.08651401326885212,1.5186934101900116,-0.006239237317844101,0.17624352992102507,-0.07452753158348355,0.11822503946631456,0.006896351611228394,0.7241806315658873,-0.2882274570036024,-0.047482115307758234,0.006454497907360357,-0.7382976994185315,0.4807321204443788,0.07437268235594272,0.0639470378952622,0.08102845695515051,0.3304535051136845,2.8630090358352525,0.4139767361975073,-0.8621481440818974,-0.6652994762433021,-0.02596238208419676,-0.827303559594407,-0.4039295838486008,-0.08570270522266686,-0.30650096563026524,-0.47559741113705245,-0.6840456235283774,-0.1917983607686721,-6.1504056844682475,-0.040642211769975456,-4.4693688937287135,-0.045734578155787256,0.4557422865277131,0.04329349207163142,-0.016005363334801622,0.054440552512352546,0.07637077620437252,-0.1496564225743288,-0.15745451435331687,0.120418482373286,-0.08502303302138618,0.01243692246590045,0.08641445039778642,-0.003494042359257085,0.9841453856921167,1.421055517917714,0.24696690342385005,0.2366816474140155,0.2049768279757725,-0.0073613740330819395,-0.06494516647627822,-0.04177930026469252,-0.022778658235797663,-0.05460433331729257,0.008451253419538859,0.02563346481677368,0.16349932334190423,0.4898030407007529,-2.838438200880226,-1.2793474809780725,0.38900879061372956,0.3680199064363875,0.13563985239284795,0.1801904544741987,0.36312285048652915,-0.08176138430997239,0.021236025860058384,0.22174711822985568,0.6151043991901236,0.048630814096312314,0.001862981073488011,-0.04480650888296014,0.3091861847194088,-0.08105599176662391,-0.13347686436579878,-0.043925590091981014,-0.7076850277259319,-0.015599180527993393,0.4517239649700747,0.17023307148269692,0.12338829097641589,0.07223712460734211,0.01412017967457315,0.41114974711341995,-0.09250819407946648,-0.07519477743836103,0.027298581161194352,0.11875495213020223,0.015629852210913654,0.11420964867227455,-0.13091165055317655,-0.006187711618830971,0.13933949736264778,0.5757775183305289,0.5117969373866486,-0.19769676953893445,0.141951432432171,0.04832902450081031,0.058781558293262495,-0.5159112933195538,-0.012206003641455168,0.43249665920542646,0.2959748506264879,0.767514902807027,0.008710119396861827,0.3463076953755706,0.6856362143815222,-0.008677326706669448,0.1004421941838032,0.2396838503858866,0.3475462801012991,0.10375925354966263,-1.847330702013201,-0.13079168213484277,-0.10115358304938424,0.3135290166751924,-0.02230478951972267,0.4360511613587731,0.059549581515659124,0.07501898302771633,-0.22022939227538843,-0.26233269866815695,0.26668285729317814,0.11859797176230925,0.10215802542086641,0.10329107263542386,0.02561237549171576,0.09720799135120187,0.23600427400477292,0.15090679179024893,0.08894323004394135,0.010276172147539751,0.18059965358709976,0.26190499056792876,1.7232133241213647,-0.08468512609059156,-1.4072549505680076,-0.0764861370700754,-0.056401375588230634,-0.11107642849894869,0.03581023378518204,0.02599462175632263,0.031926867343236784,-0.02737411878145498,0.06053856074905466,-0.6096526407224666,0.108697777229806,0.3880292107649056,-0.6882331628288966,-0.5200613512574607,0.4420782363517978,1.1623916616129915,0.026916090753248585,0.008847591036307374,0.009244849474487601,-0.050531961890751376,0.4276676053861558,0.17196693076685823,-0.05855736585466459,0.01153338762992774,0.036782277091023316,0.10630741179336221,-0.0018633360676681178,0.26124764166607806,0.1393362829864635,-0.7052392128995222,1.184130730137982,-1.5461372064904213,0.30694918998803417,0.021972156749693796,0.14206252751236953,0.023125138458975746,-0.03322802706571441,0.03249823148505379,-0.05172354234363848,-0.1310771744869714,-0.2620742914936792,-0.13090774439793545,0.3407173263468709,-0.022443994993329174,-0.1471695454445045,-0.9460496977568564,-0.8414001949904159,-0.5205096207490605,-0.03529353733918278,-0.5029329929826134,-0.42003371909935033,-0.007881592684233584,-0.07308810882489244,-0.07137257239654636,-0.29410077380426647,-0.0187782203782579,-0.023580544370459987,1.0668797189846442,-0.08499317107422269,-0.06611008765476234,0.2568081913670852,0.06527005684918304,0.4541390403614407,-0.890304268630698,-0.11793435783029882,-0.0986331075064928,-0.05334448578829239,0.3726468645750285,-0.48966085968434925,0.13196724096001297,0.03787513107928804,-0.08308661997823873,-0.005532392926786627,0.11097257532403783,0.11407135748242714,0.1246594430354918,0.5036609339901069,-1.356666164089595,-0.2099927438982423,0.3305571436283344,-0.4447662929109389,0.0030068296646545566,0.3184648403246007,-0.02035174558348444,0.3532638947450521,-0.25306172771109575,-0.13637730766126818,-1.380043998388991,-0.03454571227479212,-0.4866005479557918,-0.17071099324133374,-0.16954656091781042,-0.07506006722863447,0.6294066685215657,-0.2680325849915148,0.0600363056464685,-0.10575824429812715,0.07063871728147202,0.09925486346672827,0.156918219380093,0.07884196807408826,-0.08451940306375344,0.04021187367912326,-0.1067279772123601,0.0879667326067742,-0.3062162408465097,-0.06582504763493345,-0.014070819874872435,-0.06672024796384021,-0.2376145789534336,-0.12423778362106104,-0.13206505276363323,-0.3131511778820815,-0.1452517187125293,-0.20398414188069072,0.2717671513405596,-0.28744270484428736,-0.16845092980498685,0.39995580928922286,0.0895186653919376,0.36497288063510464,0.14008282950305928,0.4450299139359003,0.0634422129600234,0.2958290788721598,0.1684232237020285,-0.048448094110859624,-0.18903331782768942,-0.047899683506620515,0.05513771260171676,-0.033716088081989795,0.2677387960525665,-0.1883874160962751,0.5008650621251638,-1.116036270082554,-0.19852760573270575,-0.7006947790725442,0.151253471808224,1.6736136036427274,0.16032641103792541,-0.10963049381516486,0.029829168158871298,0.33169431392118737,0.2932426162854221,0.013031765787855247,0.26895572576502996,-0.1435114526193781,-0.2596704696804579,-0.1738698111219243,0.09334758279901173,-0.018996332404419853,0.610848131288582,0.825443648851876,0.2661622114786392,-0.23281731512080714,0.5853730463255657,0.6271093657575817,0.4352017947058361,0.4203559684377626,-0.1870123668768676,0.3836209644545018,-0.07344545403501714,-0.40672984499738635,-0.19061707715264628,-0.2738278521158487,0.5020006130110115,-1.5048917517760212,-0.3675512695492092,-0.05811207574181782,-0.3796301674853129,0.10512356222471836,0.3858439274905883,0.041767117822312745,0.01811006480879072,0.1628978081692029,-0.5205900809755444,-0.24118678192219195,-0.33679888975141187,-0.48745960269961414,0.6930616827974577,-0.12749325378404475,0.2840518224113706,0.11178098643128952,-0.030091274163804003,-0.31861128143124345,-0.14654650211761736,-0.18983364576806308,0.4245975702028526,-0.2198505491466172,0.19286413284381096,0.07078161176597672,0.2805042777041132,-0.21245605522589284,0.11203746260233144,0.020871379795777925,0.04929961105646382,6.512181379922546,1.904606072402681,-0.05482754059442627,3.3404131012975027,0.029645364309123578,-0.6485677927965332,1.1592038064338253,0.031364999673267065,0.9505195623715147,-0.5004271990274567,-0.008498876369748172,-0.15266695963479407,0.3339051619676225,-0.056228691514476827,0.5609532825424306,-0.336766570959247,0.13082657879505816,0.1321586893052741,0.015256472227426097,1.6051924469047563,-0.7036654595759969,0.04732709499153939,-0.2137639518553388,-0.023449517338114463,0.1921024830221937,0.009701063260293553,0.08350400843826637,-0.19096444269731658,-0.3377967103090932,-0.0828618855800279,-0.09549806194065061,-0.06999906840778686,-0.5709754231702281,0.3751263014664413,0.5218158691314354,-0.0402618445065341,-0.22621281590675876,-0.229250776826265,-0.04921643880249017,0.15885068601674499,-1.7154455269725923,0.5589800251932514,-0.2703224972698264,-0.11018097158025303,0.017176404299145204,-0.02678361683455481,-0.0018251402522601542,-0.01074726921521774,0.8754928800030648,0.051119969047862805,0.18867544514873708,-1.0436626833435363,0.7797249365137939,-0.003989469536012671,-0.3594956617985313,-0.031425417775156526,0.02767977900675028,0.5611583109440309,0.033896684554512425,-0.8748559438878711,0.02694069879557,-0.04442672476871575,-2.7475648147671876,-0.1159591594866607,-0.022058738311272138,-0.00023251383000648504,-0.022464280436943516,0.13337182366884162,0.28922289593097567,-0.050667494297303085,1.7494490965283862,0.3323103939112195,0.6315554064331678,0.10179625828660614,-0.1093729433101182,-0.1650519126323045,0.11852077244724223,0.4445294789330971,0.07197722996609852,-0.25917309529427013,0.5201044163105158,0.09516052504880833,-0.05221320200050696,-0.11689093890300067,0.7988995646766268,-0.6267399466708342,-0.03728343368650785,-0.7373064816225509,-0.8258106352846682,-0.4464037108059999,0.3201315804562981,0.23809325309716708,0.3530285048285097,0.19491070086871293,-0.10423773782889605,-0.12512964133953405,-0.014403410165813795,-0.6342340645945239,-0.008787194400737061,-0.26427405376783625,-0.05086796421736823,0.1356649171447291,0.052529029034062355,0.20204349140738564,-0.32819273246566977,0.02693893347665608,-0.05067391016279655,-0.026916936960449337,0.05422610030869499,-0.03334392823922612,-0.14669059257760672,-0.056195346767291765,-0.09683843680391796,-0.011367096452623474,2.2737041382537075,0.2874268989951807,1.0587501050611379,1.7300546007635473,0.11457681310617365,-0.033065913516657865,-0.6924520271964532,-0.15548796852023705,-0.06590975366046453,-0.014864649151496639,-0.02171681418884124,-0.012085427425858093,0.062287352404186404,0.6113769628115105,3.678049057795349,3.3658211057933842,3.403535732057763,1.66784338065558,0.6811573917578357,-0.01897046142096282,0.16204328009970378,0.18219151135375553,0.2933462562679402,0.09230937875506023,0.11931521525424663,-0.08805237421202854,-0.036174429901732655,-0.15039546508443843,0.2537635066184015,-0.6705836798307361,-0.2204509996793357,0.06809387071519349,-0.3554693347999807,-0.12050527870570218,-0.7166071623751064,-0.039146868130076826,0.23219852252526693,1.0367998593030845,8.309507342009976,0.1294770726402383,0.02698488386245264,-0.2018459061705246,-0.1562112081046376,-0.6672658466356213,-0.010410848832364487,0.040386950249187654,0.03637567744717356,-0.884485648502322,-0.4319094269519694,0.10879715046740811,-0.030336528960720328,-0.032262229055223725,-0.2578067546933141,0.10683774134054462,-0.28406964774336313,0.10148257118849781,-0.31361833188646865,-0.19342801289905015,0.5524790712106028,-0.28260063578386735,-0.14807606486952263,4.3717158066387,16.873975161661104,-0.318866465317642,-0.12163812481952258,0.14577109223018964,0.10609784883115735,-0.09331955206108748,2.125532698991481,0.30205893771652664,0.2145701156793877,-0.42554686035600703,0.19085620932047329,-0.16200717686759042,0.07492493405477753,0.209302106339619,-0.251326272473751,0.3132568980662187,-0.17237783901572235,-1.2031653173639953,-1.6914952936396042,-2.229110436118515,1.1901379856330534,-0.17415826370102358,0.4970367114158594,0.4734468607365406,0.07423887619743508,-1.0565697700047902,0.6392211648890904,-0.5378706126792379,0.35315238364425083,-0.0007460099510759048,-0.518780162892243,1.1257040491695407,-0.18371611468445556,-0.18049562690619408,0.2746554804067782,-0.3063847434155696,0.24067368335762088,-0.0671500530842775,0.12125441385025783,0.11923825298792168,0.21923815149534884,-0.4951821392797946,0.2203570553339398,-0.32448790147201845,-0.46295483621704697,-0.9589700783830217,-0.2662921674840936,0.40897339005077044,-0.551981508079285,-0.698146172299577,-5.45095366805535,0.1558928125497824,0.024283627463797624,0.09205088748864089,-0.2019056879273605,-0.08783162025862448,-0.2324381190792177,0.365945710667991,-0.2604294207168822,-0.5563738037262611,-0.11519238487190929,-0.5919152477575848,-0.12696350141462612,-0.4297167952257899,-0.05113696572340285,-1.260054404588786,-0.11555481380579034,0.28673879192718776,0.1520811383603757,1.1518804490658598,0.07376014431140307,0.1310015651234449,-0.1234064797953277,0.40781583842679675,-1.2601667461441883,-0.1951258150932161,5.464831614454302,0.1054755644406559,-1.96443222708678,1.5969789755907535,-0.2188867742478662,0.014438935815662076,-0.15025658975303663,-0.5207348071786173,-0.11285704914511296,-0.8509023293949362,-0.7817101699929041,-7.492844014735324,-0.10661259610568445,-0.048997383909495484,-0.18289310993137253,0.08202567247301686,-0.7874319164383858,-0.01568535961577523,-0.14655710594758165,0.04842492875741419,-0.6330678930466287,-0.24141339810241463,0.1338629314043731,0.08941380706456035,-1.9481735820537036,-0.9757918938026481,-0.03386901190464264,0.15233301157508966,-0.28672103169306884,0.17825004460236163,0.0575619659880476,0.5283159497998828,-0.09972979708605541,-0.232991953030323,0.1532578779393875,0.35485754765808813,0.038003860010666426,0.2958295405925369,-1.4346459718764264,0.47733832713223184,-0.2003735126671815,-0.167423060800347,-0.10390500867975569,-0.5994630177375592,1.0693705013321089,0.13101383072959066,-0.07604901803358108,-0.10908624770963835,-0.122084626302395,-0.12953922833424455,-0.09259732992293142,0.34485769834246066,-0.09206858782184991,0.019786989948941385,0.155477893223506,-1.2119549970274994,0.019179016281437606,-0.755352262708766,-0.05713786170523584,-0.54621618125879,0.7390811162223019,24.196030108835206,-0.3055976435187169,-1.631550917841651,-0.18518728356918693,2.0527102853167176,-0.15862508902703537,-0.12345546095273184,0.2714088652648312,0.15858765786724408,-0.11407288861171118,-0.17234677681459004,-0.5001438462577937,-0.16121655974311505,0.07663213429934718,0.4105708351490507,-0.9914582527193104,-0.09905315522976736,-0.02640497472191189,0.7379634225469308,-0.14932811772145724,0.11084590720786135,0.3889144728518367,0.08011690351759222,0.8278266117175632,-0.12251271408868973,-0.14979739363291653,0.1739489386050309,-0.6889636432868026,-0.3450932560995542,2.8452790251708513,0.7325650528395352,0.789972722208968,-0.23200895346815262,0.0965214299539006,-0.08618413344048363,-0.15572649446800177,-0.17587688139498248,-0.15134810244872351,0.6118142887593969,-0.20095935100328294,-0.006431182423299379,5.156614758832534,0.27413102654392757,-0.4143068859020958,-0.39279646520282663,0.11004488038272969,0.016464610144484044,0.06606521179632358,0.13338150734462118,-0.01080210013519779,4.167764932572674,-1.6780334899596052,-0.24163755604428455,-0.17622311217055373,-0.31520383351003667,-0.8585658648879504,-0.07164905245888871,0.0021046189285229473,-0.0531357322781933,-0.03714149849826025,-0.17071415096611353,-0.7897162026952965,-0.7379079311849988,-0.23412877954970832,-0.46558855399050136,-0.1750335414477856,-0.7823087952485172,-0.05018941248690515,-0.02922084075362624,-0.08914897159651594,-0.3801145222379611,-0.29199353117905463,-0.31540433520542455,0.2509566031517788,0.11121129520679986,0.045616255332956546,-0.1895057141607073,0.04227997125817956,0.7936303371413412,0.005379035445605786,-0.1540403748041995,-1.7981182552690718,-2.3483593436190677,0.06990531938441598,-0.17251923958225868,-0.07305004833635313,0.36513012662008437,-0.16514223476942075,-0.0026352908635127598,-0.608946184332374,-0.15360446138405812,-1.0005809314937468,0.2957385174916326,0.6376717380482179,0.015098242311315603,0.7531815597994628,-0.12023726072925432,-0.10850137928260874,-0.11480743533124875,0.1507660706841924,-0.6694315057972655,-0.03618129713225913,0.0020699518879223745,-0.05148401748150624,0.028503528041413977,-0.3013188645753784,-0.037915721541982056,0.018398714811488002,-0.03192237539347175,0.020356649046094737,0.00041596213273360023,-0.3420780989811356,-0.030111174559284436,-0.0898434657086393,0.03620337742678151,0.18467359965562422,-0.18389336299899653,-3.1089224413837293,-0.08683117835875855,-0.08766091256401452,-0.09279922093996443,-0.051552542348389095,-1.504374685823316,-1.0696821931638265,-1.020285614766431,-1.0940559232196378,0.3989378542920782,0.24756722030799486,-0.1245292166218796,-0.22417553379714644,-0.19629877003705815,-0.03365990617665213,0.3238115283185558,-0.08765237224108041,-0.07713141570146985,0.08752654318550118,-0.13543400131908842,-0.1479432994121467,-0.09306762803030194,0.19384750013036214,0.03846709859128964,-0.2555705692374997,0.24582272390328144,-0.6673594667310047,0.33484824667029384,0.09086948841544534,-0.48293620774270907,-0.7842151045814877,-0.6997583735958782,-0.7666302635377988,-0.7681056815478082,0.3215159823376189,-0.22197129998967824,-0.18763096945250163,0.26394060461212077,-0.03553092184313957,0.27748436118718584,0.3388972393358826,0.34140613540963044,0.7695986040261595,-0.48163738983709936,-0.2850815542740603,-0.22078728647216184,-0.13462822596790047,-0.11048734883828384,-0.6055200372913744,0.052402112232567286,-0.02909424703865288,0.07681437335383987,0.20855558219420015,-0.10443413629290978,-0.20216235935724133,-1.351990001022188,-0.16233952548984923,-0.2273772344104199,-0.02059220388395327,-0.08656347685624065,0.31331959371342305,0.16848312971882537,0.7555684469617352,-0.7384262333543374,0.18975607287173096,1.0134085839370865,-0.04376886884999269,0.5388224478440848,0.27335695359816486,-0.801899017891885,-0.3217950437779181,-0.6773515276791209,0.27208184563048854,-0.24598558087712546,0.28208672036373894,0.4825810749515422,-0.028807549474830656,-0.26044833770323744,-0.3882237679223913,-0.016317167658189302,-0.2357833483930826,-0.769674091927804,-0.472100433768329,-0.20093432632987782,-0.18622265762002585,0.7129818915459151,0.0070000181992028255,1.353847560360612,-0.30917970799671335,-0.2876379343534435,-0.2604343243748092,-0.20551315828855887,0.05481983016945804,-1.0232781361416408,-0.24617908980335487,0.12405011175310739,-0.9709779440323547,0.1883839447771522,0.3515486404799386,-0.04023066425846191,-0.028077552627307788,-0.10752082751528595,-0.06579970416195084,-0.021431707905851204,0.26810271307367567,0.2711544188349166,0.012251486629394933,-0.32748809658943784,0.3100182447118755,-0.348504034350045,-0.24470872424783716,0.14997465513098848,0.17656641573826917,-0.008387725603976095,0.01714992088225941,0.023432700050967623,0.05904277486362306,0.05665746677675318,0.02172951841775371,0.07137463638008162,-0.12709883111358428,-0.010320948401158164,-0.004304635729496184,-0.2746165592018996,-0.23428616711043063,-0.3598719128713746,-0.8618955719023987,-0.050964069119022,0.2221989903047885,-0.07188108173740416,-0.31696151106950265,-2.1759597032125275,-0.13694437882060362,-1.5382627983987602,-19.538006097448793,-0.9267512444661453,-0.6001500840527141,0.8962615943857885,0.21698461527339077,0.08060127118441443,-1.9911193175510498,-0.19940624282803032,0.18303084524994823,-0.15029806068575852,0.24298947488804146,-0.05808672556192741,-0.001736034419637946,-0.7539226646796058,-0.06886695123683303,-0.43147563791249527,-0.04720949742147103,-0.9206021833050343,-0.6769158389816275,0.12434250142237428,-0.5467472469547229,-0.4120442719626799,-0.1222800532684395,-1.3376328837320235,-3.2902691202930985,-0.8333489239831662,-0.8398294117677889,1.3435184278972807,0.14083080452825986,0.4749647417090255,0.687280729196123,-0.15691327059221896,0.07786282200060862,-2.2400755000206916,1.2342227334063214,-0.10151158866680726,0.2878504970175746,-0.07403093974361985,0.06455109073542924,-0.07901489863508002,0.6546749121753714,0.19239662173793518,0.37913420731861136,0.20234606809317254,0.3717752827056961,0.6478335210188941,0.2022303413702922,0.427062632358396,-0.1897347248391347,-2.4007187189213774,-0.07445663335524136,-0.5847425460536403,-0.09682019862928168,-0.16240370892795877,-0.10238327020144654,-0.402082132913096,-0.38105651665773166,-0.45700183404200606,0.015085374059006819,-0.17266853400168994,-0.09938784474973134,1.550570835973238,-0.06981289837105323,0.10004987204575913,-0.23368523094438673,13.30658804163989,-335.27336418419156,87.71138362477991,-0.5729231239781494,-0.246611220582587,-0.20409793063819176,0.3592936384916037,-0.7698715965995275,1.2812622890786347,-0.05968711177385197,-0.10349995541129306,0.061055543517027605,0.11223000988449035,-0.3942890317701008,0.6396096780413414,-0.038203232658047044,0.09605839677136806,-1.2406507058709988,-0.9444998241296823,0.23624850047900503,0.06782884065459642,-0.05914045226766161,0.02475572352507444,-0.14114973816655427,-0.0052221002523557625,0.08167739295277861,0.19350075447189544,0.3763596799841535,0.1988440974834108,0.03298709171773728,-0.0027633895582095027,0.2602336378768479,0.03059712011306903,0.6205626392266185,0.055833307591702276,0.12390590934119766,0.16920089568022922,0.04064902039336062,-0.013527806036174449,0.06913526828955958,-0.27745610135422405,0.3498946836425659,0.02036701834571648,-0.09380158286382236,0.19101012947623427,-0.3624976858898148,0.07282176820394604,-0.28908411462360856,-0.08844321719795065,0.15365539599678985,0.31513806624794877,0.6758310281330598,0.35074242410940654,0.3213042593503833,0.16655223200972324,0.18268087409801698,0.2266742483991817,0.23573175099564447,-0.18230557980547263,0.023464937649840593,-3.8295378088862932,0.7572988749371932,0.0651290423619483,0.17815957835319945,-0.07477671550485694,0.04636271141546718,0.02042553203925328,0.06517186092185268,0.06935143754749701,-0.020379882059470614,-0.08533394935447625,0.6331511418595923,-0.2333242313927241,0.5686226521019561,0.5639930683128753,-0.7149500171903681,0.37612429096541167,-0.5034096125769176,0.4673023602710758,-0.5440150833504754,-0.009059467407874007,0.04162502967120252,0.07256024957019563,0.19612196638599885,-0.41707919963306517,0.6638646126304594,0.7619843065249545,0.7025020794300161,0.5137486594255022,-0.2701930613234275,0.00954945456330817,0.12459922685703263,-0.04876783222508022,0.026626093545461246,-0.026185569070623343,-0.2702806841610782,0.04032386316261938,0.014543191870317305,-0.14391855859143793,-0.11558102044192184,0.11566498691843805,12.905819962224399,0.30916668288298144,0.24716191448718944,0.06572276242934165,-0.1696683576305943,0.01925058835810105,-0.11457308404761338,0.05439313817469721,0.09212772082760831,0.10767493548931963,0.13176421147496284,0.7611741131728545,-0.02670962999814937,-0.30003612647517885,0.2079445068973709,-0.1637048871951022,-0.23040309632889466,0.5264453149026653,-0.7816864888975898,-0.3247765555095933,-0.020349665128418307,0.030223874320510744,0.0002100816297204987,0.0027757883947295307,-0.010559425901495232,-0.6060456008138602,0.2537129678713565,-0.14256258338042194,-0.09253019018300057,1.546503816241793,1.4572226415403078,0.03749229851112279,-0.10015561567740866,-0.21748765740692316,0.03613541133103104,-0.05724735324422717,-0.021403961249229858,0.006554746613679663,0.013375265454276081,0.10639003145676058,0.1724629579736138,0.11829460555980685,0.10839323213307518,0.13087314607376993,1.7803173838112758,-0.17241688910963568,19.57092866545362,-0.21587895589925093,-0.4940374342806938,-1.314685330197613,-0.759373129548002,0.08522719371288279,-0.10363681749356482,0.7689371474512517,0.042570142712669276,0.30058993130657796,-0.025038477343601706,-0.12148631104804501,-0.06372972410171208,-0.019850356997864884,0.33155336288927606,0.30453363239100734,0.03550218360928822,0.04426394017034827,0.5812114479110767,-0.0964197630250626,-0.0039967510505468885,-0.03792612696343842,-0.19541052666652278,-0.1343992133614213,-0.5505181651403565,-0.17609151374762094,0.06281567397804515,0.11543906758896826,-43.14688606297046,-1.9599765020600275,15.954101847115323,1.5213281438648678,-0.08612764576406412,0.3108120535236074,0.5840549227814549,0.2568957177780619,0.2853264642296402,0.5292887186674099,0.3594412646437214,0.48655163865836915,3.306983524580268,-0.03871384927281162,0.7920038578024624,0.19954751407776605,0.7972313237960467,-0.12265540108213209,-0.651934129742896,0.49977780116608533,-2.9156079991693327,0.17109457720852017,0.2976349701248696,0.09371577279563895,0.6871217984217964,-0.6726045004078349,1.1751005626606665,0.3106989705304525,0.13067804329953261,-0.20964813153370881,0.13913038943472936,-0.02411831182194949,0.3128121098045015,0.5651748072038674,-0.5053173865501613,0.1983157047463081,0.036413821304687816,0.03983518397008624,-0.6999058537904509,-0.3170530589055635,-0.7761842531062131,-0.08017265988387177,0.12914386533021355,-0.06214523670483558,0.7844048170088905,0.7486091441312985,0.021330725436528728,0.5770131505417251,0.9814895190194708,0.19113600261617492,1.0070136641021972,0.7721590509300212,0.026787346433403643,0.009198510139544935,0.016457213342304516,-0.43389624421071926,-0.012535920497083533,-0.027705859454555632,0.5404911449816557,0.7482883101873159,0.3427558071253763,-1.5172810580556264,0.09642913330358806,0.27429329195952357,-0.24922130487596666,2.7568039351235534,0.2503738395499432,0.17793698848365608,-0.3934802637688237,0.05151176077729133,0.3190247536413764,-0.07720693121445384,0.08406836103712345,0.4102063290177945,0.1854247552306601,0.25722104457590644,0.2214828623157111,-0.5207481847953362,-1.1985206908550845,-0.49418758948599406,0.008124987182440415,-0.37280685508389383,1.6487397685670164,0.7755843436060601,0.09142556645216503,-0.09134399382380243,-3.4449849102457564,0.6985217453453335,0.25536169862088565,0.2133459535220704,0.094482452937294,-0.11833739316584585,-0.608347057879438,0.3920161025753058,-0.5503562326193765,-0.016362083842998518,-0.47928339217458593,-1.0544979620652826,-0.21404649712125068,0.2756433057349497,-1.1797950768785357,-4.679549527741276,-0.019834253547405954,-0.07980412449776042,-0.15577804461437375,0.08933352439202555,0.1107157694017549,1.5866207244101984,0.20831397518238778,0.4788110763703198,0.1254287236992896,-0.850081524978558,-0.621127823857321,-0.4060966458766902,-0.3209614534324815,-0.027872878780356217,-0.03664042854595798,0.13642256626349256,0.07806945251515503,0.15600945257343002,0.1951743877948755,0.18825931017050224,0.20275972111442894,0.11671858614200557,0.1486726259087662,0.18994246466318931,0.2283414228947562,0.03713935891961538,0.0689781347300038,-0.07351941826862748,-0.3768337292139445,1.321098375461724,0.018792044026724693,0.00080904961905901,0.1791689410291304,0.08659776167724026,-0.42498714424787315,-0.9803454689744531,0.10226127642786251,1.8113337060946422,0.2786824010172052,-1.7224482135508832,0.33898390777317766,0.2744281815212015,-0.3312134005196637,-0.00561118167763436,0.4069205509208624,0.32909213524632325,-3.2457173431261706,3.08365907174927,-1.1826137222517552,0.12246662870007195,0.24761070238221772,0.24561093432837428,0.08288414876226262,0.770100246154825,1.4475481021262269,0.47234783631871885,-0.3235262272700672,0.059992606399493345,0.5123390807212294,0.6671888144488073,5.35051462588824,0.521659376672027,0.4257551513340262,-1.6434370719329996,0.06831114760575213,0.013159928881749765,0.09792980771904428,-0.41686777181768514,0.11903093397028948,0.5991460184488245,0.744819654869823,0.5818553709767936,0.561275355461417,-0.4080681475453894,-0.6408497475086424,-0.13713460292404156,-2.275062728744975,-0.37322222860726667,0.47343328144526764,0.1736355477279113,-0.11512744694719416,-0.055834781349603346,-0.09095299678625934,0.006530511875440195,-0.4251249581369224,0.9320931495985453,1.1378428478895994,2.162819355578394,0.9257598009426563,0.9140597459050203,0.7537987746387979,-0.48832074878225773,-0.07202888246995118,-0.040071447603133775,-0.12469144133361536,0.0037800835649223438,0.7452691144874809,1.1740695133895749,0.791606284576949,1.0252980357208041,0.972178316067773,0.6584181455525554,-0.07989033401741119,0.0159602647170738,0.016005461203101378,0.5791123012652931,0.9984813623510943,1.93252211394329,0.5294024618466973,0.5257142335676214,0.22552016801790165,0.11152501127511846,0.01802689411983538,-0.2164955842849901,0.4671293636369008,0.16177892829955848,0.22843807720511475,0.4999773061244339,5.668456654753665,1.7451950681039634,6.015948344721052,0.1451113315060008,0.2188704721823966,-0.07419541805044587,0.8048345468831635,0.7838387154109284,0.3912350707996112,0.20711783604979983,0.3915083695391839,-0.043716851918954525,-0.48627462469839383,0.11029176510060364,0.08592589977352556,0.14307205123436614,0.055998042605801684,-0.006337949760830047,-0.1295426578797042,0.0649586413322827,0.9196328934221834,-0.021952016119434696,0.64444136901404,-0.001567252660377535,-0.03767002978122336,0.02678747090027194,-0.03400825462699126,-0.042620483628460076,0.051674944585156674,-0.013371074441492289,-0.39428798700860646,-0.07618505417259555,0.05734221992000373,0.7109024968414696,1.5142491570288852,0.4361521731864702,0.48191512287407684,0.025478950527488473,-0.03670160438371133,-0.32759372339568604,-0.3633985955583744,-0.37107176134887604,-1.6198128911344092,0.08101368093522104,1.484429697509383,0.060794455722074765,0.03591306377874695,0.20188215218434064,0.061809412381918505,-0.2123455720625101,0.3425710061775531,0.578613326258097,-0.07243705371076709,0.16609983065178283,0.18700472758465217,0.1979705377203741,0.8285856657624684,0.8447251646937475,-0.06247300691228751,0.3336186556015976,1.2692918720657833,0.6028162552164573,0.23062576886231753,0.8199890889591377,0.15063109492518176,0.6670142645497551,0.49874202310138527,0.11306619388288593,-0.3886988045812828,2.5051027074521115,-0.025977072764539238,0.033493051980387385,0.041238810774846923,-0.012830988497577526,0.019287949913766554,-0.3446994105987219,-0.3034001947484853,-0.13436245072207573,0.18063557847752998,0.014959888963036686,-0.05565640683847749,-0.1896425722998191,0.22801918875017688,0.2598490233210377,0.04483782752155353,0.013052317028179522,0.12558750297109317,0.07994514768814993,0.09446884896614482,0.0775026700095496,0.10180686666492866,0.04070765939528998,0.05603225213100693,0.0073809496343791095,0.018886360295697662,0.03440735411737972,-0.04039240017131868,0.3937710977573029,0.4572090900432828,-0.6327023422687316,-0.005472175614671583,-0.7095180144274895,0.6490041731576752,0.18206698889956588,-0.14910749276058918,0.12642382291713575,0.06579658643180673,-0.38937509257259406,0.01875187804730797,0.04829177331127544,-0.004561101399153659,0.43923282805166913,0.2865556542997685,-0.3911759840900788,-0.09931166222169761,0.17023710890403518,0.1346029893312805,-0.052590596609121056,0.1104907141776351,0.15573952555497445,-0.2069361547363503,-0.4134020567633747,-0.0238257032957882,0.2515649809196823,0.25264703551965145,-0.8978811398404658,0.9306243211562516,0.5416002277745964,0.6510068039872038,-0.3832268489804165,-0.5052336073083855,-0.11812439408499582,0.21981007301019598,0.02808616439945703,0.07301493995095688,0.09683751382211776,0.05994979315893113,-0.015245434899062792,0.03853295508222043,-0.4695808118017863,0.004726244832095703,0.03845634675182509,0.0040754978201202685,-0.0380008817398799,-0.33583313594869385,-0.03631182769486707,-0.07229608036027763,0.007096980948083639,-0.05682686971187666,-0.045748802439948506,-0.06424156440144964,-0.021459447889556515,-0.08219232053220324,-0.07169230632969159,-0.047547010076036754,0.07882772240555837,0.018227657455578597,-0.97486432539992,-0.0646851229180809,0.023943493491106485,1.3577326732171555,0.05670408472662792,-0.1945506352370911,0.1592914782665278,0.011147692248544831,1.568976768235725,0.08250762089400189,0.7624555702801156,-0.1518021400613031,0.6650833290735569,0.3307994576583367,0.23453112693323827,0.2615494959509068,0.5956297647017108,1.0653073940881608,0.03316367873732253,-0.3002723421696617,0.4362910482289276,1.1902841915073301,0.0062217765160715865,0.09620051596299907,0.5630899378161945,0.3085512665512983,0.074149846042868,0.015359907367924867,-0.5374504123558363,-1.2279148252840466,0.5491381966893575,0.5270755361690563,0.5289148314293598,-0.14874181486499471,1.0778719990171115,0.39387238304211414,-0.12988360456786213,-0.12056435006793992,-0.2823032107977575,-0.3406903976745792,-0.29549496936300274,0.06261680134721852,-0.12437996835378823,-0.3761020935454632,1.0105114924000478,-0.9830402821233101,0.24729933789653347,0.4183819921548897,-1.2469725961681395,0.4929704245845744,0.8582360996133653,0.7701750181987947,0.5142242235445996,0.6802704937090529,0.4500581532878487,0.17038228025794872,0.08526984405586313,-0.06483085082487142,0.03230312969440741,0.12756734874900666,0.5173538590881475,-0.004075106738572405,-0.5185260417474662,0.002146618199002166,0.013099867212200824,0.03941659711634999,-1.4442218388694186,-0.19989137289370598,0.5195360989802498,-0.019685376868063712,0.04168104269127699,-1.231299740040173,-1.053146328579725,0.09452556170343777,0.3160427481448094,-1.9380618414484323,-4.86076433846455,-9.215875559161365,3.1541690534033995,0.21373831590737052,0.19519470862254074,-0.18837432910337457,-0.03150721435322846,0.6501379452583883,-0.7221505196494004,0.09196860470791954,-0.036159353242965805,0.0035545360387404337,0.061722138967671404,0.016938642574556094,0.24601628798918104,0.0325345822675666,0.09695492252083458,-0.07875158923375761,-0.5278385348650195,0.26091292003730127,-0.04463501039180239,0.1121550783108534,0.2603732155619565,-0.06717630805955203,0.02292703649219895,0.07640905340298179,0.4344728931668574,-0.06624064168687001,0.46972986510660375,0.2333284770510329,0.0010577181717403242,0.23157207939563437,-0.08099675846970916,0.3168954914961365,0.19942466275707935,0.21250327719601145,0.18885725745865914,0.052073068851110994,-0.22672575973311146,0.7764659322078492,-0.17525428382163408,0.20035069538115463,-0.45239158416173725,-0.03684833677425666,0.12787166230351146,0.09825080053305318,0.14075323340380444,-0.377608902177449,-0.07928246919525236,0.3544105818956083,-0.1136181422350172,1.091079440194619,0.2682641833001459,0.3332447301971473,0.19497198365142498,0.16936708631127934,0.7404970695884311,-0.050399989480559355,0.29920472820562827,-0.33102357912570246,0.7297757940474938,0.9154877947463892,0.053959850593346,0.11092732298944327,-0.07059418128519734,0.05222017156979818,-0.43431556350944905,-1.2652167557073082,0.09673015977784975,0.04906734149593375,-0.005235351050431646,0.19333666458174684,-0.25104846002311687,0.9946173490807498,12.7025121598742,-0.5100080300814426,-0.09269779682823469,-1.8032383910735459,-0.20599329407986597,0.5246303714604044,0.05364315984751951,0.06164867365826177,0.07556419682924402,-0.2123973855617515,-0.838634897694137,1.0374517081317387,1.758843428140267,1.7501364752482675,0.9503479887924228,0.07481561638019409,0.23691334360486319,0.21627242465969937,-0.10707774899069131,0.011805985983677008,0.04005178237556387,0.20360661192644525,0.17394834589433694,-0.30150093311242127,0.10120812187516258,0.010656635812001715,0.044028457010830135,0.1622307573719108,0.08712365727194127,0.29986713102655205,-0.012542100907592649,-0.10737591618620632,0.03254000228247596,-0.04034676605169573,0.047838248733315915,0.1063314551574255,0.05584363202343144,0.0912719621895361,0.710291796223461,-0.7311254926063052,0.35266380056980157,0.4127477272813091,3.0254053873186852,0.002234668465192299,0.23087961454097883,-0.34493493994771607,-0.36552917868954776,0.00001363244707568581,0.024844107956768606,0.012374025082766279,-0.02178132448550589,0.03968102396172256,-0.14699678944121106,0.31367220430998444,0.29461553741234847,0.2633268932793693,1.4739686092195667,-0.05025694501459855,-0.06328725002367258,0.19209542176602895,-0.3144995241869086,0.13941034090162474,-0.021048140827219567,-0.018891339287493706,-0.05493720796071189,0.04604868784541226,-0.02704047062433665,-0.004414537920034942,0.011279728187983644,-0.031183026263114807,0.08796577047812933,-0.6081650707332291,0.004058782095771224,0.14829263106587062,0.06489157402921282,-0.36983414323382935,-0.01602192803032224,0.4828408289215507,-0.032724121951936636,0.0375556141280069,-0.31323872166406774,0.17761451463057865,0.2600447112409755,0.037937254721261054,-0.10472855129365986,-0.09168250467905348,0.49375292574511404,0.1875375406515933,0.16938006238934053,0.05189166327529097,0.03012592185884167,0.30101734463483715,-0.1150494735085114,-0.008139229535638802,-0.022037260128840056,0.09265155331257219,-0.08181468522557804,-0.3061943930792963,0.022658374558578533,-1.3377184675686637,0.19508055944805816,-22.697335125185482,0.8756953028856874,0.05997138925352883,0.1590917051384022,-0.08794225605566852,0.20602256514134012,-0.05728215240452439,0.18435722623043074,-0.6254247088828871,0.10330300627603303,-0.17646136642245608,0.4452905261914412,-0.13125532198418224,-0.26802377757982987,0.15338499946464848,0.1982858534041765,0.5760000691804856,2.0373382592038003,1.0274274805714376,0.6108477129409984,1.239737998673798,0.19993002560402628,0.3662568168667686,0.07883728032409837,0.3117507786448419,-1.899000171214428,-0.3846956740702302,0.8098362098132144,-0.3560956737613219,0.10984328222637194,0.3156601475880642,0.08900323104068156,1.0849594657078598,19.94651723226564,-0.05328188524180063,0.06959463722985533,0.13952112644614192,-0.11892037988350886,-0.0985479931904385,-0.6136738515158396,-0.7255235076482897,0.009961234610232322,0.2645321472471782,0.0033857859809049754,4.576043280676978,1.0698870396350701,0.69379075312934,3.4788546733183767,0.30015960100933725,0.6209365436469504,4.698427036801264,1.0384864453601612,-0.00011080743628953763,-0.12912834071818532,-0.05651230214948934,0.4330031489621725,0.5059656004110598,0.022838971411495875,0.13222958348550695,-0.12312486023026135,-0.579598535507804,0.06802344055800484,-0.2871706551952748,-0.2024676368158162,-0.14807371460317914,2.103344947712162,0.20162944554199144,0.21491660657257833,-0.18712633885358365,-0.005822272858039488,0.09890281513211914,-0.1397069186203008,-0.368872581599659,-0.4378514865527716,0.1030448845664905,0.23118625423785522,0.14581117600938973,-0.3242524367079201,-0.8660571042849113,-0.5778067384618626,0.08460002396597605,-0.08407908058747639,-1.7177394854604602,0.1205438194897391,-0.04383929792559506,0.3504438192196254,0.3240194624370547,4.845625608274165,0.2096714714389597,0.21903560006446407,0.06894982235237022,-0.040465122988729674,0.3445594745038979,0.20900121496304974,-0.13170247475483385,-0.2401044039829296,0.4888074848699586,0.26183442932915707,-0.24027709675155662,0.29819017718757895,1.302085239929155,0.8468184436307051,-0.7045725116241128,-0.04740808602378586,-0.016984154216958872,0.0011731071896632997,0.027147291593104316,-0.16728139703303344,0.10950035535909063,-0.04574941825919312,-0.05070904771325114,-0.3442355140124329,-0.050763510806160136,-0.14217821453649257,1.0359037039523096,0.20262392826893177,-0.14727566396481936,1.433244930887146,0.04986210279470528,0.023543233228244188,0.2725274349885971,0.03983606011290545,0.5855484272673921,0.09507739262196478,0.41040128591071995,0.12213869316870671,0.5027539944766292,-0.15340566422405316,0.06285094824363571,-0.0489711039064479,-0.6027778686881076,1.274235091308973,-0.0061021273997724805,-0.10203096098579317,0.20277722367714443,0.005764472556234334,7.448578766553688,1.3743969887362089,0.6971555142604416,-2.0823685217356034,1.0482470626185763,-3.600217572702124,0.8340561524189104,0.2641551203132204,-0.268425092948,-0.15002885472580144,0.29220840244670754,0.9288792653896062,-0.8066955824922435,-0.2789077195823049,0.6953168082035884,0.2910139246480523,0.1642532444722683,-0.2317085958116112,-0.029703546823783452,1.3887129304468813,0.5172917924632514,0.8421947449145559,-2.8716329857126976,-0.9109554111233992,0.1389341237523747,0.4363351581866603,0.6114977149600008,0.7002456018597326,-0.09297073101949568,0.565376720334127,0.6984758364189181,0.7471158974933121,0.6890677207633888,-1.3564982436765414,0.07319835629154964,0.8278518539853216,4.542132543402393,5.6936033385022045,3.1776233512633314,-0.3329520963126093,-0.13780910252794085,-0.04731309567475977,-0.6579978054775805,-0.3286722843571859,0.5725667632352559,0.4852096106948152,-0.053711968827887674,-0.08100387853436797,-0.051502139540797666,0.23514051228043875,-0.007387886390555233,1.521867436897007,0.5088406149280087,3.1639613701573155,0.7583953900686669,1.1476805536146113,1.6931216334147494,-0.00830511718017753,0.019128756925414606,0.06969949829848025,-0.8825531014264598,0.31781034453902074,0.7372183717807935,0.6464814032019921,0.7775506061484708,0.904062266747888,0.7944454608680707,0.738655358138693,0.044666591152419124,0.04632392024679573,-0.0023380199082115452,0.5868540494540311,2.8179228642891054,3.0226024745248408,0.510552871528972,-0.3009285117808714,-0.29039462157955404,0.022005444585109578,-0.0055797989330960696,-0.05602109963428209,-0.0919999877746923,0.013069685590934518,0.11150066963812147,0.289018645917138,-0.1343017644306008,0.5695748915449477,0.33626351206279276,0.2121922481248733,-0.24329584332001372,0.22887341383964796,0.03910382427241658,12.830494446462698,-0.3104571938800957,0.2885978184702789,-0.010499804081145052,0.02828667500112885,0.03197180854627491,0.07015869066911956,0.11152630505385552,0.09774969395469445,-0.12555886370199423,0.2865780231379195,-0.0324709859996162,0.09844779071102791,0.035785398095020654,0.014542038965311638,0.18332923344759366,0.7365944090467542,0.03189905419406635,0.1963450682769905,0.7600156787348408,0.36027414957880927,0.3630338687550454,0.3403926056518611,0.002725298971479068,-0.037640954630764806,0.07828706880533587,0.2266820550372125,0.742326247896305,0.7099398733743916,0.08663640350692797,0.08437704551643796,0.10889691559073683,0.7366877629367309,0.6909859760309277,0.7165982037797048,0.6915226907447343,0.23548260408267646,1.2099976677171491,0.2508758146875426,0.21922406281428947,0.019549693187627126,0.3469425391588283,-0.34603601903506936,0.05401101440397976,-0.0032640911518880622,-0.042033357489144066,-0.3236128203080702,-0.09303460809184998,-0.30673240512897754,0.0980693655751839,0.18357468785391787,-0.21572894384023744,-0.5256803540702908,-0.08731993802289933,-0.16262104850914416,-0.16578116628910025,0.6513925800720052,0.3995577217607984,0.5981625960414619,0.4441742292420707,0.08601154757368701,0.16172854959685717,6.158931901781738,0.19866336667547127,-0.04384128092934709,0.013164657918730683,-0.005333682927469207,0.003050963656023536,