encog,BasicFloatNetwork,java,3.0.0,1,1500957395931
[BASIC]
[BASIC:PARAMS]
[BASIC:NETWORK]
beginTraining=0
connectionLimit=0
contextTargetOffset=0,0,0
contextTargetSize=0,0,0
endTraining=2
hasContext=f
inputCount=627
layerCounts=1,51,628
layerFeedCounts=1,50,627
layerContextCount=0,0,0
layerIndex=0,1,52
output=0,0,0,0,0,0,0,0,0,0,0,0,0,0,0,0,0,0,0,0,0,0,0,0,0,0,0,0,0,0,0,0,0,0,0,0,0,0,0,0,0,0,0,0,0,0,0,0,0,0,0,1,0,0,0,0,0,0,0,0,0,0,0,0,0,0,0,0,0,0,0,0,0,0,0,0,0,0,0,0,0,0,0,0,0,0,0,0,0,0,0,0,0,0,0,0,0,0,0,0,0,0,0,0,0,0,0,0,0,0,0,0,0,0,0,0,0,0,0,0,0,0,0,0,0,0,0,0,0,0,0,0,0,0,0,0,0,0,0,0,0,0,0,0,0,0,0,0,0,0,0,0,0,0,0,0,0,0,0,0,0,0,0,0,0,0,0,0,0,0,0,0,0,0,0,0,0,0,0,0,0,0,0,0,0,0,0,0,0,0,0,0,0,0,0,0,0,0,0,0,0,0,0,0,0,0,0,0,0,0,0,0,0,0,0,0,0,0,0,0,0,0,0,0,0,0,0,0,0,0,0,0,0,0,0,0,0,0,0,0,0,0,0,0,0,0,0,0,0,0,0,0,0,0,0,0,0,0,0,0,0,0,0,0,0,0,0,0,0,0,0,0,0,0,0,0,0,0,0,0,0,0,0,0,0,0,0,0,0,0,0,0,0,0,0,0,0,0,0,0,0,0,0,0,0,0,0,0,0,0,0,0,0,0,0,0,0,0,0,0,0,0,0,0,0,0,0,0,0,0,0,0,0,0,0,0,0,0,0,0,0,0,0,0,0,0,0,0,0,0,0,0,0,0,0,0,0,0,0,0,0,0,0,0,0,0,0,0,0,0,0,0,0,0,0,0,0,0,0,0,0,0,0,0,0,0,0,0,0,0,0,0,0,0,0,0,0,0,0,0,0,0,0,0,0,0,0,0,0,0,0,0,0,0,0,0,0,0,0,0,0,0,0,0,0,0,0,0,0,0,0,0,0,0,0,0,0,0,0,0,0,0,0,0,0,0,0,0,0,0,0,0,0,0,0,0,0,0,0,0,0,0,0,0,0,0,0,0,0,0,0,0,0,0,0,0,0,0,0,0,0,0,0,0,0,0,0,0,0,0,0,0,0,0,0,0,0,0,0,0,0,0,0,0,0,0,0,0,0,0,0,0,0,0,0,0,0,0,0,0,0,0,0,0,0,0,0,0,0,0,0,0,0,0,0,0,0,0,0,0,0,0,0,0,0,0,0,0,0,0,0,0,0,0,0,0,0,0,0,0,0,0,0,0,0,0,0,0,0,0,0,0,0,0,0,0,0,0,0,0,0,0,0,0,0,0,0,0,0,0,0,0,0,0,0,0,0,0,0,0,0,0,0,0,0,0,0,0,0,0,0,0,0,0,0,0,0,0,0,0,0,0,0,0,0,0,0,0,0,0,0,0,0,0,0,0,0,0,0,0,0,0,0,0,0,0,0,0,0,0,0,0,0,0,0,0,0,0,0,0,0,0,0,0,0,0,0,0,0,0,0,0,0,0,0,0,0,0,0,1
outputCount=1
weightIndex=0,51,31451
weights=0.120934449096435,-0.10993759516276382,0.135264991949166,0.10987942518760313,-0.09115513692785446,0.14640613335195696,0.12403272384877861,0.14508852193989,0.10387018584468705,-0.08867490167081982,-0.14033750615611018,-0.1257237215406682,0.24407747466982654,-0.09213208438955801,0.16833784464364582,0.12793887667999745,-0.15596044944100618,-0.1605064099219965,-0.20786624010434926,-0.11949146489677621,-0.12573291079386323,0.12805490585484916,-0.25183518887699957,-0.19596394539695938,-0.22434771815908383,-0.1468148266329243,-0.17325985529120924,-0.185107713650171,-0.07078112896639753,0.08772923769297349,0.13009395170005505,-0.20459269485035586,0.2702857281116361,0.18279267424644338,-0.1195969386700444,-0.11034273522611443,-0.13229954386069326,-0.10077891808163963,0.19709146245183398,0.13914168804587704,0.14263675281662527,-0.1618657697839166,-0.1767064653977793,0.15207788452428767,-0.18155699376386156,-0.17804449672163622,-0.12468941301961338,-0.13389544881414495,0.08202153085256657,-0.2596122587713445,-1.822716984565818,0.018440762487626963,0.046596180459200394,0.044827394181307816,0.1400285337619532,0.16026648871505303,0.38848386417089,0.3627692445755003,-0.04268438156666919,0.052951714680245655,-0.025463703941008945,0.48259154580408375,0.02814287370020447,-0.5844483420349041,-0.045381594561573736,-0.07042528218567673,0.021283247141022265,-0.03891986126987001,0.07775683501231402,-0.022078707510712565,0.032860501717059135,-0.02007497849282396,0.08726164324215566,-1.316631154991951,-0.26152482135527677,0.04109086015398253,0.05425215562132345,-0.005994905223329701,0.03471136197446632,0.05656460057528191,0.13843160215313086,0.27236893448625954,-0.40062958497981044,1.9944253897588264,0.15998427374053337,0.009030904841913562,-0.5919944847239376,-0.0747329359123961,-0.007645687934883668,-0.01590160026664808,0.3471192440645757,0.4623793968696031,0.15130437694846807,0.21244723142922195,0.32586062899718254,-0.027146951535347113,-0.0013278286337551392,0.028119247266994933,0.009675033789705795,-0.057990639456402746,-0.018071863660869596,0.06406679893152556,0.05403725452070246,0.03435669984559673,0.2368856749768335,0.08948736196528112,0.01024106413934336,-0.10167801041391643,-0.06164691837075438,-0.05301464749698251,-0.036440805164266774,-0.8224327323767873,0.17766214117768628,-0.08449023219235073,-0.021023028636106656,-0.0830306630267395,-0.05235865864320315,-0.3409496537821668,-0.01448454858029424,-0.02239863766950069,-0.15911978354864845,-0.23344259652242444,0.2181313664034998,0.11563166012004142,0.22450309857912681,-0.06554592444699511,-0.17215830865935644,-0.24177679873257948,0.5133159897914868,1.264560397509981,0.4955195805579754,-0.10472112193427598,-0.09096136903965378,-0.12236630008431212,-0.046042119445340604,0.03583400456168562,-0.01009368428227513,0.07995222597183597,1.4101502453627794,1.0642159566298337,0.566675838786914,0.45178047368482777,0.21247916862279936,0.24530640503544535,0.1971756790072683,0.21243747779571606,0.06109921357730649,0.030491838267755107,0.028530473159999004,-0.0375330679439842,0.06903600910129702,0.04145339914884004,0.28941455495827667,0.27138209375137834,1.4068666080451904,-0.061620737099556476,-0.004694695815073871,0.021306445616778864,0.03318926667313729,-0.017339916716448706,-0.03660056765405336,0.9778061772620253,-0.7695686868608348,0.4593811954981371,0.3202156685179582,0.5385117019839905,0.42244071282215434,0.811573620336979,1.7376208154765296,1.1656752683066576,0.5236337645556826,0.8096458129604038,-0.43283880177937856,0.0823285749670466,-0.01768142396883103,-0.10944196426901365,-0.16940991584107995,0.17819984088412083,-0.09011586730505276,-0.008783345137658122,0.05250016971224302,0.25588780670142997,-0.05378877478596796,-0.031844199793205324,0.4051122845491929,-0.4446211002534786,-0.3862569618016085,0.1396259034747934,-0.06303196817465738,0.3976699448880766,0.0002595867921069445,0.005618532265772942,0.358753293575224,-0.015535978807026651,0.3504825136026998,0.032480973700012204,-1.7191525433252344,0.5047070509191579,0.2518994981966894,0.041389464369572894,0.011334003102442671,-0.025929253160207714,1.032257508285899,-0.17072783334079106,-0.9116104566971602,0.032935180174292256,-0.026620358436036384,-0.0480796500718094,0.06950579598879275,-0.04270463629892298,0.07969683170172982,-0.04149894333005149,0.2680868773174194,0.030150037377820686,-0.687297998614254,0.3746467534298337,-1.427204771508091,0.30981625814381575,-0.5027997461789288,-0.048917230483952176,-0.25652381000912966,-0.04475512688897104,0.0016262994355329768,-0.015766041239867704,-0.048113459160246064,-0.0746170735194291,-0.06501909400826801,0.002433047950811567,-0.05998066790283772,0.11841287714434594,-0.2573281290648474,-0.05561576484983119,-0.7961112573210004,0.19291729714888875,0.12878234909702896,-0.05866387307079316,0.07800932781567375,0.1633940834320446,0.1006866044529046,-0.036697774889535816,0.15338031092996007,-0.8400508598238615,0.011616359711158257,-0.02872886386454614,0.5085656250073025,0.13578847454562837,0.8741688697742364,-0.05016742009093873,-0.040469683580446586,0.07602286569248355,0.06131815337383773,-1.2262869454143956,-0.6457770210455676,0.2566512809719324,-0.19248308307782344,0.13426839057526382,-0.030132883301577932,0.36642869813239964,-0.27728933910317083,-0.15375807362363147,-1.0571421007202353,2.3205038460832808,0.8646011758820965,0.4852162281004805,-0.5144668460248079,0.15333161350654229,0.17247285887174973,3.294322937109401,-0.9874214938459904,0.6263882228264448,-0.6579899845955808,0.3038383349517105,-0.2272298969492731,-0.10733330284764635,-0.10733745181326254,-0.010004825827360942,-0.11801229102569898,-0.015473060827196874,0.005786357989416876,-0.06302966046197042,-0.4553761810384648,0.06635397826277134,0.5991112161268658,0.1690273577507452,0.22857613645734043,0.2578287467867344,0.12143867153801227,0.1139745170531891,0.016523044012634668,-0.06274611520551199,-0.10882942203043845,0.2424089289742205,0.4374155315751712,0.22945952261682193,0.06749837376654262,-0.022883666662881778,0.11269751050990084,1.2920507714674314,0.6949398714640962,0.07588655231578131,-0.09766066319792448,-0.2281707527157789,0.13873292517556668,-0.03733656347909968,0.18811690983255439,0.011067580246597602,0.08950445163754783,-0.018034738015617332,-0.2144384223662272,0.13961672951244278,0.04466269413947161,-0.5541327095616954,0.05124037342327213,0.173427229556231,-0.05006448206519041,-0.09061097578426242,0.05065013317003744,0.09522189743079253,-0.02798477119921297,0.18946599254712337,-0.3208821098778702,-1.2928854871441176,0.195207573860167,0.2258915325603618,0.5093617002933614,-0.09392969570834352,0.13007751378515578,0.03696089820691351,-0.7210551205403888,0.19185645532742643,-0.020294258833422386,-0.0014522481196086086,-0.19741219434526125,0.04384809018271318,0.11987088124501197,-0.011688012675182753,-0.5048775136814664,0.027381216959315825,-0.40771649540558147,0.35670094921397333,0.06605657709112517,0.10646282270135624,0.1818246986353443,0.4398286355277526,-0.19454148895824702,0.019278620408005546,-0.0010346125651880228,-1.3406601826551603,0.1873628435333596,-0.004070459510336516,-0.04373747807588478,-0.02179414433642211,0.1414095113172801,0.8140275173848651,1.6648778508983817,0.06969997604450986,0.21502817491842913,0.05486508578636306,0.10775090694680994,0.035573104360756704,0.10975076879190179,0.46354770761930036,0.05500676130962016,0.06828511319212548,0.09675039530255629,0.09810038892294827,0.08046357777228948,0.13111287244670453,0.10944816007486048,0.06962214519551126,-0.07667454456391871,-0.05795144456751893,2.3689904815216476,1.679520108848673,2.3766065673791044,1.763571499113068,0.6135069773985409,2.3180378813939417,1.7263168518881706,1.545532717783482,2.3538767108852157,0.5454225309139307,2.34264699881578,1.7485309179836406,1.5473708296494806,1.5087683658087208,1.4270561165655766,-0.16653734029590495,0.03983713157686658,0.2125873054934447,0.1473894397046994,0.11329471156983788,-1.6177963728535463,0.06115310054339131,0.03913277329277086,0.04623231001312045,0.060378987890861685,0.12245669443781709,-0.03210960953915,-0.002779100036249023,0.03216496567205785,-0.559180859207099,0.013612341795690788,-0.08245159082574711,1.6080537103887362,-0.14277265361704816,0.05359835369126039,-0.16852387371735497,-1.4443104936631233,0.3526369563416301,0.5363676540914725,0.007899743169861572,-0.06465106141292119,0.0992515772983689,-0.01955303532589544,0.5339124234109008,1.498249896229353,-0.18291349181568065,0.9678651383502507,1.4263907624069405,1.0687000163981126,1.1212782959477583,-0.03846275720813453,0.02287398466806775,1.2553265335249382,1.2196169298964963,1.487850598012341,0.18696779172509076,0.00904393019141975,0.016114969524135624,0.0006177043287971519,-0.27416486109792104,0.08607989793007739,-0.1386681818699919,0.0006964069831527204,-0.5487731290574802,0.11104226003903608,0.4876665320028812,0.437195202596497,-0.025280076905650328,0.16386220173449081,0.22919917769402973,0.037160021152977014,-0.02821284307107905,0.1887323759214989,-0.06537209456507367,-2.344978423513534,0.36035995972352947,-0.7305849368224135,0.05428498633007622,-0.021742252757479045,0.0837863210996157,0.5172693058548149,0.08288969984629806,-0.5809039722371299,-0.36614542367737263,1.7700967525353704,0.20318989882248184,0.020685752567766953,0.003452401452280369,-0.08586571490968617,0.42559651633591167,-0.015253447051553227,-0.0728932431440437,-0.07110633874275518,0.11856701384348578,0.06449207453226298,-0.14194128645621631,-0.04030026475284186,0.09086951687575653,0.11064677103473576,0.49501289106422386,-0.34037557520198575,0.14851144732537735,0.04094034830349496,-0.03493576417995075,0.2950636506795889,-0.03452316070668017,-0.05856821251224944,-0.2547168700770351,0.1252888645487968,0.6042600265651772,0.054573133881808934,0.03268250872730574,0.1172031803218066,-0.20552669775311955,1.5641103316112,0.2643729776098399,-0.1915218846432701,-0.02610245844307245,0.4501716104750498,0.5824139039161144,0.43694521534158803,0.0010857354628759346,0.014536838035795611,-0.04988214336988522,-0.001831735975385264,0.11883792016020368,0.013977028455806641,-0.10147220397278053,1.1072250736921052,0.25957904589169833,0.37640840971766526,0.17221298817740413,0.6849921421980162,0.05258967614473941,0.2745102375260016,0.1873527602727265,-0.005993571657323564,0.36103792300086723,0.2136483067994032,-0.03539542627560712,0.3962587698582984,-0.045381180283837134,0.3820743830414497,-0.0448695682397414,-0.09051218447955131,0.06010462480711637,-0.115466563971616,-0.039991879098968154,0.16109007569667588,0.1852827207836938,0.11176868236300638,0.15936402141318695,0.1622232047342672,-0.13529320383824445,-0.05887137118850137,-0.04087675201878097,-0.06449669391721498,-0.15299433376210952,-0.09568077354542871,-0.13215912971867527,-0.07860700674513928,0.6688596116428488,-0.1096228232203543,-0.11833182008666869,-0.12195168038170918,-0.1461821205865899,-0.06808969911339145,0.023214805863863267,-0.06236596596742639,0.012272813128206984,-0.039002175650373526,-0.12676598472940118,-0.114733156350773,-0.05891847999706489,-0.08356487167457521,-0.11054196568715549,-0.06588847959775729,-0.12335245203627258,-0.10087637432713387,-0.1126784677885544,-0.08328823760982222,-0.04251703886882532,-0.09039968905599814,-0.048696270096030336,0.3401615644448605,-0.0681779751820185,0.3887515613551342,0.030598114803692553,0.061357141993017186,0.03747108799921736,0.028222412472790944,-0.12171739492565674,0.06663033343074035,0.004051867883804322,-0.03588482465407212,-0.1479443692960162,-0.08996970941002563,-0.0881612625352681,-0.0032527930474136723,-0.10194369942759732,0.12250199045024805,-0.059243046155863906,-0.14685712477989676,-0.1587935207791631,0.3333124050357308,-0.1143250118472133,-0.046539227932160754,-0.08953062640894718,-0.08169162166326087,-0.1653570841097106,0.4108817617541896,-0.061228882450613135,-0.029563253552156107,-0.031694193187911744,-0.0785649446239074,-0.09553412090108603,-0.03256886888399181,-0.023692975742198866,0.0004911646332408774,-0.02400801023784968,-0.02969747773197724,0.15988143836410812,-0.09851550722375522,-0.05340938820243966,-0.5777332132792239,-0.11267626847747304,-0.013621168196888502,0.062424179032928885,0.013060997582562813,-0.21643990526625695,1.1617764708334524,-0.027980872339389947,0.5397637198195725,-0.02646891520935462,0.023736202195635027,0.10443552978037915,-0.26508773460575163,1.409243622387338,-0.28931190703223336,0.09731843585742418,0.2834296939500663,0.20793622304487056,0.6345370703601345,0.40161453976446204,0.4718436605512085,-0.10198308790372548,-0.11755513461447042,-0.5386443615241582,-1.6394876854822371,0.3743413128295359,0.04971803879252435,0.14335680995158717,0.053442687593342926,0.3510814121724426,0.3576412518742854,0.12862425292881585,-0.28805436718127303,-0.7809158485947693,0.0021941850031828216,0.01613365021587359,0.12725425907602528,0.05054142588292306,0.10583732871061287,0.4416698088235475,0.05470994720473174,-0.05773956881045618,1.0683582618377832,-0.5404429324862403,0.20635286093362612,-0.13567661175660214,0.3724851793343984,0.1745927088430404,-1.3669991674099495,0.19836818427205433,0.31811161468636967,0.1670253268167003,1.0968735902348807,0.1802942958539899,0.6039061001568917,-0.8960261624830602,0.07552359360422216,0.4920913127907529,0.373652760674751,-0.2610876955625962,-0.9477007044694462,-1.0719426003073416,-0.380535292249916,-0.36532751715805006,0.4145491786401214,0.38384278056947124,-0.23054781106500608,-0.18739282031980709,0.7217951101990806,0.11507359508124243,0.7195260661571492,0.5379257744014082,0.0249918419020659,-0.01525460031495487,-0.00680254716617579,0.08565678558697944,0.2655489004848076,0.23818129268138413,-0.6150416020028489,-1.1760053424476506,0.12359195472455652,-0.9080942288267303,-2.3307642011235696,0.6560844175313946,0.20514481479970126,0.060921345021910676,-0.10341610899578954,-0.12480404783826181,-0.7078843544737574,-0.03162102879208631,0.11097493822130278,-1.3303600982644963,0.015564970952403914,-0.3395540137765256,0.13387427101247876,0.16321911701931716,-0.34405752086714747,0.19697297606495,0.3078264090853041,0.17247975787651554,-0.92733746421252,0.24875012321630102,0.22914770192071324,-0.33769313830718045,-0.011412380328132084,-0.7812461772307573,-0.13007733550066786,-2.533811198930354,-0.33070646978464485,0.01877700320366751,-0.36943514373434533,0.46003144504837196,0.1128118318588876,-0.5605836009101434,-0.1628723734261582,-0.7243653080800744,0.1319421593959352,0.2162068251284091,-0.054300033566079424,-0.23735342084047986,0.21303793980712707,-0.11859336980794363,0.3751042116896438,-0.7999317099028631,-0.15247359921481596,-0.4265704180185401,1.1445327622993293,0.15139270635952506,0.1706376082282303,0.2343750291493175,-0.062497971941617325,-0.26758462145653034,-0.9727799160536007,-0.07048325640705556,0.2507600483878129,0.08995289518035851,-0.1528166612334035,0.019415219159820626,0.20686593335880152,0.43756191655315757,0.08156959709941312,0.030660595998224273,-0.04928410411806474,0.016138244233500357,0.35848087856643107,0.15018905360478713,0.11921265916164317,-0.15461530800414783,-0.16099190279484327,0.17255595128534135,0.15324432547738315,-0.07318877175505606,-0.16205864894090455,-0.012531231909076249,0.032824510777939346,-0.003547740083826503,-0.04395690697184166,0.19463413744421645,0.05531426216108339,0.17334511978546002,-0.29122849324251504,-0.17734149934773574,0.08956865963613571,0.2775152896662557,0.2149582825951307,0.10465272048370264,0.0743585042500083,-0.5566048967094068,-0.07947308578504467,-0.08462819859775914,-0.004244723082807759,-0.24478006941990843,-0.2385544119209075,-0.01720532885192708,0.024655387348004678,0.03579488360652674,0.07069742091163517,-0.573552306702967,-0.12782649196710624,-0.0582288042952904,-0.14118240282989591,0.19986562634342817,-0.06698771702853157,-0.12289534590897518,-0.1807381861271838,-0.17136923833355772,0.2624365754525463,0.45894381229006165,-0.08608070904145346,-1.041633292730597,0.20927142995445694,0.18654845962543928,0.4698971623301592,0.07869295409736927,0.12202008103223622,0.0683132218947262,0.021896381178931383,0.07173173799634659,0.05416127622864019,-0.2592425466119692,0.33388108802438154,0.33613840306151876,0.2289036734857216,0.2712391147357514,0.005020620059866096,0.03920434320969617,-0.23176157257335062,-0.0053823062039386384,-0.033715666915426934,0.0250524556844829,0.47462544639550025,0.43493696974361645,0.05000156539457547,0.25764519260548846,-0.015277103421605816,-1.5539993965381411,-0.4410319420271037,0.4578979595445889,-0.11405952902215336,0.025903074684352802,0.1875673839950688,-0.04087594192481133,0.019382680861385365,-0.06857818595644329,0.06097168706184306,-0.5624399613626874,-0.15023121480678311,0.17832581767877384,-0.731609649327191,-0.6483725679061692,-0.1070973821048488,0.08266998419470768,-0.10287549416650177,-0.05123174977891053,-1.1849749323918009,-0.4686885544477429,0.02824753143707618,0.10101815245335215,0.05288552247303816,-1.7655816959810504,0.2553023322443213,0.3360021479503598,-1.5238268921753428,0.24466204621741755,-0.07463855800763375,-0.11391479300884373,-0.5344648059420438,-3.5096244816238293,0.1969585745923209,-2.494046517284076,-0.008703652130852042,0.07725241696445606,-0.0008990713371707984,-0.118440453709414,-0.08426362649581295,-0.06773779442408111,0.06989292284135135,-0.02132747081884607,0.008422145330534658,0.031065103417184707,0.11815573976754802,-0.040816046830510565,0.3914326206459562,-0.060414238427920965,0.40265457567348784,0.0381595388734833,-0.053627928159302576,0.13169328810812422,-0.3581825731271839,-0.18141581980040547,-0.008071037724779389,-0.060356885845603676,-0.0890576504677737,0.34567815567842886,0.12802310942294726,-0.5052059732571176,-0.32444942802090093,0.35363252192073136,-0.5581569640691373,0.14471019334011018,0.4258380331840722,-0.024835919377743043,-0.007302542506249929,-0.99325964487445,0.8149534657755003,-0.145394269351869,-0.015073114483077544,0.056350157287269186,0.16559757267950112,-0.03264581541918904,1.1112586801678972,0.14843086597387278,0.5518942295428512,-6.521997413080528,-1.9467909473553546,-0.02771500943172322,-3.470748975013038,-0.2902444573258318,-0.8227547267042409,-0.30211089129355984,0.02769644027023389,0.05677508327417051,0.4552445088667154,0.098314996531952,0.7802749366950551,0.36766532551856906,0.3627570328648056,0.03329152633880254,-0.10208143659744048,0.3674879661935551,-0.32690648848307224,-0.4837287974998296,0.027082775202331395,0.030804706086791228,-0.23163065705690214,0.06883124137109461,0.08073344429321828,-0.4553385750954232,0.15219786214266215,-1.2236053353128542,-0.144432152503056,0.003574082298263116,0.0525946441452924,-0.3524899659737185,-1.26487381063678,-0.11233938219052382,0.030083293969666917,0.19810627670631412,-0.04177911227311922,0.4860979035877157,-0.0929561542897502,-0.005741920175839693,-0.13491970197592643,0.7505981861695166,0.10971678470133898,0.048466555258903275,-0.11942326444387152,0.06874843318967082,-0.2972068984262573,0.7786608863309413,0.6865177798108284,-0.13802873122549422,-0.007938905067405954,-0.010740738658845962,0.1779903229022998,-1.111746345318368,0.9558272345038533,-0.19900406177077617,-0.0017938756684689134,-0.02055860544608751,-0.03834104887621216,0.18075953244598714,0.007638526875060232,0.1304385987171977,0.1609029121281492,0.08693872056721787,0.338615203423901,0.17182856296710314,0.18249119209119422,0.005769552348791816,-1.2659779355343583,-0.489271582659792,0.6558996684204232,-0.09023046176386255,-0.04330305420686985,0.1568019594250026,0.0036428023465367486,2.270241497216202,0.098450294613661,-0.9690797346462893,0.29860623439332795,-0.03106464769059307,-0.14369148517645758,0.0003100791550501632,-0.12885253586321466,-0.6452141724217229,0.02118204603605939,-0.1442603424043768,-0.13375858619244504,2.049302975995918,0.2953912594626841,-0.03153600987448466,-0.10417189935668346,0.07339512303888661,-1.3756991571587236,-0.034134256852608076,-0.5996098277663029,0.20393719265066906,0.23872302831747347,0.10996753685157654,0.02893927013109877,0.028892459107917604,-0.04017270197298414,0.4049050133057998,0.018422506901515902,-0.029190290687013194,-0.0012768750793966247,-0.004560422205836303,-0.023720371128601758,-0.017762145456817514,0.026541439752372956,-0.28404863547773224,-0.00920886366025215,-0.12893997028705306,-0.11892898493396935,-0.00823530434823976,0.12070328857209035,0.1784145208057897,0.16564431015828998,-0.5160864513372566,0.006246440054294362,-0.13012271519534774,-0.0794928555015509,-0.41286798150904885,-0.016208757216577465,0.033231623200649096,0.03372130961766642,0.17631700110633083,0.17600847822719506,0.08988706824163903,0.052558269731012214,-0.021224655472846098,-0.04939485509107057,-0.17376018273205487,-0.039181388423079326,-1.1242096285849703,-0.07357362759544746,-0.23895035836928477,-0.07799007819575751,-0.11431108763533207,0.12293616702765024,0.07018602464851458,0.1087308887730534,1.8218209881774334,0.051902629359524936,0.13941723782715765,-0.37809050541488953,-0.12466432725624325,-0.28524332894694276,-0.48556535160156333,0.15093984274804792,-0.2639702577112072,-0.019137290298047737,0.23933444717957536,0.19352547158391992,-0.057193783681709555,-0.0600323569142792,0.1456114067114221,-0.004509560615066282,0.1551244094084713,0.12363886389721235,0.015200605075152085,0.3099784241861414,0.2285752115664849,1.4436040131569259,0.23101923822640633,0.09653726358310202,0.12012562939242266,0.13348973932465724,0.2683792140052461,0.19733598456449072,0.1941290852010407,0.2261947017204728,0.04312735436698836,-0.2856963317266137,-0.09019545825915133,-0.5720226791051092,0.00008270843037604591,-0.001759600038460331,0.0711972100071383,0.04533133021091616,0.31749525094231507,-1.5145205744877117,0.233248236696959,0.02355330622034008,0.0706859208671428,0.22285558283578552,0.18525699481151936,0.03840155126135812,-0.05012435274058437,-0.04022521711266584,0.052106082586952984,-0.05154367161856044,-0.06300320935244517,0.10342857395989835,0.1745807149046291,2.079436134971247,0.13084966396097433,-2.296562945446001,0.44627868366766404,0.620997015046674,-0.7071313789353488,0.0051220954461616034,-0.03686053744910822,-0.007143746151722244,-0.07324282784489242,-0.1449747482956612,-0.34966955201748956,-0.28462668638958327,-0.04199367063299519,0.4778097370430788,0.022544532327029014,0.6395960680264515,-0.2164404343788669,0.4451613730310569,-0.42305231522423725,0.031964925209570755,0.5415079893851981,0.018664829791657712,-0.2703431446009155,-0.9475268738705366,-0.01082204619910315,-0.3870776006941278,-1.1297856952482628,-0.4737906973396533,0.5417697010458032,-0.33185973075138187,0.682152404791221,-0.34188432100825167,-0.08363097890371439,-0.0401894370209286,-0.10281301268056856,0.160582769818798,0.16417482154978505,0.12573249844262666,-0.005675709317381488,0.038960198021120176,-0.19271203298576953,-0.01269210413616707,-0.10427172573628657,-0.08200155786530151,0.026358175589647793,-0.4348337421275471,-0.4470019812363738,-0.4661945980059577,-0.27115023923929676,-0.4168475169096968,-0.34865406408072,-0.10600095197701302,-0.15324755891512984,-0.429579877950384,-0.43179377158201876,-0.1517405329858838,-0.3549653045235797,-0.35093074605799496,0.010298381226987688,-0.8137416177804817,-0.5219613320527314,0.8722823056849317,-0.14701485693249788,0.3202645264821507,-0.14434415831764077,0.013138126138945048,-0.2922945076617046,-0.22513872354419467,0.0010829442981717592,0.10840217448676116,-0.42380684074356495,-0.1891541697486016,-0.0659200909348523,-0.23508004688173065,0.8770304619727465,0.4075399982811022,0.4905808582951254,0.02803319054901071,-0.24369222095889,-0.3835803955538897,-0.3750918007136181,-0.15445276337665473,-0.36488275455755564,-0.1214816181493071,-0.5053804968451814,-0.08387771222187224,-0.10222317998880748,0.021746787936258394,-0.06407770449052601,0.09599118233312204,-0.08912652792604138,-0.01681464597409907,-0.07577141424640513,-0.20379929606347014,-0.015193736958217945,-0.025090374088840253,-0.05789677854855625,0.019502057976037088,-0.0009720801382711296,-0.04352673288399704,0.05189126929743007,-0.02123492091115733,0.10014813219830063,-0.129303993508402,-0.06706425199122465,-0.06609232432137412,-0.08280062290636489,-0.10509956945592341,-0.0258594195006032,-0.14089530691844043,-0.1285412801268533,0.001959166448365956,-0.004405155090490231,0.013473754486445274,-0.0472805437122839,0.1023375173249076,0.04715248239035541,-0.3519098905993953,0.22805515802864912,-0.011996314903322942,-0.11995409828146851,0.028575622340946794,1.2795446864719775,-0.049354316098470775,1.2285364170517161,-0.12243048191323452,0.06061102468194873,-0.2589906946426026,0.5310542166973988,-0.09847120252726717,-0.09227594112437955,-0.04568652410406282,0.005369689561377879,-0.00040622492964276533,-0.036076875896609954,-0.027779113826015066,-0.036382596656348194,0.007504534312233311,0.020889717342401054,-0.211791318453446,-0.13552222288371646,1.8260820797035742,0.01688793365168456,-0.11952174110461884,1.0811402063100355,0.4548716865046526,-0.311184417371694,-1.7111625383286613,-0.03998005290769036,-0.020640011390915286,-0.8035831962250047,-1.8452075894790394,-0.6902980635909195,-0.15354595089708908,-0.027920997697817106,-0.11334882063958159,-0.21555718573949417,0.09696001783290738,0.007817089514929971,0.04084203351499161,-1.0053070830510427,-0.6263304830252006,-0.4884588930824436,-0.42042091649737534,-0.42114879085055545,-0.4474774333030424,-0.4599500649902968,-3.2905603164392994,-0.39956625559280373,0.010170514733999249,0.022495481058017606,-0.02276337341775561,-0.0536403386087704,-0.21551735939638736,-1.3243972645323134,-0.14795443258533783,-0.0656988330915722,0.14961296479016442,-0.017344408102498564,0.029895695329176106,-0.9554006535408768,-0.05458076516491533,-0.2158129871089357,-0.38725591128473397,0.35854111018508533,-0.004035482576833719,-0.15975036328782696,-0.044539542613877145,0.08506446700199984,-0.07734015800051099,0.1039743675728561,0.1081715341914448,-0.028872673593321407,-0.22222426323609576,-0.0037491241559219645,-0.17377098785084502,-0.03126605614362568,0.35516558221942907,0.054535588049509594,-0.009920731775471415,1.0795697316016053,-0.43283944252164863,0.020248410124532896,0.004453519995200996,-0.36368068220259686,1.0103131484804286,1.024612050347116,0.029833261171944382,0.09186107239587844,0.13394283253254607,0.10492108529738846,0.1112999564319084,0.46686999010413216,-0.08598871019154947,-0.09808596022192573,0.09805335667304861,-0.3683457408698702,-1.1613183002892677,-1.191255968679552,0.13668799887339927,2.381696793563471,-1.5883532800418712,0.8186756578800475,4.82479352383801,-0.014863242992354853,-0.07229132684734137,-0.07443130760612725,-0.040717826638588556,-0.022652158785701933,0.04210087024285849,0.7296814504908307,-0.03387386871665175,0.17345462909380688,-0.3689903387006413,2.54063830386747,-0.28155620435042666,-1.1275259631820738,0.1528499123546934,-0.028867823623786964,-0.042664951899681294,-0.07086031001747346,0.11262881526799803,-0.006300560546090045,0.1608110652539882,-0.08210881936105682,-0.413544034392468,-0.054184941872460105,1.0649750470095214,3.65090758928533,-0.017140433153211017,-0.011315554798600077,-0.010541757264848453,-0.8756085052794327,-0.030786583539719053,0.30993022566401623,0.7027604476479532,0.326706176375496,0.6212448386266923,-0.08260230082683782,0.10943182220127796,0.100310737172739,-0.0012132122893890951,0.13337166163005454,0.18854775917121047,3.855633983944582,0.32039330421871653,0.6096969635936729,-0.06210734659649614,-0.053702852864717585,-0.0016709899567333613,-0.040528874617560454,0.7212983849398765,0.07853539321679125,0.07548485294194163,0.6197294390002911,-0.03677002643457461,-0.03924961922332824,0.06070086207685611,-0.26197870548944885,-0.02103271636081451,-0.046680459240894014,-0.025379817586262284,-0.08180586784402122,-0.06617211930122174,-0.25149183988686347,-3.1187228311378887,0.12825131890695718,-0.5081090430702756,1.2750919055212333,1.2866704822470107,0.09050146236567878,-0.05717591617585188,0.1213040503314633,0.09161214656887957,1.2561416203353046,0.3622692658285953,0.4894229590124189,0.46190889635613563,-0.49968393201220784,-0.08876644690658178,0.8274228300362632,0.3145252565037285,0.04844450339577684,0.8425184511041808,-0.39424267118190554,-1.5233890384790694,0.06447928701415141,-0.11483462146434491,-0.05546632306441853,-0.05415237146970897,-0.5366706182427617,-0.28143656686157914,-1.3767972169524643,0.7155051612473766,-1.4833628166176496,-0.004083601079834656,0.17343353258472782,0.05048895847297342,0.1247274544220691,-0.05576072797820233,-0.08878013308318336,-0.04809073284131819,-0.05010021077107049,0.14552918946438598,-0.04400738740629825,0.07589683368717555,-0.04557774925097375,0.2556580942143592,-0.7399177768009402,0.028828851909880812,0.3717570691977463,-0.05396546668450534,0.012639365706596165,-0.10835443246912516,-3.6211852082880034,-2.4454305127624947,0.056266716979334934,-0.26150845252753485,0.04007920855897358,-0.23076747645793227,0.7470990982942083,-0.15356428494722213,0.32046099934611777,0.17777379580059322,0.37677934630942544,-0.04870440908593278,0.03594507590227883,-0.04690620606963866,0.22118622938084168,-0.1262295974751229,-0.07582730286489454,-0.09294606779680112,-0.09721233902927659,0.5718666580060976,-2.1850397495537504,0.38355302057964213,0.010474652615259504,0.7597506638297832,1.1638701627390335,1.5878015864177955,0.028962465925322953,0.24046848976892674,0.07526702487030174,0.21496067416390766,0.3940129891271043,-0.09076601813195477,3.0057139906699217,1.190630732425992,-0.009167544668170888,-1.0006970568752023,1.8874432196756994,0.8172765466594989,-0.003029095423690591,-0.0937790233850227,-0.014859689203631793,5.858152296080196,1.6463706624898224,-0.4622749576081972,-0.03239232503106064,-0.02116184770838403,0.007673914072633432,-0.014314306261087359,-0.01493835617216452,0.9744698247179634,-0.08705140912840456,1.2762983093186713,0.18302377802647435,0.34533917904612316,0.41842698638351283,-0.3334362041471646,4.4485571773659816,-1.1854237320360383,-0.23148948934230557,0.7485181679799543,0.22707499418231536,5.329426714635928,0.3582292868507043,4.230483023726009,0.24443849788596753,0.26809379568983005,0.13632190833750407,1.3818726716824585,0.0369103361708494,-0.0716464351829235,2.7243281025666066,-0.27955198851105795,0.04968930092129676,0.4610426569149841,-0.24256926649720478,-0.9197089191273154,0.8814594733179574,0.7795306791627483,-0.004915233396605894,0.02749308537719022,-1.3411313418078339,-0.004315390691786865,-0.032491112794835325,2.517252832279295,-1.218839890289467,0.17957997869283238,2.9372079986746145,-0.14197535007740075,0.4189494648743951,0.4173677729932769,1.6255342754277224,3.9344184117561416,4.116783290488258,-0.94427175019078,2.247420368579032,-0.9333327253711992,2.3344543181740733,-4.158941979004697,0.012511872635283935,-0.07193490136040562,1.5714270526697203,1.386389839797701,1.910681986566777,-0.08308468394088364,1.0176570929524653,0.6045806569112107,1.833014349718613,0.3231622772310124,-0.42889724720214734,-0.5465841611665856,-0.24272170105934854,0.5532252210990187,-0.09542191240267534,-0.029073952703905996,-0.07648815508529973,-0.04491601691708349,-0.10471234289765394,-0.00659332516197988,-0.09037614440518704,-0.05865062037993268,-0.043874522656343846,-0.07538115185872077,-0.007435100231324754,-0.05888146078166891,-0.010129598820733759,0.21614552372350643,0.3984560802111667,-0.0795022343365436,-0.0026537589243596916,0.0011611959093635299,-1.1183854215287872,-1.0526632407237482,0.14071598901934446,-0.0555959581619038,0.12011111179169894,0.026396033556193122,-0.1006548461350979,0.7085055865994921,0.5579304224121141,0.023837912522043796,0.08124849219076578,0.005710385481055921,-0.07448586769597848,-0.06560155978025442,-0.056395237703767614,0.12032619860493513,-0.058950076262067344,0.10982263181208608,-0.026968449733195024,0.11523579811159287,0.06537818023135163,0.08080519722782144,0.9565748290782357,0.118900561924408,0.08402268936172409,0.1720408958232242,0.5185464569979229,0.08170784941681991,0.2457556254525602,-3.0669470361483127,0.16780966263792257,-0.06472456112479474,-0.04679750421678272,-1.6732596127793473,1.7590547055988428,0.007705509138050251,-0.038412662807688194,0.04344772809972758,1.9360872237999778,-0.24464584741174542,-0.015145792614775328,0.8440189850487375,0.5631149675315398,0.0858321701816534,-0.06235916209301452,-0.43349159516546937,0.027345852106559567,-0.10813933743419206,0.2666897905672627,0.2365793216778717,0.17282626558921604,0.3101824498169778,0.36630524017498617,1.1198907431249896,-0.061888950680392296,-0.04306707755951019,-0.7260942490838719,-2.360329053467697,-0.04631112333140571,-0.06921224561947448,0.0052966361258356956,2.0892933101569486,0.27633110040606274,2.2333789262135544,-0.03109950358431653,-0.05826803255731615,0.003925826510342947,0.18091549785245462,0.07334547265831257,0.5441592474298845,1.4112638981940802,0.03708116657611367,0.08474939309791991,0.018870677908725857,-0.49546977670113385,1.2751633618440374,0.15094945004552077,0.39187428978696065,0.07522949896735995,0.14992547135441192,0.2105764402483471,-0.09535553892353753,-0.13353606749485614,-0.7230320686702567,-0.720738738986101,-1.5812445713554202,-0.06399769512234883,-0.5973458481009604,0.10976492217326964,-0.5481601489077114,-0.2464441988433088,0.14815858010292884,-0.1331909882147841,-0.1195436432326841,-0.1851192269059118,-0.6906127212358671,-0.7404575457524801,1.2519890612074824,1.006087394735246,1.0495761754988322,1.2653086532405584,0.2391527916758588,0.04253961908136051,-0.04220158179657546,-0.016373003755822742,-0.00385197323977559,-0.03983134562159828,-0.032154342184595,-0.09797794992146017,-0.0397906075302537,0.3484912438058982,-0.09274125233742832,-0.6352207746248854,-0.10358670964079857,0.9434495968312039,-0.2642686358770549,0.5056925214774004,0.015460187330375595,-0.07036908899759205,-0.09308320363242233,-0.027086510689793942,-0.08100945888068678,0.4051114995720933,-0.009991511977354353,-0.13157328528909298,-0.36103701040822384,0.021835560534112695,-0.30198746113547936,0.09347711481087116,-0.08481313911095872,-0.07157825228832643,-0.14213813651674478,-0.695001037727877,-0.06804088060686943,-0.07902235417643064,-0.36030112375035483,-0.49601212428349156,-0.08924519804680021,-0.03333808748556359,-0.018142334230846432,0.06151686177451259,0.5245128356678274,-0.01438492494948806,-0.02669578500755413,0.39132704683911035,-0.11456096614850757,-0.048559247742885975,0.08012626629718331,-0.07564071985890618,-0.019543730843011184,0.009312706825160763,-0.0014559230526685195,-0.057412639296805124,0.029321752652495522,-0.07679437171479188,0.08729196364484056,2.4610066687371694,0.08228547772275965,-0.21807248478153107,0.004441455726449641,-0.022282056214993323,0.26154078412839177,-0.0331023647203897,0.012906118940574198,-0.41686937240692873,2.3701968162241474,0.20547457146609233,-0.07607413955439586,0.09698043427283927,-3.4813575440416558,-4.801449877563081,0.27539978679553173,0.284828096396737,0.168631400088846,6.1435609539281355,5.029448620792248,1.9237757014531154,-0.04840031590422145,0.18772126888280571,-0.15612615084979078,0.4882216086089561,-0.19570362344472236,-0.008866473389836748,-0.044931404298203435,-0.05407388685832738,0.24250320082880578,0.14004620613559168,0.07009104518075299,0.5182362627592194,0.6252708913402301,1.4566635491859754,-0.013144577958721268,-0.02667250701903554,0.1284067681315887,-0.1008629545548203,4.411635153127399,0.6442370591338522,0.16699541417342714,0.018257315396635235,-1.4760266226387333,0.553826356331253,0.027819956515145676,3.7813193952643207,1.9287509095004356,1.0565088938070177,0.249806141604467,0.03334194578326438,-0.22075998245039646,-2.0030380445950926,2.011196304838027,0.35442094526426465,0.2152284500822671,0.10811424543932834,2.705869252380737,0.0700728482768045,-0.0055150487193783735,-0.07075923297226291,-0.0742928313083007,0.050166623006561016,-0.04368938951705548,-0.06108149847687665,0.05505159333348687,-0.08811586036211609,0.050583645581215066,-0.07961808870498367,-0.012731670887548284,0.05951055371957321,-0.09449904382881141,0.14832907753457827,0.15884434950033582,0.07415986879518231,0.08405590173281303,0.09119869340311068,0.08955392827550751,-0.03800495899854652,-0.0718732693028768,0.05206416199006344,-0.03153587273778524,-0.08886979385188343,-0.08311994883777825,-0.05018151727277261,-0.05102497617001848,0.05304926504619965,-0.05325446563889917,-0.05032892503648411,-0.008934594069154962,-0.014088455169190394,0.08838607878323339,0.06114150488415144,0.06139573038501481,0.13989524221707694,-0.09827303767158352,0.05744085063136665,0.05203723390861319,0.13737462189283248,0.10383873459752627,0.10764762526876426,0.1285135099957393,-0.039685204008788534,-0.08980025740567195,0.14410723742124637,-0.013457244623674874,0.08972487112642709,0.09710266460323998,-0.06475289856572751,-0.023977088351168747,-0.05017954565650718,0.06370957778704084,0.1848293673691755,0.1903454819400977,0.2642414606138549,0.2344179357876366,0.20209149076863733,0.1956216570730349,0.25023993954389046,-0.10347563643845709,-0.004148364918769031,-0.804710581265659,0.16020618420713423,-0.08304747706561016,-0.048120140349005976,-0.0600571509738301,-0.06294524255583131,-0.05131879459551178,-0.0019801009075910373,-0.05303582783689566,-0.042115850533599584,-0.09944902293425972,-0.08101911377083125,-0.07401026269455366,-0.10052754486034586,0.12397588355945251,-0.10243820123117713,0.22229934412995522,0.21211728624278875,0.21957831083892862,0.1476744867879516,0.2297377004935969,0.1771434781153287,0.16134060557548302,0.2015644284899826,0.1516332226796937,0.21211931959753572,0.8462758158992871,-0.03679028113134442,-0.44878386354662186,-0.3451065380573988,-0.039319006615531615,0.16729924637229454,-0.02002368780676474,3.0487891957254547,0.6776546751218729,-0.7666029145221673,0.18630073408529313,-0.7386079457590994,1.017730156413548,-0.6536483278708699,0.1281938441358291,-0.08730104299995942,0.15671700861484142,0.2509700084278082,0.1788424187963437,0.11770012800903905,0.09306617231973476,1.1867097987041164,1.2188032046559816,-0.03412930048047667,0.4005388723243375,-0.0789097463672274,0.13984474392235216,0.0387325181324079,0.5527570813316537,-1.32183228524248,-2.6662845280817407,0.19306710313558104,0.057120872585216476,-0.6407167874794522,1.3641391397967766,-1.3550442860759386,-0.3879657052941306,-0.5812688764432564,-0.2630124100801488,0.5411307765153714,0.4179514486457516,-1.5648635956731158,-0.6340318016242652,-0.0639405193391945,0.6398342868731646,0.20023994949316462,0.3799825743433205,0.2101998521198973,0.7198840241623053,0.13612379617887593,0.12747921227113335,0.11399319834878475,0.1425168456681646,0.09686657605396376,0.7633693464941476,0.5754287373473342,0.42675088046578785,0.377182126430212,0.05007032736007125,0.7076216573371087,0.2841054470970864,-0.14230795590959724,-0.022146019716643903,1.3783290785930171,1.4838662151913737,0.45603868709832096,0.2504843355165029,0.23977983846899734,0.912636754185131,0.32075817794397665,0.5955135123267746,1.7858014673806766,-3.693787065274283,-0.12709499643829414,0.016667579126449398,0.006906441092997752,-0.06292736321156167,0.06393526821551122,0.26835957568928553,0.2256924553144739,0.060834762911629765,-0.7155929856647265,1.8431157682346047,-4.2059361801419834,-2.140735656344322,-0.2204533800465724,-0.059154674046350685,-0.018071541733115277,0.4243808288916262,0.06102448680020211,0.282339544199822,0.08094783844958182,-0.04341079581832317,1.300050288927683,-0.6256045660967834,0.4266679906906735,1.157306347539443,0.6739343465385549,-0.04493041219506251,-0.06106603921899319,0.07020418605924426,-0.03987422026577749,4.790603805344351,0.8085763727667156,0.274404389267311,0.03510013185133755,-0.03693067267183685,0.8744475653004636,-0.0007356842203078929,4.50830219527258,0.038948818580670404,0.0916081880338937,0.1136052575732711,0.0022964707404424358,0.015240594962222678,-0.01859056265524892,1.3220313013341765,0.0398158135685397,0.024549618161560566,-0.008332236312292936,-0.06646322115714834,-0.0250116844267431,0.022529023371220168,0.03294371293706043,0.3717906484061375,0.7995406964676341,1.298610337240755,2.2797867086266006,-3.6200836468116275,-0.12935071485111696,0.09700471331471074,0.025724539767094854,-0.14299754350858165,0.6956108699778992,1.424975735076844,0.5758552611310506,0.10890597206085915,-0.02936386727023728,-0.06445863103073828,-1.0222087039075727,0.03928807266376374,0.05496992754406273,0.09214992027209366,0.04947891165873535,-0.06827603787381395,0.07053709192710558,-0.2735757578637356,0.10781635069349695,-0.027377107204379688,0.0968119588574852,0.06546016485259779,-0.06459878814304236,-0.10362953790601594,0.21292695646496196,-0.05685117174559394,0.05284825347980358,-0.0010960596732562337,-0.007747977142883375,-0.029114859883761536,0.02372575122771479,-0.04335479409033784,-0.01617436057707973,0.023576236811061572,0.07591168623516314,0.03407274759511318,-0.23766004154895565,-0.1630244024938471,-0.1615427872278826,-0.1316808035116506,-0.07758455229213285,0.05875189990103673,-0.1710253186980994,0.07503960973197799,0.1318185910198357,0.09825942465072507,-0.041366063858319785,-0.0213152115838329,0.14730422564006035,0.10004307356149857,0.13654533498261617,-0.002663545122295693,0.052025639919473426,-0.061727152484696256,0.11634838587997624,-0.04431563363772508,-0.061936918323614774,-0.01352459042929407,0.11704354129379606,-0.19791841526455636,0.15134759613049042,0.03198203699522558,1.8511950056693367,0.08296912391485725,0.026591746210484622,-0.5419617589691735,0.015132901328756707,-0.03511704416697,-0.49477634097644935,-0.42033389967352397,-0.5882697337520655,-0.4239183440224069,-0.13269006404510572,-0.13459426295205806,-0.07214271871806457,-0.12225553041522687,-0.1557009531135293,-0.0947195924043581,-0.0542650120263977,-0.4768389668965406,0.08871406611688272,0.1542770872187415,0.07355476200004694,-0.6415357103764422,-0.5536843775055972,0.16362996473470162,-0.2781640427697909,-0.2432986398650444,0.3159215515863881,-1.2947573256274179,-0.6870247624649587,-0.4752303223198722,0.014744286279762328,-0.11627570339774539,0.0078017046575907575,-0.05865015934599457,0.631064099172283,1.8050282624352796,-0.14546643436424908,-0.2782125644509684,0.07026371091297971,-0.06688333749632808,-1.8269736128370853,1.6541955340414396,0.024851414700500826,0.030170599000878533,0.023627973768933677,1.3766314262874133,0.812584908691215,-0.15762451594590454,0.022142068753529656,0.05752970818181288,2.6333711597212788,0.09810884866314354,-0.8998372631745201,0.8999072386507401,-0.2354899591049465,0.07738419730935692,0.036726610099093095,0.935153635963626,2.9732593700398984,-0.5099875523025983,2.86621281336587,0.09310054972308425,-0.011673667718767789,0.0034293911719469787,0.17930360572059315,0.4421619279178475,-0.003248109606425417,-0.19766881679375475,-0.040939953654951455,-0.13154662988484034,-0.2101649849840275,-0.11436134255730114,0.20630117812164542,-0.4167630075146037,-0.15915914472484508,-0.4389257343144079,0.10367201084186375,0.07353845438808931,-0.14881311163024513,0.07809437514322123,0.003227456828863178,0.5139810818659076,0.03130193560613836,0.004517878316618248,1.8277127400517765,1.2315964436011155,0.2106853208349006,0.14383129309660828,-0.021042909557901546,1.1638064974816995,-0.13603560783058358,-0.2208358738293711,-0.012906842688432278,-0.020995235308017293,0.4706451222536117,-0.2112575506221943,0.1283969729478261,-0.24036478532055724,0.3190643699355029,-0.6797687394440294,0.3190361588831254,-1.1786303449127216,-0.2499631748440193,-0.4503998257091026,3.5167902521401824,3.3907206104742835,-0.0052153083292788335,3.02558588436044,2.1315612607712247,0.3615119860409806,0.19348681693366054,-0.007995668319468248,-0.3595457161727965,-0.18654364540980994,-0.029671006118182793,0.7624440412412303,0.09712446836793658,-0.26912276339523544,0.14768018252798998,0.25834903178641533,-0.006480622869637554,0.258764237467409,0.363183886080595,-0.05270082031432958,0.14283314250604678,0.08084691100340505,-0.11138113031410767,-0.029749746650506975,-0.01214973978099487,0.1144700199115044,0.5710762695059801,-0.3903785742919965,-0.6668125281153947,-0.6037615087056913,-0.22035189658751045,0.08301237474776396,0.12184928167249445,-0.19306147776246066,-0.01990422644641204,-0.8160254587844514,-0.39278427836184054,0.788023554040913,0.052510209332992684,0.4965853207616686,-0.07411226490027824,0.00984790845333986,-0.10993467250728091,-0.006681747051338455,0.008968897723906126,0.006191054035134162,-0.06136104656368354,-0.08684907562961121,0.35526124023731404,-0.49614677947320207,0.03474713440281316,-0.2960277147255354,-1.1314630228314837,-0.5048451116080743,0.006168885565651066,-0.4179411982231288,-0.051122406204532046,1.1449125634295396,-1.9414362501245108,-0.10732242087915254,-0.08696555795220902,-0.7670243473574485,-0.20444154481586418,0.012935039850575194,0.3975313560202387,0.005936589190192611,-0.09144085963770103,1.5088174173893738,0.8490021058012512,-0.5183295167628447,-0.06740781408616504,0.1826954846008618,0.30663487926392163,-0.072530137070289,-0.3810953251609686,0.0798989280670248,0.07211069063929793,-0.12000231095985323,0.031962504808459476,-0.04264779651028735,-0.03909188588690466,0.0536163823836682,0.07935597664108064,-0.04740496950822405,-0.004969820635078491,-0.4611621110666182,-0.15394368086293478,1.2700714324166666,-0.084248310379742,-0.5593064477147713,0.1043206873854455,-0.3562437779680259,0.2890093683391768,-0.537667400971058,0.2426291830510659,0.487874133078789,-0.14129558637873868,-0.2941340246465585,-0.07294788940336229,-0.2956357865085878,0.03006935393730044,-0.2637246380083895,-0.5842102134992286,-0.6521232642356543,-0.11165741024057928,0.013678770814655034,-0.268700679139518,0.04078012335205741,0.08197234279631327,-0.19707502779473257,0.2976680157796405,0.08451205000980626,-0.04238958368240821,0.01645463008092255,-0.061064902487254574,-0.18256369694203362,0.534407313183937,-0.01937194595772339,-0.011348754943055426,0.05404922900451116,-0.21717244816606984,0.060479254865066605,0.01637592771713949,-0.06626550283063111,-0.055776731595058957,-0.01022534577035191,-0.08975155954647467,0.18557248631017362,0.14533712037145893,0.02287603379494595,0.21667956751400755,-0.009555606991456033,2.425986048493058,-0.051268698072205826,0.09822594696683125,-0.13416521377907417,-0.1370810696441033,-0.02156333383502643,-0.02566193822742921,-0.08288752574873307,0.43110790575122904,-0.06507961254769709,-0.17443445858223633,0.3355140200346756,0.052187283900145966,-0.04700545945229975,-0.12869774803371975,0.017548484821103952,0.12462031849662678,-0.12666488165360698,-0.1348994270069189,-0.1330448839595677,-0.35582249228590007,-0.01906931156385544,0.025045134406420533,-0.004199973681613696,0.015927983799765424,0.02811393321581799,0.02315277523201943,-0.35100471282616613,-0.4060703012728028,-0.6705801727666976,-0.4925683718917574,0.025154791791053455,-0.04424530012552731,-0.05064333842173563,-0.2449332233868434,0.05153447442005752,0.08718817287234816,-0.21352385942962707,0.13542192039470657,0.7251575891878677,-0.23945917692507207,1.398230171326179,2.1465161281260907,-0.06724943309434411,-0.023381313657165732,-0.06509634091025933,-0.06299053732422308,2.3500346076610756,0.7982199286366437,0.4435108385764227,0.05760462001142125,0.16801413891290548,-0.1347331686481167,-0.18327704417966126,0.17855154258719774,-0.043883009444488766,-1.0761214840347162,-0.016383872619498585,-0.07047062512095048,0.0330639457356634,0.5242074136805357,0.5881964848420063,-0.186393640443194,4.818022937289581,0.06011339566871518,-0.23971321862889491,0.16679618581106578,-0.24413078761581453,-0.1931223264759952,-0.06338620172421293,1.5401820324222508,0.7453557647593961,0.2749641016086628,0.012269743515837116,0.05923363863413009,2.3862059875862873,-0.033860479874257186,-0.10102843522847291,1.3312021029130034,-0.051581649547635465,-0.08683046531856074,0.0588916254822482,-0.21141547186711385,0.1741780076964609,0.026447793057549972,0.04491382025159242,-0.041540362761395874,-0.0005371031648892197,0.0190072005226803,0.08024243904418259,-0.047698703138294156,0.07208573762621742,-0.28200410907429413,-0.24206063482856557,0.04835484349244634,0.02007884513741521,-0.48615451565432033,-0.07642815754836517,-0.1450030180185295,-0.03845087676964759,-0.0700106988811351,-0.15485250191014918,-0.005288696023527119,-0.05654515787633737,0.16706210171676728,0.17018359131415367,-0.14343126273048476,0.6636110926297825,0.35110657676884094,0.40292669244779566,0.3837642803023164,0.6391090875908144,0.15353130609895319,-0.10297205068848883,0.02822126414007583,0.06989812584409212,0.08181410177779866,0.02873140312157121,0.014884501750848161,0.09737505942946359,-0.20645951885510544,0.6610666121541208,1.1349735986669152,0.2750826287406541,-0.09026664941475657,0.12972513731290927,0.25675333906026226,0.1633576640736299,-0.03012301651139196,-0.012230347556557266,0.2401968388986024,-0.030579866962547886,-0.011176805072432062,0.01396248680726374,0.13469292164144567,-0.21932977886299188,-0.5900175933069023,-0.6017106067910358,-0.5517654382588528,-0.28278765661512795,0.1512498835512272,-0.08277814044347703,-0.020767113344647637,-0.0638522639733453,-0.030303715176839094,0.09512259940230147,0.21494277310983215,0.08569266708516506,0.042468446969873924,-0.070543721690565,0.16430947692174142,0.10678471212610238,0.12091383678918892,0.03115296973452508,0.0952237441274519,0.1193721566974718,-0.02971515606047804,-0.16554804950076044,0.029632415641520384,-0.1478263999016453,0.015300047926124443,0.06880981107121116,-0.5602649223883561,0.00912815112927158,-0.5879196035570183,-0.042516652469888616,1.9825200527986002,1.5709353773105104,1.051338361567399,1.891328068747912,-0.29330600311983585,1.318392135150165,0.04017749742799364,-0.28645709402662917,-0.2572223639014602,-0.32166986472519604,-0.07764006380652826,-0.4789078658734938,-0.31237963922304707,-0.14209937523769292,-0.7841505109233736,-0.9051171054459182,0.068735409395491,-0.009585736370108107,-0.611691137933276,0.050656738173006956,-0.6592422991724441,0.04092323813748356,-0.32124306231599226,0.12854091814853003,-0.3163699546550959,0.34440209307443725,0.34191600305906356,0.1360960043825088,0.15576677711214731,0.3701247266791689,0.09643084987018612,0.11019098348293702,0.33326242650514204,0.10316496879761573,0.5954750830238593,0.044303132524704004,-0.3819272968141987,-0.0032892339880276782,1.3926581539875058,-0.4980631022453159,0.22041717546236078,0.5054498312727089,-0.1925432027346139,10.767583034641316,-0.22674612865783664,1.4694342783999068,0.7826119991440275,0.40439489570062737,0.0750830673532338,-0.4412273688518024,0.8433309818474017,-0.21664035970336679,-0.22837840768046314,-0.03676805694325926,-0.003750848572777425,0.02631699877036645,-0.0026369419053892578,0.06420191354527847,0.06764915981008424,0.11710053350795056,-0.03836554053344769,-0.03050152518184311,0.0553170484049018,0.22315879054013718,0.007020825036029186,0.02199957571195388,0.039782101378430704,0.035252486117201456,-0.2563599185043498,-1.2110068801379965,-1.3806679992838422,-0.24293164310075,-0.009482950314039527,-0.4141962700982026,-0.2729682844958911,-0.49152691783009367,-0.04841074093630653,-0.30152181193745664,-0.066960881989268,0.19528559259314066,0.2010720944612722,-0.05878401390335709,0.038148834597150606,0.4326662439406948,0.029959464885379265,0.05493770531124671,0.029126101634689833,0.09365916997637012,0.04948920506290771,-0.03645867462486895,0.07996008708728045,0.07763038102713318,0.05516115010129508,0.012000573982334914,-0.04669816078919654,0.01636856702711981,-0.0877739396308315,0.452459495147393,0.12285553714653988,0.09473949357899422,-0.5189987234335942,-0.030974933484578828,0.01894990151068152,0.030343514050630193,-0.02294595706060925,-0.06530984714914434,-0.07794030595548239,-0.12922003245996921,-0.979881287840164,-0.035737670155958065,0.01042014966765293,0.4252724285280385,0.7387637356949859,0.35337890262632027,1.1387004300049108,-0.0005449737902898066,0.03640554935083619,0.2015650530256439,-1.7756828938049298,-4.7344291205182065,0.036950406687547385,-0.01372454225035561,-0.04162396894312701,-0.002053873401628161,0.006554248245572766,-0.5721493674732642,-0.3191227880879909,0.010412280639279722,-0.7130300486208881,0.409414385092041,-0.517310344256742,0.25799305993061805,0.10680555763558457,0.16974654871786518,-0.27016126224231646,-0.019670605403698714,0.017705660248121067,1.0358248105147951,-0.048503295271585894,-0.03206381561317641,-0.5281627327027797,-0.2174477563099942,-0.7018134966609033,-0.2168257840318211,-0.47589349308884765,-0.0892047868345495,-0.08546767623841438,-0.046669391345900174,-0.10552824288785388,-0.8721353513826899,-0.0659440532786817,-0.47732380960811077,-1.8906019315922156,-0.13012171001748768,-0.028230011531782263,-0.11017279358833038,-0.13981800005640763,-0.13849142331430167,-0.08655153852926036,-0.15361360009041045,-0.6229595105826492,-0.0840055127330346,0.01400347743088564,0.11761091863456022,0.029727510482763994,0.03556463365337056,-0.01101150447691156,0.05338053238523792,-0.2771616054614874,-0.6976917499217774,-1.1425979404904703,-0.030579450241030766,0.006100378516289896,-0.07369736243072311,-0.014334073577471766,0.0227161016153821,0.08340278242196447,0.02996211046107556,0.026641864709631348,-0.019872707441351004,-1.5942824942697462,0.12457667049426001,-0.17198918633765198,-0.05269842408865917,0.015073164789042096,0.4618617742924511,0.989598202817855,-0.029941664549369452,0.03758943860268099,-0.08129611469541648,-0.1355328242218674,-0.07194469421190848,-0.11403047051445947,-0.058217472425050605,-0.3394977617072488,-0.4514290212235295,-0.11698243102333532,-0.7757885041283962,-0.7905399666392376,-0.8420438862782195,-0.08667730104842315,-0.1331102933877744,-0.18117653486446023,0.027212097207949815,0.0016668544908034803,-0.04571399075326867,-0.24455395235482993,-0.7320941122370913,-1.3482546077889224,0.28402977643531335,0.483183428869425,-0.043757832640046915,-0.07829490011690893,-0.015609780034567852,-0.1677115625536451,-0.062165579714342695,0.021274730358922158,-0.0017392317324234283,-0.006046386426084329,-0.054389809153442284,-0.0001640832003026638,-0.0840244907937025,-0.00006326868761539503,-0.7600307773384375,0.06481537615876036,-0.045142461966161486,-1.6038972790279298,0.025144782035153263,-0.0040392700058531975,0.0032935309876862494,0.5560615434328227,-0.27024426744802693,0.35021474643164596,2.4950633640898507,0.2591375918935397,2.506438536176508,-0.6469047121179121,-0.6139858234075648,-1.2168846395159876,-1.25483955955812,-0.946691745553269,1.1013230068657598,0.4416868951666886,0.014208324788030786,0.02152091533459009,1.0581221034190664,-0.2539911570527139,0.060503143665854,0.07048279763454379,-0.5397059402551257,0.2884915219669089,0.8361484981098639,0.28842396914281004,0.01091013951799934,0.4425124584424262,-0.14360699850212597,-0.2551039352893842,-0.03746511163445901,-1.6600243792549523,-0.1271098277616934,-0.01897666571387714,-0.05847711744271831,-0.028253347581616746,-0.3360859282104347,-0.035343956203065824,-0.2121083489819986,-1.2892783680610054,-0.05750100309930281,0.04411235136506041,0.042802715947176266,-0.018730596625027175,-0.7405795108568795,-0.7845651268026698,0.251877629406812,0.02602452245468454,0.021779904090998514,-0.018927343133483446,-0.034285496347136464,0.11644116296372307,-0.024972586471078924,-0.005434116258007213,-1.003678080650555,0.2491753057431093,0.008596602312859162,-0.5305731702459547,0.3004512552034256,-2.12564062020476,-0.5095771976374084,-0.12031144668275108,-0.5579739109789303,0.11689662540305717,0.015266955601964734,0.030970021573638252,-0.08933372303192344,0.688405261164844,-0.11405091067016485,-0.013027001164611758,0.050336224520737716,-0.16563571009963401,0.03787477207588642,-0.14288954495612138,-0.5546575603709469,-0.37984285255450734,-0.1238749612425962,-0.029180401908621385,0.01934877622522138,-0.17532551226367088,-0.3230707005945316,-0.021345816569425205,-0.006477866817278911,1.829457949080202,0.033973560555787236,-0.030798425620705724,-0.50115829196341,-0.008910185837884749,-0.2744218693853156,0.9467554588149908,0.35289724256621924,-0.07150707327619173,-0.09607244711050958,0.9017409808275103,-0.9516469249190768,-1.3547228350328882,0.14648856628555745,-0.28938491731208643,0.66459793600319,-0.6365583646664502,0.9622111840574915,-1.0448045913829092,0.58098339552402,-2.175843736635586,0.23488750162326902,-0.5872821876046376,-0.5213289884672434,-0.09437991222802232,-0.47139665194194097,-10.694932360740518,6.81565921468552,2.4955363892243336,-0.9986683784771597,-0.047329318149836055,0.5743091297133701,0.025801591362811307,0.031741125743972795,0.01585781770386003,0.03188787355007881,0.0741056427782853,0.00912167305208381,-0.0038877004859082004,0.08882306591621994,0.06564964420128544,-0.1001399430834713,-0.020041266545184646,-0.03604861981192336,-0.03828290300433088,-0.2911338387018384,-0.12653702894924884,-0.04120812291209102,0.10039707021098906,0.06215280948871782,3.8114779571236403,6.071908679446881,-0.5923878024363013,0.09915255079236646,2.174330117136051,0.07576107369371857,0.2399219782034607,-0.022218463822190122,-0.06736940683218158,0.07212200228698554,-0.3858975179721693,-0.0005635753257176222,-0.0458734707193171,0.009844410887665626,-0.018499128717147675,-0.030909274356729594,0.10129748626950902,-0.3157742355189368,-0.8686316214494153,-0.14931247944969442,-0.4123384906302821,-0.12062939700686784,-0.7158909884547552,-0.173667361018949,-0.390114924199866,-0.12440249125695345,-0.11269527306347824,-0.04645709215010912,-0.29029138470627364,0.016759290527977075,2.501912953507778,0.20206500268746008,0.05745351898856164,-1.2223690841106065,-0.129937813102245,-0.026257751400385977,-0.009506268429773554,0.056490129506982664,-0.6313836635110937,0.2911077083142405,0.013054957191226846,-0.016791560981196912,-0.03520689807448175,-0.09491765576082103,0.057883183042436295,-0.12279304096930678,-1.8078472105608405,-0.7068737816542823,-1.8536311827038734,-0.07126430191807204,-0.25440396997456133,-0.26059236305609135,-1.421684996978476,-0.0749138506150565,0.028836752186108598,-0.03629489022084235,-0.15091891454881504,-0.17443173908214374,-0.040704005128821504,0.027435902180453102,-0.006362430361202629,0.017868793298788422,-0.5103389453628623,-1.2841538366255292,-0.09105006535534875,-0.020806628981621677,-0.1029847816290669,-0.10673002211612231,-0.08756421195488845,-0.07153973207327072,-0.9756240472826984,-0.10713173872617979,-0.09495706046579552,-0.050781459207406086,0.4615887528593406,-0.14778659018082638,-0.06620561581629823,-0.11206457841954842,1.5195340945781362,0.17544391720011698,-0.07850443950871401,-2.0927726442516477,-2.000648741070238,-2.0604025829104877,-2.1157945286439674,-0.8174540101935527,-2.062205613766226,-2.098165143167016,-1.9640089246457881,-2.134804447006852,-0.8700156380453213,-2.1333939710165675,-2.063779798612089,-2.1049501962342148,-1.9102307424160614,-1.8187266025286737,0.5080626855243588,-0.5137791769454058,-0.28409543537281307,-0.30095138455442033,-0.3906874083782594,-1.1610543673563873,-0.3576806480550345,0.018424630208604405,0.04535365106769141,-0.03586577967112854,0.016098911648345385,0.040845980049323646,0.0028973734002426333,0.04437411809521063,-1.1932297191860854,-0.012306328777786705,-0.20205898885287177,0.4363871615705728,-0.1944523123218646,1.100675689794818,-0.10741436125501641,2.9789678927084355,0.022579781006723764,-0.05165337711343216,-0.03025366786932045,-0.008240387113172517,-0.04563855853433014,-0.011886702817724477,-0.7129906682261817,-1.5776965191746193,-0.8159194273411512,-1.5529780952022998,-2.570647084870692,-2.51808469643699,-2.59178912509592,-0.25627842816180324,-0.7934952229698692,-1.538615110793671,-0.8441786565196732,-1.5774097490069603,-0.7475128459943612,-0.016943633970413294,-0.008545032166868334,0.0008985719224458849,-0.16598947700798308,-0.1060191832227104,-0.005810125058542215,0.2311048253522653,-0.11398706178764911,1.0436163471109736,-0.37393681023688996,-0.6177240995037412,-0.061188692195322844,-1.0809489412876971,-0.08379287160993884,-0.04357742723118967,0.02249222092702663,-0.06358311415342827,0.025715171090636542,-0.5344461620930337,-0.5078017316063171,0.2130455117617486,-0.0932745284543017,-0.03285770689535989,-0.054813711503509895,0.047968542181254195,0.041361865120406405,1.0874178905786152,-0.08301728325000998,0.00009505730024868581,-0.0330607530966549,-0.03647214450574461,-0.3500498166094458,0.07593827252139591,-0.05802561128906232,-0.0811835636090606,-0.11233056571580287,-0.12051140418425528,-0.6153677698520938,-0.35806621228152397,-0.11731654199757266,0.03526020607912302,-0.2758933275885898,0.04608800933583896,-0.7982252476768287,0.10274430536380726,0.013319654979179243,-0.06272491196576696,0.08467146276183284,0.35502424857596837,-0.04584211786315347,-0.33582829577561535,0.3108501688989844,-0.12858530678901164,-0.12386448711567898,0.22498974117423762,0.025856000278500355,-0.1610759863576672,0.09431243365811465,-0.17928791942153305,-0.25831003675909364,-0.1505144130111277,-0.00934478888861227,2.9385515121050734,-0.22045825159297558,0.47689422401889114,-0.11073116899175532,-0.06783969192284076,-0.138406339028283,0.1562692786058896,-0.18910563526349888,-0.2063997916380039,-0.10422057490239861,-0.6782430936119701,-0.30766582657966685,-0.7639396977263295,-0.15035591406540372,-0.34545595496045234,-0.3374285784321596,0.009690901135109358,0.049302010033624694,0.07423737169195868,-0.09422306711413934,-0.01759085735115608,0.040621442458826394,-0.08816832172277672,0.03239283841151737,-0.1863732280029403,-0.018265450131250607,0.053106040316802106,-0.18863550142540847,0.06958195818528863,-0.12415887981479315,-0.1474055389363543,-0.1058937158777399,-0.11594051101037378,-0.05897165695201577,-0.0979331175356137,0.018423045173474654,0.01474259928325189,-0.0977643009650498,-0.014365554567380298,0.05904876391794577,0.0269974388849321,0.0012580796140676134,0.028612241006728333,-0.34332179129745466,0.04688958603535178,-0.0032579728202479876,0.0526925898791706,0.055483540841970776,-0.17208874823958115,-0.18823425927094736,-0.14381015563608643,-0.14148539393300663,0.07368229314837693,-0.1358411401903229,-0.17099583634962556,-0.12346062175302562,-0.11625925346149044,-0.10840476815237944,-0.09216564682151268,-0.004061058989339667,0.008708296050437905,-0.10483542369978066,0.004143107005827773,-0.13535521738723658,-0.11984147488629633,0.03054142606700268,-0.29771099665671774,0.0510080989570499,-0.29399775283340485,0.09002623493448852,0.17019188450068448,0.06202566405450592,0.10329455204138295,0.13965527683592857,0.12418711750717419,0.11941247454261901,0.1060454985169762,0.17896711079770952,0.08973304433531647,0.1152198162357464,0.05652550477592284,0.07959018213747698,0.029114331295596232,0.08348675470140686,0.05303956428396897,-0.15590144550932974,-0.30400733433058963,0.02139683423808516,0.003864133146645347,0.03922025718217415,-0.1176370665324331,0.048200613369360185,0.07365554809901273,0.012480789617986864,0.07280817418976344,0.07831670825320179,0.06584713433549594,0.08087508556433987,0.14767972978163446,0.1448479581205489,0.10332797952812184,0.14157829721462423,0.09935685185497553,0.11607784225624959,0.3921950180568151,-0.03413431382006332,-0.0526830427234937,0.07990791748556725,0.019352400439216225,-1.185054442662145,-0.22143382259790068,-0.7857553707311897,-2.412863636505729,0.17308552056854257,-0.06942167701203052,-0.18205061163288777,-0.2737743722640098,-1.487249568972784,-0.4233435578922924,-0.8274015544899261,0.21011580959659953,-0.19442501528556166,0.2790611487609504,-0.3391777768793786,-2.881860006603141,-1.9475426732559484,-1.538862197082902,0.21793230264612723,0.20219501152761304,1.007360324420754,0.03896256694421729,0.1655655549780596,0.4906966437513333,-0.06759806270538195,-0.20410093292735354,-0.20467235443241152,-0.2329396579356473,-0.01322052841426286,0.297029406602865,-5.583280544661983,0.3520704074969705,0.3684453806663883,-0.09149842230765902,-0.022175225190006264,-0.009064615364400657,-0.8635832340043093,-0.04209676930327418,0.11799229155968724,-0.10264358284466449,0.09508950165480974,-1.9968002778851366,-0.19097556205168784,-0.11621210664407289,-0.04449101493762083,0.09461609242417676,0.1868938757331416,-0.13168248916619288,0.04570081010998604,0.2329644391166091,-0.047614906513949846,0.056639681016902414,0.208051143309662,-0.23252095994134098,0.38416483271760893,0.4895394399552154,-0.30322192914308355,0.2256342016161113,0.03881005935585373,-0.21671310937862084,-0.19605456831404927,-0.5228670812048579,-0.5722961620052982,-0.6523109847833525,-0.037689286759479586,0.37508393047957256,-0.10570760114877613,0.703795492581009,-1.1704377079437907,-0.03165434811686546,0.035109556787082864,-0.03546856203554349,-0.08451408443197715,-0.13753797938370385,-0.12730093238054233,0.11420401243720647,0.270317431222031,-0.9945537433466297,0.35046182299056877,2.1147661582085573,-0.2452397338695375,-0.18950380139815773,-0.16792478238700906,-0.16438652411773258,-0.2468498122511539,-0.07813833738670256,0.4659281228600787,-0.45082551101653706,0.3870373357376523,-1.3698157429006785,-0.8200017027728118,-0.10392002313971291,0.006958681446767697,-0.07333838342690396,-0.18172398950786017,-0.22074524816141552,-0.27471979789913764,0.5583843153512147,-0.2056983391854735,-0.21382800366477292,0.02648112559754096,0.15549921846392917,0.2288203160973403,0.22788013368396337,1.2272918437589526,-0.16562619899579498,-0.18361605437399448,-0.15840947207843797,-0.37419135932017805,-0.15386352310805845,-0.03145597985609658,1.1189702186881438,0.6994844972212939,1.0343602937679681,-0.2061977157332653,0.03953966704954927,0.06442515837890425,-0.19962024715299947,-0.13521302876811125,0.2215307031338753,0.6339407239036149,-0.12771571688603883,-0.1940601624945577,-0.5222713815590396,-0.2238905627019818,-0.23042345942599052,-0.21815041579594224,-0.13939453962684437,-0.1551085437241206,-0.09754113683585298,0.24166685434547452,-0.226340531283332,-1.6199926177454587,-0.009853189952722755,-0.18860613354300412,-0.19129530056061286,-0.18277021921154743,-0.16086309110939084,-0.20103698185822522,-0.062385204438263744,0.5059589108347319,-0.3550677018100023,0.4138383025143178,0.06445308797508466,0.43551707216244023,0.12411199100125661,-1.3352671498505442,-0.2731846799324414,-0.02279760584917177,-0.059380259580139,0.1619402088769807,0.2925252884442693,0.38222604392153386,0.31768011638698906,0.08662614149885314,0.023388630042323402,0.06013737391176001,0.09493515043020175,0.09734772827094995,0.13341419644246238,2.327055923135068,0.43189815895815276,0.5635689009013914,-0.12039766395686752,-0.13014902138177278,-0.03581219755200582,0.1414191464731837,0.02862264421888967,-0.025655770703741646,-4.227059833436151,-1.0186672722133094,-0.062282479586693903,-0.0670746671740139,-0.10362949785546853,-0.09853058102803275,-0.06518650256815726,-0.29635581666198957,-0.10345968859131174,-0.16256351930650265,0.046659241953711225,-0.12066078628272367,0.055404058505052,-0.2069619681055321,0.0824026620719957,-0.6757890464618286,-0.1378888661091988,-1.5295656976847964,-0.19693469018947174,-0.1971198690988466,-0.20809747616101978,0.11449512974906606,0.13227958834888967,-0.18350416425344152,-0.16925433508084933,-0.20119630088636242,-0.19544791260488475,0.026863167667992016,0.04323052231943966,-0.030715811191887963,-0.20117165554481228,-0.12790892819343877,0.037537717326126506,-0.02319884293312686,-0.1226672782839855,0.20527965292731157,0.17788761360932134,-0.12262574568237242,-0.1815233394966511,-0.10364878605161666,0.3198200888393355,0.5487991551060206,0.0009222139789097228,-0.07164124514119191,1.7427266281641145,0.5651774052011367,0.393889165301944,-0.014126427770673348,0.1458803930026564,0.01580425384856805,0.1314947581781567,-0.09976278582744662,-0.9547506174873555,-0.0592983725669463,0.8008659782056304,-0.19873104132550212,-0.129433163279211,2.0450552501244603,-0.05295124113396583,-0.18707640551716773,-0.15122204599793113,-0.1898167957009827,0.7119148618226989,0.20608940937161715,0.09216313365254222,-0.19045376492162253,-0.18099844324809738,-0.09351218553797945,-0.4508770214082569,0.5455296496334261,1.8257044746126394,0.8059322165680729,-0.22802428166040187,-0.7799963489687168,0.18004301553225116,-1.9288275173549025,-0.39093345525118295,0.1364499461859726,0.11240291549509207,0.14261509175375742,0.03098832884266512,0.19459860899025203,0.16067573070422633,0.12657089276623537,0.16131068101976903,0.16244515548085053,-0.14130949780133736,0.11152906002398726,0.1572941140718334,-0.07091063587823383,-0.14281079166550384,0.10497009466323912,-0.1487819212852521,0.12456406622305748,0.3558879214009,0.23914268911372,0.17709631663378397,0.4237677306804743,3.236247914137046,-0.16090561031856518,-0.2246286349798725,1.7537370181375203,0.7984264721282827,-0.16272019101184745,-0.18857299173077383,-0.21295048198754934,-0.17155167374987706,0.007131687865600634,-0.8083869576001373,0.3560701856962222,0.42143300972968156,-0.08882646576266544,0.0618122365960566,0.21390838939557769,-0.03605829933611743,0.1772324724971306,-3.13621568216362,1.4809879772957593,-0.22740876292783263,-0.6530791112287597,0.512795086316862,-0.9098458461137611,0.11979878454481478,-0.991864598457733,-2.0005538395990152,0.06755513338883577,0.06220152482008273,0.16189914525533347,-4.004305823445253,-0.046064504757073244,0.054099901220147004,-0.08068714913846846,0.42148876907397387,-0.2071121992844582,-0.2288371673556912,-0.16096407319938086,-0.2044497136514726,0.979194673280549,0.16148796674151727,1.473096711775001,0.6324608944174005,-0.05293829109578992,-0.20218110367051864,-0.1460852556029905,-0.030942610198468213,-0.04091345460039871,-0.6615138383178444,-0.07237130957591116,-0.10337459224958134,0.07833370880991401,0.05745362592216962,0.8388811287282525,0.012318609549183263,-0.5543529370822899,0.160824597024284,-0.03276491397823431,0.39348591642475217,-0.15875505690238167,1.3643141819681248,0.40209605657401176,-0.047270238613083056,-0.15505437510524345,-0.13014432470657541,-0.15402956567068166,-0.09587113552536639,-0.06696535542464778,0.6501085313031594,-0.12991806526683125,-0.16136944775469192,0.0842212039670749,-0.04717923125115282,0.31143199711815706,0.011239168936744733,0.3697511131522157,0.1400270936148217,0.15514943135828432,0.3506517416713267,0.4086287280811232,-0.250438862771768,1.8248134184117086,0.2471194132468462,-0.028656751387947467,-0.24464813041717348,-0.14605894652343418,0.07861199317539577,0.17250846416554308,-0.2048178020092738,-0.24315834590656693,0.3024632648919695,-1.0702045091103205,0.7099251026132735,-0.10111053942124833,0.2677440795666124,-0.11732687456694885,0.4017650021588187,0.008663909185132296,2.7618170628570433,1.8828107137154901,-0.3579024408651328,0.6656225257828441,0.16746071613557967,1.2699593237475766,0.40605696069448044,0.3281977351177723,0.16920020300516633,-0.2397582862321114,-0.09833209722262137,0.8568164460522755,1.0634734494312001,-0.2721761372062817,-0.1391187780595222,-0.18307671522275445,0.28567183685200936,0.05859237929802574,0.16945340906687822,-0.17933112726096306,-0.21159244066214533,0.21829224826251817,-0.4546147332479621,-0.7866030205375137,0.3796948345006779,-1.4960779314532509,0.33199444428952335,0.38038039701127485,0.3342707942575642,0.4408078511449065,0.3695087131099672,0.3689580994326469,0.33127520610095473,0.16717475541041762,0.17814403830490888,0.1690895808009583,0.0676411342019396,0.004691167547325141,0.08818902792334046,0.10826837530954951,0.0982465210357826,0.09078614022818023,-0.030555392295142023,0.0011509783523492296,0.11623013807951256,0.10467912843451675,0.07484478603631113,-0.012607991928041521,-0.053159468300319604,-0.06565607370270661,0.078257949740019,0.1447314612584117,0.49095312621559917,0.3593625356099563,0.3412414390732649,0.3829179190837646,-0.04663380079104119,-0.17367489682161336,-0.15788544570758306,-0.1513253743270749,-0.17111711754541545,-0.16907017776934843,-0.18108462869074154,-0.24478849293102298,-0.2127829900535451,-4.761464893851282,-0.18378464513961587,0.40261688548355873,0.27168138336335657,0.5778611649129277,0.16091851193551232,0.5262602188874443,-0.22553838153844138,-0.1580853992471967,-0.22293236238841097,-0.15581211944799978,-0.19670946411154822,0.3578682429773656,-0.08943822250365382,0.06822964912180068,0.05601854465265801,0.09946388786738929,0.06261960490318916,-0.12763233905215046,-0.1889349659480354,-0.12304191268241971,-0.20622526896893187,0.37326323213163703,0.08805457346272953,0.14908638874652977,-0.027494866728647028,-0.022029593098966276,-0.20544482532349514,-0.3015744411222447,-1.2058405234835206,-0.2765563665683409,0.12881292767799418,-0.21368267618867984,-0.023851418570539747,0.3186140322633215,-0.041136065183621964,-0.016046135981334468,-0.0113830915125344,-0.19697448628696707,-0.0771329284540325,-0.21361139697803513,-0.18764125167343393,-0.29207780061693633,0.6750835994943414,-0.1870847917616176,-0.025772575428211493,0.3990399226497685,0.10930161269369017,-0.2658904738238962,-0.22400817524503658,-0.08478433991049916,-1.23424499098173,-0.3133007598011567,-0.23840762514153793,0.1875804011193316,0.024180944585386714,-0.1050518052777639,-3.20997888143861,0.2114639414953874,-0.28516249698266943,0.09369118249838007,0.1757958013871912,0.13750128060027206,0.12023050773922596,-0.03735953146396798,-0.015052757084980335,0.5700540040971124,-0.16782431914096138,0.6464573702097703,-0.5672285112058246,-0.1485016831787137,-0.2775085440185402,-0.16635360511429229,0.05234871624950211,-0.14165295458684576,0.021391881345095908,-0.20195682169070175,-0.1768171101330804,-0.7102208855059338,-1.8733908911417256,0.07354523051401105,-1.5606317872411095,-0.3442217572363844,-0.04443252274013021,-0.5648255627080166,0.25982318160910306,0.43511615517566227,0.09298483123981409,-0.10016570053839824,0.06559212006535191,-0.05011899963861974,0.1420527292429319,0.12057849633499639,0.3561653798712379,0.12582793128407738,0.12688392189832018,-0.06287906023981191,-0.06224501032352196,0.11043858449939548,0.11375915502819493,0.08860210892245582,0.13133487376634506,0.138382550437063,0.6279293696499527,0.2189263994788516,-0.10024031407674643,-0.07701568181443672,-0.019926825016974386,0.02364573455194229,-0.0794184287465009,-0.046285829492306516,0.10629510312926599,-0.09303628055321632,0.1819366704426849,0.07106227868494674,0.04803346076664408,-0.0061186563286326065,0.07737097450005506,0.03929160941496441,-0.25600986556594285,-0.06832854025724837,-0.09414368377251967,-0.12837514431281782,-0.1323562301738742,-0.03846193785142613,-0.02881707663941908,0.0832911045838137,-0.006419003540001279,-0.035887350883391206,-0.10426650402290356,-0.005888948527367759,0.10071103899024067,0.1442292344629083,0.05325023977866058,-0.12665328941324763,-0.13132895441200299,-0.1358628283896983,-0.15002791289239198,0.17981964020160884,-0.15260399687263604,-0.14238988562512053,-0.14732536590211598,0.050138595427373846,0.1238846619870107,0.09294439558909315,0.05620516853846607,0.03581300242866437,0.08121894447173218,-0.06919881224320015,0.03648248846734857,-0.08683239710592852,-0.08360345078841962,-0.07656850623820606,-0.08926674591534811,0.17514437127067042,0.1298519852881515,0.13618297629651055,0.07642277695003194,0.23791002296339045,0.2138820736220234,0.26179941785865385,0.19664855861614972,0.13259642060625532,0.21367901734443145,0.20380637046788005,0.04407792499882542,0.015309430170154114,0.09742199011691358,0.13163033167809285,-0.022390973061801954,-0.07282651310018179,0.04136877548828439,-0.10796034337114876,-0.1065053093085493,0.10378860978387106,0.12027977612889075,-0.1319915757159149,-0.028653848014434664,-0.14005692075157333,0.0744237806580413,-0.05744829963007111,-0.08453396795690776,-0.07345266712539339,0.13735234810405447,0.09829346643490985,0.15543474044385128,0.06210694163318447,0.11514028296560301,0.09718589117498744,0.19148644336231135,0.16770445458906494,0.039768313870898714,0.1344900680420267,1.615654967235486,-0.1144567738497003,1.320299276088137,-0.9527732479513285,-0.13570192649323734,0.10141660356335427,-0.2432260045441634,0.24306308419903314,0.16365077182909538,1.6013797785496047,1.522877115580957,6.586595795957725,-0.2645532511863278,0.44027549953452566,0.4854086020987585,0.15129878140244268,0.372188959032833,0.4697527349379819,-0.10255433335935782,-0.06788732089048788,-0.12057861100005793,0.19248895917710887,-0.06685316664453794,-0.16259656572397582,-0.23051227435706084,-0.22437526890477133,-0.04188742202063777,-0.19871540226240175,0.900675862306782,0.2887182328308461,0.2563583392734653,0.04440181890060296,0.05529122030961835,0.3425782328839964,0.28650849562284,0.4269731828159498,0.18903119344117922,0.1235302078022902,-0.08985664976720936,0.44874539975924127,0.35118452921104865,0.17713147446410799,0.3443625507175621,-0.048618497432196456,3.5159262335542327,-1.6680078753796521,-0.12263224734439893,-0.3431645750960889,0.055085847829630975,-0.056331883794070135,-0.06054510177711779,-0.06330370432491143,0.3430371681545793,-0.022867889536777042,-1.1168742064489887,-1.3377197973149553,-0.9903201059903907,0.1263187047226032,-0.039659200166518555,0.3560956454330044,0.12519097384552616,-0.024298797300247765,-0.063255867083917,2.348131458412406,1.2176476113463466,0.3462211866819298,-2.134103929288107,-2.8187480588910514,0.5984177354080901,0.39081746136660744,0.21136648127403582,2.721048314007972,0.34755858443809085,0.3342025321351291,-0.13586298653676193,-0.19081382758302623,-0.20991365189547645,-0.14070236117214457,-0.19862828532048837,-0.1729897663257435,0.06311436387142956,0.1322550589748254,0.19286853104997795,-0.012965117469250097,-0.25469811824315874,0.0069947739743364806,0.021412605532728186,0.0007892338207705165,0.006831226390526715,-0.024319456225654318,0.3709510426565547,-0.008260240465808222,-0.0009309140986678088,0.7823109295379375,-1.084183328946532,0.9228372888240297,-0.20332295689099242,0.14685459923685407,-0.09753858157762609,-0.79616452660069,0.0354318124772919,-0.044024446864925015,1.1572541777608552,0.007541143389455048,0.035909532912722066,0.23856658246672824,-0.4027804141104681,0.07275207042885627,-0.03966018779378404,-0.014275518653821569,0.015220609105042762,0.03364622995036643,-0.020735389548365096,0.10103257954081611,0.5278927552901235,0.22722256199895546,-0.13750453363895115,1.6759249907973826,0.14251097728562834,0.013693517264249467,0.4687699854093361,0.4621720939423463,0.009445978176433797,0.06966297653162058,-0.48249379505649626,1.7615427959386545,0.04563214765843398,-0.02240595149639561,-0.8549747461581791,-0.07769224386766233,-0.00813549521599685,-0.03256480012504147,-0.19680227176265983,1.1046000535025737,0.1065652530188381,0.7694663817909024,0.026462874869174376,-0.046681827594373115,0.08199679727373563,0.0030801431200057744,-0.033506024824177645,-0.05080469469403749,0.024207817111104406,0.005509767690540509,0.009978521858768042,0.34110447751427997,0.4164826847561308,0.14771022259702984,0.160157441302209,2.586670516229167,1.9367874535017617,-1.1816044119082967,-0.05593996063571477,-0.023510813351504567,-0.15740401926193298,0.03754489457028253,0.17605001110305407,0.307030387397071,0.17026829517942765,-0.06390560155097903,-0.24619114267141873,0.2087030582107435,1.57116752046143,1.481508985169297,1.917656426964516,0.08104490742048151,0.07158966394426719,0.009475951931511021,-2.0695287499535313,0.010248665407434205,-0.03856385097521762,0.45824910678969427,1.3041003413545174,1.1656228459081974,-1.4814088479583574,-0.4925000994629352,0.009790486749259001,-0.008243530495228269,0.0027799421164975157,0.020322999345069738,0.030246405177754083,-0.038699284358813014,-0.03886770758606479,0.019369491481891668,0.01906129582423771,-0.017545542178393072,0.0486299344258617,-0.03341732082090136,0.1578713939337807,-0.06973783541036306,0.01965487786282646,1.3814656050858285,-0.02699871200820431,0.02257752175937044,-0.9763910398209273,-0.06981517542080924,0.18505550727152764,0.006548092050183701,0.030772806980742102,0.048944593567673174,-0.049949095825967356,0.19686960310020793,0.24082341226558313,0.17116124924022916,0.17570424755411415,0.20082182277558688,-0.14700439353933037,-0.04941399800067864,-0.011094777864765364,-1.083372440241413,-2.0654213285479868,-3.1401822236350467,-0.21022659304797045,-0.14536140262773384,0.2608091311349393,0.04769940529660656,-0.14417197167026954,-0.10449699942840573,0.740563945546771,-0.8760230014227018,0.017543619858923918,-0.08432577004465681,-0.27602872818682594,-0.03893238538420695,-0.17144616718114392,-0.25435728534008384,-0.4248570579504855,-0.60275296054462,-0.533229309457709,-0.03617591453342352,0.7017883743711899,0.5280393236270257,0.26214317955081695,-0.019036129520124425,0.035342523002026636,-0.0005877808275088775,0.379823552801163,0.6791407656067523,-1.8176753827759813,-0.021025038414292343,-0.02328117680794422,0.008104392304163568,0.04700813417084255,-0.18705166174825677,0.021501696384570657,-0.020601293245006713,0.2970374617784349,0.714457214532825,0.29159259249673813,0.2616149567579046,-0.8330864364597607,1.8395651381283504,0.060873892593894016,0.010380457902087007,-0.20363242419534314,-0.024486613189995676,-0.04574029199651407,-0.0297370222215245,-0.05081608391790379,-0.02006134605863094,-0.020773515330126325,0.00252520351519402,0.0032021210461761406,0.18379764216453884,-0.08171450448689374,0.016496952034621332,-0.05548276184021094,-0.19463228574541844,-0.045526934746939605,-0.049430223337455836,0.15632016418461014,-0.006700678267417196,0.1354630763136145,0.028199131753265466,0.0027164181369222036,-0.07366947203442169,-1.5484367199304707,-1.2821858477924568,-0.034790369392955836,-0.0890942981546292,-0.034305041257349955,0.2401279098296213,-1.0522980978301733,0.014889149503186155,0.053441169050505985,0.6271707092029446,0.1940866220736375,-0.2765166601212513,-0.823479674114176,0.008853703963919926,-2.2685963099832644,2.0480367856893706,-0.3822890566888577,-0.24129344793788335,-0.09357955948131545,-2.793207139024665,-0.6599613622652375,0.08597002973992472,0.19153430870373925,0.0884222522033648,0.18550609559622938,3.390234369778757,-3.1238511474427,-0.11226484392510654,0.10984015953213769,-0.03271386934751393,0.10410307528010646,0.013586545207838294,-0.051512948442545926,-0.03768032552245136,0.04447752981227109,0.021543828360273232,0.04724395859388362,-0.037941936184092466,0.18609017637020597,0.3722260756605363,-0.02130005383911915,-0.028349426442399784,0.016529944133744544,-0.03350938599505256,0.17741166169664707,-0.05332518685183485,0.02095359441868694,0.1058455444617247,0.022557839880586295,-0.5724906739667383,-3.160334731590122,-0.3592451488921721,-0.5504725528951873,0.6108478603445733,-0.18706526844980897,0.789502706365206,0.0893888519110888,0.04420314225169716,-0.018447265240204548,-0.796134007781699,0.45059795082578885,-0.04435171032977052,0.027414050531499642,0.015472935651692334,0.21571600294576562,-0.9277284514857076,-0.8183506762683908,0.4527120500675965,0.3721977075186052,0.9656672533122374,0.08600213162674976,0.02043151557884363,0.41408020339104656,0.08894466627053958,0.02219643777178247,0.08238487840996457,-0.06387650858222316,2.1912145338463063,-0.03166877967211725,0.18375838892683147,-0.009575590112051184,-0.020917672290221345,0.20237056215951613,-0.17373326075616954,-0.040134585718117774,-0.0015989159012133939,-0.22440251664536412,-0.1614412941061957,-1.1423434649099897,-0.03378244305309672,-0.0161388864186325,-0.013195226577940358,0.08306299497590229,-0.009569710584504246,-0.040474606318805485,0.2525830136649197,0.10374591912021473,0.09001861959771906,0.04540719235487298,0.1350168186722376,0.16433298476100056,0.3149283849022008,0.3913004975534559,0.010597516009964836,0.0016933778607236937,0.051413736354617094,2.8070607408803023,0.022115571456045452,0.02820974748880958,-0.008723742166973731,-0.27996973850573287,0.19867421668829693,-0.044295498639660716,-0.041626318961212674,0.02638801955118926,0.026362830735234394,-0.025640845531346757,-0.021403881449895704,-0.10440713907288449,0.14566777804079317,0.017108154950423716,0.05823526357298847,0.031277598842689366,-0.32049407570136884,0.07560087007065987,0.08541325157803951,0.03648316422289434,0.5136146798250201,-0.014878555051167277,-0.013696045141599228,0.9016492105632719,0.4855036392282397,0.2501744519212538,0.06697563750344222,-0.8543288042529202,0.6043336659089209,0.21558714061094958,0.3330533362934147,0.08197327902620118,-1.735034878421196,0.2883268025930983,0.027368574764028833,0.17528935283112046,0.1028683809201688,0.05990879957999614,0.04746189646574318,0.5487375628325576,0.48416238081287244,0.43139851126581213,0.4276433339908914,-0.5433271112291909,0.06211802864747928,-0.023882179503076643,0.006183928017203496,0.0072791066835881605,0.0034686954084437558,-0.01894682320360128,-0.02151768624406932,-0.045500700854825646,0.49788664430284857,0.011871619464870732,0.09999404460140046,0.8979070941385913,0.5245751323079431,1.445658186058266,0.5113754651096905,0.28121541635051556,-0.008411394040361063,0.04565922399161577,-0.02904099729767066,-0.05031038894062863,0.05691620370816647,-0.047733866341458424,0.5073132571686017,1.181877290603412,0.511694019270069,0.5474047452900266,-9.27753032990626,0.00007572650158319663,0.001584045585326689,-0.324391595464029,0.21037484976580345,1.4679510437188577,1.3920368961479364,1.2611201719167233,0.47424712759364446,-0.013635324924545956,-0.017208574853599137,0.04155957990987579,1.0916868337216992,0.7474683479384704,-0.5252282204127756,0.14174281146949755,-0.041494874154144656,-0.1539008937680941,-0.025865458597821803,-0.04704670906529017,-0.03414137222976665,0.21249130007757736,-0.024378112074627048,0.0036018738166419366,0.02471270160143384,0.5327544522047812,-0.01372885436927662,-0.0032198454758783418,0.21392530551259414,0.17192002651529406,0.01344339387927525,-0.02504326724569827,-0.02470527772654602,-0.38106171240406633,0.0045542180695469095,-0.03169202745535181,0.07989897946366369,-0.0717839121984815,-0.016841225887179113,-0.03225022480711163,0.16555646788362477,-0.501648400213251,-0.3455041744944988,-0.27115560954567836,-0.011265090795971995,0.09455235139356417,0.615535902014623,-0.5503674583106044,0.028842802443235685,-0.03328979166543623,0.10180646891279586,0.044462885246558226,0.021486617125072164,-0.1020323377605044,0.06158194302862589,-0.02129582244138468,-0.03812923380449243,0.3767885475052507,1.712251923935951,0.7105286278929333,0.3399128328195081,-0.5201826115362157,-0.3913182214988586,-0.021475460601969046,-0.014867409269660986,-0.5308605849494755,-2.745806656083022,-0.17896364109112933,0.4151819496156994,0.2016074350575331,-0.003606989775465323,-0.07222849294958893,-0.1401334561588802,-0.11258485098077364,-0.009660398296391684,-0.04811379099525692,-0.046047648132545145,-0.0014566941868790267,0.13386462107613906,0.15314744336966582,-0.016189243586866724,0.9290734678060496,0.25924936951070277,0.2813562567268418,0.23087890275849224,-0.08013423979783282,0.04645916116787961,0.22374149492520817,0.4453798899491133,1.146589474403694,0.20006761933214975,0.5074860876717352,1.090870320516416,-0.14075115829466822,0.5422451456655172,1.1594222287484752,0.558241528099536,0.19332982289653003,0.459523329004118,0.6406045160957443,2.8713250111096515,-0.24991485861674526,-0.6134146490515328,0.02258282166914669,0.532946044278526,-1.4763479296849333,0.5736958812685862,0.6266647332957767,0.8723285217594722,0.09134975242428202,0.08812937591260293,-0.04214177535832769,1.082084450208214,0.33930958749763857,0.3225998476623496,0.15134684639333063,0.24998557898848162,-0.015329388390789903,0.005082341406768264,0.20315293158501346,0.14169543597681408,0.1547858507772896,0.20234453432007282,0.2559803605014523,0.14609236721595142,0.11917771246839358,0.13591086528200957,0.06984444483115854,0.12066688886501524,0.13804726488363625,0.39062289332111244,0.389894759973677,0.4450444691387141,0.602795385868067,2.1538916253776237,0.4882960985566468,-0.23708425650944712,-1.8087761735452663,-0.17319863297119364,1.232474315638095,0.13943706942180129,0.10183802607217102,0.1063815151421979,0.14125418248840363,-0.008481608279791804,0.06993593859272325,0.09889392107818483,-0.028346210976406182,0.04641017740015921,0.05618329971326848,-0.2900679642738131,0.1279917189926314,0.3184493139329858,-0.7573346113562892,0.123062156873815,0.3341682925167815,1.8380944522826415,-2.3772284666029053,0.10778364989392467,0.5735864297146233,0.1280212097233908,0.8316829976970525,0.37052994933732714,-0.06448252262084245,-0.2854118981913937,0.08226691456698276,0.14169633755763444,-0.018925925756571396,0.06937786583235259,0.07141289073497677,0.07494467462496374,0.05928376077547842,0.12661510497467252,-0.02826709365422482,0.006300488147012886,0.05679226060696521,-0.010042964879362938,0.20347594506975403,-0.013191329136482275,-0.0323465940487577,0.00818466022395245,0.06540095622584167,0.7476571417458134,-0.12806217851470647,-1.1078433972806547,11.753997966800583,12.0917352505416,0.38187189280476513,0.7729921656914654,-0.3608707066505953,0.12801777936337597,0.15888899793646677,-0.4508853309022485,-0.16870118181972257,-0.06109683805364566,-0.25326045899547833,-2.5291031143498084,-0.7499193055297573,-0.07974837134004467,-0.024579449102772124,-0.13342221810712843,-0.25089378224249814,-0.06579850161169795,0.023262329302906084,-0.28462404556258547,0.11554508181832697,0.3015637912726936,0.34050634888922804,-0.020324173792593766,-2.2406074018261077,-3.055716273875474,0.13467207037976206,0.12215690637098904,-0.1054006419546247,0.055924681831559624,0.03002188107418593,-0.6380391870474795,-0.002115035404092288,0.2972688526417996,3.593856905476384,-0.8339791561913348,0.29544860037360676,-0.9376601660215155,-1.0946299922726808,0.032381673102539775,-0.3227288113265684,-0.04262377826497991,0.5406758769732948,-0.2873915153483858,-0.08033344964795329,0.19908178036801094,0.060341586708912646,-0.020627371083626878,0.5267744423086976,-0.2154412579853874,-0.1118447502064627,-0.06135990180902217,0.09403110582108432,-0.08393176255688158,-0.056586087135117646,-0.3040902463604549,0.4243294674432241,0.42236083291721555,0.4322737193968025,-0.30175892260916415,-0.5020222666384695,-0.3330740814964026,0.3424209816905839,1.2220669968700149,-0.04313443610431163,-0.017321884426822833,-0.042163851960774254,0.24087617056208793,0.27195993447355904,0.32402070059437715,0.45731177214501634,0.8049189018158803,1.5921900756310667,1.6651642964022502,-4.673411288351682,-0.1756448997439833,-0.12218611726232732,-0.0812868617327518,0.1418213430375798,0.15479852241372172,0.016351720496832672,-0.2065435206358958,-0.4196022651115846,1.5721287520400598,-7.949577469218477,0.09580137416985879,-0.431982634098474,-1.5382447675758029,0.09337429633650568,0.037477901832695414,-0.13411473520205078,-0.14352665820772523,-0.005286025666814993,-0.21145095641990647,-0.08751596564496988,-0.163429796604559,0.39386610375943837,-0.007562651037870504,-0.08246054253969402,0.3759077851650662,-0.21765671451046315,-0.19082002795642444,-0.21833404132590128,-0.5431733320399931,-0.16956190398014287,0.31654609196578715,0.8036467016511086,0.7759614728854418,16.236542243006962,-0.13079985232043415,0.04279929187420066,0.009572084853819772,-0.07226533140723604,-0.011379767263458181,-0.056217563879631886,0.9329128344554072,-0.0023613378939364433,-0.03530699846523352,-0.21705797029896157,-0.10664015966198073,0.08964136743031981,0.27063873243702824,-0.04833594659842253,0.43623218151431425,0.8129861467718908,1.577597041702445,-0.14717725711147323,-0.21137582799487195,-0.031388545613834966,0.07249930022694884,-0.12552350041249802,-0.22778355077408113,-0.2435595295957885,-0.23974403641899059,-0.12266682921072965,-0.4895195523949735,-1.9024817553693085,-0.8474085196995508,0.12124835694776862,-1.2979171050132183,-2.513469239029995,1.9738193750909776,-0.09434406780158637,0.033826195132823325,-0.21631229175369576,3.7319959306423063,0.36256245515307517,0.43604098615729386,0.43187143403650874,0.05464807763160643,-0.018915591529396834,0.5260581867743684,0.31423919568344033,0.14970371272081517,2.4434096226813233,0.6069341343173125,-0.027173204696541317,0.02587311508358499,0.02429799022130105,0.037169701010798216,-0.22179882803547737,2.9111156076807183,1.2332494929176794,0.2616012911370332,-0.2676185151883554,-0.8354607681526457,-0.11610686447719955,-0.11813110392406649,-0.05456385925930537,-0.10521248771300007,-0.12260142165447102,-0.2182317860574601,-0.13604172698069963,0.5800371527357834,-0.1139084906457026,-0.08373515969957841,-0.05450110573888502,-0.1350487838479076,-0.10933967394154702,-0.3940655918951545,-0.13909633897660428,-0.04866637068452533,-0.20390834613626024,-0.13386436389340656,-0.13309056726794033,0.022602972443889535,-0.4499876126172384,-0.040627914267697705,-0.00024045437528938263,0.11114063872710943,0.008299923440374987,0.1437844608614635,0.03453820868390113,-0.02970455476374078,0.036213876073864504,0.09901651154919398,-0.09881512133066886,-0.011261785272324017,-0.13456161015606952,-0.22528344150529436,-1.1140885298322682,0.0851053853038695,-0.16538412863710328,-0.12705095976593214,0.6585911611398664,-0.9002391866478286,0.4592011334236139,-0.3456054569137826,13.098060865885685,1.3132074191400709,0.3425933324373463,0.021832497704145935,0.12648312808351075,0.02050693496242252,0.15306503104572103,-0.1878279169186307,-0.27908093875524365,-0.1748660023253893,-0.03012530379202202,0.3561883733705558,1.2433585590295009,1.7196187284890785,-0.14424277324537269,-0.10298346025193574,-0.1963836543129471,-0.2251038193104552,0.03733141277925811,0.8353158888687947,-2.987739346729537,-0.1206661856100209,-0.24466070408455506,-0.09228539996903427,-0.15647646477813557,-0.10788929060789558,0.483824785841427,-0.07255762951163625,-0.6755566885292413,-0.4941855095422909,-0.22974962472535704,-0.2133289484855152,0.33449078077486916,0.4322397958651588,0.11332226885415674,0.12377942236174795,0.020469035465636668,0.17056695684461273,0.3626336652831233,0.23338500536767354,0.37171614484854376,0.07893274347606209,0.11967606377788767,0.2256570147342269,0.20625153307596641,0.016543386002204112,-0.13061906419141883,0.3650143243740295,0.03166256637945453,0.07529688702460158,0.046986416939326245,0.18889004871140472,0.13264900180513645,0.5115590727362218,2.2519449253792003,-0.11492102176122063,-0.16926921125247016,-0.05383008220961463,-0.11084300073664778,-0.04129149658302022,0.10285229339146221,-0.1243091944061334,-0.0938798038681166,-0.3666835721997398,-0.9702129440573353,0.23223119746679355,0.31135099451708725,-0.542000315800798,0.08850493664931879,0.3274315325520044,-0.010136158623949513,-0.2834261423574403,-0.02918683189166891,0.895910838033865,0.23124243394743102,-0.4530213603282935,-0.1592310514506143,-0.18491634095412277,0.23486655367582063,0.5008537962588117,-0.1621463104544728,0.06238290220517748,0.1077026013090374,0.5243412469849676,-2.9850338276704553,0.12881272750395603,0.1323785826663017,0.12171045165468823,0.3938125743214816,-0.06674879457640324,0.08360976422982616,0.0353639025156745,-0.17064751647566268,0.15435736442396406,0.3451523444865832,-0.06500726746183154,1.7616369822163458,0.020502712098851128,-0.15210724354264735,-0.1387202321018624,-0.16708112677861853,-0.07176281137608118,6.791442989972148,-0.40410873327044006,-0.031264950993311634,-0.011765069750033209,0.007900678452089667,0.12356731974320771,0.1444367426019654,0.12216197954815015,-0.0023746959501065182,-0.22516743172215942,0.04621460763495039,-0.3481326892809948,0.7932244302359404,0.32433310897478285,-0.03592478328407724,0.2067333616073925,-0.09857969966660213,-0.1268355000435285,-0.14469620685261397,-0.11235979469158483,1.1083252927013985,-0.00572696234329437,0.254465473634018,-0.05861842746988288,0.01843802652699359,0.005784963442089655,-0.010372713608278503,0.6826527596318531,-0.003824394278189487,0.45785258203420504,0.11086087293920824,0.24723974504198054,-0.20268210371673484,2.8090142198491854,0.3428736647208011,1.4444892050645632,-0.15804788101132733,-0.10164788471052247,-0.056111310379900685,0.1280163151452939,-0.159846818183181,-0.17205027855591185,-0.1817369808100482,0.34229841249774645,-0.8166577847677856,-0.13028296343044235,-0.14047101586079083,0.09687286555546139,0.2258467986547207,2.854000769140319,2.4936228158879534,0.012835675704098397,-0.2007312037888882,7.912207358822754,0.5784467740325305,2.140575091382252,1.112851692285038,6.331883698971519,0.6201746795869973,-0.2018714986539909,-0.12325232143515362,-0.35256536749605955,-0.4454007180027967,-0.19794948507190846,-0.09377354588282855,-0.03453984865117769,-0.672121931622256,-0.035461668724778794,0.8467185990792796,-0.14554667206221417,-0.162721633081635,0.21354496912191565,0.1251778784875866,0.08559339343316302,0.29930446536707517,4.519279445816954,0.016001836556153462,0.2138448206824344,0.10346272559648019,-0.07516676988962816,0.07712095727882033,0.10079146813556492,0.11370759970459475,0.20575165571434298,0.14606308881933244,0.20620893832225712,-0.5078856149342761,-0.41584656079375126,-0.13250682371343975,-0.2936118199995008,-0.043652947892039204,0.1513159741168517,-0.0003734689125876149,0.12892845528466,0.08783437027555624,0.026907799558221274,0.2549940021872048,-1.2645065538726472,-0.23752602361213102,-0.2915723580002012,0.03840080424283901,-3.902798584255128,0.510261164040372,-0.8006750395275586,0.4948708303716258,0.29940311893087374,0.046368549493151105,-0.08578856262135412,-0.11650814209943311,-0.1462153877916851,0.07859175918659829,-0.07737750968741258,-0.20083780708268403,-0.15048198377476005,-0.1685465285059123,-0.2497262288354772,-0.14411089363298554,-0.28624912183750484,0.15083702678388197,0.4878139004663072,0.04836989146148542,0.49111755021321774,-0.04452540378032608,-0.11088900595154276,-0.07527358847694751,-0.24370191673641187,0.3648928386993978,0.2765240297405848,-0.14295146982403042,-0.35417903023302527,-0.2843680761138808,-0.36631436453800015,-0.25438715135573725,-0.5164481592421533,-0.2518061836562375,-0.21777442191953492,-0.5333324327108149,0.020899699740019175,-0.21513448820438938,-0.21359249093797747,-0.9307116032568535,-1.059090131521749,-0.142238483901472,-0.21096073212367558,-0.20251314620214414,-0.2837605324270812,0.21160298023147883,-0.1609829670002245,0.17520645361238568,0.3196117577807469,-0.47319323562156046,-0.047068468273218145,-0.3429543213822089,-0.11637120490089152,2.570728668151393,-0.1271393968568616,-0.17915937572277327,-0.20726970340203316,0.8691715688633656,-0.10007768078539335,-0.012031333225720808,0.14095867467890066,0.08533190039342659,0.06816444873209648,-0.2488808406039043,-0.015354497391734155,-0.023602361978663326,-0.27929615031699523,0.0455816524454192,0.0903699792055484,-0.0938992065207751,0.47635168144038953,-0.15620554899546021,0.03458073982981152,