encog,BasicNetwork,java,3.0.0,1,1455948456100
[BASIC]
[BASIC:PARAMS]
[BASIC:NETWORK]
beginTraining=0
connectionLimit=0
contextTargetOffset=0,0,0
contextTargetSize=0,0,0
endTraining=2
hasContext=f
inputCount=30
layerCounts=1,51,31
layerFeedCounts=1,50,30
layerContextCount=0,0,0
layerIndex=0,1,52
output=0,0,0,0,0,0,0,0,0,0,0,0,0,0,0,0,0,0,0,0,0,0,0,0,0,0,0,0,0,0,0,0,0,0,0,0,0,0,0,0,0,0,0,0,0,0,0,0,0,0,0,1,0,0,0,0,0,0,0,0,0,0,0,0,0,0,0,0,0,0,0,0,0,0,0,0,0,0,0,0,0,0,1
outputCount=1
weightIndex=0,51,1601
weights=0.13645280049617114,-0.04858170081171972,0.24224856279032966,-0.0389058430884127,0.33657925108116066,-0.1594081986536965,0.28138266741249884,0.07096100203452749,0.13089461753819523,0.07603822943516886,0.04748885401737573,-0.12938380188610918,0.024990456717587876,-0.19135433909946106,0.037352096571710916,0.33350349675104324,0.061346611232924245,-0.08949451382302119,-0.08964515547078504,0.0832364883559387,-0.25525823940344294,-0.07434365544424172,0.26244515111707944,-0.09324676058916094,-0.23277778152432707,-0.06328988653424653,-0.027479961943083903,0.172790829755984,-0.23164500222847792,-0.3236977904909054,-0.36736383158011504,0.2104740181223739,-0.053245407860533646,0.004053098770286636,-0.16147143985307677,0.3117190093862845,0.15252408362252992,0.36274255888648915,-0.019939810575587635,-0.13463773647294305,-0.06298832041837008,0.14962624099327573,0.21590045622764997,-0.2135541168534543,-0.07132385974244682,-0.20750446200108186,0.1332187662382136,-0.001423217878325491,0.11358568526355908,-0.01587979989235588,0.05773117672170191,-0.1756560987155814,-0.19064277727415796,-0.2162599475541356,0.030007639075771395,-0.10739574855003503,0.21034360592373783,-0.11933762845047298,0.07513876665331595,-0.19198278687441692,0.11222425513385816,-0.12549095628006515,0.17142761536165868,0.133224654395683,-0.10876677497791443,-0.01816177063463649,-0.08885124558559536,-0.09340522614171798,0.09464557350334424,-0.020476754669187778,0.2108605789279798,0.025543558848650096,-0.0955708455585789,0.16437174953640404,0.23629188381877037,0.1938463588781759,-0.04277144188995614,-0.04323324336963943,0.226599730635385,-0.11480919360719168,-0.14945497280218203,-0.1828245738804422,-0.16350470778410775,-0.040300726897355685,-0.013894951647244197,0.12553408867268145,0.008058636882529974,0.19141666972369362,-0.046365481705234836,-0.17965123446956766,0.11131816749073917,0.19571184857310425,0.1912269027238993,0.15451915432228566,0.190080953171841,0.006341207509856284,-0.2044266492257692,-0.11627850332263809,0.11419278283296203,0.03456841118505026,-0.18764113286518933,0.15149997953759045,0.05718749821132888,0.1353151863488215,0.10785524367732859,0.20031304439371256,0.16039038665524083,-0.15610063130248755,0.1939740480361209,0.1349173050965288,-0.18279121512280672,-0.014203006392059314,0.18866738785259263,0.10339078762411784,0.13656330710463144,-0.19580843895841943,-0.058511974002225124,0.24586852614531385,0.10020297263051177,0.12396118493101599,0.2302546071986813,-0.10094725422096616,-0.026920265403405873,0.113928332508571,-0.09579087565099612,-0.033551883630204414,-0.22064505310617846,-0.10093418435470586,0.1252653040212584,0.031558348858470066,-0.1926538263512661,-0.06330587062826694,0.14078629934953535,-0.09529557576086545,0.24883357726981772,0.1574678330334975,0.22502099027676276,-0.18420127845299217,0.16514023248399198,-0.08887815825727538,0.1561066543224646,0.06004243963771572,-0.1210555437542564,0.07099049884441871,0.05546968622904342,-0.2684628995987238,0.016717398336928677,0.11809327285607774,-0.2563787922889074,-0.0163384834844066,-0.00329406464470043,-0.1465570384782744,-0.08368100472958107,-0.21684533863040875,-0.22052427995626522,-0.17830101287625572,-0.05945238000794242,0.018963239996221338,0.07123678894601256,0.057683828387639524,-0.07892339382202745,-0.0016656240877042144,0.2320061744478999,0.0045615744464408544,0.18425290634628935,0.18517413878575936,-0.19992768768726604,-0.02904504935882263,-0.11817989986899424,0.17366429834450056,-0.10558636367247283,-0.22297904979745958,0.07534001341663295,0.1552215109922564,0.10099592528405267,0.05932036086897803,-0.15654431967316657,-0.1257891013862393,-0.1278537245331542,-0.029945327072371807,-0.1269324825588447,-0.012088817256825394,-0.08233369036760368,-0.13292167992688694,-0.05386167218506684,-0.02457252438210731,-0.10674938303141115,0.03579486271914355,0.180701731680284,0.00023514715326825703,0.14862047332753728,-0.2806302514672778,0.159539465559897,0.24728151070596452,0.019773462036049114,-0.04454280758159379,0.23432463515684845,0.12313846145277946,0.14587771116693835,0.17122072115756756,-0.12934429760795274,0.08220000390031604,0.24306486539224223,0.2622680942175833,-0.19965572627312395,0.06502996858335269,0.07135060789554483,0.042113512941997465,-0.24898073926940195,-0.21309638288035906,-0.03512985747753986,0.2195639279584452,-0.23700123568043496,-0.10407542171226383,-0.018300141577200574,0.22751387432840503,-0.03231457903541975,0.09916836163328317,0.20579197330974586,0.09214972943631862,0.06218119212904626,0.23094848532913728,-0.16900192675436176,0.022308231180214157,0.00585414646164361,0.03407568020698582,-0.2144980245295204,-0.17973200951591273,0.14474153364352405,0.009515826658360904,-0.23654758044498939,-0.12208947288484222,0.15689877326071058,0.0029522395753432463,-0.05236865113868773,-0.01957184872489422,-0.1298520820050706,0.2358760019949141,-0.1435050617244162,-0.29356150757119875,-0.014071818932956578,0.11470988106171148,0.2239663421441233,0.04246790322974324,0.12945489290313028,0.0077661784668533705,-0.18375653780257908,0.09922770633022744,0.13946286968340255,-0.16579192295239215,-0.14364891175723787,-0.2032870429883587,-0.07868595525389696,-0.11999422820998502,0.1425488387029568,-0.015445081231362567,-0.06347804460941746,0.060374290463165996,0.0900668720822815,0.007657373311031926,0.03346184549402224,-0.05333437727369067,-0.09611664988539967,0.23305440913871778,0.2835143682488154,-0.20242320340161876,-0.08979367253782344,0.1027207637762941,-0.2061731260899755,0.23985896413014962,-0.1573804123678658,0.2045447205182762,0.11202551769910976,0.2682847388740358,-0.18648265773082678,-0.06831962334102203,-0.04375290754693941,0.029764357155384467,0.03608800200859843,-0.20928757085451588,-0.06041328014175611,0.21013244085663318,0.2148532833673465,-0.032962557834184676,0.012120031245370455,-0.2520254596140472,-0.10955003566037895,0.13779147488178134,-0.025671472841854212,0.046023319720045724,0.035602727825517815,0.10270704937505142,-0.09486049501491174,0.010601839757823587,-0.08465602866305526,-0.01289336502926904,-0.11312993891692608,0.2456387772622436,0.06340926386252468,0.14125963048255288,0.08135458379215221,0.22446839079382652,-0.17875865228801313,-0.015870567452913147,-0.1207726618044022,0.07388958337060335,0.0905012037552538,0.1966898560379619,-0.10938423744955435,0.03041297764244807,0.025167548650155344,0.07538840186933454,0.08839217815996928,-0.22017382154964368,0.09179801441653161,0.05960924740496194,0.0009106685484083173,-0.06292869853989906,0.134346320188155,-0.047915021805562896,0.02623136131988173,0.24409373629956657,-0.25470086886071674,0.28079768210622313,0.18795494858227912,0.061044752060980874,-0.04864187955405949,0.24694671301633986,-0.2035803147413914,0.036906091188281885,-0.07462991985114217,0.013320860672779435,-0.21001965005189013,-0.18304700105885705,0.22827521480224655,-0.09436493384565746,0.09578517047403845,0.024178492850604236,0.05978433907842088,-0.17042161980943799,-0.2076783427141689,-0.19171335092877592,0.19644128461399984,-0.025685266034969522,0.04624774275806609,0.06462094737149383,0.11578145291676972,-0.21955583448968488,0.13368755871132834,0.23094907478232363,-0.01959349121867881,-0.20744014350905604,0.14731264232547567,-0.014301749642503317,-0.11919953006066616,0.05203356182858089,0.24119498825001112,-0.18335670006129268,0.05907565310231569,0.02094695396607019,-0.12148128453817848,0.2163803361224095,0.037017183691061335,-0.12829353824486386,0.11143012352227513,0.04516849788172464,0.22724209613098764,-0.04054657636284534,0.15318673515585382,-0.12267464468002333,-0.04302603810400635,0.09155120328482158,0.007941750779376613,-0.25025978651549124,0.1799898922217292,0.11945928390300241,0.26861082407514536,-0.22104006210559926,-0.15463490607429037,-0.14602628158218617,-0.16742538860144526,-0.09846475749815811,-0.16766569442526585,-0.2522056305661469,0.059731052778933785,-0.048934210731915694,-0.10117929019600008,-0.10088558334738386,0.05930765944618392,0.12077065831858062,-0.06219051320738419,-0.0034476720472532488,0.19971924764171428,-0.22654647216183912,-0.08317563983561732,-0.17300810518752605,0.11896791104717484,0.1499637292561538,-0.06377380749893675,-0.08736481819689475,-0.16276815190505076,0.13374311695123928,-0.04440795484324573,-0.005357857252182243,0.19885132808826328,-0.17021731783061833,0.16891039949719344,0.21737448992426342,-0.1623298857947102,-0.04982868810513542,-0.0529097286960413,-0.18594775122869922,0.0402735778355236,0.20088151981600874,-0.15414168687430455,-0.16045167209159145,0.07119406770594007,0.11517391702691006,-0.006182633301557675,0.0512980864147567,-0.19570498475299428,-0.19917813954095812,0.1088682916003957,-0.08726988617250422,-0.17621132160076455,-0.19068592032534373,-0.20141560711346304,-0.2213435922286593,0.17269919005355305,-0.00923045404080041,-0.1348700569066601,0.05751444613384169,-0.24537692075435252,-0.2502903153046915,-0.005083925376036937,0.05518586243971436,0.12543102759136154,0.13562763456972066,0.23524125387173145,0.24738450837999795,-0.07860129446067292,-0.10591490633935244,0.011790976960917061,-0.1606756777790641,0.014440355131230993,0.1913482792728141,0.022701335546164585,-0.09954776079868478,0.09061484453063462,0.03259985730818197,0.06306215702814293,0.006500012814254535,0.08118405372375805,0.17412449267782631,0.016226670088011305,-0.12106443347416847,-0.05013865243379553,0.22675746334264216,-0.1943534977562353,0.0048630804434190095,-0.09239304426301964,-0.05931531739925813,-0.198913743005242,-0.19983274857724037,0.24637576846990408,-0.013352004182571894,0.23777280444674811,-0.11124148164801648,-0.10619002239018542,0.04117000984008221,0.002947701268408373,-0.028444472561129277,0.24421271502161296,0.011663396609180195,0.04041143021834893,0.21097138174927238,-0.208974783396445,-0.16846974058642417,-0.13469435957617718,0.2308959522780148,-0.18557773155985868,0.05365818821577028,0.0849995424217591,-0.01454392486717026,-0.12404476148384783,0.14407048352618182,-0.09266943594577623,0.12005048587806365,-0.09139676369230511,0.11202645874864572,0.15603392748583356,0.23101416111799186,-0.25904627813205955,0.1600763118462809,0.24667150994510725,-0.09574085011750325,-0.09862840156653241,0.12060015138918351,0.0717094268121311,-0.0025619076165472993,-0.07676552242717158,-0.03118966002770496,0.08961436000908864,-0.06442051243299947,-0.24830675655047177,-0.04684885242524413,0.052063607958231006,0.13620241337635428,0.17095737811780223,0.15323958314369757,0.05378757598539315,0.24146433670829912,-0.05256449109795446,-0.12994395535461498,0.19256749707272966,-0.1639267974482993,0.00008991838385890896,0.09195968491313054,-0.15779257780400616,0.05960493053652651,0.21657424369684083,-0.029564587324719286,0.07754667131366984,0.09742513725441347,-0.18491448698414925,-0.05295719943388053,0.006373015971749478,-0.21401460688974824,-0.2511197212219591,0.12490509766386701,0.08237768965593294,0.19858431830342446,0.013462876494713968,0.1730796771979928,-0.10381663914459122,-0.16894601998497255,-0.09301437487331456,-0.18269873159114186,-0.06478614695338722,0.254192525329275,0.20108403240258732,0.027618021336186068,0.23459637761054902,0.22947883845071396,-0.07215335230830144,0.19478759561734327,-0.08214789643588674,-0.12093183020746649,0.018724127459813205,-0.023674517214149822,-0.03806156152080623,0.05200768149178253,0.07637637396089511,-0.1742728874217385,0.27042100746482994,-0.15072887057544146,0.20067249503672663,0.12773905411343414,-0.017492069611859236,0.1508362170523775,0.09793503768397599,0.2499985006045531,-0.1582457538983698,-0.12387513551015523,0.006723011932401753,0.14950415046774454,-0.05512860897641847,-0.247748572171571,0.03649093651385534,-0.06936119429797546,-0.02792561021407181,0.12581011390481212,0.19590440409465432,0.1932746889530865,0.02074457560836641,-0.2448236000448344,-0.2036430442738901,-0.09057888816698804,-0.22660356886376612,0.13569129582664216,0.20464459655126865,-0.18583174698264784,0.20520720983348764,0.22808197000541527,-0.025456046161883048,-0.24064663157645882,-0.010680953636470028,0.23162670838255073,0.04462836064926617,0.12204429909967024,-0.13923911460505312,-0.02193816162131428,-0.10471315552571543,-0.08163214620254719,-0.22386116485187638,0.10663220341005199,-0.08685876438108138,-0.0329417358055892,-0.012267944864411592,-0.1967761907161254,-0.12981859865255116,-0.07267018593573121,0.19173762777087872,-0.09787425598007132,-0.009751722408373329,-0.05127254686570883,0.08695022054694115,-0.051359644437694515,0.17311989477122058,-0.3107580491763154,0.2127579697424807,0.023165311549761362,-0.15633621106325413,0.15797283055240016,-0.089523679551332,0.061621856572515295,-0.011509207707464782,0.16766124705966787,0.022107747488995976,0.03918686067940756,-0.28899838243399684,0.09979242788386941,0.23176489504453698,0.12589598973316182,-0.11284927864870313,0.2726869546336933,-0.13659245315908497,-0.04565548104377964,-0.1259621952599007,-0.0860478211847295,-0.10978998795518981,0.07339012267970699,0.02337424299024703,-0.045760776808767674,0.11567402201681976,0.059315680445587445,0.19427254293931823,0.1559729802867398,-0.04694748007212866,0.05824152147221528,-0.007492155594396525,-0.09133580653930579,0.05201570123002768,-0.04948180504302727,-0.1347543835809445,0.14045668600473157,-0.14035188969048026,0.16632799142675514,0.011296782679487445,0.18055641638623188,0.0370955207113552,-0.1949399356349241,-0.2573102089282752,0.18193382591158952,0.14207076541654087,0.03719576536961807,-0.23092429062570227,-0.15038212224583744,0.15470981361503636,-0.08005839773915696,-0.2314652169179305,0.09393814490743556,-0.09190940329255197,-0.11879654175648804,0.1152364615150116,-0.08589775555559419,-0.1063886405526889,0.16833062614803673,0.2739845354977638,-0.15273600682092078,-0.012813623769988316,0.004401058981457777,-0.014360786570958961,-0.2529812647223921,-0.005659043127063504,0.11738767875438802,-0.23342287618219143,-0.02068441486002866,-0.05198949346036839,0.11314364414241453,0.061294939762131566,-0.19803095453848377,-0.08410222122294005,-0.03740135493897371,0.12836101831100447,0.022021311792553337,0.02194669912936023,0.17474439559363478,-0.1843052085524838,0.035258723711856545,-0.1273672019553053,-0.14764310884900272,0.19972579291679382,-0.145045126658371,-0.15532891180496908,-0.1912729814776477,-0.17721492132706929,-0.09833073821196178,-0.20111048258378478,0.22172427774585,0.0052709803467083345,0.2235442442494947,0.13443666477625998,0.10358723284194694,0.19390409745956744,0.17997215163847624,0.09290563088991537,-0.18698513324437263,0.18476125535297852,0.07183862106405194,0.1565216129541674,0.24106429619419525,-0.05396014640710432,-0.11413834498661538,0.06285502376605545,0.1992323754732192,-0.15189469578446307,0.10690898598132528,0.09513623797893449,0.18537828210879803,0.03787875004501169,-0.18048368358606853,0.018847618418631785,-0.02114857867796765,-0.10959448068591189,0.14998509355041567,0.12371124328949479,-0.1537779524392019,-0.0812641060386224,0.2043791627846211,0.07082410830160796,-0.22724156301325202,-0.10082164346736164,0.10926817419558585,-0.10945353238846546,0.02893254046035567,0.11093016392099035,-0.1695037999909688,0.11064681957484403,0.1435083019103186,0.15883899297476184,-0.18508101088537637,0.07399777388335953,-0.03737467199815663,-0.048408326949012793,-0.2622503752891297,0.018376529686517585,0.004145399351217454,-0.031159638205762626,-0.10560924700439855,0.1444803143994616,-0.17191738664155023,0.14948987676753342,-0.1685186841408521,0.18683862424546271,0.11037099299481634,-0.10001887519684094,0.1837067842831426,-0.09658096086246094,-0.15791716736542888,0.2736723024843781,0.19076009815462475,0.25299237310741474,-0.09460506912502391,-0.15355260627120745,0.13527664903285166,-0.22837423006734275,-0.0020432928362123025,0.14579294245382413,-0.17151873973448722,0.11291807513572667,-0.17667084179969225,0.013253952315034699,-0.08490571273967104,0.09690634564663965,0.09468037227057814,0.15246643835634155,-0.04129891618899626,-0.1757476157054078,-0.24207472614511766,-0.1343908496295234,0.22943863784394222,-0.18818883446801601,0.12880235791644792,0.10282788833999668,-0.04239739029213256,-0.15221642424753964,-0.08114385548688229,-0.11902967489122905,0.09040954521212256,0.06943119622631423,0.13916157469187285,-0.16190664533462548,0.14116049015321597,0.22224711882101147,0.07346102846356863,0.05069334068037065,-0.1827592989708547,-0.06704037948790222,0.06808124220723685,-0.07421838658207312,-0.18320307827591029,0.0907145953228278,-0.08576088515208553,-0.10029633874169532,0.15305952269570802,0.24790818477099183,-0.050896396904406165,0.04671550901302225,0.13793876649285824,0.08905208079967053,-0.20058368317001982,-0.059221047159329146,-0.1507199562210893,0.08892614650731871,0.09223859187993948,0.05146214846807369,0.21465243438404477,-0.29002736900082193,-0.034518752130120865,-0.02669938844786483,-0.1421041659372648,-0.25939662722771284,0.17510499219345627,-0.22012182461997545,0.2137024513665045,-0.0014044732642165283,-0.035573650924239045,-0.16716886861562869,0.1987881165379963,-0.17265777104048835,0.16869854338208395,0.22908008236433308,-0.04448670533204115,-0.02422501615685836,-0.1248025709456969,0.17213633981780938,0.10388122871975779,0.1215685235853698,0.0896660094185993,-0.16814437708683233,0.07072173831487678,0.17695622606954642,-0.2149929940268885,-0.06490021124106331,-0.1367554264387018,0.0336499123878141,-0.21476498022869794,0.23083115854310204,-0.19539930330504926,-0.11735896209628396,-0.007786132263261052,-0.06762340486223768,-0.16435202699918472,-0.2043637299924953,-0.013092135465549156,-0.12567019564423243,0.188481392235162,0.042768067784570596,-0.07839967168054567,-0.2523895407782049,0.16374778107105217,-0.12217974001864129,-0.058309947069855685,0.19583415777339166,0.07291770316279275,0.23740485010896825,-0.07040997806512102,0.2504032027903563,-0.07122463160733426,-0.2049483434766306,0.07032656430573869,0.030595372366952027,-0.23047170137762316,0.14408291794544267,0.08686157741027428,-0.004578369154134141,-0.16867334570619996,0.025746564403939354,-0.06131291566749093,0.12745733293812261,-0.25048064719267094,-0.11563339690540954,-0.16833232723530592,0.12022571973700222,0.07379353172481563,0.07682244612202037,-0.004780902316434349,-0.11839689679954521,-0.14600537235492714,0.05968390533497211,-0.03990735955331809,0.13177506804481376,-0.07906221151962549,0.2128376735641047,0.10057809458873107,-0.04450997313319277,-0.06846703682865682,0.15089216457513566,0.20091780314706595,0.08337739627896178,0.083478077605945,-0.07415475998184384,0.1564712858526243,0.2549080193409566,0.17445716934307104,0.19719160564937008,-0.22116729325795742,-0.03765006904408354,0.17961548595941682,0.201838895549509,0.005369305594777755,-0.01657999173497235,0.10598858226100447,-0.19117139235193134,0.14831779915926846,-0.021343593615110044,-0.1980316011073514,0.1806824794864659,-0.09160066852417185,0.09536819293777833,-0.21935327900811413,-0.22672617697815356,-0.05951933651498611,0.25000269781122136,-0.04330232979810704,0.13808563136721666,-0.12632436875886133,-0.16972382874813743,-0.17915627871291276,0.10806759200347435,-0.15571804199380992,-0.15390607383900012,0.12263034400995027,-0.16136102027631427,-0.09322478642862973,0.15149496745629754,-0.18338208227390945,0.04587168640840369,-0.15694767965678288,-0.1995479565371271,0.10920003275404933,-0.15205333632331186,0.13269305122007466,-0.01635146206715998,0.010150253645947118,-0.1154557960140257,-0.10382117015961155,-0.13345903866920644,-0.1292327342773857,-0.2221432612741367,-0.21733551237030685,0.1210821942468582,0.1444711843809882,0.17056334231404374,-0.03210809342382988,-0.24095735346224742,0.022460288511243955,-0.06413904900477795,-0.18860014310568984,0.14135062867199372,0.08130127396389152,0.18236335716182503,-0.1592927456434328,-0.10989244039121548,0.09485487146556595,-0.05269569270102102,0.12284313075125561,0.1253496971647435,0.1066462224599465,0.15140893044090417,-0.18014389124308422,-0.25472384391117087,0.03741567885641168,0.0022691568559866588,-0.024025328506258756,-0.05973086028256567,-0.22088390327334145,-0.17430472945856343,0.2120884104227688,-0.006881583722766692,-0.18187102323567697,0.01635536837009768,0.1002695545274842,0.13723595514553968,-0.008780237069567993,0.007595190380645324,0.09922577412606182,-0.15730859210303505,0.1481805728064122,0.07271247455012837,0.24329082812708566,0.18287685110664345,0.1314198561424637,-0.1787821837945148,0.1822149978931973,0.13779702420076195,-0.00967626004227624,0.03867027607749208,-0.03809275901718595,0.04584765022794804,0.0794516056420829,-0.27087422053838106,0.1120454155473272,-0.1793758272814546,-0.25513021618488396,-0.15289619852331177,0.10196369548549038,-0.2807962875770948,-0.215275443234838,-0.06305861129324265,-0.13309028506241727,-0.17929614337718125,-0.13326903992620584,0.19684393580870815,0.11948850958176725,0.03108568341523663,0.25440534080311167,0.026107260025726258,0.18753729558694762,0.07357514782119341,-0.09456954575860019,-0.23133014754806155,-0.24501227550192417,-0.18054744767790898,-0.07203518951998447,0.032863913385345556,0.04999597633874022,0.23254643468398373,-0.012589841469816086,0.09840552059286539,-0.02539845308348096,0.24340278341166457,-0.18552210227114752,-0.06903525703914057,0.06624497714833945,0.19893150116116318,0.046986725901441644,-0.00428948351210405,-0.054682791878741484,0.2679096934129132,0.004907698078017262,-0.04961594656367522,0.19522228311132184,0.07886280734810931,-0.1436240048862882,-0.19037692628144323,0.04477993186926229,-0.0969066699044058,0.18155068428497828,0.0035958989966150107,-0.2230927605039087,-0.197804690558186,0.13690347153124593,-0.03610683761951265,-0.21573573418287628,-0.03663643426596514,-0.08200886594143138,-0.18286164260605622,-0.013824330330666407,0.00006113077531944766,0.20054248342213374,-0.1839380172452681,0.053036358549388374,0.22078306798948005,-0.252103920731585,0.17598178699933456,-0.018146886150892508,-0.10810367246360493,-0.12276726849599642,-0.08060627323317712,0.16283159858183446,0.08895889816444737,-0.04208760504968978,-0.17332817658172858,-0.0821640537116711,0.0513792352235664,0.0037094989992843106,0.22435560024462672,0.21643585477321503,-0.15465213540397105,0.034674428831335195,-2.167091280973393,0.13883700975808017,-0.10347436788204617,0.13679378522308577,0.08442970492078931,0.11253042460656305,0.060128958258752606,0.2021859644569518,-0.16361473414228273,0.015624653755692918,-0.060502465416541765,-0.18471495766703055,0.006657883433612423,0.08929132129346463,0.16737516609597353,-0.2191985513527403,0.16195296424073038,-0.02107183263177539,0.1588226236301245,-0.05663085929418462,0.7411879868952082,0.0686483265984997,0.23554343318953694,-0.017088781795828553,0.03187677699389652,0.008016849430121221,0.06998544376154166,-0.17826735445151495,0.01877877916934886,-0.13065709402390124,-0.011233766066713648,-0.1527827939023301,-0.19461907206358248,-0.008500874042803468,0.1644369465411848,0.21202517890704248,-0.17783670089392292,0.06682781893431221,0.12217689059950251,0.01881338108459104,0.18029808748652426,-0.02550751681009946,-0.09699910487714944,-0.2346376664913007,0.052033939598583635,-0.16768221518777038,-0.21783801410791293,0.17172081926856833,0.24399670719769148,-0.2449958989887503,-0.010678341951972568,0.18859018601544858,0.1266908888020334,0.12699415180331525,-0.13471836222827813,0.05676327001693752,-0.13671581963370216,-0.04079869964994794,0.020382305860175712,-0.16740810558236296,-0.05333665844129805,0.01874729433160043,-0.09616841510614836,-0.06391208891689755,0.12030425260469237,-0.1507475441403813,-0.17327612715580343,0.1369357286996088,0.022469681169454005,0.21164565722540327,0.20792233256845058,-0.24094359921441041,-0.11288904448895218,0.24168755808921177,0.18315185782872734,0.2119771285571396,0.14132163160662953,0.010844349599232259,-0.07047763990236228,-0.05837466752043851,0.15728655474713693,0.22486823645632495,0.13318998731504705,0.03142280524104863,0.2474623085291128,0.04193249949529159,0.0941690028390709,0.09343997917873996,-0.13558436155150227,0.18012192217691578,-0.21550474259862884,0.029404937394204606,0.06412883714033007,-0.1563877995035919,0.15739718570741792,-0.04162731347584717,0.28489783591060347,-0.10297841224022022,0.16947187185370663,-0.17303948573313066,0.0028653979240355833,-0.1479138551017963,-0.026923209138713794,-0.10944789658554858,0.05752967181392738,0.016454991400347962,-0.060206702412932855,0.04043236709957807,0.28631588081850373,0.04436668754713278,0.1523089205259888,0.23262353753532422,-0.021579832810377127,0.08305178513016259,0.27529227261433137,-0.18338013618797416,0.051443890692624436,0.04023798989714537,-0.2571379700094312,0.06840535179945852,0.0582995905038658,-0.043529169527750815,0.15061552059043948,0.15836965448296567,0.15986040492670006,0.11337280412234552,0.06724730732127773,-0.17076481582412556,-0.089508203430006,0.06724372073018915,-0.025589099658777283,0.13696588163101756,0.17064660188880676,-0.09370760836541846,0.2140179009910098,-0.14370057900430422,-0.164914420977739,0.2574890015910787,-0.1480147133053312,0.3213643507009086,0.13428492925306398,-0.12301649923391185,-0.03474706748069495,0.07564799649612874,0.22351901291625265,0.17901158486629437,-0.11401883745707575,-0.09146601001066931,0.24080230169002947,-0.09338817999957325,-0.16982562349622182,-0.28222446597391176,-0.23853832982798764,0.21526987861365654,-0.03692154898995801,-0.054024640469822964,0.24220738512283554,-0.0355956430439246,0.0778781255545439,-0.06548853362319507,-0.1730385945005072,-0.04190876081908284,-0.07272823147548267,0.01788902417082212,-0.18797886280515044,0.00812069470584604,-0.06403475940351881,-0.19478538858863945,0.23424034367003935,-0.01321272253642392,0.011285048409610657,-0.0019359822068648464,-0.24830919116747008,0.15646412297535015,0.10536848943084712,-0.003825664892313342,0.07844870756800779,-0.05423661343489278,-0.05059971209166269,0.17218112270576444,-0.05081332141517268,-0.19071223072357296,-0.17068990009204488,0.23007096643616612,-0.12367874528528372,0.07054128126636854,0.1655966310051578,0.14944847649008608,0.03207454153634406,-0.00352097761870118,-0.025937784162521862,-0.19439428708217954,0.22625665846087165,-0.21239077611954588,-0.12365859224105658,-0.03777724112620791,-0.2628985717869639,0.1025448947223347,-0.0446267049983967,-0.029918389307866763,0.10592901464811352,0.07742556586313139,-0.22192986813577553,-0.08066325255898932,0.04004530446923386,0.07610786286798457,-0.0408735227415379,-0.2019811165521196,-0.23208738324559086,-0.009071748842147355,0.21565853184990968,-0.013561444910575414,-0.0011277221882186167,-0.1534728754977294,0.01898653200840605,-0.16585378071067636,-0.14174938284549168,0.07622809359285314,-0.001682720790664058,-0.1600416242999679,0.18424590784064776,-0.11563887241766825,0.22238372446683813,0.18433884375308715,-0.14042654362538387,-0.027961077309574332,-0.15165302663858413,-0.11497758960951901,0.1468974423466493,-0.13652378121350922,0.1947283608969885,0.24816013319518543,-0.11059782010724441,-0.22181149487162077,-0.20062653917233336,-0.17384305010996598,-0.007579546404699241,0.1089716400343229,0.06559552198576352,0.11985071544308755,0.12790256441848855,0.031181065536198163,0.0673897610779755,-0.20180611712219093,-0.20980130286112808,-0.16307353446920925,-0.08621668489322817,0.01152196536347066,0.07736826550883805,-0.05266978353039307,-0.10794376887771963,-0.1874905262601968,-0.26298011263155513,0.24085786120551295,0.01171767265890395,-0.10830677137960472,-0.16197927060347742,-0.049580750376857136,-0.04260962277501436,-0.14689497697199305,-0.24230862803221986,-0.0404745782082351,0.06711519712164851,0.05962319782289992,0.06324117801080864,-0.043880885709530096,-0.20094809020344895,0.2837113595970395,0.02468301897707566,0.1509380498078168,-0.19409015810742153,-0.12106535799545348,-0.20140902246633682,-0.0006854306062549915,0.16685782899347573,0.08946054419055698,0.04811150817016517,0.270699883014014,0.2235487161032771,-0.060156374696112784,-0.0910981314204356,0.1584964595481872,0.20852577588251955,0.06917260724461988,0.10371487395586615,0.10452579943993302,-0.02393978364608079,0.06371266576761364,-0.19175398438630747,-0.14487626316772784,0.13245515422005474,0.21717349228030608,0.0084203341733853,-0.12513158964041923,0.09010099369702944,0.23059299109081433,-0.22838468829857675,-0.03128818716429582,-0.052496996182748376,-0.05400693356766408,-0.20711843421859802,-0.01968810131369796,-0.07580580157469967,-0.23211118590604465,0.09268149000908457,-0.24742188727018252,-0.2419298225438725,-0.15483140575569207,-0.12228880727515361,0.11176424531654341,0.254763055565595,0.04607818710479673,0.1599947187895729,-0.0008465207727534693,-0.1391457345031666,0.040597854333181735,-0.163958013262886,-0.047444162389541876,-0.03516878826561279,-0.00964831408578777,-0.019762655187093567,-0.07842126596814636,0.2028723991556284,-0.20147018699305272,0.1934658688423033,0.00839811574143655,-0.023828852135147467,-0.21000172449502932,-0.16490256021100086,-0.24646660972237214,-0.019134250241575917,-0.06768289802620082,-0.03647680775285161,0.13002500878534926,0.12207976923622907,0.20651987676930886,-0.03562219100664102,0.03499555728767132,0.17475933434251295,-0.13248615444749867,-0.11927598404797683,-0.13994829033063366,-0.07028990403992794,0.20413177671670243,0.15084235728087675,-0.011105116821014737,0.24235419027078986,-0.22904168333289224,0.111518937855489,-0.1734877001414473,-0.10596916840859298,0.18009592386617382,-0.14262925169322818,-0.12998012563452913,0.2002132862969197,-0.04003197718212155,-0.17050311859895395,0.022728982369175553,-0.07606898356618655,0.0874905921725514,0.0037551103421418945,-0.19366727001093587,-0.06473105098185931,-0.2213411002890038,0.08024972471025194,-0.2418970124751253,-0.04432484165654969,-0.17536445616602386,0.04615714214017279,-0.02250496865690572,-0.23523516909027542,-0.11738613702957558,-0.24239044828970052,0.007815062446127815,0.18208887211494124,-0.25086099575878085,-0.049197242538337634,0.03962072507705306,0.10718888125296706,0.04829868774829589,-0.18401998613188772,-0.11896215935072428,0.011700037221804332,0.017485589388843207,0.12482840124785291,0.012683147901252634,-0.22295563344802044,0.08156310248042051,-0.07057828615318774,-0.003085774867496815,-0.013477449110151555,-0.1932502256160373,-0.23450348427815357,0.2576548110328022,-0.15143641916265183,0.14879301585889387,0.19039768474083898,-0.18066798400266673,0.15704360224423083,0.11171380788728953,-0.21789046186858202,0.036396446715174495,-0.046600525214093205,-0.011240669033533922,0.06527194151612616,0.15392272764153925,-0.027081637538901335,-0.10531209383303033,-0.12457847258276955,0.12030963082941157,0.028049927593141673,0.16404536311182896,0.13500034100381567,-0.20354784637074697,-0.22617140889328444,0.07676996378946001,0.159653332909488,0.14700048216200498,0.09398839777175239,0.222185479290622,0.11927535357926287,-0.13799228094066066,0.08928384121374386,-0.18125781077601996,-0.1319474485144593,-0.2035861411987481,0.2196643954577028,-0.2206825820619408,-0.1717287712480749,-0.16565112801880477,0.18178661938184884,-0.1306520482738577,0.050785396290833826,-0.10465934906416575,-0.21172798521486097,0.18070142421041233,-0.12893767147536006,0.17693952185530204,-0.028693028518481503,0.07065782914394018,-0.2186113700281609,-0.14593430897591683,-0.1086242164983394,-0.14857820626234777,0.02102005134633783,0.08608750852148127,0.049676874852592,-0.1548987792600204,0.1680807039513591,0.17104365564439938,-0.07770926113418965,-0.17574426313669186,0.13711774261050827,0.0718786667982083,0.10649744623019498,-0.09684109245002208,0.10124492523819315,-0.11741533214006214,-0.021631615557640635,0.21660221175793756,-0.024476039209383786,0.24104282436254634,-0.16893153115897602,0.11025021300342931,-0.20487432374541603,0.12413232091839313,0.15965905687847437,0.21043598528148982,-0.12764604894235304,-0.14982614680465403,0.05108345758903113,-0.027486016840028916,0.04024506989353323,-0.11177706848123625,-0.08019607320360861,-0.22310064178368422,0.20402163325876063,-0.033388421472976805,0.09477161548319009,-0.14265261356074585,0.24962265231330244,-0.1613498740029628,0.06318710573277293,0.008266735629668983,-0.08896714182092064,-0.007335737533514104,-0.19270716430146637,-0.10169844970775266,-0.1994414213047013,0.11319985128956533,0.05072981418713677,0.017325642481022075,0.24039926094490738,0.21140151174385408,0.027915152457778834,-0.1760410943926509,0.1580460654594637,0.01035170957341446,-0.19548937253484575,-0.05534734638820427,-0.00530270314990901,-0.15901466782903415,-0.1597426935220302,0.05692764671919059,-0.11762735562111498,0.20296645166780908,0.18881309715487468,-0.05588971349088999,-0.1848835589156838,-0.07084210323119572,-0.13761837096560972,0.09350099400608898,0.23676021257532823,0.10558703943677603,-0.10459361891616549,0.06781960789885295,-0.1229123509647038,0.1392823939041471,0.21970726348177796
biasActivation=0,1,1
[BASIC:ACTIVATION]
"ActivationSigmoid"
"ActivationTANH"
"ActivationLinear"
