encog,BasicNetwork,java,3.0.0,1,1540945773168
[BASIC]
[BASIC:PARAMS]
[BASIC:NETWORK]
beginTraining=0
connectionLimit=0
contextTargetOffset=0,0,0,0,0,0,0
contextTargetSize=0,0,0,0,0,0,0
endTraining=6
hasContext=f
inputCount=30
layerCounts=1,31,31,31,31,31,31
layerFeedCounts=1,30,30,30,30,30,30
layerContextCount=0,0,0,0,0,0,0
layerIndex=0,1,32,63,94,125,156
output=0,0,0,0,0,0,0,0,0,0,0,0,0,0,0,0,0,0,0,0,0,0,0,0,0,0,0,0,0,0,0,1,0,0,0,0,0,0,0,0,0,0,0,0,0,0,0,0,0,0,0,0,0,0,0,0,0,0,0,0,0,0,1,0,0,0,0,0,0,0,0,0,0,0,0,0,0,0,0,0,0,0,0,0,0,0,0,0,0,0,0,0,0,1,0,0,0,0,0,0,0,0,0,0,0,0,0,0,0,0,0,0,0,0,0,0,0,0,0,0,0,0,0,0,1,0,0,0,0,0,0,0,0,0,0,0,0,0,0,0,0,0,0,0,0,0,0,0,0,0,0,0,0,0,0,1,0,0,0,0,0,0,0,0,0,0,0,0,0,0,0,0,0,0,0,0,0,0,0,0,0,0,0,0,0,0,1
outputCount=1
weightIndex=0,31,961,1891,2821,3751,4681
weights=-0.6865639729067261,0.08927430614907537,-0.7544104664293545,-0.31771671384024264,0.11702753350940008,-0.0047625677516710116,-0.4168645863176277,0.1375839597496011,-0.5704320802743302,-0.18277927063010935,0.1316021363126381,-0.1623941197280033,0.23117305110188044,0.2149304803574539,-0.27392456288534905,-0.17440415385765853,0.23511839939218712,0.3213521475368466,-0.19404237027799162,-0.058192161241342695,-0.19426663189171756,-0.10236146328186749,0.09960910776257748,-0.16307572583473726,0.08194882959867132,-0.3245345855267696,0.3083442020797979,-0.065889248913121,-0.12263667558432936,-0.1176786144231989,-0.19194841451848366,0.0679085216831772,0.7917180838157084,-0.09463029571310963,-0.12789799143174435,0.1469493590108066,0.38121191141680927,-0.09102615953369175,0.2762510128106178,-0.2005276461793338,0.23556840563695355,-0.019883519655420283,-1.0019083996113318,0.43641941721695526,-0.07707585364807959,0.44888895405266155,-0.017371953975587554,-0.033860915446731574,0.21941522389162602,-0.21868706668925036,-0.00506028197141215,-0.19968614116939928,-0.19650916109437058,-0.19948860154847484,0.09249080669405979,-0.02532251484717433,0.139709748686679,-0.31793823672921717,0.15115265207952325,-0.08344101037978595,-0.2608884372067288,-0.11174675457339432,-0.04678209122736782,-0.10317321256213832,0.1327598793980215,0.040457094000343564,-0.024216396368309478,0.5785412892289997,0.07634303909250384,0.2117751136087586,-0.03228523420231968,-0.12127541150424409,0.3918234974398524,0.26912282382546615,-0.15807580105361177,-0.08425301414817571,-0.08595274518649514,0.34573757230018665,-0.3645141948077687,-0.15943186738554155,0.14881130992943717,-0.09721121383839176,0.08478562256861523,0.5774506963799223,-0.06069311836031045,-0.020365822170378526,-0.10477770270350677,0.2012745247213605,0.12574309679596793,-0.3690600528548167,-0.04357556183347855,-0.07956121430484522,-0.019717427362087255,-0.25694982124274346,0.46049199744920705,-0.21735165082353655,-0.25031773108639926,-0.09077993641020335,-0.2788679141807932,-0.05930575295051202,0.020353532749305202,0.39762761108717726,-0.14144359086258954,0.11209618097394095,-0.4789282719957185,0.1512234930733471,-0.0625533619102816,-0.25491804562949477,-0.7138763762924613,0.19505606943182313,0.27366070800151127,0.12054221410726373,0.14635614754749948,0.014570221749935613,-1.7520978297614707,0.23725663901404756,-0.17913228436030607,-0.07613320579516347,-0.005579195142461286,-0.1115080498327036,-0.27959439877863074,0.10889986447522769,0.07165841019607141,-0.2258032703863935,0.13055019440877338,0.5478283571962547,-0.23469896018611272,-0.14598940150071013,-0.19095366915414066,0.08978380785232828,-0.08305405471633492,0.17870875653857202,-0.019710538215555042,-0.05901153703891678,0.12867315609603297,0.09463943890786145,-0.059968373967379335,-0.24010929669852535,-0.1092499660975937,-0.29140028089065423,0.5770322069951783,-0.09606097185104437,-0.1471850667657115,-0.049450013047811846,-0.2439688488449216,-0.972776148714164,-0.15126160600235442,0.09373786920150184,-0.013584452766086755,-0.1519754758894157,-0.24596954728778445,-0.0015399536182719496,-0.5661651706828827,0.3137100023180359,0.07801593903359844,0.052992222608601695,-0.2671609698022249,-0.12317459159899719,-0.039734122714212936,-0.2626507612849701,0.3084918219385945,0.07580032321283926,-0.4971386454037448,-0.13497897571029305,0.1431423889930955,-0.16664766313301424,0.18721661730055744,0.2642049603448,-0.1460781907080316,-0.10206267234093584,0.05152903564120667,-0.357626713009802,-0.24054370356060356,0.14309104728217495,0.08085531486441933,0.10737547213619945,0.4073990946781547,-0.32473962784282523,-0.04225339934831052,-0.008148860050653736,0.28994832651179,0.03317887235047501,0.07710740055603817,-0.09841586921047255,0.0625068393876915,-0.16923774148170642,0.34447474474952755,-0.18549508827655203,0.13104484408888994,-0.10976583282157541,-0.019233362873016076,-0.16708215065718182,-0.06729109653319361,0.014687621895082926,0.22431251676603384,-0.09536902230067291,0.10640297794013145,-0.1596647820193658,-0.017565229625825428,-0.12455398878234525,0.0006709641493627266,0.0904372332932738,0.14322470117033195,0.3397573587539386,-0.15265548160896375,0.14890919987816817,-0.05398405771136516,-0.1340997509221291,-0.08976689664912983,0.18202904487285165,0.15376601240896834,-0.39307373200136925,-0.032946963575228846,-0.05385106591728495,0.2024513696146692,0.30545557973295556,-0.1754815704961353,0.18849976522372683,0.39119814024925004,0.005140179082521861,-0.05275986745714669,-0.2576437311345457,0.03319007919645118,-0.004530916852299178,-0.00213110433208974,-0.09230125063945198,0.12356911358515175,0.06441831014658747,-0.3762303703168701,0.16171986376974745,-0.3497629756323073,0.1158389000364623,-0.24643198631287772,0.47546090112265166,0.032228607187908834,-0.0033072220797950016,0.06814455627091215,0.251359931545598,-0.1814075383191613,0.23344450211662712,0.11948858861398536,-0.10136803217440941,-0.1401425356355615,-0.23855900545367603,0.23318083936791434,-0.07283113559028541,0.24421181935593816,0.08233692690579789,0.09794819413873834,-0.934040054196347,-0.03606495894029431,0.2661460485611284,-0.15039592055393497,-0.18752114424892677,0.24017403830699144,0.11221337935822201,0.28117110841490556,0.1633168809770064,0.007059406954952453,0.055355343266665503,0.25788561688974826,0.2551163316984917,0.11714395419341916,-0.1950716145826383,-0.2278722299426728,-0.3234130968388542,-0.11060929492379744,-0.1419352047490116,0.21098020357256975,0.5527562456474129,-0.10593782879806671,0.0013364393717131503,0.06953706493238632,0.2927409608887891,0.19956091515258842,-0.22316665818099413,-0.28188099467594807,-0.09099918276392574,0.03751363833283729,0.2172917996922591,-0.07404963147952857,-0.19821652164770545,0.10424719147149519,-0.45692006423344367,-0.15901707041309363,0.20634214137129844,0.399845667135297,-0.10234920827076056,-0.1694837973772577,0.07627434583814591,-0.74821566041178,0.13655606376321322,-0.17680112943726267,0.12119504498310193,-0.28288702035505353,0.145484933798558,0.0628406896720534,0.08883219626679394,-0.14586865613273356,0.18788232440646077,-0.21180065391314318,-0.17003818906128956,-0.08253455976931547,0.1279226663405166,-0.008093092919290083,-0.4602721724846436,-0.2414531648259636,0.07813131644834383,0.16115971486376465,-0.731853857544563,-0.0797697490248439,0.2573024760808913,-0.01583241682653625,-0.14102816807415003,-0.29772811872457056,-0.13337112734940781,0.0896249338210481,0.09514447859266256,-0.16385293641087598,-0.11929477565174715,0.3704170410107625,-0.12492922336837049,0.1180907631891789,-0.3448806603356116,0.18299647454544238,-0.07879718314871338,0.6417724390355768,0.35716012581831835,-0.0968608877283195,0.1929816352367431,-0.22797943952545857,-0.3673478801858884,-0.012597573884317474,0.1563193349828903,-0.10376183849161055,-0.09406395248293872,0.15182178751090353,0.06522776148116358,-0.017078860084761793,0.09945048007106665,0.20540579612323154,-0.4583468533056013,-1.6067086876907062,0.33547285030176965,-0.043491742789353,0.36562366549286307,0.49667704083820186,0.17606894137603524,-0.16891722041229085,-0.03250531767635077,-0.18376236051522268,-0.25869868983662625,-0.10190451040603375,0.2537145782832765,0.26477710989925884,0.0676576692784841,0.21248551193630577,-1.4526467374098575,0.07680819206623442,0.008338590957651453,-0.012335272783200341,-0.17730737455546747,0.409503529945631,-0.2897117863513835,-0.24995738321419483,0.23913890423462902,0.3596186110512791,-0.02678691173183206,-0.2994959392221093,0.18644043539459093,0.031186742965430673,-0.18258613255667086,0.26719651105885633,2.5118671901452743,0.12500022032797004,-0.06300210931085097,-0.10639200756486333,-0.5949334211731043,0.08074618279374163,0.13106450787095042,0.05986633020918079,0.16325780170350182,0.2879100841762048,-0.2065655667993642,-0.216597565269495,-0.30756346194622886,-0.00005821253005704186,0.07813805887085618,1.587810900787866,0.17007247856803984,-0.12369386159797296,0.38706605962546337,0.19639415736226462,-1.5524513608294415,0.22515480073642877,0.3618163589794531,-0.25837282763168035,0.10879116024396095,-0.026988639212035183,0.49655324655723604,0.030680486505101932,0.03898518747861063,0.07967583103007596,-0.13288405878314613,-1.015051008377424,-0.10065699757307395,-0.06395936763383595,0.062160157728306575,0.27639482373305446,-0.09618109364144722,-0.09513411087008414,0.21564187500847218,-0.2490095996275138,-0.3282935848779424,0.19158383214251654,-0.055769886159264793,0.8953902287133353,-0.025313457255973427,0.0082125597170088,-0.8210848338870778,-0.34285816253492213,0.1248375403341505,-0.5463852169422007,-0.0745684793453198,0.6956906655902544,-0.2200726177883371,-0.39395633314682854,-0.1881649533679554,0.4383743646791306,-0.08774893100548975,-0.6329762969949663,-0.06852157540276888,0.19114227370354092,-0.0774933407821572,-0.11490912299230523,-0.14607725600077873,-0.08754059691762471,0.22246570260664958,0.1763467283560662,-0.13375700299428742,-0.1286434303677352,-0.18281592208542638,-0.14385940294940075,0.2832867849966696,-0.032255432686326545,2.79243937045616,0.07543304684950763,-0.01624035093191389,0.21059711493816083,0.7012935203507671,-0.16513733757150012,0.08870562466943968,-0.11046480608726558,0.2043802645817461,-0.1787497585213369,-0.06264465474004632,-0.31203496901204775,0.12552273921002158,-0.19463036553594268,0.23012929826285902,0.9315735702218475,0.009327736502879243,-0.28410808354832784,0.20555525837204744,0.03213738794678814,0.07263179840271548,0.3571138326633658,-0.054208851759683846,0.05290438987042304,-0.112936248497941,-0.05535610359186782,-0.1515769003646271,0.11630124541278973,0.023641413754887475,0.15304319086950188,0.0494943933240398,-0.2532166449504502,0.01236024479755157,0.06326403534913774,0.2573143707099552,0.14826401260014663,1.1298265316302842,0.257020583403191,0.28313565680200437,0.009731326304455688,-0.0834783316614234,-0.3081032073488037,0.21537249882627382,0.11296653919143239,0.2753369316511415,-0.2842548255575338,-0.3086732577445619,-0.14362336647193874,-0.16148676703750206,0.1894227199937373,0.022884902617037108,-0.25883027190601027,0.9223247097999369,-0.3359714501125049,0.11460279998829026,-0.29359556746186943,-0.010509749566588178,0.007926871891882447,-0.024153468058665025,-0.0935241837364003,0.16511295040014612,0.09775641437234947,-0.31901749680770025,0.15794133536967428,-0.20375136162095814,-0.2435748982291041,-0.1974476649726189,0.21333387378723198,0.03028930472912999,0.13574053623306037,0.012943893270283552,-0.2869450431579419,-0.5047674403028573,-0.2027528618373367,0.17220888821485386,-0.1269819651195029,-0.08707597507065583,-0.1539323316650078,0.15576906961557963,-1.2481150141072164,-0.2309996795638626,0.14547014986413392,-0.05327307633920333,-0.3630720021953535,0.08335496986982499,0.20593199037163742,-0.01969330189551491,0.402314213162781,-0.049592497068871734,0.09445439249267172,0.3489172600448565,-0.05232620207514905,0.09319235937055494,0.22751648218604967,0.2359932610289389,0.1290090908075871,-0.255002499818645,0.023167841327061983,-0.31269970898182153,0.05703749682330599,-0.2949232334717735,-0.4718427705275737,0.033536813473635185,0.4852333614638553,-0.23777943481016917,-0.22437038893612252,-0.16341300235015868,-0.01727186317470662,-0.16992305039217373,-0.4077982061797297,-0.2650844501346113,0.05371674404148785,-0.09537474127679262,-0.192647699646158,-0.2855438411733139,0.21156158793752347,-0.13070684553859038,-0.17799866076115436,0.23025295494288608,-0.04497734810188703,-0.17954062289188247,0.09553172516645761,-0.2309693104526691,0.12599470176822944,0.27097947898798047,-0.004595453547890212,0.03741682702448694,-0.09131151759510449,-0.15013366677659318,-0.18344601244283706,0.023577347211362287,-0.10984865288767447,0.1359043250550702,-0.16794387956563928,1.5915855918051884,-0.12095704915278954,0.21184229224134685,-0.17878158389237792,0.24900077026449435,0.10658260124320125,-0.2374657982034986,0.08209664639194622,-0.06616610816723621,-0.16443813617031885,-0.13068161294475092,0.1018847720784514,0.2857513087528982,-0.0719024249859606,-0.13556081363352399,-0.017031533442196944,-0.13109285160428139,-0.1732936681557721,-0.04715327642417218,0.17845677862343765,0.026348379509161926,-1.1175377719795128,0.16871344036202615,-0.10839187411533402,0.8291271635194309,0.08610607211373311,0.4287671407728933,0.21737975740999424,0.00521395668485164,0.19708383469178944,-0.09918731855487442,-0.3678635321869578,0.08872877549930734,-0.15546980733371477,-0.17110419932921314,-0.14745742879796134,-0.24221406277075386,-0.0449456660217105,-0.27533247505548564,-0.1838607180096217,-0.12285256314375953,0.1680627040695268,0.0011918263357007085,-0.3035431483965377,0.14319252697901624,-0.1571423235813303,-0.1690967915296285,-0.13483288315201591,-0.04239666115739259,-0.4408517481123739,0.3762741426078866,0.9120268104352774,0.011982872195816053,-0.1680285711318881,-0.6749168269565007,0.057072517261474956,-0.10370329804302486,-0.18407970238220986,0.07073910903078015,0.8228031498044437,0.18534141999363404,-1.0845357771873319,-1.6091931727245565,-0.03560730437215938,0.3734005562174715,-0.26213803093138033,0.03137020641549544,0.29734856390060593,0.1762759354907963,-0.08704944496716349,-0.09381653149032679,0.27073133903773444,0.4233325203177049,0.43570585002228346,-0.0166964756781258,-0.12616514197124648,0.11410401167982563,-0.10133886954032269,-0.30373121998102304,-0.11535787385214696,-0.1161447744967369,-0.19207315637498437,0.2680103474756449,-0.19079829402269916,-0.2643947697420735,-0.005238880442193474,-0.2359561037061903,-0.11840891367602825,0.057703306969527295,0.1971657916697922,0.05358091928436555,0.2633450956192711,-0.09068398440633371,-0.4800953685227807,-0.05690061751236503,-0.05594238085048083,0.00968164339171771,-0.27093060021636045,-0.20054186516445568,-0.06583687880067485,0.10073854917068711,-0.10364366540042155,-0.07609430008063775,-0.14987012362105942,0.4698305014522436,-0.19479714020837752,-0.02649922044239286,-0.11086026033485226,0.11759558331745025,0.15595381524190577,0.37619811508650547,-0.09135534393073316,0.22699917066972897,-0.037468213060541,0.1811927215910145,0.042619480964764436,0.021771992267228243,-0.1144816773468753,-0.11614011741096048,0.053980126904443454,0.26378563302146146,-0.07196206431737807,0.19442087620906204,0.042826612142265956,-0.5901903740665913,0.2592815069739589,-0.19173058445659144,-0.17390963992211225,-0.0333946755411162,-0.07236692488935738,0.15553167302222512,-0.22902234592872248,-0.12600249708819924,-0.019814992721204523,-0.15591996213854573,0.20228840017601424,0.14976451423012105,0.16716141183029518,0.032885367579749136,0.26705404349198075,0.05135320188661006,0.08218481729389547,0.021467233797527244,0.098418333819281,-0.09414778972869237,0.3640570259641827,0.04666418655215837,0.34514795689308797,-0.17336481430034867,0.37476571678005494,-0.3592971077186447,-0.08669212390558906,-0.23779612654092136,0.04156533894408637,-0.38046258032528313,0.07566334731644211,-0.3844936978750154,0.007414689859254075,-0.06487657029503174,0.22313542198163244,0.36041499539773564,-0.02405323466098019,0.19746910936924983,-0.051978770616712994,0.15632580908314256,0.13083777302007654,0.545730808833081,-0.24190521911927787,-0.11276774443705447,-0.31035460723568725,-0.2319040611310875,-0.3998106384306454,0.20305677123526814,-0.004707053299379968,-0.08011783097773516,0.006835689289058672,-0.2509757001836046,-0.249899502357123,-0.4315080233435248,-0.08273408500676449,0.1250344679954671,0.2931508796997665,0.35868501025441046,0.16910381173636163,0.004161058958652134,0.11789592019227411,0.15379191036765175,-0.12795083212927688,0.15251302003165784,-0.007423570463098692,-0.0529436981138322,0.024661902201358415,0.008180712126879666,-0.08352838152019941,0.2827030156185348,-0.007777685721984871,0.11813395821672626,-0.08190671695039137,0.1653537039052599,-0.1762925083422475,-0.0741867218508037,-0.08608195111814099,0.24074721215020656,-0.8282500310696219,-0.05082396325231803,0.12519204231159378,0.2590459157689165,0.1357442551978911,0.030493653887423495,-0.19994902337882073,-0.05534164634921649,-0.00079421964344802,-0.4498004986328315,0.02191801277412994,-0.18238833614600633,0.1734199649942261,0.06059353802927588,0.9446899024023423,-0.10927682110720777,-0.09659028526266963,-0.01463154283524861,-0.31212109561219925,0.27685956399463635,-0.19597905074412322,0.1500795658826786,-0.034670539529882964,0.28888000433752636,0.43719890732649364,1.184370727798698,-0.14656170926692758,-0.2361515363137699,0.06262727458947889,-0.20852730385305754,-0.026683354998462354,-0.0816288572110211,-0.28131769575375415,0.07514855693327638,0.47859757537070835,-0.14591142129804874,-0.20259282302668533,-0.5127163056537062,-0.07514823212214754,0.003803961111833943,0.5903311189406921,0.056247759132268225,0.13128222502532594,0.24159604348111874,-0.18263519463213235,-1.6601654097204017,0.25967083151884296,0.08589591684200609,0.0435340043443745,-0.147856054970349,-0.14895526119786737,0.6610822717777357,0.009589146824050543,0.04717663263515408,0.12272246477065399,-0.5517793676297359,-2.0584009304929114,0.06304838859231289,-0.01210833140472855,-0.10284199626158184,0.318077880993455,-0.03639773292553947,0.11672836534984604,0.1109993647680221,0.12504498086465393,0.18222236267255906,0.0327483702683693,0.177283176458533,0.10367671286471464,0.30393013949914915,0.10943714033065535,-1.8039325536428406,-0.27890136036156377,0.271617176354112,-0.5079238987099299,0.07586517369069484,0.46146110547136043,-0.19192127327987601,-0.13703848489446918,0.21447552832110697,0.34548271538496433,0.31695072031297555,-0.6244974438426607,0.16178488496005222,-0.3344122858755375,-0.2366356159668088,-0.02176847542481465,-0.057833292890699065,-0.17778251205476353,-0.2902063870109539,-0.09620265286226651,-0.1637871535734118,-0.22932402925547918,0.12674495993537013,0.3688056062406401,0.012605267205040457,0.21657997586141056,-0.6631393614292211,-0.05144964937013976,-0.12409526640933499,0.9173470103344628,0.02398271376066922,0.0493971592027601,-0.060460222954526174,0.3684228306031205,0.05280781906835982,0.07059260911736455,-0.09515103998187095,0.01650609690069419,-0.3199893622034852,-0.2414464588950612,-0.24244948577645253,-0.46501901018539293,0.061865064344150955,-0.5344049740226818,0.1455021858315414,0.05267855242464497,-0.22416735421053138,-0.29085715391720374,-0.10743313880425473,-0.19867174249727698,-0.18114394350675622,0.29447429571872097,0.3026106212936925,-0.02426442092840955,-0.10402883575531151,-0.27242693619445507,0.17276798111080316,-1.4875786874505463,-0.010701159369632673,0.1242856957816979,-0.2557939831139314,-0.5689628209295808,0.08382958599727629,-0.04945154169297098,0.1324331220279935,0.19594775878160398,-0.15808260630479984,-0.055594918013554,-0.14520983397708911,-0.004071108076133722,0.10234355899549259,-0.12691109602132247,-0.8061312511638357,-0.28358379409309864,-0.10056137295227223,0.07284137043881342,-0.20122412948207952,-0.2478849679805535,0.9383937078808666,-0.01393748627474594,-0.1728527017308532,0.20163194279983743,-0.14598436519794414,-0.24938139849357627,-0.12192148212103213,-0.2657621412088851,-0.0036583471103559563,0.03519023757210235,0.06953120893433398,0.1508270170537815,0.10136725049575665,-0.23466534970936906,0.15419951416530797,0.07895705899306925,0.06908680214793438,-0.25810026075238784,-0.07758381107147998,-0.09785575450323865,-0.5602477549563813,0.13541921925819975,0.20358297756347718,-0.12000369309373471,0.0789352353207179,0.09836503668347919,0.25050492772988914,-0.19307430666492156,-0.28287540820967516,-0.21772787639394742,-0.20178466359476627,-0.29490264438111113,0.16774713457525783,0.11569510563870267,0.7288691599065361,0.23055995145360914,-0.6913957380319837,-0.5238402551609095,-0.10360601904881295,0.2979988768080357,-0.1856128384939627,0.043161722036875586,-0.14911417821831824,-0.2523377846502109,-0.18802900073939205,0.07025212597219614,-0.09675587653462839,0.12077277815661147,0.26709577526972833,-0.06908931751285247,-0.33867529543324104,-0.24710414046384,0.115565395914482,0.051156549658525625,0.016765447191143514,0.10171226690081717,0.17115242506495554,0.0018922974127024775,0.2793315820314679,-0.5693172306721936,0.2009212952241793,0.06798489783453103,0.13050404390826756,-0.026997171428607587,0.32691462446575026,-0.06341454094443734,-0.07396647295009891,-0.08301129834272572,-0.1993264906016069,0.056132716301824676,0.33962975575231846,-0.06097177587011842,0.17674420359850343,-0.08494507008445383,-0.44534934784940194,-0.3301074914245632,0.2896545013611903,0.0115687003812294,-0.10536600251612475,0.22364451763979298,-0.34416545959666867,-0.18585746793641852,-0.1740684958777887,0.04132130779042911,-0.06978522945660665,-0.04947177420170702,0.04811162806023504,-0.3807675847757408,0.0843468177234801,0.06481550318497392,-0.21401119730086424,0.4006065151507304,0.2533970625506059,0.3629464220243211,-0.04159838286471372,-0.2814420019944021,0.19020228245297785,0.34656771421556176,-0.849962994697235,-0.1550905588048907,0.09100044425347523,-2.8789261085712377,0.2745763658585947,-0.18771349363012524,0.15574625469424314,0.3202214216893054,0.29815046153888947,-0.016640307040051698,-0.23547039932840824,-0.5429003178736846,0.36858904331789244,0.4944556811515625,-0.02602289031059936,-0.22318955531067922,0.2812361880886746,-0.4493898740994781,0.18381102246260153,0.09077242894600851,-0.059272674908501514,0.12290720470385721,-0.9694731554038465,0.16648602832472184,0.7961474540698921,-0.06380990337503745,-0.06534303174558788,-0.10792147521908095,-0.17413131747842397,-0.10751185396009753,0.019328229883253306,0.34267498178335076,0.2835269050225832,-0.19669710782673086,-0.551605509225143,-0.05517093657772504,0.24056507191634685,0.11924713265214884,0.2137234062376271,-0.023358216522091683,0.16334635017464577,0.27009171760948925,-0.16516334361651336,-0.17753854477071823,0.7240138600070467,-0.10505504400102907,-0.15253109670251688,0.19001111871068324,-0.02367288301095777,0.29362804368321566,-0.036160758953965616,0.18363766337781662,-0.28418084174117675,-0.22063285422845483,0.0835081862334885,-0.42155992417158333,-0.09709779572624402,-0.21991298924839814,0.07220985210918231,-0.16620913775640414,-0.14633638417830783,0.21998470867048497,0.058684618304915434,-0.12447521372711479,-0.06825084896433425,-0.14193927306824486,0.06981894969416501,-0.09516630478941114,0.18730756426364575,-0.2620070029806477,0.2138732026545657,0.1542450058439978,-0.017017599019341082,-0.01389229271378016,-0.21703695506568482,0.29916462598775634,0.061277780297888745,0.18903862025007548,-0.000376902997505827,0.09822372328142417,0.08108809779160307,-0.43416541433862654,0.27184087188486594,-0.2505869553298565,-0.6702596259295361,-0.2024850711623446,-0.3431565293819019,0.0028953904255345757,0.3863013858258943,0.09615513979388493,-0.3968961009078552,-0.6617032935789507,0.17056596490206843,0.20753435818435265,0.43714959701799677,-0.22419601340066234,-0.1254371111250775,0.45982962145477746,-0.06079620006386565,0.23167169956543868,0.15417567532669982,0.21125670802933733,-0.23545054827674888,-0.19454580392370474,-0.2097490444804755,-0.36271415982271105,0.25649043465167704,-0.13403671199820638,0.1823736795210579,-0.04964632039727552,-0.5543183249735498,0.34436625309023794,0.010454574498493534,0.29471678438834276,0.06523993797448002,0.04208983136392135,0.4250183320636092,-0.20100131005894636,-7.995866218557889,-0.2234280450072133,0.13427715098007575,-0.0697219491691453,0.5687231633573026,-0.0406988962249293,-0.04341293026898022,-0.14295296637415222,-0.01544274375494751,-0.2916121275757886,-0.08589408841249993,-0.7070972238234023,0.18981488320588596,0.17445285500246255,-0.12353330719813962,0.10066638369329245,-0.042157948822649755,-0.7395130717687357,0.5114397027300941,0.08230567907648165,0.04085017017614901,0.09236787035516042,0.15468320734639043,0.13763202732795995,0.11564887466513324,0.3179699657731749,0.22558077486462752,0.46209892801386143,-0.3015528452641872,0.32477203094081375,0.3675477614642469,-0.02848150637435869,-0.23722561593865107,0.06215234534312656,0.33495025067089085,-0.3378078195111619,0.03185258742321164,-0.38635438124959043,0.21098285897021948,0.12091118575927134,0.5752002703079818,-0.091027632278081,-0.11827349080268805,-0.23121228021442283,0.22395063692622497,-0.3517472987387691,0.22305703967300078,-0.1299134107444569,-0.010369708372159907,-0.4334690272305569,-0.14599160914608728,-0.2762319446268646,0.15450501458172694,-0.3485072931467809,-0.10466378068439129,-0.05462087524633637,-0.022405109217466263,-0.12067659192854509,-0.3793196416770854,-0.15984795083812844,-0.18852794098716572,-0.4034974662539848,-0.23654225341231574,-0.13540817022858145,-0.16168966984414962,-0.4056560762819235,-0.03362895630480057,-0.04148768331675065,0.5875832613267362,0.11399623501191725,-0.10689376584587397,-0.20420946301829138,0.15363254023531478,0.1190959960894652,-0.09923478087385815,0.12098473072463262,0.1582905512482024,-0.2904889809302742,0.06061361864706294,-0.5505168695582321,0.21605187329713824,0.28214794622765643,-0.10067458240876204,-0.019758841509536898,-0.2613249713865866,0.11398669727178462,-0.10771563266154213,-0.233234297601536,0.18784779836449314,-0.17698456981666053,0.02274779722531104,-0.1182686881687259,0.23215954387658314,0.12169309404695436,-0.20346631017761518,-0.007364987292951304,0.4308753786187209,0.45929401113405527,0.20514643539986716,-0.07117331435853697,-0.5809895689299285,0.07210808079562034,-0.08562161807677694,-0.1665140456221561,0.07888972004270849,-0.10083819703641873,0.07648100049042157,-0.03212070198484432,0.33034184555814144,-0.15696456362878622,-0.04621122214168931,0.49264305275212966,0.09751636864784537,-0.12625788828654436,-0.14094067264740204,0.3082152990183911,0.26765587523021633,-0.7901460539129868,0.12743452077683448,0.021487650896748634,0.8162335715878962,0.017827808270908768,-0.2410576832654237,0.17369813905238732,0.21458276392481193,-0.27895279559826885,-0.10056280121362818,0.14975769743430803,0.3004525611784892,0.012509069628490143,-0.519575192884665,-0.3125221815098542,0.34188926162935046,0.4416201350430093,0.05664598279190064,0.40022867690194686,-0.030383148928728065,0.09131245485323465,0.27777313583961916,0.07127923661951542,0.06810870151525045,-0.08853575349888344,0.2594079793575248,-0.036881210906232816,-0.040293943545926914,-0.021136058635436366,0.09005278698811846,0.2913366756263282,1.0063580926261835,0.2789492665032451,-0.34162678539558267,0.12248172944213329,0.33148054368094737,-0.47719726738939083,0.10605477037652865,-0.45440255726806444,0.019163086810023225,-0.2783213619809417,-0.25007231521082346,0.21941823956108575,0.2213362285802504,0.3365442496982339,0.19056021822102576,0.21133546124629635,-0.028035050313150067,-0.05388780200615986,0.12632868593239668,0.12605818607184835,-0.0931598296946324,-0.11603479185363547,0.018369947140413668,0.11240318033386498,-0.14199130574975197,-0.3049107267179886,1.1005038067011355,-0.03751736157706882,-0.1968172371367662,0.15423192519154127,0.07259394856820034,-0.010806691496543747,0.0024718036277454024,-0.060441044969963255,-0.2569201725531997,-0.26936028182249094,-0.0073597717346361195,2.292180448604652,0.150199128527146,-0.14599703173071293,0.20339694051294163,-0.09815801088883297,-0.22078617980379134,-0.18224217665543888,0.31389205769186007,-1.447545915886596,-0.29528336250916276,-0.08038054870882529,0.34463712035992755,0.023984681565605924,0.14760027118238725,-0.37234221910712695,0.039644475067749554,-0.1696502340852273,-0.060777310647307056,0.5842787754787252,-0.05636692446683281,0.04891212384098221,-0.10008568020754838,-0.11711260175670767,-0.5060853022424564,-0.22275214290456238,0.5449541610101588,-0.03133997927232815,-0.06382089472857384,-0.5149625393918291,-0.15720539934198555,-0.5018861557095271,0.24893023873531075,0.1459664158709589,0.43833657808446064,0.1344033816949767,-0.36651243382034554,-0.3736421481149913,-0.09527599247683768,0.35791482161392724,0.5776859668309177,-0.10980074775570127,-0.13956406287309508,0.07386710440984029,-0.16454299071627676,0.17606590555689475,0.08917984252673389,0.23502135659089507,-0.25189187237504357,-0.2049386324276875,-0.010432922830504211,-0.5739762619092463,0.020729409519639298,-0.08587557048855782,-0.037171313874457976,-0.025051076120558197,0.13763232275418943,-0.2657324434671586,-0.34239972853799805,0.1862271357485762,0.21002895091256818,-0.24867914214899525,0.7439688545262461,-0.039682149832785965,-0.07099295686786873,-0.016634591467370747,-0.025141607390637904,-0.8390890128096138,0.09285856371910563,0.21013323516698457,0.14885556292400004,-0.1771469740112358,-0.031189371324559654,-0.1260108816958397,-0.005407339833034233,0.20330327100828738,0.2569523131638521,-0.15707449682837238,-0.30414870494402824,0.23318797249132217,-0.01403367126933407,0.13782327669623928,0.055057691078280666,0.6302959909448953,-0.8945664821544862,-0.024179796607902482,0.047500665931953366,0.5089432785310708,0.19136838444497423,-0.36007997263981534,0.40170224633998525,-0.0331128522537776,-0.4836922281015448,-0.054545179063140894,-0.33596052799382475,0.6170725356064101,-0.08101149097621563,-1.6315227681533664,-0.4731312519532954,-0.289600680646124,0.8953978515303352,-0.4117630422743191,1.1825972632016413,0.19491351617412736,-0.02421828344314589,0.4865374925928032,-1.4110241101673453,0.4203377001229271,-0.32689922139059824,-1.0828501262401504,0.15383051607825754,-0.6039102472003617,-1.1333360824162786,0.14549359239585058,0.29156233840978263,0.19009131572880708,-0.3486595668495133,0.638743745928554,-0.009828344591120107,0.32257873684173355,0.023734178966859504,3.622988203981776,-0.09200894917790135,-0.03903054295778403,0.399790817535969,0.017236725726211422,0.3265617173247814,0.15931553657544567,-0.07122092335906115,0.06139493308097256,-0.2524252350499527,-0.04121452554700218,-0.12536817629528918,0.1639110255399525,0.13805745298710573,0.22751037824543893,-0.31443882241909016,0.27070855299644897,1.2151571956751017,0.006205678720584433,-0.3000378409728083,0.3211347560087913,-0.4271434874574625,0.10973030024626304,0.7661135105935162,-0.5933262213153944,0.09419326375330786,-0.26013923402340156,0.09968197256251336,0.20144011983575835,-0.140762393470624,0.10674442224136223,-0.046886371050977226,-0.01190645870384135,0.5389144057297569,0.23770730098049833,0.5251401225903906,-0.15635312472039883,-0.24330567265114436,0.08427700667565952,0.405649751529227,0.4217982898100158,-0.25364502697685304,-0.25130948139859216,-0.2034997413568564,0.278223406032914,0.18497277004102008,-0.13961941274943596,0.5397620527507648,0.1035914510987994,0.09946038779740903,-0.15883643442362735,-0.027407140203125135,-0.16077017604026025,0.3413038389408095,0.39349365093743355,-0.38336610481021915,-0.34549433616436914,0.23710564944532064,0.06301279026977391,0.07671269589197445,0.4996271072769135,-0.038332382579434846,0.1293643370439798,-0.10168531862718261,-0.07511843469468117,-0.8748418075166713,0.06164830511342835,0.29002876015534135,0.16481313970009712,-0.20353921049425655,-0.016546360884874427,-0.5106517440460729,0.07319204126416881,-0.003948380809767246,0.43954427160863674,0.08986293216400948,-0.04832768497892191,-0.10350846855780341,-0.23207748121062377,-0.004049726937227032,0.07116675193279128,-0.03148624302856096,0.019483256102370464,-0.6342977528447277,0.028200191422453752,-0.3870690286758497,-0.3786581445258028,0.0570768719564146,0.1861796714532031,-0.24801952418586076,-0.01410857151732004,0.6917207465873212,0.6431571402173611,-0.48756593140513593,-0.4925205707284375,-0.37910565327731716,-0.05792546212702531,0.0769085342875085,-0.09313547142503839,0.039984227040802185,0.05649440841098572,0.245049591075852,0.4978882509479656,0.15556667747089492,-0.002512709969672105,0.08813488829429336,0.0012717219130694425,0.2499947407563265,-0.23143661069619828,-0.06491621928282071,0.15895050884624157,0.23039174183944766,0.2212920325502869,-0.07624630013253408,0.14673507134690578,2.12299942850571,0.19002847687918606,-0.14733617088389997,-0.15008922482545173,-0.07456902722486837,0.18231342202774964,0.356374215703752,0.7672700830294976,0.2884379226767979,-0.1157043405314232,0.821786933254633,0.1188506133697265,0.40483668954142404,-0.14044480169216836,0.2860219485273774,-0.4154717055640936,-0.2189061464547022,-0.244837568719331,0.1408751366210261,0.2233509953159097,0.2744421453856741,0.12005398036744111,0.06577998299226889,-0.5992663573002858,-0.1453166865713606,0.17676771147803147,0.017767762772370296,0.11244972981096445,-0.06636598035347618,-0.0732342968922767,0.11663092211015744,-0.3937707708348387,0.333636560980637,0.0525760504611011,0.08798542313321461,0.08413139209826734,0.4668371106060797,-0.011738649752439469,0.07306916999489042,0.011057290948563434,0.5318778338584628,0.3830106670632036,-0.5258283958748896,0.3452180171521231,1.4868728725219051,-0.1735816096127301,-0.06777641704788828,-0.42838351423116866,-0.4793752567689674,0.244052271648554,-0.38254781921855513,0.010297877309762388,-0.10703639331703584,-0.005149367475166948,-0.2603978526382861,-0.1301384890612328,0.2064257997594474,-0.20212672240310914,-0.08723872797076003,0.3315337104228685,-0.289286283631391,0.5174638158712402,-1.012361561225134,-0.039392796738417335,0.028462014323122366,-0.07647859686749899,-0.07014932969028592,0.11006087035430123,0.29779739022239854,-0.13364182460437765,0.31088992545807403,0.2011858817728264,0.22064817879187834,0.1488298918713441,0.21572596845865713,0.19281290108502053,0.10684298734934958,-0.24252041211956948,-0.0017391682266703669,1.4278785715709104,0.1100996321045514,-0.03136655865215,-0.3202926921921862,-0.11462699355095689,0.23984184519931978,0.9674017139053427,0.17282089485852545,-0.048551371745087765,0.065375690950299,0.18993877983889854,0.03733186385760841,-0.03726684343112546,0.13133345003671718,0.21019843925076515,0.05792218039025705,-0.5068759218721509,-0.03555205863969038,0.22074500455368606,-0.15223504504455743,-0.04248417089669221,-0.5658117450290809,-0.11938280359401818,-0.20391187331284888,-0.1553949098650432,0.3882684231601213,0.007596104298811763,-0.1790588336896202,-0.15714104410939725,-0.09927863114373568,0.2669379790883697,0.12437501620382116,0.733017693915474,-0.026975140703064778,0.1457473730466972,-0.5668008072505575,-0.1637815084558499,0.27425350682703864,-0.1427667692289987,0.1243441810503378,0.2699936359082784,0.18610618977157206,-0.16420565526568484,0.25583502470785163,0.021331168380265664,0.030598221368227756,1.922797142434671,-0.06673609588460822,0.0067846331117753424,-0.24336957221525882,-0.08694056701681449,0.002499862421359715,-0.3021265318449886,0.4630714671130724,0.17437310329119812,0.9148833366403746,0.09528963104546556,-0.07649502244671545,0.059288588094875895,0.544539455072477,0.1907337346700006,0.21634490466954182,0.21811730159946172,0.012484898352926842,0.16618873602885134,0.5285153915022984,-0.11920063728763501,-0.06134974910082371,-0.11517673374846045,-0.16833452382533207,-0.038803377040224185,0.27572806580034875,0.17210947083830103,-0.00914626167251674,-0.13482419224148917,-0.38673640504024887,0.0009384913845304314,0.1189284303472453,1.2048206480640347,0.12475160130599423,-0.14763015304797514,0.18907519460044375,-0.01905018073982046,-0.1872878346191654,0.31121643617341793,0.017875279110086274,0.19057153585041084,-0.19991120050836078,-0.14762650520411966,0.00933405755925325,-0.1734168053280894,0.2385336761757474,-0.20266840104871103,-0.9384126746684622,-0.59510074649336,0.10695186367278103,0.6780557393652739,0.2688087911769146,-0.3084330781596854,-0.04590759034316068,0.23827492590608715,-0.09477851698853229,-0.19623675350947312,0.07055714457519018,0.07775501179095375,-0.2235741174059747,0.027005121898092448,-0.31300724710654537,-0.5462442202330081,0.23897107066507217,0.1664349329618913,0.04852144495336448,0.11287834428602699,-0.3484096021722409,0.10642040398276542,-0.30071324545509165,0.10803645361004405,0.1729687122748106,0.15242540911815092,0.49098377181579844,-0.08846314639613778,-0.07227776336452338,-0.07996625325823442,-0.009287982387122947,-0.3212663701871265,0.00557509804376935,-0.08405298160959822,0.09174208190777178,0.19874274248034765,-0.02737161869787318,-1.4908016328989862,-0.1939501337391658,0.056678404997295956,-0.008197235538199546,-0.09307227416377882,0.2966889290158843,-0.14547846757720392,-0.12194305400258647,0.06406776687069933,-0.4261557560573406,1.2121448590499146,0.015398260597167628,-0.06424538916662947,-0.13177449048397036,-0.1791517333588336,0.002699831833768055,-0.3465468203703949,0.30485772259394595,-0.10582323755376259,-0.3675041872986511,-0.09771978886640252,-0.7109160293777956,0.36213259690528066,0.0885356155006274,0.24163892175433493,0.2478512065791483,0.42686153427606105,-0.2279820455632918,-0.027158969401898412,-0.39599181778637627,-0.18088688327980876,0.7871516674180262,-0.011679253261738388,0.31891188355889516,0.07685396010872225,0.09534321287510195,-0.403964037940251,-0.18288248442162108,0.2052870400916802,0.08293659702892489,0.07997455301638444,-0.048847901556903946,-0.10097801837515606,-0.376661365952685,0.0919469875379857,0.02402229529710802,-0.18613423958347114,0.483255483174813,-0.015572634618833972,0.01573912831934551,0.21549903352631863,-0.18615030038615882,-0.30573113335785035,-0.477562578393724,-0.07637174934054176,-0.23555208098129157,0.014072731591016428,-0.11501029890568625,-0.3160241036516913,-0.010195067998129437,0.16961143573821325,-0.014140070972503454,0.17556366137602014,0.677719540463714,0.22821312383099554,-0.07192220643862665,0.15127606907845761,0.16732686888872966,-0.2837288045781785,0.2653918135235523,-0.19464349360770103,-0.2442943772185807,0.14535815679236216,-0.3018993825814058,0.1380535127862358,0.1791476071625649,0.5978636495039452,-0.2192591247821616,0.05276415278196252,0.21993766117708374,0.07979715071592706,-0.21888733121969128,-0.2274491465259121,-0.07166352704239881,0.12066123260595431,0.04560639765644297,-0.13953863625131604,0.5531627170451647,-0.37535142963089896,0.2261636046555448,-0.013667908890673007,-0.3392717106816013,0.3511366064818583,-0.15689117434652392,-0.23846294578027424,-0.07348088633440442,0.1104311029792645,0.20863753611540065,0.03733120477111107,0.014956541045447086,0.14942473234688122,0.38942971838067597,0.33740323414776324,0.23697395447330732,0.1574611305982126,-0.0705676458151058,0.2220500746006161,0.29161779059027193,0.08064134236762956,-0.022703824464183713,-0.050060021468519886,0.050518265229520964,-0.12604843805681884,0.316176522060423,0.05011235591329688,0.5234544561429187,0.2515042305356908,0.007681587453772995,-0.6308648593806827,0.20909612629154167,0.5624506824441882,0.013708225630585373,-0.30275244561472003,-0.3931439952781254,-0.08238438776717263,-0.03314437047523645,-0.48723535376645877,-0.7667193873205951,0.19212660647698915,0.27186833350248263,0.19443086781755456,0.002492505787775821,-1.1550469623079505,-5.0207272375381065,0.0399664130730679,-0.11479421138490913,-0.5176716674789321,-0.15255274778549904,-0.016652493836117405,0.10528075953120883,-0.07138406312451867,0.3071609620755965,0.32345230956099463,0.14433896262168622,-0.2671334105292951,-0.2381892576838964,0.13757668797965375,-0.20133887584504462,0.048583870935968616,-0.024428834909520875,-0.1282495801319785,0.028137192481909056,0.3333639671128977,-0.2545411952596452,0.27558444832471174,0.9764860750711536,-0.054451847646518156,-0.07967446090428688,0.053529181703390855,0.0798494320803914,-0.5968132370511648,-0.09376018461947863,-0.2476162400171334,-0.025654317735819644,-0.1746298099879798,0.05932760270146703,-0.2123873693985255,0.17878002900787043,0.14900604751480126,0.27099781297110825,-0.044003036260147795,-0.37101270791135293,0.3515289439247394,-0.1462521804315655,-0.034745426649226564,0.5037858886521424,0.0754046152646492,-0.046692709042228955,0.06938511390129862,0.1690710080363721,0.29289863355808954,-0.18597896707216527,-0.015756447597566076,-1.9872123037933307,-0.06272650426732702,0.14644690483362335,-0.2562410494464689,-0.24718526247218947,0.06676505641491623,0.7715377906626111,0.04088475723244828,0.015464769823062741,-0.8424745218141965,-0.2645065191207944,-0.735634625915315,-0.22123110542686353,0.26113268356347863,-0.2177816253395739,-0.041832270028041144,0.21722064625831172,0.2040426540841011,-0.027621361170164543,-0.006433615794246979,-1.2273690151320091,-0.13187685616748737,-0.03424392155350312,0.281312349446768,1.8293886057611308,0.1363955135372439,0.17450075429887255,0.2797143484129182,0.10438042926058301,-0.22087766574475715,-0.13369369098235673,-0.18431274262927994,-0.004712178006881072,-0.11436553276770046,0.6115021783783466,-0.03812013818245844,0.017108655559293126,-0.22634295000274693,1.0549462008407324,-0.22176005436993243,0.27720249172783645,0.004563070784624505,-0.026083198094865354,0.09799922447314492,0.04438891487646794,0.0580420588235676,-0.03643451393691634,-0.23176766368696264,0.42238468224059267,-0.16310304022333685,0.10550660363030426,-1.1387258176888717,-0.08201621454484263,0.07910707294480708,0.1328730776520332,0.15359653235707066,0.06201365727722718,0.48975243607843677,-0.9430246000373093,0.23206251943760375,0.07255888624097723,0.015227658876038497,-0.17331507145437128,0.2876581584910077,-0.33891555215876645,-0.02113206077194612,-0.17262391699079274,0.07213283025451689,0.8315916296295763,-0.45774995555498477,-0.20889271911943594,-0.1859798507170868,-0.2194052448278013,-0.17238586182596258,-0.05196114899902396,-0.256527613993978,0.07519832584475106,-0.2553218718370621,-0.06716394486996433,0.25849446813995797,0.10134380253205337,-1.4705073963238373,0.8849920655820318,-0.7068028535265165,-0.27567757872272824,0.4324113510966575,0.1967794668702143,-0.05569361860252302,-0.2472294077667474,0.03635403370139321,0.16986648073162236,-0.40455000263267826,-1.1552297041428212,0.10271366942005629,-0.30712420755669656,0.2928421389148549,-0.3557701251477203,-0.03253504251654346,0.2634750273655782,-0.09826485375772066,0.28569429093407644,0.14505295664900583,-0.22065825447774493,-0.17087016169340574,-0.3067592381766796,-0.38565989264392825,-0.20884842256280595,0.5705935384667203,0.13313834085096402,-0.39117520079143203,0.12509574961903375,-0.15048018539427963,0.15194172255322955,-0.00011456014204460046,-1.0677957238447702,-0.3418215121837504,0.044832669630553684,-0.29432114173427976,-0.06748508419775573,0.07185926689174482,-0.05695398029127302,-0.03079525903207042,0.06240524991897777,-0.0882486060453799,0.47994853593589676,0.03604565606983005,-0.003913724653417506,-0.11458443193012953,0.19993445741020024,0.31730957209582855,-0.064388527283112,-0.7031051794758941,-0.0032238558017565807,-0.1359786301823449,0.047781885611656284,0.24958318391240059,0.15690054765611736,0.2593137877245453,-0.049788292288425066,0.015388421029276799,-0.0721730146279467,-0.1438997437470326,-0.2624112209581734,-0.16806193446160136,2.2267310801880367,0.16065195089647946,0.25048845872286385,0.09108031950570891,-0.680323367635975,0.04300061271760475,-0.1605012516738362,-0.05032806200336941,-0.20015704201114715,0.08132990964099604,-0.38643207054302187,0.47687614111321636,-0.5618066827353316,-0.6447115716281699,0.1548476616142558,0.17169609376910697,0.5612390940986596,-0.47487827688158013,0.03360001860184513,0.14750271434460785,-0.031706075155622765,-0.04222192143196104,2.277967049604003,0.21199870961363268,0.08060497871029372,-0.5408138232326328,0.9289209582559581,-0.24081134576868524,-0.1928914571997155,0.27596897060149167,0.13914672040790424,0.21869641257116543,0.4466303928036211,0.9631104489449728,-0.013780403668849237,-0.20372816587150272,-0.5570418294373639,-0.3501902215040994,0.0024102696892013627,-0.05287617561526992,-0.05501726589187085,-0.4042904746730755,0.030954823143453124,0.3079627588011475,0.18506564932180583,0.25104924274544177,-0.0648527921278587,0.2908098739568496,-0.18646973000853098,0.9846105020894297,-0.28062882014325286,-0.16692239878357726,-0.13853663393369373,-0.6049096775583489,1.2110624412343511,-0.13521503672978813,0.01250041181281068,-0.0858810809788562,-0.3330096599840672,-0.09384731560534698,0.16661436315144776,0.8007708536404183,-1.7669928296971333,-0.2734367792712624,-0.07052545652498428,0.031743711270144116,-0.10735166578228006,0.030146988311960155,-0.14066395144908989,0.45458635794444124,0.20269534874691253,-0.05720848064330998,-0.1569498139674603,-0.14528802083119813,0.21771133246413232,0.23643273706871124,1.8557882048834209,-0.06383485847140058,0.16276518246913757,0.2923005911475125,1.4600213747397426,-0.3562149248288358,0.11590954490694297,-0.0691425216497363,0.10033947721347,0.21280123861507289,-0.08213686239339307,0.042866743411202585,-0.38326312031511667,0.2291429151707633,0.12811846454921255,-0.21781218421392395,0.23515611075828458,-2.428976755138229,0.2147284920894426,-0.08380501766545755,0.0035196503047146025,0.06946121771024981,0.6302925799787211,0.32570838689652426,-0.29349250795367643,0.049948703904827155,0.2702332573917026,0.18395563092384135,1.2146230605195418,-0.17371321870216425,0.8231780469612104,0.03460219739014711,0.25498504522514254,-0.5037323697221713,-0.12651487526713595,0.07420122345439072,0.4156106967249742,0.20893463887523933,0.11700512414022447,0.30805080949510644,-0.19334714646338277,-0.28336227593484564,0.44953576893006764,0.3950219047395566,0.08479040976008632,1.0170171013378877,0.22512378897702456,-1.0540467811354746,1.4013424009805708,0.76844984439011,0.4537155163923843,-0.07278823919260403,-0.1900549395242413,0.8968052224200311,0.7347594571628454,-0.06798895213638728,-0.05157686857780072,0.34212740414013393,0.6158418805518131,0.1789688803739754,0.2510797129908545,-0.3445918050590947,-0.08477612181371402,0.41605414756202946,-2.0081780206385105,-0.14859222815628997,-0.2496362376683202,0.07885825596862377,0.02614342434591018,0.13020036377866673,-0.6951867141809807,-1.3785499271152102,0.3059799177349875,-0.33086742667419594,0.10813149743597146,-0.18139719087838962,-0.1336036827898571,-0.05936980133702081,0.028386781010859338,0.10833900071292497,0.4493099775617086,0.4214237984295482,-0.005363455920375385,-0.11644350537839761,-0.4894197341796732,-0.2576542851264218,-0.16028838151174227,0.1913797377159954,-0.19031706434099185,-0.48252393802165156,-1.203631612929652,-0.5010910783567742,0.20194186906250616,-0.03138319126617678,-0.26261965194246073,0.03793964368978649,0.19547952712250283,0.07583849531672203,0.011560255929008124,-0.4478936705471403,-0.28314129119854237,-1.1362131149229107,-0.2608152999786305,-0.26679142945546164,0.2936758974460296,0.08882528048847693,-0.014003140745490798,0.0939805824314007,-0.23663931888400092,-0.24527747314100243,-0.17063363713558238,-0.8984044968615419,-0.41389436529127666,-0.06814998591360762,0.413037884697286,0.061306477882665814,-0.16696053007219175,0.7120897267487654,0.3950383412356585,0.06362599489344607,-0.2538043168376631,-0.17334152508462117,-0.05105028736058223,0.43493736088644075,0.4178905061958151,-0.30090699941967514,0.0826833342921848,0.011825501374113177,-0.03872444160396451,-0.4594375159663538,0.05378236896001967,0.132309177675728,-0.20795219821554886,0.17152901319059646,-0.5333813447806045,0.1842960180752141,0.03812851240244655,0.18276436105549557,0.22922469296874462,-0.13926226511017573,0.0988508218966512,-0.5476351708324909,-0.23637082760487485,-0.004877268435806982,0.1574112813115363,0.2676830354608419,0.19394270147321327,0.1502562809253346,0.10718311680783156,0.2914390711360226,0.20257182065255894,0.009037435637091076,0.27963642732902233,-0.07512257478719558,0.185196040712407,-0.8811836684453059,0.14335785054945413,0.007668381191753618,-0.716517750991976,-0.004034925289550579,-0.005534519661733356,0.26114208574145814,-0.0029053329520001914,-0.08622040349766733,-0.19756021080409095,0.06510110018874801,-0.16042041062242743,-0.044122930150327755,0.21882407698613385,0.24599811683348013,-0.13759183300099226,-0.18231660083069387,-0.0716233221134002,0.18391089250221102,-0.08764181046808975,0.41506579983029046,-0.2724961610472085,-0.22860506681575984,0.006421917366909554,0.16929970633375874,-0.2124841516963843,-0.10388918209961466,0.006840891857267004,-0.2164978720666916,0.2970804592308348,0.11003008060982053,0.21349263266123183,-0.08545646628897216,0.2737661793541493,0.03039473618359797,0.13167174194816042,0.16892807213536726,-0.017469420892956767,-0.2923760649332367,-4.750372728843504,-0.2962804748109989,-0.13765159650674255,0.08110754263454846,-0.28127381978326144,-0.2182664651396128,-0.11190505185430152,0.12648519758788815,-0.20486680278415526,-0.04717864508129875,-0.5034362218739151,-0.20494386001536005,0.0671666815262518,0.15539164791933827,-0.7059320642856479,-0.05482726398647711,0.1769935386201345,0.25739135872806324,-0.26115427730468105,-0.5977006603419259,0.1708555755606307,-0.41418276086218175,0.6850277790860281,0.0016463385251826671,0.19608220955006592,1.0048251659854504,0.44677175562430793,0.034446882021031064,-0.1640573500968799,-0.039645583637411816,0.18645909222167462,0.0044768594755218855,0.17170833679548783,-0.6964856747697247,-0.03434832515285005,0.2536622960728246,0.02232116191655282,0.4467465822294172,0.20520244269311932,-0.11332141699245066,0.1509752909621609,-0.42061561790380175,-0.2836204980297312,0.06905572015058231,0.2144213020034315,-0.07593213387052639,0.38298621459002313,0.14603805430843392,-0.30093500565959086,0.23236269243245913,-0.07739954602452667,0.06679449142668764,0.14770270678102237,-0.16076071416233836,0.010677618013085555,0.47883436322139694,-1.1576279733290058,0.12625247169527026,0.33731093133197143,0.00825185699130845,-0.3088931000664244,-1.0050901820572031,-0.03266841500928905,0.5691618323253587,0.21100798746528732,-0.28686525729356416,-1.0412791585805525,0.45001216725131654,-0.13676970278973402,-0.09574711860623988,0.7280199054595304,0.08479242276389612,0.37154885454293846,0.10549258837635009,-0.03959487645005026,0.7741967208409173,-0.4095970850002475,-0.36853129196374557,0.1765682964968426,-0.04326499007458238,-0.13041174237968503,-0.5687739872157297,-0.5124812846543187,0.11018391091417355,0.22150842304383184,-0.2736758473422359,-0.2820634757913819,0.5730822884328198,1.2365136952485487,0.4297354077174719,-0.003010586310805943,-0.09656242017279527,-0.1468446185362929,-2.74558745233145,0.14563945440301831,0.1047010681520131,0.05731335506478584,-0.12493785154992954,0.04436810997749413,-0.44182823334796884,-0.2270725308761276,0.291271352435671,-0.1332150232927231,-0.4146810213536038,-0.55188174290624,0.09179214308303786,0.08205397625491453,0.14701119740997773,0.24656033872322244,-0.29687479981983,-0.10363781832758538,0.16632051943869394,0.1509659754999865,-0.19004928542701396,-0.1983077499460978,0.22836728964455608,-0.8180878889402039,-0.03132127224952352,0.14873486301061573,-0.13705195676208928,-1.910248977414571,0.38677083077431884,0.23214939881875418,-0.1663534168430654,-0.07915000621295935,-0.09474563172303563,-0.02920179371315328,-0.07189744854463566,0.333589376793079,0.12298032818548844,-0.050729030460529095,0.15393503690238283,0.016491359414410555,0.24029854076020504,-0.24414306853791876,0.006845009340335915,-0.3800586744519835,0.05494342531903319,0.19230083842620507,-0.19876647385502896,0.20882833272380594,0.35464448138908383,0.04024925066230989,-0.19650170368222877,-0.14898068470177556,-0.36684901649143836,0.2345706348369589,0.24437240791960202,0.04257836506910545,-0.0830019064923222,0.28626113255737384,0.07939223615609962,-0.03349412002030956,0.13894097547459694,-0.21404012495981026,0.5814748447016493,-0.22804610200221245,-0.19277686570416905,0.13539623184443803,-0.015215246131586826,-0.25734760985056904,0.033729572732289076,0.40428831729334874,-0.17307541734037027,-0.013312784148129815,0.016461858911668938,-0.3124175201820982,0.014599328760369703,-0.11286479031832737,-0.8185773433088451,0.08168643259862453,-0.06041917867976469,0.19617784154135617,0.5999993415650954,0.36341964500949286,0.06610394833835893,0.29013906578324566,-0.021802180862497814,0.09004190959917387,0.23958012192408623,0.0954306667244711,-0.13745215149965181,-0.11384860962545008,0.25696102223673034,0.23912682449989797,0.004769671207723444,0.4106830291912361,0.3130118603575,-0.1806349234203328,-0.18356916477031812,-0.061009936653320836,0.9396725863972404,-0.3000276574078755,-0.13269794700856083,0.2366787244540907,0.45637178955354774,0.4085463974767303,-0.1902110010747187,-0.0835295992093736,-0.19035842199281572,-0.23258031465836373,-0.14040145665613118,-0.2005837043921583,-0.06943541743279892,0.10694578426640222,-0.11405547890006595,-0.11844304768043777,-0.031859185179708246,2.9676509972500327,0.1970141483788865,0.1284005128706,0.4042672827223889,-0.16460968866298084,0.11002701812920695,0.02447723664634064,-0.18166250532726233,-0.28149455622479314,1.0279666408087271,-0.2857480459794429,1.9920171410296577,0.5846404445501954,0.3107380468180284,-0.05814270553370205,0.8842912565781234,0.21521366882339774,-0.01265416681781523,-0.04547863381360771,1.1425684624322385,-0.5685942509665922,0.017496294071692356,0.073352686600443,0.01835546556424179,0.22226727963369897,-0.1907357022900855,-0.2228499275419943,0.03661196474295579,0.27559770659513677,-0.027021334744761923,0.25170888728572877,-0.149351993540111,-0.22069383570043166,0.24496487061438185,-0.28019372374894186,-0.051232046531284985,-0.17252463964212106,0.5064656652934079,-0.2367813552421087,0.2790911026046111,-0.21201212820204968,-0.020902749321694492,-0.48336234335845973,0.15787229288481827,-0.02047214676515201,-0.019511355808670017,-0.012356068501849027,0.14547714262084513,-0.016495533412924087,0.08030011176888956,0.05122060244529669,0.12200668381839164,-0.39377549429205855,0.1670098832205642,0.3521767257616952,0.11625903961066356,0.10104791333930696,-0.15671276836476097,0.07986748076060463,0.1565451096476158,0.09705164260055785,0.12297685989579396,-0.862519338563333,0.17929103103355082,0.10277669984006785,-0.38884151542851964,-0.29002307383308495,-0.021786973545834656,0.20350762762392977,0.1583515697603745,0.2686522692615714,0.24260285298654607,0.5749502190833577,0.19640223546581206,-0.4766529716246017,-0.2316754523040001,0.0010025411784838865,-0.8018914027044849,-0.22326271400385986,0.8109628928533597,-0.8343748623170708,0.32557069817604106,1.2140511080819136,-0.04225795796080199,0.11305148116404584,0.9195415990545243,0.33444315699784494,0.21783491255404103,-0.0574096620534517,0.3745534931996072,1.5171151272810661,-0.3342791403861185,0.06609852769798219,-0.31463884809682524,-0.17695475755011214,0.7189163458499579,-0.6182618098181006,0.021451537687147686,-0.17738497162267047,-0.1299359464425342,0.059335244103301765,0.3852910143236972,-0.13121727614556214,-0.036340740722175274,0.37423550238506276,-0.26728383302179454,0.07304537574493912,-0.1828446855093115,-0.1480155564438379,-0.38827602908704084,0.19904203824881933,0.16800121888701622,0.23737914758343684,0.6035334572654105,-0.026105691016544738,0.27687624564217,-0.4447149491708384,0.2685699324926486,0.20715273927972824,0.14832834994699953,-0.24132696426293587,-0.3723159079875892,0.340097473166883,-0.2326140927242939,0.42363990380918376,-0.12477669134778369,-0.44218644608647634,0.4446607356660152,0.2068176879911547,-0.346319627073138,0.031466188994282496,2.853653951575209,0.1573511953655254,2.02320116787609,1.4983173256334148,-0.9349087649223481,0.49982985721801854,1.3886501126902984,-0.10580543611501064,0.283999455681043,-0.27921183786864506,-0.2425669523322288,-0.25798923244646976,-0.9670428013128739,-0.2912765416278538,0.04346311241386444,0.11326047741352206,-0.42948500742649154,-0.3323316199898342,0.28740419880574974,-0.08482652086943915,0.023143511212133976,0.1837034410295703,-0.29668315738113343,-0.19714826179878078,1.1745019464801287,0.18899521793684018,-0.23732037329529543,0.3377750331268822,0.14977698787392846,0.35569980233905174,-0.14562556366887192,-0.38971547851397526,0.029757738862579725,-0.10693298908479813,-0.15195267280152877,-0.45728699995835353,0.596544539779245,-0.09930402412897296,-0.44809657920271706,0.7023913814060737,0.19304029065812436,1.2795065196487307,-1.0309508641845557,-0.40695825739911706,-16.281466556579733,0.006336348379505745,0.05190002084814939,0.130058195567203,0.18797609429104364,0.2722431686318271,-0.1397812952969577,0.29152913320413965,-0.08403973702963177,-0.42694295548658107,-0.17280569296292814,-0.2442641493949375,0.1682266264090436,0.19923750585784625,-0.050648041859656115,0.04784437284152949,0.9214811337765383,-0.09339919757789128,-0.07071759544072026,-0.09690330705900319,0.14700961019209802,0.3367040353564082,0.10128632416366593,0.19734148434023832,-0.06322251652693511,0.224085688713661,-0.05970834718136599,0.0972984603863378,0.21005673541847322,-6.305620270241939,0.2733749539286497,0.2135565605635226,-0.023740464229932326,0.3755708210820683,-0.5493794280074056,-0.10445136020757713,0.16926149179818653,-0.07359997187195388,-0.3713441250377337,-1.8861895338249413,0.20066881311502707,-0.0037742159348638825,0.8420086434509565,0.061858843503135,-0.055667919071945286,0.08787651898727003,-0.011605016211640954,-0.19536673584993536,-0.027608635029368604,0.007661899769859218,1.4360295934132206,0.10353877998530817,-0.08449837766214495,-1.7088901002664467,-0.06472001176829634,0.13173335828765292,-0.06532187595106717,0.6681147891959912,-0.20284938746949255,-0.1002243459708537,-0.2263566464288269,-0.6342128154358478,-0.3373242400106426,0.008064174687513827,-0.11559592450196841,-0.49767945209237063,0.09049287054757071,0.11395208349205307,-0.8834290517349901,0.5280519886080718,2.7676983518521983,-0.003093119565171722,-0.28672375975558645,-0.26218491480044154,-0.035246499352075425,-0.17448330944131005,0.32431476795322256,-0.39098993796664316,0.16000778653571812,-0.00992483458506761,0.1432274461837155,-0.1363983735711639,0.21301917360851907,0.2515582188602656,0.054956687139124605,-0.3595666732277845,0.27272536818659643,0.2268866641931591,-0.061599869578956544,-0.051499524363719865,0.17936550908036264,-0.24603052576835407,-0.08105059484225179,0.23808244812209725,-0.2272744172514264,0.03971577020154826,-0.05621745255176905,-0.24610765682477348,-0.5670623472966442,-0.3338660976982428,-0.08971549038558845,0.1791927241149824,0.5605880702264698,-0.49919736511991,-0.36170172086137037,0.20296401510680245,-0.7374638002040442,0.037214455494630844,-0.09791502072020439,0.5605427804846901,-0.16605160318558862,0.22403701728150338,0.1723143660223775,-0.11004388195096071,0.06079207148736675,-0.2103527952014599,0.1182650850075482,-0.010584882518957298,0.29319546354418086,0.021307254532811903,-0.04713367381731408,-0.03684908325768888,-0.04700490839979492,-0.12256694573307386,-0.04857028334263968,-0.33008584298080146,-0.015869394028620025,-0.2518403166782862,0.10202246490517668,-0.2319647419860121,-0.012548086943932755,-0.18050491980446273,-0.020218626461548324,0.007924322868733505,-0.1142935083972937,0.3259509774022547,0.09649155876571176,0.11276464289525753,1.0717499969286481,-0.05065685290646367,-0.018718572362162896,0.2155669401013556,0.6150036337310575,0.5748529684970892,-0.15224258600255308,-0.19816417364467448,0.18954185070268975,0.2134472654374227,-0.42668831748513564,0.07936349213629483,0.000990447892838239,0.19489216510172608,0.18266074408390282,0.32515083408850975,-0.02823434802190573,-0.20521275441678297,-0.2361950489471352,0.6431441290231831,0.19305061429677078,-0.06905195944518593,0.012715901991427483,1.4841556554432256,-0.5441254398920199,-0.5903347297430855,-0.1556235498723457,0.25396594727204286,0.3703858173371678,0.029740873266678305,0.0847392128013607,0.23285558079534488,0.036366233651046485,-0.08982692156178974,0.4522774432229695,-0.08249801514401499,-0.21686899185769298,-0.1995962606512551,-0.2874429870726185,0.28081667841300456,0.20935319258272403,0.011914463151432731,-0.41725191109376963,0.17793689489281508,-0.06981759449517516,-0.029695372568584188,0.09972923549464628,0.014859505229195841,0.11885433251586347,0.10990548022587876,0.20748771432750612,-0.2206796230606736,0.43323980788101235,-0.38884211030949245,-0.15957770733904816,0.17251207320122391,0.3975083200572423,-0.18446055459627722,0.21089874255138966,0.5522122545616468,0.20966891118388895,0.2442853986261229,0.263615388841638,0.056228112884004915,-0.04325511199911661,-0.2295978089454676,-0.1294287149381147,-0.6892729494927806,0.07910571215494985,0.16337609313643092,0.1679440599875899,-1.4224882442783287,0.21246581519681484,-0.2889975633598993,0.12369845022778392,-0.1733127306601131,0.10290796105992223,-0.1597601220624184,-0.23044628815387022,0.311071493626288,0.038982479795512136,0.09780141867923771,-1.120366333038078,-0.1438631570460379,-0.10485996797871748,-0.3919434458431595,0.4151083017101842,0.3677732364846412,-0.3735691819030207,-0.6330042311968337,-0.006575267052514183,0.3080394947380711,0.04332148019597047,0.11142792741001814,-0.03824555704142164,0.07722280914199883,-0.05173757382827593,-0.013327602394716385,-1.4160911586685918,0.5183909720142059,0.0014353120684433497,-0.48393988736402993,-0.9412313120519558,-0.22725921424261117,0.5017025901219243,0.14377327111091323,0.2848919453232996,0.6913622110621078,-0.3369864657183534,-0.4223738749617368,0.2437649495259022,0.1574668690048306,0.10750976060228663,-0.31843035130714537,-0.43221840284604457,-2.8345345300445564,-0.2134746379207075,0.0029041719042266095,0.4193062309227931,2.166474025102661,0.15864778568016277,0.1007047917258857,0.28111719827528275,-0.07837170204114755,0.07617565180531075,-0.8396588981766805,0.3202588063774141,-0.35194233351304116,0.007291634645584931,-0.1385444568063395,-0.0126175289796353,-0.14710776073557943,0.3170744135289702,-0.30211709012960203,-0.04227122080539916,-0.05594147117771823,0.11506936447922725,-1.3054011950423479,-0.45879727215956956,-0.07349529461062189,-0.4072428110721068,0.946379804359869,-0.4816464321388617,-0.06046941519575558,-0.035999088472965804,0.2966242064813141,-0.34349243375861965,-0.11763911422647867,0.2872639774104927,0.3666902509765702,0.7709291370943105,-0.41385191609661054,0.03783789229978984,-0.08125589016057266,-0.46373334983237374,0.022509270842443734,-0.07510298144004598,0.252752357298593,0.028790911823821843,0.25830750604304964,0.12798282349814402,-0.058916498652080956,1.542706041885372,0.11205382745649752,0.21270719108681632,-0.44332092509771526,-0.017424771346865254,3.4127156939845453,0.2918578713034915,0.2527413174604968,-0.0964945920514772,0.2325837195462248,-0.09336949468679964,0.11639077719583522,0.04261300763134582,-1.0060095696165439,-0.4295565744722314,-0.2850667391964471,0.2066646428142219,-0.27765379748032604,-0.1402536797620105,-0.0511244582629412,0.8163420622234129,-0.05506433401106885,-0.7228489047138047,0.009828066506321414,0.14898662277566288,-0.43826901214398856,0.14295417384484455,0.541450281295249,-0.07919278784463155,-0.1206562294976953,0.09317304630951016,-0.0897094583305942,0.07191060654342464,-0.22411444690205148,-0.07599799865116155,-0.4405611787580347,-0.058055500011784375,0.2106636247595652,0.17510774995229833,-0.23475444694365225,0.18420411969948647,1.2311036413113141,0.09209634580759671,0.13505613835852623,-0.13353526828847964,0.3989718466594667,-0.008297707494758857,0.31251521583669006,-0.2473981065756661,-0.32989507358418313,0.08366802997397495,0.03819381027700096,0.17521467792255194,-0.2696144486472154,0.04302549898275108,0.22757290652161505,-0.1524134829574492,-0.0070411237902555926,0.9657827305184393,0.23524765805105818,0.17057446762263234,-0.2508417579559269,0.14170281870101215,-0.09573969090798849,0.18837223057481137,-0.835660602664391,-0.21416516156813056,-0.1733202723688944,-0.05373440356803666,-0.11171069124780252,1.515232159252714,-0.049520938083522155,0.024515981778411414,-0.272965028555569,0.060005996336891965,-1.5259910802095094,-0.0845438553942245,-0.16191370120138962,-0.458543618515699,0.24208485969105983,0.6383654161033273,0.2313417002683081,0.42352731061638127,0.15975622491375988,0.038230389036030134,0.2044462533406343,-0.031987717171209545,-0.422153631889427,-0.23396370692054227,-0.06739943369426735,-0.13408068404023352,-0.14569169664179368,0.10304355197814896,-0.013635156876967683,-0.180807473792687,-0.056307475485198016,0.13320053910748095,-0.2403258377623326,-0.05587192610034733,0.131269869491592,0.2905795039371,-0.2624163617299413,-0.6549455700021606,0.5491375237941111,-0.13466969574194806,-0.18904728088755396,0.34804881764801565,0.08216497132836097,0.3048522140695129,0.41880850473770254,-0.49090983569041663,-1.0180547320485973,0.4529015498562232,0.8210390033332101,0.10600056333490575,-0.2048668462636223,-0.18757140748715131,-0.3685009205511273,0.322887413844568,-0.028637031217409396,0.15675688509380795,-0.10548935419925377,-0.1680821682770242,-0.4334319520376967,-0.26326523959981635,-0.025908623567773587,0.1166586898281088,0.011369010996555403,-0.21669566784741595,-0.21654084307518023,-0.005609711325709866,-0.16181424480731638,0.024498896610177002,0.38776200944228584,-0.3814368497632385,0.14072598844151465,0.08759610326202219,0.35272267693743947,0.46563543734562896,7.978116643868166,0.07549996922913839,0.0679844801597601,0.04045666941278982,-0.06104377468309087,0.26415363969065403,0.15021056925461493,-0.07850815843799673,-0.03277710884376771,-0.16247160678766515,0.8556940298606462,-0.13189244802837796,-0.0018355630326551188,-0.001385137509555451,0.1970138286178971,0.024207044463776018,-0.22572417195134575,-0.08938164451146574,-0.23191919010585818,0.10830214024667946,-0.025197368438186298,-0.006370393704183562,-0.18549400110860378,0.9448543420310445,-0.1353010339296951,0.5626025254694541,-2.2410638085970653,0.7595957846038804,-0.00768459112831686,-0.20133974243573705,0.8136525315632623,0.4984510739937961,-0.0026114058828416043,-0.3538192791760855,-0.17154274998478142,-0.17897296346109304,0.17785208755269669,0.10757427133094356,0.1374364782095498,-0.009251560446953251,0.0020381201732812167,0.1416751710615109,0.07862759290069905,-0.014329466374519548,1.0133316787762323,0.38310098373387363,0.07924966654475385,0.08662859430836793,0.11633578045371915,0.4540558563563888,-1.5406477812741506,-0.11710682535809407,-0.05422426720287504,0.32075529391077867,-0.0637274004699971,-0.14812287662994064,0.06384942052553422,-0.45847431089708873,-0.28271339536593637,0.24496469525765097,-0.6656968257361655,-0.8381204416445966,-0.07350766828749075,-0.0103475615765889,0.24968983178951407,0.6125039243871983,0.24707414578613132,-0.3720571527616447,-0.2839058132748443,0.08460735728996412,0.0963062334322389,0.09944382153945039,0.09452268743548867,0.005189109557047723,0.41955367451947034,-0.3456011506194139,-0.5669269722666636,-0.04317877132509274,0.7537154580219336,-0.03093675421738018,-0.3395293250156889,0.8776177105826785,0.2663722479685541,0.18503281540319316,-0.19844878554690493,0.13797477356726154,-0.46894039132251986,-0.18607340970173253,-0.08422381222522368,-0.0013457986775103643,-0.2059406148930617,0.134123321959028,-0.25952410011438065,0.27169488552660465,-0.29700313685184143,0.0492893600807757,0.333218127645224,0.8731571815805301,-0.35807102620064785,-0.16381658676037544,0.0743258103982377,0.010102728181702238,0.22217478548767217,0.0644863486467095,-0.25576170362307127,0.017728422420656902,-0.40047146187886823,-0.5200079206219335,-0.15336692405734348,0.21956187466039376,0.23586591822568195,-0.03385688824183779,-0.07679552086299447,0.23612109292825345,0.1612335227362206,-0.11318223726259977,0.03418896403410131,0.018549486866500348,-0.06348625436405188,-0.09761353368309239,0.19449329598743823,-0.7167142538612803,-0.047960603968549904,-0.0519421806825047,-0.07407465585214248,-0.2268550286436626,0.14109973432891285,0.16882990919356944,0.4684091974899021,0.020766387230753733,-0.18602407798325596,0.17218392798074464,-0.004873372384287919,-0.1710540546535193,-0.22351506989684994,0.5352780597871408,-0.3364303551567813,0.01676443059221469,-0.09770708193553593,0.21036791109944905,0.17188950792554805,-0.17529629587531928,0.21506876435911274,0.07834232458909789,-0.11445483956226937,-0.3229106110125852,-0.16406749448413957,-0.11696069826354866,0.2918472364072464,-0.3813266411246631,0.06027489353518879,-0.3803436902181127,-0.08239776092759525,-0.41750253905494494,-0.018055218823759815,0.31010580635852075,-0.09450538080041958,-0.18975007161436586,0.15337112630839442,0.2585445533410153,-0.05832408524029456,0.10937018270877373,-0.30279861976047945,-0.019916734480173785,-0.07382287604099919,0.011576368510264234,0.09108145276593635,0.2093641394223175,-0.6915995529105647,0.13630337181375748,-0.1109943407795063,-0.2377212382425032,-0.5648770795643585,-0.2664190518711899,0.06783862799158628,-0.13680506873585765,0.35835265531394916,-0.15618995986221107,-0.7780720312185938,0.08857268216172381,-0.00003976703833434363,0.017729665056068048,0.20317095463212975,-0.027569948849590017,0.1755176036841748,0.03309808690041177,0.2580810241340108,-0.0023171076006047713,0.05377166139021915,-0.3206524770711493,-0.08295385431170418,-0.18357122221950709,0.1679425962759072,0.03654312205118808,-0.07909352660589547,0.2068984564605559,-0.10125746094135367,0.0873305565365836,0.6763340779323503,-0.1144366477999429,-0.12168489559106431,-0.2719969130130892,0.005864101544944409,-0.09254158078053165,-0.13387847315362256,-0.19666392201209418,0.26171170853344716,-0.39308268856726486,0.14873315035680876,-0.31273596338189197,0.7420830006605349,0.17467006316053804,-0.25150663165383164,-0.023358723482912916,0.1476276581047652,-0.5463876829643263,-0.2181322606322961,-0.05363256635478847,-0.17101691163528704,0.38936576099420367,0.7609019989830348,0.20409360184995592,0.6101406523712845,1.0644054536399794,0.38536533074162027,-0.20189761161720796,-0.2097715751991852,0.00013136324685717555,-0.027706542057751343,0.18555671687237174,-0.25864908570768047,-0.49159363731443095,0.2732511515048911,0.01222033269291722,-0.5492698528934878,-0.2782193164005977,-0.15010204924446421,-0.4716924763819901,0.22568968901707656,-0.1871816768026717,0.5560130105926999,-0.22030084019111987,-0.243181089449873,0.5437362614306012,-0.26506490705448965,-0.023518576357510618,0.15205911238922096,-0.15110197465027156,-0.5969702718081125,0.3748147200416798,-0.11141464865108983,1.2288927026804635,0.13246921274481777,0.6368210037786852,-0.3317749288860192,-0.13195413460570393,0.12898844265628542,0.05577093921448842,-0.002157814567771423,0.15044486601390325,0.1061730265121626,-0.20715722292769795,0.34466308989285444,0.6561216804578958,-0.351421638008109,-0.08648832432459619,-0.0640789734439974,-0.08834903648227035,-0.7617816204105338,0.23551042354873314,-0.35972869049125966,0.23340502686701353,-0.21570631794823406,0.13188563867634662,-0.3484322423727974,0.33741267825042714,0.24537064546365903,-0.43334730205293714,-1.2454347207529648,0.1100545336768833,-0.11074449154084459,-0.16146951409766733,-0.0058986767071771695,-0.09526908240129608,0.2734803658615783,0.2773001765188232,-0.19077315069102294,0.0998164644907085,-0.07303579607194798,-0.0849686516360905,0.08651179118385431,0.0666294774454379,-0.32444496485066543,0.10557203217506546,0.00995745484905536,0.16964414710890868,-0.05267232099697484,-0.16963380616243898,-0.022926301808234763,-0.15813471148937036,-0.3784264104297952,-0.501233076513966,-0.5409471117101923,-0.07687228711430737,-0.23841896470719093,-0.055698010519103315,0.14460672840969466,-0.2566122883260514,-0.020231694655508867,0.15635276482487317,0.17594196646026455,0.31439348079510826,-0.5086159789179762,-1.4092695105480078,0.014007114539502477,0.338766081112873,0.3772725207214085,-0.05643999598776519,-0.12425277658466014,-0.2423008197794101,-0.039584628648636835,-0.2624256352080321,0.08015346461959569,0.07317619095009831,0.17369232731909584,-1.0330817267016246,0.11698872727750867,-0.2989438994304943,-0.2876972346813988,-0.24655581766329585,-0.08715738684716959,1.25482117242173,0.1241898708235015,0.05550113406059437,-0.010331314926613265,0.10913101182809395,-0.1777515629913691,0.06008806133168532,0.33228626545232687,0.1300500515704257,-0.12060041345767307,-0.31360575032754,0.5228483306633565,-0.3819668406557817,-0.17314586337446627,-0.28290022459072234,0.4835039040171242,0.3100391182646829,-0.2926836050642753,0.3069914145218876,-0.18372071396074582,-0.2580293710493288,0.2626861682479211,0.013449361920772417,0.006585082925278759,-0.30577319277284154,0.38453047925892714,-0.24975204825975533,-0.19597252305392648,-0.11187756645754315,-0.17477191119583108,-0.7950081083739631,-0.046733048417666775,0.009052810754980887,-0.2013106096296927,-0.025097934824849347,-0.22800113471665767,-0.042968013682154166,0.08072993906875342,-0.10449135159609571,0.06470763753812113,-0.22088299913072207,0.11145629953573916,0.14381539181713973,-0.11803781712186726,-0.8574420031699087,-0.3367235653110884,0.5072854046938228,-0.06686612767004942,0.3286678459568181,0.3899224781024928,0.1608959191706844,-0.12549034479497004,0.12119194752190979,-0.16955545309124742,-0.06098802582718428,-0.22845737678744688,0.2689271477236208,-0.027665675480437357,-0.06525089614871206,-0.09870250523337969,0.39801028587722614,-0.2377693180027985,0.02860950966177344,-0.027496359751336522,0.007216000855047816,-0.3259868816028903,0.13089271325153018,0.18276008135165983,-0.19614100533677728,-0.21423500818459307,0.09280258840689483,0.9323628169681617,0.13725557626742202,0.18968533041977625,0.1426594686012875,0.16968363311125256,0.20710840728096896,0.2541207240834381,-0.10020656076829065,-0.07891589895815854,-0.06510373595797345,-0.27676636762823154,0.302464129255162,-0.395503981207313,-0.06580138829610865,0.9311932019939118,-0.09556129864942697,0.18101725629697743,-0.40322729372323307,-0.07765644610454465,-0.15106542192992214,-0.8347517415946725,0.30320406796239496,-0.03407932986846289,0.2602396896956642,0.187782913133445,-0.022881684881845693,-0.15971768617402846,-0.04059812693578918,-0.13176083360139396,0.06848508410534625,-0.5785442246033682,-0.7209135244514812,-0.40717242132602033,-0.3108665532501433,0.030169032577720443,0.3691448164299987,0.26339933121003173,-0.17107277833290285,-0.08699338141652341,0.008053138332623586,-0.04485808965292315,0.09952677380813388,-0.2551944429649361,0.04290304539541688,-0.049766655180213275,-0.6768889729939301,-0.6220721632476851,-0.045636142018951144,-0.37632330796806224,0.19097198693816758,0.2626599724425764,1.3884061305321655,0.39604447472377324,0.7018568506990233,-0.16435366273644328,-0.051240249720002636,-0.19500980428190526,-0.3066400565525924,0.12061321541780907,0.03426938956089761,-0.42192697613025093,-0.18928900994727263,0.11597529003063127,-0.10331945520595107,-0.4638213716428694,0.4420561106727626,0.7247182282139081,0.23146584635740758,-0.12655162114325216,0.6564152697019617,0.380665097709561,0.14213080010938753,0.3253383689967854,-0.21824821230216895,-0.009453568050914464,0.08947251051901065,0.015883652986579698,-0.1436535987650835,0.3329419964947971,0.08320124752101421,-0.1605489127333156,-0.6547270773740635,-0.12696128281234545,-0.4756609679247903,-0.0414185358956385,0.051688106148122165,0.09235772039663835,-0.0926786164152112,-0.4523342221842227,0.440560048929593,0.14353686904695984,0.10792028484589551,-0.27998131022779754,-0.29960871697311336,-0.17983053511661742,-0.5324579364730735,0.5650824405952741,0.8519184978703573,0.20366681747405632,-0.13816325154221598,-0.289759623913212,0.40605502072741156,-0.2913094804258263,-0.1648647792319497,-0.11735812176832774,0.20719449017342786,0.1577088340593206,-0.15396452313377398,-0.2131547746163022,0.40055937148501874,0.2428778811854203,-0.13862214428606495,-0.189872528618679,0.017466749335226017,0.6039357063206076,0.028627598350512935,-0.2778341990609514,0.1856389955394906,0.01539163631819547,0.10464461029101553,0.1987337651531154,0.049421452513732596,-0.2732315106628355,0.18580976425174742,-0.045849194710638655,0.24229570711144735,0.7469094509214085,-0.5161139335327022,-0.5257006745431142,0.08201568461805787,0.6118620695551722,0.5795007750443544,-0.12926177464400618,0.004042481860724865,0.18170275938015837,0.1650159255567322,-0.3972204577776639,0.1961853222386808,0.012248504489024063,0.43980104497821015,-0.37917120627627193,0.07240365063826547,-0.18835234109238363,0.16968067661487318,-0.07566783177900745,-0.15586676601705773,-0.022171609312466152,0.03737331290870404,0.1480382853347288,0.2637018899582247,0.15687445361419658,-0.329365688533384,-0.04484941973781627,0.23733533459157416,-0.560302023013702,0.22538621188415547,-0.37127622676115,-0.26361022985382393,0.5016565120629667,0.44189406897356426,-0.11042257711367313,-0.07941765477738597,0.08291134741808899,0.639842965642741,-0.2220259270004444,0.12146092785063456,-0.19655873285348216,0.22901330700682196,-0.17426643980459455,0.5119764162377234,0.1890812900926278,0.2679345934362105,-0.11317534568768811,-0.01189601779636943,-0.33238630767931304,-0.15272751002440668,-0.05453506070711354,0.07029380124015136,-0.07934097413414014,0.1343330698983733,0.004084557296601869,-0.19481457249104797,-0.08536766195385363,0.2973033724871525,0.06878737285165275,0.07333851167008464,-0.19908497376744982,-0.1615180165770355,-0.20513888299022434,0.12273736611084339,-0.0617205720328712,-0.2332119963540757,-0.05432307541443816,-0.05939836098316885,0.16091462911008053,0.23520241804238554,-0.00783870503648831,-0.1787970098571974,0.11061154347610458,-0.034648834066957596,0.1979377043494207,0.12261517373746546,0.3701279640164818,-0.01960014089896309,-0.10085809036942885,-0.3216242393316686,0.09974745551229243,0.01835225170291781,-0.2094007331058668,-0.20001168141042924,-0.22734701239743896,-0.4063652064403531,-0.12556095292424538,-0.18114177088544467,-0.2655103506799386,-0.13771932678003584,-0.6731854721176768,-0.015792751825519293,-0.3190334169645759,-0.4022407551088944,0.09080314557386052,0.17276768776453388,-0.3088513646714561,-0.3170440103021756,-0.31805446284830113,-0.01255839991309698,-0.36023684515060006,-0.0988226945170163,-0.48280414183778253,-0.36140474010277024,0.057089748929534216,0.2532775461361563,-0.24615508345960913,0.05742372963844436,0.18538121072366984,-0.09194859757533881,-0.939062639664786,-0.35338468871068046,-1.2538588277504117,-1.0788894222745928,-0.35159111998755904,0.12056723071624821,-0.10319730951211856,-0.3625072185548833,-0.5649451590504112,0.04555708234076183,0.09276503586356163,-0.43533297328801135,-0.2273787640856936,-0.5845871246155435,-0.045789748133226935,0.207339617880899,-0.04637018256869467,-0.08720812529153804,-0.4352123559038648,-0.26291120912477667,0.09641756382867002,-0.5070045884431601,-0.010414900214236186,-0.12993076436090195,-0.24321741301108196,0.05137463753693207,-0.14191477594594853,-0.05878816646979189,-0.32853745281881486,0.23434710095747985,0.21560886334012372,-0.2924003965306806,-0.4599657388075038,-0.6032463206420218,-0.10676423314505228,0.03472266274896059,-0.11127229011328174,-0.2610022254353666,-1.200195312653718,-0.23610012257386273,0.05063445731351124,0.2746104980732402,0.4895244860162067,0.4709570325887874,0.45391203354625576,0.14101939536340757,-0.08427666142084231,-0.12282250475064008,0.005964910997552949,0.6019823457719897,0.11694655062847308,-0.20048798344332253,0.45155226608706195,-0.2876106465407068,0.4901203464845163,0.4216940186422547,-0.34651337967384,-0.16528574292823117,0.3135366481635812,0.6497756049826888,0.03395133146970145,0.11383626057821569,0.18784262889405856,0.08794249736567887,0.6132236139391132,0.23585900777629829,0.14208045649614912,0.21898630196965016,-0.06203732779271601,1.1827228311143094,0.12343082882353651,0.08882632882339006,-0.31135463010425257,1.0209540115046412,0.46181091948844294,0.6417295411295276,0.5174724990493794,0.33044361884156115,0.09364673901961944,0.11659656453212819,0.4345611484992132,0.034500761414981276,-0.297375101139176,0.43607648842436375,0.1816550078853364,0.3107939466783698,0.11560468884367868,-0.2024971252030949,-0.11809608231391552,0.24094550572954926,0.12163810562839386,-0.25188540011966104,0.05933428810015343,0.4621438062562137,0.37985344572121926,0.4436910618191451,0.3020064235487574,-0.034148865194675054,-0.13332763769842107,0.24976838568861265,1.1255392362492733,-0.2335330697259826,-0.11397214755279844,-0.2904729559280056,0.06190227628084512,-0.08058608399295343,0.18645960650994672,0.243382625457409,-0.039993678015941836,-0.16455355019416337,0.3884462895043232,0.3481233314587249,0.024824783004864147,0.1891129493026416,0.28951604130198555,-0.00995225229127128,0.17785147259911135,0.37151958427813087,-0.02452508074731121,-0.07709445947643329,0.30853587586670583,0.4811568757271634,0.1665083156182112,0.05210527349706798,-0.27347515647330245,-0.06830196098981033,0.15872018801961535,0.3299416976506684,-0.09675021688529636,-0.04979070184397087,0.4114082473977828,1.3944324878144003,0.1442967069741012,-0.14418954091713249,-0.19502769960459077,-0.383384339911786,-0.4370948080234326,-0.21154475651490912,-0.192343182786598,-0.03540478348502572,0.12328477509543456,-0.5603062996114984,-0.10382156886812428,0.06724156643901603,0.19733176610083822,-0.5303035494470408,-0.2022202669858403,-0.5616358792289088,-0.18478281853513226,0.045933766702221,-0.12356760800616717,-0.12652927546629508,-0.4600598593302407,0.36066246373236266,0.26071564986154183,-0.2540110052682656,-0.32043316654513193,-0.48559040366153594,-0.11444158146952522,-0.13321131809191444,-0.08564032307627933,-0.5032102995153878,-0.9608754743740728,-0.21579860592151962,-0.01142462191532102,-0.1780610422555893,-0.363392910732343,-0.7569244089021354,-0.28220486566048203,-0.11154808199653883,-0.26513556200679383,0.08041648136891966,0.0813626406173345,-0.47816439109650016,-0.043343396219644045,-0.15519370630040333,-0.5628688472038328,0.33701274859328045,-0.24676843870511103,-0.5544841618550873,0.2009241653447559,-0.09092362980574434,-0.12101564338590451,-0.3363273796708836,0.1679544205985844,-0.12077536243588927,-0.5209129363946875,-0.4194789600972334,-0.2931851736900925,-0.4385399952135961,0.026712055630465546,0.023690327993240255,-0.3499424611249978,-1.021508623311691,-0.4137723343348517,0.08193612837236748,0.12855431432100092,0.42333239381893406,0.5896071203807444,0.37562788032705113,0.0767762686220875,0.01870133810354267,-0.039657500230527165,0.007361914383026137,0.1603300132221444,-0.1106931446898697,-0.5273868091483558,0.5445861202661854,-0.08202928601627406,0.5102304125981756,0.09222444523669042,-0.17478543324888587,-0.04633890061380812,0.13717747453043957,0.5817849187280321,0.23190225277183493,0.18643289092325158,0.4556839726057978,0.32334702324795817,0.7576449211066913,0.1822723934292846,-0.03680103717135373,0.3612485324746417,0.4700297648506556,0.8861781590884734,0.14612705805975143,-0.06014352871216504,0.14106323935795606,-0.30910299655491547,-0.21225852443490842,-0.2307433553789436,-0.4560483733456149,0.0344026710671656,-0.2112756856060333,-0.09087138540134396,-0.039904878099928084,0.12241654758005216,0.07092832996300323,0.17343843164149106,-0.16481506327067466,-0.11222553843257642,-0.3442064139355645,-0.05313534945041941,-0.83971843199417,-1.8203730682822485,0.08834735377693095,-0.2754846653685936,-0.7631565040653837,0.7305197149383418,-0.40733974794064176,0.5961997276689557,0.5593611449748018,-0.24433150880239377,-0.013301372519544939,-0.2520280787016527,-0.11811338596170802,-0.4272929827052497,-0.625121316984863,0.12755901969371455,0.05783478920017521,-0.005865220558080882,-0.1522165955396442,0.21125020880608084,-0.2683476264409421,-0.053337492908380066,0.1073598579078357,0.3216499067804918,-0.3219841822639365,-0.23473083050226434,0.2861317446136927,0.0844343025187814,0.3490495027142501,0.4152727804858269,0.20266921408609914,-0.2503701792593155,0.17707342977106905,-0.2208115623405313,0.284997542833048,0.11669699381065157,-0.2650705168526514,-0.18357993016015572,0.12902858673619466,-0.04486667136902762,-0.1926769776944581,-0.19775625021540705,0.10439817817200923,-0.11694024099413648,-0.07441577663984322,-0.5182413939946919,-0.015148419571993702,-0.285929758374076,0.15508807149654016,-0.3623392029527568,-0.45043110741297127,0.15608327557557072,0.5141044978415574,0.045335939617368114,0.13865826638112477,0.04781424373551762,0.20893498920338577,0.0007515922868367225,-0.09892100883732712,-0.1765072013622162,-0.0941138958092173,-0.31013405869573113,0.593595017201368,-0.09617660693574749,0.12257148999926604,0.08342410532172476,0.007831748525659902,-0.4351372492173731,0.3143479126817706,-0.4824009075664948,-0.14443293974200594,-0.10190289016472692,0.05669970994730748,0.01323364863408744,0.22510856102661542,0.018138490006115428,0.5580345463193209,0.10860907123185173,0.3372541503138438,-0.027944813942271902,0.2669406865629617,-0.10730577196108908,0.010986448195769322,-0.19877169902019348,0.3604201282792524,0.549289524286839,-0.04708788630487594,-0.12615143367202586,0.11920599081408152,-0.12898537197239585,0.060296327879187234,0.3800212034237769,0.02345124403114602,-0.05073561991879863,0.07450948145094348,-0.1753782121910685,0.20494072837149171,-0.20027778582232397,0.05948390988106524,0.25497661660084525,0.27026657973147716,-0.1321622746624039,0.17222731834774319,0.05326882808928933,0.26234447001871414,0.732758800944881,0.4826140433234487,0.1446402485877862,-0.29940618334729246,-0.15827789468250245,-0.595222948753074,0.2918620708170211,-0.020219908529954783,0.10857397211955669,0.18288409394832167,-0.2552739825661573,-0.008181233027835702,-0.06933388582076504,-0.08081813947022076,0.11991539185084994,0.1958391225922288,-0.04078439260985754,0.037333179540510325,-0.07377604863339965,-0.25992093833311714,-0.41322948858674335,0.07467196309649934,0.21368032824339686,0.1111145502071134,-0.04370955141625624,-0.36821469149723973,-0.22102504279169596,0.20791892260213626,0.1312552826134366,0.13405054688248236,-0.038322115097467746,-1.4383649983532922,-0.7035166728145346,-0.02216225914976085,0.12897033022804888,-0.17108099246584388,-0.29534274441363706,-0.0007060831180585477,-0.1919155575900151,-0.25733065089945717,-0.26417519521831984,-0.30956943928090797,0.16320494465469496,-0.4130189196502298,0.1812435514898771,-0.26097014168992205,0.5045736001202382,0.012367876490775323,-0.7639746170167572,0.22875629693116625,-0.08820935167108775,0.08744265327627895,0.20579464748670592,0.13731318475858242,-0.04563378478612594,0.12098729730005667,-0.3438189816977055,-0.19675452426641302,0.04685732398192313,-0.33872111273676153,0.18589314581978414,0.07080253940601543,-0.13779432524819973,-0.16373170385799876,-0.25241518105860955,0.060367947943069517,-0.028869915325811495,-0.2709503869450663,-0.07710495239665757,-0.07386923957369478,-0.17153653510784939,0.16222132955021337,-0.1926364981697395,-0.2697869953680364,-0.1391757022846259,0.4355191970966655,-0.1448958599934442,0.852743526160425,-0.2221482451740671,-0.263464414556052,0.050666333518306676,0.011097830629664667,-0.007723754439538828,-0.19095675683711186,0.19825475557693198,0.21327009524415946,-0.14123405914008866,0.08588765095207437,-0.157385481965098,0.1647589118897059,0.05169037216313739,0.31943017949105434,0.06585558167456888,0.1352413719118615,-0.3836816112831035,0.24500926398318382,0.06866224265160129,1.0228554898828062,0.37801410628975435,0.8725542431056238,1.02372821747081,0.008481678549470881,0.117709727148095,0.02104158552341314,0.2673973725602906,0.08405426837543042,-0.23163522868067024,0.24497463759671118,-0.12456766929907871,0.31997170397284763,0.353943718818169,-0.5759853397422348,0.02055542042267331,-0.2522161307218109,0.0401030728648582,-0.449349870412813,-0.024685389325657697,0.16726990313874313,0.05286136179786191,0.5354884680256107,0.4579465645616616,-0.20785696822359273,-0.06799846240497846,0.23248689516749077,0.2629225082119765,0.21832480108400976,-0.05427962916347159,-0.1413352462110663,0.12049344949489614,-0.023206089722866332,0.4687751079831803,0.1683146066970807,-0.39281160513511854,-0.44564655486606203,0.23695190355836518,0.07735649517261257,0.1820148151135396,-0.1263181490645054,0.046023126012582544,0.3397111054395456,0.07576056576735152,0.21173544066226588,0.1902011383216503,0.26135747118728303,0.1761610927043954,0.2532486110423555,0.08528391164169628,0.12263880969029649,0.27862333247070803,-0.016740726680514267,0.19228500872305837,-0.23134602087879816,-0.11910592369531184,-0.0972384951982197,0.16117007422124818,-0.09049858669481099,0.015791580213913657,-0.3931055235080323,0.08974045937921536,-0.01178812668464319,-0.02364435364709148,-0.2492559702835839,-0.062364592934608706,0.06300660325860365,0.11338521583070725,-0.10482759179299435,0.14548356546377855,0.44006012572993025,0.0288535854804034,0.03188122622622624,-0.0905223719811687,0.47661799988258186,0.27345177207236543,0.08208246216192296,0.3738880541691909,0.6603287088034983,0.7477967381563416,-0.014657225005632293,0.3140144293814848,-0.17807117895312669,0.06246838823419393,0.21330035284719698,-0.26904826260755516,0.1321901555593228,0.08339742075399659,-0.22684407517218869,0.4146401189727883,0.045430377128446636,-0.13153735676528858,-0.3511073382339324,-0.10249416155969163,0.3594452720385657,-0.011089463058334532,-0.5822879583995917,0.250770502208229,0.22315254087105735,-0.3981491157792136,0.06530535988436881,0.18489790244333834,0.1876617988567978,-0.19242514721681991,0.11103348199874329,0.10411470691857493,-0.5529755797827947,-0.03655731269277401,0.07970609451539894,0.05946756702668815,0.19182162676025244,-0.25443290215194736,-0.11311197654915213,-0.2857231854752436,0.4153984412955441,-0.23759457091720357,-0.8388030398583466,0.30511183490331273,0.3482288944090105,0.08318969302278058,0.22186459228054167,-0.09881368000290183,0.24329138095301947,-0.2844614637319697,0.3547360465892193,0.8693936474597411,0.07988900930159012,-0.10839336597852958,0.24224058694994552,0.004910896445817098,-0.028364861120562825,0.37621867082423943,-0.16647644864419478,-0.10999790518283059,0.10967394556091695,-0.41602463949760465,0.25065895037260216,0.2946702210004479,0.3803992018322921,-0.3169544835488305,0.0036687067150262117,-0.1336999165005172,-0.3500046780848859,0.0335083043224652,0.2204351923556397,0.9976937422785851,-0.12051007512287251,0.18157234725024204,0.1461534849777217,0.1719031867193412,-0.21934814018389467,0.12261325830248454,0.17212482694534617,0.030960814089955768,0.19545869528998167,0.4635993181498654,0.6325134730523592,0.2959355524023642,0.11094420877415374,0.2753406465279938,0.06646343052047629,0.2653767283688652,0.20190007227183915,-0.006744277629241821,-0.26637931463328485,0.20387723149818213,0.03368474408568079,0.6139219058100056,0.0864293578364604,-0.25588731780966706,0.3093437179466551,0.2257228912296222,0.9520206776009618,-0.10792989198237196,0.04036239834114015,0.1819541191087954,0.17288719495898364,0.26205381886549123,0.17021977546282818,0.23068509237756418,0.004736872744800312,0.006488314723062119,1.819924563103209,0.2636516857770288,-0.04798681320006777,-0.25345639598046615,-0.19571985769213074,-0.005202998652719081,0.11308889638183707,0.11487169197018184,-0.0005461672006193696,-0.30265096808267183,0.4029832971741794,0.02644561032116795,0.022508060921973164,-0.10651873350606564,0.15831686682029864,-0.3871817932662989,-0.05980548347986142,0.097333350823654,-0.18055977900866937,-0.283165040996606,0.2526147854252881,0.2526155603150179,0.18874659891045809,0.08249545185042485,-0.2378353323046348,0.24909762977524846,0.057258152837576584,0.19427673081552385,0.3151201436244528,-0.11180817019030335,0.39619400818768874,-0.022951204726172753,-0.14509046140303328,-0.1013121441637428,0.6388847718530609,-0.116992150698531,-0.18510317380253782,-0.13183536945328936,-0.29177712546539114,0.44070721547391867,0.14135117214200538,0.02188105728995507,-0.2540731143450503,-0.16325873230106883,-0.13559801656870277,-0.09694569032783307,-0.6297809175699572,0.2462715467151953,-0.0890170123881396,-0.16908281381497353,0.40725756165206517,0.13193315794104588,0.22848048701285242,-0.08272264519766757,0.1845380977623967,0.11645249101748023,-0.356028263188967,0.07947310471210431,-0.12203100737650065,-0.2846274643279913,-0.20920514704018944,-0.16086900779062632,-0.35496855961326634,-0.5061276522689715,0.018884644988877666,-0.24757002922470245,0.8048118293449806,0.11573252846127668,0.55172201613867,0.4443673317685988,-3.0554521680329505,-4.475967066681566,-0.7257057141299172,-11.573459699423449,0.2927737375651137,-1.2343271271028424,0.049396952636919476,-0.24027379486984157,0.1872229993726221,0.015596051545759467,0.17236952450468757,0.16024697615974415,-0.7496893250389018,-0.1593371941168891,0.005974184573522866,-0.07136280126774988,0.36465675474986964,0.17775560831752935,0.04721712179013955,0.12902898123204837,0.22720586448134936,-0.3733088841462353,-0.07851574806001148,-10.451275185624397,0.041672360810570505,-0.04368554198046767,0.019941933940630034,-0.31923198211270226,0.10056516116251726,-0.20797595100405938,0.022048734829339427,-0.10084190849557051,0.07364695122930356,-0.05160180726171481,-0.13648488908056633,-0.010663409369407316,0.10538764685866835,-0.43888204740444264,0.01145883897350221,0.08479018361216706,-0.01859448421124476,0.8521617018322221,-0.05730294656022986,-0.27863788799892614,-0.013616094695498567,0.02185117398952212,0.23587777315354513,-0.18095039090932077,0.05730856472367223,-0.2508992964527118,-0.24684153289080674,0.2906239502022547,0.08212689322233745,-0.18115023936752925,-0.23163399073186144,0.33548902424517296,-0.052380305039595204,0.21334421628710448,-0.2615982863022327,-0.24724439734020273,-0.013668232461887302,0.20067544709532165,0.4510448646668717,-0.013066617235725388,0.124978328027302,-0.0353869079361645,0.020290197657897104,-0.05561962537584188,-0.08978590804508334,-0.03847513566184152,0.218098399925554,0.010762840038883038,0.17714725001835008,0.5981191320293469,0.12952278767769707,0.4201185195641434,0.2495317731756933,0.6260512601520368,0.20864506879330558,-0.13478135704089647,0.036293587337512714,-0.21494853675202336,-0.2647456058967488,0.05052115573055011,-0.057144704784315443,-0.03006741443658858,-0.2643913040144976,0.25300149946589934,0.09562735329811999,0.5984148285961253,0.17978082022833236,0.6563800437515068,0.5489317232815817,0.018663473430055432,-0.04423599643556993,0.2105177238856045,0.5431608157167976,0.004495360430700716,-0.3617882993003465,0.6523799480634987,0.15994070244093983,0.06328328185302758,0.7578689569812124,-0.42147526370744764,-0.07717962235820888,0.1916818522453036,-0.006152764215530527,-0.1128420288716191,-0.1879220846801684,0.631007852944752,0.34357084881837896,0.8810774007617378,0.26983704671631964,0.22667114278165298,-0.41732667447774957,-0.14593797202674855,1.6074606312528978,0.20317029473955564,-0.05697128030350953,0.04294705566107976,-1.2907455788632556,0.08687976376416101,-1.200111797432015,-0.7318385777887529,-0.21791752285523902,0.18851646487016888,-0.16941764029268563,-0.44269433523661955,-0.06904709079746757,0.005322250555184623,-0.8808397381790056,0.08776163811797323,-1.1580388246872877,-0.664126128199934,-0.23978182034833487,0.02393933602700675,-0.1671378543599882,-0.060297242131155976,0.1891979256183281,-0.018950877906087786,-0.3189176728914362,-0.19495677046251134,-0.47655532133331363,-0.2485234424935889,0.13149995740810197,0.653659891978588,0.24757378348663558,0.13625421091245138,-0.18653223515418682,0.04206079028700192,-0.08626993517302839
biasActivation=0,1,1,1,1,1,1
[BASIC:ACTIVATION]
"ActivationSigmoid"
"ActivationTANH"
"ActivationTANH"
"ActivationTANH"
"ActivationTANH"
"ActivationTANH"
"ActivationLinear"
