encog,BasicNetwork,java,3.0.0,1,1541093522235
[BASIC]
[BASIC:PARAMS]
[BASIC:NETWORK]
beginTraining=0
connectionLimit=0
contextTargetOffset=0,0,0,0,0,0,0
contextTargetSize=0,0,0,0,0,0,0
endTraining=6
hasContext=f
inputCount=30
layerCounts=1,31,41,31,41,31,31
layerFeedCounts=1,30,40,30,40,30,30
layerContextCount=0,0,0,0,0,0,0
layerIndex=0,1,32,73,104,145,176
output=0,0,0,0,0,0,0,0,0,0,0,0,0,0,0,0,0,0,0,0,0,0,0,0,0,0,0,0,0,0,0,1,0,0,0,0,0,0,0,0,0,0,0,0,0,0,0,0,0,0,0,0,0,0,0,0,0,0,0,0,0,0,0,0,0,0,0,0,0,0,0,0,1,0,0,0,0,0,0,0,0,0,0,0,0,0,0,0,0,0,0,0,0,0,0,0,0,0,0,0,0,0,0,1,0,0,0,0,0,0,0,0,0,0,0,0,0,0,0,0,0,0,0,0,0,0,0,0,0,0,0,0,0,0,0,0,0,0,0,0,0,0,0,0,1,0,0,0,0,0,0,0,0,0,0,0,0,0,0,0,0,0,0,0,0,0,0,0,0,0,0,0,0,0,0,1,0,0,0,0,0,0,0,0,0,0,0,0,0,0,0,0,0,0,0,0,0,0,0,0,0,0,0,0,0,0,1
outputCount=1
weightIndex=0,31,1261,2501,3731,4971,5901
weights=-0.08807186824141572,0.08661827570335437,0.6131399513029692,-0.0003025846595048464,1.2134798426622775,-0.09953401297314612,-0.06156075053797576,0.2942095677063795,-0.26984000125932767,0.18636585754293009,0.05076446615609242,0.1335869188463173,0.029008238098401525,-0.3064829873579161,-0.061130760469353895,-0.07711361793996914,-0.21361139213358576,-0.14354402502000896,-0.1745138428185693,-0.11922973064794651,-0.43120536279477867,0.012470205098957144,0.08165859108021947,-0.08180565325659592,-0.21412693336933197,-0.17921925138221534,-0.14149725552208448,0.2778885778040372,-0.38654556391753814,0.2208304809090776,0.46012748648124174,-0.12620901109333443,-0.09717639464364117,0.9432494902393462,-0.12278805952512373,0.41856441705121,-0.23255029197164936,-0.5237862263581483,-0.8489169214261431,0.6235920595550998,-0.18573715147897923,0.15381596427170127,0.21870034739831812,-0.4525719979334834,-0.02485591600166811,-0.06380370498727568,0.6730380844338814,-0.03400537839495571,0.16059056282096,0.43576841107101527,0.050844291525785956,0.8790464250401228,-0.029743820763194283,-0.06467988340538981,0.924534289022803,-0.6754496440599095,0.2610799498175898,0.07011580080238275,0.8146032712428882,-0.9436872099742193,-0.5595048205678406,0.17277275530773284,-0.09029987294041475,-0.10987499365977496,0.4354820295029789,-0.13790245749367117,-0.6819171313287952,0.16722026204492063,0.15176927712527216,0.13628931517034215,1.166353930993446,0.024114340280732498,0.18452406667752302,-0.06776254668045448,-0.5086444258694811,-0.1404587240497056,-0.1987291630449275,-0.14776074816979684,0.17312674224006186,0.35830363810654614,-0.044709726301747146,0.09343948611347451,-0.14924120063267474,0.32940867366114124,0.14703522345351921,-0.09269825342961333,0.0026643407579482106,-0.26632677718914255,-0.32441063519528246,0.3801078760432398,-0.2971945871740249,0.079993620203187,-0.4058744548035015,0.0993847810472088,0.01644582701223251,-0.15168723393972466,0.1749051490892783,-0.15870330648629402,0.24232533668360767,-0.12746751065242218,0.1489150727941168,-0.05205843149376758,-0.13715571048673023,-0.031165723127659622,0.1905024039704511,-0.24266034386596996,-0.15010003774342062,-0.0020240896016574215,-0.11433705465109795,0.08686649771157258,0.19788717479336682,-0.5152273394505733,-0.44326337811473987,-0.40756224884905257,-0.2077142120935541,-0.14413930336676992,0.2623756648544256,-0.577484759124981,-0.15019633378104139,0.5823878709013588,0.06198960326842386,-0.10823774590819234,0.18390338476359072,-0.04662379300105365,0.08306141462385498,-0.3740944445002204,-0.19397659671056378,0.08864290553976745,0.035614212627709724,-0.23213945012515982,0.7913124256308278,0.011216827718642708,0.2988190945619269,-0.05700012348367238,-0.17881975647064885,-0.20269152939869747,-0.26857833958771005,0.35636321032056606,0.02786890919539642,0.12819356956823644,0.10115416459635247,-0.05071963780527128,-0.0948604645238902,0.11214598612290103,0.7074299283296486,-0.038461093769362686,-0.04238215198298933,0.2577202344818305,-0.0679560753002536,0.33874927415387857,0.15813779484097443,-1.031268297632462,0.05845805666312516,0.13728244894447295,-0.10396290309212078,0.11805197400967496,-0.15089305881675874,-1.1034541540520149,-0.22085838660851348,0.07322503986530063,0.05115158666164193,0.04462450483926254,-0.172795862122568,0.3105641403287623,-0.21496350154399055,-0.9585096010545093,-0.04638585935048105,0.26262468376659726,0.38265256111638307,-0.21111311018684376,-0.07658426692882522,-0.18824098832256703,-0.004954220173614854,0.9373700458943973,-0.28365543238322577,-0.002898855401393473,0.10905347617385386,0.1378297125141892,-0.1809392344151606,-0.3049899111143964,-0.0203641294110287,-4.20331393434973,0.9622664394234698,-0.3127848319840174,0.1650507223523212,-0.1558814368567955,0.5829623945925547,-0.21358834004124777,-0.0358104493411598,0.899268520413519,-0.1850932409251333,0.42907574641335644,-0.1453763795714482,-0.4744749528639589,0.136896008472994,-0.23418822967713612,-0.04817548938484065,0.17973369727571836,0.020732265095620633,-0.5397177658260954,-0.2580115330622918,0.45922453295641,0.015753608944662326,0.12483426158807792,0.14665267759051417,-0.10990003353148471,0.028594090556040754,-0.37085514996482233,-0.264047552898677,0.08206849056622642,-0.17956277236323945,-0.023742706166863876,0.7018966262888584,0.004952257134158525,0.04811398900696181,-0.0437058756003001,-0.3534625770736909,-0.15062620803182242,-0.07129179790872456,-0.028066290530383075,0.03516060016925518,0.02707802996224887,0.03434095813155729,0.09674201089402279,-0.100024340321548,-0.10472312277355345,0.49215311245490523,-0.0067734449603822425,-0.05823123149251757,0.5132393656422918,-0.15079522905720422,0.48379705250767463,0.14519645659511055,-0.44550853696679454,-0.09247329103428423,0.12644065038803146,0.8673277393155661,-0.01772410110994869,0.31134905853308903,0.057716720129023395,0.9040799169389788,-0.05141878818688817,-2.7353594295038435,-0.1914323304933486,0.1272754836217006,-0.8215459635576985,0.2802575591038286,0.35222137470051645,-1.341053714006035,0.12642393785797063,-0.12493526517229504,0.2684669024238932,0.29967082971332604,0.11679333582544016,0.4148489298969232,-0.3643979995943599,0.28650645659134044,0.008396908752107968,-0.11037653049672683,2.977068334496826,-0.9066695564269267,0.6901897505596186,-0.07397471374998531,0.43123321363949046,-0.5661183403489434,-1.421087693454526,-0.19472681143974271,0.4517017435168374,-0.17217303039714993,0.3459860348679647,0.20526625631742051,-1.044706842811817,0.24758339015901998,-0.22676560207472543,-0.19243848956707021,0.39609904994762773,-0.1767838998577901,0.09658302928986955,-0.21434705244402835,0.5873273601879867,-0.2234462898591696,-0.10222608806573377,-0.27180006117859506,-0.26555474425254294,-0.535929523592517,0.04619198662684173,-0.4178596157674515,0.1764113977980952,0.079877304614966,-0.13205234443961752,-0.1612097553223354,-0.5028180636473389,0.3699578538692258,0.08221822677371832,0.14397705791789778,0.2828084449720303,0.08581266592320172,0.33653109971905204,0.1335098673139541,-0.20585464497282782,0.341002400147172,-0.16218247311097933,0.37880324934496146,-0.030848587072573375,0.5583444184438712,-1.349566446312426,-0.1920385500856575,0.10245457557075617,-0.5232297074808007,0.0932375297754466,0.22806063427255036,-0.15781820346610892,-0.1733809203812096,-0.0423670562373135,-0.23898825856166425,0.17844566555441166,1.8382819086360471,0.18103146451220672,-0.13574943749576873,-0.02594433077544481,0.05351158142511277,-0.16012197235793857,-0.18943794521335033,-0.23848098388670452,0.14972220315406634,0.0877109438262215,0.14028844624962117,0.2656008689397949,0.03959544606613929,0.04117726920331856,0.2000207885900469,0.004809565454779077,0.19572941756888965,-0.013114456728319433,-0.2354352571291632,0.2753866252048118,-0.26264654867688614,0.3089509310171853,-0.29060097724672096,-0.07613023042062919,0.16559459426641032,-0.0705139575196902,0.03252793960995236,-0.09637525026851192,-0.06889461982206357,0.020838351829633464,0.16943149611585331,0.01569574539100477,-0.09388270454709538,0.018723001054955425,-0.1870091913204189,-0.09025690625590124,-0.04776978854247061,0.03820048254376955,-0.1637936744345346,0.30528289197931324,-0.2753602528574555,-0.2797743780543086,-0.28886594060825194,0.20570745890920772,0.09156704066377415,0.9792924847283876,0.11874004835872301,0.24612853883597546,-0.10830155726611948,-0.8217802927027386,-0.7781551186989065,0.7886928288218192,0.01897259658700014,-0.045843206375187656,0.4563925357280151,-0.010994059671505001,-0.3456808738802153,0.10182780480056079,0.6773206519486532,0.043489936350248844,-0.12511898210190445,0.32343138079212097,-0.09396752884205624,0.9085263902964908,0.06418265180729299,-0.05948263037008819,0.6801285111346391,-0.4534953393369626,0.14643522178269636,0.08464625422912493,0.7741720846682656,-1.1011099833025924,-0.2538458941585981,-0.23500937382801934,0.30545579770135145,-0.014083065668278884,0.2787998836848008,-0.10612558997200612,-0.3683932655388824,-0.042014320866112786,0.026330067319172083,0.16747139417241372,1.1961542286074438,0.15587561106234618,-0.3910000918210908,0.16354791271192365,-0.45661620182215257,-0.12895713318788732,-0.5327517233355685,-0.03861253471975026,0.8930636337963547,0.7192233777377987,-0.1418274861951476,0.4201688907048561,0.13262356323307534,-0.8129307647320528,-0.04169434947613846,0.39257894406355637,-0.009561957691207998,-0.25529788954582266,0.1064219461804792,0.09475164594738943,-0.48169342706441576,0.6252654717605808,-0.8165431458379417,-0.010355570360075422,0.22140837643024017,-0.8119086942181255,0.13702472413992206,-0.22777952595932296,-0.0840628185671776,-2.0184812015183446,1.0350866582034373,-0.031115158192307556,0.1208854597834709,-0.30222614925198665,-0.14532222729360353,-0.511722283413569,-0.1577256959347334,1.2641802050224318,0.03130032420911943,-0.08600858450443323,0.07735945085587058,-0.6491635597689102,0.05103175789295765,0.10123149015909809,0.14364382532441627,-0.6701283053118043,0.1810298109989304,-0.11556270377615964,0.3732222003724624,0.2508143271064214,0.5648238559913751,-0.051416450813947,0.07254323003044214,0.13902338733702646,-0.044202336843266764,0.13792473373700911,-0.06714277035492462,-0.1430249738541748,-0.42145772576202506,-0.2515311396574004,-0.015159729406231753,-0.28475855562735014,0.030731048303593966,-0.404789389277372,-0.05983151093364744,-0.10622841530378314,-0.07859870285917481,0.28328975074824814,-0.19950095514259697,0.012108670273312864,-0.719348585687996,0.755326533436466,0.01622339880177206,0.256955112662548,-0.10190178188858877,-0.05487799647948132,-0.1693585317589263,-0.11557479070034597,0.405471247620286,-0.068215371868439,0.04049472892291225,-0.08181809723049044,-1.5178368064760617,-0.2701176430077885,-0.09025706054948257,-0.10382279927196349,-0.010327701504852379,-0.38216541354312605,-0.323714581386846,-0.5093217453117133,0.3333941149330494,-0.05454907862575914,0.3403786308337402,-0.29511689558858234,0.2384796941716022,0.11617498213790549,0.0361331346251747,-0.01913081973311493,-0.038477669702214945,-0.25102245800818007,-0.09581790823972161,0.5962574018987774,-0.30436359356613696,-0.21515097898002303,-0.18453966647701,-0.13478120517230865,0.0007205423497531789,-0.8460229549350904,0.15716344459286824,-0.026555914856943225,0.17732985060639703,-0.27053347071009576,0.1905087331781736,-0.10366557658375243,-0.13429848603723413,0.1619140167722939,-0.03824966809072661,0.15860163649909012,0.47954113050554614,-0.01965372573741591,0.7330009935890736,-0.0792769838703466,-0.49016888253132884,-0.23671436310858865,0.33345593660976874,-0.4243146386934339,-0.21501358896294456,-0.2787235937364325,-0.159114502355849,0.08176555949542472,0.026883172814954684,0.5032531323581101,0.5876644379519607,-0.15637748456642808,-0.04917588077710452,-0.05058342800359083,-0.2278877364257813,0.2787549959539713,0.026830776717479,-0.15659953973856142,-0.8425656258370129,-0.0862049071568178,-0.13336149333156835,-0.5264760374244847,0.06461843240842019,-0.9077259245765792,-0.020133819969108225,-0.122896147180442,-0.6365367609821297,0.5203252087425942,-0.2825766937886143,0.025450648032479276,-0.8632356682980621,0.5919689762480457,0.24962057134333696,-0.015004666791015097,-0.22333527606362372,0.0019620330226743747,-0.15250390949072767,-0.1405383964590228,0.26086244853065843,-0.00018014137866958005,0.2197470138894256,0.13467895397481236,-1.429500015707953,-0.20772081600568923,0.23918989033727506,-0.16379614649376906,0.18662557589880693,-0.033831095255516565,0.35357316057660204,0.26000377715594336,-0.07809190799604808,-0.37475706278860055,0.2512399655566676,0.035787522736358664,0.3346485483808958,0.15075281887130665,-0.0158166059320524,-0.0892578899162686,-0.14738364652224104,0.5957825026643122,0.3379208649241512,-0.16755722177221072,0.2757095171974824,-0.16876379214543405,1.0133390621449452,0.41099199906129946,-0.3672643977200054,-0.05816033656227069,-0.160649534038958,0.01577714367237767,0.006461708281156931,-0.02049205894311248,-0.12159827277518458,-0.016775508801018312,-0.14921340170733155,-0.22339904239163164,0.010175922790472301,0.15313848184249962,-0.11386338148511439,-0.0848820278490786,-0.271024432191173,0.012287127980958963,0.4841947233776392,-0.015542364364342597,1.3124949524804448,0.29446935152504045,-0.16899676119998747,-0.1740387814171864,-0.0932080734572107,0.31726694734916006,0.36935208765110167,-0.29246122401794084,-0.06619887601550822,0.22975517264721643,0.0688596700608074,0.012353675500514975,0.22998711208004707,0.10158027214567508,-0.01780117868830828,-0.21426008910777053,0.2779594488577872,0.3318304042547939,-0.14413784780919367,0.2014354997277129,0.07361899028855245,0.7854419888255836,0.22359455619249746,-0.262102294815902,-0.13351693739612253,-0.126610426902689,0.35234412753834554,-0.07428327674588531,-0.09880365858428539,0.12001310156727159,-0.0245952988746885,0.029834081792657022,-0.13086848079664604,-0.16778043587415675,-0.0055670252297098325,-0.23673016213748996,0.04412643809526502,-0.07499341780865601,-0.10245755391059846,0.20051753921671647,-0.11807411172623865,0.24329449538376804,0.01779797452772817,0.11815147480721698,0.7592770080312331,-0.15896420278987322,0.1998688652248819,-0.0564765483754492,-0.24976408108040943,-0.2714282840050936,0.06578642788234938,-0.07400409015128707,0.1034204638701343,0.29787271562933426,-0.18558157482711946,-0.037895398184745056,0.08113934343075736,0.1962830114481739,-0.07452264330789907,-0.1396444825878719,0.48028572450149737,0.08268365493076071,0.452451878565992,0.024351496827738597,-0.14154479069802103,0.37623462025145016,-0.19564877629880478,0.18743489157753074,0.07409649999612423,0.6908542355590105,-0.6018398683718098,-0.12633375931462398,-0.19850728263823111,0.19196395749514983,-0.15439190486555412,0.46603765969273464,0.28353222451946025,-0.4060624551813525,-0.020209711823391097,0.15592378230821705,0.13843575123333407,1.1678350573980214,0.3163172460768825,0.12612557123976767,-0.16971705569359716,0.6521910530681131,0.1365251838857522,0.07969496116291033,-0.31307781038858,-0.12790560642103005,-0.2936862107523536,0.613869225868848,-0.2232119957583566,0.0013270139958230635,0.10916349631624749,0.09565713232518104,-0.00924148973558346,-0.18108568686059587,0.5856985086676428,0.0873164810617746,0.23685223912966552,0.36815738144508486,0.020908235158269253,0.5648393148632146,-0.05246513401350525,-0.1136431517344896,0.5017171679993185,-0.39895336491628364,0.013155791018635198,0.17468480329161626,0.6737259182133262,-0.8806168837984246,-0.17034209704891218,-0.23980005151987926,0.11493742217279641,-0.07223282482705007,0.234547046007371,0.09146162912713653,-0.2547714460345076,0.04001356175227629,0.17305320311400268,-0.1033840599280669,1.4861936950918568,0.2907488369931184,0.06282891319779013,0.04190283187550087,-0.01982724660995994,-0.1788072181315521,0.006769025500859584,0.03827267296483257,-0.044138639744506054,-0.16255121606620934,0.307330888088576,0.008691344549909183,0.027321119189423083,0.11977143578346187,0.08326142978967221,0.17814042793398405,0.11243756953583209,0.30269361075795176,0.2582468038532765,-0.1511610367686813,0.3103278318719366,-0.11460531721225033,1.3591288266008426,0.33952956087136643,-0.2941964955876186,-0.03201969285782491,-0.08105784561840028,0.18560636947066014,0.24588997087187908,0.1411430112173599,0.22780959474610324,0.17855282071285383,-0.2545393201354573,-0.3882042137060937,-0.17525035157435837,0.048158341771059925,-0.04108871691874399,0.10383376889215838,-0.198401590195797,-0.07382859191135342,0.24417957757279296,0.006720578824791616,0.7834159467004062,-0.006578202001253638,-0.04625869624048392,0.5497901226635257,0.14444643829445492,-0.05570763120228104,-0.12609283177537925,-0.25865475905264784,-0.28651103846751275,0.19724045961125705,-0.19267979037436878,-0.14230050899211147,0.3842444886823248,-0.028953793224667398,0.062493426682788816,0.08149910762160073,0.5168457859649687,0.28761490062403494,-0.1268451802379037,0.6262102991864729,0.02865992722579593,0.6523865146655676,-0.15330101764730147,-0.2536322842569463,0.40743538577784566,-0.3915226342544922,0.3646389485766748,0.181984102203475,0.6940657728558468,-0.8805365319376114,-0.2281669692566403,-0.10678802340270617,-0.11754377860138944,-0.024049867672784542,0.2161106754455462,-0.05898307996622442,-0.48262420480187435,0.024696032507970846,-0.03674428373450151,-0.04062761480682421,0.8303046420750975,0.28864568084441,0.48707513093210225,0.3564561918257689,0.031119166051837347,0.23132379753535298,0.3825734883264154,0.4265693875836679,-0.42418999992289746,0.10541506244090076,-0.1690150262381359,0.3272642296651049,-0.08983477529832067,0.137776874893624,0.5734347619134575,0.07419281145778674,-0.00459747824288555,0.07709935270371363,0.35487087832966663,-0.4465808919869624,0.2661823047007404,0.14248317727228835,0.19965463538520453,0.21037627519472715,-0.33285714773532044,0.7146978382329562,-0.24191228841233522,0.018361193358273253,-0.2086700930829636,0.01817957581293438,-0.16790598019554479,0.3459151890579913,0.14107127681123738,-0.5891424773246362,0.376607935671042,-0.2262435354493681,-0.157766125648604,-0.15458190715417888,-0.09642766029628724,0.09294608527370078,1.1625995181974007,0.006314527124358547,-0.21453460218336232,-0.06094868005290584,-0.17826312903009736,0.5558644708885884,0.23140000832419685,0.13984555047972203,0.1381847448962896,-0.6851192899123163,-0.8893403747306748,0.284753230726781,-0.4546600531137296,0.05392151157258757,0.37621188532841876,0.15923406414793817,-0.13934144635733742,-0.14925820393644443,0.5224209202305126,-0.10300788053766756,0.15637277099666322,0.6924852796193505,-0.04855857455598113,0.8706586331321814,-0.07299742330329653,-0.0001713472724347298,1.0513884485149807,-0.8854906865860754,0.12698600088231007,0.034227533272516375,0.753647873643515,-0.9624308047109134,-0.3953153957240062,-0.31455443334362504,-0.05938335168369203,-0.03005540204550234,0.5540849548177856,0.28422841460041554,-0.5379702365575507,0.25229957478431136,0.16842268769981755,-0.02820810995096422,1.330267877106899,0.3016708650501769,-0.10632936724116096,-0.08037042376760113,-0.08871919538539207,-0.28252447354625576,0.015467525012248566,-0.1426010084894186,-0.20848056610657975,-0.028810785138980017,0.07347032650873189,0.5349298496609651,0.1112253556403642,-0.5859984372684857,0.11670935731668633,0.06582983261895808,0.10082610969311231,-0.3063825409295384,0.1390857969290453,0.13093398718302507,-0.302365498583578,0.5699133846111062,-0.21954424674601447,-0.01608289527967461,0.6170593867972599,-0.1554515918558888,0.04042683964289713,-0.04620648657883684,-0.07252252226627719,-0.5817662976128899,0.39458700239086664,0.10799542515116665,0.2869615120619272,0.06898637547685217,0.10870555504697224,-0.4752519672431249,0.4321185556051238,1.7556803836590769,-0.2847078902286985,0.017126768958658934,0.15268542158769666,-0.330103055084449,-0.07722652855133293,-0.009169418377884523,-0.2123100341898344,0.27130565452330485,0.31071160628718225,-0.185058624769852,0.3063094168941741,-0.10772435697714161,-0.12354065868979863,0.04723385199855692,-0.00385068717480095,-0.25369204404960627,0.3949501345292792,0.2378740780619677,-0.5411975982865858,0.011680768303878368,-0.20804547050395372,-0.4911146527870884,0.22505603072835612,-0.05065149598386139,-0.27436445476202015,-0.227855628295558,0.0038351782894648356,0.11416825487307168,-0.22836424093687088,0.21720897686330287,0.3958248135191104,-0.09091705835988892,0.4086517979779107,-0.03508277303875779,0.12772062893496317,-0.006859596913346037,0.0704064673343372,0.4558096137524696,0.3545768080496301,0.3311659974999514,0.1528431362246877,0.2977034728893476,0.605089400143733,-0.05015700807930644,-0.12206314097404375,0.1112153759900999,0.5697183152722878,0.18585076457958177,-0.04282427703617815,1.0502089566933415,0.0722044667499494,1.9319195899016688,-0.33075282477135276,-0.11114155494885761,-0.0019508206145479748,0.07008812547604316,-0.5045560066430563,0.14011814694515948,0.30283679217613063,0.24428400208638273,0.336588137891977,0.2029182057851153,0.006356697841834706,-0.742669314735068,0.001051089555338244,0.01425891826927936,-0.027680982638366543,-0.0026207037527565006,-0.14793506645772306,0.05795178053100736,-0.16572214820397038,-0.022816922439654507,-0.2198001879246153,-0.009914168725948394,0.2067540916632599,0.4264642225081879,0.119866502334556,-0.7100796590703103,0.9485847688105044,0.1408184221865331,0.09477830246615669,-0.6719299592307336,-0.1179342080785819,0.07365327601481791,0.885640890123942,-0.2067272841769662,0.002316071785782644,0.2006363329867754,-0.019424230154877424,0.4209998418248205,0.22107344710621987,0.43610631747048606,-0.08020918948760367,-0.5239589731366356,-0.9709760670319915,0.4530697475122872,-0.11487699291317208,0.11916631072566095,0.3970751252094411,-0.17872158097121882,-0.03284553272281768,0.05531352769076434,0.2669627002714652,0.11046338127754599,0.1561133949391278,0.7233517673861908,-0.2727971002570662,1.0172185744314663,0.11568531602671699,-0.1875800424869194,0.8478541857226666,-0.5261242347206239,0.24711920889305267,0.06373222616279775,0.6088164002981684,-0.7575405973176708,-0.1289848422876693,-0.18076760214397936,-0.018485300760684675,0.12253790701541872,0.27797786367959054,-0.01719934273753103,-0.3425996880919798,0.09433887067115146,-0.12065233813226472,0.5227017034383331,1.5048635393261096,-0.0045789232957259,0.4117688860367149,-0.30589955938659974,-0.08377517886220377,0.09801967625511535,0.24416096064886791,0.06966168824830041,-0.02296830868529759,-0.16500783684723927,0.33057857407584224,-0.37186013686369623,0.12327393281165075,-0.084202427167203,0.14210422326934696,-0.042098259049758426,0.031162058506011437,-0.016710271134186265,-0.007568352414199035,-0.16365566387096273,0.5859540861307166,-0.4267398979761901,0.4805657828223813,0.19351335432576844,-0.22853207551268995,0.07458358803397866,-0.08214806008372003,0.11823377115199378,0.0994626436603739,0.11735343628620878,-0.14722595687118908,0.021345789023242728,-0.25586822385053654,-0.17713640635934863,-0.2877015647131645,-0.014133196598371594,-0.30969144703647333,0.17836866888912511,-0.14419708601461834,-0.30575782280500513,0.2726771144793293,-0.20555286840871675,-0.45759251306302257,0.09947662008777645,-0.18773655638549305,0.7362661746001634,0.0491459191281178,0.14372111379067448,0.1865773495977237,0.031190536664223965,-0.6257196110798444,0.27330751663602804,-0.10615796316694252,0.12572458703016104,0.08657546832736107,-0.38970705077312257,-0.03414483799037772,0.07319031435536016,0.5036323407859948,0.13120985364033388,0.03077681651535653,0.3229331362122093,0.1446656236079479,0.4249584253380587,0.027455133175806303,-0.13864146054096788,0.331386619417777,-0.25465306598647597,0.26303917688698925,-0.21468140339409905,0.8925422110076457,-0.9035997463351677,-0.3645763182326929,0.1531989373939218,-0.0057616937644875636,0.09138351200079795,0.5016913056418821,0.020285450242257422,-0.46603569756282964,0.07783529972189623,-0.20277943911580706,-0.046429898375859896,1.1947393789790381,0.011320893037092538,0.04042818579857685,-0.17694081799347153,-0.6870351797632261,-0.15281572726259862,-0.3213487036337345,0.08078313927690116,0.3899155330688653,0.5443154747338,-0.029472220130127295,0.20154710645799387,0.141963437241834,-0.12801306377072108,-0.005058614125240708,0.12368454493020975,0.06482068377648607,-0.4186354263818133,-0.06812091252003737,0.13982371336056387,-0.3930751958391119,0.23692518155554876,-0.4626626529378215,0.20401676175998185,-0.0940514762984472,-0.26130864780813173,0.28633186508369757,-0.5271283919254007,-0.12613738352773263,-0.696490347775204,0.5832353529925395,0.05707580081590782,0.22716116223215932,0.15519949266879568,0.05502586152481787,-0.22879892022570128,-0.09832017397867301,0.20374739413402052,-0.006967817063019081,-0.19464487826837376,-0.09523962587947593,-1.202387466136939,0.01009494377440508,0.691740662312929,-0.13757232657736723,-0.3240546415188696,0.19050464936084555,0.15043281127769145,0.24607220570875338,-0.1849682453364516,0.09963222742094398,-0.05117184008248236,-0.22398869863571483,-0.024320041346848138,-0.22627649443587922,0.16585900984828048,0.372713362858735,-0.04382036680100235,0.04069857717288628,-0.003362873922317293,-0.33722649928633347,-0.1909467640388002,-0.10941856816933426,0.05673415506292984,0.4709149928797846,0.020103735013402322,0.6141919655731636,-0.6835855257800643,-0.017013933926246855,-0.01413144588405513,-0.2173363558206436,0.27828043121605645,0.2779040990390091,-0.21960971195008477,-0.3324508992510073,-0.037071115315462824,-0.15800840559837026,-0.357454016909535,0.20770161279252647,-0.1506954561067202,-0.32321220587667343,0.45137938525293403,0.06629605195179777,-0.22091376072534813,-0.38837472357948966,0.20195231479663223,-0.4443686779271496,0.04808680258982385,-0.281574421572633,0.056817485107650986,0.8729037130819373,0.7724427640271293,-0.36047200817091773,0.16187035839436192,-0.030586315684593808,-0.3126869641375407,0.34889607521851773,0.20784218209620897,0.17608288111948778,-0.3873078125863967,-0.11634743761058441,0.014903641434746848,-0.7228283388003094,0.07225401214425792,-0.7788813588420573,0.17092843830898577,-0.03712671302016472,-0.864356707109422,0.5631731165966147,-0.14208439841525927,0.08800164446803405,-0.7093736675760084,0.801525005256047,0.3598030450261651,-0.04926704589562566,-0.2868621219379186,0.1631595373410707,-0.2172114144048958,-0.19969060536834574,0.5535038910226658,0.011918335447858532,-0.07608657841241688,-0.024958329247149212,-1.463733903788014,0.03701223868619822,-0.8551851617403611,0.048098565074328935,0.11071059728521433,0.7994214092882559,0.09317817528329252,-0.33612954822857927,-0.3507573197715048,0.25107922549179207,-0.42206449657565265,0.08601031707012868,0.38098115062020843,0.039152482323847965,-0.11840963658957387,-0.11830620010537551,-0.5069198990431081,-0.3946715527718954,0.10359877407735046,0.28486573229672224,0.21019520619380805,0.20035051643109167,0.5434620468901241,0.1204576285001877,0.6370247505138155,-0.3042064353979429,-0.24936497953317593,0.10773480161201861,0.15646781014249564,0.021462842863859105,0.05156907903608251,0.12902792887041795,-1.6088872320145855,0.07897455111731702,-0.2165165220063085,-0.01934256682354598,0.07427754519497673,0.07604511772707773,0.017412172809694912,-0.8167641416161129,0.02423850341476392,0.243250374516154,0.1697184488373345,0.3245517616668091,-0.2484971643904113,-0.12829853180288117,-0.09152924471289807,-0.00518165712153724,-0.19392858886526476,0.3029565442795876,0.09645041759054393,-0.17999271411113466,0.9141291152828347,0.4046885458772098,-0.2557038245265516,0.04740869675329832,-0.34664299604385496,-1.2869650433685538,-0.09206293885934723,-0.14525613047667083,0.05104475807086314,-0.834730819859759,-0.47686579456893086,0.3423067881205318,-0.064118149414754,-0.09723231548044596,0.14294926518461867,-0.164495660904347,0.13898765576237487,0.19534791463516313,0.21258141470219183,-0.06415491168079426,0.57550070317355,0.06176095589039937,-0.48383797199627193,-0.14681492459302117,0.12975985437398707,-0.03694032173730387,-0.11667198925721312,0.502854615661371,0.08286673836118975,0.2890357246701515,-0.07456309600019474,0.0012749734163566857,-0.37950955821669463,0.20554031662336616,-0.05209718851074063,-0.194286623215129,0.3080616803901697,0.07003095311953396,-0.04121415043492777,0.38544809860760615,0.07403865613824083,0.17763692484922608,0.0661982079633824,-0.37749754427334964,0.2205396313691317,0.05916874960186714,1.3565122953392923,-0.14884860016163387,-0.07891637704510458,-0.025538773616576367,0.5541273623682558,0.24143182000401542,-0.3806782663432243,-0.04095611788234551,0.2361048062640222,-0.20383254698546374,-0.08312444126819135,-0.45786857509681433,0.021766325244873888,0.37270493685641787,-0.43972603291384216,0.06213559415902111,0.20393533238109823,0.06288582337684384,0.16061202704912897,0.478195729341071,-0.08836968510087233,0.10982910261467178,-0.2610358086056862,1.4721988380754367,-0.08317775745517937,0.09901923620760936,-0.25796755687873335,0.4894841269451599,-0.489442073495903,0.12034690985945226,0.10305418032042614,1.062794410117483,-0.029005239734507266,-0.14896734905323988,0.028556864300066202,0.6621055005721613,-0.37627414589603625,-0.1825153485358202,0.20544738520519498,-0.1428415729347715,0.12242930235137825,-0.031795136194535105,-0.5864649068823847,-0.42155018316296555,-0.04449598898765573,0.08377068389723266,-0.018331277644027234,-0.22867359331191298,0.007770115730398078,0.11361943688658577,0.5345348081807852,0.13268021712074937,0.16384551259339716,-0.061803125246079865,0.21733126400997752,-0.08257895348041241,0.4329845125121683,0.248579909967915,-0.03910944484459098,-0.5701941480432948,0.06104526758547931,-0.011538222566144693,0.11904586916293704,0.11865441579366041,0.17466370446320487,-0.7404816539334876,-0.09668131085209254,-0.01729127477602383,-0.14132763106337515,0.2989977288399458,0.4462180518517252,0.04557569218515244,0.2675471793790371,-0.3483375213103365,-0.7178975069613691,-0.18721950121647815,-0.1424607250165089,0.19232781707164795,-0.16233381026022473,0.3445432945793835,0.03161333597470249,0.6128091449742439,0.16240084630137921,-0.004959778469027917,0.3747246523679863,0.09274651545481483,-0.014483473385315956,0.026565636547461743,0.11630931511929858,-0.3944884956691616,1.213837537653301,-0.36504408920888576,-0.007719821268370701,-0.13026114491533655,-0.07662865564676528,-0.0197149379377289,0.36139271627962516,-0.2094584189518613,0.2033935112294923,-0.005409331493521463,-0.24714178426084382,-0.11481223933686359,-0.11168939940556204,-0.28276911748512573,0.4422753687429081,0.6855177514600409,0.2765873022653751,0.13131585410921226,-0.039076855433554804,-0.1414506431596394,0.06473197138857069,0.1688648064306285,-0.7126058326755373,-0.19894167671490315,0.175821512362178,0.0658292671102067,0.5181662643848325,0.06729314460052137,-0.40754347250894585,-0.010826552408968347,0.021017399393461356,0.5437008582706427,-0.4652570656151227,0.1915633735848345,-0.8071284333959573,0.1650651658084808,1.0895793794392927,0.16454340996976372,-0.05246892137507843,-0.3276665406821958,-0.2351427867076975,0.14025756795840805,-0.22787148190111833,-0.2946731747421021,0.1657153787469668,0.20124370541010586,0.21114617207935188,0.36108232340585167,-0.23191852732944815,0.15297226346977716,0.2034571074653197,-0.1970510182261323,0.06357503717295616,-0.1165198567045413,0.10824920556079527,-0.02745281000547765,-0.16939291169345544,0.20033127009989735,0.1483210469261155,0.2705038638534203,-0.10247782749941634,-0.16987129642888565,-0.1762203709617831,0.3032052955653239,0.000335600585515985,0.21811713267490904,-0.3529538374798399,-0.1697466631278267,0.4515622702560686,-0.0849541610714614,-0.04572487199875429,0.1807893652514062,0.03580600822660446,-0.19689797797917813,0.19636105244489005,-0.0018079526007316474,-0.014076812396140047,-0.1788479986755011,-0.2395999188774061,-0.07307147636892314,0.07991716557654581,-0.8055305958957832,-0.09788945156990236,0.0925207435090029,-0.08044100192216194,0.31295456824992707,1.0410552072583703,0.2570436061304093,-0.08201151020680032,-0.1802294533701845,-0.47264816906200574,0.5700553530788249,0.15576708411342488,0.20335329321339546,-0.63876884955812,-0.022130437239653734,-0.20594773355772372,0.3205180088852488,0.35408363411845284,-0.42135177060305734,0.09993528300537226,0.08317724780783306,0.06280024414419072,0.2714718333779442,-0.16297072669225446,-0.02920626370287467,0.2562226242696434,0.09616100610470903,-0.026603579118744468,0.2910596267443302,0.15775277785755126,0.20254341259813674,0.16888680615906781,0.24024463895573922,-0.3156266659152873,-0.015699616781845956,-0.04617902971361267,-0.6137552184455204,-0.1269292517140107,-0.2796334555945773,-0.02540819142245657,0.4342173251116509,-0.20499344452659368,-0.325955240602245,-0.10582718686391501,-0.039044317965633256,0.049060161152081755,-0.1598929377145852,0.18815545306318138,0.014788885717977344,0.006075868465288035,0.0980249145841497,0.06861187246562468,1.2272139921104877,-0.32274499211970015,0.04510474644038469,0.17921227846517365,0.006148734164961283,-0.037082126161318195,0.15258752526205585,-0.19083798177915023,0.7136317733226505,-0.31963099233808495,0.24815980021675263,0.0636488522114441,-0.10526075166781988,-0.058193637496343875,-0.2075824457583814,0.18298912775124135,0.4179169541196404,-0.26564760202231424,1.7304739833586333,0.34225472682800195,-0.21701072242804129,-1.0009041866433135,0.09814823234418166,-0.0075837696624844585,-0.052104658950383194,0.16592532395126752,-0.1886864761212877,-0.0967162749703085,0.3687101912465797,-0.16122070894887225,0.06591641067930142,-0.2007931616662523,-0.21444068036477973,-0.019366242322224128,0.22995219936712197,-0.14203548293807244,0.20646660671586947,-0.20618499872321727,-0.2378027413750501,0.08954330648911193,-0.09325036967287209,-0.3210049780286662,-0.1011116673910775,0.10458025462108504,0.007288532565052873,0.10699965645688728,0.8072619733874913,-0.21298180545608883,-0.06269852836623076,-0.18459129793809184,-0.38730839482540425,0.41890505858822763,0.09286309080184804,-0.6278881257293589,-0.014975170222168389,-0.28741560111261016,0.19005756804364995,-0.130604105904477,0.21824480817047784,-0.5335699471039689,0.32826484818648766,-0.22619440120637146,-0.11682375797424101,0.40361001496615917,0.2734802427381136,0.039697871115038745,0.056793065035411094,-0.43310264198232923,-0.7926711687349797,-0.0012842707827778045,0.006323032223268146,-0.10945405748215258,-0.008392507198320086,0.7108833010580032,-0.1787191362056906,0.5579866772596376,-0.6273362409802027,-0.2220637238536937,0.1579635401883744,-0.2114187480339701,0.09520248862105078,0.05989355914119396,0.22724444669627514,-0.354823630861917,-0.42625723368365676,-0.23648676279320732,0.23470146889788457,0.20674088366238616,0.028848632641688125,-0.36721652208846267,-0.27350023887970093,-0.17415142414307866,-0.285435959480028,-0.008128859750172523,0.17430916419136558,0.2511575816569441,0.2852574922464577,0.0487348599405675,-0.34563267256946334,-0.21360443418169606,-0.17563977162447278,-0.19730903481381354,0.0959740774134143,0.07658937657280648,0.26659424901216816,-0.20168382284201766,0.18196450867222363,0.09233504123071987,0.18050596658696536,0.15584399259948659,-0.12274177766662676,-0.07298100778812408,0.23043974642159465,-0.13073725621825172,-0.2920115119342134,0.14353988918130617,0.04903299342137253,-0.08176276545628984,0.4490846604151477,0.03642156102326154,0.36614470409437117,-0.23760626135282306,0.12464344499190755,-0.21200462386866267,-0.0003185751493166042,0.32390439037019464,0.36440264558102625,0.09682643304933598,0.08918458772633962,0.035624958013239345,-0.017207568742279557,0.1778440811880017,-0.5941115043608446,0.3033514075478437,-0.14788985536781513,-0.10828905744582597,-0.0061078207449431045,-0.050319365638819204,0.1633578144853189,0.07376720122343174,-0.06617946903783445,0.5707717585609448,-0.7939896262727041,-0.2694789887256297,0.22379462153351287,0.3593607785114438,0.007581622349890363,1.0601981550467336,-0.7578052795967767,0.1915095407248922,0.013235057214923063,-0.8199788636223015,0.2639523975267488,0.047595136333438946,-0.3751688656434324,0.055485449801664956,0.12634449692871047,-0.1986116616103742,0.5486949708315253,-0.34113638265994584,-0.04887951466956268,0.04375456578370126,-0.37258276441563193,0.24715070924941693,0.1628158753123545,-0.27413181446378915,0.04592998446753256,-0.1881440746765946,0.08798103721506165,0.27859103329581336,0.026166507566909053,-0.0397387816107918,0.07566112913835356,0.10025894044772085,0.06221482297958209,0.09509697113075126,0.2442120764884184,0.16379389144810125,0.6107672498305222,-0.04628979366340503,-0.014449398458229895,0.13798913493005313,0.06900537434311395,-0.06535341792454984,-0.2330905740310274,0.36345319152381833,0.11063477434778152,0.13158180195734653,-0.04039544705467834,-0.08257073236484534,-0.2775787704900601,-0.3788811322513131,0.21671803306215737,-0.08726535914641256,0.4164162198399187,-0.17296172434449264,0.08679073367119251,0.1820172297858935,0.15020966577089315,0.18264954414432255,-0.0798783352017017,-0.01308380634119724,0.3753119444846315,-0.3849918744944787,0.3628496209963084,0.06764435505913552,-0.20632337748523896,0.16445832856133352,0.4231102406919527,-0.0691336866730395,-0.24268872001306205,-0.1754062359783212,0.10408558500241133,-0.034585953997759565,0.2907520731279342,-0.209156311404476,0.8922308007399877,-0.06348173559301883,-0.11941367190027984,-0.994328082362598,0.09283426848700299,-0.3080221642243119,0.15659767002779118,0.2904138921472707,-0.16540467305580087,-0.09141861252836408,-0.6607997721027743,-0.1922094666056638,-0.25719138602471114,-0.07777987542377861,-0.37171010424973555,0.11741148902259661,0.33619831971874153,-0.12843935975283366,-0.1633777282530811,-0.13971581346800444,-0.13998015083697443,-0.09593932807837716,0.26883377346063375,-0.46797977171856364,0.2903070409544496,-0.6822457224624976,0.7026530218730568,-0.23432783220954795,-0.6422121079144288,0.14725203251509947,0.11725582190830029,-0.36266276312142115,-0.057849870253064324,0.1060789821451234,-0.22350547457194136,0.6887381567784716,-0.27309954223109945,-0.23850198473548395,-0.21481794637728557,-0.5565710477317867,0.0735056203981661,-0.30957290449825564,0.20889387460628628,-0.004763737843967418,0.4928022821366887,0.3097396196438629,-0.05793500068345835,0.24587728101156814,-0.05846461758722426,0.006536868396681205,0.22366588967283196,0.0845969631681737,-0.0007026662590666165,0.12991528023180385,0.15746857451339155,-0.19097255087256332,0.21260345434886224,-0.2772886247704315,0.06917081384065443,0.16768140987112476,-0.10478386680096274,0.039014925283871675,0.14743573593297635,0.2046290237735954,-0.14772783963497868,-0.23602155808077474,-0.24040157442986973,-0.1566090808412319,-0.04047010633189,-0.40032173566536156,0.3236739377961954,0.15369336493015953,-0.1429933486012705,-0.7040726522662059,0.24501741271197947,-0.7868709123274782,-0.2140182458422562,-0.29678106765740847,-0.4760318846192849,0.18485608313299345,-0.16513370241610734,0.07362033077636668,0.35320500423282153,-0.5335048515111239,-0.0016205590686767177,-0.6132117498558889,0.9560168366860428,-0.463951718367036,0.44382024779574614,-0.03478195510495069,-0.535258150949073,0.1105387408058887,-0.023466380442679246,0.037997667014720564,-0.03537837351020909,0.4541531983136584,-0.27402818421330905,0.22269347898645195,-0.02592706510793389,-0.371245670866578,-0.2916249234218557,-0.20980332144566302,0.13809048350569536,-0.022645334909838475,-0.24227536075905903,-0.18464191775118644,0.0771571621945863,0.30760765299848514,-0.013381672680449895,0.042143719855062066,-0.02649589388411053,0.18447307061895626,0.033819467236862986,-0.025321363339154544,0.18307720381110332,0.01864258333924767,-0.3382679931951253,-0.10301041753419449,-0.1307802849102867,0.5972555182974901,-0.01552723262359758,-0.05543629197887297,0.02452622696317341,0.24223095348270834,-0.2587861881909458,-0.28818808378707406,0.37109456908807886,0.10853373108183997,-0.11545454670351707,0.23659626042576914,-0.16088306701495392,-0.734740158253119,0.07531526254871618,-0.19967775177928776,0.0048889984899853686,-0.017232364280091308,0.15263034939012377,-0.011881471307608459,0.33648823209787826,-0.2501264592238763,0.042104767151486956,-0.2469517118297289,-0.05514272824328847,0.143339098247161,-0.09136910769474632,0.2409292108981984,-0.1468564009602737,0.15978414616350445,-0.4650546942143762,0.5302018158699492,-0.0243602194290603,-0.012809027259754802,0.9640417271215693,0.003311466262200399,-0.21773803877117123,-0.12855803017541562,-0.011314560301153081,-0.13896469352653248,-0.09726921089639161,-0.15615136748431116,0.3879701485803582,0.04297718783678467,0.10024127865906424,0.45190573420962943,0.0007275931780768609,-0.022674406751580757,-0.23513366606327396,0.2390589805521056,-0.13434106413462077,0.045667729213917596,0.22691670474998515,-0.2624871362291426,-0.1675296721385862,-0.061750436389440534,-0.25388617369145516,0.061964164996201686,0.25199797129438367,-0.0591361667539718,-0.4547264016344371,0.2597847865441051,-0.04137579628355253,0.5078937015840967,0.32098005004727115,-0.07603743622089874,-0.0503658214674692,0.25222081874904295,-0.6463090256633632,0.17238751711371156,0.4296877137749202,0.15818693113099008,0.2537871868076025,-0.12887057044924236,-0.6345018271659999,-0.26759452430493286,-0.04019933213785017,-0.2463820915690361,0.1496446328118542,-0.13391191094826735,-0.030756344631523304,-0.2665232635435236,0.7144923792418583,-0.23490349506732738,0.02559065518672993,0.10993380073129962,0.05592123968937794,0.1125511240112782,0.25580011589267293,-0.1020392392768238,-0.027556352337882763,0.49751116077247365,-0.3467360858721385,0.26339300343591154,-0.8071276190179664,-0.19414213832538063,0.3092822723561594,0.057535532198599415,-0.47803735837887634,0.19841199956193692,-0.026818638234425665,-0.2514899027323795,-0.19312170626656583,-0.22638538175395947,0.06515249468652429,0.5488796114507266,0.24848688641913486,0.13809386244900157,-0.3802746876030247,0.06692943959633363,0.219478026351148,0.028521335902148108,0.0262482782250192,-0.8785593699609849,0.11016517747996213,-0.12413530276618844,-0.0814004965766828,0.18763194412359482,-0.24401193791239953,-0.21330847528984637,-0.11291545294271009,-0.10855171786998688,-0.0013981452945130944,0.2562991038245336,-0.15691109220509047,0.14077950459023078,-0.27940311544296254,-0.002641251585928539,0.04076389326917048,-0.17331243712089578,0.23314355026853467,0.03401022905626073,0.07873745063896553,-0.3603077543728217,0.32529441358985567,-0.2386958499219343,-0.08714380134929962,-0.005574676226005323,-0.07959464734733546,0.7305515618258348,-0.053571572978558454,0.05711610115342,0.07474856305336725,-0.21064392857928751,-0.19040682139384768,-0.10075825632269579,-0.208950965142998,0.3815505555657238,-0.2155490090099734,0.14999599033073419,0.35124455987164743,0.014993157671589031,-0.7161100518729825,-0.024701106507880485,0.3027174006607006,0.13089804030522956,0.1749916497198655,-0.4276054416518311,-0.16352790257301605,0.48779342760826505,0.1493459167838417,-0.15793756967735473,0.13714427423203415,-0.15830720187504302,-0.00864286159734111,0.27244465856099925,0.21073279022563685,0.030904769718539154,0.13336079773037568,0.10070300591392725,-0.1226166370999127,0.16920612229407103,-0.6203347361173155,-0.15025692719645642,0.21556911953304303,0.13031987656756258,0.43036495409539505,1.6490157858371055,0.029049688173180214,0.02110018338276932,0.20794326698538787,-0.01291407577041195,0.6360465782543402,-0.11508049802055678,-0.39618584555143577,-0.04906434493791754,-0.005798193049012461,0.4917649880277173,-0.12554446418059448,-0.5954769084391589,1.9347604121306525,-0.10397606007331099,0.34797072868653756,-0.09189016740920875,0.27946725602856415,-0.3935163709428657,-0.003465976489961291,-0.22107329699798411,-1.1848858178837045,0.904316671066091,0.07069491363854238,0.388159984629284,-0.2650237115652924,-0.2378644922675736,-0.4541421214919739,0.7622606414691875,0.1485402202333246,0.06035407243320198,-0.04588509562671506,0.05003664723140223,0.13288971094049515,0.5751583003278439,0.11745252055594724,-0.0929753619117079,0.3146166871814697,1.2079664780263577,-0.1152768392238359,-0.18155043336183863,-0.9791372734134869,0.17011246663895882,0.5241453104718193,-1.0752296709524962,0.04537886673469446,-0.05455762816604158,-0.24912550704361433,0.31021682761709896,0.05800456033171295,-0.18272716921687568,0.16945904109573728,0.37258875924038226,-0.8347555070809951,-0.055550552824367744,-0.12269313392914363,0.18767628925006388,0.07072709747656254,0.6373778159010302,-0.15782826402209132,-1.0772900497929796,0.29749025253183653,-0.4724869339138539,-0.05489559169905609,0.21376015616055424,-1.1580916608927754,-0.12916058958526405,0.09283555623731364,-0.19469791493109723,-0.11750903891359128,-0.23068992553175444,0.22039664970941258,0.21170058762326685,0.062416049701165044,-0.00904874138097559,-0.8485119918388903,0.34766203688593617,-0.24467466580245018,-0.14681476885160874,0.22820508215816424,-0.12129067889585016,0.2087661816857323,-0.03441203115098673,-0.14566700816713563,-0.8427481608477074,0.15787799027156138,0.12388285906043829,0.39910769156461773,0.025482854827093563,0.46666149426775005,-1.4261341195672954,0.24747795747213613,0.1478932980996048,-0.11638222413990723,-0.36572326685303647,0.2065961451027223,-0.3692479925130573,-0.12380658532233275,-0.026766424632871193,0.05622530253669292,0.18258060133571893,-0.4155821558846596,-0.10652892235336973,-0.047179518280994724,0.622760184534746,-0.1999359242309542,-0.34463112045921473,-0.03579404434072304,0.008186789178642528,-0.09706067071137896,0.04312469128328494,-0.16320724389874688,-0.06779860473788675,0.13182841243546295,0.01749246356858426,-0.015721194991156553,0.20646634271608602,0.17040207342504995,0.1880193940052829,0.6606546340713342,0.12531383945129185,-0.2233168223547959,-0.1313451984138113,-0.37994645940755156,-0.3157135460387792,-0.022854460349889496,-0.24135345083522017,-0.046078503649033396,0.21926569992613681,-0.5849383728925018,-0.24204756975027117,0.16094625959660092,0.15100941037957435,-0.2787869433743708,-0.45336327531384824,-0.12908538278998188,-0.18517015971990933,0.5538591685054844,-0.25125455819357684,0.867820814967118,0.012103177590367876,-0.4988211131289044,-0.8871688425567085,-0.06450937037919918,-0.07397830013360826,0.34888076769361603,0.36000712192230255,0.3609965150441211,0.12489612883633117,-0.5337186848212255,0.1956596759593754,-0.3200424443613685,0.12305734447918842,-0.5308523554900769,-0.1859530506192676,0.33959309197847803,0.14190345616510938,0.16465691790899661,0.015080685320157055,0.1864073150302368,0.07848889984122046,0.655602051123336,-0.6152849046039849,-0.13481982946700308,0.04395443931084162,0.04045069511325396,0.2719274873637998,0.17537009889483843,0.18607493721136328,-0.30016336098881646,-0.19909174109056546,-0.30080405465659926,0.20577518705720885,0.09289904341055859,-0.564891779587508,0.1279339490342595,-0.5354845635890116,-0.06303959426739571,0.06538061953556269,-0.21976199378301822,0.006645370062575407,-0.008088686159925931,-0.12116244075224307,0.16916413895538354,0.26444250152482207,0.2302963710072589,0.053470119133382676,-0.46053465291718493,0.41974523960887744,0.2322064068026298,-0.3056891543901085,-0.1304737747626023,-0.12335186258659254,0.1504221061216469,-0.001665277883885406,0.06136286514878252,-0.20430146308926186,0.2252251157778135,-0.02879661088099458,0.14178033173560198,-0.14434580814993583,0.08160994776654458,0.1314300802848401,-0.134569910223483,0.005770534817763323,0.05495810960176357,0.1912891727654104,0.3979795261629146,0.09334581524722656,-0.19661001861624977,0.09649098833832308,-0.2496768629884257,0.14642850529198564,-0.40668846116825136,0.20911283207220938,-0.2517495606174443,-0.30155642460912585,0.1356063026652258,0.03472708649597895,-0.13353491234645018,0.34361536963252676,0.007483772721298172,0.06877394723184467,0.07032335800554233,0.5821894443045642,0.11385255934037725,-0.31190986398794623,-0.3563348380080481,-0.1576655168231952,-0.18082390322634198,0.16837131784737133,-0.4862892599158825,-0.07658770104541454,0.23388863248514602,-0.5861153430609701,-0.39011905252101553,-0.031895839458698276,0.19563679889832902,0.4562615516952853,0.5124715750495522,0.38277872782798356,0.319051520505809,-0.2939191070640695,-0.17513506043569013,-0.253608231219743,0.041167473472303526,-0.21497408858849254,-0.12485996352562166,-0.11638560283679951,-0.023142949540749563,-0.05062098726791987,0.02109027402060504,0.180723227334009,-0.011105021213732049,0.4920710370108088,-0.051155255939707794,-0.3100272172073522,0.5898487233542902,0.09407341752134908,0.02173064943492836,0.43866070894284775,0.1984243519182996,0.06565270376335809,-0.11205137290521074,0.18748787404459175,-0.07462586325069441,0.016167411322461883,0.0011401458374124668,1.3785323331199275,-0.15458424995372808,-0.051267205140396274,0.37246343404275295,0.09419144547777496,0.10727941171010369,0.5710890793509064,0.06814955142499976,0.16546176316647918,-0.02058104657423309,-0.00815200309682758,-0.6700608162269784,-0.27010772916461573,-0.27409157024446035,0.11686393040815705,0.2070355984040034,-0.4272715662479823,-0.41727693607207467,0.3299681748268789,0.002378443322317032,0.23366828419192456,-0.4084460854251555,-0.23901659119427784,0.22628395818221836,0.4359574073014879,0.136441659266975,0.6255425624349308,-0.09404586209676169,-0.16494614826183135,-0.47780723727613633,0.13303563782366246,-0.05779587483035369,0.05059597067182693,0.48926921249368743,-0.051362334359346604,0.17943169673516074,0.06155910959541898,0.07660545573303824,-0.5453864979641284,0.14940669897908032,-0.3297362168599818,-0.2187298683126702,0.014697271633947078,0.0812889466516496,0.01597612836437661,0.16960454507565131,0.07383995438949505,-0.03414534814600894,0.09239587078454257,-0.061501654230563724,-0.1540219015178059,0.04952144679647934,0.17751142977205947,-0.22456461173011733,-0.05469691175217904,0.0686062205077897,0.005069019431894134,0.34921590005930064,-0.13169570462513402,0.18249181942625373,-0.08466009639862368,-0.14045116570628347,-0.24321328972318365,0.1152496789769627,0.08445641796482244,0.5930409813027826,-0.23022257014779943,0.029622105507637064,-0.21856910477348582,0.02783859879696718,0.24871276904184358,-0.051926706047001246,-0.3003735336514177,0.027494432600735443,-0.029767014341418613,0.5307725958030526,-0.28322392907139077,-0.2321357039976154,-0.12439620564828792,2.0641203853586854,-0.4287221560363833,0.180855012173795,0.14428489083622614,0.22472815166293325,-0.06031538123554065,-0.11684357881492917,-0.42865295122481417,-0.1277262108192901,-1.0151483257486298,-0.057337881817786845,0.49975992532520497,0.8202169785547733,0.04419826117991295,0.14589821184150364,-0.42361530589063084,-0.5522741796089998,0.0470365993058277,-0.3337649435274678,0.5127706203544867,0.0028357225288647473,0.26572679795322074,0.3368910908329676,0.42121357843547946,0.1359186916607748,-0.04271391102826209,-0.2810050190055112,-0.13612390993835924,0.17525488763312128,0.24680657137023587,-0.07114170433167995,-0.8625155511077655,-0.2885613453364758,0.3740507334251446,0.03498824510949735,0.16527511271413167,-0.17509813710062916,-0.1237253788887533,0.414378018262809,0.08318793558454293,0.12793011201415033,-0.0806691920013234,-0.48918809495926774,-0.38382459882848663,0.07314874070336982,-0.07593178818521473,-0.044822515441512424,0.28175350465457316,0.16334294794832657,-0.09482024630952084,-0.13454503733823467,-0.25035567960325344,-0.45567916321967433,0.4812784452856454,-0.036261333027980146,0.24600016351261855,0.29961699045788864,0.30605746245766174,0.22635475759454118,0.22388735514038,0.17047215456823794,0.15589849843895667,0.528566886079763,0.9632199512778723,-0.0046368488025150725,0.31428130830748013,-0.24063002540069817,0.00536222093128085,0.013750756208840028,-0.2517128498971899,0.46189246899753067,-0.19300202399707087,0.12394010496616127,0.17126508778569324,-0.589529760303794,0.26358179344491656,-0.9379148140713636,-0.16145872765004024,-0.2406938405855405,-0.14986553434541364,-0.2348737341102418,-0.239816804378791,0.19302931574026727,0.004552122054805855,-0.1363368256653071,-2.3790444885658535,0.14775951394635192,0.1790121024196143,-0.25474630321313707,-0.0005212017213919642,-0.19216148758533663,-0.10018802448262751,-0.18184002943180083,0.08276778861866121,0.5397409649976405,-1.3928718137691856,1.152698827192697,0.1518834740880562,0.2614359837872715,0.16130428055303997,0.24768854794346457,-0.3223903038707544,0.10920694371897242,0.37937732043976796,-1.0321724914273813,0.39617456392403577,0.01802702256268107,-0.24034976635684108,0.16765463859138005,-0.5105950451053471,0.13273122768838508,0.300677287646136,0.1671106343492766,-0.05513767464593005,-0.22574569228639565,0.09948108132609858,-0.045542000189101484,-0.0905068572068108,0.2341806198222824,0.15667017556154772,-0.0683691031267018,0.20287272320894081,0.19576492018706387,-0.5053366701491456,-0.23043297755217507,-0.08698966319633271,0.5478855643172414,-0.025502304990094055,0.15182497589140465,0.15076428265181585,0.21373609379378342,0.0794021727773086,0.1417928680201906,0.10984895224402201,-0.31553315716719565,-0.18660323394477815,0.2438795595707956,-0.5294572399083164,-0.18030094844333092,-0.11545966728527078,-0.2952907415776111,-1.852316059915495,0.12194881047665487,0.35877839018497326,-0.017333241648876615,-0.025477386527071932,0.24797720724045966,-0.14040738264191457,-0.028642048892685363,-0.014731780218943395,-0.4577578579386258,-0.8030400201817898,-0.006972344253920289,0.1090042496576654,0.34972374601659756,0.3098298303224384,0.07981626572848398,1.25301249629874,0.30992445059568385,-2.1270616407876446,-0.06671222166238788,-0.4233761945461519,0.21778525430713364,-0.22006273091392092,-0.1718397098300679,-0.05124795540592174,0.33614488178061736,0.02508755383312158,-0.5991618942608785,0.8815842925066248,0.3837851403165563,-0.9442738274895408,0.2498514787918705,0.028548185206705885,-0.22554869736226052,-0.8479517230996649,-0.12894691760906296,-0.013798760586090138,0.2006541018204358,0.28229913480585367,0.7282435982384983,-0.03764608389794186,-0.10711816438388941,0.21829517005768334,0.04442557825927573,0.18725139436629218,-0.4727300310991344,-0.08447005753404192,0.38034236594083976,-0.07666394471940921,0.03355238413377715,0.15848825345829717,0.06911435990536997,0.0507186312703751,-0.113804854283532,-0.16181504320208248,0.12554024283398324,0.6943305914747093,0.19431356340219977,0.9857327875058893,0.0842837224310781,0.16772574522044595,-0.06324029208459561,-0.07134943544774983,0.151139609771976,-0.4222034112199252,-0.2726554738571945,0.0851043254722701,1.89462968834482,-0.17722599296875832,-0.023076111664699483,0.06271826463660037,0.11211474446167989,0.12144741935450781,0.13238211986205514,-0.18139283075439813,-0.17918698018753232,-0.06286959236806758,0.5197719017604397,-0.09595208148947634,-0.015964378604899358,0.08811649140622484,-0.267481324061198,-0.4115948929588828,-0.149299530219948,0.5867100068030059,0.12102175004274489,-0.2471947896927041,0.04514342831661415,0.20460186724073198,-0.00916483470607061,0.22883287559348786,0.014686596479264296,0.43228787878752256,0.24596054301895495,0.42520088599384964,-0.08962143745823994,0.023766288150133135,0.33643576969084565,-0.5344185308778003,0.01822741655415165,-0.13967349523688172,2.51659872853895,-0.08204410945679434,0.4009504296891214,0.5371764664622849,-0.23643399972301485,0.06672169488692287,1.5014017506657373,0.1324030808856064,0.3200630810164559,0.3407226721765196,0.03333499983746747,0.06438931301850281,-0.03789790737590113,0.18385307868271752,-0.217791531426042,-0.10289815531501889,-0.37836506207361414,0.02790154910184713,0.1881788138808358,-0.10340773410335939,0.32231865283095634,-0.17107628590594257,-0.05185259226447965,0.1662088707225093,0.32522483424676407,-0.19439811344035515,-0.05978962663898737,0.04467558894898161,0.11533648320034968,-0.3480066408644216,0.05542254404787537,0.20483454262140702,-0.13485331560421251,0.04480339289830002,0.10370665016400128,-0.18835444845253338,-0.27141197889528434,0.17071111290362434,-0.02103385133842072,-0.23861341395623473,-0.21575530915424107,-0.08938059234199092,-0.26458469431208503,-0.19571150123302744,-0.06546279528123908,0.2871107016913051,-0.15157607857744043,0.087566993351149,0.05473433527154886,0.045514617112868284,0.026119545204673102,0.12273675829100465,-0.13116281576910685,0.011301004227549923,0.10829771628258249,-0.10321447697683278,-0.10521884930616711,0.00371515449672178,-0.0987526224339456,0.23803114412081786,0.25917688930351196,0.23920379857811627,1.6530712763661708,0.385197800372187,0.015320470495878539,-0.01648120290929291,-0.08238060573629194,-0.030283067593766685,0.10385202521586236,0.20707186938933914,0.216396540812237,0.44321936135005496,0.20312136809515585,0.04372359480176608,0.10161432699692402,0.11694779457542459,-0.1046930145575028,0.23589489860694246,-0.0636095754890218,-0.746585338856823,0.2091105199254291,-0.4925024097636522,-0.15913044503167145,-0.25346298359961983,0.03656364298136965,0.09117530736781276,-0.21994152756422872,-0.29286415956840817,0.021934258238502338,-0.039906243929885614,0.4891426702551986,0.11627874248313802,0.015240158253012665,-0.11902813323547895,0.009684175253487077,0.24719792134179683,-0.9973972220586848,-0.9235080976627337,-0.1140339299326367,-0.16699918372187902,0.05421109618676575,-0.15578768873986035,1.126685536132635,0.10772054543153319,-0.25605613074894834,0.12176713836968989,0.15560695133383265,-0.046767082624134974,0.024053413136856393,-0.06295477885247092,0.02185113015970674,-0.24124210436226284,-0.2963305012961791,-0.015075553618967705,0.012421441013703502,-0.057925603847420216,0.0901420780441528,0.1321935192085991,-0.33862956775286246,0.28305698832989906,-0.008704597409264558,-0.0021744346705018128,-0.18420940530205573,-0.18864022631385136,0.233309992902748,-0.08576456882076616,-0.030600815718926654,0.049358488665446724,0.24987629952344645,-0.13979560341696223,-0.18900001204785782,0.32701249618017475,-0.003084301291922331,0.1503422293948592,0.2889479031975913,-0.4176553714779048,-0.4800170127174953,0.46259198780693994,0.3884317990715183,-0.03918838776954071,0.24289294610877224,0.1799547478778403,0.207840000235518,-1.0251468786274873,-0.14465919011755193,0.22319132109757858,-0.08826997305941692,-0.23276767619844332,0.147355544327264,0.0505297615699612,0.032545736665855515,-0.07848996638985245,-0.05745294986835768,-0.6892109007088837,-0.09243900027785726,0.2257455418715325,0.7685810408006222,-0.31466528143354294,0.5495822598528968,-0.28235297951915206,-0.1668078824610099,-0.24487337165944706,0.1662785152446926,0.2071906086455156,0.15713998694861464,0.22256746727155424,0.2580956312730071,0.07528686161260656,-0.18351096782609683,0.2242995130531079,0.07708594452140147,0.1002403153740068,0.14354521704708545,0.052843910819357125,-0.03318951256670867,0.2574370838483015,-0.0712332994601966,-1.8342844423145268,0.3239447460052634,0.009585493828256972,-0.06537091152486109,-0.11313793878771354,0.00947823996198211,0.29738084179493646,0.05738086851788835,0.009386039536318629,0.1858324048172531,-0.09202335227881905,-0.21327111654079134,0.3717022022244729,0.2661582923706136,0.5867289855996061,0.05922303458692313,-0.5024221772414265,0.029778999125557166,0.4510229566216904,-0.044028278440567226,0.11386292697078451,0.27439750896287146,0.5048479976235993,0.05518608868074462,-0.6367886798142423,0.5209970719182276,-0.6589267376270205,-0.16265335913011436,-0.3301597827218713,0.09093257887580869,-0.09378170452810806,-0.05040946020912463,-0.25383401717985626,-0.3849918638734717,-0.10574672139667071,-0.5023737080296149,-0.39907967983955206,0.008598991259728874,0.03519302688062844,0.1808205748359144,0.7856152063175281,-0.09400587564583442,-0.05642636351523786,0.4701989955327604,0.48357578505221993,-0.8376746186938913,0.03436792382970405,0.2526561763020981,-0.7097526410148078,0.45495445556718056,0.13784415542729167,0.1742652310204008,-1.4479329561461673,-0.17969251478031018,-0.3147928085953712,-0.07539948327048407,-0.0036567786126883023,-0.2630229142823136,0.09419888972896359,0.17537050670824753,0.14223595276757534,0.2095973422577129,0.1374972465803269,0.22803126365752635,-0.18514392634273544,-0.16093382100568757,-0.4637156291178847,-0.023152983019708327,1.3323183351566934,0.00592857445970953,0.5440224882994157,-0.12541603743281815,-0.10517846732864589,-0.08713216348721356,0.14697795937873082,0.25702809235738394,0.1391797979063618,0.007383030154424437,2.218565664668427,0.4006139789003767,0.24674109797949945,-0.4277596543879174,-0.26088581258083793,0.4213038355584039,0.27245058318965937,-0.3087819206052401,-0.11463015254912579,0.088735178878323,0.4367201127200973,-0.8697031848459024,-0.10134571739587683,-0.07311728508359981,-0.49422513001148144,0.09312714639586496,0.3049250331797206,-0.03454020425601775,-0.277125762086269,0.563102915917059,0.2167812164538829,0.6961647818056371,-0.041276304404579585,0.05517663791903876,-0.1359990330298004,0.11822700048850754,-0.8151698113221137,0.2788584979773331,-0.268643171993189,-0.06190346231068853,-0.06667841325947772,0.01922960278743999,0.310977433383698,-0.22971035173719356,-0.35570351932265676,0.30637941724764356,-0.183302217007817,-0.02551199881042268,0.2241530616058259,0.19368067166316102,-0.20109243302412888,0.10495463755171394,-0.1731687308199551,-0.13001253724088302,0.08782961509045904,0.41262463504371133,-0.08579203767905752,-0.33028541414043855,-0.06369818513929824,-0.06393210365561121,-0.2996768621474223,-0.19625439062032074,0.29541378130677026,0.056226745002084945,-0.09871960848867414,-0.06633374952448853,0.14570665622870652,-0.020312277527067085,0.12488561286371219,0.387983750066245,-0.0984836731070785,-0.19019138569189079,0.031993903228124135,-0.004630572296320353,-0.12132767217949003,0.3660223305201532,-0.2179380924225213,-0.08582179821928422,0.016996723093712224,0.46087678881038907,0.10822961556902833,0.2814402193524117,-0.048164822534803496,-0.00625626833877609,0.09310072921855535,0.34123764201061024,0.265240082882092,-0.4882098610155526,-0.596682828443842,-0.017317520200152255,-0.014717104606822531,-0.2807729875448313,0.1927271137303936,0.1995542418963938,0.12593118895454838,-0.1523705372238842,0.038882941000291465,0.021185301358832172,-0.01610234884734283,-0.2439443654203173,0.30599606020876713,-0.045954469835504254,-0.0892984758159356,0.41128545840997377,0.06282977525906441,-0.7776708499617585,0.4332560235823778,-0.011793195514031758,0.04508861195688079,-0.3645277353016145,-0.03604841453544861,0.15001004105725313,0.09529549511713827,0.11132291531012913,0.2980100947232392,-0.3230201776789662,0.6485500701920934,-0.05411996935067908,-0.4065479733657924,-0.20346605245782343,-0.2841149242623913,-0.012299165321466866,-0.05743301810760639,-0.3381746226212266,0.14451819530737034,-0.14362875712769074,-0.16055245082812242,-0.17259112365160142,0.2859791648357598,0.0038716736485309607,0.10909390950841175,-0.15479050350344242,-0.06990612564959843,0.04487493183394342,0.37655952131941867,-0.25474820546681465,0.35677648143533164,-0.1446427820028554,0.4680110445521466,0.04288676840795716,0.14669202889396574,-0.1546014100276752,-0.053351459737465134,-0.10996233335381037,0.16375736388006018,0.6935069839873751,0.5602420208868701,-0.22396462283619695,0.028378886488137585,-0.16395516882040023,-0.16504586145086658,-0.020110234723284513,-0.40695250032250574,0.08601583745568801,0.025658741982016838,0.3085667339482586,-0.057921271527721446,0.21041102468479786,-0.3111131127258143,-0.19607969819632648,0.08306040043623455,-0.10607409888652357,0.14313819156534086,-0.21977489630783073,-0.09054423753150563,-0.0878731841366593,-0.17160207827663893,-0.1998826801017346,-0.4423257849368974,0.04669072142190596,-0.06684388542983798,-0.3387119116596316,-0.6461722402302267,-0.1786805703100423,-0.14322010201290153,0.057317429384408314,0.08737079657145623,-0.1802227182597013,-0.11148407395120949,-0.12828464705353415,-0.20810797631835662,0.36905677298873274,-0.10344551692398228,0.445826677883891,0.20622182098977238,0.09994741917903538,-0.23618524644929634,0.29969527805418694,-0.06878789996954011,-0.11801530266567006,0.16494655256774524,-0.2347448289648314,0.1530323811146508,0.39453915271613765,0.18565335867450664,0.3680219567307864,0.1045498826515401,-0.18447722090518393,-0.06276490785600043,0.04886595121480978,-0.20200165293446404,-0.06445398662755547,0.012009793696169174,-0.7572930166815999,0.1528880095513435,1.4932534064929646,0.20108974596014212,-0.01735134532908283,0.14092986360955123,-0.060549881702458064,0.026071791608303873,0.9308026589203855,-0.15781073677932514,0.34081839669689457,-0.0968482782963947,0.25539635402020616,0.26292859429290427,-0.025189950775123506,-2.7869684585571224,0.3746828944568253,-0.417504848170523,-1.5583595116419289,-0.46052796530742596,0.35793451458107733,-0.15556454622106466,0.20053706470709476,0.5291702398036014,-0.3235743849452494,-0.12202035345655933,-0.04581981823299886,0.022776613286512568,0.5104753213986349,-0.029996256043684538,-0.2728479953439135,-0.15304473908787747,-0.1595430061572891,0.09233915504625527,1.2619007245836873,-0.16875113759699312,-0.34702347848917287,-0.04451629315350872,0.08084794679492498,-0.12446595019152334,-0.12121272446033506,0.0932555296231538,-0.08739749697853709,-0.22496777164748932,0.05787614338401957,0.06398050891955762,0.014142970796544415,-0.2537977931131394,0.3770173652094218,0.4619511014321819,0.12297087807840043,-0.031247557555611576,-0.1568402713464543,-0.051742718080021795,0.24480395383066214,0.15723418680210843,0.04111225427916045,-0.06612088274325717,0.21266022484826244,0.15248084958990754,-0.10451726330486619,-0.6353533846136353,0.32785014930888845,0.1518745016509515,-0.2509003840702501,0.18426044030587374,0.777052075215065,-0.39350693317463936,-0.12086487864729484,0.10396485620492553,0.2173779814512875,0.45033403220299045,0.19362309945916606,0.6184472310512626,-0.31083453469101613,-0.5095119169831933,-0.30702736427030874,-0.1569855302085681,-0.05989149386215564,-0.0667355523839206,0.11926438460667908,-0.04033110861593492,0.31530835746316216,0.19364070451940457,-0.18202929359815664,0.12115804771738638,0.005027331832376365,-0.10304268138460476,0.21947866874225327,-0.6035393324454355,-0.8586675648765926,-0.19565739001785382,0.09226170646630977,-0.21719008594005493,-0.041451646950103505,-0.091902366779415,-0.24528439156936793,0.21969711934994993,0.09768271546660275,-0.26798874314644233,-0.35734482541148327,0.4983847784005299,0.09178739725017845,0.0725488190575449,-0.22825600061195178,0.14622952743592174,-0.06420455958514218,-0.41266765525529814,0.4566636289808355,-0.1437815962481457,-0.2319045255773667,-0.10542192121152322,-0.10277592952841899,-0.2824145462926576,-0.10644642140271839,0.2286758779275313,-0.14416923893658595,0.08173049203059096,0.013581346050251335,0.03585063434356139,-0.01914460882528991,0.6432251162213021,0.21669305834481897,0.15754745241607435,-0.12992355427287913,-0.11307167300806051,-0.2007815156214474,-0.2944940448008256,-0.08552075119560285,0.16879939250506878,-0.01117398488636169,-0.2083960972968907,-0.10921363354788757,0.09346728987236788,-0.047514485171059544,0.0752205616273336,0.34785216191769025,0.04542342051025693,0.06479022003892868,0.0649232171375437,0.008539946523304781,-0.1294478926712202,-0.1732486733443976,-0.10224668987268709,0.19733979963645648,-0.4579497868179066,0.007983281190415185,0.14636243980875177,0.012760151564375148,-0.259328522797716,-0.15884716773785026,-0.20769586658401912,1.066769326735879,0.1626045556915566,0.12773730049560678,-0.32093321724031215,-0.23900641782929952,0.06615442839365554,-0.10300830812239095,-0.44260987283063485,0.1117199118315464,0.08191646234611177,-0.11750454096135463,0.11820190092632447,0.0276938161259096,-0.2072295639747284,-2.821940675273822,0.04257942467869233,0.28866395660148186,0.1056180683208973,0.01970858743967941,0.21599523633343695,0.14600883100029893,0.15248180903335012,-0.13269386128257168,-0.1740650750785115,0.6434376664781079,0.012896381804754125,-0.041698017158828565,0.02428707962415847,-0.34561830135457966,0.5125323921176503,0.7603142000678718,-0.1634639643623394,-0.17296937174761529,-0.0470949985795714,0.3621743342425229,-0.9844549033795686,-0.1109234333125723,-0.21707295149586617,-0.27691991121815335,-0.10343877075581383,-0.022294573128874916,0.29252884764148573,0.03350765635514607,0.07099631407127778,-0.20786001327589573,0.1687069449519178,0.21678614386016487,0.3169404024720122,-0.01825874401349258,0.2032726592291635,-0.1574534484148897,-0.030621190145132357,-0.1130162222080905,-0.09246586352954375,-0.05541384694330374,-0.6859994972261942,0.05652921716493634,0.059849080233000694,0.1610068086358,-0.1266333771049495,0.2648475322902302,0.14855182575588563,-0.07139996094301555,-0.14111185403591234,0.009017247034055216,-0.6938635175734753,-0.13523813843700216,0.5657850786523723,-0.04954917542261243,-0.48520781561525844,0.33822599086336064,1.266405105088427,-0.12442167436398979,-0.024851675517660304,0.17255728597466913,-0.031246230877096333,-0.4919836545556547,-0.06796958841663062,0.14021377170743152,-0.029307147347999475,0.15301239095478178,0.1627307405936361,-0.4524405971252039,0.1245425050556952,0.5114461311052012,0.08728279301376925,0.012091573203888149,-0.18838969618738496,0.405498642086409,0.31168584106174585,0.16517267654432766,-0.07503352041470265,-0.02955971007945459,0.06905037976373157,-0.0761784038067354,-0.033621952411019576,-0.7095320362258171,0.11405002210317194,-0.33901867131060115,-0.252366560938476,0.16527906510767668,-0.2741456878568878,0.1128304367081507,0.09048121295923521,0.1762080203311638,-0.10135716049676638,0.18753917081901084,-0.16263929678872777,-0.0017418093381661873,0.3611857805708949,0.08392738210744695,-0.5898636336015347,-1.584713543477558,-0.2835090758152906,0.03353944141587388,0.2665118750160505,-0.4954424470139896,0.3974983581547924,-0.11896620791432354,0.10186477867113952,-0.08426302870578978,-0.08572199574222313,0.44478413740359724,-0.7363386798033782,-0.04458808265955676,0.45454759825051183,0.4544156659176002,0.26628102011143245,-0.4761190373876667,0.13438186298265015,0.02062656767490257,0.06307212580992107,-0.029056137558572948,-0.10909260352683914,1.029416384200538,-0.10174227235419853,1.2215148776509817,0.1753004878341468,0.26222766312067103,-0.0783330266589635,0.22347473804801385,0.3416559957820179,-0.49998866008649684,-0.15652603330295445,0.30528150959056866,3.054803788009289,-0.18152137395809823,0.1821701623080036,-0.008738275725343986,-0.48155205522548766,0.07814571102040128,-0.027961444897660667,-0.28578710482992126,-0.06522649338034314,-0.22301996918600728,1.846640141593968,-1.0847520902213095,-0.09166730532610876,0.34151774643299837,0.12927618050874173,-0.19293699243378076,0.32283209443756217,0.3959500696789339,-0.49579547435133203,-1.2996247780775227,0.214743695466966,0.4122493550382536,-0.15554016103967505,0.15791725912174223,-0.14238660244709764,-0.1650658769473621,0.10544083855709524,0.009136642548085338,-0.08998407816662311,0.2587337878184357,0.23444128916316587,0.3770601664294594,0.37925160119341106,-0.29142411338970853,-0.31994580151183727,0.10059095510387764,0.07747330507413842,0.16157948325633728,-0.16902697203652514,-0.17270123777862123,-0.8097149523100325,0.12016103094897782,-0.845627398641058,0.9860784690554594,0.022732908059759836,-0.18180163504658875,-0.21083772633651082,-0.10707000798132689,-0.2774602828461136,-0.30423528190487853,0.0014743738472295133,0.41122985725602856,-0.30993883422212853,-0.21656186829189705,0.8062628872455114,-0.8059253529325652,-0.11673562891738527,0.3983023751668221,0.3121449744656899,0.37562061445591227,-0.2438642979727723,0.20954909445570877,0.1504817415752309,0.09434149187162538,-0.08330552216236303,-0.15978932505299268,-0.3234350418924827,-0.10222602585915072,0.1457543978943269,-0.23912509317333489,0.33352149096151346,0.07420951781045787,0.3330667567265055,-0.033291753459240354,-0.732972492951772,-0.04169131637388061,-0.005401356166621622,0.05775584720091598,-0.0745437017833472,-0.22479454821933242,-0.13690811660369168,-0.24270445367559673,0.047468165739115234,-0.4402225776855559,0.638212752381203,-0.06038856334418305,-0.6346063890723782,0.3279457516297996,0.515790791184474,-0.23110743894319816,-1.3249518434034848,0.007146319652970974,0.14074303117477524,-0.09079749880445272,0.019663941885168408,0.4786657424072811,0.07481864846987374,0.023942607941117158,0.26443828873032704,-0.2124512600454166,-0.6263462172256538,-0.18513036149038617,0.6319692414032129,0.15753701902540382,0.4391493187255461,0.07300236229477124,-0.0853646275552468,0.04332371909170846,-0.011957389124045842,-0.4296036088034715,0.19306957504088243,-0.14882984756555487,0.45024906157682815,0.02693305593768602,0.42424901685603367,0.011007193346675492,0.08564530986223169,-0.16945691036522087,0.637065749464095,-0.08467881102161617,-0.33304430756357095,-0.304672059620341,-0.47476764046209113,0.1563338268919041,-0.02661292846681574,-0.02581074283304315,0.134212177321801,0.1528078880712165,0.0872261708370968,0.04586525066225972,0.11035473447556088,0.11988906518587134,0.38836272360594176,0.12205182439316255,-0.20780093106510536,0.14252180364503944,0.3221863426422895,-0.052891013539198756,-0.6512963758512038,0.18864217039039058,-0.024484933171916697,-0.2865672376712478,-0.22581327972770684,-0.5099195221494885,0.023172526477361198,-0.13330154149521628,0.15387888730899404,0.11636891187384397,-0.21239874489501417,0.04907478230104534,-0.24954053684931388,-0.23290201370424246,-0.607598679484993,-0.18951504497387237,-0.269699555634932,0.5877754235378251,0.06272327071888609,-0.0555907201383251,0.12966410343126863,0.022487634114089196,-0.0953593219979093,0.4822546391947439,0.4661424937977117,-0.10067759942295701,0.13494702443559906,0.1536474810147853,-0.06986109197782893,0.17306612421721987,0.26495666275085206,-0.6807958099255919,-0.4986988937983317,0.1496467510291339,0.21500912922852491,0.17416633890142702,0.5844566597957827,-0.22051116862816125,-0.03507236200965684,-0.07023814479353624,-0.08875455734474773,-0.19407858786573035,-0.10041378198158958,0.27786251500001113,0.34052861930073464,-0.3608389530850935,0.23310386739622738,-0.021756777589881114,0.4939442533565945,0.10068011660159132,-0.5909208622802817,0.15105314018897087,0.24821506992731765,0.1509320759485082,0.2274762875694235,-0.0800111381044974,0.2492007658474263,0.07157907918229843,0.5303514563524623,-0.034621138921659904,-0.07357490105453014,0.09730674205570217,-0.07192542932618944,-0.13265881398747856,-0.5473140656146804,-0.42695627647436435,-0.17227613790850377,0.47327496411462533,-0.1276360429717528,0.20000450645102105,0.10706587321681761,-0.27900274186815716,0.00437792640966537,0.06191931741705152,0.09058287309606411,-0.2572904081846386,-0.20600448586916312,0.5943750150756246,-0.2515073865691618,-0.18498611125922962,-0.07164698418179428,-0.4203423364816514,-1.02425838875555,0.23130661316095055,0.20655659257169354,-0.1740877631001277,0.22004396951808097,-0.14186314442773207,-0.1930259793144563,1.0754200320614982,0.22610123026497791,-0.3086806863107449,0.2458213769970816,0.18891607052885673,0.2952579805337214,0.14613415038279257,-0.14122058915603314,0.05404601394764144,0.17800901805945726,0.11841458323504062,-0.19585968881279345,0.06549479097252955,0.06158870056356437,0.07936766883620379,1.0461837175333262,-0.5893473667176181,-0.2265853921517039,0.19504667485947466,0.002259628710708506,0.12748111448705327,0.0858301918220634,0.034569242502567,0.10531629150495969,-0.05781470125921303,-0.10146637802135414,-0.18205548858166457,0.4894292659032133,-0.8710339681431094,-0.2225085938150468,-0.15991437897015187,-0.05357728799247647,-0.14149745142506542,-0.02708141382598198,-0.10361155444234585,0.9629683411056431,-0.07854057254479377,-2.8606666990192404,-0.542368234191978,-0.14133477433532116,0.07258970407542309,-0.09268958450207176,0.23421951669296184,-0.26858111783897864,0.13529217174263464,0.3920816862379526,0.03113088133260487,-0.10036538303410089,0.1896366325915276,-0.10083680705947719,0.522171070191864,0.25871208076360386,-1.4288933311700953,-0.155272038996209,-0.4681341922589877,-0.09390944626332134,0.20801793753988265,0.2140896568627774,-0.2838889298988055,-0.09269878434360176,0.17972542102946157,-0.4887055107241352,0.6051555767589658,0.2936511947781497,-0.8890493419108126,-0.20020291942411889,0.08147314853894314,-0.5070598340795577,-0.5845242936307126,0.21389009695217487,0.2785394856943307,-0.24661061393221906,-0.18650824467562402,0.927177646726188,0.12159935306467685,-0.3467382894064602,0.43660205692854925,-0.20351452241595533,0.13686588068467187,0.4808419551021131,0.36841642012336434,-0.3192817617664933,0.14296003589336914,-0.12999900024026806,0.07969778861317044,-0.12924256070553805,0.13706617116600622,0.3246226652676613,0.35160883066874593,-0.2521578508120684,0.5074461496399083,0.394314789314264,0.07409284261976742,-0.3122610483324265,-0.22611004573649493,-0.3606128495339204,-0.5694661774572326,0.11765394249718539,0.0878095960152877,-0.03320428409246488,-0.09738751058997414,0.23797144285087332,0.5091987484194422,-0.2456035905081067,0.2558906784805748,-0.15017434637523616,0.006032025448167634,0.036473490489651136,-0.13084489515145512,-0.5030968247849888,-0.3298153810876022,-0.2103309534913105,-0.004462220663215831,0.04235615307227283,0.027711472196735833,-0.1690000651645254,-0.09640246660334162,0.04054647127002171,-0.10076078022824558,0.15078050567076026,0.0681606820122064,-0.5591165016984327,0.13731060539380255,0.02671690958456547,0.5434175028738869,0.3420403497779112,-0.15807603586389693,0.249155319888415,0.08564571847196506,0.03751364015765329,0.04942123080541953,0.13177945895778526,-0.25867052942174484,-0.020488688310218106,0.13043462596641692,-0.16589037515733315,0.25915590457872434,-0.3133492631982129,0.31377214863054015,-0.0701769914366835,0.5748185980592272,0.07242077697565626,-0.07614486510267565,0.34032238970353884,0.013419988987212778,-0.061614611570231376,0.040003324001861594,0.32155083287487224,0.3240951605686842,-0.1775286044961779,-0.35654585939744515,-0.008998037385495742,-0.7729500726852825,-0.3378060881571215,-0.12205096733138752,0.22979767734996295,-0.1510670184085584,0.10321911221806603,-0.04815007565606818,0.1314910616770274,-0.1641620114934373,0.2505974095196911,0.2107634862206058,-0.5834388545034124,-0.7521821070927828,-0.16379408714726976,-0.02743599204596115,0.4817606582588159,0.3628402432148436,-0.28312614126923047,0.38841850733476474,0.2463299269819789,-1.717377931194484,-0.2550658197979837,0.28094603264836526,0.3678441380614279,0.0221083912700394,-0.2725188123832383,-0.19134000042371058,0.6170121134687085,-0.12975906548782976,-0.0759375832896678,-0.08902857208964038,-0.1031705157134489,0.1267564725132954,0.014491818100532492,0.22584391597574316,-0.005733226849640309,-0.399531262506091,-0.09287063800318941,0.09745828202772534,-0.11615615338794893,-0.09291599191745725,0.16571917869627822,-0.5150735057613592,-0.19667150140388667,0.2237144128803403,0.24517503705581375,0.3107005821938098,0.16259623276871762,-0.3093165778766196,0.21028061177461496,-0.29238297622140164,0.22545660473638165,-0.07512326993771,0.5160132340349229,-0.10947584273622077,0.08686497369738595,-0.24209759325388913,0.033556234328221295,-0.06874611492277212,-0.17975376677608731,-0.3429415542834987,-0.43398549551961596,-0.2193138019600309,-0.11109604911037525,0.06548099818198021,0.06014344071620948,-0.03663795878765222,0.06120006588874722,0.28355974918631743,-0.3083614483487184,-0.1597066295778797,0.12489707005640834,-0.5384126198164971,-0.27776125894467923,-0.0632695560446271,-0.17314638415116576,-0.43730237209745987,-0.05981153075071786,0.06704990874732408,-0.10546343445018244,0.05546382275127219,-0.0521914860386246,0.6023593974190115,0.31904505037134934,-0.8744523035772641,-0.30693840369330144,-0.12504233792027244,0.47438708521516915,-0.045563369707568274,-0.5885160125316086,0.798033597273257,-0.4012004350463199,-0.0576954769805613,0.5237926993663484,0.14265824069112237,0.006521653320467691,0.04270249495422659,-0.13991015918390082,-0.1544704304035811,-0.3328666088447838,-0.47039504803128745,0.07420238269903477,0.015645426279195122,-0.22560472933706346,0.3295499554850943,0.3041070165499974,0.035942256729013494,0.1009798102007789,-0.12197260056976852,-0.27253860927846474,0.24525637304977518,-0.34441600342498135,0.027417096241233733,-0.09920027154491101,-0.2904811689874072,-0.08670847771704628,-0.22730725849050176,0.5534164815734504,0.15977521564423913,-1.6192956070334759,-0.1714603540721432,-0.3794281507159795,0.11590089608766213,-0.6192997266318303,0.08077072299550017,-0.11487645848426926,0.14584222972273994,-0.05470281271247345,-0.16450195193756664,0.030484803062132863,0.06277257982716757,0.23652309022089762,-0.28516953467276224,0.09746072001117853,-0.44843548651204296,-0.07509633149266877,-0.11369820597928909,-0.093323473717088,0.31321841442283854,0.22193074435432003,-0.13544541560230106,0.06753272475117092,-0.18030294032497896,-0.21687184973691595,-0.10640938960986272,0.16174653949979337,-0.23176503715668204,-0.050516215715707094,0.04121109205133611,0.5723797515851499,0.3080407321150321,-0.4083602259381328,-0.08335613800104869,-0.1630676257097831,-0.25098869038015786,0.13550247285650105,-0.6569856716323343,-0.35521845440371747,0.2702044808307289,0.28465978300989275,0.49138507650313695,-0.04108459766723526,0.18824564396973362,-0.15004002767723446,0.3813256271102597,0.009166627530694615,0.21387539669022976,-0.3715292028145348,-0.002806070590212739,0.13421643269828684,0.23343457825847694,-0.1388895664671186,0.5032893179534849,-0.19718854030631983,0.2438675964468454,0.23457140834647436,-0.04334589403728096,-0.08592373333693161,-0.39166985585933606,-0.2246904504317052,0.06042670850582547,-0.09857895540680742,-0.3376444324677197,0.21665029233976274,0.0511071022798935,-0.5886696563121441,0.37452741417061824,-0.042475139660119225,0.008562289564589699,-0.3377511521166688,-0.21163374709561872,-0.2077083916064697,0.0951263303194495,-0.007187424799602014,-0.19144401053861015,-0.15885033398526818,-0.41349748156947064,-0.1309543081037837,-0.2449683601163839,0.12091605999763803,-0.06239986715107587,-0.25246187038777684,0.22338358761428337,-0.15742527972802006,-0.1515397278325536,-0.2069368575520791,0.19311490829317707,-0.3022337974560659,-0.17974556997771446,2.9524977850292577,0.26679692728562443,-0.007612201615219628,-0.05796668196043982,-0.023444469916175076,-0.06969028033529626,0.24631689298728585,1.5709971805294543,0.35479182861749553,0.10797972154711821,0.015809958904633287,0.0796425771898757,0.25476094412303696,-0.049070699941678994,-0.716893344923448,0.9773043696100097,0.7782343637012483,0.040431058834784574,0.8509204206631922,-0.005649591410916543,0.18347546540232887,0.528136955715901,-0.0025979042161263233,-0.23168736573095394,-0.11343620232061975,0.1931765623476123,-0.14580357834597962,0.08360075861220348,-0.45020937664371097,-0.35125858177591796,0.24544646167587342,0.05426911316561138,0.5001924656095164,-0.46742919288691337,0.21010173884606118,-0.10007205255137919,-0.1962615726378119,0.5589020826035949,0.23645864191967153,-0.08270316207593828,0.40516250168492185,0.06459871390959085,-0.08132890527251974,-0.2554733771898601,-0.1444505801359351,-0.2326133669005898,0.2828853157571948,-0.008975671225965189,0.03144327772786729,-0.012644227345449779,-0.711876225570215,-0.026446629563895853,-0.06422956421748266,-0.12167903716018663,0.406810420132048,-0.10120549262645961,-0.14048083559879093,0.25592674593372294,0.17227676612356366,0.00806004303175062,-0.44203516925031006,0.37422282204135693,-0.22045111507675194,0.16781950352968958,0.30640948766746695,-0.15678168562831687,0.19460318529001136,-0.5858826012387437,0.028942672930614782,0.2779832571492415,-0.43242538830687355,0.13435045350799185,0.21020679922694688,0.012037749993758161,0.022248743702830056,0.014792376108174193,0.2879877231412322,0.03545507173648265,-0.09373042364197672,-0.004941616657032277,0.23945575259956553,-0.09439424932952689,0.05604168228723145,0.14644015899316487,-0.1210151386484219,0.4325643047729411,-0.31866968969919135,0.17255893093267424,0.36187625140016916,0.05895294048978537,-1.1476622534989631,-0.6646761346331663,0.2501440852112355,0.3325760540358529,0.3130294465334626,0.03820479840132035,-0.07783596826324005,0.19584089254167775,-0.5145364527091553,0.22867458477805755,0.08498258410439437,-0.2688895089843792,0.18416803189813585,-0.1993075457311618,0.19726657318418947,0.193255777421091,0.04704923988682219,0.3889703758777067,0.06008334941201872,0.2899126774980674,0.2583051591582048,0.08519135645874762,-0.35317779475466465,0.09174414752953823,0.8621530426183748,-0.3009449343804827,0.28934918603746357,-0.14530512021820816,-0.052528471740031675,0.00466626032866525,0.13482474997428212,-0.3785535816855781,0.022901780051554906,1.276424855373492,-0.15659087338555208,0.2495790937374972,-0.1890692042488033,0.147308130604836,0.1252150457691448,-0.007010023041816856,0.1945010316089206,0.5209943506007522,-0.6636735046722916,-0.11688550001933168,-0.12042358375664586,-0.06898074589463665,0.14287828575342174,0.32993837058716613,-0.004883367102518681,-0.09274299999544032,-0.11261612063269368,0.4119606625676999,0.21634284958467612,-0.005282220721876343,-0.2158875269692982,0.1774016923974596,0.06853588547921184,0.508172631666638,-0.1377791587535938,-0.09166911639840998,0.3236366567590851,0.3837731880595607,0.7916570636913971,0.6507536189678127,-0.25688486654340276,-0.36110702069260003,-0.19590931765546277,0.11217534081982111,0.2174523616729818,-0.23247622085599895,0.19529332638484884,-0.12184291352705082,0.05866774886333558,0.09174068759448595,-0.2397775519083584,-0.0009767696738416176,0.05301396068054861,-0.1703191869421649,0.1046049587757403,-0.5383336883240049,-0.37595055393033355,0.0797833138286996,-0.1734010933107741,-0.004329548935807058,0.35542820321011986,0.39398257095475464,-0.6139198051051661,-0.00602849712984479,0.05114254312882902,0.18562529183430956,0.12660755801050058,-0.2964642542701126,-0.09451937261272467,-0.0188919526890216,-0.06152045440619406,-0.04953689672496466,-0.26264205409025904,0.09061819399359669,-0.13322641058822007,-0.09465083359915176,0.12094323968558739,0.1457228278705405,0.061379278370433776,-0.1388277492286176,0.22483545377490166,0.17324565819331067,0.035942261551032945,-0.5561197097250321,0.001390758395344072,0.18460062803849792,-0.1238783844536371,-0.5373521523704422,-0.24980707518831113,0.15894652434501308,-0.20462513114548814,0.3421880166847075,-0.21476815200914742,-0.036577220179932736,-0.06463095010820132,-0.3424416954387945,0.24766426038148,-0.23080115809654173,-0.014472778585555988,0.2894451231238295,0.6211006296846797,0.6444284221875944,-0.06200879609181706,-0.17178124881035395,-0.5411006432443911,0.09418078004403418,0.21889378027693726,-0.025524920049488874,0.20090000036937297,-0.1543674457502058,-0.07850349518273418,0.013869709732774863,-0.11447095642413663,-0.09107436145285312,0.06261708847846022,0.1229277880006639,0.011139454286961344,-0.6009903886450731,-0.26600170488766434,0.018746876853751496,0.05294581850713875,-0.38723248827700635,0.49270041694968353,0.23587164590155024,-0.41738434197182744,0.31721860891781684,0.024997862111159223,0.17494565714102725,0.28509320696316565,-0.13255486674480071,-0.11988972609281964,-0.753139139548255,-0.28548146849853484,0.15248302601370575,0.4355522852337946,-0.06245158492716882,0.09182587381692256,-0.2613808346689936,0.03625022803703109,-0.006971710139077603,-0.11207146920809549,0.2632954058379072,-0.35115396617450945,-0.09899257691888425,-0.6633036548051969,0.12817420432986804,0.5895204198391469,0.304015644401798,0.9482663285038664,0.1715679722333448,1.1740858765177882,-0.1655020027351846,0.17712922362601946,-0.027109893652398184,0.12220310573825902,0.031600724299172364,-0.20155870510472979,0.17192692550090985,-0.44807653955181387,-0.03462820930976126,-0.059540854036171945,-0.04223531696784889,-0.6685068334019435,-0.2550847657785597,-0.175492195307534,-0.511996064423988,0.06713962206378962,-0.22937326048770681,-0.03988746615353892,-0.14478755284106706,0.026291893009793187,0.05831685716319862,-0.04775808160255048,-0.055019008438442145,-0.0798848034209833,0.07814318060343398,-0.04914628249076776,-0.2822010238353874,0.14100300020361387,0.20953147712740236,-0.23043695746410178,-0.43229667335322075,0.13575025874253463,-0.8606522110532818,-0.3180959563920964,-0.3094309610972575,0.023398541810342257,1.9651945633641168,0.5324290592982388,-0.022506793674708613,-0.9301406181296235,0.39352967880838485,-0.4182445107459646,1.7337501469041743,0.24266979222396634,-0.2830208196909104,-0.021705192686203547,-0.33241043555719013,0.5334688584107687,0.04597962122398406,-0.4839888458846235,0.3917899722441806,-0.397178472570997,0.34403704894938514,0.2643658260907142,-0.027465428166724898,-0.09208559801331528,-0.09356845106728344,-0.13363562226816542,-0.09746851501246512,-0.6153087688021233,0.1003674261564588,0.07036396701111117,0.08470590650328343,-0.25019341924985106,-0.12052957989411184,-0.06482745786889593,0.34735993502045004,0.08564502236268118,0.09145446287100269,-0.410678445150369,0.20744940280338028,0.06184932893601141,0.017762555393329937,0.509480174962869,0.4583819950254452,0.13290564540317476,-0.30608196872439414,-0.41288709106275256,0.07242552587993538,0.18440388633149446,-0.44801846123203204,0.9559946391322561,-0.9410120567170381,-0.29056971262132913,0.23366957690523835,0.21532260719863658,0.09579901061884091,0.13319845709755376,0.105665586255885,-0.3405202767435671,-0.29486389695534504,0.6388917043532043,0.04207851045823428,-0.4190233739171202,-0.02681400094643129,0.17237139667733886,0.04659181709090753,-0.5039831535112508,0.22673803136875437,-0.054573095317847056,-0.1448910342135027,0.16559842312105114,-0.20772682265120312,-0.06194675272112702,-0.09204900116060798,-0.024856038749634057,0.4169490726280145,0.09348706530236296,0.10471038862443521,-0.2702842116390687,0.1549896382718849,-0.16872746822769902,-1.319424550992015,0.12219281634945559,-0.23730721874555188,-0.11584060300738694,0.11654957550395915,0.36933624483827454,-0.13756690260425533,-0.04826348754102928,0.21191352992933013,-0.11491298706254574,-0.11896212893056578,-0.5226669927678936,-0.1911869691307314,-0.16700055472827727,0.32411200138507684,-0.1150500658240676,0.44610631450875193,-0.055760415582798,-0.7223244601979943,0.09160723826619402,0.1561662594093906,0.3676208765382411,0.031495204138688684,-0.2895279865386674,0.030175499680857615,0.4386574013959985,0.18541239420661013,-0.12062120691810801,0.12046390133763932,0.12235499115415192,0.33249916739018015,-0.45686221279585765,-0.1096678429168581,0.056425018746000574,-0.2850791981093386,-0.32711031582030126,0.08789260988396423,0.11962265680234235,0.22114859662591738,0.16594680672231082,0.21691214120991395,0.24368176604635022,0.0012820315226116138,0.24359981610889167,0.2173110445076719,0.11721507783843713,-0.625607695023779,0.05659258986186695,0.2420194844118102,0.072118311276199,0.06956994957330119,0.18443254272681883,0.32827142262887726,0.19998943257150426,1.2987810464860128,0.2150874360589642,-0.5616524111259894,-0.0607928651587203,-0.42867722829609217,0.28666027111195796,0.23931963841290266,-0.529051965714214,0.3301444495107561,-0.3730972181394261,-0.27892883024410947,-0.16461262703095345,0.03924243232508801,0.30304539111016476,0.08302916071605422,-0.11738903969411352,0.14596715441428135,-0.5891816051057069,-0.29940726090687014,-0.0985307787955844,0.046860672741619466,-0.3016380026000161,0.7218582722931206,0.19434447525994433,-0.43273794637524005,0.02720892010004778,-0.2320831222921726,0.060286137926670855,-0.01712406667625227,-0.21197619987332006,0.11915488054571328,-1.3200108190289255,-0.5867592500818257,0.5048315338170037,0.1099117278743025,0.3307538758972856,-0.2107003401015772,0.1905989218857837,0.6781830224131077,-0.32779787468568605,0.12923600323558126,0.24088822432984133,-0.23735773509440877,0.060612432779572345,0.15830438571379238,-0.06783254433415671,0.1757244543055865,0.025569820979491127,0.4562597454432607,0.127734476484356,-0.30551767075861225,0.13327088759317196,-0.028933719054706538,-0.6652691865919534,0.16077993491753664,0.3820490966900205,-0.11302443191801383,-0.01696471359780507,0.16155830284591116,-0.11072977116349475,0.22503503995059101,0.1529555163523909,-0.13511984789011397,-0.19878025115214107,0.01981628754541822,-0.09328139194378722,0.2954347763953033,0.17484121926174037,0.16706949513345098,-0.16813357964706796,-0.2204561550123196,-0.037586636408481526,0.21471756532200284,-0.2636271778877086,-0.3036291662105974,-0.15043734206983556,0.2518725171770506,0.3037473886896275,0.2297342108837294,0.013051929831107398,0.18519031230761604,0.2656853884475869,-0.1088903942427003,0.015829376712932747,-0.26621681771951694,0.2507400556459073,-0.1277705283522413,0.027545407533970865,-0.04030897318374767,-0.6597694805694754,0.08356996438039642,-0.09571312185054126,1.062831507046643,0.9975927016964545,0.332429810535065,-0.061399617508207535,-0.11271408575025317,-0.591380455167645,0.038661145167673244,-0.12702002524473144,-0.3309212423775895,0.2123537339169175,-0.5730232437288465,0.09530296454937721,0.044420722624609464,-0.21536173578715362,0.05314134446753004,-0.19538378586802638,-0.16116870582279536,-0.12254227925136207,-0.2479834031645543,-0.2368569170472701,-0.18233241239664147,-0.002542016259069321,0.011180395438073733,0.8279835173104442,0.1729418747427232,-0.28505019766745937,0.17806411046538248,-0.6997708604591281,0.04065569521499093,0.2762620724654604,-0.6817030788074172,0.18023563740800963,-0.2355319551830663,-0.25422594916685104,-0.37296995504944824,-0.016428017771846732,0.17621620395689053,-0.5435245698643119,-0.514959207302832,-0.04002887244264121,-0.27804811154813536,0.17797807887254313,0.09260121166316879,0.19032910184219418,0.09474771001538213,-0.033671537295699404,-0.8494750430583973,-0.12637920700582198,-0.21939337206160495,-0.17234078989550386,-0.050524899069942605,-0.15302795700837513,0.02356993540715985,-0.1265957471945825,-0.12865662092118457,0.24872208902814613,0.0012010225819343088,0.09631497439297601,-0.5043244887101415,0.09091817020488649,0.027649954587268797,-0.18538062684991813,-0.2196683776939072,-0.2438531307557648,-0.19802856095802374,-0.1580685611989877,-0.17016858219569772,-0.013635523643072639,-0.5699445431781184,0.2088882054308983,0.1160395610652091,-0.17661498831224634,0.2963624021717852,-0.25125605846259885,0.3107492919093465,0.22824533970968078,1.5312955177304362,-0.3252908552658956,-0.3565204763696577,0.030316764726183054,0.267747697629556,0.20473837810923803,-0.08110434809365963,-0.30925338938170455,0.03943296340752339,-0.1736226233304805,0.2830680247301233,0.13447433873343098,0.2327168624783208,-0.15783568582459453,0.4330294512426452,-0.3321473925777773,0.35066214107878924,-0.16019504559412145,1.7759112523350196,0.5156490363459347,-0.3046085902074187,-0.3918907538173719,-0.7471013157357826,0.24846482136561515,-0.2692992830139498,-0.5691909351205906,0.25734920415538537,-0.2863838273386085,0.07209543836096989,0.06991223755481216,0.18731004074209992,-0.10050146050202928,-0.09110465403214514,0.2468880422518998,-0.2581353086564797,-0.35633354778075965,-0.20304758263953793,-0.18809300710346724,0.20807552744636923,0.04445612656990256,1.277594247773547,0.05837635762243081,-0.3949040206147998,-0.06112312675646944,-0.24548149608881836,-0.2303608165891428,0.08752797637668293,-0.23387512826069315,-0.06723872374475595,0.7994462001083262,0.630454203837015,-0.13041382602982374,0.07174922272579233,-0.7770141407752047,0.10890832093960737,-0.037471379325167954,-0.09259882290341159,0.48103703361540046,-0.26096426259953703,0.12811415346592286,-0.17350844581092334,0.0964808086074099,-0.08751368758241591,-0.10083813005450613,0.044513890708495304,-0.29700580931484266,-0.7552343932962858,1.1909977745535423,0.19508664269440998,-0.028962147108006524,-0.03695175026083934,0.6291439395354572,-0.09417865285291636,0.032347729580693776,0.37150736670617857,-0.3263338359208201,0.06988303952157275,-0.05289307113722382,-0.3409302602739297,-0.34015766860069885,-0.027070117556424623,0.17714230997039404,-0.08126762661943335,0.6222217325480079,0.4031699703758048,0.2648497917384314,0.5232191799346589,-0.07239287201643183,-0.11868102492085592,0.16306790811538718,0.3412286777102966,-0.09481483043051525,0.128220292198564,-0.3391509839186649,-0.1503197384944349,0.19593715329352604,0.026479062941694304,0.23117981318511333,0.5090612199072015,0.46011274885460574,0.18363524427930433,0.3101376944004316,-0.004477178263432835,-0.051992294580652264,-0.009916685780688607,-0.108154825558198,-0.26131700586928647,-0.18937243320736447,0.006560982714104137,0.23557036033630163,0.041287112581705004,-0.27189177327219,-0.30713848662665866,0.3405592051927966,0.013791374808328344,-0.06536966708106391,-0.03474842218370569,0.5339996250277368,0.13503883648748838,-0.07421855226873468,0.197663906762104,-0.03723499863674473,-0.20860031869537451,-0.11976995073471672,-0.008028712026070452,0.05220355489627479,-0.10861902771728743,0.19499045899035336,0.15704988535101622,-0.009545487254907432,-0.033920589157779346,0.18881381088784358,0.07634508481306279,-0.22359367861514406,-0.4095901488324656,0.15959324141290898,-0.009609162147303925,0.17555386095637485,-0.2792322013971739,0.13665179860025461,0.17153790597915944,0.3386770551206899,0.1646701665561897,-0.07323624646035899,-0.42611345848549864,-0.11444435050983005,0.15856872736014105,-0.036704845120360444,-0.20751302319213366,-0.221223454058061,-0.09957972728738343,-0.19682759192270366,-0.12469639870748933,0.4358004860509059,0.15215425242927363,-0.019008419346681026,0.05199376214584527,-0.04782054858421296,-0.40758897185976223,-0.16018497893794761,-0.011040367242102153,-0.38025648143524704,-0.07520342491986916,0.04336374882107564,0.2441217328407755,0.6338528293041481,0.03796372926538186,0.1753636834219983,-0.46166134318961555,-0.05731972615882785,0.012558891370883993,-0.659136802298959,-0.24020511555288784,0.6188376158897799,0.27732755601163833,0.08276859721753367,0.011615074297304104,-0.1261979518611452,1.1280406801332759,0.3597538405504906,-0.14056586240752542,0.20652927835474702,-0.12634091476620973,-0.2686559840848475,-0.21614847376665972,-0.38321191455800324,-0.014645188271087359,0.1845971001021205,0.03827016216933143,0.10557882431129467,-0.2252497938545513,0.10260799996694435,-0.07953290360281252,0.3130695790404612,0.11306167875168552,0.248591689593063,0.1365403218765246,0.06647625803080034,-0.10255030506181757,0.08045519483578956,-0.26782915203060814,0.46524987554449965,-0.0030055794976906057,-0.2056681804833513,-2.0014540532758818,-0.5202068089811049,0.274512213017266,-0.0785953091958956,0.8323324142596118,-0.3004234897266465,-0.158654275687093,0.7800520472576803,-0.8375813506990432,-0.051255269560676005,0.24696352887971879,-0.2966716730632823,-0.08292142347063525,-0.23632840503034802,-0.08555213620711867,0.03434373382032994,-0.06987438543977714,0.4175987653449402,0.1735666773970782,-0.1889383145551295,-0.03387695749594672,0.0015161214478145507,-0.5291325315078081,0.06957095858538004,0.38941358916060204,-0.022436484346650194,0.21193772407141737,0.2663204480554355,-0.04905235606339454,0.21168389953194003,0.20389627229307172,0.99567903823304,0.2256595182495175,0.1530087014037836,-0.13610182073155402,0.01106561237754011,-0.24096537277368676,0.20867075076104286,-0.29318809720914557,0.3185318453001953,0.08133538361833516,0.0690588784604949,0.3551566585619492,-0.16438352766672185,-0.14924430720313422,-0.2694359891667722,0.01028570721491431,-0.2462206545866705,-0.21457439535767428,0.09544013089507482,-0.0728426413538957,-0.13852416532733938,0.08199301641515305,0.0904672476373476,0.5610298393404995,0.03247131074420301,0.009833477944517376,0.004999088570269597,-0.0738554055863973,0.14219458910692043,-0.3379549828261044,-0.18787804567571817,0.11360475333955333,-0.06655522363554889,-0.9706692157502244,-0.19087221487863024,-0.10479302041769499,0.32661916209082476,0.16390574468051694,0.030245101447556332,0.11195354190102129,-0.058977270732192555,-0.06957641427146306,0.5508817549477469,0.0908099098551049,0.09131149106668489,0.13520042411108124,-0.2142605653197483,-0.2704269462746452,-0.016641705648914058,0.2087880168408324,-0.06988095935301762,-0.2957782831025307,-0.11336184947950309,0.24339418596073525,0.09640791627497695,-0.00826981570472533,-0.37337906044788344,-0.6570434358434963,0.34956857997764135,0.0774047247401297,-0.4330111847685247,