encog,BasicFloatNetwork,java,3.0.0,1,1541181590322
[BASIC]
[BASIC:PARAMS]
[BASIC:NETWORK]
beginTraining=0
connectionLimit=0
contextTargetOffset=0,0,0,0,0
contextTargetSize=0,0,0,0,0
endTraining=4
hasContext=f
inputCount=80
layerCounts=1,11,11,11,81
layerFeedCounts=1,10,10,10,80
layerContextCount=0,0,0,0,0
layerIndex=0,1,12,23,34
output=0,0,0,0,0,0,0,0,0,0,0,1,0,0,0,0,0,0,0,0,0,0,1,0,0,0,0,0,0,0,0,0,0,1,0,0,0,0,0,0,0,0,0,0,0,0,0,0,0,0,0,0,0,0,0,0,0,0,0,0,0,0,0,0,0,0,0,0,0,0,0,0,0,0,0,0,0,0,0,0,0,0,0,0,0,0,0,0,0,0,0,0,0,0,0,0,0,0,0,0,0,0,0,0,0,0,0,0,0,0,0,0,0,0,1
outputCount=1
weightIndex=0,11,121,231,1041
weights=0.8071551835953565,-0.17656865332457386,-0.14458606769551535,-0.9378112277071968,-0.37451466505364284,0.35547425793078397,-0.09461497559060153,-0.3449606419694962,0.4594713872105981,-0.507516686275062,-1.0539384401309966,-0.23334076567121773,0.26351796617802203,-0.14753246280838836,0.2295528729980671,-0.2538912516175395,0.19162481042845245,0.1726889885021774,0.10880279103260815,-0.1295366301376254,0.19272541559495876,-0.8213111670723257,-0.35025618125848285,-0.2934981053836004,-0.17690901209843365,0.12599442555837337,-0.06659079123577186,0.13397678136223698,-0.18419139906909546,-0.16520017238262286,0.236625535717578,0.15260731957485968,-0.05831898073386593,0.20978651752337424,-0.33606606776601794,0.3921648655526262,-0.011568105928307391,-0.008905315890498392,0.19704239249100952,0.03249115983169086,-0.18647052491758379,0.24748158839666556,0.2794702251519827,0.18573599267512308,-0.21458828518555456,0.08112606460848737,-0.1535295429154899,-0.19468682457607756,-0.11197161901406799,-0.2624328771856098,-0.3493777191710941,0.24714292701567936,-0.20037238427974724,0.04648483377464463,0.11538237343616907,-0.0029181611604229664,-0.21722882365514026,0.31017635121104964,0.11705970360305462,-0.24005577908534054,0.20005817483283272,-0.057329460795570934,0.11907178084025674,-0.3169087779334046,0.3278268249355822,0.016949754085554256,0.21948956084675872,-0.02328958538676306,0.33759064708049824,0.06094167488613033,0.18854528792448186,0.2769741824528164,0.19041200647888257,-0.25143855372710366,-0.04475645784943021,-0.2742024726666996,-0.31742654829424105,-0.21041450038517895,0.30527238175458515,0.25176254647476504,-0.18909090263307074,0.348733556669971,0.22311936750871195,0.3107500039808843,-0.010277478155561733,-0.03435236058597229,0.14089777555394895,0.19282961060235337,-0.34695741033139105,-0.2980707270242523,0.1988658947315392,0.22838120845522517,-0.1879654715340727,0.2399270453328298,0.007732592910238726,-0.2510495148195227,-0.25383308233657087,0.08006260071402867,0.08098395835324902,0.3292751921393071,-0.12831950884336038,-0.260082293996033,-0.007878697672469607,-0.01565045028201837,-0.2695382314928322,0.2896155577649563,0.23448978885723418,0.28215589598470325,-0.0457125462102799,-0.06711404295848014,-0.2966995354949009,0.14159415761039734,0.28044597884395994,-0.2856725550348334,-0.24609880590204655,-0.16828447166968433,-0.09092994036259079,0.1404682913052306,-0.05713103787341369,0.19199221110075249,-0.030256615295856867,-0.36917934446532696,-0.24450215912780893,-0.06298807152570597,-0.3961994602578083,-0.09031482186217198,0.7564871280909129,-0.15237996717367264,0.028353535673074956,-0.399537939687564,-0.10557447225750903,-0.41467385464947,0.1678688877800059,-0.12427733263907645,-0.07717809970248263,-0.041650031419481044,-0.012761272100572804,-0.1318664221860294,-0.2904141368317421,-0.21023982276834619,0.09953460656590132,0.04039303576763625,-0.07993610101840418,0.5968494892362336,0.26243524728719564,0.36164900178447595,0.373059000309612,0.22273189901469806,-0.20072794990602186,-0.08146179863153173,0.35864788366749906,0.22235548271424702,0.31507256514823107,0.44172769702634684,0.03670218962582446,0.30504086670122665,-0.004517454738151388,-0.02543931631632573,0.05608207268872825,0.3534543156604908,0.4531410964209603,0.57297246464486,0.04142367761281472,0.010371119240314048,-0.16234864851332362,-0.47403505536444435,-0.23481974283092966,-0.3862691669043941,-0.43124318813881407,-0.2791660357190789,-0.13906542896416915,-0.18959727515365132,-0.4287659842201943,-0.4367683873865979,-0.5007305741121514,-0.48557252597675865,0.19090649250236538,0.4105659723107692,0.24045675508749714,0.12658857541074237,0.1318315717603816,1.3008049395135801,-0.10888488611430916,0.9552299078171015,-0.09667229086003713,0.21575156407835322,-0.23436931720684745,-0.5492297498789458,-0.3120889318560902,-0.3756934692717773,-0.3918135189003144,-0.4541291100659538,0.5256551623888175,-0.2225648695636923,0.32162421039074995,-0.4681996059237833,-0.4557406349963127,-0.23311378170316963,0.020428181831955085,-0.8043551643171825,-0.7722956324351726,-0.2552183705332043,-0.34492261896387055,-0.17006933546043926,0.1428216122257216,-0.23565715128518933,-0.27967617189562677,-0.17623441802840584,0.22841894852828254,-1.466806834218428,-0.11189344809259416,-0.24762209575095692,-0.24443397906410144,-0.33747284134628447,-3.2397539093603,0.03704147697229519,-2.989469832299148,-0.30507166749848974,-0.2573720409976042,-0.5077157183696716,0.4753763935254643,0.14219554926431732,0.44826137692781054,0.32645321517786324,0.36194846264615393,0.9464799483017297,-0.02449962196728582,1.189815427773883,0.344604842129499,0.4194889561059416,0.5071040908260617,0.4400024021981604,0.3182881219264357,0.42556177423380503,2.1717628114492262,-0.011619314531953551,-0.0749243204834657,-0.07688453094093917,0.11682751130951421,0.08837149185814452,0.7745864322782461,-0.024761917255346672,0.25177532410493836,-0.0658466462265789,1.9049676615907178,0.37803139307556655,0.21923941261752,0.02478228453220096,0.4280669895112653,0.4064718278354473,-0.46749163720902426,0.23268397298780935,-0.06561975072130712,0.5046131519421668,-0.17324543238618964,0.14078466887756458,0.37833853558038266,0.13401499989612561,-0.07156459755941288,0.027138540669355986,0.061357962976774344,0.13132870503293897,0.2623233637947942,0.45754946534501606,-0.04039541889910889,-0.03279406196878227,0.1807421216776543,0.9639375418906517,0.04361859350313587,0.27003217639000415,0.20078384666890986,0.028802544525416744,0.9701307255352514,0.058037554680838106,0.21954957965148852,0.17267082663917432,0.2067523418658972,0.08049531798891227,0.16329743890374737,0.20856005318502352,-0.04680481266556252,0.19254782489593056,0.24803551293403267,0.011522084282365057,0.2127405985601568,0.2961704653879279,-0.16706920698828429,0.23399871638020492,-0.039636738647470776,0.2509478855191229,-0.09557491505413682,0.2490373710515644,0.18931751288901702,-0.015193934796736211,0.25990666700847853,0.1806837328266385,0.24441740463604594,0.06251485868783088,0.26047155480212386,0.4147226362196709,-0.04816632850750607,-0.8552937217956909,0.4257217770840659,0.19065912941264948,-0.3134061259256435,1.377796517535943,1.6747956126076764,1.2403060289904095,-0.157296059587712,0.48328223450797025,0.4410589494901921,0.08156945473473606,-2.231842655994741,-0.133722186009404,-0.12902708825100861,-0.2851982320125143,-0.10835775017052048,0.13659731219602145,-0.2326160060609362,0.17833684230979635,0.001292397435294147,-0.004710071677197324,-0.7980965764757123,-0.734697283750937,-0.21162645437207717,-0.24689524364202528,0.4603395695429576,-0.03627304404135057,-0.1783411455457805,-0.05158230934932302,-0.21375608137227878,0.008801969792793293,0.33670573214738053,-0.2792476096193336,-0.15969610658450273,-0.095231833378147,0.31232422671981397,-0.10328797723573456,0.14663879807213717,-0.019285821347735363,0.09974377448272949,-0.1191532346001068,-0.12450283784880932,-0.19245251063059665,-0.23538373917927907,-0.21432236446295722,-0.278625356647674,-0.2616548770900646,0.19481027019933472,-0.37577635461193437,-0.16793538379188894,-0.38069577839353236,-0.07462751016718941,-0.31454183164392974,0.1995101556310478,0.07196113690838267,-0.3282083095645274,-0.7503848242409312,-2.3753330551293055,0.4690584490325191,-0.3783188131493449,-0.8201246141083787,-0.7849775613110364,-0.42612377872128204,0.40528572637077154,-0.6016855434121211,-0.3849619504441936,-0.19610415682161572,-0.12289904463557517,-0.5028890229636813,-0.2337368484873311,-0.4266322369306717,-0.6549843547838691,-0.4503998609350944,-0.3051553008115366,-0.1354660617080483,-0.22214985822353253,-0.0436568989211387,-2.348702779685064,-0.14970813310271314,-0.3074003505077362,-0.24153903109239108,-1.0986916669947935,-0.0857722931768651,-0.342185226718376,-0.7269020273123624,-0.29487453820852383,0.05974557890687654,-2.1611673523060553,-0.2315946141076299,-0.8552129480465147,0.2808324688737571,-0.06615924782201335,1.7411307492724604,0.18439397490923504,0.0643019305743554,0.14017505119443047,-0.018254480312972585,0.13370167723791132,0.08916439841478932,0.19357952166121406,0.16476025663653993,0.08122141109899311,0.002505775582225124,0.21148028312547695,-0.046517842070855235,0.0497254046678643,0.6488846171896985,-0.012457006955693465,0.07972842891751794,-0.2925257768984683,-0.20082056194689749,0.02541342323704513,0.8247645518557889,-0.3924567313402209,0.15316780952811443,-0.09846255845033208,0.6159666470501726,-0.07860923843574388,0.029642596992829937,0.31278038052487356,0.24663317888653974,0.03022405388429172,-0.38104263245798486,0.18351812037179038,-0.09543315573764416,0.12938480102775185,0.03321013517278471,-0.1177666525045184,0.3831348548673219,-0.1147143894327306,0.1828867833815351,-0.11610227634630418,-0.06159643084924223,0.16876168902036265,0.32085539044568456,0.16010803549245073,0.09374268988177252,1.1069962255202077,0.1661694451179014,0.5302041189919684,0.3237225072801781,1.5623598387320075,1.0645233282491218,1.1037613537651472,0.5490166572799886,-0.12356805504558635,0.422689355011577,0.3571088471645517,0.11521364589044507,-0.12953468774829233,0.1403522351279519,1.2227536322250685,0.2214204327357625,0.8781117668463874,0.04896360460618907,0.13940797687904224,0.3372786186528131,0.35825112643588486,1.0849556034011745,-0.025002066265352695,0.03612254192542477,-0.08564678585893838,0.238342993789035,0.28537601233298054,0.08082417171149431,0.33664897154234735,1.1874414011346797,0.5267414050003812,1.5891504522832798,0.19390247435953364,0.5257366222026315,0.34644186933791055,-0.05822248886678378,1.4061019133927537,0.33436297548170907,-0.3439409702916413,0.12257156398404256,0.04523039793509043,-0.4178142457411417,0.06461638817346456,-0.30686352091021485,0.09767623983986858,-0.04394471679154674,0.25137393926916396,0.161144823960631,0.013228322298341517,-0.03529874694836896,0.06078648188622447,0.05250870994511725,-0.16971279272469958,-0.16914381651614557,-0.19836990606709765,0.09862890927933649,0.3416898690625353,-0.14676487593728643,-0.3502762309688038,0.07621623446923771,0.16641060956635467,-0.28670490355409983,-3.1771507742309626,-0.05959437680610712,1.4070170707798761,-0.1202890777264336,-0.3627672748464394,0.053713258611138,-0.11871483089136187,-0.2148364659026354,0.022445764261297893,-0.07957705176236027,0.3873571788123504,0.16869394079327585,-0.1717450998617005,0.04227870337608447,-0.1944837258083623,-0.02382793286237336,0.29734212450639647,0.5280856696851461,0.047433548903801,0.42594570179273,0.0004916161190711456,0.1277927032169339,0.19904222119635617,1.05899903061075,0.7324753346818281,0.26830676208560367,0.17734447848380283,-0.05115964793820567,0.29601708177802655,0.21854400916671932,0.3177911713362374,0.047973075506154914,0.3009966340500236,0.9642985686217753,0.37473984644976105,0.3695136020093304,0.4180702392609905,0.3508162010122293,0.35202940526144166,0.5823234652472025,0.1502248159011559,0.2224390976324603,0.04464839290307047,-0.04758018955176249,-0.6643055539667869,0.24906556221300413,0.39898806229581313,-0.7540035775009777,0.7746254935122189,1.1064806096000082,1.7302122581827812,0.3435296728072391,0.4636504602601935,0.718233485622398,0.015225123887453148,1.6592044960332204,0.33368058700091624,-0.08336444943103738,0.032383858115064085,0.09395824003758875,-0.16792111770464754,-0.13928124944019213,0.02029622516594193,0.12124863119221851,-0.2074093754231243,0.11140529507261733,-0.2752231951046353,-0.08580432636480051,-0.11964779796143737,0.6208147754783916,0.11577173705078532,0.13048582268780795,-0.22859114053994561,-0.22416016617527354,0.20613686885907892,1.141245571463624,0.03672471676507165,-0.15674744192941548,-0.09855449690633523,1.069739450165612,-0.40724634618558103,-0.03713155922006563,0.040332363973470925,0.7095541232852633,-0.17719414970895458,-0.32024312752721085,0.11882768954930845,0.062153945494042614,-0.16986795765150392,0.020054274854623765,-0.022221694588671372,1.0363748962275485,0.14048701153658893,0.275414516081322,0.19525939012489313,-0.068154031758991,0.002931117280082644,0.8624745235754925,0.4665370530404062,0.2148333812029346,0.3418356166493183,0.10694157273076775,1.1316119636835147,-0.049748322542991476,1.138535509730503,0.9007409441488559,0.3447841030446498,1.041204221515682,0.012955844954372943,0.3833764861696423,0.19008305583253665,0.0647125240379945,-0.07359242905380664,0.1439215742658111,0.3016989548892932,0.0696055666281119,-0.204130522692547,0.09261934148971585,-0.0006028205355168525,0.18872337506297712,0.5035601903846,0.6698798571308445,0.12791146423458805,0.08430335446291898,0.05595137141756668,0.04719307024894245,0.4141593813428644,0.011179597109055573,0.06060516158372863,0.5140669337156418,0.6996688352069346,0.9958020748603884,0.01536877969423837,0.5021099730130024,0.3093180993015557,0.07274287690284402,0.06134445310336227,-0.16747084671629428,-0.14472308629150513,-0.34053101210301645,-0.4203423221271136,-1.58771213326725,-0.26991853463330345,-0.5953841330301584,-0.13383282034310656,-0.29144178426575734,0.02223195809535775,-0.00457778754628973,-0.3246913888584342,-0.2236190653263417,-0.6076430374473648,-0.025180702508147964,-0.12368759046913,-0.3417904225389416,0.13876125530135802,-0.07790004637938489,-2.209208166258093,-0.07004515285352264,-0.04098099928464169,-0.08273496048025664,-0.7720614723003338,0.17565273935750414,-0.8535208299345847,-0.05169601229656315,-0.08058300782568412,-0.1526751966091813,-0.05463170153821718,-0.26080504558854034,-0.20687249800318028,-0.13839658758530735,0.014251616745883973,-0.14742944578348133,-0.1217618669677333,-0.09351598943082134,0.011993579456201536,-0.015926626349943684,-0.2545315749864566,-0.26283352757401296,0.4259016600017376,-0.3739732129825839,-0.10280365563817806,-0.22135059654349504,-0.035315708206070946,-0.7433145136404906,0.02665161123512041,-0.7844745590922724,-0.11007601553339251,-0.06703959077841307,-0.7578693219061272,-0.10857726357928306,-0.07844187756527539,-0.14314713075109045,-0.1189787424783324,-0.03975719232301543,-0.12619565419781034,-0.23277910092088389,-0.24471892577454446,-0.19093785504752378,-0.10562411254715263,0.06227442271313482,-0.17264822892595563,-0.11542342352168153,-0.2721679900126667,-0.19074777550036204,-0.02805996791952886,-0.03998825124079577,-0.05315247316126133,0.05368182481034235,-0.04885186016224639,-0.08211312167579754,-0.50446769011986,-0.7373091589334722,-0.1340399189593357,-0.1447566447648694,-0.3108588025728051,-0.03828259442779604,-0.28734918212211663,-2.0155223463255405,0.11518361603702254,0.19498670453570338,0.3408126314783708,0.2000557902886183,0.17643782764954424,-0.2378356020075703,0.12488457044321812,0.069743215025792,0.10111878144736342,-0.4741868724213047,-0.6092747950848555,0.041509726553204826,0.002691729286544195,0.18930421805358794,-0.268595389366605,-0.2583452963538442,-0.05027512034269689,-0.0826924135326466,0.9323643004989721,-0.2698692163890098,-0.06968476744092013,0.037473350971313074,-0.09975424856448442,0.2168778089234923,0.006997076210408102,-0.1779158098494273,-0.29217259730898515,-0.5550308771912079,0.11018758571840664,0.5991758791682622,-0.9188585805833557,-0.10165310099302417,0.2192052896625542,-0.049642143633912617,-0.12955349767069008,-0.7784901599026546,-1.134467373530779,-0.6926988036734696,-0.75572453186401,-0.035021670721227915,-1.110712654783592,0.3234712482021073,-0.43866774525186286,-0.5806028192580952,-0.29578239335139606,-1.239603886430783,-0.1039233730054564,-0.8588091881691559,-1.206317645482536,-0.41348764092341594,-0.24469420387812502,0.08683645349704386,-0.13044720919677197,-0.5912569030287925,-0.841189276015375,-0.938168485964888,-0.09331260997891472,-0.8225340695568352,-0.23084267744962625,-0.5068332044091891,-0.19212347503459434,-0.316366443766468,-0.9195993661067491,-0.5980651612882455,-0.03544639232269335,-0.8863432202050796,-1.0069429701725128,-0.7927688250554269,-0.6758358341299711,-0.43122420892711394,-0.04847934556774014,-0.7290114184696679,-0.42114289626261187,-0.8507241457441762,-0.8104273723674582,-0.7731980435592852,-0.8904298980090173,-0.8278564489879683,-0.04549455867750997,0.2578339143048351,0.9031851001998186,0.2737422076598733,-0.012654818003015982,0.0361193158940586,-0.10722350145219423,-0.18747997836347835,0.13956991143896633,0.31306556155087173,0.1431954710089533,0.04880928891737336,0.5888422288329185,0.19398141770845956,-0.10836779135361285,0.006488471968972029,-0.40297062387380944,-0.12708899908526247,0.32927727131054874,-0.0026214680431392292,-0.1426730466482993,-0.06152706405053619,-0.0697897029414893,0.032743836649593384,-0.04198380437780557,0.27056639564567814,-0.1118247174733081,-0.07656128512824154,-0.5100872973808781,0.004276807365369192,0.4347217295239027,-0.034140665696042606,0.015171184860304445,0.20328752308969064,-0.10106531315176842,-0.047229838021078364,0.08008703138492765,0.060425447982610576,-0.17163587614267775,0.2609140789993781,0.023062240644322933,0.2242068826596346,0.274719974805443,0.21400505440225578,0.22983382114005993,0.9782092392853885,-0.06724718831531595,-0.0013275361190981756,-0.02120829979727727,-0.05751393266392703,0.13817858676534633,0.4252949577821258,0.030371383718894977,0.053364442790139625,0.050638952880159786,0.0746463710265805,0.21590232439177012,0.07209530870773462,-0.02669724016329121,-0.12572283821005759,0.017695056332192937,0.16895845918512625,0.03548902519522342,0.04669054582608884,0.00005828213637231665,0.2461500481836466,0.24904374196249418,0.12835410446102985,0.056107123624472274,0.09294663245483555,0.06697660304299145,0.207930123020216,0.0071133855642167634,0.32157926543948373,-0.005170398928395319,0.02123600577396819,0.14919337965105578,0.009513676703594284,0.023772495553142314,0.22111041556013564,0.07037499427695942,1.1672352509550894,-0.01790709770111371,1.5523846986647112,0.35544723839215764,-0.044348019382301505,0.17093774080940735,0.3418573503661651,-0.4737075195676202,-0.06741835733230647,-0.22037512533044443,0.023590072294819388,-0.07672525984454365,0.12765566734805817,0.16041055499126872,-0.20312616358810082,-0.23702657329774468,-0.06876375735841311,0.0665000285494994,0.04066671250660364,-0.005643478439492256,-0.4077021004099762,0.03262324866760836,0.47618601181131376,-0.2924333185829921,-0.19280791728166938,-0.18590514407808034,0.17104778316792635,-0.2942623958576234,-2.819313457966421,0.07470294891465998,0.9526725285049276,-0.25798941295697975,-0.38523237519662523,0.140953004687282,-0.19601904735719836,-0.34280108150146693,-0.095835094554534,0.11114764300651703,0.9808907616685314,0.10839210786334243,-0.3208073653486987,-0.03588224547305742,0.06866086881675262,0.08894340959828302,0.9338441916469129,0.8222493593792695,0.08481402967141519,0.366809939024502,-0.06646476926018989,0.3743429317863774,0.055703959397403996,1.7388461328132427,0.5536463803672425,0.22805177266777463,0.5960397687280543,-0.2506714895521541,0.27714807602505637,0.19120625420564288,0.3587638308457176,-0.12817284792857686,0.04773317913761557,0.7486117563507674,0.1105230903447679,0.2657364722378629,0.02144208667155004,0.11187182231052517,0.2473994384983924,0.5806396063075434,0.1628732382297113,0.2841212687057437,-0.10883789647876446,0.08503266985316361,-0.6223112827173466,0.21714406157233435,0.3731000825993648,-0.7126299262802401,1.0287589494189966,1.204790634721905,1.8398932416930807,0.10684182504627321,1.0864485006448128,0.21713581060146425,0.2066392798923303,1.4396278255902215,0.27510117397516,0.007898398147614116,0.009122009198880973,0.07328988237463262,-0.20316659463307934,0.061510525267096106,0.1859201805663512,0.055919052894418925,0.19491522469521777,0.1901059617315317,-0.16532688930639242,-0.22452845339551672,0.12054590938113757,0.6215029247392492,-0.0007448566468283291,0.01901595434780098,-0.1494182744226632,-0.3494968545549525,0.17600635690361185,0.7816686314504883,-0.11387942709195784,-0.22812853402033398,0.04509590369854995,0.7098970319737387,-0.39813831390231397,-0.011300070016560648,0.012307210880551325,0.46694907982083844,-0.07494802085472901,-0.15791784768219225,0.10607342337403708,-0.16434888792989605,-0.17454120155585165,-0.044926595573474726,0.07899579519037875,0.4630009214298614,-0.1269639800095197,-0.126380322849693,-0.08071016958147605,-0.16352063211222195,0.049392222571991454,0.7010251420888003,0.238595431937468,-0.03127426562819978,0.18804064662971448,-0.2945726674940253,0.6328634390730401,-0.09480105551093747,0.6621075178136508,0.5360919021246574,0.2587113004601379,0.6734698218793547,-0.2321410164868376,0.0737821014962415,0.10703141124270511,0.038438520712413084,-0.06330344004654993,0.17033326741206073,0.2479818096249466,0.03881781958910252,-0.09850909077154793,-0.08188540772920663,-0.028835327622669743,-0.04640446071597951,0.5630878066028275,0.5591010836972377,0.07313919118173673,-0.0014061304997312735,0.07064985718615831,-0.1541937893227103,0.4070027574152603,0.06929563591471108,-0.03686803158958937,0.867958067055907,0.8090722016360313,0.8864173471247639,0.18332688200846425,0.48362184892339966,0.40765438808310506,0.024111276514012164
biasActivation=0,1,1,1,1
[BASIC:ACTIVATION]
"ActivationSigmoid"
"ActivationSigmoid"
"ActivationTANH"
"ActivationTANH"
"ActivationLinear"
[BASIC:SUBSET]
SUBSETFEATURES=2,3,4,5,6,7,8,9,10,11,12,13,14,15,16,17,18,19,20,21,22,23,24,25,26,27,28,29,30,31,32,33,34,35,36,37,38,39,40,41,42,43,44,45,46,47,48,49,50,51,52,53,54,55,56,57,58,59,60,61,62,63,64,65,66,67,68,69,70,71,72,73,74,75,76,77,78,79,80,81
