encog,BasicFloatNetwork,java,3.0.0,1,1541111827415
[BASIC]
[BASIC:PARAMS]
[BASIC:NETWORK]
beginTraining=0
connectionLimit=0
contextTargetOffset=0,0,0,0
contextTargetSize=0,0,0,0
endTraining=3
hasContext=f
inputCount=80
layerCounts=1,11,11,81
layerFeedCounts=1,10,10,80
layerContextCount=0,0,0,0
layerIndex=0,1,12,23
output=0,0,0,0,0,0,0,0,0,0,0,1,0,0,0,0,0,0,0,0,0,0,1,0,0,0,0,0,0,0,0,0,0,0,0,0,0,0,0,0,0,0,0,0,0,0,0,0,0,0,0,0,0,0,0,0,0,0,0,0,0,0,0,0,0,0,0,0,0,0,0,0,0,0,0,0,0,0,0,0,0,0,0,0,0,0,0,0,0,0,0,0,0,0,0,0,0,0,0,0,0,0,0,1
outputCount=1
weightIndex=0,11,121,931
weights=0.8071551835953565,-0.17656865332457386,-0.14458606769551535,-0.9378112277071968,-0.37451466505364284,0.35547425793078397,-0.09461497559060153,-0.3449606419694962,0.4594713872105981,-0.507516686275062,-0.7817538001309964,-0.23334076567121773,0.26351796617802203,-0.14753246280838836,0.2295528729980671,-0.2538912516175395,0.19162481042845245,0.1726889885021774,0.10880279103260815,-0.1295366301376254,0.19272541559495876,-0.36468302806432573,-0.35025618125848285,-0.2934981053836004,-0.17690901209843365,0.12599442555837337,-0.06659079123577186,0.13397678136223698,-0.18419139906909546,-0.16520017238262286,0.236625535717578,0.15260731957485968,-0.3305036207338659,0.20978651752337424,-0.33606606776601794,0.3921648655526262,-0.011568105928307391,-0.008905315890498392,0.19704239249100952,0.03249115983169086,-0.18647052491758379,0.24748158839666556,0.2794702251519827,-0.05609200732487692,-0.21458828518555456,0.08112606460848737,-0.1535295429154899,-0.19468682457607756,-0.11197161901406799,-0.2624328771856098,-0.3493777191710941,0.24714292701567936,-0.20037238427974724,0.04648483377464463,0.3273225124441691,-0.0029181611604229664,-0.21722882365514026,0.31017635121104964,0.11705970360305462,-0.24005577908534054,0.20005817483283272,-0.057329460795570934,0.11907178084025674,-0.3169087779334046,0.3278268249355822,-0.21904624591444574,0.21948956084675872,-0.02328958538676306,0.33759064708049824,0.06094167488613033,0.18854528792448186,0.2769741824528164,0.19041200647888257,-0.25143855372710366,-0.04475645784943021,-0.2742024726666996,-0.26976886829424107,-0.21041450038517895,0.30527238175458515,0.25176254647476504,-0.18909090263307074,0.348733556669971,0.22311936750871195,0.3107500039808843,-0.010277478155561733,-0.03435236058597229,0.14089777555394895,-0.04899838939764665,-0.34695741033139105,-0.2980707270242523,0.1988658947315392,0.22838120845522517,-0.1879654715340727,0.2399270453328298,0.007732592910238726,-0.2510495148195227,-0.25383308233657087,0.08006260071402867,-0.018781666646750992,0.3292751921393071,-0.12831950884336038,-0.260082293996033,-0.007878697672469607,-0.01565045028201837,-0.2695382314928322,0.2896155577649563,0.23448978885723418,0.28215589598470325,-0.0457125462102799,0.20507059704151986,-0.2966995354949009,0.14159415761039734,0.28044597884395994,-0.2856725550348334,-0.24609880590204655,-0.16828447166968433,-0.09092994036259079,0.1404682913052306,-0.05713103787341369,0.19199221110075249,0.32056163955214306,-0.36917934446532696,-0.24450215912780893,-0.06298807152570597,-0.3961994602578083,-0.09031482186217198,0.7564871280909129,-0.15237996717367264,0.028353535673074956,-0.399537939687564,-0.10557447225750903,1.0535663483206268,0.25243260628667946,-0.1010785322594051,-0.19621472761047543,-0.16118382469880377,-0.04202035790085595,-0.11446355555862575,-0.021865720132892688,0.19633085567127823,-0.15189110507766096,-0.4915960965754754,0.34966074513214296,0.38547870478045176,0.09401780799208362,-0.4440396901306107,0.45157511642015147,0.02272547597129152,-0.08983987919188459,-0.31241581071940616,0.30343509684410863,0.6060437630366171,-0.06855128648336554,0.12301977895800625,-0.2446047406659695,-0.03895760609801202,-0.305715357222795,-0.20186160729909947,-0.17149386216653184,0.27133168567179483,-0.14769250098747982,-0.07103186692841715,-0.008600446279326955,-0.27529283343256633,-0.4223019475547115,0.13328946435371464,-0.19392787678287102,-0.035955995220145365,-0.24501112583527024,-0.16256767820989823,-0.9277130288802742,-0.08522751445210938,-0.1558145579171793,-0.42687629975173436,-0.00967376325172353,-0.21899648895776525,-0.21459002682236616,-0.1905917183882301,0.04229807682819919,-0.21386017568102628,-0.2672138246363071,0.19236416222122896,-0.028806838821647515,-0.17131306034473012,-0.016239812362189045,-0.10125507826128687,-0.15193578164509514,-0.31475466743811986,-0.16021169310293962,-0.01874795676825819,-0.0698543423192483,0.3265446547619986,-0.10086386085965453,-0.07629490135613165,0.27034061041649654,-0.49828501665009606,-0.3765541004223587,-0.3070502489704987,-0.03192035045988996,-0.3189270209074038,-0.560673193797063,-0.41467385464947,0.1678688877800059,-0.12427733263907645,-0.07717809970248263,-0.041650031419481044,-0.012761272100572804,-0.1318664221860294,-0.2904141368317421,-0.21023982276834619,0.09953460656590132,0.04039303576763625,-0.5762745370131286,-0.04278881224803604,0.0028034848360649718,0.05241698394815642,0.11548748496437955,-0.10166662115398939,-0.37940600539821123,-0.05159337748748357,0.10903952021223405,-0.09395991765819578,-0.0379440730359773,-0.0308167726013671,-0.03584405046662952,-0.28209329026286745,0.047125190310159985,0.08586156929470506,0.3911716612097503,-0.34568526038235686,0.06021933184999722,0.016314946516538222,-0.1003309244608116,-0.2119825820604446,-0.09747194566103157,0.029334959087556997,-0.1498167295606128,-0.008434074508998992,0.21392568156775466,-0.11584086993801525,0.30573874508583243,-0.09421804261425974,-0.27859235467074683,-0.09112607727885444,-0.1825214584090583,-0.10473390483648706,0.18244113490002323,-0.163061921165492,-0.2559173732646747,0.10490251341131737,-0.13637517520298115,0.007151542323778303,-0.12852381274016336,-0.1060972927865437,0.02999372309527867,-0.014652262637872854,-0.3434706056609001,-0.2518937806528775,-0.08239783549476354,-0.1736304416892927,-0.09879730430430284,-0.18136562806259138,0.17546906358961806,0.019324719422484135,0.05629676058434619,-0.3247589424394223,-0.2695206796852742,-0.009100897896150997,-0.14711722312546233,-0.005914250894725009,-0.10979025907833526,-0.18785779859079965,0.19572949864362715,0.06575674959428246,-0.07935059388278815,0.1437353171387944,-0.8376893333350448,-0.573304864938948,-1.2683222088272526,-0.21966326799259583,-0.3598893074725301,-0.09144790709317224,-0.07993610101840418,0.5968494892362336,0.26243524728719564,0.36164900178447595,0.373059000309612,0.22273189901469806,-0.20072794990602186,-0.08146179863153173,0.35864788366749906,0.22235548271424702,0.31507256514823107,0.7128891239670097,0.2957862717070172,0.2411295046249062,0.47759718181735955,0.6946890365786746,-0.26626705389016875,0.02412031626577506,0.184098852841745,0.08714923168658613,0.23029367705395662,0.6920831046861016,-0.04410026476329479,0.4694255975415712,-0.01424869575133581,0.09680562389525901,0.25762965976403013,-0.3500540206823552,0.02400027004073363,0.33430585820512565,0.4639299670103606,0.20275401559967116,0.07452347581410622,-0.29333980800376835,0.4620268416633707,-0.04096080377981192,-0.11972740518614926,0.2757494289312182,0.13733640586926774,-0.3482571070667437,-0.07127236013166206,-0.1288310560503469,-0.06983078110016253,0.3897879834802495,0.1938409332991434,-0.18356928610596415,0.06855054620624323,0.009450418078972418,0.2761961497130544,0.2657097767473826,0.3685455346514384,0.21827942967023173,0.1381508149749294,0.167657947814891,0.16159067217660136,0.16311049379352638,-0.01977443677324178,-0.0721183408756952,-0.17600109573367484,0.14676465570631717,0.14958865231535967,-0.26146674917590323,0.2079429286452809,-0.02943666839823894,0.012584676610294918,0.10751197964241573,-0.046483579918724705,-0.0858620044643383,-0.12526759630247017,-0.10893498062496003,0.04890466613964692,-0.3447586944504288,0.16088895951931545,0.08564130797875043,-0.18791081521721734,0.4711849411902367,0.8687383923697154,0.5783264750008543,-0.013026678023262083,0.1556908613212153,0.44843732243882917,0.44172769702634684,0.03670218962582446,0.30504086670122665,-0.004517454738151388,-0.02543931631632573,0.05608207268872825,0.3534543156604908,0.4531410964209603,0.57297246464486,0.04142367761281472,0.010371119240314048,0.15969514968909637,0.15143125758167883,0.24013077037752328,-0.0326695922560417,0.20169072853564596,0.3317517751805101,0.54335962376254,0.06479529330419995,0.7878302427326065,0.07242226743665513,-0.033233075459674716,0.3311432340211719,0.36070472838742373,0.1795210818039785,-0.011477048252444864,0.2629149083794738,0.7799570936758371,0.31642562691568404,-0.12336842996957778,0.1314867502462658,0.33738428806235804,0.20657032259285357,0.48161424407208403,0.11867810168660992,0.18147970412229242,0.0963581257736808,-0.007291812922679014,0.24468303842190847,-0.08224461436721581,0.20954405819709532,0.10711094041773937,0.4609233752624541,-0.09041431800177846,-0.11037024799467046,0.1200313667638474,-0.07779000748548849,0.33479746060482796,0.07411940352929358,0.2045745785322236,0.010576273267984014,-0.2384156193074984,-0.1734887974075241,0.11162826339224838,0.23082226333035136,0.2342539097760219,0.29972713726967837,0.24415512540052578,-0.02729203624400482,0.2661364626487812,-0.3046298701578658,0.14030554824715546,0.0938713246685889,0.14385351685445688,0.187078415135133,0.5334252479327157,0.0850413292232547,-0.3041560795696117,0.1495891021892279,0.7901405526492953,0.4271135800035655,0.03657337301742994,0.2743705694831942,0.15996948565275437,-0.05735478125756675,-0.16204554713080255,-0.4537179622081735,-1.8403402733633207,0.17515370067293545,0.19836259272401047,-0.15616596241263186,-0.16234864851332362,-0.47403505536444435,-0.23481974283092966,-0.3862691669043941,-0.43124318813881407,-0.2791660357190789,-0.13906542896416915,-0.18959727515365132,-0.4287659842201943,-0.4367683873865979,-0.5007305741121514,-0.9984135740352431,1.412527995247807,-0.28009313872532127,-0.11849374438911706,-3.0562856998707977,-0.09928900019334931,-0.13467943909034114,0.009829413437783499,-0.20631447898789823,-0.13861437235038748,-0.6874726515405274,0.36733219923938043,-0.05083144623087224,0.14484991736640976,-1.7869768768202814,0.4462802149505225,-0.42176758008785314,-0.04328851477155192,-0.459766258848336,-0.43221236388266027,0.2260302238032815,-0.08980792661138427,0.04560311629758108,-0.45921364526921615,-0.07253645743282729,-0.06177459721738082,-0.10860731094774145,-0.11616059054325369,0.08237844911425762,-0.1121567770966724,0.013969939359745226,0.013100371352526037,-0.3135362457321566,-0.5027044055004939,0.162465896506922,-0.0002442782016989732,-0.08789916272027716,-0.8406003077476847,-0.24965887958021368,-0.23899193136183147,0.047413486593783416,0.16263899255053688,-0.675314458183335,0.03226843511927052,-0.13632141384072055,-0.13978816761156865,-0.2685545539967415,0.06964208277420986,-0.238061330274385,-0.10172931014444944,-0.3357582239706389,0.6585418412996282,-0.1616049166492095,-0.06367662266348036,-0.25570532684891245,-0.1737581044877619,0.3389080889124149,-0.282048765467547,0.055536758821915874,-0.24795077771685592,0.023113682253724004,0.4380204543307339,-0.2541761207261951,0.06642910716539024,-0.844626290637151,-0.40595134611757305,-0.16268323207194157,-0.1323974805375402,-0.5326109337241435,-0.3429534240875635,-0.48557252597675865,0.19090649250236538,0.4105659723107692,0.24045675508749714,0.12658857541074237,0.1318315717603816,1.3008049395135801,-0.10888488611430916,0.9552299078171015,-0.09667229086003713,0.21575156407835322,0.07539637934648936,-0.24792215908577186,0.27489648454964905,0.05346793616789219,0.5016581072366706,-0.1253538760062894,-0.030252938374212505,0.34129393227237986,0.22938204862483175,0.6000725406715638,0.41682206725286564,0.5774973957835993,0.17725578262641611,0.03502754397611452,0.4388141378153682,0.22548502689672317,0.24173838435910056,0.028200263884765358,-0.057369374831613,0.2010369150421445,0.54503255807494,-0.2167800642433354,-0.12610479963363047,0.18165633163855327,0.05688957036609487,0.010080182943781296,0.09239463782958436,-0.14161033942889634,-0.9012568252976909,-0.017084710631755456,-0.12309270787005078,-1.3049906802527729,0.19971517252310733,-0.812797866920909,-0.520705254983223,-0.36903163807256734,0.025351503060332438,0.28517327330808917,-0.11487778352312811,-0.36654476401038844,0.42655844327525727,0.3727745354397203,0.6711556790709834,-0.05016613051221236,0.03910277693279139,-0.10367123631208784,0.07153923372872599,-0.09749234344951226,0.09148507376321001,0.4761877774672876,-0.054702488158157606,0.18457342821304779,0.06254428142699607,0.0030704003526505893,-0.4042222479088425,-0.14513458406863378,0.3440326530419753,0.2230818583853595,-0.7189528343887294,-0.24895884734683138,-0.004549857097444768,0.4776717866346268,0.27271439639168754,0.19646714680270433,-0.10207623690709772,-0.04121275073901442,0.2355451338074367,-0.024450681817999288,-0.09434632765896916,0.1541909396489133,-0.23436931720684745,-0.5492297498789458,-0.3120889318560902,-0.3756934692717773,-0.3918135189003144,-0.4541291100659538,0.5256551623888175,-0.2225648695636923,0.32162421039074995,-0.4681996059237833,-0.4557406349963127,0.20879901392429473,0.055426683153719944,-0.4327219049582338,-0.47798359536931784,0.05679166079855404,-0.14880329079368218,-0.004146425983176087,0.23943383991106498,0.5196994884670909,-0.24928679101325674,-0.18592075919810025,0.09514801933050403,-0.3572277384595096,-0.08260188442436155,-0.481127578119925,0.3802392620313848,0.7546401897962995,-0.0764256262762026,-0.19512522321439107,-0.34475220090906805,-0.009791583445038093,-0.05038442428925073,0.07580442330722016,-0.19575868772138671,-0.04074116168930586,-0.0829238611099976,-0.29568306283431717,-0.2806453331427909,-0.03346210429344604,-0.1068960990465191,-0.0018819703514436998,-0.031972011966328734,-0.382804433156507,-0.3684646068061713,-0.06719755513659531,-0.3410812332391812,-0.17947743571581792,-0.43292579387726404,-0.05243416650996005,-0.2908962965863374,-0.2881891885580478,-0.2622415660037507,-0.3479211372855043,-0.047244953081703456,-0.12642036659167116,-0.1849864477836703,-0.05947513829297567,0.03943194078830666,-0.2640165182227929,-0.1812219316424838,-0.22853391415849317,-0.36190548710654097,-0.17502874921933834,-0.27957916155195867,-0.06438627465235415,-0.28982071237900775,-0.3200039748561883,-0.023814580394806807,-0.053956257875108896,-0.18789839199894154,-0.2016834100594081,-0.3327388379375128,-0.09338414377501306,-0.06442618707321754,-0.2610129564204744,-0.31900424306509856,-0.5666286887256171,-0.2619025557381385,-0.43978311581169816,-0.3755953354845533,-0.23311378170316963,0.020428181831955085,-0.8043551643171825,-0.7722956324351726,-0.2552183705332043,-0.34492261896387055,-0.17006933546043926,0.1428216122257216,-0.23565715128518933,-0.27967617189562677,-0.17623441802840584,-0.0030505048504665495,-0.06608298747203875,-0.34912475117586517,-0.10234164981188318,-0.11833866377706967,0.10527453328561283,0.08980504889503313,-0.7003056329354681,-0.7748608331022073,-0.44015683626752866,0.121651951209946,-0.848283957905926,-0.8484460458047864,0.08555452404360937,-0.09886066632102315,-0.7237507740042184,-0.1189621313116947,-0.5187765904336334,-0.06760921420293232,-0.6959818566135483,-0.38319575055957067,-0.4232990959738254,-0.0754073309946424,-0.6267959781292489,-0.0027309810266960225,-0.15591206670614563,-0.06780512658450712,-0.07060353040542482,0.07474968553791027,-0.4707623674235999,-0.003130263487352009,-0.8879113607484784,-0.06673811549500738,-0.0927818532794028,-0.08833210250565032,0.08741708931152238,-0.2864670378331748,0.03392063984034151,-0.13926370103292224,-0.2208592925789068,0.10143418867636846,-0.005138403858867737,0.12628706423815786,-0.33466657032574754,-0.4269829126433588,-0.056564657274847,0.042285597851662096,-0.11440749623530483,-0.2500754984581757,0.2528095257498777,-0.10870850884737931,0.05131605121650275,0.11205966199106825,-0.1880601453033542,-0.5890995214311425,-0.2243870078001185,0.010795526451565108,0.03834655168216221,-0.5707228654334402,0.039307738120903796,-0.09803531000869276,-1.3820523641698177,-0.07403476485588796,0.0171400383796685,0.5639291028653661,0.04267464326696169,-0.32419028758810664,-0.09475665852552899,0.044428949478891526,-0.0329179405679588,0.22841894852828254,-1.466806834218428,-0.11189344809259416,-0.24762209575095692,-0.24443397906410144,-0.33747284134628447,-3.2397539093603,0.03704147697229519,-2.989469832299148,-0.30507166749848974,-0.2573720409976042,-0.769221012861663,-0.5938181567142191,-0.2915929104269683,-0.2356637036924669,-1.3838210139727551,0.5537040007059232,-0.021267420105365954,-0.10136378813462896,-0.2621938737490074,-0.09030599088070075,-0.24350001079144495,-0.023661446184817546,-0.43573398223434723,0.09282816932439768,-0.6001459335134365,-0.4100647707982904,-0.13659165807521567,-0.28722220449866614,-0.4108278358041745,-0.38429477685408625,-0.16437013223334648,-0.14049591958499275,0.272008217364527,-0.4140553164749028,0.16477584586671656,-0.1500882824484379,-0.170564142624697,-0.1554735368234898,0.13731772405374493,-0.0906182047226994,0.2706696139624671,-0.11950837253795898,-0.21125047827612828,-0.19657955580705316,0.20517759683506315,-0.06985465504666354,-0.240465929843708,-0.6081202670313561,-0.09473383584130414,-0.2174736028136936,-0.10417252236087346,-0.17416931277745687,-0.4758998255197908,0.03181732050336841,-0.1402706091782573,-0.04498294123715718,-0.11183246390430159,0.023531642274945593,-0.14412670994072474,0.002372017471764358,0.17162608920327374,-0.16446372371528414,-0.08437333383487533,-0.12910128041542984,-0.17121390701925726,-0.36751491894402283,0.1691470394285011,-0.1378747346165921,-0.04374916485643113,-0.09376377954907443,0.3011048573606722,0.19252976643363645,-0.03134997368874812,0.07558363222655606,-0.4084901814243766,-0.4525473624009303,-0.28272630983818103,-0.06068400982790249,-0.5270992236587934,-0.4656185462353486,-0.5077157183696716,0.4753763935254643,0.14219554926431732,0.44826137692781054,0.32645321517786324,0.36194846264615393,0.9464799483017297,-0.02449962196728582,1.189815427773883,0.344604842129499,0.4194889561059416,1.0819766680023253,0.4400024021981604,0.3182881219264357,0.42556177423380503,2.1717628114492262,-0.011619314531953551,-0.0749243204834657,-0.07688453094093917,0.11682751130951421,0.08837149185814452,0.7745864322782461,-0.024761917255346672,0.25177532410493836,-0.0658466462265789,1.9049676615907178,0.37803139307556655,0.21923941261752,0.02478228453220096,0.4280669895112653,0.4064718278354473,-0.46749163720902426,0.23268397298780935,-0.06561975072130712,0.5046131519421668,-0.17324543238618964,0.14078466887756458,0.37833853558038266,0.13401499989612561,-0.07156459755941288,0.027138540669355986,0.061357962976774344,0.13132870503293897,0.2623233637947942,0.45754946534501606,-0.04039541889910889,-0.03279406196878227,0.1807421216776543,0.9639375418906517,0.04361859350313587,0.27003217639000415,0.20078384666890986,0.028802544525416744,0.9701307255352514,0.058037554680838106,0.21954957965148852,0.17267082663917432,0.2067523418658972,0.08049531798891227,0.16329743890374737,0.20856005318502352,-0.04680481266556252,0.19254782489593056,0.24803551293403267,0.011522084282365057,0.2127405985601568,0.2961704653879279,-0.16706920698828429,0.23399871638020492,-0.039636738647470776,0.2509478855191229,-0.09557491505413682,0.2490373710515644,0.18931751288901702,-0.015193934796736211,0.25990666700847853,0.1806837328266385,0.24441740463604594,0.06251485868783088,0.26047155480212386,0.4147226362196709,0.5071040908260617
biasActivation=0,1,1,1
[BASIC:ACTIVATION]
"ActivationSigmoid"
"ActivationTANH"
"ActivationTANH"
"ActivationLinear"
[BASIC:SUBSET]
SUBSETFEATURES=2,3,4,5,6,7,8,9,10,11,12,13,14,15,16,17,18,19,20,21,22,23,24,25,26,27,28,29,30,31,32,33,34,35,36,37,38,39,40,41,42,43,44,45,46,47,48,49,50,51,52,53,54,55,56,57,58,59,60,61,62,63,64,65,66,67,68,69,70,71,72,73,74,75,76,77,78,79,80,81
