encog,BasicNetwork,java,3.0.0,1,1406174341620
[BASIC]
[BASIC:PARAMS]
[BASIC:NETWORK]
beginTraining=0
connectionLimit=0
contextTargetOffset=0,0,0
contextTargetSize=0,0,0
endTraining=2
hasContext=f
inputCount=10
layerCounts=1,11,11
layerFeedCounts=1,10,10
layerContextCount=0,0,0
layerIndex=0,1,12
output=0.35760713147484013,0.5995517246309939,0.5914418169214332,0.5927447215902274,0.4360263858587511,0.3922634379009602,0.44407973208066714,0.575513165492421,0.5283379512243976,0.621216629228768,0.486445493514722,1,0.1332538576989304,0.18427383982980983,0.008013799778002983,0.18251885321515782,-0.29485036896226824,-0.4548791985483105,-0.16032732346768253,-0.0365963933351634,-0.25548970150545625,-0.05865136274480176,1
outputCount=1
weightIndex=0,11,121
weights=-1.015182375680416,-0.16027912066697322,-0.4229217877023041,-0.28023728250293084,-0.8734938766659827,0.3253202928706349,0.33761616212189627,-0.019872147181602868,-0.17108282815878856,0.6952962592161248,0.2729845414734844,-0.01496743598455676,-0.1948463706303436,-0.08316220495240392,-0.36978568603784306,-0.7126552990623396,0.1297330284637405,-0.6891215898766894,-0.07199373552332909,-0.34447357788278576,-0.6920030316908548,0.1168265790318379,0.1423853558916307,0.1201228397517258,0.09014415435542725,-0.38876609306558363,-0.35220828715477415,-0.4593341813919659,-0.041034404697625974,0.09133352740491982,-0.4704970974681593,0.1832484070526073,-0.026431333029172745,0.022295855156411047,0.06581870095527588,-0.39397966162047066,-0.4590911804910296,-0.08504454629766198,0.1509843439402381,-0.4947659290678107,0.12134084776221045,-0.4676789855433096,-0.2298678240392098,0.28292514409825,-0.4460309763597706,-0.44556912333827087,-0.4381244011427276,-0.34688744286391326,-0.05660692272068388,0.22787541345469053,0.060020975351023846,0.22460296145661035,-0.10670123353816115,-0.13800028060121025,0.020514816810979105,-0.6449356895763484,0.03479689482511748,-0.4383224993937329,-0.48706408581025534,-0.11122542535749004,0.17095563997776678,-0.1471598111381935,-0.41017588952265005,-0.10503603041773443,-0.5612632302919233,-0.319258701608577,0.45386943774515887,0.02023445871010679,0.41305735061159865,-0.1473567320795749,-0.2964540717096064,0.09533857919333197,0.16528287498825694,-0.16528896136493693,0.1274612327921256,0.5083890625191454,-0.22645300107363778,-0.212604723281382,0.3004717492601548,-0.18564899972211218,0.2671947108686628,-0.2754973784758409,0.05164031452907676,-0.1055001840546039,0.5229402369851401,0.36052254073759904,0.22253811594537984,0.27970683735224694,0.37267474692843366,0.18490256015997264,-0.5441183701641372,0.018409687745349606,-0.20641375462310457,0.06533431532512218,0.2609141908474767,0.11641748038921443,-0.28171846149241375,0.0840892337924748,-0.021353338979344064,0.23442917694645152,0.22112225175495942,-0.41771940692878873,0.15883999871531507,-0.4444589193765273,-0.06830702315156652,-0.3350424251243822,0.09670361912572038,0.21766099706952982,-0.13589020489426465,0.2324282121150799,0.2606092065809151,0.14135086091974713,-0.04366127876482694,-0.10948058607878479,0.5510012471093568,0.08961642699521659,0.30115276917073536,0.5897470722591482,0.531995092938756,-0.06772708318501428,0.31036658688039237
biasActivation=0,1,1
[BASIC:ACTIVATION]
"ActivationSigmoid"
"ActivationSigmoid"
"ActivationLinear"
