encog,BasicNetwork,java,3.0.0,1,1406162239476
[BASIC]
[BASIC:PARAMS]
[BASIC:NETWORK]
beginTraining=0
connectionLimit=0
contextTargetOffset=0,0,0
contextTargetSize=0,0,0
endTraining=2
hasContext=f
inputCount=10
layerCounts=1,11,11
layerFeedCounts=1,10,10
layerContextCount=0,0,0
layerIndex=0,1,12
output=0.02988009837014468,0.04903913799078595,0.9923846332612868,0.057642888452813686,0.9527190510040624,0.9845091234939306,0.3135994533091443,0.07563069228522291,0.18934082878389763,0.9830022107484825,0.07815850210054781,1,-1.3332206335128913,-1.344600090395267,-1.0882463950362729,-1.1151795596563225,-1.262295217483865,-0.24353883924090403,-1.1950989828610088,-1.2136051537022932,-0.9650127246589574,-1.7460797133074155,1
outputCount=1
weightIndex=0,11,121
weights=0.6646323006970879,-1.0979551260928064,0.6070989429843636,-0.7880198698894514,-1.1289687924314507,0.22738868734451595,0.4985702835180537,0.34896372259185604,-1.054312498182133,0.6704074879590499,0.2129246682270931,-0.23038299482414398,0.16926355753585828,0.37414610653993036,-0.13673652310286136,0.20736343008599337,0.3860648472913852,0.47861994113873685,0.07961261131728986,0.34591035938062853,0.6423374822168584,-0.3099639085714135,-0.1271406910016993,-0.5300185102502988,-0.28082181454458766,-0.5611481779088747,-0.10794094184529639,-0.554204549509693,-0.5405156002640125,-0.19488711641521564,-0.4226232358733224,-0.6633147468308648,0.33664224373183704,0.47491127542506784,0.4970602458961729,-0.05358213816123144,0.03137361119530408,0.450528835772166,0.19016675782230213,0.028256159072790044,0.12781066905905225,0.13837731793149197,0.5401398898915094,0.36462514058390333,-0.2511204113263058,-0.4026097156370488,-0.4509873646496348,-0.46234103257383913,-0.06618939349580229,0.2093130070906075,0.20481046249121887,-0.5507879140922367,-0.3663117163120225,-0.21755391907394134,-0.0689209420621225,-0.6095789014148622,-0.32023717548182273,-0.06768511712421654,-0.6775815265818821,-0.554076554236106,-0.621184893780728,-0.3755373908671209,-0.049777507462159,-0.27230147786754183,-0.43976680348892927,-0.31123304152381887,-0.16268530759733182,0.14197557540665967,0.4656517625288972,0.11815899602129787,0.4392100629794999,0.30336085127150514,-0.02630407155192932,0.3400750491326897,-0.13716833578123125,-0.34514210532200845,0.10373146921586456,0.30997190104144645,0.16065784584232695,0.2610746386008667,-0.21157092088059534,-0.20239205341729197,0.023099920859121957,0.0006803965132590421,0.5537765804931172,0.5158661706956646,0.3725524255378,-0.25444392441711833,0.13057337692401508,-0.17192805895295807,-0.1466451793917526,0.3762337392904146,0.409238542134095,0.31696804954170565,0.05283992405738888,-0.2691401397121971,0.5051242953610562,0.05147136008886988,-0.3437908313398554,-0.6244883510507672,-0.02797361139027668,0.0973206751784222,-0.1957192328470141,-0.06059179605746788,-0.5377443340680107,-0.6369106745360659,-0.3838673295702078,-0.33133677782820636,-0.575159585373914,0.31648106335133547,0.319399101507018,-0.22210306931858212,0.015161720934631369,0.042231758283576684,0.5295142776666287,-0.22694510404350612,0.5513915596836115,0.4508833367762453,0.3409990274554332,0.2515706653500719,0.31077695481089046
biasActivation=0,1,1
[BASIC:ACTIVATION]
"ActivationSigmoid"
"ActivationSigmoid"
"ActivationLinear"
