encog,BasicNetwork,java,3.0.0,1,1406174341975
[BASIC]
[BASIC:PARAMS]
[BASIC:NETWORK]
beginTraining=0
connectionLimit=0
contextTargetOffset=0,0,0
contextTargetSize=0,0,0
endTraining=2
hasContext=f
inputCount=10
layerCounts=1,11,11
layerFeedCounts=1,10,10
layerContextCount=0,0,0
layerIndex=0,1,12
output=0.3306439035636174,0.622001607599931,0.5967249092144127,0.6026061234303056,0.4450544136501537,0.4180023484935264,0.4342155646408525,0.5618682515686642,0.5279559310089424,0.626292690431569,0.4651047139986087,1,0.1332538576989304,0.18427383982980983,0.008013799778002983,0.18251885321515782,-0.29485036896226824,-0.4548791985483105,-0.16032732346768253,-0.0365963933351634,-0.25548970150545625,-0.05865136274480176,1
outputCount=1
weightIndex=0,11,121
weights=-1.312859130931456,-0.2624175485943678,-0.6225243930595881,-0.4208379763328092,-1.1288585449629303,0.5609614370979888,0.5703827454131376,0.04804855980541033,-0.22230274431395272,1.021719966398522,0.376809832738866,-0.1045722752403207,-0.2862094037055609,-0.1721234052991078,-0.46961153059044775,-0.8287357934600936,0.03998134287715683,-0.8215671570218012,-0.2016830085567511,-0.4668810557177743,-0.85103105767844,0.11735627988008265,0.11226411735890654,0.08926652301624272,0.06127894477381744,-0.42390191897313256,-0.3912080179884559,-0.484711234554979,-0.08004889052838648,0.05251060158326825,-0.5059046632466708,0.1337824202059039,-0.030844936852843566,-0.03269698601131906,0.009115414480181055,-0.4467313874737282,-0.5273480989890585,-0.16260076650901406,0.09988105680611563,-0.5718823883093271,0.044732450012161265,-0.537279907135674,-0.33217447017622465,0.269531744628088,-0.48617603559668626,-0.4870392842597797,-0.476912764932641,-0.39708526745088546,-0.11365513693565658,0.18869513245459754,0.0035798371562267384,0.1685048172009692,-0.15817838978103343,-0.21195555896741786,0.0163757624807265,-0.7256566405950773,-0.04839644508564396,-0.5191432000735695,-0.5868937432464073,-0.2261406222772615,0.08494919184954237,-0.2670882214645338,-0.5281110175414226,-0.21646646066806044,-0.7123585229189345,-0.301355406828129,0.5078135018557792,0.0762884950199231,0.46498040363626353,-0.07318966889152109,-0.21696495951253703,0.1464742393888881,0.23871248048336816,-0.09177436484586468,0.19406763240673555,0.6074239995036194,-0.2139879579535012,-0.15317225659683323,0.36151512772951694,-0.12812729051994035,0.33719878329935077,-0.196049006145455,0.1055010286051632,-0.027275921596272276,0.6006273835662393,0.43192658070528317,0.32103686640056217,0.2789972634010876,0.37459879623641523,0.1868811017954717,-0.542214924529875,0.020699873271767307,-0.20378958134917735,0.06724065002385429,0.2635773152296617,0.11906070400067349,-0.27924384705964345,0.08747066933724257,-0.02094535530819687,0.20118290270596229,0.18705729668140392,-0.4498277521258533,0.12184440980166959,-0.4862445626906171,-0.09714543685893721,-0.37701737825792453,0.05479354167453468,0.17901733001046177,-0.18650211223297614,0.22523139835670622,0.3310461668637187,0.21519459605701408,0.026110993214469212,-0.00010474599378587309,0.6664055733020127,0.16478391215411875,0.4066609440309567,0.6950499797970036,0.628879289419826,0.08739367076372971,0.30411335354853863
biasActivation=0,1,1
[BASIC:ACTIVATION]
"ActivationSigmoid"
"ActivationSigmoid"
"ActivationLinear"
