encog,BasicNetwork,java,3.0.0,1,1406162238737
[BASIC]
[BASIC:PARAMS]
[BASIC:NETWORK]
beginTraining=0
connectionLimit=0
contextTargetOffset=0,0,0
contextTargetSize=0,0,0
endTraining=2
hasContext=f
inputCount=10
layerCounts=1,11,11
layerFeedCounts=1,10,10
layerContextCount=0,0,0
layerIndex=0,1,12
output=0.16435556058264345,0.16160464551866266,0.9576747888418087,0.15458244252381206,0.752228268834155,0.9009477739193573,0.42713714351707155,0.2050661545598827,0.3392658370196667,0.878040683364896,0.2582501464421188,1,-1.3332206335128913,-1.344600090395267,-1.0882463950362729,-1.1151795596563225,-1.262295217483865,-0.24353883924090403,-1.1950989828610088,-1.2136051537022932,-0.9650127246589574,-1.7460797133074155,1
outputCount=1
weightIndex=0,11,121
weights=0.29093595263202054,-0.5977448756981317,0.22874817238402226,-0.505009884323335,-0.6486540699786468,0.06002519655032026,0.2499458294790442,0.1286254223642747,-0.6409199390161507,0.3227978724370869,0.1870417694768187,-0.30437523694357044,0.08915426322426456,0.30282087837791316,-0.27822290958832496,0.06526244764214682,0.3095263637309191,0.3613610983884354,-0.04080217097707292,0.2404632607248413,0.46880997060843976,-0.3222477598051778,-0.04076191662068041,-0.4345986530855586,-0.1970316541917753,-0.3733591415255295,0.08472033140877243,-0.45174498782402867,-0.3808996189637081,-0.03083171921475887,-0.2795862470623047,-0.4142751657520631,0.3607704375233748,0.41478808784178367,0.4325079685289274,-0.11337303278490626,-0.07515896650228304,0.3392725871112861,0.12148186306166474,-0.06997996203100285,0.02791158825257887,0.04818844882433177,0.40378975249784593,0.387897603394673,-0.14331558811449677,-0.28678561154018145,-0.3458438597031954,-0.272225838839974,0.13167877932199415,0.32518369389866286,0.3730947113414597,-0.37912783956293605,-0.21302071487367455,0.022366903506776815,-0.08142268085775099,-0.5101279741806126,-0.2121763367435622,0.03289274078342376,-0.4782682865864366,-0.3550728301366774,-0.4967562493197654,-0.20045794668026704,0.12842284069901178,-0.11094066701194352,-0.19055572942437324,-0.3478483202716184,-0.19173432150080136,0.11099307173285543,0.43759303872620375,0.06997220102600755,0.38879780623031734,0.27480378865831007,-0.07018294492208296,0.29531559924012357,-0.17702030253831863,-0.40684666035517036,0.10532698132754205,0.24460126422145848,0.08993849723493404,0.19755934371940378,-0.33686527671797967,-0.32692466760887573,-0.04665245254492931,-0.09902085457817901,0.45125484304407637,0.4254812995105855,0.22574463690355384,-0.2585281780089153,0.08087138850786736,-0.22448654902822293,-0.1944726711097681,0.29898578224091016,0.32849307079467943,0.27075360316939606,-0.01869002584674899,-0.34195655299463007,0.440195290705864,-0.04575281680812494,-0.35064060930818386,-0.5138934948892294,0.09296968860885589,0.20426019455780312,0.031080570149550138,0.1685706642595861,-0.41706754037812893,-0.45271271180554884,-0.19411121146339394,-0.16585671026585747,-0.2909977716712564,0.33726867685006706,0.23885404865619453,-0.3084497161661227,-0.06460745219976385,-0.09766770472964,0.3848469022669279,-0.31525203504580157,0.4273746610857485,0.3242307175036611,0.22706795817760717,0.0776502590896371,0.3373587813974489
biasActivation=0,1,1
[BASIC:ACTIVATION]
"ActivationSigmoid"
"ActivationSigmoid"
"ActivationLinear"
