encog,BasicNetwork,java,3.0.0,1,1406162238307
[BASIC]
[BASIC:PARAMS]
[BASIC:NETWORK]
beginTraining=0
connectionLimit=0
contextTargetOffset=0,0,0
contextTargetSize=0,0,0
endTraining=2
hasContext=f
inputCount=10
layerCounts=1,11,11
layerFeedCounts=1,10,10
layerContextCount=0,0,0
layerIndex=0,1,12
output=0.312993141843727,0.23465345343288696,0.9187594153436502,0.1861313783292788,0.47136650562939464,0.7899165604171499,0.43301954879546595,0.2949722017536668,0.39278969176997736,0.6653986817212055,0.3880965724880208,1,-1.3332206335128913,-1.344600090395267,-1.0882463950362729,-1.1151795596563225,-1.262295217483865,-0.24353883924090403,-1.1950989828610088,-1.2136051537022932,-0.9650127246589574,-1.7460797133074155,1
outputCount=1
weightIndex=0,11,121
weights=0.1641378889886226,-0.3399449329267272,0.060933406934702894,-0.46556672847780234,-0.4250527766551292,-0.017623207605764114,0.17915349032519712,0.0738357434733147,-0.5142967683906366,0.22939676592837854,0.2104845280075732,-0.3412938436965601,0.051151041674756315,0.2675243742413462,-0.32011210772407833,0.02056426005835198,0.2825308751293621,0.3205635771401077,-0.08217349500554717,0.20289541168503494,0.4229560787880785,-0.32185519722694633,0.012319351374915197,-0.3797671156882207,-0.14655786824437514,-0.3105328083503256,0.1525397237710749,-0.4123213620608081,-0.31995354073063204,0.03100564500216006,-0.22392781422062957,-0.34201517151595173,0.35971538283525206,0.3976721769644337,0.41490424369376266,-0.12978756258410423,-0.09448812867395075,0.3184443425829237,0.10832252028224743,-0.08950697711766584,0.00816619246091138,0.030143182312129275,0.38179690528438137,0.3931354962793824,-0.04471663483054748,-0.18569751293261352,-0.2505731940613481,-0.16661892242426146,0.24660312924716465,0.40124563449725675,0.4817831937364491,-0.26929146820694044,-0.11130160659870034,0.13971483052671002,-0.08794515156225151,-0.44257695744987263,-0.1428090204609132,0.09767750193356442,-0.4029554617217969,-0.2737089113828962,-0.44606995286689877,-0.12341097519729093,0.20628564004100214,-0.03981926152658734,-0.10341444699272725,-0.3709935068336084,-0.19357627282463835,0.1090933865163514,0.43584509640363295,0.06781939500262238,0.38648238220927594,0.2734481623202098,-0.07230479585306562,0.2931672886323497,-0.17896272813425312,-0.4093454986914432,0.1053796773324698,0.20626324650106348,0.050454519599236226,0.160517388586788,-0.3805793041259564,-0.3735391840980673,-0.07649323751309528,-0.1411987854473598,0.4084575908080465,0.38625971668464326,0.17867249632945517,-0.25671645985874275,0.06208927134019416,-0.24371635766102948,-0.21253430833996945,0.2791199517308007,0.3068324182425597,0.25695580961229325,-0.039342769908075996,-0.3628107177512693,0.4209505158604231,-0.0679926796138136,-0.3504777200199397,-0.4114165993384968,0.19839049161961217,0.30272172836162875,0.14612932461680805,0.2923497739073551,-0.341510893656154,-0.33971810232062444,-0.07959621645832086,-0.06121245605828256,-0.16450535706359842,0.33504484526707456,0.1913125496201675,-0.3572954893593649,-0.11049075337859038,-0.149873920743785,0.3287057783761162,-0.35280981416894464,0.3751021865478083,0.27125292511812726,0.17837804374532917,0.020098406840963624,0.3456540606146599
biasActivation=0,1,1
[BASIC:ACTIVATION]
"ActivationSigmoid"
"ActivationSigmoid"
"ActivationLinear"
