encog,BasicNetwork,java,3.0.0,1,1406162239348
[BASIC]
[BASIC:PARAMS]
[BASIC:NETWORK]
beginTraining=0
connectionLimit=0
contextTargetOffset=0,0,0
contextTargetSize=0,0,0
endTraining=2
hasContext=f
inputCount=10
layerCounts=1,11,11
layerFeedCounts=1,10,10
layerContextCount=0,0,0
layerIndex=0,1,12
output=0.036358670081782396,0.056229682856144964,0.9909138368426613,0.06519455310735553,0.9441214749478332,0.9812752082019699,0.3279707896263316,0.08465759833006956,0.20467131227260563,0.9794606121834852,0.08989685011524429,1,-1.3332206335128913,-1.344600090395267,-1.0882463950362729,-1.1151795596563225,-1.262295217483865,-0.24353883924090403,-1.1950989828610088,-1.2136051537022932,-0.9650127246589574,-1.7460797133074155,1
outputCount=1
weightIndex=0,11,121
weights=0.621367527077227,-1.0454815937791027,0.5693994568366306,-0.7552699901377248,-1.078508106742791,0.21191780130594315,0.4711362020768134,0.3213947864266498,-1.006083253114064,0.6305044569707414,0.211584704303527,-0.2339818736149419,0.16465007154163383,0.3701387992504265,-0.15411304993282957,0.19066808704470975,0.3764553585303224,0.46482530347226736,0.06537957525692048,0.33341116691661016,0.618094327024504,-0.3118543799100736,-0.1252827454043414,-0.5266987683294441,-0.2781177119180373,-0.5397066008368806,-0.0869060996064996,-0.5418409910769432,-0.5224240745099858,-0.17619582246709733,-0.406217460762832,-0.6300232600428846,0.3401987710563181,0.4710725426328776,0.49246742608615723,-0.05801849760942642,0.017931547422273715,0.4366441301037992,0.18056464346271758,0.015483527932339878,0.11484839971713398,0.126525293640188,0.5202782400152737,0.36769040598148095,-0.24670693224932388,-0.39701796289441693,-0.44589082070153974,-0.44269631433944495,-0.046515888793903545,0.22147477294505621,0.22169536995091374,-0.5335229029846426,-0.35081304548849385,-0.18893999788355476,-0.07035607916069682,-0.6066696909270533,-0.31593659581457173,-0.063335240635959,-0.6544311432547654,-0.5329956942574854,-0.605670042503001,-0.3563625319129789,-0.03028057783014098,-0.254330209173334,-0.408142708917494,-0.3143818101187334,-0.16525945809477785,0.13904443424855784,0.4629923883770579,0.11129938499112071,0.4321359451747277,0.29909133647032565,-0.03253050318836078,0.3337132968347854,-0.14285389251433167,-0.35496471203708696,0.10401316993604208,0.30652946911202833,0.15637071481207274,0.2572893726257672,-0.22691090886435245,-0.21671080789565675,0.014654801814306635,-0.010500846568777037,0.54222841007511,0.5056694017756833,0.3528986873139866,-0.2551237384987896,0.12659665729679967,-0.17641496660383846,-0.15069604158688327,0.36588511383721656,0.3987766939222132,0.3107294187408247,0.04357184225251875,-0.2786075589219703,0.4967139265024021,0.03689995343521778,-0.34497605330585634,-0.621647207575091,-0.023623261897137267,0.10099401179139622,-0.17203519977573664,-0.037595934017246535,-0.5244010847769269,-0.6181052281773491,-0.3644131291697521,-0.31425879594587486,-0.5402172542216617,0.3195112261198279,0.3149560687660459,-0.22746619046270053,0.00999474656518318,0.02604960404173467,0.513119120448505,-0.2377859700419524,0.5369814564939003,0.43617150733395427,0.3275520712468858,0.22833205509564813,0.3147481210805308
biasActivation=0,1,1
[BASIC:ACTIVATION]
"ActivationSigmoid"
"ActivationSigmoid"
"ActivationLinear"
