encog,BasicNetwork,java,3.0.0,1,1406174341218
[BASIC]
[BASIC:PARAMS]
[BASIC:NETWORK]
beginTraining=0
connectionLimit=0
contextTargetOffset=0,0,0
contextTargetSize=0,0,0
endTraining=2
hasContext=f
inputCount=10
layerCounts=1,11,11
layerFeedCounts=1,10,10
layerContextCount=0,0,0
layerIndex=0,1,12
output=0.3646589904158188,0.5816783845165004,0.5882961311056976,0.5856183632318649,0.430425548905103,0.37230267306057496,0.4497160210544158,0.5830331954343551,0.526284448297787,0.6161914056962333,0.500986194525132,1,0.1332538576989304,0.18427383982980983,0.008013799778002983,0.18251885321515782,-0.29485036896226824,-0.4548791985483105,-0.16032732346768253,-0.0365963933351634,-0.25548970150545625,-0.05865136274480176,1
outputCount=1
weightIndex=0,11,121
weights=-0.7756754157964896,-0.08681745631339505,-0.27085186107809905,-0.15764996905907155,-0.6699508905709917,0.1543619356115942,0.18649111556543585,-0.0923579709950683,-0.1741931741768523,0.4341923034696584,0.183234672518371,0.08419874138319136,-0.09436054150879325,0.012111293629014669,-0.2763085214126955,-0.6048409919435334,0.20927646619889587,-0.5739028302454543,0.04257830488115674,-0.23850438091992984,-0.5712236483436256,0.11813533932052228,0.16373045317420676,0.14184115763183758,0.11044360974348108,-0.3676102700793292,-0.32838905458431705,-0.44385472634589335,-0.017217416548609643,0.11523655346870976,-0.4487106294192286,0.20965247477019097,-0.024432115562897788,0.0725372497173475,0.11712661026883653,-0.3462565102074205,-0.4076512889328865,-0.026557099072158443,0.1903478055390601,-0.43738362041120216,0.178979672374204,-0.41539831728920407,-0.16509315612290473,0.2911780019208656,-0.4140460103322143,-0.41286112288688886,-0.40757399182975884,-0.31359246784352074,-0.018836654424258206,0.25418233231061177,0.09738668552989119,0.26211607495153155,-0.07227561485157981,-0.09586395422322941,0.022826633388011854,-0.5563537153698965,0.12521097993226823,-0.35294569908045986,-0.3959019864638855,-0.007282414889976068,0.24513428265902504,-0.04288775790277401,-0.30603167152458277,-0.008793395991129143,-0.4458178286085353,-0.33331065947131283,0.4150215248447023,-0.01964549631152415,0.3759418982825344,-0.18992869080783348,-0.3430994329860748,0.06456566633061553,0.12133307531271567,-0.20970814292861462,0.08709824229302238,0.45836861056132333,-0.23272669828090417,-0.25830197428671,0.2538863274163102,-0.229427875062659,0.2213768333521682,-0.3273216909377887,0.016267823473704902,-0.15621074884121042,0.4720236567975165,0.31387058278941304,0.16699561644268113,0.27740948714263375,0.3865196918397631,0.19900921737563676,-0.5307062604102991,0.031941685073808165,-0.1911488719749346,0.07640624656397464,0.27613920220781385,0.1317485013067288,-0.2674527808523987,0.10012903963131337,-0.019488866124368613,0.27135706036852414,0.2587578660180175,-0.38204325498463343,0.19514468100332227,-0.4035710646006913,-0.038981091418065134,-0.29416004937727275,0.13786351239062142,0.2558511177372386,-0.09247507704343338,0.2381182023430805,0.1940308118770748,0.07268668007780664,-0.10719145411517651,-0.18848304325304122,0.4662451130655768,0.036388991057567086,0.22349044658511388,0.5112014790269206,0.4611855265534074,-0.16418916389418495,0.31671902366627286
biasActivation=0,1,1
[BASIC:ACTIVATION]
"ActivationSigmoid"
"ActivationSigmoid"
"ActivationLinear"
