encog,BasicNetwork,java,3.0.0,1,1406162239104
[BASIC]
[BASIC:PARAMS]
[BASIC:NETWORK]
beginTraining=0
connectionLimit=0
contextTargetOffset=0,0,0
contextTargetSize=0,0,0
endTraining=2
hasContext=f
inputCount=10
layerCounts=1,11,11
layerFeedCounts=1,10,10
layerContextCount=0,0,0
layerIndex=0,1,12
output=0.055156485395912516,0.07562225333169634,0.986493665441271,0.0846645919041746,0.9188139536187383,0.9713164256470243,0.3589919745042658,0.10807693967618635,0.23978589243438442,0.968370973534351,0.12129484121507003,1,-1.3332206335128913,-1.344600090395267,-1.0882463950362729,-1.1151795596563225,-1.262295217483865,-0.24353883924090403,-1.1950989828610088,-1.2136051537022932,-0.9650127246589574,-1.7460797133074155,1
outputCount=1
weightIndex=0,11,121
weights=0.5302086279700059,-0.9318597232745518,0.48402475667991046,-0.6843344468092631,-0.9680446550508536,0.17546917482069568,0.41148515498352495,0.26438618168519057,-0.9051755739027691,0.5450382594873462,0.20598237513210957,-0.24743690969390894,0.14934496076442583,0.3568107164956139,-0.19064748299956,0.15487410603913215,0.35736880767489887,0.43616766163773774,0.0358092398885715,0.30771234392861335,0.5708733206878791,-0.3157686683122707,-0.1124296065487396,-0.5111792263872776,-0.264963980307254,-0.4934573743078256,-0.04052153142561402,-0.5170594569705368,-0.4846226532549745,-0.13716430022443257,-0.3723704563344569,-0.5642853162573737,0.3477944143716903,0.4586868879637319,0.4787000710753104,-0.07083046427240554,-0.010715597883306633,0.40703835145976597,0.16191125989749916,-0.010392648437695145,0.08850581010658735,0.10272325012164113,0.4816064562912302,0.37384469270305976,-0.23012103016766414,-0.3782038306058198,-0.4290288338072191,-0.3994240595937855,-0.0024954093288028895,0.24684692553730653,0.25800298675900274,-0.49635006546906457,-0.3178015023429467,-0.13066090416532014,-0.07320723916775125,-0.591425818723477,-0.29816102526757715,-0.046630534028254046,-0.6055813303502221,-0.4862039415700051,-0.5751038102094778,-0.3157712603568984,0.011102695298184268,-0.21674961155469977,-0.34450844170713874,-0.32156020631100196,-0.17228040516430732,0.13138419455196487,0.45610569911479565,0.09723263513401299,0.4175719672128477,0.29086267073536054,-0.0449849214400407,0.3209768714099219,-0.1541480207061715,-0.37371348816537225,0.10444155913223843,0.29468923725123186,0.14295958177027315,0.24547800037679526,-0.258803138534124,-0.24743797871268958,-0.002312632277677965,-0.034142237897036486,0.517799344600606,0.4843047358427142,0.3140268544124647,-0.25652491957398593,0.11565882155051715,-0.1882501556888365,-0.1613378528111117,0.344917581782872,0.3772185423474346,0.2985681379701203,0.024874042328797173,-0.2976993271138598,0.47983244903180955,0.0092440133572723,-0.34720964455584125,-0.6060857329431638,-0.00518606016889306,0.11677426642278,-0.11964584604156471,0.014024624420402079,-0.4972121963375371,-0.5778594453576887,-0.3227260749349832,-0.27816468649766657,-0.4696773303567579,0.32599833538607703,0.3001523303960643,-0.24397771723544395,-0.005296463151730322,-0.008823820911128998,0.4775900449396927,-0.2594582167250282,0.5070868970945345,0.4055755547562728,0.3000011593323777,0.18234900244771204,0.32208761547700326
biasActivation=0,1,1
[BASIC:ACTIVATION]
"ActivationSigmoid"
"ActivationSigmoid"
"ActivationLinear"
