encog,BasicNetwork,java,3.0.0,1,1406162239056
[BASIC]
[BASIC:PARAMS]
[BASIC:NETWORK]
beginTraining=0
connectionLimit=0
contextTargetOffset=0,0,0
contextTargetSize=0,0,0
endTraining=2
hasContext=f
inputCount=10
layerCounts=1,11,11
layerFeedCounts=1,10,10
layerContextCount=0,0,0
layerIndex=0,1,12
output=0.06007761788366006,0.08038661006314657,0.9853046882557703,0.08924746175180277,0.912086210727545,0.9685865732199643,0.36529938287507785,0.11367283649385856,0.24733759501382757,0.9652750861548738,0.128953229083689,1,-1.3332206335128913,-1.344600090395267,-1.0882463950362729,-1.1151795596563225,-1.262295217483865,-0.24353883924090403,-1.1950989828610088,-1.2136051537022932,-0.9650127246589574,-1.7460797133074155,1
outputCount=1
weightIndex=0,11,121
weights=0.5115519249137009,-0.9080155490653675,0.4657058902975595,-0.6696538437451257,-0.9448037947758499,0.1674582508120887,0.3990161803754734,0.25298188752273976,-0.884583884324577,0.5274190104986256,0.20448612081971201,-0.2509651093225168,0.1454842561190447,0.35342442435024635,-0.1979873393142698,0.14757189100072066,0.35358762284031525,0.43032951497915894,0.029793652630889806,0.30249701018194586,0.561830432778577,-0.316508136350513,-0.10856832097820897,-0.5068349756761042,-0.261222584395759,-0.48395484556814067,-0.030847350468673686,-0.5120994558837351,-0.47685268459925917,-0.1291535785738488,-0.3654505163976643,-0.5515256943378538,0.3492610386838718,0.4556183749330773,0.47538436679510926,-0.07388275294649117,-0.01646298518509151,0.40107461041530934,0.15832332205223182,-0.015524902228652793,0.08327602372592981,0.09802460178837778,0.47426010701366916,0.37505541165588263,-0.22563248352054827,-0.37329875154443964,-0.42463731974129926,-0.390330697553647,0.006868741607142541,0.2520993435389303,0.26567654997611123,-0.48849632150055583,-0.3108542126898249,-0.11899642429980442,-0.07379744823185103,-0.5870334452244379,-0.29331071146716964,-0.04214117739695103,-0.5956315426908552,-0.47636954715541674,-0.5690674135351328,-0.3073520352086015,0.019691406857911542,-0.20900503375641383,-0.3319561775830238,-0.3231663496813349,-0.17388803316375928,0.12966516499723876,0.4545604362162863,0.09450239701301393,0.4147291717229675,0.2892998240954964,-0.04740667757702137,0.31850164845972084,-0.15633825771192106,-0.3771913539818823,0.10451278616527195,0.2916416319212617,0.13962440100373377,0.2425264177573951,-0.2652006417484704,-0.2537370295834376,-0.005706334617468691,-0.03902326017241448,0.5127618494665457,0.47990818013173475,0.30648096437847866,-0.256787179460427,0.11312403201408644,-0.19094132103535347,-0.16376397295485198,0.34082295090998754,0.37295711996388836,0.29620956260724995,0.021178612387350085,-0.3014681758000428,0.4764982838024911,0.00407360622659462,-0.347612321296553,-0.60150413092852,-0.00006392658987808405,0.12120621395473137,-0.10863995843620662,0.02500072538621682,-0.49166511246757993,-0.5693792723478502,-0.31394851517651523,-0.2705989371288539,-0.45567368483855664,0.32725183214962045,0.29638637932728495,-0.24805535043656626,-0.009032196014270483,-0.01595320585885258,0.47027698885842373,-0.26376510108775797,0.5009958531491988,0.3993391318244605,0.29442551663966776,0.17342473684158807,0.32345614112525756
biasActivation=0,1,1
[BASIC:ACTIVATION]
"ActivationSigmoid"
"ActivationSigmoid"
"ActivationLinear"
