encog,BasicNetwork,java,3.0.0,1,1406174341961
[BASIC]
[BASIC:PARAMS]
[BASIC:NETWORK]
beginTraining=0
connectionLimit=0
contextTargetOffset=0,0,0
contextTargetSize=0,0,0
endTraining=2
hasContext=f
inputCount=10
layerCounts=1,11,11
layerFeedCounts=1,10,10
layerContextCount=0,0,0
layerIndex=0,1,12
output=0.33186476990237,0.6212508168006283,0.5965436178396479,0.6022757371024517,0.44475112847401777,0.4171734599219777,0.4345583653027229,0.5623582324571164,0.5279976226615969,0.6261342169061371,0.4658045287191788,1,0.1332538576989304,0.18427383982980983,0.008013799778002983,0.18251885321515782,-0.29485036896226824,-0.4548791985483105,-0.16032732346768253,-0.0365963933351634,-0.25548970150545625,-0.05865136274480176,1
outputCount=1
weightIndex=0,11,121
weights=-1.3042545067184566,-0.259150741023716,-0.61655622208197,-0.4169859161025264,-1.1215847461888009,0.5539541271966462,0.5632576017885412,0.046200425232014425,-0.2201777796961282,1.0124990328206396,0.3741506131548701,-0.10260664294470276,-0.28419790607711903,-0.17004103523418362,-0.46704095797869666,-0.8256928322159441,0.04261239507313118,-0.8176809796246932,-0.1979424284759241,-0.46322971279714864,-0.8459847324425915,0.1171286127519722,0.11308132942730884,0.09010795211598772,0.06207909220340596,-0.42280128743756884,-0.38999695894527964,-0.48388279489761193,-0.07879752126635475,0.05374291530776225,-0.5047650473375273,0.13551331346699247,-0.03069716108321272,-0.03139421781285814,0.010470113874044083,-0.44543743042858364,-0.5254152183309233,-0.16038791834822727,0.10141552253349766,-0.5695481123338126,0.0470204553998748,-0.5351586421525061,-0.32875710409856207,0.2699167345858416,-0.48517696918441605,-0.4859989125580115,-0.4759170820517764,-0.3956266315031425,-0.11197772870299051,0.18990411840315385,0.005316624221323571,0.17020938568697708,-0.15658791464962868,-0.2094656915799835,0.016486405817118147,-0.7238670487314849,-0.046539053276546644,-0.5172353858324491,-0.5842896231406236,-0.22308046792144162,0.08748379093870268,-0.2635889796470492,-0.5247309931966686,-0.21316974151279258,-0.7076176493119464,-0.301974598373223,0.5064523916248408,0.07485983537603196,0.46362980233643947,-0.07547782128149282,-0.21939335854669467,0.14484131688692614,0.2363976936952994,-0.09406094032809731,0.19195928958868286,0.6039590520834486,-0.2143751214078042,-0.15470545138486047,0.35993160696549065,-0.12966031236041362,0.33512715101563345,-0.19842685074901162,0.10377629614015497,-0.02973580613165986,0.5982157968467504,0.42966310105760047,0.3176718093131733,0.2791304537427967,0.37439489626636985,0.18667166416061104,-0.5424171919199342,0.020458017507634076,-0.20406775930542972,0.06703494068652453,0.2632911630031093,0.11877720874551868,-0.27951029616488765,0.08710786248446314,-0.020987737257614825,0.20201417049507428,0.18791197322260833,-0.4490121467383578,0.1228675384874626,-0.4850743920349706,-0.09631289235661147,-0.3757977620185259,0.05599900652838149,0.1801396495681672,-0.18490275559130326,0.22543675496099583,0.3294863099245436,0.21353331028170844,0.024458931247180477,-0.003229642700905475,0.6631121269418742,0.16243252981378212,0.4034845280517515,0.6919356290231216,0.6259207189538389,0.08224139443927003,0.3043016382873668
biasActivation=0,1,1
[BASIC:ACTIVATION]
"ActivationSigmoid"
"ActivationSigmoid"
"ActivationLinear"
