encog,BasicNetwork,java,3.0.0,1,1406174341772
[BASIC]
[BASIC:PARAMS]
[BASIC:NETWORK]
beginTraining=0
connectionLimit=0
contextTargetOffset=0,0,0
contextTargetSize=0,0,0
endTraining=2
hasContext=f
inputCount=10
layerCounts=1,11,11
layerFeedCounts=1,10,10
layerContextCount=0,0,0
layerIndex=0,1,12
output=0.3478937750971387,0.6099408914778166,0.5938135209980221,0.5972896270505132,0.440130677337989,0.4043386560205008,0.43967759485243163,0.5695718979959306,0.5284314237298811,0.6236653985859887,0.47658116386438726,1,0.1332538576989304,0.18427383982980983,0.008013799778002983,0.18251885321515782,-0.29485036896226824,-0.4548791985483105,-0.16032732346768253,-0.0365963933351634,-0.25548970150545625,-0.05865136274480176,1
outputCount=1
weightIndex=0,11,121
weights=-1.161119071883018,-0.20776635695520607,-0.5190508916852912,-0.35070055104232983,-0.99927315669205,0.4386551341400453,0.4475724256958804,0.0146826520955198,-0.19023383056227627,0.8566794412662488,0.32651542995597566,-0.06385141888021467,-0.24460467854256682,-0.1307769611568884,-0.421040540992952,-0.7719101788524257,0.08568323783401598,-0.7540202870406436,-0.13600160801958394,-0.40409212617385826,-0.766643214380518,0.11584656637727274,0.1274379934776801,0.10484783709725948,0.07591768487390456,-0.40509259871722414,-0.3704167172674267,-0.4709901292826826,-0.05906759358058354,0.07330669955789275,-0.4868620388536054,0.1614911530515383,-0.02838576747216548,-0.006713908557441095,0.03600848976020359,-0.4215365884490718,-0.49255349248693847,-0.1229865060467581,0.1263183216698673,-0.5317647302754436,0.0843764205932612,-0.5010333280792094,-0.2763321686727207,0.27653445041218344,-0.46673359594608366,-0.46687989303769933,-0.4579387354071208,-0.3710648264223355,-0.08398352514217217,0.20932489275273838,0.03330630031003133,0.19790743335057143,-0.13106379470345966,-0.17125222411696292,0.018500179619739446,-0.6888624660397138,-0.010342768615497114,-0.48146136259737815,-0.5380250927717752,-0.16948890554520593,0.12890744459148445,-0.2060659529098855,-0.46853597061194663,-0.15948047682140734,-0.6325541046190793,-0.3110290261463178,0.4813525981865108,0.04866783133232602,0.4392816468777176,-0.11280478966367061,-0.2591874091103956,0.11905609136466233,0.19947871265097017,-0.1308601893699599,0.1584877517516466,0.5517935248256589,-0.22072929136708644,-0.18247385587525428,0.3313384976594338,-0.15678288544214686,0.3005640189095797,-0.2377635784452089,0.07666028087871135,-0.06893687973041995,0.559456755721277,0.3938329004481372,0.2664211088496859,0.28019521124529917,0.37204101761648883,0.18425584799778066,-0.5447282664852654,0.01776390762060017,-0.2071406959826476,0.06482033028637663,0.2601965595740372,0.1156960154923089,-0.2823847340326291,0.08330036060316576,-0.021457959663198273,0.2169823861533994,0.20327552741051236,-0.4345010007807973,0.14026224874889404,-0.4653627751725594,-0.08266626203631754,-0.35581369953646935,0.07587971603488644,0.1985008829345131,-0.1598621967726619,0.22889826902784746,0.29856378476123674,0.18090879192124149,-0.006814087692958177,-0.056236700446138495,0.6073146131396115,0.12508063352052828,0.35183849470892864,0.6407072397448722,0.5782850588763538,0.0027589838831780997,0.3071815051213925
biasActivation=0,1,1
[BASIC:ACTIVATION]
"ActivationSigmoid"
"ActivationSigmoid"
"ActivationLinear"
