encog,BasicNetwork,java,3.0.0,1,1406174341646
[BASIC]
[BASIC:PARAMS]
[BASIC:NETWORK]
beginTraining=0
connectionLimit=0
contextTargetOffset=0,0,0
contextTargetSize=0,0,0
endTraining=2
hasContext=f
inputCount=10
layerCounts=1,11,11
layerFeedCounts=1,10,10
layerContextCount=0,0,0
layerIndex=0,1,12
output=0.3565679482004916,0.6009928643855494,0.5917545643023617,0.5933671576574321,0.43657284248321165,0.3939347918586738,0.44350248564599576,0.574749758295175,0.5283900358634445,0.6215701037872458,0.4851095537794549,1,0.1332538576989304,0.18427383982980983,0.008013799778002983,0.18251885321515782,-0.29485036896226824,-0.4548791985483105,-0.16032732346768253,-0.0365963933351634,-0.25548970150545625,-0.05865136274480176,1
outputCount=1
weightIndex=0,11,121
weights=-1.035690097615817,-0.16670558882199793,-0.43623004937097576,-0.29026575381978365,-0.8911590488230452,0.34088625138607875,0.3524258583604037,-0.01478019154923955,-0.17299164460011576,0.7179993200452222,0.28071205940081756,-0.022324873760428125,-0.20232400560597413,-0.09027185472283311,-0.3771984863770695,-0.7212075041643914,0.12345937542432914,-0.6983376283099814,-0.08111773795321392,-0.35292649386429675,-0.7022584500860685,0.11665299768746275,0.1403223224529529,0.11801826635321191,0.0881838429854866,-0.39092914738829965,-0.35462947231356834,-0.4608843856135293,-0.04343339047007994,0.08893040209921164,-0.4726786669614053,0.18045179455928245,-0.026676673767689063,0.018076514210557896,0.061493340895367725,-0.39797805500033484,-0.46373274305523093,-0.09030902010524852,0.14754766231275085,-0.4998836067964841,0.11621385873975934,-0.47230223468269344,-0.23604081251338976,0.2820758444224379,-0.4489708308011016,-0.44858753738659,-0.44093039563502684,-0.3501659793407505,-0.06031839430049152,0.22535201400242016,0.05639752784423423,0.22097308717069358,-0.11001375759948993,-0.14234116136990357,0.02024868704623264,-0.6515417113978248,0.028024485117258535,-0.44475161982615063,-0.4943984763532778,-0.11959089141085155,0.1649949681657576,-0.15553254929278998,-0.418502952825605,-0.112760593412841,-0.5710823189295383,-0.3181091135730192,0.45769682540513257,0.024181864053703667,0.4167037908067953,-0.14281360346087354,-0.291525392826617,0.09849672759496346,0.16983158032415022,-0.1606986336701696,0.13160150948523805,0.5139143724873277,-0.22571845215779876,-0.20838528883961702,0.3047858144046995,-0.18161705610562945,0.27168150575878286,-0.2704261874255878,0.05500460561676663,-0.10059131700643731,0.5278557773997724,0.36500215458390367,0.22822496838437273,0.27984474832383427,0.372328095358927,0.18454845593149072,-0.5444533418704912,0.018052924761799104,-0.2068159466745264,0.06504985962186692,0.2605171616741631,0.11601847254154841,-0.28208759157934954,0.083648310538339,-0.02141148865528853,0.2318239560431553,0.21846089801568194,-0.42022556580305453,0.15614926230352316,-0.4474849481361318,-0.07040366156604973,-0.33804745863529184,0.09368496385251905,0.21487919063665795,-0.13925046311215375,0.23193343081375536,0.2661795610395047,0.14713294080729608,-0.03830110030705821,-0.10216489629631917,0.5587697059810074,0.0944631715883912,0.3081502690473581,0.5968058973559791,0.5383745638887028,-0.05839778669950528,0.3098850328440109
biasActivation=0,1,1
[BASIC:ACTIVATION]
"ActivationSigmoid"
"ActivationSigmoid"
"ActivationLinear"
