encog,BasicNetwork,java,3.0.0,1,1406162239203
[BASIC]
[BASIC:PARAMS]
[BASIC:NETWORK]
beginTraining=0
connectionLimit=0
contextTargetOffset=0,0,0
contextTargetSize=0,0,0
endTraining=2
hasContext=f
inputCount=10
layerCounts=1,11,11
layerFeedCounts=1,10,10
layerContextCount=0,0,0
layerIndex=0,1,12
output=0.045719547536450744,0.06614005908689037,0.9887380848380299,0.07530802471403603,0.9315902430782136,0.9764135646304669,0.34502086242665575,0.0967698991494604,0.22359021005820032,0.9740847996256013,0.10598891143550558,1,-1.3332206335128913,-1.344600090395267,-1.0882463950362729,-1.1151795596563225,-1.262295217483865,-0.24353883924090403,-1.1950989828610088,-1.2136051537022932,-0.9650127246589574,-1.7460797133074155,1
outputCount=1
weightIndex=0,11,121
weights=0.5711896735337361,-0.9834898038246933,0.5233021517586949,-0.716449068976946,-1.0183503728388916,0.1924390952406021,0.43858538540174274,0.289780196448672,-0.9504554441492954,0.5836291058510257,0.20889947990718216,-0.24053673141830967,0.15702961263377904,0.36352000908294824,-0.17432224489727358,0.17098255015303052,0.3657987001594857,0.44901151561093083,0.04905659301211315,0.31920099549048003,0.5914662734765511,-0.3140541674104376,-0.11953595852931086,-0.5194187956795748,-0.27199983552778134,-0.5143293954105681,-0.06160685035271694,-0.528050072592818,-0.501620530085109,-0.1547059629448671,-0.38754015652732887,-0.5931197810126894,0.34443146637488614,0.46485976261705847,0.4854584914453553,-0.0645829216128612,0.0021041745354986874,0.42030525517861184,0.170054744365735,0.0010765667349281135,0.10018989694864573,0.11324557377409278,0.49843294983729475,0.3711274856670884,-0.2387141916084438,-0.387757655809005,-0.4375774527407518,-0.4191316872836792,-0.022656848624652778,0.2354232699069069,0.24148473718313027,-0.5132630232692273,-0.3327821880012078,-0.1565602114437119,-0.07193029893819826,-0.5996428744050901,-0.3074531767570514,-0.05527998294092399,-0.6275087681379006,-0.5075401790565013,-0.5885739290238665,-0.3341020370723419,-0.007595403827910809,-0.2336608780597826,-0.37262423572843706,-0.31821287680242255,-0.16891554412540347,0.1350170452950689,0.4593686938273298,0.10343695160377818,0.4240101975302303,0.2944388950503294,-0.03950492054378814,0.3265806614287713,-0.14918731022213164,-0.36563314908733857,0.10426960148965002,0.30068918061426597,0.14963115999175977,0.2513618091819656,-0.24457849145689256,-0.2335878641829036,0.005213863129318734,-0.02348087765471968,0.5288125177489732,0.49391833334470125,0.3310827409541667,-0.25591272078043553,0.12092061748403037,-0.18261331023191751,-0.15626706736892915,0.35416449327157445,0.3867816217753369,0.3038928245801757,0.0331470745085939,-0.28925549309158743,0.48729514338613467,0.021176918140632692,-0.34625660765757504,-0.6145503998057136,-0.014894021006025571,0.10842833088264398,-0.14351664403913825,-0.009624194746055489,-0.5093632116684031,-0.5961434389307095,-0.3416640067714093,-0.29450998763127745,-0.500914026229464,0.32312519428733966,0.3076078223343559,-0.23579298760855472,0.0022319623287436726,0.00688830790586364,0.4936424958951147,-0.24987076432908406,0.5204817372359789,0.4192906542212906,0.3123001844229395,0.20252385249027324,0.31893501119349377
biasActivation=0,1,1
[BASIC:ACTIVATION]
"ActivationSigmoid"
"ActivationSigmoid"
"ActivationLinear"
