encog,BasicNetwork,java,3.0.0,1,1406174341369
[BASIC]
[BASIC:PARAMS]
[BASIC:NETWORK]
beginTraining=0
connectionLimit=0
contextTargetOffset=0,0,0
contextTargetSize=0,0,0
endTraining=2
hasContext=f
inputCount=10
layerCounts=1,11,11
layerFeedCounts=1,10,10
layerContextCount=0,0,0
layerIndex=0,1,12
output=0.3627772384773137,0.5888908926119044,0.5893756731304101,0.5883202833275593,0.4323730281592228,0.3801319442952352,0.447830716771832,0.5804356367471218,0.5274596296952407,0.6183924379875436,0.4956641248605729,1,0.1332538576989304,0.18427383982980983,0.008013799778002983,0.18251885321515782,-0.29485036896226824,-0.4548791985483105,-0.16032732346768253,-0.0365963933351634,-0.25548970150545625,-0.05865136274480176,1
outputCount=1
weightIndex=0,11,121
weights=-0.8670208180155816,-0.11520180039882189,-0.32851877957066133,-0.20623912677966996,-0.7467353075286999,0.21722925920996144,0.23875360387187108,-0.06083265056223061,-0.16642551523033697,0.5325177431923503,0.21664199423934943,0.042991049514602885,-0.13605597920746298,-0.027437579777707298,-0.3139328049442293,-0.6482554321423897,0.1768978692395682,-0.6202808793990439,-0.003619780745236634,-0.28127675916993194,-0.6183590953905754,0.11786109139754294,0.15637931925336782,0.13437222545488053,0.10344504958687101,-0.37467417014122645,-0.3363694032766685,-0.4491027374628979,-0.025253472547367144,0.10716480351530927,-0.45609068654306983,0.20099756225864665,-0.024989080753633673,0.05337743756415394,0.09759741217775826,-0.3645020849156115,-0.4265673258087685,-0.048097404542877885,0.17552672100372946,-0.4586800350205359,0.15756597600486671,-0.434911920498852,-0.1882797063081979,0.2884370080018579,-0.4254072158781723,-0.4244540035256129,-0.41844121573870746,-0.3249814146286837,-0.03177666994354509,0.2450038187814825,0.0844559602037848,0.2491230930208906,-0.08425188879015587,-0.10994439447689011,0.022157208551111373,-0.5930006662892146,0.08788566974247135,-0.38814464873126203,-0.43224226265245985,-0.048741269567571466,0.2153502938410672,-0.08468818427576587,-0.34784800731130755,-0.047418955968672946,-0.49073260974407207,-0.3277787714351428,0.42810500226234705,-0.0062499699195876415,0.38847493195214144,-0.17622965273195243,-0.3279972026109716,0.07475060822116739,0.13577681273105882,-0.19510344138006971,0.10044580068500067,0.47418017617513003,-0.23088700602358506,-0.24186245572686196,0.2706197276531898,-0.21363445376007417,0.2373519144505868,-0.3092437512739111,0.028890135594118238,-0.13836746882415357,0.48996197017383125,0.3303821918383964,0.1859210793937691,0.27833518508574107,0.3786299755711806,0.19097604316842842,-0.5383562646109792,0.024334838807407846,-0.19973296709445734,0.07012633834344283,0.2675458801218756,0.12309223570134942,-0.27552327984734254,0.09120299622286386,-0.02046079350936265,0.2554290613220929,0.24254068367152806,-0.3974658793782951,0.17980806279518058,-0.42086039158753824,-0.051603436490650086,-0.31151291583668217,0.12037880231872905,0.23957338012642193,-0.11049941229655535,0.23599136921210465,0.21942852420680065,0.09879526643335056,-0.08303377051580631,-0.1598928750163176,0.49711441292887953,0.0559396411359388,0.2521287911400799,0.5401885577940794,0.4873145483673008,-0.1299938096660232,0.31415163323848705
biasActivation=0,1,1
[BASIC:ACTIVATION]
"ActivationSigmoid"
"ActivationSigmoid"
"ActivationLinear"
