encog,BasicNetwork,java,3.0.0,1,1406162238760
[BASIC]
[BASIC:PARAMS]
[BASIC:NETWORK]
beginTraining=0
connectionLimit=0
contextTargetOffset=0,0,0
contextTargetSize=0,0,0
endTraining=2
hasContext=f
inputCount=10
layerCounts=1,11,11
layerFeedCounts=1,10,10
layerContextCount=0,0,0
layerIndex=0,1,12
output=0.15009900475131113,0.15226769866558743,0.9616642349823811,0.14839985043509352,0.7765624570967172,0.9111591832000201,0.42332754560584196,0.19462367180088672,0.3311400786004856,0.8927521309362326,0.2432457745261955,1,-1.3332206335128913,-1.344600090395267,-1.0882463950362729,-1.1151795596563225,-1.262295217483865,-0.24353883924090403,-1.1950989828610088,-1.2136051537022932,-0.9650127246589574,-1.7460797133074155,1
outputCount=1
weightIndex=0,11,121
weights=0.31072432798907146,-0.6291006636148937,0.25183617158399746,-0.5178272235306713,-0.6776497517669984,0.07073436197492161,0.2629888756382609,0.1387786443178329,-0.6626842126493172,0.3403143304474145,0.18779498119556542,-0.29900671265807977,0.09471973058891044,0.3079159444590242,-0.2715592896780014,0.07227297653108379,0.31351384947409433,0.36753771362411564,-0.03451819892358048,0.24608153696007176,0.4762358669047742,-0.32200275381042315,-0.0482159203398362,-0.4423691752536613,-0.20407901909431447,-0.3831559668095403,0.07427604692029027,-0.45748366678571334,-0.3899512537181739,-0.04005345868188695,-0.28776322178822045,-0.42582212258909585,0.3603033232693313,0.4183278042526691,0.4361688333005449,-0.10998051406273295,-0.07087259735156036,0.3438543745822704,0.12428561958516905,-0.06579021639883527,0.03215679703741339,0.052039048079415035,0.4087324491048119,0.3868792803747289,-0.15356056915079014,-0.2973748609324351,-0.35565894974841933,-0.2844118700954171,0.11855964052995402,0.31689312684506193,0.36120008354638433,-0.3911793885240239,-0.22398828482759636,0.008425341281561834,-0.08072475510280952,-0.5187866464737053,-0.2211433141866485,0.024563573533650348,-0.4890060959223559,-0.3664939967681277,-0.5036503874417768,-0.2109073253571043,0.11783067626121044,-0.12054369402407854,-0.20313037185830538,-0.34507862475967743,-0.19054456606732412,0.1122207231914478,0.4387231416600825,0.07136746615640853,0.39029772345933716,0.27568239572920444,-0.06880871586012466,0.29670774167152564,-0.17576181503384458,-0.40522410853615204,0.10524940307148031,0.24953219607121524,0.09505898051243512,0.20228184131015417,-0.3306450179670146,-0.3203971802959485,-0.04275947521803317,-0.09336742004407318,0.457014766164712,0.43066704292382946,0.23253866437723597,-0.2585071791246635,0.08374515058875054,-0.22153095262184155,-0.19172730481069883,0.30222484128789956,0.3319950181700244,0.27287367707627475,-0.015431854301799025,-0.3386607671016433,0.4431980662991951,-0.04205350308284933,-0.35051350670859216,-0.5247039473227085,0.08172446745871909,0.19400228960905244,0.017184077327965102,0.1539286629345545,-0.42516243146920935,-0.4652969710880468,-0.2069417219191254,-0.1772824021147963,-0.30664371054477046,0.33682674282501607,0.24488093943623326,-0.3022157964760322,-0.05881529569080317,-0.0904404214338724,0.39253024165077494,-0.31036487497989895,0.43427798180103677,0.33124538876360443,0.23342377228223718,0.08577630893375665,0.3362305235338016
biasActivation=0,1,1
[BASIC:ACTIVATION]
"ActivationSigmoid"
"ActivationSigmoid"
"ActivationLinear"
