encog,BasicNetwork,java,3.0.0,1,1406174340963
[BASIC]
[BASIC:PARAMS]
[BASIC:NETWORK]
beginTraining=0
connectionLimit=0
contextTargetOffset=0,0,0
contextTargetSize=0,0,0
endTraining=2
hasContext=f
inputCount=10
layerCounts=1,11,11
layerFeedCounts=1,10,10
layerContextCount=0,0,0
layerIndex=0,1,12
output=0.3843258553084623,0.5613329094552931,0.587143073787806,0.5804257035113374,0.42808146147120096,0.35247204683576033,0.45212319969594306,0.5881554989210309,0.5206067396556776,0.6087731002993598,0.5116292949228376,1,0.1332538576989304,0.18427383982980983,0.008013799778002983,0.18251885321515782,-0.29485036896226824,-0.4548791985483105,-0.16032732346768253,-0.0365963933351634,-0.25548970150545625,-0.05865136274480176,1
outputCount=1
weightIndex=0,11,121
weights=-0.594022343219187,-0.00016558766286182795,-0.13007497240971622,-0.021178900784165323,-0.5234135151692272,0.03843762941407934,0.11931812207147661,-0.1834736090263842,-0.22222318848253786,0.25394606053055857,0.14468693495569895,0.19761259691659777,0.02016592409373378,0.12194011641871574,-0.17781978224392364,-0.4912627746968633,0.299841017731386,-0.4513736791453297,0.16492915859498442,-0.12350727870129247,-0.4536521433685161,0.11505148319365543,0.17125542188600557,0.14947506225867563,0.11762000290532054,-0.36060014844806754,-0.3204432212889148,-0.4385324750353881,-0.009131724268713923,0.12336172130936114,-0.44125017763380464,0.21811710449862282,-0.024177211178703025,0.10673263534104728,0.15189113637408194,-0.31344464243469233,-0.37544746195438594,0.010160629074009372,0.21696003026593663,-0.4004519581795532,0.2161352129191702,-0.3811600071698056,-0.1268166349426922,0.2939196365175197,-0.4007361059547486,-0.3993122694918326,-0.39479619705765007,-0.30078162971353284,-0.004254741301002893,0.2648526628611746,0.11218137948192254,0.27698754907065415,-0.05846874984479347,-0.08035580058613245,0.02305431489019265,-0.45690833119864943,0.22610408783533448,-0.2569533902517951,-0.303903404653627,0.09779275428822266,0.32594061784174483,0.06561344169098943,-0.19732992214830913,0.09280563029291493,-0.3363706632553343,-0.34706545525470966,0.39934121323626753,-0.03565232298937796,0.36085187595256,-0.20556958061847733,-0.36045291785662936,0.05244093987595076,0.10438721457017394,-0.226838474116033,0.07130458012401929,0.4405674806010613,-0.23404443505387204,-0.2896850637925426,0.2220049550086234,-0.2597841383281538,0.19206966487471855,-0.36047369632612863,-0.008059272356527866,-0.18956927680494098,0.4384461174511974,0.28263199339256806,0.13310231263846553,0.276779792933778,0.4206762459843303,0.23372668932364118,-0.4975851576785575,0.06395860239435759,-0.15496160395464278,0.1031720398470761,0.31270896264982967,0.16857914395239107,-0.23300943142929276,0.13720382502199088,-0.018277685440921326,0.31816851708593186,0.3063465655216063,-0.33678265514648487,0.23902056375832978,-0.35394936504573277,-0.002504861429600289,-0.2441462363777433,0.18826635593214358,0.3027773103798841,-0.04152197275239425,0.23954844342438505,0.14353715155365704,0.02102789100556745,-0.1551830728548443,-0.2411191864032182,0.4087758517273268,-0.0011855390589779117,0.1687149824472693,0.45578378899614375,0.4110060467442974,-0.22579433595754098,0.32425896922826414
biasActivation=0,1,1
[BASIC:ACTIVATION]
"ActivationSigmoid"
"ActivationSigmoid"
"ActivationLinear"
