encog,BasicNetwork,java,3.0.0,1,1406174342038
[BASIC]
[BASIC:PARAMS]
[BASIC:NETWORK]
beginTraining=0
connectionLimit=0
contextTargetOffset=0,0,0
contextTargetSize=0,0,0
endTraining=2
hasContext=f
inputCount=10
layerCounts=1,11,11
layerFeedCounts=1,10,10
layerContextCount=0,0,0
layerIndex=0,1,12
output=0.32461046005848887,0.6255937598621332,0.5975883750513156,0.6041861312600052,0.44649328042371966,0.42192160378795707,0.4325758066955469,0.5595200496506454,0.5277410118311922,0.6270432465213803,0.46179275211410264,1,0.1332538576989304,0.18427383982980983,0.008013799778002983,0.18251885321515782,-0.29485036896226824,-0.4548791985483105,-0.16032732346768253,-0.0365963933351634,-0.25548970150545625,-0.05865136274480176,1
outputCount=1
weightIndex=0,11,121
weights=-1.352337235475489,-0.27768938197363313,-0.6500747377680878,-0.4382598268867701,-1.1620668196102844,0.5931816893324932,0.6032654268138298,0.05647158627681741,-0.23252023221315954,1.0637560438015903,0.38866913436076606,-0.11295826219953717,-0.294792799981889,-0.18121102449139045,-0.4810263484759999,-0.8423324587333557,0.027796283828800877,-0.839553463394172,-0.21891812390021606,-0.48386597063851217,-0.8746683727111625,0.11872677198225053,0.10862331093230834,0.08551430778786741,0.05768494780067408,-0.4289824444417126,-0.3967885811159276,-0.488604200861077,-0.08589337782119513,0.0467725186384611,-0.511239112420385,0.12556378283229389,-0.03153108136193573,-0.0383368906113757,0.0032400380526695026,-0.4524094515010591,-0.5360952242847121,-0.1726458378136379,0.09276316593660307,-0.5827120480942939,0.034156432033900744,-0.547154693172054,-0.348300144179055,0.26781874856217713,-0.4905464456023093,-0.4915973877495063,-0.4813180516771416,-0.40369709801953585,-0.12129446088766557,0.18307726922994924,-0.004476316557481153,0.16062610342267156,-0.1655743072278419,-0.2236815810833927,0.015898946229828105,-0.7333282168765293,-0.05636718490329813,-0.5274927417564024,-0.5984914433700128,-0.23986662357132282,0.07321176702904413,-0.28326227525104636,-0.5436608485543197,-0.23176676464965773,-0.7345058001408187,-0.2983477135932035,0.5137492229642918,0.08253203735638512,0.47094332078625323,-0.06270314079490433,-0.2058456694899535,0.15410586177986477,0.24948011976716555,-0.0811805271835799,0.2039033771729953,0.6238408910340065,-0.21222889913295342,-0.14642448685765302,0.36849066788472723,-0.12129898101946723,0.34661295550108207,-0.18519500739517472,0.11357632822473478,-0.01582626283592267,0.6118107907291814,0.44249866367403606,0.3369230745035066,0.2782577652386731,0.3755976458671801,0.18790722775306204,-0.541218149509998,0.02190214333428946,-0.20240010771626946,0.06828402193936552,0.2650247781396435,0.1204911361785876,-0.2778936715056852,0.08932695245432105,-0.0207347798318652,0.19748267381575604,0.18325139604982474,-0.45348142682887876,0.11719428972622005,-0.49158843569056604,-0.10100713388138263,-0.3826677752890583,0.04922424672965838,0.17380986326049805,-0.1940206367034075,0.22429852623858507,0.3376541052280482,0.2222590790496607,0.033278724712345734,0.014031279613618,0.6813274792546276,0.17576633302346656,0.42136857216216855,0.7093984457492994,0.6426388190885767,0.11163314808679912,0.3031900522990668
biasActivation=0,1,1
[BASIC:ACTIVATION]
"ActivationSigmoid"
"ActivationSigmoid"
"ActivationLinear"
