encog,BasicNetwork,java,3.0.0,1,1406162238203
[BASIC]
[BASIC:PARAMS]
[BASIC:NETWORK]
beginTraining=0
connectionLimit=0
contextTargetOffset=0,0,0
contextTargetSize=0,0,0
endTraining=2
hasContext=f
inputCount=10
layerCounts=1,11,11
layerFeedCounts=1,10,10
layerContextCount=0,0,0
layerIndex=0,1,12
output=0.4050323067221749,0.2639344887936517,0.9036054357867467,0.18854058493303708,0.33751025729184025,0.7330665703172009,0.42361915724025506,0.3403115956894087,0.41374911332431363,0.5220014298225107,0.4533206064727055,1,-1.3332206335128913,-1.344600090395267,-1.0882463950362729,-1.1151795596563225,-1.262295217483865,-0.24353883924090403,-1.1950989828610088,-1.2136051537022932,-0.9650127246589574,-1.7460797133074155,1
outputCount=1
weightIndex=0,11,121
weights=0.13496323539647692,-0.21393769978497942,0.006900687388351229,-0.4858765622258424,-0.3271982892483256,-0.0382425469445097,0.17599692248997947,0.07072601970681103,-0.4898540650907291,0.22620788592890967,0.2559024144396142,-0.35410600645437107,0.03803694351518722,0.25517180420620506,-0.3335602559886895,0.006033350587915902,0.27319951831681655,0.3068247058114637,-0.09607343595992186,0.19006914518552845,0.40844008783600616,-0.32003560550976046,0.027231767707779252,-0.3644723869940998,-0.13227758409595453,-0.29439886751364197,0.1701535605351022,-0.40147457641479606,-0.30353183365881176,0.047610513925104694,-0.20874356835473284,-0.32385922020962266,0.3570360734474049,0.3964229685695827,0.41362628009550345,-0.13098815821783563,-0.09580026504176148,0.31701835893560887,0.1073865771819954,-0.09088302852027232,0.006777182964117755,0.0288619262246442,0.3803237713920026,0.39364015918465833,0.001395042587811526,-0.13863568221471267,-0.2061041486827325,-0.12006743370307096,0.2975345459080894,0.43406639849019935,0.5311794078051436,-0.21943206110228702,-0.06506355210267918,0.1911327696799449,-0.09640522221954541,-0.4175567453918693,-0.11728223849949054,0.121642205103636,-0.3774400187382596,-0.24577916574057118,-0.42809937952676635,-0.09605080167160206,0.23386334670975892,-0.01442167001584911,-0.07418250692014747,-0.38161527282947705,-0.19047516039662252,0.11226108176859961,0.43881214537267027,0.0709971952058568,0.3899591520423096,0.27566140324280114,-0.06893535748750394,0.29656613764229445,-0.17582946729306484,-0.4057369029721683,0.10455821257041002,0.18914311616899068,0.03294369739505382,0.14383129215962945,-0.39842605208764564,-0.3928672605266054,-0.08970336776743958,-0.15952806567202113,0.38992606002583374,0.36896232117776223,0.15952661406106927,-0.2538298052491942,0.05487728097873533,-0.25107392835381376,-0.21951522437483695,0.2718943596053422,0.29890423239857916,0.2516529038945773,-0.047079947998785183,-0.37061692996410467,0.4136615167384288,-0.07594351765895087,-0.3494641546175878,-0.36204697464390234,0.24874367268642775,0.35072093109914226,0.1957022075624337,0.34670782785526444,-0.3038847261118814,-0.2866070525830642,-0.026066203660950825,-0.011024435339624925,-0.11006252127740788,0.32641411164440665,0.16937945483543548,-0.3797122707831851,-0.13172697464395572,-0.1722735218794744,0.30432070326137384,-0.36945208606849983,0.35162394070431197,0.24750798096483456,0.15628518798905983,-0.0043276712704936725,0.35055856524654583
biasActivation=0,1,1
[BASIC:ACTIVATION]
"ActivationSigmoid"
"ActivationSigmoid"
"ActivationLinear"
