encog,BasicNetwork,java,3.0.0,1,1406174341414
[BASIC]
[BASIC:PARAMS]
[BASIC:NETWORK]
beginTraining=0
connectionLimit=0
contextTargetOffset=0,0,0
contextTargetSize=0,0,0
endTraining=2
hasContext=f
inputCount=10
layerCounts=1,11,11
layerFeedCounts=1,10,10
layerContextCount=0,0,0
layerIndex=0,1,12
output=0.3620366571465831,0.5909635413037592,0.5897381156737992,0.5891481832196185,0.43301972961750496,0.3824474509289042,0.44718390135932135,0.5795812909849898,0.5277053501040835,0.6189761118004156,0.49398333596748173,1,0.1332538576989304,0.18427383982980983,0.008013799778002983,0.18251885321515782,-0.29485036896226824,-0.4548791985483105,-0.16032732346768253,-0.0365963933351634,-0.25548970150545625,-0.05865136274480176,1
outputCount=1
weightIndex=0,11,121
weights=-0.8949539888581148,-0.12362978485370356,-0.3461281817601162,-0.22047930078832143,-0.7704668767486853,0.2369889068476793,0.25616466318449205,-0.0523795952658952,-0.16603351598155322,0.5629385181294332,0.22719844434259687,0.03136237044904323,-0.1478367104272898,-0.03859524364806299,-0.32482995223144007,-0.6608215813049227,0.1676618001057936,-0.6336819882895733,-0.01695350966815154,-0.2935969310007176,-0.6323246883264176,0.11771790574190497,0.1539002627281125,0.13185102615193334,0.101087176156935,-0.3771047990606544,-0.33910926428213567,-0.450887723034192,-0.027997404065066234,0.10440988656242652,-0.45860341667831667,0.1979864810730378,-0.02521292141422509,0.04748392351678035,0.0915818231882786,-0.3700997542535545,-0.432540003999629,-0.05489112847228431,0.17094304801091825,-0.46535038481978147,0.15086273350943688,-0.440994587681606,-0.19573350522055574,0.28749099574281733,-0.4291492464867394,-0.42827804496185456,-0.4220152067194354,-0.328829401065478,-0.036143572320727936,0.2419516334130185,0.0801267455136703,0.24477491284398545,-0.08824543428169652,-0.11477064520861828,0.021893479007782785,-0.6033979811457284,0.07727702785231493,-0.398152328847263,-0.44286990239283164,-0.06085554621455243,0.20672763470694402,-0.09682671104251417,-0.35997897855425043,-0.05861813912857723,-0.5040942790031878,-0.32613233659900226,0.4326104951459434,-0.0016289601496921845,0.392781447030014,-0.17137301104271335,-0.32266432106035936,0.07828820905904195,0.1408224609716488,-0.19000212066692296,0.10508781050005214,0.47984157345372885,-0.23018068551969623,-0.23656761276651284,0.2760148550805006,-0.20856108639677068,0.24260701234053936,-0.30329856907289027,0.03296219354852106,-0.13254153554681775,0.4958144495960459,0.33574786466121953,0.19223754958099135,0.27862326090450107,0.37696066780753534,0.18927485029791308,-0.5399727736701015,0.022698325769055325,-0.20157868439073356,0.06879171396535408,0.26570749982879427,0.12124098261284434,-0.2772447137258756,0.08926102943488749,-0.02069483843583591,0.2511097486725819,0.23813941080313772,-0.4016401779780232,0.17558036362819762,-0.4256218607538101,-0.055026954957278836,-0.3162761739343075,0.115581937510334,0.235119790594067,-0.1155306071984042,0.2353237868049853,0.22724105272144698,0.10684569846318334,-0.07558906868465494,-0.15075632374999462,0.506930346387129,0.06210264845785426,0.261140289401844,0.5493071580130341,0.4955297021697768,-0.11892321418127663,0.3134003093188584
biasActivation=0,1,1
[BASIC:ACTIVATION]
"ActivationSigmoid"
"ActivationSigmoid"
"ActivationLinear"
