encog,BasicNetwork,java,3.0.0,1,1406162239424
[BASIC]
[BASIC:PARAMS]
[BASIC:NETWORK]
beginTraining=0
connectionLimit=0
contextTargetOffset=0,0,0
contextTargetSize=0,0,0
endTraining=2
hasContext=f
inputCount=10
layerCounts=1,11,11
layerFeedCounts=1,10,10
layerContextCount=0,0,0
layerIndex=0,1,12
output=0.03201088080353937,0.051435744592340356,0.9919045274858951,0.06017984609904485,0.949898162651317,0.9834586734762077,0.3186064140418359,0.07866505085890926,0.19462294769727742,0.9818544521168724,0.08207689827143227,1,-1.3332206335128913,-1.344600090395267,-1.0882463950362729,-1.1151795596563225,-1.262295217483865,-0.24353883924090403,-1.1950989828610088,-1.2136051537022932,-0.9650127246589574,-1.7460797133074155,1
outputCount=1
weightIndex=0,11,121
weights=0.649403891627997,-1.0795863955802905,0.5940663071507138,-0.7765874177285172,-1.1113697733896994,0.22209547961175666,0.48898404796702805,0.3392376582115333,-1.0373033935291873,0.6564278539730848,0.21256643025502892,-0.2314070013890279,0.16787220773216724,0.3729348512727934,-0.14282844093125174,0.20153514991420815,0.38262987928760356,0.47374113253965133,0.07458056841088445,0.3414758079713528,0.6336679633960329,-0.3106218580526168,-0.12684742501880877,-0.5291952912179041,-0.2801668050834699,-0.5536700062102312,-0.1006443498729822,-0.5497918250632836,-0.5341198350034273,-0.18828014464808993,-0.416802004377126,-0.6514397881437289,0.337870867313431,0.47374178647699466,0.49561845460514736,-0.05499730529454703,0.026687499806907853,0.4456837635621084,0.18672574491185082,0.023720094569149905,0.12321195833127123,0.13415852319749433,0.5330464926288712,0.3657149931289888,-0.2498467390064006,-0.4009121148126148,-0.4494252256657299,-0.4555135522196734,-0.05937484614422305,0.2136174637977886,0.2107477853448392,-0.544720537497433,-0.3608472372523672,-0.20740539817092307,-0.06943913379670397,-0.6089203937910839,-0.31907394877355216,-0.06645326382996589,-0.6694510496135252,-0.5467700674761858,-0.6156269145683406,-0.36878057137302567,-0.042913602312354415,-0.2659478923725336,-0.4285309368612206,-0.3123300510017684,-0.1635197470670043,0.14101172586932784,0.46477332237780106,0.1157469675793036,0.4367230320209777,0.30182948581275115,-0.028517628802408837,0.33781447530641556,-0.1391937680813471,-0.3486610758017951,0.10383826827215138,0.3089465464134926,0.15932782811164473,0.2598959604480046,-0.21697230092216524,-0.20739489963956115,0.020088467303722646,-0.003258142241484535,0.5497107848117287,0.5122644164352202,0.36554543115356647,-0.25468087135953227,0.12928686391859934,-0.17340069662564103,-0.14797869750592282,0.37257405001073124,0.4055536865219731,0.31473146047060035,0.0495463397196545,-0.27250420520848734,0.5021301140062419,0.04623394547897351,-0.3442152777743511,-0.6238628196574604,-0.026805960250936674,0.09830413005030603,-0.18750272008696098,-0.05263809000687096,-0.5329938098203907,-0.6302892148850279,-0.37702197676784094,-0.32530165708769726,-0.5627449451702948,0.3175265930834123,0.31805702753170634,-0.22377699529873238,0.01352082471146276,0.03659315216297158,0.5238042090407087,-0.2308122185733134,0.5462929962209244,0.4456826554406983,0.3362256784282578,0.24328819077140434,0.31221793167967044
biasActivation=0,1,1
[BASIC:ACTIVATION]
"ActivationSigmoid"
"ActivationSigmoid"
"ActivationLinear"
