encog,BasicNetwork,java,3.0.0,1,1406162238228
[BASIC]
[BASIC:PARAMS]
[BASIC:NETWORK]
beginTraining=0
connectionLimit=0
contextTargetOffset=0,0,0
contextTargetSize=0,0,0
endTraining=2
hasContext=f
inputCount=10
layerCounts=1,11,11
layerFeedCounts=1,10,10
layerContextCount=0,0,0
layerIndex=0,1,12
output=0.379390505628978,0.25657506280155734,0.9069973101837133,0.18838573587870555,0.3694155510705267,0.747365473412275,0.42636071159709904,0.3282081311376259,0.40827772039146587,0.5591927534277498,0.43598775850659083,1,-1.3332206335128913,-1.344600090395267,-1.0882463950362729,-1.1151795596563225,-1.262295217483865,-0.24353883924090403,-1.1950989828610088,-1.2136051537022932,-0.9650127246589574,-1.7460797133074155,1
outputCount=1
weightIndex=0,11,121
weights=0.14048014771138476,-0.24718805218026563,0.018966440841762605,-0.4795828698824954,-0.35237322282357486,-0.034291466543535175,0.17387739214544654,0.06981974645105009,-0.4948060137623948,0.2229670069621466,0.2414908862469031,-0.3509746559048979,0.0412397961092786,0.25819413521755313,-0.330306108458289,0.009554698924461091,0.2754815068026701,0.31017179190325106,-0.09268797371094405,0.19319988463599008,0.4119497595912002,-0.32060578823018554,0.024081049276949002,-0.36770103102347135,-0.13529879019909993,-0.29776762508359417,0.16647117328202576,-0.4037647842664412,-0.30698426170692245,0.044120882104371366,-0.21194284424154936,-0.3276386424730228,0.3577641729861037,0.396503092131749,0.41370816816217404,-0.1309112046255058,-0.09571739973589972,0.3171086095433349,0.10744631858661073,-0.0907954823375864,0.006865560065663136,0.028943608917103056,0.3804166623511292,0.39360216515549856,-0.010088498177463575,-0.15035098329261903,-0.21715836609001513,-0.13161238877612635,0.2849101205712677,0.42597012665342127,0.5189029555619827,-0.23182181546838784,-0.07653124306601239,0.17834873326293868,-0.09369163659459706,-0.4234998061941705,-0.12334078398585795,0.11594987696513676,-0.3834306512663823,-0.2523458713678278,-0.43234836783866104,-0.10251525860628531,0.22734936446340362,-0.020428695529934145,-0.08103457724369334,-0.3789031730957438,-0.19138135306174864,0.11133582015554094,0.43794500110061413,0.07007398518032203,0.3889486085773395,0.27501544538707595,-0.06991742853972294,0.29557557505839005,-0.17674320076038275,-0.40678477165703053,0.10483130620221498,0.19359680305708044,0.03749457323422173,0.1481760810102466,-0.3938422450031992,-0.38789157337570057,-0.08627249828948844,-0.15477139041438198,0.3947324571423011,0.37346045128472793,0.1644533875905514,-0.2547502541900296,0.05674839739527733,-0.24916577986281177,-0.21770315597606366,0.27375777484087715,0.3009494702586163,0.253029543834286,-0.04507812983155387,-0.3685972438754402,0.4155493241395453,-0.07389617076936786,-0.3497985307946237,-0.3743854650134251,0.23617492779168078,0.3387182952575808,0.18350420523191546,0.3333023032608037,-0.3134085895480513,-0.29987404367481146,-0.03942429718392791,-0.023585674018280794,-0.12353378806338244,0.3292717673240553,0.17513613928957592,-0.3738328548567461,-0.12615213624582142,-0.1664512308458295,0.310672515192711,-0.36512196866235247,0.35777025167580784,0.25372199871075185,0.16207519229704012,0.0020231828341414765,0.3491355166660264
biasActivation=0,1,1
[BASIC:ACTIVATION]
"ActivationSigmoid"
"ActivationSigmoid"
"ActivationLinear"
