encog,BasicNetwork,java,3.0.0,1,1406174341968
[BASIC]
[BASIC:PARAMS]
[BASIC:NETWORK]
beginTraining=0
connectionLimit=0
contextTargetOffset=0,0,0
contextTargetSize=0,0,0
endTraining=2
hasContext=f
inputCount=10
layerCounts=1,11,11
layerFeedCounts=1,10,10
layerContextCount=0,0,0
layerIndex=0,1,12
output=0.3312538105008699,0.6216277159883362,0.5966346560841788,0.6024416016380172,0.4449034798601331,0.4175899794933374,0.43438628191989914,0.5621123221240142,0.5279768460763693,0.6262138443572762,0.46545290143056545,1,0.1332538576989304,0.18427383982980983,0.008013799778002983,0.18251885321515782,-0.29485036896226824,-0.4548791985483105,-0.16032732346768253,-0.0365963933351634,-0.25548970150545625,-0.05865136274480176,1
outputCount=1
weightIndex=0,11,121
weights=-1.3085892627950815,-0.2607937552671341,-0.6195612086228988,-0.4189287705106666,-1.1252505516571654,0.5574834426258737,0.5668450596384211,0.047132027330637996,-0.22124371703602566,1.0171467799023193,0.37549348383338843,-0.10360276802618242,-0.28521724553158845,-0.1710944558684802,-0.46833936960689204,-0.8272290983400611,0.041287925360838376,-0.8196373772393067,-0.19982623124807222,-0.46506712331948613,-0.8485223896461067,0.11724039609612893,0.11266868827218665,0.08968311816915724,0.06167532581431549,-0.4233553970055415,-0.3906067534337992,-0.48429928179593795,-0.07942694542752157,0.053122921373560575,-0.5053381614736326,0.13464396268864148,-0.03077151511593321,-0.03205361449376366,0.009784537935647559,-0.446091682401268,-0.526389970800636,-0.16150358665282194,0.10064319911013302,-0.5707229627925404,0.045868542152560816,-0.5362259970823429,-0.33047446742345904,0.2697223591321954,-0.4856822197280803,-0.48652498143475986,-0.4764201737987591,-0.39636209522472976,-0.11282318740152561,0.18929572720957671,0.004442505249263618,0.16935123047438858,-0.15738823871926394,-0.21071712170341472,0.016430406514606467,-0.7247736375542704,-0.0474798962126475,-0.5182002897429167,-0.5856046645869111,-0.22462492978546977,0.08620788414933533,-0.2653507835784786,-0.5264334389695619,-0.21482901805922774,-0.7100022486427264,-0.3016641477400988,0.5071408649308982,0.0755823452170832,0.46431231037633913,-0.07432519622058206,-0.21816997251541206,0.1456626328380154,0.23756241891500396,-0.09291003116219258,0.19301990083534382,0.605699634083478,-0.21417997617933135,-0.15393049582349783,0.360731933866365,-0.1288861727528112,0.3361714507308646,-0.1972286115701414,0.10464365333435717,-0.028498135386155712,0.599429537009179,0.4308016354610143,0.3193627537671598,0.27906453474937826,0.3744969372832514,0.18677647457385146,-0.542316015668928,0.02057890008652429,-0.20392877526528644,0.06713759336342814,0.26343398914606175,0.11891873784167342,-0.27937732245781416,0.08728876505203521,-0.020966554087705563,0.20159433876883393,0.18748033571737238,-0.44942386315652677,0.1223517278904878,-0.4856641114994651,-0.09673195163082743,-0.37641170128574425,0.0553920513018754,0.17957475068262585,-0.1857068059766309,0.22533322656148358,0.3302771885015947,0.21437535116293546,0.025295012387901453,-0.0016537390303164707,0.6647728481428452,0.16361530240636815,0.40508349572807084,0.6935040010769297,0.6274094863204764,0.08483124298821539,0.3042072657068611
biasActivation=0,1,1
[BASIC:ACTIVATION]
"ActivationSigmoid"
"ActivationSigmoid"
"ActivationLinear"
