encog,BasicNetwork,java,3.0.0,1,1406174341781
[BASIC]
[BASIC:PARAMS]
[BASIC:NETWORK]
beginTraining=0
connectionLimit=0
contextTargetOffset=0,0,0
contextTargetSize=0,0,0
endTraining=2
hasContext=f
inputCount=10
layerCounts=1,11,11
layerFeedCounts=1,10,10
layerContextCount=0,0,0
layerIndex=0,1,12
output=0.3472842375436763,0.6104507366835137,0.5939351381411541,0.5975146016924887,0.4403387560201473,0.4049285749634816,0.4394507814210051,0.5692582209570237,0.5284217596192121,0.6237805001462406,0.4760898485853563,1,0.1332538576989304,0.18427383982980983,0.008013799778002983,0.18251885321515782,-0.29485036896226824,-0.4548791985483105,-0.16032732346768253,-0.0365963933351634,-0.25548970150545625,-0.05865136274480176,1
outputCount=1
weightIndex=0,11,121
weights=-1.1680435746141016,-0.21013271319518606,-0.5236939606583682,-0.35398496310650307,-1.0052304421571645,0.4441600326970438,0.4530208912448364,0.01624772464285551,-0.19144223316351078,0.8642999721947,0.32895019551383237,-0.06595797709820048,-0.24675328333612967,-0.1328585244378387,-0.42337959076844056,-0.774624888145499,0.08361246054472476,-0.7570795711970695,-0.1390017159569929,-0.40691265380139,-0.7703111932948564,0.1158318886493965,0.12672413805862656,0.10411665846731,0.07523571533424865,-0.4059164190718822,-0.3713314853985362,-0.4715789942335181,-0.059976313600601135,0.0724011591953294,-0.48768545848174305,0.16034712584532906,-0.02848972384787972,-0.00801455562141232,0.03466746770219403,-0.42277923378067234,-0.4941561057656335,-0.1248046824222425,0.12513393745613438,-0.5335546629268768,0.08259568603036031,-0.5026451900505374,-0.2786958607463601,0.2762153098200167,-0.46768639347288965,-0.46786408748901137,-0.4588559701802282,-0.3722485778991984,-0.08532588914333958,0.20841302920659094,0.031990419769294474,0.19659754997840134,-0.1322617412106172,-0.17296858844705154,0.01840006821155605,-0.6907581595638272,-0.012297140551084952,-0.4833518586295554,-0.5403646203531243,-0.17217576284786942,0.12692103391619092,-0.20883774048123457,-0.4712659971018693,-0.1620511771592938,-0.6360436897583143,-0.31062691716288243,0.4826410156169959,0.050006348929528606,0.44051649427548106,-0.11105561201269201,-0.2573132095205499,0.12024745805575378,0.20119491449741883,-0.129138745585177,0.16004116141394345,0.5540914171942904,-0.22043314691647156,-0.18106217162632388,0.3327884009381166,-0.15542241502452114,0.30221494241787034,-0.23589376732179823,0.07791020929986567,-0.0671135803056847,0.5612705034923828,0.3954933291170516,0.26870568526453237,0.2801851241957505,0.37209917886018495,0.18431547061596065,-0.5446716079419276,0.01782780770050382,-0.20706831657876895,0.0648714434115534,0.26026819883695407,0.11576770354318992,-0.2823182518763952,0.08338519995669355,-0.021446933481392233,0.21621132248568292,0.20248535156580996,-0.43524381875926815,0.139405602760176,-0.4663284259222127,-0.08332644726178315,-0.35677750661288254,0.07491649276639491,0.19761495150363623,-0.161021515011253,0.2287302230883284,0.3002377675070974,0.18266360020777686,-0.005164126364422308,-0.0536625958825523,0.6100265365951991,0.12682237665801588,0.35429185185521095,0.6431608285544719,0.5805331652898343,0.006352448917938049,0.3070425134170005
biasActivation=0,1,1
[BASIC:ACTIVATION]
"ActivationSigmoid"
"ActivationSigmoid"
"ActivationLinear"
