encog,BasicNetwork,java,3.0.0,1,1406174341584
[BASIC]
[BASIC:PARAMS]
[BASIC:NETWORK]
beginTraining=0
connectionLimit=0
contextTargetOffset=0,0,0
contextTargetSize=0,0,0
endTraining=2
hasContext=f
inputCount=10
layerCounts=1,11,11
layerFeedCounts=1,10,10
layerContextCount=0,0,0
layerIndex=0,1,12
output=0.35860181970282967,0.5980312175798757,0.5911192698328367,0.592092640362953,0.4354610763095696,0.39050546283392845,0.4446733116912377,0.5762943603015129,0.5282674265603734,0.6208376624989662,0.4878367018623275,1,0.1332538576989304,0.18427383982980983,0.008013799778002983,0.18251885321515782,-0.29485036896226824,-0.4548791985483105,-0.16032732346768253,-0.0365963933351634,-0.25548970150545625,-0.05865136274480176,1
outputCount=1
weightIndex=0,11,121
weights=-0.9935789057370263,-0.15358027019026027,-0.4089727503188363,-0.2696294086588924,-0.8549042886781846,0.3090710426997904,0.3222798245972843,-0.025351824940821846,-0.16937977881019944,0.6714012860561299,0.2647973191789751,-0.007050007902444164,-0.18680361348086902,-0.07552468785307367,-0.36190287874698995,-0.7035639169307294,0.13638934223610918,-0.6793556774828107,-0.062315956654399936,-0.33551680029705333,-0.6812473575320467,0.11700792843115618,0.14453410545644388,0.1223137221622865,0.09218569715543551,-0.3865389919382938,-0.3497125903852039,-0.45773367024687917,-0.03855894329062595,0.09381444022337818,-0.4682439215842562,0.18610526045378978,-0.02618410954750833,0.026774051504382244,0.07040611914852803,-0.3897365273857115,-0.45423249588403325,-0.0795320083546023,0.1545949983288675,-0.48940446409728067,0.12671557077108087,-0.46283020226001376,-0.22347992101472608,0.2837992138407183,-0.44294163820062554,-0.44239969901045395,-0.43517662703314836,-0.34348861558581517,-0.05275843014536862,0.23049952963000786,0.06378379817591312,0.2283745923712736,-0.10325740392498803,-0.13354461755913027,0.020786815078346513,-0.637828926317607,0.04207717364385469,-0.43142135193322634,-0.47927844906327616,-0.10234875636606904,0.17726792909851602,-0.13828725973803035,-0.40134319222719284,-0.09685255064655122,-0.5509608459925123,-0.3204743560009836,0.4498821098307049,0.016125900790809857,0.4092580852678167,-0.15201270920989907,-0.3015147419031114,0.09208277863722483,0.16059799830034246,-0.1700189405636025,0.1231910633676328,0.5027723092310057,-0.2271980179831548,-0.21702016589707998,0.29595989613252865,-0.18986778043865726,0.2625542726226249,-0.28074260806190987,0.04815096324129739,-0.11058262533609542,0.5178476877573357,0.3558798242725569,0.21671292237478973,0.27954305927178713,0.3731474843525865,0.18538529488700153,-0.5436614735987302,0.018892395516417394,-0.2058696158981614,0.06572004560385722,0.2614517538185113,0.11695795802133291,-0.28121817986089653,0.08468140818371887,-0.021275644258831574,0.23723874947754447,0.22399114934101216,-0.41501542288201815,0.1617153283576279,-0.4412250074749319,-0.06605615468183057,-0.3318287434783475,0.09993347148863643,0.22064019012799047,-0.13233102177725886,0.23294922162942586,0.2546872974256274,0.13521134739400964,-0.04934804642070805,-0.11710914572431537,0.542887792885976,0.08455826941907012,0.2938311445088674,0.5823558694866425,0.525321736602789,-0.07736216996591137,0.3108859661968168
biasActivation=0,1,1
[BASIC:ACTIVATION]
"ActivationSigmoid"
"ActivationSigmoid"
"ActivationLinear"
