encog,BasicNetwork,java,3.0.0,1,1406162239244
[BASIC]
[BASIC:PARAMS]
[BASIC:NETWORK]
beginTraining=0
connectionLimit=0
contextTargetOffset=0,0,0
contextTargetSize=0,0,0
endTraining=2
hasContext=f
inputCount=10
layerCounts=1,11,11
layerFeedCounts=1,10,10
layerContextCount=0,0,0
layerIndex=0,1,12
output=0.04278120862599723,0.06308669252245909,0.9894268122219425,0.07222848372452345,0.9355379944351309,0.9779616264150045,0.3400635530642049,0.09307367315392764,0.2180005628513581,0.9758039629115967,0.10104147681133023,1,-1.3332206335128913,-1.344600090395267,-1.0882463950362729,-1.1151795596563225,-1.262295217483865,-0.24353883924090403,-1.1950989828610088,-1.2136051537022932,-0.9650127246589574,-1.7460797133074155,1
outputCount=1
weightIndex=0,11,121
weights=0.5857154423874645,-1.0015663984673613,0.5368855773276933,-0.7277581571398101,-1.035932608495408,0.1982333318131977,0.4480844398541206,0.2988804943561066,-0.9665321649264947,0.5972510064212577,0.2097879622730697,-0.2384061867021886,0.1594565426606079,0.3656309477113316,-0.16848623710725028,0.17669649371531015,0.3688394461617975,0.45357591463217994,0.05376734795016179,0.32329295298680916,0.5990122327315344,-0.31342428150140855,-0.12155765693302199,-0.5218672457889189,-0.27407120918552125,-0.5217081514017502,-0.06900344192426648,-0.5319953450918437,-0.5076361990856539,-0.16091846155076983,-0.392925203501344,-0.6036176108915791,0.34320975278396343,0.4668273562283858,0.48764766058498205,-0.06254623696597059,0.006686079337701479,0.4250380137924961,0.17303306100030483,0.005205317905771931,0.10439357943553546,0.11704312728472903,0.5046192854000605,0.37014518556508663,-0.24132527842121107,-0.3907250520135738,-0.4402351985928474,-0.4260236374472108,-0.029663435443649067,0.23139043830266867,0.23571758509874685,-0.5191685038812114,-0.3380252233749334,-0.16585092700531864,-0.07147899196690581,-0.6020429906395248,-0.3102584643413593,-0.057915823800524784,-0.6352989554601126,-0.5149968771300539,-0.5934423323531401,-0.3405597648172811,-0.014179925196114078,-0.2396394732809776,-0.3827793824262282,-0.3170778137605552,-0.16779585317877938,0.1362393775738114,0.4604669570773329,0.10569037495812063,0.42634222018860973,0.29575410502701105,-0.03751431803840615,0.3286166443731582,-0.14738254587134234,-0.36262953942095616,0.10420159314129351,0.3025631520218708,0.1517566476800141,0.2532318740022592,-0.23948741579821037,-0.2286858200385239,0.007915948591858662,-0.01971750106905741,0.5327021293319933,0.49731844399749303,0.3372910503633515,-0.2556870177806605,0.12266234775720608,-0.1807277489732287,-0.15457279114300057,0.3575172197295036,0.39022771052200034,0.3058329640533986,0.03613089932843372,-0.2862084033645824,0.48998823074107034,0.02560068967780003,-0.34589782983820344,-0.6169928765088014,-0.01779631912831384,0.10594839839913679,-0.1518636408321281,-0.017842922301526475,-0.5136857181295149,-0.6025366977968085,-0.3482875914412179,-0.3002425354622473,-0.5121641133539954,0.3220817089480544,0.3099521974272804,-0.23317512138101215,0.00465559111611819,0.012455806416476665,0.4993115327519809,-0.24641771754711084,0.5252425068070944,0.42416381020640465,0.31668755818586863,0.20986840251999128,0.3177633940756906
biasActivation=0,1,1
[BASIC:ACTIVATION]
"ActivationSigmoid"
"ActivationSigmoid"
"ActivationLinear"
