encog,BasicNetwork,java,3.0.0,1,1406174341440
[BASIC]
[BASIC:PARAMS]
[BASIC:NETWORK]
beginTraining=0
connectionLimit=0
contextTargetOffset=0,0,0
contextTargetSize=0,0,0
endTraining=2
hasContext=f
inputCount=10
layerCounts=1,11,11
layerFeedCounts=1,10,10
layerContextCount=0,0,0
layerIndex=0,1,12
output=0.3616556145092768,0.5919480598970019,0.58991755503714,0.5895479072098216,0.43333889969206546,0.3835559297573807,0.4468614722298893,0.5791580608383073,0.5278085443757686,0.6192467554552764,0.49316377936214406,1,0.1332538576989304,0.18427383982980983,0.008013799778002983,0.18251885321515782,-0.29485036896226824,-0.4548791985483105,-0.16032732346768253,-0.0365963933351634,-0.25548970150545625,-0.05865136274480176,1
outputCount=1
weightIndex=0,11,121
weights=-0.908418050579227,-0.1276859542937858,-0.3546381132981481,-0.22727956268602142,-0.7819397141273715,0.24661721747241902,0.26477811338217394,-0.04845205103205921,-0.16603796299499027,0.5776582354430775,0.23231747302560068,0.02588527569755941,-0.15338782971477705,-0.04385255061830533,-0.3300106334044928,-0.6667948070787778,0.16328273067388416,-0.6400527128242695,-0.02328900719650976,-0.2994495665278654,-0.6390221452080459,0.11763825411199053,0.1526739940982616,0.13060344319568892,0.09992121040628454,-0.3783167575671392,-0.34047420733782097,-0.45177418445344913,-0.02936183334117132,0.10304027725155103,-0.4598515748300645,0.19647808610595335,-0.025329299666634775,0.04464311286128177,0.08868061645691462,-0.3727960321617841,-0.4354480666847491,-0.058197488525927,0.16872567846151254,-0.4685897053009475,0.1476083376565369,-0.44394388607060764,-0.19938890183948804,0.2870183046710763,-0.4309856606058963,-0.4301557964843826,-0.4237684392729092,-0.3307367211821211,-0.038307166971932316,0.24044672191229652,0.07798761584529468,0.24262688033961413,-0.09021592262619964,-0.11717717564237311,0.021757630646382673,-0.6083004713965762,0.07227173716516624,-0.402876157715164,-0.44793537594219146,-0.06662860665433569,0.20262508567769402,-0.10260301411454589,-0.3657489967263943,-0.06394598524229506,-0.5105066880703937,-0.32534647973942077,0.43485274182376976,0.0006723525245277504,0.39492312767991494,-0.1689278499305127,-0.3199835753167241,0.08005644055225979,0.1433490288576846,-0.1874479416734674,0.10740850827204444,0.48270435049249527,-0.2298172337146469,-0.23397284050513845,0.2786598581484635,-0.20607679805556295,0.245203752065685,-0.30036125785712336,0.03496183128172977,-0.129669841192935,0.49869829382642117,0.33838853404687996,0.19537731132442968,0.2787599735555153,0.3762588104182056,0.18855935637383403,-0.540652142800012,0.02200598527796739,-0.2023594045168049,0.06822936281753904,0.2649311671614727,0.12045934718333674,-0.2779708909005383,0.08843572751902888,-0.02079660948831623,0.24909795183936656,0.23608880828779905,-0.40358293954104013,0.17359853102128825,-0.4278532611918791,-0.056622152035719554,-0.31850565162145617,0.11333728682398311,0.2330380852524796,-0.11790159773501621,0.23500067717879367,0.23100757299251928,0.11073044299995828,-0.0719967170135387,-0.14628732513733853,0.511723272162489,0.06510497259397335,0.26552538037722145,0.5537434506726665,0.49952653148859844,-0.11347866282628219,0.3130440875103336
biasActivation=0,1,1
[BASIC:ACTIVATION]
"ActivationSigmoid"
"ActivationSigmoid"
"ActivationLinear"
