encog,BasicNetwork,java,3.0.0,1,1406174341860
[BASIC]
[BASIC:PARAMS]
[BASIC:NETWORK]
beginTraining=0
connectionLimit=0
contextTargetOffset=0,0,0
contextTargetSize=0,0,0
endTraining=2
hasContext=f
inputCount=10
layerCounts=1,11,11
layerFeedCounts=1,10,10
layerContextCount=0,0,0
layerIndex=0,1,12
output=0.33987907282307495,0.6160255815790948,0.5952780024238699,0.5999736765146289,0.4426219655103755,0.4113166418984641,0.43693993633710165,0.5657442831418077,0.5282491985478324,0.6250138152665619,0.47073979570811775,1,0.1332538576989304,0.18427383982980983,0.008013799778002983,0.18251885321515782,-0.29485036896226824,-0.4548791985483105,-0.16032732346768253,-0.0365963933351634,-0.25548970150545625,-0.05865136274480176,1
outputCount=1
weightIndex=0,11,121
weights=-1.2410818890724096,-0.2358085683149031,-0.573120034367209,-0.3881925305855757,-1.0678620911004542,0.5027275478374723,0.5114774503271672,0.032484886173133956,-0.2056949997554548,0.9442337489242048,0.35387212845688776,-0.08682047821122493,-0.26805406835138024,-0.15373312065636519,-0.4474119021307582,-0.8026184358846951,0.061735125160996676,-0.7894182098904452,-0.1705832385831053,-0.4368394195243009,-0.8099765343345633,0.11607761126653145,0.11927865927402784,0.09648009832996214,0.0680926037472917,-0.41482674279695636,-0.3812013554849854,-0.4779976116982457,-0.06984248920960606,0.06259447789146039,-0.49662862969818783,0.14760585250763822,-0.02963863108792633,-0.021134160559681744,0.02111289697286998,-0.4353947651444345,-0.5110250482613049,-0.14396980750769553,0.1125313321390874,-0.552652051080234,0.06365809398158374,-0.5198614504513602,-0.30464588752671573,0.2728178547373837,-0.477410331921929,-0.47792906523444756,-0.46827386381867,-0.38480653490288813,-0.09959934837331538,0.19862811194882532,0.017874510138265524,0.1825889408521843,-0.14511844263769236,-0.19187470148760566,0.017348820966412434,-0.7095633819546396,-0.03171906025531279,-0.5023410941480895,-0.5644775138145104,-0.1999861155893412,0.10589743009921143,-0.23809472118376185,-0.4999579359021199,-0.18927253232026586,-0.6736669708080828,-0.3062084673757008,0.4958574083687485,0.06377143281544681,0.45325470717732136,-0.09219209185080626,-0.23716507447604185,0.13315415563958588,0.21973619958166762,-0.11060027268560677,0.17682907212454055,0.5796983023650099,-0.21722129036741858,-0.16651709599840694,0.34774965094216304,-0.1413139210625116,0.31982383991805385,-0.21590574708574337,0.0914624285272468,-0.04742945588050234,0.580790060730516,0.4134462711083449,0.2939833035676485,0.27984390908198975,0.3730868207586954,0.1853285803357839,-0.5437064366662706,0.01893670322513446,-0.20580846580688542,0.06576859155808054,0.26152441291058914,0.11702168495887737,-0.2811525472615238,0.08490390922979177,-0.021254069418542562,0.20836474385206355,0.19443653750131124,-0.44282458709227096,0.1304635334368178,-0.4764328893647945,-0.09026633006959507,-0.3669343767363139,0.06478995536967892,0.18828528822191384,-0.17352979662264462,0.22695822523526654,0.3168904142709252,0.20018332443043077,0.011462793450210253,-0.02648478626564031,0.6386322700707704,0.14557110607315707,0.3804353002422689,0.6691956888068539,0.6045673294751783,0.04576638029226763,0.305599530122359
biasActivation=0,1,1
[BASIC:ACTIVATION]
"ActivationSigmoid"
"ActivationSigmoid"
"ActivationLinear"
