encog,BasicNetwork,java,3.0.0,1,1406162239067
[BASIC]
[BASIC:PARAMS]
[BASIC:NETWORK]
beginTraining=0
connectionLimit=0
contextTargetOffset=0,0,0
contextTargetSize=0,0,0
endTraining=2
hasContext=f
inputCount=10
layerCounts=1,11,11
layerFeedCounts=1,10,10
layerContextCount=0,0,0
layerIndex=0,1,12
output=0.05877007636073179,0.07913205710107216,0.9856218012454098,0.08804839010395984,0.9138784616426707,0.9693165417114438,0.3636805596068604,0.11220431285094111,0.2453837973120155,0.9661054722235618,0.12693862675232243,1,-1.3332206335128913,-1.344600090395267,-1.0882463950362729,-1.1151795596563225,-1.262295217483865,-0.24353883924090403,-1.1950989828610088,-1.2136051537022932,-0.9650127246589574,-1.7460797133074155,1
outputCount=1
weightIndex=0,11,121
weights=0.5163558258383759,-0.9141770628594433,0.4704479270929685,-0.6734356323365978,-0.9508084192419729,0.1695373248376246,0.4022339166608351,0.25590821423461063,-0.8898853416953901,0.5319575888807403,0.20487997470622651,-0.2500354911157558,0.1464980495447507,0.3543146768002379,-0.1961038224939714,0.14944929761918466,0.3545585211749601,0.4318324863397595,0.03134187283203555,0.30383947592789945,0.5641394170944599,-0.3163205855194331,-0.10959756123974355,-0.5079866775690242,-0.262216326660136,-0.4864007262661203,-0.03334167889942105,-0.5133750600814602,-0.4788560202119263,-0.13121845069523727,-0.3672341740769877,-0.5547899511327214,0.3488881772739025,0.4564219617019537,0.4762504465418324,-0.07308598655500505,-0.014989880229234908,0.4026042559472944,0.15924030495949762,-0.014208895952670693,0.08461704683386272,0.09922896605302378,0.47613263604371003,0.3747452469338253,-0.22682191969795923,-0.37459424314365136,-0.4257975656978985,-0.3926793548136338,0.004446495621165758,0.2507424374200427,0.2636900044593224,-0.49052922229348,-0.31265227757989006,-0.12199370047735672,-0.07364469494304839,-0.5882011791142366,-0.2945945533543383,-0.043328476596382726,-0.5981913577274697,-0.4789081558869088,-0.5706174189946567,-0.3095251611927192,0.017474600553334853,-0.21100293554279276,-0.3351741870397628,-0.32274739435538524,-0.17347065601090372,0.13011059274019074,0.4549609782200574,0.09519894977462945,0.4154550605193027,0.2896983160409989,-0.04678781543527553,0.3191340726287421,-0.15577861044815206,-0.3763082109122599,0.10449475887929446,0.29244392865234226,0.14049967642732,0.24330175011859295,-0.263558408143584,-0.25211606432550093,-0.004833833755121939,-0.03776457708080978,0.5140605390044911,0.48104182846176363,0.30841115670192554,-0.2567208098721533,0.1137837613231544,-0.19024215603697683,-0.16313327017775667,0.3418699552663622,0.37404831636564545,0.29681323563622664,0.022125869297589047,-0.3005022959073645,0.477353091073517,0.005389517676771104,-0.34751058843763083,-0.6027258360492008,-0.001423332793352084,0.12002818492578503,-0.1114816539344826,0.02216230980891147,-0.4930959918447872,-0.5715737713050848,-0.3162194703595116,-0.27255626380309,-0.45926794661450193,0.32693311057992863,0.2973766904113839,-0.24698597687342752,-0.008053031631071999,-0.014119820872741976,0.4721594683333621,-0.26265879975413137,0.50256425319225,0.4009448614868686,0.29586039663337843,0.17570743282753282,0.3231074443427177
biasActivation=0,1,1
[BASIC:ACTIVATION]
"ActivationSigmoid"
"ActivationSigmoid"
"ActivationLinear"
