encog,BasicNetwork,java,3.0.0,1,1406174341696
[BASIC]
[BASIC:PARAMS]
[BASIC:NETWORK]
beginTraining=0
connectionLimit=0
contextTargetOffset=0,0,0
contextTargetSize=0,0,0
endTraining=2
hasContext=f
inputCount=10
layerCounts=1,11,11
layerFeedCounts=1,10,10
layerContextCount=0,0,0
layerIndex=0,1,12
output=0.3532426441214463,0.6049144590770199,0.5926356452426483,0.5950773259413134,0.438103629159186,0.39849730769633784,0.441869773598498,0.5725664904046596,0.5284648749529373,0.6225074639611985,0.4814075674377428,1,0.1332538576989304,0.18427383982980983,0.008013799778002983,0.18251885321515782,-0.29485036896226824,-0.4548791985483105,-0.16032732346768253,-0.0365963933351634,-0.25548970150545625,-0.05865136274480176,1
outputCount=1
weightIndex=0,11,121
weights=-1.0913157069265185,-0.18451611162350431,-0.472658267454704,-0.3172686568813729,-0.9391218931277794,0.3837443603024821,0.39372392169508863,-0.0014118742252872598,-0.17950980947254033,0.779595950374159,0.30138056709639205,-0.04149741293301838,-0.22182786844147256,-0.10887397502086925,-0.3969670919105041,-0.7440364816769467,0.10661263372094268,-0.7231347597280381,-0.10561693100723278,-0.37568298875694134,-0.7303945175704124,0.11620920389772171,0.13464261357856222,0.11221836140153124,0.0827837314311968,-0.3970222975742644,-0.36143523681084366,-0.4652352966620035,-0.05016924716478161,0.08219007890719215,-0.47879516936167904,0.17244455511597412,-0.02739207462049969,0.0068322798531902,0.04995044660886001,-0.4086428293647221,-0.4764424023935566,-0.10471877479432876,0.13818016476364708,-0.5138989911051307,0.10219313840240812,-0.4849432458643823,-0.2533472452445912,0.2796843479334963,-0.4569301056494554,-0.45677179828499614,-0.4485358418870158,-0.35928001949103255,-0.07063460941185462,0.2183631218911659,0.04634089530109034,0.2109114591193125,-0.11919134115297504,-0.1546590987538227,0.019494069902970052,-0.6687638893427948,0.010343423752082928,-0.4615935918656114,-0.5140176832643343,-0.14199279653703212,0.148939588437578,-0.1780523563689459,-0.44085363078800893,-0.1335539078854186,-0.597989522020436,-0.3149958537077401,0.4681982227094072,0.03503203430163426,0.42671236627685655,-0.12993795417124543,-0.2776056578669761,0.10736567789956424,0.18262015064043516,-0.1478076794084335,0.1432160292360744,0.5298446635470958,-0.22360288792856614,-0.19686705965532414,0.3165756721265102,-0.17060060831141682,0.28421571521603434,-0.25625854426764416,0.06438023172013321,-0.08688531573828136,0.5415616276365077,0.37749225012139753,0.24443082092417617,0.28011723627056934,0.371836821312011,0.18404641262905821,-0.5449277702396601,0.01754103528112392,-0.20739311467080213,0.06464259860729601,0.2599475826854429,0.11544654833841589,-0.28261627280136037,0.08300762065885527,-0.02149628457151588,0.2250268473333606,0.2115117368489815,-0.4267613473359102,0.14900281039498678,-0.455522526620885,-0.07593557339717671,-0.3460256615988211,0.08567913671850788,0.20751118579589067,-0.14833821567270764,0.23058961847669546,0.280959047949231,0.16251059177696625,-0.024013715332915814,-0.08200706547771792,0.5801188976289819,0.10783115676582851,0.32734496287974574,0.6161360875945873,0.5558872247828529,-0.032168472709742796,0.30863677072698525
biasActivation=0,1,1
[BASIC:ACTIVATION]
"ActivationSigmoid"
"ActivationSigmoid"
"ActivationLinear"
