encog,BasicNetwork,java,3.0.0,1,1406162239313
[BASIC]
[BASIC:PARAMS]
[BASIC:NETWORK]
beginTraining=0
connectionLimit=0
contextTargetOffset=0,0,0
contextTargetSize=0,0,0
endTraining=2
hasContext=f
inputCount=10
layerCounts=1,11,11
layerFeedCounts=1,10,10
layerContextCount=0,0,0
layerIndex=0,1,12
output=0.038456058267505616,0.0584975586490778,0.9904311369192914,0.06753903153722411,0.9413250432161182,0.9802041295880177,0.33212801661313346,0.08746001420130967,0.20920679383423957,0.9782819425139064,0.09358805599348767,1,-1.3332206335128913,-1.344600090395267,-1.0882463950362729,-1.1151795596563225,-1.262295217483865,-0.24353883924090403,-1.1950989828610088,-1.2136051537022932,-0.9650127246589574,-1.7460797133074155,1
outputCount=1
weightIndex=0,11,121
weights=0.6090594045800556,-1.0303912657801584,0.5583129929905676,-0.7458170168165291,-1.0639054426278638,0.20728330084870517,0.46322177446670054,0.31359655013136245,-0.9924121675621648,0.6190569979775356,0.21102996894318524,-0.23537242646118886,0.16298719418024313,0.36869645577078713,-0.1590782090671145,0.18585799643564893,0.373799080881945,0.46093258768944095,0.06136129448730905,0.32990364411754236,0.6114157711738157,-0.3123982848689084,-0.12420511968060167,-0.525229467186912,-0.27689464417046594,-0.5335165588831868,-0.08077234940794678,-0.538412329450708,-0.5173119520106776,-0.17091388947151745,-0.4016123171443231,-0.6208032797313343,0.34123632717229885,0.469707373670406,0.4908990034145138,-0.059500649886452414,0.014055690634698439,0.4326446598234456,0.17792762846861748,0.011911394636580697,0.11121680728363761,0.12322480939318382,0.5147974031438537,0.36854501013216384,-0.24501886214218196,-0.3950093064300854,-0.44408105627433375,-0.4369828714499267,-0.04075659942633706,0.2249041452829284,0.2265190414767174,-0.5285860129044381,-0.34640676042277285,-0.18092095660630553,-0.07074757175526132,-0.605284805371697,-0.314179342620127,-0.06164003168213487,-0.6478267694686554,-0.5268361148216563,-0.6013990749761061,-0.3509116569863067,-0.024729438798488844,-0.24925219465358198,-0.3993154307641762,-0.3152997752102654,-0.1660977169637594,0.13811076250298804,0.4621505954455496,0.10935349680093917,0.43012745262024216,0.2979213551239786,-0.03426639596335987,0.3319383545925422,-0.14443313390065388,-0.35765665804283625,0.1040820806774219,0.3052671113884109,0.1548798197299123,0.25597805586011196,-0.23126341260559108,-0.22083264350284676,0.012309067849000828,-0.013680549422535382,0.5389421149911734,0.5027838502584409,0.347450657561138,-0.2553189773470597,0.12529791036569088,-0.17784854402825395,-0.15198539467856825,0.36297611842960675,0.3958133761128984,0.3090161205272596,0.04098378065751374,-0.28125145682673813,0.4943726173463474,0.03292755195793319,-0.3453004990666091,-0.6202635099390811,-0.021827584657743124,0.10251701404930895,-0.16512753249572892,-0.030848923721105717,-0.5206800422561593,-0.612745425988932,-0.35886272896466864,-0.30942296376281786,-0.5304592527964632,0.32039670451009356,0.31335546248619345,-0.22931564756192738,0.008254199489764566,0.021373416476924454,0.5083742215042466,-0.24079337110238402,0.5329182357065849,0.4320169882794594,0.3237833826552445,0.22188745237020593,0.31581296800026193
biasActivation=0,1,1
[BASIC:ACTIVATION]
"ActivationSigmoid"
"ActivationSigmoid"
"ActivationLinear"
