encog,BasicNetwork,java,3.0.0,1,1406162239462
[BASIC]
[BASIC:PARAMS]
[BASIC:NETWORK]
beginTraining=0
connectionLimit=0
contextTargetOffset=0,0,0
contextTargetSize=0,0,0
endTraining=2
hasContext=f
inputCount=10
layerCounts=1,11,11
layerFeedCounts=1,10,10
layerContextCount=0,0,0
layerIndex=0,1,12
output=0.030556892714551264,0.049803786014795876,0.9922325571067566,0.05845449028060826,0.951823813326105,0.984176959818506,0.31522230081267555,0.07660180838425189,0.1910461861750864,0.9826395300820855,0.07940935209653288,1,-1.3332206335128913,-1.344600090395267,-1.0882463950362729,-1.1151795596563225,-1.262295217483865,-0.24353883924090403,-1.1950989828610088,-1.2136051537022932,-0.9650127246589574,-1.7460797133074155,1
outputCount=1
weightIndex=0,11,121
weights=0.6596749007646681,-1.0919875575395515,0.6028859389094015,-0.7843106960271554,-1.1232600405278867,0.22568449872059035,0.49545809871763413,0.3457955424420629,-1.048771213284395,0.6658650712037416,0.21282209393385282,-0.2306857649544333,0.16883998386275473,0.37377680565598376,-0.13871542059209718,0.20547315110490472,0.3849398836942962,0.47702847955192645,0.07797146053902357,0.34446196990282696,0.6394990067391397,-0.3101767713131216,-0.12709036787987746,-0.5297937923591038,-0.2806455858183195,-0.5587235524784785,-0.10558015772308461,-0.5527601412127446,-0.5384294675111196,-0.19273226702039653,-0.4207216911623137,-0.6594303318507149,0.33703860485823267,0.4745535250087905,0.4966130529155463,-0.05402433508725537,0.029855092993392143,0.44895796833483925,0.18903903770865918,0.02677443509704768,0.12630912109001474,0.1369979956371778,0.5378189418416711,0.36498122920156845,-0.25074033412011754,-0.40209053235527625,-0.45050733467768356,-0.46013001812742055,-0.06398527448066142,0.21071760188313785,0.20674335668559915,-0.5488131966337644,-0.3645308685142966,-0.2142409639861285,-0.06909148807597142,-0.6094102207177007,-0.31990236664336685,-0.0673214022059779,-0.6749377542103967,-0.5517131014895745,-0.6193631008755461,-0.37333629590948836,-0.047542409017218214,-0.27022905295629107,-0.43609681470827777,-0.3115890875822081,-0.16294778214031969,0.14167053614683728,0.4653731703475753,0.11737479688193493,0.4384014416261868,0.3028588448325972,-0.027027285283085775,0.3393366353563562,-0.13783063470882112,-0.34629471505188486,0.10376721745046141,0.3096614731082853,0.16024736522957064,0.26071012995823895,-0.21332884848665118,-0.20401538073979364,0.022114545758443734,-0.000602360900447744,0.5524526847305508,0.5146917795605732,0.37026079980551163,-0.2545206485754029,0.13016910210609922,-0.1723937166710727,-0.14706747213041668,0.37504091904490294,0.40803938540412477,0.3162348351148204,0.05176385961349701,-0.2702391583587165,0.5041453082013118,0.049753401364012906,-0.3439297950430463,-0.6243312166531262,-0.02763869270522495,0.09760257241640267,-0.19306052102499094,-0.058020910313843814,-0.5361906368342596,-0.6347538760103468,-0.3816382601347187,-0.32936810441597,-0.5711042927856138,0.3168181574773613,0.31899003406327375,-0.22262111067794085,0.014649799853590452,0.04040449926382534,0.5276639688973731,-0.22821049258409434,0.5497281637587697,0.44918726682195714,0.33943974418770595,0.24886231271778597,0.3112515119075096
biasActivation=0,1,1
[BASIC:ACTIVATION]
"ActivationSigmoid"
"ActivationSigmoid"
"ActivationLinear"
