encog,BasicNetwork,java,3.0.0,1,1406162238725
[BASIC]
[BASIC:PARAMS]
[BASIC:NETWORK]
beginTraining=0
connectionLimit=0
contextTargetOffset=0,0,0
contextTargetSize=0,0,0
endTraining=2
hasContext=f
inputCount=10
layerCounts=1,11,11
layerFeedCounts=1,10,10
layerContextCount=0,0,0
layerIndex=0,1,12
output=0.17226167623606128,0.16658825488122464,0.9554454284716697,0.15771927266702226,0.7383160292014169,0.8951747906090389,0.42887886400373715,0.21067450269494212,0.34342982455474463,0.8694284058502649,0.26632254782461606,1,-1.3332206335128913,-1.344600090395267,-1.0882463950362729,-1.1151795596563225,-1.262295217483865,-0.24353883924090403,-1.1950989828610088,-1.2136051537022932,-0.9650127246589574,-1.7460797133074155,1
outputCount=1
weightIndex=0,11,121
weights=0.2807310514201905,-0.5811013371677354,0.21663521725291934,-0.4987823329749435,-0.6333884253021358,0.05438763533717092,0.24330837080653875,0.12349136266845333,-0.6297683929151732,0.31391075309066807,0.18678836162844017,-0.3071698570931265,0.0862620635422489,0.3001653489228853,-0.2816200982582679,0.061676811033590566,0.30746251839091754,0.358177944107915,-0.044038030811546856,0.23756128136718824,0.4650396445688531,-0.3223502422456611,-0.03682869546886696,-0.43050736897775355,-0.193309592187137,-0.36831287490394243,0.09011485416814506,-0.4487477477113713,-0.3761893969725352,-0.026037316791437844,-0.27532255440448317,-0.4083609054076982,0.3609593995332569,0.41301713845120475,0.43067915326530753,-0.1150701191526746,-0.07726445148266502,0.3370173400574378,0.12009195325350872,-0.0720547741168465,0.025810440217864036,0.04627941996183695,0.4013706665119686,0.38840808839594304,-0.13768106327075133,-0.28097297155158596,-0.34043403802006256,-0.26568315924778235,0.13873934301828753,0.3297279244618759,0.3795563709642574,-0.37258571034577664,-0.20704165971297397,0.02980156676929735,-0.08177652631667522,-0.5055165132301908,-0.20740990177553154,0.03732471156473105,-0.472682651844042,-0.3491113981634442,-0.4931374157503637,-0.19496685819249995,0.13398551721476704,-0.10589082276908998,-0.18403320372896986,-0.34933283883362787,-0.19228216019763303,0.1104285172014565,0.43707236790815246,0.0693399274507683,0.388116688684938,0.2744014282128197,-0.07081068583364102,0.2946800747165314,-0.1775960388209927,-0.4075794788588152,0.10536575290416908,0.24199914735706918,0.08724129626495766,0.19506374337311225,-0.3400770787396779,-0.33030658518948686,-0.048696222369592305,-0.10197494156404682,0.44824779126773073,0.4227652549762849,0.2222486172489919,-0.2585316698559563,0.07940020316808392,-0.22599797624922494,-0.19587976473222868,0.2973519348627446,0.32672304866933755,0.26967098507618,-0.02034561446643906,-0.34363045047471186,0.4386662419350002,-0.04761051107437493,-0.3506939945717598,-0.5079886524216979,0.09909749678030481,0.20987203132610857,0.03846509110633087,0.17638259279390417,-0.41268325409662865,-0.44592809604745454,-0.18720244483081025,-0.15967935074731768,-0.2827276670170007,0.33745460315571885,0.23566948123393797,-0.31173862936026503,-0.06766970745079194,-0.10141327080150601,0.38085564228313895,-0.31781924711879805,0.4237631927223635,0.32056318688342245,0.22373642082573467,0.07345770765485456,0.3379374981588839
biasActivation=0,1,1
[BASIC:ACTIVATION]
"ActivationSigmoid"
"ActivationSigmoid"
"ActivationLinear"
