encog,BasicNetwork,java,3.0.0,1,1406174341268
[BASIC]
[BASIC:PARAMS]
[BASIC:NETWORK]
beginTraining=0
connectionLimit=0
contextTargetOffset=0,0,0
contextTargetSize=0,0,0
endTraining=2
hasContext=f
inputCount=10
layerCounts=1,11,11
layerFeedCounts=1,10,10
layerContextCount=0,0,0
layerIndex=0,1,12
output=0.3640499954972486,0.5842709493238439,0.5886493071028839,0.5865532138895843,0.43106718105398784,0.37507180204479856,0.4491062672406149,0.5821646326818819,0.5267657439578868,0.6170146503393082,0.4991730201068157,1,0.1332538576989304,0.18427383982980983,0.008013799778002983,0.18251885321515782,-0.29485036896226824,-0.4548791985483105,-0.16032732346768253,-0.0365963933351634,-0.25548970150545625,-0.05865136274480176,1
outputCount=1
weightIndex=0,11,121
weights=-0.8072781002910384,-0.09688666758957308,-0.29090261929786515,-0.17493352270949777,-0.6963557913107957,0.1758497900296142,0.20371151176617294,-0.08064611224321838,-0.17038300319928817,0.46800597482088097,0.19451963992027446,0.06928689523364558,-0.10944025596835501,-0.0022093901341128253,-0.2897581938535471,-0.6203655626248231,0.1975837956845904,-0.5905099952216274,0.02602779695061905,-0.25385030382569773,-0.5878965300677145,0.11807168005269528,0.16133757473444288,0.13941109227098533,0.10816428728394799,-0.3698868948042384,-0.33096387699432445,-0.4455567202706959,-0.01981793894901176,0.11262399230298066,-0.45110241520370375,0.20687762701089027,-0.02459305914684222,0.06594109724986419,0.11040777256137804,-0.3525472674697478,-0.41408322988749885,-0.03388500052958949,0.18525126781038304,-0.44465560657392167,0.1716659787128435,-0.42207843045510507,-0.17291097572138894,0.2902953493036891,-0.41779411071029177,-0.4166828590027901,-0.4111622862493436,-0.3173029600184956,-0.023054989432860686,0.2511658366712445,0.09315341778757567,0.25786169422695315,-0.0762047414345815,-0.10041994018774575,0.022631659470408162,-0.569570263824035,0.11176110690429088,-0.365631753033615,-0.40881998133575026,-0.022027338779947524,0.2344744266060843,-0.05780828589232757,-0.3209636384351209,-0.022595302360215983,-0.46166165257034963,-0.3313705808327146,0.41923114159455627,-0.015339239155045517,0.37997928402627484,-0.18558455630776222,-0.33830071984460985,0.06783149372605951,0.12594902832328206,-0.20504073447099969,0.09137391456440945,0.463359352541742,-0.23217422253843392,-0.25276517993722597,0.25951929645950184,-0.22410090907507224,0.2267029734938412,-0.3212938964690568,0.020520896035195853,-0.1502380234408169,0.47803028760070315,0.319411481528939,0.1732626041190358,0.27771969701533766,0.3833119079093664,0.1957442763677388,-0.5338181640701405,0.02886889486577691,-0.19461729663639457,0.07385674553871942,0.272659753631111,0.12824326270394304,-0.2707242894891258,0.09653819827989807,-0.01985833238442411,0.26547843698628915,0.2527746051856621,-0.3877394720278055,0.1895237328953375,-0.40991075375504493,-0.04363912889834809,-0.30053191089516396,0.13144198025540818,0.2498665694725534,-0.09904797341018115,0.237398863509614,0.20278024094168468,0.08167077833794983,-0.09887502375220789,-0.17881301788803927,0.4767124156329185,0.04305239007734148,0.23325508518458682,0.5210856035816503,0.4700991863366399,-0.1526915488359594,0.3158095706336646
biasActivation=0,1,1
[BASIC:ACTIVATION]
"ActivationSigmoid"
"ActivationSigmoid"
"ActivationLinear"
