encog,BasicNetwork,java,3.0.0,1,1406162239410
[BASIC]
[BASIC:PARAMS]
[BASIC:NETWORK]
beginTraining=0
connectionLimit=0
contextTargetOffset=0,0,0
contextTargetSize=0,0,0
endTraining=2
hasContext=f
inputCount=10
layerCounts=1,11,11
layerFeedCounts=1,10,10
layerContextCount=0,0,0
layerIndex=0,1,12
output=0.032793002405240634,0.052307563833237175,0.991727364042731,0.06109775999011141,0.948861021426271,0.9830697392029396,0.3203715964985484,0.07976222660256314,0.19649986399592756,0.9814288749899291,0.08350079368126266,1,-1.3332206335128913,-1.344600090395267,-1.0882463950362729,-1.1151795596563225,-1.262295217483865,-0.24353883924090403,-1.1950989828610088,-1.2136051537022932,-0.9650127246589574,-1.7460797133074155,1
outputCount=1
weightIndex=0,11,121
weights=0.6440790484439519,-1.0731375568126165,0.5894468439560991,-0.7725640760092518,-1.1051731828483518,0.220204611761055,0.48561393825351745,0.33584167450920077,-1.0313647560749932,0.6515220431025565,0.21241140998547522,-0.23182933670059663,0.16732404783616345,0.3724586780757048,-0.1449664592585948,0.19948325518729623,0.3814428912778107,0.4720417232118638,0.07282722072527113,0.3399349361909661,0.6306714733928663,-0.3108543783139582,-0.12664974352559158,-0.5288163049325488,-0.2798596761576311,-0.5510355510782595,-0.0980633483958029,-0.5482652940049106,-0.5318915490487547,-0.1859779699045048,-0.41477968874433463,-0.6473277523987934,0.3383074748450753,0.4732846473829716,0.49506783757697376,-0.05553096924110963,0.025035361921243546,0.4439771263858491,0.18553855286630666,0.02214464649947312,0.12161345307794638,0.13269584365435858,0.5305919182454475,0.3660932716169656,-0.24932817974125268,-0.4002476882189371,-0.4488185143970795,-0.4531024373909566,-0.05696241770570067,0.21511583917370836,0.21282437513633798,-0.5425974296207893,-0.3589399559855826,-0.20387665717400624,-0.06961660287937078,-0.6085938135702484,-0.3185747744369542,-0.06594380290832973,-0.666602452383539,-0.5441842390348127,-0.6137095014089183,-0.36642065251422173,-0.04051449567062772,-0.263734407913653,-0.42462879814630694,-0.31271617437629057,-0.16383067377663596,0.14065649865017296,0.46445075686602943,0.11490205178023354,0.4358518417408321,0.3013014516920583,-0.029286007163068502,0.337029459093332,-0.13989571397984146,-0.3498761060432333,0.10387356247961771,0.30853881949825807,0.15881545202356132,0.2594433372836737,-0.21886127203836178,-0.20915478973487753,0.0190459498966701,-0.004634221523483133,0.5482896445469793,0.5110087313771511,0.36311815889365034,-0.2547644917544628,0.1288066982162007,-0.1739442498231745,-0.14846965988601118,0.3712980574660076,0.40426499803373367,0.31396017865590586,0.04840290573960689,-0.2736722370802021,0.5010921261869159,0.04443049644575416,-0.3443619257663331,-0.6235457943984762,-0.026302177057977875,0.09872902398905475,-0.18459680576899154,-0.04981901216917372,-0.5313475680429034,-0.6279757668763151,-0.3746289952042383,-0.3231989977770306,-0.5584337627798853,0.3178985208149375,0.3175291655652208,-0.2244188551133287,0.01290016982497715,0.034605023476044286,0.5217904414067284,-0.23215076453585937,0.5445175791521281,0.4438703821828435,0.33456765553575685,0.2404182899223326,0.31271031921270437
biasActivation=0,1,1
[BASIC:ACTIVATION]
"ActivationSigmoid"
"ActivationSigmoid"
"ActivationLinear"
