encog,BasicNetwork,java,3.0.0,1,1406162238771
[BASIC]
[BASIC:PARAMS]
[BASIC:NETWORK]
beginTraining=0
connectionLimit=0
contextTargetOffset=0,0,0
contextTargetSize=0,0,0
endTraining=2
hasContext=f
inputCount=10
layerCounts=1,11,11
layerFeedCounts=1,10,10
layerContextCount=0,0,0
layerIndex=0,1,12
output=0.14367646470039366,0.14790555920025436,0.9634465975767916,0.14538054976175135,0.7872242781276096,0.915673188405557,0.4212993766431411,0.18976547526121296,0.32718656793798434,0.8990543311875032,0.23627725535172472,1,-1.3332206335128913,-1.344600090395267,-1.0882463950362729,-1.1151795596563225,-1.262295217483865,-0.24353883924090403,-1.1950989828610088,-1.2136051537022932,-0.9650127246589574,-1.7460797133074155,1
outputCount=1
weightIndex=0,11,121
weights=0.32029584096767055,-0.643877672651657,0.26283183490051043,-0.5243105743355776,-0.6914145958140069,0.07581887638569877,0.26936422801176374,0.14377802519384142,-0.6732504024781079,0.3489008972008292,0.18828376328369872,-0.2964363909101413,0.09738912927377028,0.3103526467916637,-0.268299648968093,0.07569113345628767,0.31543608045138966,0.37052672092572386,-0.03147471221198373,0.2487945214403912,0.4798836233760116,-0.3218625607700994,-0.05173666987805958,-0.44604787233547827,-0.2074050524230554,-0.38789958760806637,0.06923270674376591,-0.46022565153300593,-0.39429042402788256,-0.04447813960920582,-0.29167558397655646,-0.4314455346952154,0.36003025623417007,0.42008082642999517,0.4379846754789661,-0.10829995455223905,-0.0687097019710865,0.34616161270901247,0.1256882961534603,-0.06369280123224771,0.03428310974234682,0.053964690052305066,0.4112358897417207,0.386374816347391,-0.1582272073666183,-0.3022081944007927,-0.3601213236892124,-0.2901024864333617,0.11244864226555369,0.3130994826078871,0.3557106078135373,-0.39674559999045395,-0.22903355876524084,0.0018717916018725841,-0.08038336674318407,-0.5228444910047747,-0.2253541775709656,0.020656126374066504,-0.49416183668732605,-0.37195884485438474,-0.5069322975297552,-0.21587451132937374,0.11279256491177947,-0.125105694225945,-0.20918614378184122,-0.3437884937654063,-0.1899157383603119,0.11287044068468173,0.4393201438212763,0.07211687922855307,0.3911016916625552,0.27614960354180074,-0.06807633271987851,0.2974501334048177,-0.17509206413664877,-0.4043496326972114,0.10521150687623611,0.25186584779472904,0.09748696020574908,0.20451407918494055,-0.3276348819251369,-0.3172491981513742,-0.040905313877701466,-0.09066369870370238,0.4597718933832503,0.43314164898695284,0.23583803446140786,-0.2584865893052494,0.08514446858943185,-0.220090145015178,-0.19039193330333734,0.3038261587275451,0.3337227517768056,0.2739094500284459,-0.013832838184670938,-0.3370424865198955,0.44466876285505963,-0.040216372207322264,-0.35044086390905343,-0.5296581783887545,0.07655819923596538,0.18930761269094065,0.010634225202210194,0.14705472396666766,-0.42890986122746716,-0.47114529214157197,-0.21291196891627956,-0.18257861152036134,-0.31405808370384797,0.3365751860723909,0.24773053479623153,-0.299263562818681,-0.056077750054100234,-0.08695450340810122,0.3962274299806303,-0.30803823319243634,0.43757697072573243,0.3345996332818559,0.2364558112625503,0.08971366425862559,0.33568087944375935
biasActivation=0,1,1
[BASIC:ACTIVATION]
"ActivationSigmoid"
"ActivationSigmoid"
"ActivationLinear"
