encog,BasicNetwork,java,3.0.0,1,1406174341673
[BASIC]
[BASIC:PARAMS]
[BASIC:NETWORK]
beginTraining=0
connectionLimit=0
contextTargetOffset=0,0,0
contextTargetSize=0,0,0
endTraining=2
hasContext=f
inputCount=10
layerCounts=1,11,11
layerFeedCounts=1,10,10
layerContextCount=0,0,0
layerIndex=0,1,12
output=0.3549390801636053,0.6030226912569937,0.592205566621832,0.5942498090854936,0.43735800152932214,0.3962947589445702,0.4426677430260168,0.573638244577235,0.528440451414208,0.6220594589171666,0.48320381173938426,1,0.1332538576989304,0.18427383982980983,0.008013799778002983,0.18251885321515782,-0.29485036896226824,-0.4548791985483105,-0.16032732346768253,-0.0365963933351634,-0.25548970150545625,-0.05865136274480176,1
outputCount=1
weightIndex=0,11,121
weights=-1.0645463546302523,-0.17587181857023965,-0.4550671639597814,-0.3043103809576079,-0.9160355079513909,0.3630084576314391,0.37365326556967426,-0.007772293542127561,-0.17613619646599138,0.7499575884561296,0.2914935897724064,-0.03241528245005303,-0.2125854096993214,-0.10004639445132762,-0.38751541869499134,-0.7331168173957742,0.11469336048350096,-0.711232182712349,-0.09386726435248383,-0.3647565546413257,-0.7167874259296189,0.11641431881322453,0.13738842084341726,0.11502337623037923,0.08539518161557233,-0.3940500579604592,-0.35811805694247173,-0.4631151790271647,-0.04688691521486773,0.08547315596039552,-0.4758161201156579,0.1763756530489479,-0.02703889681106605,0.012202659857216731,0.05546653449925648,-0.4035467875893725,-0.4703064749092491,-0.09776277721511543,0.1426967309961428,-0.5071299555317339,0.10896072237534694,-0.4788412124094408,-0.2449132481365318,0.2808504374233012,-0.4531070730315097,-0.4528383791296243,-0.4448807390685634,-0.35485678504370954,-0.0656278840623926,0.22175165369520727,0.05122021039191186,0.2157906144551983,-0.1147411704243108,-0.14863196627589667,0.01986262361360963,-0.6606042547600239,0.018725192203822235,-0.4535977243364835,-0.5046267140185141,-0.131264461305346,0.15664922754091254,-0.16724501422103052,-0.4301366089456244,-0.12357134889963947,-0.5849835195790247,-0.3164949408485345,0.46313071975591663,0.02979255366299844,0.4218814031263083,-0.13623022167239945,-0.2843993464634482,0.1030446878167223,0.17638761710458395,-0.1540870972365621,0.1375599556018146,0.5220064733699308,-0.2246424350411054,-0.20241740787828524,0.31089191952135126,-0.17591178940458696,0.27812094470468574,-0.2631480453102745,0.05982292600837055,-0.09355059864334338,0.5349001456933359,0.3714208668685919,0.236488469034026,0.28000602613967984,0.3719958222918572,0.18420892066952704,-0.5447743284647408,0.017707822462722952,-0.20720504535867856,0.06477520109183556,0.2601332239762729,0.11563284823543916,-0.28244414512576077,0.08321789804679336,-0.02146843944296587,0.22825144812961234,0.2148095287806466,-0.4236609784110476,0.15241735847961335,-0.4516818814433551,-0.07329812049554457,-0.34221336205477104,0.08950293510584578,0.21102886010949248,-0.14396413151485002,0.23123670734666185,0.27391413551212684,0.1551736183997792,-0.030837416788452872,-0.09176045213648243,0.569798793278767,0.10135731749001287,0.31806995065064175,0.6068022602575845,0.5474219923543899,-0.04496244031049059,0.3092269128420281
biasActivation=0,1,1
[BASIC:ACTIVATION]
"ActivationSigmoid"
"ActivationSigmoid"
"ActivationLinear"
