encog,BasicNetwork,java,3.0.0,1,1406162238919
[BASIC]
[BASIC:PARAMS]
[BASIC:NETWORK]
beginTraining=0
connectionLimit=0
contextTargetOffset=0,0,0
contextTargetSize=0,0,0
endTraining=2
hasContext=f
inputCount=10
layerCounts=1,11,11
layerFeedCounts=1,10,10
layerContextCount=0,0,0
layerIndex=0,1,12
output=0.08639860391798301,0.10410785885423436,0.9787441083418114,0.11087711333443918,0.8751600457930688,0.9532102678850118,0.39113373040932387,0.14089966950494917,0.28033070844594166,0.9473192538088798,0.1668113020457484,1,-1.3332206335128913,-1.344600090395267,-1.0882463950362729,-1.1151795596563225,-1.262295217483865,-0.24353883924090403,-1.1950989828610088,-1.2136051537022932,-0.9650127246589574,-1.7460797133074155,1
outputCount=1
weightIndex=0,11,121
weights=0.4320862327635728,-0.8035031241008185,0.3848320509296885,-0.6073303738782145,-0.8433174212194122,0.13149740758589315,0.345238131674555,0.2057282746925696,-0.7968706682010059,0.45239015149713585,0.19739673577254493,-0.26815315415762786,0.12704237968412838,0.33710030475907493,-0.22838112118227694,0.11693392757238472,0.3377008878484702,0.405474167304769,0.004243620585987063,0.28027656075523927,0.5255165027946918,-0.3192720344470813,-0.08839370810806148,-0.484812783615617,-0.2420053504544081,-0.44369590770701495,0.010610177171862129,-0.4909805750962598,-0.4433312939850743,-0.09466752716507404,-0.3356044513596476,-0.4995048104751038,0.35481520778084424,0.4413101089713166,0.460157088962832,-0.08787042118736942,-0.03991951957086016,0.3765969858076191,0.1438223301829676,-0.036677037113150256,0.06173145893002935,0.07869042832852502,0.4452587483724743,0.38001830667026354,-0.2026087862002368,-0.34863133622166254,-0.4024605705131712,-0.350655296799509,0.04816054443115153,0.27528226664194966,0.29992839332853577,-0.45349219828101706,-0.2798549648396088,-0.06972278151906793,-0.07642433555771624,-0.564339007437675,-0.2688637943421131,-0.019582057301565096,-0.5534856756680907,-0.43381891773722653,-0.5436196742781235,-0.27072536411096043,0.057030860489272917,-0.17540189501718326,-0.2799646502932367,-0.33071333653060103,-0.18093592587801868,0.12221661669964815,0.44784008914943574,0.08376884724201071,0.4034812170719835,0.2831256575589293,-0.057083394811217374,0.3086257816746103,-0.16509412979303806,-0.3904828307250901,0.1047954541144958,0.27680649856749445,0.12368549448600229,0.2283092072633632,-0.291820826572608,-0.2803812938275465,-0.020106392274328495,-0.06006727626717079,0.4910935822764086,0.4609363806043779,0.27577348695694326,-0.2577432562026158,0.10170887269924303,-0.20293080988167506,-0.17463192860183452,0.3243007458738732,0.35559828561932094,0.286553944371074,0.005959212680538091,-0.31696459466316934,0.46273307670691993,-0.016189737163390564,-0.34908745361015014,-0.5772340123855728,0.026344148986961656,0.14432328601746786,-0.06082139560614601,0.07323459265755283,-0.4674222951783073,-0.5316596255526955,-0.27499226650840014,-0.2369505174353348,-0.39705009342313646,0.33200958976432277,0.27817317771071065,-0.26746165773739666,-0.026790213495442427,-0.045937612808159486,0.43929031630962084,-0.28193706858131806,0.47497832119467853,0.37272586566702387,0.27066854997132117,0.13710551061959902,0.3288926365273129
biasActivation=0,1,1
[BASIC:ACTIVATION]
"ActivationSigmoid"
"ActivationSigmoid"
"ActivationLinear"
