encog,BasicNetwork,java,3.0.0,1,1406174341837
[BASIC]
[BASIC:PARAMS]
[BASIC:NETWORK]
beginTraining=0
connectionLimit=0
contextTargetOffset=0,0,0
contextTargetSize=0,0,0
endTraining=2
hasContext=f
inputCount=10
layerCounts=1,11,11
layerFeedCounts=1,10,10
layerContextCount=0,0,0
layerIndex=0,1,12
output=0.34235697652844066,0.6142666073595139,0.5948522010045741,0.5991976335846608,0.441900778791033,0.4093135907421208,0.43773751454382925,0.5668681342698667,0.5283158939785391,0.624629113968108,0.4724222303835407,1,0.1332538576989304,0.18427383982980983,0.008013799778002983,0.18251885321515782,-0.29485036896226824,-0.4548791985483105,-0.16032732346768253,-0.0365963933351634,-0.25548970150545625,-0.05865136274480176,1
outputCount=1
weightIndex=0,11,121
weights=-1.2185973705628523,-0.2277608535250525,-0.5578158199056424,-0.37775401290717775,-1.0486286125037458,0.48460942903899074,0.49330282974214895,0.02753455415018504,-0.2010185447597377,0.9197249182749001,0.3463563031583022,-0.08067445984519156,-0.2617747519366703,-0.14752465998610692,-0.44014783911501293,-0.7941341089780144,0.06848427220612731,-0.7794398717038115,-0.16086634507951114,-0.4275801347403659,-0.7975619935316473,0.11591682384328057,0.12154838530476529,0.09881015641856135,0.07027717853200542,-0.4120435947106989,-0.3781232268407066,-0.47598015088247697,-0.06675044287033367,0.06566251145701661,-0.4938245855230228,0.15166318860075664,-0.02927533885805834,-0.017222158203263283,0.02516026756016694,-0.43161408675242247,-0.5058459749015333,-0.13807906890479682,0.11643481874412454,-0.5467281890348529,0.06951923297461406,-0.5145156789166652,-0.2964508899289474,0.2738659576353386,-0.47448872671730247,-0.4749008386817259,-0.4654310947892408,-0.3809339141114117,-0.09518984022287971,0.20167324929845265,0.022265560559793077,0.18693740141558407,-0.1411168557266822,-0.18589572717724098,0.017669637079656356,-0.7040158420532189,-0.025982725703613742,-0.4966865982983965,-0.5571739454480822,-0.19153604127429802,0.11238961048870971,-0.22907619190930859,-0.49113991590032374,-0.18086224518128427,-0.6619150912848868,-0.307610380333993,0.491876249096269,0.059617925267932956,0.44940065418396125,-0.0980691094373336,-0.2434306034653043,0.12911418334127908,0.2139449103720486,-0.11637776375911553,0.17158270565441863,0.5715445379707816,-0.21822428344869085,-0.17091433681530888,0.3432221454145788,-0.14560019858463608,0.31437549182745617,-0.22210078277194856,0.08721666243760887,-0.05357659947261886,0.5747074866654508,0.40783266361735826,0.2859678741319552,0.27999840369481516,0.3727152179161202,0.18494726696798863,-0.5440703297869495,0.018514859216848478,-0.20628858331498617,0.06542497550665802,0.26104362765382133,0.11654237071258088,-0.2815987850270275,0.08431678929749277,-0.02132767245816615,0.21072435726141905,0.1968584666914181,-0.44053963395724377,0.13319870007495904,-0.4733363525484598,-0.08813031114020223,-0.36380449281236465,0.06790530911286444,0.1911596552009432,-0.16961718580526794,0.22750320214596145,0.31197596833969715,0.19499991748850412,0.00650773683833613,-0.03484241548181556,0.6298387985140127,0.13972198044817322,0.3723338539894177,0.6611517602097309,0.597102124972996,0.033331026670508634,0.30604295627990274
biasActivation=0,1,1
[BASIC:ACTIVATION]
"ActivationSigmoid"
"ActivationSigmoid"
"ActivationLinear"
