encog,BasicNetwork,java,3.0.0,1,1406162239174
[BASIC]
[BASIC:PARAMS]
[BASIC:NETWORK]
beginTraining=0
connectionLimit=0
contextTargetOffset=0,0,0
contextTargetSize=0,0,0
endTraining=2
hasContext=f
inputCount=10
layerCounts=1,11,11
layerFeedCounts=1,10,10
layerContextCount=0,0,0
layerIndex=0,1,12
output=0.04819974674367852,0.06867876740744529,0.988152903639161,0.0778437974599723,0.9282472521002373,0.9750920867957111,0.3489630768717735,0.09982146781844771,0.22809150556590427,0.9726114638463296,0.11009540112210123,1,-1.3332206335128913,-1.344600090395267,-1.0882463950362729,-1.1151795596563225,-1.262295217483865,-0.24353883924090403,-1.1950989828610088,-1.2136051537022932,-0.9650127246589574,-1.7460797133074155,1
outputCount=1
weightIndex=0,11,121
weights=0.559646627236634,-0.9690444725213444,0.512378073941941,-0.7074301912650549,-1.0042848019329869,0.1877499591026618,0.43099549960366046,0.282583485813489,-0.9376918083305551,0.5727802309553268,0.20813571359001817,-0.2423528382717483,0.15498488737735988,0.36173869260684455,-0.1789442591728447,0.1664405324053261,0.36340386805509745,0.44538972261393656,0.04531955272468232,0.3159581486851924,0.5855627507283805,-0.3145476668051007,-0.11773706171978718,-0.5172903190023509,-0.27019105116076014,-0.5084553830987188,-0.05569651924675634,-0.5249362078431343,-0.49683883416600993,-0.14976924554184076,-0.38326677642805035,-0.5848826455860939,0.3453939079579212,0.46320892394878105,0.48363680174649265,-0.06627179889576224,-0.001526907297917835,0.41655175113434717,0.16772315336619265,-0.0021806995766366867,0.09687239895291126,0.11025353405519595,0.4935989875881363,0.3719008743890782,-0.2364740913200385,-0.38524040828687073,-0.4353246452854366,-0.4136187710334348,-0.017035625659888136,0.23863104691465017,0.2460970055197723,-0.5085400508056552,-0.32859449272197705,-0.1492211170004931,-0.07228855799001592,-0.5975379847488654,-0.3050354991300521,-0.05302012937944234,-0.6213238074969425,-0.50157198932053,-0.5847439616123892,-0.328957681476905,-0.0023487375722326623,-0.22890677195556355,-0.3646263504797513,-0.3191327835823907,-0.16983524341100248,0.13401862918216853,0.45847197385117466,0.10166435275126284,0.4221735675545321,0.2934116394747409,-0.04106937970128609,0.32498060767068576,-0.1506044896771189,-0.367968806066758,0.10432070797585587,0.29910200951796245,0.1478491774194057,0.24979257555791917,-0.24860711436110527,-0.23748791303999126,0.003081043999507143,-0.026476591219033316,0.5257168827158726,0.4912147342291498,0.32621058565343886,-0.25608933567939757,0.11948706530258667,-0.18415702219995111,-0.15765464466070642,0.3515269315587781,0.3840625553165829,0.3023716405624874,0.030795229804714584,-0.29165666372649096,0.4851733398486457,0.017734597759991776,-0.3465341508498781,-0.6123963020687244,-0.012381756764400571,0.11058090213315384,-0.13683848358927597,-0.0030297666129561612,-0.5059380194027875,-0.5910341165808249,-0.3363708475353518,-0.28993611911435485,-0.49204338144916054,0.32394734431153116,0.3056290400551902,-0.2379834623280134,0.00021127954600111182,0.0024602754269251836,0.48912695223708275,-0.25259241470364757,0.5167046295522723,0.41542358831295445,0.3088258647924039,0.19676027112843544,0.3198448797220706
biasActivation=0,1,1
[BASIC:ACTIVATION]
"ActivationSigmoid"
"ActivationSigmoid"
"ActivationLinear"
