encog,BasicNetwork,java,3.0.0,1,1406162239183
[BASIC]
[BASIC:PARAMS]
[BASIC:NETWORK]
beginTraining=0
connectionLimit=0
contextTargetOffset=0,0,0
contextTargetSize=0,0,0
endTraining=2
hasContext=f
inputCount=10
layerCounts=1,11,11
layerFeedCounts=1,10,10
layerContextCount=0,0,0
layerIndex=0,1,12
output=0.04734403528454708,0.06780677035147055,0.9883551901228208,0.0769753380364312,0.929401783930406,0.9755495204467124,0.34762666689633814,0.09877544331450337,0.22655981681370815,0.9731220803453237,0.10868561745114601,1,-1.3332206335128913,-1.344600090395267,-1.0882463950362729,-1.1151795596563225,-1.262295217483865,-0.24353883924090403,-1.1950989828610088,-1.2136051537022932,-0.9650127246589574,-1.7460797133074155,1
outputCount=1
weightIndex=0,11,121
weights=0.5635599251918637,-0.9739498904779358,0.5160941319172561,-0.7104906002111622,-1.0090624878793324,0.18934788018525894,0.43357259933230574,0.2850196671473799,-0.9420178590071493,0.5764603628667614,0.2084001192422783,-0.24172535253644903,0.1556891982198793,0.36235257629957934,-0.1773790936794568,0.16798025650110138,0.3642137641850939,0.44661711914639685,0.046585900639302645,0.3170567699577833,0.5875549874780784,-0.3143811585885669,-0.11836547771734077,-0.5180295352331352,-0.27082001666597627,-0.5104475517036964,-0.05770315267101011,-0.5259899610754931,-0.49846021082279907,-0.15144302883078933,-0.38471516592726085,-0.5876648622029363,0.34506866674625764,0.46377686647882355,0.48426214615138496,-0.06569256080715849,-0.0002972227029093802,0.41782321763350794,0.16851018542854443,-0.0010787705914060669,0.09799479790446675,0.11126537302137131,0.4952295765550808,0.3716393921747639,-0.2372496769148658,-0.3861093637714126,-0.4361022030170919,-0.4154912140407255,-0.018946497175906317,0.2375430297271259,0.24453020128614292,-0.5101444481768983,-0.33001657997797945,-0.15170502435653463,-0.07216706946503572,-0.5982706906258698,-0.3058733485077243,-0.05380228279158736,-0.6234199656551631,-0.5035992895730214,-0.5860388248596681,-0.330703127813183,-0.00412900087773799,-0.23051901590376367,-0.36733071611357393,-0.31881904415039913,-0.16952068089983466,0.13435959473110712,0.4587781915562023,0.10226333275047385,0.4227944153517222,0.29375813453482297,-0.04054076593879228,0.3255212349348933,-0.15012574699502235,-0.36718212267774913,0.10430365005972504,0.29964952771769243,0.1484622408143354,0.25033261235176785,-0.24724313639954318,-0.23616542621210856,0.0038027997268531635,-0.025460429073582688,0.5267668670038272,0.49213155441190043,0.32785628553246193,-0.2560297717231815,0.11997770877779196,-0.18362943781410435,-0.15718035268878483,0.3524183551983821,0.3849823104281129,0.3028853762135327,0.03159064384029582,-0.2908446268488422,0.48589088893477494,0.01889440029517361,-0.34644083007572657,-0.6131473337078485,-0.013253502027222908,0.1098333683787182,-0.13910675392546953,-0.005271479643471126,-0.5070985465689862,-0.5927694160060358,-0.33816853098399086,-0.291488898866406,-0.4950440043545145,0.3236695025161375,0.3063110244455861,-0.2372302676526848,0.0009054656355639688,0.0039615768479552595,0.49065862359520507,-0.2516718016441689,0.5179846304042199,0.41673413320495833,0.310002648234882,0.19870703864028544,0.3195384431242765
biasActivation=0,1,1
[BASIC:ACTIVATION]
"ActivationSigmoid"
"ActivationSigmoid"
"ActivationLinear"
