encog,BasicNetwork,java,3.0.0,1,1406162238713
[BASIC]
[BASIC:PARAMS]
[BASIC:NETWORK]
beginTraining=0
connectionLimit=0
contextTargetOffset=0,0,0
contextTargetSize=0,0,0
endTraining=2
hasContext=f
inputCount=10
layerCounts=1,11,11
layerFeedCounts=1,10,10
layerContextCount=0,0,0
layerIndex=0,1,12
output=0.18073429305768077,0.17178540519618252,0.9530447008157847,0.16086349830354302,0.7230594117856206,0.8889023436746032,0.43048164113484017,0.21656190704601355,0.3476547375004942,0.8598146190372905,0.2748008225550123,1,-1.3332206335128913,-1.344600090395267,-1.0882463950362729,-1.1151795596563225,-1.262295217483865,-0.24353883924090403,-1.1950989828610088,-1.2136051537022932,-0.9650127246589574,-1.7460797133074155,1
outputCount=1
weightIndex=0,11,121
weights=0.27033161047703164,-0.5637680541459976,0.20413061063120966,-0.4927670133497955,-0.6175886687632763,0.048553161630828304,0.23662051258956682,0.11833582206369583,-0.618482857955098,0.3049754083456208,0.18660417434646662,-0.3100343210154563,0.08330082003239922,0.29744097268528225,-0.2850551576868148,0.0580434302301291,0.30535372191728866,0.35493587214467753,-0.047332052858237036,0.2346008369861745,0.4612375308212593,-0.3224379219538552,-0.032760618952497586,-0.42628176252365374,-0.1894572278375435,-0.363175461724253,0.09561694815996712,-0.44566661290045695,-0.3713605164249509,-0.021125138370769,-0.27094517070645463,-0.40236209220186236,0.36111582420578175,0.41125838844961066,0.42886468291119095,-0.11675551457259856,-0.07933058959000065,0.33480119852589385,0.11871918790863209,-0.07410201136701397,0.023737956416164573,0.04439421277836488,0.3990022992992461,0.38891657396072843,-0.13166379687788443,-0.2747731694035114,-0.3346474646248298,-0.2588054532132853,0.14617294397352662,0.33457071239352093,0.38640270493277423,-0.36565727277519555,-0.20069056928047244,0.037580505144574894,-0.08213207035250913,-0.5007111368745093,-0.20244925007396655,0.04194059384530114,-0.466951615825368,-0.3429809108342291,-0.48940051638654075,-0.18929362211422152,0.1397302699893258,-0.10067076621831804,-0.17735308228980948,-0.350886743779952,-0.1927885943950283,0.10990706180828773,0.4365908450768964,0.06876142016475029,0.38749264157691665,0.27403064907881575,-0.0713880913141194,0.2940957481943515,-0.17812615715229102,-0.40824857332571246,0.10540364986178294,0.23930266142744455,0.08444961055868654,0.19247492364012833,-0.3433578513637311,-0.33376894776813715,-0.05080833229986373,-0.10501695161114734,0.4451530709326223,0.41996367486946096,0.21868557652919327,-0.2585085105559306,0.07790864671340879,-0.22752925851506187,-0.19730755262809482,0.2957113454846565,0.3249433793142062,0.2685746406876658,-0.022016190506469722,-0.34531898383304055,0.4371210585883581,-0.04947036930732855,-0.3507399628023985,-0.5017139738071689,0.10559905399880325,0.21584274706796633,0.04616922261800656,0.1845550193103461,-0.4080459635763001,-0.4387781680848306,-0.17992775652933765,-0.15315567412129194,-0.27413022161442174,0.337614140381487,0.2323656932079323,-0.3151473028682487,-0.07084817548132859,-0.10524997043179579,0.3767608554221513,-0.3204736193774351,0.42004002610211405,0.31678370107060844,0.22029682160840666,0.06917581643063112,0.33852608515668514
biasActivation=0,1,1
[BASIC:ACTIVATION]
"ActivationSigmoid"
"ActivationSigmoid"
"ActivationLinear"
