encog,BasicNetwork,java,3.0.0,1,1406174341854
[BASIC]
[BASIC:PARAMS]
[BASIC:NETWORK]
beginTraining=0
connectionLimit=0
contextTargetOffset=0,0,0
contextTargetSize=0,0,0
endTraining=2
hasContext=f
inputCount=10
layerCounts=1,11,11
layerFeedCounts=1,10,10
layerContextCount=0,0,0
layerIndex=0,1,12
output=0.3404986734332284,0.615593732055859,0.595173380354196,0.5997831914249707,0.4424449985052832,0.4108261947554381,0.43713604936962414,0.5660211973372921,0.5282665153478968,0.6249197401677148,0.47115206450648917,1,0.1332538576989304,0.18427383982980983,0.008013799778002983,0.18251885321515782,-0.29485036896226824,-0.4548791985483105,-0.16032732346768253,-0.0365963933351634,-0.25548970150545625,-0.05865136274480176,1
outputCount=1
weightIndex=0,11,121
weights=-1.2356150399345336,-0.23383970949353755,-0.5693916401655004,-0.38566282862456736,-1.0631903205807243,0.4983159904128952,0.5070450630994846,0.03128485212968222,-0.2045346748885971,0.9382838689675947,0.3520583456473281,-0.08535006852197939,-0.2665514496427693,-0.15224219524668933,-0.44565778021720875,-0.8005674499155409,0.06337802197286718,-0.7869892581535688,-0.168220440100826,-0.4345830942567065,-0.8069400755961672,0.11602986076874551,0.11982809078930637,0.09704430877326264,0.06862211956699689,-0.41414705646573224,-0.3804500279599236,-0.47750355386558924,-0.06908617826500943,0.0633444154074367,-0.49594258868548985,0.1486037904601518,-0.02954957707953023,-0.020194411767241984,0.02208564498033429,-0.43448469328993033,-0.509767702871701,-0.14253899178908175,0.11348263648195961,-0.5512077805978965,0.06508586823664764,-0.5185574906417553,-0.3026356383054087,0.27307245233255495,-0.4767066887597669,-0.4771993958949068,-0.4675879309282237,-0.38386514642214586,-0.0985266446131332,0.1993712659911755,0.018945865052307897,0.1836490549601364,-0.1441418131077954,-0.1904077006075989,0.017426393520414328,-0.708235378193285,-0.03034530771538849,-0.5009825679487788,-0.5627125756198438,-0.1979415701178231,0.10747820685494705,-0.23590020112887047,-0.4978145862880333,-0.1872242019413351,-0.6707946931965354,-0.3065535025114862,0.49489804154278694,0.06276993483882409,0.452324269189921,-0.09362568551211316,-0.238692542352382,0.13216632021879024,0.21832141250472348,-0.11201047571549023,0.17554700319568903,0.5776931690434489,-0.21746601226833692,-0.16757833606023423,0.34665660657365654,-0.142350436678053,0.3184979641208943,-0.21741441065973566,0.09042383667806744,-0.048931219793366336,0.5793052920312048,0.41207407710982485,0.29201487502539464,0.27988586730028964,0.3729914402875605,0.1852306949561566,-0.5437999298402705,0.018827952384812184,-0.20593234045538597,0.06567972124872273,0.2614001164647809,0.1168978365420812,-0.28126793228393887,0.08475152366466704,-0.021273061992147565,0.20893381455621898,0.1950207553648897,-0.44227298467190623,0.13112712343209293,-0.4756810390913389,-0.08974661397271967,-0.3661726589077851,0.06554766275674853,0.1889848402343493,-0.17257269792205518,0.22709063570322963,0.31571453284506307,0.1989419677661293,0.01027262820869087,-0.028514653355053814,0.6364966005685854,0.14414217856609085,0.37846094907447386,0.6672375533009686,0.602746367356856,0.04271735201918584,0.30570769731867947
biasActivation=0,1,1
[BASIC:ACTIVATION]
"ActivationSigmoid"
"ActivationSigmoid"
"ActivationLinear"
