encog,BasicNetwork,java,3.0.0,1,1406174341830
[BASIC]
[BASIC:PARAMS]
[BASIC:NETWORK]
beginTraining=0
connectionLimit=0
contextTargetOffset=0,0,0
contextTargetSize=0,0,0
endTraining=2
hasContext=f
inputCount=10
layerCounts=1,11,11
layerFeedCounts=1,10,10
layerContextCount=0,0,0
layerIndex=0,1,12
output=0.3429758283724361,0.6138129678799582,0.5947425794768652,0.598997432407386,0.44171470005649005,0.408794789557833,0.43794261285773173,0.5671560764640907,0.5283313835552196,0.6245292346206739,0.4728573699532846,1,0.1332538576989304,0.18427383982980983,0.008013799778002983,0.18251885321515782,-0.29485036896226824,-0.4548791985483105,-0.16032732346768253,-0.0365963933351634,-0.25548970150545625,-0.05865136274480176,1
outputCount=1
weightIndex=0,11,121
weights=-1.21270776151553,-0.22567440887819928,-0.553820158469083,-0.3750053140557226,-1.0435827357625536,0.47987548354007187,0.4885670167714108,0.026231228882421236,-0.19983561870832303,0.9132892721331445,0.34436365857827617,-0.07902243026377648,-0.2600874901631389,-0.14586551801854813,-0.4382241408042491,-0.7918910157174086,0.07024916778228121,-0.7768306349556529,-0.15832111607389596,-0.4251630217568894,-0.7943416504551831,0.11588932159946953,0.12214690258914189,0.0994242706160005,0.07085206489460918,-0.4113201398536912,-0.3773223900697716,-0.4754579531912679,-0.06594859292068372,0.06645898817139885,-0.4930976889711401,0.1527056671872437,-0.029181517782545564,-0.016177599451912647,0.02624010777306901,-0.4306077822873835,-0.5044864524592867,-0.13653388913627484,0.11745349289486047,-0.5451833974282945,0.07104974376410354,-0.5131226495647409,-0.29433560788541574,0.27414065232260154,-0.47371189682486053,-0.4740962847947825,-0.4646774078689629,-0.3799196368760225,-0.09403628708492118,0.202465983996709,0.023409081312814637,0.18807129074804788,-0.14007522022227425,-0.1843532667485234,0.017754315777615572,-0.7025259939794148,-0.024443192141640754,-0.4951765931559556,-0.555242066302954,-0.1893052591313022,0.11408647650067522,-0.2267165502280168,-0.48882860796227057,-0.17866485367722962,-0.6588629975910976,-0.30797058384972753,0.49081885751736276,0.058515831404248146,0.44837989553123425,-0.09959949386459853,-0.24506380338624273,0.12806585786959718,0.21244002713533117,-0.11788113115817213,0.1702200295817726,0.56944909103166,-0.2184852721615871,-0.1720795202316834,0.34202310640998124,-0.14673247905436973,0.3129511402415095,-0.22371854345825662,0.08611564504907787,-0.05517394835979652,0.5731248248797262,0.40637521722265707,0.28390318288803346,0.28003119602458837,0.3726272152561888,0.18485698511178777,-0.5441563691774374,0.0184157138744563,-0.20640127274405132,0.0653446415514138,0.2609311530709591,0.116430135959232,-0.281703151556807,0.08418038785327263,-0.02134493962268334,0.2113507169674793,0.19750115052754486,-0.43993399717849935,0.13391771260106583,-0.4725233282853227,-0.08757121901050141,-0.3629856652640824,0.06872115426474093,0.19191164499166402,-0.16860228121118126,0.2276460881742635,0.3106555641743183,0.193609262138053,0.005184337920506425,-0.037034629080107254,0.6275320290846589,0.13820174342381092,0.3702198230348196,0.6590489539905102,0.5951569481952176,0.03011903184398216,0.30615874965872797
biasActivation=0,1,1
[BASIC:ACTIVATION]
"ActivationSigmoid"
"ActivationSigmoid"
"ActivationLinear"
