encog,BasicNetwork,java,3.0.0,1,1406174341194
[BASIC]
[BASIC:PARAMS]
[BASIC:NETWORK]
beginTraining=0
connectionLimit=0
contextTargetOffset=0,0,0
contextTargetSize=0,0,0
endTraining=2
hasContext=f
inputCount=10
layerCounts=1,11,11
layerFeedCounts=1,10,10
layerContextCount=0,0,0
layerIndex=0,1,12
output=0.3649855629930161,0.58029805395777,0.5881254758541262,0.5851399492868289,0.430113035540502,0.37085105271893887,0.450008801565457,0.5834676212839425,0.5260009845797026,0.6157380934987889,0.5019036353521626,1,0.1332538576989304,0.18427383982980983,0.008013799778002983,0.18251885321515782,-0.29485036896226824,-0.4548791985483105,-0.16032732346768253,-0.0365963933351634,-0.25548970150545625,-0.05865136274480176,1
outputCount=1
weightIndex=0,11,121
weights=-0.7595232411544777,-0.08148989004724397,-0.2604920902072682,-0.14852769350365141,-0.6565295762956216,0.14345914720522313,0.1780783992009986,-0.0987535547079225,-0.1766609755754872,0.4169933440244481,0.1776389396244303,0.09216578109382317,-0.08630745212276118,0.019771451215857105,-0.2691924985153238,-0.5966254632152386,0.2155366864017465,-0.56510042505337,0.051353473640620435,-0.23035283426726755,-0.5624763637531495,0.11815752038179667,0.16487893852959185,0.14300709218910232,0.11153803985022726,-0.36652523438910034,-0.3271609593420008,-0.4430396167269283,-0.015974190859149914,0.11648566811155073,-0.4475659481299529,0.21097041619325543,-0.024363696527605314,0.07588804917100828,0.120538037363023,-0.343056540685465,-0.40441362303115763,-0.022867296538336555,0.1929381791895195,-0.43371063387630443,0.18267420312780183,-0.41201717538046173,-0.16118168001754699,0.29159874190862095,-0.41222425124900197,-0.41100454637640654,-0.40582858065684796,-0.3118050076522122,-0.01680370289738695,0.25564565959795066,0.09943352287075613,0.26417330721516563,-0.07037274297120757,-0.09367942452239159,0.022909471962711984,-0.5493187675834585,0.13236523581982904,-0.3461934082927322,-0.3891062274754408,0.00047791324473045807,0.250788162043772,-0.035007010512854035,-0.29814307336423895,-0.0014939098899244638,-0.4375317877052215,-0.3343144048679915,0.41301487491574773,-0.02169695225521179,0.37401554131900155,-0.1919786635867329,-0.34536703854548567,0.063011454912002,0.1191425430138498,-0.21192301163234922,0.08506567428270101,0.4560205276477385,-0.23297352082574366,-0.2610764384452384,0.2510646843160336,-0.23210046225083075,0.21872732256423827,-0.3303202808264029,0.014133574839194986,-0.15919135494237935,0.4690254257311291,0.3110998720985743,0.16389271348990997,0.27725896885153595,0.38839088021402457,0.20091317191008234,-0.5288903279190786,0.03372473963850215,-0.18913576191923936,0.07789169358457856,0.27816231474508607,0.13378666527756977,-0.26554892208345443,0.10220638895342116,-0.019289544356481444,0.2745474099906947,0.2620041327448269,-0.378950873592107,0.19817963579878237,-0.40014648740646097,-0.036454732424728076,-0.2907148679544748,0.14133590283954278,0.2590889812935181,-0.08893754021494082,0.23847290669005491,0.1895755842438414,0.06811585581738144,-0.11142472360930336,-0.1933398555881221,0.4609775360521395,0.03301965747955359,0.2185542755696358,0.5062050227990662,0.4566772002917102,-0.1699403546329969,0.31719597439628744
biasActivation=0,1,1
[BASIC:ACTIVATION]
"ActivationSigmoid"
"ActivationSigmoid"
"ActivationLinear"
