encog,BasicNetwork,java,3.0.0,1,1406162238857
[BASIC]
[BASIC:PARAMS]
[BASIC:NETWORK]
beginTraining=0
connectionLimit=0
contextTargetOffset=0,0,0
contextTargetSize=0,0,0
endTraining=2
hasContext=f
inputCount=10
layerCounts=1,11,11
layerFeedCounts=1,10,10
layerContextCount=0,0,0
layerIndex=0,1,12
output=0.10152796904285412,0.11660833359400075,0.9748279284438955,0.12146539608618648,0.8530617589927852,0.9438109152508066,0.40173966364904995,0.15494795374108197,0.29525023688153507,0.9358666823722209,0.18663266031203216,1,-1.3332206335128913,-1.344600090395267,-1.0882463950362729,-1.1151795596563225,-1.262295217483865,-0.24353883924090403,-1.1950989828610088,-1.2136051537022932,-0.9650127246589574,-1.7460797133074155,1
outputCount=1
weightIndex=0,11,121
weights=0.3966482682842238,-0.7549302271304785,0.3472853354066482,-0.5800530373232121,-0.7965743259666765,0.11452200506644307,0.3210711934636754,0.1854497533525344,-0.757706555619128,0.4191510132289661,0.19414038537353817,-0.2767095583270061,0.11800580219147136,0.3290129461292813,-0.24141014789192636,0.10359911083421683,0.33066158566662196,0.3943901889338129,-0.0071122004882305054,0.2703330261112069,0.5104056775965105,-0.32027139212270855,-0.07771394537424914,-0.4734083078502479,-0.2319174697416633,-0.42590696710720394,0.029157689697245227,-0.48143369728485197,-0.428072853360722,-0.07901620854457503,-0.32198556026959624,-0.47737744505975493,0.35683974365493665,0.43455970940694844,0.4530648898758143,-0.09439025418347173,-0.04967203002825225,0.3663413479155007,0.13776385225029583,-0.0456612770011747,0.05259213206482136,0.0704788537544624,0.43357257847811675,0.3821194874031069,-0.19024130338574033,-0.3355896883496569,-0.39065433661435756,-0.332296700569,0.06749759628004559,0.2863353137305195,0.3163436877208398,-0.43675686511066036,-0.2649654438575318,-0.047628216764214186,-0.07765702843551049,-0.5523437667329549,-0.2561792824975746,-0.007874090242755776,-0.5347602712498015,-0.41451314875300405,-0.5322167814504238,-0.2538594686170032,0.0742005764766106,-0.15994569985978718,-0.2573717627666834,-0.33450580170183614,-0.18401094336351817,0.11900090113641462,0.44492155603565103,0.0795654912425628,0.399038960621966,0.2806588915992094,-0.06097489437305416,0.30466326899659985,-0.16862397630878265,-0.3955456886496597,0.1049214025052535,0.26936580010685385,0.11581181746459379,0.22121412831135406,-0.30335545080761345,-0.29213268204153725,-0.026580407220080718,-0.06961310262021364,0.4812971351531619,0.4523006894499962,0.26276135036311155,-0.258067367320555,0.09645084570071098,-0.20840163534545145,-0.17962858324846182,0.31745105561009707,0.3483248597660494,0.2824322179122845,-0.000533185694279853,-0.3235605574374323,0.45683289710077035,-0.024346357549396232,-0.349612439219903,-0.5639666252035934,0.04048771368731821,0.15686782407483504,-0.038891671620177495,0.09566196515836384,-0.4560002474085121,-0.5136937166147979,-0.2565029181980394,-0.2208785822294688,-0.3711059244658126,0.33375711708016415,0.26908213411902115,-0.2770198106037617,-0.03555784590435166,-0.05906426540817703,0.42559715066556236,-0.2900686168304361,0.46327628883619465,0.36077777319411347,0.2599863333839717,0.12169929849509324,0.3311373498134286
biasActivation=0,1,1
[BASIC:ACTIVATION]
"ActivationSigmoid"
"ActivationSigmoid"
"ActivationLinear"
