encog,BasicNetwork,java,3.0.0,1,1406162238481
[BASIC]
[BASIC:PARAMS]
[BASIC:NETWORK]
beginTraining=0
connectionLimit=0
contextTargetOffset=0,0,0
contextTargetSize=0,0,0
endTraining=2
hasContext=f
inputCount=10
layerCounts=1,11,11
layerFeedCounts=1,10,10
layerContextCount=0,0,0
layerIndex=0,1,12
output=0.24702546035035766,0.20732445352885376,0.9345739481677355,0.17839284321926405,0.595176363785433,0.8383123080045413,0.435936154834339,0.2586194766152112,0.37402842684723503,0.7710517285253217,0.33553000578441655,1,-1.3332206335128913,-1.344600090395267,-1.0882463950362729,-1.1151795596563225,-1.262295217483865,-0.24353883924090403,-1.1950989828610088,-1.2136051537022932,-0.9650127246589574,-1.7460797133074155,1
outputCount=1
weightIndex=0,11,121
weights=0.20530709356854127,-0.4426145833841526,0.12106857672558657,-0.4665535806267812,-0.510441972081417,0.009629985095285279,0.19775386835162426,0.0884552031365333,-0.5513582449385596,0.2535101510652636,0.1921842000277882,-0.32840745832583823,0.0643728537760656,0.2798997117984649,-0.3061248100331826,0.03559789553524949,0.29191737951493113,0.3345472597967019,-0.06801348291853457,0.2158659854536197,0.4381269466559123,-0.3225753038474145,-0.006011874268579137,-0.3986230293716143,-0.16405041774849458,-0.3311279662331115,0.1301591759528742,-0.42574527269533785,-0.340475192817614,0.010226934359366235,-0.24278998026748647,-0.36540237834587924,0.3611786973965837,0.40173569862581965,0.4190691668875965,-0.12588589994303134,-0.09010570238561816,0.32319278015152864,0.11139534454678111,-0.08497458159842898,0.0127435136722843,0.03435052958853506,0.38673932289322016,0.3917623171377042,-0.08575745434077098,-0.22765865005894417,-0.29028896955627786,-0.20896057040881227,0.20032965466120095,0.3707589557184679,0.4373484325918526,-0.31416421699956304,-0.15304207785588056,0.09309465168736261,-0.08453581037472414,-0.4677715578723841,-0.16858562609393998,0.07353749007248331,-0.4296795666604728,-0.30280006612641575,-0.46450091015448697,-0.15145905801990492,0.17798292853362027,-0.06577944291730731,-0.1341649309496967,-0.36183715429919083,-0.19453301964317032,0.10811487844342586,0.43493002680321,0.06682322367439406,0.3853941894641884,0.27276254913607456,-0.07335148598996875,0.2921110219334775,-0.1799344144521794,-0.4104782341448212,0.10556307481510672,0.22096691348753525,0.0655423666076164,0.17479175618321036,-0.36459118712856337,-0.356354075454652,-0.06509257831242446,-0.1252915257905595,0.4245684684074413,0.4011632169451786,0.1957944209059755,-0.25795209621066395,0.0686301303654011,-0.23703371466330164,-0.2062198594424883,0.28582316293001353,0.3141713220456969,0.2617617184705101,-0.03225378123143514,-0.3556573939617206,0.42759821528946557,-0.060567569868143385,-0.3508295668371701,-0.4543903158664639,0.1543753057288496,0.261154180153563,0.10059036475180291,0.24287344713990658,-0.37333869250639734,-0.38625484815822214,-0.12664167599914922,-0.10476593249009222,-0.2141491705290721,0.33773406571872916,0.20974735192805272,-0.33840852574482266,-0.09266045822054134,-0.13041246689359262,0.3497563635468297,-0.33845818021740404,0.3950465148892027,0.29144415123219625,0.19706562998906352,0.04137240756198521,0.3423625496065434
biasActivation=0,1,1
[BASIC:ACTIVATION]
"ActivationSigmoid"
"ActivationSigmoid"
"ActivationLinear"
