encog,BasicNetwork,java,3.0.0,1,1406174341488
[BASIC]
[BASIC:PARAMS]
[BASIC:NETWORK]
beginTraining=0
connectionLimit=0
contextTargetOffset=0,0,0
contextTargetSize=0,0,0
endTraining=2
hasContext=f
inputCount=10
layerCounts=1,11,11
layerFeedCounts=1,10,10
layerContextCount=0,0,0
layerIndex=0,1,12
output=0.36085535208669245,0.59382262229385,0.5902714392742463,0.5903193034111469,0.4339665472483849,0.3856803686337155,0.4462218411728881,0.578321072315418,0.5279818876887141,0.6197512217514959,0.491568121241775,1,0.1332538576989304,0.18427383982980983,0.008013799778002983,0.18251885321515782,-0.29485036896226824,-0.4548791985483105,-0.16032732346768253,-0.0365963933351634,-0.25548970150545625,-0.05865136274480176,1
outputCount=1
weightIndex=0,11,121
weights=-0.9343472714876997,-0.13550969767110044,-0.37108064436236876,-0.24028144806427273,-0.804089099128091,0.2653520888748458,0.2817519547953936,-0.04112358246897315,-0.16645558380013656,0.6060975059551799,0.24220836123673517,0.015554493072425487,-0.1638626243153567,-0.05377440840609504,-0.33987195672433324,-0.6781637217283719,0.1549612108908003,-0.6521840634773792,-0.0353467557949534,-0.3105882222486618,-0.6518843937943979,0.11746689843316058,0.1502608773769191,0.12814745066583458,0.09762735522823068,-0.38072120776692336,-0.3431797601828322,-0.4535262929351283,-0.03206173594757867,0.10033074733379398,-0.46231893013428355,0.19347082834577392,-0.0255684100864893,0.03917834444218333,0.08309667941503973,-0.3779798043329902,-0.4410989773966564,-0.06461959730762677,0.16444172744255472,-0.4748698100945541,0.14130096118563962,-0.44965354058629314,-0.20654486018878648,0.2860787621074647,-0.43457211354999137,-0.4338251219793605,-0.42719138252498784,-0.33449926302361355,-0.04257352671831212,0.2374922428459652,0.07377995463184725,0.23840276464935817,-0.0940867280785898,-0.12195418763091463,0.021481266170061877,-0.6175548895600822,0.062817479087651,-0.4118037294942225,-0.45759857970234763,-0.07764066588149189,0.19480678480776245,-0.11361028449764221,-0.3767386859901882,-0.07409699610132434,-0.5228268798420956,-0.3238464283285397,0.4392864656013855,0.0052260194468868254,0.3991553101570956,-0.1640355279488972,-0.3146282760494475,0.08357020941482875,0.14837782671548896,-0.1823649164302636,0.11202042238983285,0.488459141208428,-0.22907668350178753,-0.22890338443694597,0.2838296070728387,-0.2012263512598417,0.2503199525076742,-0.29457492255667184,0.03887968963281366,-0.12402459359699156,0.5043654695719089,0.3435721572313434,0.20160163597298056,0.27901619979019254,0.375080130674932,0.18735740656319605,-0.5417926382798564,0.02083627321123425,-0.20367826471626893,0.06728266823251076,0.26362163914905123,0.11914112618645524,-0.279194607539883,0.08703494135076825,-0.020972383941987506,0.24533817836944635,0.23225532923658185,-0.4072110516659789,0.16987060116622044,-0.432049554141211,-0.05960572649319425,-0.3226934269045203,0.10912213783480756,0.22913314281955324,-0.12238618094677904,0.23437687429757006,0.238253261207598,0.11821034152811066,-0.06507929571768024,-0.13756531795331975,0.5210619844203987,0.07094423935581977,0.27404301223731314,0.5623582787345479,0.5072890340172985,-0.10279155375239635,0.3123693477222776
biasActivation=0,1,1
[BASIC:ACTIVATION]
"ActivationSigmoid"
"ActivationSigmoid"
"ActivationLinear"
