encog,BasicNetwork,java,3.0.0,1,1406174341116
[BASIC]
[BASIC:PARAMS]
[BASIC:NETWORK]
beginTraining=0
connectionLimit=0
contextTargetOffset=0,0,0
contextTargetSize=0,0,0
endTraining=2
hasContext=f
inputCount=10
layerCounts=1,11,11
layerFeedCounts=1,10,10
layerContextCount=0,0,0
layerIndex=0,1,12
output=0.3663459688337745,0.5757576563320813,0.5876555175160955,0.5836720731653866,0.4292368997633008,0.3661851066808254,0.45081876088128753,0.5847742400858109,0.5249379850325855,0.6141752549524647,0.5046893799575793,1,0.1332538576989304,0.18427383982980983,0.008013799778002983,0.18251885321515782,-0.29485036896226824,-0.4548791985483105,-0.16032732346768253,-0.0365963933351634,-0.25548970150545625,-0.05865136274480176,1
outputCount=1
weightIndex=0,11,121
weights=-0.710105868503833,-0.06390632771701685,-0.2278196467636781,-0.11877500020909679,-0.6158159321411022,0.11034974709021875,0.1542617184732643,-0.12038889023181316,-0.18663065206865923,0.3647895777799352,0.16169523002001307,0.11844242101146923,-0.059762427818737814,0.04510086091072117,-0.24602905526659866,-0.5698809233282431,0.23634787452449993,-0.5363675463720923,0.08000942744639586,-0.20363693337013042,-0.534341117350187,0.11820207429605512,0.1679996101460982,0.14617381068888724,0.11451337295698949,-0.3636025520911113,-0.3238498707952284,-0.4408297931277389,-0.012611956310310805,0.1198641796585501,-0.44446599678075066,0.2145063535297538,-0.024216569119080565,0.08600760360142043,0.13083406456341995,-0.3333729602370058,-0.3947497009212194,-0.011850516821804751,0.20077955422156518,-0.42269633875080326,0.1937545065329842,-0.4018477474547927,-0.14959616868889988,0.2927320543717815,-0.407154253325621,-0.40584101900039293,-0.4009658106076118,-0.3068851833484944,-0.011205433907468485,0.25971192052080705,0.10509422546672044,0.2698632190750332,-0.06509896790438374,-0.08770040931069562,0.02308434785416291,-0.5262542159646505,0.15579872088638086,-0.32403614465476654,-0.3671912189013399,0.025516976789500923,0.2693199011538745,-0.00943358994086359,-0.2725378141648945,0.022257813166507566,-0.4110346058311639,-0.33746187727259946,0.4075458287115783,-0.027283879788660377,0.36875880734696276,-0.19749709223731943,-0.3514813662295371,0.05878055644638392,0.11320387758023794,-0.21792715796789072,0.07954303231169055,0.4497215068405364,-0.23357350638700156,-0.2693936204777165,0.24260996711561592,-0.2401261048953698,0.21085847027903626,-0.3392252953846232,0.007716087253781265,-0.1680826186212305,0.46007906094207485,0.30281136403054804,0.15473050601762475,0.27685175358137665,0.3952725795543478,0.20791249591579108,-0.5222097728895642,0.04023762777418153,-0.18177988478820348,0.0833433441418964,0.2855722363458688,0.14125151341104178,-0.2585692610010412,0.10976776976429907,-0.018665030914088863,0.28526450041777485,0.2729051974941733,-0.36856323377606764,0.2083099764747406,-0.3887073219947219,-0.027988088913077625,-0.2791953769015464,0.15294705840480827,0.2699183407261163,-0.07716772311154034,0.23945662172014992,0.17599257489586403,0.05419602231743457,-0.12432830713522175,-0.20788215197574994,0.4451635659095376,0.022827796194983166,0.20364092515496715,0.4911111085299108,0.4430444191486575,-0.1870735057386616,0.3187420267417148
biasActivation=0,1,1
[BASIC:ACTIVATION]
"ActivationSigmoid"
"ActivationSigmoid"
"ActivationLinear"
