encog,BasicNetwork,java,3.0.0,1,1406174341913
[BASIC]
[BASIC:PARAMS]
[BASIC:NETWORK]
beginTraining=0
connectionLimit=0
contextTargetOffset=0,0,0
contextTargetSize=0,0,0
endTraining=2
hasContext=f
inputCount=10
layerCounts=1,11,11
layerFeedCounts=1,10,10
layerContextCount=0,0,0
layerIndex=0,1,12
output=0.3361669902998691,0.6185194604287699,0.5958825069354414,0.6010730333088898,0.4436415693783793,0.4141305297745469,0.43580471020311545,0.5641349536465022,0.5281382120870233,0.625552536959237,0.46837108089949364,1,0.1332538576989304,0.18427383982980983,0.008013799778002983,0.18251885321515782,-0.29485036896226824,-0.4548791985483105,-0.16032732346768253,-0.0365963933351634,-0.25548970150545625,-0.05865136274480176,1
outputCount=1
weightIndex=0,11,121
weights=-1.2719355519322408,-0.24707063073692542,-0.5942522259932004,-0.40236153004546027,-1.0941653791637613,0.5276940042166776,0.5366439874224138,0.039217140440940886,-0.21252211609375196,0.9776930954530774,0.36393728292328276,-0.09481699554677808,-0.2762291661914441,-0.16191527425736985,-0.4571545420941854,-0.8140396489598879,0.052432225437165816,-0.803170598907906,-0.1839282576043282,-0.44964712908342536,-0.8273434368666064,0.11646633878132806,0.11621308205105851,0.09332995076846846,0.06512845045409334,-0.4186958237897832,-0.3854733235132268,-0.48083023655894797,-0.0741660022278047,0.0583141299399084,-0.5005533480415053,0.14183162440463068,-0.030149284662301122,-0.02628988393424627,0.0157702911852718,-0.44041332521543586,-0.518090565320168,-0.1520200907565113,0.10713268194026984,-0.5608541743875561,0.05556557751638478,-0.5272763689698688,-0.3162135092101203,0.2713884083250785,-0.4812925139748347,-0.4819590147664002,-0.472075728838546,-0.3901094961783298,-0.10565348646994825,0.19439953070494487,0.011782684048228532,0.17657232993432664,-0.15067648196383174,-0.20031719861165195,0.01691835881016988,-0.7167964287024411,-0.03920766356659627,-0.5098050669036516,-0.5742959931391218,-0.21139466213131775,0.09694204864532549,-0.25050964923535873,-0.512052286364883,-0.2008848837144997,-0.6900676000353834,-0.3042027517183531,0.5011539264807255,0.06930785010074975,0.4584152305035031,-0.08405586618648674,-0.228506155713733,0.13879809229604825,0.2278014250469247,-0.10257756243384582,0.1841445605335549,0.5912929018576987,-0.21583316680552458,-0.16063602195640558,0.3538113036129692,-0.13554170359517684,0.32730960322415414,-0.20737259792073826,0.09740262052347586,-0.038866877868725586,0.5892393994074574,0.42128151573535105,0.3053330526015332,0.2795505080440961,0.3736810877018628,0.18593861869867598,-0.5431224204193372,0.01962116606780093,-0.2050271535344074,0.0663327722799522,0.2623125904660843,0.11780596213658415,-0.2804204615405265,0.08587890486717313,-0.02113434376072645,0.20521020094931552,0.19119668098864684,-0.44588985609664494,0.12673628463137235,-0.480664155034314,-0.09320772918877777,-0.37124646601607647,0.06050683881599951,0.18432415649823722,-0.1790081184122128,0.22621269687974935,0.323281129040084,0.20694357789254808,0.017991854147733796,-0.015070482483682542,0.6506432076358573,0.15372239904791618,0.39163628967774083,0.6802755148056308,0.6149208164560741,0.0632900029489381,0.30498000362712796
biasActivation=0,1,1
[BASIC:ACTIVATION]
"ActivationSigmoid"
"ActivationSigmoid"
"ActivationLinear"
