encog,BasicNetwork,java,3.0.0,1,1406162239253
[BASIC]
[BASIC:PARAMS]
[BASIC:NETWORK]
beginTraining=0
connectionLimit=0
contextTargetOffset=0,0,0
contextTargetSize=0,0,0
endTraining=2
hasContext=f
inputCount=10
layerCounts=1,11,11
layerFeedCounts=1,10,10
layerContextCount=0,0,0
layerIndex=0,1,12
output=0.04210450651674559,0.06237626048784842,0.9895847063032783,0.0715073116924504,0.9364452695220438,0.9783153810430116,0.3388744525912022,0.09220936905156028,0.21667105162374367,0.9761958173026402,0.09988901512336475,1,-1.3332206335128913,-1.344600090395267,-1.0882463950362729,-1.1151795596563225,-1.262295217483865,-0.24353883924090403,-1.1950989828610088,-1.2136051537022932,-0.9650127246589574,-1.7460797133074155,1
outputCount=1
weightIndex=0,11,121
weights=0.5892043203368567,-1.0058918130955237,0.5401201485632019,-0.7304668351028613,-1.0401357446736559,0.19960679898864434,0.45035703441959735,0.3010730733131895,-0.9703964105896904,0.6005171353099189,0.20998860622005341,-0.23792135860223482,0.1600140135836996,0.3661153633543516,-0.16708193029414,0.17806791101358688,0.36957469122874853,0.45467356165255196,0.05490032528309429,0.32427798399677876,0.6008442360116122,-0.31327180750127426,-0.122001547950198,-0.5224156678786341,-0.2745335954349431,-0.5234774703165128,-0.07077228923654276,-0.5329479835220065,-0.5090812993052892,-0.1624110977302693,-0.3942204933126362,-0.6061612624929132,0.34291516760306484,0.46728063445758466,0.4881552454998082,-0.062072632167547326,0.007787715123962185,0.42617543243745354,0.17375595612818517,0.006201971823422851,0.10540803556170734,0.11796073802555447,0.5061220966815411,0.36990773127642246,-0.24191721642635095,-0.39140384226926045,-0.4408436710317802,-0.4276710334273247,-0.031334780562615475,0.230421836046154,0.23433782459889696,-0.5205812826233683,-0.339280850773942,-0.16809204661226237,-0.07137030969019005,-0.6025767460840796,-0.31089149453432974,-0.058513309270522666,-0.6371709000423633,-0.5167781951962411,-0.5946205482371233,-0.3421086363937927,-0.015758861274569682,-0.24107537018146638,-0.38523375093938717,-0.31680865453228496,-0.16753373720964043,0.13652673876015992,0.46072527260517065,0.1062349180987611,0.42690532845248275,0.29607377623614006,-0.03703267352526567,0.32910926493224435,-0.14694556434164432,-0.36189761359192435,0.10418457828534461,0.302991961312531,0.1522469307266617,0.25366304873222384,-0.23826136774079887,-0.22750983850946332,0.008568311909079765,-0.018814498163655782,0.5336354931086438,0.4981350044431743,0.3387951082716832,-0.2556323486626324,0.12306959344805238,-0.18028507844913924,-0.15417505826148153,0.35832776294341623,0.39105907609287255,0.30630345127668435,0.03685163429862775,-0.2854722910953231,0.4906389964308079,0.02667860227565693,-0.34581013783678116,-0.6175338361081144,-0.018449250394642246,0.10539154752240473,-0.15385834287228403,-0.0198030845660954,-0.514726770074805,-0.6040670439943409,-0.34987303287043336,-0.30161648487900444,-0.514881227916791,0.3218301291697234,0.3104900906093908,-0.2325703557689944,0.005217175748107495,0.01379149386359157,0.5006702602154148,-0.24558327823169573,0.5263875315234627,0.42533564097929605,0.3177442647353792,0.21164776125829535,0.3174773462039407
biasActivation=0,1,1
[BASIC:ACTIVATION]
"ActivationSigmoid"
"ActivationSigmoid"
"ActivationLinear"
