encog,BasicNetwork,java,3.0.0,1,1406174342049
[BASIC]
[BASIC:PARAMS]
[BASIC:NETWORK]
beginTraining=0
connectionLimit=0
contextTargetOffset=0,0,0
contextTargetSize=0,0,0
endTraining=2
hasContext=f
inputCount=10
layerCounts=1,11,11
layerFeedCounts=1,10,10
layerContextCount=0,0,0
layerIndex=0,1,12
output=0.32341957252437714,0.6262839517871405,0.5977534063242956,0.6044896681501839,0.4467672417406287,0.42266575853927946,0.4322609563125104,0.559068746639412,0.5276971186961497,0.6271861162730793,0.46116343502427337,1,0.1332538576989304,0.18427383982980983,0.008013799778002983,0.18251885321515782,-0.29485036896226824,-0.4548791985483105,-0.16032732346768253,-0.0365963933351634,-0.25548970150545625,-0.05865136274480176,1
outputCount=1
weightIndex=0,11,121
weights=-1.3596027850054389,-0.2805521590870258,-0.655176195857406,-0.44141741664364154,-1.1681462687729884,0.5991226517014817,0.6093494156166918,0.05801210493770691,-0.2344846939081233,1.071441524375634,0.3907885893645577,-0.11438187797488615,-0.29624995677676313,-0.18279606247060637,-0.4830527534424772,-0.8447635194137342,0.025530177081109866,-0.8428961404945223,-0.22210621724468757,-0.48703934563449675,-0.8791099145832446,0.11904386582369444,0.10797523425531343,0.08484577853058564,0.05703914064550775,-0.4299216086099584,-0.3978183481423821,-0.4893381772005227,-0.08698818071694768,0.045701084731499364,-0.5122408774780207,0.12399961358674387,-0.03165854241862054,-0.03930994825549783,0.0022243802689742567,-0.45340507481927145,-0.5376795675616924,-0.17447164008201008,0.09143771980466946,-0.5847286496260954,0.032194673331431556,-0.5490003471489805,-0.35135151822461425,0.26751526934284015,-0.49130949991916034,-0.49239446570524936,-0.4820974465074147,-0.40489618224703205,-0.1226872853962259,0.1820298305440287,-0.005975540453324302,0.15916537489323648,-0.16695448872964175,-0.22589516714442967,0.0158176738264734,-0.7346384562879072,-0.05772991064379065,-0.5289539668757921,-0.6005570214462262,-0.24233119717181806,0.0710295045657569,-0.286264129689118,-0.546532680425394,-0.23461865684698782,-0.7386561944988249,-0.2977607734738041,0.5147808642059903,0.08361962103496318,0.47199502880327204,-0.06077992701193255,-0.20380779388682993,0.15553694497807066,0.25148930677102704,-0.07921217377760208,0.20574464659750946,0.6269579757003846,-0.21190982415124407,-0.14523912368701178,0.3697170900726842,-0.12008267318406823,0.34832419597878633,-0.18321205487002956,0.11509327750280524,-0.013688449247803271,0.6138907405244455,0.44448005236417304,0.339928993247448,0.2780968682406349,0.3757914144800209,0.1881062983838031,-0.5410235365545129,0.02213870512887555,-0.20212530850098684,0.0684937580600724,0.2653149325347662,0.12077714733809551,-0.277622503829554,0.08970295727086718,-0.020693384492833235,0.19682316866186345,0.18257284846309008,-0.4541374298713555,0.11634743933898788,-0.49256687250737974,-0.10172671778773934,-0.38371907845614583,0.0481910827722489,0.17283924027597658,-0.1954391286926281,0.2241288774880398,0.33876523788065244,0.22345214595024201,0.03451945323509842,0.01658985670688403,0.6840336652419907,0.17782501991345492,0.42410173080233393,0.7120508422764816,0.6452077739649944,0.11620510537563769,0.3030070422383893
biasActivation=0,1,1
[BASIC:ACTIVATION]
"ActivationSigmoid"
"ActivationSigmoid"
"ActivationLinear"
