encog,BasicNetwork,java,3.0.0,1,1406162238885
[BASIC]
[BASIC:PARAMS]
[BASIC:NETWORK]
beginTraining=0
connectionLimit=0
contextTargetOffset=0,0,0
contextTargetSize=0,0,0
endTraining=2
hasContext=f
inputCount=10
layerCounts=1,11,11
layerFeedCounts=1,10,10
layerContextCount=0,0,0
layerIndex=0,1,12
output=0.09194025443724255,0.10877323774328665,0.9773214627437639,0.11489531768423931,0.8671482654515306,0.949813468618715,0.3953040831487293,0.14616051787936063,0.28607025070370007,0.9432246322857771,0.17421567850695477,1,-1.3332206335128913,-1.344600090395267,-1.0882463950362729,-1.1151795596563225,-1.262295217483865,-0.24353883924090403,-1.1950989828610088,-1.2136051537022932,-0.9650127246589574,-1.7460797133074155,1
outputCount=1
weightIndex=0,11,121
weights=0.4184450909743547,-0.7849775367451078,0.3704907930876696,-0.5967675508274084,-0.8254476424194912,0.125032457518601,0.3359389626068554,0.19785914819846506,-0.7817998070752741,0.4395670858176889,0.196133014554614,-0.27139255774924637,0.12361270029625522,0.33403762884908555,-0.2334371889592463,0.1117737103750013,0.33499084543007024,0.4012073862917612,-0.0001307867460923146,0.276452441631652,0.5196243766589473,-0.31967499254875026,-0.08439427552536469,-0.48052765060830915,-0.23822471159054306,-0.43683542594605,0.01774708442208428,-0.48732146015818073,-0.4374846631448735,-0.08866668920708629,-0.33039010465877383,-0.4909170163265824,0.35563144489012255,0.4387246566078048,0.4574352168888939,-0.09037148695198238,-0.04373356236215507,0.3725922793101055,0.1414594026705251,-0.040173367132214706,0.05817365513337484,0.07549545227709761,0.4406662370776018,0.38083594603070825,-0.19801001268749813,-0.3437692969895927,-0.39806638683167384,-0.34365096727855143,0.055521460836062804,0.27946644471898024,0.3061434684475418,-0.4471524852303494,-0.2742219563926168,-0.06124804808111184,-0.07689492015422446,-0.5598508834305124,-0.26410418118281553,-0.015190473084199706,-0.5462772060066828,-0.42641344300505357,-0.5392439929359467,-0.26427949641884363,0.06359508461438854,-0.1694947872871096,-0.27123533922104714,-0.33213897266569087,-0.1821337378098719,0.12096190995018313,0.44670276904101497,0.08210220725228151,0.4017226971371109,0.28215261678798254,-0.05861789312183357,0.30706254529627924,-0.16648509990270993,-0.392498930009931,0.10484350783416137,0.273996591450909,0.12070482949772829,0.22562897445062371,-0.2962846840002362,-0.28491470979256445,-0.022590534504555632,-0.06372832971261086,0.4873338247742575,0.4576275048450178,0.2707190586082703,-0.25787637950428033,0.09968996670777784,-0.20503455434723253,-0.17655035337969469,0.32162481270850146,0.3527622009153355,0.2849545216942703,0.0034372163221811683,-0.31952793788885675,0.46044365131748866,-0.019391654266693346,-0.3492995804882732,-0.5723087301369746,0.03161183476482392,0.1489829884243673,-0.052434847348517215,0.08178802608951324,-0.46308689981400347,-0.5248465043175827,-0.26797505236793556,-0.2308610559481149,-0.3870696851286751,0.3327124766846206,0.2747378616081604,-0.2710812063083863,-0.030107572917988174,-0.05100858088510799,0.4340101556668443,-0.2850589890528421,0.4704846189604289,0.36813574114365,0.2665675788128869,0.131123354227348,0.3297686878892462
biasActivation=0,1,1
[BASIC:ACTIVATION]
"ActivationSigmoid"
"ActivationSigmoid"
"ActivationLinear"
