encog,BasicNetwork,java,3.0.0,1,1406174341713
[BASIC]
[BASIC:PARAMS]
[BASIC:NETWORK]
beginTraining=0
connectionLimit=0
contextTargetOffset=0,0,0
contextTargetSize=0,0,0
endTraining=2
hasContext=f
inputCount=10
layerCounts=1,11,11
layerFeedCounts=1,10,10
layerContextCount=0,0,0
layerIndex=0,1,12
output=0.3520821404833475,0.6061086728429494,0.5929113486839533,0.5956015417221738,0.438580048403585,0.39988772062280586,0.4413574461788025,0.5718734182315751,0.5284673557208814,0.622786628141585,0.48026614678900753,1,0.1332538576989304,0.18427383982980983,0.008013799778002983,0.18251885321515782,-0.29485036896226824,-0.4548791985483105,-0.16032732346768253,-0.0365963933351634,-0.25548970150545625,-0.05865136274480176,1
outputCount=1
weightIndex=0,11,121
weights=-1.1081075321418894,-0.19001249209511836,-0.483749679903932,-0.3253605728853269,-0.9536023427799943,0.39684864388450514,0.40648693804908276,0.002518238403671713,-0.18184079819465668,0.7981729668646785,0.3075178773312004,-0.0470541220591298,-0.22748582470734122,-0.11429215122257994,-0.40283598648643565,-0.7508225963735069,0.10156322098397948,-0.7305793103345203,-0.11295542779123839,-0.38252178540281573,-0.7390048950422308,0.11609422205973946,0.1329123663000571,0.110449701280988,0.0811369905339799,-0.3989227849998151,-0.3635536280233415,-0.4665897803536169,-0.052265636081910545,0.08009482249832882,-0.4806966555753785,0.16990372168624174,-0.027621744033828426,0.0035083814815470935,0.046533351798875744,-0.41180030834268805,-0.48030629366575806,-0.10909895218389573,0.1353384503609933,-0.518168041388288,0.09792940170966574,-0.48878933167290106,-0.2587418363531925,0.27893981440546817,-0.4593149401945919,-0.45922778318995905,-0.4508185602597393,-0.36208530764701985,-0.0738105089492646,0.21621499122385562,0.04324505074056483,0.20781859971215572,-0.12201281526930341,-0.15853423323885157,0.019258616821022638,-0.6737576137768228,0.005209284760413553,-0.46650443004629416,-0.5198587129016297,-0.14867209324997407,0.1441146671606383,-0.18480912152804965,-0.4475442395190909,-0.13979963538716114,-0.606211664922495,-0.31405182670624593,0.47137877376007187,0.03832420300453188,0.4297466783037637,-0.12590697437640408,-0.27326203346888844,0.11012349426634555,0.18659862326629534,-0.1438027891812189,0.1468230144135309,0.5349244451254903,-0.22293195706283295,-0.193387334033899,0.3201415364373238,-0.16726706127861662,0.28809278435685864,-0.25187489518043105,0.06728175615726675,-0.08264112946897555,0.5457992686387928,0.381356625157211,0.2495503192020532,0.280166220426481,0.37182061912914416,0.1840299051370564,-0.5449431558252893,0.017524063618702554,-0.2074121928744308,0.06462909508865673,0.25992862096073216,0.11542756608128484,-0.2826337021604745,0.0829860975988995,-0.021499125212423056,0.22304513443594448,0.20948403904516535,-0.42866690361760473,0.14688064906423176,-0.4579101607486415,-0.07757108792588872,-0.34839684333403614,0.08330260522730609,0.20532583255806156,-0.15108986603137103,0.23018327547033035,0.28530340420656086,0.16704186269705737,-0.01979123339747376,-0.07584640272718508,0.5866290395389374,0.11193114745287534,0.33319713062427414,0.6220179186969368,0.561232237392033,-0.02397665011884685,0.308276289220185
biasActivation=0,1,1
[BASIC:ACTIVATION]
"ActivationSigmoid"
"ActivationSigmoid"
"ActivationLinear"
