encog,BasicNetwork,java,3.0.0,1,1406174342014
[BASIC]
[BASIC:PARAMS]
[BASIC:NETWORK]
beginTraining=0
connectionLimit=0
contextTargetOffset=0,0,0
contextTargetSize=0,0,0
endTraining=2
hasContext=f
inputCount=10
layerCounts=1,11,11
layerFeedCounts=1,10,10
layerContextCount=0,0,0
layerIndex=0,1,12
output=0.326407106872461,0.6245419867507386,0.5973363094754421,0.6037235797347584,0.44607419495128336,0.4207820849473559,0.43305576841066634,0.5602078815911763,0.5278063860658845,0.6268247326006925,0.4627561541686123,1,0.1332538576989304,0.18427383982980983,0.008013799778002983,0.18251885321515782,-0.29485036896226824,-0.4548791985483105,-0.16032732346768253,-0.0365963933351634,-0.25548970150545625,-0.05865136274480176,1
outputCount=1
weightIndex=0,11,121
weights=-1.341067828496611,-0.27328151789980937,-0.6421814439247181,-0.43333097719834013,-1.1526164172905395,0.5839732466938776,0.5938479213234109,0.05407631549956177,-0.229525002984145,1.051803241623167,0.38534224143433626,-0.11067432575427891,-0.292454969553235,-0.17869741543080483,-0.4778353278921814,-0.8385158660856695,0.0312956477243384,-0.8343901635986152,-0.2139840712469726,-0.4789749447057936,-0.8678368540357123,0.11827695295590605,0.10964287099507644,0.08656565791876611,0.058696851888196164,-0.42752783272006534,-0.39519248113095445,-0.48747686724777123,-0.08420730159293423,0.04842480566338558,-0.5096979686387177,0.1279575292185911,-0.03133402027318534,-0.0367861954063872,0.004857341037329266,-0.4508337986335192,-0.5336208624711815,-0.16979860104249703,0.094809004917838,-0.5795992899828842,0.03718939701786752,-0.5443102838206305,-0.3436198459349947,0.26829744103760256,-0.4893365066440106,-0.4903342916958848,-0.4800891628618679,-0.40182521272130073,-0.11912505161749397,0.18469333106631278,-0.0021613983575477762,0.16288508088094766,-0.16344570824252544,-0.220282755413132,0.01602930336361652,-0.7312317358725292,-0.05418756539743504,-0.5251788310133971,-0.59524317199115,-0.23600425309836376,0.07658215907909698,-0.2786229081866071,-0.5392134106599464,-0.22736696919125424,-0.7281151243112444,-0.299236409514988,0.5121099349398213,0.08080543185486923,0.4692826820023791,-0.06569183949859336,-0.2090132781248528,0.1519030029582334,0.2463810454317636,-0.08422200561035025,0.20106723891483508,0.61906583197173,-0.21272718711715882,-0.14829950635111444,0.36655133391042194,-0.1232115713754769,0.3439438872130702,-0.18828122693629795,0.11124293315094418,-0.01912287760307993,0.6085981886652817,0.43944808476593467,0.3323119568665018,0.278491478473804,0.37530277225201986,0.18760428645424898,-0.5415134947971219,0.021544219738442245,-0.20281497548039024,0.06796958091574276,0.2645892582404503,0.12006137519560446,-0.2783003584972477,0.08876491903355764,-0.020797440097749562,0.19851921890677351,0.18431775926751873,-0.4524536062590441,0.11851370005854472,-0.4900674870054314,-0.09989690404221585,-0.3810446551448956,0.05082131357304588,0.1753072563949513,-0.19184262976227917,0.22456303917366804,0.3358638760461273,0.22034031054747782,0.0313045107520456,0.010033981681789143,0.6771032943978772,0.17259710733531947,0.4171462500974614,0.7052919313060975,0.6386778686267268,0.10461103757251423,0.30346506949155855
biasActivation=0,1,1
[BASIC:ACTIVATION]
"ActivationSigmoid"
"ActivationSigmoid"
"ActivationLinear"
