encog,BasicNetwork,java,3.0.0,1,1406162238253
[BASIC]
[BASIC:PARAMS]
[BASIC:NETWORK]
beginTraining=0
connectionLimit=0
contextTargetOffset=0,0,0
contextTargetSize=0,0,0
endTraining=2
hasContext=f
inputCount=10
layerCounts=1,11,11
layerFeedCounts=1,10,10
layerContextCount=0,0,0
layerIndex=0,1,12
output=0.3555881116564137,0.2491780692871794,0.9107305569150982,0.1879760639873334,0.4029971064461896,0.7618366016070065,0.42890698355160395,0.3165434884144692,0.40294205335089484,0.596264400449673,0.4192192206924216,1,-1.3332206335128913,-1.344600090395267,-1.0882463950362729,-1.1151795596563225,-1.262295217483865,-0.24353883924090403,-1.1950989828610088,-1.2136051537022932,-0.9650127246589574,-1.7460797133074155,1
outputCount=1
weightIndex=0,11,121
weights=0.14730063764460824,-0.2795863124052328,0.032208585105726585,-0.47388889071915846,-0.3773178356071476,-0.029420820477394704,0.17488629344553522,0.07043408440598053,-0.5004766725085666,0.22412894225320257,0.22907071318653718,-0.34776867147851853,0.04452037862424027,0.26128652063558244,-0.326954694526093,0.013178282404652103,0.27781660913000733,0.3136050246509631,-0.08921486133454361,0.19640755759445178,0.4155657676441019,-0.32110188043417714,0.020494238275963847,-0.37137830663552934,-0.13873536864907043,-0.30162742511561164,0.16225465236730302,-0.40637183274148037,-0.3109251884054558,0.040136733745221635,-0.2155900808284734,-0.3319766710067262,0.3584736892736945,0.39671509966020396,0.413924945251324,-0.13070739581363458,-0.09549632411350066,0.3173490447905499,0.10760477671525032,-0.09056274823573278,0.0071004621946401504,0.02916049270582618,0.3806645799102848,0.39351047247110627,-0.021762809225659156,-0.1622635440513066,-0.22840951142895666,-0.1433726723315336,0.2720435726992727,0.4176993645344698,0.5064099308789762,-0.2444310672145473,-0.08821704888924557,0.16534744702733423,-0.09136712386693356,-0.42973520076987737,-0.12970023926872645,0.1099777617464135,-0.3897581311712673,-0.25927672810210983,-0.4368171028858961,-0.10931883688366678,0.22049262950031392,-0.026746687326398927,-0.08827976495436884,-0.376195018897373,-0.1922218989547575,0.1104773470225222,0.43714075242558065,0.06921429296737823,0.3880078416861544,0.27441585934486035,-0.07082997377469065,0.294655103313059,-0.17759194015865745,-0.40776087463810373,0.10506085006471493,0.19796602735090563,0.04196186329854987,0.15243625346511772,-0.38930960360980316,-0.3829783075425814,-0.0829032557667378,-0.15009842181222138,0.3994559978336042,0.37787388605344113,0.16931835046279264,-0.25553600029882084,0.05858121429476119,-0.24729626193859972,-0.2159286282084699,0.27558953617912446,0.30295976745879943,0.25437731320990514,-0.043113981303260294,-0.3666155930391378,0.41740055069735116,-0.07188181747890593,-0.3500772022569254,-0.38691628121654653,0.22340107767872347,0.3265302056839544,0.17100392005337564,0.31958033183365586,-0.32300112307804985,-0.31334926748995184,-0.05300018165856917,-0.03633174672047988,-0.1372865576587331,0.3316725718980124,0.18074872570922138,-0.36809804425076603,-0.12071743751879296,-0.16074041859865984,0.31689436026804924,-0.36087693629645295,0.36377179914627006,0.259790988223493,0.16772503404365746,0.008250261982865421,0.3478452167128747
biasActivation=0,1,1
[BASIC:ACTIVATION]
"ActivationSigmoid"
"ActivationSigmoid"
"ActivationLinear"
