encog,BasicNetwork,java,3.0.0,1,1406174341534
[BASIC]
[BASIC:PARAMS]
[BASIC:NETWORK]
beginTraining=0
connectionLimit=0
contextTargetOffset=0,0,0
contextTargetSize=0,0,0
endTraining=2
hasContext=f
inputCount=10
layerCounts=1,11,11
layerFeedCounts=1,10,10
layerContextCount=0,0,0
layerIndex=0,1,12
output=0.3599969824975457,0.5955821959202743,0.590617377561358,0.5910543929333104,0.43457788464394775,0.38768930199729906,0.4455924040488562,0.5774983630510129,0.5281180985994075,0.6202127054743897,0.4900313956288239,1,0.1332538576989304,0.18427383982980983,0.008013799778002983,0.18251885321515782,-0.29485036896226824,-0.4548791985483105,-0.16032732346768253,-0.0365963933351634,-0.25548970150545625,-0.05865136274480176,1
outputCount=1
weightIndex=0,11,121
weights=-0.9589734261400665,-0.1429789776992428,-0.3867745187686383,-0.2525352707744751,-0.8251837545169,0.28337606775878604,0.29831812521177425,-0.03441806629477141,-0.1673479677860687,0.6332006702460277,0.25161354124133245,0.005993521186382213,-0.17356221191997895,-0.0629658836866472,-0.3491099937609606,-0.6888137881726044,0.14717451920344954,-0.6635615675921496,-0.046646429873124756,-0.3210289636650795,-0.6640827882334538,0.11728549466784632,0.14791277489655066,0.12575640274556632,0.09539590418509779,-0.38308688472447283,-0.34583851836449536,-0.45524222371797995,-0.034709436864699766,0.09767450700567427,-0.46473551371151783,0.1904917737071096,-0.02581300593749602,0.03400349112859578,0.07780517187182143,-0.38288570446911513,-0.44652352359916025,-0.07078107696244948,0.16035759705944924,-0.4808822036875804,0.13526525193947195,-0.4551102482964482,-0.2134849086392935,0.2851526781474541,-0.4380277610025962,-0.4373633958624647,-0.43048856946737585,-0.33817394925921673,-0.046738205496890194,0.23462341940680412,0.06968486904315913,0.23429322459547386,-0.0978477420152796,-0.12666028304041624,0.021202435489713657,-0.6261267065160395,0.05405348706405674,-0.42008687438190256,-0.4666746480596646,-0.08798350190785763,0.18746724844608806,-0.12394047998418362,-0.38704469621759335,-0.08362260854634936,-0.5345147378305026,-0.32243624496763656,0.44362173597807947,0.009682708316896115,0.4032905334407012,-0.15917489290233766,-0.30931867450144046,0.08703145937685329,0.1533408587599683,-0.17734959633509315,0.11656316672294893,0.49421481680538304,-0.2283260450565247,-0.22400881894324176,0.28882383359590974,-0.19654644424388137,0.2553163808865414,-0.288925160736896,0.04268082167182374,-0.11852618724473547,0.5098825194101412,0.34861213506352356,0.20773235218852729,0.27924707831309736,0.37415581382781754,0.18641445372192222,-0.542686626322425,0.01991143247551014,-0.20472089205276056,0.06653745000323077,0.2625882440740617,0.1181011775438643,-0.2801590508544397,0.08592013911396046,-0.021114857874162486,0.24189428053969067,0.2287424427901459,-0.41053133183536145,0.16642535533413771,-0.43592645787382506,-0.06234328658492237,-0.3265568217090916,0.10523499624245652,0.22553706578432728,-0.1265628767175282,0.23378351576062362,0.245112810742001,0.125300258953759,-0.058520967470643684,-0.12914672398378538,0.5300569320558401,0.0765586008870562,0.28221667612600415,0.5706216803478514,0.5147374452370012,-0.09239250043148842,0.3117425047808375
biasActivation=0,1,1
[BASIC:ACTIVATION]
"ActivationSigmoid"
"ActivationSigmoid"
"ActivationLinear"
