encog,BasicNetwork,java,3.0.0,1,1406174342060
[BASIC]
[BASIC:PARAMS]
[BASIC:NETWORK]
beginTraining=0
connectionLimit=0
contextTargetOffset=0,0,0
contextTargetSize=0,0,0
endTraining=2
hasContext=f
inputCount=10
layerCounts=1,11,11
layerFeedCounts=1,10,10
layerContextCount=0,0,0
layerIndex=0,1,12
output=0.32223437525909754,0.6269658853402478,0.5979161551890562,0.6047895911217389,0.4470370900944617,0.42339820279628193,0.43194996953021403,0.5586229654326758,0.5276530211031968,0.6273268864569854,0.4605438955060969,1,0.1332538576989304,0.18427383982980983,0.008013799778002983,0.18251885321515782,-0.29485036896226824,-0.4548791985483105,-0.16032732346768253,-0.0365963933351634,-0.25548970150545625,-0.05865136274480176,1
outputCount=1
weightIndex=0,11,121
weights=-1.3666811312894729,-0.2833571779705639,-0.6601558157305181,-0.44447790888056743,-1.1740585787773723,0.6049135079814171,0.6152857431724723,0.05951016313013064,-0.23642378050247395,1.07891307742287,0.39283398862549695,-0.11573095424224916,-0.29763072728841977,-0.1843128605595356,-0.4850026202250657,-0.8471087048188943,0.02331442533454812,-0.8461638021559318,-0.22521793640177845,-0.4901469798418974,-0.8834657032376408,0.1193741937545906,0.10735121401757086,0.08420188218823389,0.056415211401555934,-0.4308373858511033,-0.39882188982365013,-0.490058812312141,-0.08806075152322036,0.04465253703755557,-0.513223163993589,0.12245969333009568,-0.03178299183103592,-0.04023711133502162,0.001256011396921605,-0.45435933085215136,-0.5392142670263292,-0.17624240170563865,0.09014130970500195,-0.5867009784725423,0.030278456725533358,-0.5508078040112581,-0.3543503941933592,0.26722382447369997,-0.49203961050037687,-0.493157505886498,-0.48284672134506884,-0.40605801982677275,-0.12403938066287484,0.18100507128091597,-0.007441383679897778,0.15773895048762346,-0.16830524368711142,-0.22806875485652608,0.015740727160618195,-0.7358829366423925,-0.059024614602412206,-0.5303539878247528,-0.6025468191849106,-0.24471216150331035,0.06889604282778455,-0.2891973575962646,-0.5493342937090778,-0.23740931328925619,-0.74272295661556,-0.2971778851660768,0.5157660916028801,0.08465903088822628,0.4730047955024096,-0.058909718551908456,-0.2018263738813483,0.15693960310574825,0.2534553548830418,-0.07728883867120308,0.20754843849643972,0.6300242230417882,-0.21160085007112683,-0.14410278885148994,0.3708930720981518,-0.11891088445609596,0.3499833606844911,-0.1812860173766374,0.11658090068703465,-0.011596107119487447,0.6159237839816618,0.4464217874780355,0.34288272647707857,0.27793213184277826,0.3759827553210158,0.18830287221696893,-0.540830926608092,0.02237336332051236,-0.2018522294905493,0.06870337592975102,0.2656046470729731,0.12106247857493187,-0.27735156435246583,0.09007959319873163,-0.020652338360741682,0.19618745969291318,0.1819187407786374,-0.45477141108317,0.11552545559023862,-0.49351837137005794,-0.10243082858220662,-0.3847471904167687,0.04718170529021557,0.1718894108010092,-0.19683221136150936,0.22396432592845056,0.33981425970400186,0.22458020410984422,0.03570332928237741,0.01906745767132752,0.6866561846078278,0.17984272980379545,0.4267731226601149,0.7146387452356472,0.6477226040425016,0.12069347975419911,0.3028240781744272
biasActivation=0,1,1
[BASIC:ACTIVATION]
"ActivationSigmoid"
"ActivationSigmoid"
"ActivationLinear"
