encog,BasicNetwork,java,3.0.0,1,1406162238990
[BASIC]
[BASIC:PARAMS]
[BASIC:NETWORK]
beginTraining=0
connectionLimit=0
contextTargetOffset=0,0,0
contextTargetSize=0,0,0
endTraining=2
hasContext=f
inputCount=10
layerCounts=1,11,11
layerFeedCounts=1,10,10
layerContextCount=0,0,0
layerIndex=0,1,12
output=0.07103618807958544,0.09060035344633827,0.9826136117005728,0.09880426440267476,0.8969198698358616,0.9623401037643479,0.3774622079467006,0.12551030294330903,0.26240279238444736,0.9580904377753631,0.14530460869222514,1,-1.3332206335128913,-1.344600090395267,-1.0882463950362729,-1.1151795596563225,-1.262295217483865,-0.24353883924090403,-1.1950989828610088,-1.2136051537022932,-0.9650127246589574,-1.7460797133074155,1
outputCount=1
weightIndex=0,11,121
weights=0.47495079067537915,-0.8605275086052621,0.4290201337043968,-0.6408501201808177,-0.8985809650849546,0.1512573109446596,0.37435793905241643,0.23093451728811235,-0.8441950976771183,0.49282676656910746,0.20132536586573188,-0.2584874872395243,0.13735257070022358,0.346256765480323,-0.21217530388109,0.13335074970888092,0.34623868203246183,0.4188812193302956,0.018011938363899103,0.2922702546890618,0.5446716707880483,-0.31786484588500924,-0.09997949590455765,-0.49735466734969114,-0.2529968142156254,-0.4653564696495916,-0.011787249708798514,-0.5023929750021185,-0.4615134098234909,-0.11335680411773245,-0.35179800245634535,-0.5271187451130993,0.35197490698565814,0.4492327280523648,0.46854874217784875,-0.08016391879354791,-0.02750187473114616,0.3895853791089419,0.15148920043236516,-0.025419697929983612,0.0731944115660543,0.08897665537634149,0.4604343475148472,0.37738169132707783,-0.21581283442158494,-0.362697125190294,-0.41512793751167726,-0.3722638541948814,0.02558523586908626,0.2625738680738052,0.28109315366918486,-0.47272884208537386,-0.2969052967574469,-0.09626422176325113,-0.07498271059348297,-0.577343513443531,-0.2827755439746723,-0.03241382778317951,-0.576176858747446,-0.45689638696549156,-0.5573245845028217,-0.2906561662998467,0.03671910081511179,-0.1936748664001096,-0.30773766337478253,-0.32649094194683886,-0.17712071197838408,0.12623316439592935,0.4514698816544365,0.08936017911392989,0.40935602438864266,0.2863551547011695,-0.05200448845765858,0.31380580837818006,-0.16049637900737782,-0.38362951907365817,0.10464518864069972,0.2851562078856217,0.13260679382301016,0.23629032329919394,-0.2775919241700041,-0.26605457719002934,-0.012336738457601915,-0.048660430423972605,0.5028275654653775,0.47122691205780753,0.29205824093191485,-0.2572630280960423,0.10796432262707702,-0.19638329647379943,-0.1686838620079283,0.3330208335751085,0.3647925255324835,0.29168782017254924,0.014060874661833147,-0.30872099655422586,0.4700695333941636,-0.005607357593597598,-0.34834139561994676,-0.5912654798581489,0.011191275579917326,0.1310067100584964,-0.08681262068966711,0.04690630485230929,-0.48066567582459974,-0.5523714624896892,-0.29636299308001196,-0.2554337426567838,-0.4285125609595759,0.3295732455066881,0.28840450525785194,-0.2566130723002044,-0.016861489309119296,-0.029852316838632344,0.4559614926976955,-0.2721510666001254,0.48903648899561003,0.3870992693976688,0.2834980077923996,0.15636863251220873,0.32603449665438744
biasActivation=0,1,1
[BASIC:ACTIVATION]
"ActivationSigmoid"
"ActivationSigmoid"
"ActivationLinear"
