encog,BasicNetwork,java,3.0.0,1,1406174342065
[BASIC]
[BASIC:PARAMS]
[BASIC:NETWORK]
beginTraining=0
connectionLimit=0
contextTargetOffset=0,0,0
contextTargetSize=0,0,0
endTraining=2
hasContext=f
inputCount=10
layerCounts=1,11,11
layerFeedCounts=1,10,10
layerContextCount=0,0,0
layerIndex=0,1,12
output=0.321643955157245,0.6273038868255469,0.5979967056530286,0.6049382593216182,0.4471705294570083,0.4237602097225107,0.4317958662054045,0.558402075012118,0.5276309060006138,0.6273965200911069,0.4602376469903617,1,0.1332538576989304,0.18427383982980983,0.008013799778002983,0.18251885321515782,-0.29485036896226824,-0.4548791985483105,-0.16032732346768253,-0.0365963933351634,-0.25548970150545625,-0.05865136274480176,1
outputCount=1
weightIndex=0,11,121
weights=-1.3701527829343287,-0.2847387532390694,-0.6626016289294464,-0.4459731325002957,-1.176954440168802,0.6077547314851616,0.6182005062025194,0.06024391853398012,-0.23738394965211362,1.0825717657963694,0.3938300976333582,-0.11637870336322848,-0.2982936472987996,-0.1850467457109533,-0.4859499073258633,-0.8482502935677907,0.022224663988490323,-0.8477706498635714,-0.22674631438876924,-0.49167716673597517,-0.8856125658810279,0.11954418031727264,0.10704791051549796,0.08388885262203309,0.056111159226932245,-0.43128677686562356,-0.39931413375217917,-0.49041430858141905,-0.08858899394986537,0.04413654629007873,-0.5137072678069917,0.12169855245635462,-0.0318441179462975,-0.04068415732100096,0.0007888726943282732,-0.4548215665938326,-0.5399636401435306,-0.1771078576225839,0.08950356322129853,-0.5876711874379241,0.029336767603360236,-0.5516977827841809,-0.355830790983499,0.2670824901917677,-0.49239279213558346,-0.49352675171686833,-0.4832105078954435,-0.4066254326913247,-0.12470066748627719,0.18050087810117377,-0.008162255574645678,0.15703812466222647,-0.168970007771678,-0.22914101524170583,0.01570382935593618,-0.7364815567214327,-0.059647520548680784,-0.5310320181949623,-0.6035143451215621,-0.2458724578117968,0.06784688143582993,-0.2906392885083517,-0.5507098364979994,-0.23878262667974465,-0.7447260821283138,-0.29688787230774694,0.5162419447057579,0.0851613295794569,0.4734945458096928,-0.05799388208949108,-0.20085616625306726,0.15763066651554986,0.25442279420536784,-0.07634344278870661,0.20843681186040272,0.6315388409095833,-0.2114500495067998,-0.14355232966231737,0.37146283632845645,-0.11834106057291148,0.3507940318731164,-0.18034365645702147,0.11731411506520241,-0.01056636534320833,0.6169233509818653,0.44737834073051547,0.3443406178755021,0.2778483817416897,0.37607747686593346,0.18840018253928945,-0.5407354113899008,0.022489919269709165,-0.20171640291591075,0.06880809307622855,0.2657492735608411,0.1212048242795379,-0.2772162406961048,0.09026804842180625,-0.020631956778005594,0.1958781742610945,0.18160049098691614,-0.4550804784632347,0.11512345413292835,-0.49398438985615295,-0.10277732534147666,-0.3852529055254011,0.046685575332135805,0.17142196625084147,-0.19751957381573187,0.22388389669592534,0.3403164225472168,0.2251208263193077,0.036274817297561546,0.020276915541477914,0.6879371486478079,0.18083680118655499,0.4280865605425732,0.7159094462848012,0.6489605274387711,0.12290732802363803,0.3027325617405978
biasActivation=0,1,1
[BASIC:ACTIVATION]
"ActivationSigmoid"
"ActivationSigmoid"
"ActivationLinear"
