encog,BasicNetwork,java,3.0.0,1,1406162239144
[BASIC]
[BASIC:PARAMS]
[BASIC:NETWORK]
beginTraining=0
connectionLimit=0
contextTargetOffset=0,0,0
contextTargetSize=0,0,0
endTraining=2
hasContext=f
inputCount=10
layerCounts=1,11,11
layerFeedCounts=1,10,10
layerContextCount=0,0,0
layerIndex=0,1,12
output=0.0509593745522,0.07146363170394959,0.9874978047662099,0.08059963268830714,0.9245154896998081,0.9736063147731469,0.3531125017204712,0.10314782026454715,0.23288614503060956,0.9709483504990073,0.11459279891399476,1,-1.3332206335128913,-1.344600090395267,-1.0882463950362729,-1.1151795596563225,-1.262295217483865,-0.24353883924090403,-1.1950989828610088,-1.2136051537022932,-0.9650127246589574,-1.7460797133074155,1
outputCount=1
weightIndex=0,11,121
weights=0.5474875038796575,-0.9537475284513153,0.5007511567012829,-0.6979047493574555,-0.9893800765370167,0.18273239546040768,0.4229628034571177,0.27503884496518105,-0.9242561688587795,0.5613329205804083,0.20728013007384263,-0.24437689845148275,0.15272654105123995,0.35976806267678824,-0.18379431245452849,0.16165860774605192,0.3608995151245651,0.44157855363030624,0.04138823697017176,0.3125488089173862,0.5794321338108444,-0.3150591755642781,-0.11566655348173159,-0.5148815531699852,-0.26813628346656104,-0.5022620334327043,-0.049444444423373514,-0.5216730711613726,-0.4917979417320904,-0.14456655935266174,-0.37876732654599427,-0.5763046681330701,0.3463962495034076,0.4613926832834929,0.48164561176176446,-0.06811316117152534,-0.005336911697082584,0.41260994691605474,0.1652996636568075,-0.005589194457800624,0.09340008978902783,0.1071258950075212,0.488586711003396,0.37270870778614507,-0.23396003318798708,-0.3824400332538622,-0.43281919429892307,-0.4077788060090762,-0.011065042306532817,0.24201667553030276,0.25098775524210504,-0.5035321849671631,-0.32415834743694427,-0.14152927802902923,-0.0726666971894902,-0.5951395937474522,-0.30231618661564014,-0.05048748841955671,-0.6148156203454631,-0.49524846917651566,-0.5807420445616072,-0.32352395921843907,0.0031938821426556675,-0.22389254265632844,-0.35626905781581675,-0.32012054327559386,-0.17082934464527522,0.132944348820211,0.45750718313158295,0.09981721159024579,0.4202574142102214,0.2923465132731045,-0.042699975531860966,0.3233130844192866,-0.1520806561524291,-0.3703789929844225,0.10437211230733966,0.2973409347000013,0.14588769407105961,0.2480634287790561,-0.25283274683796947,-0.24159802624524987,0.0008461741975442096,-0.02963797666175671,0.5224508480841756,0.4883638305937836,0.3211364642324469,-0.2562721046361991,0.11793397030778885,-0.1858222823311546,-0.1591522927280481,0.3487758942974543,0.3812190804133476,0.3007878626861655,0.02833619289354684,-0.2941666630904902,0.48295526993408716,0.01417777760641916,-0.3468189250339919,-0.6099294803593093,-0.009544467720070074,0.11301818276227255,-0.12976413634526474,0.003974197403622793,-0.5023344718288996,-0.5856197234674942,-0.3307623614695839,-0.2850950469803435,-0.48276230367408274,0.32480366978627645,0.3034394372897139,-0.24039069746525735,-0.002003721244388707,-0.002203628230549961,0.4843639356766812,-0.25544029641777377,0.5127301645572607,0.4113540320679553,0.3051755794870211,0.1907581449430183,0.32078425608210187
biasActivation=0,1,1
[BASIC:ACTIVATION]
"ActivationSigmoid"
"ActivationSigmoid"
"ActivationLinear"
