encog,BasicNetwork,java,3.0.0,1,1406174341551
[BASIC]
[BASIC:PARAMS]
[BASIC:NETWORK]
beginTraining=0
connectionLimit=0
contextTargetOffset=0,0,0
contextTargetSize=0,0,0
endTraining=2
hasContext=f
inputCount=10
layerCounts=1,11,11
layerFeedCounts=1,10,10
layerContextCount=0,0,0
layerIndex=0,1,12
output=0.3595457921297116,0.5964225804814507,0.5907870269996293,0.5914088276303819,0.434876910626227,0.3886532581298295,0.44528243732919254,0.5770928699632093,0.5281744803813038,0.6204293198280546,0.4892852020891996,1,0.1332538576989304,0.18427383982980983,0.008013799778002983,0.18251885321515782,-0.29485036896226824,-0.4548791985483105,-0.16032732346768253,-0.0365963933351634,-0.25548970150545625,-0.05865136274480176,1
outputCount=1
weightIndex=0,11,121
weights=-0.9708125814227648,-0.1465900181671805,-0.3943492236314698,-0.2583986606793764,-0.8353425090806644,0.29211933290556835,0.30642885671774295,-0.03127273670261441,-0.16794340847448844,0.6462568520851685,0.256130803749144,0.001480434102515537,-0.17814258926789117,-0.06730839069193537,-0.35351050698115727,-0.6938871711319311,0.14346583395880505,-0.6689882974357804,-0.05203266711882752,-0.3260074429816697,-0.6699493199149127,0.11719301709781721,0.14676652344761634,0.12458873382450751,0.09430675149765624,-0.38425149251794116,-0.34714624236968256,-0.4560843083642061,-0.03600991019673566,0.09637020435345839,-0.46592140600753235,0.1890173435967146,-0.02593643740398953,0.03152361283778694,0.07526801110150078,-0.38523597680667293,-0.44915005135956676,-0.0737632837367495,0.15838910386308055,-0.4837884236922322,0.1323488823124859,-0.457744718943856,-0.21687207068698028,0.28469630600236284,-0.4397025560006289,-0.4390792522814261,-0.43208639860467196,-0.3399732073141643,-0.048776707392882125,0.2332241756522181,0.06768443554949094,0.23228637160960455,-0.099682866439515,-0.12898020490555304,0.02106321086265313,-0.6301747643215644,0.04991219218956486,-0.424004000138687,-0.47100562503210414,-0.09291930040393284,0.18396419900741223,-0.12886930226245727,-0.39195899824855507,-0.08816753989093833,-0.5401360368412144,-0.321762693232342,0.44574344871620414,0.011865373559339549,0.4053134499362392,-0.1567670431361268,-0.3066924554992064,0.08873585938165265,0.1557878100617977,-0.17487742216945257,0.11879983112207902,0.4970811634688256,-0.22794949494616767,-0.22163117387030815,0.2912509380016419,-0.19427392126607415,0.25776468985817297,-0.2861570913856598,0.0445355206497492,-0.11583658978976855,0.5125801743651957,0.35107458286414783,0.2107564691508501,0.27935250716298454,0.3737742524138223,0.18602507942226126,-0.5430555665725062,0.019527251090679643,-0.2051539735838155,0.06622880813688375,0.2621595134494624,0.11766983679468236,-0.2805588049042624,0.08545463226351382,-0.02117498824234209,0.2402786540098144,0.227093924428391,-0.4120880033412857,0.16479804969557302,-0.4377572874910183,-0.06362985707977856,-0.3283794634979361,0.10340172560000176,0.22384273497422652,-0.12854767684169824,0.23349812816625312,0.24839858742697782,0.12869951248084713,-0.05537568767755531,-0.1250548598753343,0.5344224363694918,0.07928107384954904,0.2861738258467741,0.574620758499224,0.5183434697824272,-0.08730566918642119,0.3114461783752612
biasActivation=0,1,1
[BASIC:ACTIVATION]
"ActivationSigmoid"
"ActivationSigmoid"
"ActivationLinear"
