encog,BasicNetwork,java,3.0.0,1,1406174341843
[BASIC]
[BASIC:PARAMS]
[BASIC:NETWORK]
beginTraining=0
connectionLimit=0
contextTargetOffset=0,0,0
contextTargetSize=0,0,0
endTraining=2
hasContext=f
inputCount=10
layerCounts=1,11,11
layerFeedCounts=1,10,10
layerContextCount=0,0,0
layerIndex=0,1,12
output=0.3417377460013075,0.6147144596426893,0.5949605162118499,0.5993952620101635,0.4420844736459654,0.40982491677093585,0.4375347692695395,0.5665830542676955,0.5282998955087505,0.6247274488444569,0.47199309638958403,1,0.1332538576989304,0.18427383982980983,0.008013799778002983,0.18251885321515782,-0.29485036896226824,-0.4548791985483105,-0.16032732346768253,-0.0365963933351634,-0.25548970150545625,-0.05865136274480176,1
outputCount=1
weightIndex=0,11,121
weights=-1.2243761115695606,-0.22981665658512057,-0.5617415446886082,-0.3804452895439328,-1.0535764731483026,0.4892592285498613,0.49795973711725355,0.02881060910395753,-0.2021962146486519,0.9260332427406446,0.34830192046326647,-0.08227863129377583,-0.26341337774167156,-0.14913944180645194,-0.4420270763137051,-0.7963268071494165,0.06675153407577593,-0.7820016311103469,-0.16336354521576818,-0.42995485686213186,-0.8007341978099995,0.11594942881804879,0.12096263289642668,0.09820901476194914,0.0697141028363487,-0.41275572954811557,-0.3789112491779306,-0.47649501646029446,-0.06754045198920877,0.06487813145574109,-0.49454084299616935,0.15063221573774405,-0.02936794605977075,-0.018239234909497058,0.02410849565806817,-0.4325951290790611,-0.5071788680576963,-0.13959442151572762,0.11543383459122565,-0.5482466337026406,0.06801564154579658,-0.5158853238859857,-0.29853883667951786,0.2735964176197816,-0.475246426034781,-0.4756858285200209,-0.46616705578685796,-0.3819292830417084,-0.09632239931720718,0.20089347130970325,0.0211408754661641,0.18582276238784257,-0.14214149906640228,-0.18741865152214393,0.01758677484694761,-0.7054630221796113,-0.02747857516765137,-0.4981566528808066,-0.5590620818201862,-0.1937179925686028,0.11072330887770981,-0.23139234919886512,-0.4934070052052596,-0.1830203520749984,-0.664920113975563,-0.30725426879019124,0.49290812152546304,0.06069384741014519,0.4503978692545354,-0.0965636895544209,-0.24182472416040654,0.13014674884564736,0.2154263607028195,-0.114898615650943,0.172924375869089,0.5736167321038,-0.2179674495886391,-0.1697762410517946,0.3443935751486258,-0.14449290029113418,0.31577435685156885,-0.22051128397786116,0.08830139387531218,-0.05200414370591472,0.5762646629468555,0.4092678728886869,0.2880076901963721,0.2799631947112082,0.37280541945556106,0.18503981318530704,-0.5439820869181972,0.01861679080028924,-0.2061726671461089,0.06550773317364732,0.26115946841583304,0.11665792234367613,-0.281491286037303,0.08445766480643636,-0.021309905961850374,0.21011311423335,0.19623120544551753,-0.4411309964649824,0.13249425307127352,-0.47413328233610386,-0.08867897592438355,-0.3646082333765541,0.06710481723431856,0.1904215375502843,-0.17061687824792252,0.22736305008096686,0.31325845909391203,0.19635143415422965,0.007796168790488318,-0.032692413471677235,0.632101016099611,0.1412183115953659,0.3744113002822913,0.6632166912425015,0.5990147386522942,0.036500700408238475,0.3059292779284497
biasActivation=0,1,1
[BASIC:ACTIVATION]
"ActivationSigmoid"
"ActivationSigmoid"
"ActivationLinear"
