encog,BasicNetwork,java,3.0.0,1,1406162238278
[BASIC]
[BASIC:PARAMS]
[BASIC:NETWORK]
beginTraining=0
connectionLimit=0
contextTargetOffset=0,0,0
contextTargetSize=0,0,0
endTraining=2
hasContext=f
inputCount=10
layerCounts=1,11,11
layerFeedCounts=1,10,10
layerContextCount=0,0,0
layerIndex=0,1,12
output=0.33339200666737845,0.2418556336085095,0.9146875498053483,0.18723417101575257,0.4372523876910562,0.7761021951667169,0.43114844565959853,0.30545142733349656,0.3977800465334788,0.6319419964382608,0.4032293163930447,1,-1.3332206335128913,-1.344600090395267,-1.0882463950362729,-1.1151795596563225,-1.262295217483865,-0.24353883924090403,-1.1950989828610088,-1.2136051537022932,-0.9650127246589574,-1.7460797133074155,1
outputCount=1
weightIndex=0,11,121
weights=0.15525049954688808,-0.3105668096217452,0.04628799486127101,-0.46914710196682313,-0.40160195543762006,-0.023806086462443414,0.1765534570316187,0.0717409590082307,-0.5069599242651768,0.22614118376306652,0.21877422082950365,-0.3445349577345101,0.04783099220236327,0.26440327618676446,-0.3235506784904711,0.016854874403589362,0.28017118209043734,0.31707574936582333,-0.08570318627218368,0.19964595871906926,0.4192406603821037,-0.32151760936542456,0.016547733238287912,-0.37542669061323,-0.14251344750388995,-0.30590711972737694,0.1575833992186123,-0.40924217987624545,-0.315275332221491,0.03573777631053429,-0.21961050951049202,-0.3367957092367964,0.359131669261383,0.39709950946675365,0.4143181715476232,-0.13033788950927622,-0.09509295833223165,0.317787437400574,0.1078926720388012,-0.09013947492855813,0.007527702101828302,0.029554644027914703,0.3811173217923697,0.3933546120472085,-0.03336291454845092,-0.17410403400070323,-0.23960364671750067,-0.15509521733548817,0.25921459848065953,0.40942244193548044,0.49397738079515197,-0.25698074546225363,-0.09986333553565475,0.15241127868359364,-0.08946073442068368,-0.43612642952223313,-0.13622225964679405,0.10385622781056897,-0.39629611379908436,-0.2664309309772407,-0.44141270680273587,-0.11631786553162168,0.21343745385534735,-0.03324170168427186,-0.09577361919280902,-0.37354812612494825,-0.19296066674916793,0.1097225699439985,0.43643396545100355,0.06845519437612516,0.3871774951590068,0.2738883200095618,-0.07163363860402609,0.29384439707473314,-0.17833908974834128,-0.40862305640672614,0.10524290901600557,0.2021957625504372,0.04628958563591583,0.1565575770685663,-0.38488113963715453,-0.3781859533195765,-0.07963764709107488,-0.14556650404053295,0.40403885436049325,0.38214772144467496,0.17406546005076867,-0.25618748693082216,0.06036165849110901,-0.24547964869494543,-0.21420546001248317,0.27737680838072004,0.3049207096877574,0.2556861124095189,-0.04120213965705741,-0.3646867047671162,0.4192010955366291,-0.06991425644525301,-0.35030178652187216,-0.39932871569214584,0.2107365495121005,0.31446294161118327,0.1584820857423924,0.3058578610711166,-0.33241827963322645,-0.32670253228960155,-0.0664631412325997,-0.048943960310840195,-0.15101041620049713,0.3335858232118534,0.18614946147993755,-0.36257681371156814,-0.11548859077540682,-0.15520622733828335,0.32291458196847217,-0.35676624819600533,0.3695578944279757,0.2656435358782411,0.1731676905372721,0.014283851602544652,0.34668862083064905
biasActivation=0,1,1
[BASIC:ACTIVATION]
"ActivationSigmoid"
"ActivationSigmoid"
"ActivationLinear"
