encog,BasicNetwork,java,3.0.0,1,1406162239339
[BASIC]
[BASIC:PARAMS]
[BASIC:NETWORK]
beginTraining=0
connectionLimit=0
contextTargetOffset=0,0,0
contextTargetSize=0,0,0
endTraining=2
hasContext=f
inputCount=10
layerCounts=1,11,11
layerFeedCounts=1,10,10
layerContextCount=0,0,0
layerIndex=0,1,12
output=0.03686095188268266,0.05677538986702865,0.9907985098859348,0.06576032578078776,0.9434523639142143,0.9810197191530119,0.32898625049138824,0.08533373653206353,0.20577479985626174,0.9791797332233396,0.09078552241643195,1,-1.3332206335128913,-1.344600090395267,-1.0882463950362729,-1.1151795596563225,-1.262295217483865,-0.24353883924090403,-1.1950989828610088,-1.2136051537022932,-0.9650127246589574,-1.7460797133074155,1
outputCount=1
weightIndex=0,11,121
weights=0.618354664127293,-1.0417944154455627,0.5666996314560563,-0.7529608818965527,-1.0749431711683288,0.21079240337293048,0.4692032295624785,0.31948364699329074,-1.0027349390003972,0.6277057561363397,0.21145561536028812,-0.23430825909739597,0.16425636052865364,0.3697973405371343,-0.15532831258728622,0.1894923835575211,0.3758022835318747,0.46387137898611686,0.06439490956583858,0.3325509479505008,0.6164506009649243,-0.3119875373940308,-0.12504012489206162,-0.5263593064890474,-0.2778359139538633,-0.5381941761701524,-0.08540978719277871,-0.5409985053765309,-0.5211717318800405,-0.1749018500262138,-0.4050882237685266,-0.6277561140810934,0.340452218604812,0.47074871838861765,0.49209337615403576,-0.05837296416032128,0.01698398716356924,0.43566633380507686,0.1799154275559544,0.014606732777343062,0.11395722747559726,0.12571464746722855,0.518929434961189,0.36790030665251916,-0.24631071419827252,-0.39654267833941387,-0.4454620390472473,-0.4413022209793853,-0.04511214217271567,0.22231511740076795,0.22287481077337412,-0.5323159156001995,-0.34973488556009175,-0.18697221552917243,-0.07045240870343839,-0.6063522210376636,-0.3155270414011568,-0.06293803605277916,-0.6528147887604252,-0.5314937001340446,-0.6046193175215039,-0.35502843911786114,-0.028922232110818964,-0.25308624317152245,-0.40597494615261714,-0.3146054114791673,-0.1654607243761883,0.13881955525191356,0.4627894890769486,0.11082240391042672,0.43164373663174754,0.29880316612810637,-0.03295689500240915,0.3332773494227249,-0.14324201298419947,-0.35562802553495315,0.10403044946528381,0.30623134442462213,0.15601616633530102,0.2569774461862232,-0.227977176240212,-0.2177182856631313,0.014078535717777473,-0.011279084499725164,0.5414241328036659,0.504962661350491,0.35155922732550593,-0.2551715442661866,0.12628495926855393,-0.1767600826031498,-0.15100655100354346,0.3651712651807816,0.3980503886730299,0.3103076803604591,0.04293640555497485,-0.27925671543807945,0.4961388365419439,0.035920536711531406,-0.34505604522302813,-0.6213309480968839,-0.02320545082543394,0.10134805398422703,-0.17035030154508912,-0.03595188998513118,-0.5234877049286889,-0.6167942539862915,-0.3630556965772885,-0.31307485290731774,-0.5378213137904752,0.3197274872423505,0.3145771899806211,-0.2279065154357973,0.00957911632915502,0.024907071328797072,0.5119602066426487,-0.23852501303403317,0.5359856289275803,0.4351535062025079,0.3266275739516657,0.22674763949866555,0.31501123954464055
biasActivation=0,1,1
[BASIC:ACTIVATION]
"ActivationSigmoid"
"ActivationSigmoid"
"ActivationLinear"
