encog,BasicNetwork,java,3.0.0,1,1406162238830
[BASIC]
[BASIC:PARAMS]
[BASIC:NETWORK]
beginTraining=0
connectionLimit=0
contextTargetOffset=0,0,0
contextTargetSize=0,0,0
endTraining=2
hasContext=f
inputCount=10
layerCounts=1,11,11
layerFeedCounts=1,10,10
layerContextCount=0,0,0
layerIndex=0,1,12
output=0.11299154360804474,0.12560769677673986,0.9717957079404999,0.12873110851397715,0.8358157979441351,0.9364311317962022,0.40832038023278094,0.16498619079986712,0.30515158715968554,0.9265958082624861,0.2008814593531952,1,-1.3332206335128913,-1.344600090395267,-1.0882463950362729,-1.1151795596563225,-1.262295217483865,-0.24353883924090403,-1.1950989828610088,-1.2136051537022932,-0.9650127246589574,-1.7460797133074155,1
outputCount=1
weightIndex=0,11,121
weights=0.373108905633178,-0.7217720752141985,0.321803861691284,-0.5623050457379244,-0.764895246001077,0.10291461664717012,0.30503258713149495,0.17228908544484342,-0.7316715770141171,0.39724012574861184,0.19208016492871166,-0.28262488977167455,0.11179610306640152,0.3234226768584241,-0.2498718655368914,0.09487309830901561,0.32598220405116457,0.3870298040861979,-0.014639021214292187,0.26371085197453437,0.5007117174713729,-0.3208473020212264,-0.07011909984393386,-0.4653623881351815,-0.2247523491075216,-0.414148983841213,0.04149104935518945,-0.4750046859579701,-0.41780244289436913,-0.06849919056880703,-0.31279657150450674,-0.4629877029436524,0.35800399403359073,0.43004741932922896,0.44834789940890496,-0.09873313713778616,-0.055851465996120335,0.3598155049312163,0.1338889802921731,-0.051435722289295736,0.04672347070440761,0.06519670481543695,0.4262587738978799,0.3834725496768426,-0.18122968026503877,-0.3261462934806915,-0.3820648639832862,-0.31975909210383546,0.08078327689132583,0.2940643887524276,0.3277960731677731,-0.4250991069921003,-0.25455083144232665,-0.032745155314930274,-0.07849144093124392,-0.543781073589592,-0.24718622479408334,0.0004366740089600035,-0.5223074043381657,-0.401556139638734,-0.5245556940935814,-0.24241901129102797,0.08583564888441315,-0.14945913451509354,-0.24248659662893296,-0.3371930765995828,-0.18596492179556334,0.1169661490702304,0.4430682654933469,0.07701546940487392,0.396331780714399,0.2791386343669715,-0.06337324166881513,0.3022244187735458,-0.1708038931448928,-0.3985829996792579,0.10500775582154954,0.26417922881261435,0.11035609348066419,0.21626950201799397,-0.3109119746596434,-0.29989569720764137,-0.030927779267630545,-0.0760222113345328,0.4747321795277619,0.4464861001248646,0.25431856576651785,-0.2582410565229918,0.09294839679792839,-0.21203233505893365,-0.1829588141665412,0.31308597264351007,0.34366610570637934,0.2797536189709812,-0.00473600212319735,-0.3278253240464623,0.45300117590437433,-0.029479446384411075,-0.34991332487969795,-0.5542784096951068,0.0507353868181935,0.16602119240530105,-0.02402642551641373,0.11097862926589575,-0.44807955418080075,-0.5012237421887713,-0.24369839112732075,-0.20969225627054774,-0.35378028492716534,0.3347711222645253,0.2627531693380104,-0.2836392574586965,-0.04164577361443459,-0.06770514003702509,0.41653829549865656,-0.2955230573665923,0.4554421122138764,0.35278843342726174,0.2528268015109925,0.11168977448322795,0.33257555998983424
biasActivation=0,1,1
[BASIC:ACTIVATION]
"ActivationSigmoid"
"ActivationSigmoid"
"ActivationLinear"
