encog,BasicNetwork,java,3.0.0,1,1406162238419
[BASIC]
[BASIC:PARAMS]
[BASIC:NETWORK]
beginTraining=0
connectionLimit=0
contextTargetOffset=0,0,0
contextTargetSize=0,0,0
endTraining=2
hasContext=f
inputCount=10
layerCounts=1,11,11
layerFeedCounts=1,10,10
layerContextCount=0,0,0
layerIndex=0,1,12
output=0.2614241057170269,0.21391680209448458,0.9308088448214735,0.18076399663397652,0.5668608924939567,0.827354648571636,0.43617789131060897,0.26696096964399646,0.37859185677238666,0.7488982700095763,0.34759348192569306,1,-1.3332206335128913,-1.344600090395267,-1.0882463950362729,-1.1151795596563225,-1.262295217483865,-0.24353883924090403,-1.1950989828610088,-1.2136051537022932,-0.9650127246589574,-1.7460797133074155,1
outputCount=1
weightIndex=0,11,121
weights=0.19449822859254787,-0.41894644747744014,0.10611604240276576,-0.4647644394051428,-0.49028307048792563,0.00269334171480806,0.19214041777117846,0.08409451195275064,-0.5411196071728964,0.2461671673598442,0.19505674112012902,-0.3316056142168561,0.06108792469565021,0.2768338611367748,-0.30964813056578605,0.03182002897860892,0.2895865025964352,0.3310568927318939,-0.07154930122850682,0.21263761422760577,0.43429467369903085,-0.32247379591736164,-0.0013372031560017778,-0.39380804141539305,-0.15959595841921215,-0.3257855911503862,0.1359520344799522,-0.4223081468113979,-0.3352010289085282,0.015570662062097732,-0.23795416106284048,-0.3593109950622744,0.3609415827561212,0.4004820105629208,0.41778315662973997,-0.12708913282688616,-0.09147273411588216,0.3217134796250769,0.110443611387078,-0.08638024504696623,0.011323556640389424,0.033047284133707534,0.38519449934191285,0.3921648577645996,-0.07625982231763603,-0.2179386973844899,-0.2810939460066309,-0.19903636055075377,0.21116004900724225,0.3779714629550694,0.44769637840879667,-0.3037124176098528,-0.14332126236262022,0.1040355210549853,-0.08511826845919346,-0.4616486833701148,-0.16231306748542954,0.0794054435861945,-0.4230671880314115,-0.29562123262151113,-0.4599812590568613,-0.14458553828950657,0.1849225971488135,-0.05942502936989903,-0.12654201148860744,-0.36396889762162277,-0.1946120256668424,0.10803405413331016,0.43485460853062424,0.06674004635286555,0.3853035104840639,0.2727058383416284,-0.0734383277055913,0.2920234130882767,-0.18001493404188165,-0.4105730523269965,0.10557561330679895,0.21750645535877078,0.06198646234919861,0.1714390156815563,-0.36842367479277277,-0.36046049966472027,-0.0677801234542543,-0.1290561430604539,0.42075295517720723,0.3976475418510761,0.19168623725791473,-0.25774322469414634,0.06703350969204844,-0.23866606353214959,-0.2077589915659139,0.284169603078907,0.31236320879811874,0.26058880083349245,-0.0339924473786614,-0.35741206418676574,0.4259715434764737,-0.062405554685867094,-0.3507826618444553,-0.4445561753291186,0.1644669127593382,0.2706350489331816,0.11127117325395304,0.25442758496058837,-0.36610859715223176,-0.375547315188725,-0.1158048049690798,-0.09479699499837636,-0.20249158181463575,0.3373975006643372,0.20543793370891092,-0.34282840730659037,-0.09682567403952502,-0.13503015013320727,0.34477418685734973,-0.34184342683917446,0.3903585694980083,0.2866962415231499,0.19268264675999183,0.036312599873709044,0.343093431881687
biasActivation=0,1,1
[BASIC:ACTIVATION]
"ActivationSigmoid"
"ActivationSigmoid"
"ActivationLinear"
