encog,BasicNetwork,java,3.0.0,1,1406162239381
[BASIC]
[BASIC:PARAMS]
[BASIC:NETWORK]
beginTraining=0
connectionLimit=0
contextTargetOffset=0,0,0
contextTargetSize=0,0,0
endTraining=2
hasContext=f
inputCount=10
layerCounts=1,11,11
layerFeedCounts=1,10,10
layerContextCount=0,0,0
layerIndex=0,1,12
output=0.03448168060326373,0.05417568589671982,0.9913432421492868,0.0630557504562739,0.9466186858674028,0.9822241342829114,0.3240588307270804,0.08210196062806727,0.20044598249877438,0.9805023865381557,0.08654923547792767,1,-1.3332206335128913,-1.344600090395267,-1.0882463950362729,-1.1151795596563225,-1.262295217483865,-0.24353883924090403,-1.1950989828610088,-1.2136051537022932,-0.9650127246589574,-1.7460797133074155,1
outputCount=1
weightIndex=0,11,121
weights=0.6330196814845341,-1.0597009731211937,0.5797531074028288,-0.7641685745245141,-1.0922353079869693,0.21621343894538786,0.4785847864991678,0.3287984594401766,-1.0190445329619588,0.6413057162168512,0.21204172099178611,-0.2328081384167185,0.16608825401542038,0.37138618810818147,-0.14941613552105754,0.19520226932120796,0.37899951562449813,0.46852167828296987,0.06919474987290418,0.3367490085160011,0.6245058731171481,-0.31134010802936857,-0.12608789093422812,-0.5278844120663301,-0.27909719150873114,-0.545536093433713,-0.09265872928447517,-0.5451201432215552,-0.5272747278625657,-0.18120777192664916,-0.410598475167404,-0.6388539862352972,0.33922343140358385,0.4722591760434067,0.4938511570399199,-0.056700600360559766,0.021586132415873947,0.44041584717814086,0.18309862337957947,0.018889424756767463,0.11830867026761627,0.12967764694564995,0.525537781675144,0.3668742859824281,-0.2481334265834663,-0.39875387856941574,-0.44746079673355293,-0.44805878423143164,-0.05190618668527157,0.2182182044308539,0.21714045744314717,-0.5381832052604353,-0.35498185089468437,-0.19658031679386692,-0.06997990791835709,-0.6077621956888777,-0.3173910181915972,-0.06476006184065505,-0.6606791801744585,-0.538766749918723,-0.6097675947994883,-0.3615219805848303,-0.03553186182519583,-0.2591483947570431,-0.4165689530280083,-0.31352314861975433,-0.164506323536983,0.13989044326440628,0.46375677398800746,0.11314679298839332,0.4340417414634492,0.30021681457547483,-0.03087256597188211,0.33540811155499406,-0.14134338820956838,-0.35237325985356743,0.10394367795218667,0.30761388735373363,0.1576762897306077,0.2584387851327485,-0.22278313529758098,-0.21282497365765837,0.0168968996798467,-0.007491232206703892,0.5453382941088241,0.5084058117422662,0.3581147929399219,-0.2549390485566336,0.127762242723352,-0.17511758749608985,-0.14952785402011262,0.3686556942157016,0.4015901217758143,0.3123753247005197,0.04604126340677625,-0.27608480870071844,0.49895047138703325,0.0407308850493821,-0.34466335635455503,-0.622729975788602,-0.025103101098389133,0.09974170597013879,-0.1785120975351144,-0.04390575958643699,-0.5279506704999178,-0.6231710072750344,-0.36965722878851753,-0.31884110553766143,-0.5495287204195923,0.3186792796141663,0.3163398604006743,-0.22584152286265338,0.01153654137790963,0.03045281188095481,0.51758330816842,-0.23490936685544472,0.5408409787010123,0.4401155704431855,0.3311406383089836,0.23450152125837317,0.313714908180575
biasActivation=0,1,1
[BASIC:ACTIVATION]
"ActivationSigmoid"
"ActivationSigmoid"
"ActivationLinear"
