encog,BasicNetwork,java,3.0.0,1,1406162238749
[BASIC]
[BASIC:PARAMS]
[BASIC:NETWORK]
beginTraining=0
connectionLimit=0
contextTargetOffset=0,0,0
contextTargetSize=0,0,0
endTraining=2
hasContext=f
inputCount=10
layerCounts=1,11,11
layerFeedCounts=1,10,10
layerContextCount=0,0,0
layerIndex=0,1,12
output=0.15698011554535313,0.1568323808545239,0.959743971729724,0.1514710630553019,0.7649349331559318,0.9062628644737377,0.4252796999048102,0.1997199173642906,0.33516776931444364,0.8857788384542853,0.2505640957933939,1,-1.3332206335128913,-1.344600090395267,-1.0882463950362729,-1.1151795596563225,-1.262295217483865,-0.24353883924090403,-1.1950989828610088,-1.2136051537022932,-0.9650127246589574,-1.7460797133074155,1
outputCount=1
weightIndex=0,11,121
weights=0.3009360772454151,-0.6137336481151439,0.24047844133286647,-0.5113778459163404,-0.6634021662399581,0.06547191720875409,0.2565115961264573,0.1337247642465635,-0.6519009692413665,0.3316069618911556,0.1873779492906589,-0.3016534656449254,0.09197425804826867,0.30540500095484296,-0.2748680599640048,0.06879575489666513,0.3115437871936884,0.3644818911731645,-0.03762799595187224,0.24330401316237,0.4725434688074919,-0.3221315517023953,-0.04455788643381983,-0.4385529072933428,-0.20062154936184562,-0.3783082412117595,0.07943939002257493,-0.4546570163208271,-0.3854875182134643,-0.035504451764866475,-0.28373350400236586,-0.4200973931521895,0.36055093732294885,0.4165611631603429,0.4343407955312989,-0.11167379967477029,-0.0730251378807497,0.34155505165265404,0.12288177478303491,-0.0678886176123733,0.03003023801622297,0.05011120215383932,0.40624727435323016,0.38738737461933304,-0.14859896781989174,-0.2922430215546214,-0.3509088855444844,-0.27846047119821243,0.12496137738817112,0.3209135348853066,0.366985806663797,-0.3853158175433901,-0.21865968782266978,0.01524966763133518,-0.08107162375327902,-0.5145496819127755,-0.21675252660402847,0.028640640461637785,-0.48370896720986717,-0.36086631388203966,-0.5002595405732141,-0.20577006775362666,0.12303921420711346,-0.11582358861654345,-0.19692098455763019,-0.3464310294042565,-0.1911528075878556,0.11159283951909839,0.4381454978348422,0.07065042947107963,0.3895274236817214,0.27523237845232024,-0.06951313225055396,0.2959939978705125,-0.1764065970793096,-0.40605886325953,0.10528802142569425,0.24711147493951588,0.09254360971484604,0.1999644819641545,-0.3337215353454987,-0.323621932102383,-0.04467437785581335,-0.09615241249310967,0.45417645518304467,0.42811440245842947,0.229174423960527,-0.25852081135634364,0.08232028429060172,-0.22299694411547563,-0.1930879991144232,0.30061075985267116,0.3302511242845184,0.27182147061001205,-0.017051475979249737,-0.3402993558719754,0.4417064369423514,-0.04389970593342664,-0.3505802747963678,-0.519456746670651,0.08718723435267987,0.19897880831980716,0.02399354163187422,0.1610937053422929,-0.4212207692423112,-0.45916046559810353,-0.20068245835538548,-0.17171597558855586,-0.29896302898267574,0.3370586513230147,0.24192330248067814,-0.3052766644531049,-0.061657280600304135,-0.09401081465426914,0.3887375573281481,-0.3127683847978237,0.43087837180354394,0.3277902362160332,0.2302957445193571,0.0817557888186687,0.3367898013245327
biasActivation=0,1,1
[BASIC:ACTIVATION]
"ActivationSigmoid"
"ActivationSigmoid"
"ActivationLinear"
