encog,BasicNetwork,java,3.0.0,1,1406162238846
[BASIC]
[BASIC:PARAMS]
[BASIC:NETWORK]
beginTraining=0
connectionLimit=0
contextTargetOffset=0,0,0
contextTargetSize=0,0,0
endTraining=2
hasContext=f
inputCount=10
layerCounts=1,11,11
layerFeedCounts=1,10,10
layerContextCount=0,0,0
layerIndex=0,1,12
output=0.10511891743928584,0.11946929418135956,0.9738838621656986,0.12380808159109717,0.8477083381369213,0.9415225704484896,0.4039222823847403,0.15814447333512172,0.29846886001022377,0.9330190831064834,0.19116308974882748,1,-1.3332206335128913,-1.344600090395267,-1.0882463950362729,-1.1151795596563225,-1.262295217483865,-0.24353883924090403,-1.1950989828610088,-1.2136051537022932,-0.9650127246589574,-1.7460797133074155,1
outputCount=1
weightIndex=0,11,121
weights=0.38900294787701795,-0.7442475237998076,0.33905856774024723,-0.5742493612471787,-0.7863456789587056,0.11078181871382964,0.3158581322283177,0.1811470724898034,-0.7492523443734042,0.4120167257042761,0.1934572684105247,-0.2786122092498329,0.11600546300767274,0.3272150364979463,-0.2441754023729851,0.10075318928364532,0.32914253248074044,0.3919993592093031,-0.009558334102802473,0.2681838233386948,0.5072279469343735,-0.32046635703032916,-0.07528952648978794,-0.47083482721684816,-0.22962986899910803,-0.4220833003457992,0.0331620647345585,-0.4793544555566701,-0.42474981742431167,-0.07561178464641544,-0.3190145962897327,-0.4726785558903389,0.35723435943428816,0.43309395733997585,0.45153072473336886,-0.09580207199315893,-0.051706713111068524,0.36419505980883776,0.13649174615907406,-0.04755504694044879,0.05066695347613257,0.06874702336767971,0.43115707077583404,0.3825627882237033,-0.18738807373854593,-0.33259495383665555,-0.3879342419112621,-0.32825940536920767,0.07176885174570344,0.28880647893789685,0.32000943449400937,-0.43302375259304005,-0.26163464283543303,-0.042818418241223434,-0.07792691149819543,-0.5496142689792293,-0.2533077128877008,-0.005221415090655231,-0.5307185570840899,-0.4103177275905679,-0.529738116979531,-0.2501663852616923,0.07795754636550002,-0.1565609313585884,-0.25252921318199645,-0.335363120880405,-0.1846552399798983,0.1183292673064107,0.44431041393429516,0.07871481677253722,0.3981369410758873,0.2801540163422282,-0.06177156886891018,0.3038528483912706,-0.1693476635180547,-0.396561696156134,0.10494916161335266,0.2677019715940469,0.11405901326381514,0.21962806497183476,-0.3058183389530824,-0.29465734994457526,-0.027987384217824502,-0.07168818934877864,0.47917048927019656,0.4504196852072592,0.26000283647150785,-0.2581276512326645,0.09531305451951061,-0.20958218011250124,-0.1807101615584202,0.3160170813757606,0.34679644188135056,0.28155711661683264,-0.0019080392815661795,-0.3249561218169406,0.45558057791027295,-0.02603798056203151,-0.3497144343477767,-0.5608993067613648,0.04373858253671049,0.15976587283540747,-0.034093683784621714,0.10059548768638223,-0.45346110095774866,-0.5096957146972634,-0.2523950338008192,-0.21729519420759605,-0.36549246934335633,0.33409978196158735,0.2670513547254314,-0.2791465905397244,-0.03751229198590543,-0.06187692517734257,0.42265240469256427,-0.2918342195187918,0.4607381917780462,0.3581885361793919,0.2576677488784232,0.11843034256004788,0.33160879588763625
biasActivation=0,1,1
[BASIC:ACTIVATION]
"ActivationSigmoid"
"ActivationSigmoid"
"ActivationLinear"
