encog,BasicNetwork,java,3.0.0,1,1406162239078
[BASIC]
[BASIC:PARAMS]
[BASIC:NETWORK]
beginTraining=0
connectionLimit=0
contextTargetOffset=0,0,0
contextTargetSize=0,0,0
endTraining=2
hasContext=f
inputCount=10
layerCounts=1,11,11
layerFeedCounts=1,10,10
layerContextCount=0,0,0
layerIndex=0,1,12
output=0.057516022418380455,0.07792120230332127,0.9859251282915611,0.08688586716551694,0.9155941636232087,0.9700135045301629,0.3620900615634568,0.11078361730694482,0.24347486918463226,0.9668965715084146,0.12499284550327966,1,-1.3332206335128913,-1.344600090395267,-1.0882463950362729,-1.1151795596563225,-1.262295217483865,-0.24353883924090403,-1.1950989828610088,-1.2136051537022932,-0.9650127246589574,-1.7460797133074155,1
outputCount=1
weightIndex=0,11,121
weights=0.5210644318645221,-0.9202014163282215,0.4750790839224578,-0.6771414879795745,-0.9566802032866415,0.17156422297899543,0.40538312866972076,0.2587834141818882,-0.8950820267284857,0.5364050547904242,0.20526040714090518,-0.24913833170807004,0.1474786807057579,0.3551751042527045,-0.19425325995162745,0.15129146873258584,0.3555119178249817,0.4333058149802746,0.03285985589683539,0.30515555289239366,0.5664156509219339,-0.3161347943431352,-0.11058308554934829,-0.5090935027447518,-0.2631701058651644,-0.4887987971425566,-0.03578439842767053,-0.51462628373711,-0.48081775116465464,-0.1332408086394966,-0.3689810991209976,-0.5580036391375613,0.34851940001685405,0.45720075377167385,0.4770912694437308,-0.07231213971448104,-0.013541274868701436,0.40410771543556906,0.16014369823502525,-0.012915271380369095,0.08593526539950312,0.10041314101818433,0.47798089238178326,0.37444016722183937,-0.2279651586939515,-0.3758422339229779,-0.4269149832143562,-0.3949765487558203,0.002079776687832661,0.2494156137804835,0.2617502329036482,-0.49251446331108945,-0.3144082885762806,-0.12493552814705763,-0.0734955200854166,-0.5893212482154403,-0.2958296346473377,-0.044471302412163925,-0.6007018491961975,-0.4813922081913621,-0.572139416003479,-0.3116515424825362,0.015305422054191557,-0.2129585650174106,-0.33833773432783504,-0.32234042825049186,-0.17306374328209942,0.13054542629928756,0.45535189317837715,0.09588611799685691,0.4161707469041943,0.2900915507411453,-0.04617801289243806,0.3197573095578784,-0.1552271283802819,-0.375434219161257,0.10447689002418747,0.29321862544909344,0.14134662138958085,0.2440514883593104,-0.26194531452802405,-0.2505265406593015,-0.003977805111860985,-0.03653214645890148,0.5153323799034529,0.482151882728455,0.31031163475367507,-0.2566549583067613,0.11442579820765648,-0.1895609108757953,-0.16251900712304704,0.34290116110402286,0.37512201269857665,0.29740735188701634,0.023057221338118855,-0.2995524986153478,0.47819343009995813,0.006689669900738501,-0.347409551161284,-0.6038951931102954,-0.002728650318055876,0.11889823762416404,-0.11426176021497984,0.019388387886103343,-0.494496573088857,-0.5737171886539396,-0.3184379171837488,-0.2744683509293653,-0.46279849121421285,0.3266179122534764,0.2983336496322647,-0.24595072380017818,-0.007104778432177711,-0.0123211288532643,0.4740050610660371,-0.2615727312731242,0.504101479926461,0.40251875544569815,0.2972672774508894,0.17795503567903206,0.32276321546960973
biasActivation=0,1,1
[BASIC:ACTIVATION]
"ActivationSigmoid"
"ActivationSigmoid"
"ActivationLinear"
