encog,BasicNetwork,java,3.0.0,1,1406174341137
[BASIC]
[BASIC:PARAMS]
[BASIC:NETWORK]
beginTraining=0
connectionLimit=0
contextTargetOffset=0,0,0
contextTargetSize=0,0,0
endTraining=2
hasContext=f
inputCount=10
layerCounts=1,11,11
layerFeedCounts=1,10,10
layerContextCount=0,0,0
layerIndex=0,1,12
output=0.36578941908127965,0.5773434149683875,0.5878032529917029,0.5841655513800889,0.42951580146910884,0.36779710611995703,0.4505618774899854,0.5843374820133274,0.5253316723230391,0.6147334045813586,0.5037556247080344,1,0.1332538576989304,0.18427383982980983,0.008013799778002983,0.18251885321515782,-0.29485036896226824,-0.4548791985483105,-0.16032732346768253,-0.0365963933351634,-0.25548970150545625,-0.05865136274480176,1
outputCount=1
weightIndex=0,11,121
weights=-0.7266953560904144,-0.07008462464608087,-0.2390114441652689,-0.12914424148689854,-0.6294213099353343,0.12142618665269611,0.16189743568151432,-0.11274939242177555,-0.18286040884901097,0.3822306691098726,0.1667942224512455,0.10925595419635127,-0.06904031045390933,0.03623283529235244,-0.2540775359498812,-0.5791734294215223,0.22903744650166438,-0.5463651127393834,0.07003656464924046,-0.21295332619182633,-0.5440603108677218,0.11818783252066248,0.16702699529683435,0.14518706718562185,0.11358580805862874,-0.36450934494825304,-0.3248776563018027,-0.44151779570073624,-0.013657353227981844,0.11881367385462487,-0.4454305252157758,0.21341147399422555,-0.024255175600611373,0.08263843989061237,0.1274072294215692,-0.3366003793694846,-0.3979487183747288,-0.015497808307355952,0.1981648477459091,-0.4263509419433009,0.19007780840570027,-0.4052272041277769,-0.15341679881020676,0.2923805892488767,-0.4087597905926719,-0.4074756322565591,-0.4025066230244774,-0.3084344117743675,-0.012968727975545038,0.2584249503901928,0.10330726728974447,0.2680669803419742,-0.06676563756930311,-0.08957783556565106,0.02303944822852742,-0.5342947313328117,0.1476333031528218,-0.33176572719448805,-0.37476972830617283,0.0168562531572493,0.26285190461721714,-0.018305323514813343,-0.28142157144387936,0.01400500829593834,-0.42015889810359575,-0.3363884880352047,0.40926367930354124,-0.025529683639402195,0.37041105425180865,-0.19577469298951605,-0.349571392555573,0.06010897446355782,0.11506425835606543,-0.21604636189682525,0.08127509468863209,0.45168410866499736,-0.23339874571982547,-0.2666228389743638,0.24542593045192315,-0.23745009171859657,0.21346791276146834,-0.3362724073106199,0.009857779332748793,-0.16512746667108288,0.46305292519054325,0.3055701624928114,0.15776038816110216,0.2769774909809239,0.3927501154471323,0.20534738562980084,-0.524658690749503,0.03785741605570805,-0.1844686396499729,0.08134733469249643,0.28286093715643956,0.13852019116344222,-0.2611240041261628,0.10700822881291763,-0.018873359513390996,0.28148921063148746,0.2690657305591389,-0.37222190394547383,0.20475156251849402,-0.39272697186630895,-0.03096589768354505,-0.2832448869601578,0.14886529264552578,0.2661115375711806,-0.08129697759031027,0.23914890961915153,0.18054779080013936,0.058861618475699796,-0.12000110215603974,-0.20304866756814088,0.4504267123721701,0.026233702881043812,0.20862050247934835,0.4961506242340857,0.44759867703323286,-0.18139289324783484,0.31820376030221237
biasActivation=0,1,1
[BASIC:ACTIVATION]
"ActivationSigmoid"
"ActivationSigmoid"
"ActivationLinear"
