encog,BasicNetwork,java,3.0.0,1,1406162239357
[BASIC]
[BASIC:PARAMS]
[BASIC:NETWORK]
beginTraining=0
connectionLimit=0
contextTargetOffset=0,0,0
contextTargetSize=0,0,0
endTraining=2
hasContext=f
inputCount=10
layerCounts=1,11,11
layerFeedCounts=1,10,10
layerContextCount=0,0,0
layerIndex=0,1,12
output=0.035870127064000085,0.055697315238855793,0.9910258422760608,0.06464161291579099,0.9447719362684925,0.9815230853639401,0.32697064663392506,0.08399685401584,0.20358718623837463,0.9797329620936953,0.0890296085735365,1,-1.3332206335128913,-1.344600090395267,-1.0882463950362729,-1.1151795596563225,-1.262295217483865,-0.24353883924090403,-1.1950989828610088,-1.2136051537022932,-0.9650127246589574,-1.7460797133074155,1
outputCount=1
weightIndex=0,11,121
weights=0.624339439922117,-1.04911441126293,0.5720535386732706,-0.7575444859878246,-1.0820183949684894,0.21302204761191668,0.4730400944877786,0.3232812884213364,-1.0093872582298302,0.6332628149613889,0.21170769229949474,-0.2336690224014117,0.16502975609581502,0.3704680890920468,-0.1529145388273346,0.191826561673197,0.37710143553584025,0.465766972205049,0.066351562483229,0.3342607950346201,0.6197213785488537,-0.31172307501288915,-0.1255083598177782,-0.5270205258560003,-0.2783843079023271,-0.5411965129520012,-0.0883786160053268,-0.5426741461120793,-0.5236600980230929,-0.17747294395080454,-0.40733271022593187,-0.6322661000139912,0.3399492126393638,0.4713852205151015,0.4928299449192276,-0.0576742857226809,0.018865286987238605,0.4376077018166235,0.18120742610040508,0.016349943993448607,0.1157288750860668,0.12732669141569547,0.5216132226756367,0.36748290810535356,-0.24708682839709648,-0.3974762282265785,-0.44630464040521844,-0.4440684974467476,-0.047896601638358426,0.2206452115685934,0.22053269986933072,-0.5347126306604273,-0.3518763872088843,-0.19088413754949998,-0.07026070450061939,-0.6069689132950661,-0.31632724992537853,-0.0637155707086469,-0.6560252501237701,-0.5344734319377417,-0.6067099445422811,-0.35767843610505984,-0.03162020842619203,-0.25555795924796826,-0.41028543231905457,-0.31416190740100497,-0.16506350754628626,0.13926383881071705,0.46319045397746106,0.11177021355530645,0.4326217382207174,0.29937672762021383,-0.032108979886783816,0.3341442399574679,-0.142470064643305,-0.3543076772644108,0.10399585383410449,0.30681648728914945,0.15671369568464646,0.2575911939121417,-0.22585867419856478,-0.2157180658298996,0.01522459966935239,-0.009733225194439487,0.5430216757724854,0.5063668336786934,0.3542236650121392,-0.2550765923634765,0.12690004089743182,-0.1760783548236909,-0.1503930972248542,0.36659031746690557,0.39949363783348496,0.3111469499364694,0.04419987139695213,-0.277965966664452,0.49728247573663553,0.03787053394535097,-0.34489679589720557,-0.621944688893572,-0.024021363686846216,0.10065686023400482,-0.17369320502484217,-0.03921268633382988,-0.5253037661862381,-0.6193978551512477,-0.36575144776669605,-0.31542692018006524,-0.5425853171335613,0.31929831125091196,0.31532141421043813,-0.22703989706586344,0.01039797122697012,0.027175090486653633,0.5142605063347238,-0.23705509118856863,0.5379645693077757,0.43717637155620576,0.32846532588202004,0.22989928982953164,0.3144869773920146
biasActivation=0,1,1
[BASIC:ACTIVATION]
"ActivationSigmoid"
"ActivationSigmoid"
"ActivationLinear"
