encog,BasicNetwork,java,3.0.0,1,1406174340923
[BASIC]
[BASIC:PARAMS]
[BASIC:NETWORK]
beginTraining=0
connectionLimit=0
contextTargetOffset=0,0,0
contextTargetSize=0,0,0
endTraining=2
hasContext=f
inputCount=10
layerCounts=1,11,11
layerFeedCounts=1,10,10
layerContextCount=0,0,0
layerIndex=0,1,12
output=0.40649502288060324,0.5556577521369147,0.5876435306595418,0.5798068718711082,0.42836880415953044,0.34740351625611865,0.45236544702837633,0.589607418640383,0.5185074142174618,0.6063810303341802,0.514066311351959,1,0.1332538576989304,0.18427383982980983,0.008013799778002983,0.18251885321515782,-0.29485036896226824,-0.4548791985483105,-0.16032732346768253,-0.0365963933351634,-0.25548970150545625,-0.05865136274480176,1
outputCount=1
weightIndex=0,11,121
weights=-0.5595063233903194,0.033442983778363994,-0.08680038354470884,0.02385570392028405,-0.49764047626300767,0.025163150304362752,0.12352895940058994,-0.20000408851219437,-0.2302647133376179,0.23452450702113517,0.16431210672625418,0.22510721497108904,0.047945886322136234,0.14859836943550334,-0.15406725065429153,-0.4640059806263976,0.32107253516171297,-0.4221453964313713,0.19420971114282984,-0.09582051319588113,-0.4259556609296513,0.11085400199150779,0.1689560692712948,0.14714734939832352,0.11542647964098428,-0.3626616262880191,-0.322786280714353,-0.44013515330089775,-0.011554422169409148,0.12092809299467668,-0.44349596442079636,0.2156583118950717,-0.023598479057432894,0.11003444094246359,0.1552420100416179,-0.31026029319463994,-0.3724325317296544,0.01359956245629657,0.21953525590062492,-0.3969427824255716,0.21966552828591832,-0.37787801095012985,-0.12329525292650798,0.2936680761596488,-0.401890569158785,-0.4004848447392829,-0.3959093631265082,-0.30185238633452427,-0.005474034972811938,0.26394362280190314,0.1109277429446131,0.2757276723171547,-0.05964795475901527,-0.08162485085638188,0.02340631614427619,-0.432358812062699,0.2509692320530949,-0.23315342754611468,-0.28196784674729486,0.1227927783863086,0.34551800921506565,0.09176621369028115,-0.1710812890878795,0.11755183772169278,-0.31088091209250496,-0.3521468930231766,0.39812474622868826,-0.03689127635112874,0.3596771454963795,-0.2067392959530283,-0.36175584406672884,0.05150650832509816,0.10309256700385144,-0.2281463688839057,0.07008945016034412,0.4392480965345196,-0.23390570025104035,-0.2968948198045471,0.21468953525791398,-0.26678095961223525,0.1854962867442815,-0.3678981497111198,-0.01364933255438235,-0.19716413523830878,0.4307964240855539,0.2754593563331867,0.1255769872217862,0.27783816572549863,0.4305101522814696,0.2437139989663657,-0.4880838421777017,0.07308385557336496,-0.1446387029175501,0.1106677941953788,0.32316720914456254,0.1791054978096011,-0.2231819114440916,0.14776812506869455,-0.01993456083059873,0.3295979096906139,0.3179553471491449,-0.3258042688510274,0.24960585697602816,-0.341946678748565,0.006080703794254479,-0.2320378270003071,0.2004616050914447,0.3140764842078848,-0.029178067910420373,0.23727632487082556,0.13356912354168585,0.010866988304724661,-0.16467774481252734,-0.2509249919213467,0.39797057267210556,-0.008484702354781666,0.15815575007953842,0.4451139235824739,0.4012742091666446,-0.23711737077225956,0.3273399085704422
biasActivation=0,1,1
[BASIC:ACTIVATION]
"ActivationSigmoid"
"ActivationSigmoid"
"ActivationLinear"
