encog,BasicNetwork,java,3.0.0,1,1406174341706
[BASIC]
[BASIC:PARAMS]
[BASIC:NETWORK]
beginTraining=0
connectionLimit=0
contextTargetOffset=0,0,0
contextTargetSize=0,0,0
endTraining=2
hasContext=f
inputCount=10
layerCounts=1,11,11
layerFeedCounts=1,10,10
layerContextCount=0,0,0
layerIndex=0,1,12
output=0.35266499067288937,0.6055178230962032,0.592774564803964,0.5953420301004781,0.43834383579894115,0.39919987113873234,0.4416116943787156,0.5722178530831136,0.5284683582624604,0.6226488465621514,0.48083148642015877,1,0.1332538576989304,0.18427383982980983,0.008013799778002983,0.18251885321515782,-0.29485036896226824,-0.4548791985483105,-0.16032732346768253,-0.0365963933351634,-0.25548970150545625,-0.05865136274480176,1
outputCount=1
weightIndex=0,11,121
weights=-1.099812064479152,-0.18728984531828843,-0.47826485264234764,-0.32136665897007877,-0.946449108033858,0.3903659080774598,0.400165680525637,0.0005820383472367368,-0.18066895281563836,0.7889974511799257,0.30449252236033303,-0.04432273297447985,-0.22470436133031033,-0.11162704821933063,-0.39994252490529586,-0.7474763191578142,0.10405611200451556,-0.7269033135688681,-0.10933285641804358,-0.37914435756760373,-0.7347434528195926,0.11614941395358698,0.13376770834403473,0.11132414148532806,0.08195118323335145,-0.39798051884100344,-0.3625035827280333,-0.4659182795971005,-0.05122641955708281,0.08113331156743511,-0.47975415888062456,0.17116623550409854,-0.027507514172952694,0.005145829922772431,0.048217009785316914,-0.4102444585110978,-0.47839619440476555,-0.10693361266328046,0.1367431655353827,-0.5160568270055408,0.1000375367074031,-0.48688747275337346,-0.2560665607921539,0.2793088176530616,-0.4581383654668172,-0.4580158801186968,-0.44969207246195303,-0.3606967033799817,-0.07223837400126208,0.21727833311016664,0.04477774251713009,0.20934951571224408,-0.12061613614254768,-0.1566107111905947,0.019375304221529374,-0.6713028088833258,0.007733551681147555,-0.4640885753764833,-0.5169780482995036,-0.14537732086252697,0.14649741117483106,-0.181473041635784,-0.4442418103589476,-0.13671537538137804,-0.6021431892215549,-0.3145186980028472,0.46980787715988864,0.03669781412395538,0.4282477425929324,-0.127906114198137,-0.27541540495734956,0.10875663010875415,0.18462676061893138,-0.14578737724202995,0.1450355774785313,0.5323991957736747,-0.22326515374338168,-0.19510577651444735,0.3183803081623618,-0.16891374257755956,0.28617251626553464,-0.25404619679116985,0.06584422064074409,-0.08474381535368018,0.5437002494252539,0.3794422221879702,0.24700786697751714,0.2801441129665415,0.3718142810608195,0.18402338661523307,-0.5449494482699417,0.01751728534017051,-0.20741988255805988,0.0646237152780459,0.2599211161980213,0.11542001154544256,-0.2826407559970371,0.08297748295330966,-0.02150027024963406,0.22402030239477377,0.2104819335913396,-0.4277291704004485,0.14792728405941516,-0.45673251486162075,-0.07676473490702394,-0.3472271386221007,0.08447476450668898,0.20640363410109486,-0.14972941437661283,0.23038406035753703,0.28316493492040234,0.16481071075790152,-0.02187122681961038,-0.07889362537406402,0.5834097306411526,0.10990186757486307,0.33030282225566393,0.6191097119572182,0.5585883404449353,-0.02803980884244564,0.30845346550202934
biasActivation=0,1,1
[BASIC:ACTIVATION]
"ActivationSigmoid"
"ActivationSigmoid"
"ActivationLinear"
