encog,BasicNetwork,java,3.0.0,1,1406174341094
[BASIC]
[BASIC:PARAMS]
[BASIC:NETWORK]
beginTraining=0
connectionLimit=0
contextTargetOffset=0,0,0
contextTargetSize=0,0,0
endTraining=2
hasContext=f
inputCount=10
layerCounts=1,11,11
layerFeedCounts=1,10,10
layerContextCount=0,0,0
layerIndex=0,1,12
output=0.3670945659728128,0.5740729387663142,0.5875199741963846,0.5831767399177958,0.42897609309201323,0.3645075883437514,0.45106032743211594,0.5852139290762247,0.5244990684097357,0.6135750443147395,0.5056288936890255,1,0.1332538576989304,0.18427383982980983,0.008013799778002983,0.18251885321515782,-0.29485036896226824,-0.4548791985483105,-0.16032732346768253,-0.0365963933351634,-0.25548970150545625,-0.05865136274480176,1
outputCount=1
weightIndex=0,11,121
weights=-0.6934618784833545,-0.057314173992176365,-0.2162483256339047,-0.10785043094742972,-0.6022361051498577,0.09928569207143924,0.14704315970692716,-0.12846819584959698,-0.19085473233799632,0.34741900533371795,0.15694979161413194,0.12810256872729195,-0.050008368373147316,0.05444177347472068,-0.2376153891876413,-0.5601681938943297,0.24407761188485166,-0.5259010635331304,0.09045260742576233,-0.1938573220711865,-0.5242407891255675,0.11814439395017787,0.16888265863698163,0.1470694973775742,0.11535571903953255,-0.3627826972894794,-0.32292023025044925,-0.44020569317481156,-0.011664869098703776,0.12081592552906005,-0.4435916118136112,0.2154945621852528,-0.024188991569237497,0.08934646706476895,0.13422904058554863,-0.33017106792543593,-0.3915969638899473,-0.008255694428072481,0.20337568694809394,-0.4190861253975093,0.19738668657110978,-0.39850409522133484,-0.1458443466987287,0.2930492895531097,-0.4056630057855647,-0.40432322976128493,-0.39953385661642793,-0.30545367113251765,-0.009575782003666457,0.2609069502734002,0.10674925545583529,0.27152688031608857,-0.0635537099000178,-0.08597007543097009,0.023115173721630113,-0.5178196025175772,0.16436040060032717,-0.3159183380344411,-0.35930749625236114,0.03452750427353725,0.27612678188941797,-0.00017314946787044642,-0.26326375931267787,0.03089009878627659,-0.40158731455777597,-0.33856557331247084,0.40595016153223845,-0.02891272564103839,0.3672231207519398,-0.1990877148251941,-0.3532465066992121,0.057546797881247065,0.11147998085332193,-0.2196698700872169,0.07793628645325817,0.4479118776384328,-0.23372091140157084,-0.2721662797243144,0.2397927141632232,-0.2428062899269772,0.20825882687994143,-0.34216683617713667,0.005568748711141473,-0.17103349584764566,0.45710912816838345,0.30005248751785346,0.1517197881335515,0.2767400824851162,0.3980464466735327,0.21073272661125747,-0.519516916064391,0.04284737756530064,-0.17883126489977044,0.0855345807320015,0.2885486112770889,0.1442497161948885,-0.2557641236673975,0.11278989039270805,-0.018465228274906674,0.28925784917208164,0.2769657557875495,-0.36469474038569816,0.21206364636703373,-0.3844653070138845,-0.024846134611522585,-0.27492044982904545,0.15725594845164226,0.2739359628258555,-0.07281529020835503,0.23973271703135027,0.17141986096124875,0.04951508034419124,-0.12867239178111795,-0.21269127849096525,0.4399199591129238,0.019419209645855175,0.19866307775977815,0.48607381660423765,0.43848907902343054,-0.19271218885717004,0.31931139360865785
biasActivation=0,1,1
[BASIC:ACTIVATION]
"ActivationSigmoid"
"ActivationSigmoid"
"ActivationLinear"
