encog,BasicNetwork,java,3.0.0,1,1416468429260
[BASIC]
[BASIC:PARAMS]
[BASIC:NETWORK]
beginTraining=0
connectionLimit=0
contextTargetOffset=0,0,0,0
contextTargetSize=0,0,0,0
endTraining=3
hasContext=f
inputCount=16
layerCounts=1,17,17,17
layerFeedCounts=1,16,16,16
layerContextCount=0,0,0,0
layerIndex=0,1,18,35
output=0,0,0,0,0,0,0,0,0,0,0,0,0,0,0,0,0,1,0,0,0,0,0,0,0,0,0,0,0,0,0,0,0,0,1,0,0,0,0,0,0,0,0,0,0,0,0,0,0,0,0,1
outputCount=1
weightIndex=0,17,289,561
weights=0.49923792203143946,1.0184929259030806,-0.38716091747353903,-1.6201540107562218,-0.8140873037414661,0.7240048889874467,-1.1014706183135707,-1.272839751637295,0.3559988522665073,-0.8035699329339872,0.4058184102941996,-0.9294799113804387,1.5186359990447003,0.9946005874617602,0.2541140744047454,1.4002543017556346,-0.0008225536548363063,0.3711278496552174,-0.15591616308463885,0.42658464223852055,0.2556363034982906,0.29259059087625583,-0.029134385021454923,-0.20488025146034028,0.06366294610135871,0.3544157866032564,-0.13890866954175649,-0.06024617535295748,0.2785336170240008,0.06534035485905124,0.1900499636845062,-0.4012409007412246,-0.09287574024248788,0.26703158442860947,0.35871063068449516,-0.06936155389738062,0.2503703385565428,0.23423066137017884,0.01888501005401772,-0.6110019452720005,0.365165183406843,0.5527676730933955,0.15332378037505967,-0.41492236322295645,-0.3470781036925157,0.42807090241531387,-0.40675250918086264,0.19863985225268546,-0.4883982995983921,-0.15838600675293235,0.17811151577827927,0.1318937347638115,0.45931848195577624,-0.3741771745783194,-0.25412932136399774,0.09086071276445293,0.42459777073405386,0.15058966194344983,0.006694836407198532,-0.3103111549226624,0.10792392987445992,-0.098296049395208,0.09136948503708493,-0.13803775907128796,-0.22257951582231292,0.27466097350493135,-0.15773879276439132,-0.049984051489993825,-0.6097181104516483,0.7024001884120848,-0.8701208990601037,-0.2487246911027338,-0.40873966282472596,0.7829144835590593,-0.29284436325276286,-0.4269570252678357,-0.2685268944313663,-0.20263679578772523,-0.07371628453080793,-0.3132615854378833,0.28608059114911094,-0.3165160463116765,0.7459717224383943,0.30258414533160244,0.2706659071994639,-0.28124078588455304,0.6403787808458932,-0.5334158062518916,-0.316639328911052,-0.4079340214389402,0.24214273932625047,-0.15914915493221937,0.06306871477962148,-0.4068032838837204,-0.1090051299844411,0.0021361507005903703,-0.2933764498523918,-0.13073387131387898,0.0016718659593552216,0.12842336151418837,0.30224896660242606,0.2009862217633535,0.3820473629445256,-0.39911899872744633,0.12167862934557878,-0.10757338297139443,-0.16870242112628073,-0.31700979410648955,0.4475196178064439,0.26573290702883356,-0.0075283205908163306,0.2591527171863614,-0.05565965168398807,-0.04468911074896886,-0.34677852169449475,0.23479948426994618,-0.10042549487982248,-0.4482516134364193,0.3298307834977675,-0.01618466074159883,0.3084026511577876,-0.4747551292152081,-0.19626388908311576,-0.24076488132585377,0.2537169603371642,-0.07255323981405283,-0.29734827487644205,-0.45174253212089555,0.048493289002819906,-0.08899151469322589,-0.48172923803323436,0.4613104407026355,-0.46175974464573116,0.5422164186541847,0.6081545628793875,-0.20180778403664004,-0.4943677386739414,0.5172828662906083,-0.6996388584962765,-0.12622602597581026,-0.24792694261262754,0.6406160956380595,-0.38920985942038844,-0.39651876144146236,-0.4832296626382577,0.21590421779883934,0.3504349333517308,-0.016905638592834366,0.29590889748601995,-0.0692513251268587,0.033376414959697134,0.6236877770950656,-0.17908850961577805,0.3470027632174071,0.18524234645787538,0.049442918186776555,-0.2067857057061771,0.2743246431834831,-0.2863325391696249,-0.12654794269235894,0.37294544240726585,0.09261845170173541,-0.32650100016213385,0.13639846170054606,0.22282371502122605,-0.2227448163606531,-0.10047360451649373,-0.3473733668566657,0.19955988937027033,0.026847906716542753,-0.1804267636314699,0.4226251293499939,-0.44590310439095726,0.26424418831995156,-0.10886958243067084,0.5720069311479382,0.11689085114058667,-0.30428626586389534,-0.0727804209877495,0.33106104144250875,-0.006289617297443538,-0.05925842646973461,-0.22476601132475288,-0.335746418162149,0.3120959826806579,0.38032653036481023,-0.34012533229441383,0.15914077595225717,-0.034743436068663806,-0.010382009959527691,-0.2237706201783678,0.2669108343049341,-0.28787059806286974,0.13216032871777156,0.13934401289546477,0.34346232229070545,0.14246192661811774,-0.38340173139348904,-0.0030610248350943278,0.2565056718117484,-0.11834951929332833,-0.3409224441294985,-0.42774116944814966,0.22791347365472484,-0.428314607613617,0.4777062191517804,-0.37852288411195156,0.06772215647827975,-0.1959131293415875,0.34564483857960665,-0.3154608948537213,-0.4239949040406231,-0.40493364752448846,-0.11053778043288023,0.4562565182198919,0.06326591596802342,-0.21342546170762436,-0.15986216556827393,0.08270960932749105,0.4498482969362448,-0.22935636907833484,0.5668390563865128,-0.5553506477298678,0.8357176956819,-0.40579508898995215,0.3757209547964546,-0.3190454681740025,0.47809634679487506,0.530415088928954,0.5950459079701115,-0.3884531461845411,-0.3226157441108933,0.2524256761443689,-0.030771580222296174,0.15736390648986637,-0.5753019815460891,-0.5806690338985089,0.10039383415585292,0.4179991796692308,-0.1330635098871266,0.6379959081175153,0.1547078820344121,-0.11877368512724404,-0.568337332379249,0.27554390637798803,0.11916163351619515,0.3888009319139787,0.22056275152873248,-0.3032256525948489,0.11665110027102366,0.13413331318428812,0.41301634506787677,-0.47914021094102655,-0.49414403977706284,-0.23590024365943157,-0.10978973312722974,0.12832186249155347,0.31709345960610413,-0.15610266722859104,-0.238148312728382,-0.27285247776330185,0.2799456755375881,-0.08175592465675312,0.12815903991632985,-0.10007915292949195,0.09187904853366469,0.3133107535594471,0.3440479089127122,-0.13052791177147394,-0.138903962454419,0.12685486318180544,-0.3277005172859369,0.24022069097033796,-0.6272137842792429,0.9257115528506137,-0.10560905686734391,-0.10999365887621078,-0.6348552971484634,0.5037492090934036,0.2041593914220804,-0.016977521152875263,0.06074163914772148,-0.184701398456502,0.6678859818926985,-0.2626089219557769,0.4286017034060122,-0.1463343509003979,-0.5584024868157533,0.14175168400212235,-0.2526987845097701,0.5827298056178245,0.6193800991973253,-0.09578968188892825,0.37673104648169015,-0.3179907435389276,0.4102656448563401,0.31580815107321897,-0.1280600915212723,-0.042933958931505235,0.6944927272841738,0.4043074962489198,0.25630327572404005,0.1856680568500167,0.26643116875743356,0.5885055860138693,0.08129611536810355,-0.21693959298552343,-0.7927278847341751,-0.6500127653198883,-0.45492975027170396,0.04524823761974647,0.48184586468795626,-0.6475003065369428,-0.39457222954517684,-0.3256609675528139,-0.33723501721094856,-0.2082322425755538,-0.5525812159463499,-0.14371434122623722,-0.008669374559562565,0.08071855762586452,-0.5207655509799132,0.1170439850404028,-0.12247933287774798,1.0623946589601223,0.8484674538000965,0.4242160928033063,0.20779649319676222,-0.46168499646827693,0.9842173358719084,0.39316627445500385,0.5085859419329568,0.38692114689689916,0.8190844360721392,0.3953341220695562,0.621486914567886,0.07344717720062899,0.06894123035947256,0.16624788188458284,0.1083901338241877,-0.18046348017397962,0.14926187869271854,0.07278317157631115,-0.17983241299555228,-0.07136417449846302,-0.4030171992811534,-0.2827790739063735,0.3858495291921743,-0.3152573233457706,0.017568675389557583,0.11807531580542614,-0.014439056576356482,0.24873585723069574,0.03522703493014257,0.1436550057473098,-0.15923125816485326,0.07338267333627989,-0.11645507246742769,0.48360709286141823,0.4392480906496586,0.34905303809432303,-0.24199432270286914,-0.24648630159751828,0.24073184334435688,-0.1860982931973336,-0.17648140401508053,-0.06456162199675283,-0.13057654987661416,0.19270470856714894,0.28323175591099503,0.3018424846749448,0.25428457181323894,0.18288029663995894,0.010317694534742553,-0.2536579592653512,-0.8809649984860162,-0.6034273911664074,-0.23911202743107318,0.13538951585119863,0.264917786492625,-0.8612286219483539,0.2132883813134029,-0.4156994674438436,-0.525535052768305,-0.6286976637298596,-0.5156260743821355,-0.22805784148354308,-0.15016832546036105,-0.28951384671480695,-0.5268385451520146,-0.34149680693416956,0.20873628703905106,0.46175942250326085,0.6226340392064621,0.40861011131932623,0.14005898248924306,-0.3396120315958881,0.1856119745618803,0.34182765372189144,-0.1845691643376388,0.38477555140708036,0.5391818500064773,0.3259984768989899,-0.011744070825150657,0.04434681412212164,-0.00518997758798258,0.49527953892820425,0.1438421880492473,-0.22620505667033322,0.5416928775114664,0.5568393840028126,-0.027137920677529886,-0.12744058388565535,0.0010215401677664503,0.5238979978822065,0.32187444323358727,-0.10596473604821782,0.35088048124376586,0.6047053652351515,0.6028188579637603,0.2101390951482499,0.23678626404171102,0.26411526437520977,0.01187374676793978,-0.1635442372174851,-0.15291191817359948,0.6267588487061702,0.47644735768647895,0.23006567060731434,-0.18216157004013417,-0.5239239589041728,0.3119781032641951,-0.017236988664771476,0.38038281251548456,0.14328693604545564,0.370639665277313,0.5905643048722423,0.08420968393848512,0.08631152910300549,0.3140907521168997,0.29914550179419114,0.3348878493539808,-0.13133984946735167,-0.07519799211048099,0.13173682748495322,-0.18059952018290698,-0.006395810396445955,0.22491869511479298,-0.1471095351901423,-0.19134665480232227,0.3276999729160345,-0.11005502323588232,-0.4257906767892097,0.23223736315632174,-0.24911278987201654,-0.24237511937090983,-0.02578082166712342,0.23264004963975576,0.23397550302315162,0.2899404311962737,-0.4722414160326702,-0.4781470089614786,-0.3841724279697065,-0.07854563011192975,0.10632878904855553,0.09499126352342727,-0.05113343440669308,-0.3271953896512935,0.15013481195340003,-0.24710212179076405,-0.11390139299590968,-0.10715875943309032,-0.12395597480742064,-0.2877506229094516,0.047354049447156994,-0.22324062138157214,0.04320311586848576,0.3401463108184557,0.19013126093812674,0.04806215462810031,0.38754849980070905,-0.443319067454708,0.7291355953683223,0.3079839427042161,0.06630847925404332,0.26549655534295585,0.02843169291929947,0.4963932520904825,0.4731654147303155,0.18500079644930031,-0.042769198635221925,-0.03880114504158321,0.19310690462312283,0.004190660730831524,-0.547875785268066,-0.16038865934740407,0.1240947161395595,-0.012628364723447645,-0.07128953008306439,0.04090192571940913,-0.3783265234997443,-0.35201306173623936,0.20432905424518147,-0.017030107707666962,-0.38797850978623677,0.04722402840835919,-0.2796500469928562,-0.09186811075554642,-0.1710042144316675,-0.18502276470977083,0.09789813158757363,0.34309489584775354,0.44128514060475665,0.06511282693474053,0.15457679932413373,-0.5314314802451445,0.5859829813439308,-0.2787839412921319,-0.022142998062513096,0.3105135039559466,0.12283553199513561,0.150482475331652,0.0717522449613673,0.49145658156989214,-0.19137429482580995,0.30278902224540827,-0.09597911165329154,-0.02729763332052907,-0.6003427800024008,-0.6739903256988832,-0.33127891841354784,-0.25815515519684257,0.12173957217270553,-0.6188600001765191,0.25063270058471804,0.19920589164779773,-0.02747836366210544,-0.5312855763176743,-0.47020328444411635,-0.5036966191511005,-0.3437293370302192,0.18884464908271584,-0.2862400050949616,-0.10401402474002337,-0.20183321880549138,-0.6419998295949642,-0.7312253252403433,-0.04601990356118571,0.03128420995492644,0.28080810496385716,-0.8879461770544566,0.16668676862075207,-0.4044045892048733,-0.14712070620657058,-0.6227779370365908,-0.2039731757223293,-0.35738409532891985,-0.3120271240464778,-0.3469896758664702,-0.10112253617920046,-0.02865628492205323
biasActivation=0,1,1,1
[BASIC:ACTIVATION]
"ActivationSigmoid"
"ActivationSigmoid"
"ActivationSigmoid"
"ActivationLinear"
