encog,BasicNetwork,java,3.0.0,1,1417503678440
[BASIC]
[BASIC:PARAMS]
[BASIC:NETWORK]
beginTraining=0
connectionLimit=0
contextTargetOffset=0,0,0,0
contextTargetSize=0,0,0,0
endTraining=3
hasContext=f
inputCount=16
layerCounts=1,17,17,17
layerFeedCounts=1,16,16,16
layerContextCount=0,0,0,0
layerIndex=0,1,18,35
output=0,0,0,0,0,0,0,0,0,0,0,0,0,0,0,0,0,1,0,0,0,0,0,0,0,0,0,0,0,0,0,0,0,0,1,0,0,0,0,0,0,0,0,0,0,0,0,0,0,0,0,1
outputCount=1
weightIndex=0,17,289,561
weights=0.4021613999729333,-0.7137870480780409,-1.442955129515372,0.2958142667089787,-0.7816000704753643,0.4873950883959207,-1.4955331191340175,0.9883750253194704,0.7945968139800167,1.5626008443010713,-0.27732466382257787,1.083085062035007,1.2095315252837184,-0.18976989222936183,0.4285653160907219,-1.4252702699682367,-0.5161968472514619,-0.1307756081531046,0.05207858279479673,0.3724061392688641,-0.3460353621127093,0.3490012466387849,0.25016332668527164,0.3739506343565229,0.3114032858644301,0.2949929558267577,-0.10363820201622301,-0.38698574415803044,0.19191542230013658,-0.16112933689243306,0.03370274392355532,-0.06569105342721196,0.062158778427921925,-0.15907239410483803,0.23768208317577216,0.012673236914203813,-0.07652713225097477,-0.2782817290449231,-0.26617914544393767,-0.18459788222832763,-0.11222212792300752,0.029854179701127026,-0.47265168907300475,-0.5454978858672915,0.4358272468359413,-0.2707311907340122,0.23274031702200182,-0.17569308906362813,0.048195987610878774,0.20200977678511575,0.34041751850506496,0.3039099193326686,-0.26960663280022684,-0.7002544454966269,-0.014724419646511434,-0.3634537298501446,0.18543554853175273,-0.4480277705846493,-0.2747845315936501,-0.4430639909262351,-0.2150700910256638,0.4325442103545416,-0.4776531557423948,0.4268140739924437,-0.2381625160453439,-0.04381709314243792,0.9292015434420456,-0.022982784575947674,0.07496322272859465,0.3417679665994432,0.2011271824713228,0.07594141073067803,0.33758347800467187,-0.37488341783342655,-0.04046671498862746,0.28501722496477133,0.39547407839726845,0.29640900025771194,-0.07215068699562815,-0.08137609997965015,0.07340677760828404,0.3033468045632952,0.02519641374503196,0.13197936089378792,0.10103438227055232,0.338278455698614,-0.2815827260967834,-0.24952986788082654,-0.2222688537926639,-0.03862637976182852,0.16657828953796294,-0.18355179581608422,-0.36681780943577236,0.001851617595774985,-0.48976662151853095,0.5303348372216984,-0.09560557469565188,0.3972264639645946,0.18790482368959555,-0.40018991583048996,0.006264758629352429,0.15728254036902198,0.04670832088475526,-0.10405667853045383,-0.06776639582413885,0.20574528169285686,0.37316352103355543,0.09994217053319611,0.17856550626582998,-0.10369210463968297,-0.16015497508036367,0.49585850603686776,-0.08421260906982302,0.44931191348364,-0.028719598751213268,0.06985339271638874,0.38878364740383603,-0.4962031257264041,-0.25235610246863577,0.5074600080471154,-0.059976927787931233,-0.16215659369263666,0.48037355900776624,-0.6581766003428533,-0.09459004087554053,-0.3263097375678929,-0.5571831310942797,-0.052277300822841835,-0.7143258763544132,0.8300034384620739,-0.09943834555146557,-0.12420439806045593,-0.08904377614518448,-0.5090313283117944,0.5275092980124143,0.046336963877546496,-0.3401943136954604,-0.06095175902488466,0.3549549005210272,-0.2782600119243857,0.018026832119218742,0.22473176820692098,0.26267998363626055,0.32879667661686507,0.1372118875224935,0.658703545934528,-0.5432540718621467,0.40146241989874065,-0.2982308944783526,0.345511200991612,0.3446483578807841,-0.6212479686743821,-0.19490597608657512,-0.31852424683726077,-0.029480476422476202,0.5785687134057312,-0.18840188275198586,0.26338585729857505,-0.13559849735584825,0.2733322257923622,0.11216249349120619,-0.007130032862125837,0.1594301262304718,-0.0964331372788379,-0.014332519123159504,-0.15999829872671434,0.33268039768920793,0.4872029474343786,-0.7280793573027542,-0.09937434829370774,-0.36178460607455026,0.020262299958796366,0.6296153574081252,0.042787677778044236,0.18765807471224366,-0.15190419143309664,0.4383107668720568,0.4178526189249718,0.26815136146715307,0.9408835541446235,-0.75223588969296,0.6360315692620389,-0.15158332358744656,-0.35346231226086133,0.14919952462896358,-0.9943952317074569,-0.018469816486768764,-0.1680223129407623,0.08203240418236006,0.2903575645606243,-0.3139550097454272,-0.008572615446310805,-0.3474704656098714,-0.22997208856389983,-0.08991085506779055,-0.02972342032896041,-0.27818760850723806,0.015355773564281538,-0.33607012214727605,0.34578765042513465,0.0037621921584073477,0.08221820476178154,0.27308988451150223,0.06439986240296842,-0.019245095224815875,0.19296302967632117,0.7456505397962175,-0.46072782413925006,0.2166770425426898,-0.3425609985617275,0.16649298403034934,0.47150962938036334,0.32761893570127637,0.5923764193644018,-0.7282529607722876,0.0006446469955713619,0.21184847066416548,-0.14182817321204724,0.10434187630460867,-0.3077353579605481,-0.06549883186504428,-0.20776663883978028,0.4821156349158674,0.1895736952595796,0.05752895193119673,0.2503829203150191,-0.40157250276797535,0.5427033417084741,0.48121255440644206,0.35501024600993236,0.7551516953553863,-0.5787572560311538,-0.0221356676501354,-0.33713686141347743,-0.22532661468792767,0.2273502014781428,-0.725431239267778,0.04735777935914776,-0.11479722265972733,-0.46557687185849034,-0.20783979066867636,0.20030502866843142,-0.12322510070927815,0.002337874689404215,0.008166771572280065,0.02202860452787301,-0.010705286503628625,0.13471650502746962,0.13681361784722637,0.2961509081750818,-0.0886083018301497,-0.12341684083314473,0.211244096063724,-0.11677722324417922,0.33123000642328804,0.2687470361444549,0.1778981165792595,-0.06700156518559856,-0.20031984118252688,0.47049317181049777,-0.20735076637525568,0.12828022666131977,0.4580897529487289,-0.11036283951337653,0.07549017108742775,-0.15140280520457086,0.22766348030989342,-0.028321677309878012,0.04789125815117531,-0.11756050192522491,-0.5159577301788502,-0.31392399954382266,0.03777982311960695,-0.23569110237332844,-0.6316751022473623,0.048053280850179715,-0.27815490721271174,-0.054494987706542146,-0.19502098481400051,-0.705735565542926,-0.1489954099631291,-0.32174205256061317,0.548189526447009,0.05958437045901359,-0.1203543667887502,-0.33654254649909987,-0.412285499665729,0.9525222265963944,0.4309960414129491,-0.20416910235923783,-0.20620596083768475,-0.2999417499268284,0.20005534044415788,0.21848251098754415,0.40868014323347357,-0.2075589340788674,-0.3137875202704853,-0.37200699667466186,-0.04946796932210103,-0.4152898442910581,-0.4627595729606866,-0.333649895067141,0.03761252516768669,-0.020719487455678427,-0.00209544706445666,0.01745060609818305,-0.19608203197461654,0.4465403121318765,0.4885672795505599,0.4341112170264962,0.05903019008862662,-0.23227357327376716,0.4188874117257972,-0.025642242715124372,0.007504179851407617,0.36582939311043805,0.24027409117159942,0.004671398603514886,-0.040744906039045466,0.024288379686694946,0.27570016537967024,-0.22441716866537284,-0.056189004494587594,-0.15187049389198834,0.525024485422525,0.5853752751114534,-0.13297984535047236,0.3273595347586866,-0.2958284081137082,1.057409105153945,-0.18361592091952286,0.23040668739307216,0.028190477516829553,0.5955688998530368,0.49893092964513747,0.5663317860754874,0.2630131854249735,-0.02723501030665003,0.49037430929722853,-0.22718101956848225,-0.001965729561217293,-0.3094748738088372,-0.007671037742728274,0.11396170984268267,0.1309391966329607,0.2316985677308262,-0.4207575321082977,-0.1861897998966358,0.2844993637184818,-0.3322426899260063,0.03575824501838681,0.04568284927759213,0.23567032690082207,-0.07970213538761182,-0.22273389378359137,0.24243851958088944,0.24924010535081959,0.0048688981961359885,0.7603292027893244,0.3887261925908941,0.26856604996150696,0.009058714580987887,-0.3046154551474148,0.7338159913097552,0.32387313777684573,-0.027930755643716453,0.21846321765719912,0.4942137975190836,0.2597781196261215,0.25087590640521895,0.33994188930692026,0.2395626602006585,-0.012954074581516265,0.18701578225776352,-0.34879285385013764,-0.1261497007058341,0.17308061774334507,-0.08784760323162308,0.24052761354360389,0.40941992927385457,-0.17984656562802442,-0.09584837802369535,0.13633994551322637,-0.02056614864668488,-0.19280241758385608,0.14151642635281825,-0.28209001711608617,0.053770995489786054,0.2742572011059606,-0.285670212075862,-0.08862564665543426,-0.10709207437306997,0.5843680584087723,0.33218745902592944,0.3308333555582917,0.21101339911896802,-0.17425457145998205,0.7303344097291928,0.020300303181398624,0.26021796335428815,0.5475770164792068,0.37574895392377333,0.3082053086731786,-0.1113213733064477,0.047761289052251195,0.14725610407246664,0.5386020227904272,0.28632068984028836,-0.10131008133322664,0.7436810573028539,0.6568857636656129,0.38679482178398805,-0.05425681845756629,-0.19205380844702288,0.6862189571065233,-0.22473140361319324,0.34547520614352306,0.4749011667004458,0.5801964813646624,0.5662256302395493,0.2315408268440706,0.36936686891366416,0.10199378345861317,0.06767001112034494,0.11227731822540345,0.2541595036163407,0.42159674837511724,0.3104229965182775,0.40420772449753867,0.19959024757344448,-0.18058370384612052,0.29196273900397807,-0.23032308250555059,0.2816416147772686,0.4112504416569793,0.3986721380044718,0.4355331209449405,-0.038948092908259346,0.2625609996937765,0.3642312418425503,-0.02958761262098968,0.147142115551315,-0.09184857699042953,0.9158713095934811,0.7906961441289948,0.5341105728168958,0.197125906892525,-0.16373101268125234,0.9948372906069965,0.20659462997131958,-0.029721177382945864,0.5203727023510268,0.6667881577639853,0.5788306572580957,0.5749309977520324,0.40523372926752527,0.0468092357615558,0.23125359659155068,0.32456862847990725,-0.15913280848878752,-0.9399550767295686,-0.6486243965670395,-0.4648930279162565,0.04345552928835366,0.43803308494377147,-0.6653368758112213,-0.42931500883080487,-0.35068745678782465,-0.5101830465665452,-0.447446192158816,-0.5313168709531232,-0.32360822550273965,-0.07917696590429797,0.04128764094766442,-0.5679885226353445,-0.16079133256376757,-0.019224277062716913,-0.02309698854311149,0.34840666496334055,0.12923980384754363,0.34606791453055197,-0.3577557684259057,0.6314421054268095,0.16838150904553006,0.15944130633195833,-0.018711173599423616,0.4652991819298789,0.3422153224884262,0.22781666732080655,0.316648461066625,0.13504654477496125,0.07897476618789455,-0.2784497019231405,-0.23004730735450643,-0.3593449128304583,0.0882025598348551,0.1581358180780209,-0.3001269867150751,0.30743303769497243,-0.03533063714312647,0.16357385110352873,-0.0761923007820329,-0.1429429850850107,-0.13656674813552075,-0.03366259217373791,0.11528695709126487,-0.349768060107698,-0.35050229950364786,-0.026251050686482074,0.1982266104644661,0.17870845174968608,0.08911098627084903,0.133926893186292,0.29088350140938013,0.20015135618531285,0.11222961739817211,-0.06293223705393655,0.03605445635024736,0.20432511310030507,0.198270327814987,0.43637757551641027,-0.15118046256663567,0.38160472475264656,-0.22252581685853787,0.27839629822310347,0.14547570502551457,0.20221343143077705,0.14137185452612516,0.3255240112865683,0.5785965692095085,0.3262128016144379,-0.06850517714360188,-0.22047250526225043,0.3581283465689456,-0.24614229401992177,-0.013688769752443961,0.37039875533411776,-0.011150149964283618,0.3488463115434411,0.2534644946452105,0.22843701646650108,0.36765934454611265,0.5638159457496997,-0.2804675528453057,-0.009366979331013086,-0.8408984170909143,-0.6428427531472684,-0.35507238713514855,-0.32394481079134435,0.20754257890192981,-1.190279404153585,-0.3042208968361446,-0.41838997841632186,-0.6187742946447612,-0.8744350426424797,-0.5140413123363171,-0.5087749479378125,-0.09831060795340865,-0.12369083113167147,-0.310697840260028,-0.27989203620183845
biasActivation=0,1,1,1
[BASIC:ACTIVATION]
"ActivationSigmoid"
"ActivationSigmoid"
"ActivationSigmoid"
"ActivationLinear"
