encog,BasicNetwork,java,3.0.0,1,1416463387216
[BASIC]
[BASIC:PARAMS]
[BASIC:NETWORK]
beginTraining=0
connectionLimit=0
contextTargetOffset=0,0,0,0
contextTargetSize=0,0,0,0
endTraining=3
hasContext=f
inputCount=16
layerCounts=1,17,17,17
layerFeedCounts=1,16,16,16
layerContextCount=0,0,0,0
layerIndex=0,1,18,35
output=0,0,0,0,0,0,0,0,0,0,0,0,0,0,0,0,0,1,0,0,0,0,0,0,0,0,0,0,0,0,0,0,0,0,1,0,0,0,0,0,0,0,0,0,0,0,0,0,0,0,0,1
outputCount=1
weightIndex=0,17,289,561
weights=-1.2983246914502913,-0.36058934719746033,1.8752005079704248,-1.3055068222556518,0.9091170920350792,-0.9514780615209707,-0.14707099826991452,-0.919379455974531,1.1873366265282315,0.14647293010409973,-0.39285749964403666,-0.6809612184723364,-0.34470154422365196,1.258451367349484,-0.33988429142435705,1.383787443129261,0.1370054222490377,0.7331217679372345,-0.610632073897979,-0.2536619320196398,0.17916959124962958,0.4566631058099076,-0.5155628442061364,-0.07896734870940819,-0.20740026229339795,0.29697015677059574,-0.06927036665697202,0.6010684634313813,-0.10581195284949933,-0.6621129312702249,0.041440012203739635,-0.5540637425286946,-0.11253487046221523,0.13826562354459473,0.3523573621710341,-0.39779744205187717,0.21540422729335368,0.30741454147202923,-0.18026155859743892,-0.14342388001721096,-0.28742123062149594,-0.30821371238008277,-0.06561558511307876,-0.006549050237730617,-0.10706371010189066,0.08615334208465718,0.178027028946156,0.151794293802013,-0.3495808864190891,-0.25966880710327284,0.01606358578233957,-0.7667387896247744,0.8112139567259239,-0.006140502352483592,0.24136284539256667,-0.41868057513277956,0.691377782613881,0.14479239438315425,-0.11279854946034523,-0.532198197730253,0.6670560105432453,-0.9309833082503385,0.17759512855105292,0.6803866203117298,-0.7121079416746264,0.11300728031641329,0.408520925597662,0.2151182277429654,0.8868376220839348,-0.2759334425166445,-0.24789940483707715,-0.3373517968501935,0.41406745278904766,-0.4225141993070462,-0.19642710726358675,-0.36689396954277287,-0.016959129032587634,-0.47325782621461615,0.3950020332028568,0.3994971483974829,-0.5887869263339482,0.2904880807377682,-0.21955079980709372,-0.4021390966974098,0.15266696721021847,-0.6961623528580102,0.3395800488631963,0.30591237162174634,-0.09229306134714493,0.10270269495738243,-0.030644529257982497,0.12360022362712424,0.23113453503965406,-0.17591332650410194,0.45797769703363994,-0.28688075226442744,0.20890769581276075,0.5125022972575355,-0.2396881183405385,0.19040306062280116,0.47170029992913587,-0.1828981397633147,0.4772143171960407,-0.5368469001067933,-0.28944132942588086,0.2489780719247957,-0.06718234795798965,-0.25274639663651655,-0.4258198388310547,0.2552563472995925,0.0682348782447879,-0.5960894556834953,0.4177525733047581,0.27762856544168196,-0.12644030486569335,0.1861235693487008,-0.06061479940818748,-0.3430943403849258,0.2551320858395905,0.275025970972931,-0.19779006523671852,0.3890342709377864,0.08249762173769318,0.12187044381608837,0.18180926700656017,-0.057323669895066355,0.4291247420663315,0.34677198827848177,-0.18271040754870105,0.13559623619309297,0.6540559340981826,0.056739232366737245,-0.0006510577356431597,0.01466640864715946,0.032948150142096136,0.02793210738099843,0.6262958423320227,-0.3780488469240871,-0.22009755552146162,-0.035870826986948004,0.4449683914385471,-0.34098974253115644,-0.21120643412603488,-0.4304925522117711,0.41462647547495657,-0.19543780797369945,0.5616816618734979,0.08836349173511719,0.017749455840676755,0.10950595527430451,-0.28753091412621745,-0.08078510588901468,-0.27988126114448053,-0.6158460606817754,0.04291932864391535,-0.21544092461676634,0.007733010524425662,-0.4575581825814429,0.22553590971396167,0.3608287150577663,0.07196232774819639,-0.3542952284266139,0.287930601949457,-0.36034848385588186,-0.22322719989984974,0.6396105704674496,-0.03908148150131016,0.609418984282239,0.6306326614052699,-0.05016897548918725,0.07873074409533552,-0.13977862420401432,0.2652922485823602,-0.2687804726735655,-0.28610557554698274,0.3227194529485068,0.04832336601651268,-0.3317126048152807,0.2603462571640493,0.07454644115530318,-0.11584190589537705,-0.09351884623624324,0.18492381840123584,-0.3273805289182566,-0.11251475880319495,0.006746954396190438,0.009610683262480988,-0.020299243781487866,-0.4321606193075216,-0.08116258085989174,0.2168580091520968,-0.2335365553314974,-0.35031714515550777,0.08217212248666181,-0.02653440493280153,-0.08813604446317592,-0.1413567452244234,0.2613113937264919,-0.28035428252119987,-0.13139309447534256,0.377251571882368,-0.3362196919415241,0.2130728781114892,0.20178561574018058,0.2765350968479618,0.13236536850417682,-0.22774416948624568,-0.3805353441876272,0.26932351869007526,-0.33907883884516704,-0.23742701697108587,0.14401268098413625,-0.01050603519682155,-0.0747626866509505,0.20805297479363807,0.15713389858554294,-0.503023753688368,0.486477804932151,-0.24919395125189467,-0.292905783019644,0.3029109731659396,0.1740813259353268,0.11116554114833756,-0.21408362268811304,-0.29380503494245985,0.2753047476324222,-0.2479451602007263,-0.31761623084763835,0.2058429422420452,0.20438963167581367,-0.3260603679621535,0.05246169889359484,0.08029120428620092,-0.15857310049663823,-0.18739360859255294,-0.3104433673961984,0.1730133954588823,0.3373689595020379,-0.5295667727200959,0.5630279423485378,-0.3313010269250723,-0.0883196329438059,0.03849485702352771,0.5500889690313965,0.22810923964194907,0.239558731645152,-0.4423032613625004,0.4370269872706723,-0.6769946884468837,0.05354173940865553,0.4225455241151207,-0.47741561067494853,0.14026158078525425,0.48001550092203216,0.22855041300658277,0.17195509349581384,-0.2808691295798126,0.017863973682516618,0.019582548132572493,-0.17476882293299575,0.21315197367017247,-0.10711973154424397,0.2930046451446391,-0.2658000059470133,-0.2000076492118782,0.46628957910291463,-0.1808811365951382,-0.32005846041951,0.09209374013478626,0.08609184503012805,-0.23481649295767912,0.33485647132169605,-0.8078066223102045,0.2643003275858739,-0.23313009360745368,-0.0014128743785996054,-0.49128177522060107,0.3461108839597613,0.3323742532434358,0.17946078105133195,-0.14443957369037963,0.7355681569657816,-0.7659642203630933,-0.12142606257829522,0.2771504937723557,-0.3320819149567538,0.2699129198993229,0.5689046332773406,0.2595260305721732,0.009743568436566253,-0.9136327789028967,-1.0207658079225252,0.0013479223985013655,-0.4181525829327021,0.1898198918052334,-1.003073649944041,0.09633339102605162,-0.4130410235770856,-0.533020133243549,-0.44738562945595395,-0.7246006622950122,-0.5029688047104152,-0.5431555635249928,-0.18362217154250743,-0.43528830110812167,-0.015586391629269364,-0.05807763629959002,0.4608934124096315,0.6772895019745957,0.43296685086842224,-0.09053528416370286,-0.033756832818287355,0.8909846269202121,0.06379172131367852,-0.01794215700119445,0.4466369606598711,0.6717135437341141,0.1504870053810104,0.5151858458207017,0.03715712730901581,-0.1307648537370073,0.4324627205780552,0.02384800135640646,0.14828075242512953,-0.08951959567712177,-0.061779401677291755,-0.0016605576408452185,-0.24632162654722337,-0.08822783812491145,-0.1850526946330193,0.16820382096280448,-0.0969406924488389,0.33652512033714704,0.38325801957525446,0.2187178368866066,-0.057843536741148525,0.2975858489662961,0.21778420832450707,0.30712207186961193,0.2733328959574402,0.014782709732257681,-0.296274491907063,-0.11425098772930979,-0.32628407602412474,0.215658547232482,-0.01807998794139109,0.120045793438284,0.4035410870563976,-0.09659866939487723,0.31092548880586096,-0.16198043285927233,0.22659094320740164,0.21545854270139653,0.26363972293795657,0.05769255349371031,0.12995298718104564,0.14935830200205813,-0.007166223270408454,-0.46722159936223323,-0.28698372083695817,-0.1703642072750186,0.1011662919258052,0.034330417970026395,-0.5382553582578347,-0.35543433000305197,-0.02863250450671311,0.17934213676236735,-0.48180391484640533,0.06557278805805761,-0.4873015940004089,-0.2599462859525737,-0.35823786521263956,-0.28102327502302926,-0.1422293329077311,0.2830781857342982,0.5447180534895812,0.6898488079546046,-0.156317897277984,0.02735478022364444,-0.01711288793754838,0.8263842776776287,0.28775528229577174,0.20814185021655676,0.31254258245247296,0.3916452673573608,0.5377300068151244,0.18179627506080387,0.2794067144170411,-0.09800490958205771,0.48970861536057664,0.08408614301046456,-0.30590008149341713,0.23702148990242544,0.2129388172108863,0.4429211540976514,-0.10705677130918746,-0.3713158171486874,0.5696317455492195,-0.14631440249322017,-0.19047081592843743,0.03160531365406334,0.486539679595403,0.25939863464357443,0.0761327065793317,0.025166902595952143,0.3920677290211864,0.113320441571777,0.178382450426214,-0.02285243158658814,0.46125135582530746,-0.1776763470443383,0.055743096521850194,-0.0961061575975275,0.16553239457911179,0.13316230939853185,0.02763156054708942,-0.30979754830460626,-0.0389316759312353,0.5057025854302235,0.3606500215684295,0.14972646115471164,-0.09117219673206436,0.08157145634592042,-0.14490780946447646,-0.16491728444232392,0.21661889874171955,-0.39820554780485934,-0.553924481639588,-0.010060685565601508,-0.20471712852706792,0.2834886685901679,-0.12961116004012804,-0.3595096510510931,-0.15574195568122867,-0.29016632141942406,-0.2257994750331167,-0.17022630136954126,-0.23509204486876112,0.19632667939944984,0.22884733862515166,-0.49853393822547554,0.2097576382920231,0.07141969970775981,0.8893242644599859,0.3483091449925951,-0.11477509749188528,-0.0871722085437857,-0.4138735905143247,0.8655023016836624,-0.22336450265467817,-0.0180550940609881,0.5401888321876831,0.3602044434884945,0.2790040165530356,0.43964319035971944,0.19059243688712313,-0.038427752634485744,0.4183982356031532,-0.12569861205671606,0.11412158908333983,-1.0611759457920829,-0.3296508879748151,-0.12840836505242045,0.013094266382099094,0.4448118676072455,-0.6997884494821339,-0.12342038669320159,-0.5039521338777072,-0.5475512643089028,-0.785643890834095,-0.596621810541714,-0.27462606920217547,0.001138022634733885,-0.3974360963577963,-0.4646784288518214,-0.0687390861611654,0.12501631278718311,-0.049415974003492694,-0.2028835692713793,-0.1918516592590055,-0.11576054655596779,0.2059900456394039,-0.39465645841693076,-0.14220323900415266,0.319843465845132,0.3620272088532383,0.1657304077119097,0.2882367455814187,-0.21945794091081544,0.121377612689234,-0.1027968956591305,-0.05028305798489759,0.12106299072013627,-0.04890960023591333,0.9868686006721138,0.34799627890117857,0.5218876866013894,0.2755488246701968,-0.46859122039602186,0.765164198740489,0.30890262625605397,-0.11978287006368922,0.4168931477510544,0.17331201475280267,0.2162867028634223,0.48481122512895314,0.28451816970952887,-0.06726291734219998,0.38110204462655384,0.0005867236190623698,0.16218127427018358,-0.38138858296638267,-0.18014527134116398,-0.31689977731298435,-0.28186051283238284,0.502251161168876,-0.6029060447945198,0.043906839387217365,-0.18924839225421905,-0.40875753811915544,-0.31218661076861814,-0.45841361203185566,-0.11791615520626986,-0.12782218434083,0.2703024665417541,-0.3997206659291665,-0.10885721828206513,0.1379763407012338,0.048288047506667514,0.5223859270302277,0.13314184454456637,0.16519230294449763,0.1036978992575395,0.5699898951325119,-0.13311155188582438,-0.07048770396818073,0.047183592373716374,0.5405520627235255,0.6290123012092712,0.447618877549218,0.22447268672485185,-0.0022139289594754795,0.3167451343888344,0.1987323146059251,-0.0042427072642679635,0.6436437851038832,0.41570461237140294,0.014039323577831928,0.05786091706393793,-0.013053420302000083,0.7108872216872614,-0.19271433683954634,0.29943367133741494,0.5569208892827785,0.3816792744300336,0.41236441771309895,0.06920072904532704,0.026247869950453737,0.4333615842475707,0.5106140725779987,0.30649120681732517
biasActivation=0,1,1,1
[BASIC:ACTIVATION]
"ActivationSigmoid"
"ActivationSigmoid"
"ActivationSigmoid"
"ActivationLinear"
