encog,BasicNetwork,java,3.0.0,1,1416462184978
[BASIC]
[BASIC:PARAMS]
[BASIC:NETWORK]
beginTraining=0
connectionLimit=0
contextTargetOffset=0,0,0,0
contextTargetSize=0,0,0,0
endTraining=3
hasContext=f
inputCount=16
layerCounts=1,17,17,17
layerFeedCounts=1,16,16,16
layerContextCount=0,0,0,0
layerIndex=0,1,18,35
output=0,0,0,0,0,0,0,0,0,0,0,0,0,0,0,0,0,1,0,0,0,0,0,0,0,0,0,0,0,0,0,0,0,0,1,0,0,0,0,0,0,0,0,0,0,0,0,0,0,0,0,1
outputCount=1
weightIndex=0,17,289,561
weights=1.484544676434706,0.6197907286879304,-0.22507880588805113,-0.9894517744197083,1.5733653736786637,0.752666181899103,-1.5754161135150515,0.16347100329643147,-0.4028606971277977,1.841563521749247,-1.027327569871806,0.3085490708544569,0.4585471091291793,-0.20979233132510122,0.17646944845057402,1.1202255387052023,-0.5097881106587117,-0.5892034396836318,-0.4097483343431412,0.43117909930197906,-0.36499042437936907,-0.2121533098291451,-0.3034191543658959,0.7432536894390035,0.6840345474956687,0.16054915786604512,-0.5394224899276427,-0.03543527948269451,-0.10623648046053845,0.1859306067756853,-0.3580081898467543,-0.7176411205143797,0.710318361251356,0.045935603947507044,-0.039522199483044834,0.21498971052887808,-0.012242050269434023,-0.20534021985944373,-0.35743695233427963,0.11139461968019708,0.2895189708431976,0.35111462971662777,0.30245550922777814,-0.42738827588268746,0.037645019812699645,-0.1077767606719504,0.4732859655158625,-0.4539428768597185,-0.3352329947506662,0.39506272366254164,-0.07672670374233483,-0.05924174573034687,0.00120993710044593,0.2710714595080233,0.038942580274055665,-0.053947666563098115,-0.01170522419227507,0.18214617862941945,0.2504415652342384,-0.21066104936671595,-0.20109589398537564,-0.23461138834608813,0.1425900031300112,0.1228816340781545,-0.02634239700432851,0.46811225671356926,-0.2865204712201134,0.20740141160771414,0.20225877214981094,0.42154897512335726,-0.0343700100648863,0.37178889635923296,0.21615339923684534,0.17212697291802936,-0.11238799830724949,-0.21341849232196108,-0.03225526664261091,0.28468343511812655,-0.2954814771427538,0.5118700268173868,0.05244220247170232,0.06373852098525692,0.3553344981927179,-0.6285346730152043,0.22508862197140533,-0.6192974421088243,-0.24661971330133733,0.23033954924598438,-0.4193607436372789,0.026440255556859065,-0.47937172373342,0.46304696378645327,0.7803566419426583,0.4769807869399218,-0.7614397006254192,0.2417294443962107,-0.5963826254750741,0.24396194612961636,0.003824199131757732,-0.5518402592852722,0.7453169594277596,-0.05625495543888714,-0.3785826969650217,-0.2877435937264438,0.07672738568957929,0.11107089707801954,0.008626842726871968,-0.12914046276681954,0.36194713876305773,-0.10436157864699944,-0.11088927352041782,-0.6252800181940512,0.16244938024437214,-0.5781285087648746,0.3860628347824995,-0.371751432332434,-0.15442239985393139,0.40800487807639485,0.16438210334029774,0.5374687726734401,0.4288240171090371,-0.30367186419137543,0.4553315820778525,0.0665445441441777,0.46596544733014844,-0.7598495028717825,-0.2966113001031498,-0.5021952264167298,0.5528784098962144,0.23869041516593764,0.608532934908021,-0.35669344780438755,-0.03969791180729513,0.42474998236493794,-0.20995221505258407,-0.36774383061301474,-0.08983809861037464,-0.09557232908808942,0.06791663863966238,-0.2921241967468351,-0.1368913889673364,0.06942896946110017,-0.15447453748790074,-0.18483430931398268,0.21096181734016217,-0.4125389935089236,0.13818392194101228,0.20390353730472482,0.2990097555111335,-0.1929556757998353,-0.3481250494412947,-0.1831866912333254,-0.3148925335658033,0.00695082377537996,0.36816229397015504,-0.19430439518172998,-0.05281509663501553,-0.13826608742472454,0.02889112065431061,-0.019226421970003505,-0.2124214466108419,-0.1319986029290778,0.4387984885567314,0.28342581302735836,-0.08349916049037036,0.11436852094314941,0.3649801315864831,0.21669396022091603,0.09206563681045785,0.3018528757380895,-0.4186115201439995,-0.05954339376794101,0.28608913102929195,-0.20456499501436223,-0.005719573119646726,-0.5807612274306665,0.8934332729651627,0.6812548835398092,0.3254631255099444,-0.9276575275291227,-0.04289694065094778,-0.8435919615851157,0.5202058855785897,0.12642412256541152,-0.7948880548503046,0.7820542898232574,-0.003251548906651103,0.2145896178088103,0.08541256446319698,0.013110267842804973,0.4163060301501258,0.24329277934182864,0.15317067643524707,-0.5496766160334207,0.02561810683766727,0.06438160051738645,0.5392486018910269,-0.33890649217500524,0.5632507562526017,-0.4382225002091399,0.0636335175678299,0.20212877112219868,-0.47912050272778567,0.04316986511908254,0.21507493254538257,-0.06937219263764238,-0.01672665625126419,-0.0076291029752855255,-0.09086885932837124,0.08634232991999677,0.0941379603416466,0.16736636913369113,0.05330430718773891,-0.1822834371638682,-0.12382053179754365,-0.5948302956077458,0.041615271470432626,0.05207897803424744,-0.5909832343359638,-0.015667982274220622,0.36753638098334324,-0.3288794366828231,-0.0487589445372973,-0.17249624984084133,-0.3348694145973158,-0.28064475718162274,0.03032344233602791,0.4602993426853665,-0.07476301947055224,-0.13744014133438134,-0.5879542720437771,-0.0728486562750366,-0.16060784128279584,-0.12904314360573402,-0.009142380454006453,0.05944494737101455,0.20724846185168383,0.18205090828437534,0.2882518144109006,-0.28456779438718627,0.3041196951707911,0.07444702261756822,-0.17673454632072794,-0.1891899641468964,-0.21532932000094865,-0.20460038046420406,-0.09361547866191265,0.39656134108821794,0.2585912327441652,-0.1385744636364237,0.26133679491831213,0.0073440631312136585,-0.05546876502173482,0.07764575308830847,-0.06032699723382669,-0.25452478609060236,-0.19670457483231235,-0.0013608728413635027,-0.04949747730214971,-0.28553821311712285,0.22153114187491224,-0.22251353603231055,0.22176959492500034,-0.15336503037403387,-0.28878039263266936,0.22513040599511397,-0.2607521501613661,-0.19887647509186987,-0.16175365388034396,-0.08630042282351806,0.3055069836819625,-0.32643764997864616,-0.5302343232414968,-0.3205730996702331,0.39321017020719784,-0.2942531286081038,-0.15290840169909484,-0.585835590232559,0.6190873836576586,0.19957834011039555,0.44660996815960413,-0.23647852844151657,-0.32636708663383623,-0.18483132184443762,0.3790923160875929,0.0796426873855064,-0.613199494507828,0.4918020568914993,0.11208451823413232,-0.05963226139990532,-0.5481426092956142,-0.35358959276396135,-0.26074660069972194,-0.29887456478343194,0.4271554876593839,-0.8732664674405218,0.2132760157605018,-0.27240051269891935,-0.040610063883441176,-0.6402691485507801,-0.420527921489416,-0.35902673593671836,-0.06299032509520697,-0.48402302189520297,-0.24150000299277288,0.10109962092979369,-0.28279153737658613,-0.46733606394888993,-0.21907223538937373,0.16086459184270024,0.09112035182104984,-0.09702903981428365,-0.7328209821235258,0.08352056141932744,0.24010112897636782,-0.3583346168326612,-0.06764432690792699,-0.12507085355441833,-0.28738386401099786,-0.13133083946649365,-0.18167754477145984,-0.31328647963198003,-0.20055743714197957,-0.2670921113021129,0.41707004613944654,0.29026494350167564,-0.1976719859289717,0.0278422478950129,-0.06985717827272764,0.40416274186304746,-0.3487123214956286,0.08605750380405706,0.2271724856967126,-0.1059094986410601,-0.11504594352130765,-0.025573174786302867,0.3761490406608473,0.22915989505203851,0.303738831949433,-0.15490230458855353,-0.13002896783178386,-0.4076629807888608,-0.2600030688047532,0.09550751976915503,-0.21638207539426832,0.5250300110714815,-0.4618117932235769,0.1459562086858995,-0.19861099218608247,0.03751848806698463,-0.6428377503153464,0.0017055293383231242,-0.10044354685956332,-0.28512375901348114,-0.040842457660885415,-0.5226303416324806,0.165196987007039,-0.16401015303197805,-0.43520105919071544,-0.08119760895194367,-0.033575011014945644,0.08874638331222579,-0.19530137557461477,-0.3340613625332921,-0.1835692395304667,0.20233212469396644,0.07507876642734398,-0.30569973649214705,-0.1390925717506299,-0.1259347216153844,0.15264003099032694,-0.34342633411118617,-0.38370392670866266,-0.1850048317669766,-0.19248144606929551,-0.4157934929528184,-0.39803616703723094,-0.012562446941856346,-0.2353911897965042,-0.01930762545056551,-0.8032373129513355,-0.14182512036489436,-0.28583640413272665,-0.04423238763183222,-0.5905940849100235,-0.24567364821945636,-0.5027728229797374,-0.11464367958859314,0.16923967116941394,-0.17587123080383854,0.12473512681642018,0.08312049189844206,0.7609358232188782,0.2863633426840584,0.5700792727303405,-0.17835256948130856,-0.41773906692329243,0.9018996787154118,-0.17234152188735483,0.39880751599657693,0.019843963792749372,0.4072615885401931,0.6053625840387333,0.6414278538404213,0.4704564358924132,0.1851771269559021,0.39078105966111526,0.02611783450699712,-0.31133459171645766,0.42333835820249427,0.339980829832844,0.3485873674882058,-0.19483039384793435,-0.15457398070498699,0.5334977753519371,-0.08535432049136249,0.26901587284848927,0.12420428495375482,0.6743989592828282,0.5707045441402465,0.4906993119279603,0.12522063957626328,0.025036967568164842,0.10785066175082346,0.40541742739174796,0.0395190303487691,0.23454540162370083,-0.1350100947609545,0.09820067707015488,0.1627457828800021,-0.03004309377347013,0.41769273305888777,0.24485452072369934,0.3567782703143418,0.3877989501839974,0.5441522713209216,0.4499435515453623,0.028518399879928324,0.05346933244391153,0.07273793704041712,0.34549705912140316,0.23206208638358666,-0.11968802405249652,-1.0150059018886906,-0.5925621936464456,-0.3936459865396054,-0.07136095131029918,0.3125681243246063,-0.8599402342079856,-0.4479821469972904,0.043673848612335794,-0.451560943469501,-0.8808953131601147,-0.43909511492652686,-0.5000523311527025,-0.14480446753290457,-0.20335427979569684,-0.4050801637725535,-0.47690821544190437,-0.39190942389017525,0.24427690348377018,0.11272469849922655,0.13915120355072627,-0.26018551925080663,-0.008414109165284058,-0.021265487821996217,-0.1381255169771774,-0.041765592909704545,-0.01570902266849031,-0.3564031954272694,-0.06317584525337579,-0.17255056241888647,-0.2914708368910947,0.4217032533351645,0.03590467828050469,1.5646486672087836,0.17025021885987984,-0.8765221246390964,-0.7491517631146791,-0.4679389358770796,-0.2211824151503974,0.2926413177114661,-0.6723526572898758,0.20706190795707374,-0.22140318355783492,-0.3312609981950812,-0.21751067926535544,-0.32110520240363427,-0.1456325808876681,-0.5678914890361231,-0.23807415212219954,-0.45677796801084736,-0.07761031266267698,-0.09756824773998361,0.18185613137723924,0.12603816232441362,0.35721496141465825,0.3556729100470386,-0.04640187760409547,0.5949384696315891,-0.18372493493758213,0.24638688508934153,0.16887925603352896,0.5840595317812917,0.23095800587084725,0.16276443258915926,-0.10073922259628275,-0.04747598809608518,0.4559244433255808,0.28196293303382586,-0.05899781502672407,-0.27044233754979174,0.15859738707627413,-0.09339897689701511,0.379369317965711,0.30513295627863135,-0.43899974605218905,0.050424191797144774,-0.05902363653177782,-0.3871896723500193,-0.28070306151730284,0.1568797764245551,-0.13460747226723904,-0.16726122632908297,-0.039613141639696675,0.1542304815745249,-0.001497167574544494,0.09572052491009962,-0.7126189665360373,-0.6674307742253304,-0.4591183994228894,-0.27024816315957306,0.2674148190453778,-0.6744610058891423,-0.27636053499604685,-0.3194834086721331,-0.42533633957841877,-0.5514884806771505,-0.6314322775900849,-0.08364442682583145,-0.38798728234462526,-0.35342723304274487,-0.6943776935145549,-0.29088323438791747,-0.2911737809746051,0.7259302263372696,0.40581060715584116,0.2755539950698276,-0.025794366172698088,-0.49012874719625704,0.4464719623609907,0.30232327478679405,0.18111754591613258,-0.055596744680074583,0.5298353938479095,0.7356889091245661,0.22125705821912572,0.40217912760139396,0.14694407928561606,0.810989412877265,0.14812772955426592
biasActivation=0,1,1,1
[BASIC:ACTIVATION]
"ActivationSigmoid"
"ActivationSigmoid"
"ActivationSigmoid"
"ActivationLinear"
