encog,BasicNetwork,java,3.0.0,1,1468567803626
[BASIC]
[BASIC:PARAMS]
[BASIC:NETWORK]
beginTraining=0
connectionLimit=0
contextTargetOffset=0,0,0
contextTargetSize=0,0,0
endTraining=2
hasContext=f
inputCount=14
layerCounts=1,51,15
layerFeedCounts=1,50,14
layerContextCount=0,0,0
layerIndex=0,1,52
output=0,0,0,0,0,0,0,0,0,0,0,0,0,0,0,0,0,0,0,0,0,0,0,0,0,0,0,0,0,0,0,0,0,0,0,0,0,0,0,0,0,0,0,0,0,0,0,0,0,0,0,1,0,0,0,0,0,0,0,0,0,0,0,0,0,0,1
outputCount=1
weightIndex=0,51,801
weights=-0.19990256833149436,-0.10613849565010527,0.05723206934496586,0.051007401873897164,0.07923055767028454,-0.18448280136550013,-0.053326884948406775,0.08716446897906668,0.3223401876306046,0.3208103457222115,-0.10813271617243626,-0.34086571403312,0.21270986222416446,0.21094021051443934,-0.2007487711076924,0.4025790364394778,0.049268222801082444,-0.22253736598749344,0.16382312379449318,-0.14839435648917737,-0.558723283376678,-0.16985369811556808,-0.3835846982145802,-0.41474793182037367,-0.1754998378108185,-0.07068062695811944,0.2870381468830773,-0.3675400275699905,0.263836967587378,0.09490930020895307,0.1531348189499466,0.19816719952934492,0.0810337474006171,-0.0012497281406544732,0.09014961435578836,-0.6231166699762114,-0.13363544580135475,-0.0058460217537329665,-0.24434342274503595,0.29690566779021327,-0.033261811709220074,0.18412034559228233,0.18659582156531754,0.38876909078302346,-0.33407118793797674,0.10638191789471357,0.0228922317439784,0.18036641454516403,-0.34214362844125185,0.10641763626604958,0.29590762816827904,-0.3288266575185557,-0.2474035812855266,0.17814707646238007,-0.3663537031837899,-0.15686541425626022,-0.3032438238987043,0.2633164906639111,-0.21733623531909663,0.2350701869909802,0.21983018649478955,0.15860017469132195,-0.3042276728997114,-0.27657373294863047,-0.024762113571698916,0.07156636512046384,-0.21528326641004641,-0.07990989169495079,-0.3749268746938007,0.2791515263194046,-0.2958601259536967,0.07611632382954789,0.2941269992889216,-0.2812529980024275,0.31766137567121305,-0.2025112315216792,0.3356770504514994,-0.05306806812183484,-0.21232009911008376,-0.05783865236869723,-0.16459408257274566,-0.20147557010041425,-0.0027898246018577943,0.19013262117424973,-0.28624347063304834,-0.11295886308712577,0.23469141042778688,-0.2456810836887578,0.2769977533502064,0.01288837714611927,0.33985914150089724,-0.32800881322462894,-0.2913335594679959,0.296295670920583,0.030548144312475944,0.30962622192313893,0.263272701733675,-0.171088843264943,0.15272469369858385,-0.21803056541293508,-0.32857731126939127,0.23228121103473146,0.060219115700837884,0.11373951069753852,0.35492101559341116,0.054647389325049416,0.21251866940043135,0.27305197687317034,-0.30052413665388705,0.24582654586248479,0.48960164542811496,0.13715974005341178,0.1762042996428608,-0.22463307080308398,-0.2012619869700871,-0.15626794727863735,0.07576683362635846,-0.18912200864875242,-0.09771732378318251,-0.07677513920779774,0.20764084246094472,-0.08163281434519307,0.5347101395132507,0.2021102723358597,-0.17326238796843876,-0.4837425437956003,0.19765303991748404,0.10255343876132943,-0.35776220476856296,-0.3260458083708015,0.15481456144649702,-0.4407884607219167,-0.1635929501908458,0.23404909504943167,-0.3064385191369923,-0.06218160636660521,-0.06010140363796617,0.00866690681631369,0.30392644383215445,0.09468899703268271,-0.2928909556022262,0.005783186429068175,-0.12227326316743255,-0.3195739284576432,0.3419179125843339,-0.17764806016693233,-0.3234264394257953,-0.35377438962745306,0.17595879791877775,-0.23909309457771089,0.02241778404763678,-0.27810190976241395,0.3214722375422367,-0.014818700677047313,0.257355195322393,0.1482665766990891,-0.13835104902979872,0.03275277918900532,0.23377045370603902,-0.23335985622299701,-0.3435371487449152,0.3169570537344605,0.39131744259720863,0.15927624034505877,0.2771113182240802,0.025196448554570157,0.18142386183514003,-0.21386718005557365,-0.3877699428429691,-0.13677044197066038,0.03305753810374996,-0.0046964363118603344,-0.07279549987733269,-0.06506437239800113,0.3602787670343503,0.1843894843233691,0.453003010170998,-0.3127970796578265,-0.2216259993148823,-0.0954565463101139,-0.2325887715131969,-0.007528647202063519,0.0849517660829138,0.12003084592920275,0.32427152145075355,0.401529317654483,-0.11842475210181985,0.3343055963334584,0.32144209678660074,-0.038485875255320205,0.3157847946242572,0.32089942169437036,-0.11363442578967956,0.33624670260424533,-0.07126700089346148,0.17873234711856328,-0.005970871448944693,-0.3392180211776497,-0.2491697803285195,0.18785121425467988,-0.32379156729566233,-0.13033924674947822,0.248538427334091,-0.26563857195062845,0.16237672547351634,0.14669526686213408,-0.0655146742655576,-0.14181019771977155,0.15017324479979124,-0.4802187157132736,-0.26404527166715885,0.21739180471031885,0.23008268498165677,0.4076597281796557,0.049450409942093036,0.20312227208076064,0.19507907621641993,-0.00995631287094044,0.17237560673265884,0.0606317101335152,0.24026288416633867,-0.40351243364435974,0.10951330809460016,-0.39989179068470526,-0.06586407388146877,0.3021234288228994,-0.36398136889002985,-0.2734895548188783,0.0305417606448846,-0.35815866975116045,-0.09515715240851112,0.22001566131223915,0.19127459457123816,0.35083227078919726,0.08354471159361923,0.3067398291422854,-0.19542897291142447,0.3112060318151393,-0.2786356213143837,-0.21401887808417183,-0.17800488628452651,-0.25304508158380246,0.26381628801829815,0.008810101836148262,0.3456978382682204,-0.12066935167044192,0.1536802947313674,-0.02149247982804455,0.0705528954164665,0.11037217702109048,-0.07989795564503827,0.45658412410555893,0.24894627391646126,-0.10304100938625468,-0.2318708137138024,-0.1890904461448374,-0.08431041481380862,0.383304048147223,0.31897254928219987,-0.13148269122917794,0.4145697358992975,0.23550394096117896,-0.21340664781860108,-0.44577344586071554,0.124873936796283,0.2798131131627811,-0.2819575670052215,-0.186444540062095,-0.2296654162675514,-0.18422349515625588,0.3412745246143624,0.010682520304383828,0.15268811456601014,-0.2117180623543461,-0.1283727682495075,0.2822780371845453,0.12063190157939478,0.18409136105775026,0.3255180294076776,-0.15320511076972956,-0.1494249147241294,0.3667043337055666,-0.15731659144022447,-0.23457905447407065,0.3417159529080268,-0.10853679096486553,-0.22071493031935382,0.33769297082126254,0.3295582857233676,0.25631357284531725,-0.12016257603636529,-0.22238615516408855,-0.12818538412766703,0.17438426096629475,-0.2570148583501322,-0.0038345985350820826,-0.16421960048105744,-0.04024044341804421,0.2643595221875943,0.31382104493817137,0.28604150959168584,-0.36782769978644053,0.32194406249190477,0.27008658891625054,0.19657495459147917,0.24375249521282408,-0.2652093679551913,-0.339379793594632,-0.11955348782300577,-0.39588106573697124,0.059575507712642334,0.1893008678487794,0.07248165129062527,-0.23412680763467775,-0.3027665252250869,0.05271751284632871,-0.2256625451460228,0.11411250383908886,0.32917904829314637,-0.11065744987409322,-0.38167136102633265,-0.2195211687574705,0.18838400837485986,-0.23749274859449288,-0.34099283213995685,0.36287023622505926,-0.0498267148537608,0.32671918424715907,0.20885661043000886,0.13692710768272454,0.29154144491218603,-0.2568880545767333,0.10647158760965134,0.32262091996517334,0.023829745766011545,-0.2089777925739777,0.3856191661212989,-0.2059907385645262,-0.13148135892379448,-0.09358062330899923,-0.18895781089380798,-0.43390922936543763,-0.314217471697704,-0.21746710663827615,0.03384363835287534,0.2824934241088497,-0.004392506631714182,0.11959551684398384,0.32017213352700896,0.03438980292189104,0.2902077073108216,-0.33494623684928865,-0.3245318276898196,-0.3438813716728943,-0.13578189165222793,-0.26247131034925647,-0.3623447974993516,-0.22994711154975872,0.008028896030372046,-0.36045366366889403,-0.29991656501447284,-0.011292852153935102,-0.29787606300084446,-0.16468147387983187,0.1731941514354241,-0.15262011074209966,-0.01196993436455092,0.3903491167495088,-0.08570291646859175,-0.30324984439428054,-0.26229766963069717,0.13039320102237353,-0.2933345976116914,-0.20711059555644956,-0.16559271111023746,-0.3115809838167307,-0.29469952997420124,-0.013875339918311247,0.11543583724238823,-0.39246219425674406,0.09230320250909112,0.18762428625747632,-0.37277025223525695,0.022887465775720144,0.3321977232815831,-0.46913371530411224,-0.05497052733601971,-0.08684320249427589,0.0894231562288634,0.06106856422989395,-0.4721636113787592,0.03059339537302578,0.006244265536047516,-0.06001669409277122,-0.10843871566917639,0.40319202504216345,-0.41791656545059547,-0.22779194808756525,-0.2188235055007532,-0.11170410783783442,-0.2165077765012037,0.022970334449844983,0.19700463544739052,-0.41202918116484805,-0.20337528131818183,-0.1672325723597825,-0.33833018356064687,-0.21140194218561853,0.3500282381213577,-0.07691066803275666,0.14768502560310273,0.36857898208113576,-0.10068000338372676,-0.05661518161999939,0.1756045286922399,0.16498943860405083,0.35552189232042275,0.2306248670913958,-0.3451752172255811,-0.04211656971907784,-0.08580272217435435,-0.25680462200180765,0.2996256900197358,0.1149585918722917,-0.4213594991291709,0.02689371262372689,-0.19534527805957289,-0.11185718163497056,-0.07352701875244878,0.3349721871626433,-0.3794553937896626,0.17799103113368844,-0.3348986219575346,0.09412449467865584,0.1180338505705165,-0.20209451253557265,0.3732282686750939,0.19482216347593972,-0.3692987476065285,-0.000782878719151159,-0.1372633722830508,-0.04259862217998797,-0.25734763573827424,0.4243487764923193,-0.16127544365958288,0.04193157038331427,0.17010227112879592,-0.1924263142110655,0.3185898173907343,0.10020009376959806,-0.05183826165578664,0.46682290739160026,0.3112134482475484,0.04245871644777059,-0.11285221870651879,0.3442447451566799,0.2217976384194967,-0.3925247603503817,-0.07459447643369282,-0.08840196265687475,0.13924442286036243,-0.2900378573937682,0.12517663848614607,-0.027025131310158403,-0.4948818271027352,0.02290728780966651,-0.28101494442868374,-0.22959871520193328,0.06130643051634288,-0.37650663347900926,-0.20062884825364563,-0.30992140007955377,0.24603990912248677,0.13691247796294786,0.07488358391168526,0.18397393016451866,0.38422543377600754,-0.07695068104317201,0.37252857898432423,-0.21821520534821873,0.24213760365194797,0.14656330305338452,0.21872364597776392,0.15520598224588403,0.2775267911233052,-0.2998687372984958,-0.09310131617899955,-0.17744727037332536,0.17486848385508405,-0.19305651610267857,0.39795932752322283,0.23285507380633563,0.45322435922757204,0.046669862221752526,-0.4109062909057439,0.1931191997954918,0.19222271995931084,-0.11095333066900728,0.2066540394058863,-0.1446328593904758,-0.009464774229611514,-0.41698798938234355,-0.0700828622602877,0.36304212113940726,0.43610319053098834,-0.16199924287621045,0.046035371363749675,0.1495131802537138,-0.02278378580661592,0.3185650830420333,-0.16064671068393307,0.06954319909542568,0.1042487572243631,-0.12103194231114338,-0.27317886058369606,-0.23945522119296428,0.24572727133207642,-0.06434443555088191,0.1439134375529223,-0.01597513000063972,0.28790263850165193,-0.16964435890651514,-0.04347702599916229,-0.32694120768731477,0.44692395570886273,0.17687711040824672,0.3294957544380082,0.22422308992812665,-0.37307412869995393,-0.17648148257546806,-0.062414923501198726,0.21887101768908032,0.4083522044684899,-0.15219687435779533,-0.2691620593691679,-0.16505832717549754,0.40952893827825365,0.08701770128610022,0.133530639747703,0.24113906739946858,-0.21169456921275093,-0.26726618587623957,-0.03514449208754381,-0.254503922074592,0.22174861255794076,-0.1894761073513582,-0.16821010969790282,-0.0435883877829592,-0.2861667817477983,0.015972705439175703,0.2951262774810962,0.2960272534429942,-0.10121399520866552,0.07079560166218322,-0.2644924823402567,0.3309563726910727,0.09946592926321325,0.4061281342328327,-0.10269353279668683,-0.21198193527572295,-0.37406653007629687,-0.13900136055508444,0.2458820563454311,-0.03342720709902953,-0.3130597475388951,-0.24093976691352142,-0.09245692138647517,-0.01146656592461511,-0.36571935754586216,0.26763563258503936,0.40317696820924265,0.3085717221695881,-0.04701333540652399,-0.1985300972314049,-0.25595692942466686,0.1393563885266823,0.23030649694695177,-0.3411770509323046,-0.1892669809574414,-0.3275904954726265,0.05241197370727404,-0.38771838710833184,0.07225699314969711,-0.19292363827724607,-0.36418223081480217,-0.321718345417758,-0.025621513374201463,-0.25910737921375854,-0.1534940191605715,-0.22575696708221693,-0.3714724970941182,0.032333899283919804,0.06877939943338497,0.18806426922048125,-0.3249725307685493,0.32711990003766866,0.24786578317338268,-0.3550802868301064,-0.04145617827126029,-0.41810515157450123,-0.07352384944187196,0.20069681490435942,-0.33890306042769985,0.08367418010541254,0.03921665725276551,0.278058136611555,0.30454148814350235,-0.06772594953028667,0.17547311688183295,0.28919206717566687,-0.0700225309229965,-0.142744148457464,0.16357250123304753,-0.32235784821469804,0.313090890562438,-0.10456393623463103,0.32155133693336696,-0.024186231897095813,0.35904011563219707,-0.2757268942734661,0.2626206261802999,-0.34464892276482184,-0.28401203372813255,0.0007259023628211256,0.10628657086878457,-0.12463606869635313,0.1666209350044242,0.04556272850848665,0.18290962509387337,-0.2516165612125119,-0.417575779912065,-0.30953086925528556,0.3844959878799338,-0.11639850853178287,-0.1548404094561934,-0.28278665673529685,-0.39748822046098786,0.20233648064462878,-0.0741392324189222,-0.170416521480785,0.43730052316958257,0.24099406340057164,-0.26258319423223897,0.12358537294538273,-0.25608764325350564,0.007262333725142987,0.18085845992303107,0.3425228483363699,-0.1095165135327168,0.31789281249699186,-0.031825202616261095,-0.01747452871899922,0.08360924772336369,-0.30130927296379406,0.25250333926112445,-0.04307523309258121,-0.06374058071133976,0.03520357815214042,0.07069581040860862,0.19523373434210295,0.2804472010234865,-0.308795817693896,0.30348063049271706,-0.4610369736693087,0.3653974330715336,-0.1557663517928108,-0.08591119776815287,-0.31825892419447,0.2693045461948236,-0.028751411194053132,-0.2698238517940418,0.08147375550436885,0.3573019732925137,0.11249904910701954,-0.14946407646902735,0.10274162065048831,-0.35920527222350573,0.049238539163035895,0.37527976534052027,0.41337147842883876,-0.0066315083056033,-0.20366077905416397,-0.12935046019716276,0.06366279198520187,0.2020740240553086,0.08502466947315282,-0.29599452040716245,0.12080846716866693,0.07829924176861065,-0.04540945813922597,0.3493688520668058,-0.5384952659249163,0.329120015832564,0.12159828510644445,0.19887994798629485,-0.2411106269936957,-0.23191029883846495,0.38705291438747236,0.26097175862384203,-0.10231322852146855,-0.20273601421584878,-0.07353239676861895,0.39049263640174886,0.28586098608748617,0.39453991867517113,-0.16067152114544422,0.3595441335591952,0.11348070714444147,-0.11696809071587562,0.14420508408073832,0.03975617586851467,-0.23823483266700174,-0.216719187874232,-0.29149936783408203,0.33899665919908795,-0.2191087935704738,-0.3381534821805997,-0.05774734653049303,0.16065885784749376,-0.20642366728276976,-0.42407501840552025,-0.19103515922200215,0.3559824679818482,0.13949386609082998,-0.11635061070311943,0.011784678235085572,0.19145326100852897,0.22169340124225245,0.13499325727588118,-0.18055238486501557,0.33752328277348403,-0.0607805438594998,-0.2441704729478414,-0.27931259087447147,0.3180318458747245,-0.07581674500545409,0.3493997056476746,-0.1264521761082757,0.009296914772540098,-0.32449547926859396,0.34991207314856027,-0.3434318934310723,-0.0127747078464826,0.30023532484332777,0.11345383908205903,-0.28263702389999124,0.15378507046457612,0.3739749548298194,-0.033276132441813815,-0.23494147143292562,-0.3746022134900829,-0.139251601750727,-0.24702661531494197,0.25883808759760013,-0.058753056516420425,0.18542524083263406,-0.1009115513052137,0.15300417987888387,0.26544382580656517,-0.09032568207975764,0.11493988757718794,-0.2022896218438999,-0.13445259341145305,0.11892208157364355,0.01874084041479738,-0.32293941761755507,-0.07121406303660292,-0.36422589185952375,0.472481773605618,0.16154352335965097,0.4107764160216967,-0.1494824714084191,0.1418282974967449,0.10312828301306463,-0.32216337667920364,0.09456309339780386,-0.40572229994641684,0.09390772667560293,-0.2178693786978637,0.19751590029409133,-0.30639507092016766,0.22340235036301367,-0.3713784429513928,-0.3843331656988058,-0.17957181670151506,0.0005705554602550766,0.27463738558619044,-0.038924894510580836,-0.08326042704411327,0.29226675844741684,0.1843473773457634,-0.026267623688134366,0.2674467024968473,0.17603339202556154,0.36970556973879287,0.3751622324458785,-0.3344328424364029,-0.0532201869365981,-0.3210266427692884,-0.23891343081880073,0.0506310840203806
biasActivation=0,1,1
[BASIC:ACTIVATION]
"ActivationSigmoid"
"ActivationTANH"
"ActivationLinear"
