encog,BasicNetwork,java,3.0.0,1,1399533477610
[BASIC]
[BASIC:PARAMS]
[BASIC:NETWORK]
beginTraining=0
connectionLimit=0
contextTargetOffset=0,0,0,0
contextTargetSize=0,0,0,0
endTraining=3
hasContext=f
inputCount=30
layerCounts=1,21,31,31
layerFeedCounts=1,20,30,30
layerContextCount=0,0,0,0
layerIndex=0,1,22,53
output=0,0,0,0,0,0,0,0,0,0,0,0,0,0,0,0,0,0,0,0,0,1,0,0,0,0,0,0,0,0,0,0,0,0,0,0,0,0,0,0,0,0,0,0,0,0,0,0,0,0,0,0,1,0,0,0,0,0,0,0,0,0,0,0,0,0,0,0,0,0,0,0,0,0,0,0,0,0,0,0,0,0,0,1
outputCount=1
weightIndex=0,21,641,1571
weights=-0.23937341125282405,0.10226994579134065,-0.16781972554438743,-0.3974663933457868,0.13389724508740183,-0.16493199706859257,0.025208958354676708,-0.25783334356417914,-0.1568547400096896,0.100407176776028,0.05560694003779339,0.045404066249593006,0.24988463047720988,0.07002985831302658,0.1780056642494909,-0.2847267606008962,-0.23315910948329013,-0.19991612644283713,0.24576460034894212,-0.03957831700737171,0.02372669975146305,0.11947101813813327,-0.22355857030034884,0.07458815538327655,0.049324021990233856,-0.1314713782223255,0.11730604730296844,0.055288598379172924,-0.22140681808350812,-0.23811680063688115,0.038500190378229805,-0.13753435891294813,-0.2354103146799032,-0.227150362960051,0.06348215029870286,0.03715263229532679,0.0018068780220309416,0.12803089515989394,0.11692723402660433,-0.15044733225049095,0.22181095130744546,-0.07484195464911705,0.10964457454861597,0.23180884920982736,0.08410970694550345,-0.2276593387035602,-0.21925958091988346,0.06520929618660447,-0.07008389138773932,-0.02334054324201002,0.10825976291287652,0.06428421106676228,0.08955251333505025,0.09779743740393256,0.04202839990730326,-0.18898397181840781,0.016708963673829364,0.23978600884396636,-0.16279303268592357,-0.07291405822063068,0.18910631807344225,0.06511726155193,-0.1338877979131059,0.14069302991432622,-0.12900208187667037,-0.04946674166166761,-0.10487996773152931,-0.09643584183839002,0.15605528096915405,0.0039189227549708645,0.05331840831861608,0.019671123274749305,-0.1863270253796559,-0.17190242176346326,0.17097624333634356,-0.1981204854755343,-0.21646229004170156,0.12202675963978317,-0.08814904976701934,-0.10739576115586932,-0.2174339125587875,0.18452888417746544,-0.23838852823385098,0.1714918771616578,-0.114486428678073,0.15082109043884953,0.07555767538034668,0.13931762362135203,-0.19685697933226284,-0.24133194476843664,0.033285155870292155,-0.026419529701102396,0.1469369993774651,0.08564547218401841,0.16080628248072262,-0.23089485933833231,0.13901579289767482,0.20505580293765183,0.11089342824923852,-0.0025045580604910406,-0.1372755146038828,-0.05165728629831994,0.02015446364395406,-0.037015170612314505,0.07216023109594462,-0.07041256279199723,-0.13708657522437837,-0.20483877502681755,0.2253336326588974,-0.2185158400773698,0.17850531424347224,-0.0564193097629796,0.12533651510704966,0.13327855197903707,0.18282423938001058,0.04288824374759406,-0.13812554510249886,0.23058939981807425,0.1708658211610273,-0.2077813572323617,0.16960788616757008,0.027633450746462007,-0.03479797610175726,-0.011659201442961162,0.04297142068849688,-0.1712376238706947,0.061905442643452095,0.051782514090172274,-0.2482710908962425,-0.07968632238771149,0.23873678729702744,-0.02585414237772438,0.2042017088367365,-0.0666716010135674,0.22144640033492516,-0.1802475635073175,-0.06909621512256303,0.15063990391830184,0.039910416400480785,-0.11248190200806493,0.024070523050840426,0.12178293916580635,0.23114598057171357,0.18074189421841494,-0.20695523580220396,-0.19405517470705924,0.07467148913259734,-0.14642021930426122,-0.15693382815656434,0.0012989937683177454,-0.19430875582417623,-0.0708087353036249,0.16125757545949349,-0.10656188565892519,-0.20321959463341407,0.19032185461534593,-0.23751981667014543,-0.07358967354919006,-0.0500334155708299,0.059306028328703936,0.09967782308564127,0.16543762180486968,-0.050248205526412404,0.23999649583733393,-0.07883442554669479,-0.136384246876519,0.08927885128154603,-0.22970295806064994,0.04604497216807349,-0.18725757651537725,-0.11363175055934661,0.16033231212992524,-0.14800994226504693,0.09754318123916439,0.03159299060472744,0.1527823498518975,-0.010867675686866968,-0.18861127687869497,0.1740774906303037,0.016387522351274806,-0.16734592764110934,-0.052892858324698075,-0.015519064382803692,-0.01516220796402095,0.1632367551899576,-0.2192244976956819,0.2390173527840996,-0.08445769138460943,0.16599854234161904,0.1354658244469837,0.19405237652740556,-0.05938284352606787,-0.2478507000723209,0.12380764849013975,-0.027090433932565734,-0.11770114556615313,0.13603208434995587,0.05316951130432934,0.23224480861974275,-0.15343174716912533,-0.22385544493893791,-0.1399706151555994,-0.10211234315438342,-0.16513249159618695,0.08320017831955523,-0.0017122663041666576,-0.11234582674074976,0.1995686810980757,-0.12260771356815249,0.08912420241703507,0.23482732625037578,-0.11257238330202428,-0.17880037602059645,0.21332542756452175,0.0006550017274341407,-0.07000094497950345,-0.2001505480681539,-0.13701044842529692,-0.19669093294482654,0.03167099210287617,0.18755047857451074,-0.1467819822447056,-0.19134960444292737,-0.12789940540227235,-0.11738595817323422,-0.15902092772592324,-0.02428536980622395,0.15901302097306064,0.024597843993769332,-0.17679572923032172,0.16287073747502887,0.030857647520986867,-0.08933835089295755,0.09319312596740893,0.16998171850587585,-0.08516761909034858,-0.11366802048571792,0.10381002660861437,0.05786345382258061,0.055382396909504715,0.28254826380694137,0.17090892804012037,-0.06036809128465939,-0.05959545106465601,0.02131016256600552,0.09787398896039444,0.2257862426654762,0.18418122650373325,0.14539670548235617,-0.0816048767934644,-0.2704796523654496,-0.11815666298346839,0.030236091829735273,0.23386585762995798,0.1407823171179425,-0.11236483257655845,-0.0006797912131971803,-0.15074660658223815,-0.19800143378421303,-0.19091894638571896,0.09422042020800095,-0.09182311499608833,0.04864410509414684,-0.15716585127840715,-0.23368526953446547,0.07654843522368747,-0.013055447713802853,0.024604309319761562,0.08489254697627015,0.22609635195053515,0.015358935697968631,-0.09448532632112219,0.1371058410814448,0.17743911430527015,-0.004185556108945541,-0.0017162366201830483,-0.14961867222229777,0.006594237787005838,0.1883951918916018,-0.08164151437575184,0.1293224996228577,0.11276661624871989,-0.0907146459770636,-0.2482253132553131,-0.21079444929440908,-0.06458537466820603,-0.03335557113497077,0.19794023595074783,-0.054437580584351,0.24531669425706729,-0.1371970098101916,-0.23417374101223312,-0.15819966198376834,-0.018184826627236535,-0.055164275114914896,-0.002252351455556883,0.033190491178727806,-0.13902678965008136,-0.20690509618941155,0.2135041475046377,-0.12092431125458042,0.01573684524504974,0.1966404074363763,0.028752955179934186,-0.08552479988689554,0.19924326625547947,0.06105648334641106,0.12536937117044272,0.011239500776790604,0.23564090451267455,0.21009132328956767,0.018650900913065996,0.03500988927273398,-0.10298902236120766,-0.1725694343393855,0.06917387431145021,0.1668882960633706,0.23345532679219816,-0.06656850696493022,-0.04135302062577794,0.0729287278770244,-0.23101324476569057,-0.10288701883271283,0.01951679195704234,-0.22687950728543044,-0.06566235496196474,0.19938558577539572,0.23671706208922186,-0.16649782223335446,0.16389765505254975,-0.10043051505249988,0.004405239141514344,0.18951843548950942,-0.054225892733193705,0.10047250497644829,0.09122042017463576,0.20884215341292267,0.03651475903034276,0.1203741268959819,-0.21423632507922208,-0.14767981107931233,-0.20155867890346996,-0.14188925418081885,-0.11886370756549845,-0.04701173012240445,-0.04563101816430042,0.036771460993562634,0.11540754759980924,0.1979520789207009,-0.08920199692109426,0.22664813267949058,-0.17393468177614138,0.07346823651089923,-0.14002490315028285,0.0498122099710105,-0.1636903600404068,0.2278242339318584,-0.050690064571631,-0.10816378814214848,0.21977048928963597,-0.1937784155237273,-0.1429531680933963,0.07633830701137985,-0.13470304786780624,-0.03293995613272995,0.18534192183978515,-0.09457514331884781,0.22341753671150977,0.15510054892763558,-0.16774276244463387,0.18005100741315638,0.07234201574510823,-0.030706576833185603,0.21202635562465544,-0.04857166104617771,0.17142912429422957,0.13694530386966075,-0.14508394604171904,0.2211932717539193,0.13603502798099742,0.12724742361119604,-0.16424461787296946,0.13562988899580677,0.22328645480132422,-0.13960575705098893,0.13985835474780642,0.1819345657145208,-0.18729239753805907,0.016655517603685548,-0.08114890084906307,-0.04118980117474524,0.07018834536478497,-0.02502013758100648,-0.17036958462589896,-0.15176436560905252,0.18856054604162492,0.07596784564158351,0.020634758388171637,-0.01473156983647749,0.16255600462990275,-0.17328464967529367,-0.053665165843112435,0.03154880579978284,-0.1478405170625111,-0.03162991551184186,0.19903443818769642,-0.18217755114856296,0.21133383426090804,-0.11422923120984052,-0.08142222874445386,-0.2183295432220403,0.1542271769216516,0.1363809010699593,-0.0656348064337341,0.06056910440596518,0.11811713465195962,-0.1785582612296264,-0.2179494015630982,-0.16784630875669013,-0.17444483806574299,-0.1256822662639585,0.2075777913196057,-0.11430844152470836,0.105117824096509,-0.11751810677342127,0.027234015559185247,-0.1632075954775442,-0.04107571421604648,-0.11425389321763309,0.13892411306485336,-0.04725303923202795,0.08645588392424343,0.1255387665623201,0.09422927549202886,-0.19642101001998663,0.1239051408416486,0.27559504049875905,0.050867222569684296,-0.1082437553129769,-0.11686807383586842,0.10498786684316032,-0.09178284298852281,-0.24415020819270086,-0.043821173374587734,0.05935604180581274,-0.1697824917575576,-0.08011388503057527,-0.24645360522825846,-0.1570853752786626,0.09612700281417913,0.1421535844299517,0.0788405750300973,-0.03975203760131193,0.3015436008623121,0.2014575461589489,-0.014864866710493727,-0.18345772747691946,0.1163279099275538,0.19449835989101108,0.18878121600186828,0.19198583587002221,-0.11395267769562346,0.12329211217101305,-0.04672147042253861,0.01671708351411428,0.006663624401364038,0.18028906194429326,-0.08234201988849554,0.1379593323098593,0.1485278815630746,0.21001248112253468,-0.13555159952292978,-0.030664839937338765,0.06705587673339815,0.1502316224817551,0.18342416817172955,-0.17840779191830367,0.10950658979999955,0.03535290863322769,-0.18948963099987146,-0.029369595743293345,-0.19933467053222598,-0.18300033779549688,-0.1154635627603589,-0.19073414464156116,0.19469730603063548,-0.16306936571640862,0.23487470509710506,0.21116450129183886,-0.0832947687378043,0.19103739891497382,-0.1372782208412562,-0.06413566055643498,0.16213275590151718,0.21494623668030105,0.17999192614340231,0.1182084074988441,-0.1574050828691124,0.06652182388867546,0.1587093622758118,-0.14839030163694428,-0.0441877460170402,-0.13950242774355318,0.08503482116814806,-0.14833111779491587,-0.04913067911806561,0.08092985598331566,-0.05316783097590922,-0.22173759756096378,-0.13186181373932623,0.1879847765298228,-0.07861823337910623,0.005442486618568511,0.0299973101191906,0.2526241642579859,0.11588813365915851,-0.07083464854507063,0.11442768153800492,0.08304833832921785,0.1728244518229507,-0.0047119787213209955,-0.03156815363338436,0.05016198644169375,0.11430953261884019,-0.174331584045656,-0.16393483929232125,-0.2092676649315473,0.07085306021064698,0.1800709258702146,-0.10006790431949776,-0.17674927012971423,0.15451210869444093,0.12635957363658745,-0.03365078348918427,0.1899518160991042,-0.12753752236206028,-0.20608895271589953,0.14047499803950342,0.23488548532346926,0.11885923016278792,-0.10793866770901625,-0.13391052891325936,-0.23285440175135852,0.1892719593823702,0.09135550503972197,0.09277648723286919,0.06907665707140517,0.17929815251318376,-0.011010995713223627,0.18962941560997107,0.05853896761872688,0.14034484532813044,-0.09922612319619183,0.07133993862878653,-0.12742097757217244,-0.15965948073613545,0.19148141177273909,-0.1461340213730254,-0.20495516643245779,0.048816574808740736,0.11249775752833602,-0.025813832781222453,-0.0891467569987388,-0.19257594178936926,-0.07074041818828876,-0.12754939102865165,0.20395102657729236,-0.21017709220307823,0.15750018967430934,-0.210895700718036,-0.18177102823425512,-0.11569635862801635,-0.09113095753315792,-0.10591630595876123,0.21737543713746849,0.01595660186099307,0.22166548987745277,-0.1079445161122067,0.17848187378716235,-0.19801009897946123,0.1317128304186853,0.11546133735252338,0.16803939211112437,-0.012600007324924927,0.24489223903785956,0.1584506008343241,0.10205476316987645,-0.05518609921251049,0.2342002333428843,0.06682527011128565,0.012183117261820593,0.22538973986920022,-0.11412160494875591,-0.12219330388446603,-0.0017064396594673819,0.17652824966976408,-0.128077699774029,-0.19023557751774914,-0.09367323647698313,0.03839221192635285,-0.10291952129975063,-0.12077557404859936,-0.1617705194537318,0.19677260635796698,0.21029955418159474,-0.11247737877308138,0.09011257041890103,-0.06640558555638458,-0.1694780862520261,0.1997635956598644,0.16154686594669893,-0.23379079305983338,0.24391868870306907,0.021507917404216675,0.03854440845397828,0.08681824088886646,0.1672984863272987,-0.07865209436094678,0.09632415464316577,0.123484782388397,-0.09973698678088716,-0.2445067579206825,-0.20173880063075444,0.20109464664974447,0.004851370460527061,-0.056846575654800384,0.10902281940351861,0.2416581390850274,-0.18460868873061953,-0.06959927137758251,0.002507796406258555,0.058709111978539244,-0.2341636869220843,-0.20935277594886978,-0.004225182639661094,0.10419438942415546,0.027278134279426068,-0.08194285067383068,0.14071928369965647,-0.07269012622296746,0.13446627407934364,0.12241980831237011,-0.06576340438750566,-0.12964183301227522,-0.2578248993814841,0.019240178049430623,-0.19618046284622767,-0.2226824935291227,-0.19056856706084205,-0.053560909608330674,-0.20454698244906416,-0.14808412773035265,0.14085142904287012,0.17687580161711564,-0.007263550514285613,0.1653521224950679,-0.22774039868078624,-0.0014315003667386072,-0.19794827952756652,0.15041835109257387,-0.22565442925428683,0.09762237349145464,-0.025532402545280945,-0.15435557383376172,-0.27869672115297767,-0.036831208395049206,0.053967871884115816,0.08064409247296807,0.09029899033572239,-0.037174745428782796,-0.14093579868123912,0.08158067370668691,-0.02785236964027334,0.054347433544928304,-0.1409036047261125,0.2471765079137815,-0.2011165977718615,-0.20922572521628918,-0.1710915991708329,-0.26371347478436685,-0.15927140780578475,-0.18882813990391867,-0.0697533481152892,-0.05459617702353042,0.21006827472046113,-0.0034876037951791145,0.04102847369681934,0.16378305961965317,0.26030783969137544,0.031768832361242026,0.03624154653439714,-0.10220152298848588,0.08703658682900726,-0.033691892513050506,0.04834250930238846,-0.08362032411177535,0.2633631017414041,0.08792291555211182,-0.0666977286966254,0.04849842191602599,-0.13884248982748465,-0.14690797028238606,-0.05423707758821346,0.20539466901670686,-0.1461254700316977,0.12462823830297559,-0.2181330369902489,-0.11732230040071026,0.017925894058912588,-0.06965323543545253,-0.2089228278879255,0.1001836558805023,0.1363671533984299,0.05104203405089705,-0.25565097446159657,-0.15655377504913534,-0.2508393890238438,-0.16357718847504252,-0.2570082791754615,-0.008317757012803795,0.0033082067595895225,-0.0882265904601029,0.09083638111692646,-0.1214818572519953,0.24896157700765784,-0.05515755632875044,-0.09044176405445498,0.18908590965499114,0.12420851752019817,-0.12012946139984766,-0.06635691787213026,-0.08845638232505743,0.016921131302751788,-0.087096779285972,-0.11886980250596181,-0.23274584610130306,0.21657267360201599,-0.22749284421914184,0.19912591744413546,0.0443464101964138,-0.05708703657343552,0.13118981711434724,-0.21897910569382664,-0.10546396478532716,0.19297950816936194,-0.16397031818852734,-0.0014693405396049052,-0.2218469513753926,0.013738299042278393,-0.1780038936607713,0.03735042646718706,0.1583497672987918,0.1490287545352699,-0.09261724249614732,-0.14395855500983487,-0.14427595900887336,-0.0655326238784187,-0.12194818078314032,-0.05120826600584881,0.003263230176832755,-0.06300400347478188,0.07208385685631434,0.031942908768575896,-0.2445182343119087,-0.1447707673635113,0.025500329825290612,-0.10877543068366659,0.03700616107143892,-0.12711518143334294,0.1819219875507073,-0.06490274535531892,-0.1714112017566782,0.18835506417253475,0.20303837940613445,0.24592374513697546,0.0029474341708470575,-0.09461900142966002,-0.22300032211816534,-0.06276880859482688,0.20094767451509626,-0.1482957419580038,-0.02622118327731462,-0.043217317655406096,-0.18863751195713038,0.0020884164607236667,0.10615667820831373,-0.09082052484695068,0.17809050667780685,-0.25883061309938965,-0.19857864247865528,0.07161590194167719,0.0006856417461795648,-0.016993946913379705,0.12262312159202553,-0.03382726498582509,-0.2429164423099798,0.052855478961448654,0.21279165780978307,0.27083552948111905,-0.11222905356747427,0.029639623508216077,-0.02450803230930282,-0.10911716243088954,0.10274049140763457,0.039199741948032135,-0.056499251014390496,0.23825609533455064,-0.21934617591853942,0.16027030719224314,-0.018393635686745943,0.08614395261621838,-0.09766389590808267,-0.23388987844251796,-0.11501694060165873,-0.21961786604744066,-0.06062419718675126,-0.06528741623124366,0.1248949058756845,0.2424805872072421,-0.01215445149587158,0.06353343027365742,0.12221716740278926,0.23634169933158303,0.04396286246976169,0.2397471588574165,0.14377875085893546,-0.07585015824950211,-0.21965509756208726,-0.03699434183616189,0.1379098361370145,-0.08396813584961123,0.19619128631787341,0.22300441046651023,0.12088700724177126,0.1798059860757955,0.03417662718211076,-0.23254877625062123,-0.11697705245106646,-0.22011505260955655,-0.013618413816615304,0.02615699976556595,-0.06351429502806823,-0.07332344660020317,0.06046227814940482,-0.16340935607870105,0.059941777714069645,-0.21795971578891954,0.03388080671113627,-0.20385429435698774,0.111471657279362,0.13628889837458683,0.019174918386452224,0.16971589523407762,-0.11455744220826206,-0.17619244768029627,0.13524600003119897,-0.07360470214541528,-0.21909320926322506,-0.02552592588371098,-0.09034796776487579,-0.154562215721068,0.1257405377563239,-0.05647277246005956,-0.22271372619216473,-0.22540316580233793,-0.04101701112138328,-0.13960599011754005,-0.02823816375835363,0.14714335928353287,0.23320761537653895,0.19131282172587968,0.22436805697615966,0.07623800038053993,0.13431598040678788,-0.09456392553832951,-0.12677398882174962,-0.17694764996977244,-0.07940868025614607,0.24939821214158386,0.08786040412408472,0.1477409252639363,0.05608299596749634,0.21138066375210426,-0.054133690932475616,-0.11869314940542582,0.09718130679136971,-0.10360096017637652,-0.09760835104390327,-0.19775103610641026,0.08121431553651703,-0.2128505031098305,0.024949498331270907,0.18288318924376856,0.1648289963261882,0.0112312456877765,0.03133478640384511,-0.0036777613476658604,0.08967560928500523,0.2300562067224608,0.03359968988117885,-0.05203300059664431,-0.1828717534401915,-0.20285470247129475,0.14434569564515246,-0.008395390412772603,0.08956476221911115,-0.17051367108931734,0.01667812150424734,-0.03681050483017412,0.11527258652229952,-0.19523166208585654,-0.25550455294821006,-0.15626551659942547,-0.23940700700266962,0.17650398015390337,-0.09646899743112926,0.04288456092908862,-0.21122462958799051,-0.1639137244649258,0.1406950433387053,-0.1787277806540031,-0.203067866916035,-0.15240819363740382,0.180584509788508,0.1306519879712267,-0.18753203613409006,0.14992618437717464,0.15950192296597393,0.14774809270932152,-0.17017980819453718,0.18489278787566593,0.18674422023633208,-0.20169452584944642,0.08970018550052025,0.18172051421181423,0.08108139310561088,-0.005351429443413776,-0.10050645805438407,0.12411163765793388,-0.1255146399131633,-0.024368816691311367,0.13192257139733937,0.15627272692929092,0.11161732883014522,-0.20022843534893875,0.19871114461290848,-0.08629681168943391,0.015971288405893954,0.07696654681763404,-0.0123700089776502,-0.04120920295148365,0.004253755097572655,-0.19778980853730205,-0.11040868228914702,-0.2611679763607315,0.16069754968179187,0.044510488529185634,-0.18753803551977993,0.22590770933305132,-0.24740271159605534,-0.23281962796307265,0.18363218293216527,0.0277647025021374,-0.026031220355247707,0.09225994877660476,-0.1521183161873182,-0.06404991806004724,0.1449104344190577,-0.05368412617038835,-0.06285539463041595,0.017644961240824635,0.09280928287566645,-0.11588438532474578,-0.01724383351908494,0.030993058820918958,0.1916589474851427,0.2552968589920851,0.11346717333530662,-0.057658747856721815,-0.1276251330581281,0.08818641014558173,-0.044059305793134156,0.17885060538729633,-0.08273534664024021,0.12871246574155873,0.12806450609401243,-0.19510658216539523,-0.21021563211614455,0.15233139150027195,-0.11017872005859479,0.20979397667482005,0.1216822698062497,0.19589104003485608,0.01633501857567111,-0.009763835294148768,0.1814080960548539,0.18487104393013828,-0.01879612492374307,0.13757332979050643,0.20952704792522714,0.1688515727607346,0.1357416498430461,-0.015532465656500934,0.17202023063726893,-0.04745951261153669,-0.02838507153497604,0.17208470012821167,0.07130248997352838,0.14340232629981364,0.20689149608693644,-0.11280203614342675,-0.03321109458542295,-0.21573963453025768,0.09719420923539392,0.23742588422981786,-0.01234554054688294,-0.04319824328929153,-0.10210415815230416,0.0983625849088108,0.16501866268573984,0.11112336127760204,0.1079187293022454,-0.2578891689643594,0.10041277710070776,-0.04523788320718471,0.22923726824334018,-0.25712523511704344,0.017796467014480344,-0.1908287534819265,-0.07341999709463558,-0.18346448504413326,0.11179281346375068,-0.23936153717639286,0.18569607190074466,-0.003142701495079932,-0.034001917223256496,-0.00323901325026576,0.0039606180987018305,0.2613307651672732,0.02003498665669378,0.16186514516948583,0.10876119675978009,0.15797754945690354,-0.1008482397378845,0.14941430823236557,-0.20096009409677662,-0.1030807614090371,-0.22016319868804057,0.17243813064730812,-0.030403822109048923,-0.06070646933179132,-0.11851971105259271,-0.17355205530360426,0.02139495208262102,0.1925024450722006,0.21908118143467478,0.22470303108664116,0.04920063374450856,-0.0779524848517249,-0.17765023718732278,-0.10955539617354877,0.019665809142419773,-0.05190777101986784,-0.17833567978683085,0.13498903488792346,0.17300785161712656,-0.15564086738705957,-0.07134549690356738,0.0652279679429118,0.16865415848353882,-0.16496173081038362,-0.1479520635290472,0.19373030856259837,0.06742445358527073,-0.14469591121356298,-0.028655537686707828,-0.05336814714047623,0.12350470717966787,0.047620591600148046,-0.003897918728832302,-0.2154030438641255,0.12061879085328692,0.002966212480807834,-0.1801949456772429,-0.03689170537308218,0.14742106953001446,-0.06738566259731918,-0.1464277480436865,-0.16396449165601162,0.16171281219087724,-0.10389273195464917,-0.08727451924610195,0.15982470608693017,-0.12524378490798066,0.03338507076929655,0.23980759959041512,0.21128795205825904,-0.21212506788103178,0.1774207918689451,0.12012002380151898,-0.12677507813990707,0.18001163274455856,0.1453704654197089,0.15360988356417948,0.23309362534775277,0.1761611203703629,0.022244621240614645,-0.1998566830409675,0.20891641278092168,-0.14666561965937497,-0.23283127599070602,0.15226055770516997,0.042102750397530454,-0.03066063917365752,-0.23205207650505638,-0.22085717458244586,-0.1597357791124545,-0.10199537416899805,-0.11863851488622842,-0.1308202446060818,0.14883780043300834,-0.1931229721142065,0.04166253674451634,0.1135844897266842,0.0339388671683788,0.0277517583627405,0.05173885286658084,0.02313990274937655,0.11951705789163079,-0.17638621237586952,-0.05319264020944503,-0.009795686362053229,0.22664094781062413,0.09525326996795075,-0.20015547186443716,0.06109117722888851,0.21978922362751696,0.21956864708419177,-0.10479077008774432,-0.08229692019827681,0.1875429394516874,0.2274945733936967,0.19415037497955848,-0.06097530778509649,-0.10475593577001859,-0.036393362252931646,0.10723951865078707,0.1936566969071501,0.08221004688147827,0.2184681696489413,-0.19158232362583869,0.06648606918338014,0.1319214885777115,-0.22626427506855745,-0.17377520276822198,0.027068087893456962,-0.14670619411754326,-0.15494071571900353,-0.18514519332086127,0.07412996286050773,-0.07436820993332639,0.0160647925937257,-0.21192625256796294,-0.0869787616948065,0.06230554445466275,-0.11066289098604899,-0.1370430978105876,0.02949130956730591,-0.11689312619442692,-0.1099807560747113,0.004854624448472615,-0.10571849273368442,0.011181063612268128,-0.045943822978120816,0.20837240885302322,-0.23448993777501434,-0.0419285682833474,-0.24823147780382177,-0.20535461430064164,0.0789332520853762,0.220611000565949,0.05573470424853111,-0.01835402979971461,0.21592168764758607,-0.2294915178171853,-0.19868246027665526,-0.23967836130186976,-0.016226958536615526,-0.0637290259208273,-0.14708795441948275,0.07134669774495186,0.12574525615809298,-0.0035377129679383733,-0.13934525780432425,-0.1616477426425456,0.06588130737314907,-0.0704904342103579,0.048477089871212485,0.18208775767334257,-0.16771102398619775,0.05255409516448346,-0.1507827676650279,0.04652662363971102,-0.23806460410898317,-0.0919918874328213,-0.17035672274897132,-0.0005552144010114278,0.24540117111403129,-0.06384453669579476,-0.19491803362117005,0.21389048754393516,-0.23989457790515592,-0.02693106591778517,-0.09828677523732936,-0.22014691740745912,-0.0840857504835649,-0.018373734602872643,-0.20911995228698424,-0.022738694839807762,0.10596424770554654,-0.20291645669185787,0.1789340260898991,-0.018551927619280983,-0.03478474034015944,-0.1710544089792085,-0.0545180601244453,0.06259092880830489,-0.19500252737935245,0.06714448919119577,-0.06613867711504025,0.12393156246641017,0.16517658258284293,0.20155522632036724,-0.1486827551552652,0.1082232054976386,-0.045053553876246516,0.2062537164909002,0.1792872547490924,0.03192505462287678,0.18371083750770947,-0.12947531460611558,-0.11899494239642154,-0.03181357511369064,-0.17727019648264042,0.08428956430360682,-0.10412154303558126,-0.10134695022909106,0.11504427365486529,0.0984586797803024,0.1903870345285883,0.24793568371745947,-0.11177290538117172,0.25307188102887634,-0.07003504199605201,0.20921242370077472,0.0694920766427227,0.12291720163912556,-0.060978614380274423,0.17052732232449555,-0.19185919170815482,-0.11332536385287952,-0.25722790414472835,0.09153075485362165,-0.19261526180244967,0.1806953051559544,0.03453628763984655,-0.23281839658895082,-0.06574360910956673,0.06739516941513232,0.17933786370600605,0.07099977086014805,-0.15834241637908084,0.03400580102777314,0.20839281147756497,-0.19710177170594467,-0.1884621550587674,-0.12091891190113326,-0.1609181515556759,0.08720812097945976,-0.18533075239044675,-0.07950989829486833,-0.08472047036775991,0.0901823898165898,-0.05091033536321484,-0.05829363290003117,0.23649415080476016,0.007966124092141445,-0.02867090977927183,-0.016878851584658336,-0.24278247232082614,-0.12010596954083118,0.17045078045764767,-0.1049705026409764,-0.08996745840572891,-0.04095419025383823,-0.13802578577614402,-0.14955052902274268,0.19817762055751711,0.13410694147166058,-0.018911656450346842,-0.21148272678689536,0.122009250795234,0.14071245400701338,-0.10300357788922401,-0.21789836626380785,0.2070606055957162,-0.22238850961404433,0.199744719783781,-0.16780175325747088,-0.11158614722427175,-0.1582645375264933,-0.09172664253749424,0.1818904451486486,-0.006194209075425866,-0.04335407506744611,-0.01650440122842913,0.008821509134545172,-0.17910466225504276,-0.18991766795820694,-0.10910528689795812,0.17721057926967995,0.14655937405931732,0.0004355061151622942,0.13838903243895148,0.24152513631961403,0.10104067687845106,0.026090017467825032,-0.06331515162468528,-0.054088556732182255,-0.2136465999208846,0.024309157388436756,0.13838861191953133,-0.025752510810995083,0.12762761932365305,-0.2449773048365101,0.08641083328635614,0.027404693353928252,-0.08139204778798698,0.10509523349780257,-0.24062727561263192,-0.05765267239162017,0.09293908827907126,-0.1619944090654394,-0.10547647773038338,0.281024334848531,0.11948577944902936,0.06265395393439134,-0.27358762269292886,-0.07823384211675848,-0.26386639443631893,0.01684574795621442,0.12659022524238406,0.017563569901700805,0.008547093323547136,0.06234953483878084,0.06201372789199734,-0.039368733928387974,-0.17407917944887616,-0.11267161094008105,-0.2261099209571051,0.1779559197017398,0.008056672919576345,0.09051446559762286,0.15749214199842848,0.2326831429737562,-0.1321703108999798,0.22520290674585955,-0.16522568963778428,0.13670977835138812,-0.12221947606988959,0.009573196383094874,-0.06852519037081689,-0.2450818372567262,0.0360006215116243,0.025788399474921102,0.2104112149547894,0.04941730609590377,-0.208443602232802,0.07849204635826346,-0.14225875818966502,-0.12228176959889916,-0.10758188430872126,-0.13125393353615408,0.027491658583829105,-0.20908311263986312,-0.03805671440399693,0.05935948783261018,0.18213225361172228,0.059976564184663864,-0.10381103901141071,-0.14111009118648402,-0.18038535428694913,0.14686359363601148,-0.2137157913046815,-0.03542922371437323,0.19811984758123138,0.09276800034293178,0.19479006038705135,-0.1540054831656255,0.05012445296784273,0.22472933452869936,0.023269273105934164,0.060929250318190534,-0.005657427152204109,0.04971458671148749,0.22083963674689275,0.0854574941932102,-0.10176697065600537,-0.2509111868945458,0.031016706227947197,-0.06620588210183538,-0.20741761785857463,0.05920551588176351,0.18458275541035563,-0.16302939384455262,-0.22349716588817894,0.05214221301844974,-0.1893212710357092,0.19980301000924397,-0.05992404867298835,0.10549693065636005,0.007676686925196749,0.1355814251263798,0.20066905695112308,0.11884889917494636,-0.08408002575390185,0.03437264940313216,0.016097087177911824,-0.1620114993043096,-0.12387080865882201,-0.20913810197598687,-0.013926274769287863,0.1818624853158199,0.16906580172090135,0.20236156213049625,0.06495321878126878,0.2936438882924537,-0.14059025994588895,0.0763569417151563,-0.09569032514337922,0.1838836263368014,-0.052073808166236746,-0.17517383082179055,-0.12132757118142029,0.12465439099307855,0.16157841048722468,0.18012118669058153,-0.10238166151091614,-0.11284220118882288,-0.054862467290362434,-0.1504257083774326,0.19346754843507963,-0.1881295930774279,0.15600974560919767,0.23893231578064714,-0.029870781675627907,0.22514696184031008,-0.17698604132267562,0.11482439320207351,-0.12745652228083282,-0.2458329456801939,0.09847265977350488,-0.1543047856091007,-0.009601500222822426,0.031503053153718284,0.13175212377281065,0.13727623302536762,0.048678989716865295,-0.09435772968009624,-0.07136582751233435,-0.23213384903265338,0.04015842191694344,-0.06173108026945769,-0.22377934398732197,0.18276306502318507,-0.07350937520978165,0.16620265712017998,-0.036452724613704496,0.10806603979549129,-0.1558277139106387,0.10283917489126337,-0.20686591039910043,0.18433550830047243,0.16770258684921838,0.08944679783378516,0.12734872307172415,-0.21446904842710343,0.06957063792547451,0.14758668169296188,0.14245691491374418,0.17510478208692537,-0.013960129393684365,0.004015375066538892,-0.02750487840092295,0.12188068789291885,0.1226772874361391,0.1315185659032439,0.21465870849782673,-0.24543457209193417,-0.02425078375936223,-0.058451333084563496,0.06655106877837867,-0.1035613057955189,0.18663715712150386,-0.0672027126612849,0.12405237344281611,-0.17386814948533683,0.09381110901432348,0.18738007285716082,0.18465003343886413,0.1721667721579841,-0.19771223763793247,-0.19205595599055267,0.20787463635925216,-0.10564442076832166,-0.14539130649525878,-0.15461081184277659,0.1576716036422546,0.09958599146817206,0.18727971292985626,-0.1349828578003369,0.08818195057252529,0.15683974442853338,-0.15860604417349355,0.11074840075469582,-0.14376516652765672,-0.12886636311570632,0.1387185628268363,0.1442219901083214,-0.06742312455143532,-0.20864696540523003,-0.056862444406735504,-0.1659285017479886,0.03486840993763992,0.0062450567273563545,-0.21398932180214703,0.06294807802837478,-0.21412584879356453,0.10120958868943156,-0.0639534469648179,-0.09216151883948315,-0.045099284356858095,0.20475428008730884,-0.05261167025857532,-0.006632496741443137,-0.11212592284365713,-0.09978182301757145,0.08745851636046229,0.17571982173653905,-0.1660065536691833,-0.09903010852006532,-0.11942792374286078,-0.11214254347121078,0.0314965008133668,0.23483407671883494,0.032743665359956015,0.17620814360932252,0.031111447751969504,0.195290820076311,0.1380091580681464,0.14016650510672612,-0.21161128169225743,0.1119692354427027,-0.280350784635749,-0.24974594318930504,-0.13851199756053761,0.007099511841332525,-0.2035136792373385,-0.04547848074751448,-0.061128154758744356,-0.16915487007158406
biasActivation=0,1,1,1
[BASIC:ACTIVATION]
"ActivationSigmoid"
"ActivationSigmoid"
"ActivationSigmoid"
"ActivationLinear"
