encog,BasicNetwork,java,3.0.0,1,1399533477930
[BASIC]
[BASIC:PARAMS]
[BASIC:NETWORK]
beginTraining=0
connectionLimit=0
contextTargetOffset=0,0,0,0
contextTargetSize=0,0,0,0
endTraining=3
hasContext=f
inputCount=30
layerCounts=1,21,31,31
layerFeedCounts=1,20,30,30
layerContextCount=0,0,0,0
layerIndex=0,1,22,53
output=0,0,0,0,0,0,0,0,0,0,0,0,0,0,0,0,0,0,0,0,0,1,0,0,0,0,0,0,0,0,0,0,0,0,0,0,0,0,0,0,0,0,0,0,0,0,0,0,0,0,0,0,1,0,0,0,0,0,0,0,0,0,0,0,0,0,0,0,0,0,0,0,0,0,0,0,0,0,0,0,0,0,0,1
outputCount=1
weightIndex=0,21,641,1571
weights=0.039784247702329426,0.07534833630418226,-0.09882171177421938,0.15162693657758788,-0.005771581962850551,-0.16835826303389853,-0.07777131965845513,-0.362342708464837,-0.3443614535828737,-0.39059089545253967,-0.1305572490755516,0.275731193453577,0.23836901125981513,-0.07636508207329185,0.2990660626144281,-0.005582022910617275,-0.37070820743316973,-0.19382690487892876,-0.3444244307558988,0.16147361253897102,0.2057416798112384,-0.018322092179571252,0.1430329950788265,0.1117852354971671,-0.04551949628970793,-0.08933837105614191,-0.2360457064365527,0.007692139001431416,0.09182972542157655,0.09494285719241391,0.21856450348795964,0.06833556661729047,0.19083328525670398,0.2418885506931044,-0.11528128430312334,-0.20742448303631744,-0.028503041539726447,0.034659400889051846,-0.15107776480658527,0.09589503365532036,0.1477238226256601,0.21825107158605378,0.18760895588220616,-0.04033541767053594,-0.24181653493958585,-0.024894839862815803,0.13823999440675622,0.23121958798204198,-0.025526723521081634,0.1387068151857922,0.014541776191899548,0.15493081829736438,-0.18164322867469776,0.04644116403934097,0.09999171594821567,0.19515254268995355,-0.1732077016336008,-0.013292734372921453,0.1850995805027872,0.07735318328941952,-0.0017083146545511989,0.2708821727053894,-0.015280250010281576,0.1772194868345957,0.06518698499364231,0.10656362100300125,0.14643226090756095,-0.17621777693960988,0.15148335112534742,-0.11001999978523869,-0.19367495160339557,0.0004431082120918347,0.06058661846106153,-0.1625043218158122,0.0368188564408211,-0.2288766903372319,-0.18844306803803462,0.22652654433812627,0.0844137773128265,0.12008224092048483,-0.0058475187426971715,-0.046940783606624646,0.2118516971450446,0.09748165682845605,-0.22613253920081125,0.13322423011979864,0.0945011055222882,-0.13602874567339931,-0.21517253443023387,-0.13374184111699638,0.19105306730678728,0.22782291683762299,-0.046922544961438356,-0.20001233909343955,0.031719545206552444,-0.11355626601648505,-0.22305123489065667,0.07007227976567215,-0.16153762368838392,0.04464890198758173,0.1207425521363725,-0.023222624106416893,0.004664821940495949,0.19780520606452867,0.17841064778283855,-0.16265237185666115,-0.05520584196352696,0.17745875548825346,0.1475622056054964,-0.21066037657579262,-0.05019678060491696,0.013853793544986483,-0.1650281729790026,-0.03102587212324819,0.229306610037885,-0.1351084596530429,0.19850230280489906,-0.20339934139166851,0.08327023360768097,-0.07656095533520595,0.15946177670087816,-0.059400395565419116,0.10294147496489017,-0.18671348865301737,0.21502548374331973,0.05552698662060644,-0.19689005531901793,0.09663337479338918,-0.20227231021841977,-0.04587272396020553,-0.1161404990905849,-0.049449879261070515,-0.15069068795128132,-0.2361213016244991,0.10066804333559783,-0.0999470429002069,0.08761178350653524,-0.07542712542490722,-0.06639315639879012,0.01972495499025608,-0.1567315238144821,-0.182347621943997,-0.1853495055525149,-0.1713548977420356,-0.017900905373388076,0.12025736496476055,-0.21721093572151015,-0.08225244861808155,0.1606977927016043,-0.1645348498182925,0.07523328446622012,-0.03801496189178651,0.17504545859008855,0.20058761466690816,-0.18372066874083978,-0.03544483902876078,0.13922762301767524,0.1821191231656274,0.053077242855617865,0.11110613321085139,-0.029451016372646615,0.03273291604894852,-0.2001000681262455,0.18096525079247158,0.16424685573273407,-0.17856589991187433,0.13269758265477152,-0.1957315877285369,-0.1778023848442518,-0.06760291733334324,-0.024495581518962143,-0.026228361520787186,0.15983848893736027,-0.14475144910416807,0.11530256064467329,0.20771050064497615,-0.0559699587689098,0.22153702479664653,-0.060880858464562294,-0.13516870035695938,0.21860057922073142,-0.0015972547331775076,-0.22175255091375656,0.2015378679363674,-0.1755611363141217,-0.20574752708081573,-0.13383213867662766,-0.1828819003901984,-0.1373467973351248,-0.18748820664805466,0.03135267128980964,0.0322282586387705,0.18841953940403633,-0.08151919508249587,-0.05232686857184028,0.1263128741261973,0.14059813290945636,0.15049315762417217,0.016520552454410423,0.06679408047171798,-0.019289247978282284,-0.13033144847533387,-0.07862920326194334,-0.23357414986274097,-0.09968321041046246,-0.18566572846297752,-0.06816645752731036,0.026413599897163253,-0.05914209368724888,-0.039115782866922515,0.22599921690028485,-0.2251132853129723,-0.2170169604210259,-0.012156157026886124,0.06783586102562941,-0.22105804945930915,0.18542689299231402,-0.0005383795224537028,-0.22165318967836356,0.135904668764128,0.2377161410823778,-0.015437596464582405,0.2255045183455167,0.1474230108279773,-0.10093175477814739,0.14621460436972664,-0.05815583318680616,-0.09353073911791039,-0.023597071494964875,-0.08969238647583273,0.1292102075897229,0.027206134220490577,0.10609300988834504,0.007787081577590999,-0.18363711704853342,0.04335030591260945,0.1768478735266858,0.22085928966818766,0.056521758267990385,-0.029866699459848545,0.029850616504745645,-0.07307765211497756,0.0795339479630283,-0.2416334111059138,0.09939472573272402,0.15726177851411272,0.037122784849269674,-0.15062947304300348,0.14769333004069982,-0.06848834377385059,-0.23653245174158485,0.0035687364365320265,0.2671939844507335,-0.2042095338883532,-0.07772920000132302,0.05513157663019583,0.19201094513953382,0.25444035533167925,-0.16453601253978717,-0.2131135085506508,0.229764300017094,0.09885923313186414,0.045738907778045776,0.10722092898442603,-0.1532731220471547,0.11939872900658541,-0.20566708538010592,0.10386734100734824,0.22898844114607797,0.04054864844489916,0.1861353792241399,0.03622565714073692,-0.02000002328536978,0.010560786067205983,-0.01216960863480216,0.26670313192125417,0.04718312409573116,-0.04077039792836713,-0.24993900383955162,-0.04630915711523697,0.16330052574325588,-0.09080904659150049,0.13624505597109357,0.10271993225066,0.1635556957339476,-0.20744747789622334,-0.17618180004260278,0.15079563393148956,0.25012583071081507,-0.10694711081831694,-0.2054822601030413,-0.1054715324379519,-0.0025640990126462623,-0.10993134312406158,-0.11580527610544337,-0.24697557823912814,-0.06658354251775771,-0.18825198667697174,0.1975324449441313,-0.10390798271467849,-0.04186322815667648,0.05872017936518493,-0.25583608570152006,-0.08209354803981328,-0.10973889660439852,-0.00860988251209841,0.13815497690269332,-0.011787380788113568,0.2822021148671077,-0.2520636841739837,0.17848941942468755,0.009636479193397314,0.032950006065054625,-0.25585698999369544,-0.07471543270700341,0.016280712011008103,0.02227749985760934,-0.057118620863307296,0.061130895530125545,0.009667119006633465,-0.1264616585804023,0.2687716358110268,-0.08218248908266372,-0.1660675922342274,-0.0140156403456101,-0.029084627573224504,-0.06006312172111273,-0.24363136173057526,0.07733028691802907,0.3952154729472634,-0.10374087204482474,-0.2593837614237011,-0.020333769907567932,0.005904777438265644,-0.11412598512340244,0.2507373754168825,0.018473600761762195,-0.13367471448086052,-0.07587210569538172,0.061661240830325086,-0.006412560096696089,0.30305670138077745,0.18871339457129174,-0.01587051244548567,-0.1675277497587564,-0.2096406307565741,0.13798592322957792,-0.16180318550803952,0.19618425752377883,0.008688319922491855,-0.1855397833283404,0.02797778120095781,-0.07384311915618642,0.03947687403274803,0.14696677736277436,0.03984630978982295,0.12503804572686988,0.04104011047352812,-0.018798833385193336,-0.1644562835800229,-0.2411389291729014,-0.15702374504920477,0.18739118726790974,0.24817605455692768,0.022740891912839435,-0.13410772198479293,-0.27176320174012686,-0.18926885192353438,0.001560620090593438,-0.1602409834502919,0.1067874070202572,0.023177893631851538,-0.02660179693871272,-0.06752706929251448,-0.005261750279554232,0.14674102206452658,0.12151167547941226,0.2192215925939898,0.23889800351131593,-0.047459910819423544,-0.15830610745535928,0.16899390107728043,0.22478701078487667,-0.11771765732565383,-0.2196472189653293,-0.17662318624583864,0.014197657680207266,-0.017328008466694807,-0.02943600820763632,0.2186376008135085,-0.03986127089920257,-0.1752870018910468,0.023220979206168908,-0.2110134233948093,-0.12359562855827516,0.034495840992772794,-0.20753561304528226,-0.2457586138191792,0.19414510862841738,-0.23157267140216703,-0.0043276104738179805,0.11486035258561615,-0.021967965021052846,-0.1143551209013366,0.11515510430815462,-0.12874364074456326,0.08042939127018485,0.05811799764043419,-0.24774540638464562,-0.10752547701925085,-0.1347928560731205,0.03221680238903715,0.15679756821165924,0.10880364139798748,0.16200538100153872,-0.24384205454796543,-0.144541708015983,-0.14864946801714463,-0.1306535988507553,0.11154702134351831,-0.11404551509248925,0.15895679003107552,0.03151748610264139,0.13240049073390622,-0.05853348013323709,-0.21795740505777417,-0.2285567941924853,0.04569950695553499,-0.11817096803071134,0.052502606970096795,0.15566606775523353,0.2340871144341458,0.15726681691627936,0.1891288429204633,-0.0012253528422232634,-0.03391184133320078,0.1947489884926988,0.005351805059904691,-0.1846142427892414,0.12009670444925392,-0.1012267903797021,-0.01214597090720406,0.02232429594661429,0.14253285072436347,-0.18979629329999603,0.10406286948621754,-0.15172306581378595,-0.09909289451713059,0.06404164747233125,0.15439211857052226,-0.08874097276091988,-0.24228744292100848,0.18324927915030012,-0.15984566673686415,0.17520182872132076,0.25893186848422517,-0.042828343882586765,0.1343028438641562,-0.18257280629914954,-0.21931184832262715,-0.07341768844995691,0.03819134260710161,-0.24558512117982537,0.11353721140196324,0.0441304128247116,-0.2535962413951786,-0.07514181751415068,-0.14373581975936378,0.04861694114677585,-0.13726932925597227,-0.02243800206702641,-0.04332048230100792,-0.2352558649024786,-0.017160323812017913,-0.20274890585836816,0.02363954784495988,0.050270040532779635,-0.014957123373027483,0.22612826557348267,0.13744884035983015,0.20349356577412858,-0.11023388438508576,-0.16503455071752196,-0.14935615960855345,0.030879554819679224,0.19743709563129708,-0.12202222138496882,0.05817168259081547,0.17170574531124447,0.012692923826053713,-0.07145351018050389,-0.17852584284146442,0.0632277068285268,-0.1831599195709936,0.20465849900566774,-0.22289636027375825,-0.0005897991921619961,0.08839217760051393,-0.21153500632290043,0.14313231227375672,-0.13574338182945792,-0.1533132384751828,0.061635066608086285,0.05421220392413448,-0.24331228292484813,0.11036981826351216,0.18662985835336435,-0.07709421036187507,0.11134989648965385,0.0181456833477373,0.22260527109414982,-0.04141563614802127,0.21604081595024024,0.010669275651802378,-0.21938334544235727,-0.04785378532289779,-0.16253201743060358,-0.025195622445718383,-0.007016861739936716,0.030273839835102567,0.10134511378421882,0.29368626442935813,-0.09387257546149097,-0.06034018027622451,0.06893777882398401,-0.22024556013172591,0.17720546845816113,-0.0010855568843361838,0.02129242634588137,0.1488867257904841,-0.16643357909890297,-0.20482645004028205,0.14907209448489603,0.10181531615893136,0.20148742178993811,0.02253198804973987,-0.005424286135258346,-0.18089940690437967,0.1604086644853314,0.008893010561920153,-0.23295195342640432,0.19661105488690397,0.22850048437712256,0.06462611999270829,-0.19116372064297482,0.07604879852191757,0.3070273815891358,-0.12597797073404132,-0.20658298382544701,-0.2117662150838558,0.09071056032498447,-0.09393782921762446,0.08038037566421201,-0.15713549765701315,-0.21216466071356258,0.20665363893886166,0.00849553553698486,0.18919246239721035,0.06146383211870817,0.21692578615235877,-0.1409678315969152,0.10392230386510075,0.23572912135561344,-0.015626502594520534,-0.057111425297032434,-0.10437770509370423,-0.20002207728310376,0.23340120672888778,-0.10854425885243824,0.12242708221047509,-0.01253611150079824,-0.1533806386045512,0.1513658786730082,0.19008656457350445,0.11759074277101741,-0.04285708549725927,-0.028246034649767254,-0.17225757360197805,-0.07999327577992969,-0.0883089622176731,0.061009947371912794,0.07879300264666465,0.2372609966541694,0.3015196340412257,0.06655003698280736,0.17494327962597456,0.191195600095185,0.12325416154439481,-0.0369316819872435,0.1681727764542922,-0.24385787303568546,0.16302140292283607,-0.07133600143247133,0.10684523189268497,0.027231896194202364,0.046469363920079,0.005514740362411105,0.10135406120071878,0.1775316131489687,-0.1335137612687466,-0.15457400047246492,0.22019593226411474,-0.09211429569907785,-0.006518283925785382,-0.026772041932877327,0.1151201307086282,-0.24344274601169769,-0.1773084833463341,0.23495544773945484,-0.22290075235859405,-0.201394362765744,0.14797139250498084,-0.1886310429694469,-0.19307623889991016,0.17459806241053,0.1639811500777409,0.11981986068211666,-0.019370924925994498,0.22603752710932368,-0.133238734602781,-0.059216530895560435,0.013629726724473858,-0.003032933275676742,0.10737658730664228,-0.25128094724881117,-0.2483323561593104,0.08000531390597872,0.014914603847855725,0.21397014296921602,-0.1236638414110744,-0.03470570566876554,-0.15695800995415335,0.010416169928976525,0.20643932167634282,-0.15498994822117299,0.04228554465240874,0.05044645964246819,-0.0758601891842777,0.060326002651947805,-0.1746498442958144,0.1720093385255898,-0.001335838473159365,0.1915510662722847,-0.13621332515831283,-0.013458783254832529,0.10966977891768884,0.24699558232308944,-0.1792369835919653,-0.0147529603754182,0.05668217226715595,0.00834416405032368,0.23315364067986516,0.2025807722809532,0.15371597558860997,-0.17372137563063775,-0.16702619060924537,0.23902470969302536,-0.09839942794700594,0.029190362257118217,-0.2215540362939942,-0.15207586141600693,0.23348208921051786,-0.18478338138439243,0.11837660608280404,0.1165728780891581,-0.05687724355807038,-0.06589225966192272,0.19294527727667862,0.15857013362644043,0.03326120827929159,-0.06422636973291482,0.04455532405480788,0.040727351394375055,-0.1439238761277523,0.07253688254004094,-0.24865320315462222,0.11440473991226202,0.22609730398048217,0.1479691071058035,-0.05533584819704863,0.1256992456783536,0.10607486858475433,-0.08012088764165998,-0.09276427909035952,0.07981874078283305,-0.16992567573467243,-0.07393021739039496,-0.226988342341094,0.027371639182012082,0.19910764892796798,-0.199426414731258,0.17260769513017812,0.08644509217272878,0.01157594086441442,0.07400597526341401,0.1812193145115392,-0.14961139882518237,0.11577413505694661,0.006159838920948781,-0.08925688861747703,0.2468205945605021,0.1836685303084915,-0.06795494758489837,0.21194479694677976,0.17141727660081177,0.008249963279875431,0.010070632363420675,0.16714320894517828,-0.06399220364452109,-0.05149609962398441,-0.16795471353017496,0.03314833570727044,-0.20825461301718587,-0.1237289465226603,-0.03526618878232859,0.14590771953950366,-0.20263868409450594,-0.12708855678112682,0.014097207080412412,-0.003939181561464025,0.06853055523117219,0.13774008121480333,-0.09321630872672541,0.24710225497031005,0.2200434209237165,0.06404728875835085,0.24341185956288783,0.12007583826159837,0.0614090908228309,-0.20775698122805275,-0.09686119192635137,-0.20112597887088274,-0.07188001012373667,0.2123418886556171,0.04058712258820714,-0.10005469780244382,-0.08552909362201934,0.09843768359444348,-0.027166988606501456,-0.15239887514393477,-0.19684698417011526,-0.19091927524562122,0.21684628763757974,0.2416256478566835,0.14993778589832096,-0.20259677769870352,-0.13387191608492693,-0.2961434559343601,-0.015570889997121409,0.01248621356922654,0.04844416210869665,-0.04089229201549622,-0.14097643051546113,0.06480440408809156,-0.2841628116100452,-0.11060546023599874,0.0772910666122431,0.14081839848104943,-0.17580850558015615,0.040794582179829175,-0.2311350199399256,-0.001436900962239784,0.050632037574079865,-0.14155124364602403,-0.11459365666976283,-0.07809170119982468,-0.275197929878878,-0.07749889146807884,-0.14937207897322616,-0.08357435387902495,-0.21480183650968007,-0.016183520613629328,0.14505321770785276,0.19337219296148278,0.24721612977466526,-0.184547323223472,0.07833429077964822,-0.09180400266041024,-0.3180333693552875,0.060782371074170866,-0.021473060008771458,-0.22978325211654516,0.017301125209139716,-0.06899895841950658,-0.05251548533277366,-0.0876475295973704,-0.18285789078969245,-0.2708783975660632,-0.31039455655806925,0.08945537012276654,-0.27284567835004314,0.0855820789244493,-0.17495742586655216,0.1120131832728139,-0.024606384617191956,-0.11725902030799523,0.14001911584015939,0.23117560230800646,-0.08684123902987617,-0.022766060488187637,0.20234178168400696,-0.2176132629400108,-0.03275779438527107,0.07912481992711257,0.07345902912329609,-0.19018511678172179,0.0746138940137214,0.16222730239151267,0.2187682786710755,-0.04904914715799009,0.13461410022105963,-0.1957145741745778,0.21525589403257603,-0.010311354913551792,0.05327938124056337,0.020713967320092983,0.06584906710108772,-0.1059392267963764,0.2807275543530997,0.08190098160396125,-0.1902017520457285,-0.13461666035077235,-0.15707808053226768,0.14296896029452286,0.18626096105913317,-0.030099411238419048,0.16350256344052813,-0.15919582018278516,-0.2034343266988635,0.1510967324989863,0.11320666154532824,0.20376059512790362,-0.10087303801993412,-0.22195554739356937,-0.1281914600575635,0.06404496765792911,0.104813142555005,0.13970692137921784,0.044501905531028556,0.08436904372839327,-0.01855993402067894,-0.01393635609911406,-0.08211921958910892,0.1528828602425661,-0.1803043014365199,-0.15036490468040817,0.05678284697093119,0.12043874925989906,-0.14178065722790203,-0.24916130522133495,0.16886399375172467,-0.08235513912400907,0.13764269037446702,-0.20997519675751158,-0.24470629708925185,-0.03462185904771105,0.06973143054689207,-0.18847147142620613,-0.12197540933147566,-0.019697871501798834,0.025065767061017798,0.09953684732374572,0.011090423608988858,0.12704458068835323,-0.31094478067946957,-0.06417429995955974,0.07186395457517442,0.007757805644225294,0.22585469171805164,0.18981012212439918,-0.24950320955402186,-0.08819002695190196,-0.17418085223182883,0.23408778270824054,-0.07378277232399767,0.06765769670535916,-0.04077182187996353,0.003980028737613552,-0.30222238160293285,-0.21688048855743747,-0.14394295217269676,-0.19121604104788453,0.1670766017193153,-0.015144307078201247,-0.2950626330553946,0.006731942515836106,-0.17201155314645383,-0.05885564611886879,-0.07842840578158707,-0.058153706136209654,-0.05254156299062539,-0.19067414954397138,-0.0559792987165025,0.03877990695908368,0.23969206091544729,-0.11487078835125251,-0.02286741972469719,-0.11584290217993891,0.1979984008499621,-0.22717091478032223,0.2149029668206623,-0.12861180554237897,0.23180551156483958,0.028835292587844594,0.1958913766407107,0.09451154261508192,-0.09913128170502761,0.24430419914226476,0.012475013143014217,-0.10627406721890131,0.1316710734758412,-0.08805711295569525,0.02833979952911875,0.13885797595535768,-0.159408925031244,0.17676850950142392,0.05613673956370139,0.0429126381788413,-0.060181913288977595,0.1424773659371797,0.1461709881820532,-0.050166903869728996,0.21854960140866123,0.17365347866181524,-0.24179432686645227,-0.04840447991535189,0.03715823429468731,0.11875764187911836,0.18337263580954943,-0.2207338841249645,-0.16299676750361936,-0.15254686698141817,-0.11927433425954381,0.061911709107404,0.13223545364648284,0.06258663852977518,0.17240123620984563,-0.2793914120664244,0.06681348346959713,0.10205272602929909,0.08849254300843076,-0.10504576768279354,0.06773342511930361,-0.041800001731402886,0.0072595380523086585,-0.17056822761128243,0.16197850727644467,0.02888069147806889,0.28000762158618214,0.1718338300634563,0.04989988709521034,-0.24618795440373387,0.15124073450779002,0.0408604748467105,0.09127261527884101,0.1314666445124035,-0.008142585401448995,0.13392738835577297,-0.09768388528248324,0.1402108682783567,0.22260750949457603,-0.030458182956383913,-0.16236074023402916,-0.19153727982506047,0.19175987087167773,0.23284780852999584,-0.14587909291723428,-0.07953628488319806,-0.18783987682020223,0.022898943574887164,-0.12123876096274316,-0.05220677373740906,0.14354798688195036,-0.1451456736530362,-0.23638750824690077,-0.10332966333137937,-0.23744489899899573,0.12303661038034754,-0.1613640190245892,-0.10062895896159825,0.07605422817688243,0.17838078066093208,-0.1392774505715677,-0.08881980430553994,-0.05701519038994034,0.07317977691112576,0.006478345096588841,0.20429554433290312,-0.0837573777714897,0.12316007876554162,-0.21145123086221226,0.20463020109136051,-0.11401338168830621,0.12837324879320205,0.22918039061973655,-0.17859249200931943,-0.053982761322997605,-0.13603159701351522,0.16021991341423464,0.14182707001765033,0.0013742162687956736,0.21869784147747517,-0.043010467997376935,-0.198289732529129,-0.18785610177317846,0.23506991214693176,-0.054431080175684224,0.12855049692786655,0.01005090830231367,0.10432074819011168,-0.1716046974821651,-0.07905760022523325,-0.14808465388697345,0.22128388580583075,-0.008965805747618467,-0.046015477920561154,0.18140594489477904,0.17377741771457203,-0.24311695235594052,-0.22940976503410343,0.19107150267776107,0.2052108808383895,0.08192556803080962,0.192052010854731,-0.09620383557407171,0.15911391062500138,-0.10532499459353994,-0.06086811425593493,0.0481882762787595,-0.08338258393508606,-0.08916922046505146,-0.23590361698279458,0.08621627857938433,0.07003940077292721,0.10608877808220785,0.1219392476332336,-0.1521223608036825,-0.06307016973328118,-0.08681616114801077,-0.08393910143004205,-0.1901346752507622,-0.04572306267892023,0.09996113269867633,-0.18381437303964399,0.017029969665167392,0.1691956734715993,0.2738234783431103,0.10022312981126377,0.06839638055024572,-0.15705714306578325,0.08862283853596223,0.07353270035750843,0.05941477122613899,-0.04191751090155447,0.1785743895013988,-0.20038383507253466,-0.15578698047912737,0.23998768873726412,0.030145610653782552,0.1521193379614846,0.11187773694816495,-0.1345421395490772,-0.19516777366348004,0.16324440210937527,0.025134014243681498,0.13881219785161694,0.14973460872835778,0.15122541458870956,-0.1541707133186013,-0.16449909980592325,-0.14295392196521298,-0.01671373423322905,0.22443424248613814,0.22645892436886156,0.12422594493512584,-0.048404819272159776,0.1620816581396125,0.03514698347779915,0.15727551209215895,-0.21165489183111122,0.2004498391696867,-0.020696758957655895,-0.1783533284826817,-0.04146081189065731,0.19187606232643234,-0.16252170926371262,-0.22586917009627733,-0.05865000278741638,-0.07855468663135624,-0.1644945046030944,-0.08004806372450735,0.002094522749573876,-0.18928907842124368,-0.1410664322071434,0.21265619255221538,-0.2627736581320045,0.03668341080083994,0.041430682830355586,0.10755746972434953,0.206709206786017,0.08024038878951427,0.08890850560590897,-0.2682981038872822,0.0010242310402425194,-0.11315243019223747,0.01926709451173325,0.07628014752057372,0.18767321591941885,0.0136386753913182,0.05455670214635436,0.2302313347529866,0.1516054618904603,0.09662806429278639,-0.15966687629978893,0.17497331122399673,0.04406058648061113,-0.011266645106554602,-0.03100331642883877,-0.2407805062628618,-0.12393065502521569,0.07150500985425476,-0.09757777617536316,0.20270008613512816,0.14223160379920194,0.03559786616465176,-0.2370433175367839,0.10979314614964068,0.147884523228061,-0.1647124448596984,-0.2822595856392694,0.04309351964418656,0.19083169809436518,-0.199392964656228,-0.08303099732681449,-0.10468458812227437,0.06526982273031774,0.16256199061010876,-0.06461747272381545,-0.060342833068558074,0.2761455668272692,-0.08849936203870244,-0.12492123488428702,0.10383571261099867,-0.026224833442468804,0.19755251014843483,-0.27248675089396823,0.14054131858913357,0.0029241056275269898,0.058022972359634536,0.012229180704076874,-0.07244588203845262,0.025873633843271546,0.11405306212900261,0.01239480305603444,0.09382181653141183,0.25753080797196526,0.22080387269153154,-0.0667088779812181,0.013649255378387286,-0.14415415033047338,0.20215021002803238,0.2337654482773894,-0.02893148568970203,-0.0028806587284439444,-0.018419079514714724,-0.10400312622303087,0.16284283849723805,-0.2850613420504769,-0.05916186726694255,-0.0813707974650584,-0.24527821366931427,-0.23976231554000735,-0.05659108492248517,-0.23768063741570633,-0.06349177389621728,0.07632448240580068,-0.13096515823173932,0.23216843166226261,0.02731507273867583,-0.20315828085950313,-0.16569317114328752,0.15615617730928266,-0.13385129714953792,-0.06109466354506623,-0.03437125832766206,0.027504149863103552,-0.09997516146193226,0.16705052991980598,-0.024841787288991807,0.22056341400719404,0.09939225108199184,-0.2661371901324663,0.15001005804772244,0.2004841780601261,-0.13919400547644262,-0.04028935827292017,-0.05841152566128438,0.008354730459760816,0.14508684028547691,-0.13188043274431738,0.13147762433479268,0.08258012465503438,0.12033795753915502,-0.21808067020071845,0.03445909559162293,0.021234895010923113,-0.05366366996156568,-0.16594196532787395,-0.11054703662314626,-0.11582503060474011,0.13129472039573398,-0.26861924262907516,0.008279038438273205,0.21414436953488147,-0.0725943314497939,0.12265446914445696,0.019371037556778277,0.12282047135884033,-0.2092247342277698,-0.32371000382479276,0.008747538092053921,0.15263173255634105,0.111201166025687,-0.156485331057473,-0.006989549209711237,-0.11512251354341198,-0.2793383821071282,-0.057583408242259757,0.05865552547594497,0.1295537125233641,-0.09615826882809324,-0.031712700313581664,0.1401314361198737,0.09407433913554063,0.14500034949319293,0.019978937210551207,-0.3025627599698828,-0.11011443113139548,-0.2067353372164174,0.1837040305173679,-0.10566503314694069,-0.041192931389915206,-0.21611198316669397,-0.045643005073126935,0.2152414653025237,-0.07450765808412539,0.056744362998662236,-0.06239681777586492,-0.1332680625866396,-0.2266692196967623,0.05024984407536968,0.19239285619160362,-0.2753668883962631,-0.16627743001039644,0.04959868718782448,-0.014388995583427601,0.11071611306011261,-0.23898174312448942,0.09743373418210752,0.21274632729446633,0.15859629964437424,0.21183834435160087,0.011352753131802375,0.11051305242713495,0.25948956609523455,0.003527654164469666,-0.1384066670009173,0.11482620120497572,-0.13681415683874776,0.016250519955227354,0.06226621863216208,0.1996846550988327,-0.01942972423737964,0.25053128813152326,-0.0828513731825561,-0.16894566568982652,0.10821197433638644,0.036703916947420166,0.19534192287413554,0.18924264671325017,-0.19549854932001942,-0.04713848878440513,-0.15539853529041806,0.06200515390034306,0.3410894119086212,0.14110360535626654,0.18507571434387657,0.09841683532599149,0.19741824937260308,-0.18537983294896457,-0.11330233663717737,0.13647297904640168,0.19638431572676662,-0.22720569671907287,-0.20618857189041245,-0.21694279572344527,-0.13373155341067952,-0.05079026586351164,0.02066202682082659,0.04117870983226507,-0.03811340874914656,0.22684465419906105,-0.13936731230697758,-0.023099127101857637,0.0068336549401051125,0.06713550576285059,-0.20054081000924467,-0.16738327775221748,-0.1751154678519997,-0.04502790274992178,-0.018976279707262348,-0.09234565944104192,0.20273997048871656,-0.19610931638502074,-0.21532282760483828,-0.0168173965691025,0.03236372819603268,0.20164018948626541,-0.1705918273499948,-0.028685316020479943,0.16476180680540223,0.14593630650620731,0.047533239593297416,-0.2183118697717025,0.12484348127433706,-0.11059201160947055,0.028625684228693965,0.13613241582007682,0.20308889495522556,0.07222507317154414,-0.27791626496623173,0.008071702990905975,0.037683627858688784,0.21685088532668143,-0.2016177114442342,-0.04814849983483345,-0.21296658199367363,0.054398748514231474,0.048365081638680314,-0.0788391415082708,0.033603472920158105,-0.17319916391194434,0.02478647798711394,0.01130617650758762,0.23722472676824122,-0.21160256980822345,-0.2109151047689651,0.09447487326390594,-0.06810644901691829,-0.2356088791015942,0.14652276486866989,-0.0259109183538787,-0.13815686251719314,-0.16566269079910256,-0.04174221935493044,0.10247745467319092,0.25983695383030064,0.1641247366632948,-0.08037826058269619,-0.22322349488395557,-0.09912027575079982,-0.04819757819168712,0.028643930099224467,0.005531741871572529,-0.16530524724302104,0.057169434079831744,-0.22381695588163125,0.1579319047560619,-0.008558621214504843,-0.042448197926244276,-0.22212307476022627,0.17653349799193085,-0.021652481445997813,-0.1659581419449095,0.2534564424230371,-0.035613659044223235,-0.04120908983942432,0.26676466196947407,0.23935100156800718,-0.13025729964995206,0.06034325581576343,0.09246583540216134,-0.16412597724597172,-0.1431300198838447,0.02710492160088039,0.09221540336263076,0.14060517563530453,-0.20663881775129805,-0.05556241373971871,-0.20077143756025467,-0.15573107245359138,0.1867733123217496,-0.08261363023487538,0.0980573879006159,0.06390801525628599,-0.11082410632443387,-0.10287248741357792,-0.2162191069096482,0.14784971340925354,0.1077213143929307,0.17376434695641294,-0.08643438699290398,-0.2284032443111713,0.12423301485456172,0.13757491927479965,-0.11388374653099295,-0.1978634296405787,0.030440241104987626,0.14476066784492392,0.15513264184723272,-0.11744699761751352,-0.2013455775023092,-0.21503722660857963,-0.1317033229421835,-0.01784589870297996,-0.12230685095092132,-0.025442097708274897,0.13320220765891794,-0.17400116001793195,-0.1263506355559988,-0.13965899228670756,-0.18183503927802985,-0.10114112407077809,-0.2801634951852987,0.022879960010836163,0.11644481299436006,-0.035354479088947774,0.043926615533685966,0.13904814915099256,-0.04513357147730556,0.17111110726469458,-0.006611375443218478,0.11853644696492747,-0.057054645813315576,0.11406106784311149,0.2695479440152631,-0.1461304626850009,0.005664886896607419,0.05832629614383166,0.22708706580416269,0.1853332902074441,-0.22828120409715064,0.20486909351455787,-0.18119588375553514,-0.056064567967332266,-0.039273387479856266,0.15523360236721925,0.0018763266653195954,-0.2053061422268051,-0.11603117263625669,-0.16192345745094763,0.23260077948978805,0.019176347191922218,0.16394440012039935,-0.0005369779764821405,-0.13443459053328863,-0.01424094937309492,0.053100904633214596,0.20384995115124566,0.10600326865375934,0.21481138851515388,0.05952903207016527,0.12419023496476163,-0.009686240239279718,0.2265616751716113,0.08232797004045035,-0.24125014751316198,0.022407788124001498,0.02417447500143467,0.07825734096127067,0.03164687365855342,0.1337122705650547,-0.19345587549152468,-0.18673215143951966,0.2597646309930789,-0.017736898902562408,0.08879454381747184,-0.2354193523244182,0.04905720431985437,-0.012856640213655865,0.19675925476375747,0.20527443360659772,0.049223364638500765,-0.10625568823395459,-0.00016566575865446884,0.3263088160271331,0.2645378145060456,0.2457410134179012,-0.1159904843457939,-0.05319330535605497,0.060313568812451326,0.21508917001935038,-0.09057499552280213,-0.10343546501329515,0.2890413233487365,-0.0429645392758099,-0.008727601571266109,-0.007502642095778003,0.0786003632725734,0.1442796298076262,-0.16453790829631626,0.22593604169597137,0.20313118832156885,0.02337027073263385,-0.09683121176727937,0.03757241799831676,-0.1704638904700112,0.08557928712294884,-0.045685221665888204,0.05559182370191501,-0.23111151543312541,0.10917347513012897,-0.05941348620987679,-0.19700854916702404,0.00026045768904145927,0.11086183000861595,-0.17724374871503343,0.09669306400895918,-0.14130865079467061,0.12467127858486356,-0.14312622242220716,0.07594595094871678,-0.1083693936688618,0.19959059882415767,-0.11765099185373952,0.18151381256349725,-0.08202458374843509,-0.13566332720633545,-0.17608845610549184,0.26007113890422034,-0.1009357180409688,0.24512173523903222,0.049637357538113144,0.05895551840896731,0.19345977981330587,-0.15773893070811015,0.10691579804497026,0.17267503297536585,-0.13734639412308525,-0.12665306425392814,-0.3107213583246847,-0.23149852427544196,-0.152982376823398,0.1391903142287883,-0.20143214311125995,0.08952794051273641,-0.002824872515169012,-0.09529655603064549,-0.11583595529809977,0.22254223546518828,-0.04796772123264413,-0.1506011638956919,-0.11703651812851515,0.09757422424163027,0.15445390966073513,0.07835234767167273,0.0630791812616238,-0.12681871488752974,0.18556850174744216,-0.0758391343220611,-0.06397612879162379,0.04649368929489507,-0.3146199835159675,-0.35385724415827957,-0.08790900909862409,-0.15589998408830297,-0.17277799976424307,-0.2444455641516741,0.07765997289269706,0.14650879319473734,-0.18267992865546723
biasActivation=0,1,1,1
[BASIC:ACTIVATION]
"ActivationSigmoid"
"ActivationSigmoid"
"ActivationSigmoid"
"ActivationLinear"
