encog,BasicNetwork,java,3.0.0,1,1399533480059
[BASIC]
[BASIC:PARAMS]
[BASIC:NETWORK]
beginTraining=0
connectionLimit=0
contextTargetOffset=0,0,0,0
contextTargetSize=0,0,0,0
endTraining=3
hasContext=f
inputCount=30
layerCounts=1,21,31,31
layerFeedCounts=1,20,30,30
layerContextCount=0,0,0,0
layerIndex=0,1,22,53
output=0,0,0,0,0,0,0,0,0,0,0,0,0,0,0,0,0,0,0,0,0,1,0,0,0,0,0,0,0,0,0,0,0,0,0,0,0,0,0,0,0,0,0,0,0,0,0,0,0,0,0,0,1,0,0,0,0,0,0,0,0,0,0,0,0,0,0,0,0,0,0,0,0,0,0,0,0,0,0,0,0,0,0,1
outputCount=1
weightIndex=0,21,641,1571
weights=0.15541386591171422,0.2635304890067315,-0.12734434182824397,0.2874511227045447,-0.042257052156330306,-0.222021832082504,-0.10778585454302787,-0.6083357934543352,-0.5237596593182133,-0.6454457740506708,-0.1901181223406593,0.6095279383145087,0.5132734236077783,-0.18957992012603836,0.5941053423514618,0.13323691257283815,-0.6455016256244434,-0.2961079724664057,-0.6386572282671902,0.39897332166783106,0.3026505917014645,-0.0009234818300699366,0.15538535950655694,0.12440982271786634,-0.06171812575532244,-0.10689355458597244,-0.21936304638494178,-0.006644241185897917,0.07538335931823238,0.1047492732829449,0.2345612508444028,0.05324269343173827,0.20080873405764021,0.23453778759363977,-0.09767617828903864,-0.22159953727879014,-0.0426509324516516,0.04919801589941644,-0.16592631081244205,0.08073561686926442,0.13232047120994442,0.23545369864943339,0.1731879085816329,-0.053270641815727056,-0.22646929713822872,-0.03997875317677146,0.1257242126984499,0.246849217220075,-0.008712365987579771,0.1542540569220585,-0.002690183172165742,0.15590586637104883,-0.15235056591978696,0.06684570037160908,0.12074536074434562,0.16653881314040017,-0.20421192744553313,0.01464964216378465,0.15977410152115157,0.04837424699346197,0.013983666328878009,0.2975607977521869,-0.04197141567450825,0.19335241798661343,0.052102764653256174,0.1361071965821408,0.12133614994321487,-0.20123552200875677,0.17567117461638856,-0.13620644313448724,-0.22051551669863512,-0.02682665366737019,0.08943725917696392,-0.18800140195760143,0.014037676710479596,-0.20334959679239561,-0.2151110822383604,0.204302140620976,0.11059135387961945,0.14821544541412365,0.02012418067588652,-0.07736660930772961,0.21207976491808284,0.07519602650966309,-0.24141775349433958,0.1178525485114291,0.11354980242504217,-0.11509651633393657,-0.23633738614250685,-0.11722662017770144,0.21054153581058616,0.21749276371481197,-0.0671908079778581,-0.18207701320601,0.019789352988954487,-0.10669170682645926,-0.24525552526962943,0.08669564999130758,-0.14507970200333226,0.026639782013369893,0.138065496207438,-0.005392265157434498,0.02302478964417134,0.17574680411708754,0.19486555255891252,-0.14775874990727547,-0.0744061956113276,0.195046940619584,0.16216245071301608,-0.23060822949291765,-0.07157311090827603,-0.0059812256263376004,-0.14442864673632924,-0.033810826544276376,0.2730788778025154,-0.1036312768364811,0.2306725398846188,-0.23417720581470167,0.049437097453366205,-0.03433528282731663,0.1326878106067849,-0.09088971609233991,0.12720566832897867,-0.14607640287716114,0.1866426658819882,0.081303962003871,-0.20626597710739622,0.1405644585449491,-0.22851558017477594,-0.07188484409728331,-0.07954800854803053,-0.07685991163942436,-0.17903279083570506,-0.2651567100801401,0.14395477296386677,-0.12625525098517848,0.06437774351583146,-0.036244304892336814,-0.09444730128018705,-0.0030695158703348277,-0.11708942336515624,-0.13994038714317722,-0.1459456506424615,-0.20459091192239512,-0.005392828335440809,0.11581581097902584,-0.22047550953782818,-0.08562998614340292,0.1641794376313556,-0.16075890202147777,0.07092883945508799,-0.03491149140963598,0.17855364433044998,0.19773731365104322,-0.18784881874591178,-0.032262507050541546,0.13647012839942294,0.1835772509827049,0.04856204117546624,0.11410175047831253,-0.026460987880164426,0.028910877776297677,-0.19697079916484309,0.18418891708971302,0.167497454120994,-0.1829368989746902,0.1357978546630289,-0.19304681104635565,-0.18182168538816856,-0.0643888516428898,-0.021869717884666007,-0.030266394776242152,0.15552341356161226,-0.14874719783662388,0.11898503780497449,0.20677647659921572,-0.09016494155332166,0.19838514229884796,-0.08395330179263535,-0.10309538390821922,0.2536225392462904,-0.03386081055969357,-0.19388146456453617,0.2342553257851849,-0.19028771562478158,-0.23660122077905368,-0.10347904060679947,-0.20049546254810713,-0.1248497963451425,-0.22143267452693174,0.05957179824546985,0.0601757723051616,0.16105684119377853,-0.052155233153249735,-0.02213982142094549,0.15736342067710865,0.10686430108660472,0.17840345640017238,0.04191629896001617,0.037764920405230065,0.010492685119458013,-0.10542764657680902,-0.10907513831593306,-0.26619727660279097,-0.12992407346050977,-0.15113270244332214,-0.06949854798615022,0.009417495180414863,-0.07101531304559255,-0.05120102711908388,0.23895389512272328,-0.21083724494403566,-0.23324428712659576,-0.0009833465938224233,0.08108966177991571,-0.22943418341141059,0.16984702298624924,0.011557095275450851,-0.231060447790984,0.13996222218777388,0.22075271826027332,-0.00424183375111257,0.2365631759240981,0.13353736448902248,-0.08929245457069247,0.1582648860051285,-0.04574965067203177,-0.11032168420222353,-0.01250167804813764,-0.07978351901804007,0.11430615510338923,0.03907451739879189,0.11582566755661586,-0.007502276611353809,-0.19995656994658892,0.02815298115474089,0.19088136370093495,0.21711969296268335,-0.02846381776266088,-0.08862737742651491,-0.03115385651786648,-0.015425125576428023,0.14424867609983988,-0.3230700306420361,0.1488113654871614,0.216262467202948,-0.008712361425873639,-0.22860288287114314,0.19976419160399833,-0.11575125261078667,-0.22086044611283376,-0.08191814149707866,0.3145948415348351,-0.1568429443286422,-0.1475136033042713,0.10534126967026003,0.24427426293748628,0.3082026183092985,-0.24854287111071163,-0.16383442737922815,0.27088335719743195,0.023802968108613792,0.09735416820575413,0.14762247403660106,-0.2292686767161034,0.03757111101820745,-0.28099627560048956,0.1670182845833361,0.20266618625140795,-0.03237514641104323,0.13698520888298776,-0.013806300383940505,0.04759936695375115,0.08507110762255334,-0.0811380437909511,0.3251905438196549,0.11642552831181173,-0.07227723208299354,-0.31562884935154395,0.017031020533674578,0.12648702794499408,-0.06522609825392238,0.06323100760635618,0.16124657559632488,0.22179017633293785,-0.26556480794306664,-0.11434707379289172,0.21386538581856934,0.3149473231876928,-0.1789079554251926,-0.1460879797325032,-0.052238401180084874,-0.064894763704271,-0.04744826354009327,-0.06429737988772197,-0.3111881794264923,-0.13618488897128528,-0.25248214380821965,0.2707483707771833,-0.10754372480635917,-0.11974263491055136,0.007721825963373784,-0.306197951105801,-0.007128899716709547,-0.02719315518816164,-0.08170822277347516,0.20342490451114442,0.06458240243483172,0.24759418597018465,-0.32139631570885857,0.24837209795204715,-0.02862156498323379,0.06346170456004527,-0.33324469585074973,-0.009918910407984009,0.08049613924038845,-0.038953946399894475,0.010634266913102033,0.13130071646637798,0.08138282159067248,-0.2028198190750989,0.3341377353794839,-0.024650019393544866,-0.2311046017675613,0.05532341931432489,0.02803725006773476,-0.12845098328717192,-0.31721562849608387,0.00967713446567819,0.4763323381134042,-0.10469907836017404,-0.28985337060843347,-0.041227024338624636,-0.015037926768562589,-0.08721981918589185,0.2802134313967875,-0.01043356775485519,-0.11025674731695637,-0.048391449350829174,0.04748251813367595,-0.03407361820653495,0.3283668249684097,0.17237235485263633,-0.005681356472297769,-0.19789448812814114,-0.18611317195552204,0.16128639285925894,-0.18642653380662558,0.2206960637087787,0.03390526273827718,-0.15960064609321367,-0.0021548585513225353,-0.050449795621439426,0.060553596280047375,0.12078250281639596,0.06474885218593893,0.14570671680149982,0.013771671809163907,-0.047992801149957645,-0.19151014956667584,-0.21212237127779204,-0.1599744780708787,0.2589795398546815,0.29612623223078455,0.07278837865503507,-0.19578427386790376,-0.33994024656717353,-0.12045338153158668,-0.05189877523111637,-0.223015748989198,0.14146733681090418,0.08787643541397804,-0.0835485172185009,-0.030282836213119474,-0.02728845647933024,0.21888014693614896,0.06826303788158476,0.16628034510069345,0.29660514218662143,-0.10270779614976758,-0.2155809984357285,0.1105372264242723,0.2952291794210803,-0.17156076565238093,-0.26650118549902796,-0.11402144524207666,-0.04245191503432149,-0.06357891639577035,0.03426189066888924,0.287168882043214,0.023184677593302255,-0.24192544292127305,0.0318013581853231,-0.14031273552524307,-0.07368117768596627,0.08664931255994689,-0.25489965373608425,-0.29851600260573646,0.2623451152744436,-0.27213833969162987,-0.05265536699548454,0.15396160249290802,0.043205593599497084,-0.1572982465015316,0.155631197143694,-0.1408540839844229,0.1517043930444874,0.01849635316853673,-0.28695057798703333,-0.04866495405261807,-0.17625815257627903,-0.011058644964130044,0.11262603882374331,0.1785800122481326,0.12144722982594207,-0.27813716923128284,-0.0812022197547403,-0.19142063894957095,-0.16445463287423284,0.17516463310594552,-0.045753709250437986,0.22213466767604273,-0.019967162727811898,0.15490859801614834,-0.08312283479389675,-0.23528681375532262,-0.24638567690359212,0.06505365422134352,-0.0969407637281237,0.028850725006441577,0.17254713622898485,0.2537502743688889,0.14364671035683485,0.1664803955314925,0.016614738207499882,-0.047935976557082434,0.2016849950280906,-0.019429145392325174,-0.1679734238909096,0.13661114144972555,-0.1216608144787894,0.005206182799269257,0.04025477200271676,0.16079809548869567,-0.2140622171975019,0.12093063554036544,-0.1369320798564585,-0.12089341119064798,0.08179890820530837,0.16885256994109857,-0.11086797875093776,-0.26599871005082737,0.16127868247844984,-0.139057619698406,0.17027516599900583,0.3408098929362132,0.014092655135643775,0.19306927491418807,-0.24106524110580502,-0.28429812077602873,0.005307258728550927,-0.012675140090934076,-0.30518511826610595,0.15684106608305998,0.11923610491891729,-0.30689336946486934,-0.02925057268466834,-0.16010851898963757,0.13092850405404327,-0.18670067016008857,-0.07120920639948154,0.024213140605302514,-0.2867481478012413,-0.07096473148285064,-0.25759606135172664,0.10437717035337891,-0.00012661045941771956,-0.05775312946064889,0.29824482205932584,0.08410454141733938,0.1604642897389882,-0.03668084043392468,-0.08625055274668174,-0.0764758628317951,-0.03264687530877944,0.21969449612768813,-0.11067405287416454,0.06683803449029782,0.18081579380448787,0.003591122557170252,-0.08120258086291701,-0.16738310259707326,0.05496490598172239,-0.19224100955525902,0.21312505144817306,-0.2122225103987272,-0.00876810078044733,0.09589095978170156,-0.2159604231632451,0.15483928933893948,-0.1435612585714486,-0.16115287648573776,0.07172043024727918,0.04605249162087431,-0.25171179156835516,0.10203589594003153,0.19775373284489478,-0.0854057063185823,0.10428370481157369,0.028731431625048768,0.21416094497715263,-0.04828728837233715,0.22640629514649982,0.0217595812911306,-0.2091152719784518,-0.05731770668361884,-0.16026442569086308,-0.10979938302693608,-0.06484577547896209,-0.030966565943123688,0.15947787196209734,0.3589166995094823,-0.17540930919851677,-0.010708001302490016,0.12835095158688542,-0.26300225499789553,0.09975929508865215,0.05128298001004044,-0.024171689592132357,0.1619562182699535,-0.25162130664379606,-0.1564836375361467,0.19670697596538061,0.032894911813408506,0.25190691536832877,0.07541485381517143,0.04858272403494395,-0.2642065525601084,0.2098321803522968,0.05059523914497222,-0.3076799021937319,0.24876591559362088,0.26948826419661837,-0.010882907555305974,-0.2723903772606783,0.001177412819925064,0.37062805265150495,-0.15127644827857692,-0.25348768528425747,-0.24412489721169453,0.05803652352745802,-0.05483783865137097,0.12335447958417411,-0.20173529449495745,-0.17809432186717902,0.24658724128948656,-0.01443625684492041,0.14636213474653004,0.09798971972818021,0.19122039700656154,-0.12673361999779234,0.057053250526346994,0.2695227709373059,0.017901641058648977,-0.09531187938861158,-0.06899472532993796,-0.1635922351445095,0.27082600055822387,-0.15493836894281315,0.1562761197361924,0.017686988545554182,-0.19397843717333255,0.1873246473686784,0.21967036879845286,0.07553622303182221,-0.08790962300008286,-0.06994890626872849,-0.13001781071960425,-0.08698414619547033,-0.1692935308980152,0.005247739802346795,0.019233676037002437,0.28916212501881916,0.36020040051324326,-0.011726616208407625,0.21908149860870715,0.24416284003905125,0.07938706315060877,-0.11123844211441836,0.21429079245465948,-0.2880175647093349,0.1734674279174057,-0.15317394724298408,0.14922722169080171,0.06921708601197235,-0.02003047175567841,0.049937634571161085,0.14810582496528701,0.2252523619838035,-0.21330976060567308,-0.11028647432983832,0.2562678814801351,-0.16422493557553722,0.039751948286949154,0.009113952675614646,0.04276713119372288,-0.3212736526460055,-0.2490300372597839,0.29199608575323227,-0.25105021016506,-0.15078537793716065,0.18321432452613198,-0.15207897298033046,-0.23517795405126743,0.12837520879534153,0.21238524913644766,0.08304743330701299,-0.06219995547120112,0.2524757537843108,-0.08689686853589072,-0.09807333636180228,0.04149449858453845,-0.018432614344056703,0.1583929707821024,-0.2874056382891553,-0.28421567818186627,0.12169471436742815,-0.02300509205645314,0.1749282629240556,-0.16345295697905493,0.015192823747819415,-0.19381343030826606,-0.02197554146088439,0.25089062523775585,-0.19371563486267868,0.010584600718458369,0.09567418101841503,-0.027162196887894462,0.1053045047461849,-0.21990244915472318,0.1797877432789805,0.08066877379405349,0.2208848483713738,-0.05081668951329087,0.06927787138670083,0.11689022131333413,0.27917419488113204,-0.12301958477703825,0.08936065808994346,0.05960501132172558,0.01081503801447407,0.2679233907160254,0.20726377718248087,0.18431458221964384,-0.08340379397647572,-0.16507403914779137,0.2621206844330611,-0.07866896894545049,0.0458860913626953,-0.21938014780082046,-0.15131415865272127,0.3867904261836121,-0.15893756293625347,0.27560503515721574,0.27390121505573417,-0.042539322095003454,-0.036107432468441295,0.25040514947168335,0.314052389745505,0.04856978991127776,-0.057253367811338315,0.046936694121561685,0.08127670427206757,-0.12974227119452422,0.11488422090155788,-0.20751983022481527,0.11865076407982546,0.2418669255831595,0.17545027871595992,0.00175216344873601,0.12731825088215892,0.10731260080065842,-0.06015713125124366,-0.09030202149287755,0.09566595013841252,-0.12304937958477302,-0.0730874038203083,-0.21523080123892172,0.03630463855193877,0.20736735265911707,-0.19849430208093044,0.17330989225551066,0.16137545317602764,0.02431092496483832,0.14996333090485614,0.2564468945304002,-0.14152136303416854,0.13140532525134502,0.034601411988021934,0.007737783977183584,0.255385989289209,0.18807764830172033,-0.06616695440827021,0.27142744870507635,0.19307281540393742,0.071479459070114,0.07041666546401361,0.17608490355039236,-0.021606782254717155,0.012077676701267075,-0.06564044144420088,0.03724669905344149,-0.20692360549558278,-0.0902631090724913,-0.03162079538815139,0.17440978274458738,-0.13477980235301984,-0.12583427310531378,0.04400714985677319,0.018239649442555052,0.08891236447077029,0.13878979964589883,-0.09135168662943084,0.36726917176618756,0.239715836738486,0.19331184977725438,0.36600394476616616,0.13564262592270207,0.09676470757174085,-0.142882065796655,0.07165500400217116,-0.1843447848634394,-0.06246451326922235,0.21271315216560532,-0.06221191177494375,-0.13400299003753588,-0.1924927875894398,-0.00560224843865939,-0.035774133235319194,-0.18993549881285948,-0.2581847627695498,-0.31595184644997,0.21404607454157368,0.23818889334643017,0.09574170754021998,-0.2078514112468321,-0.17007063114101015,-0.4047257989240106,-0.01761035852911894,-0.014026651921741476,0.029586378808913252,-0.05779569121958966,-0.1438297314102236,0.06426202380312714,-0.4766265070945667,-0.1406622329911968,-0.1219214340235162,-0.06257414964223786,-0.193341046494207,0.004268126004278572,-0.2972116746161353,-0.2039672437611423,0.031294362457808034,-0.15152781040269153,-0.11679427430986694,-0.2324256140869547,-0.3229939273939068,-0.23805934783303126,-0.30481035767765036,-0.0982302572019874,-0.28210568599549785,-0.12585010447037517,-0.06515628925068832,0.18515288528049537,0.24316406763257295,-0.2554746191210305,0.06894463754948947,-0.15293918395445072,-0.4868935543718499,0.05788526858513435,-0.06810498857743039,-0.2691173446181003,-0.01805654152251851,-0.07106678755731292,-0.05621949750032318,-0.3816618572554761,-0.22473532374143143,-0.5708444009773739,-0.6084573027700562,0.06420380487734739,-0.33288980849660177,-0.02364846514770735,-0.48629756126702167,0.08255514653195066,-0.03938384794236951,-0.1198985416438253,0.20992365639910626,0.25687557059199145,-0.013285443279662038,0.04797467644376375,0.21054640567105223,-0.17811739666665596,0.023244693610913553,0.17489168088117174,0.07703408973489625,-0.1886657351261434,0.10762370580856657,0.1664017706425581,0.24436884232240433,0.026313310476608485,0.13595188891314589,-0.16734113238356632,0.2344986204559926,0.0071428257054428216,0.05523456250844355,0.021802635322221833,0.2026211309281227,-0.08317672098906231,0.42010335161900425,0.22290244711043772,-0.17537103531650955,-0.10265290001106926,-0.0970735997339533,0.29508710597229015,0.20159558914521156,-0.022268138800963816,0.1650463113506856,-0.2133842105331114,-0.22215315570342417,0.09498958207492501,0.05821757853839533,0.1995593062822622,-0.11830278594919104,-0.2504479335280128,-0.18736314200376028,0.0632813493571239,0.10297935155103129,0.1113247193939243,0.041618893811452694,0.0645752460184137,-0.0767690918228925,-0.015378196790425446,-0.09369489437937036,0.14474007709271544,-0.18793950106143406,-0.1521627041167625,0.05719372718597915,0.010043720131794182,-0.15808119517768365,-0.3535274833600237,0.0571803833123789,-0.09149342820608145,0.12133115810773273,-0.24201671007399608,-0.3354466225513868,-0.043947932779607686,0.06558502633688895,-0.1889633307453027,-0.26740663073016335,-0.0621293019446412,-0.1263662903181418,-0.04742139240691481,-0.004309731359648025,0.056991691321723284,-0.4104453212245966,-0.25481989800401383,0.06571306864027422,0.0035830029703142795,0.1573787695345763,0.18215025710597899,-0.3043191000939932,-0.24295409546072588,-0.1773894470785692,0.18852025813454373,-0.10839267854807891,0.03517570888941312,-0.043299750279983854,0.0017807195809143885,-0.577375098629093,-0.25575190690212524,-0.4268340128440975,-0.47123123242486903,0.13984883742432425,-0.07119550396818718,-0.39802653505772284,-0.2972003887329205,-0.20107689321623148,-0.07269701506376317,-0.08047140916405685,0.012913320238260069,-0.03269310981623167,-0.11697692450880516,0.01580402072724183,0.04358095955456449,0.2599057761241215,-0.07559670175500219,0.05872345455081528,-0.11415959608590513,0.19960669971380035,-0.19833578686318115,0.21803151493413755,-0.10425805928211461,0.301043563471131,0.030169148507272522,0.2101012978071927,0.10655399578778559,-0.08687253497040451,0.24600667732213063,0.012880905166071231,0.028459371857056336,0.148936557857324,0.044631452646893485,0.1605002891750781,0.14800100376296757,-0.13899354880718243,0.2155597780261096,0.17616727305668162,0.05278405911767947,-0.05569195278101281,0.1444017464810937,0.21895262874967258,-0.023431219168929856,0.2947322305166844,0.2475332508626261,-0.2322046130540772,-0.004812091477362927,0.09832389044380181,0.22259208978832118,0.18690969243073352,-0.21865546311416362,-0.11832787742456152,-0.14798426232803533,-0.08261445465845588,0.14474847457476955,0.13384235803360922,0.09055417518291939,0.19238759712569192,-0.2569003487440814,0.06849318175818477,0.10288322178711883,0.23454564921025262,-0.08043577230055851,0.21744901840940992,0.11605779488939826,0.023997983073246933,-0.13780694378230904,0.22382770117120712,0.19697091946887524,0.29664453087728543,0.1791944379339578,0.0501241901945135,-0.35029865415394684,0.1144901893004867,-0.068243839423975,-0.013637328447580688,0.12133504565833685,-0.05365490174526038,0.05884100413624666,-0.23015572792395164,0.1362165733482252,0.21972752221283037,-0.08623957948261454,-0.16822258569659623,-0.23193486438308258,0.07559109209735766,0.23046887769407487,-0.17572124710813153,-0.10560867745863282,-0.20883616084754897,0.01987920784041691,-0.12207264886160371,-0.2507422673043799,0.1107746977317299,-0.34656170911585343,-0.4366185847503368,-0.12169326506191855,-0.2762893499797097,0.04282805404570124,-0.361272663158108,-0.12066013666691466,0.0675563777903506,0.17467798577718038,-0.09188490359179469,-0.07429023354851767,-0.007554955065292486,0.12094135886775713,0.010273706672884707,0.21839042716173118,-0.058421315122223184,0.1744155128112719,-0.20999524878780437,0.2055746216482451,-0.09466525053569012,0.13062345071633033,0.24456756399040327,-0.12297087727222489,-0.05299062435003711,-0.12502979187942695,0.16823562951133017,0.14850816962346083,0.002361523328157283,0.2192676392534516,0.04791066346850914,-0.18540547389454137,-0.09595434091996438,0.32237496922839887,-0.0472808590429254,0.14169449034603965,0.036701797724808465,0.18523683127638005,-0.16346646930829417,-0.07567060456422221,-0.14574645689975005,0.1728385465537962,-0.021251028673657052,-0.09588779924903094,0.132532786850663,0.17069695135960208,-0.25434665855730715,-0.24986121376612513,0.137802475477664,0.20423964927443372,0.08092295579745296,0.17418781377637474,-0.09820569781203863,0.14407279460513484,-0.15469975504313954,-0.06175101621444924,0.04108776775004331,-0.08922259998036255,-0.0945098213709228,-0.23689927404324426,0.08590226603021067,-0.01641677263967668,0.09535543207324819,0.036437483450180816,-0.2352630240026846,-0.06893669044499809,-0.09730034102904395,-0.10524128720376974,-0.2625867920432125,-0.05161648841609664,0.09734128029863584,-0.18572972942336866,0.13304195002936703,0.20843729642577388,0.3959081626614493,0.2175177244883319,0.0830888627128649,-0.08423257263036768,0.1854210650564752,0.24334202797870647,0.06627781353261865,-0.03938830180340134,0.23358040494919022,-0.19283683131836682,-0.1070032878291793,0.36711148321982057,0.032598163214211016,0.1946872812913701,0.14586736488103663,-0.10412824318461493,-0.1930967113535148,0.16681169621705577,0.2553468093046887,0.17415142635407832,0.3848262821921676,0.38313639614722333,-0.12888502920271985,-0.1082336605262549,-0.040290328126340834,0.26146628859260274,0.25198139894694505,0.24102822881822028,0.12538681898083226,-0.12380047016076542,0.13715101042298117,-0.044411138872347274,0.08100990304602639,-0.21913945327886408,0.16012281492359132,-0.07654310922171187,-0.27298543641239376,-0.0444785000646378,0.1896419363242636,-0.1940777868922374,-0.22968878515925858,-0.08801585650011998,-0.15823454463217085,-0.1662549355137159,-0.10452942063207896,-0.017908729573632355,-0.20564339840222026,-0.14309105993343782,0.21136793497281517,-0.403554973789645,0.014875233371924996,-0.10784996247796699,-0.04577083353045946,0.19398758358410348,0.05026788800588695,0.028739574868322064,-0.40854595799794935,-0.012931175995535464,-0.12002575837912191,0.01684044087766658,-0.005736842079878757,0.15856403228529742,-0.07228001957950198,-0.02866376426190863,0.22146245542622753,0.10961929668307137,0.0325993436421109,-0.2662576080871284,0.1712286376304507,0.04190956988145037,-0.04953539329674139,-0.035419270738315155,-0.27049950846000725,-0.20741606022953418,0.06987453252580889,-0.1256604686335342,0.1781971009098547,0.12238575217726085,0.03342828090461126,-0.23794502983446814,-0.05632155915777758,0.12176408215145457,-0.3225876995680421,-0.437724270220973,0.027069573087322753,0.15432081241385903,-0.2652595737813478,-0.2551428098708688,-0.12270643728152306,0.05691575643670973,0.16013571972521973,-0.005905961842974411,-0.037396520996497915,0.3377623336426762,-0.029307577627039016,-0.11902848220748731,0.1304293611007405,0.01955810055681675,0.2736523166590046,-0.2697674467037896,0.14218560029480956,0.03936118821874182,0.061731275491068584,0.03801872598599036,-0.003767367540261891,0.027251256423526243,0.1327999570094614,0.027554074932856474,0.10683107499950764,0.2591299208853803,0.22142002525051996,0.061574636253909396,0.03434514189555229,-0.016073467517338937,0.3221474726108129,0.2455650489941157,-0.0032686550752014237,0.04717697723329741,0.11870732809871734,-0.08929598403522966,0.1692300350864785,-0.28449103343735843,-0.13196594285310592,-0.10725531818847082,-0.3213645426945112,-0.31350796226130756,-0.06514846686151043,-0.26746926805280163,-0.11485827592993153,-0.027112334809454717,-0.1343975714819926,0.22976728668993499,-0.009988213940213432,-0.2076818720430631,-0.19328371961409793,0.072431432417364,-0.13501620217635887,-0.08341753206333216,-0.05111759969761611,0.011728278410077559,-0.10168524335851072,0.166397882810833,-0.16676259668781548,0.19637950743395546,-0.04710035845529051,-0.4088332124345953,0.13332649184538561,0.17048312050407993,-0.19325135379063663,-0.2123537870655018,-0.07699251078327404,0.0002689352391519236,0.1406997290901914,-0.2209529858446157,0.1007947932378736,-0.01082110656466536,0.0300683953155293,-0.2264389676749866,-0.0042932182730763616,-0.03895649424716123,-0.16490186204073437,-0.1683723128386291,-0.11285810238596411,-0.15405697144081454,0.12666484868303385,-0.300975420291115,-0.08518708949409821,0.2114766928278357,-0.09821469817362079,0.10249886861343006,0.0015515040089045882,0.12027512292196103,-0.21038370990059044,-0.4904036425746325,-0.017818194295356752,-0.02376163055338629,-0.06661636137280011,-0.17163101262331096,-0.04009040981900777,-0.17877038665713701,-0.4421317656753108,-0.07339853204677933,0.050362171108634966,0.1276754562653517,-0.21537895155028075,-0.06824149015600492,0.014734777161589909,-0.026127197738216562,0.134748008195239,-0.032229020925143674,-0.38293699567734896,-0.2613325100517207,-0.21118221271257373,0.18061892359462586,-0.15933878119946157,-0.0471460995299054,-0.2613118905450421,-0.17248700097732075,0.21205237762638832,-0.10888363770548165,0.0288171691492644,-0.08763987666222942,-0.136268835704105,-0.22837682732721334,-0.18047271929393016,0.16033758531709766,-0.5048163587346927,-0.3943367527698326,0.032004866943773566,-0.05946521181761555,0.028083800410355946,-0.4628954807605639,0.07664892531065848,0.20253188706083194,0.15354390411147345,0.36592958234415934,0.05408235416682687,0.27115628283878324,0.41510972887122194,0.01892115225880692,-0.06529730611329353,0.22006362054014622,0.06414683546859225,0.02287338791167426,0.06663645932487702,0.26531470457624895,-0.011648986326116443,0.308299260257132,0.07829864550509617,-0.16529334339833476,0.15142258132644232,0.07316667630593644,0.22882987610234226,0.19284515247031175,-0.19401354450708827,0.24983760852558642,-0.116834984373587,0.36122544186335254,0.6392717986113914,0.1659364711858873,0.24306785378123597,0.2089104819129873,0.5002339214066863,-0.15585228858267772,-0.10034093771979717,0.14238085101570622,0.1537972093872682,-0.24319185296772314,-0.25048714918093584,-0.2598914113066627,-0.1388160996133563,-0.07316327005098393,-0.014490634074110553,-0.02454699227656314,-0.040367668271207746,0.2249978035210874,-0.1603930508680963,-0.02586884061454681,-0.01140599634709516,0.01748693716206313,-0.20128813018353672,-0.18133092383888713,-0.18614300762834915,-0.05549921993269352,-0.020259422391130728,-0.09270032829195707,0.1050966583098719,-0.21039931326956068,-0.30426505755968214,-0.10948084325936441,0.022231357190078748,0.18110371708353848,-0.20678629152385083,-0.13894344883949705,0.1526325458273565,0.14018046507690557,0.04737981960157312,-0.2891466623149776,0.10091652489580452,-0.18514601158457097,-0.04313369246142808,0.1281472108711568,0.16918359702483007,0.02030565079127338,-0.37178985507123485,0.004295127612659748,0.03536119453731667,0.18404140536041957,-0.20517560389918632,-0.07522490425885939,-0.287566695467291,0.05299325660168041,0.02701599604657821,-0.09515808585945051,0.017975296434703567,-0.17503334600963738,0.02374173487460782,-0.12850286890130244,0.2145705559928177,-0.35049520779397736,-0.34989641389211296,0.07946277275181343,-0.09682085458705686,-0.28971932162920067,-0.028487012159020764,-0.04439946329704899,-0.14674251692257823,-0.17074673677727925,0.01910033848157511,0.12455847506362737,0.32375502659097194,0.2260757400217554,-0.07197937660373979,-0.18622829557668147,-0.04505246109590768,0.04813844118920701,0.03247957662845164,0.007475645699612894,-0.13312338524887568,0.061059244840139255,-0.196557201400099,0.22417483130367863,-0.007530944063569429,-0.016100225863121476,-0.20349729998940208,0.19293220437231084,-0.020605402999023796,-0.16465479761546797,0.37457276349834323,-0.015458946861001615,0.08725538810942496,0.3882666544423789,0.2544042787192406,-0.09854851093080792,0.11725144009761397,0.24843418916716384,-0.14756818473372468,-0.13468700242548284,0.028882495508436502,0.018358799045857757,0.1158866743893079,-0.28406392078153453,-0.13002791076187786,-0.20756649610578776,-0.18457681969565687,0.13760057941672418,-0.17532081642906025,0.09576893225618067,0.061692491826036984,-0.14535437475960616,-0.1067067543887436,-0.24392085795969246,0.06203730576735952,0.1059188777246503,0.1523620264202982,-0.10226502177655591,-0.24258075458323664,0.12215625275167206,0.13693185463993607,-0.2604017912445954,-0.2191946403588796,-0.11948091295613117,-0.010020828713560912,0.14273729201256277,-0.14381034264571343,-0.25180487899608744,-0.35039860491157443,-0.14450334622425767,-0.023861806727853402,-0.1242331110294806,-0.0639514799762114,0.11894639580780281,-0.2149168226024132,-0.1651635783981944,-0.14307833810737194,-0.1968633972743447,-0.12738137510101957,-0.3280059857827569,0.02180407812776495,0.11549084813401989,-0.05765983192269342,0.04181032701912805,0.12262397473467482,-0.09174765385720138,0.17027317568421266,-0.017992870266225838,0.10967550581580565,-0.06415418261114449,0.1129814044440132,0.2688477703561147,-0.22565568321820573,-0.007047724343291283,-0.024157275952561404,0.14176259243299674,0.178609138416547,-0.2422735802293171,0.17622398673905962,-0.253976857064217,-0.06312162256593566,-0.04297835756314811,0.15359199992799696,0.075688897051661,-0.18151976884307636,-0.039120407592071534,-0.0873704876967303,0.2387556113919941,0.050422871070690795,0.21565824451841045,0.08892010240177192,-0.13235721594948557,-0.012144297551658119,0.08608543292426335,0.20788116001922843,0.1330085863838108,0.28694480552882773,0.061660724908151304,0.1463964301692234,0.009580939086126295,0.24238304659073612,0.08428954172262673,-0.2404772382122499,0.1640046458028175,0.04509604365356421,0.2190511429587809,0.17309339097262902,0.1454956184913557,-0.16468155167726364,-0.12920655912480752,0.3906187948014765,-0.005040138574974378,0.09466884933966743,-0.23444886733060552,0.15280875892792947,0.024172570220092355,0.3053099802926732,0.31040927870546364,0.061607289261213664,-0.045652847929541045,0.08232571237115838,0.46722291862450244,0.2698228844453835,0.24836745290313963,-0.0619777658016677,-0.04691941717949261,0.10455210634060522,0.3276775401190632,-0.0878240957938978,-0.062180740130053334,0.3175773475749914,-0.018008194504147354,-0.006730903166033114,-0.004805279193026123,0.2837224410568826,0.17776454830095312,0.05069671650705948,0.43199931754270293,0.22435669262855562,0.07096599525161142,-0.007120454578354701,0.26942090952860426,-0.14568762902258428,0.09769119117141466,-0.04474586407521985,0.1239776343497701,-0.20596823393236485,0.18133482696298153,0.009866156173301385,-0.18851512221369227,0.03588481990259212,0.16341401894844448,-0.07839196958556231,0.10011957205500079,-0.13912162910739226,0.15868515604083966,-0.13884573977401307,0.10372118208198618,-0.031537889666294124,0.200808021433748,-0.09334067156816162,0.19905967938820257,-0.06537540898032942,-0.13382199968569952,-0.17530849282548858,0.39000409260762114,-0.07860264918145311,0.3797314488847006,0.18700447114193405,0.07366449695679621,0.22132140141985734,-0.10100949837877805,0.2573458332777013,0.18797505256940306,-0.13040426911750982,-0.12326600326894017,-0.4613437090853605,-0.27559088461611503,-0.30937386460794813,-0.012715273573116654,-0.21556397336548944,0.024548555690669986,-0.10698492053727554,-0.288234640169271,-0.12147715017627225,0.21870824182629867,-0.1269982280310546,-0.15841589695543856,-0.17588755403843384,-0.0637545331025299,0.15065236236737167,0.034091256884090454,0.026237394327705308,-0.15903704177216085,0.18231445848912473,-0.07735419878248183,-0.3512333024131109,0.0057534599540639214,-0.60765434508353,-0.6452607422357167,-0.11323588538495015,-0.21102606531022333,-0.28095111942336726,-0.5341137639257306,0.0501283436031247,0.13436475270782727,-0.18393697083496124
biasActivation=0,1,1,1
[BASIC:ACTIVATION]
"ActivationSigmoid"
"ActivationSigmoid"
"ActivationSigmoid"
"ActivationLinear"
