encog,BasicNetwork,java,3.0.0,1,1399533479841
[BASIC]
[BASIC:PARAMS]
[BASIC:NETWORK]
beginTraining=0
connectionLimit=0
contextTargetOffset=0,0,0,0
contextTargetSize=0,0,0,0
endTraining=3
hasContext=f
inputCount=30
layerCounts=1,21,31,31
layerFeedCounts=1,20,30,30
layerContextCount=0,0,0,0
layerIndex=0,1,22,53
output=0,0,0,0,0,0,0,0,0,0,0,0,0,0,0,0,0,0,0,0,0,1,0,0,0,0,0,0,0,0,0,0,0,0,0,0,0,0,0,0,0,0,0,0,0,0,0,0,0,0,0,0,1,0,0,0,0,0,0,0,0,0,0,0,0,0,0,0,0,0,0,0,0,0,0,0,0,0,0,0,0,0,0,1
outputCount=1
weightIndex=0,21,641,1571
weights=-0.34389879719220134,0.504116225371247,-0.14540505692036215,-0.5173106050199564,-0.1575221944452807,-0.6324190658989554,0.6057488477147893,0.72896151588524,0.11142590717501365,-0.5382645004296742,-0.4566456897039026,0.28291403174942614,-0.09180382295583556,0.16512312717298921,-0.32209558872974603,-0.4710358109539613,0.4180566388452301,-0.39859163477423376,0.41216196402074,0.026645693667854527,-0.03575434985668403,0.0639012497205406,-0.1925091054178174,0.21326766430295888,0.035109104446919844,-0.17738254269094725,0.16453021594560424,0.033517570613979454,-0.2184753179947715,-0.20529825303165133,0.04742372000338273,-0.10354447237903895,0.11730876556985688,0.2660732894418845,0.07934188008685474,-0.1079247787333641,-0.05765966855663905,-0.09247740504870704,0.1350705752294086,0.02719231601259421,-0.13921810206526772,-0.1680139734206223,0.17557565013202162,-0.12003980314058249,0.1551071290777622,-0.18492126075786416,0.025413061892939983,-0.2876622814753709,0.15155592929532302,-0.2094604656378917,-0.25237309510852546,0.05529143323049406,0.30026631625610795,0.20614686353776512,0.0750725884616224,0.2590855927826475,-0.10127368863887877,-0.1178487761583788,0.1053860178845056,-0.06953767028913888,0.20057050800138268,-0.22220323496147273,0.005538105157983614,0.07318068339244174,-0.14061989541906966,0.03407986948330957,-0.21373720979483102,0.15820645696706745,-0.013911623680755755,0.1101024631180228,-0.009537734388523712,-0.03155616834258604,-0.2631329863225151,-0.07104003846673197,0.2302859464749765,-0.28977942184959204,-0.262473126190374,0.2240318637282479,0.18331968465768012,-0.13206664790571343,0.18745671984545859,-0.06587441670218924,-0.06105990844644413,0.1448603021672062,0.1445821535419088,0.2686267231758649,0.03660150603650797,-0.17523847707625814,0.06324959963683967,0.24520486894867857,0.16750804512333764,0.02058013744431935,0.055254587391448146,0.03919299531630475,0.16664120207106603,-0.21917952568324492,0.04627152362837463,0.02817146428028649,-0.15587772652920812,0.08825371999123184,-0.18017400237288975,-0.0500854434965395,-0.08966832243782016,0.14230837984014674,-0.06086928082974671,0.08608827524352007,0.2579604351249645,-0.09740673253256518,-0.2554047108753858,-0.1375947980618974,-0.05233227098695374,-0.18340025848058014,0.15699196622314654,-0.14682248184692123,-0.21246764429861206,0.025322722984629797,0.11845599230835985,-0.1828684331849029,-0.08189625412203548,-0.06933724286452801,0.07348944497448504,-0.2231963320446681,-0.1610368653583099,0.17981625435268198,0.02099662401035369,0.06959862418861933,0.14112318836460533,-0.027548228807069846,-0.11816640363636548,-0.33313461386717014,-0.29534438682478786,0.21477790138242195,-0.1509061661878633,0.2756950273251437,-0.117324074679871,0.16211264683024296,0.034670833191771104,0.19210451805381723,0.34224532092796395,-0.15963962689007358,0.16220754753171618,-0.04271172836211414,-0.019785082990568827,-0.26720404354189137,-0.20088115495141823,-0.036838012005643433,-0.14366175587151006,0.04523963880285377,0.10263256741187309,-0.2146024042086232,-0.20480750495445893,0.08336139325367925,-0.0015071095845402252,0.19339041070460586,-0.020818004348162823,-0.21562990509429758,0.030018240136738462,-0.06035125829459888,-0.09567336289237548,0.10796642253215999,-0.030727181633543703,0.1649565846460895,0.010203525459235668,-0.2596186056262803,0.2194523345165727,0.1045394697046139,-0.004493297758848982,-0.21781663882989863,0.16331450500549827,-0.17019490991147282,-0.1553930589195908,0.17561049487116318,0.2023322623630917,0.09310682704890605,0.17438724662663402,-0.08999077913015527,-0.25674540950178026,0.011426670027740221,0.07283250304253697,-0.07335051308873232,0.17039841237733822,-0.2405113404024718,0.24605019024244035,-0.23380035825652765,0.0721542326477648,0.2536865431112847,-0.11708689401222085,0.12501227027434458,-0.00516672349291851,-0.13161704747673217,-0.1492478028088339,-0.26224600229133604,-0.24686148509510855,0.05121283700182634,-0.24090415902707416,0.19925363390219641,0.3190293080933065,0.0970303482771918,-0.1628425629200472,0.2781766025694533,0.27465725592691137,-0.2366350552766414,-0.1653286800460837,-0.09122730973352673,0.02083583697528974,-0.2502311034046688,-0.09131657641568802,0.20035839418278253,0.1396897753128937,-0.045718778876851635,0.32242528866913306,0.2803291721453354,0.11625764563707801,-0.06957240498830268,0.02812279254281005,-0.030623632805483844,0.015656689228654267,0.328188646181062,-0.2573208115238169,-0.2424948199790863,-0.07793409239793947,-0.2354604240168924,0.08651785046482209,0.18460661167728692,-0.15873498596293747,-0.02716264218004308,-0.17815505967353054,-0.3156184124654553,0.07797139099980703,0.28643489348430135,-0.25298402004842724,-0.02324606423443182,-0.00161130466427143,-0.035396195339786364,-0.04799563659951202,0.24711186817005415,-0.11582539665246601,-0.009993428249836836,0.1068075713915103,0.14285997046975402,-0.10206899983043605,0.06993464666520675,0.134464173255818,0.2912979419090743,-0.2004185843752101,-0.0742629506391669,0.1688068751312867,-0.22577867305945623,-0.15851308199206793,-0.0538393396666541,-0.36268185971978456,0.03256547123437118,-0.06629558201054767,0.3556703697013416,0.2148082620253614,-0.00916435931218157,0.23211087623541102,0.1319367959590294,-0.27704995079009154,-0.034157140967352194,-0.11625253805090983,-0.13697298186629855,-0.2707885405716351,-0.06051860975067305,0.08766476282729055,0.209570226415323,0.33376637796415165,0.3348605872405158,0.004299997763507,-0.13674879142216487,-0.05489986041257992,0.2373003791938085,0.17921794419192721,-0.059718996432854866,-0.1289205321152295,-0.1346328135872151,0.2030469628640827,0.11588297201878123,0.12463124314899471,0.13468041353440943,0.0790787677623511,0.08941505345418715,0.0265389970894529,0.10530387250870339,0.14394317323139144,-0.1953830447337718,0.15246912161516796,0.2977395885233641,-0.02386793442746566,0.10327003397152744,0.11745959959029607,0.02049282515566242,0.041728160001705594,-0.052157146920771356,0.06159072687347879,-0.08667027022783515,0.20884985197654024,-0.02577640404387619,0.29726784174422305,-0.17678896781412087,-0.06780680403180002,0.04565603509544142,0.27615882289186144,-0.26536268957389497,0.029335252197034218,0.011579449273205008,0.09228521838311292,0.14216160352998491,-0.2622539451524785,0.22008387882926878,-0.04374072187209669,0.06485215014378853,0.10486191048307404,-0.07608562418235659,0.19897578171861333,-0.22486254641704348,-0.2414498969614249,0.026423662909756198,-0.17498032442686176,0.25867078159508083,0.14844141249792284,0.17363690862973113,-0.2315669572427578,0.15937969178794847,0.33571714432469923,-0.09718365675938456,0.15030331527899427,-0.14607657902549337,0.07888957060663447,-0.27479842095480944,-0.06571292117986467,-0.035427453362947565,0.22628607806115958,0.1979744625931876,-0.1666497055403122,0.15935530309596513,-0.1822760577770239,0.19957944043536596,-0.16997437252490208,-0.21411122249023107,-0.12960096564499388,-0.08521691727380057,0.296666417274512,-0.06731586534120146,-0.15301783030877086,0.11872722945582347,-0.22880953589539446,0.04203350980034734,-0.013933113745027622,-0.26437136724105975,-0.19835415572268755,0.011868890289249237,0.3173492179609305,-0.17015018048576466,-0.04570032518104225,0.24751644596802003,-0.08653136746320435,-0.21783697488869597,0.08326099447991521,-0.12478789688161161,-0.12618215131493268,-0.0719047741505147,-0.15564607048251025,0.15243574213212926,0.003884718742600633,-0.0015238858296969808,0.2644698267615948,0.005573851538360554,0.035594197449644704,0.09106150577571241,0.10674080509496199,-0.12963530040835572,0.13542762160928062,-0.2279392940730195,-0.25307697877282265,-0.05947218651130112,0.09596534640702921,0.07431981729618452,0.06480842941394094,0.1082905172795676,-0.029842903315246336,-0.2458773476518968,-0.18027500555582543,-0.2343585458667181,-0.1277271179807921,0.12230079609612289,-0.1515339792448145,0.1705620851869345,0.2643521585544412,0.19605830609874447,-0.1744567470861672,-0.1461404366842414,-0.08495010563538191,0.01934583752292087,0.07705358015979025,0.03640705862991341,-0.2905399548750523,-0.08773974341289176,0.2032925181407611,0.25804130760382527,-0.12713837997847993,-0.06048697024040255,0.058630123288540927,0.1242929970702795,0.0005281677999985222,-0.01584566540339962,0.05886300066455522,-0.11939976588168205,-0.11340903417603176,0.19203267204824256,-0.23592534389970696,0.08770366687839731,0.12360129025343243,0.05789899751954368,0.2850742304446123,0.0979037146585164,-0.12426836027182829,0.028654945562986884,-0.048742026375573275,0.09104059625278589,0.0679333180597392,0.1649728170462342,0.06262972313837052,0.24401074723992247,0.11169711164741429,-0.10994672053703651,-0.1531234823977571,-0.18499331850113437,-0.009916625254047134,-0.15819066272987084,-0.07541802746081636,-0.11457743295115659,0.09985358673332051,0.1401076823418671,0.14550888045574822,0.22381464593383618,-0.1367427604663259,0.15787780079662886,0.005493074583589735,0.01875213066727357,-0.10085095841508798,-0.20795765817909034,-0.1151237061957705,-0.03863879805925387,0.1019275190117841,-0.157447757073379,0.23416157975916296,0.021384938609544615,-0.2547681326253519,-0.12681157057126322,0.20332310233758688,0.06517555156275488,0.25796984948975166,0.14994562474734657,-0.13971515849870347,0.03357235073019926,0.2370815809732115,-0.11239699642612967,-0.19421859796500804,-0.24775546187535058,0.12831944076225416,0.01705549788574083,-0.0595738138483702,0.03529992155966763,0.26943750331729466,0.052714216855042045,0.027580198638576574,0.013017477404028205,-0.22830141882729696,0.17502080621555008,-0.08686887771013428,-0.12625389015785513,-0.20203158890627743,-0.2823253749125389,-0.03948324562221603,-0.0016654008558630476,0.27853101557668636,0.10789716147588115,0.05808077544798724,0.14023327273572508,-0.05756597128609003,-0.0470934909832266,-0.29300976800642375,-0.14057673112986843,-0.08595494084578632,0.23989655265311596,-0.13642881050185798,0.155609462773002,0.04227302419429478,-0.3150268502350166,0.16341081366750693,0.15352133243864535,0.2079122139585269,-0.24157904307755568,-0.17741946562695665,0.11549986652766721,-0.026422774917296655,0.11282969111931436,0.05987820530927809,-0.09384146686700533,0.2709763870648675,-0.24042976198335383,0.17437223711395397,-0.050153928573337274,0.037023748047600766,0.05698015905820655,0.002991920085350062,0.10209457804945181,-0.2690103834074693,0.24240225207362673,0.2890747570664904,0.03344383517082057,-0.24150996340788744,-0.2527194879087329,-0.0830011902592855,0.061449361797251564,-0.12247371714566566,-0.022984122229033326,0.13577763176057112,-0.26409004244189993,0.20280159928564293,-0.028121125252974426,0.2748633813690037,-0.26688800058571305,-0.12737552685528986,0.10957074150832019,0.06598677096846642,-0.1687178515875591,-0.042424315604295215,-0.24656810321799777,0.2338815011410302,-0.23528244586585093,0.06622262304130058,0.1607232486522302,-0.11508127106788114,0.111560229932762,-0.1416123593932188,0.04196528896131054,-0.2869302207257728,0.1581892219751316,0.028575658202605495,-0.09645874584488405,0.15391232347702463,-0.10791656832997513,0.21708879863169686,-0.04855845289753755,-0.06944310871184081,0.017757058987837977,-0.1859262683566595,-0.134895776614825,0.15885530029405284,0.098673025811455,0.151044543387679,-0.053565099550900344,0.1211349255566927,0.021837656857112916,-0.25718556410019205,0.10337881195741935,-0.028856055691499075,0.2828049760377504,0.201938980493538,-0.2757914599001969,0.05901205251891079,-0.06379221661854724,0.06376326180880058,0.04639606247212933,-0.27646147045672914,0.14796994594745733,-0.05880917627644083,0.0964059159340343,0.17569919725638142,0.18301899298197025,0.2144540062232943,-0.28547595538170684,-0.01139508245322908,0.07597279069325409,-0.30359174422033897,-0.17800009847203682,0.042183531099957566,0.09849625934827133,-0.037560156860905046,0.08300050601360354,-0.004755170289042929,0.22707618580923536,-0.18503473586697894,0.13878107586255584,0.29606598808225654,-0.05065852022089984,-0.09489052543417022,0.0913394096549579,0.06402702365061304,0.22402638692992147,0.06813987346360718,-0.21555138671525292,0.22152024983523672,0.14327008855142945,-0.25954407492782383,0.04170352108645181,-0.28469325756338154,-0.06267109570158494,-0.015125934273974663,0.11141405628091001,-0.005016675589939072,-0.10682462799394729,-0.006509151245929273,0.13429360126363607,-0.06983151583886281,0.36645923556691923,0.20212700885228277,0.004393385298409526,0.07162153688203901,0.16263572576011484,0.12047868331166531,-0.06079344725411693,0.17337182387082167,-0.16223449440422003,-0.1913932099537495,-0.19053455436526207,0.10933858263822309,-0.19823892018945452,0.17954744892532126,-0.02671132714137945,-0.22518617506024363,-0.21607190168767437,0.14900313162509748,0.009655044784820021,0.1614543845306211,0.033589139266805845,-0.08552438141023529,-0.1502489646853507,-0.1319711957251514,-0.04040636186641194,0.02251375435314571,-0.025740603362916645,0.09412248390929073,-0.06711131392316226,0.07399202023494991,-0.1822247588437547,0.14353668136231917,0.19237125375840625,-0.11950743940680641,-0.10361612840311457,0.032306827845793376,-0.08559689149722464,0.2595309658091844,0.23366431836600965,-0.04055265408777142,0.16209577856532847,0.2990617713779671,0.2092043354185004,0.07781060972948643,0.20609554430333915,0.13205492309923395,0.17994594067093966,-0.14014641933013092,-0.19468378715761342,0.11606321256239559,0.08568946349274675,-0.19798162029518154,-0.16779639023583204,0.15944397472409674,0.18718611545179678,-0.0776196583489578,0.22824158454760674,0.38529052925304985,0.09228600733904749,-0.074869699440325,0.20489789926095953,0.24595569681096735,-0.10342065439237758,-0.10973956418055446,0.0031510210058517357,-0.1559563030004063,0.17931051673870374,0.008307338344284872,0.08210384376362934,0.046068642728883974,0.0872342966030125,0.1601471680830882,0.15434739199361225,0.21830466876878984,0.03494160316313001,-0.16465861181578045,0.17875201249171938,-0.18074712589243605,0.06660916824877984,0.2176544240376937,0.21503793670544952,-0.06702074522633847,-0.14589280581145114,-0.05356398552635087,0.22035966114209085,0.14165217401064384,0.12708767119705097,0.03999910494677484,0.03321531902891717,0.08056532763144889,0.19171880899919852,-0.12859502608223228,-0.10189169493847357,0.18039695506917547,-0.09725048376859176,-0.22315490879696337,-0.18441314134738757,0.07823383894878957,0.08718164828118895,-0.2873148599572022,0.19937781968515433,0.011759072768419702,-0.2846305474776485,0.02189724893159403,-0.19713462343465432,0.1827495635117354,-0.09539847445706695,-0.2067525618729337,0.14049077814873373,-0.29737312865504273,-0.05605625417383372,-0.02385120410581167,0.016673846382333452,-0.22468819035025656,0.09925576349638389,0.0019280597640847672,-0.24736768223961217,-0.17110098172040025,-0.04341187693908287,-0.2499126872595965,0.19247426906174991,0.09162156656685655,-0.01734532045281934,-0.3232424829312686,0.09850852958091652,-0.14951791658280886,0.07782322984562592,0.19886242560428638,0.2730982729492164,0.23404586883725345,0.1764716506674275,0.25676430750428236,0.2450178712975733,0.13228594145814535,0.2445835368045503,0.06321215226391756,-0.07624207179595874,-0.13980412877418552,-0.030246686831268018,0.07474553001446944,0.23915252232612566,0.19589308363947885,0.23834365172528757,-0.03821148066052558,0.1833314381852144,0.23329281757279774,0.17857534876308465,0.5075831256506714,-0.20998761282731612,0.4741911870559898,0.23945803329012752,0.23388396192401062,0.15029315519332473,0.11540762412836157,0.23907120580953978,-0.07266296014086732,0.11744420119544736,0.06728111083124698,0.15803141275286686,-0.19393169356203555,0.17808883856153918,0.20831632132226868,0.04450740927835735,0.2414794917460041,-0.10397330583007477,0.09743897450512452,0.11536023091810206,0.15317682097483426,0.07786416703492344,-0.027920421020331754,-0.07100479818311395,0.16464479913920813,0.02152461021014108,-0.1883944688340553,0.027752167544343478,0.227511176252884,-0.051858524428949906,-0.15855673876482126,0.12616531456131655,-0.01860702492053836,0.25100379325115335,0.22420299040280506,-0.12841805410625753,-0.1145896933911482,0.2231107252248966,0.11617069535311741,-0.20884322648607412,-0.20023109838843323,0.09080563106695613,0.01900207782969687,-0.24384933804952375,-0.02257153957644457,-0.2325153259001026,-0.0004734934305100123,0.0688004671012341,0.21184602565977034,-0.14760539079525264,-0.12213390569915367,0.08116697373869293,0.15943906207559783,-0.052292957685874095,0.0033455130869607798,0.16552119076356936,0.23118946761349907,0.030960176041410815,0.22019346917143975,0.0952971196390823,0.036168651157005335,-0.01055886550121734,0.24788654415543854,-0.0382871345093617,0.019646813018817887,0.2222981182218975,0.0229893237097055,0.1843516174324166,-0.18226862261470725,0.09191461905561886,-0.06025879434435741,0.2015487264333867,-0.23816607645209187,0.04098856565369099,0.13412819819718275,0.04087320953080679,-0.15881966874038228,0.03345160563186132,-0.26304007376102967,-0.09852333291893192,-0.33209748788959986,-0.24509614704226562,-0.05270357005440455,-0.16252681456008972,-0.22199751061401193,-0.030122974563706776,-0.2129257281871892,0.14669062557959772,0.21230357687832901,0.023621756982013218,-0.14556275916530445,0.14929566833324187,0.06840084152593942,-0.4638687592852016,-0.11768625793835849,-0.039579786181352355,-0.19800766436091677,0.1042911389398874,-0.13499749244656062,-0.06568056684313225,-0.41395721209529496,0.20156690571171534,0.1108478202936522,-0.0492235051486922,0.11539218339775738,0.2213725441178154,-0.15497749418056606,0.20718717364673986,-0.1535812801051683,-0.02688415503137977,0.218193474941405,0.046905299458069746,-0.07498542341872987,0.15849545576643104,-0.05051969282671378,0.2139101468238632,0.010260423422281572,0.09019634753279189,-0.23665201624761595,0.21913775867364813,0.24989414175603467,0.19360272439381845,-0.16967035800812907,0.24210309134253566,0.018637071306429356,-0.2166722844184364,0.20069675198584638,0.2579896132408775,0.02834342181410455,0.032869543089263695,0.14552364484655367,0.18197788220359049,0.07590521722233125,-0.07321802657144168,-0.007295787605916348,0.21639529365834906,-0.12621065659192726,0.28272711237118214,0.1272336996254507,0.1522756393291574,-0.11405619286890738,-0.009056601976406887,-0.010009376099701501,-0.02407878623553546,0.08835503479663293,0.23303089092306634,-0.10337651738701245,0.2357327252068664,0.08358139010420057,-0.17785094437766127,0.24929509438167508,-0.04083672653305701,0.02239818289866103,0.2547555352806077,-0.18544650818867453,0.28549077160559877,-0.09148347024164337,0.29111370412375526,0.42224332478016224,-0.04885493791658232,0.23114576313979815,0.35262049194243394,0.19381038375411216,-0.020995214041842777,0.038582408059203765,-0.10023706467926953,0.1039438102294811,-0.23184363198270652,-0.31070890762872894,-0.21751011842197057,0.05948426590299194,0.059089394416041004,-0.12065131996701925,-0.28746965027043525,-0.18829352278083708,-0.14001618440470945,0.061445360638319534,-0.14747479586231274,-0.09507239878710225,-0.3147320460292268,-0.04264472689029982,-0.07454777782796183,0.10747378261995483,0.1608157318544536,0.07267503242224081,-0.08112235935280243,-0.26935376824340695,0.15440570616763338,-0.0452544470376409,-0.045208098005685975,-0.09195944870366082,0.06438703119132408,-0.18115617868440487,-0.46416587113195024,-0.011064580443054655,0.16121742093241564,0.20526681523988574,0.0448755747523967,0.09552270356570203,0.009386207818712064,0.03586041330047824,-0.05506388659859588,0.2603028839827118,0.05805527220203415,0.19237511952270353,-0.05182773657511846,-0.023048031681760117,0.22291396348179401,0.2158011098268813,0.18835821854871101,-0.2508468474586312,0.18223160890787654,0.22085062538845707,-0.14828051295903727,-0.020904763046617376,0.08583441635244092,-0.060001580863608836,0.08992453009722969,0.10217449155010376,0.1815477778153067,0.07414831143802958,0.23087887964721615,-0.16966572493454785,0.10494546626260137,0.004404596965139968,0.08085511716877249,-0.09275269825949416,0.21116131741635027,-0.3033229177306648,-0.25430341829101377,-0.056175375222188045,-0.28737326145130415,-0.17607095576277787,-0.2710494151398057,-0.18316887374556465,-0.06276043286167869,0.05877869809690953,0.08576954352942515,-0.25449423917096653,0.1994969270698919,-0.06061180050798116,0.1525718470525818,0.006004174378013156,0.09002231616181472,-0.09606005384703295,-0.1852972531000449,-0.21385494779385336,-0.0988110619489723,-0.21845816021339165,-0.07457116305674337,-0.20973241422710995,-0.39643556009254916,-0.11537497649975115,0.11457147088523754,0.01792243514518479,-0.22114635414147504,0.10331876988297616,-0.07708284003460175,-0.09426219924215669,0.06035254240257186,-0.17894820246112256,-0.3514418268981088,-0.06656839072529595,-0.032731560413260356,-0.074989610749812,-0.27111296109513705,-0.047618200691915524,-0.1028480311202092,0.14436899626131738,-0.05164145189812584,-0.12166956632121236,-0.08183991639226265,-0.27962496419942723,0.14324775577772977,0.1988683151799253,-0.14370092351378155,0.199692531628293,-0.041675195903985926,0.12413341669728328,-0.1726170160947409,-0.12465713168606042,-0.4727220304752005,-0.3542888841820643,-0.2286666363405113,0.14514500594895288,-0.08931260162635493,-0.18055985908806543,0.14556707725907436,0.04779908331242706,-0.11466813258716314,-0.1332958282785982,0.18859742346123962,-0.01882915966211394,0.2643159538823695,0.16322746214549486,0.26280154942660133,0.2713764376908461,0.027419669450737566,-0.18579671216400617,0.23605286843563347,-0.03675811914482326,-0.11638315334606841,0.198254881506352,0.015553370004712012,0.02441242034192601,-0.10773568340290185,-0.04089344662473606,-0.14865993883840695,-0.06049221996689598,0.03630188860818636,0.19690604033579115,0.056783549316235506,0.2484757144373547,0.36445088925196656,0.0644528281680564,0.1924429540829692,-0.09330779099457856,0.06778138641625063,-0.16282577495549894,-0.0979905720269067,-0.1032034340679966,-0.06478530369897557,-0.15049610780902775,-0.3002114182567961,-0.2033633372265215,-0.1525006467068435,0.07595424886451166,-0.14796629730429148,-0.3055789548758854,0.12799970144440617,-0.09088303996661216,0.13425779837767995,-0.016259838884363942,-0.04534772021010145,-0.15553274961347782,-0.24580688947786714,0.031514844448177266,-0.08797709492487832,0.16398276625910954,0.009101424265234597,-0.2461614123429358,-0.07673366913395235,0.19334628499310774,-0.18072038077783892,-0.4876592707227322,0.16029924206405302,-0.1377153086016912,0.09949625532139147,-0.1552732439790908,-0.004792181291182767,0.056439819453819956,0.11637708286454626,0.18165405885322952,-0.08236914085753878,0.3498041444413848,0.3907767479222559,-0.1208725521797814,0.021140597852479688,0.08187024141050794,0.40272659039119635,0.22427018629877138,0.15746494145378245,0.3057544922758242,0.20470274459846707,0.2654325964265997,0.29562276388941167,0.10570428784912121,0.22245787070164164,0.09878952556612021,-0.13404134472041665,-0.21987796708705248,-0.05093632262599939,0.6542617669649015,-0.0015941207794495714,0.5227201629812169,0.5826598843845051,-0.05476498053483692,-0.048208382032639725,0.34043917509144933,0.6838642271535778,0.04547572381818702,-0.1303758869658543,-0.21486577197527,-0.10111626268082485,0.22691749359954716,0.10013558756749974,0.08960883760228944,-0.026218855220600752,-0.08959066028256514,-0.09962193957344977,0.26754176888603115,0.22154878521640034,-0.0883478836443989,0.2625874962966782,0.22810281517203798,0.0556532092299751,-0.009196211588208426,-0.1771131424936989,0.22101164329545253,0.03265653062826369,0.07633338500628921,-0.09766861816707646,0.14906952407757507,0.18704998142192567,-0.1795417813322853,0.02845116671183162,0.3619320638729719,-0.1718646631511727,-0.14511586968339146,-0.03686183889721024,0.24401418100945224,-0.0706568965171246,0.05238156931113167,-0.1728754366620399,-0.12630468198149936,-0.07850219910589391,-0.2137740611699621,0.09475048825694936,0.05486832530443873,0.08320463647057015,-0.15347650524522588,-0.1307390531787169,0.1621736544888299,-0.2082024222501293,-0.2354580674153204,-0.21993988300629586,-0.1031836598224153,-0.12730863263649742,-0.22231069390125274,-0.11050761295076261,0.2145961492102243,-0.020591832647509033,-0.00059383735033582,-0.22266923103378483,-0.15740328342928722,-0.08327276434324517,0.1327475550909925,0.13967336959046947,-0.13364653891352818,-0.08431703190135799,0.13717973004271772,-0.13160730943442298,0.17629321575057563,-0.04765205543436425,-0.019530019327841108,0.11568311270336676,0.0028998364496780104,0.010398284124244551,0.3278288269761642,-0.03808824634005281,0.23814278957819268,0.15110771274085194,0.01888946442924011,-0.16824886512220635,0.17300198032626893,0.1602974225242449,0.002764136848875038,0.2555249234635772,0.0858101947962868,0.05133490178316209,0.1037204659430049,-0.1625376463524571,0.09981626722162368,0.020149799133265082,0.05254075160140254,0.12856497965517297,0.22291906596930683,0.5334531472507427,0.15833260614274505,-0.1980440684575389,-0.01597184170243299,-0.12093945696806739,0.522590237300571,0.16665783553087596,0.03265558495422741,-0.13294702540257794,-0.30134291210136005,-0.15898168299194798,-0.20592158233951918,-0.050436363826167945,0.12792959981882338,-0.08795350707769112,0.14165260269552757,0.04143844161232721,-0.19280404724895464,0.08830189698981702,0.14695328668266305,-0.12633949295487507,0.1544127608560473,0.008854718002882307,0.1003346232415277,-0.09230745556968459,0.060627165970307706,0.05416622665686484,-0.010685505665367172,0.005956128447351252,-0.32670807937285457,-0.2001079724200966,-0.0854379223263743,-0.34841779569235853,-0.18773865899100176,0.060273184356017875,-0.3043666725345253,-0.1737481537723814,-0.19133211031613834,0.10499029852766682,-0.09502622293179412,-0.056708588096108035,-0.17332783499457388,-0.254945552038243,-0.014421042884974726,-0.09156776191424672,-0.0432717594923672,-0.2020964489630578,-0.29417863390328547,-0.08022839203737543,0.12678027354903332,0.11924080322523695,0.13939115243691663,-0.23820924739072188,0.03512078682255306,0.05298723117026773,-0.21859467829238496,-0.23006767821817786,-0.20616948631755205,0.1908316627490399,0.08760805875780678,-0.23340214827273362,0.12230260516869534,-0.21334883017108616,-0.07191592122005283,-0.07228006853060154,0.1092443653249463,-0.2268582292174459,-0.44543820745319956,-0.150071945587492,-0.20736672744645415,0.2018066045257546,-0.2323417144799161,-0.12883988049871917,0.07972700117584691,-0.16367915896210677,0.11127425029413611,-0.12231318680418628,-0.07919022204683289,-0.15301970747232263,0.1392779105285262,0.06642197983717142,-0.30095729726341736,0.2153373700913623,-0.25115961219997907,-0.2722195715172623,-0.24936355319175801,0.17210127090576102,0.04712802116078785,-0.17622982633239903,-0.0830269403621436,0.17450976961311934,-0.28583641663117154,-0.22477968000396806,-0.27926040887689757,-0.463697464178505,0.06679823148283127,-0.104051397228151,-0.26565731287569183,-0.2789683391845816,0.18824389062935235,-0.04259751670233993,-0.09588993125288013,-0.10100337815468362,0.005410294888752008,0.3517414882244968,0.2474148852957475,0.11294709287704653,0.26291995750504543,-0.09674259125299309,0.019072476678497027,0.22400576958340548,0.1792049018859528,0.04635422848646327,-0.16722542099942134,0.06216766400397488,0.09032882920105863,0.1527067834132394,0.04918763620483542,-0.08155875607817344,0.061045322722042335,0.094549845759489,0.05006410004178004,0.1151627099215197,0.1642542151863129,0.26375842752914863,0.13513603296128768,-0.1449349601868953,0.26685001437491546,0.13852939883564902,0.2717115689356082,-0.16661857586568948,0.08168353079942217,-0.2265583097177732,0.05285472736477981,-0.23165843487229967,-0.2712712959011815,-0.2970598208617498,-0.15673091260035565,-0.10105508306035209,0.013558087407623902,-0.24075913023611267,-0.11923283659342955,-0.21578205268691758,-0.2693703332012862,-0.15389792195322033,0.11632219892024098,-0.36676371866695257,0.12954700666587712,0.1799616339033195,-0.19219042075623713,0.021956330589357885,-0.06262475309694528,-0.01995667385857108,-0.5023696686612907,0.13747873540429656,-0.3898549702667764,-0.3341141708721696,-0.05261435396042232,-0.08262680386700724,-0.29089912558070447,-0.531781430698913,0.03451234833918224,0.025040288884269634,-0.16766578937000817,-0.36558934842554924,0.02906997232792664,-0.30285048098533296,-0.03208779851555136,0.06749878749742397,0.020787012329458017,-0.22131592933691366,-0.5166364323810688,0.15200517670295713,-0.05449607191004059,-0.2170094865214789,0.07362111997278929,-0.0146500568395939,0.0008554054602685551,-0.08100241242447308,-0.1995932590476993,0.007656002775578852,-0.01750233806790636,-0.1454514113190115,-0.009220533206279387,-0.6499939264136773,-0.20766536789554815,-0.5247664343596752,-0.3912605533771846,0.15490082439323716,-0.04542816746887614,0.08681312164602172,-0.5513336027401754,-0.29103176996961955,0.2086591586116044,0.059272526321365655,-0.047810649701099515,0.08476769762773037,0.27534883424907103,0.3104108189352543,-0.23755216076943908,0.11581229146800541,0.20168355493185303,0.23819890518170475,-0.05081086692926235,-0.12758484593646377,0.31891986799128885,-0.09034243154468112,0.13849370048611087,-0.05735420923404089,-0.08830413146138323,-0.06686462481931735,-0.05837882086172727,0.13026360189319933,-0.02224107395897843,0.1674507177660895,0.22033395453334395,0.05739269645927721,0.2649905464860269,0.1293122701925458,-0.08056362740476145,0.21792817838091094,-0.09735421475434325,0.1373113284774866,0.2588313692107259,0.13383025124666417,-0.24803195732659328,0.12201558028908832,-0.13245330164372257,0.26427785852105207,0.04387649882222262,-0.23372509602510017,0.05633395980806123,0.23687940154713072,0.2576088132803803,0.11553575905579308,0.22180184463935382,0.08173672928790875,0.17859668844205268,0.1318317682572441,0.2480928627822926,0.10640517649972053,0.015577877022456756,0.018730798480728936,-0.13594853537381643,0.20874208136727296,-0.05500698569935373,-0.06639989694891892,0.12038355798598933,0.2201340980316722,0.3119099270614056,0.12908260804982025,-0.06286186033256022,-0.08197248970931231,0.2616179597200708,-0.0380400625687927,-0.08317304398977708,0.05796675075462692,0.01702347077855497,-0.020410481122266014,0.2767902537483488,0.09357614947545928,0.019954821802038232,-0.2197882561270606,-0.07975420216599353,-0.048969436329174165,-0.1785779223832617,-0.23001401035766933,-0.16234478542490155,0.026679913722832405,-0.13859603556796957,-0.011512301835101737,-0.005278688818772315,0.006497167352641645,-0.10906311068169776,0.1870215926670124,0.20987095306361042,-0.07744625793674764,0.2464062643331926,0.24493424863690813,0.21778962744527922,0.29663112682879106,-0.11175692013477566,0.2557677559304027,-0.07044780236991548,0.20425155702485012,-0.012510145884422048,-0.0239876771383124,0.010757171531859809,0.07457944682339784,0.1090378199021205,0.29038650166679825,-0.04232108066467605,0.06702569735830913,0.2528778828446865,-0.04707802668674529,0.12723065057997784,0.21444953488209373,0.15517514578872818,0.17478174768881502,-0.1109465866581177,-0.15001781776230824,0.2172968585784531,0.13109550612906737,0.09503983928974304,0.019452341733032175,-0.1564933909314662,-0.11088967528541903,0.16930596966486866,0.4463391774046142,-0.004174225869511062,0.29019385017959815,0.31915193768638667,0.1554062250273657,0.27185830098091196,0.2572363427256292,0.43244011121352793,-0.14330831521227794,-0.20947770469308108,0.16042227268971143,0.03516965320283538,-0.1872238837688085,0.22348792795199654,0.1006536621906709,0.08487867828059342,0.28928394888523207,0.008962843660952924,0.30434298222544415,0.26505720011073286,0.2583363306971876,0.026974986363831693,0.03634697265257296,0.08285033653587975,-0.10569679563715387,0.25172939384813886,0.021020408546042837,0.22548555969219528,0.1639864694944041,-0.09286199122179542,0.07687943186819805,0.36684945682638503,0.1298597604860423,0.13218321325916968,0.05501642854961091,0.2361239122141212,0.03280633177199288,0.06041284188195047,0.3111173209384219,0.09385848509387813,-0.10726448887618116,-0.10618683014816355
biasActivation=0,1,1,1
[BASIC:ACTIVATION]
"ActivationSigmoid"
"ActivationSigmoid"
"ActivationSigmoid"
"ActivationLinear"
