encog,BasicNetwork,java,3.0.0,1,1399533478563
[BASIC]
[BASIC:PARAMS]
[BASIC:NETWORK]
beginTraining=0
connectionLimit=0
contextTargetOffset=0,0,0,0
contextTargetSize=0,0,0,0
endTraining=3
hasContext=f
inputCount=30
layerCounts=1,21,31,31
layerFeedCounts=1,20,30,30
layerContextCount=0,0,0,0
layerIndex=0,1,22,53
output=0,0,0,0,0,0,0,0,0,0,0,0,0,0,0,0,0,0,0,0,0,1,0,0,0,0,0,0,0,0,0,0,0,0,0,0,0,0,0,0,0,0,0,0,0,0,0,0,0,0,0,0,1,0,0,0,0,0,0,0,0,0,0,0,0,0,0,0,0,0,0,0,0,0,0,0,0,0,0,0,0,0,0,1
outputCount=1
weightIndex=0,21,641,1571
weights=-0.28149056102252273,0.2257433076636931,-0.15514280353384943,-0.6368580505319728,0.14814636454439806,-0.2137616265733744,-0.09930806822375379,-0.31894400660396244,-0.1850172370968639,0.1709952728231038,0.16223852625152915,0.008095684999711925,0.4572420297003214,0.22849603952904018,0.3557273271612273,-0.4532425188943801,-0.31936247945795243,-0.34387948557174286,0.49231734293286183,-0.12198604082401095,0.10303133135500243,0.16257145229157466,-0.19647981784907215,0.11841179247359655,0.08594098623755914,-0.10403133288951862,0.0656575659402458,0.0261595121053895,-0.2623477478208703,-0.1976732106993312,-0.005989909249819527,-0.1301177189053307,-0.2835006256974974,-0.2759904203267632,0.10146389836436283,-0.008202701173563025,-0.022445584211177164,0.13269601522428928,0.14668719352468193,-0.14021738615846446,0.1759538500667404,-0.03281555687444657,0.11645548910931722,0.210267987653651,0.11978055170888563,-0.21408839190869886,-0.2612465816018131,0.09159000301077619,-0.06228574168613054,0.01621074741706926,0.15119398816237728,0.05865813175952019,0.06723197623228584,0.08357004603223792,0.019479145202540855,-0.20787318110713326,0.002511770752705346,0.2708467224475296,-0.1444364123026635,-0.04741519802986949,0.168014006491943,0.09217795861428976,-0.1373928340926776,0.16981459657945092,-0.0994852314318705,-0.06893419418270968,-0.07715691580373564,-0.07995302330782908,0.15560038001365595,-0.012045605617186896,0.04933010465940868,0.04763904777344651,-0.20796922183697866,-0.17367258686766893,0.1857240875573133,-0.21623888994161455,-0.22301267774597697,0.14811932506356426,-0.10093714223600507,-0.11093677564390339,-0.23781269717209239,0.1621011394001367,-0.23125574971659602,0.19761665347943644,-0.09868760423342399,0.17750113137623638,0.09744780047063173,0.15522888163340037,-0.2300010028049007,-0.260205284342594,0.00700757242870334,-0.0021697029087982753,0.11828382691679408,0.08881090761264573,0.12986504929453208,-0.2623101819571559,0.16204418346274865,0.17572357675787595,0.09487270010602934,0.00009820805745818729,-0.11979194335093091,-0.046372673370849486,-0.009402436325470194,-0.011530991408458414,0.07565730460044268,-0.08444946502647885,-0.11542318694286234,-0.19770884021126023,0.19829663274918288,-0.20318899144152494,0.1819862662839111,-0.03242535076782657,0.1513354998860547,0.12812105392313217,0.2445580634256195,0.07960939299237256,-0.07524494653416311,0.281363985245184,0.206820933737487,-0.2960648127604483,0.1199648431730299,-0.04382010290307181,0.023251446687924116,-0.0874738249766576,0.04913359273058468,-0.25332024320305246,-0.021374796599611855,0.10506165525803693,-0.3257836300455622,-0.12384931483791395,0.2389383543401468,0.015454079926887262,0.21340786434556122,-0.14487599762224035,0.2810391608861217,-0.1752520810906026,-0.11109620718983669,0.20019286919197962,0.053408459553373665,-0.18418909585719762,0.05719747581097802,0.12744726469430942,0.28666620436816986,0.24299388305259734,-0.2279464467872815,-0.21617051791504302,0.06096435760469607,-0.16893516189823574,-0.17565140720596614,-0.012645092168209058,-0.1674206952928565,-0.05565009949025732,0.1825889709883988,-0.1272468957134836,-0.1800059469692512,0.1868701539698733,-0.21244696598448778,-0.04814836828285451,-0.0695110347142456,0.08296495449203525,0.11239472814749725,0.1630138156103131,-0.06536406403914581,0.2349775882389208,-0.054942803959361734,-0.15794893691885742,0.08593291673100827,-0.21846551100489933,0.027735418010055583,-0.19405304204961468,-0.09176772805679306,0.1470262764633536,-0.15164604461569778,0.07726564883076938,0.009570197526889803,0.15603700582298702,0.019877696550784016,-0.16907060335860427,0.20533885228135185,0.04265153320979826,-0.14755042073568056,-0.08912649754620232,-0.03602837354532008,-0.04387391849159832,0.19213851459111916,-0.25038344424481973,0.2443626994189646,-0.11816410878354318,0.13173204067723557,0.16258286193195393,0.16224876173582806,-0.0762286394548273,-0.2438566037684222,0.14528373226550267,-0.019731394257238924,-0.14987063356537633,0.16603506314574842,0.057934525824533414,0.21741119916839088,-0.12793061329710628,-0.21374357127243518,-0.16945756998810357,-0.08300803181686126,-0.15911841892026277,0.11146916722900156,0.028943157311882583,-0.11574668446665576,0.20531218487052927,-0.11789524126590718,0.09473548054483695,0.2400823124898329,-0.10794304476784013,-0.18521208036791723,0.20954637901937792,-0.0048474789649761135,-0.06422253723814818,-0.20571274170385317,-0.13426816717403775,-0.20270224401883088,0.025580476380154284,0.19266074103164402,-0.15244886333371402,-0.19498075639904677,-0.12777858750707147,-0.11210784554186029,-0.15699070773349097,-0.030133196289596105,0.16454764022552906,0.025770986142564664,-0.17973570047031803,0.16753383849669148,0.03403022477596065,-0.09507077684842853,0.09704506678054288,0.17250934676665466,-0.07979613527856988,-0.10779667926280129,0.1034354012800636,0.10243743508905857,0.08276748889157755,0.32793911620513744,0.20840379218347918,-0.032775254789155564,-0.11700193142213121,-0.011525558558170496,0.051821253969946066,0.2674468014019435,0.13447200179124563,0.15174280397011353,-0.13522966600113467,-0.32485676496667265,-0.07887186567312476,-0.020526224173062973,0.20542014750877172,0.1439835892076375,-0.08193799461687197,0.008371762118036596,-0.2019391762932134,-0.1546024163413515,-0.18489278381572194,0.06896306950419599,-0.05497181660089444,0.061161265922077365,-0.20418289400082085,-0.20754268320340932,0.08298804498033899,0.027785963834676783,0.06912482887427704,0.0752653144627054,0.2532525428779515,0.03225582151023537,-0.06683119472519244,0.16004200267101562,0.19439668719114336,-0.03733981127900214,-0.020394479589411475,-0.17590090344229703,0.03196315660620005,0.15980705183900276,-0.07739714253956063,0.09842580774223675,0.0813760490553205,-0.06672433171669465,-0.2774016778812977,-0.22662157402998084,-0.061569985380951105,-0.014735805791804078,0.20400575865319712,-0.08394922472088351,0.27178168143895437,-0.13301817985401979,-0.2479289615274635,-0.13565515191890126,-0.01003107828613656,-0.08217005752030745,0.013910434122993823,0.03758225790954688,-0.11406141542754065,-0.17985317814686697,0.20937518928177729,-0.1424543107946295,0.0018123444964301435,0.17484131048507104,0.010295548351678693,-0.0995979995024208,0.22535280408882283,0.0761316034788267,0.1463338383598754,-0.009114002381681119,0.2582413560544316,0.20584327887261192,0.04300378743234109,0.05973640308147332,-0.12202565700916007,-0.1495789193928326,0.08191816182651411,0.16487758953597104,0.2181015392035511,-0.07167359280709278,-0.01802588740655814,0.051963815844817934,-0.2342974621004123,-0.0916301856148698,0.0016942163463796634,-0.2341557074985118,-0.04410510685238491,0.1860177876823495,0.23230085352007485,-0.1863241660266636,0.14239504783833934,-0.097254484749218,-0.011411777439994567,0.17892495752510204,-0.07016087597845842,0.08684063275423834,0.08069226766207437,0.2290403210423244,0.04828339869266222,0.13695006066179052,-0.22930187988023965,-0.13009842110458122,-0.20512530382974647,-0.12294885424656908,-0.09967995331722769,-0.0609579293800686,-0.027654121164237922,0.04730227359041278,0.1146273018370942,0.18614341627638303,-0.09277231816010555,0.24482117119207178,-0.18928873031548474,0.0713114010571352,-0.13076523215007907,0.03681963330610254,-0.16923333806906612,0.24481421639071588,-0.06020437406539697,-0.11164905607034306,0.2051971768374087,-0.20966141986009604,-0.13961973449613155,0.07259030107259944,-0.13656830953912755,-0.0368351108696358,0.1823683713134456,-0.09646969680701731,0.22879581788738915,0.15815475938386553,-0.1635036790477361,0.17669345860392688,0.0770012942214218,-0.030476118852993575,0.21705336073978962,-0.04348486699093721,0.1681954730480913,0.14171662383802086,-0.14263394665221815,0.22088618248140776,0.13400645070049105,0.1268851306542995,-0.15950303436765143,0.13197038943807374,0.22311610392416828,-0.13716792463239724,0.13677920497915305,0.1815379319477097,-0.1830417497587904,0.014679543465624102,-0.08105758258893393,-0.0445520170007935,0.06649569322530376,-0.023708707444745757,-0.21804658538428923,-0.1810075484475086,0.14013025605747262,0.03597697651334506,-0.008715755133451788,0.05030747000478466,0.19937092538525442,-0.12041932814391845,-0.09845686067382135,0.08781227636325684,-0.15443468320149673,0.029197831463887377,0.260614883143612,-0.22369460470229768,0.2688517670882307,-0.08096306541417865,-0.08278852978938611,-0.2514640532620821,0.14501881230846575,0.19450149320531032,-0.11187542855788238,0.055458044128172644,0.14783456283919388,-0.21716055356572855,-0.2302383604801494,-0.11404750350482723,-0.20089731285554088,-0.13182346696819808,0.1641602269753488,-0.16214920618836262,0.11877421982432741,-0.13935244072113373,0.012446266471568091,-0.18517895891221325,-0.060014013908939866,-0.1289727537204609,0.16549179349155588,-0.031846503191799734,0.10816620998520018,0.10463875934044516,0.11721032766663993,-0.20167409800227207,0.14869986330606016,0.3007534428528113,0.03164330858954941,-0.08481149875511797,-0.1034847042805856,0.1032674377152948,-0.10819877637529865,-0.24934060657501034,-0.020016438408731213,0.03815163728505109,-0.17283434715085122,-0.06824342379711792,-0.2643562783656059,-0.1651594643299185,0.11835546759770521,0.12851748518732956,0.07335834114643609,-0.05987041220811237,0.2796221702222026,0.20476230504858278,-0.05591082994369194,-0.21089330853623536,0.07482363547466672,0.15907314152299384,0.16109359770037704,0.23591538104119533,-0.09037642936531108,0.15778196963020197,-0.08566163753748839,0.05408956473472019,-0.003261617096615631,0.22102132502232386,-0.040938157734614726,0.10165114441486667,0.1867226921458394,0.22967464781833266,-0.14151395441220346,-0.060943148254976244,0.054403392799658064,0.18899268247236342,0.1434253782727819,-0.18716136865344252,0.12571642550556958,0.0013541023057269247,-0.2047319806980445,0.006191529862327177,-0.22525205870318277,-0.19269270723690915,-0.15331748593874076,-0.23175136509069078,0.19496640077871644,-0.11408712765401031,0.2643063948295282,0.26101155607980014,-0.042279299322499235,0.22065212920729732,-0.20376559807948622,-0.10155287286262932,0.10842842489178738,0.2607747174029216,0.12261580363034903,0.12386994148689011,-0.21947362833639933,0.0036984721759430366,0.2012332099784665,-0.20719795987460798,-0.07716107517528799,-0.13649502324547744,0.11839885216879062,-0.13927683440845587,-0.108270777765224,0.1284242520444376,-0.048204500424374956,-0.25142960769471145,-0.09211471130429598,0.1999365009166032,-0.13298239740091183,0.032651194098522775,0.03581607845191588,0.2970755262868983,0.1650115761753377,-0.08438976700199975,0.15287973302548982,0.1061751798171915,0.2119333559625352,0.027289428131413256,-0.008439404266554063,-0.004739582693182635,0.0820409991556923,-0.21879391001296997,-0.12795110800506737,-0.25703035860144674,0.0748256797127593,0.12865881727673725,-0.15209497190831686,-0.14304970757155896,0.10560232581862965,0.0980242845396557,-0.03268911640566682,0.21549388470994102,-0.12189740468802396,-0.2552459317257513,0.1777495639931231,0.23734326483060847,0.09265463529251851,-0.07635909995661647,-0.1241921634068527,-0.27821033398449385,0.2105252571975123,0.09536088841251149,0.12781103154116868,0.10766074697294795,0.1657965611995921,0.030027384318135304,0.21611264013524703,0.10015653825033427,0.17519198291349342,-0.07244383022362404,0.023775917260097045,-0.1528130778293131,-0.19698873305162384,0.2301126673978953,-0.18667610311638005,-0.19621756125750395,0.004628917907371322,0.06754258844372563,0.010414050992512833,-0.1308178971950068,-0.21496547261137655,-0.06579916125557092,-0.09812358947091347,0.2147274492163633,-0.2521721826221009,0.19741229011953682,-0.20293836004369423,-0.20024333960879678,-0.08175384852893264,-0.0773428340194193,-0.14429276072688696,0.2418177122740137,0.023819962668986238,0.2593363739759011,-0.06675958084896623,0.1748442558090637,-0.25440193928618926,0.09379728262106775,0.05842152617840742,0.1189319362004769,-0.05113283963812804,0.30279246452070907,0.18897504981968047,0.14720327551200993,-0.1088563164633323,0.2831040457640277,0.052406354296978715,0.06558363571129813,0.27979974140333536,-0.16384038436973875,-0.07221842176318098,0.022881655491189094,0.16648550321423222,-0.16948662561856653,-0.2070999156065608,-0.04304572641385297,-0.016659956821093846,-0.11466593396928888,-0.10000925666824888,-0.2084273728895156,0.17437025831875663,0.2564533645125154,-0.14919691253304498,0.07516235684571576,-0.11832146529953555,-0.22585289509696352,0.1976111942151109,0.17419140988914014,-0.22532790509516668,0.25664919045994616,0.03236588644984215,0.04694330014163462,0.07048003342502203,0.15770953683646757,-0.09200768875836586,0.10837789961364654,0.10929697537528117,-0.09693068742725483,-0.2597832261442614,-0.2172346066422789,0.21223993650685227,-0.009633062677763059,-0.06536874384112432,0.10951670381051277,0.25101308709068415,-0.18175689239011336,-0.08429105620178921,0.01476903685131242,0.060320435262672396,-0.2416341821297379,-0.1989546646474435,0.00017204272209349434,0.09044978298422439,0.03486357278526608,-0.0792261558236514,0.1523599479463797,-0.05997178347233345,0.1316241318449528,0.033659952643689414,-0.08423237484911093,-0.23028442232991966,-0.3477681337332544,0.00889402888891279,-0.24357408317461926,-0.302822120665102,-0.33832084654915484,-0.058384826319335593,-0.20915673395202597,-0.20040325968096886,0.13640763977296338,0.13259746064833117,-0.11984186682456119,0.16389494964907914,-0.25382526195479543,-0.03343420479643287,-0.22833452576847588,0.14892706331722874,-0.22798002810701323,-0.10166013711803565,-0.044461707570530584,-0.35401816755625765,-0.48507728678884937,-0.05348866627524677,0.01526236924975061,0.006741275544257901,-0.16350353974030213,-0.05322792156938934,-0.14999928824735112,0.08035286415824223,-0.05492955806643543,0.048774590968883105,-0.17138927991651887,0.2197342499011754,-0.20385704871563806,-0.220217782257087,-0.1936218782652332,-0.30225015231155294,-0.1604836680245253,-0.19014044267752245,-0.0864412823532877,-0.055791059582782666,0.1954006562089033,-0.03967032308912345,0.04067365724040005,0.15374301718924374,0.2501916100458027,0.022297667624930156,0.03565012216112644,-0.10287843981062696,0.024847445356449397,-0.039333405159764724,-0.014401930737308721,-0.14676143172923067,0.25837144769817744,0.07667665953550475,-0.086705163332977,-0.028205192272253165,-0.14285501814775675,-0.1494617828705792,-0.05501906633947573,0.16122879068048074,-0.15558524668166088,0.07472573196783787,-0.2629297690306987,-0.1223652295818781,-0.006042861301283591,-0.10904256226681892,-0.28144900743495016,0.0978614007649738,0.13413824455188203,0.02463738896286771,-0.2576374077190052,-0.177684862054115,-0.30669006428772433,-0.16421540905795676,-0.2699857091775047,-0.02438762748032653,-0.011684184559086883,-0.08904042812434547,0.08969009609059331,-0.21648222008488782,0.23943888110993902,-0.15381501702292083,-0.19298947249031814,0.18112705099345866,0.10513623858633593,-0.15567288828323209,-0.1832790505496154,-0.09584660158419121,0.01260360791134417,-0.08777088073892585,-0.15974259329134133,-0.242305841221337,0.16876835142476806,-0.2692110699011993,0.19261610305172058,0.014798909081283692,-0.10075453364962339,0.04654464488653397,-0.2223192222546166,-0.10761162335761744,0.16669552168788548,-0.1662490863888543,-0.023594310325927237,-0.2743645816171438,0.013083384108646595,-0.19171506895723958,0.020620374165242605,0.14048307160967377,0.14853904641007315,-0.09449070404178302,-0.23264277660716523,-0.15373912330541065,-0.1607693907572173,-0.2193075887581136,-0.061102921130729265,-0.018676074152430666,-0.10144700140679334,-0.0725928286343796,0.022300544583837983,-0.25055772215408817,-0.14602646206405767,0.0015958862554874159,-0.11399570539440058,0.008573422426066582,-0.15150276130870444,0.17872313242610358,-0.07852405841073878,-0.19204534348108848,0.14055815484684223,0.20121659131588962,0.2447122429296476,-0.00957367890575869,-0.09579515315341008,-0.2330225123870807,-0.09306887811438942,0.20052698802477986,-0.1547012253876895,-0.03415806654909618,-0.05026179151098533,-0.18898504202716324,0.0011912780840246117,0.049147275673062464,-0.09612238532443809,0.11845525164597671,-0.31403631149571504,-0.2036106916516092,0.06045797756251822,-0.018541123100419634,-0.09480903297944282,0.11698066836259641,-0.03709875780135737,-0.24421671617499688,0.14180183674797023,0.23103899993453078,0.3712031711176956,-0.02202747116934907,0.039946781650437434,0.024738059946489626,-0.026751387302164673,0.2513284824324087,0.043769496398620676,-0.05225240342941745,0.28809529000639533,-0.2152277539021145,0.20460526883086605,0.09606299062989872,0.08759830245086347,-0.06891959351676609,-0.19921957098711787,-0.08201123234477255,-0.21823738818345345,-0.05839654510505335,0.1308212734225744,0.14270095849354875,0.44168157688349224,0.19963910337666183,0.07988707144414303,0.1605586746351398,0.3096321177789349,0.27523178290315536,0.2533057943794435,0.15141024455391736,-0.07584907964365364,-0.20497685423980927,-0.03374684026546507,0.1545796863895049,-0.06904191756707524,0.19791782413989753,0.23065760657671455,0.13665652209539883,0.2036980462279978,0.0350301940840627,-0.2317883163870451,-0.10629213688150975,-0.21942321664337872,-0.004707092141474792,0.04422065596806563,-0.0633617264602824,-0.06776554575450151,0.06636645678187171,-0.1572187666535792,0.0602634983958903,-0.21743908838933784,0.06724462114893175,-0.20061137786240074,0.145055679754236,0.170877372388048,0.022126534075955474,0.17686806841895175,-0.09872040052301312,-0.12900857188395268,0.13785964009424065,-0.07179856419922254,-0.2192660344575546,0.02025701735855918,-0.08012798083613439,-0.10240692232746454,0.17217742570883152,-0.04966588482367659,-0.18830464982611314,-0.16963923831244196,0.048599247633983766,-0.1362366433589838,-0.02594154901206713,0.17160019519858488,0.2353017027400723,0.2131771705994095,0.278547726632459,0.0769961259632405,0.15284365709505965,-0.07103419429217192,-0.10505148077373928,-0.1763684490366431,-0.07738580259613986,0.34887286612406254,0.0976127515527652,0.25333692177609424,0.16639234124499086,0.2214069843921859,-0.026274506768255962,-0.06787545413322563,0.2387819799241048,-0.09366668133549423,-0.09134337679635253,-0.19802424922866352,0.035716174380843846,-0.22260980577041742,-0.02669660025132792,0.13640579040337125,0.15884153204020318,-0.01612314098771073,-0.014015933524973056,-0.08248079417996977,0.08705101393532139,0.22768945876586047,0.00923253608647608,-0.05416140080610755,-0.20281815219679095,-0.25349411145900325,0.14345344746826458,-0.023883984971118093,0.06991749798688347,-0.1870915592801068,0.015709158617086487,-0.03812120484286547,0.013133676410933494,-0.2046498670503185,-0.3514954171585091,-0.2554120157874799,-0.2489635755746478,0.15324763349908038,-0.13860047456297914,-0.09515584753258256,-0.21964343311943887,-0.16924623669681144,0.14027193369969473,-0.14938917627979856,-0.19532265081255956,-0.1187916229898285,0.21051703089149548,0.13508651220900555,-0.16480379246581547,0.18000795702484151,0.21114668938795453,0.14959133609977712,-0.16856792972869744,0.2025520909340897,0.1882835109861203,-0.1857526737450141,0.1272880466274993,0.18217212512599804,0.09049538023976285,0.006348965111834485,-0.08938045751500306,0.12468180337296368,-0.12445923739956012,0.044792818455684925,0.13931691410710917,0.22348307824296398,0.18273179295909422,-0.19332107318745553,0.21243923192710115,-0.05797154848154447,0.1051102329241674,0.08276545293075543,-0.00879228777603597,-0.04134178232771204,-0.02539372520236259,-0.20356228187518213,-0.1455427848081575,-0.29131112652560615,0.15653624005323524,0.024495465105472517,-0.21780261806007764,0.16695275052719163,-0.2494716375564116,-0.23407928104645645,0.1651246387512699,0.026471598827637163,-0.04336339202626108,0.04555714596631319,-0.15243648970618817,-0.07426867869537493,0.13349222862586324,-0.06524168525901639,-0.06321344256190699,0.016126676783912074,0.014090341750571807,-0.12185041033402329,-0.09686901477215273,-0.05178320085348045,0.18548792695966398,0.24044802199622092,0.08599873668039558,-0.1532487188759074,-0.1337446738202059,0.08421697381973103,-0.04524347049564071,0.23667102102408422,-0.06974981765862959,0.19410591792677734,0.18684793280459952,-0.18822915362668968,-0.17254771204859856,0.2028060122145919,-0.012522620792104186,0.21275361070394774,0.12451084220806506,0.22757332263663937,0.018957621443251405,0.018756019789477406,0.2535184349646675,0.1859566249945067,-0.0009198609101271343,0.15746314365399522,0.2284433010233376,0.1699032627852509,0.1370561069354706,0.11253590400586375,0.18442846322657228,0.08632309683318967,0.11208938206284139,0.18254774006267385,0.09510947783901495,0.1888094186113812,0.34992977206954334,-0.10286665217886662,-0.027833784106921507,-0.2157018293666396,0.16289995892389458,0.2507081710558054,0.06157489424143619,0.023316141607430303,-0.09508458434099097,0.13141996915252793,0.22125563411935475,0.21499263466230556,0.11046084113531543,-0.25502024493763986,0.13828691679850108,-0.042374984185829925,0.2619650929216854,-0.16740594634309738,0.018754853039931095,-0.170064934230817,-0.05075195237076773,-0.1615184295991683,0.11313530688104097,-0.2379500588621939,0.32832319243473934,0.009852336006868257,0.11733694660563383,0.15389352879019935,0.015341835338666957,0.28653132222003486,0.07051736684733596,0.31775278297106474,0.1170543008165566,0.16272101323820243,-0.10025252805146952,0.10383036206574398,-0.2113158050208527,-0.15451358912338511,-0.266375014729492,0.16694256506217603,-0.05606608447296755,-0.10186540707689726,-0.19406993284456156,-0.17594881539285928,0.019190643098362364,0.15978810617872347,0.216969167761139,0.1976690708700634,-0.016169329864360364,-0.07874560811890406,-0.1908868792385634,-0.12565433158244868,0.0037173117305348948,-0.05282200703988372,-0.1795185737531032,0.027801268270166345,0.16270795722229622,-0.26086719889948246,-0.18422067609532058,0.05614826741820586,0.14973917652383065,-0.20208131301474627,-0.2660831675036772,0.18600619128578774,0.06315674752385352,-0.14484744044608197,0.012954997182857902,-0.04325628835992898,0.17067592185778882,0.09001549647558107,0.0013257851432335833,-0.1900905972652266,0.15815707295244694,0.07503793993702891,-0.1777820280772471,-0.03462618565278079,0.17364790893049564,-0.0653887610465492,-0.12260834675887503,-0.10465316208923821,0.1622605909796403,-0.09008874801100457,-0.07224175057229854,0.17376195137582484,-0.12452199135411128,0.03441981829214545,0.3264512433410043,0.22055506344065562,-0.11285657435879505,0.27205292290869626,0.12835895725868568,-0.10948265942313568,0.21278123196785245,0.2545543127749352,0.160177026442596,0.2368848142363931,0.17649109661084997,0.04456665634830899,-0.1950096525241413,0.23387774515946952,-0.12396424002932582,-0.22997372378939868,0.16454111900859192,0.06307077222059067,0.008004767184697061,-0.23087817829499976,-0.21979598071379117,-0.14582548842330095,-0.10107089283927087,-0.10596303242780082,-0.097122705832377,0.14925995179543639,-0.18536533265415556,0.04976012705285801,0.122022847900786,0.034411760597570756,0.02845098915143938,0.10453217339063159,0.027751319188250384,0.17439549620711942,-0.11714205721291288,-0.04892001144643997,0.0002704324146944769,0.2449776018039831,0.15298909154669518,-0.19650513609296286,0.06325768893274802,0.21998227901049,0.23141390120542268,-0.10276186698848079,-0.06872181806377066,0.19949331076386076,0.2288496896488018,0.20206315204543546,-0.04770520541688529,-0.08475043035511391,-0.03588812751991669,0.10767584737307603,0.20054719499205143,0.08261656651049172,0.22439969556124503,-0.17696731575540092,0.06667045846299607,0.1358390983040914,-0.22145215159412376,-0.16914828691965267,0.027332535655137727,-0.14626588908244656,-0.12522687898648632,-0.18307098061477034,0.10400946314799053,-0.0408173068201179,0.01800653608867095,-0.20583237735842058,-0.07420520234323383,0.09623711819193714,-0.10886110155686168,-0.1357826135201939,0.029201057030739403,-0.15780864106278125,-0.11933424280276475,-0.04283765012470525,-0.1472805924135496,0.005571704954590983,-0.07099171029574124,0.16845344650193067,-0.3031008868332163,-0.04425031488066621,-0.2504483888293005,-0.2321494277001852,0.07687888725541601,0.19608549807741152,-0.006781220226048151,-0.018928940463301104,0.20153001358386496,-0.24372613225222556,-0.2124093268970609,-0.24052851375730538,-0.017696317572399464,-0.1655785909460655,-0.15645298999630847,-0.039235254630182174,0.008281357657477945,-0.012425235291997652,-0.15795355955117643,-0.19693771935899834,-0.06546935286907994,-0.07863803842750379,0.04348421591124666,0.18105445114013738,-0.17634034881948446,0.05047871180616403,-0.16113169241824707,0.03771036539542424,-0.23924191294947425,-0.09701303231281967,-0.17794482744934956,-0.016077383163415802,0.24492282539589194,-0.06435331396419577,-0.19993027874102018,0.21348553153363473,-0.24395181276154118,-0.038794820467914486,-0.0984717462391853,-0.22189456523604797,-0.08654864215559667,-0.020874748874905424,-0.20938596046409502,-0.022958702388505305,0.08330865478266963,-0.2050255899509523,0.15567086253179754,-0.044772804179939854,-0.03674397195793378,-0.17370885236248101,-0.06149609381643227,0.033348344354289516,-0.19674861758703438,0.06609849793419317,-0.06604144578253696,0.18710973182968874,0.17948014325468947,0.2728786077994994,-0.08478107602213958,0.11639268688162499,-0.007886468391023919,0.2637473450633166,0.28641116682607626,0.03561769484707091,0.18710276778771856,-0.08581758745323798,-0.115888082281496,0.003907459379204829,-0.08926569704801794,0.0851260022099528,-0.08398851964749866,-0.07853910384009477,0.13754754532284763,0.09952660872161834,0.1923193334707586,0.3843192302143733,-0.09755359908097067,0.3954796760627979,0.08803526797051711,0.22231439172831471,0.09712107878006802,0.17415512735903235,0.12538589335571232,0.18173854410750723,-0.18513965928981344,-0.1126256842150409,-0.31309880599350987,0.07845709007555257,-0.25628422628694286,0.12382345457949602,0.027315824733562238,-0.2630064033168279,-0.11692440677596992,-0.033050547154619685,0.17582536487359687,0.06777051004585187,-0.19086789399112306,0.030955593594746034,0.18001059287294466,-0.2693686343173013,-0.1892569055937798,-0.13739987700405695,-0.18101030478893818,0.06727916948833194,-0.18621732511962633,-0.0811167894122141,-0.20596266895295792,0.07722672628896499,-0.17760987702408382,-0.18978811724265074,0.22478971571600367,-0.017110585536463666,-0.07442435536760887,-0.18219552308905396,-0.2534006402700735,-0.12643573562652052,0.16864853359944526,-0.10946954902816725,-0.09059778214378311,-0.04612776098693236,-0.1425332533626419,-0.1500457373382115,0.19439755776264492,0.1283286900089686,-0.02710942469092892,-0.2116187246831446,0.12185804073567481,0.13732137305869055,-0.10305742390286489,-0.2209600428577749,0.20023775805953903,-0.22244971939344435,0.19810022830516325,-0.16988652720260805,-0.11366381542299864,-0.15835588799811148,-0.09192528266191995,0.16839130007698896,-0.006852011641500288,-0.0563449968984963,-0.03258054627032776,0.008261554857740796,-0.181328004474662,-0.19505796152638838,-0.11951935174955833,0.17674134584403223,0.1461857908673645,0.0008664720326374894,0.1552778121513648,0.24589893068621402,0.12064358568599477,0.04334017995421088,-0.0603713030988191,-0.041188007526790325,-0.19371952896540434,0.06124535833652486,0.13996925177980973,-0.024658217490533645,0.1381291033215024,-0.24396358230418907,0.09632991695373316,0.05037269541587729,-0.08111421917083336,0.11174887078754812,-0.2330111742701956,-0.050056860224104854,0.09315474719053762,-0.1610525617229872,-0.06545882053577219,0.2851348612945746,0.1590969331979199,0.10299539356126967,-0.26882701654748475,-0.06769048031385352,-0.2456554479495723,0.08303831552381097,0.13122195982453344,0.020758881560869254,0.00948332614122069,0.0456148554038013,0.0575262183131968,-0.05845740185135528,-0.19124514640283016,-0.1148553763974622,-0.23528008752247856,0.16155697566606986,-0.022075197964388508,0.08971791257721759,0.1565078392363324,0.2189562093349452,-0.13308103288787912,0.2135180946346182,-0.18907796533029614,0.13648932463179722,-0.1271135834785601,0.003985866302970558,-0.07447892793894795,-0.2455271218503415,0.035556952087918696,-0.013414859445968187,0.20605326590507517,0.0082880616514141,-0.24933040408499427,0.07478570557824465,-0.14922049034483115,-0.13697734190528818,-0.15485273491217844,-0.13403851410752235,0.02576154385384516,-0.209066971696498,-0.067338497299127,0.05391474493733871,0.14844572168349157,0.030237281514799368,-0.10701120367144727,-0.1546909334203949,-0.20301552253395982,0.09682305332378884,-0.21537861896051216,-0.03667807364265282,0.18237408702910274,0.09144920397182019,0.18059751485427095,-0.18742671703928743,0.049842302922300775,0.21524422494432394,0.013937776382518726,0.05152332823874858,-0.005976704880913909,0.048698935729403724,0.1642882266029947,0.08010097105521856,-0.16036298435557175,-0.3080398694077402,0.025723763688119863,-0.07858976675303676,-0.22727761657645262,-0.023041683238376943,0.17947127332535998,-0.16615720079897345,-0.22509362240330744,0.12934381423315022,-0.1714227179203649,0.2878795635939029,0.01831324349571745,0.11576975433859732,0.05494563739739006,0.2103891786206972,0.3327392785645617,0.12337592934713736,-0.07957714737868607,0.08785604259261513,0.019705599504284077,-0.1175073416885084,-0.017616669721596985,-0.2080559470755474,0.011118959665701391,0.21057865492583072,0.19665033656716033,0.20381654091707666,0.06740216116591705,0.4631271309214546,-0.12276290750571911,0.257824115165599,0.10586848240151203,0.19989923032467136,-0.015846732641252033,-0.10542535619026566,0.1169626598170268,0.1393011759368478,0.17054248152136564,0.1807484823609163,-0.13427742067147813,-0.1204275543257173,-0.09215387518507047,-0.18286371730334086,0.1887720856952927,-0.20991914327244124,0.11987559810135066,0.1758648338061742,-0.03243115897394497,0.2234247818650832,-0.19506251521024928,0.11320034278639796,-0.14384061521759103,-0.2853722362538497,0.09791797504779723,-0.16593983888347535,-0.024437958200957483,0.01780353068661307,0.13121925381624255,0.1360437227557282,-0.02896260440041409,-0.10164864285550138,-0.1485803191588983,-0.30818634912113996,0.03288474543037745,-0.08017884045005914,-0.2569532600975397,0.07696030166480633,-0.08036121346300401,0.16167189810087407,-0.03644832043508012,0.06149525484601681,-0.16466588472657634,0.04917832079838623,-0.2539163061892066,0.17864917918738946,0.14092378543590958,0.043060390238281857,0.04265581419417184,-0.21721290157995474,0.06755716867392228,0.12005984817659587,0.14046444391048166,0.15103075684192493,-0.07356181374727698,0.003540601037727704,-0.04330621407947698,0.10320350576512363,0.10525028222250013,0.13091323223093757,0.21299114173651937,-0.34364679659766145,-0.03282409733675159,-0.16495009196632332,-0.044067781366079146,-0.1119852319984368,0.16405503717117456,-0.10873233410101274,-0.012034177845763577,-0.18189950159616686,0.08865958594408316,0.18627652884709847,0.11757189138909743,0.15670281748251844,-0.2734561085894914,-0.25996450488004647,0.19943702750154887,-0.14251426547089763,-0.20593179712809406,-0.26782208326725976,0.1536661612856507,0.09584434624307282,0.13966144097400443,-0.13815780033919425,0.04827488470699779,0.06137737672584671,-0.15963209516606694,0.08988966588807736,-0.16755885152413388,-0.15242367109262592,0.13758831435523808,0.14222944727631942,-0.21421282249743037,-0.22389374510809368,-0.2111156600402756,-0.3275484451399988,0.021170304919767086,-0.022866886010612434,-0.26824006149025326,-0.1332774724764037,-0.22594857213407643,0.09417055200151599,-0.06489131192247291,-0.1521759126366481,-0.05729495630425652,0.13678876486143812,-0.11364920630520943,-0.01268309179268876,-0.1411795447652851,-0.14980480804809315,-0.007166861203606379,0.17326449804678498,-0.16863233668741495,-0.13068850910770155,-0.12179254283204959,-0.1399563636249187,-0.042974667035718395,0.23376073763644356,0.015043763814023496,0.15577562127669897,0.012194631573057491,0.19399937457633665,0.1369432575410647,0.008604480177240198,-0.22305367097192813,-0.02252317376671145,-0.41325442783110683,-0.25938996781010687,-0.1594467270123163,-0.03691469358064415,-0.3395261262843657,-0.053501366095286086,-0.06537783877149636,-0.1692376886438745
biasActivation=0,1,1,1
[BASIC:ACTIVATION]
"ActivationSigmoid"
"ActivationSigmoid"
"ActivationSigmoid"
"ActivationLinear"
