encog,BasicNetwork,java,3.0.0,1,1399533479542
[BASIC]
[BASIC:PARAMS]
[BASIC:NETWORK]
beginTraining=0
connectionLimit=0
contextTargetOffset=0,0,0,0
contextTargetSize=0,0,0,0
endTraining=3
hasContext=f
inputCount=30
layerCounts=1,21,31,31
layerFeedCounts=1,20,30,30
layerContextCount=0,0,0,0
layerIndex=0,1,22,53
output=0,0,0,0,0,0,0,0,0,0,0,0,0,0,0,0,0,0,0,0,0,1,0,0,0,0,0,0,0,0,0,0,0,0,0,0,0,0,0,0,0,0,0,0,0,0,0,0,0,0,0,0,1,0,0,0,0,0,0,0,0,0,0,0,0,0,0,0,0,0,0,0,0,0,0,0,0,0,0,0,0,0,0,1
outputCount=1
weightIndex=0,21,641,1571
weights=-0.3292746880177639,0.4826792256019641,-0.14154059415834983,-0.4932464090169326,-0.15063002747696583,-0.6050111007448246,0.58020747042608,0.7020231598853384,0.10940500941723363,-0.5130830379768245,-0.4371060103312319,0.26719030889244,-0.0937010765032092,0.15492337124745223,-0.30712567515296385,-0.45036400960713663,0.3970487394933273,-0.3761086991938775,0.39504228238093225,0.01716572629947841,-0.03726715592485896,0.0676824791327233,-0.19045476435781367,0.20953614790125033,0.03815685477873586,-0.1748360709732256,0.16724137304634504,0.029472040726071427,-0.21527384125679583,-0.20222007030924308,0.042952444947924134,-0.1000278061135455,0.11335935012814186,0.2616750203954906,0.08266855643953828,-0.11144829330669273,-0.054128374759768255,-0.08905018295809956,0.13141051883483884,0.030605653510501242,-0.14317905855803217,-0.17204283373807583,0.1713254015875661,-0.11692047560817129,0.15092249573838945,-0.18881566082918355,0.028719535941925407,-0.28399908832506743,0.15410151791478266,-0.2061929167253566,-0.24903676457075138,0.05463957896227634,0.2949591316903732,0.20315167355350705,0.07971072320625042,0.2548607957211919,-0.1048393056213797,-0.12167905241003829,0.11046173382130406,-0.07402858582751358,0.19626181887000213,-0.21650920594512038,0.0005541911247271893,0.07811900280821188,-0.13501610173730788,0.029413654733484534,-0.20939694668747358,0.15326738615175864,-0.018750746273008916,0.11480099340837661,-0.014308272003714451,-0.02657626327782246,-0.258093511125387,-0.06566745557945966,0.22594601368500394,-0.2845054823498673,-0.2576241224556125,0.21940838580948752,0.17815394921513483,-0.1356863518105478,0.18289629618403655,-0.07055091245566307,-0.060736125124783,0.14689495138893807,0.14583868035179803,0.26701791058654323,0.038324445323148625,-0.17375495353866074,0.06478410843325937,0.24346526065809163,0.16929710375742524,0.022302579110945887,0.05331665735524623,0.041106141054623735,0.16493600725905586,-0.22108305030795708,0.048109701866349566,0.026653843588872635,-0.15395118440204356,0.09013418715433212,-0.18174081981262985,-0.0482063806224288,-0.09139938255798268,0.14057288787482583,-0.06270368037407138,0.087837294739755,0.25615341903578576,-0.09908888635128388,-0.25357788236594114,-0.1356058770469178,-0.05082645477334798,-0.1815831121085023,0.15883525686861313,-0.14669754480149946,-0.20836344102463866,0.027324044367232396,0.11386549048830251,-0.1798179635263301,-0.07942588470646518,-0.06664379452787877,0.06847735809421286,-0.2199064739042877,-0.1578644968740464,0.1742222955954229,0.024810222097401358,0.06470228868225499,0.13557166100180992,-0.024057366341319476,-0.12248400704574519,-0.32935631227367995,-0.29171050066651194,0.21015959179130028,-0.14731643915201148,0.2708021998441405,-0.1223091371695192,0.15678288081015007,0.037832029926504855,0.18689456819796227,0.3374421530465509,-0.15619017374550795,0.16616810346262847,-0.04029801700193499,-0.01643273937342777,-0.263728206153031,-0.2023452540601043,-0.034732698258889486,-0.14240116031328579,0.0434982192282388,0.10439704597722534,-0.21309233393763072,-0.20323977649091843,0.08147975154169236,0.00033122485673969164,0.19516088549210184,-0.02291062823927847,-0.2136559137001163,0.028174162427209746,-0.062407094292306606,-0.0937834866336766,0.1063278519466549,-0.028739029648516167,0.1668982008420444,0.008508668279908881,-0.25768194777878023,0.2175866227938777,0.10266612633921372,-0.006476494252153915,-0.216021929460803,0.1613612121891546,-0.17201287287171518,-0.1535121573028277,0.1776659562518138,0.20386851576278683,0.0949763302008681,0.17628159077463654,-0.08995038503236481,-0.2523247809791151,0.013548046859768426,0.06789436112946987,-0.07022106677446259,0.17290978716688432,-0.23769875709325988,0.24060127322763736,-0.23036357037888724,0.07549078991447379,0.24751816102403712,-0.1129493247833317,0.11970382780238868,-0.011309749336562093,-0.12787323328838673,-0.15390971803560638,-0.2582300484802266,-0.24296657121616275,0.04603485991376065,-0.23711191946138566,0.19396391199864615,0.31363525981288726,0.0911807411286859,-0.15955906185899962,0.2724854298539483,0.26947748649647263,-0.23298732901859254,-0.1610529803098259,-0.08878839411538622,0.02434723251595816,-0.2465729334367595,-0.0930175161852522,0.1948369854918553,0.1366423368308094,-0.04095833484052475,0.3181915039227861,0.27687048581848395,0.11243602062551569,-0.06429205486732421,0.023558617099804346,-0.0349812253140876,0.021677468645105252,0.3230170735274927,-0.25220756913302084,-0.23657334247009135,-0.08271545147480767,-0.23104718577046185,0.08142255606543877,0.17963907432572862,-0.153792834419122,-0.03205553240712407,-0.1729765672297327,-0.3103778089558268,0.08361841131981702,0.28205957757912864,-0.24746405495818774,-0.018232456541496654,-0.006328877528501824,-0.04076760635886914,-0.051550848186224636,0.24248380203840766,-0.1205965415483074,-0.009570075529682386,0.10109091515089957,0.14004683609176674,-0.09615024347665505,0.0657297393794844,0.13106593971309058,0.2875652268592317,-0.19388806413916887,-0.07882753294862721,0.16442030205944833,-0.2184167911048923,-0.16384486209921884,-0.0474804509235632,-0.35537719078171354,0.027723608861850563,-0.060744712202091135,0.3504183605332376,0.2097510390087202,-0.003060647651094425,0.22714421879077518,0.13826708834633483,-0.27056154460822435,-0.027176180633815297,-0.12061349677975985,-0.13015470131501633,-0.26455521168146623,-0.06530265253429975,0.08212886709934897,0.2062573130949659,0.32912066030342435,0.33002503652742543,0.005904460093318415,-0.13815607431538404,-0.0557438793722292,0.2384858270865373,0.1780273992224758,-0.06074759247444445,-0.12997140648564187,-0.13336280109678716,0.20180904983702783,0.11468979497880111,0.12604144113688848,0.1333608497280844,0.08033023167023134,0.09080393442529833,0.025268595850908963,0.1064236083632741,0.14260611359025194,-0.1966836309620316,0.1536044247391042,0.2964365910730553,-0.02259849888881342,0.1045414864124882,0.11880301094068818,0.019282890597469113,0.04304607847091866,-0.05092441514055827,0.060327483529997894,-0.08804690201727483,0.20781086837548962,-0.027028660724874056,0.2959957093610678,-0.17680577472311165,-0.06274781477197264,0.04873831095743808,0.27252770320595154,-0.2614045711899149,0.03262474176546341,0.015173263933878146,0.08821443712781558,0.14641509013353463,-0.2582072908098301,0.2153552435018849,-0.038936526290143214,0.060904092470512386,0.10020298013563549,-0.0716361032519936,0.19563268633476338,-0.22017717953420504,-0.23686164407923244,0.022554633754478935,-0.17046609029054505,0.2546076853801297,0.1443947118671921,0.16923686736820634,-0.22749211030194996,0.15508892885823158,0.33186595543373365,-0.09281438702754385,0.15524789483812115,-0.14265406881474724,0.08319430754206905,-0.27037464737264594,-0.06530102650155048,-0.0311953981233553,0.22849160969560361,0.19344745169469227,-0.16334468073636654,0.16210919979558208,-0.17937207773062563,0.19466786309971412,-0.16646812387399598,-0.21072713689765213,-0.13503254660940003,-0.08128509953882342,0.2918572271935043,-0.0726967267048296,-0.1493448650415343,0.11443798132084576,-0.22486752392145146,0.045834186936996764,-0.01841418016889459,-0.2605980868531895,-0.20313092121756948,0.00697766059309087,0.3121470147388298,-0.16675861453170943,-0.05079652001865459,0.24278080428605184,-0.08289041947574961,-0.2137465081527563,0.08593396520869803,-0.12121823182338891,-0.12251470732342304,-0.07307892556873133,-0.15926199165144095,0.1502018737975595,0.006534101831515211,-0.004536193799284227,0.26189876363251025,0.0028757082125120976,0.038486951733468715,0.08790708138527513,0.1037145188666941,-0.12636785988717497,0.1320253819404955,-0.2251141910335207,-0.24987368255500708,-0.06271401924761508,0.09843206080672041,0.07091183157035419,0.061476342720570995,0.11093232846747687,-0.03316222966752747,-0.24299306638007925,-0.17739318299802465,-0.23128834397284864,-0.13079704532480196,0.125319602875442,-0.14875674580196147,0.16734083286804058,0.26082014322564084,0.19341684336801557,-0.17765702729261987,-0.1493931458274161,-0.08535155092825485,0.020554475794830773,0.0777858757503718,0.035404431305548816,-0.28952753915809637,-0.08687206299121425,0.2041973787774934,0.2569581424844319,-0.1260829080248224,-0.05947248604095678,0.05742692720149016,0.12542858819237684,-0.0005323586648391244,-0.01702720479482802,0.05994898616960296,-0.12034259075699069,-0.11227068499845268,0.19314814362070495,-0.2369062670049573,0.08881474762825836,0.12252832371767507,0.056821462894946835,0.283936309514757,0.09893467799086114,-0.12539234638774974,0.02760974710945919,-0.04766119283329814,0.09221951527771804,0.06881477388456399,0.16604882298807905,0.06371863688414592,0.2440329835545804,0.10947593409520466,-0.11132663648526268,-0.15140343935085618,-0.18686804295312967,-0.01152744340011086,-0.15986313143835834,-0.0735532498981778,-0.11652971817957834,0.09798087129463437,0.142193428329411,0.14342064461620527,0.2256407932207573,-0.1346976819004578,0.15587334306478487,0.007111028334012974,0.016653123692405358,-0.10290235147388277,-0.20628297124879888,-0.11717120236477466,-0.036781180866112255,0.10378868193586989,-0.15548000300505907,0.23225818703397524,0.023323954838771695,-0.252970141831061,-0.12880194765380104,0.20115218015094016,0.06353567924972457,0.25599096285544853,0.14793772939308314,-0.13988403540907005,0.03738160204970643,0.23935977369178338,-0.1155823659828835,-0.19109506716770136,-0.24510655303047535,0.13111251154570736,0.013593295568951565,-0.056294104788847256,0.03845267704513241,0.2655708575989049,0.056288015946243844,0.024193823144803877,0.009209309345151304,-0.22492310889747838,0.17204391577014966,-0.08328561811191748,-0.12277314603488303,-0.20519227172728383,-0.27885367143646655,-0.04290852972422952,-0.005116407304581927,0.27486640366832804,0.11108325580407512,0.054478556434042986,0.1368985692833633,-0.054201213834503055,-0.043385797708624226,-0.29033476627677035,-0.13724634283408232,-0.0825583508963901,0.23987810910402638,-0.13155425288867956,0.1584755021284429,0.038204584822209176,-0.31115189739360727,0.16668436958071373,0.15702318101149942,0.20344831015067374,-0.2374592040151179,-0.17345941650529345,0.11046080709424397,-0.021831112346786412,0.10847828549634633,0.054904647740315324,-0.08955403472468972,0.26718495510033796,-0.23588082628280282,0.17880709025431069,-0.0542972013459007,0.04141092530878846,0.05257201171717346,-0.0014543045939238459,0.09733532307284602,-0.2650323497820212,0.23774660753274646,0.2848067510206861,0.03769088945602139,-0.23676940827555312,-0.24941368967640443,-0.07882416362688974,0.06574158438134146,-0.12258695043507929,-0.027654219264008902,0.13294699164206156,-0.2606249447875721,0.19900986655104666,-0.03129921127299377,0.2714832597181602,-0.26306141535911104,-0.13138725826377126,0.10575184716683102,0.07035390228739465,-0.1731283009283029,-0.03869908925823065,-0.2422914451064651,0.22973588911003318,-0.23206996056646878,0.06185391443585149,0.15645786376778556,-0.11154752209779788,0.10732055885144133,-0.13780781879148615,0.045785376608615654,-0.28284560810353304,0.1543100055746859,0.03257746137712355,-0.0928065982861911,0.14980229475162993,-0.11248285581493074,0.21381742105784113,-0.05261910293868317,-0.0736034263377798,0.017379345728838008,-0.18177242862497595,-0.13239136791287168,0.1557254576147447,0.10201255244945681,0.1538419924897457,-0.050566478974103456,0.1176719523214014,0.025389381644715516,-0.253815872570711,0.09939652353788804,-0.024934929766078136,0.27943918454970007,0.19804532719889426,-0.2720993779730776,0.05608007218968967,-0.05993576145713466,0.06755913739432756,0.043156678962767064,-0.27272577172332196,0.14451221091355262,-0.06228032912115409,0.09270491039058826,0.17911831434781653,0.17939818282512215,0.21116419280539975,-0.28185461060735534,-0.0073370231027175626,0.07888232725385012,-0.30001850851885703,-0.1743147312309132,0.04243492750388573,0.09452687626536568,-0.03957190838658385,0.08752752313018976,-0.007875498835017413,0.22449877827531856,-0.18778871207653236,0.14365326935950584,0.29276416390364646,-0.05383734618875766,-0.08953133512259454,0.08766885130427643,0.06880015816214957,0.22932594662118572,0.0646859217127995,-0.21126669299888812,0.21782850442281443,0.13971148006334685,-0.25514008866103827,0.038152696512468956,-0.27990984828820387,-0.057818728825460686,-0.010001888562916988,0.10821040709095654,0.00002194221950905433,-0.10212239347251785,-0.009929859209972188,0.13046269889000456,-0.0723667241221814,0.3630918799535447,0.19868067608955617,0.005751170179492994,0.07131880382453902,0.16244674505423423,0.12070546832096202,-0.061050292537561855,0.17315060035332383,-0.1624646207392883,-0.1911481394921041,-0.19080228802999485,0.10908174950526028,-0.19796464494818522,0.17926225243228017,-0.026470718192239954,-0.22491708382736952,-0.2163464988898635,0.14921608034911296,0.009368793382163277,0.16117422441023702,0.03381048061936839,-0.08580430012768062,-0.150003788650344,-0.13172697546287093,-0.040146991019381455,0.022252954828198567,-0.02548517678357575,0.09435942956074712,-0.06738344559614745,0.07369612730744372,-0.18245254699958424,0.14326577543430372,0.1920975613854518,-0.11954013331736627,-0.10958466836455984,0.028254409786634554,-0.0923942739880314,0.25341643181489504,0.2325162137768522,-0.04388779584069595,0.15552113867419592,0.2864319444419662,0.20867477705853044,0.07651119366288041,0.20077763603224225,0.13114485528847483,0.1744705595087642,-0.14972528829147672,-0.19497033050629403,0.11403101332016803,0.08274599583776668,-0.20003225864638033,-0.16801985564552038,0.15972397506752045,0.17215608594357504,-0.08101888012409733,0.21302920748576548,0.3695424266682151,0.08937100312921406,-0.07646457781897491,0.19904960869792865,0.22818600042090603,-0.10525594325808212,-0.11058510433034983,0.003225958983170744,-0.1579216778562318,0.1781247319372042,0.006177438481105102,0.08006827921263361,0.045735791680827566,0.086300640056039,0.15816825031714746,0.15066387436448062,0.2181591098761846,0.034585746493619667,-0.16618558072004755,0.178518386927593,-0.18250731513155982,0.06379203612875874,0.2176291941493754,0.2145779171571978,-0.06771753703101162,-0.14643088147404335,-0.053649849183690514,0.22043953292332163,0.13696406761782826,0.12607115064757615,0.034879222588721226,0.027932695942283942,0.07961584188596946,0.19111050465141102,-0.13077297002210286,-0.11007728098347788,0.17964143283212533,-0.09764351085129253,-0.22316944167074895,-0.1785263582809251,0.08224187668738189,0.09375928736162688,-0.2813364374990641,0.20035372406645155,0.015246029615146357,-0.27890539196243874,0.03394404811980482,-0.1965644096483989,0.18385793089167002,-0.0902643110980141,-0.20591938466385148,0.1452538395935177,-0.2884951532991543,-0.05578972569472649,-0.02198313339992911,0.01919115423400868,-0.2228258249112787,0.09941146456497478,0.0016828708787351026,-0.23317015833678983,-0.1675438234590306,-0.028835648041933212,-0.23509129804745546,0.1952350131509314,0.09326111544061724,-0.011991581453791512,-0.30616984275968867,0.10047641031038505,-0.14865516164978101,0.07769494143813865,0.19043550375910762,0.26827771161493147,0.2244924886286733,0.16792925355909363,0.2553582430255497,0.2404090318836722,0.12339842950474124,0.22693257966155092,0.062074443115411444,-0.07765204896219655,-0.1471857051087174,-0.03151613124884596,0.06450004293471842,0.2258592666443346,0.1954750121279309,0.23529788451973113,-0.04190396402054609,0.18039403763305212,0.2332219341493302,0.1787625432149726,0.48674617212193555,-0.21445111968259925,0.45293516259069694,0.2178377809821032,0.23023539595559148,0.14737241623317346,0.1072928015835967,0.21326800475611202,-0.07556119854013843,0.11614232940797674,0.06764823641557026,0.154953374708567,-0.19554443401548202,0.17458475456730757,0.20518757078353,0.04391282656299275,0.23974867484944926,-0.10752075507573526,0.09091122171800993,0.11503533374638293,0.15266979282398094,0.07484047228830233,-0.028297936315872036,-0.07346032688422023,0.16005506017831037,0.02149272260502511,-0.18955779995491878,0.026275878033203855,0.22632616977729642,-0.0519519172117951,-0.15849470729439769,0.11856003427085868,-0.02007785959116404,0.2432311358987481,0.21620705859774605,-0.12981868722810905,-0.11576939638322474,0.2198558529451236,0.10484518588141054,-0.2100786211176237,-0.20080982696077512,0.0907480265441735,0.0170661711616366,-0.24559491700194916,-0.02490255230107645,-0.23454122413332745,-0.0010581286125543397,0.06717079702550487,0.2090095690201375,-0.15331237577995332,-0.1225059301496021,0.08060654838328461,0.15717505645669397,-0.05272956367155926,0.00015307730143083255,0.1620480396836661,0.23106362790744506,0.03012264731932532,0.2190377645100804,0.09454313512017665,0.03616051988553662,-0.010498199975409494,0.24292032111985595,-0.03983490474609477,0.01401305150016814,0.21700350002287855,0.02161538993912306,0.18362952501502244,-0.18480393781890556,0.08406713763294815,-0.06130632086132147,0.2010359133881292,-0.23800671382158864,0.047562485216515134,0.13841692838925704,0.048574641378428055,-0.15215806614073527,0.03467398672619738,-0.25921643732821503,-0.09106965824630933,-0.3176701787740409,-0.24446018442968512,-0.05136631593497683,-0.1563934052049164,-0.22102205275257886,-0.021952015187031437,-0.20229290064914274,0.14709819069100077,0.2151077443849626,0.026624978691661094,-0.14350279673393762,0.1495002313663071,0.06824937194010185,-0.447327210283602,-0.11392513248801965,-0.022462392321396494,-0.18081369653624596,0.1073457049050413,-0.13258459103408918,-0.05888395401340338,-0.39439439693803363,0.20363849801753306,0.11200521944067421,-0.049469878213665344,0.11110485631817432,0.2184572609706196,-0.1597802151322794,0.20279480794079208,-0.15433736263491848,-0.029494315119433602,0.2135232453376368,0.03807181480678812,-0.07536029164882921,0.15775185042837722,-0.055156585725695054,0.21327977347779586,0.005167220319099528,0.08361465425539483,-0.23692322751946865,0.21756034780185304,0.2479388447136557,0.1921831613466922,-0.16980367542359912,0.2423156532721486,0.007105456932287549,-0.21924691537101618,0.1898172356913757,0.2468635057444586,0.0264168023218531,0.03153677262356809,0.14107954353110477,0.1695340049805518,0.07456793862626053,-0.07385841251012848,-0.006980705050040225,0.20896632642169538,-0.12980454540255917,0.27441911213604603,0.1196615891757123,0.1508353680910335,-0.11903754922337434,-0.016818303809862736,-0.025521923103225035,-0.024910938623782623,0.08708791263496764,0.22731790021590523,-0.10432578235934886,0.2295463272479465,0.07279836606516003,-0.17801916967123974,0.24684924691595542,-0.044331116909435274,0.019678064770503375,0.2546391707058895,-0.18527102854290078,0.2678105308166668,-0.09474414816170425,0.27301142306205367,0.4035994397686357,-0.052006703491526016,0.22889622557469977,0.3455769293573022,0.17056256783757456,-0.023605046808019878,0.037535300697497075,-0.10032315171426258,0.11046891576172077,-0.2270843119315121,-0.3034018416536287,-0.21086247594309282,0.06060446856648983,0.06265870752655144,-0.11364484376663948,-0.2738251929284655,-0.18793567869094385,-0.13862797577028255,0.0685241995836769,-0.14646393980966368,-0.08881233655574064,-0.3043014848424236,-0.04230359853317717,-0.07233072409310139,0.11043485894078205,0.1627574427138704,0.07301285780317156,-0.08149731126649902,-0.2527533926635403,0.1585441825943296,-0.02840243853332017,-0.027444225752017517,-0.08870482463650926,0.06631288158082468,-0.17438784939124666,-0.4445283929086363,-0.009064502666960034,0.16224054319337314,0.20496164021510474,0.041948792184132014,0.0934549120694205,0.006038102718529944,0.03282508718467179,-0.05563879406948121,0.25877965757832033,0.054717602690298926,0.18605297818605127,-0.05208664291136304,-0.02367982263523999,0.2205817818244527,0.2153746238143373,0.18612487476947978,-0.25559854374207175,0.18215530574054822,0.21992274507097437,-0.14968147514871952,-0.021849461648903626,0.0856946464815213,-0.059877698412418766,0.08210792736061373,0.10041955736892412,0.17405062080462458,0.06581395772424231,0.229271724182495,-0.17063395255294414,0.1019438289633575,-0.0070574106165992995,0.07975056718364591,-0.09335223243397732,0.2112382112945944,-0.2973602492392,-0.25056840520907736,-0.04959352337140981,-0.2813297062734903,-0.17505532238014027,-0.2680936157665658,-0.17692011731342022,-0.0503471670948644,0.059474860869318684,0.08691271781247782,-0.24925682915691996,0.20046187166650029,-0.053893289230267837,0.16233850833141547,0.006276103549232457,0.09206398339637792,-0.09344689702994316,-0.18331096844567624,-0.2137552578422997,-0.09906128604025777,-0.2035931736987195,-0.07122546918251126,-0.19447662446759054,-0.38087690568743543,-0.1125330502195659,0.11636764347587099,0.02369672284177835,-0.20244423843329387,0.10551668032012605,-0.07610436869707585,-0.09440543406150716,0.06683076835563642,-0.17453739543744173,-0.34400579270962933,-0.05998395330755778,-0.031332034466026226,-0.07097157658498315,-0.2633677965991815,-0.03225181281558005,-0.10196046835598833,0.14570454936917776,-0.04496763352402966,-0.12051754559145804,-0.0737223527562277,-0.26881574077803766,0.143515145753577,0.20131197320102057,-0.14058217233568218,0.2019759033904346,-0.041580755486930875,0.12390697614240201,-0.15565858511399552,-0.12061632060216247,-0.4554333972265497,-0.3366778172243303,-0.2249917207204074,0.1474350721501097,-0.0820057799935428,-0.15662808812412918,0.14838018960036475,0.04923347250676889,-0.11517416112621956,-0.13784901822876047,0.18528729119443904,-0.024003725897082707,0.2596737942250836,0.16222952621935394,0.260223135525763,0.26568479752905577,0.016488528344186813,-0.18633522532790478,0.2350126872219467,-0.04162739422935591,-0.11720232540343088,0.1941048146391582,0.00792272617861964,0.024280609275870613,-0.10948470051396685,-0.043295255855991595,-0.1504514447977915,-0.06061467791170708,0.0364520600213934,0.18514166656177292,0.05387960045892296,0.23652533326269587,0.3522054838040287,0.0618321297651154,0.19074336033885608,-0.09838380908482545,0.049903906872944465,-0.16485115146671975,-0.09897583893861764,-0.10306384779776191,-0.059099364735703534,-0.14700254256475664,-0.2937922632172168,-0.197601271094789,-0.151281987942833,0.07991509767417519,-0.14140795127345027,-0.29315253045818884,0.12875048526650737,-0.08975482818101918,0.13940037301233346,-0.015400585740238924,-0.03889679199231537,-0.14632144059583926,-0.24553372643719817,0.033629190649071036,-0.08517067793627757,0.16607808099388693,0.009172912752322177,-0.2462437546387474,-0.062294000281281806,0.19663808954137338,-0.16604408382916303,-0.47268873064712347,0.1631916693579107,-0.13566195527799862,0.10548055333078336,-0.13578106243034727,-0.002390339343223742,0.057530611451415546,0.11620422613060527,0.16905945717148113,-0.08811655400677305,0.33555450972839646,0.37807563656069976,-0.12251495241621062,0.015290794735672901,0.06983731299309193,0.3795049176511361,0.2232386042261397,0.15554294467296548,0.29645127185329595,0.20331849703939733,0.25555695514059196,0.27829291833528186,0.10523059842213055,0.21832327425801848,0.09316455030628298,-0.1383742984537395,-0.22008652533059472,-0.05063232081786435,0.6248590837986292,-0.006772378434954738,0.4928923627024919,0.5517993335906778,-0.05887452818368994,-0.051306798450745976,0.32949355620059134,0.6508484797220377,0.04237990254313146,-0.13162370613273353,-0.21513638026262397,-0.10614858264983539,0.22282417666407414,0.09442117193991298,0.08449213778423445,-0.027311640199213887,-0.09328423592006216,-0.10590455540382682,0.25617678413957734,0.2209255221059472,-0.08962916077778847,0.2576820225132342,0.22723009666964206,0.048781652957188996,-0.017751911611674553,-0.17747622565026142,0.21908977001488011,0.03009099514797311,0.07468422739658193,-0.09782260861950104,0.14930052666438876,0.17473959292924052,-0.18326708306394116,0.015334180325698853,0.3482717773546683,-0.17477335111814368,-0.146041477960017,-0.04206570035202738,0.2277725102719333,-0.07277792739837681,0.0513495004799477,-0.1726262544465574,-0.12388265517765912,-0.0770715932541539,-0.21106252200697692,0.09724690027769763,0.055376181959314916,0.08530834048808572,-0.15052658701512492,-0.12580887141944647,0.16238868185710903,-0.20774914957517196,-0.2334951125033034,-0.2196499836330862,-0.10108949255568661,-0.12379870500592649,-0.22220570569625164,-0.10962079883425851,0.21578286089386597,-0.019713522004612346,-0.000467157906822232,-0.22278516938434884,-0.15110828284980352,-0.08196144343521665,0.14001573547854834,0.14739100148055578,-0.13245483436463146,-0.08418638100210331,0.13951959453340004,-0.12350429450501214,0.17707899865724055,-0.047286035506122676,-0.01966299105753897,0.10769752484635883,-0.0019251252614655152,0.0015191617458271496,0.3197290894794128,-0.03921685394972569,0.23461897282264302,0.1433449534245454,0.003752765247192683,-0.1688868882489954,0.17155775439991336,0.15357092559504196,0.0017093889471073117,0.24943785459623136,0.07426173484733128,0.05098896869814776,0.1010957464136094,-0.1659831116142561,0.09723566304300114,0.019960488184038176,0.052837084133501945,0.10963892757794562,0.21879011817479788,0.5143776135060849,0.1384490211701228,-0.20116057267034018,-0.01802277410038577,-0.12780405026530878,0.5008814903336415,0.1645725872028191,0.031673479548481376,-0.13284425730018254,-0.2953561348394212,-0.15560774775250752,-0.19929931597313885,-0.04433306041121024,0.12899977099392604,-0.08431409985105624,0.1480240625612637,0.05486407735980371,-0.1921871417284078,0.08930427618409215,0.1523312330786247,-0.12556814918245973,0.15956143515639523,0.018470097214278367,0.10056789571390595,-0.09022654032418069,0.06338950842895116,0.05651973863913156,-0.010666807991069692,0.005832188863731462,-0.3124095081969692,-0.1969928790385737,-0.07049129703599162,-0.33325393735039616,-0.18488520267134334,0.06188740356783175,-0.29882439904799524,-0.15438012029170786,-0.18929626605349978,0.10594776489916845,-0.09525605034949851,-0.0509276799271954,-0.1695924490920411,-0.24829403087845373,-0.008488482558318354,-0.0904948075148655,-0.04018013272284545,-0.19606694832102847,-0.2815475389745636,-0.0798722724502231,0.1279942618336445,0.12483120703217886,0.14019848669548873,-0.23329229404405977,0.04468962999936218,0.05322072941867671,-0.2167226384809319,-0.227543136303435,-0.20439940072793367,0.19111780796886663,0.08732534830696438,-0.21843606479426533,0.12545013345736258,-0.1983842658699691,-0.055684203043252084,-0.0693387299560318,0.11114116769071901,-0.22113198548812896,-0.42763906092930326,-0.14851523876346323,-0.20651248810233377,0.2015757792274358,-0.22402904390092981,-0.12432210857988664,0.08905407861242493,-0.15524032043259411,0.11256991721206934,-0.11807935401208056,-0.0708222185717586,-0.13668628170750918,0.14009189957861867,0.06791787444075997,-0.2947319178838622,0.21642081971582444,-0.24495453421192614,-0.2602451101637878,-0.2491108447528719,0.1749598081585692,0.050882488287718755,-0.1733496644218184,-0.08289497923041488,0.1743601055684306,-0.26600848723794107,-0.22082604055067115,-0.25916072858480954,-0.44300572831169555,0.07011223997795157,-0.10136562526193388,-0.2582153120847503,-0.25438496074109634,0.19071894264859315,-0.04131388610184974,-0.0959750932981404,-0.1070622058986544,0.0011841253075305863,0.3448116863501067,0.2412896493576758,0.11201526838569478,0.25978824404609735,-0.10341597740701793,0.006184977627225785,0.2234319032708616,0.17809756646753777,0.03969011520361235,-0.16823817217150827,0.05548550963634992,0.08032156534354785,0.15237736129126886,0.04688064357726548,-0.0844193699850432,0.05890119783265779,0.0944184631660322,0.05023673385289729,0.0998476192688441,0.16046847716762214,0.24825751036025717,0.1192480382946851,-0.14770887630818222,0.2647794051420287,0.1322856850590569,0.253355554178596,-0.16858407138254916,0.08071204362705757,-0.2262922337815977,0.06171610450514758,-0.22694018699795146,-0.2612046609461849,-0.28811869641510185,-0.15539562994283065,-0.09691061771444281,0.02246325845332947,-0.2234159928713323,-0.11842188453155136,-0.2141688056634317,-0.26223333241141206,-0.15275273716797375,0.12364066241742447,-0.3535767123795287,0.12990509343213671,0.1828679858112459,-0.18816837880827983,0.024984922393589844,-0.06249610350243044,-0.020203898313950634,-0.4811336317694824,0.14165938948249773,-0.36841842173706274,-0.31192365389318083,-0.049109328053037596,-0.08047637116717547,-0.2832322258989092,-0.5073807586830568,0.03691439748475341,0.026055938578013194,-0.16786117520062183,-0.353651954201659,0.03499955140699078,-0.28954188926958063,-0.020014544973777554,0.06937892436450849,0.026436825409492454,-0.20966873056966853,-0.4938805834707286,0.15333536985464505,-0.05271010791165035,-0.20645317440248698,0.07513182914278412,-0.003179255473595223,0.01844223228656244,-0.08051110203301483,-0.19569697808525655,0.012714269093052726,-0.013547953723316197,-0.14526345656854014,-0.009604640139878322,-0.6216151838256019,-0.2022850718730673,-0.4959443022062972,-0.3615828137471423,0.15942610199895743,-0.04243066623695496,0.09715815391377727,-0.5187904124646235,-0.28759653793941276,0.2100570370998521,0.05908922564937158,-0.05389293211537224,0.08119897117094498,0.26839423989707545,0.30425700637031516,-0.2386013175733636,0.112702645874937,0.19539439305457604,0.2257990862945884,-0.05133706838299131,-0.12881489073063498,0.3139751433618523,-0.09116891842268667,0.1333205123388187,-0.06708023233518448,-0.08858360755476474,-0.06893609048945351,-0.06112820273169696,0.12826000411649385,-0.022350639794471355,0.16758332925820024,0.20544284622442793,0.054242314631107125,0.24993104476273884,0.11334874872160296,-0.08322725160368387,0.2160029637000901,-0.1029216651541668,0.11865812526291399,0.2569834424597039,0.13291321239405438,-0.24794517983120323,0.1170659473368841,-0.1352984226617006,0.2586763755829502,0.038864248370157235,-0.2346005296316349,0.05357706688323341,0.23155192736734365,0.2475686423775172,0.11514829087170352,0.2209090164675637,0.0769640022849863,0.177981199929878,0.12733761284057463,0.2405735887130601,0.10615955428096564,0.013795013613379342,0.016426902924864772,-0.1376900057676953,0.20861365331402895,-0.05488252492321521,-0.07929374356209402,0.11791100070602997,0.20813713480363255,0.2992607994763288,0.12708208466081827,-0.06407776226727754,-0.08641945952440418,0.24724592879036178,-0.03944881364081751,-0.0838708383807352,0.05818813394667315,0.013115383644481407,-0.022798272374743692,0.2725151769635414,0.08959569325727419,0.01933976222279295,-0.22194259072016473,-0.08401001590190288,-0.057280684432476456,-0.1789854967474632,-0.2306537580572463,-0.165656271372799,0.02616460970596509,-0.14158218999275254,-0.017401363056372906,-0.0053821113429118935,0.004992866529952246,-0.11079221209076343,0.18553162162234707,0.20983910207829948,-0.07735892814752522,0.2371944007272907,0.24278659845217468,0.20828514236364293,0.2870266758334653,-0.11345681402887858,0.2546642080095162,-0.07422398234313145,0.1916352279036422,-0.013931333885140153,-0.024602693727533584,0.010669484733820567,0.06628061387540903,0.1042959205059366,0.2808820433986281,-0.050727268379078795,0.06578349139270094,0.24849728215882552,-0.05591923746695678,0.1102720340651315,0.21365309061499305,0.153742332489563,0.16740811452654092,-0.11208461504348596,-0.15708654918150627,0.20468027846142228,0.13077756418475933,0.09202245616387056,0.015526935853675651,-0.15971169104357777,-0.11104667775101752,0.16947872147876683,0.42621605214536995,-0.008338905863658938,0.26980721052449025,0.29824583302215446,0.15199196948921215,0.26924022972090556,0.24943600067063681,0.4086351826649625,-0.14553283592416796,-0.21055304352846224,0.1608391552867182,0.02877096653579079,-0.1915326589327943,0.2160122322170684,0.0941254402356137,0.08373267342427203,0.285501898464705,0.0014511480616656034,0.2901716570195692,0.26457371155052944,0.25702741599866585,0.020225939112106916,0.035386926912211014,0.0751969800189691,-0.11643464068507954,0.25136214025366316,0.018472698119296183,0.22229673984699894,0.16177755980027175,-0.09310762157587985,0.07710215866866624,0.35057036559230764,0.1261629183360454,0.11559718101519556,0.03702766662753,0.2331118384912608,0.03059485336750455,0.05351568168213068,0.2919877687205432,0.09209730857338899,-0.10825581456460323,-0.10584868181453584
biasActivation=0,1,1,1
[BASIC:ACTIVATION]
"ActivationSigmoid"
"ActivationSigmoid"
"ActivationSigmoid"
"ActivationLinear"
