encog,BasicNetwork,java,3.0.0,1,1399533477899
[BASIC]
[BASIC:PARAMS]
[BASIC:NETWORK]
beginTraining=0
connectionLimit=0
contextTargetOffset=0,0,0,0
contextTargetSize=0,0,0,0
endTraining=3
hasContext=f
inputCount=30
layerCounts=1,21,31,31
layerFeedCounts=1,20,30,30
layerContextCount=0,0,0,0
layerIndex=0,1,22,53
output=0,0,0,0,0,0,0,0,0,0,0,0,0,0,0,0,0,0,0,0,0,1,0,0,0,0,0,0,0,0,0,0,0,0,0,0,0,0,0,0,0,0,0,0,0,0,0,0,0,0,0,0,1,0,0,0,0,0,0,0,0,0,0,0,0,0,0,0,0,0,0,0,0,0,0,0,0,0,0,0,0,0,0,1
outputCount=1
weightIndex=0,21,641,1571
weights=0.02040808390219372,0.05647703831863601,-0.11000939532970111,0.14154866220385687,-0.018609298618432527,-0.1762743806576072,-0.09622460664741732,-0.37127485323632314,-0.3525905554694352,-0.39537558918244253,-0.13435931320293482,0.25168948567608457,0.2246298262976576,-0.09338612533550558,0.2820681867785986,-0.014835023462010542,-0.3744398152145095,-0.20179660158983032,-0.3532461203536425,0.14395705720815494,0.18158724869661422,-0.020247680756305213,0.141713346806931,0.11113753404175865,-0.044479562885892075,-0.0874117935807066,-0.23753769467740662,0.008544026092383425,0.09314388925895355,0.09581076681780955,0.21720987190908644,0.06985581086664432,0.1906890165506269,0.24163742778043426,-0.11638053307719871,-0.20631294602264696,-0.027454125144385295,0.033918250939431634,-0.14991086353101044,0.09658354333199835,0.14915323752286824,0.21656323413235826,0.18877355292749878,-0.039225367270410726,-0.24293181945709844,-0.02414450129257013,0.13950179119756145,0.22983754227102457,-0.026716037016068728,0.13710494485581243,0.016549462070046084,0.15479689786154052,-0.1838501505462686,0.045082199099026894,0.09925892396808728,0.19640685922841855,-0.17101098812153961,-0.014950127194607971,0.1857674252670762,0.0786744405764225,-0.0011786395205735135,0.2690594876793084,-0.013695818788281633,0.17716951829017946,0.06470002857790164,0.10518832204173595,0.14747869455689544,-0.17523093274283283,0.15035662336300637,-0.10867506809681565,-0.1932162048270652,0.0018381446758614511,0.05866129546108278,-0.16115387235738277,0.03783624718641817,-0.2301212188580462,-0.187727376868192,0.22797295476005244,0.08301109762599487,0.11887721437488706,-0.0077684639836791795,-0.044660900799594415,0.21153950382825945,0.09749247416264203,-0.2267683216495474,0.13326034332867656,0.0942066286932235,-0.13599409415439873,-0.21533236439130699,-0.1325414226591525,0.191744402386208,0.2296243700827905,-0.04586752111861604,-0.19939667345706394,0.03132958692867845,-0.11276267236074182,-0.2226553698741387,0.07100375306752015,-0.16063244753957576,0.04572866464660692,0.12072840343547206,-0.021965024978465385,0.0056158836380066635,0.1979537491988222,0.17840426789292863,-0.16165545274678955,-0.05534806705068871,0.17800490829268323,0.14762111922497997,-0.21139317582104877,-0.050845900614250136,0.014153775984402964,-0.1649010445360954,-0.03036922387248446,0.22670657398959215,-0.13625779999793888,0.19738636394564324,-0.2020305165616112,0.08541660806306482,-0.07849517672228251,0.1588920603690244,-0.058907181500118456,0.10175415040940275,-0.1899786945631245,0.21596005122412515,0.05571869549775676,-0.19834552479394857,0.09448661123877947,-0.20225016808146068,-0.04587380207743126,-0.11840894504516855,-0.04823957847844401,-0.15161179412391174,-0.23576419423022016,0.09817104220032775,-0.09866655808016105,0.08755275943283777,-0.0768950611483133,-0.06637104495464571,0.021157928822587838,-0.15771739220446107,-0.18321408071523757,-0.1879271346926033,-0.16919743127173553,-0.019215874677771454,0.11855560649904005,-0.21856468869981466,-0.08298985055028983,0.1612511441519725,-0.1631811825784711,0.07387342598516762,-0.037582439053822865,0.17573761607466892,0.20119803355193877,-0.18502184691595872,-0.0344814250532379,0.1390803374315025,0.18168471567806463,0.05198056497040984,0.11171340623099475,-0.028836037757432327,0.03206663156789396,-0.1994199771420777,0.1811734186387499,0.16505049093227214,-0.17994773759599722,0.13346484916763363,-0.19511526926465275,-0.17889830386618766,-0.06736502484613029,-0.023595683886517577,-0.027482598422428547,0.15873861796668337,-0.14624367831129195,0.11670641959152056,0.20720557574274143,-0.05494480225840077,0.2212915916836164,-0.0603728334652226,-0.13609255072165571,0.21785896801555413,-0.0010250216637448216,-0.22011983905612043,0.2022017191416166,-0.1729945839875546,-0.20305113591336302,-0.1334389832777144,-0.1833858657511224,-0.13579960504707672,-0.1861842861664079,0.03242135625443887,0.03334618328112313,0.19060694306794043,-0.08209716754042161,-0.05046004996942529,0.12739160611576694,0.14159938430298988,0.14991913735753198,0.017749802255531646,0.06727557924983067,-0.01870875759652587,-0.1309226993477882,-0.07912593647600068,-0.23398047543108014,-0.09831610819201597,-0.1863923011161074,-0.06687202956110312,0.02555361540595787,-0.06033833010621677,-0.039424975889505616,0.22611410307791793,-0.2242624096853942,-0.21781667809095043,-0.01066062736280365,0.06909338491984976,-0.2189657111687878,0.18582243189103417,0.0007001744355541763,-0.222146525206412,0.13651238296730062,0.23756183565413963,-0.014075656143598757,0.22684004928212192,0.14809125671490792,-0.10046339492743946,0.1476923469461283,-0.05661834191417926,-0.09406361432438913,-0.02315526321045627,-0.0882382715275702,0.12845836410899328,0.028002578360322702,0.10659709104249003,0.006432756140803891,-0.18476002828340043,0.04290039729385462,0.17781063527775737,0.2213795097010628,0.05870841105466668,-0.030287789009242387,0.031028790369420068,-0.07510099104189015,0.07774379596493353,-0.24032058792394292,0.10201113712736518,0.15797081273280336,0.041624630541912955,-0.1460072686237018,0.1480236220393564,-0.06931719401662621,-0.23389395548737066,0.006003921771726949,0.26881086907265805,-0.20255192767383812,-0.07360704205989134,0.05391659861932033,0.19513130811808896,0.2558579783553885,-0.1622793425301524,-0.21422059403967622,0.23164110927939582,0.09994004921361217,0.04659477574440155,0.10618336999542805,-0.15378243062397343,0.1188383366297667,-0.20303961914371832,0.10215874805327263,0.23126839114506906,0.04301758330875142,0.18602866815338978,0.03713767323571943,-0.022321556286801505,0.008230310272505065,-0.010934090132597179,0.2693769384226379,0.04773953295804652,-0.036269722069008595,-0.24487491082343352,-0.046213211582669646,0.1622032663907083,-0.08804483692779187,0.13892533120464887,0.1044489031487053,0.16520901029565319,-0.20319477590070245,-0.1776073360855136,0.1540151986677298,0.25142347552245714,-0.10452655719164984,-0.20701239525660617,-0.10368634017195434,-0.0016680943740966729,-0.10912787930232701,-0.11722586502758126,-0.24761210975860187,-0.0672260223457182,-0.18525517799614533,0.19540969025862662,-0.10167824768112331,-0.038609048019713495,0.05908953745165983,-0.25456091079182147,-0.08454899519272616,-0.1127412477847244,-0.006489466800238365,0.14035376703382235,-0.01164568447904539,0.28663148134592387,-0.24632277334400285,0.17794232191596887,0.008656447986932233,0.035550842973114616,-0.2528070191940637,-0.07363219152537302,0.017538280715370436,0.026470295428093062,-0.05887072955018874,0.063753309844688,0.010354567017410643,-0.12287004680465806,0.26695362731552724,-0.08066445262133705,-0.16458955762226585,-0.013730113621350508,-0.0311805120689396,-0.06003856755030429,-0.24389716398637148,0.08104242234877347,0.3923653677892389,-0.10135010610857367,-0.2586955950309798,-0.020658352201338517,0.006133487822133439,-0.11495494571331714,0.25008126958941573,0.018853941275685602,-0.1326670477413976,-0.07559564773596097,0.06348986995272617,-0.004712579119874646,0.3032036701381037,0.18831984607107838,-0.014925698642823036,-0.16662311063360852,-0.20903803816062203,0.13865673230909487,-0.16032306783927117,0.19573642860778007,0.009798964203829228,-0.18500814413267305,0.02886847227377272,-0.07427555048319577,0.04024744530442361,0.14709084613527326,0.040079235449454645,0.12461318045527896,0.040696970278333966,-0.01907983980075987,-0.16357316813105693,-0.2417335002970686,-0.156246739843196,0.1830321024696633,0.24639309934352976,0.021136853327622086,-0.13136926338681146,-0.2677458771625057,-0.19240838153267242,0.001118695010363981,-0.1587986285440406,0.10528010810131047,0.018221503979837628,-0.024518532093756068,-0.06720812680054476,-0.007399885857499017,0.1435100202852838,0.12215949343711996,0.2197780366183398,0.23521862767269386,-0.045101508756684346,-0.15920110735252485,0.1702758587424814,0.22079255097231507,-0.11534238424457914,-0.21926297242124992,-0.1789901403815287,0.01473715426517984,-0.014797850916958401,-0.03128790164662569,0.21711907549650264,-0.044009049851239664,-0.17124440712882888,0.021480967096721176,-0.21459598711699124,-0.12497503831168566,0.03287614542827666,-0.20548939202350983,-0.2428066592061135,0.19153078091774478,-0.23250457426214288,-0.003635621645766557,0.11305838297898825,-0.026391536164895105,-0.11313303111852006,0.11548817716235488,-0.1309216721006063,0.07763194909875033,0.0581636665602353,-0.24780495197488228,-0.11090046649777068,-0.13307407835279791,0.030865979742409264,0.1572190855066624,0.10550214920429857,0.16372811120224062,-0.24401718224139407,-0.14659796232211994,-0.14868372860896484,-0.12883715822496727,0.11020834796285658,-0.11527148292780108,0.15543504494133142,0.03447484797707836,0.1305568845086967,-0.05962143827379945,-0.2192384014888271,-0.22897939083947996,0.04583467652516901,-0.1172946934505864,0.05151249191340371,0.15672048300847383,0.23498942513879556,0.15884633741959991,0.18897652389594113,-0.0001989622508137005,-0.03425436796151893,0.1949461181372299,0.004854651252374535,-0.18359679946037938,0.12109785923548592,-0.10090681718176256,-0.011746323320118721,0.02332194686553851,0.14368373681145163,-0.19060040493153452,0.10451247024501285,-0.15068818274953305,-0.09989988782182971,0.06455460673682407,0.15498338818152663,-0.09004540763255076,-0.24344012806075802,0.18248203217560205,-0.15889088396034118,0.17529746516253453,0.254555488550289,-0.04445785802478234,0.13256149699454825,-0.18000803045724023,-0.21555636053004004,-0.0765526384508154,0.037025034425322616,-0.24471526198924826,0.11111350385753267,0.038558211955891125,-0.25209095999327563,-0.07474182724294443,-0.14641847424229618,0.04513522830022057,-0.13736052423564343,-0.02252428583258374,-0.047592746757721974,-0.23306610326790092,-0.018969090024096087,-0.20223222501749813,0.01954067542598937,0.05250367544452333,-0.015161582941808372,0.22398992463036874,0.137412849074406,0.20575813712133337,-0.11176293486567633,-0.166420505967008,-0.15372827900777433,0.03460121223290964,0.19507474864285398,-0.1227708448935061,0.0574577052443648,0.17143565057604868,0.01294115982237669,-0.07074732472851504,-0.1791671861434189,0.06387510179849269,-0.18249707827559583,0.20549978570306446,-0.22312609942701503,0.00013507754112201354,0.08820575530936811,-0.21143469962382977,0.14278400676081401,-0.1350632955680674,-0.15267352519774804,0.061650231573903834,0.05462088413499627,-0.2427068281375965,0.11116292371285828,0.18602282538668477,-0.07668399883693426,0.11203893516793338,0.017637767373607893,0.22300883772579558,-0.04094844367258402,0.21527078435068298,0.009994632574896785,-0.2199320207360552,-0.04708759234325228,-0.16244972769273133,-0.02229346419845829,-0.007007204205601367,0.03174465634821999,0.09907917090547573,0.29155190935557806,-0.09205048356466988,-0.0576910246676909,0.06958475390978956,-0.21558407665585014,0.18252273727611454,-0.0008601022240787314,0.020748582413471994,0.15168272186396978,-0.16375906292507392,-0.20315106365298832,0.15085483357455987,0.10645838283939901,0.20023055840829004,0.0258047910052309,-0.004083152263352909,-0.17805382063523745,0.1591853614014186,0.010820924592073733,-0.2315726901587928,0.19758468806374774,0.22740831912958012,0.06450969005335629,-0.1912578898862432,0.07930790206463312,0.30502337898962295,-0.1231644295830415,-0.20568071792897333,-0.21230033208704405,0.09102815626808096,-0.09498692403638619,0.0796060242236564,-0.1567485397886276,-0.21061514876064785,0.20721190994493272,0.011308274915404403,0.19162236467046187,0.061847918205368634,0.21640206599887274,-0.139567107285028,0.10505606917478673,0.2367811779418204,-0.014495042445136327,-0.05490605274656127,-0.10488303083557886,-0.19827557139825494,0.23435889479714073,-0.10750070900673313,0.12193892932001366,-0.011312043057055967,-0.15315044082563462,0.15184580019085925,0.1896336493450521,0.11703992660546339,-0.043444158433106665,-0.02701894285535711,-0.17292270524871958,-0.07877386991973354,-0.08641654628396192,0.060534728101302976,0.07967798360700883,0.23554345262941437,0.30007044084522927,0.0678237047628368,0.17730475489079928,0.1918150434552725,0.12713442140336453,-0.03302704464564466,0.1685265543334552,-0.24446098275201222,0.16519515715347227,-0.06912654835504854,0.10834895175377476,0.028699813937712326,0.050116033345445225,0.00444542429456003,0.10427949117587935,0.1788102334069781,-0.1314664055055104,-0.1554680096654322,0.22184074676385243,-0.09101456879280838,-0.005712928379692723,-0.027482497639849817,0.1146139793279824,-0.24384413610373734,-0.17508339612679175,0.23351768507732745,-0.22100940225468016,-0.20444869708083932,0.146542942638383,-0.18975982455100093,-0.19124961318396996,0.177399857716952,0.16178030498360382,0.11972981878540542,-0.018243639480218992,0.22533313993427712,-0.1365835024636471,-0.05766956766458157,0.013807130441485281,-0.004416340550403216,0.1051407014952532,-0.2507006585100742,-0.24781422624321464,0.07760745162886674,0.016590314039227658,0.2135388871164479,-0.12263394929539673,-0.03747178831936764,-0.15526025554915804,0.010905973733143653,0.20478503802384046,-0.15455769779366307,0.04408446368399183,0.04903270893361306,-0.07708594060881672,0.05744410789020665,-0.17181574684424303,0.17088153376460738,-0.0047320306731532995,0.19075368303726484,-0.13980084594979664,-0.017102723807832527,0.10971093957480425,0.24536338778699565,-0.1809317392750642,-0.017872351488439776,0.05695481783445658,0.008697921935980797,0.23310721832859216,0.20256919110691987,0.1531280745391084,-0.17733568891475301,-0.16718882177038827,0.23739423297474188,-0.09860973737643489,0.029604467564571035,-0.2217798084528709,-0.1519588628539626,0.23036018064348304,-0.18496715927928656,0.1148410072554509,0.11465376075338402,-0.05601625886844475,-0.06709678786691128,0.19097121607940756,0.1559753436893607,0.033237687853636795,-0.0638967473046271,0.04411335957774596,0.04347202807573459,-0.14326334013734374,0.07538911923456613,-0.24561500310648438,0.11429040805035735,0.22733912061560468,0.1489465447801213,-0.05286649295867995,0.12553158645032386,0.10579522120453874,-0.07999106568089728,-0.09278598850580813,0.0800325324281769,-0.16679730805575962,-0.07379388399854997,-0.22579271777275453,0.027262711696185955,0.19879667461362388,-0.1992650705595724,0.17260255543708028,0.08867849069848555,0.011875550299272689,0.07583316597261285,0.18279126443044613,-0.15048091810324185,0.11659973720486919,0.007054957994467162,-0.08631362697969364,0.24683768327497915,0.18348109787324865,-0.06753588094594073,0.20953358568368105,0.1706987458582044,0.005604313384708354,0.007373983051684361,0.16724092118327905,-0.0657217619820649,-0.05305841694134958,-0.17059705355336452,0.0333027736054049,-0.20813796181238375,-0.12465446829803162,-0.03531946358849327,0.14526405037471615,-0.20538508869929403,-0.12720823185241403,0.011979467598755358,-0.00351005495344114,0.06893440414243628,0.13760470503258382,-0.09324931614611026,0.2444174344569786,0.21966119979563292,0.06005556276182169,0.23995986196839603,0.12064903710107283,0.06034666536072968,-0.20913950173759718,-0.09916478181660185,-0.2011350752149891,-0.07179313394626621,0.21217918769834018,0.04577114231395876,-0.09885785836446719,-0.08080251307053686,0.10415183797627138,-0.027271888623260875,-0.1487689852197345,-0.19466260563492535,-0.186468567419447,0.216607988986129,0.24132170410285972,0.15013461785313614,-0.2027125381832727,-0.132503847397246,-0.2907447310934509,-0.015381349812305219,0.016044457925923277,0.048312596086050125,-0.041357016036467444,-0.14069670140478358,0.06482854579735345,-0.2813849049735709,-0.11026217847979272,0.0805430808368251,0.14269498462768404,-0.17732870969761466,0.04315113031358456,-0.22857768014737426,0.0033517245055165144,0.05078187864907299,-0.14162377916720206,-0.1139871773596994,-0.06870346612468438,-0.2726291236063501,-0.06777598775165772,-0.13900292738707531,-0.08393115958691305,-0.20982835127498328,-0.008847571113001695,0.15616975455511872,0.19281535781960446,0.24650056578046523,-0.1840228445808169,0.07844524214324851,-0.09101213660429486,-0.30966881614957054,0.06115268808084595,-0.014948780725271154,-0.22862095016476577,0.017010020814953584,-0.06830271195212752,-0.05246888257244748,-0.0796307390457861,-0.18156140533895568,-0.26030201840094375,-0.3029287322478909,0.08701158466561251,-0.26799708298705527,0.09072608154232516,-0.16179491364220414,0.11203461423637329,-0.02486031345637842,-0.11570101384458573,0.13923270502569704,0.23071710554419428,-0.08758308536092713,-0.023843114174167374,0.20279238496523147,-0.21867399100282392,-0.03352347543743854,0.079008471899621,0.07376228948165432,-0.189753938302428,0.0757557465194004,0.16224198982573967,0.2190723108626153,-0.04992379937154467,0.13447151649851208,-0.197286319977967,0.21498276646740766,-0.009042044265565517,0.05310806521121723,0.020904450013261463,0.06668438116817893,-0.10575794736478202,0.2810734507947407,0.08547094931907724,-0.1887853470488279,-0.13665608899404824,-0.15799119774211126,0.14435084882032256,0.18657993829665087,-0.029604456372189218,0.1629978749019899,-0.1598368090342754,-0.2033915336786067,0.14988555201468462,0.11271989057072992,0.20348359692697168,-0.10060148660515528,-0.2223663194225265,-0.12877771144932076,0.06371298950659998,0.10454618546213304,0.1388288164282504,0.04442699655897813,0.08351103658768601,-0.01825349869620064,-0.013912641420128312,-0.08149081964963595,0.15236412600324586,-0.1811081455907329,-0.1502848287496207,0.056661483153513506,0.1174477754013351,-0.14213352402684234,-0.25257790682701725,0.16490199052983284,-0.08328701400155164,0.1375606963842159,-0.21041107497961736,-0.24996273795349666,-0.035085693576453476,0.06929154046585607,-0.18828852011288236,-0.11565987824419097,-0.017813812473361976,0.031127959084768758,0.10683047420356143,0.010164333217197353,0.13230218192258425,-0.30800172141920223,-0.05976406347118419,0.07115420959501333,0.006686615186007155,0.22461192128077456,0.1896470563476701,-0.24924354454965605,-0.08292649727621496,-0.17374293401930796,0.23996148309936466,-0.0748032490814446,0.06624614868796869,-0.04027251437802918,0.0038656704086445014,-0.30052345576383516,-0.2165952009085923,-0.14289941337714668,-0.19400024488129833,0.16340365958176542,-0.011882939637871945,-0.29204334619307126,0.008887884196137123,-0.17237835160911627,-0.05970140743751369,-0.07739749655244765,-0.0650383628839298,-0.054355245327814314,-0.19830773256071732,-0.06321977076585461,0.038443140756988424,0.2327843480471587,-0.1226537362975201,-0.03560183389069266,-0.11598393784105315,0.19812669563051882,-0.2290785166958968,0.2148131609922966,-0.13156216891934136,0.22324189935093117,0.028588416561047818,0.19051254999610337,0.09155618510997311,-0.10133747531989337,0.24404605022834722,0.012255121705662035,-0.11873430401389917,0.13048273425853157,-0.10192986766938729,0.01748224385067903,0.1391968408625501,-0.16446447592257962,0.16993911334325656,0.03969198933121381,0.0420167451782784,-0.06064232180622317,0.14164364729596848,0.14219669491493775,-0.05122589974889383,0.21426725399434254,0.16926533877494013,-0.24181110425025829,-0.05322744936829272,0.03367023124125361,0.11382942297520032,0.18339701998584623,-0.2205556339934309,-0.1645170075767403,-0.1524872023807336,-0.12193234005940348,0.056620698296260354,0.13211926542292585,0.058212272954277056,0.1721036302587578,-0.27948442294737064,0.06661583680079677,0.10205290446107358,0.08319917121890716,-0.10564766683616142,0.060947690067571524,-0.04579673760795379,0.007830885866100246,-0.17333031126058498,0.15819927703268757,0.021320509270791828,0.2796495247557792,0.17186401992037292,0.04952734383680044,-0.24107272606034652,0.1528455771054075,0.04641029601332881,0.09689522230090768,0.13091007746147723,-0.005357801122771731,0.13605049290289037,-0.09350786306645871,0.13947695654332481,0.22190102087254884,-0.029575770372604625,-0.16242219976483413,-0.19058359316426654,0.19802220808475612,0.2330967465339978,-0.14258778316354118,-0.07965668333078633,-0.1888635333166857,0.02326591359292766,-0.12148823172995545,-0.04789891635851425,0.14402705499484453,-0.1405820733695703,-0.23293551848750033,-0.10557757246478247,-0.23598667911399238,0.12407850330937689,-0.16011378363116324,-0.10109146022484956,0.07511629127018149,0.179104522682762,-0.14131356634908232,-0.08911536772969418,-0.058974066320083326,0.07112993728371135,0.0064163036749379605,0.2037373201307278,-0.08459920201296264,0.12104362264040718,-0.2114049297161472,0.20468507393631985,-0.11444306864502873,0.12835966376801267,0.22854203420531977,-0.1807727349961291,-0.05404627109327425,-0.13659546521598015,0.1598602912572722,0.14147076356124882,0.0013419127668511934,0.21869285630290472,-0.04556537530665003,-0.19845082622364973,-0.1901821490953598,0.2326338779299008,-0.05425886263029013,0.12827139192304007,0.009130546778143293,0.10229978714502719,-0.17161106130292617,-0.07899429488603694,-0.14814035128845912,0.22076769181748168,-0.00855086791687121,-0.046929573410303294,0.18112763728055284,0.1734710757286205,-0.24276745338669753,-0.2301202058504686,0.18935186467777249,0.20499420653047318,0.08171927975056548,0.19131868990973216,-0.09622985821983755,0.15869283354277597,-0.10545199370300427,-0.06091835309859141,0.04911189573807942,-0.08411910614557254,-0.0902015035218712,-0.23578061842025524,0.08615767571289586,0.06735953565190182,0.10604086661922713,0.11911709760025271,-0.1557685080171404,-0.06385283298175674,-0.08623188362985872,-0.08420983885130794,-0.19453670707489995,-0.046279567255061486,0.09959175789023991,-0.183684165614449,0.010928317096833272,0.16660515500951117,0.2668335691172241,0.09328223247197827,0.06877694293576579,-0.16440131771075361,0.08141031965336014,0.06381125329910492,0.05975362095335975,-0.041278349538077415,0.17827732109106514,-0.2001919351786517,-0.15699477373560322,0.23440580077591844,0.029746946138626884,0.14486493967570252,0.11081494818247375,-0.13489049717998564,-0.19561203037518685,0.16324069263618646,0.017855844082074097,0.13766190840729234,0.14207524910740338,0.14878331096092645,-0.15188533620301747,-0.16935119957193148,-0.14898021130507216,-0.026104792747774677,0.22402167194495853,0.22662096277581675,0.1234400851835481,-0.04438027552725044,0.16282843769353642,0.03959861657442519,0.16159668743844008,-0.21185528879356397,0.2024428766195035,-0.018913425625591826,-0.17629411465007783,-0.04182433295485446,0.1914758594883733,-0.16237805190181812,-0.22584572688605303,-0.057454194079783846,-0.07521328093176177,-0.16434077597541388,-0.07773956289913073,0.00243359710274529,-0.18948186727689073,-0.1408933044584727,0.21256530981788033,-0.2586266406014385,0.036718462934655485,0.04586490601370503,0.10947352771808908,0.20559911278923024,0.08233580539298946,0.09171249953038388,-0.2683508774974191,0.0007858816006813524,-0.11360014858092994,0.019463393065467943,0.07892802645397874,0.18855562441524584,0.01663512583645918,0.057637395361465525,0.2299540371937632,0.1532432824564078,0.09804472867740154,-0.1576201396315243,0.17470741397097475,0.04364643813294625,-0.011430494139157938,-0.03102305227826529,-0.2408678454424059,-0.12180381640264233,0.07168196062950595,-0.09439666101443991,0.20237389432947675,0.14114187550179944,0.03581021662531295,-0.23707399635019283,0.1116624294344612,0.1482358357618725,-0.16136381881066286,-0.28160783840689235,0.0418016299717062,0.193536527323001,-0.1977711205638452,-0.08088697102226755,-0.104580313363504,0.06507849447077957,0.16296411747216166,-0.06903196696432341,-0.06109618744080623,0.271435717141581,-0.0929848731721453,-0.12518047975967084,0.10165748003374006,-0.029331736081819725,0.19279624373375467,-0.27262738016865085,0.1404837893544175,0.000914064308658765,0.057915431491159255,0.01026489027450117,-0.07782381882783576,0.025831651761768406,0.11233997321038326,0.0114604032691769,0.09305446159850703,0.2574317776540768,0.22072616252817728,-0.07536249344136824,0.013005878988643116,-0.15334625308494468,0.19405494152515015,0.23352200156764596,-0.03098570811609114,-0.0060126801239039195,-0.026400627478295212,-0.10456631332465939,0.1626632763549136,-0.28520597579460827,-0.054896940185628525,-0.08003535347917444,-0.24076702893419766,-0.23514231195279164,-0.056381755778441615,-0.23466065433239114,-0.059874234517209884,0.08312641964308945,-0.13090330320994045,0.23200617636464838,0.028999508100919294,-0.2030362298148104,-0.1638782948474054,0.16128436454034575,-0.1337184056987273,-0.05786714823567052,-0.03355788793633525,0.027717099247689,-0.09980213048443931,0.16715922484392826,-0.017775712347427537,0.22141786331669844,0.10660426724753173,-0.26110304188582323,0.14961162483828305,0.20395448853418338,-0.1352229090942701,-0.031117042678044597,-0.05804976095008456,0.008571704869264351,0.1455414108497716,-0.12906160791611243,0.1323116773627149,0.08527556677593774,0.12357373660642541,-0.21855370174481104,0.03615269781912292,0.022764804353426944,-0.05141826453140122,-0.1663952389317357,-0.11115580893267578,-0.11600687710682094,0.13119270641270567,-0.2680438766690418,0.012241419812070421,0.21436466328910841,-0.06963588648062877,0.1224703631121204,0.01809634290439992,0.12305306162946361,-0.20932707640947656,-0.32311461978513706,0.008616036484977281,0.15247426474167017,0.10915773873089524,-0.1583505335950935,-0.005349563900695169,-0.11319880222335517,-0.2846097474013619,-0.058275636620080506,0.05790502006545816,0.12997464010047563,-0.09029009329381125,-0.03022230231059127,0.14603241854438098,0.10074445448472447,0.14372503715629587,0.022794606038865184,-0.30184755825531134,-0.10835883493622202,-0.20784126747985515,0.18258982198005094,-0.10717925256772946,-0.04127018723184064,-0.2159137547987283,-0.04019686169205766,0.21564642075998394,-0.0700697170733058,0.055610799146486485,-0.06460775344274292,-0.13279780953206685,-0.22709210471068286,0.051279500532230696,0.19222467737347257,-0.273191483188056,-0.16957568324551112,0.045700383763401874,-0.011620981134542178,0.11126139390188108,-0.2454622693368138,0.09633915885688249,0.21120439805192937,0.15959596218346558,0.20443819223484255,0.008984036201068813,0.10271849279877897,0.2512132213306288,0.003941595033354619,-0.14574343865852077,0.10958543427728411,-0.14685701436756565,0.0168617171556559,0.06294548276913481,0.20016250826078177,-0.019463052642531887,0.2495570348604775,-0.09087331542085433,-0.1693899826648459,0.10187402647211899,0.03595388346992302,0.19606933528454096,0.18875349140858694,-0.19533908417581816,-0.05500389113588532,-0.15629519074935463,0.053248143039175556,0.3366126982609553,0.1438874965918644,0.17990950430324978,0.09359163528464981,0.1897889275903405,-0.18522063635215588,-0.11267726143420642,0.13524331642672294,0.1967666963559728,-0.22705506175494997,-0.20573252673838202,-0.2164892005961619,-0.13372703959174836,-0.05016297196740332,0.021135434802963062,0.041976700574011316,-0.03806599474131731,0.22685798188009698,-0.1391863547322312,-0.023103571535836795,0.006818676584400788,0.06749000132226216,-0.20053555022794867,-0.16705466777176972,-0.17507438335552591,-0.04507483768732192,-0.018944419284843673,-0.09234267760032121,0.2037712523716646,-0.1959918261485029,-0.21427875996296314,-0.01646982060083793,0.03229469066178488,0.20234799729663752,-0.16998828019619908,-0.027110729470591566,0.16492147788631273,0.14598813321726326,0.047565415521715414,-0.21448512071352188,0.12583587057950765,-0.10657706277544167,0.032807768637444626,0.13582036173595863,0.2061136133943116,0.07475713079370006,-0.2744288279662376,0.007720059669559637,0.03736637199431666,0.218420879996231,-0.20166751956564835,-0.04703743085687501,-0.20934909945494434,0.05453124274165915,0.05160479116224201,-0.07862412557526165,0.03353487272962811,-0.17296889859667708,0.024730786710837917,0.015916717128880063,0.23761415283784404,-0.20647479653019338,-0.2072128961765523,0.09321133655424388,-0.06632079132938824,-0.23350170845140283,0.14956935268361551,-0.02612027286877276,-0.13849363130974177,-0.16534947377069698,-0.04204725027574713,0.10211221051827658,0.2595760588879879,0.16353704214728063,-0.08008518571579054,-0.22422147026678685,-0.09882195446979453,-0.04792082530841829,0.028815858130387898,0.005801331861572266,-0.16425625000115054,0.05718975115087053,-0.22282993454733546,0.15811000486345564,-0.008736409688111207,-0.04349845356307014,-0.2213746218968645,0.17735116610738552,-0.021768044683871925,-0.16589344962417318,0.2551897721977682,-0.035620117965423484,-0.03942513746109765,0.269028135109736,0.2403356563831953,-0.13071985614551948,0.060897568037673135,0.09220981216371443,-0.16400307531480363,-0.14299208740789773,0.026651335057807694,0.0963883483344579,0.1413889102772252,-0.20183081162138403,-0.0510861944598147,-0.20119783786701007,-0.15390524665912675,0.1883293942183166,-0.07966766883133948,0.09761484175986371,0.0634971958249297,-0.1105028808722746,-0.10289847557593575,-0.21571069758952152,0.15015870318733435,0.10792932953938966,0.17636417578992722,-0.08654117483317857,-0.2287881056735013,0.12445290132442831,0.1374248762955303,-0.11202426589648319,-0.19789633568245082,0.032237093763757704,0.1452920003117236,0.15353938593390237,-0.11678452571710814,-0.20002395906896228,-0.21826861321214372,-0.13251467590136287,-0.01865775234127967,-0.1221772877900081,-0.02708366963986047,0.13294622464224262,-0.17576262482914226,-0.1279152651677213,-0.13994826398336743,-0.1825402147414002,-0.1026195780868186,-0.28261722888637664,0.02264636983717668,0.11624306827900006,-0.03673953365680607,0.0438336183136093,0.13806187910738285,-0.04725355052550799,0.17111916075094644,-0.006908483326990495,0.11793373961595292,-0.05775195744773565,0.11407169037886905,0.26943665069284717,-0.15133268320706958,0.005116973496677759,0.05264415330409268,0.22117905300920038,0.18458332556475118,-0.228912250663539,0.20368677371933477,-0.18643429359862237,-0.05662503883888455,-0.03964962117507974,0.15532015006068567,0.0004600360847186562,-0.20563830765105026,-0.11757730372697865,-0.1634670122891386,0.2326326614435657,0.018197259357685815,0.1628041336155443,-0.001898765127900059,-0.13430596728614316,-0.014092138530186453,0.05279999025350576,0.20385700139849286,0.1055660568387384,0.21330232101498214,0.059432950022531544,0.12298448309487313,-0.009978678716502584,0.22653683350223602,0.0822360645987452,-0.2412113847435049,0.020779141710492277,0.024067959615990668,0.07637948951238945,0.030998068107311032,0.13414764928588463,-0.1943732882610875,-0.18763319822871385,0.2594583619130863,-0.017681479662400284,0.08894452180981346,-0.23550175411074892,0.046677052252127545,-0.014009120877854544,0.19414423499783173,0.20208116233092838,0.04977451623437801,-0.10991247910900738,-0.0018046669665633703,0.3242014038926581,0.2649985364935511,0.24635410969499838,-0.11573617552910162,-0.052872578964932256,0.06181413727745379,0.21365646054928,-0.09084304046940483,-0.10713951877568838,0.28967060038273584,-0.041566171373129186,-0.009063568493123965,-0.007461942458397533,0.08098243778809092,0.1440497773598885,-0.16290026881010022,0.23050164235757092,0.2056811731738239,0.02099930358017717,-0.09856202017217096,0.037915070144841925,-0.17009352901772312,0.08614058761973939,-0.04641076586995217,0.05361226276531501,-0.23156155470870493,0.10727256003587585,-0.061427031585847114,-0.19688749277252585,-0.0011390144536616627,0.10893582015181921,-0.17927195821837122,0.09688041788657106,-0.14104505263014447,0.12468784595558947,-0.14310647144108554,0.07579179409505482,-0.11058368778102276,0.1994738074730129,-0.1196453233942278,0.1811672554541209,-0.08238470742409977,-0.13580558867197975,-0.17601963949206653,0.2587786323646956,-0.10103024177931584,0.24370239182902476,0.04948981082336666,0.05969880991783584,0.19265580024703485,-0.15943309171436287,0.10455853365029813,0.1727205734456837,-0.1370737008819804,-0.12701630261688238,-0.3021176996350238,-0.22907206149779422,-0.1440026220352611,0.14860261794585053,-0.2022340886761992,0.09586414263114267,0.0029900908671182734,-0.08925016878724565,-0.11701916525739438,0.22152386296595533,-0.04751866309274583,-0.1507253457766781,-0.11622121199906983,0.10721726994355207,0.15478807714456996,0.08558030792151247,0.06371805718890357,-0.12795501369215306,0.18623383160355814,-0.07625306127999631,-0.054937745160933096,0.04718994783773003,-0.3054499815661517,-0.34839349893733634,-0.09097169825706651,-0.15224225676027953,-0.16659926694953725,-0.23950850083174807,0.07705097905624562,0.145222083384335,-0.18172086056553094
biasActivation=0,1,1,1
[BASIC:ACTIVATION]
"ActivationSigmoid"
"ActivationSigmoid"
"ActivationSigmoid"
"ActivationLinear"
