encog,BasicNetwork,java,3.0.0,1,1399533477632
[BASIC]
[BASIC:PARAMS]
[BASIC:NETWORK]
beginTraining=0
connectionLimit=0
contextTargetOffset=0,0,0,0
contextTargetSize=0,0,0,0
endTraining=3
hasContext=f
inputCount=30
layerCounts=1,21,31,31
layerFeedCounts=1,20,30,30
layerContextCount=0,0,0,0
layerIndex=0,1,22,53
output=0,0,0,0,0,0,0,0,0,0,0,0,0,0,0,0,0,0,0,0,0,1,0,0,0,0,0,0,0,0,0,0,0,0,0,0,0,0,0,0,0,0,0,0,0,0,0,0,0,0,0,0,1,0,0,0,0,0,0,0,0,0,0,0,0,0,0,0,0,0,0,0,0,0,0,0,0,0,0,0,0,0,0,1
outputCount=1
weightIndex=0,21,641,1571
weights=-0.22322996237220463,0.2249441585367383,-0.09718224873888473,-0.19317900818494094,-0.14674809196494304,-0.23218752449353383,0.25882987995874346,0.3272169242679704,0.0626397352462742,-0.21796555807167806,-0.1840815007682603,0.07635824891350829,-0.16842098853299306,0.019569251167128304,-0.12793488323284427,-0.20687156563302805,0.1610359929545477,-0.11107433957502211,0.19044604047692665,-0.1613436291205966,-0.1110307118635792,0.12713657344222745,-0.18297494574692771,0.16148970101149462,0.09092169622501556,-0.12590712245180105,0.20602544829221278,-0.025597413735038335,-0.16322935048239198,-0.15609114107711602,-0.008769752385100619,-0.0532576336229627,0.05908670505285925,0.21582306838146179,0.12588640729866205,-0.1490953204867829,0.008912110935929881,-0.04318679051656227,0.10625450081543587,0.08636854544874327,-0.17583779081904255,-0.2259813144984911,0.11511207737182988,-0.0755662571612271,0.08883921963961174,-0.24709237599532172,0.07981800913296724,-0.22503076702700495,0.19313535386932093,-0.146482820226997,-0.2029692008704233,0.05563206670957614,0.21851410640839541,0.18986731875965165,0.13708903969378727,0.18668685458845938,-0.16744531505632002,-0.17276629758914983,0.17604123274209402,-0.14146658149406183,0.13616756672378447,-0.15428615868567305,-0.060027711926174405,0.14224407849009696,-0.08023111764853813,-0.026967988988878623,-0.16490710344254966,0.0726444537580991,-0.07980709463630392,0.1449685797646367,-0.08654384907560078,0.012721257105869776,-0.19418084666460292,0.001227961708832236,0.1701653974286402,-0.21085705721165743,-0.1886972862644135,0.15317140126725076,0.10232924871607141,-0.18712844578731597,0.10644985813581014,-0.1317115344523181,-0.06776584571228234,0.17725839154525305,0.15145094975049195,0.24522658424386654,0.06569680696338677,-0.14839274088032783,0.08513218885651597,0.2184276521544146,0.19630336072455964,0.04633623256595646,0.029746622453234863,0.06531738819015609,0.140301196759219,-0.2417891212313554,0.0707204995454823,0.009708403356436763,-0.12183218476065485,0.11420978761833545,-0.19263360828053855,-0.01945445067843514,-0.10597734672488511,0.11602571391727519,-0.08829287105779948,0.10987414222118512,0.22778989997727078,-0.12568808540859797,-0.22712227393927112,-0.1053870656987933,-0.030047893296316085,-0.15101499378306815,0.1830232500317535,-0.1429180022186946,-0.15120026488819893,0.03140210905366498,0.05718979598025383,-0.13014948351774808,-0.03454822686905568,-0.03195407361570576,0.004319503727475345,-0.17123095314312314,-0.11506012782948172,0.11278845136425796,0.06884235451135451,0.0013238179377527248,0.07991840090242648,0.01599933989463558,-0.16844707381266896,-0.2685352949242888,-0.24892566768528857,0.17766979346275294,-0.09420911766528249,0.23032037505404757,-0.18549959802893742,0.09069604974503839,0.07739132817485901,0.11510049820850905,0.27003735356844955,-0.10792756336340086,0.22268596264226978,-0.006814041632349066,0.04032970520710802,-0.22002077229654363,-0.2134338383866401,-0.000841590738530712,-0.1376242206278046,0.018763191629865235,0.13456002062345343,-0.1847071953818587,-0.1808941157142809,0.05279564454970446,0.030277256021828344,0.22160187108742302,-0.04950437512848272,-0.18669971221585913,-0.0000773320293974292,-0.08561086797294185,-0.06908593181356482,0.0874954292530458,0.007290537441645155,0.19302753570141043,-0.0038696526090481434,-0.22587881657913486,0.20175811813758188,0.07465117474062753,-0.03570950887776652,-0.19293749609524002,0.12866125346498636,-0.20262727972670097,-0.12436030923263364,0.2114393486483053,0.2266966152695559,0.12919532232789038,0.20234072411080326,-0.08658772875127481,-0.18961322886144866,0.016318854625112362,0.0026148274734163817,-0.015892447847021065,0.22227007967464169,-0.20057650222284046,0.16695252252987167,-0.17804768830072462,0.12285352700220344,0.17691528650342966,-0.0647637626392877,0.046171905682814804,-0.07706523685959268,-0.0834925472972797,-0.20773410000549278,-0.1911350120395242,-0.19662068525752638,0.007450998948904805,-0.17946005875618498,0.14673238264307562,0.241533961507179,0.014083170661488835,-0.11769055727576735,0.18952121996511426,0.19189642354076478,-0.18025882109962996,-0.09914084292639312,-0.05307639570893775,0.08643699934968244,-0.2002704599621608,-0.10905863346698505,0.10921769849868611,0.1223099558620814,0.021670093732055855,0.24235823371058032,0.20780945977085682,0.05640061728820513,0.008007085103255422,-0.051800443150934204,-0.1013165511202067,0.09052530471462632,0.2556048989526551,-0.18175286539409152,-0.17678195728251603,-0.1448120847105016,-0.18324513110558557,-0.009088577726495857,0.11220608938307332,-0.12145284258474817,-0.11292254677606409,-0.13103360806318107,-0.23971888732679597,0.15750046450590502,0.2203297357540215,-0.16559573306785058,0.0580818849640324,-0.07998540506771054,-0.12602555327539924,-0.107999546799306,0.15697017532006702,-0.1885989902868849,-0.01824892694477139,0.008638515874146227,0.1322828157821584,-0.013658788101621532,-0.014946636760928257,0.05748865484481707,0.2310322427415276,-0.09959477804696781,-0.1582236235133252,0.09485271066444292,-0.12887447918343906,-0.2359327474036646,0.045873446045199634,-0.27511102615451344,-0.03736513187116713,0.004638271228128873,0.2520564803930689,0.1401939413090216,0.04294952295152514,0.14114812256235612,0.19552583443047736,-0.17797083651896167,0.0700636279808168,-0.18417625260651133,-0.02360168035731672,-0.16486455948338924,-0.1437397492548986,-0.009558083746544314,0.15036177917550478,0.2371097718088871,0.25948253316578085,0.01419421376736865,-0.15821799943950351,-0.059517167033204026,0.253434317054473,0.15982288311568388,-0.07751991520670579,-0.1433705184576968,-0.11633069146089692,0.18391061071574086,0.09871913722936378,0.14223296434739727,0.11736637098837092,0.09713660191398438,0.10513321626794582,0.010231596088128363,0.1182675540537484,0.12140647677567962,-0.21263344381223334,0.16114047768003642,0.27733272423013755,-0.01227444678517037,0.12134581452016245,0.1362861259784399,0.00439167431405323,0.06222758042196957,-0.03288830438374402,0.04275391212770234,-0.10804268705362981,0.19405072964957387,-0.047181292414107734,0.2798328386448928,-0.17881335583447833,0.010186620563317822,0.0657744415449772,0.2276668826724839,-0.1964741027367929,0.09177757223255037,0.06389978032992792,0.03523535044963061,0.21148682056130821,-0.2015051920383428,0.1650489018102815,0.01973675304917966,0.00946667193647991,0.05710250246130599,-0.01779638959846682,0.16224053261290994,-0.14333492159056704,-0.1785479215356816,0.00031939986948619625,-0.1011626955700206,0.22582633191509874,0.0926054234762842,0.11494526046466827,-0.17368269206724413,0.09429814875892388,0.2757093656580577,-0.029537277284330265,0.22841754125409314,-0.09365125877651036,0.15596451309573034,-0.2117790076310978,-0.04917123954192046,0.0263771091658402,0.2348397712279099,0.13925531038857633,-0.11262462740555652,0.20825841893558558,-0.14338913742585524,0.13342033461645866,-0.11700507262857575,-0.16661551987953865,-0.193743377807207,-0.03658543588487002,0.2313212461326122,-0.1257439762921199,-0.1079849835193826,0.07039390952567556,-0.16373682846596363,0.08998680443195746,-0.049270440619457616,-0.20688236703283264,-0.24233727960793935,-0.053357297158090886,0.2491323635034839,-0.12598682119833715,-0.1192579742622215,0.1783952597347747,-0.033685216822014315,-0.15701838581164443,0.12155065455122285,-0.06387483625628858,-0.07764123121105572,-0.08050743712177896,-0.1988126385740691,0.14028530840733766,0.03383333300615204,-0.04049136054480613,0.22942553653141318,-0.024221223758386153,0.06954487277725964,0.05257793369311942,0.0718015772460787,-0.09629950356040308,0.10022773956363866,-0.1947519065817372,-0.2233038118230113,-0.09290509322791203,0.12012012724008062,0.029528106927515136,0.02875359044444732,0.12525792333038097,-0.07097089513298356,-0.2236420036119655,-0.1469179654780395,-0.19940906499127783,-0.16179049171492368,0.1600391700339709,-0.11620422954732929,0.132313405027464,0.2215807204294707,0.16599292641105595,-0.2170441669468379,-0.1824599001975172,-0.0920335073590095,0.0496833621104577,0.08038009524041896,0.01361446140959723,-0.2638320405829088,-0.06227914788252811,0.22309370010027776,0.23143946936371868,-0.1005399049410288,-0.03712960353844367,0.03428843758283582,0.14841205615967507,-0.025763859639071924,-0.03717578386312123,0.08068485614441877,-0.13656441314250595,-0.08103660979751127,0.2148813205770353,-0.24763685899368099,0.11591053858680335,0.10943513805583094,0.03198908201209509,0.25792214931802243,0.11751005309919794,-0.15476608610669088,0.0001950212440943583,-0.022876277461218418,0.121295882281371,0.08793214845509295,0.1956883907182867,0.08518428996052055,0.24596199108927547,0.08925288645190316,-0.11708255608047621,-0.13635984115311872,-0.20542581747725133,-0.02799913871727231,-0.17384504929321318,-0.056795740439249065,-0.13465320730081842,0.08145369556701425,0.1587408697070385,0.1271727915447176,0.24207487340290576,-0.11978648522146046,0.14014426113894213,0.019572848819829833,-0.004371964319402578,-0.12001306219238302,-0.19821361656933675,-0.13660796635668418,-0.025272883608649554,0.12033702749208897,-0.13822989005322814,0.21559087453750816,0.04181814372391623,-0.23551661968355636,-0.14687997209876877,0.18115528874768755,0.04937532715476686,0.23595215931723315,0.13056340721378107,-0.14242259181404307,0.08556686649279188,0.2492774715163374,-0.15172205918597514,-0.14791024981769876,-0.20583638134077312,0.1633001210479237,-0.027664227585576,-0.013705106127718737,0.07634834289057495,0.2261570342200744,0.09464725385206973,-0.016157146381527585,-0.0254405572329208,-0.18928975751310506,0.14380753531198562,-0.03251126978008538,-0.08417573522830178,-0.22462152267175067,-0.23320676624432132,-0.06796890948861167,-0.04561714196859154,0.2327423105191804,0.1470187414301426,0.008187145366193766,0.09350949917450173,-0.012179638104521417,0.004368637490898641,-0.2582350274327541,-0.08911365110206879,-0.0434222724739357,0.24436263627974034,-0.06259623255373388,0.17219494209753347,-0.011823158484935195,-0.2497703112992592,0.22287519585290608,0.20295809620594452,0.14563166711299233,-0.1768335378026905,-0.11974926081614141,0.05546239974438224,0.03318367651048442,0.052173139635676234,0.007073687728608588,-0.03891869073360027,0.2288322878010942,-0.16306295488444128,0.23386112128808026,-0.08102733252250026,0.10661177393456893,0.01890996470741126,-0.05806076905195379,0.03841633297063362,-0.21488846247731866,0.1726074005823721,0.22402485261128346,0.09757452599660509,-0.16842109781800807,-0.20392088225570007,-0.00994002538746954,0.12131389601562109,-0.11491035230857355,-0.08743227953089462,0.11965771251782045,-0.22025628314186696,0.1450499465919803,-0.0802516066905657,0.23149051410732027,-0.21645318989949847,-0.1847383442986432,0.05827692477228271,0.11511581318405667,-0.22127865308453298,0.007032783492068658,-0.20312697993849924,0.18494723951118625,-0.20073684901885494,-0.0009731979936977756,0.10834303644601408,-0.09098153542581328,0.05039918744668827,-0.1102866109829105,0.09178963237706202,-0.23483406007153,0.10918005377317894,0.08533253260606871,-0.043555347756036665,0.09732632547317023,-0.17216664429463444,0.17320827084568538,-0.1122165884243249,-0.12250626516061967,0.007310478931651169,-0.1311134919738893,-0.12011212058919159,0.12215870674352586,0.14763103852551013,0.19483679664012946,-0.016503831077965946,0.07902355107787733,0.0706883716748699,-0.21384719465200785,0.06183904565685355,0.015584218444239616,0.24190438784142554,0.16568450649189553,-0.2342519155346483,0.02996831782383518,-0.006852668116685709,0.10903970583294986,0.025933032012313853,-0.2244533870299828,0.12122125576695712,-0.10039953171388735,0.053131833271565544,0.2182863265843654,0.13575040307143682,0.17049348936906006,-0.23761071906265982,0.04314298574263916,0.11374757606647667,-0.24965970521176636,-0.1323621616832414,0.05190643986038722,0.03721713015544774,-0.04574455775582722,0.14055923577894283,-0.0588273753752698,0.1779271117007007,-0.2246523790498532,0.20335693613373165,0.2430314638647456,-0.09849942373865508,-0.03264718475548168,0.04309725654044451,0.12792752369073346,0.2811322186027861,0.022846521178981758,-0.16817532281128852,0.15707004761812238,0.09553038530252363,-0.2260610514863831,-0.015574069986623652,-0.2417133676948438,0.0008383568010595741,0.05144816947635381,0.06752843948030672,0.06667989348934375,-0.03932140565451044,-0.05915604512688551,0.07382304966562135,-0.1087758039519311,0.3058169391004341,0.15418262689026116,0.011693999393917631,0.0902972895200879,0.16229156836287154,0.10895419213771122,-0.044687892731452024,0.18976573512922884,-0.15042939051038576,-0.20574941413657521,-0.1740641590901905,0.12302217823646283,-0.21011247912465442,0.19420447985913122,-0.040895956787912136,-0.23471858314210453,-0.20357737873260165,0.14180976503038475,0.0301284708538932,0.17414779077233328,0.029339962617012712,-0.06837883560032346,-0.15481389286199407,-0.14576381587011908,-0.05478807821676577,0.03195922799619115,-0.043088553155377324,0.07816720823975495,-0.05181988122736263,0.09293484889357172,-0.16992281741051848,0.16297850829553853,0.2045906684409024,-0.11631257519429583,-0.17069099848451277,0.005826650921370639,-0.16083062563804648,0.19135739862388818,0.22358188783789157,-0.08508357326195172,0.09407353551738003,0.17718572923327486,0.20403552968458927,0.07130845384040707,0.16052189229336628,0.12682823003276558,0.13465502758617626,-0.23375088739665625,-0.19668294967742828,0.09060027678135354,0.05679341998431427,-0.22503553677286822,-0.1695868424392664,0.15920463051440145,0.02687268150352111,-0.10012290953160445,0.06810879272097682,0.22645419347265328,0.07320678836260944,-0.10373472303432303,0.14200520285273674,0.06036271206618466,-0.11948988296227715,-0.1175733833753381,0.002844954025149268,-0.18067858716200844,0.17294934225925263,-0.01897767317366144,0.05699187700047405,0.043663748366118464,0.07718371741265358,0.14199661144524148,0.11773313921853482,0.21693321448570002,0.033269270717039404,-0.17641647639675972,0.1774843298409702,-0.19291268865977645,0.038066795303751615,0.21738966571946508,0.2097658788726137,-0.07364731607398985,-0.1523756651144081,-0.054046691867895874,0.22018527426098722,0.0900457393541827,0.12157053118792085,-0.014802414893397358,-0.021239066738186804,0.0754951868377909,0.18309504979899952,-0.14728898785622097,-0.17211612807606466,0.1752341087499911,-0.09998620257152162,-0.22420016389060052,-0.11283080967057936,0.10578703180690131,0.1698095271327406,-0.21441745586745642,0.21091657535408959,0.06717881956318884,-0.21011020235773128,0.16851315794819963,-0.19071717838804475,0.18939815659643952,-0.04536622226303772,-0.20161647017922524,0.18899766077495697,-0.20464677044611077,-0.05439710603409751,0.00854081239316673,0.04668288212127138,-0.1961689511297222,0.10071813428623551,0.0029617173669715985,-0.08091503321811506,-0.14613354925840286,0.14235602544633547,-0.07919144114128258,0.21406720242157248,0.12725119276336164,0.052799528064444705,-0.1099115604264771,0.11804881846815277,-0.13926943715137252,0.07824893334096696,0.08024521475067689,0.2332286151377438,0.09998484649478116,0.05622888093279521,0.2397453343614362,0.1717136066725479,0.009304249018831855,0.016494068651141898,0.05126207611126524,-0.08616114594599858,-0.2248708496343842,-0.03953198258773481,-0.017648861627554475,0.07933641055317193,0.1932952233327811,0.19171232787325918,-0.0879005633843375,0.13445382969824451,0.2318070539641755,0.17592159587766232,0.23025394781787303,-0.24728339035763605,0.18873624673085185,-0.05372836583506474,0.20090610389586314,0.08991353015015809,-0.00006267464559571272,-0.14530043588935723,-0.10627806124792631,0.09936512889100779,0.06622133706092,0.1352109554982511,-0.20229048506850475,0.15213758976735384,0.18523490978570292,0.040733300549578605,0.2271445412089983,-0.1299436133371213,0.05188041057007631,0.1130095864841847,0.1508839476748233,0.06047758892491598,-0.02968605966396556,-0.08592145212155135,0.13442173985711728,0.021383533676391866,-0.19869998772816894,0.017293469154495405,0.2174094250760956,-0.052279052689075185,-0.15903611057969258,0.0721168509352621,-0.02635976923383219,0.19520905921101947,0.16928582569391012,-0.1359738376825436,-0.12686712615865733,0.1992857118345864,0.03209561214605557,-0.21697811621504892,-0.20447832541951333,0.08996764746593257,-0.002077352649075762,-0.2530075023609924,-0.046519814050013854,-0.25436826579053645,-0.004316235863386801,0.05171605548466874,0.18648803534750413,-0.19169822563677336,-0.12443850287007277,0.07872820021175753,0.14511895887494936,-0.05447751366624148,-0.014923056961272108,0.14330777041359857,0.23053970823460102,0.022947180053285554,0.21122397463101447,0.08677363475801335,0.03583775187295988,-0.01070593306611881,0.20620829582461747,-0.046498550030278654,-0.03356447100555206,0.17849658823796927,0.015576697539855092,0.17474325562178897,-0.20728372786218313,0.027196777336506387,-0.06677250622633789,0.19814740886294147,-0.23683157058524415,0.12634850323665503,0.16378440911210657,0.13750940328689454,-0.07191569445917272,0.04388963845359246,-0.2152094102999119,-0.016758402188535425,-0.18507705000635055,-0.23946817734090467,-0.04524617716005246,-0.10735667916442553,-0.21598741814714845,0.03419948846631239,-0.10536273275993903,0.14930276448875665,0.24699708177255272,0.056677457127216696,-0.1161315628455356,0.15156525116408287,0.0691421101585,-0.2739216445659196,-0.09167181482288028,0.17019530510301584,0.0012810490027567569,0.12495217516789683,-0.09753424735293631,0.01321453542483775,-0.20399317501670455,0.21870119175560923,0.12082175130892871,-0.04986491761499873,0.06581503217812892,0.20309550359570092,-0.21155936896811275,0.15652183077395504,-0.16112601146109592,-0.06228876057978127,0.1680363441145032,-0.045958513259485946,-0.07854983110743702,0.1549574659995477,-0.0904117935548829,0.21040145573354224,-0.029017281048856314,0.02672326369149045,-0.23857000059618894,0.200645139669852,0.22984560216306507,0.174069520290498,-0.1709569521422278,0.24213068375100863,-0.11349420032664245,-0.2330890765849738,0.0808957633168725,0.14043039393807358,0.014856292342224344,0.010451398433057965,0.09713464010009963,0.0475700764140057,0.06470056480607497,-0.07901458159029164,-0.004702439486933781,0.12876439794147337,-0.15505280370171023,0.18300558251344207,0.038504667736387804,0.13766555125151864,-0.17898639652387424,-0.10450030546568577,-0.18842133275694767,-0.033293090731575235,0.08036513324107973,0.17813883177623285,-0.10989376220480461,0.178372366014039,-0.031212426668115686,-0.17910906826222117,0.2141903337934476,-0.0791827595861373,-0.017425995770050513,0.2539028932390448,-0.1877003739290139,0.08411765208140312,-0.11728368079131957,0.0813565658251578,0.2183057383485952,-0.07450364337836778,0.18673420735565124,0.26592653719254233,-0.09947945140400942,-0.048541734049491886,0.024695478863384586,-0.10344676650712156,0.1883894583411457,-0.20018540195565587,-0.21717332917460777,-0.13162539704771822,0.07040634629358776,0.11632626495516457,-0.03728258823899589,-0.14039123199825695,-0.18346199833403418,-0.13254372379686424,0.12793360946143184,-0.1413699958266201,-0.03710185837706989,-0.20506916461702396,-0.04009682953716096,-0.04007853474327141,0.14257656118353482,0.19392096802467887,0.07552004893537356,-0.08100249633700947,-0.06981482565708311,0.18303127395480512,0.16821949284954135,0.17226752705849682,-0.06993203051936363,0.10185611386981051,-0.10207696865181892,-0.25327405396822744,0.0058606916519270465,0.1708250421346799,0.20389503007891188,0.03174671933280749,0.08814909588627554,-0.005703526133602696,0.022318626088319436,-0.057368680559814526,0.25347151298963105,0.043923319368523776,0.16646384299275885,-0.05295784791369081,-0.025145279369774117,0.21376766769596234,0.21435228619994684,0.17969362728477298,-0.2726782431327067,0.18197490963385599,0.21696593597071487,-0.15398118010146059,-0.025339189419241903,0.08525256037887739,-0.05978571539772162,0.05340224227063681,0.09578982624174873,0.1477134726691947,0.03633413865638507,0.22505545757222886,-0.17460863881153657,0.09242440578743508,-0.048135347917311895,0.0760834424990518,-0.09529759395003143,0.2110718133775692,-0.23806546454898095,-0.22987586778313315,0.01734948341742669,-0.22125605775682036,-0.16555196165223013,-0.2304688068922765,-0.11254523103071805,0.07146449268656913,0.06564289218965687,0.09247522220782961,-0.2094955788868101,0.20544621506364227,-0.009809542307005788,0.24609204488914327,0.0074552034147959845,0.11825217039001523,-0.06705112413951408,-0.15797948759381067,-0.2128971270653954,-0.09782211599525696,-0.06299953422290173,-0.05221087612994954,-0.04782002686213203,-0.23864932285273596,-0.09399022643412801,0.14800727118800028,0.08440071907595367,-0.0005503557888509292,0.12461032232064087,-0.06631361407690588,-0.09316455566800626,0.14065559821961204,-0.14750113196225811,-0.2595275069364225,0.01482048428323422,-0.017642974170004933,-0.011701519525526864,-0.17433974014121384,0.13177831004004445,-0.09335710441752208,0.15221226460453843,0.009897250120169333,-0.11446121042431702,-0.014478689835938967,-0.17029628487679926,0.14510079317191898,0.24013594286394782,-0.10350919640488641,0.24050159556443046,-0.040638598515323254,0.12643746187184385,0.025942463688429278,-0.09573124040924211,-0.27192562215410876,-0.16000141782578903,-0.20035639450198306,0.195005738762888,0.0034099935458287104,0.11789021527767492,0.17396241051741881,0.06394588968800298,-0.11512017379534145,-0.18569801834672903,0.16680266457897616,-0.0786210921628469,0.211223141706668,0.15393626467538338,0.22924013858018535,0.20774835287420285,-0.0881941259877453,-0.19143736213126328,0.23047094414479327,-0.0774770704604202,-0.12113437171809359,0.16224351701336173,-0.05860046956006705,0.02356017038464019,-0.1334007082478189,-0.06783068127433209,-0.1753519029648174,-0.06138491056501945,0.03520139510345732,0.07012845734172628,0.037668458216141384,0.11936974191912386,0.24040225650203367,0.04604116374626232,0.1615332263168507,-0.1530847142531057,-0.1287769527738485,-0.18093494458791096,-0.10778895143427991,-0.10446830119394392,0.012494818219385806,-0.12252908343487473,-0.21196464353213507,-0.12515585892299447,-0.13925086470027578,0.13578494995545715,-0.057200117171330306,-0.14835653812969157,0.1361634212924187,-0.08384637822835006,0.1907410475212655,-0.010693191254755742,0.014256892825861728,-0.049189959250462455,-0.24419372853310584,0.06960671292318453,-0.051328876212725645,0.20085466539861685,0.00994492987962474,-0.243685474658024,0.11826311291535548,0.21938883807843965,0.014522488720381746,-0.3039419948718754,0.18445177512911315,-0.09335580690764617,0.18578920725085427,0.11952464291494438,0.020750711085761517,0.07009178760004078,0.11766516213688451,0.01338687063667087,-0.1287825127949205,0.1613457239789087,0.22114434578315212,-0.14121255107049605,-0.07943554206728766,-0.07637761423007362,0.11400146464116112,0.21229579197936607,0.14500721155825905,0.20315042310966738,0.19484835540973797,0.16224014422377114,0.0886773639395915,0.1014751408801738,0.15884887961986616,0.030601942261925235,-0.20080028308869402,-0.22241142865123503,-0.053319886776090245,0.2746370074942389,-0.04387729820284138,0.13215083343011827,0.19810241721319144,-0.09025408728261274,-0.12089124140393705,0.19168027540532814,0.25872862396574525,0.01221070170544684,-0.1474686094191679,-0.21761111962775903,-0.1620761118073689,0.20105565893648727,0.031345760999206454,0.027513006822123664,-0.03636249588877434,-0.1398662650603672,-0.17346158138372322,0.14857560991531407,0.21581971742951778,-0.09524709489076127,0.22066612261344948,0.22322558692003228,0.004215640330614176,-0.0906211713235344,-0.1792441431240705,0.19268154890957412,0.003265814698635194,0.04956659669973517,-0.09917932719526078,0.14840375529612324,0.047271565527118954,-0.20358046896670998,-0.12965091451492747,0.2196817008765454,-0.19192280276744692,-0.17435908431990207,-0.10427766793385627,0.05462211711445138,-0.0887696794042258,0.04265629759888416,-0.17192425500901545,-0.11088850416509859,-0.07261060013332783,-0.1970169041059453,0.110542578360899,0.05763390910772911,0.0974154270217527,-0.1342329966902527,-0.10224183644451741,0.1634904555219302,-0.2066738071815024,-0.22598439197106268,-0.21873849898807407,-0.09314809603579143,-0.10964803465190119,-0.22185186425632544,-0.10317194200147606,0.2233474183802957,-0.012739973304696514,0.00005392903234166061,-0.22280663583422836,-0.1184378618147814,-0.07771857776532289,0.17768027867251285,0.1834522254992876,-0.12823190064057682,-0.07710577727026588,0.15555358834600652,-0.0847805659197855,0.18027344978326346,-0.04564902944661137,-0.020606509129256666,0.01362584081875416,-0.03190129268879159,-0.10343765067982692,0.2246380905085745,-0.05091569897806914,0.18317199262214212,0.05080474314824935,-0.16335594686949026,-0.17508420130170946,0.16458221363997352,0.09245126077105303,-0.00394471865616913,0.1953321512792328,-0.04534612657034789,0.04877312829724757,0.06487218189795807,-0.20625287047640528,0.05848051140597746,0.017921422981618487,0.05238902687772967,-0.11547792138720832,0.19294480908369793,0.2988565149270187,-0.08854588296508129,-0.22264433958187246,-0.05907420588477638,-0.2151402269310039,0.2670539287605804,0.14738661793706798,0.022444903402897034,-0.13208984259528395,-0.2326397302453095,-0.1349760568647172,-0.12705918916922496,0.01947134806244566,0.1404077211992305,-0.031713780607660266,0.22833033886657716,0.19583835948998204,-0.18563078635453564,0.09447232317953935,0.20246636375216442,-0.12109136888731523,0.20719362523449303,0.11187380244833177,0.10166970082995619,-0.05634713660506231,0.09631536244463305,0.09189110431487052,-0.010153748674485723,0.008639546919415868,-0.15930193378848537,-0.17771143611213502,0.10019331898402865,-0.1766660718864012,-0.16554250526147263,0.10164489084225276,-0.22642123942937897,0.07315415494241279,-0.16986925900002103,0.1167216006667714,-0.0941979487518385,0.021073822239720166,-0.1479654051992785,-0.16858552021499765,0.06447679907920358,-0.0822843767810373,-0.0041729501447341204,-0.13444823750063567,-0.1635811898071494,-0.07649545919370755,0.1331403973202564,0.17400066921962867,0.14452651799613891,-0.19219484026127964,0.14047958977487476,0.05480209340518555,-0.193890430252799,-0.202534308421662,-0.1803035514087976,0.193304752715896,0.08732656015363366,-0.04824307424775392,0.1437844382333927,-0.027939247725537047,0.1236373230072261,-0.05344617815521519,0.13931613865458142,-0.16237404543241837,-0.25659383211446046,-0.1371613599739301,-0.2003767409426171,0.2014164978226501,-0.13814372717596382,-0.09680296232812557,0.1866723898967025,-0.06806110748689576,0.12557800543841507,-0.06042910605286055,0.01980380073686975,0.02999032511293116,0.14840896237492038,0.07533820760882458,-0.24360009026229001,0.22265673998932045,-0.194946022396351,-0.15204759959592154,-0.24777802947469652,0.21341715233170364,0.08855676441904796,-0.1365822754975259,-0.08170093260717184,0.17681613448167738,-0.06709148546069281,-0.19624424620018388,-0.05268049403149471,-0.2447513043682815,0.0935920533230454,-0.05512232343546759,-0.17488807167476866,0.019278436607899598,0.21503614468095703,-0.027637345637492983,-0.09426024597661839,-0.18778955833722463,-0.02529587359275403,0.2539446689130245,0.1598078117961087,0.10142041735702559,0.21516440748300852,-0.18677975203700659,-0.14849463501249302,0.21705298834945844,0.17249623012236515,-0.020918507482418816,-0.17397374244942201,-0.001129362756811034,-0.0351011338877726,0.1506187072483911,0.015607648105581413,-0.11765987028046372,0.024821087587869956,0.09305040788357977,0.04875208881547235,-0.10298951695923211,0.13655312780140788,0.05144895833228195,-0.08394056032314975,-0.16770259369351545,0.22642714702726377,0.055391053798769976,0.019077408091923022,-0.18800042879260168,0.0707305623472041,-0.2271487249034074,0.1651720185129362,-0.19738231240963547,-0.1455565239454432,-0.1835959020397759,-0.1432813606459862,-0.039163263072274246,0.12032018597969202,-0.04548765580936914,-0.11128986598225153,-0.2062907418814119,-0.1991542454799966,-0.14645398700100815,0.18549247208813724,-0.22375435349968947,0.13251140982940918,0.22345297891475902,-0.14716909407135936,0.06669293029974106,-0.060986018757762946,-0.018696666985428614,-0.24852074646855124,0.1682956215418661,-0.12867334450613976,-0.0763856588679677,-0.026681682215256908,-0.03678342168517743,-0.1947533503072244,-0.2448862986691879,0.056421683738167853,0.03650514762696566,-0.1673940579433589,-0.21104612303203688,0.07643529002159265,-0.1307329373792559,0.12385731660753162,0.08878403393306232,0.11845334215037755,-0.07028719885155157,-0.24435918438061463,0.16511089473778073,-0.04295169662272595,-0.10835347462267235,0.08405955027184617,0.09014636840420483,0.2066394935162288,-0.0774446121160641,-0.1412671091448238,0.07121800357936804,0.04364706356103289,-0.1431776562431896,-0.00739522270941354,-0.29791987634375644,-0.16477477253707049,-0.16114821106833707,-0.027480468214763694,0.19253758543655208,0.021801302167893666,0.22846463014572557,-0.14551489080180097,-0.2570534322797953,0.22581285152177907,0.05913088693403609,-0.11723664374382747,0.060080271898766725,0.19632240811341803,0.24039574508574008,-0.24803919195337654,0.07418183791341904,0.13021538955323309,0.10858505822433985,-0.056678832140515625,-0.1346361319052499,0.2749703090582503,-0.09579541812819468,0.09390058951667292,-0.15678066465636903,-0.08984606243123028,-0.09338448231826026,-0.08793188587358405,0.10309241585275003,-0.023639426754883088,0.16631247499476443,0.05248234426160045,0.035138539731905984,0.09522474905121321,-0.04999178740475316,-0.10118740402555215,0.18366219008078274,-0.16640663000207667,-0.0924356782319137,0.2399135495371725,0.12360335456829975,-0.24976934969057266,0.08174409862786275,-0.14703307714420022,0.21894270568371604,0.0030884561150352602,-0.23960710809574512,0.030496066327307707,0.19617373960896828,0.18497009789354385,0.11269731817250311,0.21799308512027077,0.05098198024884664,0.17584891679944648,0.10338261145425372,0.19570000360387793,0.10497194550966066,0.00020745529111675874,0.001803512016765301,-0.15188545190173572,0.2078079612185502,-0.05512901225530243,-0.17170477854636712,0.10733917672821196,0.12935279622237314,0.21767578481136624,0.118344786314294,-0.07594985706536715,-0.11712336095665642,0.15267751330507415,-0.0471422643858844,-0.08790572819318593,0.05920849319877248,-0.020864777101330043,-0.03552396779554039,0.23364527203453517,0.05494647567929977,0.013488251608403935,-0.24913963442734877,-0.1269169361520246,-0.13361884674865157,-0.18274207146554175,-0.23377007686794501,-0.19338676179866826,0.02353353945975498,-0.16770210557694729,-0.06552841702307102,-0.005674839250045515,-0.013148617424493672,-0.1274443737046372,0.16671292611362412,0.20968660927521116,-0.07868418131031679,0.15773884291134826,0.23142912619334333,0.12267727260131121,0.20692276635793694,-0.12387955709752287,0.234866171112145,-0.11307493714872287,0.07001702112716693,-0.0248308703797422,-0.030516367691370054,0.009457102669112916,-0.027077859568692762,0.07548165998437859,0.176275477873135,-0.14529401602797046,0.054570564884892626,0.19564426445517274,-0.14760467157771814,-0.05571958839246655,0.20702059751121477,0.14689544879130376,0.10622990906194987,-0.11830168633306165,-0.21446007995786986,0.08716446505240161,0.12864136215592337,0.055736183564246304,-0.02255039392001604,-0.20073350017321312,-0.11279529317071989,0.16832258241641038,0.21713525673028683,-0.03392664515730085,0.05344899409330245,0.08578983929218655,0.1306978762088347,0.22859489822749124,0.1658491541919224,0.1682788398506026,-0.16327369927855706,-0.220009533021977,0.16137854989200054,-0.0545584629044933,-0.21784872421257004,0.1231640297171447,0.009512195717457112,0.07449180389297666,0.24161774774589914,-0.07745746285536216,0.153042217294729,0.26029231428756966,0.2511393479283381,-0.04104265567681198,0.03006440009781731,0.014637462236091392,-0.23024775372428213,0.2491519447521673,-0.011688518998306587,0.19117317265119202,0.13207986332404953,-0.09534034765477944,0.07647395282022125,0.15971832932420982,0.10333545389614027,-0.09233425198700908,-0.17075451851916637,0.21560534742713894,-0.0037562795019934403,-0.02184317803347401,0.09180908068685043,0.07873852958687978,-0.11599548015417252,-0.10458035835955472
biasActivation=0,1,1,1
[BASIC:ACTIVATION]
"ActivationSigmoid"
"ActivationSigmoid"
"ActivationSigmoid"
"ActivationLinear"
