encog,BasicNetwork,java,3.0.0,1,1399533478495
[BASIC]
[BASIC:PARAMS]
[BASIC:NETWORK]
beginTraining=0
connectionLimit=0
contextTargetOffset=0,0,0,0
contextTargetSize=0,0,0,0
endTraining=3
hasContext=f
inputCount=30
layerCounts=1,21,31,31
layerFeedCounts=1,20,30,30
layerContextCount=0,0,0,0
layerIndex=0,1,22,53
output=0,0,0,0,0,0,0,0,0,0,0,0,0,0,0,0,0,0,0,0,0,1,0,0,0,0,0,0,0,0,0,0,0,0,0,0,0,0,0,0,0,0,0,0,0,0,0,0,0,0,0,0,1,0,0,0,0,0,0,0,0,0,0,0,0,0,0,0,0,0,0,0,0,0,0,0,0,0,0,0,0,0,0,1
outputCount=1
weightIndex=0,21,641,1571
weights=-0.06255158049944316,-0.20011453354606965,-0.33752729837734297,0.26872494027767074,-0.2873323270937822,0.31936127074965054,-0.3382744764242559,-0.42116214064319696,-0.2177087130125424,0.14477354305520462,0.0026992373974382465,0.19460365770316562,-0.29582289932635725,0.5922720438609803,0.19040415521392837,0.18566336418579926,0.4039739401205916,0.3970586318707413,-0.4275081520897573,-0.47495899161293265,-0.17888979965596175,0.18327897398303633,0.09066666133053598,-0.06947064105233226,0.1343464237265135,-0.061170418884079994,-0.2505055075131934,-0.11231366875059609,0.12241339286742213,-0.05651932938696826,-0.0030269020093273975,0.0643682595327781,0.026153098999161024,-0.14711474317627127,0.15502922979701755,0.15163905278801026,-0.043322539711991084,0.08320369044412225,0.10656343563938073,0.11131337717089307,-0.14000995653721438,0.243428520772129,-0.20259436336456932,0.16095675698241543,-0.16131336499474214,-0.09471432372876284,-0.2361812828305256,-0.1328185270854397,0.17549521018105282,-0.07456297531742652,0.23875114313801327,-0.13737387938276477,-0.07385940413535606,0.12494049793870637,-0.15140864459574727,-0.09828261805877281,0.013914655720150831,-0.17671703365786506,-0.18441605707581238,0.11792566331116722,0.022495805251043322,0.10701280680533624,0.007555444364859201,-0.22005599793525776,0.2636561726801232,-0.19864059914965,0.1992687425978722,0.1407167410068593,-0.12835121711649497,0.1504788019642126,0.01938528417648928,-0.1919410628098891,-0.16869818541973725,-0.17555219449178958,-0.17562651731103826,-0.12079469420786114,0.21188968417036708,-0.058067920645235103,0.17082877709317554,0.0348505296581402,0.05059085316623101,-0.23515146313052465,0.042020883497199964,-0.043641535143100124,-0.09058456921473901,-0.12218431551943093,-0.2533553641379471,0.07517221864554292,0.18492823133266556,-0.10914375136651905,-0.11583793119007293,-0.02148196718689844,-0.12211205823304563,-0.1129294484707834,0.15985452523173124,-0.026879732514882994,0.24364341078450724,-0.16816608363367516,0.2412108066817515,-0.147118562548555,0.04342508732477908,-0.27473929411756975,-0.24858639704177468,0.17103465908865662,-0.041440822629253665,0.17360267567398835,-0.03541828830805665,0.22294537634528677,0.03336874281445767,0.0068436825867702715,-0.08689148787226365,0.2592089237512332,-0.19834903398120532,-0.11480377561131666,0.22582005606979794,-0.1584778782993452,0.22624005774487105,0.16905395433995432,0.045137279275142175,0.08668041855200005,-0.2550126175123591,0.02005169113865849,-0.20644822166854535,-0.04229912732557202,0.15713960098714616,-0.007747051177852781,0.07274309191814732,-0.22858973563247656,-0.2059472888461528,-0.016780141868250886,-0.09678308472975379,-0.109989316014564,0.04899825957457512,0.2078787761735309,-0.10950057765283262,0.2313334614912154,-0.03584609843273385,-0.0006059621706367573,0.04834298339994354,0.22047592118981518,-0.16580153851717114,-0.093643142554888,-0.2448051498395788,0.1832056761481997,0.08985923819891198,0.14277039640908046,0.14020229910169016,0.14052997368366196,-0.19422336755901473,-0.1297414985633023,0.010394755608741025,0.14521914973726605,0.22623227769828877,-0.0995840381245933,-0.052618207140970805,-0.049119107892324515,-0.2562005418652921,-0.04890132691209624,-0.13159588126107433,0.24527251657668253,-0.02720957279026221,0.09062723498506471,0.06847256270167448,0.041298123423297285,0.1329609201565748,0.05702428168299945,0.07250356371212113,0.051779775064411684,-0.2675489422906069,-0.014269474223895216,-0.03466425882480583,0.05914150677022155,-0.3129033159031991,0.3037068990864442,-0.18110322340646218,-0.05320963585080843,-0.03701061066070246,0.21841652005244178,0.13266028208908878,-0.047574589757504254,-0.12941527142863213,0.12652449994902654,-0.24868880019878564,-0.0959328887938554,0.20313337286786765,-0.27604883788841145,-0.07728090776916287,-0.2152848357779243,-0.2558649327573903,-0.12706118113475642,-0.0770298337553757,-0.2240401981662743,-0.17858497143395702,0.11158270277395226,-0.11077124600565565,0.23596576598409275,0.07870395227843185,0.02474013081250829,-0.04054089711368787,-0.021053925411189965,0.1547083517898402,0.06871391608176648,0.14892633415956047,0.20134104857096186,0.04568613641926597,0.186781437261275,0.14098551747868485,-0.13422340881797112,0.06847764927883626,0.14069238791608038,-0.16278318512713813,0.20104749594251944,0.08916055105693463,0.0720846966233542,-0.12927962716913224,0.08553237306331189,0.08094201796183545,-0.1863429710698116,-0.169162092967041,0.22524743375839423,0.24720143830853403,-0.12685975085197318,0.25810407958305004,-0.07964478405229282,-0.12177249857615935,0.11617890297890876,-0.010589402774779186,0.23494782399831737,-0.27401785361383374,0.2490522804183767,-0.16490410985771592,-0.03993722673077436,0.024679450253286918,-0.08336761851524313,0.14353254383409042,-0.1461626158063774,-0.1110987612861754,-0.02979783021951734,-0.18636700738426723,0.0410506042796529,0.04946379827132106,-0.17265321974528502,0.29645929406715044,-0.16427073197838143,-0.011231874080420121,0.04731844094194611,0.049892177143053815,-0.09621648364088249,-0.08781930633152396,-0.1677745999648481,0.05185374746438336,0.28411802102161293,0.13539614453025042,0.23821776360464422,0.17544267873781133,-0.1854207246577928,-0.20128535186137803,-0.2123299713900119,0.2926671179404299,0.11263152711761767,-0.13769174019576305,0.06352698477651264,-0.12850559416543017,-0.05715700573294668,-0.20647050856822394,-0.14599015997866224,0.28013549801997883,-0.05045613727327902,0.0023564356434528167,-0.2404822869971737,0.07629934110429487,0.13654092243025256,-0.23655154525198901,-0.2388160052585469,-0.24333422196986343,-0.08511228712442344,0.07959662994226337,-0.20101704444540167,-0.03688059783577225,-0.0375566081434125,-0.049860099903547936,0.07464252566512963,-0.06437542278495724,-0.2033181695682975,-0.036293457331294146,-0.011129836994229647,-0.014367796250994396,0.03842185649085412,-0.12083003168872854,0.000426885029538894,-0.27744790665855423,0.04415259285097136,-0.05479564451627453,0.16056843828393874,0.0003994161282607146,-0.011191853244980406,-0.2580496053773941,0.25024387542403104,-0.21762202396294933,0.11825282156392757,0.1857823932730766,-0.07745556932990864,0.02865755333865068,0.06815403641166361,-0.2285718567229183,0.1765499749790323,0.11519602195060046,-0.19782290272930364,0.23709367600417608,0.1837617495164806,0.1877353152870018,0.0035774541521110554,0.07160433997272107,0.1511627149364954,-0.018791870423588784,0.08356694731418868,-0.03226086104455757,0.10739702105395196,0.23481816269293587,0.003723520068100626,-0.16813364381438445,-0.042907537352595226,-0.2198829853783098,0.05318762424581181,0.10450768171935523,0.24590588045909675,0.17222696250574843,0.13145354739018952,-0.18600390953025212,-0.09409498136189304,0.0678966453308856,-0.18816275268720178,0.02548181214148997,0.014518491542837325,0.21353049483019773,-0.20049808880846492,-0.21224689736141264,-0.04699787650632113,-0.1074118077152923,0.1582729641065843,-0.1056296959539015,-0.20849016847074678,-0.04004641892985779,0.11207031732400716,-0.058096985994888044,-0.14563341231180552,0.10980656855101088,0.05900514175856352,0.05407786851505992,-0.078352261728661,0.03592909576354045,0.22965323222509185,-0.1513541573458205,0.17976596737494444,-0.10512635869960593,0.22833714466531313,0.0831810270763784,0.19088894342201307,0.16999522207056486,-0.16414691483640767,0.1667979538824315,-0.09782801733845034,0.08301013937138481,0.25222822481943236,-0.036498014817299335,0.16424119273285606,-0.02434458404450437,0.04022270238834132,0.18266418481017313,-0.08441305056639595,0.11353891941070879,-0.27450778548957944,-0.16090130868453068,0.20515644367824115,-0.13855282176967354,-0.0016669963946660898,0.050848400006247574,0.0893370659683991,0.07892091715912719,0.12649091396812687,0.014913281944875505,-0.12086803253569967,-0.2551777828365938,-0.06750813966755462,-0.22509746736020197,-0.08847994547404446,0.01868475955733301,-0.04618245673344443,-0.20876009419094105,0.12316287989484175,-0.16103244236103606,-0.19174162067112788,0.18485328571118753,-0.09245387754099248,-0.19938115395553785,0.15923519110204845,-0.020771279080178742,0.020264111924235998,-0.15484506118948288,0.19705201551311732,-0.07190478489424237,-0.18569233463455553,0.0963968021163428,0.19848553606579708,0.16279437116773576,-0.053143846091733095,0.2915313192470909,0.20454314232075388,-0.22561711746615565,0.2841150953178821,0.07428610262456836,0.03208012153200105,-0.009150171913099872,-0.01270328523449864,-0.022839375710250465,-0.10596608888086223,-0.18304376260969732,0.28450855266918945,-0.06674695600996093,0.021798771675719402,0.025543843563536967,0.169616586034638,0.06303470439712217,0.0628539610967031,0.1577005068116225,0.08030650973018089,0.1450109956505771,0.1718394685145642,-0.3191989751628866,0.11491665701329813,0.005100607133386114,-0.25480112499674545,0.0800805683201645,-0.3395511998895574,-0.14955943430327118,0.18532954325962492,-0.17831781177948391,0.08622904224692858,-0.08480202514593062,-0.21287501132034437,0.10469344713296831,-0.24661446000768517,0.2951486634728535,0.26430740073802783,-0.11785125896197474,-0.059826125508732855,0.013421626175084089,0.10051144985367809,0.03980207966093767,-0.07849826392257674,0.2982293542405344,0.10517750441492293,-0.10087441422151279,0.2166421749294697,-0.0248288398698322,0.11609415263609957,0.165489289172364,0.14811693564715417,0.016348067915071356,0.05323061898831034,-0.17210597753748072,0.024517431248289537,0.07727077116184747,0.1805785307641112,0.02812357254768994,0.07627941547871969,-0.04869297105494456,-0.16075754554703298,-0.2534062127771824,-0.23427975421651656,-0.017253484533606617,0.1760389084464736,-0.1536409660930878,0.23661754372987812,-0.16618792392323356,-0.15862392227993274,0.17231436271590236,-0.23369582884655088,0.08309814643647608,-0.10963168633095378,-0.18446379839898586,-0.008785390198715031,0.15088496108675736,0.20054669080602383,-0.1100434082439443,0.12484567354046218,0.22686575936047967,-0.06367531325465818,0.27799027421642536,0.13216273537266274,-0.21200482443270474,0.09398211745070557,-0.05731991482053441,0.1095932481334435,0.01774357911043647,-0.028426047129122434,-0.21738770550133196,0.02225301686923592,-0.003178022370327439,-0.1290546575454867,-0.12917581113128007,-0.2314891337612001,0.07683903351332783,0.15286008061492218,0.1817825047808423,0.016759245207130888,-0.09090742455765444,0.2201912743946776,-0.08815427025410036,-0.1326138991412357,0.02924948530354507,-0.1190849884374306,0.06609106211704248,-0.22512549975710833,-0.19298289129606674,-0.23333291463464773,0.09622404939105053,-0.04691917723536041,-0.027444813109854714,0.15345788296106377,-0.1579110792272807,0.02242280388740122,-0.1882253124205544,-0.18850347364419637,-0.20620444740038624,0.039094655602791406,-0.1525714306478024,0.006906523134696796,0.22120572040856046,0.18248158786638768,-0.10656791292032332,-0.20582632292032574,-0.10879743349348725,0.17115111423411852,-0.2379559384605967,0.2276792120320254,0.0007822816615362289,-0.25287927621254697,0.28721154970833224,-0.0069557182359539374,0.1839473464015261,0.06966448924251462,0.1226976245308338,0.278593847712734,0.14258263093787146,-0.01224012332776299,0.10015962502384505,-0.12250502920985329,0.07030154096847512,0.18619980266129033,0.14746004925558262,0.14251159228336557,-0.2722976738337245,0.00721381203354816,0.06232891029013682,-0.17063541452418363,-0.22805693445247502,-0.2920626172501706,0.21841367121362806,-0.07387536064077027,-0.12060912848876577,0.1567431344582007,-0.09252459692279856,0.10851539342991011,0.19066654728894034,-0.18454014611420272,0.1596918749324638,0.029067549543038394,-0.23023713515020738,-0.09552007713283063,-0.24975707276287187,0.0032807771918049295,0.12851812088683948,0.06813824843603986,0.047100882681001426,0.23326257331828,-0.14628455519136135,-0.09475822694514544,0.10215468893176252,-0.30117091309708804,0.11567360453919948,-0.052276474085388935,0.1625949947730857,0.24753783014645953,0.1273862751479738,0.1339487268863179,0.08865054887587229,-0.1271287791621989,0.20852564073147137,-0.2249151366301547,0.07954281394509255,0.0861114487610001,0.03835139179152607,-0.08016246611173859,0.19714828877777704,0.24498713136580355,0.2276530084615978,-0.023973934180552946,-0.1711228642600091,-0.04026193646326956,-0.27050557573363887,0.01906866119347837,-0.3087292883664224,0.14557593187079876,0.12588990866432354,-0.06206861795982546,-0.07174462350548245,0.07425240938168583,-0.15579265451461088,-0.20075711653236958,0.14207158926813157,-0.07086241212684458,-0.056781831770156964,-0.18633459322941753,0.1415767277507666,-0.05411019989365067,0.05562508322368422,0.17687728092348226,-0.2002477292899687,-0.04882114003740672,0.14512602028907465,0.17739412423901232,0.1679760513047242,0.2252086368183254,0.10469514763452702,0.1570348408840273,0.22945914180171667,0.17926701497555295,-0.029467198113557844,0.02871550901859235,0.15436725457738432,-0.21104598898507596,-0.1757554223502489,0.00012252935473515132,0.2073190228618834,-0.2250892729686354,-0.2006057206437395,-0.2746691473147863,0.19407647525875543,-0.16175881297938038,0.2060701383545705,-0.009043627404442227,-0.06330230101072408,-0.004242858199618704,-0.06375052920210438,-0.16070346119212853,0.0726407614398691,0.0378332124111475,0.26432197511353195,0.07725346178059275,0.01809798789823328,0.09520077087929409,0.22562530954714585,0.14648254248002876,0.1451570577525561,-0.23364080308082597,0.13489585843393,0.2519244373468674,0.0843814337663658,-0.22300487625134455,-0.21891722803512897,0.18316881581135458,0.22632979767249245,0.1407680223131043,0.2696417643133577,0.14121407194370134,-0.13180665927784133,-0.09640699035969698,0.17158198922189627,0.21711547359730105,-0.0659927145816106,0.2278268066230714,-0.0001455293349112143,0.16099229145183985,0.244304692019725,0.08526388991177719,0.014202119283895556,-0.15498377166357613,0.20607176869830568,-0.13967114701901373,-0.20540793200914093,0.19853581866346515,-0.08014118567522158,0.17090110089138,0.09813777209956666,-0.056458474478049865,-0.04076953993936102,0.1767689868483639,-0.030153977693413003,-0.1527364125190146,-0.04323319043001558,0.13808033432959174,0.15569248847358622,-0.1333922676961504,-0.009417453509777898,0.22865116774030547,-0.11684814957185026,0.0830849653203015,-0.22302669511016568,0.15240095946961663,0.19282635438247125,-0.02905819262090049,-0.18950247026196695,-0.11574407637379439,-0.01985347894998963,0.136392414526459,0.04272383753673264,-0.25877815130681076,0.17406757054953773,0.24695756861608614,-0.05998355498265636,-0.09991812917534271,-0.04218698784767571,0.05747565155016738,0.140529823270664,-0.10212914526166958,-0.12275134160564226,-0.11950062567478488,0.12789221151990435,-0.0773487477558005,-0.10941653637510848,0.08150725574003943,-0.08900078534388382,0.2704454959289137,0.09914750888002113,-0.11741738734400281,0.20321320889957095,0.17831589712437843,0.09118047384061426,0.16558758145457464,0.11238902028244106,-0.25609732183927,0.09910623442540444,-0.2602221305613384,0.23857094799190412,0.11510661276990852,0.2149557070389901,-0.022418557269831982,-0.18298130933001425,-0.13834753959018464,0.09874668950659189,0.08509770351911332,0.06436975928538317,0.08869381957213911,-0.05644262888439537,0.18321779369940192,-0.03824897859198406,0.037718976634214904,-0.07732014648438038,0.06064305288062662,-0.14138761364495392,0.24809928249485602,-0.1983817309266073,-0.10302106257673596,0.38834153820151796,-0.03928461986305981,-0.010916127963561697,0.23116006954950158,-0.15810990053590593,0.24018821928232884,0.0004492222821732975,0.3755594748197554,0.11472094832070813,-0.19721306955062637,-0.19849539057834512,0.10103819610256856,-0.19235580452628837,0.05080957714937724,-0.20064203987329476,0.12490597838857298,-0.26822142433481344,-0.17858857801281033,-0.24201987259841737,0.14477356157956361,0.2007529202033893,-0.1473152238083767,-0.215674327975736,-0.16424347588435204,-0.06390622179426962,0.09396547864486685,0.10194338490639125,-0.05439961448563632,-0.031679458027322034,-0.16466733834937483,0.013951861595781804,-0.27773777171277253,0.19341917717517199,-0.3011640838464664,-0.41904739057842116,0.058113359420339517,0.15688972535629434,-0.22584402729790773,-0.15226524451563103,-0.17707786369057796,-0.11086648553917501,0.1766226218307177,0.24609487341338626,-0.1105823853295053,-0.14228206150538544,0.22243954107097583,-0.21431506870778957,-0.04992019987246051,0.15945390997503237,-0.06190458644602665,0.0065923283556723064,-0.08502203034968515,0.024155096814382052,0.2030569876650287,0.14991480593382844,-0.11561337580407627,-0.20552833137996498,0.08766373040525118,0.18835552727975519,-0.15436257669477518,-0.13745657712288548,-0.08056226889925039,0.25495206879940274,-0.021623348281937214,-0.027928740082104053,0.058528153018850324,0.20672388291880156,-0.04599049218283136,0.13166257019728747,-0.1187525426117224,0.15826074668277507,0.17575261983816903,0.0459471128570944,-0.013102114410454892,0.24798664726831027,-0.02726849686938939,-0.21687619406021244,-0.2346488122881526,-0.28209427524083674,-0.23890437534689726,0.12744656785902433,0.04873686374782639,0.008465328732806537,-0.09606521711182724,-0.03480489301372436,-0.2435165013053693,0.034363434906422456,0.11940969435190982,0.013197145628831106,0.10549017606203567,0.23445329150002522,-0.14574918880884422,0.013328609478417146,0.006037876588157078,0.09348681379552508,-0.1844358986841886,0.013531386169671217,-0.08970639631602176,0.1160868229204079,-0.21771962063454198,-0.14192768095294947,-0.13853632533115845,-0.17495350480248173,-0.03415629115611852,-0.2596001553934214,-0.02200363122053039,-0.2935499277983248,-0.25633061495443893,0.1784681645889946,-0.04454243391669978,-0.1090677559161981,-0.23397924930146316,-0.17715650556380358,-0.20726209100689655,-0.11504885857575459,-0.16405100939546166,-0.12157966561472847,-0.17891576141217005,-0.14256775752380554,0.05197596963147909,0.08232676083515135,-0.06366671415998723,-0.010777612584750051,-0.046073021282906204,0.05264456608850481,0.011260025900055998,-0.2017830610437609,-0.36183876326992953,0.013454922123273063,-0.2627416295393175,0.13253538309230134,-0.013066414479754582,0.1424906497497747,0.040336397582613356,0.2037594435651173,0.11490651229252478,0.17036978865911342,0.08642351383224135,-0.14621999860871046,0.10997014637960488,0.29017550175212764,-0.059665969341335286,-0.03957722136520195,0.138299664954943,0.17267229948076598,0.08911200425764049,-0.05714623144175324,0.03859590500093531,0.09711984699303856,0.08842516959963759,-0.08963872141566803,0.18394776866051324,0.03912126158213906,-0.16291356468827492,0.060119744659825246,0.30741961473767127,0.20240573528284111,0.001870486527836451,0.15771463817138445,-0.15072675048009843,-0.17914983137958754,-0.13978358295877513,0.03394936317223995,0.10564202949876332,0.2287655709581784,-0.23197088693547918,-0.29122966845790793,-0.05890907722397823,-0.30335291642456913,-0.20720752563224762,0.06305940649133619,0.10843612928714517,-0.2174789019509043,0.03396730456611966,-0.17882183502273977,0.013804549706303793,-0.1956710161764173,0.18610955371464896,-0.26924285677571413,-0.032730633813127206,0.10674053398529261,0.13099224115219432,-0.11231964840112675,-0.14477906742546165,-0.12424324510578608,-0.2141244420805075,-0.13635717428539784,-0.13043000326333273,0.0037696320223203897,-0.2071335608923867,-0.10423951145756324,-0.07535758822257925,-0.017833507190827925,-0.3109371079948412,-0.23745496835354196,-0.23803591444448421,-0.05455190576554297,0.11238733101355186,-0.08757047045968282,-0.08264349897703513,-0.11401331018500803,0.06342774011588356,0.12729448684191982,-0.04928998066305883,0.22348037891407402,0.1430216519621665,0.01987856588203012,-0.15085367420240695,-0.1368994514705732,-0.09118764578464127,-0.18018993495855817,0.19150642834232523,-0.1296451248674976,-0.22206790870033624,0.11899310214015249,0.22224790863671215,-0.015154789277174563,0.07461777464704762,-0.08539330849485206,0.13853937058957716,0.22013518867396403,-0.10873586835800841,-0.17919440295268854,-0.054838851584375174,0.10456131850890944,0.19311236697235265,-0.11848488973876695,-0.2290637986456894,0.009160370739419214,0.15278749541502343,0.08891713075994155,0.16444418127716687,-0.1685217319781321,-0.19379566809216547,-0.12909463175762007,0.12821124574410775,-0.18491545605553358,0.000654367181605317,0.0011387558909259003,0.1981919527955376,-0.16907807530307198,0.22333183867014958,-0.22548603706976056,-0.022378443711276282,0.03362656943072947,-0.049245840223468604,-0.016800563601983537,0.16567879768149626,0.2589550708631072,0.1352705122101377,-0.016646900924554023,0.2828490864540382,0.023085744888286835,-0.09953772634727494,0.22763760835910665,-0.13885217317076043,0.11058236326446703,0.07679014333079245,-0.12425155018601824,-0.1537808520225489,0.21111205323475998,-0.12954504487960394,-0.22993129819248848,-0.058263020704160326,0.08332319262353528,0.04854854226050942,-0.30848682541399375,-0.2688064680542773,0.10049507406200517,-0.2235333157590243,-0.03898409904332226,-0.11888802865418437,0.1901474324761737,-0.08894070101891159,-0.03284703277256953,-0.1104303489086232,0.070441056578941,0.0006712472235820715,0.2794158469289614,-0.3586189386123343,0.12436022625973453,-0.21197799033662776,0.017154831155913257,0.009448097114338248,-0.05425563647558912,-0.07103849817554674,-0.26797520173269623,0.1321158372751995,-0.03345096551658223,-0.11490525574801869,-0.09903456085191642,0.0327449666230663,0.005974146558374525,-0.27624921456185453,0.16897153646844948,-0.2554246621858122,-0.2716549146289837,0.02342264435830569,-0.15419904807476803,0.18478151867877735,-0.02688642790527428,-0.08697899478437256,-0.24015304563390436,-0.07691300891329322,-0.14391232703638673,-0.0017362978645641524,0.2002873946599369,-0.009930447787756256,-0.1749155848402143,0.08244776199386813,0.0682008569084319,0.053527052830293714,-0.2904305486408451,-0.2590080272871535,-0.1203081675486648,0.13796355744489658,-0.0964754084227062,-0.3129406361395907,0.1957963478972813,0.08583316051303512,0.153323995972393,-0.06274233237489958,-0.016027581854012055,-0.2940142805398838,-0.2241303896894341,0.17352412512934112,0.052401089465287536,0.15303188295781645,-0.06645793657290652,0.012734576377108547,-0.11797093789102067,-0.23523840495418472,-0.20805786599920642,-0.07958622105295401,-0.08831341995023537,-0.05347046359539445,0.07971453896852336,0.22671332645537662,0.006437300496350103,0.056066307298360575,0.08046313410066482,-0.2330811484358848,0.14054463650323523,-0.06948188458853277,-0.18408643769224792,0.2348800265992376,0.12596449262850584,-0.17312214979250484,-0.3610968030353684,-0.08134264964826866,0.22821352985927054,-0.11843765846515882,-0.11653888035248423,0.20796242615131613,-0.006854203854426602,0.09541292914492126,-0.2031156545275426,-0.0838675429229645,-0.02731821901074817,-0.19257758123176058,-0.009589704101930614,-0.1372636462622711,0.18898487898160457,-0.08181006458597183,0.06093373728035193,-0.23567207388348338,0.007511056393283996,-0.24603860072587463,-0.09017844341160493,0.11609396193759156,0.20703049861107947,-0.0036013528107071745,0.030532436283663845,-0.02000254691139089,-0.17694838987829137,-0.3051870222571532,-0.24857272112970263,-0.17896788841600828,0.02648962953338863,-0.3813456599217391,-0.056818915933326386,0.18094464464772678,-0.2216563946807025,0.20593653619919955,0.022864459151301867,-0.19535592756608552,-0.24861884135900336,0.2034285552930953,-0.10482411220627715,0.22816713758266943,0.024891416383243378,0.07437577830737858,0.19093794055850474,-0.13090787047557392,-0.12014267160501062,0.0010994995278059516,0.13009113965324434,0.27275973775978885,0.04512128688072089,-0.11180003287877248,-0.10972929898905588,0.0594474687955566,0.046222794498871206,0.005845634245523582,0.16811726244175376,-0.03762367460160645,-0.1472699626372824,0.23060873377718624,-0.03967775102201933,-0.10420029650621832,-0.0623518509408809,-0.05665230124552992,-0.21774100378461803,-0.16254322946498226,-0.06408047454911785,-0.24538480907896976,-0.09856103232257069,-0.08821058376096919,0.1614160621877352,0.11093591732893433,-0.24724527859443116,-0.29513016931395325,-0.08273385524356026,0.08326028408965291,-0.0560315757440388,0.12269526573827362,-0.2628976068044291,-0.03150085575926324,-0.11680252063060066,-0.12529087164965377,-0.2546989234240345,-0.06805804826259244,0.18073155177323774,0.18552583824298302,0.10666515342993156,-0.20502333340485684,-0.08671763950732818,-0.08802432133634075,-0.1099617711518626,-0.2588617935481281,0.08259411606378267,-0.1920765238894608,0.04844939944596622,-0.1092851116722838,0.011409089954236798,0.24147914999562278,0.13990735842316931,0.0634271266496017,-0.1375005231845858,-0.1332028772961844,-0.16093128713820995,-0.08718126468366141,-0.09053692023750204,0.14033649022555897,0.16358708063796715,0.18848085174376036,-0.0649601777826155,0.1401286007389414,0.19596739774220212,-0.18563824950997057,-0.06822197347473159,0.0055972273800395525,-0.12015163273938989,-0.03644438821806786,-0.17282965881586432,0.1477207712741546,-0.01895898415717574,0.34707596878531194,0.21560622682483352,0.22708271059122348,0.10933496465950925,0.11393476319739357,0.37760504777497617,-0.10479707756354903,0.1565678014393837,0.17663101572388024,0.09392605485997717,0.051921125682682784,-0.035233702326413235,0.23150932660015774,0.20617058974764438,-0.04626269989893969,0.21408590541900682,0.3267476722661161,-0.01183432786713977,0.1525049434074861,-0.15315582663444935,0.16442657032447897,0.06702849926544481,0.005042983026931109,-0.011195200167577347,0.11982661216367133,0.18338072616162926,0.23823830210398067,-0.22679086064211762,0.04163202065473334,-0.062141945229542334,0.18602636509659176,0.36919303517545426,0.1296450929981991,-0.07971291028968826,0.15480166807837084,0.24806349028592406,0.07152289802287412,-0.1708570426236155,0.04844397814099332,0.00884829758546281,-0.22620165879715184,-0.06861336763407483,-0.1331513266404648,-0.3174955427328393,0.028873994429699557,0.11206683445070416,-0.07916882218108512,-0.003945889745906586,0.08529099711429619,-0.22928661424703325,-0.054264979697998546,0.03127112103359093,0.0053218472590218485,-0.23053042789647302,-0.17737872987136233,-0.13197603331477406,0.16964926555097545,-0.20150499714851133,0.16667597400041662,0.04989966159190232,-0.08298825322517053,0.20172781051275268,-0.43337619050075826,-0.21041566298917508,0.10687428237610554,-0.29228122948794893,-0.24050197757255054,-0.2978027400724467,0.14553792430943135,-0.07023543587612378,0.19939380550258412,0.0022032767393588204,-0.21302116978047267,0.1650031981881655,0.2617107519067368,-0.18105408036965537,-0.016112178507744886,0.10443032656347713,0.2249970428902273,-0.23452722736044113,0.03366716662526335,-0.03125664176431845,-0.18187462563709297,-0.20619849388641767,-0.15065986711469767,0.06307143063990008,-0.13225860505863712,0.07764566139538727,-0.12613084277964715,0.07761627430795413,-0.22937631463795433,0.13036336876866284,0.01438788667311307,0.3303032507316366,0.19704629805018103,-0.07115976422903858,0.0919561813146863,0.04212099201001851,0.4127981693053181,-0.007601869142183104,0.11964994354407608,-0.18271648049318714,0.10009905250502864,0.0002410488494857286,-0.23509451816808355,-0.17264580547047684,0.0562342882666559,0.03539963307267324,-0.21439324601982387,0.00569240954296951,0.24906408663531587,-0.11038118257104237,0.013281733325558034,0.0015869690536082287,0.1413083966187953,0.07905684916714065,-0.2538303528196934,0.008076688695503044,-0.261015618018328,-0.2570446729025068,0.08835913047290662,-0.036673754580726414,-0.2978029916535939,-0.20465926338702448,-0.1855746105850678,0.09664772264874696,0.0814212199395951,-0.0881340407166162,-0.03103628153310147,-0.015852615376978282,0.08362126067338119,0.17887553245565552,0.030343403825454952,0.13988276738379313,-0.047038450081929604,-0.010712993138160848,-0.1966543580616283,0.05516365911534704,-0.17420323556219905,0.17844824839768594,0.3750851822306098,0.0062557809811116276,0.1872273697236244,-0.11477663323726628,0.037517158950447466,-0.06634386809511107,0.30274013950447237,0.14858517371407526,-0.004350249027932629,0.07053245730364621,0.14715542639652582,-0.23186878136801023,0.06957778339375276,-0.016718349487596925,-0.20110730888880549,0.2472333576568647,0.1679744871898923,-0.12837343495188738,-0.0320591042662236,0.23094193106809494,0.2995585096244921,0.18359459520398308,-0.04286135762999164,0.016383154278896327,0.08191439434666427,-0.06127821202527074,-0.24431653517011778,-0.21107535796358304,-0.16505609509084962,-0.1179070144241589,-0.1530381755134707,-0.2360467744165402,0.21422932552686075,-0.12339110849114493,-0.19539955413119012,0.08508651784775088,-0.20644560359346056,0.19072378840663926,-0.08312779599346905,0.1547840484606344,-0.22903265881067045,0.008950752316665485,0.15693842266654706,-0.05822978546589298,-0.042881978899835804,0.08803108632828836,-0.26236073845893004,0.040394740513990356,-0.12596385417443898,-0.06864958253308241,0.028513822427950055,0.11261066541740178,0.1301878727024032,0.025407615632127914,0.06040355835531621,0.21809412013786644,0.12829970500348525,0.028944240245714382,-0.21553301461696092,0.2421200963938378,0.0815958082655607,0.042951093440082896,0.19091261350677116,0.020326493770686453,-0.23899399768585905,0.1396514253843544,0.2082438555917773,-0.24513011926059797,0.1186294670208216,0.10095056940714815,-0.23947455933954667,-0.13173155727252794,0.13623196067206084,0.14236276315909846,0.12697332543113002,-0.020963042013305167,-0.036808434561255814,0.02051957499032961,0.0021413459361179373,0.06250384454468362,-0.009814516945803497,-0.1275537519671756,0.24300315666375774,0.14768745760408017,0.04741593903012562,0.0031635791337425697,0.2060874588927621,-0.05493080579312258,0.20879353984129856,0.27063335224254,0.18341445812934848,0.22585992988841716,-0.1043636198609192,0.32334197958749833,-0.0968083482212121,-0.06448519732210152,0.10241468705134378,-0.040573421193699374,-0.022899181776168693,-0.15128095854880488,0.24399823570571194,-0.11698429641669139,0.05832128754389684,-0.12977667119479014,0.09269863964205101,0.04363488782651239,0.06454029757619585,0.12084298370153627,0.22336009400005516,0.34789678804654633,0.1412973682241905,0.1496128592469296,0.1952645533470988,-0.014444453367878023,0.06897100885649027,0.1917237457640689,0.039790317642199986,0.09257844717087013,-0.16176049676996535,0.25222623489828744,0.19332980062290578,0.07138427027810693,-0.16520756516658625,0.28509149080570634,0.046176813224082375,0.02131241176825323,-0.1652353060181075,0.019547560964558952,0.11724135547355026,-0.1514442671904025,0.2463386945237686,0.22158014890061511,0.2348085979141806,-0.13512954744331418,0.14446554272264042,-0.09346259432394127,-0.18912386798919747,0.3664222157147318,-0.048978640120613176,0.3282915536527643,0.1734208557323864,0.17577823137947732,-0.11388858817029335,0.2748792540836642,0.2674409493395902,0.10950290205477703,-0.03429460579814491,0.05860055007313306,-0.2999024654308258,-0.07668164355766136,-0.0938903901165797,0.046180927070307,-0.19462148946633512,0.03153787418772979,-0.2469104058266426,-0.08418172243895176,0.19431686706136087,-0.14959352283695238,0.1634052339160072,-0.20996954656842798,-0.11369854751039318,-0.2510608091320557,0.1595519897835196,-0.16155531843305226,-0.056410404013543754,-0.0036144386148133367,-0.01483656381510192,-0.07245563848606891,-0.4370947084409731,-0.0519400079950848,-0.3558941274021774,-0.313104382644029,0.12042680260259125,-0.26384494982956536,0.13806296166603982,-0.3118127356874885,0.16626548965463636,0.08864357382682322,0.16324667685620137,-0.14380112977404585,-0.02859349078739995,0.1706649504217895,0.13858229141893216,-0.08018147955857369,0.28304737157811916,-0.13939295459896037,0.02071525815744236,0.22152762923137864,-0.08342405015405119,-0.0029296247572686666,0.17075678030963307,-0.08361731851450376,0.06508310675075699,-0.1608281532244353,0.08816649605470338,0.26050498917811993,0.04869901213900406,0.13043211037039337,0.1980895526585769,0.03465196565405453,-0.06622257685637284,0.3108238406899306,0.2699471983901226,0.048785882738180894,0.15663849171358407,0.2358265605846206,0.10323584185980139,-0.17665029494101053,0.18284740156238474,0.15899980996567564
biasActivation=0,1,1,1
[BASIC:ACTIVATION]
"ActivationSigmoid"
"ActivationSigmoid"
"ActivationSigmoid"
"ActivationLinear"
