encog,BasicNetwork,java,3.0.0,1,1399533477034
[BASIC]
[BASIC:PARAMS]
[BASIC:NETWORK]
beginTraining=0
connectionLimit=0
contextTargetOffset=0,0,0,0
contextTargetSize=0,0,0,0
endTraining=3
hasContext=f
inputCount=30
layerCounts=1,21,31,31
layerFeedCounts=1,20,30,30
layerContextCount=0,0,0,0
layerIndex=0,1,22,53
output=0,0,0,0,0,0,0,0,0,0,0,0,0,0,0,0,0,0,0,0,0,1,0,0,0,0,0,0,0,0,0,0,0,0,0,0,0,0,0,0,0,0,0,0,0,0,0,0,0,0,0,0,1,0,0,0,0,0,0,0,0,0,0,0,0,0,0,0,0,0,0,0,0,0,0,0,0,0,0,0,0,0,0,1
outputCount=1
weightIndex=0,21,641,1571
weights=-0.24278475348052003,0.20571904752443396,-0.0903319351293792,-0.16140944805257623,-0.19231638661862488,-0.18403293537145587,0.2184572734106293,0.2585589603466865,0.048237379488019025,-0.23332248471309738,-0.15428861832088306,0.02792037174834851,-0.2137912987954412,-0.014791245087340763,-0.10926747590899516,-0.19541329916684955,0.15516925708719342,-0.07898247506990703,0.16211370663467067,-0.22259318610700052,-0.14806848744084963,0.145446668375596,-0.18936593583152111,0.16245730732081773,0.09913852982106917,-0.10794506045850215,0.21931911000311224,-0.03802194116481066,-0.1505324844246696,-0.14454971557196689,-0.012108961283133659,-0.03464417738278707,0.046349434046776765,0.2101045549376409,0.13606113565363973,-0.14594120641519834,0.029440199963737194,-0.036146490028324596,0.09930188370479229,0.09446625105068909,-0.1702359751929086,-0.23684425319852553,0.10398506571765599,-0.08781272455781675,0.07108851167868477,-0.261610198398254,0.0886638660549325,-0.2050655984656656,0.20516105806703408,-0.12714221573323659,-0.20185101968278335,0.05869017120324396,0.20177777519119716,0.19565604452134355,0.13649860070268055,0.17894355805402057,-0.1838885882849542,-0.18494764971660882,0.187476387349752,-0.15314997433758512,0.1255473306793845,-0.15115194984218208,-0.07701977487841416,0.15390580413269742,-0.07494735643676963,-0.036339376823538515,-0.1676138498639938,0.053842528417029474,-0.08633961201645977,0.15129358784333793,-0.09411078490580531,0.007801275260056042,-0.1842640140586613,0.011492279690150497,0.18130182246511414,-0.19462238497211676,-0.1754108230008001,0.14496258062270834,0.08409363033365709,-0.19813271780691455,0.08872945504977976,-0.1328239115414788,-0.07059877872401697,0.18446627370005825,0.14910123638101203,0.24560826360127078,0.06908019701717467,-0.14131863527053345,0.09037485080543047,0.2137177220083181,0.20137914900791878,0.05093269507046471,0.028507693397125278,0.07263391256280498,0.13546376571477248,-0.24395728733492006,0.07480808230407654,0.010928235769290893,-0.1137466259181961,0.11706793515189368,-0.1952109086147423,-0.016127055891128096,-0.10378704866302838,0.11192008595236001,-0.09252048687432449,0.10525890836847225,0.22100340559395001,-0.13123573941175892,-0.22357349218896322,-0.0975232346556084,-0.025247604358900343,-0.14339358972166066,0.18357369165449508,-0.14151724304038174,-0.1391995744657221,0.026415322271875704,0.05693988696971313,-0.12531218533478042,-0.022808920369447722,-0.023452936787789053,-0.004973995499153744,-0.16309272134227407,-0.1078295370825995,0.10984873195223706,0.08102002366801239,-0.008246737985225643,0.07536210584351927,0.022252317343063068,-0.16675895139942307,-0.2549346871356057,-0.2449560272400517,0.17224967284403409,-0.08930343598477314,0.2335829430081046,-0.1938212709967531,0.08221694188234686,0.06832164319959763,0.1019706147879591,0.25921000175260517,-0.10245033834983534,0.23584743104348374,0.0006005202731198734,0.05304635017827934,-0.2197611318471898,-0.21276730262585838,0.012293127177571217,-0.14236571932346676,0.019585562978689963,0.14023444226490603,-0.17180406986665792,-0.17135955182334695,0.043822167524666264,0.03931702659275906,0.22981315168504574,-0.051889663956745345,-0.17332110829352282,-0.009302157434165702,-0.08977741922652709,-0.06187237704566475,0.08985550809545301,0.022057080674066587,0.19796545181503064,-0.00898812573597043,-0.22021395111352526,0.20581416691030543,0.06677286971410085,-0.04376716025978838,-0.20193734366813842,0.11575845110145154,-0.21313390671511795,-0.11814161428587482,0.2258048667548293,0.23527191366350253,0.14308243932395173,0.20301321061931277,-0.08452612313146418,-0.17630250016495383,0.010415479619151234,0.0018534189835176728,-0.010236584101594686,0.23553424561489428,-0.1911320391012871,0.1560888882347537,-0.16919627625484582,0.13124113359521078,0.1734949949861785,-0.05114736642517287,0.034584456817459266,-0.08312774546998723,-0.0762479566795492,-0.2065769311285555,-0.175976123278315,-0.19245997652231164,0.0010294885957210004,-0.17438949635952783,0.14980158257775572,0.23194639510622567,0.0035966698810701147,-0.1284509970312377,0.17415239664538323,0.17916381926104105,-0.17409981087145493,-0.08454393644844894,-0.044837165233038705,0.1005557181546795,-0.2007146736165879,-0.10908079593269672,0.09064860332406756,0.1285596550905246,0.020978309080128002,0.2336792657162394,0.18959795942239893,0.042919750906358974,0.020414876506758366,-0.064893286041592,-0.11312687762801764,0.09393046523926014,0.2367962408442279,-0.16912730511657623,-0.1711487056866137,-0.1552307079953215,-0.18645611757742106,-0.029930845994895917,0.10489395548163098,-0.11467622438795132,-0.12157537591571005,-0.13664994714447823,-0.22894111450209714,0.16861254122937822,0.23236162654690257,-0.14790585107491708,0.07256677297411987,-0.08913540973827705,-0.14627804984435036,-0.12024340394061749,0.13735285535671127,-0.1899639502179559,-0.02167546403002628,-0.012492442154547242,0.14044011679659604,-0.013386403896584236,-0.024540332507798468,0.036697182691705924,0.21602082555967947,-0.08411729372042241,-0.1728366006223826,0.08164964418591497,-0.1242772480020363,-0.25743200468252375,0.062042067879288246,-0.26738583382491155,-0.04894442693491626,0.0018181508068156032,0.22819731496010198,0.13273813444714086,0.05174563049334322,0.13203255552146648,0.1899853784834857,-0.16428669018030645,0.08440501564860817,-0.16906769225634413,-0.0015200841971922696,-0.14667491579966888,-0.15394836679836527,-0.03268425911576973,0.13693926310217364,0.21475693944878887,0.2588286228025251,0.01209458031761423,-0.1624059105111168,-0.058187277285690536,0.2532558971290549,0.15771602328880596,-0.08165113429467491,-0.14641287236855677,-0.11359798210513214,0.18091845468295922,0.09601709651645679,0.14297654894292072,0.11310734301206705,0.0999483204164104,0.10638758555018726,0.007824127471636147,0.1175889021566372,0.11670799576040963,-0.21425234374831345,0.1626083164686204,0.27532137710760696,-0.013543887674665949,0.12375958713538332,0.1387551407344035,0.007006194686547515,0.06614654890128954,-0.029657453132946553,0.04062853675333334,-0.1126136819087682,0.1912406572563677,-0.051613967081630546,0.27947515365022535,-0.17964888796135053,0.02699172196503813,0.05998302223250497,0.22868329828003034,-0.18916629953028166,0.10829004546210212,0.07612145333235162,0.02408862251940332,0.22330810418290145,-0.19078452314702427,0.16225914450469917,0.03679286854722912,-0.0021031340213996277,0.051841571760859295,-0.00832835583146643,0.16512624610621834,-0.12455388672350855,-0.17202885176730426,-0.005835237416567773,-0.09369596728029142,0.23115424609268653,0.0828249701609109,0.10480867577681267,-0.18473241923073325,0.07826462633664331,0.26264915077072737,-0.02130801911600909,0.2468263740391063,-0.08263215905943895,0.1736313552661025,-0.2109024435937483,-0.04619110041906928,0.03802892705330966,0.2301447422162343,0.13915056368654777,-0.10785420828627047,0.21966704686700453,-0.1351977853092315,0.12457906171019023,-0.10909295970395713,-0.15958648725621793,-0.19659191989889802,-0.024752600665866726,0.22223847676014422,-0.13001734178520877,-0.10187061258540281,0.07206216607081546,-0.15055431305373856,0.09397950229482782,-0.05443937132467625,-0.2020195993458486,-0.23920387004641283,-0.061332330985890596,0.24111046679173573,-0.13460340719942657,-0.13177806380127266,0.16809527032779412,-0.028241445554665633,-0.14425745505508628,0.12880690104507633,-0.05152051808778337,-0.0771788538020981,-0.07966200005271247,-0.2026952138651884,0.14145294347451987,0.03391743978462636,-0.04256709061546006,0.22561692610434061,-0.027019144602152562,0.07210033463233105,0.049754342260077064,0.06928648192336467,-0.0955517601233691,0.09632020992857243,-0.1921688719264291,-0.22215618054940817,-0.09515866029340032,0.11958692246489654,0.025168805518189067,0.02715418937519238,0.12657982693513084,-0.07302181323025,-0.2246927926502402,-0.14471031421076386,-0.19711371250773754,-0.15948028185989369,0.16363710274245283,-0.11322267168015443,0.13025118957103127,0.21736297103979485,0.16342808535752168,-0.2211448910228743,-0.1828889438889082,-0.09284834656592943,0.062372003703432335,0.07509287339075343,0.013670811960105823,-0.25868568612703535,-0.0497226084471222,0.23226048076488673,0.22180896320320156,-0.09201998135877783,-0.02915785899100251,0.031522667069752666,0.16137249480568022,-0.03588260417685793,-0.04220789309670914,0.08760773107237214,-0.13479913951603287,-0.06668316844771766,0.21929816220786902,-0.2533467512599622,0.1208001858471999,0.11285085158309446,0.023509394694531286,0.24891162329351685,0.10778955234277526,-0.1684762893019791,-0.011059700703358705,-0.017024811782706137,0.13521281109564806,0.09598641202456398,0.20913716493170267,0.08505844675646665,0.24678245827503967,0.08909854051177866,-0.11705686644659839,-0.13611239991162014,-0.20566106830967637,-0.02813682999429711,-0.17391620461613452,-0.056638286023334435,-0.1348237649017788,0.08134518297196487,0.15888003110441143,0.12704767048007626,0.24222939498194973,-0.11969081309349866,0.1400362884811314,0.01969547862530207,-0.00455587550661892,-0.1200800367032038,-0.19818094299866193,-0.13685726198215944,-0.0251645481109206,0.12048693258700957,-0.1380687518568177,0.2156206875402926,0.04200554187540129,-0.2353216551269307,-0.14703779017859633,0.18099882585411364,0.04929170137026871,0.23578641947583515,0.13049221053610927,-0.1424169868363647,0.0943649978406792,0.24629299107942373,-0.15142921927443545,-0.14391064756538452,-0.1972180471497621,0.16968113222841363,-0.03369525351493319,-0.007554947973622146,0.08183255994394896,0.22447968096282053,0.10356937659695709,-0.02225383682428696,-0.028101000412219634,-0.18446883277700002,0.1453877347152779,-0.02261198482870373,-0.0807913109477542,-0.22798705656641471,-0.2292356495977789,-0.06529303500481339,-0.05086427311038116,0.22741622006391407,0.14119677933661387,-0.000368436230455335,0.0865204621027237,-0.007911490204762539,0.013972405924230814,-0.25253861060464516,-0.07980111686565601,-0.042755741578229665,0.24583976677884264,-0.047246675237402225,0.16715236256662608,-0.011029969714593977,-0.24276000682854187,0.23792704276005303,0.21418965283619265,0.13537246764387975,-0.16611710333914906,-0.11009677583815465,0.052704753492487925,0.04876655314453069,0.04184229228516307,0.0026090213386311036,-0.030387157807053002,0.23173064857413972,-0.14582910511811634,0.24001096951991163,-0.08671901716748835,0.11363536029052287,0.023763265486541486,-0.06695068273241908,0.029405703700135448,-0.22486419052167336,0.15805895440149176,0.21217339152482043,0.1050884672247595,-0.1516876093211277,-0.19388267401791578,0.006293836268826245,0.12258364251528985,-0.11199113978639191,-0.09897398378467086,0.12395779796711544,-0.22055275304903002,0.13949118746431075,-0.0917446820798294,0.2230328533852285,-0.20831308188788625,-0.19273460612546608,0.05061414668310215,0.11731715392474039,-0.23305296216810611,0.01571274024501711,-0.19878442659537385,0.1782143573852262,-0.20224577703084318,-0.013937977866513664,0.10405423093994852,-0.08642903709289063,0.04544629227664331,-0.11345516602941072,0.09894562164289009,-0.22703098496789678,0.11723375334548554,0.09693667143352039,-0.03399623144101023,0.09162765765666735,-0.1847801069334611,0.16556811601209143,-0.1243714990860458,-0.12271235862061346,0.00581153899276486,-0.12417706080781797,-0.12210486792571078,0.12256261631757746,0.15101146868969106,0.20159428769643414,-0.011471894386576115,0.0747626352809364,0.07570976874203778,-0.20946776975153666,0.060770214025268436,0.022582674560227212,0.2376348761764261,0.1639612717970249,-0.23035706356805652,0.031290138342442694,0.0009033107778444585,0.1119222913507973,0.023729569200146194,-0.22103158787893815,0.12348465562735382,-0.10411847364116038,0.04943044753882165,0.21423570202790101,0.12959041478654876,0.1655015887327286,-0.2341473586782596,0.05072052493306934,0.11839432994815065,-0.24235109769386234,-0.13156963967813085,0.05360988735326593,0.024147041037517247,-0.04103592155223832,0.14031534578619925,-0.06502769615063479,0.16502603318926584,-0.23420289705566683,0.21250656581923336,0.23392458568346583,-0.10693640479801611,-0.030074582034174263,0.029824697803166808,0.1374714947049736,0.28568429028565046,0.015416627860368449,-0.17001590704762565,0.14235876089253185,0.09063729381874762,-0.22098510339065325,-0.02136942498613347,-0.24533142701975083,0.00884657229031784,0.0599410048039916,0.07648052008377187,0.07973254146221699,-0.028584258616694166,-0.06549257322103348,0.05955299854034639,-0.11739375789496803,0.2919951867428536,0.15365344245976195,0.009855240446169478,0.10552611389512853,0.15727484172761025,0.11023222463131713,-0.037863300318356476,0.20472705791872145,-0.1391942013207645,-0.21537366881698555,-0.16333777325643306,0.13274219000534565,-0.2122258433512475,0.20971123766429933,-0.05087906139948432,-0.23910972453935178,-0.19493193168148026,0.14472870969031804,0.047194677201016506,0.18018834239862577,0.024024389575007677,-0.06155503958157339,-0.1497459617784169,-0.1540769465919559,-0.06345512326030384,0.02221020019564319,-0.0571868242882656,0.06676264561391085,-0.044490516381361485,0.1096343525632059,-0.15964082463226303,0.17908351911425344,0.20549094625967734,-0.11310996550502861,-0.17315455972970958,0.005260949269749858,-0.16358378277442634,0.18886172443010354,0.22332003780589663,-0.08665363195865913,0.09175031215626302,0.1735038746293872,0.20389151715940787,0.07121845890801737,0.1591665951599175,0.12674577066142045,0.13333115683426122,-0.23685186889570287,-0.1967239462357157,0.08965500780354446,0.05585250632122548,-0.22610122676741007,-0.1696321768109377,0.1591428346564826,0.02079967000675888,-0.10061910297958546,0.06246601608940588,0.22113543195799953,0.07283307184403294,-0.10493566618058012,0.13985762347876984,0.05406595278414763,-0.11995548080956885,-0.11780234343375397,0.0028586465866931006,-0.18563895315518406,0.17223324559777842,-0.0245840801931572,0.05198192116695037,0.04322951388314252,0.07456835085026373,0.13787975611895464,0.10953023460803019,0.2166480171791442,0.03308140760800897,-0.17869220888271262,0.1773487374240075,-0.19520251566633476,0.03177679548907465,0.2173054051808404,0.20826852610676377,-0.07521907638528848,-0.15406358181633947,-0.054092633595097535,0.22004528862760495,0.077911659710864,0.12090996379915721,-0.027040294355251782,-0.033140853754114206,0.07490924677682914,0.18083231806419595,-0.15119518339397905,-0.1830582333344769,0.1745265480064337,-0.10038931994519738,-0.22433863280630972,-0.08866737517916741,0.10958725340799483,0.19641503199581836,-0.19011347819565233,0.21302141865404545,0.07850498745692744,-0.19038147100031513,0.20426789047295627,-0.18943232689483214,0.19012148834122417,-0.03395212395072236,-0.20086639414437596,0.19950377325063787,-0.1779279291222135,-0.05404072993101002,0.016193281108983455,0.05529810930336274,-0.18737419982318437,0.10099427628918164,0.0036200539597169732,-0.02719759682652529,-0.14269541949896075,0.1960476623379901,-0.026163588428355783,0.21711064727366294,0.1383908294819251,0.07220728201425518,-0.05170406772141824,0.12169466553367081,-0.13719676627101088,0.07888515930595202,0.04757213126226987,0.22667869356091888,0.06295649807883708,0.02330807530014736,0.2362541648427661,0.15397882617299283,-0.02263198057004724,-0.040584651095490004,0.049151695542297764,-0.08746144819183126,-0.24480428421193487,-0.040633167123821506,-0.03702784139641353,0.037323044498353906,0.19265731885609788,0.17933617754681827,-0.10047570557238104,0.12103502377347004,0.23136927619116063,0.17500361715455523,0.15239114012349794,-0.25329702452160013,0.10767779932883323,-0.13382773474691742,0.19570606067719562,0.07268950437956126,-0.03161192486134608,-0.23575939130753631,-0.11169141495014404,0.09611288757865318,0.06547188322570723,0.1397614632104554,-0.20121266598026155,0.15733786510408818,0.18982131485963624,0.041305761317385004,0.22994995486241973,-0.12504132173733787,0.06025476225151943,0.1133935492669721,0.1511151655929082,0.06313390053098059,-0.029496722118698783,-0.08337053909229282,0.13994238748441243,0.021418086248478758,-0.19630289015687666,0.01936983267636972,0.21957084601601953,-0.05223473788866984,-0.15884983759253077,0.08263327090781551,-0.025361599921319963,0.20612429417614195,0.17959072629229889,-0.13507778346276417,-0.123997950595129,0.2038814052240055,0.04675287896540893,-0.21583854626019108,-0.20380992346022417,0.09015753042760084,0.0035671358134751465,-0.25224189715382056,-0.04034687346256355,-0.24867749578341064,-0.0038243023628761305,0.05423291557029413,0.19014238224130026,-0.18343499332739088,-0.12411177507870327,0.07887740078359076,0.1468617682187939,-0.054321887200838144,-0.013040671642812683,0.14828574586121557,0.23057450486783773,0.02432111556407259,0.21248859681015453,0.088185416707061,0.035859137813692224,-0.010533628648124944,0.21578246165625417,-0.04578457547768483,-0.023294423963502953,0.18794158860537832,0.01625492457442321,0.17677135611143763,-0.20385945263694266,0.040648135180349466,-0.06582678678988083,0.19867053193736361,-0.23652753933105097,0.1381063240787281,0.16592848408818944,0.15059484356251127,-0.0600202513825479,0.044825297986348135,-0.2097666615406659,-0.006792463780964372,-0.16891076280775258,-0.2390056604580047,-0.044799666583206846,-0.10174826911023731,-0.2155932932765526,0.04006977985901967,-0.09293326361909213,0.1495249687468682,0.2515599803184079,0.060748588665256266,-0.11221755658542844,0.1517852430140973,0.06936956680738428,-0.24975984285767,-0.08971577914803948,0.19762663494151153,0.02715490281710911,0.126341289627005,-0.09250844837824769,0.022458258456545237,-0.18019513374191193,0.22004082539865197,0.1216197770289653,-0.04984856216203161,0.05640715738300417,0.20158121166226003,-0.22214371119782442,0.14704061723720205,-0.16205251060349968,-0.06700283988295982,0.16186173826401248,-0.0604006253143623,-0.07905537533665827,0.15473294274309993,-0.09532685456712923,0.21012545810203706,-0.03351242247360004,0.01590814469390596,-0.23874670107632104,0.19847138511736492,0.22762236709008146,0.17159124398435296,-0.17106801116868126,0.2419056628171981,-0.13470058257808024,-0.23449900194156068,0.06020858381337051,0.12012961671616697,0.0136118864339682,0.007000704427314917,0.09113673523601375,0.025643660683128074,0.06330021796861182,-0.07979695069732975,-0.004842687041421248,0.11860262980979296,-0.15720598032003785,0.17149921975596905,0.02825862530160798,0.13647864928668846,-0.18575847024820594,-0.11490881429259345,-0.20690461159588042,-0.03404109409785601,0.07993199054046853,0.17264089084449386,-0.11022070963569659,0.1728462353342762,-0.04410774770373419,-0.17925505830179622,0.20996653134821705,-0.08310898954416567,-0.02187423344430724,0.25379998147438726,-0.18805111030949057,0.059837560830174184,-0.11925874058658607,0.05597634842392382,0.19487326255133627,-0.0761524829528395,0.18149361964790225,0.25665179872629473,-0.128621450868276,-0.0504483831333905,0.02359698344654231,-0.10370340495275047,0.20203867475986098,-0.19767285050638944,-0.20219742404906244,-0.11790055412060986,0.07178322577299497,0.12453559115076915,-0.024410282708360622,-0.11905317962114122,-0.18276203218428372,-0.13215085250885375,0.1364167346042359,-0.14093528706139055,-0.029011812582298752,-0.1884917695454583,-0.039857483751628654,-0.034508013414919776,0.14801323851086737,0.19968185433681096,0.0757374939806923,-0.08068072096539015,-0.036574625549082404,0.18536712586749074,0.20215332738277542,0.20451199394850086,-0.068069823107836,0.10858718417185383,-0.0897057143495889,-0.22246318707675208,0.007604779557867266,0.171779276366588,0.20383506944237578,0.0426846284277272,0.09052173268785745,0.006607517755628636,0.03337971930230015,-0.056215964236345825,0.2592640908821083,0.053858793037656796,0.18370182291623172,-0.05226398565398324,-0.02463405956774933,0.21932305482965753,0.2147706189410313,0.18499401756932543,-0.25860255632894324,0.1820752859138841,0.2207809161754353,-0.14996576158000163,-0.021208781766796917,0.08547529222598105,-0.05946426255472781,0.07976385160085117,0.09792772961316647,0.17329058519852725,0.06290628031968759,0.22689831649312342,-0.16910170637778138,0.10174320520237057,-0.015105538201713455,0.07836943706118484,-0.0940010348644113,0.21143342681062657,-0.2325568079649852,-0.2285242745568498,0.023779633002557234,-0.21563570591040224,-0.16468354238924718,-0.22684263170698657,-0.10564829149570006,0.08382063121217614,0.06622111305255964,0.09278309250525425,-0.20615251961819087,0.2056797963667341,-0.006142720006815736,0.253667470958452,0.00752658795448548,0.12171600580081803,-0.06413107821691191,-0.15495613271450576,-0.21284922697148992,-0.0975444225351676,-0.04910278538152248,-0.05099243966635975,-0.03305071697261779,-0.22587062311676126,-0.0926818320371896,0.15216602863695486,0.09117256593667006,0.02059698932193436,0.12627164618767686,-0.06530459195757397,-0.09293029158204018,0.15084144440983185,-0.1455100639938306,-0.24835118180252957,0.025107080315947047,-0.016473672973093458,-0.003929676445241994,-0.16387970813699662,0.14952093613420092,-0.09268970547398493,0.1525859044809647,0.01620928749846904,-0.11413878551171916,-0.008323243646052194,-0.15919988971275806,0.14530869099510077,0.24477619843761317,-0.09910225100169097,0.2453867588748555,-0.0404642419124703,0.1267553960237064,0.05060978844778001,-0.09387004588111052,-0.24874616772201233,-0.13719994591026796,-0.1987704639391206,0.2008343110185629,0.013145132999942489,0.1444553249700091,0.17562967920123865,0.06500891274857504,-0.11520111598687087,-0.1927850606134119,0.16552559776823147,-0.08651952379850417,0.20407743727100075,0.15325736137994753,0.22603488521377652,0.2013228785317692,-0.09999420775021131,-0.19183537514968996,0.23021586218311765,-0.08141221664900669,-0.12133702976209121,0.1583260594644323,-0.067344618528821,0.0234542064148749,-0.13666291088651042,-0.07079501556700615,-0.1783496102798167,-0.06145837081928631,0.03498041365873826,0.0547730712372289,0.03651258582433206,0.10341865565604731,0.22602969181639637,0.045086177462349525,0.15787232555188785,-0.1594610367292144,-0.14631739851280093,-0.18190511770836493,-0.10841123984082993,-0.10458655616371977,0.03465372871028878,-0.11861804841055607,-0.18702904134247805,-0.10279410602854842,-0.1369963777202927,0.14832006215669621,-0.037420977537427555,-0.10998945956540576,0.13744657773459432,-0.08310023754858148,0.20308705581479639,-0.009898687887877516,0.025537945108361052,-0.020180414961477832,-0.2436845346244591,0.07685355909121963,-0.04335351543177146,0.2093615697337331,0.010259593869624183,-0.24308648501496094,0.17475960892157297,0.22297279010410284,0.07234226831512101,-0.24733957769694564,0.1875408425650953,-0.08278423674846724,0.20370844433903848,0.1773370199947813,0.024133914091706385,0.07199178826932795,0.11845455466063468,-0.014224387468852184,-0.1345686583858415,0.13034906463000218,0.19331249480934123,-0.1445709647176976,-0.0985541065624874,-0.10315259017108128,0.06678574042596619,0.21036048683076325,0.14380236457752668,0.18845387020455862,0.19380035506581747,0.1476223080821086,0.05611409472854704,0.10106443785846539,0.1478811144901572,0.019536987260879563,-0.2129617571469061,-0.22271545079851185,-0.05421364275002401,0.2134874710770378,-0.04920480109167605,0.06866084016189035,0.13667646804318065,-0.0950126300062256,-0.1353370057101743,0.16669337483544175,0.18897982841281152,0.007150307182967899,-0.1503437807537547,-0.21838976594346524,-0.16514687693663377,0.20059138730160264,0.028061928348921916,0.024428324205739718,-0.036661276747338684,-0.1414604009039734,-0.17641960923694877,0.14420495267172348,0.2156998853455417,-0.09534039992980452,0.21912871136584497,0.22313356814018026,0.002511717671218948,-0.09413000763798235,-0.1793106259305552,0.19126134173994566,0.001922873565520437,0.048035853709800354,-0.09922134136519124,0.14834091187692763,0.04034609589718311,-0.20400734687251953,-0.13672242393497394,0.21343300357023304,-0.1922986271101111,-0.17601402594124346,-0.10733973263238242,0.04858356639194838,-0.08905155472465849,0.04246886764356214,-0.17180684160326853,-0.11636426341837733,-0.07354150770350315,-0.20293929790162787,0.10502307250504778,0.05704017933927502,0.09388355118920379,-0.13927702952341364,-0.11056560303360469,0.16313739963286655,-0.20682916179946703,-0.22833007548805806,-0.21891644620297013,-0.09540805112619254,-0.11572602676618834,-0.22193112781954769,-0.10549307769800682,0.22096518850400654,-0.01515384745473385,-0.00004194165623521294,-0.2229577705190656,-0.13162469753663553,-0.07861810511303961,0.1639477398300381,0.17023305588210014,-0.12908124205032254,-0.0801845912140833,0.15066160311716065,-0.09840744012379354,0.17933721499662808,-0.04613479033859652,-0.020704773464634757,-0.01209522702499941,-0.03575122574392007,-0.13219015869185574,0.1987995226981847,-0.0530708958475863,0.17086751196715316,0.029885956353615194,-0.20396135775599403,-0.1763210583404223,0.16381692533747638,0.0802596839208766,-0.004679991393976249,0.1840045270656575,-0.07597712368123404,0.048354128138512635,0.057459350970135256,-0.21494347531947045,0.04927037714260712,0.017675911116597106,0.05177646734133,-0.17145477583935614,0.18949077739058534,0.24261013800570636,-0.14409219608006563,-0.22556000038454585,-0.06996815582442228,-0.2350759780950717,0.21624254342774338,0.14460048633422587,0.02080765332214071,-0.13267579303721877,-0.2130427361234459,-0.13221666305565402,-0.10513510368480117,0.03921446115760672,0.1419316960761257,-0.02248498743681904,0.2417930868093863,0.2228733912626738,-0.1847603425027253,0.09490926334270583,0.2103635976089747,-0.12055161004975919,0.21479733819090985,0.13535615399376744,0.10190287318923731,-0.05097616085375598,0.10153436900745279,0.0973149569732057,-0.009951675501545977,0.009136508333319016,-0.1171321286138184,-0.17507660295004948,0.14312680760585164,-0.13465352040801826,-0.16353781430752964,0.10870710081290946,-0.21413619052694527,0.11456785054180527,-0.1675941916736682,0.11795471984641996,-0.09345542426444442,0.03149354325453539,-0.14650522021495452,-0.15740742001222646,0.07495441031890407,-0.0815752613505432,-0.00036352567789120526,-0.12767663759936806,-0.150660108563989,-0.0761775182416988,0.13340987686315797,0.17893614569479208,0.14486867281665894,-0.18756728547457283,0.1530455735968338,0.05496785061757521,-0.19141284960989735,-0.19990674186522542,-0.17754055642275812,0.19348341733478194,0.08745551752780376,-0.02557923701173346,0.14498522033951614,-0.0051795068727986185,0.14613548535020285,-0.05254791773153579,0.14266297254312152,-0.15607273162568064,-0.23863027136655113,-0.13626749178172948,-0.19994216037322843,0.20152258145241703,-0.12463665571316167,-0.0937349186052079,0.20255504979098699,-0.054305017627339275,0.1275241445273689,-0.050035677575556284,0.03518136229170524,0.05719222865588812,0.14961332006132305,0.07595196357561376,-0.2367063497548068,0.22317207016077228,-0.1877877985542154,-0.13688339421511317,-0.24759011484364588,0.22150749809229525,0.09530051029444643,-0.12975327714978904,-0.08155384380870487,0.17742153268921165,-0.0341286879769654,-0.1935803578996933,-0.01829241875867645,-0.21534326773931714,0.09632573785254207,-0.04571032186794713,-0.16032827282966364,0.06328847817966621,0.21823835155448304,-0.02562074609379381,-0.09409705919480606,-0.2117016813691274,-0.029836247689371865,0.2265465880909665,0.13556291130346482,0.09902838383598879,0.2006132514455976,-0.2070902931288095,-0.18361473094693156,0.21568103973209807,0.17161643046003217,-0.03219676957272433,-0.1747421542409059,-0.01251476546727617,-0.05838511307078767,0.150213679335467,0.007220601909225536,-0.12548162469230761,0.016440094575751487,0.09271620819851117,0.048029011032721905,-0.1511717494410662,0.1323565810289488,-0.00246049718235137,-0.13227178123344918,-0.1712054690716761,0.21499520967545652,0.03542020891179682,-0.043162682208927744,-0.19213908022116308,0.06821883164773254,-0.22742598416223342,0.18149125608961694,-0.1941797399209472,-0.12730197356792475,-0.16709132737590887,-0.14154187885197322,-0.028798928476025273,0.13562055431709624,-0.01822896174870276,-0.11031255908391523,-0.20560212658898,-0.19050058402178668,-0.1458584614176261,0.19429045171299564,-0.2045946152964805,0.132804523640562,0.2311125888744646,-0.14093797169724306,0.07359979858258751,-0.060752759815565355,-0.01820313107071449,-0.2126932702980153,0.17127632376540605,-0.09055122717581904,-0.039871750089025354,-0.024195615941596773,-0.028843168500714434,-0.18106423443766517,-0.20628674441946093,0.058896089184644534,0.03801581767648086,-0.16710236321775845,-0.18845732039833876,0.08171394613834786,-0.1051444112102838,0.14665732193359696,0.0918449800156341,0.13478602593901554,-0.04461809864210183,-0.20308162437085908,0.16688048282935386,-0.04178979477466819,-0.09223002892602768,0.08505710298652082,0.10518100834428981,0.23631185980512348,-0.07719254150262582,-0.13057354026997361,0.08170116001856748,0.05524941927072651,-0.14286764876155864,-0.006468854163319398,-0.2461917050796674,-0.15992512704846154,-0.10437859869950573,0.030126913879918525,0.19711309952392447,0.03592479204562734,0.25478142353436745,-0.07912291178035379,-0.25254031474979427,0.22866233403797348,0.059383498892913465,-0.12762066113756054,0.05764837272714074,0.18457991843610932,0.2299078041174243,-0.24932578419894566,0.0680233593002603,0.11870152267309594,0.08863598411586625,-0.057516787242809536,-0.13511553509600488,0.26952381150220034,-0.09615256799511387,0.08803885930714256,-0.1725850618944868,-0.09001103372748576,-0.0988325461147496,-0.0931180093581093,0.09805158011258984,-0.023779858285160493,0.16587168932065918,0.022708295029672275,0.03289779284483095,0.06490545429162645,-0.07955100285311642,-0.10315791098825755,0.1769104837038554,-0.1775210164607498,-0.12717664371647375,0.23758736643773493,0.12221983195995803,-0.2502513264907295,0.08917857902036373,-0.14559988503649698,0.22724687248310993,0.010602173994908535,-0.23881841033879395,0.035007039910912065,0.20287827251804952,0.19667869584896738,0.1131406338656443,0.21826932836829888,0.05504636390870257,0.1760863658278187,0.1072038571106331,0.20428150280928734,0.10510959241745041,0.0031377582129254182,0.004619463420831088,-0.14898187984494102,0.20791464274285973,-0.05493792037733247,-0.1533893723564775,0.10866189624380582,0.1462524515798505,0.2338153538720931,0.1194654879488398,-0.07220878490179308,-0.1104466410881459,0.17102243769839415,-0.0459107054401487,-0.08720751451511183,0.059281476986253356,-0.020292972239620864,-0.03538372229835758,0.23433196233791417,0.055528195078486615,0.013579384811193484,-0.24873184845552695,-0.1261709437969737,-0.13230064697274063,-0.18267313989211995,-0.23374088173643853,-0.1930036702761061,0.0235604084586907,-0.16731502264097287,-0.06487186247891988,-0.005675938585716893,-0.01285883141453432,-0.1271431607054401,0.16701781963534812,0.20969076539655349,-0.07864918576620257,0.15918191350656383,0.2315572415220837,0.12410309533312087,0.20831492398659648,-0.12372844881969353,0.23533648378041996,-0.11231790600149769,0.07258455568630189,-0.024587112934913547,-0.03038944324047584,0.009484109935423533,-0.034608201004722866,0.07392852482960963,0.1678515978140163,-0.1529205917982271,0.05370665988646172,0.19106664224256467,-0.15492151789202943,-0.06934813656222304,0.20654711491382632,0.14658492064431447,0.10204288119543911,-0.11859964558866527,-0.21880008840775078,0.07821831229268854,0.12853598442220376,0.05286588353186809,-0.025388564643842332,-0.204382289860925,-0.11291643856251195,0.1681188358794265,0.2008934012589855,-0.03531524871367024,0.03595365124758843,0.06889387693293118,0.12948922599930632,0.22504847537932254,0.1593577047081576,0.14936809490234415,-0.16453032641080997,-0.22070549950208015,0.16124371815135294,-0.06786667220182079,-0.21999416482668965,0.10842141326484753,-0.0038539666928632385,0.07334291251345461,0.23553422932381202,-0.08845879416853104,0.13314009598272103,0.25969923536338374,0.2507205250716192,-0.04827858620998119,0.029675362716453404,0.007241979839685398,-0.2437807776954722,0.2488840932103114,-0.01655841907703234,0.18709119052825338,0.1276500155433656,-0.09553434254330123,0.0761622540038971,0.13123620368478958,0.10139277426925758,-0.12206394544231594,-0.1989145061072696,0.21397613635539242,-0.009632676831727893,-0.03230014608938205,0.061205278980157776,0.07707984079655099,-0.11705945840482994,-0.10463917570154592
biasActivation=0,1,1,1
[BASIC:ACTIVATION]
"ActivationSigmoid"
"ActivationSigmoid"
"ActivationSigmoid"
"ActivationLinear"
