encog,BasicNetwork,java,3.0.0,1,1399533479246
[BASIC]
[BASIC:PARAMS]
[BASIC:NETWORK]
beginTraining=0
connectionLimit=0
contextTargetOffset=0,0,0,0
contextTargetSize=0,0,0,0
endTraining=3
hasContext=f
inputCount=30
layerCounts=1,21,31,31
layerFeedCounts=1,20,30,30
layerContextCount=0,0,0,0
layerIndex=0,1,22,53
output=0,0,0,0,0,0,0,0,0,0,0,0,0,0,0,0,0,0,0,0,0,1,0,0,0,0,0,0,0,0,0,0,0,0,0,0,0,0,0,0,0,0,0,0,0,0,0,0,0,0,0,0,1,0,0,0,0,0,0,0,0,0,0,0,0,0,0,0,0,0,0,0,0,0,0,0,0,0,0,0,0,0,0,1
outputCount=1
weightIndex=0,21,641,1571
weights=-0.08351148434049775,-0.24947084304797448,-0.40319902979768324,0.33937318076804196,-0.336085883299959,0.3923281739502901,-0.39340858793307115,-0.5029949955974419,-0.2635911505677384,0.19202988498862822,0.00701178159837195,0.2189482472618094,-0.3433016038446399,0.6936110294100886,0.2398167047151058,0.22482473272757203,0.482322687545871,0.4643069008004422,-0.5141690645825355,-0.562863050668486,-0.18126591874943,0.17961635068269344,0.08778744852326074,-0.07262352254976001,0.13106736139100894,-0.05758448990741742,-0.25265622991113784,-0.10895140578411598,0.1255306968928183,-0.05971601051599893,0.0007106307767633373,0.061810712404218496,0.023864924998273276,-0.1438182387674166,0.15849378907247605,0.15484542328684384,-0.03989967934666456,0.08556420218044965,0.11012082228753656,0.10766228061879658,-0.14324588681054778,0.2467758901827478,-0.20570803696480414,0.16356222501405404,-0.16463738452793583,-0.09223591055329092,-0.23936865412244995,-0.13604654417697074,0.17199787523010723,-0.07114463304556078,0.2355335869766167,-0.13729826268352527,-0.08361754082526937,0.1174865840434785,-0.15965250889373228,-0.10687601533346493,0.024829449057950124,-0.18207119601511254,-0.17416198264332927,0.1274769064709114,0.01411378252736636,0.11839608969187371,0.0010857507247887168,-0.22576845798864822,0.27372503076480564,-0.18807790899588492,0.2090791148359828,0.15112542127361886,-0.12100815229770512,0.16131329573164843,0.009680119130372297,-0.20039405257377343,-0.15848662103485145,-0.1836580719417253,-0.1676010401469052,-0.1295191233336825,0.21956202969023564,-0.06638270590255259,0.16238960051124807,0.025609766644973695,0.06100464779664865,-0.243555078927557,0.043647473907950284,-0.058025181410706415,-0.10145139862653829,-0.13419411961001756,-0.26591180351405713,0.09229763624338765,0.1768724763192849,-0.09305988604205138,-0.10068788541829936,-0.0338603366398746,-0.10423602336055311,-0.1222018507614013,0.1511449253345456,-0.011101045146704881,0.260214480120845,-0.15273893528807916,0.25755044431184104,-0.1354349818010919,0.06041611246368756,-0.28902746095731513,-0.2609171476648941,0.18705003920814586,-0.053225903228835636,0.1863032918846501,-0.04816194887776961,0.23535325414207356,0.021257430123238084,-0.0055450246049999425,-0.10045370857338377,0.27557473943958966,-0.2105988992159766,-0.11130361578826921,0.23817554830622883,-0.14905802233313148,0.2366194858722638,0.17982877816954745,0.03220500161393655,0.0937432046668949,-0.2670969677755553,0.008787402562950629,-0.19569020403301035,-0.05585385815803218,0.16526963387421442,-0.00013158937705592494,0.06096932330778447,-0.24102626875477293,-0.2173944636308879,-0.02903381813950997,-0.10514254804683863,-0.12283103617325489,0.061303497703606886,0.21849871372567367,-0.12145813220554194,0.24144229090172734,-0.04516555986330576,0.010351137697608015,0.039287381045972056,0.23106506380186864,-0.15508154447435768,-0.08198288534409676,-0.2570303944972035,0.1937404239987771,0.088659873470937,0.128032165420498,0.12871740100521809,0.12788191221469408,-0.20731913074836766,-0.11534575356502502,0.0018851211996400896,0.158711005562938,0.23864380271442376,-0.11236283486377074,-0.037570379298248295,-0.05929078879457022,-0.265196174206927,-0.03570843684497633,-0.11770576760898768,0.2580635817230084,-0.013489287703671467,0.09994778920658244,0.08277989941523689,0.026618959466959677,0.12001774870715794,0.07041070796733713,0.060078545331155635,0.062128286410043886,-0.2808630272099132,-0.004450636342044819,-0.04746779730049281,0.04624048020346155,-0.32693273399004746,0.3173857774934436,-0.19395164216441932,-0.05290075814507304,-0.02246682150287233,0.2294509147404169,0.1448798644540693,-0.03488665187416232,-0.14420778437822615,0.1348471352481099,-0.26251606817364787,-0.10873725138091263,0.21571006274328913,-0.2915876941222197,-0.06758504445199151,-0.2062801877646441,-0.26931994695303635,-0.14128618801252454,-0.09012012774140057,-0.23806760991477752,-0.1880163989307441,0.09686814935302289,-0.09628796195726488,0.24847722013478515,0.06503912047156656,0.036677505935876105,-0.051121365017264817,-0.008144057350439087,0.14441854722433506,0.0812730618290567,0.16150463850374114,0.21506705641008284,0.031708058917322784,0.19918552680634438,0.1399865098053587,-0.15146110388341774,0.05495361628936872,0.12588292105997145,-0.1781252526343975,0.217176726724174,0.07899686435295201,0.08717181853154941,-0.11538464076212053,0.07043654816345994,0.09781991573924997,-0.19831469049024902,-0.1799732075231321,0.2399492037845482,0.2627340787816154,-0.11257105782446312,0.27343121594486286,-0.06933705562669316,-0.10574285334949557,0.09898421625054678,-0.025737209498315598,0.2498909634874807,-0.2885429998420745,0.26050072572446387,-0.18047913366859641,-0.02901143378388541,0.00956998298278219,-0.0985286009323763,0.12711334506281105,-0.1308786814873534,-0.1261335545643191,-0.03016085217070684,-0.20438036884105523,0.02742049985138207,0.03426774195544646,-0.18827112782160532,0.31482441907279407,-0.1743133469466901,0.006030265508738289,0.0630891155303762,0.03437284673526202,-0.0768886912884699,-0.09972840555692288,-0.17845141556635916,0.06857884348072658,0.3017855937106669,0.15157848788972533,0.25564643187202585,0.18708666560927473,-0.16706227155958306,-0.21918148487273467,-0.22780370917941895,0.3095839347892137,0.09791486203516436,-0.12452879973797322,0.0475573523353723,-0.1158963355664668,-0.07271901183784434,-0.22192489286980643,-0.16295238076911234,0.2974440037874448,-0.06576487238253557,0.0036830778755157904,-0.2493143347632678,0.06976912349667622,0.12918617901196078,-0.24428054351227618,-0.2268551823423864,-0.24787294197533633,-0.0738204599927426,0.0902302385996967,-0.2084235806560228,-0.024467487679568238,-0.04305179939482694,-0.05472067878295126,0.08579203975922406,-0.052742397573435615,-0.19245499633798233,-0.024788849765241882,-0.0027192544048404792,-0.002498576266370657,0.02965893947830053,-0.1284401612203233,0.011732318441646416,-0.2847052292756975,0.053205684952944754,-0.06266505792052628,0.16934684816709503,-0.006855906326601819,-0.018735494094792575,-0.2663967674334565,0.2617584974733316,-0.2251938789952457,0.12183649230386484,0.19188376532504225,-0.07301357753290681,0.03373466464291674,0.07343326576666645,-0.23698625415867514,0.1796909301105208,0.1072433662039371,-0.20528310723771623,0.24221034143663658,0.17503719487642477,0.19146893609460316,0.006952648349447232,0.06377751923289014,0.14299864550292407,-0.0264033473851531,0.07550697036883487,-0.0381565385145222,0.09903273037156023,0.24086453181274498,0.008938723250168878,-0.17604225159522735,-0.03795799996955993,-0.22623386543332197,0.058595472806060714,0.09827266655335758,0.2509348842695179,0.17740226522676492,0.1371885137557108,-0.1940410417758266,-0.08891537972576458,0.06526763195134185,-0.18789306371045414,0.025694230088664068,0.01475146821580671,0.21377030375919343,-0.20076130641772078,-0.21208438310765856,-0.04724602779297963,-0.1076420383827971,0.15850959782546642,-0.10590449703434245,-0.20829987076330594,-0.03987550918442981,0.1118270902186065,-0.058351916659174344,-0.14586938184097148,0.10955401592467366,0.05882904647578002,0.05381523330096899,-0.07808387766000553,0.03616672560367431,0.22940625889224647,-0.15112462786430295,0.17957061664903642,-0.1048818374880914,0.22815132939546987,0.08341662791901445,0.19112587498462197,0.17025108393504465,-0.1643974555965117,0.16703339425821898,-0.09783398952680164,0.09352800774339011,0.26049950553411994,-0.027414431966486064,0.173671447125451,-0.03444092601470486,0.04640346960602796,0.17318983778139227,-0.09315135555140254,0.12270622019521149,-0.28502094202027806,-0.15348361705464564,0.21171337608165197,-0.14782755367907105,-0.011420959946451996,0.041844848061966596,0.07968083024405104,0.07230708997713628,0.11645810870966117,0.025385261919696762,-0.11153353069819044,-0.2645873512683665,-0.05853145887950748,-0.2323863928882711,-0.07888709239607998,0.011763094895898621,-0.03697570485243194,-0.1994739364202107,0.133210579675731,-0.17064239363129022,-0.18247502275050548,0.18485056669212413,-0.10876081851659222,-0.21250833015559076,0.1450321191863736,-0.03550090261388253,0.03311043234337128,-0.16484477654845925,0.20900657805707065,-0.06102327696561855,-0.20009853023363777,0.10990198267305575,0.18647515516180954,0.15217433571497055,-0.041515724923213725,0.30388562917747025,0.21582951272706097,-0.21336256005916077,0.2918993597822507,0.08704213270319905,0.015787368990137066,-0.023711826803070025,-0.0008470312511673819,-0.03690500897619394,-0.09703439363433183,-0.19795899525414049,0.29270521905304414,-0.08129703531827165,0.007257526078263756,0.009898996380852135,0.18180505783781623,0.048587426825715166,0.06004519525126768,0.17799991982073263,0.09510855995095867,0.16164930060634836,0.18886256115492772,-0.3413723018130424,0.125542680020616,-0.015726293980431343,-0.2737535032554376,0.09737575054220135,-0.3630776736413142,-0.13664150062478353,0.19676691412216896,-0.1983942112563057,0.06494776392491658,-0.10436313134404293,-0.2338539668005028,0.09063258476982776,-0.26887052890068736,0.31519421250168683,0.2811045503515971,-0.13807092094683723,-0.043954782269774985,-0.0022654924125619902,0.11798022582232771,0.02463630441987087,-0.06107453165069452,0.31504255676802706,0.12391839718529847,-0.12161161442511177,0.23322464000106188,-0.02813128366131363,0.1259764404910016,0.1731262044127825,0.15654572470789133,0.025096915545839253,0.04313748048196164,-0.16634427622387402,0.015047221752002357,0.06849201089151494,0.18916932667183117,0.01758937815007183,0.08301270916259135,-0.04254138140204035,-0.17000556906951034,-0.26314268550740066,-0.2432671331397972,-0.026879277101658498,0.1694075609121225,-0.16366195522072435,0.24645753668761308,-0.15754172477384745,-0.16801069046208186,0.18059259155323687,-0.24100081398401568,0.09200264696972109,-0.11667289063551485,-0.17589164380236288,-0.0001354281431460136,0.16027788260805825,0.1909556358790069,-0.10146099434852059,0.12419039726104691,0.23717850640743202,-0.05551482692579469,0.2868830241385915,0.1413953887796896,-0.22143583079649118,0.10012077654315338,-0.06614827887468303,0.10145205299575652,0.026797602167360542,-0.038282619616229786,-0.21005154839815113,0.028793522166521514,-0.011795491240251798,-0.1381480586789969,-0.13756461478591228,-0.2404808255918475,0.07076605792032374,0.14348820884054522,0.19206088321877524,0.02588719275740389,-0.09966274721368011,0.22896954137354603,-0.09490065283888405,-0.12324266878407843,0.022862814442676047,-0.10999696568691691,0.07520664227053246,-0.21527980704295935,-0.2019409871661583,-0.22426929747959234,0.09667518397706033,-0.029342782964121832,-0.014042292541023758,0.16830657772858654,-0.142632143851454,0.004368669249319137,-0.17820223993314357,-0.20545239017650407,-0.22174038651969338,0.05430672313351281,-0.17154703584186054,0.018618190181164323,0.23185515260791414,0.16603458265856375,-0.1239427039425709,-0.22178197730747035,-0.125944289868296,0.15955224505643334,-0.25594179419510316,0.24516485570271823,0.015862506085633832,-0.26952055517716916,0.30159177223088035,-0.019904941842551517,0.19953023352601937,0.05720346529096565,0.13785248543860093,0.2937179363079162,0.1591459215559418,-0.029266100940563068,0.11509898424413234,-0.12392496812583954,0.08905082262124726,0.2006238808365473,0.16336024693719242,0.1589840325246376,-0.29061584155577025,0.018177717174714784,0.045167673348254084,-0.18644787338842111,-0.2116660526610359,-0.31126453034393475,0.23112437189394217,-0.06211127768173003,-0.13728234446212453,0.139117079351821,-0.10871230892574725,0.0911003012255,0.1788966953874797,-0.2027747935052349,0.17833595212888287,0.045369244132037176,-0.2471448379154325,-0.07996084512979877,-0.26279165177854624,0.020077709071541914,0.11589104935405503,0.08443898413343758,0.0634437180409268,0.25100861523695367,-0.1635938661691638,-0.07860227741682031,0.10167639766837348,-0.31915928638741553,0.1019889090914949,-0.06729972843619492,0.14702937944526287,0.2654473256886626,0.11709114465833545,0.15066827404756383,0.10401854002862501,-0.14271413625765772,0.2274248098935544,-0.236694343273154,0.06846095319290289,0.10229423347565776,0.05552586801009195,-0.06440116271138638,0.2140499401227156,0.25614563198276835,0.24548561696826318,-0.04189361225570593,-0.18644040217757296,-0.02383387943202824,-0.28503704871695884,0.03168359965769308,-0.3245698925493918,0.15777290857085358,0.11028819819225084,-0.07747419016673114,-0.08864174672269377,0.09107872896105684,-0.17096352576129295,-0.1998460538925842,0.11965391627887759,-0.0886691309310767,-0.07608399864297072,-0.20619982796706188,0.15776127472291776,-0.06782350243136198,0.07061684118267998,0.19011204796720169,-0.220120673492633,-0.031614192161191275,0.1288357918720184,0.16273765539419752,0.18223998635199437,0.24059431920980473,0.11847258587156168,0.17228720737666667,0.2383249755667067,0.1954376395392951,-0.05183614131279586,0.009041106261323187,0.16889161989255885,-0.22988249956175216,-0.1651014674624045,-0.020093514758628646,0.2170548229280039,-0.24534089706067833,-0.22035339788409922,-0.29597242063833823,0.20909419828023482,-0.18118757578450778,0.20087507483189132,0.01612987736474,-0.05554158955563916,0.022810949451846196,-0.03862919053272412,-0.15649902308019836,0.08599771834103072,0.06384940193682705,0.3036594615611232,0.08015620617056668,0.019492926304559552,0.11347368017368357,0.22692311903993065,0.16001607073852567,0.17722749613083114,-0.2331600006483537,0.14372306052770603,0.26043011858516424,0.09365884915938834,-0.22237852737772293,-0.21801671854422955,0.23775178982613185,0.23389778667964126,0.1985432366952563,0.32824892352503576,0.1496631369274428,-0.11963913085069047,-0.07383499809076328,0.23897168582550996,0.2244292313442348,-0.062110056583800324,0.22718449628871862,0.007931943369174183,0.16398302670159834,0.25302486540808083,0.09332224400429376,0.016209113071123077,-0.14885627008439767,0.21664743093574307,-0.12288886989476108,-0.204048938861673,0.19905579946068866,-0.07364476751989638,0.1714205290762913,0.10285403609149103,-0.04406096721792298,-0.0406942989890337,0.1798481626782443,-0.026742688990049453,-0.1493931765000208,-0.04304602168850444,0.13853015239008906,0.1739529980138167,-0.13033462978270077,0.011159050337720869,0.24823684507019184,-0.11282522684035498,0.08769002548599508,-0.21343757014225404,0.1802336236522996,0.19643780969622807,-0.02716208963168528,-0.1895883450106371,-0.09920210888945069,-0.013734459165616197,0.1542175175757114,0.05922642938150506,-0.2553585166104562,0.18351135890241982,0.26424435646245287,-0.03026222675699497,-0.09758080266293089,-0.04110071494558188,0.07189764864441772,0.14157243262677668,-0.09170984970097341,-0.0978448855748506,-0.11919905741231368,0.13354302534546625,-0.07217253185432952,-0.10343236555947735,0.08204642414943401,-0.08838147881124851,0.3067163899387421,0.10519961066976131,-0.07451980612667818,0.24213098507422406,0.18560123109708954,0.09962409985455925,0.1809035423124378,0.16274050806682927,-0.2494960519800005,0.10236967739033041,-0.26083523719229335,0.26578940483574687,0.12445629398091902,0.2439694318617354,0.004653864229175671,-0.17772132062020096,-0.1211057200531552,0.1287412944643688,0.1307844033456464,0.06822994969221288,0.09009333799562444,-0.03596067240992136,0.1848065051505653,-0.022583845391922427,0.07369808172237571,-0.07666124511508499,0.07134654193730838,-0.13063764545011303,0.25868313922797087,-0.19778490507181679,-0.10181266117406498,0.44839585724757297,-0.029619093818398702,0.0535316026286434,0.29572057907111465,-0.14702555966197658,0.2540594422855795,0.027579667688623747,0.4513895900153424,0.1243399502346182,-0.19217478512542086,-0.19926458082927676,0.0701104316746248,-0.2030219947937264,0.01755468147753901,-0.23149580478936208,0.11879103300599982,-0.28490436663770413,-0.2108106855857981,-0.29263787987010287,0.1400570606031591,0.1989054234484067,-0.169555074782497,-0.21759972635276262,-0.18125703700995652,-0.10527618713680909,0.09349993008655996,0.08899373942069637,-0.06494497266115425,-0.043120676697189185,-0.16517898128218753,0.012555743207014872,-0.34604354310269153,0.18268235583701967,-0.3736368047230195,-0.4921219318621021,0.04588679606660665,0.14193094989280094,-0.2528268251502345,-0.24168363323885922,-0.18786046106783116,-0.11605563251110267,0.17744042039831762,0.25537147423534107,-0.10667478256249585,-0.13186910563951187,0.23173366290108818,-0.21184997527238958,-0.042282581517464835,0.17222838229612894,-0.041868438737628126,0.008303237278534029,-0.08432011985269391,0.03329778676072877,0.20361269763281706,0.15631582673482,-0.10121302197656999,-0.20557354150065305,0.09282666465322402,0.1920379636879568,-0.14915266568311253,-0.13722638412474092,-0.07991228185545685,0.27643102161238486,-0.01776668795177548,-0.0022019654500974304,0.08414678471695808,0.21139209291037253,-0.039409516264497256,0.1423499375188735,-0.07712464451095816,0.16283233563835764,0.1783795864876604,0.04578272357426222,-0.02696191846446808,0.24297510654732443,-0.042219543553854946,-0.23070606235854316,-0.23734727041392348,-0.2887656012781364,-0.2529400487947226,0.10418647720403582,0.046939887644004995,0.0076652655949167176,-0.10607666549552143,-0.03558329783798092,-0.25064750876952924,0.015630998431228168,0.1191079313488025,0.007956533086210058,0.10109912367817771,0.22933148516245358,-0.14613764480195585,0.012793005031064392,-0.0254412992511118,0.08854040781049219,-0.2163586687952176,-0.021422373457214934,-0.0952254647928076,0.10923100413219326,-0.22970306622098038,-0.18038583385276924,-0.1432824060301145,-0.17733083062578883,-0.03383962799864487,-0.28053163627646854,-0.0288430363387567,-0.31646452942148345,-0.2770529212017232,0.17366128167965944,-0.05843464115147926,-0.13580208548830575,-0.2727327673884311,-0.18105333576291047,-0.20847236910429257,-0.1337961546400268,-0.165594234163096,-0.13430807651595358,-0.20830958652221512,-0.14281939758623366,0.043119118593261334,0.07265585687460226,-0.07246862429493882,-0.011133359155442103,-0.04737649026383382,0.0030850725277199497,0.003915713093931382,-0.2535794226817109,-0.4138569406990139,0.004224359904655271,-0.2752601212421055,0.10884485975621835,-0.0875878584097627,0.1326653951107367,0.035571359618117186,0.2041193776318798,0.1301944268403799,0.17599667939472902,0.10301711931220232,-0.1308314407453903,0.11390531377021815,0.3004126998850773,-0.03660014909575987,-0.007092505889466787,0.14088597085726276,0.1736470862378317,0.10088526315376974,-0.05603449875823729,0.047190858009459935,0.1177830049842816,0.08855882389624582,-0.08011563006409811,0.19180641025209286,0.0476022781596775,-0.1625350769841195,0.0610908075301266,0.34235538807402327,0.2084273589652701,0.0419972034874426,0.19607838116902682,-0.1427928326345638,-0.16744064261418315,-0.11867962822781727,0.09535936801472236,0.11279515354738966,0.2328088823607797,-0.23224820661983014,-0.316439145976895,-0.0671373165558406,-0.33027933335701665,-0.23233794605281283,0.05810628570804419,0.09320254698494196,-0.2434641687917655,-0.008270932293844045,-0.18276395661886757,0.012621530336583043,-0.21317480570723435,0.18442245528165357,-0.2829128759698318,-0.0659680174544674,0.1061032209648609,0.12105294610715778,-0.12124280163356901,-0.15439433647351083,-0.12447929249652502,-0.2153072783586556,-0.19211647918625002,-0.13883616648710598,-0.05611106308937059,-0.26688608846152645,-0.11419659079582446,-0.08769023367451874,-0.040752301089907246,-0.38127919730760335,-0.2463898951489969,-0.24237219737928373,-0.05370809003508249,0.1202381238379429,-0.08459792692119843,-0.0742095053276895,-0.1062157198662256,0.06509527742124699,0.13295539585329877,-0.037767447802459886,0.23786127750336444,0.14411421306934447,0.020338501969152767,-0.14259181718729383,-0.13647229225019852,-0.08397272292470928,-0.16810155505142838,0.19158056674729182,-0.12370801986874644,-0.2174434694072926,0.12396279896216314,0.2224472925844806,-0.014716651075909701,0.09334670102869219,-0.08239552374297993,0.1589238768544576,0.23961413321440736,-0.1055458205090708,-0.1730835654527436,-0.04452559872862592,0.12913629451581277,0.19588049300872512,-0.1170120457031908,-0.22962452695012128,0.017685279686204668,0.15619538999930177,0.09830096734701615,0.17301390073439846,-0.16619785140803564,-0.1854342174019304,-0.11578168963242039,0.14685937283179504,-0.18319844843994607,0.0011657221929466533,0.00975683403667221,0.19876116239019834,-0.16268396432182686,0.23544171186413518,-0.22541640720546594,-0.01719689302604698,0.03805449187972763,-0.04439032611119945,-0.01664914486791052,0.166322145620777,0.2792220988733708,0.13880585955783695,0.0076971733424731565,0.3047374313084822,0.027486909191276533,-0.09252354528384897,0.23955566575447176,-0.10372682468544565,0.11478722130927232,0.07930044933432892,-0.12470754662477324,-0.17488886135847284,0.20436865247722769,-0.15229824020542843,-0.25079684119009304,-0.0622891080371588,0.07186708988552173,0.02667675331443712,-0.34233095394873847,-0.2716505925321546,0.09894015250067327,-0.23858922032836094,-0.040052814851419635,-0.1304394091175182,0.1611536661351972,-0.08938635246955325,-0.04016543612372472,-0.1173736825071895,0.06299067864348595,0.00000188551308279006,0.2785895126064875,-0.40484541362581394,0.11743964297758831,-0.26118223152767783,-0.0349158822955996,0.0013727879806116755,-0.06454244870382227,-0.0901922731640808,-0.325614425581823,0.12439289164105194,-0.03700672575195579,-0.11488083481619962,-0.12454155911277606,0.023840150810739452,-0.021418346202747893,-0.3015972109718416,0.16432988897198111,-0.26814809934423506,-0.29722261046254755,-0.017236054821973212,-0.1576240017212065,0.18326435196888566,-0.047394242341355856,-0.08862205104204685,-0.25374723237420427,-0.1112006398479647,-0.14440739478464829,-0.010334600145584353,0.19226152266295085,-0.01846698366119853,-0.17562823072343262,0.08155253991427637,0.010679153576717596,0.04445434800257646,-0.35020567691744586,-0.3191847906855,-0.1302192139724562,0.12578754936697653,-0.11868656872431507,-0.38274648924473165,0.18635082445009982,0.08134541025156591,0.1536888525148077,-0.0840694529866833,-0.0228613541616661,-0.31697709008907715,-0.24538541845522954,0.16878116119262931,0.03744528529605234,0.12798978164090236,-0.10423322081512335,0.009567931100385127,-0.11930752864063293,-0.24959458922708172,-0.20898855737474473,-0.09190715102081802,-0.11641690366061849,-0.053945951078072533,0.06885139139948583,0.218147039246583,-0.002092093495797259,0.05557466016527653,0.07942424507736567,-0.28045353673436296,0.13347241627299625,-0.1202760641924765,-0.23486178231549157,0.2254977914916639,0.1142570361082968,-0.19532450055028075,-0.42465375635056896,-0.08949462359381347,0.2239426547192504,-0.1178963256106195,-0.14465714017276854,0.19844904641982147,-0.037124617462174506,0.06732446333018205,-0.20802379613746047,-0.09794545428127056,-0.05564427817684384,-0.23631604252433192,-0.01296483307454519,-0.13860828079939289,0.16807764582235366,-0.08327384721265188,0.04545440129884115,-0.271105963161876,0.00684085607120613,-0.2553386069149415,-0.09876474006261447,0.10621053699475262,0.20624452188103098,-0.0046202664242200805,-0.033100264872607914,-0.029547352211288208,-0.24108356832682065,-0.36964933654560495,-0.2583142017062976,-0.19165861998528708,0.001954842090160282,-0.4549329127338565,-0.06576977573231065,0.17691139081266907,-0.22044270642500965,0.1994275255288302,0.019959994243999423,-0.2025594982999832,-0.2550945431346947,0.20175263100188778,-0.10900017378317983,0.21914052658994482,0.011197967200746823,0.07327104222828199,0.19041599150831406,-0.1359974957878593,-0.12055758982645814,-0.0027627769998622054,0.11963589785292598,0.27272155292882927,0.04173055573868644,-0.1143009381093599,-0.11244599234883314,0.05924838432852817,0.04575574119136889,-0.010055184109281922,0.1650663590643595,-0.05486066659839203,-0.1633678950594165,0.22720310088798182,-0.04403341897246066,-0.11174451376143497,-0.08815228989321824,-0.05992678287988687,-0.219524379204264,-0.16296127026691254,-0.08475794383451124,-0.251157601059644,-0.12054348520122653,-0.10893266306000342,0.1583125563579264,0.10137492036444133,-0.2656950761474023,-0.32528171975490955,-0.08495863652457915,0.0820648501299463,-0.0706355999123498,0.1216266597331419,-0.27286345934653156,-0.0573961474496278,-0.11716637001905257,-0.13121080907190555,-0.260276732234401,-0.0742915998396945,0.18018997852394866,0.18527918673807098,0.06041835753019862,-0.210765677611822,-0.13327843501969894,-0.13663234285947015,-0.11708039121586283,-0.2673677135427397,0.0659028161598338,-0.24502845244690366,0.042124706772778624,-0.11218844679931586,0.01190430332014978,0.26646091253800547,0.148326318367539,0.08990392560475391,-0.11255564450622227,-0.12838355736224968,-0.14541637356294515,-0.05866175213656147,-0.04871665905490206,0.14372417224359277,0.1648628572674991,0.20497891385733938,-0.06350986268015107,0.15402594916693443,0.22766972087863874,-0.18493524875706677,-0.05827348733336025,0.014951596874370981,-0.10994347909589577,-0.03596953815804784,-0.17192745071450077,0.203022959338597,-0.010484302441783748,0.4056925338185352,0.27550764699464586,0.23724329051497386,0.12161695871363765,0.1391971488427156,0.4470523325418398,-0.09629478565653579,0.16090158801741203,0.17510573700754384,0.11812341477689212,0.05978066955114042,-0.009261766605275544,0.2556642659107746,0.21031850329171606,-0.03334617629441462,0.23800939781795594,0.3646885925443445,-0.00862663978379575,0.15377310241475006,-0.13436699042780118,0.1658622866479065,0.08056336767022045,0.03645169489909697,-0.01062392485488997,0.12807043698205706,0.19095958066855345,0.24710607055053052,-0.22634077110535705,0.04245782027130224,-0.00738556893298853,0.19389924770926067,0.4254547826969908,0.18694537956030374,-0.07094097577836109,0.1666517553783555,0.26922880243403263,0.13959040736244296,-0.16226435041745996,0.052354509301362526,0.00770040623454474,-0.25987862508006987,-0.07883755233692032,-0.16904836347709531,-0.3510360736455484,0.02254622967964735,0.09229548197876843,-0.11467656456100875,-0.059671782295938204,0.08079849309916366,-0.23121583621057723,-0.08145621437976987,0.029223875271047795,-0.012996827937870586,-0.274154524990933,-0.17806108973447432,-0.14412984263987136,0.15715114884337308,-0.2143731225180094,0.16603081140669465,0.048592066564940986,-0.1576921538097,0.19075959635609965,-0.5127055561488923,-0.2908845462271818,0.09409834395249451,-0.309423448258899,-0.27322609525628766,-0.39267536584146756,0.13363157442379162,-0.07604207501858205,0.1996459791338002,0.030210976556682097,-0.20410007052151383,0.19480223763849164,0.28936861572226213,-0.17598617792180282,-0.0010991211290553326,0.13295058175186408,0.2694254641768249,-0.23131363822298698,0.035490231232130104,-0.010552872426434252,-0.18059175629179294,-0.18939366057105816,-0.11125323568797518,0.06353451458862668,-0.12200497589514213,0.08625703090742967,-0.1163264049111697,0.07853571799808176,-0.22860808631240587,0.1916567667976245,0.023289543405171358,0.3946343573631234,0.2630658110698028,-0.06029814317780499,0.10508798978621228,0.06765562941551373,0.48812773781987573,0.0014974259261085342,0.12394864320683499,-0.18290070301919528,0.08632082718892349,-0.0049900638229785094,-0.24991510393708805,-0.18633498908552498,0.05271404205164501,0.024063500731572544,-0.23165345151361547,-0.021812175448972376,0.24677012603616807,-0.11140204634830476,-0.0009322388128606014,0.0007154511578533867,0.1314134803439272,0.05783297353158175,-0.2537923522217454,0.0011187162933816806,-0.26673965224346363,-0.2633891184029593,0.08809539528049802,-0.037543967178344385,-0.3301000650313366,-0.20981884604499484,-0.22062152875189872,0.054391173549942946,0.07468182516633456,-0.09719919829084937,-0.046942282160010215,-0.06961328378224388,0.077290269894272,0.1753175574566771,0.030851871261633627,0.16287226047179668,-0.03983515796996199,0.014018151347899228,-0.17369096571892376,0.059530459643355724,-0.16144805252714858,0.2022543804233781,0.4122208468629465,0.009313257164380346,0.18822475038216954,-0.09645564128186974,0.038722630110698444,-0.05307270258091764,0.3330195862715187,0.14896744230330888,0.00374094251961473,0.07815525435929709,0.15563021495706414,-0.23134526765433186,0.0705566859512438,0.035918508623647705,-0.19388193571678888,0.3007380883152516,0.22225784743085045,-0.11990529823889809,-0.02087132865665882,0.2514146210213481,0.3619879447813755,0.1910906322749462,-0.039137779325874866,0.015415566026572541,0.07295720382910567,-0.06432478722861426,-0.2541790267955106,-0.2199015274517068,-0.16708275516417798,-0.1234694977609821,-0.1633621479025167,-0.2518197595148665,0.21266336383556703,-0.12406814230075461,-0.2014334046133073,0.08459183576600555,-0.21125750700722576,0.17784094187557625,-0.08319404205662438,0.1512111036324619,-0.23219006633751033,0.005327243437539848,0.15668919948667853,-0.05876131319520828,-0.06440295106585871,0.08491806596269763,-0.28400688593359225,0.01602737327429795,-0.12993823648534705,-0.07398520784306699,0.019382545932907103,0.0770725412310786,0.1259026522281322,0.02312886974826459,0.0601471323166373,0.23103599313591866,0.13257106376039302,0.04274558882722667,-0.20249167560320114,0.2440504206938189,0.08770371536284469,0.05559196623308035,0.20906730617926828,0.02145919465373792,-0.23835333463449893,0.14837021259995864,0.20873729887678696,-0.2381475542952928,0.13445264928337844,0.10118337738953487,-0.2343749778519445,-0.1276550374773244,0.14016537048729458,0.1428325161382312,0.12732830590933353,0.008980386212561848,-0.032603024678224665,0.051628930907414786,0.0351398614036967,0.06696970946852994,-0.0038437888915844078,-0.11509784439487951,0.27490252518224306,0.15137352222632827,0.049413458141708166,0.002627340730705623,0.2262701945531585,-0.04794060697900543,0.23028499079860712,0.2906410743982422,0.18799855254847586,0.23769778217430834,-0.08083144785060377,0.35895453407453215,-0.09340118513566448,-0.06302023094314478,0.12155440882471376,-0.03902620879832601,-0.010995059380486397,-0.12084746264436923,0.24417291167859564,-0.10882038388643456,0.0659493306501744,-0.12166284165242594,0.09299253158061006,0.04463528980127458,0.11098026430733446,0.12822876293976945,0.27254405326122205,0.397552257502769,0.15063899955653723,0.16077735826462,0.21600862219900543,0.054848400023344054,0.07744267962270217,0.1957921409856477,0.039261144277494844,0.12091713257467508,-0.15275305680719467,0.28236418767259314,0.2216116143026356,0.0767360064580371,-0.14957188863935797,0.3143683023005077,0.09256625021753961,0.025066007657610093,-0.1633402123054448,0.043476397136148724,0.11888897029464679,-0.13586217667183276,0.2835694460771034,0.22206603320006926,0.24456593672094093,-0.1253150158477586,0.15476692916223117,-0.0928404904754467,-0.1881975454669196,0.42902085652074184,-0.03949636115945993,0.39470492965372467,0.24074761036128275,0.18686356689899933,-0.10018485620220319,0.301276662716094,0.3459902581115342,0.11904348774438639,-0.029603036356695176,0.05759110962120162,-0.3334503340264376,-0.08658444124415068,-0.12980565578398795,0.012798132183339665,-0.20081644793291314,0.012459558470297546,-0.28299483957538535,-0.13941883391725166,0.1893113281234511,-0.15115987993770116,0.13965549429712898,-0.21218171807058314,-0.13246419458856887,-0.29505519392913254,0.159007048712029,-0.17418243938387779,-0.06944567848352727,-0.017194183099055984,-0.015209169710279377,-0.0739411956341163,-0.5115323861400741,-0.06216362674177636,-0.43499137060124315,-0.39313218164944047,0.1083962406435115,-0.28081037416197063,0.10680583475045904,-0.40633095020998705,0.15490070437818673,0.08305030808706991,0.16377942410593266,-0.12046581120620427,-0.020375106156865948,0.195949595315191,0.161851649271167,-0.07611615031384106,0.295241834315823,-0.11598780958297614,0.05764969545487107,0.22452014743508636,-0.08221960793483504,0.016715101914511227,0.17221096369998268,-0.07045172079791673,0.09535094155280588,-0.16040859938047258,0.09643615694725469,0.26791638593255984,0.0572529439769985,0.1310071544458843,0.19891825050675982,0.08634983169900295,-0.057721470827485584,0.3645940390247904,0.3241098120144057,0.057109756344755604,0.16804673073370108,0.25665589443313697,0.16848790699655258,-0.16860024558688294,0.18640636073858055,0.15824069360818127
biasActivation=0,1,1,1
[BASIC:ACTIVATION]
"ActivationSigmoid"
"ActivationSigmoid"
"ActivationSigmoid"
"ActivationLinear"
