encog,BasicNetwork,java,3.0.0,1,1399533480564
[BASIC]
[BASIC:PARAMS]
[BASIC:NETWORK]
beginTraining=0
connectionLimit=0
contextTargetOffset=0,0,0,0
contextTargetSize=0,0,0,0
endTraining=3
hasContext=f
inputCount=30
layerCounts=1,21,31,31
layerFeedCounts=1,20,30,30
layerContextCount=0,0,0,0
layerIndex=0,1,22,53
output=0,0,0,0,0,0,0,0,0,0,0,0,0,0,0,0,0,0,0,0,0,1,0,0,0,0,0,0,0,0,0,0,0,0,0,0,0,0,0,0,0,0,0,0,0,0,0,0,0,0,0,0,1,0,0,0,0,0,0,0,0,0,0,0,0,0,0,0,0,0,0,0,0,0,0,0,0,0,0,0,0,0,0,1
outputCount=1
weightIndex=0,21,641,1571
weights=-0.11364033132441377,-0.3075088199359686,-0.4747244284458639,0.40512178002975135,-0.39587638821173265,0.4617978121806429,-0.45934268163645936,-0.5901133209661663,-0.31669656587397804,0.23593228864736882,0.003230524625922857,0.24526989885043188,-0.40512776409775914,0.7864336702684601,0.287142376892219,0.2629821699232047,0.5575168152786194,0.530873863768654,-0.6063369383904147,-0.657341927556989,-0.19405971579622794,0.1750889017495197,0.08413163941602309,-0.07660465315217554,0.12745117626327215,-0.05303466555999629,-0.25597982162074656,-0.10441668042526281,0.12956013933978452,-0.06417377306117682,0.005608350817867466,0.05839396869141186,0.02056035500199528,-0.1397701107782422,0.16287305885847786,0.15887259173718768,-0.035532064231712346,0.08870554839936856,0.11489534132663376,0.1032483970484001,-0.14691259616398306,0.250713124398473,-0.20916498550988077,0.16730541835993587,-0.16846161091210546,-0.08864031617597583,-0.2437671846455942,-0.13985611118520772,0.1679866111713184,-0.06710370594680931,0.23202628758753477,-0.13681443078843883,-0.09413942735152804,0.1093629196966143,-0.16860747105258847,-0.11484393076379086,0.037247928642640184,-0.18941076450604738,-0.16179852032338207,0.13854453576746611,0.0038076501012455294,0.1318015460250904,-0.006362695713779982,-0.2329893024521146,0.2847914487634204,-0.17612062717975477,0.2201237553730765,0.16302024178037194,-0.11229536011509675,0.17437134676215482,-0.00048340011104607353,-0.20851167489004432,-0.14772743229862417,-0.1911529437696648,-0.15735590735355295,-0.13806431898417995,0.22948079700566057,-0.07646120214063476,0.15391361787181804,0.016559345716769435,0.0720348703827411,-0.2512418169446592,0.04684426630036173,-0.07259765156548348,-0.11246743752983696,-0.14635398454067888,-0.27657954054503564,0.11035261169257932,0.16663341087748684,-0.07505300116106697,-0.08450625730626841,-0.04815391332990365,-0.08466249233493005,-0.1321932523126303,0.14094679951696723,0.004909209928566196,0.2775671880772763,-0.1367313023698769,0.2748751715983178,-0.12276844381155878,0.07947589190607664,-0.3030212706014707,-0.2718613569406065,0.20258474395416964,-0.06316658856070591,0.20120310501482364,-0.059723375141485846,0.250029582331299,0.007358203466812338,-0.01705597859505305,-0.11276599387875191,0.2915622712920331,-0.22088258561204585,-0.1058007159035177,0.25103180917064777,-0.1392570597460755,0.2474601307386658,0.18927117875616192,0.018007346361198856,0.10284356656648906,-0.28128343550323687,-0.0037345489276252083,-0.18302361796595962,-0.07134971766994196,0.1742408650290336,0.009000973622986698,0.04857868632244681,-0.2546000631328813,-0.22973736986065335,-0.04255190019874684,-0.11457819120996897,-0.13790575220144477,0.07369421175537064,0.22818147872578906,-0.13340721440268616,0.25028016803056613,-0.056638917688494606,0.020588014458162034,0.027973650704945688,0.24350719654530728,-0.14480623715808255,-0.07106789771507958,-0.2693371775100195,0.20283232379863333,0.08560081423370376,0.1130591765995442,0.1168804729163528,0.11489844552071977,-0.218930144288444,-0.1001072363033115,-0.008887976527962301,0.17392706411203443,0.2520209318957995,-0.12706685639251983,-0.021037324279539915,-0.07029760317570943,-0.27583731775635145,-0.02226439819572054,-0.10308024020131458,0.2714303872779066,0.0010819519561419322,0.11020162466244426,0.0988700107894376,0.012083918746981582,0.10818515949175185,0.08342324834964428,0.049043485427528156,0.07451062669044543,-0.29327106569842404,0.0074679079513053125,-0.0619990074812867,0.03389915456335318,-0.3400127017941948,0.3307550069888148,-0.20518412661805527,-0.05093803394355939,-0.007802450612120257,0.24059095018384613,0.15721090909702215,-0.02414586827255085,-0.15994214994788378,0.14527421572048269,-0.2782692174378189,-0.12256763240828301,0.23013705896371398,-0.3088343721794786,-0.05728875694791294,-0.1957761842454578,-0.28300386358934004,-0.15631317832736882,-0.10376913399260193,-0.2530518325960343,-0.19834926237684103,0.08011967667440235,-0.08215953803591636,0.2595048282220161,0.05186090399739305,0.046747877186012754,-0.06377668346883877,0.0035168770590318257,0.1319018931437242,0.09550078516248336,0.17321681890827725,0.22751529075836296,0.018120367236607836,0.20953108494586897,0.13692435144096377,-0.16856974040929656,0.04139737659317715,0.11101539958527877,-0.19137097056738664,0.23406459613235034,0.06659659394073233,0.10406639979267406,-0.1005951103399301,0.053562302682652406,0.11616284114237051,-0.2110003429343092,-0.19234354795676153,0.25474513478986527,0.27890944420471,-0.09786817175564344,0.28954938357529064,-0.058161355747857114,-0.08787246185194336,0.0823644449078631,-0.039224527392276776,0.2641743179182295,-0.30115614081902786,0.27410477628541546,-0.19464341387497594,-0.015800577288688368,-0.007214979077585897,-0.11271465454750634,0.112172551158125,-0.11618936860102204,-0.13892469947418737,-0.028458342172179376,-0.22186212971482622,0.01429087315396857,0.01958810247947695,-0.20080532093284384,0.3337626641399028,-0.18655970528145863,0.025115240977801656,0.07959556351306478,0.017227118174269234,-0.05602193366630141,-0.11180495070984475,-0.1905281699548624,0.08503231135966777,0.31985857809160856,0.16793821128909256,0.2736921491647768,0.19941604856678075,-0.1467573912810226,-0.23596231409439872,-0.24081449757246184,0.32532538705137065,0.08619774938163444,-0.10928652854926138,0.03377300102884424,-0.10095856357004278,-0.08964862836515074,-0.23565443817540901,-0.17768147549290997,0.3136728593098928,-0.0778981508217381,0.007656290750671049,-0.25853840320740656,0.06287737433119485,0.12144519264844922,-0.251109996026258,-0.21350902656638415,-0.2541273294042954,-0.060520933434683316,0.10230174602784338,-0.21738225494568478,-0.010170990327590244,-0.049229842830016954,-0.06077084081973756,0.09788019622331551,-0.039830476565591896,-0.1804122963766923,-0.011851888208873524,0.007111215334091552,0.011461944862123622,0.0207633616305627,-0.13546831908448845,0.023555034118159183,-0.2910867815239235,0.06446942263670305,-0.07006641116331815,0.18031101983891626,-0.015477246906621316,-0.026011677000240527,-0.2742505364434518,0.2738494722562117,-0.23183001122868938,0.12719751761339712,0.1986381486011801,-0.06805721967007107,0.03941810493820778,0.0783286780344521,-0.24696660992196073,0.1842628178610405,0.09726978128336407,-0.21426494691332684,0.24877625653767413,0.16436144388092827,0.19591732690418712,0.0113924488484301,0.05475688050423432,0.13336088178038735,-0.03534895976952154,0.06587948816335427,-0.045456701465871066,0.08856065339155542,0.24735006821205296,0.014014612077545128,-0.1848155363355331,-0.03339139559536739,-0.23462093456618333,0.06397749100306231,0.09001435443585434,0.2573026191658004,0.18266982125804712,0.1428826131293055,-0.20298578145922908,-0.08414714158088543,0.061117694128269846,-0.18760244340735663,0.025928453092159093,0.015006992125008159,0.2140045596862991,-0.2010486756145837,-0.21187211621955887,-0.04753185327632388,-0.10789786377181788,0.15879173814682793,-0.10621301489935871,-0.20807980633357975,-0.0396655167799559,0.11156770678906121,-0.05862984152459433,-0.14612528729036336,0.10927595054287996,0.05862769098752614,0.05351378868325553,-0.07780022997394531,0.03640472012340173,0.22915171632033243,-0.15089769846016912,0.17933229934463554,-0.10463347563725726,0.2279229818041341,0.08369506680462231,0.19137077709040043,0.1705091853065769,-0.16465524650257585,0.16726129279135585,-0.09785938465759252,0.10420715564030705,0.2691067979887565,-0.018000606603529517,0.18222011807740152,-0.04498103294616221,0.05421058757932379,0.1626764154504854,-0.10244834999807576,0.1332077801618664,-0.29635833986120313,-0.14536866453187638,0.2194487792767827,-0.15719457865503847,-0.021561993011154225,0.032546884366596224,0.0695527444685105,0.0650730372747938,0.10537558688955646,0.03577327326177113,-0.10284012105846634,-0.2736781399520676,-0.05034264841540286,-0.24101385705264425,-0.06980430126175485,0.003493693564405385,-0.026553171527267588,-0.19047608605223892,0.14267611843634123,-0.17997513993686984,-0.1741777110799293,0.18392078809561005,-0.12577258344327424,-0.2265212392542048,0.13001070055162053,-0.04924217237818355,0.04667674294122326,-0.17755730549627047,0.2225583903282702,-0.04930784689535267,-0.21692883580923972,0.12475456573121814,0.17315708705981744,0.1393824983449365,-0.029780845648407023,0.31686258383766885,0.22752763657767086,-0.20038363141745785,0.300420045077911,0.10143378449015884,-0.0008134998786163304,-0.037617166572003174,0.010481187437208847,-0.05010520777299804,-0.08623986949292402,-0.21244957526646727,0.3028741700272254,-0.0980838375585644,-0.007236614929272373,-0.005266472981194979,0.1935812596210444,0.0353252434096207,0.058296283408424805,0.19687154882841182,0.10830671306238743,0.17651133285184845,0.20097406682978175,-0.36317415000507997,0.13807667593319908,-0.03769833955810171,-0.2926578356480417,0.11580836831258266,-0.3875430479713196,-0.12462690057071245,0.20909768780094135,-0.21695198210469124,0.04427121824777686,-0.12298650361962368,-0.25455353571991823,0.07672939200333867,-0.2926973782662516,0.3328520149789185,0.29394701931298256,-0.15562077568556382,-0.033102221460166774,-0.019505725250864744,0.1317905104181638,0.007490450041659301,-0.04293943528708873,0.32861894998602337,0.13881793931653058,-0.13989213447434562,0.24487396342804804,-0.034642489533592835,0.13662067008352954,0.18151038995349322,0.16575937796843235,0.033317848926384515,0.03177604979321242,-0.1586109759871683,0.003689818538201459,0.05843221783628333,0.19964794552175946,0.0053035312594423446,0.09081766993886924,-0.03483342899657055,-0.18005905989940377,-0.2740547917996755,-0.2532661420450589,-0.03777288444229812,0.16162325546308778,-0.17562654194432709,0.25678478554589185,-0.14915620216798295,-0.1777513767189054,0.18840617548009483,-0.2502947298149179,0.10081649148622514,-0.12571487281591523,-0.1655385570270074,0.008644343647159205,0.16955844429830474,0.18094587515559668,-0.0935097205675159,0.12225362664332122,0.24818357242108025,-0.04660835191046303,0.29655886184336583,0.15015233864152597,-0.23179936972320267,0.10823575719288421,-0.07649947043730887,0.09233639475917008,0.03765456591343471,-0.04950519809013718,-0.20165599580684226,0.03689349771409618,-0.020925667382695263,-0.14809784384661165,-0.14666062179283776,-0.25041228867928184,0.06378271027549455,0.13255119167106194,0.202778338649722,0.0347880498478651,-0.10851341190036282,0.23734527100225214,-0.10333634387387905,-0.11395422005659055,0.014770583790998763,-0.09921737574204004,0.0844716974375612,-0.2055445986039038,-0.21105074593061735,-0.21577590591750392,0.09617755602795128,-0.012425313805660252,-0.0012103494396237479,0.1825609651361547,-0.13044395729546454,-0.014270154721922664,-0.16625231433498153,-0.22423051205102312,-0.23800682273236634,0.07096367153258966,-0.19201841083751803,0.030511423129153,0.2436904355368915,0.14981177548791727,-0.14175821502746744,-0.23792575870778698,-0.1437459328469891,0.14725076334671,-0.2758660583134209,0.2614196744534727,0.028445089687229287,-0.2850406460179074,0.3130189832646622,-0.034947549440129275,0.21290071594458002,0.042446214929187966,0.1543312178608517,0.30705067437263867,0.17340114149928684,-0.0452798332269207,0.12682419584365245,-0.12806799762835283,0.10712145966198121,0.2145683050744375,0.17872757667848616,0.17247211421412206,-0.3093119914399446,0.031165182054782938,0.026421665806062276,-0.2028444829040336,-0.19385824048031444,-0.3317110725800899,0.24406011665665725,-0.04908094093111458,-0.1535831465771961,0.12123879185572164,-0.12493531519260656,0.07325463837067402,0.16655507863073785,-0.22268408371490694,0.1957481400691572,0.0592159994413613,-0.2628091870680455,-0.06724735401417228,-0.2778373961944456,0.03470711914463768,0.10110863625086934,0.10203868843929913,0.07802244193584479,0.26647287591281216,-0.17975680425061305,-0.06559037214509822,0.09871707320737584,-0.3367314018219229,0.08891987273629981,-0.08174547832730666,0.13463227053757604,0.2841785070664739,0.10484966983123133,0.16942040849413176,0.12029731111393877,-0.15998157767254734,0.24808860685788278,-0.24863898597948078,0.0561762495137582,0.11834085381465646,0.0733261626074509,-0.048397419511867164,0.23177295053716057,0.26799352832737106,0.26558438132340123,-0.05865011358106265,-0.19924781896899785,-0.008503329066139704,-0.29650200984774083,0.04646288488638135,-0.33821617254427705,0.17248990866341057,0.09315291799573563,-0.09110414375473169,-0.10322179319190664,0.10696873074727316,-0.18285667947395107,-0.196080532417696,0.09870777527581218,-0.10510677733457804,-0.09401545642690382,-0.22186933633402445,0.17509127679545763,-0.08297307021593399,0.08809039019829178,0.20463070132952701,-0.24090995320224728,-0.012319739572908366,0.11310441461341711,0.14733700505717806,0.1966935514917873,0.2569791003039756,0.1327746471838584,0.188679727187344,0.24824927042050715,0.21423192539076658,-0.07193065443237712,-0.007041729549444062,0.1825218230485955,-0.24474463665674007,-0.15180607749374772,-0.03712882107984812,0.22996881627926472,-0.2663844562870356,-0.23743766551888848,-0.31391229401725446,0.22339727271899643,-0.19616412429541538,0.19992319122232116,0.04589577065688974,-0.04107105092145464,0.053526439618000764,-0.008902824885081019,-0.14958122939352883,0.09866333741752079,0.09629677220459226,0.35144140185118455,0.08601125773291571,0.0219734824515757,0.1384490271382396,0.22960748687037835,0.17684341440213572,0.21994127926548063,-0.23217539722471697,0.15262840754563167,0.2695632466504651,0.10282018894043188,-0.22189512681312068,-0.21684346851198383,0.30575638140367567,0.2481799507249823,0.27014721329067815,0.4009063640220152,0.16561682395142213,-0.10807708280225993,-0.048734177218609745,0.32082114775449994,0.237103745353815,-0.0562626558659781,0.22546442181785506,0.0184947170376444,0.17058706940471963,0.26359584111036377,0.10384150663879535,0.01982183019430641,-0.1429877728765965,0.23036446249646073,-0.10108420663497807,-0.2014194600587938,0.2000323084551711,-0.0637359709202038,0.172611525725692,0.10890055027126494,-0.026652682175472446,-0.040257302603453574,0.1828821663409252,-0.02323728401683018,-0.14620278032365036,-0.04276979805910768,0.13891974742982477,0.19934259133537424,-0.12357110652514791,0.03888151968585876,0.2753004752669095,-0.1043470267065952,0.09209953580664564,-0.2014428039367283,0.21722311039509054,0.20330718637289474,-0.02414255947926723,-0.19080261748424232,-0.0792958541767049,-0.0020099248507128046,0.1744864679825764,0.0789757544789687,-0.24972563046351662,0.1913632672760145,0.2847278104428687,0.003862717390156144,-0.09345838384188068,-0.03917290837587518,0.09011538716445412,0.14363677594325924,-0.08065573279896195,-0.06631368205401271,-0.11828387228209725,0.13848596622525194,-0.06805110928132473,-0.09861718233773868,0.0827862319179296,-0.08815843385452997,0.3532098071538397,0.11697185350823693,-0.023418950880956635,0.29121080381613773,0.19991334865517388,0.10701418054474314,0.19831474530600615,0.22197219170801272,-0.23837969314119423,0.10694728764639418,-0.26352435653850914,0.29651376513270206,0.1409185985556216,0.2752595406487783,0.03530360239008827,-0.1700505645065229,-0.10813324366805964,0.16182900569843603,0.1815838350117093,0.07504321807391308,0.09227018528505425,-0.008419430916684038,0.18793949039331873,-0.005604703400972008,0.11789582292134487,-0.07515319920031675,0.08096578975538861,-0.1204345128965821,0.2680590140522666,-0.19735243480251594,-0.10066899254938695,0.5194609435021112,-0.01226876605050259,0.12896181915134208,0.37156128646231495,-0.12825520168464366,0.26612302050495906,0.05585651463637617,0.5402070933088672,0.13972851457915345,-0.18546138471879225,-0.20215427552456378,0.03604829791251216,-0.22172885769819597,-0.017656692832687546,-0.2654530410602389,0.10915623067074133,-0.2996655381550842,-0.2492253208133365,-0.35175472101570127,0.13117292126053004,0.1958469892265467,-0.19926147947387007,-0.221422312384919,-0.20208443232627946,-0.15820909440438372,0.09237097297028334,0.07809286761089498,-0.07504679587610706,-0.05340483514901285,-0.16545376951597596,0.010833219293525048,-0.4262612891540711,0.16378766879778767,-0.45830920271800124,-0.5771755223055637,0.024032914866383818,0.12953457553194184,-0.2798970236384903,-0.3416847260316637,-0.20555824516498047,-0.12322895582104532,0.18061551798986106,0.2672919093085247,-0.09873462903742013,-0.11935100856047132,0.24372911066414052,-0.20758511573480445,-0.0338418455424713,0.18842788750358092,-0.01469916412009948,0.011511009728465924,-0.08297452329818382,0.04552605969169373,0.2048456174750021,0.16350070571700964,-0.08103951352429724,-0.2053523173849324,0.09821862512497763,0.19613776534511634,-0.14448952725845654,-0.13692885209475272,-0.07918926499025138,0.30545623907180464,-0.009695645021142226,0.031232022690150484,0.11619313205415721,0.22100357125662387,-0.032167397821420876,0.15603372571012902,-0.019824733654003012,0.17127572988291173,0.1825807072574954,0.04497734100470398,-0.04442400795519822,0.23301945170654315,-0.06017356079049307,-0.2481494090843945,-0.24238088121072698,-0.2949726943037229,-0.27081552803601167,0.07525132048935035,0.04315902290540965,0.005990890227382097,-0.12060888335337495,-0.03736095878946711,-0.2596968413536505,-0.009908285041240998,0.11826172668975352,0.0034164250134486786,0.09703566576128773,0.22511523024825697,-0.14665562934463344,0.012203192886629475,-0.06646481489610874,0.07834137646101216,-0.25898156943190603,-0.0657933434075682,-0.1069779659449049,0.10303206769907297,-0.24414423034135285,-0.23026383224482164,-0.15246528477774104,-0.18118172553797182,-0.03222565901682834,-0.30457733634832507,-0.04142567870789034,-0.34158193146215565,-0.30088299795652873,0.16643898793093914,-0.07059308075852819,-0.16681817200272048,-0.31856357895720955,-0.18811248790583324,-0.2103852770347525,-0.16010693520896055,-0.16868863010666127,-0.15035460848983298,-0.2469774839786521,-0.14380992899986375,0.03426884531894846,0.06285118742423264,-0.08084172659049577,-0.011198005152442436,-0.04898125195204623,-0.05512358153832682,-0.009285760282141885,-0.315162148864488,-0.4758532336503938,-0.01098760676597047,-0.2852609862259054,0.08565080043669668,-0.16934322709228763,0.11784458661533395,0.030060937495056082,0.20649429956819915,0.14945157984800603,0.18693152138824273,0.12232408182587297,-0.11146067137940432,0.11986300379457636,0.30885160336849,-0.012393057938412175,0.028665379554913127,0.14530492326531916,0.1753155842066637,0.11754224130473143,-0.05390222717526082,0.057149593800683615,0.14584559443854025,0.08924648552156325,-0.07211589785478455,0.1983522598734548,0.05401723818732827,-0.16216944212906467,0.061780461796954185,0.38843229620799125,0.21980538853513648,0.09172740076070345,0.24542476336986477,-0.12857445331770614,-0.15789036521504204,-0.09791225246221953,0.16310281906890875,0.12392328463621878,0.23805713718619645,-0.23413033523489787,-0.34503107751797013,-0.08269173844149176,-0.3593962299041527,-0.260933058861557,0.05021628631894574,0.08085269336908393,-0.2748474224937316,-0.05702248883189112,-0.19061767011292693,0.010640545016543785,-0.23629281910964356,0.181122860946932,-0.29948225789301014,-0.10872791665417987,0.1046805295412677,0.1120600803470733,-0.13061031237724355,-0.16355228888293558,-0.12423550510357682,-0.21705053441599534,-0.2594753993661464,-0.15522254146913905,-0.12761789953591707,-0.3385637712473292,-0.13277451423719605,-0.09897189962841217,-0.065864613267033,-0.46545075485855014,-0.2620439574117512,-0.24900270143515363,-0.051012450807822386,0.13097827785790306,-0.07799872285649809,-0.06328661290920896,-0.09552619836654966,0.06807960846721185,0.13848671541822705,-0.023669817455957615,0.2568262355864,0.1463078104517511,0.021304199482813296,-0.13069927491812858,-0.13545769223349008,-0.07479775025406724,-0.15004530391736642,0.19195902850422975,-0.11800721158755223,-0.21351782759019747,0.12840718444503818,0.22281399809866015,-0.014326757926548455,0.11896500871741968,-0.0758320568895188,0.18680056758885002,0.26650824879219004,-0.09861227909445533,-0.16792045568889086,-0.032894711620720794,0.16288260601057425,0.20136001809194887,-0.11467917480671196,-0.2310013502124116,0.027970676308956565,0.16312521038637545,0.10889003003807544,0.18333290939404984,-0.16230462065574328,-0.176980614176925,-0.09981444477819802,0.17028793312191298,-0.17998351639558705,0.00206165997436608,0.02075602659560897,0.19992553907360247,-0.15594091704620502,0.2514840976465748,-0.2249933856766672,-0.011913554339576457,0.04269504766139528,-0.039835573658948444,-0.016466885219378783,0.16708323419214002,0.3057870193401683,0.1460646154400613,0.0375556997028785,0.3329911711212308,0.03655106850256159,-0.08529559806789085,0.2537436104270825,-0.05411626803413414,0.12260416122940157,0.08342942466240726,-0.12595362431129659,-0.200424751986546,0.19270539223552005,-0.1788204562955864,-0.2762046404732718,-0.06876272078843562,0.06226623022181725,0.001024702436110088,-0.38290778059028585,-0.2765848721959758,0.09613466699352391,-0.2582404204889643,-0.04198363013549585,-0.14371219213602798,0.12554392880931176,-0.09070492644917123,-0.046618741465332965,-0.12382481013573739,0.056548214330327175,-0.0009133284181358131,0.27782573606006256,-0.46231049485929093,0.10514491504949533,-0.32198471638119536,-0.09712129454858325,-0.01320416917175356,-0.07342655893773571,-0.111136507663556,-0.3951260474945144,0.11188600007815463,-0.04173172740753657,-0.11346640830863476,-0.1539828192322871,0.007752890676373489,-0.05170958072778213,-0.3308686687943205,0.15650570208559084,-0.2795119261905325,-0.3287012073474854,-0.06666531294431625,-0.1642230075669076,0.180671839328303,-0.07648703958140472,-0.09183768199140548,-0.27048669101665423,-0.15602842515549598,-0.1455363582469548,-0.01839303213616303,0.18431831124639692,-0.02612693103899028,-0.1763282009414832,0.08053522737597336,-0.05864102948569911,0.028016188914650908,-0.4231038421722285,-0.39234265733321483,-0.1486379464276817,0.11515336237242027,-0.1430884272175735,-0.4677123671457492,0.17081423496825232,0.07506789982291519,0.156312607743462,-0.11067786351295367,-0.034410372226782046,-0.34424078095237204,-0.2719439633902369,0.16192448177867202,0.02584384671911169,0.09899290508813649,-0.14896392406647346,0.004201051644523024,-0.12196654764746777,-0.26853618866847484,-0.2107760340884432,-0.10578953922003827,-0.1527030054592288,-0.05525998823085035,0.06015478159976722,0.20916027668339718,-0.009016360537067381,0.05485619781415997,0.07866516691612144,-0.3401541647802522,0.12134622629365188,-0.18349403414971185,-0.29871335657449216,0.209754772249721,0.1049424471868265,-0.21969059954425604,-0.5015429920446658,-0.1026640340550008,0.2184744521308958,-0.11561145569848096,-0.1755882518773313,0.18135726705532312,-0.06942125584922781,0.03648785528927492,-0.2166502455808343,-0.11080395938593858,-0.0882694414497176,-0.2875119640554309,-0.01968435939036086,-0.1409466477154858,0.1437594215020496,-0.08629445212189175,0.028289024186097828,-0.31488728206882294,0.005191909654050331,-0.26411525842421385,-0.10677841028828403,0.09725464462379525,0.2053148210015958,-0.005972103636922953,-0.10567128085839424,-0.047220417966888445,-0.3170460402461795,-0.4452832547984424,-0.27752099720229134,-0.20354573700413156,-0.02424857599221255,-0.5423195817571372,-0.08148998370809965,0.170701519509366,-0.2171046597994285,0.1901527865991237,0.013629758689332448,-0.21210313789016988,-0.26435190984521295,0.1988144673209908,-0.11340988463395524,0.20721085456021465,-0.006254081437419219,0.07111721670423024,0.18940583193423663,-0.1441547227246858,-0.12159307083010791,-0.007964049494003497,0.10463635192919336,0.2724079486331696,0.03758822628373199,-0.11710992824343186,-0.11531325721384228,0.0589630010979958,0.04527714473351446,-0.032443873542553056,0.1584639215319182,-0.07871110283932757,-0.18668384693143306,0.2200972854952029,-0.04853058208756273,-0.12144015211033023,-0.12211728301770915,-0.06589692898214208,-0.2222833561034979,-0.16289333795624605,-0.11016905594097597,-0.26228210585088074,-0.14624439796927244,-0.13452128089479426,0.1531883636139654,0.0937255113849992,-0.28807994294655753,-0.36194457605364316,-0.08942834689420966,0.0796513790279687,-0.0911026654407378,0.11954618619045324,-0.2851606658914106,-0.092179572566164,-0.11797963982829757,-0.13650871795621625,-0.2654361991067195,-0.0796681727885658,0.17972289192366503,0.18518938451390676,0.0031273484131112248,-0.2220659965575065,-0.19185203396541453,-0.19683946877913225,-0.13090732893202434,-0.27471207861155134,0.04779749610439893,-0.31054040414211503,0.031134665382167786,-0.1166299381240569,0.013389629883170384,0.29470903102087587,0.16409783828578534,0.1179794883027317,-0.0842213654234158,-0.12038725545818811,-0.133312568937627,-0.027131555340448074,-0.0009275837161712652,0.15022691944215838,0.1671178413718212,0.2253201578501838,-0.06061646786865838,0.16859629989503308,0.266886294071502,-0.1832267466705932,-0.04987405733350773,0.024200831520456698,-0.1014585097231667,-0.035730072066977626,-0.17103916453349707,0.26954411744326434,0.005863352963538189,0.47586843067100515,0.34664043255327126,0.2566438735044705,0.1321416463810472,0.16648476416383864,0.5302567129609284,-0.08155461247728443,0.16742946709813458,0.1713787288079659,0.14583679784306636,0.07461463644398261,0.019486051067072234,0.2833659217779349,0.21684647524185896,-0.021983946520001435,0.26539485385539024,0.40864443066459916,-0.002549774195352318,0.15587748011591407,-0.11080035611794763,0.1687522547259777,0.09625934276756079,0.07631625493442286,-0.009478298720974642,0.1360139543099951,0.1982590569120654,0.2553676671764849,-0.22606265119574262,0.043510994830600766,0.05670529454181845,0.20916135748873124,0.4931245754308416,0.25445312219206534,-0.05482493391699555,0.17748827678040943,0.2915434747810424,0.21751182522565224,-0.1480751973945925,0.05804897337423362,0.004903075346224414,-0.29855311773256404,-0.0953566558105982,-0.20837002116105371,-0.38973100663253657,0.013426032256881406,0.07731328894371463,-0.1549926092791263,-0.12008578526283999,0.07338998220102494,-0.2343092553036662,-0.11538617149990579,0.025950265358010975,-0.033003839446671436,-0.3263462154015583,-0.17985572194290397,-0.15532848058055163,0.1444874002577332,-0.22583200647687174,0.1654645442434548,0.04732775604649682,-0.24582692862577218,0.17261778027568792,-0.6054188168760264,-0.3855525938384853,0.07291294932111483,-0.32476154026802756,-0.3095939098683387,-0.5007985328225506,0.11618633239980317,-0.08360401853583331,0.20129009275032683,0.06320244410684178,-0.18984345561977467,0.2284839623179776,0.32224844438062095,-0.16820250704837836,0.011648843061089417,0.16521959209025391,0.32086031241240137,-0.22625997969373216,0.03869139555367062,0.013986421050594795,-0.17856281411414157,-0.17282938288888663,-0.06621612384026089,0.06505370991765068,-0.11307209598154308,0.09343439887124734,-0.10862651133447879,0.07998494260804273,-0.22839948826915224,0.26523595208110934,0.03809526294433091,0.4717785298049964,0.34176432130072293,-0.041100479608657724,0.11639235039611456,0.0967309137936145,0.5782560222706781,0.015712209725613553,0.12981088268421082,-0.18548923081627305,0.06910789633600266,-0.015212407740264094,-0.2673521363859326,-0.20347998552998559,0.04772906206666575,0.014424437540368281,-0.25182386147158825,-0.053221498677121046,0.24294258127902432,-0.11305007337398286,-0.02026649242983049,-0.0012324855288627955,0.11960839056200022,0.029304709585575024,-0.2542072162016418,-0.005610609566721155,-0.2726092029722445,-0.2694061072032598,0.08782460192345484,-0.03832005977562618,-0.3721451303482236,-0.22022662523322817,-0.26554451894892556,0.0033761915299312275,0.06294716488827878,-0.10618224860364782,-0.06514137343682685,-0.13127901543623555,0.06728518851311695,0.17052303749489583,0.0323304654781309,0.18828670135840508,-0.02660418491022858,0.040392005140331526,-0.14837489032930862,0.06716098722736329,-0.1497907041143717,0.23156155624154032,0.4574468553867416,0.01538587871854693,0.19010880628386875,-0.07109535522311278,0.04132886249128119,-0.03731369450559124,0.3725071988346924,0.14984407760438867,0.011530903398539722,0.0856779702095018,0.16342770681567048,-0.23081330697201646,0.07189383474380676,0.09749512185240648,-0.18038107172973739,0.3652100122204837,0.2869267234619774,-0.10335353553317443,-0.010272270816611466,0.27400954224868934,0.43804100691567,0.20429909831643928,-0.03347496412499256,0.012403099282857431,0.060977110355342236,-0.0708192064141293,-0.2668718680092152,-0.2316958478714528,-0.17092633901512544,-0.1298621994877892,-0.17803765200595134,-0.2742639537358331,0.20943463936918297,-0.1253537673849316,-0.21117473958824573,0.0832817480432672,-0.21814802655883678,0.15828624970918898,-0.08351512612543666,0.1469693953437954,-0.23593743292461125,0.0014335432272979964,0.1564141260885819,-0.059476022853427415,-0.09408487981907548,0.0782089698394247,-0.3149161216637175,-0.017396397615971566,-0.13838204312846913,-0.08004559748274828,0.007754990714396472,0.02772620609729583,0.1176432836547561,0.01948403883512276,0.06054040704835127,0.24706644949991782,0.1415332298805547,0.058813001760209,-0.18631346021395692,0.24792288463873177,0.09386051612174935,0.07211180938086975,0.23351223592076828,0.02391528331267596,-0.23705506714574667,0.15979952383973367,0.20991233843020182,-0.2307596441890074,0.15569822339619116,0.10188303071561551,-0.22889250151777285,-0.12353752461965435,0.14363860144128582,0.14360701302875956,0.12759575672475848,0.04702408581416364,-0.023551383091035813,0.09180015615482841,0.07657794562527445,0.07723387396120542,0.0024606657840727814,-0.09950710712199719,0.31959585478520625,0.15876450922613003,0.05303971727963543,0.0007942974382294549,0.24895943805884008,-0.03556065239735127,0.253081429478748,0.31334331100081514,0.1951737918897049,0.24712356477264794,-0.053073503892323896,0.39941039289053654,-0.08745792612877562,-0.06067892883908395,0.14790572741173016,-0.036379053288990625,0.002439815628071956,-0.08437412680941275,0.24503443283398985,-0.10016356064238335,0.07340508947234892,-0.11419096604296489,0.09321949862357412,0.045579008366690425,0.16640848929929292,0.1416490495673084,0.3307692157885131,0.45663375374383447,0.16738979596947323,0.1705267700856554,0.23907893458215726,0.13348800926585477,0.09077708795991223,0.20137071156893152,0.03669118756691212,0.15297551099878018,-0.13753914752216234,0.31473253807304463,0.2537604449069886,0.08520987901101781,-0.13830014778974936,0.3477699952997049,0.14345366940016452,0.03172078284506624,-0.16000681382004067,0.07502687686065207,0.12176625631688158,-0.11839038457776144,0.32908984432108945,0.22353004606215066,0.2530570852175619,-0.11587907201812911,0.163291445614318,-0.09227659203664851,-0.1874555752644732,0.5035288085100942,-0.022902258323128786,0.4730827020747967,0.32058532251434124,0.20704436996907502,-0.08823878079082441,0.3305125811949544,0.4366285293556365,0.13467155967529182,-0.023011550883527472,0.05458317189692066,-0.370931335765272,-0.10419984168747304,-0.168361921252443,-0.024520858847628554,-0.21038846079909926,-0.004817585835949417,-0.3258911629925385,-0.20275607631909076,0.18026526949003033,-0.15340774662949688,0.10801505090278936,-0.21640699541405511,-0.15513170645456992,-0.3506185261925503,0.1578440475556503,-0.18704005729182324,-0.0839827133473351,-0.03079166304441368,-0.015064290100162192,-0.07586433356099742,-0.5992436006416382,-0.08049471319689835,-0.5276075467061688,-0.48701273744224116,0.08767787457857772,-0.29637874462437536,0.073290137918729,-0.5156672503732547,0.13725607289482852,0.07545222340165199,0.16583060719753412,-0.09393260241574455,-0.005751614451251402,0.22377833464320698,0.18832180891224123,-0.06979009333016606,0.3056980949842175,-0.08958697151819563,0.09927684736116604,0.2299818211632099,-0.08037550950558686,0.0428732465776916,0.17505607399592296,-0.055587859317904775,0.13304700187813062,-0.15938277152048838,0.10441773265754038,0.27507493243261016,0.06502821014491271,0.13163615799413483,0.1998270676160212,0.1466001751764684,-0.04209885848526576,0.4284784445465093,0.38804983574559077,0.07215172144362232,0.1785220329296573,0.27922580175353245,0.24261505974319958,-0.15559555633712366,0.19142241737226504,0.15600251534876128
biasActivation=0,1,1,1
[BASIC:ACTIVATION]
"ActivationSigmoid"
"ActivationSigmoid"
"ActivationSigmoid"
"ActivationLinear"
