encog,BasicNetwork,java,3.0.0,1,1399533480501
[BASIC]
[BASIC:PARAMS]
[BASIC:NETWORK]
beginTraining=0
connectionLimit=0
contextTargetOffset=0,0,0,0
contextTargetSize=0,0,0,0
endTraining=3
hasContext=f
inputCount=30
layerCounts=1,21,31,31
layerFeedCounts=1,20,30,30
layerContextCount=0,0,0,0
layerIndex=0,1,22,53
output=0,0,0,0,0,0,0,0,0,0,0,0,0,0,0,0,0,0,0,0,0,1,0,0,0,0,0,0,0,0,0,0,0,0,0,0,0,0,0,0,0,0,0,0,0,0,0,0,0,0,0,0,1,0,0,0,0,0,0,0,0,0,0,0,0,0,0,0,0,0,0,0,0,0,0,0,0,0,0,0,0,0,0,1
outputCount=1
weightIndex=0,21,641,1571
weights=0.14167149957440142,0.26404022303085034,-0.15995430350040563,0.2929781773253425,-0.07622235851983049,-0.22691315112120602,-0.13630612362939304,-0.6439609231914792,-0.553060927562848,-0.678238259583682,-0.19872752759271206,0.6177090468173198,0.5315263472741157,-0.2452993227595811,0.6034422904828304,0.14500286735471796,-0.6673746383283374,-0.31579549317494565,-0.683146877040264,0.40085012499089595,0.2998477691422942,-0.0040769257072554715,0.15457237772188814,0.12270353556172969,-0.059700084431071145,-0.10269257850478195,-0.2219656799691688,-0.004570798829434713,0.0784425969916818,0.10079074383574733,0.23120747545611606,0.05654075282209435,0.2012330252864112,0.2327187319068262,-0.09992618898359833,-0.21953841998506626,-0.04110248247174145,0.048153943320056514,-0.16252248226477048,0.08158315771903336,0.1346870561776926,0.23211185098217965,0.1758519806785922,-0.05100434220380456,-0.22914124264093902,-0.03746283113662941,0.12777933614058318,0.2461718947096172,-0.009798673843582403,0.15135134881885687,0.0018380066086228601,0.1561057758636194,-0.15382404203290118,0.06844805667197551,0.11987716093175922,0.16604416267884048,-0.20157973489682032,0.013725519130485262,0.15957085322116377,0.04932026482767245,0.006398691975689887,0.2945955410257157,-0.040386222704708645,0.19572455805426198,0.0470308476195225,0.13559581471762663,0.1210515844353533,-0.20247536929486978,0.17622957604149006,-0.13388448788097745,-0.22319339954988943,-0.02715657685261544,0.08736373421914272,-0.186933300491912,0.014320467442669281,-0.20503582677116639,-0.21433087256441802,0.2044862797020564,0.11328832875243454,0.1502216681077783,0.01834607491035274,-0.0741169336129228,0.2117863872922645,0.06921541372155977,-0.2484268523908513,0.11414941165156209,0.11904083062989608,-0.1103706753256815,-0.24222879462191002,-0.11124962958744455,0.21618182816915205,0.22445816553444978,-0.06992928146976725,-0.17703589607033132,0.014705210185720095,-0.10035691556278585,-0.25084790916876193,0.09262009457325587,-0.1384606899430661,0.022637978831477147,0.1412963171473292,0.0025725544304930864,0.029832807173161058,0.17071265124483695,0.19891344839072203,-0.14251883699741344,-0.07889810883367517,0.1996878500415555,0.1667381726952357,-0.23953179782418926,-0.07995425397637701,-0.010577366000594895,-0.14012149234116236,-0.03387146712686514,0.27431218727901907,-0.09833521930185771,0.23176031549908357,-0.23649716148707417,0.05036833850403518,-0.03267500789873845,0.12949605564547406,-0.09244692322017904,0.11576189690054804,-0.14831124619773506,0.18587691984261823,0.08632322818242405,-0.21442833777633813,0.14237932898804767,-0.2316681623965216,-0.07612293998516952,-0.07786968630404645,-0.07569840171581402,-0.18547598286289982,-0.26871795725008657,0.14406216511687545,-0.1265680733608288,0.061993496185407754,-0.035781075771399946,-0.09581894091650126,-0.0047019775440956015,-0.1100928816839974,-0.13392129835426714,-0.1456159892352055,-0.20291706804692858,-0.005498799019615105,0.10878995734152755,-0.22637110650876974,-0.09007678802636954,0.16899575364378933,-0.15539210411659232,0.06446714106558034,-0.03094615589535057,0.18317805034830806,0.19784778867041355,-0.19352988408408264,-0.027801607784695998,0.1326181225915627,0.18575918728671165,0.04208472890902375,0.11834775170029126,-0.021994535227182928,0.023513164922956072,-0.19319060484170814,0.18879056760316396,0.1723798630073214,-0.18932299758302545,0.1399127977925529,-0.1893400757320387,-0.18729860320753675,-0.06070163371979071,-0.01775097983537736,-0.03731639666147353,0.1485685087539097,-0.1548841995576449,0.12416455965194942,0.20499350884673148,-0.09350329012145323,0.19209466551141818,-0.08572707597756402,-0.09989378195789321,0.25521602076730143,-0.03742323613054168,-0.18902894800964232,0.2379287840152505,-0.17769979951087925,-0.2355119579502205,-0.10049905210734278,-0.20510932337935603,-0.11758393602383996,-0.22434921189918594,0.0641228320412291,0.0658510666642572,0.15972238521416007,-0.0517870949271164,-0.01458894732045477,0.1629203061208474,0.10458247201272682,0.17989297992440798,0.04599404988465502,0.03564582218667115,0.013096176349190213,-0.10280581483282136,-0.1173668349569538,-0.2734761364791819,-0.1318117545773682,-0.15011608255972642,-0.06914680622159088,0.002292973263375044,-0.07840416912300682,-0.05569033792080946,0.243921506205926,-0.20587688704535154,-0.2400141443539285,0.00451153358546974,0.08658124291767838,-0.22410202510917623,0.16576736726166172,0.01657849291343823,-0.23615835085397494,0.1445277358175582,0.2143362098561449,0.0012901039910009882,0.24257134909985167,0.12900201070066583,-0.0860270571759017,0.16526159216067499,-0.03930344422942971,-0.11647251878839587,-0.008691575433923465,-0.07482328247130561,0.10872736547302057,0.043354818840751964,0.12008147708492138,-0.01666994891119474,-0.20862112527853757,0.02238293540857936,0.19554398822511443,0.21588168602374738,-0.03527141474890892,-0.10202982134203514,-0.03404372140922935,-0.006621813852176607,0.14812989325378817,-0.330340311351097,0.159306610158982,0.22434988529995223,0.017680763299867376,-0.22630386150242865,0.20629733693331634,-0.12532912943688815,-0.20519616388050482,-0.08881598509969356,0.3256438943943596,-0.14327618729857705,-0.15160512269279547,0.10675804701608368,0.2622932745345778,0.3210771981897673,-0.25248472009687106,-0.15911831137622326,0.2798590982946607,0.02044834075029921,0.10356007449133184,0.15529260328439137,-0.2477186926618985,0.02090909457105258,-0.2849358938526076,0.1692517721260097,0.2046226440419115,-0.038167792339963785,0.12505876882546157,-0.016285136275705867,0.055161065757378946,0.08819141592362204,-0.0879101847393839,0.3352984175701219,0.12398257021260586,-0.04608508917529391,-0.3126323149620152,0.023022716219423978,0.11717768149375173,-0.049599507302867524,0.05771630694148046,0.17146973370313387,0.23437528719806328,-0.2684902008745423,-0.11322464849271265,0.23059413673149454,0.32680777795423266,-0.18232084818795916,-0.14243270731527205,-0.043853646425125736,-0.06834367242166282,-0.0418952628467334,-0.05798377409197059,-0.3284556928371137,-0.15133727960826202,-0.2553445314969416,0.2725888353981069,-0.10557398140820055,-0.12227031658110055,-0.0018573911004127021,-0.3052429830341183,0.0007417342134565262,-0.025078271249118916,-0.08498834480047081,0.21286789371993414,0.07164218073793624,0.27573869176211724,-0.31429985073103345,0.2532721311162059,-0.03591172914837896,0.07940375689180294,-0.33603683448542004,-0.0003403745054708244,0.09296620949311053,-0.03994188736250402,0.01057640403501301,0.14832001984040646,0.09294455939690136,-0.202184030792071,0.3372419685990645,-0.016738538360724114,-0.23057495604255313,0.060075704381286094,0.033479985220255436,-0.14334490999275515,-0.3305825776059762,0.010524371444009709,0.47684134433653863,-0.10008129811789729,-0.2928484752152311,-0.04675123444685134,-0.016781402712223316,-0.08436089517316904,0.28166739665823476,-0.013568300732168444,-0.10640334731355651,-0.04546146121806588,0.057697079995335736,-0.0336674470080425,0.330818218643093,0.16834203245576207,0.00048304184584236644,-0.20061794346362294,-0.1823634037845351,0.16601476928714326,-0.18809122286036614,0.22116278916268628,0.040060714606015645,-0.1551271140668753,-0.004014747184602495,-0.04893817748376309,0.06387649717355881,0.11875880717341475,0.06686250630190947,0.14818916541776564,0.006730398023825356,-0.05418025393655663,-0.19337119503921013,-0.2111600253668607,-0.15982883027214084,0.25826694938946965,0.30273190289918006,0.07163583440228835,-0.2004445289934988,-0.33819185722604084,-0.12026221591003175,-0.05747202315176107,-0.2257264377561899,0.11922755779286877,0.08123380866237989,-0.0844590476081813,-0.024192637630549005,-0.041318025276662375,0.21946592724655709,0.06285297582184099,0.1585046703265405,0.29724973680437994,-0.10078707420534586,-0.22730238821252785,0.10433519769384135,0.29252903756649534,-0.17251986433504818,-0.27063598295521835,-0.1163185856750634,-0.044503404604990526,-0.06661217868869829,0.044210185728763875,0.2955627346593747,0.020792151209388515,-0.23870061584092167,0.028613593748057452,-0.13773003923730384,-0.0649524901238459,0.08790231091589915,-0.2603776759194054,-0.29866475307787627,0.2655504446808009,-0.27839390656550483,-0.05651212281076129,0.13494462537546742,0.04003518599132201,-0.1597998004852451,0.1634203662381638,-0.15427545568768863,0.15541450791518305,0.012066257419360267,-0.29540055222050665,-0.045537513878117684,-0.175650957531824,-0.023052940989719113,0.10523081764810566,0.17932549079570104,0.11941352855266449,-0.2831026851610614,-0.08066526216208145,-0.19473842320080825,-0.16871953236621598,0.18723884899910195,-0.03525000855254008,0.22309421941211618,-0.018778875322100975,0.15367725127979082,-0.09278240825785637,-0.24500889579282514,-0.25214412165622085,0.07306796807479865,-0.08965681467456077,0.0196828048217237,0.17984952744698557,0.26129984613270496,0.14958268985859324,0.16043933257760062,0.023415500098507562,-0.05476970296151003,0.20839103700599948,-0.028647710328992243,-0.16026868232345579,0.14510564807505041,-0.12904428321658643,0.010088896374976015,0.050135041636699365,0.16962890508654796,-0.2224084161525426,0.12693629979132362,-0.1304504623352132,-0.12800430789893788,0.08788282679133827,0.1754009104385954,-0.12331608026844063,-0.277915784367802,0.1533992165752976,-0.13238973344509505,0.16886741065015215,0.34259381524822474,0.02348942243238977,0.19381244637900852,-0.24655969037806888,-0.2833805710431953,0.007945042589638587,-0.019342682296630033,-0.3089266094177045,0.13313940186241005,0.11408759780538695,-0.30901898330521516,-0.021105980962509794,-0.1753032885999049,0.1339245154025785,-0.1936478270656048,-0.08029231799764516,0.026274850144715034,-0.2849771786131343,-0.08443414928331079,-0.26542258386867307,0.1040295044178505,-0.0013561691683520371,-0.06289353593588012,0.2983062676830645,0.08094177443781873,0.1563902267822394,-0.02354121741821895,-0.07494901159367365,-0.07663678475852799,-0.03022297501112035,0.21784283380817668,-0.11030668695792341,0.06792284134621765,0.1811336972934724,0.00230576622876604,-0.08099360966826308,-0.1669502236960449,0.0547067497381295,-0.1923817515766324,0.21199185459758768,-0.2120352626141658,-0.008570962374965543,0.09748780218936269,-0.21821113890380195,0.15578820162884713,-0.14413625009780978,-0.16208080446961576,0.0736477517862548,0.046172721365435064,-0.25312957963418237,0.10149393780220192,0.19789911229409163,-0.0858490282104008,0.10415363265285457,0.028716546904673422,0.21389473864461606,-0.04897505320310457,0.22812239541797383,0.02327041533797993,-0.20880111085562267,-0.05679471756547096,-0.16002342891122978,-0.11449488386214492,-0.07675887343697482,-0.032147141663007965,0.16761339230343092,0.36168087260214055,-0.1806961127831757,-0.0006096153199502364,0.1357562851951511,-0.23547933957799183,0.10409971449267384,0.05701851605647321,-0.032583820990590324,0.1778586507944294,-0.2568779767563371,-0.14580083235611055,0.20987113912098546,0.03060730989995057,0.25258693988233716,0.09316068252655137,0.06076231652606613,-0.26621315022061676,0.21372150118093325,0.05909104773597839,-0.3091648849626452,0.25457875626927273,0.27661494825572397,-0.027726718154634997,-0.2873810649539692,-0.0007477910699703713,0.3717825825498406,-0.14809354518472884,-0.2591678857883729,-0.2533361060076396,0.05469936533064588,-0.049379576932226096,0.12661738039126796,-0.20766461457071142,-0.17154415907272744,0.2520008378740882,0.0009090402211614873,0.14596943669312262,0.10260042989176424,0.18457584037955446,-0.11714258249389335,0.05161411838393163,0.2762016844140306,0.026040434895883993,-0.09880825023304037,-0.067401184859153,-0.1532348466428918,0.27867051328545567,-0.15900743420946606,0.1594932471380755,0.02343166452014849,-0.19782797552576808,0.19141496040536804,0.22438273199450554,0.06373900505347564,-0.09862760971566438,-0.0737941451429334,-0.1275371292200782,-0.08686676302337387,-0.17459606881318326,-0.006126697375813061,0.017999024958088798,0.2984556316155137,0.36416179247484126,-0.017086265310644163,0.2293467889802568,0.25194341391496755,0.10383053582974136,-0.10798750718240951,0.22037817171171942,-0.2956616253600396,0.1885736099056343,-0.1585327637038222,0.1600765198006904,0.08232332449882059,-0.02310726135496028,0.05124607589625445,0.16592492030929706,0.23769129608077377,-0.2156220612072883,-0.10541060302833098,0.26454820640262866,-0.1655576613263499,0.04582365285729408,0.0168697023525848,0.026265777142439724,-0.33603287918487396,-0.2515369731675971,0.29420427601986654,-0.24789572274142035,-0.15092558268556847,0.18803235064441715,-0.15231701707983242,-0.23772008692578436,0.13019944190816193,0.2130245365371337,0.08011691041832074,-0.06327319467540013,0.23798394954207783,-0.09078033404722528,-0.09816509353021934,0.046393745910236095,-0.02785211306996445,0.15925871756508592,-0.2905758336923187,-0.28890939623358425,0.12295246004976577,-0.02111324275943804,0.1677577379828199,-0.16702357473674806,0.013850335064421643,-0.19382857282433463,-0.024097310404497373,0.24990254490623698,-0.19457401416519596,0.008884284450538467,0.10280302291692046,-0.02131365001582567,0.1042482502723508,-0.21711606129163116,0.17873082057334624,0.08284729004922343,0.22202800045908058,-0.048666743566175626,0.07008793809148481,0.12003499458234444,0.2779185394850436,-0.1147602334609207,0.10647047088569284,0.06489563588676708,0.01933544935035402,0.28655144507198443,0.20895019891562136,0.19509840583982394,-0.06914636515052713,-0.1678304595302823,0.25509096941756665,-0.07630235899443626,0.04941135664632279,-0.22147435349735553,-0.1509618582764184,0.4084273433234704,-0.15491604185811778,0.2929751169425033,0.30391715004130065,-0.02842053155052486,-0.041622970291148746,0.24545774425329525,0.34320074169968184,0.05282484232759429,-0.05267969204975608,0.04255851881331764,0.09425972677449462,-0.12492744396572521,0.12824538340943087,-0.19495002839378356,0.12089085605215173,0.24573177365341634,0.18733466774232285,0.02499407036790407,0.13001534316517285,0.11209003999772721,-0.04624195237425123,-0.0888312772088046,0.10598354097348954,-0.10219099674385976,-0.07414653497753677,-0.214555796990452,0.039626847983998424,0.20959942789580616,-0.19913734494054264,0.17340147252088772,0.18966629330040644,0.02950220608394652,0.17736626108694725,0.28859709367417713,-0.1333619988199363,0.13161629452448984,0.03878874296290969,0.040928818944415725,0.2586775152603413,0.1906647637010324,-0.06799665158591373,0.27339999857977,0.19339278057465922,0.07363537440974931,0.07098281200518439,0.17965091706438768,-0.02277262388619291,0.01848927196086482,-0.05145520654664924,0.042564147959348375,-0.201765994647745,-0.07672769991037777,-0.030567808664674574,0.1851462377926031,-0.11933298525685783,-0.12827600200734227,0.03734090861351808,0.022404166703143734,0.09302100677979017,0.1367009466408749,-0.09042786439603918,0.3850561766169465,0.24225391872824067,0.20636416286730672,0.38882273618547,0.14735785129777995,0.09359368000667881,-0.14532622781913668,0.0944964849380979,-0.1796331184258749,-0.058522413746607,0.21049185067522544,-0.06772876107232817,-0.13650269792058345,-0.19912354794028994,-0.008984242563631483,-0.039339888052901284,-0.18549519708440582,-0.2700012656280671,-0.33858102206337776,0.20797127065691942,0.22822536239483363,0.07430308815643073,-0.21062118970825744,-0.18209084861952785,-0.4268047401810376,-0.014404950905025873,-0.004059440550801011,0.025617331959269397,-0.06124721309343392,-0.14215320685586158,0.06482311593930458,-0.50929342169329,-0.14604799436035548,-0.15176851808773387,-0.11001267315172814,-0.20977375965100167,0.013792334143222958,-0.2923270645971133,-0.24068647508467,0.027123715474779698,-0.1538373455405272,-0.11049441111878273,-0.22988220569152668,-0.32355057167986234,-0.23470876976891372,-0.29918935535418334,-0.10291924418013373,-0.27377656564769765,-0.13186467412178562,-0.0777050178966064,0.176080776909232,0.2318491431700991,-0.2786723892144687,0.06575931665848735,-0.17170292739783644,-0.5060844953634707,0.06145006770784439,-0.05179436616126528,-0.2755490683120935,-0.024748986658050996,-0.06722586349286551,-0.056019864543925504,-0.4122149701851495,-0.23031115628864787,-0.5946154586799859,-0.6547163515999223,0.041312014878994274,-0.321637805439285,-0.019123523529766775,-0.523070976662158,0.07467742734699537,-0.04634541677920677,-0.11418078215619684,0.21923156570583002,0.256839112300197,-0.003005047399107607,0.05561142083028465,0.215566960124029,-0.17648551229287446,0.036116096185336316,0.20390537107882228,0.08254398441908974,-0.1810778843732076,0.13025575222319916,0.1673647844907157,0.25830233607337394,0.05186515471963165,0.13375754395807404,-0.17460884268379642,0.23849890913812374,0.012321278925115708,0.05332872566939796,0.022714571278069896,0.2346960216984633,-0.08050159258900681,0.44871333714371525,0.266697333063426,-0.16055115489628966,-0.10887942433075222,-0.09807780103362287,0.3332617718107494,0.20690977723481038,-0.01884413348033514,0.16069307290478993,-0.21987433174544613,-0.22625340353258305,0.08693456217035869,0.05282661494802209,0.19678053398182363,-0.12186138897875744,-0.26445068468785154,-0.21031582885182482,0.05858003070684185,0.09673172400394514,0.0954709856699512,0.03976379718883152,0.05094203735463478,-0.09509994957636021,-0.013729015034916895,-0.09179310139184536,0.1398561891960917,-0.19209809555363638,-0.15064955463284652,0.0562778357479306,-0.015447348502732005,-0.16368643650049644,-0.37709459394769945,0.02397330618755915,-0.101873253915657,0.12158865951425532,-0.24588315225609936,-0.3715541729973617,-0.04780569895639825,0.06189817350862474,-0.1855526589797569,-0.2790560962267561,-0.06588515989458521,-0.13972720468674493,-0.05587810984573737,-0.010520482043592462,0.0590749523669792,-0.43147764793588433,-0.2931522088157568,0.055221315665489795,-0.008960841120231789,0.12333393820121015,0.17881707765607543,-0.3261623217734708,-0.28124551993465674,-0.17346616251952776,0.20189922530765034,-0.12034184503432123,0.02517976142929993,-0.03995445662911901,0.0009761367812525589,-0.6343315692075051,-0.26299826123172954,-0.4783460831237514,-0.5480196501421438,0.11621182664144873,-0.0614263612923062,-0.3983881828915296,-0.35980975722767156,-0.20863858548313455,-0.07921205810517776,-0.07545639639636856,-0.011657493858553114,-0.04241623784072121,-0.14190304280252894,-0.010102390422898544,0.042976167490867405,0.24684009514018185,-0.09131546730138348,0.03177775538108356,-0.1130312402186822,0.2020736399038706,-0.20301521056838442,0.21709021301242512,-0.11013925874277031,0.28107983612929244,0.028765647852908503,0.19830189035492696,0.10173956239325671,-0.09037318141415768,0.24438197854449334,0.012871767546040415,-0.012783322220546662,0.14239348345878072,0.004258108002879864,0.12882014101090838,0.14987919894295848,-0.15410102131706,0.19287096702879056,0.14585957915819717,0.050519356152181026,-0.05626060728392479,0.14271789820103006,0.21466226426247395,-0.02407748084812281,0.2900779688211537,0.24140226011813268,-0.22917425143362766,-0.011177465603410446,0.09964443392631618,0.2296264590312583,0.19231414810262107,-0.21184954777768172,-0.10843658777260572,-0.14709852984326813,-0.07551909718734046,0.15292635175970695,0.1310076051431728,0.07915061975938698,0.19499697151354678,-0.2558901476454527,0.06654525524624326,0.1034469179162242,0.23837688404013202,-0.07880473632391026,0.21641045260058092,0.13216492294809323,0.035369044645826804,-0.1470529560328615,0.21438727276224395,0.2027771102765764,0.29934856385197206,0.18234535453366976,0.04688628237022281,-0.35239605894299103,0.11557305512806716,-0.07015777326383196,-0.013757559590350216,0.11692312944850033,-0.05086289655630644,0.04998861251960123,-0.24983096100116872,0.12940917333397725,0.209806297487102,-0.10867782109477464,-0.17020241387260718,-0.24601286576465028,0.05861167905748867,0.23379410431537753,-0.16558112776459658,-0.10811215678699529,-0.21437782663933277,0.02232142954784242,-0.12258332181009478,-0.2784492618006328,0.1072878227361045,-0.37042097772228305,-0.4746462661052696,-0.14021103028713794,-0.2701233184791661,0.04911392247215699,-0.40094266089289016,-0.12637303454562318,0.06150782613401999,0.1789159481479966,-0.09000572363760598,-0.07264272514907265,-0.005435595974389505,0.12216906079919243,0.012652161979927665,0.21943457825625176,-0.050837221025957335,0.1870081152507012,-0.20667773357205318,0.21060394873212135,-0.08317879324707445,0.13159738899692713,0.2509299451806169,-0.11211562174775762,-0.054423598162444006,-0.12770785629582174,0.16994099821668543,0.14969698603180676,0.0015604977078498249,0.21968186422988356,0.06197297085790618,-0.18193290831302117,-0.08127726611927456,0.341288722745577,-0.03811651509416824,0.1400043240104912,0.035837095713320694,0.20793152714762528,-0.16018536724832821,-0.0725796515022891,-0.14760335664734966,0.15972840100905195,-0.025168654235270715,-0.10978979150303739,0.12015280163130286,0.16797715775511912,-0.2591227211716722,-0.26323926260022434,0.11298006578399361,0.2011600614982957,0.07596751295567425,0.15918055048239663,-0.09970497045223123,0.13429876498275525,-0.1731605641841411,-0.06074867272512992,0.040771291319236284,-0.0938687634184985,-0.09926236907534046,-0.23618825772265867,0.08551505295064354,-0.049843826016717004,0.09012808763826542,0.0031087413748177744,-0.2719919795371451,-0.07791669901147742,-0.09865234324781223,-0.11135694655925617,-0.3029632388944284,-0.056155617592322994,0.0939261037919671,-0.18356820122216946,0.1352966503166664,0.20706630973959791,0.39757367258226756,0.21666264252838674,0.08891574387855541,-0.09251105633875203,0.19204727736396374,0.26664721606436526,0.07509076175340701,-0.027952932442635307,0.25911508910651904,-0.19106263008888488,-0.09306672388311077,0.3910284492657459,0.029098549992364393,0.17709380785860693,0.15006125990754712,-0.09939771724768434,-0.19633980477582422,0.1667256452764806,0.28151201664076597,0.17698350670819063,0.4028522481849016,0.42781239783651176,-0.10778304257852173,-0.12485209222905164,-0.05066155319056211,0.29274777582862205,0.2584105302201086,0.24482594553798717,0.11710740142280458,-0.12750594786470823,0.13598291521748046,-0.04790330400017335,0.07887165634812776,-0.22318704025911196,0.16232869893397336,-0.084914660823378,-0.2938480547513489,-0.0495451313988317,0.18177289409347602,-0.21193710760567439,-0.23084883753373436,-0.09867751428193618,-0.17629857735780669,-0.1638581775802886,-0.09592173535393286,-0.02010438638152127,-0.208381470742376,-0.14131863582055906,0.21088768899521812,-0.4264265410161545,0.010397252512531827,-0.12801459349611147,-0.08225952196573542,0.17995160410611738,0.05717852695350297,0.03391561218293339,-0.44315555115502586,-0.01789530699730166,-0.12369672466200554,0.020693660696561464,-0.014321902422771968,0.1576427766657568,-0.08104602169519436,-0.03524555399120971,0.21688921046943804,0.11006155882808889,0.02223940464823497,-0.2920176036178803,0.1659432104297493,0.0332030890685913,-0.07207556270372463,-0.036930423924331185,-0.2850519108616292,-0.2342623288691012,0.07223541777869803,-0.11637818085653351,0.17483663294519328,0.11709995379225265,0.035034184212526305,-0.2381066434453675,-0.08594025716290772,0.11809732830817156,-0.3488008894732884,-0.48038663064361015,0.011957718795186404,0.1635735792975299,-0.259962804070733,-0.2885564102171711,-0.1269504264366508,0.05402576150346419,0.16363367567845014,-0.008877946627741705,-0.03816155614007684,0.3335568954000641,-0.03359588536975163,-0.11700730154690438,0.1268790862991461,0.021963104692513814,0.2795944316126515,-0.2665106681506366,0.14794789502632183,0.050193160582206596,0.0625516958300114,0.0465936637442372,0.003699553065144015,0.025553943399855283,0.1260188725521952,0.02742647197153135,0.10731463049407557,0.25780358301527745,0.22142120259846404,0.06229355849548841,0.03592481891263401,-0.017393964345610483,0.33344490016621436,0.2546845726076593,-0.01574430876297529,0.035660463374586795,0.12529917956678524,-0.08813099336287371,0.17121237205090475,-0.28753981326825,-0.13007223957660546,-0.10713339717880119,-0.31979308123283057,-0.3100937523939817,-0.06739469280891988,-0.2627898509637971,-0.11843213057875847,-0.03522698434106671,-0.1391884342955919,0.22266339501451585,-0.024822178178251948,-0.20847078052172047,-0.20207667459543363,0.06350097070731998,-0.1323252872680238,-0.07564189440841325,-0.052501212896518344,0.010299466913497307,-0.10015858262867114,0.16621794073411303,-0.17353783803220116,0.19414137355451122,-0.052521715852455395,-0.4253250162886891,0.12224819827430963,0.18107570848179216,-0.18271761142550064,-0.21982976270869783,-0.07978388660946759,-0.0022341081050472624,0.14451267964940887,-0.2311601529237875,0.0971219277557066,-0.021453057046241265,0.021743394550500787,-0.23049123934216217,-0.004795782153653471,-0.0546214947503044,-0.1954038908642095,-0.1747045499764395,-0.12334680933525452,-0.17839093350639443,0.12406607519458096,-0.3147590576475308,-0.1119780750005415,0.21480657184963192,-0.09049459956073622,0.09723053731625478,-0.004267520916985014,0.12242767837082591,-0.21063154810782617,-0.5314059220954018,-0.024390911478108988,-0.06112452856184852,-0.1229983715196321,-0.18798290211432192,-0.03458366269377156,-0.17796790175476265,-0.4973008393649338,-0.07878878414339135,0.046322742484408236,0.1332653528817033,-0.22567224914517284,-0.07032748684251658,0.004454090721891732,-0.03381906994580822,0.12750023272306749,-0.029346605001832043,-0.40085256771073696,-0.2966872730573918,-0.2196544425851227,0.16786749305452672,-0.18758157214904173,-0.0496714635364741,-0.27747180348028055,-0.20289348562334475,0.2156230259667079,-0.09642521105854389,0.02211786320073719,-0.09525462886307805,-0.13390701919105452,-0.22824518704602723,-0.22834702207595844,0.15314854321010118,-0.5480172900076168,-0.4602105033040904,0.0070948487559978155,-0.04971382538493167,0.028149933585320586,-0.5305889423285493,0.0681885924660396,0.19718620252679114,0.16076619373525466,0.3694900898035099,0.054823138488814586,0.27364276413055233,0.41534372428825456,0.025627731815094115,-0.07038885650151715,0.23492879449619208,0.09322857996035444,0.03401303074922183,0.07861707386213429,0.29607610471623924,-0.009175884346794916,0.32830022301728984,0.1075128576051777,-0.1702910167623354,0.13650284531727389,0.080926075240769,0.23685311261589473,0.1893721790991706,-0.19277008574906881,0.28772552209695185,-0.1107568023867742,0.3950146822476392,0.6970311635449956,0.19211189756681127,0.23061902349973593,0.20288477553369938,0.5549524619913548,-0.14526037788177265,-0.0926725149847731,0.13542563464246524,0.15130775989230216,-0.24506617780662093,-0.25316015322070634,-0.2613232125552248,-0.14093797213965162,-0.07315731717135511,-0.02210826836770496,-0.03757679873168566,-0.04378483869773469,0.2207985752186636,-0.17149314293487555,-0.02692900540938996,-0.02124140248360448,0.0066961755937980805,-0.20010590533972528,-0.17907609524721482,-0.18945644263711459,-0.058559354205341876,-0.018854979407279548,-0.09359315722611203,0.0927421698404272,-0.2134926385272778,-0.31374940096509074,-0.12890738124778675,0.014300174907480817,0.18487546670031169,-0.2065009763545276,-0.1549600879280153,0.14983012978609875,0.13734895017999804,0.04917694138710408,-0.2894971996651868,0.10010885854380716,-0.1858839358335421,-0.0419877756617259,0.12455763401687918,0.17308009509056332,0.014611289599050899,-0.3871285587097568,-0.001153348454171778,0.028220636216340873,0.1702285605540455,-0.2068599406330614,-0.0879909321796548,-0.304567565703225,0.05596896512021649,0.036526581701728456,-0.09791206150099703,0.017016060512047654,-0.17327939118284053,0.023339321983076835,-0.14438012237789374,0.21155780867364016,-0.3641773199091596,-0.37448376457311733,0.06558609845939023,-0.09131694763213147,-0.28436989544797736,-0.0499482683969404,-0.04955443774738327,-0.15069723882297703,-0.16765180602634266,0.026226042601141107,0.12551515596663,0.33149359552008334,0.23161880561352502,-0.0680419893211598,-0.1873093530247452,-0.033623899598084046,0.07059182398266857,0.037830537766455605,0.01362339100645284,-0.1138982232859352,0.06194675447806968,-0.18308191464238413,0.24888732221642734,-0.010159342654815218,-0.02075821791221614,-0.19865138220463152,0.1984412563309824,-0.022420976574030946,-0.1636799312894235,0.40105209743080344,-0.012953028796140425,0.11168930898054065,0.42267228428721054,0.2673359265390854,-0.10302298582065972,0.11647686649720308,0.275198288399163,-0.14253431757143556,-0.13083022982374617,0.02507316410780745,0.015580965504597203,0.11406093060039114,-0.28669055997056325,-0.13145356374785525,-0.2103352743235386,-0.18373054297387567,0.12860927136090122,-0.19120994213528925,0.09073740431283747,0.05440167734933088,-0.16112482158098496,-0.10861193154051399,-0.2531905566289762,0.047799518960170484,0.10832541843974226,0.158230021859851,-0.10624094269045246,-0.24630529792007194,0.12368921888074116,0.13626843497193938,-0.2838358142009152,-0.22430034336590682,-0.14180188560483364,-0.046772539378804975,0.12964466896809254,-0.14108814865910527,-0.2502971491631673,-0.3862830829777294,-0.14896162418840272,-0.028481852872827052,-0.12085906275866781,-0.07335752831210914,0.11623979054124903,-0.22463367706075388,-0.17385892998825292,-0.14596568572855578,-0.19942009336527214,-0.13694423409754036,-0.3481423059904662,0.01865832645163076,0.11008360872465829,-0.07175882377124679,0.04054408207146704,0.11443940199778228,-0.10943669476317675,0.17141061875323338,-0.01625018767552632,0.10744298914637376,-0.06666271384821038,0.1135457254102214,0.26859972586417324,-0.25264881622712887,-0.011801828155617223,-0.051261432334041915,0.1082982082461564,0.1688030734057202,-0.2425838350158771,0.1736904606098499,-0.2859108123856205,-0.067395930773788,-0.04567082181060157,0.15615373738223143,0.08527559253335433,-0.17676271244567093,-0.0297960985823275,-0.07929027815247965,0.24206952257186323,0.051518263505302524,0.22838443060025643,0.1147744321888591,-0.12737926919618822,-0.003831767358590819,0.10655211574780579,0.20904818518556367,0.14651643952983495,0.31370802753738175,0.0592006391373172,0.14157043956334972,0.01351074073235271,0.24618826063097352,0.08233016599083313,-0.23977209456927848,0.18970611618099503,0.05231004423044323,0.24228101344261707,0.2173452619035753,0.15817396827987842,-0.17483616689789916,-0.13293921296984854,0.43164202694549025,-0.0007461520610064597,0.09825534864662969,-0.23793019662630263,0.16376124952602034,0.027881166486081962,0.31585239989005776,0.318136061336473,0.06687996883327912,-0.049272071534007617,0.10031704451028457,0.5018601114368624,0.27806695061392683,0.26029243665888147,-0.03245594667412044,-0.04332724580628928,0.1289365632707812,0.3638189908520449,-0.09107169582939997,-0.07347063043477141,0.32612304428908706,-0.010956695700230105,-0.009467234587087519,-0.004333933759343927,0.32827122276188786,0.1845971583149481,0.09219910832374943,0.4936878019235401,0.24425607505076077,0.06085888096789804,-0.0072198568827363625,0.3198653624300355,-0.1382299299529278,0.10294655370260922,-0.05138888776157492,0.12615103569465552,-0.20579197464458326,0.18338339961507638,0.010806669703047885,-0.18495119288203288,0.03478964822670106,0.16983377363382995,-0.061798614370078046,0.10500715553616767,-0.13254977862210124,0.17527647795820903,-0.13802356124088347,0.11672875204759828,-0.016969875429085582,0.1986409836378982,-0.10156578747204074,0.20120872910047713,-0.06314117554735328,-0.13581006481692706,-0.17461170086686145,0.4095487707186796,-0.07589623903107805,0.39618965359979547,0.2145227799947222,0.08648408205683818,0.2160525620651252,-0.10654652067079808,0.27994545823998335,0.19247931573540586,-0.1264886003562082,-0.1268486758426645,-0.4606408335167693,-0.2751570575531239,-0.3086163931620414,-0.00904047808285208,-0.22107058217909378,0.03092238409533559,-0.11934167420998622,-0.312094147836402,-0.13321511137761735,0.2069440960702168,-0.15482078065122415,-0.16127857528477046,-0.19812270297702958,-0.08724847485187992,0.15510774413220169,0.050283621769277344,0.01840833485004766,-0.1672931148850396,0.18651701656823227,-0.07850525716110626,-0.381189158092418,0.0010395529685120865,-0.6318027732496188,-0.6939296777675578,-0.13564374202082657,-0.19953093994061794,-0.27139389286283727,-0.5819759969976112,0.04183412878686219,0.1266370876608946,-0.1794268151017878
biasActivation=0,1,1,1
[BASIC:ACTIVATION]
"ActivationSigmoid"
"ActivationSigmoid"
"ActivationSigmoid"
"ActivationLinear"
