[SVM]
[SVM:PARAMS]
[SVM:SVM-PARAM]
inputCount=30
C=1.1
cacheSize=100
coef0=0
degree=3
eps=0.001
gamma=0.95
kernelType=2
nrWeight=0
nu=0.5
p=0.1
probability=0
shrinking=1
statIterations=742
svmType=0
weight=
weightLabel=
[SVM:SVM-MODEL]
svm_type c_svc
kernel_type rbf
gamma 0.95
nr_class 2
total_sv 426
rho 0.23242582732212486
label 1 0
nr_sv 161 265
SV
1.1 1:1.5807127129689684 2:0.4534598832859045 3:1.5682073920750241 4:1.5592020847679278 5:0.9453548401479219 6:1.067019064309353 7:1.374282701770599 8:2.049701466828562 9:0.9460319560477082 10:-0.39511016652986086 11:1.2376623341944784 12:-0.7799240306536939 13:0.8605117761347896 14:1.1901305574400598 15:-0.29684165827981923 16:0.8171003182614638 17:0.21407268238678823 18:1.4239970990795905 19:0.23891210129901985 20:0.29481371638134957 21:1.517288452983621 22:-0.026364040742929085 23:1.355500262327482 24:1.462404835814574 25:0.5295747864977391 26:1.092229011097794 27:0.8605551538988301 28:1.9647355734501881 29:1.162832617190209 30:0.2051192403711788 
1.1 1:-0.7664411562630353 2:0.25059203794829266 3:-0.590251305000077 4:-0.762039369726063 5:3.287646872819046 6:3.4354539637173227 7:1.929178038664138 8:1.4618803195737367 9:2.8787211096344434 10:4.928282400249319 11:0.3319915018821753 12:-0.11123955974371436 13:0.29314674710634003 14:-0.285056067610593 15:0.6880729159660026 16:2.7459549166055277 17:0.8197268524847059 18:1.1146098205761479 19:4.731813323507291 20:2.0467289207584454 21:-0.2785276933783436 22:0.1315736768576503 23:-0.24660582443620216 24:-0.54747013644924 25:3.3957120729624117 26:3.914814481850652 27:1.997636737198033 28:2.186162823071526 29:6.0808742483239095 30:4.94608360776561 
1.1 1:-0.47411123059085103 2:-0.8406970611092031 3:-0.38478184871612564 4:-0.503460630150897 5:2.2410908582213107 6:1.2599319069224217 7:0.8748768985664139 8:0.8323678927118516 9:1.01191908628362 10:1.8991369904211677 11:-0.2516227824598729 12:-0.5927793385783731 13:-0.3180148806541305 14:-0.2859394128950544 15:0.15568665961690975 16:0.44775707101191986 17:0.16109036023497514 18:-0.06786511820664143 19:0.1360581815878148 20:0.48787575421544394 21:-0.16240101416787 22:-0.3161878936594573 23:-0.1112796903127733 24:-0.24122527736164057 25:2.0502928880317484 26:1.7336676287156911 27:1.269712205648353 28:0.9125743666287935 29:1.7676298029031798 30:2.2486957799106655 
0.6812265577845923 1:1.1720184479515456 2:0.15731946537927577 3:1.1399744571345227 4:1.0960335732212019 5:-0.12042363186079186 6:0.0948147386652749 7:0.30610917825053674 8:0.6539499321574136 9:-0.060576978112050206 10:-0.7604270930084311 11:0.15484228708188885 12:-0.8047438010450965 13:0.16125926228832332 14:0.30413523712520674 15:-0.9077548874404033 16:-0.6490973833766661 17:-0.30846546983547174 18:-0.22660832916652263 19:-0.8271385253547605 20:-0.608913083029911 21:1.3742037946707164 22:0.3204476484212302 23:1.3764115854812125 24:1.281017713985806 25:0.5208098406675719 26:0.02593314177083106 27:0.5143823251565776 28:1.2042475023369017 29:0.2686432297113539 30:-0.011337807543106315 
1.1 1:-0.31801272659114144 2:0.5863732991967536 3:-0.18178296705682984 4:-0.3821275292733193 5:2.205493714867645 6:1.703058436489074 7:1.2292532387188788 8:1.1596832804343622 9:1.9746032669527684 10:1.580728463062412 11:-0.3537824523447006 12:-0.3902355188879485 13:-0.2239517311046768 14:-0.3493194370551649 15:-0.43626030916123804 16:0.5354830767882865 17:0.1216847581345637 18:0.07629963460386291 19:0.10943716707432705 20:-0.015747917864493255 21:-0.15825363276749593 22:0.8203123835076012 23:-0.027634397697850588 24:-0.24527566940247714 25:1.664635271504391 26:1.8307778576777634 27:1.2865400514899903 28:1.3997143157957377 29:2.4065687652289807 30:1.2940646968015095 
1.1 1:0.5391099680981757 2:0.9174909318167623 3:0.4440959378562095 4:0.40781631250575945 5:-1.0153358157719188 6:-0.7133181693504604 7:-0.6991341695627352 8:-0.4017975644760313 9:-1.034242347153853 10:-0.8243930918081812 11:-0.08860203264365851 12:-0.055078035500393696 13:-0.19409041378739 14:0.008214566830614722 15:-1.0025861893525856 16:-0.9033910472545293 17:-0.6902693288419774 18:-0.6799983776121432 19:-0.7170243289580589 20:-0.2828611482924872 21:0.6090119263017035 22:1.3332029097362872 23:0.4981360130245225 24:0.477983465889513 25:-0.6230155901692473 26:-0.6289220206378787 27:-0.6034674343236119 28:-0.2228129443606215 29:0.08167635778395699 30:0.035283710469201424 
1.1 1:0.470994257261939 2:-0.3300297262938363 3:0.48115455722606093 4:0.360078699045729 5:0.05542625630631015 6:0.4806404238914126 7:0.14014502748874236 8:0.4483420066418493 9:0.11512203585037994 10:-0.2771284354103223 11:0.3689428718405172 12:-0.4212149403253924 13:0.3523716931189589 14:0.3096561451530909 15:-0.42295065275251065 16:0.8478323585015923 17:-0.13064355111344783 18:0.1670100408666524 19:-0.05391905834935118 20:0.13348790394464016 21:0.8640758824247081 22:0.2585751404952301 23:0.8775271616707792 24:0.7403784285350123 25:0.3192160865737268 26:1.9636655394153353 27:0.6014063279376161 28:1.0179431957589478 29:1.4538506178424173 30:1.160860359623487 
1.1 1:0.49086133958917433 2:1.0830497481267676 3:0.4852721816004886 4:0.36490929088394664 5:-0.8765069566926265 6:-0.07326773806690334 7:0.1381272262636748 8:0.12672356395881312 9:0.13342401647146662 10:-1.3346996155661852 11:-0.0023821694075272237 12:-0.25254920138819625 13:0.02339951400684903 14:-0.07857410736772474 15:0.9073495052997846 16:0.3253876744194082 17:0.6177317492809169 18:1.3170884059841599 19:1.12345581081538 20:-0.2979736365769565 21:0.12169461175775265 22:0.3204476484212302 23:0.14563085129020426 24:-0.003660978966487205 25:-0.842139235923427 26:-0.39061862982963613 27:-0.18854083542838462 28:-0.03727218002274135 29:-0.14430968741524453 30:-1.1663304144908726 
1.1 1:0.11906308460804649 2:1.920171086933693 3:0.19827376270286434 4:0.012844391616219974 5:1.2514902729894377 6:1.0593789517306178 7:0.9518055702721093 8:0.6446276584564561 9:1.802564649114557 10:1.137230871384146 11:-0.1230175242715259 12:-0.3340739946446285 13:0.011454987079934309 14:-0.1675711447772178 15:-0.47752024402829285 16:0.9478511803740104 17:0.5150785001117786 18:-0.14399706632005382 19:-0.23663602160102082 20:0.6329556417463489 21:0.25026343516934846 22:1.8623756748928688 23:0.5070980086618353 24:0.11380039021777333 25:1.5550734486273026 26:2.5821043659632674 27:2.0731216456876638 28:0.8682889167045256 29:2.146440943416949 30:2.787063309338505 
1.0194679923390593 1:0.15879724926251892 2:0.19229668009265666 3:0.1163330376517493 4:0.08587157411162405 5:0.16720128643681598 6:-0.6118956748677482 7:-0.18257705594547724 8:0.09953359899768688 9:-0.8219393719492505 10:-0.5045630978094309 11:0.24903205364236825 12:0.040940054334959175 13:0.16872459161764475 14:0.11620352785602905 15:-0.4405859474940743 16:-0.7720255443371802 17:-0.39323718527837337 18:-0.11322032133803606 19:-0.7775266346705325 20:-0.6444274304984137 21:0.5841276378994595 22:0.8447357418994432 23:0.4861866855081045 24:0.4568509856764529 25:0.6172242447994112 26:-0.4244794333493058 27:0.09609015709302282 28:0.710999215249368 29:0.21336606757629717 30:-0.09570055442252023 
1.1 1:0.5703296688981174 2:0.3205464673750553 3:0.6664476540753155 4:0.4106578371164753 5:1.4721925617821565 6:1.8749609695106197 7:1.0564790088224814 8:1.3997318282340192 9:1.2937695878483515 10:1.5338200639425956 11:0.5986209949149173 12:-0.2616075117500223 13:0.4967013934858453 14:0.31009781779532164 15:-0.005360182928690893 16:-0.023840055582051933 17:8.188357257390422E-4 18:0.19130747111561397 19:-0.43992376879493156 20:0.13273227953041666 21:0.9760551802348072 22:0.9424291754668115 23:0.8864891573080933 24:0.768555068819093 25:2.04152794220158 26:1.084562414074472 27:0.9951779206319278 28:1.4195664140376512 29:1.314031913618451 30:1.6825773469040728 
1.1 1:1.6147705683870859 2:0.6633231715661925 3:1.5682073920750241 4:1.721168987578746 5:0.14157134322217857 6:-0.02551703444980724 7:0.7500254477653681 8:1.1972313272854413 9:-0.8365809564461184 10:-1.2536760170865024 11:1.2833081441430185 12:-0.3630605878024713 13:1.4975532122369088 14:1.5958068793289897 15:-0.18237861316476467 16:-0.36356879132747255 17:0.06804015695585264 18:0.554149096166771 19:-0.842869124840004 20:-0.677674904724246 21:2.2949224655537552 22:0.8447357418994432 23:2.3801550968602876 24:2.675761408047789 25:0.8275829447234235 26:0.3926520327197087 27:1.2778857307714342 28:1.9005980252840071 29:-0.21096744175457793 30:-0.4292664154391508 
1.1 1:0.34611545406217026 2:-1.1764783223576636 3:0.4358606891073533 4:0.1424179138648749 5:0.7816079807210663 6:2.090794149859894 7:1.504178655634314 8:1.2640409554756373 9:2.600531004193928 10:1.0732648725843958 11:0.12622308878082 12:-0.9199655088475205 13:0.26278774116709847 14:0.10538254812137615 15:-0.08421989715040068 16:1.5557868127605525 17:1.0796713705420409 18:1.7382438636328248 19:1.9595976757617621 20:0.2279409557225731 21:0.3767585678807568 22:-1.0765684515921454 23:0.5369713274528793 24:0.18019159888713765 25:0.2929212490832249 26:2.184080203835828 27:1.726468021349935 28:1.908233447684743 29:2.87642464337696 30:0.8644807094023879 
1.1 1:1.9979214418409201 2:0.8708546455322539 3:1.8646763470338321 4:2.130348531521866 5:-0.14534163220835783 6:-0.03506717517322655 7:0.2682754052805232 8:0.9729788543679616 9:-0.1520868812174827 10:-1.4199876139658514 11:1.0423997027479455 12:-0.1637777598423038 13:0.7201635847435415 14:1.1892472121555984 15:-0.7699999436100755 16:-0.7178254006409535 17:-0.4869496675843935 18:-0.22822815784978667 19:-1.1732117140301082 20:-0.6814530267953633 21:2.678555245088356 22:1.6116291954032889 23:2.4160030794095397 24:3.0579070919006304 25:0.34112845114914503 26:0.041266335817474076 27:0.21196189560258216 28:1.3218330073082327 29:-0.12317430189301692 30:-0.4786630238093341 
1.1 1:0.7179137090432981 2:0.4837734693708349 3:0.744682517189446 4:0.7112911409302405 5:1.1233405569162453 6:0.7957950677642469 7:0.8080372329860559 8:1.1122950557878277 9:0.6751626428556277 10:0.0753952913082987 11:1.4593705539445299 12:-0.5719452247461738 13:1.293500877235449 14:1.3793872846359299 15:-0.3307812821220737 16:-0.3697151993754981 17:-0.14720052678588957 18:-0.0792039189894902 19:-0.7073439600440632 20:-0.3739138902064143 21:2.116585065337672 22:0.9554549666091274 23:2.0873965727080575 24:2.353491084798619 25:2.1116475088429185 26:0.6660939932181749 27:0.9523871126346213 28:1.4531622726008886 29:1.162832617190209 30:0.6524638060607026 
1.1 1:0.856983285333949 2:-0.6774700591134235 3:0.9917399796551187 4:0.734307490277041 5:1.5861034205138846 6:2.3601081182603165 7:1.6958697720157176 8:2.3656229644721236 9:4.500276592662709 10:1.614843662422281 11:2.3259164063009417 12:-0.43733873276944246 13:2.199791857815104 14:1.573723247217453 15:0.32837945152014614 16:0.7014360940849804 17:0.18095873104190474 18:1.973119022706119 19:0.30909477592548873 20:1.3802681874133524 21:1.243561280558934 22:-0.6988205084649857 23:1.3525129304483783 24:1.0256669114113268 25:0.972204550921183 26:0.9031196178558636 27:0.5475572212443767 28:2.1479857110678475 29:1.89931951269552 30:1.2219123474967466 
1.1 1:1.2741920142059007 2:0.22027845186336314 3:1.2429150664952209 4:1.249475902199872 5:-0.1367983178034784 6:0.048974063192863015 7:0.7638978311877063 8:0.7396630597967739 9:-0.41563540216112926 10:-0.8215501585281917 11:1.6263762554229186 12:1.1442422564053407 13:1.381591763321445 14:1.1793095777054075 15:1.2337688287238224 16:0.09964686974646453 17:0.627665934684382 18:1.1858822826397686 19:0.29094408421174656 20:0.16106819506379666 21:1.0486343547413526 22:0.25531869270965046 23:0.9790964455603288 24:0.9235265903815353 25:0.06503265749887799 26:-0.2673141943712154 27:0.3518734138859092 28:0.5292761621118556 29:-0.9051835662154342 30:-0.5369399213247181 
1.1 1:0.33476283558946474 2:1.390849237604523 3:0.43174306473292656 4:0.22198060296492583 5:0.8456828387576616 6:1.2542018224883698 7:1.0072951039614635 8:1.0037941479905719 9:0.4225953102846338 10:0.37390328570713294 11:0.1269476254466697 12:-0.37211889816429666 13:0.3195242440699435 14:0.07424462684410948 15:-0.6019655314498931 16:0.2868329330272468 17:0.12930096694388693 18:-0.1553358671029026 19:-0.34433012576922284 20:-0.311197063825867 21:0.8329705219219026 22:1.7939902713957112 23:1.2599056421961419 24:0.6875472280023616 25:1.3929219507692077 26:2.283745965139007 27:1.7408918892141958 28:1.34473927451044 29:1.8359133561288372 30:0.8256294443921313 
1.1 1:0.9790239339155402 2:-0.9922649915338551 3:0.9505637359108405 4:0.8547881337714038 5:0.15296242909535085 6:0.2227866243590928 7:0.13018213393997202 8:0.797150414286012 9:-0.2618987649440019 10:-0.18189017053069456 11:0.7112864464545676 12:-0.7154288608774941 13:0.8953499796716247 14:0.46291655200715576 15:-0.47086541582392893 16:0.2734225881951906 17:0.07333838917103397 18:0.28363770606166727 19:-0.15435288583205686 20:-0.018392603314275613 21:0.7790545637170396 22:-1.0049266003094082 23:0.8297298516051099 24:0.6135835472566502 25:-0.2987125944530602 26:0.1767095498961535 27:-0.10824797098400119 28:0.47735528978685227 29:-0.2304770283904798 30:-0.26054092168032295 
1.1 1:1.2798683234422539 2:1.3535402085769155 3:1.3540909246047743 4:1.2324267545355752 5:0.7175331226844701 6:1.6171071699783008 7:1.8093710909257599 8:1.959068250291474 9:1.3633171142084803 10:-0.11365977181096021 11:1.5459526855135863 12:0.45037568268948514 13:1.3527258232480674 14:1.4323880017036177 15:-0.2642330000784372 16:0.46396123768398745 17:0.665746978730998 18:-0.033848715858095346 19:-0.055129104463600864 20:0.2906577821031202 21:1.4301934435757655 22:1.3543698203425505 23:1.5944868126558327 24:1.3937242751221282 25:0.7355510135066696 26:1.0998956081211153 27:1.6437711789281753 28:1.0759724060045397 29:0.888072605401252 30:0.7734577456640723 
1.1 1:-0.6472386622996202 2:-0.14115276684157774 3:-0.575839619689579 4:-0.6071762784420351 5:1.0379074128674501 6:0.9084867283005937 7:0.42087162292624614 8:0.07959429135952756 9:1.795243856866123 10:2.1635297854601347 11:0.2845343502690105 12:-0.339508980861724 13:0.3080774057649833 14:0.019035546565267736 15:-0.49615376300051084 16:0.48631181240408083 17:0.3375877209032032 18:-0.2185091857502024 19:0.26674316192675773 20:0.7088958953758064 21:0.11754723035737857 22:0.3953459474895462 23:0.3666934103439292 24:0.01782370925012411 25:1.375392059108874 26:2.0697201315712825 27:2.039465954004389 28:0.6147928930000968 29:3.0292497386915285 30:3.12562433299931 
1.1 1:0.8229254299158297 2:1.0900451910694446 3:0.8599759996734262 4:0.6962310604934445 5:1.664417135891945 6:0.8702861654069174 7:1.932961415961139 8:1.8528979109194572 9:1.6012428622826045 10:0.14931155658801032 11:0.7134600564521174 12:0.3271826617686542 13:0.5688662436692886 14:0.6104352145122213 15:0.40790464856229214 16:0.3008020422273052 17:0.6147514936598777 18:-0.1083608352882437 19:0.059825276390098825 20:0.02392236388223834 21:0.9594656546333109 22:1.0417508329269705 23:0.8655778341543621 24:0.8196252293339887 25:1.3622446403636221 26:0.6539552145979157 27:1.3817375793941096 28:1.0744453215243925 29:1.0278913096252174 30:0.051934252616454124 
1.1 1:1.461510219005553 2:1.6706669553115727 3:1.4817372802120392 4:1.4426995757285672 5:-0.16456408961933633 6:1.2962224416714145 7:0.9745058340541175 8:0.7039276772764362 9:0.15538639321677028 10:-0.022685906851316773 11:0.5500770383029774 12:-1.1072913671300781 13:0.3344549027285868 14:0.6190478310357205 15:-0.674503158877457 16:0.43267043307585684 17:0.10314094538142893 18:-0.34760953180635057 19:-0.6165905014753534 20:0.039790476580931156 21:1.6375625135944674 22:0.847992189685022 23:1.6213727995677725 24:1.645552997661097 25:0.8144355259781744 26:2.5904098460718665 27:1.6235777639182107 28:0.979766083755268 29:1.258754751483396 30:1.5771239133048054 
1.1 1:0.5703296688981174 2:-0.332361540608062 3:0.6211537859566096 4:0.4345266438464912 5:0.5466668345868797 6:0.9906179385219993 7:0.5923847270569762 8:0.745101052788999 9:0.6861438312282795 10:0.338366619707271 11:-0.2534341241244975 12:-0.963264232377048 13:-0.3349362938005931 14:-0.11280373714060654 15:-0.9506785293585489 16:0.18122646747480542 17:-0.17269826932144983 18:-0.4409116639623627 19:-0.4229831231954386 20:0.009943312219104161 21:0.8205283777207804 22:0.25531869270965046 23:0.7640085502648124 24:0.6734589078603215 25:0.5383397323279064 26:2.0882477410443094 27:1.2307677624148494 28:1.1004057576868946 29:2.2309824855058586 30:2.1876437920374068 
1.1 1:0.7434571006068866 2:0.532741569969569 3:0.7488001415638736 4:0.6115536270941049 5:-0.01576803040101904 6:0.5646816622575013 7:0.5848179724629736 8:0.29607820285954234 9:0.31278342655811464 10:-0.882673224047954 11:0.2084580003547769 12:-0.5393353074436011 13:0.075656819312101 14:0.11156596511260652 15:-0.42128694570141967 16:-0.024957584318056725 17:0.16870656904429793 18:0.026084945422676142 19:0.8911269568794831 20:-0.4252963503736098 21:0.7790545637170396 22:0.5418860978405995 23:0.7879072052976479 24:0.6171056272921607 25:1.0510890633926877 26:0.8302869461343096 27:1.2956751678040221 28:1.0225244491993892 29:3.195081225096698 30:0.13574198142429328 
1.1 1:0.03675660068092679 2:0.5630551560544994 3:0.07062740709559945 4:-0.060466943340255375 5:0.1358758002855911 6:0.11009496382274553 7:0.5482453252586263 8:0.18731834301503736 9:0.2725190691917243 10:-0.21600536989055996 11:-0.4273229239284597 12:-0.35943726365774076 13:-0.09903188699402699 14:-0.3362900941093582 15:-0.387347321859165 16:0.25218954221110224 17:0.539582824106992 18:-0.028989229808302985 19:-0.02971813606436191 20:0.08739481467700916 21:-0.07530600476001492 22:0.76006809947439 23:0.27109879021258854 24:-0.13908495633184903 25:0.5383397323279064 26:1.0877568295008566 27:1.1884577500130187 28:0.46361152946552786 29:1.1270650416910541 30:0.9721542152879552 
1.1 1:0.24678004242599183 2:1.374526537404945 3:0.14927403264717265 4:0.12650537604486445 5:-0.17453128975836307 6:-1.007080498002836 7:-0.8127616010493439 8:-0.5115932325095317 9:-0.8988076905578133 10:-1.098736153327108 11:2.934527205614809 12:1.7583956989371297 13:2.5984404440008837 14:1.4544716338151549 15:-0.05294220458989107 16:-0.810021521361339 17:-0.4528422976991634 18:1.1956012547393529 19:-1.5299333085108509 20:-0.7694832710523967 21:-0.26193816777684686 22:-0.0800954292049827 23:-0.34608397601037844 24:-0.316597790121556 25:-1.6848887774940033 26:-1.2920187748466592 27:-1.189653424327159 28:-1.3033779225127533 29:-2.166803502003782 30:-1.6009095645341684 
1.1 1:-0.18178130491866673 2:0.3531918677742123 3:-0.14472434768697884 4:-0.27017145961110445 5:0.3758005464892902 6:0.40996938253810966 7:0.2253971292478405 8:0.14614496750247485 9:-0.3314462913041316 10:0.20190582226780585 11:-0.6917788069636521 12:-1.1341039658010823 13:-0.6524616346077431 14:-0.47740450330207795 15:-0.5573781824806567 16:-0.17023631999866407 17:-0.045209556643648785 18:0.13461346720137057 19:-0.8174581564407648 20:-0.2280783782612863 21:-0.14995886996674823 22:0.05341893000375464 23:0.005226252972297729 24:-0.24333852538294676 25:1.2570652904016173 26:1.0794513493922575 27:1.113453637118864 28:1.702077042864876 29:-0.14756128518789513 30:1.2885145160857574 
1.1 1:-0.19313392339137314 2:0.5304097556553433 3:-0.23613560879927809 4:-0.25937366609038315 5:-1.0466613019231437 6:-0.8351779649812898 7:-0.7229694465338441 8:-0.7363636095215087 9:-0.09718093935422356 10:-0.9807544222075695 11:-0.5994003820677973 12:-0.7081822125880337 13:-0.639024041814964 14:-0.4330164027578891 15:-1.2518095056060046 16:-0.8055514064173203 17:-0.5945700094552644 18:-0.7950062141238938 19:-0.8138280180980164 20:-0.9462993839806868 21:-0.06701124195926722 22:0.7421576366537055 23:-0.13816567722471307 24:-0.15968912453958284 25:-1.0042907337815201 26:-0.31459154268169787 27:-0.3024893915560427 28:-0.04796177138377167 29:0.15646310655491558 30:-0.6895698910078689 
1.1 1:-0.899834423317333 2:0.4767780264281587 3:-0.8241323694675811 4:-0.8046622388868048 5:1.8779999960139317 6:0.3392983411848076 7:0.20143573970016493 8:0.2057039383697037 9:0.30912303043389766 10:0.8429872769052977 11:-0.6062834803933707 12:0.381532523939609 13:-0.5146018863262688 14:-0.5116341330749599 15:0.34002540087778277 16:-0.4356493947997738 17:-0.1955468957494194 18:-0.22984798653305094 19:-0.8416590787257541 20:-0.2836167727067105 21:-0.7077816683170579 22:1.570923598083552 23:-0.5946299883518633 24:-0.6420379854026851 25:2.5674246920116124 26:0.10387687817459956 27:0.6292924724751863 28:0.4284885864221428 29:0.10768913996516005 30:0.6757745650668578 
1.1 1:1.4047471266420226 2:1.2835857791501528 3:1.4982077777097507 4:1.2778911483070328 5:-0.39238580708278903 6:2.1958456978175054 7:1.5420124286043277 8:1.3171261251616455 9:1.8281874219840786 10:0.09387435762822882 11:2.0908042582326676 12:0.8127080971625169 13:2.973199976332833 14:1.4301796384924645 15:-0.16441057701298245 16:4.199859802147607 17:2.1648155561138696 18:2.363497735372766 19:3.9694842715301264 20:1.4565862532499225 21:1.625120369393346 22:1.2175990133482344 23:2.0993459002244754 24:1.3602645147847825 25:-0.33377237777372937 26:3.1360160008982443 27:2.1769734943103387 28:2.060941895699459 29:2.8813020400359353 30:1.1053585524659777 
1.1 1:-0.2385443972821979 2:0.22727389480603932 3:-0.1891946909308002 4:-0.3099528041611299 5:0.5537862632576136 6:0.7556844767258861 7:0.1266509817961039 8:0.3323314894743774 9:0.598294324247064 10:0.7178982125857871 11:-0.12156845093982604 12:-0.711080871903818 13:-0.2135002700436266 14:-0.19451317595329254 15:-0.6555368984950205 16:-0.22164264185487892 17:-0.3313140962634412 18:-0.3610541098774427 19:-0.4036223853674472 20:-0.1789627913367613 21:0.23367390956785172 22:0.37580726077607185 23:0.17849150196035213 24:0.05040294957859204 25:0.9064674571949283 26:0.7593709236685862 27:0.45668685369953543 28:0.5323303310721499 29:1.367683276867183 30:1.044306564592718 
1.1 1:-0.2697640980821401 2:0.5840414848825279 3:-0.2674295540449303 4:-0.34888169132794067 5:0.05827402777460389 6:0.012683528443869996 7:-0.07361578979183703 8:0.0977209346669452 9:-0.23627599207448036 10:-0.14208910461085011 11:-0.7613343268852371 12:-1.0962402284886505 13:-0.7574739338402017 14:-0.566401540711571 15:-1.2285176068907318 16:-0.6479798546406614 17:-0.5740393596214368 18:-0.7995417344370335 19:-1.1369103306026243 20:-0.7823288860941956 21:-0.004800520953656129 22:0.6835415765132842 23:-0.04854572085158093 24:-0.2428102133776202 25:0.7881406884876716 26:0.8743698790184085 27:0.487457771809958 28:0.7079450462890737 29:1.2928965280962244 30:0.6824347819257586 
1.1 1:1.2855446326786062 2:-0.3976523414063733 3:1.3087970564860667 4:1.1983284592069818 5:0.966713126160121 6:1.2331915128968476 7:1.374282701770599 8:1.3505309392567435 9:0.3530477839245041 10:-0.324036834530137 11:0.8148951896710954 12:-1.0038454627980273 13:0.7151866985239939 14:0.6939113438938301 15:-0.24892689520840117 16:0.8103951458454359 17:0.7842949245456805 18:0.8359992870547239 19:0.4543003096354252 20:-0.09659973018640389 21:1.3617616504695942 22:-0.7118462996073012 23:1.2987409566244987 24:1.2123371532933602 25:1.5594559215423844 26:1.6320852181566812 27:2.2264954406443005 28:1.8853271804825356 29:1.465231210046694 30:0.4421119569337435 
1.1 1:-0.2697640980821401 2:-0.15048002409847872 3:-0.2443708575481338 4:-0.34007296503472073 5:1.3867594177333622 6:0.3641287070656978 7:0.4309606290515833 8:0.6384128093224846 9:1.1619953273765287 10:0.7107908793858151 11:-0.42333797226628556 12:-0.5864385213250949 13:-0.47727523967966023 14:-0.3508652913029725 15:-0.1697344395764735 16:-0.11603617630243757 17:-0.09289364658028076 18:0.05848151908795818 19:-0.37458127862545965 20:-0.05579601181833693 21:-0.12092720016412928 22:0.3676661413121245 23:-0.1292036815873998 24:-0.2098787650456011 25:2.028380523456331 26:1.0417572473609278 27:1.101914542827456 28:1.4424726812398585 29:1.6294368975655384 30:1.8879340333868573 
1.1 1:1.1635039840970158 2:-0.14115276684157774 3:1.168797827755518 4:1.0761429009461887 5:1.315565131026034 6:0.8492758558153948 7:1.119535297105838 8:1.482596483353642 9:1.0302210669047067 10:0.04696595850841234 11:1.556820735501334 12:0.6804567658798599 13:1.0058368537455857 14:1.2956903189332056 15:-1.0458425726809493 16:0.23319155369902256 17:-0.1220339237637782 18:-0.4158043193717693 19:0.7519716537407937 20:0.5044994913283603 21:0.9014023150280739 22:-0.2543153857334568 23:0.8357045153633176 24:0.779121308925623 25:-0.18915077157597082 26:-0.15231523902139332 27:-0.04382136119030444 28:0.2773072228875739 29:0.20035967648569564 30:-0.22279969281321677 
1.0767386649114787 1:0.27799974322593357 2:0.6330095854812621 3:0.2200971718873319 4:0.16628672059488991 5:-0.410184378759622 6:-0.6346250097894859 7:-0.4527101949513773 8:-0.39894909195629435 9:-0.7121274882227304 10:-0.8428721581281078 11:-0.3385671823618541 12:-0.6947759132525313 13:-0.37773751528870414 14:-0.22587193355167456 15:-0.7876352383516392 16:-0.8457824409134885 17:-0.5240372930906628 18:-0.4158043193717693 19:-1.1586911606591146 20:-0.816709796941363 21:0.3829796399813179 22:0.9766218772153907 23:0.3159087683991544 24:0.2666586637589097 25:0.2885387761681413 26:-0.30564717948782305 27:-0.0010305531929979406 28:0.5903595413177423 29:-0.36216673818281997 30:-0.2860717529727772 
1.1 1:0.16731171311704873 2:0.532741569969569 3:0.14968579508461533 4:0.007445494855859769 5:1.23725141564797 6:0.6200724784533331 7:0.515456055351281 8:0.8411722623183113 9:0.7922953188305808 10:0.6837830132259217 11:0.06753561884698245 12:-0.12210953217790532 13:-0.06021217448155425 14:-0.0010605586562306701 15:-1.1257005111333132 16:0.17396253069077505 17:-0.20316310455874254 18:0.15081175403401148 19:-0.2850378661709998 20:0.11988666448861784 21:0.33528475387701606 22:0.8154277118292326 23:0.25616213081706674 24:0.1882923829688108 25:0.1965068449513856 26:1.120978749935249 27:0.4196655928479336 28:1.0545932232824795 29:1.3010255225278504 30:1.4161686725480287 
1.1 1:0.03675660068092679 2:0.6633231715661925 3:0.18550912714213785 4:-0.024379580784160693 5:0.6107416926234759 6:1.8482205754850465 7:1.5773239500430072 8:0.9784168473601871 9:0.5067844211416306 10:1.4428461989829522 11:1.0855096343660116 12:0.09166659236118369 13:1.2526904102351568 14:0.4558497897314643 15:0.7868971148008028 16:2.521331640668589 17:1.2296775701343625 18:1.0838330755941301 19:-0.4266132615381868 20:0.8774001397476385 21:0.2938109398732762 22:0.6216690685872841 23:0.35773141470661596 24:0.14250534250718006 25:1.388539477854125 26:2.3712729478219274 27:2.0231189037582267 28:0.979766083755268 29:-0.08740672639386293 30:1.6270755397465635 
1.1 1:-0.4088336743727905 2:1.0573997906702877 3:-0.3798406994668122 4:-0.44123124117621426 5:1.1304599855869775 6:0.42333957955089674 7:0.30737030401620413 8:0.5174822032572848 9:0.34572699167607013 10:0.44497661770685326 11:0.0780414005018053 12:-0.07138299415168081 13:0.03534404093376353 14:-0.08122414322110905 15:0.2458595817860374 16:0.058298306514291465 17:-0.07037615966576005 18:0.1799686703327652 19:-0.5052662589644024 20:-0.07166412451702953 21:0.1735368792624281 22:1.2664457301319185 23:0.13965618753199527 24:0.01711929324302197 25:2.3132412629367645 26:0.9746745234068643 27:0.6297732680706616 28:0.8743972546251142 29:0.7888988733354143 30:1.066507287455721 
1.1 1:1.3678511166057277 2:0.46745076917125594 3:1.304679432111639 4:1.3517707881856516 5:-0.4436456935120656 6:-0.021696978160439473 7:0.2468362672641815 8:0.7966325101915142 9:-0.8365809564461184 10:-1.1598592188468686 11:1.3941622540180438 12:-0.7607204126866234 13:1.3089292245160467 14:1.2347394943053644 15:-0.8644985041120397 16:-0.4982310040160354 17:-0.3034983771337393 18:0.30955496499389246 19:-0.8065677414125196 20:-0.7906407546506536 21:1.784794553307747 22:0.14459946799996537 23:1.7558027341274705 24:1.7388881186021135 25:-0.5704259151882436 26:-0.12739879869559845 27:-0.013050443079881902 28:0.985874421675857 29:-0.5637658000871442 30:-0.9987149568751943 
1.1 1:0.8740122130430077 2:1.2159631640376158 3:0.9176227409154176 4:0.7817609512759995 5:0.7673691233796012 6:1.5082355657313216 7:1.0186452358524671 8:0.7948198458607725 9:0.4262557064088517 10:0.29856555378742655 11:0.6765086864937755 12:-0.3195806980657072 13:0.42254578881458293 14:0.6477565527807182 15:-0.40664632365181985 16:1.7167109507452252 17:0.3531512780352988 18:-0.08406340503928234 19:-0.6359512393033449 20:0.9476732102704206 21:1.4654461854789451 22:1.323433566379551 23:1.3286142754155423 24:1.4130957153174333 25:1.147503467524527 26:3.104071846634406 27:1.8519556717690022 28:1.153853714492045 29:0.6750929512926511 30:2.7759629479070025 
1.1 1:-0.09096035713701722 2:-0.8197107322811745 3:-0.061136572886092644 4:-0.19941749680427323 5:0.3117256884526949 6:0.457720086155206 7:-0.13288870077819226 8:0.05033271002041073 9:-0.5437492665087351 10:0.41086141834698786 11:-0.4537685122319788 12:-1.0813845994952562 13:-0.44741392236237354 14:-0.37074056020335555 15:-0.7736600991224756 16:-0.2674613200310705 17:-0.47237952899264457 18:-0.4183960452649915 19:-1.007435396377931 20:-0.24961367406665502 21:0.06570496285270266 22:-0.7867445986756172 23:0.09484620934542942 24:-0.11654364410458462 25:0.3849531802999806 26:0.6430942021482102 27:0.03118275170385032 28:0.3658781227361094 29:-0.5019854424067862 30:1.06095710673997 
1.1 1:0.5533007411890587 2:0.08036959300983693 3:0.5017426790982 4:0.4643626522590103 5:-0.33044677764741337 6:-0.3781082299584455 7:0.11681420082390037 8:0.4566284721538114 9:-0.0459353936151814 10:-1.2593618836464797 11:1.2441831641871264 12:-0.36487224987483624 13:1.0814855242827122 14:0.8637344748315475 15:1.2570607274390952 16:-0.1903518372467481 17:0.10413436392177555 18:1.0206597569468305 19:-0.6081201786756072 20:-0.6961877028727208 21:0.7292859869125508 22:-0.18430175834350937 23:0.6475026069797418 24:0.6065393871856302 25:0.7749932697424207 26:-0.31331377651114445 27:0.05522253147761802 28:0.5750886965162707 29:-0.4028117103409494 30:-1.1108286073333629 
1.1 1:1.1152553555880145 2:-0.7357654169690595 3:1.1646802033810912 4:0.9994217364568536 5:0.7246525513552022 6:2.1118044594514167 7:1.0085562297271302 8:1.5343868928034068 9:1.2498448343577442 10:0.5629583488263918 11:2.088992916568043 12:-1.2082009445608173 13:1.719522337628741 14:2.0904802386274124 15:0.29876546601072773 16:1.841315404809746 17:0.4875939204955253 18:1.4434350432787595 19:0.651537826258088 20:1.2329214266397774 21:1.2725929503615516 22:-1.1042482577695663 23:1.283804297228977 24:1.2880618740568262 25:0.6785788656105813 26:1.9796376165472553 27:0.5153439163475284 28:1.4638518639619187 29:1.3871928635030848 30:1.493871202568541 
1.1 1:1.7197822892596184 2:1.087713376755218 3:2.132321931371645 4:1.6785461184180042 5:2.298046287587173 6:4.610121272697888 7:3.6190865646580965 8:2.8912956203872304 9:4.009783512017592 10:2.651092842978228 11:1.9118437017677568 12:1.2094620910104865 13:2.883118335759018 14:1.6841414077751367 15:1.1106545069430949 16:2.3978447153400726 17:2.5578781585776356 18:2.290605444625882 19:7.069622416237262 20:0.8297958016515605 21:1.4758146389798803 22:0.9815065488937593 23:1.8872453368080637 24:1.3109553942876417 25:1.3841570049390413 26:2.318245651743953 27:2.3880427607240176 28:2.083848162901667 29:4.133167182506333 30:0.8744710346907398 
1.1 1:1.4132615904965524 2:1.6286942976555148 3:1.5311487727051736 4:1.3574538374070837 5:1.7925668519651374 6:1.4337444680886515 7:1.3276210484409154 8:2.5417103566013224 9:-0.6462403579868194 10:1.3461864674633297 11:0.41676229178660695 12:3.066415715184774 13:1.4657011404318028 14:0.5954183446763762 15:0.1673326089745455 16:1.959214686458239 17:-0.34820221144933194 18:1.0757339321778099 19:1.21420926938409 20:2.4933029495645114 21:0.8454126661230239 22:1.1443289381727073 23:1.0209190918677904 24:0.7386173885172573 25:0.3016861949133913 26:0.1799039653225376 27:-0.13565331992609608 28:1.06528281464351 29:-0.9539575328051897 30:0.4521022822220946 
1.1 1:1.2316196949332534 2:-0.1831254244976348 3:1.2017388227509418 4:1.1954869345962655 5:0.17218488650632935 6:0.024143697311972856 7:0.5684233375093009 8:1.0151880380695197 9:1.1766369118733984 10:-0.36241643380998667 11:1.0713811693819395 12:0.4666806413407718 13:0.9585564346598816 14:0.8935473781821218 15:-0.19003166559978268 16:-0.49990729712004234 17:-0.12567645841171526 18:0.39054639915709743 19:0.38411763500895546 20:-0.01348104462182298 21:1.3845722481716507 22:0.32370409620680896 23:1.3465382666901689 24:1.275734593932541 25:0.327981032403895 26:-0.2852029207589657 27:0.21292348679353257 28:0.7613930030942246 29:1.296148125868874 30:0.10577100555923735 
1.1 1:0.10203415689898776 2:0.5024279838846386 3:0.09615667821705287 4:-0.0172757692573704 5:-0.13395054633518555 6:-0.08721094352309544 7:0.4032158622069062 8:0.016409991830815374 9:0.967994332793011 10:-0.9111025568478421 11:0.059565715522634344 12:1.8163688852528153 13:0.2214795855448517 14:-0.028002589832305635 15:0.7742529412125121 16:0.2454843697950737 17:0.723696393584544 18:0.9429079801501545 19:0.44219984849293015 20:-0.2046540214203587 21:-0.008947902354029758 22:0.5793352473747575 23:0.03808690364244649 24:-0.12270728416672716 25:-0.0752064757837978 26:-0.35739670939524304 27:0.30523624112479997 28:0.12459877487285764 29:0.19873387759937078 30:-0.8560753124803964 
1.1 1:1.7424875262050312 2:0.86852283121803 3:1.6670303770612938 4:1.7325350860216107 5:-0.39452163568400955 6:0.5207510149297729 7:0.7323696870460279 8:0.986185408777652 9:1.0412022552773577 10:-0.8926234905279138 11:1.2811345341454687 12:0.5282771518011864 13:0.8450834288541915 14:1.054095383632994 15:-0.3414290072490562 16:0.5243077894282395 17:0.34652848776632195 18:0.14595226798421934 19:0.731400869798553 20:0.2343637632434723 21:1.6520783484957775 22:0.960339638287496 23:1.4630442099752394 24:1.53460747654253 25:-0.5835733339334945 26:0.6411775528923798 27:0.6653521421358375 28:0.65602417396407 29:1.2863933325509231 30:-0.011337807543106315 
1.1 1:0.08500522918992903 2:0.10835136478054164 3:0.10562721427823707 4:-0.03347245953845235 5:0.08532785672338772 6:0.1922261740441511 7:0.06876530915198242 8:0.24972578640200327 9:0.25055669244642065 10:0.16068328970796664 11:-0.4146435322760875 12:1.147865580550071 13:-0.23888238976332032 14:-0.29344784781297695 15:0.32039365767491024 16:0.19631310541086844 17:0.04486039101443429 18:0.3970257138901536 19:-0.7146042367295602 20:0.24985406373505348 21:0.01593638604821379 22:0.8414792941138645 23:0.07094755431259436 24:-0.09188908385601424 25:0.47260263860165264 26:0.3134305301453866 27:0.23071292382612096 28:0.6438074981228927 29:-0.29225738607083773 30:0.535354992958359 
1.1 1:2.312956604458517 2:0.0850332216382883 3:2.507025749444585 4:2.428708615647058 5:2.5828234344164898 6:3.2998419654447693 7:4.262260705148335 8:3.4584006038621493 9:2.728644868541534 10:1.0832151390643574 11:2.938149888944058 12:0.5934969864063326 13:3.580380095117666 14:2.8678240889535056 15:-0.17539104355018242 16:3.422059801888355 17:2.3889970067187303 18:2.1075648034170396 19:1.2819718517820604 20:0.470874204895416 21:2.5188810611739543 22:0.3774354846688617 23:2.977621472681166 24:2.6088418873730976 25:1.6558703256742247 26:2.8504352617795203 27:3.314535873205018 28:2.6977361239208255 29:1.881435724945944 30:0.7773428721650992 
1.1 1:0.2127221870078726 2:-0.6145110726293366 3:0.276920388254438 4:0.08018852489019213 5:1.4152371324162942 6:1.1625204715435455 7:1.0161229843211332 8:1.048333900117369 9:1.2681468149788309 10:0.6979976796258658 11:0.08202635216397947 12:-0.48643477493053844 13:0.06620073549496008 14:0.0230106003453443 15:-0.01900258074763661 16:0.010803335234092826 17:-0.05779285815470436 18:0.14919192535074788 19:-0.5451977807346349 20:0.03525673009559016 21:0.5302116796945961 22:0.273229155530335 23:0.596717965034967 24:0.3811262649129865 25:2.4315680316440202 26:1.2423665361378395 27:0.9567142729938996 28:1.3493205279508815 29:1.1173102483731032 30:1.2552134317912529 
1.1 1:0.470994257261939 2:0.8405410594473235 3:0.5676246690890467 4:0.36462513842287514 5:1.365401131721164 6:1.3592533704459815 7:1.5748016985116733 8:1.1923112383877132 9:1.0448626514015755 10:1.4982833979427355 11:0.536310841651831 12:-0.2634191738223872 13:0.3692931062654212 14:0.4083699806916602 15:0.5513161963663293 16:0.8003373872213935 17:0.915426171871419 18:0.3419515386591747 19:-0.6746727149593279 20:0.8286623650302252 21:0.8163809963204063 22:0.7828632339734432 23:0.6923125851663081 24:0.6928303480556266 25:2.330771154597099 26:1.5266695090860112 27:2.231784192194529 28:1.360010119311912 29:0.6116867947259692 30:2.293097225636674 
1.1 1:1.0868738094062493 2:0.16431490832195284 3:0.9176227409154176 4:0.9312251457996674 5:-0.8757950138255532 6:-0.7031950201836359 7:-0.1954405387552821 8:0.18680043892054 9:1.1656557235007456 10:-1.7796186738844453 11:0.5312390849908819 12:-0.006163159546535013 13:0.24935014837431946 14:0.3070061092997064 15:-1.0042498964036766 16:-0.9507183892243272 17:-0.2962133078378649 18:-0.31197330077454066 19:3.583479561084546 20:-0.7135670643998605 21:0.8972549336276998 22:0.348127454598651 23:0.6594519344961589 24:0.6734589078603215 25:-1.1007051379133594 26:-0.8518922173994784 27:-0.2236389138980852 28:0.06351539566697118 29:3.2259714039368763 30:-1.2640135950880884 
1.1 1:1.2883827872967837 2:-0.509579428489193 3:1.2140916958742256 4:1.2011699838176977 5:0.64633883597714 6:0.11391502011211352 7:0.722280680920691 8:0.9815242719271731 9:0.5690111552533255 10:-0.09091630557104935 11:1.1188383209951043 12:0.658716821011478 13:1.0147952489407714 14:1.1115128271229895 15:0.35266957446607394 16:-0.24734580278298646 17:0.05181432079685955 18:0.6837353908278987 19:-0.009147352122120811 20:0.2944359041742377 21:1.243561280558934 22:-0.12894214598866682 23:1.1433996989110704 24:1.1806384329737696 25:0.7881406884876716 26:-0.15614853753305402 27:0.2682149802731981 28:0.8102597064589336 29:-0.006116782077603133 30:0.03750378275550137 
1.0950303441172335 1:0.3801733094802895 2:0.04072874966800555 3:0.4029196941119304 4:0.2688657590417418 5:0.9168771254649917 6:0.34884848190822715 7:0.7336308128116953 8:0.8318499886173538 9:0.4408972909057196 10:-0.6836678944487318 11:0.254828346969167 12:-0.781735692726059 13:0.11845804080021205 14:0.18046689730060106 15:-0.26689493136018294 16:-0.5921034178404277 17:-0.12335848181757358 18:-0.13913758027026146 19:-0.7932572341557753 20:-0.5023700406244029 21:0.6235277612030132 22:0.05016248221817676 23:0.5309966636946704 24:0.4885497059960435 25:0.9765870238362657 26:-0.09034357974954466 27:0.5177478943249052 28:0.5659261896353878 29:-0.09878731859813872 30:-0.20503911452281365 
1.1 1:0.5788441327526472 2:0.5210824983984406 3:0.5882127909611858 4:0.44191460783435277 5:0.318845117123427 6:0.4653601987339411 7:0.20017461393449776 8:0.19120262372376984 9:1.2791280033514818 10:-0.5486285636492596 11:0.10593606213702422 12:0.08623160614408798 13:-0.005964114688483235 14:0.07821968062418616 15:-0.720421473487566 16:-0.33060169361533465 17:-0.3200553528061809 18:-0.41434647355683163 19:-0.6262708703893489 20:-0.5356175148502352 21:0.6670752659069406 22:0.9749936533226009 23:0.6743885938916807 24:0.5220094663333887 25:0.31483361365864404 26:0.3319581396184135 27:0.1335922135401002 28:0.25745512464566134 29:0.9466013653089576 30:-0.42704634315285084 
1.1 1:1.228781540315076 2:0.6073596280247822 3:1.1646802033810912 4:1.1954869345962655 5:-0.1439177464742114 6:-0.13266961336657102 7:0.3388984481578825 8:0.5107494500288154 9:-0.43393738278221594 10:-0.7817490926083472 11:0.695346639805871 12:-0.027903104414916502 13:0.4529047947538247 14:0.6230228848157972 15:-0.3464201284023285 16:-0.6267468086565727 17:-0.10945062225272251 18:-0.4277910516279235 19:-0.6783028533020761 20:-0.5990899656450059 21:1.299550929463983 22:0.9277751604317066 23:1.149374362669279 24:1.252841073701726 25:0.6216067177144939 26:-0.16637066689748248 27:0.6014063279376161 28:0.3597697848155208 29:0.3434299784823125 30:-0.4320415057970255 
1.1 1:-0.3832902828092015 2:0.7379412296214047 3:-0.4197816558987624 4:-0.4204881115179866 5:-0.4108963216266943 6:-0.8867487248877537 7:-0.521063211450536 8:-0.5620888817230518 9:-0.8255997680734666 10:-0.3012933682902261 11:-0.6059212120604458 12:0.2945727444660813 13:-0.6962582333397637 14:-0.4475915999515033 15:0.15202650410450946 16:-0.7496749696170867 17:-0.2826365877864627 18:-0.46472314560634476 19:-0.490745705593409 20:-0.4388975898296321 21:-0.36562270278619824 22:1.250163491204023 23:-0.45064059177903193 24:-0.3961967989240831 25:0.42001296362064977 26:-0.6468107470256289 27:-0.2582561967723105 28:-0.32115718488209866 29:-0.11179370968874114 30:-0.17839824708720897 
1.1 1:0.23542742395328542 2:-0.40464778434904947 3:0.20321491195217778 4:0.06768581660304118 5:1.4508342757699584 6:0.5054707897723023 7:0.8256929937053963 8:0.9709072379899708 9:0.5360675901353709 10:-0.08665190565106684 11:3.231587238613245 12:0.4250124136763729 13:2.7686499527094184 14:1.3639287421578543 15:0.9842127710601853 16:0.523190260692235 17:1.1230506468038373 18:2.6275298107448144 19:3.769826662678964 20:-0.3414220403948056 21:0.4762957214897341 22:-0.6939358367866171 23:0.42644004792601686 24:0.16346171871846482 25:0.3849531802999806 26:-0.2372866893632064 27:0.3081210146976523 28:0.7995701150979031 29:0.8392986388114956 30:-0.6890148729362933 
1.1 1:0.5646533596617642 2:-0.29272069726622885 3:0.5429189228424782 4:0.45100748658864465 5:0.06325762784411726 6:0.184586061465416 7:0.07620595116941864 8:0.2766567993158806 9:0.1846695622105088 10:-0.041164973171243346 11:1.090219122694035 12:0.207612964992554 13:0.8346319677931415 14:0.7495620968149025 15:-0.09054198394454582 16:-0.3384243947673671 17:-0.039249045401569704 18:-0.019270257708718708 19:-0.21485519154453048 20:-0.1347587631046887 21:0.7603913474153572 22:-0.06869786195545569 23:0.6534772707379504 24:0.6241497873631803 25:-0.04014669246312863 26:-0.19128710722327757 27:0.04224105039978343 28:0.11085501455153346 29:-0.17194826848277245 30:-0.1278916025738761 
1.1 1:-0.6585912807723262 2:-0.6354974014573664 3:-0.5321928013206438 4:-0.6316133900941938 5:0.9097576967942578 6:1.2599319069224217 7:0.9770280855854518 8:0.6578342128661459 9:3.1752131956960445 10:1.5551420635425117 11:-0.3052384957327614 12:0.3779091997948787 13:-0.28616280884902445 14:-0.3404859842105503 15:-0.5374136978675657 16:0.6086812089965927 17:0.48461366487448565 18:1.0757339321778099 19:4.326447875233718 20:0.31899369763650043 21:-0.5211495053002255 22:0.11203499014417595 23:-0.45392665684604694 24:-0.5052051760231193 25:0.2710088845078076 26:0.9944798990504449 27:0.8605551538988301 28:1.1019328421670413 29:4.676184010538946 30:1.06095710673997 
1.1 1:1.0102436347154828 2:0.3345373532604077 3:1.0493867208971102 4:0.8792252454235623 5:1.0806239848918482 6:1.1930809218584872 7:1.2242087356562101 8:1.4670593605187126 9:0.5873131358744121 10:-0.15772523765078894 11:1.4756726289261517 12:0.3308059859133845 13:1.335804410101605 14:1.1874805215866755 15:0.6637827930200748 16:1.3468089391276785 17:0.6690583738654863 18:1.0724942748112818 19:-0.33222966462672865 20:0.4448051626047065 21:0.8744443359256433 22:-0.09474944424008847 23:0.7699832140230218 24:0.7456615485882774 25:0.4156304907055661 26:0.6149833463960315 27:0.41774241046603233 28:0.5674532741155349 29:-0.706836102083761 30:-0.3609991926354139 
1.1 1:2.5967720662761717 2:0.6376732141097126 3:2.478202378823589 4:2.931658471743809 5:-0.8494531277438417 6:0.19986628662288664 7:0.5545509540869622 8:1.2500575449242008 9:-0.03495420524252868 10:-1.0290842879673798 11:0.9427759111935925 12:-0.6545570152460249 13:0.8694701713299757 14:1.2744900321061303 15:-0.7094410069503663 16:1.8681224204852853E-4 17:-0.12037822619653404 18:0.7193716218597095 19:-0.11684145629032328 20:-0.019148227728499112 21:2.4380071238666607 22:0.4116281864174409 23:2.302484468003574 24:2.6845666081365636 25:-0.41703936316031776 26:0.669288408644559 27:0.593232802814535 28:1.8364604771178261 29:1.1238134439184035 30:0.44322199307689303 
1.1 1:0.9506423877337742 2:1.2532721930652224 3:0.9958576040295473 4:0.9386131097875294 5:0.6107416926234759 6:1.0746591768880884 7:1.6075909684190188 8:1.4385746353213427 9:-0.9976383859116806 10:0.12514662370810647 11:2.478069106129409 12:0.3489226066370361 13:2.2301508637543455 14:1.8144348372332035 15:-0.28885586443458333 16:0.6092399733645948 17:0.4829579673072417 18:0.6319008729634479 19:-1.0981888549466412 20:0.5022326180856898 21:1.4281197528755785 22:1.0808282063539174 23:1.4391455549424053 24:1.3761138749445776 25:0.23156662827205476 26:0.827092530707926 27:1.046142253752315 28:0.88203267702585 29:-1.1994531646402935 30:0.5059390351648787 
1.037335326781624 1:-0.19597207800954974 2:0.07570596438138644 3:-0.25013553167233304 4:-0.2525540070246646 5:-0.4158799216962077 6:-0.7860902416629147 7:-0.3764120861285156 8:-0.3720180790424169 9:-0.7780146184586414 10:-0.8613512244480361 11:0.23816400365462043 12:-0.12754451839500058 13:0.14234709465404127 14:0.07203626363295579 15:-0.3457546455818925 16:-0.8273432167694114 17:-0.34257283972070174 18:-0.3800061054716326 19:-0.6444215621030911 20:-0.7264126794416593 21:0.3580953515790739 22:0.6802851287277054 23:0.2830481177290056 24:0.2025568071126267 25:0.34112845114914503 26:-0.6321164360642627 27:-0.03372465368532174 28:0.025338283663292493 29:-0.02237477094085616 30:-0.5646908249034732 
1.1 1:0.3801733094802895 2:-1.7291183148290874 3:0.4358606891073533 4:0.2347674637131485 5:2.09158285613592 6:0.9829778259432638 7:1.4474279961792926 8:1.5784087408357066 9:0.5690111552533255 10:1.1258591382641931 11:0.061377057187259165 12:-1.0129037731598534 13:-0.025373970944719604 14:0.09941996745126136 15:-0.5487269058149837 16:-0.1244176418224725 17:0.3700393932211892 18:0.22856353083068792 19:-0.31528901902723616 20:0.1425553969153215 21:0.5260642982942221 22:-1.408726125721199 23:0.5339839955737751 24:0.3934535450372716 25:0.9108499301100137 26:0.669288408644559 27:1.498090113499144 28:1.0439036319214494 29:0.5173904593191079 30:0.9499534924249522 
1.1 1:0.6639887712979444 2:0.18763305146420617 3:0.7158591465684507 4:0.507553826341895 5:0.14157134322217857 6:0.9848878540879473 7:1.1460189381848478 8:1.033573633424186 9:-0.060576978112050206 10:0.06544502482833714 11:-0.3632014290007486 12:0.12065318551902626 13:-0.1861273958361136 14:-0.18877143160429288 15:-0.138124005605746 16:0.8662715826456693 17:0.723696393584544 18:1.0271390716798872 19:-0.44839409159467714 20:0.299725275073802 21:0.3186952282755193 22:0.44907733595159893 23:0.4891740173872092 24:0.18071991089246442 25:0.4024830719603134 26:1.3618376730845991 27:1.5134755725543558 28:1.3615372037920588 29:0.2540110397344266 30:0.6274879928398231 
1.1 1:3.7178431404559067 2:0.5980323707678812 3:3.713489691151956 4:4.5342783521876955 5:0.9311159828064568 6:1.6686779298847643 7:2.5055125135740184 8:3.600824229849002 9:-0.03861460136674655 10:-0.7206260270885867 11:1.5655151754915317 12:0.4775506137749628 13:1.4751572242489441 14:1.9557700827470383 15:-0.8022758604012394 16:-0.0037245383339679083 17:-0.025341185836718738 18:0.10059706485282427 19:-0.5778690258193704 20:-0.3943157493904479 21:3.49766307166223 22:1.1654958487789715 23:3.3958479357557807 24:4.116292142571403 25:0.6522840281200795 26:0.9574246801043906 27:1.2625002717162228 28:2.358723369328155 29:-0.06789713975796019 30:-0.17007297601358218 
1.1 1:1.9780543595136848 2:1.6939850984538278 3:2.0911456876273666 4:1.8660867427252676 5:1.265729130330902 6:3.422083766704536 7:2.0212402195578387 8:2.6116274093585043 9:2.1393210925425494 10:1.5935216628223632 11:0.8181556046674194 12:-0.8234039203904575 13:0.7754070217805222 14:0.9125393017980435 15:-0.9280521134637125 16:1.237849887367223 17:0.22731826292474167 18:0.6286612155969198 19:-0.3080287423417394 20:0.5683497543302427 21:2.162206260741786 22:1.2680739540247075 23:2.0724599133125357 24:2.1316000425614847 25:0.7355510135066696 26:3.2254596328369955 27:1.9548459292007279 28:2.687046532559795 29:1.9513450770579261 30:2.470703008540702 
1.1 1:0.4482890203165262 2:0.2342693377487146 3:0.3823315722397913 4:0.3191607446514171 5:-0.025023287672971684 6:-0.306482174532801 7:-0.2837193423519814 8:0.08140695569026946 9:-0.7048066959742956 10:-1.0347701545273589 11:-0.12337979260445064 12:-0.12210953217790532 13:-0.2239517311046768 14:0.018593873923036797 15:-0.8039395674523304 16:-0.1568259751666079 17:-0.4078073238701221 18:-0.32752365613387613 19:-0.6117503170183554 20:-0.5140822190448667 21:0.79979147071891 22:1.160611177100603 23:0.6624392663752645 24:0.6875472280023616 25:0.39810059904523154 26:0.6462886175745943 27:0.09032060994731861 28:0.607157470599361 29:0.8766920131969744 30:0.13463194528114286 
1.1 1:0.32908652635311064 2:0.7239503437360533 3:0.28844973650283556 4:0.16003536645131478 5:-0.4094724358925488 6:0.022233669167289305 7:-0.4373244606102382 8:-0.4173346873109607 9:-0.3058235184346101 10:0.05691622498837212 11:-0.7193112002659462 12:-1.3076611923336645 13:-0.7524970476206538 14:-0.4551000348694258 15:-1.2484820915038228 16:-0.6418334465926357 17:-0.4674124362909122 18:-0.936255275304523 19:-1.0655176098619055 20:-0.4592994490136656 21:0.32076891897570725 22:0.38069193245444044 23:0.19940282511408292 24:0.16645548674864852 25:-0.09711884035921603 26:0.4878456124259505 27:0.4403398034533734 28:0.1261258593530048 29:0.45073270497977536 30:0.767907564948322 
1.1 1:1.1890473756606044 2:-0.16913453861228245 3:1.0987982133902436 4:1.0988750978319177 5:-0.7433736405499216 6:-0.36970410612183624 7:-0.08496592168284112 8:0.24325198522078284 9:-0.6938255076016437 10:-1.2110320178866685 11:-0.5298448621462125 12:-1.3437132675737313 13:-0.5170903294360428 14:-0.24773472934209595 15:-1.3895644494363322 16:-0.9083081736929499 17:-0.58728494015939 18:-0.8212474387927722 19:-1.1901523596296006 20:-1.0214840131959213 21:1.0486343547413526 22:0.10877854235859807 23:0.9581851224065985 24:0.9358538705058204 25:-0.39074452566981677 26:-0.05776054240042838 27:0.3961066086696414 28:0.6529700050037757 29:0.5011324704558557 30:-0.8050136498954874 
1.1 1:0.02824213682639698 2:0.8895091600460576 3:0.10109782746636631 4:-0.12610616184779766 5:0.7958468380625305 6:2.621781974082004 7:1.3831105821302692 8:0.4514494312088353 9:2.099056735176158 10:1.7982128589815627 11:-0.4273229239284597 12:1.617086057292647 13:-0.3702721859593825 14:-0.18590055942979322 15:0.3087477083172736 16:6.144359802795736 17:2.806232793664261 18:0.7890242552400653 19:3.7032741263952436 20:2.9957931850231136 21:-0.10641136526282047 22:1.8705167943568162 23:-0.0216597339396416 24:-0.20459564499233607 25:0.9196148759401792 26:4.339032850474441 27:2.7760448062726253 28:0.9599139855133554 29:3.6876982876532294 30:3.369832284492352 
1.1 1:-0.09947482099154703 2:0.6959685719653477 3:-0.05290132413723736 4:-0.18577817867283586 5:1.685775421904145 6:0.43288972027431627 7:0.6314796257926576 8:0.4276258428619437 9:0.08583886685664233 10:0.8529375433852593 11:0.7793928930444529 12:1.6207093814373774 13:1.0202698237822743 14:0.21116314593563723 15:2.2486301298892806 16:0.4494333641159267 17:0.489911897089667 18:1.4272367564461186 19:0.7701223454545358 20:0.1946934814967407 21:0.028378530249336897 22:1.3543698203425505 23:0.13368152377378628 24:-0.12622936420223718 25:1.8136393506172332 26:0.3747633063319584 27:0.5264022150434613 28:0.8087326219787865 29:0.2962818107788818 30:0.5242546315268566 
1.1 1:1.1237698194425434 2:0.5910369278252041 3:1.0493867208971102 4:1.0505691794497438 5:-1.6098081097781156 6:-0.3364696164043375 7:0.27584215987452576 8:0.2339297115198251 9:-0.14842648509326573 10:-1.3318566822861957 11:0.8413407779746145 12:0.15869808903869442 13:0.7246427823411348 14:0.7999127780292062 15:-0.5031413326150929 16:1.5379063529844776 17:0.9684084940232323 18:0.4294222875554359 19:0.10580702873157799 20:0.4704963926883039 21:0.7272122962123646 22:-0.16150662384445624 23:0.6564646026170546 24:0.6153445872744052 25:-1.9324984971962258 26:-0.36570218950384126 27:-0.08613137359213496 28:-0.344063452084306 29:-0.8596611973983288 30:-1.0159205170940222 
1.1 1:1.4359668274419644 2:0.7426048582498552 3:1.4652667827143278 4:1.4029182311785418 5:-0.7896499269096848 6:0.7404042515684155 7:0.2897145432968642 8:0.49132804648515394 9:-0.15940767346591755 10:-1.063199487327247 11:0.11499277046014722 12:-0.2616075117500223 13:0.4862499324247951 14:0.3109811630797831 15:-0.5051377810764017 16:0.6450008929167446 17:-0.15879040975659875 18:0.0682004911875429 19:-0.7714764040992852 20:-0.14873781476782266 21:1.4737409482796933 22:1.0368661612486028 23:1.7707393935229923 24:1.4254229954417184 25:-0.0050869091424594615 26:1.9585544747331216 27:0.5533267683900811 28:0.8621805787839374 29:0.47999708493362814 30:0.46209260751044656 
1.1 1:0.09351969304445795 2:0.21328300892068608 3:0.1060389767156793 4:-0.032904154616309134 5:0.17076100077218292 6:0.31637800344860145 7:0.37294884383089477 8:0.28623802506408724 9:0.5104448172658484 10:0.26871475434754366 11:-0.7055450036147991 12:-1.0263100724953553 13:-0.7017328081812663 14:-0.45752923440169485 15:-0.9975950681993129 16:-0.5289630442561638 17:-0.39257490625147573 18:-0.7266494436901492 19:-0.6420014698745922 20:-0.6856089610735925 21:0.4306745260856193 22:0.7209907260474422 23:0.32188343215736337 24:0.29131322400748005 25:1.0028818613267676 26:0.9714801079804807 27:1.083163514603917 28:1.0607015612030681 29:3.016243347600926 30:0.9666040345722049 
1.1 1:0.9705094700610104 2:0.003419720640398971 3:0.9546813602852682 4:0.8448427976338975 5:-0.47283535106207086 6:0.3010977782911308 7:0.19134673357482757 8:0.67673771231531 9:-1.1147710618866329 10:-1.1172152196470355 11:-0.024842806048872124 12:-0.7051023870650128 13:0.11547190906848326 14:0.013072965895152722 15:-0.31680614289291054 16:0.014155921442106978 17:-0.15647243316245696 18:0.2690592479122904 19:-0.5548781496486306 20:-0.42794103582339194 21:0.8640758824247081 22:0.024110899933543983 23:0.9671471180439108 24:0.6347160274697108 25:0.253478992847473 26:0.5651504657444422 27:0.3816827408053809 28:1.2149370936979313 29:0.04916038005745271 30:-0.28940186140222757 
1.1 1:2.602448375512524 2:1.717303241596082 3:2.7582008362846855 4:2.928816947133093 5:1.265729130330902 6:1.993382714481019 7:3.3277665127889886 8:2.932727947947043 9:1.4255438483201734 10:-0.06817283933113849 11:0.5431939399774042 12:0.6206719174918103 13:0.9013222431350818 14:0.950081476387656 15:0.760277801983348 16:1.4401225885840683 17:1.9114938283255118 18:2.083267373168077 19:0.14815864273030988 20:0.5305685336190693 21:1.83871051151261 22:1.137816042601549 23:2.0873965727080575 24:1.950212920732717 25:0.9327622946854293 26:1.0423961304462042 27:2.489490631369317 28:2.4274421709347775 29:0.4881260793652542 30:0.20733931265747962 
1.1 1:0.820087275297654 2:0.22261026617758795 3:0.7323296440661622 4:0.7104386835470251 5:-0.6123761530084355 6:-0.5920313821630363 7:-0.23869715251766466 8:0.1334563171872829 9:0.7886349227063638 10:-1.4981682791655455 11:0.6587575381804542 12:-0.6558251786966804 13:0.6221189262184499 14:0.6254520843480661 15:-0.666850106442439 16:-0.5814868948483836 17:-0.41045643997771264 18:-0.09054271977233874 19:0.29215413032599624 20:-0.4570325757709952 21:0.7355070590131119 22:-0.10451878759682476 23:0.6833505895289944 24:0.583645866954815 25:-0.9297886942250981 26:-0.6704494211808699 27:-0.3760511176637712 28:-0.07239512306612594 29:0.6133125936122941 30:-1.0653171254642055 
1.1 1:1.8333084739866807 2:0.6609913572519668 3:1.7617357376731348 4:1.8064147259002294 5:-0.3859783212791301 6:0.5876019999937074 7:0.9530666960377765 8:1.2135453062621169 9:-0.1667284657143524 10:-1.7810401405244392 11:1.6524595753935134 12:0.4757389517025974 13:2.076862768192273 14:1.5803483368509141 15:0.35998988549087363 16:0.5963883929005411 17:0.7627708561715063 18:2.569215978147306 19:1.3594148030940256 20:-0.538640012507129 21:1.4488566598774488 22:0.34975567849144085 23:1.528765511315537 24:1.3690697148735576 25:-0.6361630089144974 26:0.24570892310604675 27:0.5514035860081796 28:1.1859224885751354 29:0.018270201217274185 30:-1.4005480406955604 
1.1 1:0.01972767297186717 2:1.0504043477276115 3:0.039333461849948126 4:-0.12383294215922458 5:-0.12042363186079186 6:0.5073808179169859 7:0.29097566906253136 8:0.41105291183801906 9:1.553657712667781 10:0.22180635522772718 11:0.06065252052140924 12:1.13699560811588 13:0.33744103446031515 14:-0.2018007745500996 15:1.2770252120521866 16:0.6517060653327724 17:0.16638859245015625 18:0.7258509365927657 19:2.960305812246071 20:0.3692427211823601 21:0.12584199315812628 22:1.4911406273368666 23:0.23525080766333595 24:-0.11848078812411522 25:1.0335591717323531 26:0.9733967572363107 27:0.49515050133756344 28:0.9599139855133554 29:2.9690951798974954 30:1.038756383876966 
1.1 1:-0.07393142942795805 2:-0.5538839004594767 3:-0.03931316370162552 4:-0.21419342477999703 5:0.44699483319661937 6:0.9103967564452773 7:0.13346106093070653 8:0.18835415120403276 9:1.0814666126437489 10:0.9083747423450426 11:-0.5349166188071613 12:-0.04239640099383779 13:-0.45935844928928815 14:-0.38531575739696977 15:-0.360062526221274 16:0.499722157236137 17:0.23957042492234848 18:0.414843829406059 19:-0.13741224023256438 20:0.2906577821031202 21:-0.10433767456263343 22:0.20158730424759774 23:-0.08140637152172925 24:-0.22625643721072275 25:0.5996943531390766 26:1.1720893967573924 27:0.924020172501576 28:0.7797180168559901 29:1.190471198257737 30:1.2219123474967466 
1.1 1:1.6119324137689093 2:0.5257461270268928 3:1.5558545189517394 4:1.6359232492572628 5:-0.17737906122665592 6:0.5073808179169859 7:0.48897241427227134 8:0.9882570251556424 9:1.0375418591531407 10:-0.9892832220475363 11:1.9973390283380381 12:-0.05688969757275952 13:1.807115535092782 14:1.8608104646674306 15:-0.07922877599712752 16:0.34941454224350865 17:0.08625283019553831 18:0.8635363746702132 19:-0.18823417703104184 20:0.09608449544057907 21:1.9652056442240182 22:0.4800135899145985 23:1.8872453368080637 24:1.9907168411410827 25:0.1307697512251318 26:0.44695709496823577 27:0.4340894607121941 28:1.0332140405604189 29:0.2800238219156306 30:-0.07405484963109199 
1.1 1:1.5353022390781428 2:3.0697555438468243 3:1.485854904586466 4:1.6160325769822501 5:-0.8629800422182345 6:0.17121586445262893 7:0.32880944203254536 8:0.45636952010656295 9:-1.400281959575583 10:-1.3702362815660463 11:1.2144771608872829 12:0.187684682196537 13:0.928695117342595 14:1.5405977990501483 15:-0.5001466599231295 16:0.056063249042282326 17:-0.17269826932144983 18:-0.16343501051922305 19:-0.8719102315819907 20:-0.5798215430823076 21:2.4151965261646025 22:3.210545058122559 23:2.1829911928393977 24:2.814883569450436 25:0.37180576155472966 26:0.997674314476829 27:0.6158301958018766 28:0.7354325669317225 29:-0.3003863805024629 30:-0.4553522648031798 
1.1 1:0.8314398937703595 2:-0.05254382290101223 3:0.8846817459199947 4:0.6840125046673657 5:1.265729130330902 6:1.015448304402889 7:1.2935706527679023 8:1.560282097528289 9:1.1729765157491814 10:0.06828795810832844 11:-0.3914583589688925 12:-0.9754023682618942 13:-0.3498669524592366 14:-0.18015881508079357 15:-0.5024758497946566 16:-0.2993108890072038 17:-0.04322271956295576 18:0.33223256655959044 19:-1.0594673792906584 20:-0.5495965665133693 21:0.6919595543091841 22:-0.13057036988145576 23:0.7879072052976479 24:0.5466640265819593 25:1.664635271504391 26:0.8935363715767122 27:1.1076840899731601 28:2.137296119706818 29:0.3434299784823125 30:0.37328971605843186 
1.1 1:2.579743138567112 2:1.7872576710228438 3:2.5358491200655795 4:2.886194077972352 5:-0.08767425997542144 6:1.225551400318112 7:1.3440156833945882 8:1.9409416069840564 9:0.36036857617293805 10:0.045544491868415804 11:2.369388606251932 12:-0.45998450867400686 13:2.1853588877784156 14:2.554236512969684 15:-0.20433954623916462 16:0.17843264563479355 17:0.4342804588302631 18:0.8700156894032698 19:-0.5597183341056284 20:-0.2787052140142581 21:3.060114333922768 22:1.435781014982025 23:2.953722817648331 24:3.637289257742034 25:0.6917262843558332 26:1.0162019239498559 27:1.4932821575443909 28:2.213650343714175 29:0.33367518516436157 30:0.16016277657359623 
1.1 1:1.8049269278049156 2:0.5024279838846386 3:1.6711480014357223 4:1.851879119671687 5:-0.9092563285779987 6:-0.3926244438580426 7:0.025130357659899794 8:0.29711401104853774 9:-1.2575265107311084 10:-1.5635557446052903 11:1.026822164432174 12:-0.3195806980657072 13:1.138719715807512 14:0.9575899113055785 15:0.3050875528048742 16:0.3292990249954242 17:0.3548069756025427 18:0.7971233986563855 19:-0.8610198165537455 20:0.05376952824406511 21:1.6520783484957775 22:0.07784228839559759 23:1.6303347952050857 24:1.53460747654253 25:-0.41703936316031776 26:-0.14337087582751828 27:0.21340428238900833 28:0.46055736050523355 29:-1.0726408515069283 30:-0.7001152343677952 
1.1 1:0.9478042331155985 2:4.657721091834334 3:0.8846817459199947 4:0.7567555347016981 5:0.12804442874778577 6:0.49210059275951523 7:0.6718356502940057 8:1.019331270825501 9:-0.0056710362487910615 10:-0.44201856564967734 11:0.4805215183813929 12:-0.6545570152460249 13:0.0726706875803722 14:0.19570460345756147 15:-0.7260780774612754 16:0.13484902493061135 17:-0.1932289191552775 18:0.31603427972694953 19:-1.0001751196924344 20:-0.3897820029051071 21:1.297477238763797 22:3.122620967911927 23:1.0179317599886857 24:0.9323317904703103 25:0.18335942620613466 26:0.7663986376066307 27:0.2533103168134623 28:1.408876822676621 29:-0.07277453641693654 30:0.059704505618505266 
1.1 1:1.4984062290418478 2:0.9781181039866231 3:1.5311487727051736 4:1.4228089034535545 5:0.4541142618673515 6:0.9887079103773153 7:1.468867134195634 8:1.038752674369162 9:0.6129359087439337 10:-0.3936886998898661 11:0.4359625134316276 12:1.0590941390041784 13:0.58777841130357 14:0.4476788458501956 15:1.1871850312932768 16:0.3957919847877023 17:0.24155726200304128 18:0.615702586130807 19:0.1614691499870542 20:0.05981452355785288 21:1.1191398385477118 22:0.7877479056518109 23:1.1284630395155486 24:0.9481811506301059 25:0.6128417718843284 26:0.276375311199333 27:0.3576429610316132 28:0.642280413642746 29:0.03615398896685118 30:-0.42982143351072555 
1.1 1:1.5920653314416748 2:0.12001043635167008 3:1.5970307626960185 4:1.5677266586000758 5:0.703294265343005 6:1.5445261004803148 7:1.932961415961139 8:1.2598977227196557 9:-0.28386114168930554 10:0.5970735481862608 11:1.311927342444087 12:-0.7924244989530134 13:0.6265981238160432 14:1.1631885262639856 15:0.47911131034898347 16:1.404361669031919 17:1.1968947583029284 18:1.283072003635614 19:-0.7085540061583127 20:1.310372929097682 21:1.8718895627156025 22:-0.01659469738619279 23:1.5735754895021032 24:1.8568777997917005 25:1.6953125819099766 26:2.184719086921105 27:2.7765256018681006 28:2.0823210784215185 29:-0.24185762059475646 30:2.5428553578454656 
0.9819840777439505 1:0.9023937592247737 2:-0.5189066857460953 3:0.8682112484222833 4:0.7783511217431407 5:0.318845117123427 6:0.0012233595757664695 7:0.4814056596782683 8:0.9007312331855406 9:0.008970548248077748 10:-0.9437962895677137 11:-0.34291440235695303 12:-0.6532888517953694 13:-0.32995940758104525 14:-0.14372082209675796 15:-0.7603504427137482 16:-0.5814868948483836 17:-0.2826365877864627 18:0.13461346720137057 19:-0.7968873724985239 20:-0.5397734491284643 21:0.745875512514047 22:-0.09800589202566634 23:0.7102365764409342 24:0.6047783471678752 25:0.40686554487539883 26:-0.08331586581149986 27:0.3191793133935852 28:1.089716166325864 29:0.39057814618574405 30:-0.1528674157947556 
1.1 1:1.5125970021327309 2:0.0057515349546237715 3:1.4240905389700487 4:1.46259024800358 5:0.5110696912332156 6:0.2819974968442922 7:0.6239128711986546 8:0.9623618204307602 9:-0.12646410834796118 10:-0.8954664238079033 11:0.695346639805871 12:-1.0565648291038536 13:0.4683331420344228 14:0.6815445099113694 15:-0.796286515017312 16:-0.4155338775516897 17:-0.1445514106782989 18:0.14271261061769125 19:-0.8319787098117584 20:-0.4687447541914589 21:1.9589845721234571 22:-0.18267353445071954 23:1.6721574415125473 24:1.9255583604841469 25:0.7618458509971697 26:0.3996797466577533 27:0.7706463775449393 28:1.3065621625067612 29:0.7823956777901131 30:0.3116827101135966 
1.1 1:1.5409785483144969 2:2.20698424758342 3:1.7164418695544281 4:1.570568183210792 5:-0.26494803387667076 6:1.9532721234426578 7:1.1346688062938437 8:1.7001162030426524 9:0.3018022381854619 10:-0.06390843941115598 11:1.589062617131652 12:-0.03333809063201221 13:2.1410646004244405 14:1.4633050866597692 15:-0.22829692777487365 16:1.2412024735752367 17:0.22433800730370224 18:0.5509094388002429 19:-0.141042378575313 20:0.552103829424438 21:1.8241946766113006 22:1.722348420112974 23:2.1351938827737276 24:1.8445505196674155 25:-0.18476829866088806 26:1.784778275537834 27:0.7389138682435659 28:1.2179912626582257 29:-0.12967749743831813 30:0.922202588846198 
1.1 1:0.34043914482581794 2:-0.47460221377581213 3:0.4646840597283486 4:0.16770748290024828 5:2.646898292453086 6:2.3753883434177867 7:1.97205631469682 8:1.9538892093464972 9:2.1503022809152013 10:1.874972057541262 11:0.9246624945473461 12:-0.28697078076313454 13:0.5997229382304847 14:0.4266993953442356 15:1.034123982592912 16:1.1423011804388237 17:0.5952142623663963 18:1.5357652782248132 19:-0.20396477651628508 20:1.8396878312612168 21:0.30625308407439755 22:-0.49366429797351064 23:0.3786427378603463 24:0.08844141396210059 25:1.9363485922395745 26:1.2570608470992055 27:0.8244954842381789 28:1.6577915929406084 29:0.5856740125447653 30:1.9545362019758672 
1.1 1:0.43693640184381977 2:0.9081636745598614 3:0.7529177659383013 4:0.3387672644653583 5:1.0379074128674501 6:3.96071170350538 7:2.8901558721024934 8:2.303474473132406 9:2.5053607049642794 10:2.5970771106584376 11:3.2170965052962472 12:2.2402978101862616 13:3.6152182986544994 14:2.172189677440098 15:1.7694824991750973 16:1.9284826462181104 17:1.6710865415616585 18:2.9887516071127074 19:0.3441861132387234 20:0.8505754730427055 21:0.745875512514047 22:0.9684807577514434 23:1.0926150569662956 24:0.6118225072388952 25:0.7925231614027552 26:1.6844736311493778 27:1.6668493675109926 28:2.013602276814898 29:0.6165641913849438 30:0.9999051188667103 
1.1 1:0.4000403918075248 2:3.323923304097395 3:0.4852721816004886 4:0.2574996605988775 5:0.7104136940137371 6:1.143420190096707 7:1.0930516560268284 8:0.9126430273589863 9:1.0265606707804897 10:0.5302646161065212 11:-0.58708325874835 12:0.1097832130848353 13:-0.47428910794793167 14:-0.3780281588001627 15:-0.5646984935054566 16:0.006891984658076611 17:-0.0981918787954622 18:-0.2541454167820125 19:-1.280058785918336 20:-0.16309467863806848 21:0.46385357728861143 22:3.883001525844615 23:0.5728193100021319 24:0.27546386384768473 25:2.4534803962194394 26:1.9349158005778797 27:1.4370290728737751 28:1.3294684297089685 29:0.9986269296713646 30:2.026688551280629 
1.1 1:1.7566782992959142 2:1.8082439998508724 3:1.6876184989334337 4:1.8007316766787973 5:0.2618896877575647 6:0.09099468237590735 7:0.8004704783920533 8:1.1545042394893854 9:0.012630944372296504 10:-1.0020764218074865 11:-0.02266919605132256 12:-0.3340739946446285 13:-0.13387009053086163 14:0.2694639347100941 15:-0.665186399391348 16:-0.5395795672482083 17:-0.35383158317796204 18:-0.5837805538262559 19:-0.9324125372944643 20:-0.7173451864709778 21:1.674888946197834 22:2.1929051251291334 23:1.6482587864797122 24:1.7001452382115032 25:0.87140767387426 26:0.26168100023796637 27:0.516305507538479 28:0.8453826495023182 29:0.41171353170796987 30:-0.21613947595431515 
1.0994708382651404 1:0.9165845323156558 2:0.8755182741607044 3:0.7858587609337251 4:0.7922745923356493 5:-0.6906898683864977 6:-0.7857082360339782 7:-0.7505881008019542 8:-0.5276482594389585 9:-0.9024680866820303 10:-1.378765081406013 11:-0.011801146063574963 12:0.18043803390707636 13:-0.13884697675040947 14:0.09434073206560789 15:-0.437924016212329 16:-0.8033163489453109 17:-0.6422540993918965 18:-0.6670397481460304 19:-0.776316588556283 20:-0.8359782195040614 21:0.745875512514047 22:0.9408009515740225 23:0.6295786157051149 24:0.5977341870968551 25:-0.3644496881793149 26:-0.6704494211808699 27:-0.7227047420014989 28:-0.48852564390622755 29:-0.724719889833338 30:-1.0397862941717513 
1.1 1:0.8995556046065962 2:0.6586595429377402 3:0.9258579896642738 4:0.8340450041131762 5:-0.4507651221827995 6:0.4443498891424189 7:0.10773409531109701 8:0.6816578012130374 9:1.0887874048921828 10:-1.155594818926886 11:1.5608056871635079 12:0.7529232487744664 13:1.6374037150062017 14:1.1218921342154116 15:-0.10817727868610971 16:1.920659945066078 17:0.4809711302265487 18:1.5714015092566231 19:0.8403050200810052 20:0.7735017827919126 21:0.857854810324147 22:0.2520622449240717 23:0.9193498079782416 24:0.7333342684639923 25:-0.828991817178176 26:0.21184811958637706 27:-0.20007992971979305 28:0.5873053723574475 29:0.2751464252566542 30:-0.5019737828154867 
1.1 1:0.42274562875293764 2:0.017410606525751327 3:0.33292007974665694 4:0.29642854776568806 5:-1.2759069051207428 6:-0.9144441329856694 7:-0.584371724887026 8:-0.5250587389664704 9:-0.9646948207937243 10:-1.185445618366769 11:-0.6309177270322655 12:-0.3960328375195168 13:-0.6579362094492457 14:-0.39657840977385356 15:-1.4028741058450596 16:-0.9125547828897677 17:-0.6207300310177223 18:-1.071510970357075 19:-1.2579149420275708 20:-0.9240084637610946 21:0.3435795166777642 22:0.973365429429812 23:0.2621367945752757 24:0.1937516070238514 25:-1.0481154629323557 26:-0.46536795080702054 27:-0.2183501623478563 28:-0.43767373071732707 29:-0.3491603470922193 30:-0.8655106196971722 
1.0491773763838195 1:0.871174058424832 2:0.6446686570523887 3:0.8105645071802918 4:0.7786352742042122 5:0.06681734217948154 6:-0.2690456228969975 7:0.027526496614666884 8:0.4278847949091924 9:0.20663193895581244 10:-0.9907046886875301 11:0.0592034471897096 12:-0.8679708073706407 13:-0.01840633023735272 14:0.11664520049826 15:-0.8481941750113489 16:-0.7474399121450773 17:-0.3766802096059316 18:-0.3100295063546237 19:-1.0993989010608907 20:-0.8371116561253965 21:1.1046240036464017 22:0.5923610385170726 23:0.9970204368349553 24:0.9816409109674511 25:1.0291766988172686 26:0.0201831940033399 27:0.5648658626814893 28:1.2836558953045534 29:0.5173904593191079 30:-0.4542422286600294 
1.1 1:1.8758807932593289 2:2.7549606114263927 3:1.802911981417414 4:2.1729714006826075 5:-0.11615197465835347 6:0.1960462303335191 7:0.6087793620106488 8:0.976604183029445 9:-0.1520868812174827 10:-0.8570868245280536 11:2.7823745057863416 12:0.7239366556166242 13:2.4351985759997152 14:3.523707962666146 15:-0.828895173218694 16:-0.595456004048442 17:-0.3452219558282924 18:-0.40640931300883754 19:-0.8295586175832597 20:-0.5635756181765034 21:3.3670205575504477 22:3.495484239360718 23:3.1927093679766823 24:4.496676786406489 25:0.34112845114914503 26:0.06937719156965283 27:0.3499502315040077 28:0.7873534392567259 29:-0.048387553122058335 30:-0.09459051827936982 
1.1 1:2.165372564313336 2:0.3928327111160437 3:2.2805564088510497 4:2.3775611726541674 5:-0.16456408961933633 6:1.7584492526849054 7:1.6529914959830356 8:1.5551030565833122 9:-0.32778589517991286 10:-0.1179241717309445 11:2.7642610891400965 12:0.24384620643985722 13:2.9916144553451605 14:2.5763201450812208 15:-0.4509009312108381 16:1.3501615253356927 17:1.040928047468527 18:0.6189422434973355 19:-0.15556293194630655 20:0.3110596412871538 21:2.4753335564700274 22:0.4051152908462825 23:2.6520022978587874 24:2.651106847799219 25:-0.2242105548966391 26:1.398892892030653 27:1.4870318148032113 28:1.06528281464351 29:-0.10529051414343993 30:0.2606210475286881 
1.092200560860049 1:1.0811975001698952 2:1.2066359067807149 3:0.9587989846596967 4:0.9792469117207694 5:-0.5532848950413527 6:-0.6449391617707787 7:-0.3964639858026232 8:-0.03382670533545595 9:-0.9976383859116806 10:-1.0902073534871404 11:0.062463862186033836 12:0.39059083430143504 13:-0.045281515822910734 14:0.12525781702175942 15:-0.5317570938938565 16:-0.7681141937611637 17:-0.517745642335135 18:-0.5291923272002559 19:-0.7666362196422871 20:-0.3928045005620009 21:0.9677604174340599 22:1.4650890450522356 23:0.8357045153633176 24:0.777360268907868 25:-0.035764219548044984 26:-0.46600683389229713 27:-0.3048933695334195 28:-0.011311743860239698 29:-0.6401783477444276 30:-0.244445397604645 
1.1 1:1.3309551065694318 2:0.15731946537927577 3:1.1935035740020865 4:1.2722080990856006 5:-0.504872780080369 6:-0.8632553787081423 7:-0.10375669559128164 8:0.25076159459099867 9:-0.9537136324210724 10:-1.8208412064442845 11:-0.27408341910121803 12:-0.7054647194794861 13:-0.24535234184873267 14:-0.07504072622987878 15:0.1759838856402185 16:-0.7988462340012922 17:-0.18627498937285203 18:0.46019903253745365 19:-0.14830265526080932 20:-0.7989526232071117 21:0.7686861102161044 22:-0.22663557955603597 23:0.6534772707379504 24:0.6294329074164458 25:-0.35130226943406395 26:-0.8787253069811036 27:-0.2423899421216238 28:0.22996760400301186 29:-0.5377530179059411 30:-1.4715903538571724 
1.1 1:1.4302905182056111 2:1.7009805413965031 3:1.4117376658467649 4:1.3745029850713806 5:0.4042782611722222 6:0.7881549551855118 7:1.3074430361902407 8:1.2402173671287455 9:0.3347458033034183 10:-0.08096603909108957 11:0.8409785096416893 12:-0.39204718096031366 13:0.7291219799387276 14:0.6517316065607951 15:0.1164231732111638 16:-0.0528958027181734 17:0.2657304464848065 18:0.18482815638255778 19:-0.7472754818142957 20:-0.13022501661934816 21:1.5483938134864257 22:1.662104136079762 23:1.5735754895021032 24:1.4888204360808996 25:2.0108506317959947 26:0.8341202446459706 27:1.461549648243018 28:1.1126224335280719 29:0.5856740125447653 30:0.7390466252264165 
1.1 1:0.6015493696980592 2:-0.1248300666419988 3:0.6952710246963107 4:0.42855944216398756 5:0.7317719800259352 6:1.4547547776801737 7:1.3414934318632534 8:1.081738714212467 9:0.23957550407376882 10:0.5785944818663307 11:-0.42261343560043585 12:-0.5436832964172773 13:-0.19508579103129975 14:-0.2660641439946715 15:-0.8249022762960758 16:0.5237490250602377 17:0.22731826292474167 18:0.048762546988373234 19:-0.8041476491840207 20:0.10968573489660138 21:0.4762957214897341 22:-0.09800589202566634 23:0.5907433012767589 24:0.2684197037766647 25:0.18335942620613466 26:1.3867541134103942 27:1.1115304547369627 28:0.8988306063074687 29:-0.20771584398192644 30:1.2441130703597505 
1.1 1:-0.6699438992450331 2:-0.2717343684382003 3:-0.696486013860317 4:-0.6341707622438382 5:0.23910751601121927 6:-0.8575252942740907 7:-0.7765672915746973 8:-0.3520787714042577 9:-0.7011462998500786 10:0.014272225788538151 11:0.8732203912720073 12:1.6080277469308215 13:0.6380449621210027 14:0.1981338029898304 15:-0.4811803995406927 16:-0.859751550113547 17:-0.6336444720422268 18:0.40998434335626643 19:-0.5778690258193704 20:-0.39015981511221876 21:-0.5999497519073329 22:-0.3748039537998782 23:-0.6579614241888767 24:-0.5723008006995859 25:-0.815844398432926 26:-1.1103843137024678 27:-1.0107013036912338 28:-0.6526872255220477 29:-1.4953485619514781 30:-0.8177790655417145 
1.1 1:1.6942388976960299 2:1.0620634192987382 3:1.7617357376731348 4:1.6842291676394363 5:0.8314439814161965 6:1.5235157908887922 7:1.7639705633617435 8:2.0522909873010495 9:1.6049032584068224 10:1.6944457942619682 11:2.420106172861421 12:0.9522060767346341 13:2.4625714502072285 14:2.002145710181266 15:0.3067512598559645 16:1.2227632494311598 17:1.478032205220988 18:1.226377999721371 19:0.8269945128242604 20:0.8075048814319685 21:1.5400990506856784 22:0.6086432774449673 23:1.5437021707110588 24:1.4395113155837584 25:0.10447491373462992 26:0.5466228562714153 27:1.06633566876228 28:1.1905037420155768 29:0.6442027724524735 30:0.599737089261069 
0.5810040550471155 1:1.1635039840970158 2:-0.10151192349974458 3:1.1029158377646722 4:1.0590937532818923 5:0.08105619952094845 6:0.14638549857173921 7:0.30989255554753825 8:0.7963735581442655 9:-0.01299182849722591 10:-0.8713014909279977 11:5.159772558722686E-4 12:-1.2085632769752903 13:-0.15377763540905276 14:0.19349624024640788 15:-0.7390549924597847 16:-0.49431965344001894 17:-0.25746998476435135 18:-0.05814614610705693 19:-0.9408828600942105 20:-0.5061481626955202 21:1.1585399618512655 22:-0.11265990706077211 23:1.0089697643513733 24:1.067931871837448 25:0.4857500573469036 26:0.14540427871759087 27:0.5475572212443767 28:0.9660223234339445 29:-0.13943229075626906 30:-0.10569087971087221 
1.1 1:1.765192763150444 2:0.5140870554557662 3:1.81114723016627 4:1.7325350860216107 5:1.4721925617821565 6:1.5941868322420947 7:2.1196080292798753 8:2.6323435731384097 9:2.776230018156359 10:0.5586939489064093 11:0.6022436782441665 12:-0.35219061536828034 13:0.5753361957547003 14:0.6387022636149883 15:-0.5181146960749108 16:-0.06295356134221564 17:0.0014811147526367918 18:0.30793513631062885 19:0.8657159884802437 20:-0.16838404953763275 21:1.8760369441159765 22:1.0043016833928116 23:1.9111439918408988 24:1.8656829998804751 25:1.1781807779301126 26:1.2500331331611605 27:1.264423454098124 28:2.354142115887714 29:4.325011451092704 30:1.0276560224454654 
1.1 1:0.610063833552589 2:0.3275419103177324 3:0.6170361615821811 4:0.452996553816146 5:1.4650731331114244 6:0.5322111837978756 7:0.7487643219997004 8:0.9356897595641316 9:0.5031240250174145 10:5.7559388595862515E-5 11:0.12151360045279613 12:0.02644675775603833 13:0.20605123826425342 14:0.09434073206560789 15:-0.11483210689047318 16:-0.25740356140702847 17:0.02068720653266931 18:0.3451911960257028 19:-0.6250608242750997 20:-0.3784476366917553 21:0.6276751426033873 22:0.7633245472599688 23:0.6773759257707863 24:0.426913305374617 25:1.1694158320999444 26:0.26295876640852045 27:0.4244735488026872 28:0.671295018765542 29:0.33367518516436157 30:-0.10458084356772179 
1.1 1:0.5419481227163523 2:-0.8850015330794858 3:0.5717422934634744 4:0.39474529929646573 5:-0.10048923158274103 6:0.6315326473214358 7:0.4032158622069062 8:0.5609861471950868 9:-0.10450173160265841 10:-0.4278038992497315 11:-0.24220380580382495 12:-0.8511223500976446 13:-0.11296716840876098 14:-0.1516709296569112 15:-0.40032423685767426 16:0.39188063421168606 17:0.17532935931327476 18:0.45371971780439746 19:-0.7085540061583127 20:-0.25301398393066044 21:0.5198432261936619 22:-0.6043835226831953 23:0.5130726724200443 24:0.33710026446911057 25:0.49013253026198633 26:1.241088769967286 27:1.077874763053688 28:1.279074641864112 29:0.19710807871304592 30:0.40825585456766245 
1.1 1:1.3196024880967254 2:0.49543254094196243 3:1.2758560614906447 4:1.2437928529784394 5:-0.36746780673522395 6:0.6907435198066352 7:0.221613751950839 8:0.3147227502614578 9:0.5214260056385012 10:-0.27570696877032574 11:0.8630768779501097 12:0.566322055320855 13:0.7530110337925571 14:1.0624871638353781 15:0.16833083320520048 16:0.7561950021492092 17:0.24122612248959285 18:1.0319985577296793 19:0.13968831993056385 20:0.24720937828527134 21:1.7184364509017618 22:1.4129858804829718 23:1.6124108039304592 24:1.751215398726399 25:0.7662283239122534 26:1.464058966728886 27:0.9230585813106253 28:1.3813893020339723 29:1.270135343687672 30:0.8222993359626809 
1.1 1:2.6648877771124093 2:1.1576678061819807 3:2.6017311100564253 4:3.104991472997493 5:0.7531302660381343 6:0.4634501705892575 7:1.7954987075034219 8:2.388928648724517 9:-0.04959578973939838 10:-1.0958932200471194 11:2.1918771231187204 12:-0.5306393294962481 13:1.7946733195439126 14:2.7375306594954387 15:-0.24959237802883738 16:-0.31998517062329035 17:0.13128780402457974 18:0.19778678584867015 19:-0.6940334527873193 20:-0.2541474205519956 21:2.9896088501164098 22:0.8203123835076012 23:2.8461788700005726 24:3.5703697370673435 25:0.8407303634686745 26:0.09109921646906383 27:1.012005766473565 28:1.4439997657200057 29:-0.4954822468614859 30:-0.3609991926354139 
1.1 1:1.577874558350791 2:0.5537278987975975 3:1.5640897677005974 4:1.5336283632714829 5:0.1173652857416867 6:0.5704117466915524 7:1.234297741781547 8:1.5939458636706356 9:0.9936171056625334 10:-0.7988066922882808 11:0.7920722846968251 12:1.9323152578841838 13:1.153152685844201 14:0.6077851786588367 15:-0.7606831841239665 16:0.4606086514759735 17:0.38394725278604014 18:1.0158002708970384 19:2.061241549358717 20:-0.18991934534300126 21:1.347245815568285 22:1.460204373373866 23:1.5078541881618057 24:1.164789072813974 25:-0.4608640923111542 26:0.58942802298496 27:0.9711381408581603 28:1.6974957894244345 29:1.8651777360826918 30:-0.2610959397518977 
1.1 1:0.4624797934074083 2:-0.01989842250185614 3:0.6252714103310364 4:0.29642854776568806 5:1.9919108547456599 6:2.5281905949924948 7:2.5597409214977045 8:1.9538892093464972 9:2.0661131700582027 10:1.8849223240212236 11:0.42183404844755557 12:0.1931196684136327 13:0.30907278300889285 14:0.24473026674517306 15:0.7609432848037847 16:2.243625749771428 17:2.2409776442071014 18:1.788458552814012 19:4.223593955522514 20:1.337197595802615 21:0.22952652816747765 22:-0.24780249016229838 23:0.3666934103439292 24:0.06466737372240794 25:0.9941169154966012 26:1.6039743624045029 27:1.9990791239844594 28:1.5142456518067753 29:2.1903375133477283 30:1.1719607210549885 
1.1 1:0.27232343398958037 2:1.500444510373117 3:0.25056759225809877 4:0.17708451411561166 5:0.43275597585515424 6:-0.12120944449846793 7:0.44231076094258737 8:0.4346175481376622 9:-0.5986552083719934 10:0.26587182106755414 11:0.9036509312377008 12:0.5228421655840916 13:0.6559617525113755 14:0.5130463969003441 15:1.1572383043736405 16:-0.06295356134221564 17:0.5717033569115291 18:0.918610549901193 19:0.08160610644658917 20:0.4066461296864219 21:0.4680009586889864 22:1.2257401328121809 23:0.4204653841678079 24:0.3018794641140101 25:1.4761889361557978 26:-0.11462113699006271 27:0.6321772460480384 28:0.5842512033971536 29:-0.3963085147956491 30:0.5825315290422415 
1.1 1:1.7935743093322092 2:0.5770460419398518 3:1.7246771183032843 4:1.8149392997323774 5:-0.3432617492547321 6:0.17312589259731292 7:0.12059757812090166 8:0.75364647034821 9:-0.7048066959742956 10:-1.0233984214074026 11:0.6308628765452349 12:-0.5445891274534598 13:0.6778600518773854 14:0.7133449401519824 15:-0.2775426564871646 16:-0.35630485454344196 17:-0.2683975887081629 18:0.45695937517092555 19:-0.7351750206718013 20:-0.7120558155714135 21:1.6707415647974608 22:0.11040676625138701 23:1.615398135809564 24:1.5874386770751807 25:0.01682545543295877 26:-0.10184347528452697 27:-0.005838509147751525 28:0.9492243941523253 29:-0.46946946468028283 30:-0.9176823184252316 
1.1 1:1.7254585984959716 2:1.7546122706236877 3:1.7205594939288558 4:1.6472893477001276 5:0.19425511538560158 6:1.200721034437222 7:0.9543278218034437 8:2.0134481802137265 9:0.23591510794955184 10:-0.3652593670899762 11:2.0726908415864216 12:1.2221437255170424 13:2.1261339417657967 14:1.4014709167474666 15:0.464803429709602 16:1.1903549160870242 17:0.9001937542527725 18:2.198275209679829 19:2.005579428103242 20:0.18713723735450594 21:1.6458572763952164 22:1.321805342486761 23:1.579550153260311 24:1.3954853151398827 25:-0.19791571740613811 26:0.5625949334033349 27:0.475437881923074 28:1.540206087969277 29:0.6068093980669929 30:-0.41983110822237446 
1.1 1:2.1540199458406297 2:-0.4792658424042626 3:2.0170284488876646 4:2.5338450262435543 5:-0.1766671183595827 6:-0.3517498415618081 7:0.3578153346428894 8:0.9297338624774087 9:-0.34242747967678344 10:-1.738396141324606 11:2.9091684223100645 12:-0.3014640773420558 13:2.427235558048439 14:4.062548586187642 15:-0.4904971590268019 16:-0.799963762737297 17:-0.36078551296038763 18:0.029324602789204235 19:-0.9554034134652041 20:-0.7509704729039218 21:3.006198375717906 22:0.12180433350091313 23:2.7595462455065456 24:3.987736221275285 25:0.17459448037596825 26:-0.5797280230715658 27:0.0706079905328294 28:1.0332140405604189 29:-0.6304235544264767 30:-1.0514416736748284 
1.1 1:2.239164584385927 2:0.6050278137105556 3:2.276438784476621 4:2.351987451157723 5:0.7104136940137371 6:1.7450790556721183 7:1.97205631469682 8:2.6245750117209456 9:0.04923490561446897 10:-0.19468337029064386 11:2.188254439789472 12:-0.9375386309494627 13:2.3416331150722165 14:1.988895530914343 15:-1.019556001273713 16:0.1549645421786956 17:0.12930096694388693 18:0.47315766200356646 19:-0.64684165433159 20:0.0020092558697579754 21:2.3654279493601145 22:0.017598004362387343 23:2.6251163109468476 24:2.374623565011679 25:-0.12779615076480066 26:0.8622311003981493 27:0.9817156439586181 28:1.9677897424104824 29:-0.2548640116853571 30:0.10299591520136264 
1.1 1:0.6327690704980027 2:0.929150003387889 3:0.7035062734451669 4:0.5288652609222657 5:0.07820842805265649 6:0.8721961935516009 7:1.1687192019668564 8:1.0094910930300456 9:1.334033945214741 10:-0.08380897237107732 11:0.09869069547852605 12:-0.3540022774406453 13:0.05774002892172869 14:0.11841189106718286 15:-0.46820348454218363 16:0.7673702895092562 17:0.9558251925121768 18:0.7728259684074239 19:1.384825771493265 20:0.11119698372504794 21:0.6484120496052563 22:0.8691591002912853 23:0.6624392663752645 24:0.5043990661558382 25:0.4024830719603134 26:1.360559906914046 27:2.1024501770116597 28:1.6868061980634044 29:3.131675068530015 30:0.6802147096394577 
1.1 1:2.057522688822628 2:-0.980605919962728 3:2.033498946385376 4:2.0792010885289764 5:0.26900911642829595 6:0.9065767001559097 7:1.3213154196125796 8:1.9875529754888444 9:0.594633928122847 10:-0.13356030477088154 11:-0.22662626748805326 12:0.1659447373281555 13:-0.22345404248272227 14:-0.02380669973111349 15:-0.8704878494959667 16:0.07338494445035448 17:0.08327257457449888 18:0.2658195905457623 19:-0.4568644143944236 20:0.2177400261305562 21:1.3348036713671627 22:-0.627178657182248 23:1.3435509348110641 24:1.155983872725199 25:-0.5748083881033272 26:0.19459827628390358 27:0.6297732680706616 28:1.256168374661905 29:-0.2727477994349341 30:0.15405757778627027 
1.1 1:1.8503374016957403 2:-0.4559476992620084 3:1.7658533620475634 4:1.9342833333824547 5:-0.13252666060103913 6:0.06807434463970119 7:0.8105594845173902 8:1.0529950369678476 9:-0.8768453138125096 10:-1.1356942859669639 11:0.7598304030665075 12:-1.0143531028177455 13:0.6285888783038622 14:0.8144879752228203 15:-0.27654443225651004 16:-0.36245126259146754 17:-0.16706889759281962 18:0.08601860670344763 19:-0.9396728139799608 20:-0.7857291959582011 21:1.8905527790172858 22:-0.4106248794412468 23:1.7826887210394102 24:1.8797713200225161 25:1.046706590477604 26:0.3319581396184135 27:0.6946806734598339 28:1.4791227087633902 29:-0.3394055537742684 30:-0.7400765355212018 
1.1 1:-0.862938413281038 2:-0.11083918075664734 3:-0.7664856282255914 4:-0.8316567226886078 5:1.7996862806358713 6:2.1270846846088878 7:1.014861858555466 8:0.3864524673493812 9:1.4109022638233037 10:2.378171248099294 11:-0.6975751002904509 12:-0.34494396707881947 13:-0.5658638143876111 14:-0.5774433567673393 15:0.1207488115440003 16:1.1205093700867326 17:0.46441415455410673 18:0.25934027581270613 19:-0.3806315091967072 20:0.24343125621415385 21:-0.6248340403095769 22:1.160611177100603 23:-0.45900512104052416 24:-0.6524281215074397 25:3.7726047436596017 26:4.3722547709088335 27:2.7346963850617456 28:2.1082815145840215 29:2.042389814692137 30:3.131174513715062 
1.1 1:0.1360920123171061 2:0.929150003387889 3:0.08462732996865441 4:0.029609386819445582 5:-0.6764510110450326 6:-0.719621262227917 7:-0.05709504226159745 8:0.10264102356467286 9:-0.6718631308563392 10:-1.2238252176466187 11:0.04253910387516302 12:0.7420532763402758 13:0.02887408884835163 14:-0.15741267400591086 15:0.4225452706118924 16:-0.4479422108958251 17:0.06737787792895511 18:0.6432396737462962 19:-0.37821141696820826 20:-0.34746703570859316 21:-0.09604291176188529 22:0.9798783250009695 23:-0.14712767286202588 24:-0.21199201306690707 25:-0.04891163829329592 26:-0.609755528079575 27:-0.018819990225585892 28:0.32922809521257723 29:-0.6840749176752086 30:-0.8616254931961467 
1.1 1:1.5409785483144969 2:0.9104954888740862 3:1.5229135239563183 4:1.4767978710571605 5:0.3330839744648939 6:0.5303011556531925 7:1.2254698614218773 8:1.381605184926602 9:0.653200266110324 10:-0.5585788301292212 11:0.7489623530787595 12:2.932352721829752 13:1.2576672964547049 14:0.6616692410109862 15:1.3968121197307322 16:0.8679478757496764 17:1.418427092800198 18:3.664220168033835 19:0.8657159884802437 20:0.9253822900508282 21:0.9470235104321887 22:0.773093890616706 23:1.0418304150215207 24:0.7650329887835825 25:-0.31624248611339567 26:-0.07756591804400892 27:0.5360181269529685 28:1.0408494629611547 29:-0.5231208279290138 30:-0.4364816503696263 
1.1 1:0.3886877733348184 2:0.15498765106505097 3:0.43174306473292656 4:0.2569313556767341 5:1.4009982750748282 6:0.9963480229560508 7:1.2696092632202265 8:1.0975347890946452 9:0.43357649865728476 10:0.6638824802659986 11:0.8804657579305062 12:0.2058013029201886 13:0.9053037521107199 14:0.591222454575184 15:0.07549597975432709 16:0.2147523295549454 17:0.5915717277184593 18:0.7452888807919342 19:-0.24268625217226836 20:0.16673537817047235 21:1.0258237570392952 22:0.6053868296593894 23:1.0448177469006255 24:0.8460408296003143 25:1.5682208673725517 26:0.8801198267858994 27:1.3649097335524727 28:1.492866469084715 29:0.4702422916156772 30:0.9999051188667103 
1.1 1:1.075521190933543 2:0.39982815405871985 3:1.337620427107062 4:0.9653234411282607 5:1.8993582820261317 6:2.9331165616654706 7:2.906550507056166 8:1.839950308557016 9:1.1070893855132695 10:1.1912466037039362 11:-0.0034689744063016725 12:-0.8020263079365488 13:0.1328910108369008 14:0.030298198942151355 15:0.03889442463032733 16:0.6561761802767911 17:0.9866211672629186 18:-0.20717038496735363 19:-0.558508287991379 20:0.49429856173634357 21:0.9428761290318146 22:0.33998633513470367 23:1.2688676378334542 24:0.7491836286237874 25:2.409655667068603 26:2.160441529680587 27:3.0385592014021663 28:1.2531142057016103 29:0.5645386270225385 30:1.9933874669861247 
1.1 1:1.0982264278789549 2:0.31588283874660483 3:1.0658572183948216 4:0.9587879345236137 5:0.5181891199039477 6:0.5035607616276183 7:0.3994324849099049 8:1.0226976474397356 9:0.6641814544829749 10:-0.29560750173024886 11:0.18020107038663324 12:-0.6233964276013442 13:0.10203431627570425 14:0.21359234546790618 15:0.06285180616603636 16:0.12758508814658098 17:-0.2240248939060191 18:0.4877361201529433 19:-0.7726864502135347 20:-0.1717843594016384 21:1.0009394686370516 22:-0.04590272745640345 23:0.9253244717364493 24:0.8284304294227638 25:0.6961087572709159 26:0.7663986376066307 27:0.28215805254198334 28:1.2683850505030823 29:0.26376583305237755 30:0.06358963211953039 
1.1 1:0.2865142070804634 2:2.449492936262862 3:0.197450237827979 4:0.18532493548668816 5:-0.9341743289255628 6:-1.1075479784132063 7:-0.5242160258647038 8:-0.553025560069343 9:0.1517259970925533 10:-1.3972441477259405 11:0.2323677103278221 12:0.7420532763402758 13:0.0930759210805181 14:0.11576185521379856 15:-0.07024475792123663 16:-0.623952986816561 17:-0.23064768417499582 18:-0.4376720065958344 19:1.3291636502377902 20:-0.7709945198808437 21:0.20878962116560773 22:1.8265547492514997 23:0.08887154558722044 24:0.09302011800826393 25:-0.7676371963670059 26:-0.989507633968099 27:-0.5611574219217811 28:-0.7420216676106564 29:0.5450290403866358 30:-1.234042619223033 
1.1 1:0.3915259279529959 2:0.4138190399440713 3:0.45233118660506566 4:0.4228763929425554 5:1.1162211282455123 6:1.013538276258205 7:0.8042538556890546 8:0.9338770952333895 9:1.0045982940351843 10:0.8344584770653309 11:3.4996658049776865 12:-0.007974821618899952 13:3.268827017773973 14:3.011367697678494 15:0.3846127498470193 16:0.7517248872051905 17:0.4329559007764676 18:1.5552032224239822 19:-0.041818597206856545 20:0.7648121020283427 21:1.4343408249761396 22:0.31881942452844036 23:1.492917528766284 24:1.5310853965070204 25:0.8494953092988426 26:0.9369804213755337 27:0.719682044424552 28:1.5127185673266281 29:0.17109529653184197 30:1.160860359623487 
1.1 1:0.2212366508624024 2:0.751932115506758 3:0.41939019160964186 4:0.0872923364169822 5:0.22415671580268004 6:2.2626966828814403 7:2.3314771579119533 8:1.2523881133494403 9:0.843540864569623 10:0.8827883428251422 11:-0.5468714737936837 12:-0.6204977682855599 13:0.3035982081673907 14:-0.35219030922966477 15:-0.025657408952000083 16:2.05029327844262 17:1.5697578504463148 18:1.709086947334071 19:-0.6698325305023298 20:0.7530999236078793 21:0.020083767448588308 22:0.3057936333861244 23:0.5459333230901922 24:-0.0807945317441574 25:0.42001296362064977 26:2.9098513887102615 27:3.0313472674700366 28:2.0334543750568104 29:-0.05163915089470805 30:1.7547296962088348 
1.1 1:1.7197822892596184 2:0.054719635553357016 3:1.7246771183032843 4:1.6927537414715852 5:1.2087737009650397 6:0.8569159683941303 7:1.5748016985116733 8:1.997911057378797 9:-0.3168047068072619 10:-0.3183509679701597 11:0.10557379380409926 12:-0.39204718096031366 13:0.075656819312101 14:0.2727764795268247 15:0.6804198635309837 16:0.09573551917044787 17:0.7816458084380902 18:1.184262453956504 19:0.4821313702631631 20:0.08097200715610953 21:1.1979400851548192 22:-0.1012623398112451 23:1.161323690185697 24:1.0573656317309175 25:1.4981013007312152 26:0.25976435098213635 27:1.2471148126610119 28:1.5722748620523672 29:0.21824346423527352 30:-0.1739581025146082 
1.1 1:0.8938792953702439 2:1.4258264523179038 3:0.8435055021757156 4:0.7800560365095701 5:-0.9263429573877575 6:0.13110527341426814 7:0.4032158622069062 8:0.22305372553537484 9:-1.2575265107311084 10:-1.2366184174065689 11:0.38415814182336394 12:0.8362597041032638 13:0.21252119034966532 14:0.402849072663776 15:0.3549987643376009 16:0.9858471573981693 17:0.5816375423149942 18:0.9121312351681368 19:-0.5548781496486306 20:-0.01952603993561075 21:0.8557811196239591 22:1.5904622847970256 23:0.766995882143918 24:0.7139628282686867 25:0.49451500317707087 26:1.0136463916087486 27:1.1163384106917162 28:0.9095201976684992 29:-0.6466815432897288 30:-0.24666546989094584 
1.1 1:1.1095790463516613 2:-0.5725384149732791 3:1.0535043452715378 4:0.953957342685396 5:-0.4877861512706101 6:0.3660387352103813 7:0.259447524920853 8:0.3571908860102644 9:-0.3314462913041316 10:-0.7064113606886426 11:-0.38167711397991977 12:-1.1355532954589744 13:-0.4653307127527456 14:-0.09646184937806934 15:-0.9733049452533853 16:-0.5496373258722503 17:-0.06971388063886241 18:-0.32979141629044584 19:-0.9166819378092212 20:-0.5118153458021962 21:0.8557811196239591 22:-0.5978706271120373 23:0.7819325415394398 24:0.7280511484107273 25:-0.2636528111323919 26:0.0834326194457422 27:0.7576648964671049 28:0.597994963718478 29:-0.09065832416651354 30:-0.09070539177834469 
1.1 1:1.0301107170427182 2:2.0344299883307393 3:1.0452690965226816 4:0.9300885359553805 5:0.2597538591563442 6:0.5226610430744565 7:1.0262119904464702 8:0.8851941103506116 9:-0.35706906417365136 10:-0.5130918976493994 11:-0.05165066268531637 12:-0.2543608634605614 13:0.008468855348205517 14:0.08418226129430106 15:-0.7746583233531301 16:-0.2953995384311874 17:0.1693688480711959 18:-0.11160049265477179 19:-0.9868646124356901 20:-0.4664778809487885 21:1.0942555501454683 22:2.0919552437761855 23:1.1433996989110704 24:0.9834019509852061 25:0.34112845114914503 26:0.783648480909104 27:1.771662807324619 28:1.2622767125824936 29:0.12069553105576158 30:0.381059969060483 
1.1 1:1.9808925141318614 2:0.28323743834744874 3:1.9017349664036836 4:2.0735180393075434 5:0.03691574176240309 6:0.2571671309634016 7:0.8673101439724114 8:1.7286009282400228 9:-0.9390720479242027 10:-0.8755658908479802 11:0.9431381795265172 12:0.26015116509114344 13:0.8391111653907344 14:0.9220352636060042 15:-0.5241040414588385 16:-0.2618736763510472 17:-1.745828146071382E-4 18:0.4650585185872458 19:-1.2385542041995792 20:-0.5990899656450059 21:1.954837190723083 22:1.0384943851413908 23:1.824511367346871 24:2.0136103613718985 25:0.1965068449513856 26:0.36134676154114587 27:0.8100716163739181 28:1.7356729014281138 29:-1.0238668849171728 30:-0.5347198490384182 
1.1 1:1.5523311667872024 2:1.3278902511204365 3:1.473502031463183 4:1.5251037894393344 5:0.4897114052210174 6:-0.10172715742269256 7:0.9719835825227836 8:1.084587186732204 9:-0.5400888703845173 10:-1.2593618836464797 11:0.22983183199734714 12:0.2855144341042557 13:0.029869466092260932 14:0.3542650820183951 15:1.616421450474733 16:-0.3434532740793883 17:0.5700476593442849 18:0.5185128651349611 19:-0.49800598227890536 20:-0.7494592240754749 21:1.075592333843784 22:0.8577615330417592 23:0.976109113681225 24:0.9552253107011259 25:0.897702511364761 26:-0.4410903935665025 27:0.60717587508332 28:0.4926261345883238 29:-0.9832219127590429 30:-1.2751139565195904 
1.1 1:0.8399543576248885 2:1.829230328678901 3:0.7940940096825804 4:0.7860232381920742 5:0.1892715153160882 6:0.13301530155895214 7:0.15477408637048096 8:0.40302539837330587 9:-0.06423737423626807 10:0.005743425948573133 11:1.9024247251117086 12:-0.11848620803317456 13:1.590123295920498 14:1.6576410492412927 15:0.5649585941852746 16:-0.18141160735871087 17:-0.15382331705486618 18:0.4520998891211334 19:-0.009147352122120811 20:0.2366306364861428 21:1.3907933202722127 22:1.4325245671964453 23:1.3435509348110641 24:1.3549813947315175 25:1.2132405612507808 26:-0.05839942548570498 27:-0.03612863166269853 28:0.6285366533214212 29:0.18247588873611864 30:0.3727346979868562 
1.1 1:0.98753839777007 2:0.9384772606447918 3:1.115268710887956 4:0.9269628588835932 5:-0.24430169073154584 6:1.840580462906311 7:1.5785850758086748 8:1.3324042959493263 9:-0.41929579828534624 10:1.5522991302625258 11:1.9017001884458586 12:0.44856402061711975 13:1.4657011404318028 14:1.4301796384924645 15:-0.0918729495854187 16:2.5040099452605173 17:1.1276865999921215 18:1.8338137559454062 19:-0.45928450662292297 20:2.8371120580361864 21:1.1025503129462155 22:0.5174627394487574 23:1.0896277250871917 24:0.9834019509852061 25:-0.5090712943770734 26:1.4372258771472604 27:1.1783610425080362 28:1.3019809090663197 29:-0.9702155216684414 30:2.137692165595648 
1.1 1:0.6043875243162367 2:0.047724192610682614 3:0.7364472684405898 4:0.45896375549864965 5:0.44699483319661937 6:1.6285673388464035 7:1.7046976523753878 8:1.1185099049217992 9:1.2461844382335272 10:0.4279190180269232 11:-0.3233519123790074 12:-0.4197656106675003 13:0.1065135138732971 14:-0.1549834744736418 15:0.7170214186549844 16:1.6351313530168836 17:1.6204221960039864 18:1.6783102023520533 19:0.8717662190514908 20:0.9688306938686777 21:0.23574760026803876 22:-0.43016356615472073 23:0.44735137107974765 24:0.10763675015563057 25:0.23594910118713752 26:1.2308666406028572 27:1.5303034183959932 28:0.9644952389537969 29:0.6832219457242772 30:0.41491607142656317 
1.1 1:1.5097588475145542 2:-0.11317099507087214 3:1.4899725289608945 4:1.4569071987821478 5:0.8955188394527909 6:0.7786048144620923 7:1.7299201676887308 8:1.8295922266670632 9:0.0455745094902511 10:-0.23022003629050403 11:0.5866661399283946 12:0.3452992824923058 13:0.385716830789929 14:0.6095518692277596 15:-0.5836647538878932 16:0.16166971459472368 17:0.35447583608909405 18:-0.004691799559341847 19:-0.40604247759594614 20:-0.21901088529060475 21:1.5981623902909146 22:0.7649527711527586 23:1.3973229086349437 24:1.5169970763649798 25:0.8363478905535917 26:0.760009806753863 27:1.5490544466195313 28:1.3997143157957377 29:0.5986804036353677 30:0.34442877633652724 
1.1 1:0.7292663275160045 2:0.2086193802922356 3:0.6252714103310364 4:0.577739484226583 5:-1.520103308526882 6:-0.6287039225409661 7:-0.6549947677643855 8:-0.664892844480834 9:0.12976362034724964 10:-1.3531786818861136 11:-0.5675207687704042 12:-1.1766780245016637 13:-0.5379932515581435 14:-0.3795740130479702 15:-1.4557799900697508 16:-0.6133364638245166 17:-0.5836424055114529 18:-1.0515870775529268 19:-0.11079122571907618 20:-0.7898851302364303 21:0.6069382356015165 22:0.1413430202143866 23:0.602692628793176 24:0.36175482471768117 25:-1.3768009315636256 26:0.24570892310604675 27:-0.11401751812970518 28:-0.41186600300284004 29:2.892682632240211 30:-0.4248262708665491 
