encog,BasicNetwork,java,3.0.0,1,1455951216750
[BASIC]
[BASIC:PARAMS]
[BASIC:NETWORK]
beginTraining=0
connectionLimit=0
contextTargetOffset=0,0,0
contextTargetSize=0,0,0
endTraining=2
hasContext=f
inputCount=12
layerCounts=1,51,13
layerFeedCounts=1,50,12
layerContextCount=0,0,0
layerIndex=0,1,52
output=0,0,0,0,0,0,0,0,0,0,0,0,0,0,0,0,0,0,0,0,0,0,0,0,0,0,0,0,0,0,0,0,0,0,0,0,0,0,0,0,0,0,0,0,0,0,0,0,0,0,0,1,0,0,0,0,0,0,0,0,0,0,0,0,1
outputCount=1
weightIndex=0,51,701
weights=0.3036899644500736,0.20887351841963814,0.044835188909553875,-0.03464489847057085,0.1400625387574604,-0.05408197313661962,0.22506788636202377,-0.019852172531385784,0.3535117027208847,-0.1356050847836117,0.1736857098747711,-0.25055253350877427,-0.17652089567302376,0.08250796691480441,0.3456288206683763,-0.21159932700311304,0.26009202965667977,0.22433388268037824,0.33754157579899907,-0.016678692851030148,-0.3081129859614742,0.192194768440217,0.3596521013965438,0.06182531261917705,-0.04617039149710411,0.3656451090541819,0.08914990151326159,-0.02127759176022223,0.20687563096743447,0.11585775773080687,0.03020785007003814,-0.014221634666181062,-0.36779723100858674,0.046218434998816296,0.0029240621720058118,-0.21988303445985985,0.0821373092642678,0.5448249925807247,0.43601825343107853,0.14425359326444373,0.15091104531985428,-0.17909232261855715,0.09412834906504478,-0.15158757815217705,0.013192486983549958,0.14128395995854767,-0.2670803324174652,0.11323415128073167,-0.2551401802536234,-0.11035073548799643,0.22987869018505616,0.3381260183280947,-0.21344230088976754,-0.2449314950676584,0.2014709949872479,-0.23180241146801234,0.20925609666876513,-0.2418590389988065,0.38078775891018335,-0.24940220772108795,0.22150600787957606,0.5098814306577979,-0.030973918416880276,-0.10641381121600203,-0.13892197423821068,0.27553608484146186,0.3523630882199214,0.3198922036143614,0.3772147004560238,-0.03951703188052088,-0.17037085257108694,0.396553025531026,0.2704462298215674,-0.18691755772499943,0.09853377652526189,-0.4154477549777967,0.022395749893913686,0.6301543261862446,0.3349617208810474,-0.25289560506918357,-0.17606909747582386,0.25926136320179977,0.027950168333995638,-0.1707883756017454,0.14727516440890162,-0.21878915845074606,-0.1878372890551677,-0.08673004426958361,0.17262465845308067,-0.31043656794474705,-0.03715482212080875,0.30486699135119516,-0.1851112348125937,-0.2526679557920283,0.4118827325241114,-0.08167415226112465,-0.29771365520527854,0.375032324941948,-0.23582579283900063,-0.28318322828640763,0.06748992408080011,0.2767152205969281,-0.3562559801683435,-0.19310017267210167,-0.2546861526307991,0.40051071388957954,0.24937253375991827,0.246742540668151,0.28192541039896335,-0.2921631043838571,0.410500162069613,0.29462556925516636,0.04322621770517342,0.1457192878734602,-0.3490918376297855,0.10045339774507488,0.04908091260138803,0.16187571689220515,-0.542178063344196,0.04567019448548285,-0.34961735082187717,0.31205754253194634,0.0758259396036051,0.19154800122612034,0.08895935098725696,-0.4098843408627283,-0.17907491096746142,-0.22492323110116028,0.31223486962098096,-0.38277848039834955,-0.1811485219177921,0.017031289919207576,-0.2286538986104217,-0.21224440849590923,0.3333674870344274,-0.3484690028651364,0.3988307970598522,-0.012844917888404302,0.37874185334644606,0.03728035010195753,0.35805283652405756,-0.00900747308884512,-0.3689140900279882,-0.3478577451861172,-0.27267411085945453,-0.07488112272308865,0.04453861107605749,0.32992244668306897,0.38365072803571154,-0.10757459877357983,0.3797222178490245,0.006958689753222873,0.22598072202278546,0.30402397108856083,-0.216082344591915,0.24172448710872316,0.1636852526813399,0.09922866832171759,-0.1891390728820471,-0.10422034552679321,0.3856280841095476,-0.010773039163987719,0.41586749646518884,-0.15226315404898988,0.269940905152926,-0.17001051695850602,0.41136505526883144,-0.46491799695925495,-0.18983147395668973,0.18740189783387445,-0.11497118841216344,0.3365045303567753,-0.3973759110979831,-0.05086235228131566,-0.3151622075075304,-0.04496032871657786,0.3405126209534636,0.39792087730018033,0.2443410840668175,-0.38148246602047686,-0.09825509283942584,-0.4478375042883152,0.03419619016284909,0.3268091238689906,0.17594787860488081,0.031827623509497825,-0.35618795475805914,-0.1702574338153759,0.29749013579151784,-0.16105847903851842,0.17472006896683653,0.3279674354571085,-0.44623151182391657,0.05115889475829503,-0.2308970146788479,0.35768750881549327,-0.2112642781297231,-0.004162273340310413,0.2695306101622577,-0.3909180947563612,0.09140813944476968,-0.10200398728294277,0.11173959058293621,-0.36659634284363957,0.20254917975173603,-0.5314629503970285,-0.05153085256881855,-0.3185604005417836,-0.2988456019942895,0.3065808020462421,0.07440829353170998,0.35159864647327366,-0.28952443430232266,-0.15704435018074522,-0.18076490705838863,-0.2737154868895552,-0.1528066700141987,-0.3527641797595354,-0.3931755460408225,-0.09158276140330189,0.20605011977051532,-0.28675442780083665,0.21997069728232244,-0.17582319773157842,0.40366067972993264,0.10769555546398459,-0.11274179415807244,-0.24052947789406454,-0.48407088102205714,0.3900661036219813,0.29195208720676896,0.11283954700904958,0.09751410305665718,0.42725335503157746,0.4033293871387904,-0.09942491598258402,-0.22782394407792042,0.0729392827435898,0.29423613728534403,0.23854519427020904,-0.2207337404423297,0.06368038349964913,0.3966048963854679,-0.1303041062708418,-0.05267994355243563,-0.40470773427019274,0.2911470034300268,-0.3883947837704707,-0.23846324472792269,0.13098425561977325,0.17262114861779385,0.21054065121926546,-0.009670223227259321,-0.3741057664000984,0.15151344964079763,-0.23323849018316187,-0.35919920476526024,0.3370293283716115,-0.3161122601611033,0.2944807707585745,-0.14222477226276653,0.21627244864080367,0.43218922795728737,0.029586983952088166,0.07981628861238699,-0.14283496487813258,-0.10048781634251604,-0.24316258333328014,0.32692376281141494,0.2869611324319244,0.301319270435468,-0.47569831468741125,0.11162883723172437,-0.18375298439460108,0.2518258161459909,0.25467762097616103,0.1303000681651658,0.002092127231101442,0.34754809450884144,0.5027947644053455,-0.27377829868369125,-0.15419968248767166,-0.26070625546266546,-0.36296591131684147,-0.2862178242951265,0.3360394658623262,0.42945862225122144,0.1671700953840554,-0.09633585414654006,-0.2213356265157686,0.24598612555568147,-0.3151243703899607,0.17426855228306504,-0.2623146799018661,-0.09067690690322235,-0.8469552318004002,0.1598019015699645,-0.24826781455629418,0.0302126638730774,-0.01809675118942263,-0.2982663254826043,0.2302604398339757,-0.06151006989997298,-0.3667173693951753,0.39303763925756535,0.28928725120732107,0.2042085249563968,-0.10598133769514867,-0.04605126138783403,-0.38959267626782607,0.3793511973643278,0.348804023427621,-0.43849769836060637,0.26249246402964077,-0.024621268243488544,0.3492946867635706,-0.02020990632555928,-0.40788095048773876,0.08303245417366625,-0.315489426060557,-0.034306630428992055,-0.25362645452594695,0.08032596258935827,0.30710588201229366,0.32472078429397755,-0.3831974900376584,-0.009249391160012846,0.4646614238556701,0.27074571654590934,0.1287291513063676,0.013795362603151163,0.14229352788790248,0.4522122952834271,-0.10331612041537779,0.3555557814785133,0.1578801430100775,-0.048418638227428284,0.30954023009562015,0.4120037979081441,0.242417006254063,-0.3834420740445184,0.2037593530005304,0.3703951546545077,-0.07378174368682662,0.11770153284235793,0.003365270762188824,0.025557764542839912,0.32885376315041387,0.28476342008453387,0.2946598390511441,-0.4085561478177746,-0.13203668113032632,-0.42576270007899636,-0.07451864395525505,0.07640964189737288,0.4136271699031609,-0.1171234036974607,-0.3033034560039444,0.43749663665561045,-0.19028954705835163,-0.08212252910601002,-0.22868768034639492,0.008411162466188527,0.3443737198786232,-0.21668256305002853,-0.16507421198294484,0.22423005987122563,0.26715027146838355,-0.15503700466263098,-0.42813630883949755,-0.28671584025308966,0.04126635441050804,-0.38984495460797186,0.07605064455253382,0.252335731193877,-0.33661936721721764,-0.0791514091617404,0.2816978471317119,-0.13635529883105776,-0.39499529310518905,0.28802245451910224,0.33384457791742417,-0.11299343994781601,-0.04615808674543942,-0.34113324341949613,0.3767632963527866,-0.37514041596049574,-0.016488071777158646,0.2889562910065945,-0.4733135788140525,-0.4061672636891303,0.20315548073672507,-0.16609290463389417,0.023166715929170884,0.3896161653138669,-0.07570984461191049,0.42252212996702143,0.07857612727391532,-0.28634744763647413,-0.175295349079919,-0.10837983035083021,0.11825568673730832,0.39068797795494814,0.03092779015916059,0.10250516935144266,-0.2528876043040987,0.4521477576931436,0.24299267197535107,-0.38517623173405935,0.008760826633964615,0.45097772522325036,0.20894336030533606,-0.04435903419506875,0.11362585248381586,0.1955705828580648,0.13539739721963326,0.144613672573768,0.052001742654278156,-0.15303349825305254,-0.40267054768397875,-0.2807126096319981,0.3208622261633789,0.39950112106232244,-0.29840084520201277,0.19471010857771387,0.2334204621279731,-0.4006049071729339,-0.17823924366753835,0.33172824520935307,0.08208301942116011,-0.30270501183378007,0.3405185458540156,0.3571649441234087,-0.24260545741776882,-0.0016945012994773615,0.38003209568229745,0.018704617588522286,-0.21335051647994166,0.2477102383806344,-0.14519433759577963,0.39838644392079,-0.47940072055524957,0.12066091864241506,-0.06728775127722109,0.27194064238347754,0.457033394108374,0.13818624397383705,0.2661466314838805,-0.007530345955576914,-0.14180376138478987,-0.157739829170926,-0.043809178815976284,0.33133169435072496,-0.40133428945471583,0.06491940599221815,0.0036663320941031355,-0.35175901199327786,-0.3214295512793344,0.10069953139223069,0.3522104791120775,0.2047882072588053,-0.519352483804711,-0.10236234935085392,-0.06682573314144734,0.40457375715035665,-0.13940271914651078,-0.29828052038204944,0.1601051888136971,0.0022708368607617826,-0.21142638157802682,0.393011668732932,-0.3947642776977449,-0.45872509214754953,0.1359737020413032,-0.4252693124045159,-0.14241976674301324,0.02810555273944446,-0.20754482575534908,0.09144551991061077,-0.2959180032727995,0.46015590894326924,0.3070066723859839,0.3008566599390762,-0.4102064278845093,-0.03818367607915961,-0.16365264250365266,-0.047412273669113256,-0.07482837144027983,-0.2646416911372634,-0.09959521866750101,0.003328711773866644,0.27116233779415,-0.43083853698682095,-0.042887758726822836,-0.1962161122177105,-0.4109816666392197,0.44988656617920875,-0.27289903181201136,-0.21311898390730066,-0.1199122488239922,0.42997913431918205,-0.16804765359970344,-0.2971096769444303,-0.12713843489010918,0.2620552298895221,0.0915222234412737,-0.38240706714884276,-0.11867479548408398,0.09510015127693129,-0.3915811235237135,-0.34512903305984355,-0.35473841193914013,0.37521366410201834,0.03563008744876156,-0.19357574894625346,0.3006483910652093,0.3186858242069697,0.020491727466351674,-0.07972317027978143,0.06624575823383472,-0.39555610991386686,-0.444842838695665,-0.3528914534109694,0.06022241438093275,-0.40854752139232814,-0.12853057206900736,0.13607691950512715,0.4802502996214734,-0.08335577730124599,0.05584212670837129,-0.03852842223137261,-0.11925560636172665,-0.15599421859367726,0.34693085399691,0.07669555836052903,0.3489868223076195,-0.3641033604439075,0.34696461014406166,0.002314541700183942,0.3055195560723973,0.4236045127848939,0.3622248232435091,-0.08384972047159348,0.05751234227626646,-0.1338795964517754,0.24369217164912832,0.4030724065026053,0.07938869838542544,0.008360817110528697,0.058763077639479126,0.28836513983092654,0.01966130821855541,0.4351172324534135,0.24763561723152985,0.24326088839914925,-0.41732826273667983,0.29606742677843034,-0.23341238057414584,0.028913846571262027,-0.29769224350008366,0.29746362268411275,0.22718535054749942,-0.16752158391425065,0.5499542848677258,-0.11501967011800417,-0.09047359465101522,-0.2942510819645776,-0.12427634863246355,-0.46734111143925805,0.13902526751554448,-0.14603112931580384,-0.2991909305343879,0.07115605215320471,-0.331539112717613,-0.3863846731291661,-0.08551294989615688,-0.24080951894528235,0.46801586990733085,0.0366599889261286,0.27801027210549056,0.4032843704771384,0.015013857387400166,-0.23364289529060334,0.12362797779296276,-0.4237867840485473,-0.0802033991345896,0.027264788239182897,-0.41890360123800746,-0.041020263146275715,-0.25061205890438326,0.33629149505979006,-0.016857005834054063,0.07984204082023957,-0.4454721043695833,-0.07159416403519284,0.15172899611664675,-0.4124185186830672,-0.15221227544487903,0.13514339615670448,-0.04069300748200264,0.4974275111439127,0.22620270800184977,-0.10274967668471995,-0.23703330125099753,0.37980763531584927,-0.09144048650695918,0.15326060572956424,-0.30056494920220567,-0.5126131742936104,-0.05344263416650319,-0.08922969880002798,-0.2314735068766283,0.06695940571598631,-0.37612078611955535,-0.41276845007551244,-0.23444825835711883,-0.010078014335937217,-0.16356138111445676,0.5105473426732559,-0.3061749476377762,-0.18833734421266518,-0.07472711773973795,-0.2915876735125519,-0.4523619035972617,-0.17953008678862398,-0.13655844444620346,-0.21130738867736285,0.3075932615496525,0.46245127683784476,-0.015048246062374317,0.2016024812456936,0.33151731487136715,0.15162314127141613,-0.3167822847847159,0.36259174458213894,0.2887095458474097,-0.2427272453080106,0.17774942311159284,0.015979105536674986,0.2126347231423964,0.05923895100752481,-0.1079174673496196,0.21699055038210652,-0.38195888218110047,0.3957199210990881,0.39599978179778766,0.0032049602369263242,0.377903539404921,-0.3733083316747016,0.09155261328763023,-0.09589126790519586,-0.45183506838471005,-0.17847764661069368,-0.12232540118023151,0.2215865895270451,-0.13067037155153327,-0.02800757139331775,-0.3896395174391604,0.11123958302401893,-0.3139524007106943,-0.5383449206426418,-0.2338064902212462,0.083201424544041,0.2668859726639206,-0.16651976784032957,-0.4266530710371535,0.23673818805432234,0.3920284399432514,0.04595678403360086,0.2525114425928248,-0.058160951266698666,0.22585045098187742,-0.3917403060890983,-0.3490004483670881,-0.22069759133462222,-0.17249379433836048,-0.529103862338618,0.3271660720649831,-0.22123542267875024,-0.23791106934868814,0.4160180727587727,0.08823367461520983,-0.31290584575568214,0.009518168248680464,-0.12297183654816551,-0.10884586026660122,0.2731660030544874,-0.21743617193793388,0.46077374784517233,0.06796895550058651,-0.387236745783551,-0.4355614967539669,0.12657032076887675,0.023582484240073216,-0.12573720995311138,0.14190205376529552,-0.3101171319623612,-0.01867041859423996,-0.13635421765528485,-0.4637603058566703,0.04390537326544102
biasActivation=0,1,1
[BASIC:ACTIVATION]
"ActivationSigmoid"
"ActivationTANH"
"ActivationLinear"
