encog,BasicNetwork,java,3.0.0,1,1455951216282
[BASIC]
[BASIC:PARAMS]
[BASIC:NETWORK]
beginTraining=0
connectionLimit=0
contextTargetOffset=0,0,0
contextTargetSize=0,0,0
endTraining=2
hasContext=f
inputCount=12
layerCounts=1,51,13
layerFeedCounts=1,50,12
layerContextCount=0,0,0
layerIndex=0,1,52
output=0,0,0,0,0,0,0,0,0,0,0,0,0,0,0,0,0,0,0,0,0,0,0,0,0,0,0,0,0,0,0,0,0,0,0,0,0,0,0,0,0,0,0,0,0,0,0,0,0,0,0,1,0,0,0,0,0,0,0,0,0,0,0,0,1
outputCount=1
weightIndex=0,51,701
weights=-0.12677359632218177,-0.026193397919031167,-0.15785444614237093,-0.3187992848487212,-0.05775714772929045,-0.08715947569389912,0.18099875870762336,-0.15341667370794204,-0.23678374481738343,0.12406664781636975,-0.09570325904969436,-0.06650579722000462,0.05342446433345741,0.1603866010680924,-0.06165143472541297,-0.25763725608422616,0.03198703005354887,0.046496914473868466,0.15011573022352384,0.04065372852064196,-0.4250766097667438,0.10577976946852292,0.16137734429543324,0.03890900695905251,-0.050929542688942495,0.04305623894984834,0.21622001360057153,-0.14235731356663242,-0.25082365222610453,0.14232945338672665,-0.03893366337619583,-0.058613369113549516,-0.26916414202332584,-0.16387824056196845,0.022916357502672756,-0.3113313829017643,0.22267438737726095,0.3873740816282222,-0.26615339840999974,0.06515105594245935,0.0628940418985334,0.021692527650912227,-0.05041365874178824,0.28917551068073566,0.3191038132594665,-0.07249755012263928,-0.30217514447485033,0.11352521139996952,0.2617142820054094,0.29578610999740396,-0.2129119009066199,0.08595770299041701,-0.3873912872892545,0.135187737079259,0.32427268722849123,0.23937012281017706,-0.12201395683696457,0.286520709020285,0.20347287602111674,-0.28316072680485127,-0.3968409808822053,-0.3148772307384844,0.3461852736499409,-0.04860539693882311,-0.02110322581310462,-0.1252865675296202,-0.033342168802040856,-0.2745107218538649,-0.009554775897692545,0.46596220480463507,0.34275842165415715,0.3306232545580242,-0.1714969420517226,0.39543824350644124,0.25864574227507636,0.23897872534946368,0.31104384189696777,0.4040233276812541,0.3886015193265141,0.03855057050388449,-0.37440600797850154,-0.05541036995771595,0.22819808569723912,-0.4224360220410949,-0.18658188506750473,-0.2911220698319046,0.15136875822196477,0.03173338737071494,-0.08649923028333692,0.3229032164348436,-0.018218122109010165,0.11495465728287116,0.20278711197798704,-0.3357036868695398,-0.2839779112895153,-0.09497808414522889,0.316698623780568,-0.4426982579694293,-0.22445734142456128,-0.1494908124859352,-0.4139831103503652,0.3441546347837715,-0.20361786903433998,-0.1957046344292432,-0.17799184640476523,0.08526875874930556,0.31055050849446264,-0.30092141029291275,-0.16831075772668969,-0.4053457492773673,0.30940984740128097,-0.26810381723711774,-0.06665097834943957,-0.4646215251635551,-0.17923934500771693,-0.24561236338274395,0.183933710273163,-0.08758800466142018,-0.1411089772083166,-0.3493958758499955,0.16921702510239475,-0.3699915401914524,-0.18424013693301566,0.11992041528653966,0.278480982862615,-0.17901220951890232,-0.0007959848229180848,0.5161253922587629,-0.40199101591939923,-0.0969615260934498,-0.1588087084260458,-0.28849057731866784,0.1922483517623107,0.23874092022802218,0.30635318984536425,0.1385230433078583,0.44518486864628787,0.5910774848705256,0.08950660857263809,-0.000819300897049904,0.08797439979265681,-0.23904094522878067,0.24731583884061478,-0.04759485024958702,0.43630898620275926,-0.09468822909955428,-0.11077768151845756,-0.44418334875098814,-0.3578656184449545,-0.20695949789145462,-0.32292399528513593,0.08555796021909405,0.3525010874905365,-0.11713383424541668,0.2161092060561277,-0.4295591407563854,0.3166143989600847,-0.40455650163986184,0.31719765942627803,-0.17196488410195057,-0.37520921049031364,-0.14752669077691752,-0.21913899480095406,-0.2382034665030621,-0.31555411486984625,0.03721191323449047,0.04942979237409016,0.014248620701131042,-0.12600979472060497,0.46530270959587994,-0.4042011389986384,0.23213181891536475,0.39667660631666474,0.06998722139706544,0.25263017627853196,0.3140204422220241,0.13956973432125544,0.32093039388680467,0.16043390570865335,-0.11305833618354688,-0.09925823866885247,-0.3788447010609289,-0.17871476482625512,0.08983091490995791,-0.1538608837866591,0.5235727052485311,-0.2046445504194916,-0.09627528692174989,0.2823731992008376,-0.29752921620620815,-0.10722704363735916,0.46514832584760285,0.059198436104165,0.054778276717140625,-0.12388826389404584,-0.2703557665388783,0.2947606509896255,-0.36809950400999963,0.05365245085484755,-0.3723661416700267,0.3257379963540117,0.273487491413524,0.30400424520791397,-0.30425029081391936,0.15905214963413036,0.10588760915775138,0.29270202405197787,-0.24526724547709544,-0.39038463477614144,0.167424792551026,-0.029900348905941565,-0.38093801380268505,0.07328969483878138,-0.3419843248762986,-0.24565016628219782,0.3924177934588627,-0.34983899169738253,-0.05695193256660896,-0.14444053181097338,-0.254258373677185,-0.3811761283509392,0.4359706076799317,-0.2587163284438936,0.3571864200653652,-0.2006181756873004,-0.11243320525955013,-0.24521967874794032,-0.17957938760974673,-0.2443993273421492,0.08947495443780906,0.08014180667140867,0.3793111681806798,0.20436345192853128,0.2186372371174143,-0.2991360199897137,0.38995693600101605,0.19078546554540043,-0.13401262780577103,0.35242548867709644,0.17094846344727532,-0.2570879427147712,-0.30021610597026854,0.13282436281192003,-0.08062539671220197,-0.4358524960730596,0.2754744938636518,0.3134757479441412,0.05939035426116052,-0.3669082752865507,0.3732513881142982,-0.06455624538029343,0.045501367259738384,0.09138637512871561,-0.1841001224382381,-0.07723559767909122,0.35321996406885975,-0.19691256368508028,-0.38553515962328827,0.46260111731975784,0.012084371403479436,-0.2101212240819219,0.2709162921558812,-0.17884101044570105,0.30337765820870133,-0.3399944187967109,-0.42742237078434736,-0.3786684167871107,-0.1281917656922881,0.4154825633177412,0.23435575417943433,0.12499799407889735,-0.005936896351872125,-0.1476506716978288,-0.4252744056188506,0.04540993982101942,-0.005037319505391205,0.34142651786717615,0.3609756146670119,-0.2102202102049486,0.19270636564299612,0.17979678563712126,0.17346602983092843,-0.40936192486538997,-0.4119638392319357,-0.07983325430799167,-0.13407821260385477,-0.025608697727232975,-0.5310850115883274,0.1311354069490787,-0.21975013027633333,0.0539218947825377,0.27105794908687486,0.04780893136916528,0.2908531634754293,0.34317000533336706,0.013950518041562094,0.40080114863702615,-0.37776610604045124,-0.3480792267500429,-0.22778540219185822,0.33428246773744036,-0.05264535276994683,0.2673094812244104,0.21739016886422613,-0.42525635190655886,0.28773030709735636,-0.3000396012563863,0.08481588424051861,0.3700896050241282,-0.19187728894824008,-0.006650900463760626,-0.18345287271875232,-0.3367452979023316,0.0463155349721064,-0.09380591200133434,-0.0812837425188087,0.006827925201799397,0.17591176696789232,-0.5838903916741797,-0.27455942437750264,0.35459168934273233,0.18913111491880177,0.4340830478020298,-0.014612401046623919,0.48785416094343986,-0.19567295641012097,0.02800955942895057,0.17629249764118465,0.24668657073661338,0.2838757740204633,-0.268429456407,0.5174616148515309,0.034536469735568016,-0.21039868158204947,0.1879113572790414,0.26041590236412915,-0.053648461986574025,-0.27067639916384156,0.15970566076932627,-0.18908279838704448,0.03255621615334802,-0.3300923540492681,0.23739142811206507,-0.04119512481084175,0.36347316423408843,0.455568808045203,0.07902985544279939,0.24634598299897884,0.3628067842223393,0.3127088729889815,0.2664107448115409,0.3950593726785953,0.01608786332423764,0.16449603486138994,0.21536812567572577,0.05799272795373656,0.3748665648817478,0.24118043119911037,0.5172365909169335,0.25192433806559666,0.25067722834578354,0.13579107792859418,-0.15357678194755542,-0.07638765690736803,-0.5561628862456037,0.05366566142214199,0.2970209368757498,-0.12160540748299789,-0.0323921568765695,0.23611365168150142,-0.4842380625689593,0.42581608770851087,0.037015307692355635,0.1541509136558883,0.1472108504378638,-0.04492325667029545,-0.13783415560159062,-0.06286352188579375,0.3360095115948358,0.29290191682413136,0.3212019841494851,-0.3551346056403719,0.340489137536084,0.2903362835449842,-0.22434538952943667,-0.27359455226571355,-0.34563089164920413,-0.17435258873020862,-0.1212190406481135,-0.13251622335495664,0.27456202084616066,-0.21690439363844896,0.308409480572345,-0.2234937096727749,0.14273500719052476,0.3798427878514116,-0.00009797582743096319,0.4386462629248372,-0.4262460039136546,0.07749804520705957,-0.002488091898021306,0.32122271847108874,-0.12168555931421404,0.2578706490476034,-0.061580951056345395,-0.3710850819802104,-0.32071223647027836,-0.06954103798094342,-0.40713035856211943,-0.12548386989767185,0.28616405964407576,0.3863481093130115,0.2544234721269967,0.3518521798009212,-0.1504988560493491,0.0007710027696716368,-0.4223155371317781,0.22963975359217387,-0.3337339383516165,0.033286306058282394,-0.04698483557453082,-0.40985725824295255,-0.33019662115564063,0.21263897345812277,0.3525331122174524,-0.20729047684280424,0.04763993759597471,-0.327343167176073,0.26302370863813346,0.08148837711707961,-0.040804141582015896,0.23881363558794874,-0.4035225643781799,-0.2855901822892013,-0.0761643540997661,0.04224790689557021,0.4989297463864575,0.39150551744628637,-0.24937172191707016,-0.23022731016498932,0.21517512306850656,0.018031339230921838,0.3214121569958357,-0.2884735363931676,-0.1673297856493842,-0.35013488834262185,0.26720530725975,0.3704363805404454,-0.0800584949237795,0.16222758347842242,0.28468459743989144,-0.29916458836989235,0.27612104101535434,0.3428435098631973,0.1078331844995278,0.007024871328369805,0.0873643029088649,0.4202026447515718,0.4460273214025288,-0.13878164783578884,0.20818777123134471,-0.3456824789722516,-0.3844202139095736,-0.166624193525776,0.24013696871032927,0.10984246075403571,-0.3467122709896634,0.45271392034157276,-0.014553817563944724,-0.17156374107340486,-0.2198072889586627,0.2572393762002655,-0.37590424423039637,0.3329396355684786,-0.06625251319497526,0.1481548656520848,-0.4389671977542619,0.25960731512657126,-0.18497150357982506,0.09069537506633368,0.13455908430820251,-0.3435411148778189,0.05385771471052775,0.29076643172321404,-0.45891872549980733,0.21251584503734128,0.26512128717793476,-0.1657891293872977,-0.3564761590019689,-0.12811596415005805,-0.20970385252787666,0.13011355432668592,-0.4110625870580202,-0.18745264920990923,-0.09251081810025166,0.3169328818161281,0.3520887352873753,0.2411360919103168,0.3699386362509069,0.31975552633268695,-0.09894284581987813,0.191806832195058,0.28240092912360526,0.270296555519387,-0.3905142296374987,-0.1511875515381799,0.22316851147328068,-0.1588965731579323,0.13991944057384958,-0.3363127554723931,0.2565723641823003,-0.35833214757529214,-0.32845782991314176,-0.3200769201432371,-0.33464398570067255,-0.08904226334090741,-0.3207137471476757,0.1731546577520894,0.30911452888704594,-0.34724821441604375,0.19146064480057615,0.17702679529423992,0.4298094489584702,0.3211469221646476,0.26533006358644495,-0.12478129804389865,-0.3795534798621222,0.00020499591773676768,0.17026154956131845,0.038365027007743475,0.29977903858233707,-0.32515007733434304,-0.37379445742558676,0.3221000224618911,-0.22470163364974108,0.0489859029056333,-0.24013953533194,0.0204600167434674,-0.12334715022276305,0.463370195142515,-0.13362587225936526,0.0990919794948942,-0.34456193192692014,0.3859689593244951,0.23268123386147277,-0.18673043541256595,-0.16122812721101845,0.45880153178020144,-0.2652515743179874,0.07955730969104112,-0.3479395217555646,0.36510252435250445,-0.012215602365294474,-0.4235731206386521,-0.19371726954273344,-0.24483343656682244,0.21094207049328095,0.06240942379593596,0.3468603265699255,0.2531992730708045,-0.1844930438722985,-0.1372163652581299,-0.39633619739621107,-0.25937959600487703,-0.34245633631660727,-0.13245593459990823,0.39691419568992253,-0.22530111084858936,0.30715633129007625,-0.20141827740154059,-0.006660068268991045,-0.4719482539846152,-0.14119169215615943,0.25779429406777954,0.060313641396467964,0.030463739472349427,-0.2921137987743636,-0.3583343507941595,0.2512797398371917,0.05915034534828987,-0.48961849580242933,0.021840636458806146,-0.3111817180809535,-0.10853393919214198,0.07022300303207923,0.38768393911182136,-0.1846821896158433,-0.42277831658274845,-0.41765715090051253,0.09920908459480783,-0.3470979631371598,-0.15492951739662328,-0.20736724827667724,0.006342325197694528,0.3165695328522658,-0.31667580243501686,0.013655609777212911,0.43726580279232075,-0.46886168423908864,-0.05162908538249134,0.3309679227952189,0.10873584655110549,0.33145462051502095,0.04137987754211658,-0.07226531310560869,0.3030984795660995,0.17962218078895137,0.20490626337005602,-0.057259657859708706,0.3485101832755439,-0.49338745181749877,-0.004954904471172192,0.07202501719572818,-0.26138506611910534,0.0867048082364857,-0.24609752898973436,0.4434914471215498,0.15673799509745945,-0.05700939425770574,0.15856011152981053,0.34924629417753233,0.45020661846372795,0.012579964272070828,-0.4172992447299343,0.4197819161817367,0.0919240886336874,-0.01662018385105164,0.0009973764591569936,-0.35568856374509683,0.2935524836291617,0.4150846158136377,-0.02241844641628897,0.1400045187553303,0.4129757233139013,0.1156798708270035,-0.06454116652751785,-0.2567634812893815,0.08011452259577159,-0.17465383815490165,0.038668567615162554,-0.3475716108077472,-0.1306150513421678,-0.3323034135332456,0.027071584213471465,0.34185710162925376,-0.39147311210847,0.2635689744611177,0.29689908381912306,0.4041248917742874,0.3292448940616383,-0.2820992718916266,-0.3245199765599362,-0.07403559041828912,0.36650501941194774,0.08588053507640822,0.16246760117921283,-0.13132035508894038,-0.3876855139897261,0.19586561151596155,0.07916492942031585,-0.39096233883114756,-0.3169843760171548,0.294067900071447,-0.3060564596828237,-0.05333043062386608,-0.12171676504902046,-0.27855441942860965,-0.3814164102048688,0.22277695919756255,0.28977509487573994,0.29217394649867023,0.08277041140307356,-0.3194062688655595,-0.1843274033696317,-0.4010876552664662,-0.27699666451187627,-0.0380656930949252,-0.2692645232782271,-0.10038563259625014,-0.3329251952925484,-0.3567078031610264,-0.1709315980194933,0.3971985574084695,0.11532290470303837,0.16224800522612895,-0.38375013724723567,0.3223457501033407,-0.2920175170230825,-0.18644070122076983,0.387595396351745,-0.0740488148901541,-0.3172901787968131,-0.06688069727090931,0.2875807799903679,0.23978583759372973,0.3432151751385871,-0.10309825649435543,0.43585079786874137,-0.04220716698794148,0.38495392035125375,0.16294115244396254
biasActivation=0,1,1
[BASIC:ACTIVATION]
"ActivationSigmoid"
"ActivationTANH"
"ActivationLinear"
