encog,BasicNetwork,java,3.0.0,1,1455951216756
[BASIC]
[BASIC:PARAMS]
[BASIC:NETWORK]
beginTraining=0
connectionLimit=0
contextTargetOffset=0,0,0
contextTargetSize=0,0,0
endTraining=2
hasContext=f
inputCount=12
layerCounts=1,51,13
layerFeedCounts=1,50,12
layerContextCount=0,0,0
layerIndex=0,1,52
output=0,0,0,0,0,0,0,0,0,0,0,0,0,0,0,0,0,0,0,0,0,0,0,0,0,0,0,0,0,0,0,0,0,0,0,0,0,0,0,0,0,0,0,0,0,0,0,0,0,0,0,1,0,0,0,0,0,0,0,0,0,0,0,0,1
outputCount=1
weightIndex=0,51,701
weights=-0.39270686564794804,-0.3638203800406343,-0.19668827598531813,-0.16346421624520135,-0.006763659913517495,-0.0860597395948012,0.018583300427987372,-0.035745228949228755,0.46944446791826977,0.0060414609346765066,0.03956273285184469,0.10081590784282658,0.37714420334932336,-0.2799168722257291,0.43431947738769944,0.32961987329102527,0.20561995094245017,0.12302978483231986,-0.010483548696895176,-0.2865029191199303,-0.03792923150130549,0.036268496213403785,0.27176400829248687,0.14042754082947684,0.0878205216651947,0.051123878870956145,0.1779195036222553,0.016085639076655077,0.1331465976371198,0.1020513707565815,-0.13771563282461483,0.018158204138794178,0.09658908749644414,-0.05375299694124733,0.2890998869193079,0.06769748370162058,-0.09554335209492827,0.3604901113802535,-0.2320705191566142,0.03530938542499686,-0.048364693702751115,-0.4899907119642105,0.0835554890700941,0.2692511755085651,0.2593625047448941,-0.0621338686684952,-0.1758040842507677,0.1837332015152896,-0.14895520774915694,0.0172857823058792,-0.23945330028928477,-0.1574644649237739,-0.29176304529811864,-0.33826301272099635,0.3372473785444931,-0.23538356215712972,-0.2432969147368217,0.14766497825179073,-0.395113540960375,0.20100690103794683,-0.4200658250057083,-0.2589240252938487,0.12526780983764071,0.13523543586492306,0.3542318425267854,-0.3300730613608038,0.18852577411569552,0.23051351477169765,0.36933717172911423,-0.39599502330018516,0.15089398970299062,-0.24749002715787832,0.1429318035525006,-0.27198715477301383,-0.14912249211584458,-0.34742436587986963,-0.08678913429426205,-0.43764717037631684,-0.3022028863214711,0.2544445252290724,-0.23596874042739233,-0.26886312486374,-0.1359672799600607,-0.3735268562290091,-0.10393282590365116,-0.38596776320162957,-0.18216183387798307,0.16752361005321448,0.06265630073686194,-0.2955940631133947,-0.4358132928394181,0.2637439004111789,0.27658680592137114,-0.2687171779443448,0.34736857680214767,0.09552146519184342,0.19255368777924073,-0.3734628797738467,0.11879142343142095,0.08534263974459488,-0.2761529589496724,-0.34779851140438983,0.0957083762479727,-0.13041085031678276,-0.07090661637825547,-0.05766235885737771,0.13797800988903164,-0.0484420333131681,-0.5548385688982221,0.2690165997012744,-0.9590284246598817,-0.042307717855123425,0.42290060243084127,-0.2820691453057075,-0.05064624847857686,-0.34985435322991765,0.37564502910863146,-0.37845596583891544,0.4895522742861909,-0.08274117488454757,0.008479916706450262,0.30737337157496053,0.09831817125466262,0.09580423567735052,-0.3553840885589241,-0.3235779462815448,-0.0835788517342514,0.01877401426095832,-0.24403927346525303,0.4083762478621699,-0.2795974033774838,0.5281377436143397,-0.0708641634069073,0.18922736534553844,-0.27481774719616686,-0.08389525297728316,-0.03126996914059951,0.3234011315618798,-0.041363131801535835,0.15187875900082873,0.3689814549562068,0.1659046017224992,-0.2820366075960081,-0.14201603891308717,0.34313990480692474,-0.07383551328717229,0.28407839452708117,-0.3864581848810174,-0.17891736945142003,0.4383145416851605,-0.10380333269843096,0.19286740845513284,-0.1349328782383497,-0.25186423692603505,0.3660069309082039,-0.008007118277393213,0.3774854708702928,0.043034544560646086,-0.16666400615552512,-0.06796411299365855,0.37979438454135234,0.291772711978778,0.44189595459862313,0.3495574722066331,0.034113369185314546,-0.26867735654441194,0.35503378564008814,-0.14883352054753946,0.0523908456699787,-0.23111465845635182,0.4023755333491363,0.1868691989050973,0.25774184423718566,0.27152630141338047,0.3711994074693838,0.2356710889763896,0.0061774061522726085,-0.38892050727267663,-0.10619242743238111,0.31933513595699625,0.29638623943639186,-0.04550073978053399,1.1466397278205769,-0.13324034348346553,0.37567372767986024,-0.07539294699035728,-0.3217412915691839,0.3753922477900332,-0.22022742091615555,-0.20844295706916274,0.25126320259272067,0.3303647077412774,0.38484919441233917,0.04402924460434285,0.030737949356774107,0.38452380704457056,0.07674566925027163,-0.4529288104528721,0.19784050254165494,0.07243997574771005,-0.28127816844285963,0.43226311123060446,-0.15638758102830688,-0.1107921911991392,-0.3388101668234835,-0.32711980112671696,-0.11297099291290433,0.07122287813170824,-0.3238684840077042,0.01575243829114318,-0.4025626697476512,0.023793802600996145,0.1989821744324712,-0.2330648391665448,0.5189666207017057,-0.19746800221983907,0.2565791525851376,-0.03856126941159657,0.194419678539038,0.40933471610028693,-0.2432757468583931,0.18421890668432703,-0.04659162464307361,0.0768500120983708,0.1484678127852772,0.0729295309966151,0.39097716835526014,-0.48302283643347865,-0.3850159143015264,-0.27931322790495083,0.17994217776577381,-0.174355984780663,0.34400844334877995,0.06923221347318287,0.40949075484532776,-0.27053659408954184,-0.3261666476876802,-0.02084333704353338,0.2482827000558786,-0.23457448883545656,0.3746266734834997,0.11298805960314078,0.30540202318535264,0.27368887949428,-0.17988373091188137,-0.3594836677236347,-0.4357785464885939,0.29599382823304454,-0.045495774137007255,-0.3326167431920083,-0.0862673143201025,0.4604561605039096,0.40456320629976794,0.089919733539919,-0.0780411840974423,0.34070669440803547,0.038887293057583636,0.189397652274904,0.04468866073642243,-0.15949142232884736,-0.21031620378970461,0.28488387843222607,-0.3746998514952675,0.12041809941570542,-0.19329742226082347,0.25921383640026174,0.41924884416368746,0.013694851942688713,-0.16809769336052738,0.14315325646792237,0.34360979757280946,-0.44026934267995466,-0.0370973188764224,-0.2573394087088139,0.04666880473403649,0.18630450201677318,-0.36284277690380495,0.3180455650842744,0.2734133910408007,-0.2878650210985184,0.3148709544552997,-0.233450172533452,0.38705434733597077,0.3447643029120674,-0.15579028296819727,0.2041738009312076,-0.35996155315039713,-0.24313105133321733,0.10307262365717453,0.31337996690690606,0.33575768907020653,0.35660784955669345,0.3087211583162349,-0.012571456932018377,-0.26650745353944943,-0.30890229443464623,0.30281815329289147,-0.08832436596535835,-0.04490309167195386,0.13920821264106634,-0.2818310800425478,-0.3807403875836508,-0.3788838077562358,-0.30257004260852766,0.2202231665069005,0.014734656642067313,0.37354965320399336,-0.3424015364806066,0.17269720570474545,0.009501177338742558,-0.3588128041851998,0.29534117025302425,-0.1377804181296063,-0.14702387525076246,-0.2754993444137494,0.295803263867493,0.35429734477272395,-0.36642005691388213,-0.36507515986847894,0.009725268739035828,-0.0902389857769886,-0.28549677706608995,-0.4267727005850633,0.0987576643111794,-0.2403994809669064,-0.09493537903675553,-0.4110182178931307,0.13425194318843464,0.3369707211722763,-0.3491558201814757,-0.14088352844491187,0.3904498893871155,-0.06717625916376531,-0.0016842818137451075,0.3225197905129014,0.1403289843384227,-0.3878112616105298,0.18436663496321534,0.4318275141890429,0.32866333997830477,-0.2201147404332926,0.09873632172652617,-0.32651043242160055,-0.02796896863621806,0.42949276263559977,-0.05939862649530276,0.35543145503788043,0.2342973728222111,0.27460202397973266,-0.06354057928577195,0.3626749158400707,-0.2607555712249621,0.34391885409205775,0.32132711164768946,-0.16598196522931172,0.09750659677848597,0.4176159952049569,0.07530151529019834,0.36296778042536315,-0.3708680533955186,0.12120188918118142,-0.09913072339942196,0.10700347889706872,-0.3704849886033953,0.34499685736890223,0.2501314541049285,-0.025609076022706897,-0.20815138380822037,0.3448682704427441,-0.29507921103580376,-0.00963461685957702,0.10260057217819166,0.20772687118608052,-0.22445574344899838,0.32924602814706916,-0.4010941975085936,0.2532297592800356,-0.3648639074471263,0.17678866296317527,-0.21716099116577023,0.27710320596174703,-0.1524697125119128,0.4430449361738588,-0.3334174309266637,0.11822822125312188,-0.38684734640987223,0.15577516519257092,0.26539296416238956,0.06471783639246934,0.3096735268913639,0.35133100913605536,0.22722083993435996,0.09742748130781534,0.24475374620465715,-0.30674630957760773,-0.06193368302200219,0.32003528976354106,-0.346695810090042,-0.11976863984032375,0.4604083527445317,-0.19450010625403613,-0.13194601832566247,-0.3398944565975003,-0.20142845231350462,0.05289400983220559,-0.1565343597416585,-0.4124717771096731,0.21105921637843403,0.3765699663226687,0.056893234712731174,0.25948823461179754,-0.4151710541361357,-0.04915726815838479,0.318268146863788,0.230427093995352,0.35160383210594304,-0.1361863393838725,-0.16637489549159876,0.35101483984046,0.07458301010445538,-0.03861597700024301,0.22425178433690443,0.3912945371994178,-0.29158494854476463,0.3515328056193396,-0.05620963349588242,0.40315851514377465,-0.2531381004259244,0.04212840895040879,-0.17294872312298068,0.3020509381212587,0.3921678115279096,-0.32182756672940666,0.062411701562823475,0.46248450567385735,-0.28898130198086214,-0.2733696273162165,0.0673250010208884,-0.025543114603957133,-0.379421163464696,0.20783053300713034,-0.34366737235412725,0.0032722790702591057,0.3063214885045732,-0.3420426072291492,-0.07742523524116507,0.4179298595277142,-0.4479290626313583,-0.09713790004352027,0.12090295874939846,0.314979398192573,-0.01858118124017704,-0.008424873160551006,-0.3298015332170181,-0.15228285128255306,-0.020224445886234635,0.3595579916737732,-0.2914433081357465,-0.026568223767571772,-0.2910838891079024,0.31183695952781504,-0.27145871712208947,-0.16324580913519796,0.26315627576035916,0.38449096468662425,-0.3869453193791872,0.22286647793979836,-0.20474989919605774,0.3710214149778843,-0.3079777593679972,0.1866716478938914,0.006978656302332293,-0.1308138461261157,-0.07555745826212626,0.34525351880176885,-0.535921724211854,0.32316571636637803,0.16511326911460472,-0.2045819530489249,-0.1678267738296135,0.053132738878799254,0.14481539037188348,0.1454587120582927,0.3582366484565884,0.05805505376334029,0.3556816767774701,-0.2116548129244135,0.2845553824188425,-0.060800305608452634,-0.3901049421624475,-0.29164127589096883,-0.43242718557619664,-0.29188218500174634,0.18149363706743638,0.11187314086480937,0.41675890780154967,-0.34231714482183817,-0.27279589820755357,0.09492735741276528,-0.033922954563789076,0.30263791928676204,0.3959877698569103,-0.20662080608776034,0.4076206800118392,-0.2041426825957191,0.16433573219433514,0.30042479580500886,0.1583034524906563,0.3670223402801052,0.32577121450142316,-0.12382389072117869,-0.003584522662946826,0.30095198683605334,0.31769335884724903,0.2811785799558988,0.38147933224250213,-0.10650156137475575,-0.3710890424728647,0.060885147758149676,-0.3287227927450539,0.023426648378407626,-0.48863151072045724,-0.32919538040694146,-0.26507068980800136,0.37764951805025376,-0.18239721395471833,-0.27457488873340347,0.1889865004909431,-0.22482886816100298,-0.16754222677799788,0.17520875765106794,0.13549963620919922,0.06586700172732424,0.41958593914827214,0.1079895522590986,0.10080333607781478,-0.12136129336733434,0.2839149455872415,0.1674942730070068,-0.03699614103741446,-0.4438862359731673,-0.40535256281002463,0.235663297598185,0.19580302788293058,-0.4085275999250015,-0.4162673929526502,-0.049312305844019584,0.3860414771472682,-0.016941192224280973,-0.20676137255790825,-0.45931528751253475,-0.4342820214310573,-0.26169814098026595,-0.26703232656752096,-0.10734159340980634,0.017402265579764636,0.1342348751493184,-0.10582593735135486,0.3424550089088264,-0.1703677671129499,0.43983224020357264,-0.32513285428555433,-0.030570505047953958,-0.28464201272568573,-0.12481288198188621,0.37887878726039503,-0.04107780048557419,0.08806226370170468,0.25819316092161393,0.15632801956196446,-0.3930782395036627,-0.3582439695799094,0.13784466278339494,-0.11908153801590937,-0.050789365880579855,2.1448115688099523,0.3746935360341414,0.01595369079180381,-0.3782455086085739,-0.265079282343487,0.22466064229402105,0.37142337819092963,-0.44611572374236974,0.11787424662084617,0.2956504618436093,-0.3390595621764531,-0.37142380088960236,0.19313245982844202,-0.24749552155061788,-0.20612062618926755,0.23724087767191301,-0.3654174761762901,0.23928184531985208,-0.35347043014207635,-0.24364614052074593,0.17280870793261788,-0.02481079303882781,-0.25758482227557694,-0.33540409556588224,0.08355668598010038,-0.395385509325243,0.23115034863233294,0.409483435045456,0.00923969525258616,0.3423560253170065,0.08036874537581946,-0.019620487119311886,0.4118724757779914,0.27826881159515765,-0.06542716873283436,1.782975302036046,0.3650454919062405,0.41492561148164264,-0.31280147541530867,-0.2597345282841234,-0.06262986376350359,-0.10769175766434964,0.1471757995260147,0.1664939721525884,0.32185895248378904,0.12550719672930918,0.20634439269373583,0.3538430441060321,-0.0469793483066596,-0.2104425372109928,0.3700149501054007,-0.20221265024645335,-0.019695740939239783,0.4019545387373958,0.2838815737480414,0.3877031642505726,0.16683936511138864,0.0849026488892752,0.486258730231906,-0.019596895470489605,-0.2371171259838038,0.39419561135095216,-0.207860194785933,0.12097590956137994,-0.055966622753373926,-0.4444445077952869,0.2557118718013582,-0.4848982221324831,0.3831712383524397,0.0848417760172731,0.06095546825331718,0.05343293354069053,-0.2484863804108849,-0.29200947164429497,-0.03048198029790943,-0.21646400110835998,0.19120792956023083,-0.2212714317267964,0.41366109089462305,0.037171758448092895,0.19037639063345238,0.08772037987904166,-0.031383154116548385,-0.4191983465562393,0.3192011928774308,-0.39296968066331334,-0.39754779368702614,0.2502676448854748,-0.23541622150770078,0.49681258225003305,0.23626534511151784,0.0841060148130115,0.293957405159167,-0.23720301079774886,0.15146196884508042,-0.32890568467494213,-0.057765680885638944,-0.12282625847631146,-0.36921922096890775,0.012753287195663005,-0.14552747570937746,-0.4403731723626742,0.2931516796911997,-0.4176201857298303,-0.07786935384091052,-0.1723127934180175,-0.13836381705653425,0.05773972950526976,-0.03445262716530514,0.2923274140226531,-0.3138072871504322,0.2662165945079536,-0.39033050483587484,0.43208739216585573,0.306217352203506,-0.3288626235724679,0.08046879336032092,0.019962802779563853,0.45582598420692033,-0.2330866924343112,-0.3830395036268887,0.4439017738922614,-0.14898036002708842,-0.11552564996895952,-0.015420049781652265,-0.31238561671958853
biasActivation=0,1,1
[BASIC:ACTIVATION]
"ActivationSigmoid"
"ActivationTANH"
"ActivationLinear"
