encog,BasicNetwork,java,3.0.0,1,1455951216683
[BASIC]
[BASIC:PARAMS]
[BASIC:NETWORK]
beginTraining=0
connectionLimit=0
contextTargetOffset=0,0,0
contextTargetSize=0,0,0
endTraining=2
hasContext=f
inputCount=12
layerCounts=1,51,13
layerFeedCounts=1,50,12
layerContextCount=0,0,0
layerIndex=0,1,52
output=0,0,0,0,0,0,0,0,0,0,0,0,0,0,0,0,0,0,0,0,0,0,0,0,0,0,0,0,0,0,0,0,0,0,0,0,0,0,0,0,0,0,0,0,0,0,0,0,0,0,0,1,0,0,0,0,0,0,0,0,0,0,0,0,1
outputCount=1
weightIndex=0,51,701
weights=0.11562298981520042,-0.49802465868687956,0.3786998127713852,0.2354220655545447,-0.2729652631190105,-0.206971468172232,0.06333235650407121,-0.18018025033401455,-0.06590486163042363,0.2370269120518577,0.06815436699034289,-0.15678449050789994,0.18717906694544237,-0.17312013780458585,-0.29538726908944296,-0.11275229404439918,0.10680262582278449,0.15167085092436794,0.16084863921511494,0.07713438938087065,0.05041695904279537,-0.32417383799826976,0.2969202099800516,0.06317888711315207,-0.03814106661447861,-0.295782656296632,0.02373468026178699,-0.0885081668048453,0.017319336288024553,-0.2126657389095171,-0.023911968279832982,0.4447345834679896,0.3722336239145634,-0.4382093467403236,0.1200014961982688,0.0895942014843186,0.3047534342060089,0.07058883025488441,0.024981976304106958,-0.2030952939929038,0.07395791332750552,-0.2702668323425323,-0.06846503658367589,-0.17060919326035034,0.1351478209103019,0.26290125259771013,0.10349084180375906,0.11501541402643592,-0.24098430430971465,-0.4583136388633563,-0.019960751355417354,0.24427623848396135,-0.30747497130885026,0.34582714321839897,0.18958618503194744,-0.3563223858148878,0.13526255851971627,-0.1695983381312219,-0.0946914880496637,0.1786238426955825,-0.4160345007768034,-0.4463702079251147,0.16896247323659042,0.07291789428123227,0.2019251741296891,-0.44139471482323245,0.3975108827971067,-0.46606751543593106,0.15419672822410518,-0.1490125447723209,-0.08803378299487201,-0.03985775165250869,-0.40975758189485745,-0.13658337693433165,-0.21579583977110947,-0.09269798969667926,-0.12764577095861537,-0.31819451898328066,0.34793951720609184,-0.2834761337856893,0.39287949152816,0.269177687114919,0.1193197836525327,0.3978257977419849,-0.06991587843736022,0.10990378994882995,0.16051613067285314,-0.23943863667461227,0.1420891511484102,-0.37301352483600847,0.32111795329283555,-0.04243601634591377,0.42551188326989203,0.08644521544818576,-0.4211485210868812,-0.0109125348203525,-0.09623222102895039,0.2734502534026016,0.20029224483054975,-0.13669640773375066,-0.10909618658211984,-0.46911248833856367,-0.33647807742816327,0.2916405570271048,0.3357669481543573,0.307263434902645,-0.04404623543400404,0.14066437347348046,-0.21171166805663943,-0.42369161882336515,0.1384125793788583,-0.19850679600583102,-0.23250158006465033,-0.3642907178484429,-0.1068068124927112,0.39202583806953095,-0.14639943524018648,0.10639237166198268,-0.11325587948481254,0.27195704784674696,0.28111996775085785,-0.4097882387480738,-0.04209737302074507,0.12510628869170434,0.36821128874502856,0.16653261944527634,-0.4015010505703718,-0.2563025831793685,-0.40784405263555945,0.3748648463076364,0.3206537314889611,0.3131299112568365,0.13350152427986822,3.5727479676625284,0.36965546351524886,-0.15363529673809487,-0.1542314543803181,-0.35198257354032597,0.10225756897642181,0.3660332264390956,0.06066590587219942,-0.030653798537823303,0.15936853904045972,0.24270282935335985,0.16421350880365,-0.5192659153409455,-0.21755323406541952,-0.18514212104772187,0.39561512769359564,-0.06655031301510726,-0.04580184001861587,-0.1859246164994134,0.23959878861813244,-0.17100868402121985,0.4391616642243723,-0.12111468136951882,-0.0057102831508158815,-0.4614810400089142,-0.2686856766569357,0.041228630122986706,-0.23947350377943705,0.16666068908552703,-0.38414979992318626,-0.12326132755735585,0.3544207707280655,-0.21754714918134502,-0.05003516079178022,-0.45903607196796603,-0.14562851173049546,-0.3828980631952867,-0.46799576056226866,0.23167570086806955,0.19757979675014237,0.2318137846490454,0.10197567558035835,0.03387004234815183,0.21364247518853527,-0.1418650150380553,0.2585843316722186,-0.3333819092840357,0.39646813019796795,0.452810228732741,0.055332902899645896,0.04701779669707812,0.38350232531381123,0.020059836260778945,0.39818343534217954,-0.008693883015784385,-0.09866507320942944,-0.03831748931369913,-0.3666991772554687,0.34660885497367827,0.45165497784874203,0.05607165158323752,0.4045936252516462,0.10630913018612957,-0.2193505338369114,-0.3085431987534602,-0.40639209680691674,0.06281432533749819,0.12185760561358701,-0.2649455832490927,-0.27354264449313476,0.23894363582039999,-0.30492668030189957,-0.3249390552252029,0.206063715380312,-0.009758824321261865,-0.20950120889864962,-0.12301603250616264,-0.4522099559619711,0.4252004793792113,-0.1820520665826008,-0.2652891859141133,0.3782630786385606,0.32016276380402575,0.29045174569184273,0.07478862344974258,0.19382625835162365,-0.16897168166793156,-0.09786193310904502,-0.3345586925749756,-0.30886085841193467,0.420443540975199,0.27094357911177525,0.2516872728516221,-0.2660350312614396,-0.04048031769167885,-0.37615003957801807,-0.21840223895751631,-0.3245087751234089,0.07961884880078568,-0.22856752108925402,-0.0031496214408728174,-0.17799064901275546,-0.27799885400685764,0.19691408289444093,-0.3664903967903389,0.2414604572163504,-0.3756029627758459,-0.3576833038731009,0.38068261420573424,0.14264444451654607,-0.10206260168314349,-0.3359375115112047,0.24177832417568493,0.5478219173460525,0.24656976550566845,-0.030445097179372965,0.2595830926656206,-0.37902842042496054,0.44457652496340644,-0.4396226228944972,-0.08601160475280863,0.38855591280977175,-0.018806652849945614,-0.009793299368898988,-0.161468627623121,0.0802392144044343,-0.37752660153246465,0.34989716855989966,-0.04006671417499651,-0.36781783665687157,0.2876746176971623,-0.25606037263738324,0.28299362635609787,0.21450902885431117,0.110054030693624,-0.08159751937862232,0.2837024157381493,-0.23256009246855175,0.3425343802545734,0.2063796060046891,-0.0916849721470921,0.22969113122697307,-0.39820618726270296,0.3907734722646017,0.22289244947210127,-0.21726187266435865,0.39900021605408814,0.12298007853047495,0.09781598362499927,0.3391540816652715,-0.3588901138838413,0.1007507411495392,0.3757993021547278,-0.4017572842540904,0.06194491808272409,0.28914942803280114,0.40043050236685307,0.291704654133598,0.16818167187246713,0.06430241772048362,-0.2239692792972234,-0.1689536366560634,-0.21489186731357185,-0.2720025797811302,-0.2979297485213203,0.40853908496065033,0.37299713529248224,0.16709364838292773,0.17961238482350736,0.11682975179682285,-0.4482025689758054,-0.003665704510117062,0.24377049605790418,-0.05612498883973079,0.1526791753575952,0.1393912231783873,-0.13773069585033965,-0.4873886067744347,0.241364146288696,-0.14427831046927914,0.0409056720802115,1.1990104405640272,0.2743153760735761,0.3740752097501743,0.32352979786402947,-0.17750024696325695,0.2262455848132657,0.08414399627383695,0.21249400373115332,-0.33721367424444054,-0.3815792270413846,0.3772303811874122,-0.10241749070834018,-0.16840708224697026,-0.01849694612226139,0.10051742053861663,-0.36174842761155723,0.1632672565210338,-0.35163802118256815,-0.21240136303214444,-0.3291689857954021,0.25688201662081994,-0.4397092479808563,0.2181491702420908,0.08014634704209388,0.3605305912687684,-0.07785363781393856,0.13438380689450247,0.3630193379639121,-0.44752629789779597,0.24034305218191532,0.2719179123079054,-0.3699903174892484,-0.04302769150107885,0.2536126822390702,-0.026271935612632413,-0.3513485850107818,0.057246275126585686,0.3094090655335869,-0.3802248887553179,-0.0047778613099768875,0.1550289013215425,-0.4608728027750379,-0.20846855846704446,0.002799639095961879,-0.12090548745263444,0.4592283653525542,0.41007762995839986,0.12423212778366938,0.09767439247992378,0.12683144755930736,0.2763805581549764,0.33533975214436257,0.43051542804479637,0.12176053353122947,-0.17287749183618362,-0.49507835075966966,-0.19381038839026504,-0.3056665009865845,0.1594089457156828,0.15169409389747915,0.2622115136669141,-0.12439408780107353,0.3530444709687801,-0.2415816432420266,-0.41614444093098757,-0.4159586998585184,0.02003096851627638,-0.21423593685417963,-0.16057246655699772,-0.30651961296473407,0.0038136687312262294,0.1314393575758619,-0.34363887355684475,0.3305895781392912,-0.13447407207113785,0.40593027927218145,-0.09369844132450435,-0.31901971225373743,0.2256178782532477,-0.08884014116871297,-0.40756418449615056,0.173883432363658,0.3888690383780809,0.5093292844056801,0.14625095255975123,-0.22271773346168458,-0.12680508797172466,-0.38097652314879604,0.2641886096676452,-0.14054268356696054,0.08446030075169907,0.15959110986486785,0.3032384126786264,0.1861443270856615,0.038630432368181006,-0.3763215079781543,-0.15185818447655455,0.34045092422415596,0.3142926543442973,-0.43352770938381796,-0.3502526832493419,0.34241418187505956,-0.35937235762367736,0.20627459601540635,0.5513309709898055,0.08027467903151467,0.29805326350800887,0.2625031894375789,0.17668331038797866,-0.19364240414906375,0.05841663259955924,0.9390882760407431,0.06743020351931238,-0.2662203220733466,0.3717876280127174,-0.18806080705566167,-0.013229550559280882,0.21245791588526783,-0.34973708018483995,-0.3524808834370396,-0.3375970976477882,-0.401839493154645,-0.2218659457280014,0.16699681833290886,-0.31685872808644705,0.18118096829313737,0.04157130777865026,-0.1803512501596134,0.31333900292044325,-0.3285088629484305,-0.12861654464966038,-0.30209411089558064,-0.3887163051839224,-0.14731019657476574,0.14919385023285964,-0.2671687375231647,0.34769640362423804,-0.4161947011779215,-0.03745912662424818,-0.17311726324644963,0.11190812102708768,0.07190780350811343,0.31068104894236953,-0.1322595404719618,0.2077868532209676,0.40191727517798986,-0.28050766891431544,0.1611650402327893,0.26342712704203297,0.4500463413802719,-0.07835862362892505,0.4336443524958384,0.11296677512851609,-0.2878880643757134,0.08531087919351885,0.27173059316989756,0.10767677032095097,-0.4596281638174655,0.3229235979940355,0.04054626256491952,0.46680244344391614,0.024181439889141093,0.13233952725497644,-0.4241886239323476,-0.008061312292231691,-0.20504883842260846,-0.023950248742103452,-0.08569174407516537,0.01933504810669881,-0.40750166402985405,-0.30984787707371664,-0.060607575457613104,0.012407691252209843,-0.3476830734763977,-0.43691640487601924,-0.28627579626404404,-0.3076620303499808,-0.33331827600789243,-0.31209020572223106,-0.40156865552424154,0.3612886392388681,0.27847976970310706,-0.18205814322334948,0.06772906223544566,-0.2549763863046702,0.3977412543255397,-0.24923879248824232,-0.0667547001539522,0.14042546369899128,-0.21784822684906102,-0.38147408599888666,0.2080369944130759,0.1713903147506011,0.3514843763219942,-0.046695795182432526,-0.3701222327349611,-0.44777115451425475,0.20568599336182802,0.11616908452420563,-0.2301386820110226,-0.38037718492984895,0.26751013529532347,-0.06910845871641742,-0.228886625070513,0.25035395186279513,-0.3366295170658822,0.08504720751279625,-0.3224852410824477,-0.2570461709625463,-0.3138386862779404,0.42140210429288516,-0.04849219086574139,-0.2754152181388533,0.10288763069555905,0.11591111611574209,-0.12343432118794855,0.26653638323778533,-0.42179700892725674,0.3640790379763243,-0.1776372942041414,0.372201048111137,0.3628664744954159,0.19441475741652112,0.00979755077198679,0.2643124131051472,0.28727464782036255,-0.15739518778169237,-0.2427390189443261,0.262230843504156,0.0948488364103197,-0.39858187491756997,-0.08261584377353355,0.22392716830909073,0.1539153906683111,-0.04402872203309984,0.4520910166585539,-0.33028455806117923,0.2534116095296137,-0.08371783225816466,0.32006714221528826,0.37942508126551006,0.28475797971276207,-0.36793375648000176,-0.10362895815019901,0.08599548253696251,-0.4045167230910538,0.2964291055536915,-0.2843628015779073,0.3635730776804744,0.26735636989550127,0.43940279087200884,-0.41036641050042927,0.10846275199682509,0.00859552366151516,-0.0793086851123061,0.13031523525582767,-0.04076817156011638,-0.38758683988980536,-0.2549749889483447,0.4305087103987142,0.03980673896243227,-0.24311588389590705,0.07674033687894134,0.4416424126921399,-0.16594005172427534,-0.046297098253877594,-0.08177871387429428,-0.3732723053445119,-0.04061203537852346,-0.33259014952936916,0.40563241542338224,0.18981568807987312,-0.19413146553043167,-0.04207700076072116,0.3759636484304748,-0.2667655071691912,0.35334813806594506,-0.06837513762109167,-0.35560746399619536,-0.12293426135935394,-0.2661885586239062,-0.2757818656681147,0.24747420308762852,-0.04797053994568416,-0.43717125101597826,-0.289499318026841,0.4116598461091566,0.3890715698520144,-0.1951080459097155,0.27724710803498703,-0.152353783041783,0.07827236760917947,0.08058123508306396,-0.20019412453639354,0.33129937929173703,-0.19173992478584417,0.2983907883871097,-0.3946445826523371,-0.44528956733899466,0.16249006084119003,-0.40539432258448993,-0.32570234538201576,0.07519078102098352,-0.35164819379126855,-0.20102832813457802,0.0003513465427630629,0.07919351692245709,-0.057448758217269684,-0.14613990344444255,-0.3108350933743319,0.3518302222577283,0.19951151026857217,0.13632777720781827,0.28479535382846377,0.20999029473155642,-0.1399347908675426,-0.37725887126554136,-0.27939339215746495,-0.25310747886541435,-0.009538732068659591,0.33851242921581537,0.34198453271488977,0.24829927596974924,-0.03730539899636079,0.2122310411456824,-0.03144859671178313,-0.26670734441519134,0.028296366245471372,0.37395088724590586,0.2701076678824096,-0.4527469686024147,0.3017852694501903,-0.34183335865372044,0.11459408524966627,-0.3709512808708963,0.3851691745594873,0.3804905367532388,0.17914726471904985,0.05987750467266228,0.465674539042562,-0.05938953124104548,-0.15420162890567082,-0.3458972938155682,0.29836289449626474,-0.1846295276395656,0.06264981262805061,-0.07857522078445879,-0.3379826969725458,-0.0699881738817795,-0.27097147737667504,0.12920313971550623,-0.3529867424642363,-0.3132469773690831,0.35608841479611825,0.00418747240093135,0.31467334534645025,-0.3276594836859662,0.00170384136689924,0.26502068873219525,-0.32742105495033197,-0.3342691335539881,-0.24956503216528853,-0.28235137430524254,0.3477020897683218,-0.25411977077546266,-0.31383640519068023,0.09443646691791037,-0.38116604284750955,-0.20387242828062496,0.04362898241504719,-0.09445961914639872,0.28495497047280055,0.29252182728765963,-0.39774866163808803,-0.2446205886050117,0.10177059991709896,-0.18124834286024077,-0.10026617661964204,-0.2239473978949013,0.2644091958849457,-0.3904705588500559,-0.4298936283043511,-0.1859111295372778,-0.41531444916271715,0.05701154483765395,-0.3064848204958721,-0.2939980777558268
biasActivation=0,1,1
[BASIC:ACTIVATION]
"ActivationSigmoid"
"ActivationTANH"
"ActivationLinear"
