<?xml version="1.0" encoding="UTF-8" standalone="yes"?>
<PMML xmlns="http://www.dmg.org/PMML-4_2" version="4.2">
    <DataDictionary numberOfFields="32">
        <DataField name="id" optype="ordinal" dataType="string"/>
        <DataField name="diagnosis" optype="categorical" dataType="string"/>
        <DataField name="mean_radius" optype="continuous" dataType="double"/>
        <DataField name="mean_texture" optype="continuous" dataType="double"/>
        <DataField name="mean_perimeter" optype="continuous" dataType="double"/>
        <DataField name="mean_area" optype="continuous" dataType="double"/>
        <DataField name="mean_smoothness" optype="continuous" dataType="double"/>
        <DataField name="mean_compactness" optype="continuous" dataType="double"/>
        <DataField name="mean_concavity" optype="continuous" dataType="double"/>
        <DataField name="mean_concave_points" optype="continuous" dataType="double"/>
        <DataField name="mean_symmetry" optype="continuous" dataType="double"/>
        <DataField name="mean_fractal_dimension" optype="continuous" dataType="double"/>
        <DataField name="std_radius" optype="continuous" dataType="double"/>
        <DataField name="std_texture" optype="continuous" dataType="double"/>
        <DataField name="std_perimeter" optype="continuous" dataType="double"/>
        <DataField name="std_area" optype="continuous" dataType="double"/>
        <DataField name="std_smoothness" optype="continuous" dataType="double"/>
        <DataField name="std_compactness" optype="continuous" dataType="double"/>
        <DataField name="std_concavity" optype="continuous" dataType="double"/>
        <DataField name="std_concave_points" optype="continuous" dataType="double"/>
        <DataField name="std_symmetry" optype="continuous" dataType="double"/>
        <DataField name="std_fractal_dimension" optype="continuous" dataType="double"/>
        <DataField name="worst_radius" optype="continuous" dataType="double"/>
        <DataField name="worst_texture" optype="continuous" dataType="double"/>
        <DataField name="worst_perimeter" optype="continuous" dataType="double"/>
        <DataField name="worst_area" optype="continuous" dataType="double"/>
        <DataField name="worst_smoothness" optype="continuous" dataType="double"/>
        <DataField name="worst_compactness" optype="continuous" dataType="double"/>
        <DataField name="worst_concavity" optype="continuous" dataType="double"/>
        <DataField name="worst_concave_points" optype="continuous" dataType="double"/>
        <DataField name="worst_symmetry" optype="continuous" dataType="double"/>
        <DataField name="worst_fractal_dimension" optype="continuous" dataType="double"/>
    </DataDictionary>
    <NeuralNetwork modelName="demoModel" functionName="regression">
        <MiningSchema>
            <MiningField name="id" usageType="supplementary" optype="ordinal"/>
            <MiningField name="diagnosis" usageType="target" optype="categorical"/>
            <MiningField name="mean_radius" usageType="active" optype="continuous"/>
            <MiningField name="mean_texture" usageType="active" optype="continuous"/>
            <MiningField name="mean_perimeter" usageType="active" optype="continuous"/>
            <MiningField name="mean_area" usageType="active" optype="continuous"/>
            <MiningField name="mean_smoothness" usageType="active" optype="continuous"/>
            <MiningField name="mean_compactness" usageType="active" optype="continuous"/>
            <MiningField name="mean_concavity" usageType="active" optype="continuous"/>
            <MiningField name="mean_concave_points" usageType="active" optype="continuous"/>
            <MiningField name="mean_symmetry" usageType="active" optype="continuous"/>
            <MiningField name="mean_fractal_dimension" usageType="active" optype="continuous"/>
            <MiningField name="std_radius" usageType="active" optype="continuous"/>
            <MiningField name="std_texture" usageType="active" optype="continuous"/>
            <MiningField name="std_perimeter" usageType="active" optype="continuous"/>
            <MiningField name="std_area" usageType="active" optype="continuous"/>
            <MiningField name="std_smoothness" usageType="active" optype="continuous"/>
            <MiningField name="std_compactness" usageType="active" optype="continuous"/>
            <MiningField name="std_concavity" usageType="active" optype="continuous"/>
            <MiningField name="std_concave_points" usageType="active" optype="continuous"/>
            <MiningField name="std_symmetry" usageType="active" optype="continuous"/>
            <MiningField name="std_fractal_dimension" usageType="active" optype="continuous"/>
            <MiningField name="worst_radius" usageType="active" optype="continuous"/>
            <MiningField name="worst_texture" usageType="active" optype="continuous"/>
            <MiningField name="worst_perimeter" usageType="active" optype="continuous"/>
            <MiningField name="worst_area" usageType="active" optype="continuous"/>
            <MiningField name="worst_smoothness" usageType="active" optype="continuous"/>
            <MiningField name="worst_compactness" usageType="active" optype="continuous"/>
            <MiningField name="worst_concavity" usageType="active" optype="continuous"/>
            <MiningField name="worst_concave_points" usageType="active" optype="continuous"/>
            <MiningField name="worst_symmetry" usageType="active" optype="continuous"/>
            <MiningField name="worst_fractal_dimension" usageType="active" optype="continuous"/>
        </MiningSchema>
        <ModelStats>
            <UnivariateStats field="mean_radius">
                <Counts totalFreq="451.0" missingFreq="0.0" invalidFreq="0.0" cardinality="381"/>
                <NumericInfo minimum="6.981" maximum="28.11" mean="13.993443458980051" standardDeviation="3.46219930561425" median="13.98" interQuartileRange="9.610000000000001">
                    <Quantile quantileLimit="0.0" quantileValue="6.981"/>
                    <Quantile quantileLimit="10.0" quantileValue="10.2"/>
                    <Quantile quantileLimit="20.0" quantileValue="11.32"/>
                    <Quantile quantileLimit="30.0" quantileValue="11.93"/>
                    <Quantile quantileLimit="40.0" quantileValue="12.54"/>
                    <Quantile quantileLimit="50.0" quantileValue="13.21"/>
                    <Quantile quantileLimit="60.0" quantileValue="13.86"/>
                    <Quantile quantileLimit="70.0" quantileValue="14.95"/>
                    <Quantile quantileLimit="80.0" quantileValue="16.65"/>
                    <Quantile quantileLimit="90.0" quantileValue="19.44"/>
                    <Quantile quantileLimit="100.0" quantileValue="28.11"/>
                </NumericInfo>
                <ContStats totalValuesSum="6311.043000000003" totalSquaresSum="93707.294201">
                    <Extension name="BinCountPos" value="[17, 17, 17, 18, 17, 18, 17, 17, 17, 11]"/>
                    <Extension name="BinWeightedCountPos" value="[17.0, 17.0, 17.0, 18.0, 17.0, 18.0, 17.0, 17.0, 17.0, 11.0]"/>
                    <Extension name="BinCountNeg" value="[219, 38, 22, 0, 5, 1, 0, 0, 0, 0]"/>
                    <Extension name="BinPosRate" value="[0.07203389830508475, 0.3090909090909091, 0.4358974358974359, 1.0, 0.7727272727272727, 0.9473684210526315, 1.0, 1.0, 1.0, 1.0]"/>
                    <Extension name="BinWeightedCountNeg" value="[219.0, 38.0, 22.0, 0.0, 5.0, 1.0, 0.0, 0.0, 0.0, 0.0]"/>
                    <Extension name="KS" value="69.69351088564785"/>
                    <Extension name="BinWOE" value="[-2.015356993001844, -0.263871423531592, 0.2826722822910235, 20.8042349004023, 1.7642768188106936, 3.4308731222304947, 20.7470764866166, 20.7470764866166, 20.7470764866166, 20.311758415891376]"/>
                    <Extension name="IV" value="11.843192251744401"/>
                    <Interval closure="openClosed" leftMargin="-INF" rightMargin="13.44"/>
                    <Interval closure="openClosed" leftMargin="13.44" rightMargin="14.44"/>
                    <Interval closure="openClosed" leftMargin="14.44" rightMargin="15.3"/>
                    <Interval closure="openClosed" leftMargin="15.3" rightMargin="16.14"/>
                    <Interval closure="openClosed" leftMargin="16.14" rightMargin="17.3"/>
                    <Interval closure="openClosed" leftMargin="17.3" rightMargin="18.31"/>
                    <Interval closure="openClosed" leftMargin="18.31" rightMargin="19.45"/>
                    <Interval closure="openClosed" leftMargin="19.45" rightMargin="20.47"/>
                    <Interval closure="openClosed" leftMargin="20.47" rightMargin="21.61"/>
                    <Interval closure="openClosed" leftMargin="21.61" rightMargin="INF"/>
                </ContStats>
            </UnivariateStats>
            <UnivariateStats field="mean_texture">
                <Counts totalFreq="451.0" missingFreq="0.0" invalidFreq="0.0" cardinality="396"/>
                <NumericInfo minimum="9.71" maximum="39.28" mean="19.3130155210643" standardDeviation="4.382255304670665" median="20.66" interQuartileRange="5.870000000000001">
                    <Quantile quantileLimit="0.0" quantileValue="9.71"/>
                    <Quantile quantileLimit="10.0" quantileValue="14.23"/>
                    <Quantile quantileLimit="20.0" quantileValue="15.7"/>
                    <Quantile quantileLimit="30.0" quantileValue="16.85"/>
                    <Quantile quantileLimit="40.0" quantileValue="17.84"/>
                    <Quantile quantileLimit="50.0" quantileValue="18.7"/>
                    <Quantile quantileLimit="60.0" quantileValue="19.77"/>
                    <Quantile quantileLimit="70.0" quantileValue="21.01"/>
                    <Quantile quantileLimit="80.0" quantileValue="22.3"/>
                    <Quantile quantileLimit="90.0" quantileValue="25.22"/>
                    <Quantile quantileLimit="100.0" quantileValue="39.28"/>
                </NumericInfo>
                <ContStats totalValuesSum="8710.17" totalSquaresSum="176861.52110000004">
                    <Extension name="BinCountPos" value="[17, 17, 17, 17, 17, 18, 18, 17, 17, 11]"/>
                    <Extension name="BinWeightedCountPos" value="[17.0, 17.0, 17.0, 17.0, 17.0, 18.0, 18.0, 17.0, 17.0, 11.0]"/>
                    <Extension name="BinCountNeg" value="[129, 54, 32, 17, 15, 7, 6, 5, 5, 15]"/>
                    <Extension name="BinPosRate" value="[0.11643835616438356, 0.23943661971830985, 0.3469387755102041, 0.5, 0.53125, 0.72, 0.75, 0.7727272727272727, 0.7727272727272727, 0.4230769230769231]"/>
                    <Extension name="BinWeightedCountNeg" value="[129.0, 54.0, 32.0, 17.0, 15.0, 7.0, 6.0, 5.0, 5.0, 15.0]"/>
                    <Extension name="KS" value="44.71570492496301"/>
                    <Extension name="BinWOE" value="[-1.4860976676378086, -0.6152693101472584, -0.09202116674555767, 0.5405013912121073, 0.6656645339425838, 1.4849629976037524, 1.6391136767524392, 1.7642768188106936, 1.7642768188106936, 0.23034646321735872]"/>
                    <Extension name="IV" value="1.2015565453038637"/>
                    <Interval closure="openClosed" leftMargin="-INF" rightMargin="17.15"/>
                    <Interval closure="openClosed" leftMargin="17.15" rightMargin="18.59"/>
                    <Interval closure="openClosed" leftMargin="18.59" rightMargin="19.63"/>
                    <Interval closure="openClosed" leftMargin="19.63" rightMargin="20.66"/>
                    <Interval closure="openClosed" leftMargin="20.66" rightMargin="21.54"/>
                    <Interval closure="openClosed" leftMargin="21.54" rightMargin="22.22"/>
                    <Interval closure="openClosed" leftMargin="22.22" rightMargin="23.33"/>
                    <Interval closure="openClosed" leftMargin="23.33" rightMargin="25.11"/>
                    <Interval closure="openClosed" leftMargin="25.11" rightMargin="27.61"/>
                    <Interval closure="openClosed" leftMargin="27.61" rightMargin="INF"/>
                </ContStats>
            </UnivariateStats>
            <UnivariateStats field="mean_perimeter">
                <Counts totalFreq="451.0" missingFreq="0.0" invalidFreq="0.0" cardinality="426"/>
                <NumericInfo minimum="43.79" maximum="188.5" mean="91.03900221729482" standardDeviation="23.798986582159028" median="117.4" interQuartileRange="-47.22999999999999">
                    <Quantile quantileLimit="0.0" quantileValue="43.79"/>
                    <Quantile quantileLimit="10.0" quantileValue="65.12"/>
                    <Quantile quantileLimit="20.0" quantileValue="73.02"/>
                    <Quantile quantileLimit="30.0" quantileValue="76.77"/>
                    <Quantile quantileLimit="40.0" quantileValue="81.25"/>
                    <Quantile quantileLimit="50.0" quantileValue="85.69"/>
                    <Quantile quantileLimit="60.0" quantileValue="89.79"/>
                    <Quantile quantileLimit="70.0" quantileValue="97.4"/>
                    <Quantile quantileLimit="80.0" quantileValue="109.8"/>
                    <Quantile quantileLimit="90.0" quantileValue="128.0"/>
                    <Quantile quantileLimit="100.0" quantileValue="188.5"/>
                </NumericInfo>
                <ContStats totalValuesSum="41058.58999999997" totalSquaresSum="3992809.3591">
                    <Extension name="BinCountPos" value="[17, 17, 17, 17, 17, 17, 17, 18, 17, 12]"/>
                    <Extension name="BinWeightedCountPos" value="[17.0, 17.0, 17.0, 17.0, 17.0, 17.0, 17.0, 18.0, 17.0, 12.0]"/>
                    <Extension name="BinCountNeg" value="[229, 32, 18, 4, 1, 1, 0, 0, 0, 0]"/>
                    <Extension name="BinPosRate" value="[0.06910569105691057, 0.3469387755102041, 0.4857142857142857, 0.8095238095238095, 0.9444444444444444, 0.9444444444444444, 1.0, 1.0, 1.0, 1.0]"/>
                    <Extension name="BinWeightedCountNeg" value="[229.0, 32.0, 18.0, 4.0, 1.0, 1.0, 0.0, 0.0, 0.0, 0.0]"/>
                    <Extension name="KS" value="71.09701965757769"/>
                    <Extension name="BinWOE" value="[-2.0600072667339, -0.09202116674555767, 0.483342977465296, 1.9874203686999032, 3.373714708444794, 3.373714708444794, 20.7470764866166, 20.8042349004023, 20.7470764866166, 20.398769792755246]"/>
                    <Extension name="IV" value="10.287005675609432"/>
                    <Interval closure="openClosed" leftMargin="-INF" rightMargin="87.76"/>
                    <Interval closure="openClosed" leftMargin="87.76" rightMargin="94.49"/>
                    <Interval closure="openClosed" leftMargin="94.49" rightMargin="102.1"/>
                    <Interval closure="openClosed" leftMargin="102.1" rightMargin="107.1"/>
                    <Interval closure="openClosed" leftMargin="107.1" rightMargin="113.4"/>
                    <Interval closure="openClosed" leftMargin="113.4" rightMargin="120.2"/>
                    <Interval closure="openClosed" leftMargin="120.2" rightMargin="127.9"/>
                    <Interval closure="openClosed" leftMargin="127.9" rightMargin="134.4"/>
                    <Interval closure="openClosed" leftMargin="134.4" rightMargin="143.0"/>
                    <Interval closure="openClosed" leftMargin="143.0" rightMargin="INF"/>
                </ContStats>
            </UnivariateStats>
            <UnivariateStats field="mean_area">
                <Counts totalFreq="451.0" missingFreq="0.0" invalidFreq="0.0" cardinality="437"/>
                <NumericInfo minimum="143.5" maximum="2499.0" mean="641.9361419068738" standardDeviation="342.28318036025223" median="307.3" interQuartileRange="122.10000000000002">
                    <Quantile quantileLimit="0.0" quantileValue="143.5"/>
                    <Quantile quantileLimit="10.0" quantileValue="321.2"/>
                    <Quantile quantileLimit="20.0" quantileValue="394.1"/>
                    <Quantile quantileLimit="30.0" quantileValue="438.6"/>
                    <Quantile quantileLimit="40.0" quantileValue="481.9"/>
                    <Quantile quantileLimit="50.0" quantileValue="538.9"/>
                    <Quantile quantileLimit="60.0" quantileValue="595.9"/>
                    <Quantile quantileLimit="70.0" quantileValue="684.5"/>
                    <Quantile quantileLimit="80.0" quantileValue="880.2"/>
                    <Quantile quantileLimit="90.0" quantileValue="1167.0"/>
                    <Quantile quantileLimit="100.0" quantileValue="2499.0"/>
                </NumericInfo>
                <ContStats totalValuesSum="289513.20000000007" totalSquaresSum="2.385699856400002E8">
                    <Extension name="BinCountPos" value="[17, 17, 17, 17, 17, 17, 17, 17, 17, 13]"/>
                    <Extension name="BinWeightedCountPos" value="[17.0, 17.0, 17.0, 17.0, 17.0, 17.0, 17.0, 17.0, 17.0, 13.0]"/>
                    <Extension name="BinCountNeg" value="[223, 33, 22, 3, 3, 1, 0, 0, 0, 0]"/>
                    <Extension name="BinPosRate" value="[0.07083333333333333, 0.34, 0.4358974358974359, 0.85, 0.85, 0.9444444444444444, 1.0, 1.0, 1.0, 1.0]"/>
                    <Extension name="BinWeightedCountNeg" value="[223.0, 33.0, 22.0, 3.0, 3.0, 1.0, 0.0, 0.0, 0.0, 0.0]"/>
                    <Extension name="KS" value="69.3426336926654"/>
                    <Extension name="BinWOE" value="[-2.0334570346431273, -0.1227928253853227, 0.2826722822910235, 2.2751024387766843, 2.2751024387766843, 3.373714708444794, 20.7470764866166, 20.7470764866166, 20.7470764866166, 20.478812500322373]"/>
                    <Extension name="IV" value="10.121231829148591"/>
                    <Interval closure="openClosed" leftMargin="-INF" rightMargin="561.0"/>
                    <Interval closure="openClosed" leftMargin="561.0" rightMargin="644.2"/>
                    <Interval closure="openClosed" leftMargin="644.2" rightMargin="719.5"/>
                    <Interval closure="openClosed" leftMargin="719.5" rightMargin="807.2"/>
                    <Interval closure="openClosed" leftMargin="807.2" rightMargin="929.4"/>
                    <Interval closure="openClosed" leftMargin="929.4" rightMargin="1027.0"/>
                    <Interval closure="openClosed" leftMargin="1027.0" rightMargin="1162.0"/>
                    <Interval closure="openClosed" leftMargin="1162.0" rightMargin="1288.0"/>
                    <Interval closure="openClosed" leftMargin="1288.0" rightMargin="1407.0"/>
                    <Interval closure="openClosed" leftMargin="1407.0" rightMargin="INF"/>
                </ContStats>
            </UnivariateStats>
            <UnivariateStats field="mean_smoothness">
                <Counts totalFreq="451.0" missingFreq="0.0" invalidFreq="0.0" cardinality="375"/>
                <NumericInfo minimum="0.05263" maximum="0.1634" mean="0.09693929046563197" standardDeviation="0.013917370790406204" median="0.08098" interQuartileRange="-0.02599">
                    <Quantile quantileLimit="0.0" quantileValue="0.05263"/>
                    <Quantile quantileLimit="10.0" quantileValue="0.08013"/>
                    <Quantile quantileLimit="20.0" quantileValue="0.08455"/>
                    <Quantile quantileLimit="30.0" quantileValue="0.08872"/>
                    <Quantile quantileLimit="40.0" quantileValue="0.09261"/>
                    <Quantile quantileLimit="50.0" quantileValue="0.09699"/>
                    <Quantile quantileLimit="60.0" quantileValue="0.1003"/>
                    <Quantile quantileLimit="70.0" quantileValue="0.1038"/>
                    <Quantile quantileLimit="80.0" quantileValue="0.1078"/>
                    <Quantile quantileLimit="90.0" quantileValue="0.115"/>
                    <Quantile quantileLimit="100.0" quantileValue="0.1634"/>
                </NumericInfo>
                <ContStats totalValuesSum="43.71962000000002" totalSquaresSum="4.325309886599999">
                    <Extension name="BinCountPos" value="[17, 17, 17, 17, 17, 17, 17, 17, 17, 13]"/>
                    <Extension name="BinWeightedCountPos" value="[17.0, 17.0, 17.0, 17.0, 17.0, 17.0, 17.0, 17.0, 17.0, 13.0]"/>
                    <Extension name="BinCountNeg" value="[118, 28, 34, 21, 23, 17, 19, 9, 9, 7]"/>
                    <Extension name="BinPosRate" value="[0.1259259259259259, 0.37777777777777777, 0.3333333333333333, 0.4473684210526316, 0.425, 0.5, 0.4722222222222222, 0.6538461538461539, 0.6538461538461539, 0.65]"/>
                    <Extension name="BinWeightedCountNeg" value="[118.0, 28.0, 34.0, 21.0, 23.0, 17.0, 19.0, 9.0, 9.0, 7.0]"/>
                    <Extension name="KS" value="32.435003170577055"/>
                    <Extension name="BinWOE" value="[-1.3969698877623964, 0.04151022575173289, -0.1526457885096027, 0.3291922978642282, 0.23822051977651387, 0.5405013912121073, 0.42927575627835346, 1.1764901564419077, 1.1764901564419077, 1.159540597523825]"/>
                    <Extension name="IV" value="0.7201560293309403"/>
                    <Interval closure="openClosed" leftMargin="-INF" rightMargin="0.08872"/>
                    <Interval closure="openClosed" leftMargin="0.08872" rightMargin="0.09261"/>
                    <Interval closure="openClosed" leftMargin="0.09261" rightMargin="0.09746"/>
                    <Interval closure="openClosed" leftMargin="0.09746" rightMargin="0.1002"/>
                    <Interval closure="openClosed" leftMargin="0.1002" rightMargin="0.1035"/>
                    <Interval closure="openClosed" leftMargin="0.1035" rightMargin="0.1063"/>
                    <Interval closure="openClosed" leftMargin="0.1063" rightMargin="0.11"/>
                    <Interval closure="openClosed" leftMargin="0.11" rightMargin="0.115"/>
                    <Interval closure="openClosed" leftMargin="0.115" rightMargin="0.12"/>
                    <Interval closure="openClosed" leftMargin="0.12" rightMargin="INF"/>
                </ContStats>
            </UnivariateStats>
            <UnivariateStats field="mean_compactness">
                <Counts totalFreq="451.0" missingFreq="0.0" invalidFreq="0.0" cardinality="429"/>
                <NumericInfo minimum="0.02344" maximum="0.3454" mean="0.103638758314856" standardDeviation="0.05193485801152233" median="0.07589" interQuartileRange="0.07192">
                    <Quantile quantileLimit="0.0" quantileValue="0.02344"/>
                    <Quantile quantileLimit="10.0" quantileValue="0.04701"/>
                    <Quantile quantileLimit="20.0" quantileValue="0.05914"/>
                    <Quantile quantileLimit="30.0" quantileValue="0.07081"/>
                    <Quantile quantileLimit="40.0" quantileValue="0.07957"/>
                    <Quantile quantileLimit="50.0" quantileValue="0.09228"/>
                    <Quantile quantileLimit="60.0" quantileValue="0.1096"/>
                    <Quantile quantileLimit="70.0" quantileValue="0.123"/>
                    <Quantile quantileLimit="80.0" quantileValue="0.1413"/>
                    <Quantile quantileLimit="90.0" quantileValue="0.1719"/>
                    <Quantile quantileLimit="100.0" quantileValue="0.3454"/>
                </NumericInfo>
                <ContStats totalValuesSum="46.74108000000005" totalSquaresSum="6.057939757999998">
                    <Extension name="BinCountPos" value="[17, 17, 17, 17, 17, 17, 17, 17, 17, 13]"/>
                    <Extension name="BinWeightedCountPos" value="[17.0, 17.0, 17.0, 17.0, 17.0, 17.0, 17.0, 17.0, 17.0, 13.0]"/>
                    <Extension name="BinCountNeg" value="[190, 41, 17, 10, 12, 6, 4, 3, 1, 1]"/>
                    <Extension name="BinPosRate" value="[0.0821256038647343, 0.29310344827586204, 0.5, 0.6296296296296297, 0.5862068965517241, 0.7391304347826086, 0.8095238095238095, 0.85, 0.9444444444444444, 0.9285714285714286]"/>
                    <Extension name="BinWeightedCountNeg" value="[190.0, 41.0, 17.0, 10.0, 12.0, 6.0, 4.0, 3.0, 1.0, 1.0]"/>
                    <Extension name="KS" value="60.57070386810399"/>
                    <Extension name="BinWOE" value="[-1.8733093353656922, -0.3398573304546359, 0.5405013912121073, 1.0711296411007483, 0.8888080847817935, 1.5819552629667388, 1.9874203686999032, 2.2751024387766843, 3.373714708444794, 3.1054507221505676]"/>
                    <Extension name="IV" value="2.299286123787332"/>
                    <Interval closure="openClosed" leftMargin="-INF" rightMargin="0.08564"/>
                    <Interval closure="openClosed" leftMargin="0.08564" rightMargin="0.1069"/>
                    <Interval closure="openClosed" leftMargin="0.1069" rightMargin="0.1159"/>
                    <Interval closure="openClosed" leftMargin="0.1159" rightMargin="0.128"/>
                    <Interval closure="openClosed" leftMargin="0.128" rightMargin="0.1353"/>
                    <Interval closure="openClosed" leftMargin="0.1353" rightMargin="0.1517"/>
                    <Interval closure="openClosed" leftMargin="0.1517" rightMargin="0.1676"/>
                    <Interval closure="openClosed" leftMargin="0.1676" rightMargin="0.1887"/>
                    <Interval closure="openClosed" leftMargin="0.1887" rightMargin="0.2236"/>
                    <Interval closure="openClosed" leftMargin="0.2236" rightMargin="INF"/>
                </ContStats>
            </UnivariateStats>
            <UnivariateStats field="mean_concavity">
                <Counts totalFreq="451.0" missingFreq="0.0" invalidFreq="0.0" cardinality="433"/>
                <NumericInfo minimum="0.0" maximum="0.4108" mean="0.08638756474501108" standardDeviation="0.07701785187640373" median="0.09042" interQuartileRange="0.03706">
                    <Quantile quantileLimit="0.0" quantileValue="0.0"/>
                    <Quantile quantileLimit="10.0" quantileValue="0.01171"/>
                    <Quantile quantileLimit="20.0" quantileValue="0.02353"/>
                    <Quantile quantileLimit="30.0" quantileValue="0.03299"/>
                    <Quantile quantileLimit="40.0" quantileValue="0.04392"/>
                    <Quantile quantileLimit="50.0" quantileValue="0.0594"/>
                    <Quantile quantileLimit="60.0" quantileValue="0.0858"/>
                    <Quantile quantileLimit="70.0" quantileValue="0.1112"/>
                    <Quantile quantileLimit="80.0" quantileValue="0.149"/>
                    <Quantile quantileLimit="90.0" quantileValue="0.195"/>
                    <Quantile quantileLimit="100.0" quantileValue="0.4108"/>
                </NumericInfo>
                <ContStats totalValuesSum="38.960791699999994" totalSquaresSum="6.035014193945689">
                    <Extension name="BinCountPos" value="[17, 17, 17, 17, 17, 17, 17, 17, 17, 13]"/>
                    <Extension name="BinWeightedCountPos" value="[17.0, 17.0, 17.0, 17.0, 17.0, 17.0, 17.0, 17.0, 17.0, 13.0]"/>
                    <Extension name="BinCountNeg" value="[251, 12, 11, 3, 2, 2, 0, 1, 1, 2]"/>
                    <Extension name="BinPosRate" value="[0.06343283582089553, 0.5862068965517241, 0.6071428571428571, 0.85, 0.8947368421052632, 0.8947368421052632, 1.0, 0.9444444444444444, 0.9444444444444444, 0.8666666666666667]"/>
                    <Extension name="BinWeightedCountNeg" value="[251.0, 12.0, 11.0, 3.0, 2.0, 2.0, 0.0, 1.0, 1.0, 2.0]"/>
                    <Extension name="KS" value="77.8292115831748"/>
                    <Extension name="BinWOE" value="[-2.151738202300536, 0.8888080847817935, 0.9758194615555141, 2.2751024387766843, 2.6805675421348485, 2.6805675421348485, 20.7470764866166, 3.373714708444794, 3.373714708444794, 2.412303555840622]"/>
                    <Extension name="IV" value="5.47501799655532"/>
                    <Interval closure="openClosed" leftMargin="-INF" rightMargin="0.08448"/>
                    <Interval closure="openClosed" leftMargin="0.08448" rightMargin="0.09966"/>
                    <Interval closure="openClosed" leftMargin="0.09966" rightMargin="0.1155"/>
                    <Interval closure="openClosed" leftMargin="0.1155" rightMargin="0.1362"/>
                    <Interval closure="openClosed" leftMargin="0.1362" rightMargin="0.1522"/>
                    <Interval closure="openClosed" leftMargin="0.1522" rightMargin="0.1683"/>
                    <Interval closure="openClosed" leftMargin="0.1683" rightMargin="0.1891"/>
                    <Interval closure="openClosed" leftMargin="0.1891" rightMargin="0.2188"/>
                    <Interval closure="openClosed" leftMargin="0.2188" rightMargin="0.2712"/>
                    <Interval closure="openClosed" leftMargin="0.2712" rightMargin="INF"/>
                </ContStats>
            </UnivariateStats>
            <UnivariateStats field="mean_concave_points">
                <Counts totalFreq="451.0" missingFreq="0.0" invalidFreq="0.0" cardinality="429"/>
                <NumericInfo minimum="0.0" maximum="0.1913" mean="0.04800662971175164" standardDeviation="0.03787405380442346" median="0.02343" interQuartileRange="-0.008535">
                    <Quantile quantileLimit="0.0" quantileValue="0.0"/>
                    <Quantile quantileLimit="10.0" quantileValue="0.01076"/>
                    <Quantile quantileLimit="20.0" quantileValue="0.01723"/>
                    <Quantile quantileLimit="30.0" quantileValue="0.02168"/>
                    <Quantile quantileLimit="40.0" quantileValue="0.02791"/>
                    <Quantile quantileLimit="50.0" quantileValue="0.03341"/>
                    <Quantile quantileLimit="60.0" quantileValue="0.04812"/>
                    <Quantile quantileLimit="70.0" quantileValue="0.06431"/>
                    <Quantile quantileLimit="80.0" quantileValue="0.08353"/>
                    <Quantile quantileLimit="90.0" quantileValue="0.0974"/>
                    <Quantile quantileLimit="100.0" quantileValue="0.1913"/>
                </NumericInfo>
                <ContStats totalValuesSum="21.65098999999999" totalSquaresSum="1.6848898380340007">
                    <Extension name="BinCountPos" value="[17, 17, 17, 17, 17, 17, 17, 17, 17, 13]"/>
                    <Extension name="BinWeightedCountPos" value="[17.0, 17.0, 17.0, 17.0, 17.0, 17.0, 17.0, 17.0, 17.0, 13.0]"/>
                    <Extension name="BinCountNeg" value="[265, 10, 5, 4, 1, 0, 0, 0, 0, 0]"/>
                    <Extension name="BinPosRate" value="[0.06028368794326241, 0.6296296296296297, 0.7727272727272727, 0.8095238095238095, 0.9444444444444444, 1.0, 1.0, 1.0, 1.0, 1.0]"/>
                    <Extension name="BinWeightedCountNeg" value="[265.0, 10.0, 5.0, 4.0, 1.0, 0.0, 0.0, 0.0, 0.0, 0.0]"/>
                    <Extension name="KS" value="82.7414922849292"/>
                    <Extension name="BinWOE" value="[-2.2060150891489756, 1.0711296411007483, 1.7642768188106936, 1.9874203686999032, 3.373714708444794, 20.7470764866166, 20.7470764866166, 20.7470764866166, 20.7470764866166, 20.478812500322373]"/>
                    <Extension name="IV" value="12.658992566177112"/>
                    <Interval closure="openClosed" leftMargin="-INF" rightMargin="0.05259"/>
                    <Interval closure="openClosed" leftMargin="0.05259" rightMargin="0.06139"/>
                    <Interval closure="openClosed" leftMargin="0.06139" rightMargin="0.06861"/>
                    <Interval closure="openClosed" leftMargin="0.06861" rightMargin="0.07953"/>
                    <Interval closure="openClosed" leftMargin="0.07953" rightMargin="0.08646"/>
                    <Interval closure="openClosed" leftMargin="0.08646" rightMargin="0.09052"/>
                    <Interval closure="openClosed" leftMargin="0.09052" rightMargin="0.09711"/>
                    <Interval closure="openClosed" leftMargin="0.09711" rightMargin="0.1144"/>
                    <Interval closure="openClosed" leftMargin="0.1144" rightMargin="0.1469"/>
                    <Interval closure="openClosed" leftMargin="0.1469" rightMargin="INF"/>
                </ContStats>
            </UnivariateStats>
            <UnivariateStats field="mean_symmetry">
                <Counts totalFreq="451.0" missingFreq="0.0" invalidFreq="0.0" cardinality="360"/>
                <NumericInfo minimum="0.106" maximum="0.304" mean="0.18126895787139696" standardDeviation="0.02693753207413136" median="0.1936" interQuartileRange="-0.023499999999999993">
                    <Quantile quantileLimit="0.0" quantileValue="0.106"/>
                    <Quantile quantileLimit="10.0" quantileValue="0.1505"/>
                    <Quantile quantileLimit="20.0" quantileValue="0.159"/>
                    <Quantile quantileLimit="30.0" quantileValue="0.1653"/>
                    <Quantile quantileLimit="40.0" quantileValue="0.172"/>
                    <Quantile quantileLimit="50.0" quantileValue="0.1799"/>
                    <Quantile quantileLimit="60.0" quantileValue="0.1861"/>
                    <Quantile quantileLimit="70.0" quantileValue="0.1928"/>
                    <Quantile quantileLimit="80.0" quantileValue="0.1995"/>
                    <Quantile quantileLimit="90.0" quantileValue="0.2157"/>
                    <Quantile quantileLimit="100.0" quantileValue="0.304"/>
                </NumericInfo>
                <ContStats totalValuesSum="81.75230000000003" totalSquaresSum="15.145687009999998">
                    <Extension name="BinCountPos" value="[17, 18, 17, 17, 17, 18, 17, 17, 17, 11]"/>
                    <Extension name="BinWeightedCountPos" value="[17.0, 18.0, 17.0, 17.0, 17.0, 18.0, 17.0, 17.0, 17.0, 11.0]"/>
                    <Extension name="BinCountNeg" value="[74, 70, 26, 22, 25, 17, 30, 5, 6, 10]"/>
                    <Extension name="BinPosRate" value="[0.18681318681318682, 0.20454545454545456, 0.3953488372093023, 0.4358974358974359, 0.40476190476190477, 0.5142857142857142, 0.3617021276595745, 0.7727272727272727, 0.7391304347826086, 0.5238095238095238]"/>
                    <Extension name="BinWeightedCountNeg" value="[74.0, 70.0, 26.0, 22.0, 25.0, 17.0, 30.0, 5.0, 6.0, 10.0]"/>
                    <Extension name="KS" value="29.441978440076095"/>
                    <Extension name="BinWOE" value="[-0.930350356644511, -0.8176220917260076, 0.11561819782715807, 0.2826722822910235, 0.1548389109365933, 0.5976598049978075, -0.02748264566736136, 1.7642768188106936, 1.5819552629667388, 0.635811570375523]"/>
                    <Extension name="IV" value="0.596632742950599"/>
                    <Interval closure="openClosed" leftMargin="-INF" rightMargin="0.1592"/>
                    <Interval closure="openClosed" leftMargin="0.1592" rightMargin="0.1718"/>
                    <Interval closure="openClosed" leftMargin="0.1718" rightMargin="0.1793"/>
                    <Interval closure="openClosed" leftMargin="0.1793" rightMargin="0.1848"/>
                    <Interval closure="openClosed" leftMargin="0.1848" rightMargin="0.1909"/>
                    <Interval closure="openClosed" leftMargin="0.1909" rightMargin="0.1954"/>
                    <Interval closure="openClosed" leftMargin="0.1954" rightMargin="0.2092"/>
                    <Interval closure="openClosed" leftMargin="0.2092" rightMargin="0.2162"/>
                    <Interval closure="openClosed" leftMargin="0.2162" rightMargin="0.233"/>
                    <Interval closure="openClosed" leftMargin="0.233" rightMargin="INF"/>
                </ContStats>
            </UnivariateStats>
            <UnivariateStats field="mean_fractal_dimension">
                <Counts totalFreq="451.0" missingFreq="0.0" invalidFreq="0.0" cardinality="407"/>
                <NumericInfo minimum="0.05024" maximum="0.09744" mean="0.06301578713968953" standardDeviation="0.006943629533699247" median="0.06114" interQuartileRange="0.0018299999999999983">
                    <Quantile quantileLimit="0.0" quantileValue="0.05024"/>
                    <Quantile quantileLimit="10.0" quantileValue="0.05561"/>
                    <Quantile quantileLimit="20.0" quantileValue="0.05708"/>
                    <Quantile quantileLimit="30.0" quantileValue="0.05898"/>
                    <Quantile quantileLimit="40.0" quantileValue="0.06069"/>
                    <Quantile quantileLimit="50.0" quantileValue="0.06183"/>
                    <Quantile quantileLimit="60.0" quantileValue="0.06322"/>
                    <Quantile quantileLimit="70.0" quantileValue="0.06532"/>
                    <Quantile quantileLimit="80.0" quantileValue="0.06782"/>
                    <Quantile quantileLimit="90.0" quantileValue="0.07253"/>
                    <Quantile quantileLimit="100.0" quantileValue="0.09744"/>
                </NumericInfo>
                <ContStats totalValuesSum="28.42011999999998" totalSquaresSum="1.8126115283999993">
                    <Extension name="BinCountPos" value="[17, 17, 17, 17, 17, 17, 17, 17, 17, 13]"/>
                    <Extension name="BinWeightedCountPos" value="[17.0, 17.0, 17.0, 17.0, 17.0, 17.0, 17.0, 17.0, 17.0, 13.0]"/>
                    <Extension name="BinCountNeg" value="[11, 20, 55, 48, 23, 35, 37, 21, 21, 14]"/>
                    <Extension name="BinPosRate" value="[0.6071428571428571, 0.4594594594594595, 0.2361111111111111, 0.26153846153846155, 0.425, 0.3269230769230769, 0.3148148148148148, 0.4473684210526316, 0.4473684210526316, 0.48148148148148145]"/>
                    <Extension name="BinWeightedCountNeg" value="[11.0, 20.0, 55.0, 48.0, 23.0, 35.0, 37.0, 21.0, 21.0, 14.0]"/>
                    <Extension name="KS" value="9.604734728387232"/>
                    <Extension name="BinWOE" value="[0.9758194615555141, 0.37798246196580304, -0.6336184488058589, -0.49748627455684713, 0.23822051977651387, -0.18163332535890536, -0.23720317646970082, 0.3291922978642282, 0.3291922978642282, 0.46639341899959413]"/>
                    <Extension name="IV" value="0.21258807920956507"/>
                    <Interval closure="openClosed" leftMargin="-INF" rightMargin="0.05474"/>
                    <Interval closure="openClosed" leftMargin="0.05474" rightMargin="0.0565"/>
                    <Interval closure="openClosed" leftMargin="0.0565" rightMargin="0.05899"/>
                    <Interval closure="openClosed" leftMargin="0.05899" rightMargin="0.06114"/>
                    <Interval closure="openClosed" leftMargin="0.06114" rightMargin="0.06228"/>
                    <Interval closure="openClosed" leftMargin="0.06228" rightMargin="0.06422"/>
                    <Interval closure="openClosed" leftMargin="0.06422" rightMargin="0.06677"/>
                    <Interval closure="openClosed" leftMargin="0.06677" rightMargin="0.0696"/>
                    <Interval closure="openClosed" leftMargin="0.0696" rightMargin="0.07469"/>
                    <Interval closure="openClosed" leftMargin="0.07469" rightMargin="INF"/>
                </ContStats>
            </UnivariateStats>
            <UnivariateStats field="std_radius">
                <Counts totalFreq="451.0" missingFreq="0.0" invalidFreq="0.0" cardinality="433"/>
                <NumericInfo minimum="0.1115" maximum="2.873" mean="0.3994824833702881" standardDeviation="0.2630691102759401" median="0.243" interQuartileRange="-0.6569999999999999">
                    <Quantile quantileLimit="0.0" quantileValue="0.1115"/>
                    <Quantile quantileLimit="10.0" quantileValue="0.184"/>
                    <Quantile quantileLimit="20.0" quantileValue="0.2182"/>
                    <Quantile quantileLimit="30.0" quantileValue="0.2431"/>
                    <Quantile quantileLimit="40.0" quantileValue="0.2784"/>
                    <Quantile quantileLimit="50.0" quantileValue="0.3198"/>
                    <Quantile quantileLimit="60.0" quantileValue="0.37"/>
                    <Quantile quantileLimit="70.0" quantileValue="0.4266"/>
                    <Quantile quantileLimit="80.0" quantileValue="0.5381"/>
                    <Quantile quantileLimit="90.0" quantileValue="0.7392"/>
                    <Quantile quantileLimit="100.0" quantileValue="2.873"/>
                </NumericInfo>
                <ContStats totalValuesSum="180.16659999999993" totalSquaresSum="103.11581033999994">
                    <Extension name="BinCountPos" value="[17, 17, 17, 17, 17, 17, 17, 17, 17, 13]"/>
                    <Extension name="BinWeightedCountPos" value="[17.0, 17.0, 17.0, 17.0, 17.0, 17.0, 17.0, 17.0, 17.0, 13.0]"/>
                    <Extension name="BinCountNeg" value="[157, 46, 53, 11, 12, 2, 1, 2, 1, 0]"/>
                    <Extension name="BinPosRate" value="[0.09770114942528736, 0.2698412698412698, 0.24285714285714285, 0.6071428571428571, 0.5862068965517241, 0.8947368421052632, 0.9444444444444444, 0.8947368421052632, 0.9444444444444444, 1.0]"/>
                    <Extension name="BinWeightedCountNeg" value="[157.0, 46.0, 53.0, 11.0, 12.0, 2.0, 1.0, 2.0, 1.0, 0.0]"/>
                    <Extension name="KS" value="59.10166983724372"/>
                    <Extension name="BinWOE" value="[-1.682531068585043, -0.45492666016386635, -0.5965771771450639, 0.9758194615555141, 0.8888080847817935, 2.6805675421348485, 3.373714708444794, 2.6805675421348485, 3.373714708444794, 20.478812500322373]"/>
                    <Extension name="IV" value="3.7296137218957752"/>
                    <Interval closure="openClosed" leftMargin="-INF" rightMargin="0.2713"/>
                    <Interval closure="openClosed" leftMargin="0.2713" rightMargin="0.335"/>
                    <Interval closure="openClosed" leftMargin="0.335" rightMargin="0.4207"/>
                    <Interval closure="openClosed" leftMargin="0.4207" rightMargin="0.4709"/>
                    <Interval closure="openClosed" leftMargin="0.4709" rightMargin="0.5539"/>
                    <Interval closure="openClosed" leftMargin="0.5539" rightMargin="0.6289"/>
                    <Interval closure="openClosed" leftMargin="0.6289" rightMargin="0.7128"/>
                    <Interval closure="openClosed" leftMargin="0.7128" rightMargin="0.8337"/>
                    <Interval closure="openClosed" leftMargin="0.8337" rightMargin="1.058"/>
                    <Interval closure="openClosed" leftMargin="1.058" rightMargin="INF"/>
                </ContStats>
            </UnivariateStats>
            <UnivariateStats field="std_texture">
                <Counts totalFreq="451.0" missingFreq="0.0" invalidFreq="0.0" cardinality="418"/>
                <NumericInfo minimum="0.3602" maximum="4.885" mean="1.2143529933481156" standardDeviation="0.5487532744998916" median="1.539" interQuartileRange="-0.7494">
                    <Quantile quantileLimit="0.0" quantileValue="0.3602"/>
                    <Quantile quantileLimit="10.0" quantileValue="0.6332"/>
                    <Quantile quantileLimit="20.0" quantileValue="0.78"/>
                    <Quantile quantileLimit="30.0" quantileValue="0.9017"/>
                    <Quantile quantileLimit="40.0" quantileValue="1.001"/>
                    <Quantile quantileLimit="50.0" quantileValue="1.111"/>
                    <Quantile quantileLimit="60.0" quantileValue="1.265"/>
                    <Quantile quantileLimit="70.0" quantileValue="1.4"/>
                    <Quantile quantileLimit="80.0" quantileValue="1.563"/>
                    <Quantile quantileLimit="90.0" quantileValue="1.905"/>
                    <Quantile quantileLimit="100.0" quantileValue="4.885"/>
                </NumericInfo>
                <ContStats totalValuesSum="547.6732000000002" totalSquaresSum="800.5771591200005">
                    <Extension name="BinCountPos" value="[17, 17, 17, 17, 17, 17, 17, 17, 17, 13]"/>
                    <Extension name="BinWeightedCountPos" value="[17.0, 17.0, 17.0, 17.0, 17.0, 17.0, 17.0, 17.0, 17.0, 13.0]"/>
                    <Extension name="BinCountNeg" value="[47, 33, 22, 20, 12, 31, 21, 28, 31, 40]"/>
                    <Extension name="BinPosRate" value="[0.265625, 0.34, 0.4358974358974359, 0.4594594594594595, 0.5862068965517241, 0.3541666666666667, 0.4473684210526316, 0.37777777777777777, 0.3541666666666667, 0.24528301886792453]"/>
                    <Extension name="BinWeightedCountNeg" value="[47.0, 33.0, 22.0, 20.0, 12.0, 31.0, 21.0, 28.0, 31.0, 40.0]"/>
                    <Extension name="KS" value="7.588247727753117"/>
                    <Extension name="BinWOE" value="[-0.47643286537164786, -0.1227928253853227, 0.2826722822910235, 0.37798246196580304, 0.8888080847817935, -0.060272468459707164, 0.3291922978642282, 0.04151022575173289, -0.060272468459707164, -0.5834287041758693]"/>
                    <Extension name="IV" value="0.15092280098427113"/>
                    <Interval closure="openClosed" leftMargin="-INF" rightMargin="0.6864"/>
                    <Interval closure="openClosed" leftMargin="0.6864" rightMargin="0.8423"/>
                    <Interval closure="openClosed" leftMargin="0.8423" rightMargin="0.9264"/>
                    <Interval closure="openClosed" leftMargin="0.9264" rightMargin="1.018"/>
                    <Interval closure="openClosed" leftMargin="1.018" rightMargin="1.079"/>
                    <Interval closure="openClosed" leftMargin="1.079" rightMargin="1.239"/>
                    <Interval closure="openClosed" leftMargin="1.239" rightMargin="1.363"/>
                    <Interval closure="openClosed" leftMargin="1.363" rightMargin="1.51"/>
                    <Interval closure="openClosed" leftMargin="1.51" rightMargin="1.849"/>
                    <Interval closure="openClosed" leftMargin="1.849" rightMargin="INF"/>
                </ContStats>
            </UnivariateStats>
            <UnivariateStats field="std_perimeter">
                <Counts totalFreq="451.0" missingFreq="0.0" invalidFreq="0.0" cardinality="432"/>
                <NumericInfo minimum="0.757" maximum="21.98" mean="2.8051995565410204" standardDeviation="1.8874584089957325" median="1.183" interQuartileRange="0.5569999999999999">
                    <Quantile quantileLimit="0.0" quantileValue="0.757"/>
                    <Quantile quantileLimit="10.0" quantileValue="1.286"/>
                    <Quantile quantileLimit="20.0" quantileValue="1.516"/>
                    <Quantile quantileLimit="30.0" quantileValue="1.729"/>
                    <Quantile quantileLimit="40.0" quantileValue="1.996"/>
                    <Quantile quantileLimit="50.0" quantileValue="2.257"/>
                    <Quantile quantileLimit="60.0" quantileValue="2.577"/>
                    <Quantile quantileLimit="70.0" quantileValue="3.014"/>
                    <Quantile quantileLimit="80.0" quantileValue="3.767"/>
                    <Quantile quantileLimit="90.0" quantileValue="4.906"/>
                    <Quantile quantileLimit="100.0" quantileValue="21.98"/>
                </NumericInfo>
                <ContStats totalValuesSum="1265.1450000000002" totalSquaresSum="5152.108852520006">
                    <Extension name="BinCountPos" value="[17, 17, 17, 17, 17, 17, 17, 18, 17, 12]"/>
                    <Extension name="BinWeightedCountPos" value="[17.0, 17.0, 17.0, 17.0, 17.0, 17.0, 17.0, 18.0, 17.0, 12.0]"/>
                    <Extension name="BinCountNeg" value="[160, 59, 34, 6, 13, 8, 3, 2, 0, 0]"/>
                    <Extension name="BinPosRate" value="[0.096045197740113, 0.2236842105263158, 0.3333333333333333, 0.7391304347826086, 0.5666666666666667, 0.68, 0.85, 0.9, 1.0, 1.0]"/>
                    <Extension name="BinWeightedCountNeg" value="[160.0, 59.0, 34.0, 6.0, 13.0, 8.0, 3.0, 2.0, 0.0, 0.0]"/>
                    <Extension name="KS" value="58.04903825829635"/>
                    <Extension name="BinWOE" value="[-1.701459078467158, -0.7038227074439765, -0.1526457885096027, 1.5819552629667388, 0.8087653772909493, 1.294273191702458, 2.2751024387766843, 2.737725955920549, 20.7470764866166, 20.398769792755246]"/>
                    <Extension name="IV" value="5.214019897505399"/>
                    <Interval closure="openClosed" leftMargin="-INF" rightMargin="1.976"/>
                    <Interval closure="openClosed" leftMargin="1.976" rightMargin="2.455"/>
                    <Interval closure="openClosed" leftMargin="2.455" rightMargin="2.884"/>
                    <Interval closure="openClosed" leftMargin="2.884" rightMargin="3.149"/>
                    <Interval closure="openClosed" leftMargin="3.149" rightMargin="3.705"/>
                    <Interval closure="openClosed" leftMargin="3.705" rightMargin="4.277"/>
                    <Interval closure="openClosed" leftMargin="4.277" rightMargin="4.851"/>
                    <Interval closure="openClosed" leftMargin="4.851" rightMargin="5.82"/>
                    <Interval closure="openClosed" leftMargin="5.82" rightMargin="7.673"/>
                    <Interval closure="openClosed" leftMargin="7.673" rightMargin="INF"/>
                </ContStats>
            </UnivariateStats>
            <UnivariateStats field="std_area">
                <Counts totalFreq="451.0" missingFreq="0.0" invalidFreq="0.0" cardinality="423"/>
                <NumericInfo minimum="7.228" maximum="525.6" mean="39.06338359201773" standardDeviation="40.93544090327923" median="67.34" interQuartileRange="-0.759999999999998">
                    <Quantile quantileLimit="0.0" quantileValue="7.228"/>
                    <Quantile quantileLimit="10.0" quantileValue="13.12"/>
                    <Quantile quantileLimit="20.0" quantileValue="16.51"/>
                    <Quantile quantileLimit="30.0" quantileValue="18.76"/>
                    <Quantile quantileLimit="40.0" quantileValue="20.86"/>
                    <Quantile quantileLimit="50.0" quantileValue="24.25"/>
                    <Quantile quantileLimit="60.0" quantileValue="28.9"/>
                    <Quantile quantileLimit="70.0" quantileValue="35.77"/>
                    <Quantile quantileLimit="80.0" quantileValue="52.49"/>
                    <Quantile quantileLimit="90.0" quantileValue="89.74"/>
                    <Quantile quantileLimit="100.0" quantileValue="525.6"/>
                </NumericInfo>
                <ContStats totalValuesSum="17617.585999999996" totalSquaresSum="1442272.1647580008">
                    <Extension name="BinCountPos" value="[17, 17, 17, 17, 17, 17, 17, 17, 17, 13]"/>
                    <Extension name="BinWeightedCountPos" value="[17.0, 17.0, 17.0, 17.0, 17.0, 17.0, 17.0, 17.0, 17.0, 13.0]"/>
                    <Extension name="BinCountNeg" value="[207, 51, 16, 5, 5, 0, 1, 0, 0, 0]"/>
                    <Extension name="BinPosRate" value="[0.07589285714285714, 0.25, 0.5151515151515151, 0.7727272727272727, 0.7727272727272727, 1.0, 0.9444444444444444, 1.0, 1.0, 1.0]"/>
                    <Extension name="BinWeightedCountNeg" value="[207.0, 51.0, 16.0, 5.0, 5.0, 0.0, 1.0, 0.0, 0.0, 0.0]"/>
                    <Extension name="KS" value="70.04438807863032"/>
                    <Extension name="BinWOE" value="[-1.9590040564582565, -0.5581108963383554, 0.6011260129237626, 1.7642768188106936, 1.7642768188106936, 20.7470764866166, 3.373714708444794, 20.7470764866166, 20.7470764866166, 20.478812500322373]"/>
                    <Extension name="IV" value="9.903745892093415"/>
                    <Interval closure="openClosed" leftMargin="-INF" rightMargin="24.2"/>
                    <Interval closure="openClosed" leftMargin="24.2" rightMargin="32.55"/>
                    <Interval closure="openClosed" leftMargin="32.55" rightMargin="40.73"/>
                    <Interval closure="openClosed" leftMargin="40.73" rightMargin="48.55"/>
                    <Interval closure="openClosed" leftMargin="48.55" rightMargin="58.63"/>
                    <Interval closure="openClosed" leftMargin="58.63" rightMargin="72.44"/>
                    <Interval closure="openClosed" leftMargin="72.44" rightMargin="88.25"/>
                    <Interval closure="openClosed" leftMargin="88.25" rightMargin="103.6"/>
                    <Interval closure="openClosed" leftMargin="103.6" rightMargin="134.8"/>
                    <Interval closure="openClosed" leftMargin="134.8" rightMargin="INF"/>
                </ContStats>
            </UnivariateStats>
            <UnivariateStats field="std_smoothness">
                <Counts totalFreq="451.0" missingFreq="0.0" invalidFreq="0.0" cardinality="435"/>
                <NumericInfo minimum="0.001713" maximum="0.03113" mean="0.0070297339246119745" standardDeviation="0.0029010537656632223" median="0.005498" interQuartileRange="0.00207">
                    <Quantile quantileLimit="0.0" quantileValue="0.001713"/>
                    <Quantile quantileLimit="10.0" quantileValue="0.004148"/>
                    <Quantile quantileLimit="20.0" quantileValue="0.004821"/>
                    <Quantile quantileLimit="30.0" quantileValue="0.005393"/>
                    <Quantile quantileLimit="40.0" quantileValue="0.005883"/>
                    <Quantile quantileLimit="50.0" quantileValue="0.006455"/>
                    <Quantile quantileLimit="60.0" quantileValue="0.007138"/>
                    <Quantile quantileLimit="70.0" quantileValue="0.007881"/>
                    <Quantile quantileLimit="80.0" quantileValue="0.008824"/>
                    <Quantile quantileLimit="90.0" quantileValue="0.01039"/>
                    <Quantile quantileLimit="100.0" quantileValue="0.03113"/>
                </NumericInfo>
                <ContStats totalValuesSum="3.1704100000000004" totalSquaresSum="0.026073389559999993">
                    <Extension name="BinCountPos" value="[17, 17, 17, 17, 17, 17, 17, 17, 17, 13]"/>
                    <Extension name="BinWeightedCountPos" value="[17.0, 17.0, 17.0, 17.0, 17.0, 17.0, 17.0, 17.0, 17.0, 13.0]"/>
                    <Extension name="BinCountNeg" value="[49, 13, 21, 19, 24, 20, 39, 20, 36, 44]"/>
                    <Extension name="BinPosRate" value="[0.25757575757575757, 0.5666666666666667, 0.4473684210526316, 0.4722222222222222, 0.4146341463414634, 0.4594594594594595, 0.30357142857142855, 0.4594594594594595, 0.32075471698113206, 0.22807017543859648]"/>
                    <Extension name="BinWeightedCountNeg" value="[49.0, 13.0, 21.0, 19.0, 24.0, 20.0, 39.0, 20.0, 36.0, 44.0]"/>
                    <Extension name="KS" value="10.217712957091507"/>
                    <Extension name="BinWOE" value="[-0.5181055617474655, 0.8087653772909493, 0.3291922978642282, 0.42927575627835346, 0.19566090540934836, 0.37798246196580304, -0.28984690991562195, 0.37798246196580304, -0.20980420230298286, -0.6787388839154214]"/>
                    <Extension name="IV" value="0.20131093550738427"/>
                    <Interval closure="openClosed" leftMargin="-INF" rightMargin="0.004455"/>
                    <Interval closure="openClosed" leftMargin="0.004455" rightMargin="0.00491"/>
                    <Interval closure="openClosed" leftMargin="0.00491" rightMargin="0.005391"/>
                    <Interval closure="openClosed" leftMargin="0.005391" rightMargin="0.005771"/>
                    <Interval closure="openClosed" leftMargin="0.005771" rightMargin="0.006261"/>
                    <Interval closure="openClosed" leftMargin="0.006261" rightMargin="0.006708"/>
                    <Interval closure="openClosed" leftMargin="0.006708" rightMargin="0.007594"/>
                    <Interval closure="openClosed" leftMargin="0.007594" rightMargin="0.00832"/>
                    <Interval closure="openClosed" leftMargin="0.00832" rightMargin="0.009895"/>
                    <Interval closure="openClosed" leftMargin="0.009895" rightMargin="INF"/>
                </ContStats>
            </UnivariateStats>
            <UnivariateStats field="std_compactness">
                <Counts totalFreq="451.0" missingFreq="0.0" invalidFreq="0.0" cardinality="439"/>
                <NumericInfo minimum="0.003012" maximum="0.1354" mean="0.024714662971175173" standardDeviation="0.017260867199327665" median="0.01442" interQuartileRange="0.010280000000000001">
                    <Quantile quantileLimit="0.0" quantileValue="0.003012"/>
                    <Quantile quantileLimit="10.0" quantileValue="0.008878"/>
                    <Quantile quantileLimit="20.0" quantileValue="0.01156"/>
                    <Quantile quantileLimit="30.0" quantileValue="0.0138"/>
                    <Quantile quantileLimit="40.0" quantileValue="0.01659"/>
                    <Quantile quantileLimit="50.0" quantileValue="0.02016"/>
                    <Quantile quantileLimit="60.0" quantileValue="0.02418"/>
                    <Quantile quantileLimit="70.0" quantileValue="0.02899"/>
                    <Quantile quantileLimit="80.0" quantileValue="0.03498"/>
                    <Quantile quantileLimit="90.0" quantileValue="0.04638"/>
                    <Quantile quantileLimit="100.0" quantileValue="0.1354"/>
                </NumericInfo>
                <ContStats totalValuesSum="11.146313000000003" totalSquaresSum="0.409548260579">
                    <Extension name="BinCountPos" value="[17, 17, 17, 17, 17, 17, 17, 17, 17, 13]"/>
                    <Extension name="BinWeightedCountPos" value="[17.0, 17.0, 17.0, 17.0, 17.0, 17.0, 17.0, 17.0, 17.0, 13.0]"/>
                    <Extension name="BinCountNeg" value="[125, 51, 29, 14, 7, 11, 14, 10, 13, 11]"/>
                    <Extension name="BinPosRate" value="[0.11971830985915492, 0.25, 0.3695652173913043, 0.5483870967741935, 0.7083333333333334, 0.6071428571428571, 0.5483870967741935, 0.6296296296296297, 0.5666666666666667, 0.5416666666666666]"/>
                    <Extension name="BinWeightedCountNeg" value="[125.0, 51.0, 29.0, 14.0, 7.0, 11.0, 14.0, 10.0, 13.0, 11.0]"/>
                    <Extension name="KS" value="41.2724582540689"/>
                    <Extension name="BinWOE" value="[-1.4545990005855072, -0.5581108963383554, 0.006418905975561349, 0.734657405293821, 1.427804583818052, 0.9758194615555141, 0.734657405293821, 1.0711296411007483, 0.8087653772909493, 0.7075554752612875]"/>
                    <Extension name="IV" value="0.9296017487607479"/>
                    <Interval closure="openClosed" leftMargin="-INF" rightMargin="0.014"/>
                    <Interval closure="openClosed" leftMargin="0.014" rightMargin="0.01893"/>
                    <Interval closure="openClosed" leftMargin="0.01893" rightMargin="0.02297"/>
                    <Interval closure="openClosed" leftMargin="0.02297" rightMargin="0.02583"/>
                    <Interval closure="openClosed" leftMargin="0.02583" rightMargin="0.02863"/>
                    <Interval closure="openClosed" leftMargin="0.02863" rightMargin="0.03206"/>
                    <Interval closure="openClosed" leftMargin="0.03206" rightMargin="0.03728"/>
                    <Interval closure="openClosed" leftMargin="0.03728" rightMargin="0.04265"/>
                    <Interval closure="openClosed" leftMargin="0.04265" rightMargin="0.05914"/>
                    <Interval closure="openClosed" leftMargin="0.05914" rightMargin="INF"/>
                </ContStats>
            </UnivariateStats>
            <UnivariateStats field="std_concavity">
                <Counts totalFreq="451.0" missingFreq="0.0" invalidFreq="0.0" cardinality="429"/>
                <NumericInfo minimum="0.0" maximum="0.396" mean="0.03104364434589802" standardDeviation="0.03127275265385908" median="0.01981" interQuartileRange="0.046700000000000005">
                    <Quantile quantileLimit="0.0" quantileValue="0.0"/>
                    <Quantile quantileLimit="10.0" quantileValue="0.007066"/>
                    <Quantile quantileLimit="20.0" quantileValue="0.01168"/>
                    <Quantile quantileLimit="30.0" quantileValue="0.01622"/>
                    <Quantile quantileLimit="40.0" quantileValue="0.01996"/>
                    <Quantile quantileLimit="50.0" quantileValue="0.02509"/>
                    <Quantile quantileLimit="60.0" quantileValue="0.02975"/>
                    <Quantile quantileLimit="70.0" quantileValue="0.03576"/>
                    <Quantile quantileLimit="80.0" quantileValue="0.04497"/>
                    <Quantile quantileLimit="90.0" quantileValue="0.05661"/>
                    <Quantile quantileLimit="100.0" quantileValue="0.396"/>
                </NumericInfo>
                <ContStats totalValuesSum="14.000683600000007" totalSquaresSum="0.8747245186251">
                    <Extension name="BinCountPos" value="[17, 17, 17, 17, 17, 17, 17, 17, 17, 13]"/>
                    <Extension name="BinWeightedCountPos" value="[17.0, 17.0, 17.0, 17.0, 17.0, 17.0, 17.0, 17.0, 17.0, 13.0]"/>
                    <Extension name="BinCountNeg" value="[170, 22, 16, 14, 13, 9, 9, 10, 8, 14]"/>
                    <Extension name="BinPosRate" value="[0.09090909090909091, 0.4358974358974359, 0.5151515151515151, 0.5483870967741935, 0.5666666666666667, 0.6538461538461539, 0.6538461538461539, 0.6296296296296297, 0.68, 0.48148148148148145]"/>
                    <Extension name="BinWeightedCountNeg" value="[170.0, 22.0, 16.0, 14.0, 13.0, 9.0, 9.0, 10.0, 8.0, 14.0]"/>
                    <Extension name="KS" value="49.40815895159585"/>
                    <Extension name="BinWOE" value="[-1.762083700273115, 0.2826722822910235, 0.6011260129237626, 0.734657405293821, 0.8087653772909493, 1.1764901564419077, 1.1764901564419077, 1.0711296411007483, 1.294273191702458, 0.46639341899959413]"/>
                    <Extension name="IV" value="1.3392402519279094"/>
                    <Interval closure="openClosed" leftMargin="-INF" rightMargin="0.02063"/>
                    <Interval closure="openClosed" leftMargin="0.02063" rightMargin="0.02526"/>
                    <Interval closure="openClosed" leftMargin="0.02526" rightMargin="0.02817"/>
                    <Interval closure="openClosed" leftMargin="0.02817" rightMargin="0.03204"/>
                    <Interval closure="openClosed" leftMargin="0.03204" rightMargin="0.03697"/>
                    <Interval closure="openClosed" leftMargin="0.03697" rightMargin="0.04252"/>
                    <Interval closure="openClosed" leftMargin="0.04252" rightMargin="0.04712"/>
                    <Interval closure="openClosed" leftMargin="0.04712" rightMargin="0.05489"/>
                    <Interval closure="openClosed" leftMargin="0.05489" rightMargin="0.07339"/>
                    <Interval closure="openClosed" leftMargin="0.07339" rightMargin="INF"/>
                </ContStats>
            </UnivariateStats>
            <UnivariateStats field="std_concave_points">
                <Counts totalFreq="451.0" missingFreq="0.0" invalidFreq="0.0" cardinality="410"/>
                <NumericInfo minimum="0.0" maximum="0.05279" mean="0.011561299334811526" standardDeviation="0.006083470895356035" median="0.009087" interQuartileRange="0.00702">
                    <Quantile quantileLimit="0.0" quantileValue="0.0"/>
                    <Quantile quantileLimit="10.0" quantileValue="0.005298"/>
                    <Quantile quantileLimit="20.0" quantileValue="0.006801"/>
                    <Quantile quantileLimit="30.0" quantileValue="0.00826"/>
                    <Quantile quantileLimit="40.0" quantileValue="0.009443"/>
                    <Quantile quantileLimit="50.0" quantileValue="0.01083"/>
                    <Quantile quantileLimit="60.0" quantileValue="0.01209"/>
                    <Quantile quantileLimit="70.0" quantileValue="0.01361"/>
                    <Quantile quantileLimit="80.0" quantileValue="0.01569"/>
                    <Quantile quantileLimit="90.0" quantileValue="0.01846"/>
                    <Quantile quantileLimit="100.0" quantileValue="0.05279"/>
                </NumericInfo>
                <ContStats totalValuesSum="5.214145999999999" totalSquaresSum="0.07693518084199995">
                    <Extension name="BinCountPos" value="[17, 17, 17, 17, 17, 17, 17, 17, 17, 13]"/>
                    <Extension name="BinWeightedCountPos" value="[17.0, 17.0, 17.0, 17.0, 17.0, 17.0, 17.0, 17.0, 17.0, 13.0]"/>
                    <Extension name="BinCountNeg" value="[154, 39, 28, 8, 15, 7, 9, 9, 6, 10]"/>
                    <Extension name="BinPosRate" value="[0.09941520467836257, 0.30357142857142855, 0.37777777777777777, 0.68, 0.53125, 0.7083333333333334, 0.6538461538461539, 0.6538461538461539, 0.7391304347826086, 0.5652173913043478]"/>
                    <Extension name="BinWeightedCountNeg" value="[154.0, 39.0, 28.0, 8.0, 15.0, 7.0, 9.0, 9.0, 6.0, 10.0]"/>
                    <Extension name="KS" value="47.23737053477066"/>
                    <Extension name="BinWOE" value="[-1.6632378656539002, -0.28984690991562195, 0.04151022575173289, 1.294273191702458, 0.6656645339425838, 1.427804583818052, 1.1764901564419077, 1.1764901564419077, 1.5819552629667388, 0.8028656548065214]"/>
                    <Extension name="IV" value="1.3091272382958148"/>
                    <Interval closure="openClosed" leftMargin="-INF" rightMargin="0.009231"/>
                    <Interval closure="openClosed" leftMargin="0.009231" rightMargin="0.01091"/>
                    <Interval closure="openClosed" leftMargin="0.01091" rightMargin="0.01226"/>
                    <Interval closure="openClosed" leftMargin="0.01226" rightMargin="0.01304"/>
                    <Interval closure="openClosed" leftMargin="0.01304" rightMargin="0.0142"/>
                    <Interval closure="openClosed" leftMargin="0.0142" rightMargin="0.01521"/>
                    <Interval closure="openClosed" leftMargin="0.01521" rightMargin="0.01656"/>
                    <Interval closure="openClosed" leftMargin="0.01656" rightMargin="0.01846"/>
                    <Interval closure="openClosed" leftMargin="0.01846" rightMargin="0.02234"/>
                    <Interval closure="openClosed" leftMargin="0.02234" rightMargin="INF"/>
                </ContStats>
            </UnivariateStats>
            <UnivariateStats field="std_symmetry">
                <Counts totalFreq="451.0" missingFreq="0.0" invalidFreq="0.0" cardinality="404"/>
                <NumericInfo minimum="0.009539" maximum="0.07895" mean="0.020419148558758322" standardDeviation="0.008148082918773855" median="0.02669" interQuartileRange="-0.0029899999999999996">
                    <Quantile quantileLimit="0.0" quantileValue="0.009539"/>
                    <Quantile quantileLimit="10.0" quantileValue="0.01302"/>
                    <Quantile quantileLimit="20.0" quantileValue="0.01445"/>
                    <Quantile quantileLimit="30.0" quantileValue="0.0156"/>
                    <Quantile quantileLimit="40.0" quantileValue="0.01717"/>
                    <Quantile quantileLimit="50.0" quantileValue="0.01868"/>
                    <Quantile quantileLimit="60.0" quantileValue="0.02008"/>
                    <Quantile quantileLimit="70.0" quantileValue="0.0219"/>
                    <Quantile quantileLimit="80.0" quantileValue="0.0256"/>
                    <Quantile quantileLimit="90.0" quantileValue="0.0297"/>
                    <Quantile quantileLimit="100.0" quantileValue="0.07895"/>
                </NumericInfo>
                <ContStats totalValuesSum="9.209036000000003" totalSquaresSum="0.21791573902999997">
                    <Extension name="BinCountPos" value="[17, 17, 17, 17, 17, 17, 17, 17, 17, 13]"/>
                    <Extension name="BinWeightedCountPos" value="[17.0, 17.0, 17.0, 17.0, 17.0, 17.0, 17.0, 17.0, 17.0, 13.0]"/>
                    <Extension name="BinCountNeg" value="[20, 20, 17, 24, 23, 30, 41, 36, 44, 30]"/>
                    <Extension name="BinPosRate" value="[0.4594594594594595, 0.4594594594594595, 0.5, 0.4146341463414634, 0.425, 0.3617021276595745, 0.29310344827586204, 0.32075471698113206, 0.2786885245901639, 0.3023255813953488]"/>
                    <Extension name="BinWeightedCountNeg" value="[20.0, 20.0, 17.0, 24.0, 23.0, 30.0, 41.0, 36.0, 44.0, 30.0]"/>
                    <Extension name="KS" value="14.713591206932986"/>
                    <Extension name="BinWOE" value="[0.37798246196580304, 0.37798246196580304, 0.5405013912121073, 0.19566090540934836, 0.23822051977651387, -0.02748264566736136, -0.3398573304546359, -0.20980420230298286, -0.4104748976211947, -0.29574663196158824]"/>
                    <Extension name="IV" value="0.10469860496255702"/>
                    <Interval closure="openClosed" leftMargin="-INF" rightMargin="0.01275"/>
                    <Interval closure="openClosed" leftMargin="0.01275" rightMargin="0.01389"/>
                    <Interval closure="openClosed" leftMargin="0.01389" rightMargin="0.01487"/>
                    <Interval closure="openClosed" leftMargin="0.01487" rightMargin="0.01601"/>
                    <Interval closure="openClosed" leftMargin="0.01601" rightMargin="0.01745"/>
                    <Interval closure="openClosed" leftMargin="0.01745" rightMargin="0.01897"/>
                    <Interval closure="openClosed" leftMargin="0.01897" rightMargin="0.02094"/>
                    <Interval closure="openClosed" leftMargin="0.02094" rightMargin="0.02401"/>
                    <Interval closure="openClosed" leftMargin="0.02401" rightMargin="0.03004"/>
                    <Interval closure="openClosed" leftMargin="0.03004" rightMargin="INF"/>
                </ContStats>
            </UnivariateStats>
            <UnivariateStats field="std_fractal_dimension">
                <Counts totalFreq="451.0" missingFreq="0.0" invalidFreq="0.0" cardinality="433"/>
                <NumericInfo minimum="8.948E-4" maximum="0.02984" mean="0.003746687361419068" standardDeviation="0.0025630236748366646" median="0.001906" interQuartileRange="0.001523">
                    <Quantile quantileLimit="0.0" quantileValue="8.948E-4"/>
                    <Quantile quantileLimit="10.0" quantileValue="0.001706"/>
                    <Quantile quantileLimit="20.0" quantileValue="0.002052"/>
                    <Quantile quantileLimit="30.0" quantileValue="0.002379"/>
                    <Quantile quantileLimit="40.0" quantileValue="0.002759"/>
                    <Quantile quantileLimit="50.0" quantileValue="0.003187"/>
                    <Quantile quantileLimit="60.0" quantileValue="0.003696"/>
                    <Quantile quantileLimit="70.0" quantileValue="0.004168"/>
                    <Quantile quantileLimit="80.0" quantileValue="0.004787"/>
                    <Quantile quantileLimit="90.0" quantileValue="0.006113"/>
                    <Quantile quantileLimit="100.0" quantileValue="0.02984"/>
                </NumericInfo>
                <ContStats totalValuesSum="1.6897559999999998" totalSquaresSum="0.009286078110079997">
                    <Extension name="BinCountPos" value="[17, 17, 17, 17, 17, 17, 17, 17, 17, 13]"/>
                    <Extension name="BinWeightedCountPos" value="[17.0, 17.0, 17.0, 17.0, 17.0, 17.0, 17.0, 17.0, 17.0, 13.0]"/>
                    <Extension name="BinCountNeg" value="[65, 59, 24, 29, 24, 18, 7, 25, 10, 24]"/>
                    <Extension name="BinPosRate" value="[0.2073170731707317, 0.2236842105263158, 0.4146341463414634, 0.3695652173913043, 0.4146341463414634, 0.4857142857142857, 0.7083333333333334, 0.40476190476190477, 0.6296296296296297, 0.35135135135135137]"/>
                    <Extension name="BinWeightedCountNeg" value="[65.0, 59.0, 24.0, 29.0, 24.0, 18.0, 7.0, 25.0, 10.0, 24.0]"/>
                    <Extension name="KS" value="23.02684421898119"/>
                    <Extension name="BinWOE" value="[-0.8006725333893048, -0.7038227074439765, 0.19566090540934836, 0.006418905975561349, 0.19566090540934836, 0.483342977465296, 1.427804583818052, 0.1548389109365933, 1.0711296411007483, -0.07260308088487845]"/>
                    <Extension name="IV" value="0.3863016963912161"/>
                    <Interval closure="openClosed" leftMargin="-INF" rightMargin="0.001982"/>
                    <Interval closure="openClosed" leftMargin="0.001982" rightMargin="0.002585"/>
                    <Interval closure="openClosed" leftMargin="0.002585" rightMargin="0.002893"/>
                    <Interval closure="openClosed" leftMargin="0.002893" rightMargin="0.003408"/>
                    <Interval closure="openClosed" leftMargin="0.003408" rightMargin="0.003806"/>
                    <Interval closure="openClosed" leftMargin="0.003806" rightMargin="0.004237"/>
                    <Interval closure="openClosed" leftMargin="0.004237" rightMargin="0.00459"/>
                    <Interval closure="openClosed" leftMargin="0.00459" rightMargin="0.005667"/>
                    <Interval closure="openClosed" leftMargin="0.005667" rightMargin="0.006517"/>
                    <Interval closure="openClosed" leftMargin="0.006517" rightMargin="INF"/>
                </ContStats>
            </UnivariateStats>
            <UnivariateStats field="worst_radius">
                <Counts totalFreq="451.0" missingFreq="0.0" invalidFreq="0.0" cardinality="377"/>
                <NumericInfo minimum="7.93" maximum="33.13" mean="16.148161862527715" standardDeviation="4.777430874477324" median="10.42" interQuartileRange="-1.8000000000000007">
                    <Quantile quantileLimit="0.0" quantileValue="7.93"/>
                    <Quantile quantileLimit="10.0" quantileValue="11.16"/>
                    <Quantile quantileLimit="20.0" quantileValue="12.4"/>
                    <Quantile quantileLimit="30.0" quantileValue="13.25"/>
                    <Quantile quantileLimit="40.0" quantileValue="13.8"/>
                    <Quantile quantileLimit="50.0" quantileValue="14.91"/>
                    <Quantile quantileLimit="60.0" quantileValue="15.85"/>
                    <Quantile quantileLimit="70.0" quantileValue="17.31"/>
                    <Quantile quantileLimit="80.0" quantileValue="20.19"/>
                    <Quantile quantileLimit="90.0" quantileValue="23.68"/>
                    <Quantile quantileLimit="100.0" quantileValue="33.13"/>
                </NumericInfo>
                <ContStats totalValuesSum="7282.821" totalSquaresSum="127874.90291500009">
                    <Extension name="BinCountPos" value="[17, 17, 17, 17, 17, 17, 17, 17, 17, 13]"/>
                    <Extension name="BinWeightedCountPos" value="[17.0, 17.0, 17.0, 17.0, 17.0, 17.0, 17.0, 17.0, 17.0, 13.0]"/>
                    <Extension name="BinCountNeg" value="[258, 19, 5, 2, 1, 0, 0, 0, 0, 0]"/>
                    <Extension name="BinPosRate" value="[0.06181818181818182, 0.4722222222222222, 0.7727272727272727, 0.8947368421052632, 0.9444444444444444, 1.0, 1.0, 1.0, 1.0, 1.0]"/>
                    <Extension name="BinWeightedCountNeg" value="[258.0, 19.0, 5.0, 2.0, 1.0, 0.0, 0.0, 0.0, 0.0, 0.0]"/>
                    <Extension name="KS" value="80.285351934052"/>
                    <Extension name="BinWOE" value="[-2.1792448480872886, 0.42927575627835346, 1.7642768188106936, 2.6805675421348485, 3.373714708444794, 20.7470764866166, 20.7470764866166, 20.7470764866166, 20.7470764866166, 20.478812500322373]"/>
                    <Extension name="IV" value="12.606617815664404"/>
                    <Interval closure="openClosed" leftMargin="-INF" rightMargin="16.08"/>
                    <Interval closure="openClosed" leftMargin="16.08" rightMargin="17.09"/>
                    <Interval closure="openClosed" leftMargin="17.09" rightMargin="18.07"/>
                    <Interval closure="openClosed" leftMargin="18.07" rightMargin="19.56"/>
                    <Interval closure="openClosed" leftMargin="19.56" rightMargin="20.6"/>
                    <Interval closure="openClosed" leftMargin="20.6" rightMargin="22.39"/>
                    <Interval closure="openClosed" leftMargin="22.39" rightMargin="23.37"/>
                    <Interval closure="openClosed" leftMargin="23.37" rightMargin="24.86"/>
                    <Interval closure="openClosed" leftMargin="24.86" rightMargin="27.32"/>
                    <Interval closure="openClosed" leftMargin="27.32" rightMargin="INF"/>
                </ContStats>
            </UnivariateStats>
            <UnivariateStats field="worst_texture">
                <Counts totalFreq="451.0" missingFreq="0.0" invalidFreq="0.0" cardinality="412"/>
                <NumericInfo minimum="12.02" maximum="49.54" mean="25.76268292682924" standardDeviation="6.2971851656398306" median="23.58" interQuartileRange="7.759999999999998">
                    <Quantile quantileLimit="0.0" quantileValue="12.02"/>
                    <Quantile quantileLimit="10.0" quantileValue="17.93"/>
                    <Quantile quantileLimit="20.0" quantileValue="20.21"/>
                    <Quantile quantileLimit="30.0" quantileValue="22.02"/>
                    <Quantile quantileLimit="40.0" quantileValue="23.4"/>
                    <Quantile quantileLimit="50.0" quantileValue="25.41"/>
                    <Quantile quantileLimit="60.0" quantileValue="26.58"/>
                    <Quantile quantileLimit="70.0" quantileValue="28.26"/>
                    <Quantile quantileLimit="80.0" quantileValue="30.9"/>
                    <Quantile quantileLimit="90.0" quantileValue="34.24"/>
                    <Quantile quantileLimit="100.0" quantileValue="49.54"/>
                </NumericInfo>
                <ContStats totalValuesSum="11618.969999999987" totalSquaresSum="317180.38350000023">
                    <Extension name="BinCountPos" value="[17, 17, 17, 17, 18, 17, 17, 17, 17, 12]"/>
                    <Extension name="BinWeightedCountPos" value="[17.0, 17.0, 17.0, 17.0, 18.0, 17.0, 17.0, 17.0, 17.0, 12.0]"/>
                    <Extension name="BinCountNeg" value="[144, 39, 26, 21, 19, 6, 10, 3, 10, 7]"/>
                    <Extension name="BinPosRate" value="[0.10559006211180125, 0.30357142857142855, 0.3953488372093023, 0.4473684210526316, 0.4864864864864865, 0.7391304347826086, 0.6296296296296297, 0.85, 0.6296296296296297, 0.631578947368421]"/>
                    <Extension name="BinWeightedCountNeg" value="[144.0, 39.0, 26.0, 21.0, 19.0, 6.0, 10.0, 3.0, 10.0, 7.0]"/>
                    <Extension name="KS" value="43.7285986049461"/>
                    <Extension name="BinWOE" value="[-1.5960985628291233, -0.28984690991562195, 0.11561819782715807, 0.3291922978642282, 0.4864341700640538, 1.5819552629667388, 1.0711296411007483, 2.2751024387766843, 1.0711296411007483, 1.079497889956699]"/>
                    <Extension name="IV" value="1.2175301112357355"/>
                    <Interval closure="openClosed" leftMargin="-INF" rightMargin="22.91"/>
                    <Interval closure="openClosed" leftMargin="22.91" rightMargin="25.16"/>
                    <Interval closure="openClosed" leftMargin="25.16" rightMargin="26.37"/>
                    <Interval closure="openClosed" leftMargin="26.37" rightMargin="27.68"/>
                    <Interval closure="openClosed" leftMargin="27.68" rightMargin="29.43"/>
                    <Interval closure="openClosed" leftMargin="29.43" rightMargin="30.88"/>
                    <Interval closure="openClosed" leftMargin="30.88" rightMargin="32.72"/>
                    <Interval closure="openClosed" leftMargin="32.72" rightMargin="34.24"/>
                    <Interval closure="openClosed" leftMargin="34.24" rightMargin="37.38"/>
                    <Interval closure="openClosed" leftMargin="37.38" rightMargin="INF"/>
                </ContStats>
            </UnivariateStats>
            <UnivariateStats field="worst_perimeter">
                <Counts totalFreq="451.0" missingFreq="0.0" invalidFreq="0.0" cardinality="413"/>
                <NumericInfo minimum="50.41" maximum="229.3" mean="106.32332594235037" standardDeviation="32.97485678553961" median="82.14" interQuartileRange="3.8599999999999994">
                    <Quantile quantileLimit="0.0" quantileValue="50.41"/>
                    <Quantile quantileLimit="10.0" quantileValue="71.94"/>
                    <Quantile quantileLimit="20.0" quantileValue="80.78"/>
                    <Quantile quantileLimit="30.0" quantileValue="85.56"/>
                    <Quantile quantileLimit="40.0" quantileValue="89.69"/>
                    <Quantile quantileLimit="50.0" quantileValue="97.19"/>
                    <Quantile quantileLimit="60.0" quantileValue="104.6"/>
                    <Quantile quantileLimit="70.0" quantileValue="114.6"/>
                    <Quantile quantileLimit="80.0" quantileValue="132.8"/>
                    <Quantile quantileLimit="90.0" quantileValue="158.3"/>
                    <Quantile quantileLimit="100.0" quantileValue="229.3"/>
                </NumericInfo>
                <ContStats totalValuesSum="47951.820000000014" totalSquaresSum="5587700.518399998">
                    <Extension name="BinCountPos" value="[18, 17, 17, 17, 17, 17, 17, 17, 18, 11]"/>
                    <Extension name="BinWeightedCountPos" value="[18.0, 17.0, 17.0, 17.0, 17.0, 17.0, 17.0, 17.0, 18.0, 11.0]"/>
                    <Extension name="BinCountNeg" value="[264, 13, 7, 1, 0, 0, 0, 0, 0, 0]"/>
                    <Extension name="BinPosRate" value="[0.06382978723404255, 0.5666666666666667, 0.7083333333333334, 0.9444444444444444, 1.0, 1.0, 1.0, 1.0, 1.0, 1.0]"/>
                    <Extension name="BinWeightedCountNeg" value="[264.0, 13.0, 7.0, 1.0, 0.0, 0.0, 0.0, 0.0, 0.0, 0.0]"/>
                    <Extension name="KS" value="81.78820545339252"/>
                    <Extension name="BinWOE" value="[-2.1450759525237766, 0.8087653772909493, 1.427804583818052, 3.373714708444794, 20.7470764866166, 20.7470764866166, 20.7470764866166, 20.7470764866166, 20.8042349004023, 20.311758415891376]"/>
                    <Extension name="IV" value="14.345812024144237"/>
                    <Interval closure="openClosed" leftMargin="-INF" rightMargin="107.3"/>
                    <Interval closure="openClosed" leftMargin="107.3" rightMargin="114.1"/>
                    <Interval closure="openClosed" leftMargin="114.1" rightMargin="123.4"/>
                    <Interval closure="openClosed" leftMargin="123.4" rightMargin="129.7"/>
                    <Interval closure="openClosed" leftMargin="129.7" rightMargin="139.5"/>
                    <Interval closure="openClosed" leftMargin="139.5" rightMargin="148.7"/>
                    <Interval closure="openClosed" leftMargin="148.7" rightMargin="158.3"/>
                    <Interval closure="openClosed" leftMargin="158.3" rightMargin="165.3"/>
                    <Interval closure="openClosed" leftMargin="165.3" rightMargin="186.8"/>
                    <Interval closure="openClosed" leftMargin="186.8" rightMargin="INF"/>
                </ContStats>
            </UnivariateStats>
            <UnivariateStats field="worst_area">
                <Counts totalFreq="451.0" missingFreq="0.0" invalidFreq="0.0" cardinality="440"/>
                <NumericInfo minimum="185.2" maximum="3432.0" mean="867.2305986696235" standardDeviation="556.1797770060779" median="766.9" interQuartileRange="1068.8">
                    <Quantile quantileLimit="0.0" quantileValue="185.2"/>
                    <Quantile quantileLimit="10.0" quantileValue="380.2"/>
                    <Quantile quantileLimit="20.0" quantileValue="472.4"/>
                    <Quantile quantileLimit="30.0" quantileValue="533.7"/>
                    <Quantile quantileLimit="40.0" quantileValue="583.0"/>
                    <Quantile quantileLimit="50.0" quantileValue="675.2"/>
                    <Quantile quantileLimit="60.0" quantileValue="766.9"/>
                    <Quantile quantileLimit="70.0" quantileValue="907.2"/>
                    <Quantile quantileLimit="80.0" quantileValue="1260.0"/>
                    <Quantile quantileLimit="90.0" quantileValue="1671.0"/>
                    <Quantile quantileLimit="100.0" quantileValue="3432.0"/>
                </NumericInfo>
                <ContStats totalValuesSum="391121.00000000023" totalSquaresSum="4.7839327393999976E8">
                    <Extension name="BinCountPos" value="[17, 17, 17, 17, 17, 17, 17, 17, 17, 13]"/>
                    <Extension name="BinWeightedCountPos" value="[17.0, 17.0, 17.0, 17.0, 17.0, 17.0, 17.0, 17.0, 17.0, 13.0]"/>
                    <Extension name="BinCountNeg" value="[259, 19, 4, 2, 1, 0, 0, 0, 0, 0]"/>
                    <Extension name="BinPosRate" value="[0.06159420289855073, 0.4722222222222222, 0.8095238095238095, 0.8947368421052632, 0.9444444444444444, 1.0, 1.0, 1.0, 1.0, 1.0]"/>
                    <Extension name="BinWeightedCountNeg" value="[259.0, 19.0, 4.0, 2.0, 1.0, 0.0, 0.0, 0.0, 0.0, 0.0]"/>
                    <Extension name="KS" value="80.63622912703445"/>
                    <Extension name="BinWOE" value="[-2.1831133248647827, 0.42927575627835346, 1.9874203686999032, 2.6805675421348485, 3.373714708444794, 20.7470764866166, 20.7470764866166, 20.7470764866166, 20.7470764866166, 20.478812500322373]"/>
                    <Extension name="IV" value="12.643294338585065"/>
                    <Interval closure="openClosed" leftMargin="-INF" rightMargin="787.9"/>
                    <Interval closure="openClosed" leftMargin="787.9" rightMargin="897.0"/>
                    <Interval closure="openClosed" leftMargin="897.0" rightMargin="993.6"/>
                    <Interval closure="openClosed" leftMargin="993.6" rightMargin="1175.0"/>
                    <Interval closure="openClosed" leftMargin="1175.0" rightMargin="1315.0"/>
                    <Interval closure="openClosed" leftMargin="1315.0" rightMargin="1538.0"/>
                    <Interval closure="openClosed" leftMargin="1538.0" rightMargin="1670.0"/>
                    <Interval closure="openClosed" leftMargin="1670.0" rightMargin="1872.0"/>
                    <Interval closure="openClosed" leftMargin="1872.0" rightMargin="2227.0"/>
                    <Interval closure="openClosed" leftMargin="2227.0" rightMargin="INF"/>
                </ContStats>
            </UnivariateStats>
            <UnivariateStats field="worst_smoothness">
                <Counts totalFreq="451.0" missingFreq="0.0" invalidFreq="0.0" cardinality="340"/>
                <NumericInfo minimum="0.07117" maximum="0.2226" mean="0.1332664523281596" standardDeviation="0.022776339376336635" median="0.1368" interQuartileRange="0.006099999999999994">
                    <Quantile quantileLimit="0.0" quantileValue="0.07117"/>
                    <Quantile quantileLimit="10.0" quantileValue="0.1038"/>
                    <Quantile quantileLimit="20.0" quantileValue="0.1136"/>
                    <Quantile quantileLimit="30.0" quantileValue="0.1213"/>
                    <Quantile quantileLimit="40.0" quantileValue="0.1276"/>
                    <Quantile quantileLimit="50.0" quantileValue="0.1335"/>
                    <Quantile quantileLimit="60.0" quantileValue="0.1389"/>
                    <Quantile quantileLimit="70.0" quantileValue="0.1428"/>
                    <Quantile quantileLimit="80.0" quantileValue="0.1504"/>
                    <Quantile quantileLimit="90.0" quantileValue="0.1622"/>
                    <Quantile quantileLimit="100.0" quantileValue="0.2226"/>
                </NumericInfo>
                <ContStats totalValuesSum="60.10316999999997" totalSquaresSum="8.243177975499995">
                    <Extension name="BinCountPos" value="[17, 17, 17, 17, 17, 17, 17, 17, 17, 13]"/>
                    <Extension name="BinWeightedCountPos" value="[17.0, 17.0, 17.0, 17.0, 17.0, 17.0, 17.0, 17.0, 17.0, 13.0]"/>
                    <Extension name="BinCountNeg" value="[112, 40, 54, 16, 19, 16, 12, 10, 4, 2]"/>
                    <Extension name="BinPosRate" value="[0.13178294573643412, 0.2982456140350877, 0.23943661971830985, 0.5151515151515151, 0.4722222222222222, 0.5151515151515151, 0.5862068965517241, 0.6296296296296297, 0.8095238095238095, 0.8666666666666667]"/>
                    <Extension name="BinWeightedCountNeg" value="[112.0, 40.0, 54.0, 16.0, 19.0, 16.0, 12.0, 10.0, 4.0, 2.0]"/>
                    <Extension name="KS" value="41.55781018812091"/>
                    <Extension name="BinWOE" value="[-1.3447841346047649, -0.3151647178816424, -0.6152693101472584, 0.6011260129237626, 0.42927575627835346, 0.6011260129237626, 0.8888080847817935, 1.0711296411007483, 1.9874203686999032, 2.412303555840622]"/>
                    <Extension name="IV" value="1.0005880209707418"/>
                    <Interval closure="openClosed" leftMargin="-INF" rightMargin="0.1201"/>
                    <Interval closure="openClosed" leftMargin="0.1201" rightMargin="0.1281"/>
                    <Interval closure="openClosed" leftMargin="0.1281" rightMargin="0.1369"/>
                    <Interval closure="openClosed" leftMargin="0.1369" rightMargin="0.141"/>
                    <Interval closure="openClosed" leftMargin="0.141" rightMargin="0.145"/>
                    <Interval closure="openClosed" leftMargin="0.145" rightMargin="0.1504"/>
                    <Interval closure="openClosed" leftMargin="0.1504" rightMargin="0.1552"/>
                    <Interval closure="openClosed" leftMargin="0.1552" rightMargin="0.1648"/>
                    <Interval closure="openClosed" leftMargin="0.1648" rightMargin="0.1791"/>
                    <Interval closure="openClosed" leftMargin="0.1791" rightMargin="INF"/>
                </ContStats>
            </UnivariateStats>
            <UnivariateStats field="worst_compactness">
                <Counts totalFreq="451.0" missingFreq="0.0" invalidFreq="0.0" cardinality="426"/>
                <NumericInfo minimum="0.02729" maximum="1.058" mean="0.25300813747228373" standardDeviation="0.15982987324885647" median="0.161" interQuartileRange="0.6495">
                    <Quantile quantileLimit="0.0" quantileValue="0.02729"/>
                    <Quantile quantileLimit="10.0" quantileValue="0.08862"/>
                    <Quantile quantileLimit="20.0" quantileValue="0.1247"/>
                    <Quantile quantileLimit="30.0" quantileValue="0.1575"/>
                    <Quantile quantileLimit="40.0" quantileValue="0.1808"/>
                    <Quantile quantileLimit="50.0" quantileValue="0.2156"/>
                    <Quantile quantileLimit="60.0" quantileValue="0.251"/>
                    <Quantile quantileLimit="70.0" quantileValue="0.3046"/>
                    <Quantile quantileLimit="80.0" quantileValue="0.3682"/>
                    <Quantile quantileLimit="90.0" quantileValue="0.448"/>
                    <Quantile quantileLimit="100.0" quantileValue="1.058"/>
                </NumericInfo>
                <ContStats totalValuesSum="114.10666999999997" totalSquaresSum="40.36542982209999">
                    <Extension name="BinCountPos" value="[17, 17, 17, 17, 17, 17, 17, 17, 17, 13]"/>
                    <Extension name="BinWeightedCountPos" value="[17.0, 17.0, 17.0, 17.0, 17.0, 17.0, 17.0, 17.0, 17.0, 13.0]"/>
                    <Extension name="BinCountNeg" value="[193, 27, 31, 13, 5, 7, 3, 5, 1, 0]"/>
                    <Extension name="BinPosRate" value="[0.08095238095238096, 0.38636363636363635, 0.3541666666666667, 0.5666666666666667, 0.7727272727272727, 0.7083333333333334, 0.85, 0.7727272727272727, 0.9444444444444444, 1.0]"/>
                    <Extension name="BinWeightedCountNeg" value="[193.0, 27.0, 31.0, 13.0, 5.0, 7.0, 3.0, 5.0, 1.0, 0.0]"/>
                    <Extension name="KS" value="57.478334390192344"/>
                    <Extension name="BinWOE" value="[-1.88897545210776, 0.07787786988490929, -0.060272468459707164, 0.8087653772909493, 1.7642768188106936, 1.427804583818052, 2.2751024387766843, 1.7642768188106936, 3.373714708444794, 20.478812500322373]"/>
                    <Extension name="IV" value="3.6897421811634596"/>
                    <Interval closure="openClosed" leftMargin="-INF" rightMargin="0.2049"/>
                    <Interval closure="openClosed" leftMargin="0.2049" rightMargin="0.236"/>
                    <Interval closure="openClosed" leftMargin="0.236" rightMargin="0.2867"/>
                    <Interval closure="openClosed" leftMargin="0.2867" rightMargin="0.3253"/>
                    <Interval closure="openClosed" leftMargin="0.3253" rightMargin="0.3593"/>
                    <Interval closure="openClosed" leftMargin="0.3593" rightMargin="0.3966"/>
                    <Interval closure="openClosed" leftMargin="0.3966" rightMargin="0.4257"/>
                    <Interval closure="openClosed" leftMargin="0.4257" rightMargin="0.5172"/>
                    <Interval closure="openClosed" leftMargin="0.5172" rightMargin="0.6577"/>
                    <Interval closure="openClosed" leftMargin="0.6577" rightMargin="INF"/>
                </ContStats>
            </UnivariateStats>
            <UnivariateStats field="worst_concavity">
                <Counts totalFreq="451.0" missingFreq="0.0" invalidFreq="0.0" cardinality="431"/>
                <NumericInfo minimum="0.0" maximum="1.252" mean="0.2684768957871396" standardDeviation="0.21004311284302318" median="0.08434" interQuartileRange="-0.0716">
                    <Quantile quantileLimit="0.0" quantileValue="0.0"/>
                    <Quantile quantileLimit="10.0" quantileValue="0.03986"/>
                    <Quantile quantileLimit="20.0" quantileValue="0.08539"/>
                    <Quantile quantileLimit="30.0" quantileValue="0.1277"/>
                    <Quantile quantileLimit="40.0" quantileValue="0.1759"/>
                    <Quantile quantileLimit="50.0" quantileValue="0.2298"/>
                    <Quantile quantileLimit="60.0" quantileValue="0.2846"/>
                    <Quantile quantileLimit="70.0" quantileValue="0.3476"/>
                    <Quantile quantileLimit="80.0" quantileValue="0.4146"/>
                    <Quantile quantileLimit="90.0" quantileValue="0.5553"/>
                    <Quantile quantileLimit="100.0" quantileValue="1.252"/>
                </NumericInfo>
                <ContStats totalValuesSum="121.08307999999998" totalSquaresSum="52.36115761450002">
                    <Extension name="BinCountPos" value="[17, 17, 17, 18, 17, 17, 17, 17, 17, 12]"/>
                    <Extension name="BinWeightedCountPos" value="[17.0, 17.0, 17.0, 18.0, 17.0, 17.0, 17.0, 17.0, 17.0, 12.0]"/>
                    <Extension name="BinCountNeg" value="[241, 14, 12, 6, 1, 2, 3, 2, 1, 3]"/>
                    <Extension name="BinPosRate" value="[0.06589147286821706, 0.5483870967741935, 0.5862068965517241, 0.75, 0.9444444444444444, 0.8947368421052632, 0.85, 0.8947368421052632, 0.9444444444444444, 0.8]"/>
                    <Extension name="BinWeightedCountNeg" value="[241.0, 14.0, 12.0, 6.0, 1.0, 2.0, 3.0, 2.0, 1.0, 3.0]"/>
                    <Extension name="KS" value="74.32043965335025"/>
                    <Extension name="BinWOE" value="[-2.1110821966641184, 0.734657405293821, 0.8888080847817935, 1.6391136767524392, 3.373714708444794, 2.6805675421348485, 2.2751024387766843, 2.6805675421348485, 3.373714708444794, 1.9267957449153312]"/>
                    <Extension name="IV" value="3.3117245864758025"/>
                    <Interval closure="openClosed" leftMargin="-INF" rightMargin="0.2654"/>
                    <Interval closure="openClosed" leftMargin="0.2654" rightMargin="0.3162"/>
                    <Interval closure="openClosed" leftMargin="0.3162" rightMargin="0.3533"/>
                    <Interval closure="openClosed" leftMargin="0.3533" rightMargin="0.3861"/>
                    <Interval closure="openClosed" leftMargin="0.3861" rightMargin="0.4146"/>
                    <Interval closure="openClosed" leftMargin="0.4146" rightMargin="0.4658"/>
                    <Interval closure="openClosed" leftMargin="0.4658" rightMargin="0.534"/>
                    <Interval closure="openClosed" leftMargin="0.534" rightMargin="0.6181"/>
                    <Interval closure="openClosed" leftMargin="0.6181" rightMargin="0.7119"/>
                    <Interval closure="openClosed" leftMargin="0.7119" rightMargin="INF"/>
                </ContStats>
            </UnivariateStats>
            <UnivariateStats field="worst_concave_points">
                <Counts totalFreq="451.0" missingFreq="0.0" invalidFreq="0.0" cardinality="399"/>
                <NumericInfo minimum="0.0" maximum="0.2903" mean="0.11346106873614194" standardDeviation="0.06581915882052823" median="0.1765" interQuartileRange="0.12808999999999998">
                    <Quantile quantileLimit="0.0" quantileValue="0.0"/>
                    <Quantile quantileLimit="10.0" quantileValue="0.03612"/>
                    <Quantile quantileLimit="20.0" quantileValue="0.0569"/>
                    <Quantile quantileLimit="30.0" quantileValue="0.06918"/>
                    <Quantile quantileLimit="40.0" quantileValue="0.08263"/>
                    <Quantile quantileLimit="50.0" quantileValue="0.09861"/>
                    <Quantile quantileLimit="60.0" quantileValue="0.1218"/>
                    <Quantile quantileLimit="70.0" quantileValue="0.1515"/>
                    <Quantile quantileLimit="80.0" quantileValue="0.1772"/>
                    <Quantile quantileLimit="90.0" quantileValue="0.2066"/>
                    <Quantile quantileLimit="100.0" quantileValue="0.2903"/>
                </NumericInfo>
                <ContStats totalValuesSum="51.17094200000001" totalSquaresSum="7.755381518083997">
                    <Extension name="BinCountPos" value="[17, 17, 17, 17, 19, 17, 17, 17, 17, 11]"/>
                    <Extension name="BinWeightedCountPos" value="[17.0, 17.0, 17.0, 17.0, 19.0, 17.0, 17.0, 17.0, 17.0, 11.0]"/>
                    <Extension name="BinCountNeg" value="[266, 14, 3, 1, 1, 0, 0, 0, 0, 0]"/>
                    <Extension name="BinPosRate" value="[0.06007067137809187, 0.5483870967741935, 0.85, 0.9444444444444444, 0.95, 1.0, 1.0, 1.0, 1.0, 1.0]"/>
                    <Extension name="BinWeightedCountNeg" value="[266.0, 14.0, 3.0, 1.0, 1.0, 0.0, 0.0, 0.0, 0.0, 0.0]"/>
                    <Extension name="KS" value="83.09236947791166"/>
                    <Extension name="BinWOE" value="[-2.209781571944048, 0.734657405293821, 2.2751024387766843, 3.373714708444794, 3.4849403434522324, 20.7470764866166, 20.7470764866166, 20.7470764866166, 20.7470764866166, 20.311758415891376]"/>
                    <Extension name="IV" value="12.649427878309947"/>
                    <Interval closure="openClosed" leftMargin="-INF" rightMargin="0.1329"/>
                    <Interval closure="openClosed" leftMargin="0.1329" rightMargin="0.1514"/>
                    <Interval closure="openClosed" leftMargin="0.1514" rightMargin="0.1609"/>
                    <Interval closure="openClosed" leftMargin="0.1609" rightMargin="0.1721"/>
                    <Interval closure="openClosed" leftMargin="0.1721" rightMargin="0.1834"/>
                    <Interval closure="openClosed" leftMargin="0.1834" rightMargin="0.198"/>
                    <Interval closure="openClosed" leftMargin="0.198" rightMargin="0.2073"/>
                    <Interval closure="openClosed" leftMargin="0.2073" rightMargin="0.2248"/>
                    <Interval closure="openClosed" leftMargin="0.2248" rightMargin="0.2542"/>
                    <Interval closure="openClosed" leftMargin="0.2542" rightMargin="INF"/>
                </ContStats>
            </UnivariateStats>
            <UnivariateStats field="worst_symmetry">
                <Counts totalFreq="451.0" missingFreq="0.0" invalidFreq="0.0" cardinality="405"/>
